{"layers":[{"0":{},"1":{},"2":{},"3":{},"4":{},"5":{},"6":{}},{"0":{"bias":-0.06762104704917353,"weights":{"0":-0.12556905704925309,"1":-0.19303501807204304,"2":-0.21913731898929015,"3":-0.30364101709628266,"4":-0.23815160397818225,"5":-0.04530015925759358,"6":-0.14483938308141103}},"1":{"bias":-0.16600128574421275,"weights":{"0":0.17896970865693473,"1":0.3642933440967966,"2":0.16068213533382597,"3":0.18090412608905526,"4":0.21324112511995547,"5":0.03271789022251069,"6":0.233294203679805}},"2":{"bias":0.1915890019267449,"weights":{"0":-0.19074559193857737,"1":-0.09023460423697109,"2":-0.04742963476031525,"3":-0.11336738549406869,"4":-0.12431204491430496,"5":-0.29126064254162554,"6":-0.16131381276477885}},"3":{"bias":0.13131085832016504,"weights":{"0":0.07491854126662273,"1":-0.1865708908724388,"2":0.05098084415869336,"3":0.08774217648638347,"4":0.17451451954508707,"5":-0.1963966609225717,"6":0.041778900922639334}},"4":{"bias":0.125744462514122,"weights":{"0":-0.4013851326344353,"1":-0.32911754281589706,"2":-0.16715830447627358,"3":-0.34359059181194335,"4":-0.020571699310720597,"5":-0.264283664033001,"6":-0.3601851847067557}},"5":{"bias":-0.012116913355853175,"weights":{"0":0.1670444033507889,"1":0.16869723305085255,"2":0.18438508410454227,"3":-0.040571410029567045,"4":-0.08380586581991607,"5":-0.10538985857711672,"6":-0.009320018357745206}},"6":{"bias":0.03279955997843277,"weights":{"0":0.035069319072750585,"1":0.02240312122238255,"2":0.05271501975302326,"3":-0.09291041144556403,"4":0.20208350788144352,"5":0.12240757227558037,"6":0.20617854934526675}},"7":{"bias":-0.03905016702824944,"weights":{"0":0.20248308129732084,"1":0.2988134273918954,"2":-0.0707883209874003,"3":0.15801072499052457,"4":0.1921641651601734,"5":-0.0457087354915988,"6":0.2908370286348818}},"8":{"bias":-0.12092105692112644,"weights":{"0":0.23619288716818518,"1":0.2252282831637295,"2":0.1046742002280437,"3":-0.033878001206471386,"4":-0.10852660875148809,"5":0.24015499912047059,"6":0.00290690487342904}},"9":{"bias":0.1688909849628223,"weights":{"0":-0.2516045565799153,"1":-0.09465883057328851,"2":-0.3122456511303062,"3":-0.10477018058961216,"4":-0.22194840995137555,"5":-0.01965178224195715,"6":-0.02255779736375718}},"10":{"bias":0.03484142972096376,"weights":{"0":-0.12091125867317461,"1":-0.24684153370042228,"2":0.027594488859435586,"3":-0.09976271524384094,"4":0.00758734460733812,"5":-0.27086616433833116,"6":-0.1632794099753135}},"11":{"bias":-0.0411528658297746,"weights":{"0":-0.28555809798829307,"1":-0.2618666847828206,"2":-0.2705587551544228,"3":-0.15160973950523926,"4":-0.2860778726332114,"5":0.03648816197431543,"6":-0.005146236379736203}},"12":{"bias":0.017926300253093507,"weights":{"0":-0.12498320554955036,"1":-0.32281276696852756,"2":-0.2581294661573979,"3":-0.04050997836219917,"4":-0.16018285064165438,"5":-0.0008919743636301575,"6":-0.19143283314612836}},"13":{"bias":-0.08530149580839208,"weights":{"0":0.31220128780449885,"1":0.20731277758352257,"2":0.29985407461547053,"3":0.19187203353308196,"4":0.23061072454344608,"5":0.14432790185258512,"6":0.3241504050142778}},"14":{"bias":0.0811028194936454,"weights":{"0":-0.2961208016898933,"1":-0.0627858071797445,"2":-0.07968255485916674,"3":-0.3477020983467948,"4":-0.026924587474694405,"5":-0.31311898181769166,"6":-0.28237228278482}},"15":{"bias":0.03341587421461248,"weights":{"0":-0.2855340249806311,"1":-0.09925079878078981,"2":-0.41335532068936687,"3":-0.2965462932466475,"4":-0.38677797497382793,"5":-0.024282975649357642,"6":-0.10189488158619431}},"16":{"bias":-0.14472697916640753,"weights":{"0":0.03750389287188271,"1":0.31937949850097563,"2":0.11441795347387532,"3":0.34215967696913246,"4":0.2892471605959945,"5":-0.012545612150420308,"6":0.007128508301449354}},"17":{"bias":0.07786913915293014,"weights":{"0":-0.30142704579140556,"1":-0.3080770672958351,"2":-0.04668638417855243,"3":0.028652852789837348,"4":0.03817632897903018,"5":-0.12040117090606814,"6":-0.038178202647712475}},"18":{"bias":0.1727886948264139,"weights":{"0":-0.013703409154314807,"1":-0.22844526858838685,"2":-0.10241474938896955,"3":-0.031227465073234234,"4":-0.2458221645586543,"5":0.07143667431594906,"6":-0.005267924091522383}},"19":{"bias":0.013208480422851413,"weights":{"0":-0.0850871426434309,"1":0.0939141831119627,"2":0.062194381284090175,"3":0.12114887684129753,"4":0.08615262338723655,"5":0.0902950800447608,"6":0.10396293003987786}},"20":{"bias":0.14818506312242044,"weights":{"0":0.20827534504977177,"1":-0.07313307174067929,"2":-0.010338176018184079,"3":-0.045294725991897426,"4":0.01732168981781631,"5":-0.13527742414128394,"6":-0.06835439644643079}},"21":{"bias":-0.03061229617156594,"weights":{"0":0.0017069139583181852,"1":-0.05452389131601088,"2":-0.12472572167101634,"3":0.1206081373417702,"4":0.06424818177756343,"5":-0.17915606193040928,"6":-0.2110367509636601}},"22":{"bias":0.034314378480169626,"weights":{"0":-0.033092422986338535,"1":-0.24029456267333352,"2":-0.1125628168516189,"3":-0.04893718376750813,"4":-0.3374246870035348,"5":-0.25382419655498384,"6":-0.21316148932640744}},"23":{"bias":-0.24208871396707407,"weights":{"0":0.44215651428050845,"1":0.33152172767287236,"2":0.29072436335328894,"3":0.175956657953056,"4":0.42596474986738225,"5":0.2661329322287538,"6":0.12026154929309729}},"24":{"bias":-0.0241446369314461,"weights":{"0":-0.12633560886616782,"1":0.12619536038288562,"2":0.0694049253691155,"3":-0.22696424615014096,"4":-0.16795568444808667,"5":0.13186428773046543,"6":-0.07552942948649065}},"25":{"bias":0.30121559160783695,"weights":{"0":-0.29665815212678065,"1":-0.34368923782671806,"2":-0.19261713210589923,"3":-0.45150861498460154,"4":-0.3665427278999626,"5":-0.37964396342907913,"6":-0.28378076931566043}},"26":{"bias":0.05372585266915741,"weights":{"0":0.3196949515810241,"1":0.381706619087699,"2":0.15832649188573686,"3":0.12728638800933925,"4":0.06931750220870865,"5":0.15086199136619494,"6":0.3104487139998819}},"27":{"bias":0.1837991051488476,"weights":{"0":-0.014816755357146704,"1":0.05529057668371693,"2":-0.00793116324904319,"3":-0.01736861933891907,"4":0.020934236500542186,"5":0.0691659884724539,"6":-0.13518516811380912}},"28":{"bias":-0.24015486391897306,"weights":{"0":0.3317064590723469,"1":0.06120290166190293,"2":0.014554291308652437,"3":0.1470827794794337,"4":0.35019760305562175,"5":0.08345886950866072,"6":0.3431290602819323}},"29":{"bias":-0.13269208466700888,"weights":{"0":0.4681719815060983,"1":0.3077162266722514,"2":0.40134129877147273,"3":0.24381052457406077,"4":0.16229784031441638,"5":0.2402122126763499,"6":0.17755411894111844}},"30":{"bias":0.18808124860077427,"weights":{"0":-0.04482064531702292,"1":-0.401513529237775,"2":-0.3363483217935923,"3":-0.24707617006327545,"4":-0.18033680179438338,"5":-0.15644170553245804,"6":-0.20474537842428114}},"31":{"bias":-0.0808938235187393,"weights":{"0":-0.16028128718038517,"1":-0.26602455134947867,"2":-0.2939048353966471,"3":0.0018543247171620915,"4":-0.332346420336707,"5":0.06495189067107664,"6":-0.11858454750998097}},"32":{"bias":0.07005826101056611,"weights":{"0":-0.1919759697299349,"1":-0.20751235194228143,"2":-0.3975499593140289,"3":-0.32633544926518276,"4":-0.2359099966564361,"5":-0.3964568834510132,"6":-0.09463933039148284}},"33":{"bias":-0.3052705591466264,"weights":{"0":0.4163955498095713,"1":0.443571680845645,"2":0.3460894023355515,"3":0.08970751891142247,"4":0.25861811956411884,"5":0.2735700955810446,"6":0.11919733587630983}},"34":{"bias":-0.04090760094319946,"weights":{"0":0.36851007137335556,"1":0.3732273589792612,"2":0.02499547155392935,"3":0.2889602840858832,"4":0.16976374838418526,"5":0.2917218697188772,"6":0.1847725120490666}},"35":{"bias":0.18603064484813805,"weights":{"0":-0.09587723109586667,"1":-0.08121215247921773,"2":0.10655468636967484,"3":0.19472753939015208,"4":0.1102287959428635,"5":0.15952164562060442,"6":0.20889047393811327}},"36":{"bias":-0.1852054265749427,"weights":{"0":0.3459738585215608,"1":0.2771630713690136,"2":0.2904072046121027,"3":0.35449325218426986,"4":0.279684502372018,"5":0.1777352456722763,"6":0.16854510236201556}},"37":{"bias":-0.008639005546317101,"weights":{"0":-0.2731353045877704,"1":-0.0711804127423979,"2":-0.2585969139082018,"3":-0.1395752500594308,"4":-0.0404851941095664,"5":-0.112034014415205,"6":-0.2115766939637109}},"38":{"bias":0.04116439195935907,"weights":{"0":-0.08562933047973742,"1":-0.11631891992167694,"2":-0.011482361944282947,"3":-0.04404353373508511,"4":0.1093594775143465,"5":-0.07642366039798122,"6":-0.15145209698608353}},"39":{"bias":0.1346498501576943,"weights":{"0":0.03037360836233623,"1":0.05998415003112913,"2":0.339737636679122,"3":0.30146709576633646,"4":0.088229008978517,"5":-0.03776218234930908,"6":0.2636607187373642}}},{"0":{"bias":-0.22086754031429845,"weights":{"0":-0.006196652572348268,"1":-0.0840883489861201,"2":-0.17828778766483602,"3":-0.10203007961956333,"4":-0.04858549336382452,"5":0.05883713285337975,"6":0.119973389855601,"7":-0.09090602113218425,"8":0.10138056164825461,"9":0.05013864512985895,"10":0.06319216185661536,"11":-0.23819442612904015,"12":-0.1776509201099991,"13":0.046438014011001644,"14":-0.25638779620946717,"15":-0.30564255844321236,"16":0.2178945157799268,"17":-0.24701186292391306,"18":-0.19927616631059075,"19":0.09108765395516252,"20":0.04606674748506952,"21":0.08988078958852572,"22":-0.18951890089017362,"23":0.3390377967595139,"24":-0.1952511199672504,"25":-0.1708378722503856,"26":-0.012231239531764389,"27":-0.10469296797602311,"28":0.11744044499317224,"29":0.19844950285496643,"30":0.07262656365251531,"31":-0.22319276010923006,"32":-0.26620025002089437,"33":0.09921049019564374,"34":0.26753763840997624,"35":0.0758332462663607,"36":0.06813840433202048,"37":-0.1616953548714925,"38":0.10121918964248083,"39":0.001512184937177515}},"1":{"bias":-0.05453056750354979,"weights":{"0":-0.10266569095715843,"1":-0.06232005510852278,"2":-0.16595024067649863,"3":-0.06930753996201448,"4":-0.16061240177573663,"5":-0.16004573363971206,"6":0.11428393735142595,"7":0.24255787349216776,"8":-0.13308049750107917,"9":-0.09554485635377155,"10":-0.10089458918715916,"11":-0.01400941693616919,"12":-0.14231309055560057,"13":-0.03443507840085948,"14":-0.16531423450244484,"15":-0.10978154283293101,"16":0.16785407480095585,"17":0.15965172438524478,"18":-0.0956324756240588,"19":-0.014460803095524099,"20":-0.013402900544503741,"21":0.055350308941558485,"22":-0.14545376699880364,"23":0.17133371278063048,"24":0.07101179019176204,"25":0.052409047127844596,"26":0.2276136318635563,"27":0.1479557860639119,"28":0.1603953044634994,"29":0.027171886299715408,"30":0.07303971685976428,"31":-0.16254845214223754,"32":-0.15881874494345333,"33":0.22344637177294746,"34":0.07729290323359142,"35":-0.12610783105946938,"36":0.03832193366881195,"37":-0.062275688822530685,"38":0.08300771542911574,"39":0.12498684811981037}},"2":{"bias":-0.17440997974587497,"weights":{"0":-0.3110542981820043,"1":-0.012046669984882765,"2":-0.11306517989340087,"3":0.029573619039670363,"4":-0.40692297927116555,"5":0.07857382336319793,"6":-0.148686220364429,"7":0.14270351400656975,"8":0.0666152257974813,"9":-0.12684745344107093,"10":-0.08776171924115192,"11":-0.15233512887548653,"12":-0.042643629314877037,"13":0.0699208703562955,"14":-0.38601465091608334,"15":-0.2718955909079794,"16":0.06526765358488104,"17":-0.21863486998302434,"18":-0.1330394760327515,"19":0.22820089817120334,"20":-0.1947101865131454,"21":-0.0984135890848976,"22":-0.27226195393117586,"23":0.2954948710445942,"24":0.05719526197374556,"25":-0.43876347239504543,"26":0.28711902351436064,"27":-0.03830978469602156,"28":0.23816746784722478,"29":0.10000082614224848,"30":-0.21849611401879654,"31":-0.3497370216409381,"32":-0.28279891302833227,"33":0.26408600204659477,"34":0.3366196180793487,"35":-0.15419241715960288,"36":0.33800923178304537,"37":-0.19063895180971022,"38":-0.22599541278643276,"39":0.2787662153144947}},"3":{"bias":0.12028868343688541,"weights":{"0":-0.16477552253327293,"1":0.10683444932411701,"2":-0.20446254274268888,"3":0.05199851527262103,"4":-0.15228441260180064,"5":0.11401982685061389,"6":0.0838740942672939,"7":0.12432502350813024,"8":-0.15217772931082746,"9":-0.008847386232561424,"10":-0.23344579577671823,"11":0.09017850408882327,"12":0.09839921189315878,"13":0.0968526543112397,"14":0.0773615966989007,"15":-0.2716241276382001,"16":0.01723907160651547,"17":0.1266620555373118,"18":-0.021116113857715293,"19":0.13441685710115955,"20":-0.1904909670762482,"21":-0.1915323459056885,"22":-0.04378413871963104,"23":0.071831690246879,"24":0.07350279888019456,"25":-0.026948701848668023,"26":0.12185643463727121,"27":-0.06959052635856942,"28":-0.1488844862203303,"29":0.08552278184585517,"30":-0.2565850696545059,"31":-0.10322571520295631,"32":-0.1651126654228307,"33":0.08520102173575951,"34":-0.13443759493155924,"35":0.06245832237434047,"36":0.2608021628548268,"37":-0.13427551749134886,"38":-0.1871381611098482,"39":0.22693989931559824}},"4":{"bias":0.13866576014686813,"weights":{"0":-0.006293459487944669,"1":-0.14886193068493964,"2":0.05119819902696154,"3":0.10866555298384542,"4":0.1975290992999472,"5":-0.009906680373917372,"6":-0.18606432551730348,"7":0.15216849782358852,"8":0.16926600208911993,"9":0.08028155032051987,"10":-0.003583926487520023,"11":0.02117450123084466,"12":0.11813279368885513,"13":-0.11484350322436146,"14":0.04485597611515854,"15":0.1650577083537344,"16":0.0014856200911713285,"17":0.05659996402761977,"18":-0.17823893675807242,"19":0.05073891137432862,"20":-0.024167179117904943,"21":-0.13058757724115957,"22":-0.01815176255525752,"23":0.11348819037591958,"24":0.19355480636241126,"25":0.016597957697470495,"26":-0.14717478011450447,"27":-0.0037447574158263265,"28":0.022598921395499752,"29":0.004584308922497729,"30":0.19133989728601797,"31":-0.015668899837880598,"32":-0.09128062795615362,"33":-0.13529337839200195,"34":0.11428835282738241,"35":0.16293004882595444,"36":-0.038023695985450745,"37":0.1549972097947039,"38":0.15677141699237035,"39":0.08464373356309927}},"5":{"bias":-0.06149546378884616,"weights":{"0":-0.1198526114285968,"1":0.2176858044762908,"2":0.16124256106319554,"3":0.10840667634009332,"4":0.024142690719590777,"5":0.146218950089146,"6":0.009867592740703117,"7":-0.117401871059146,"8":-0.08596427556559544,"9":0.17576138400238328,"10":0.18318439341227125,"11":-0.13249588293720307,"12":0.054165786517803766,"13":0.0750781959256621,"14":-0.06481526646358382,"15":-0.18309012922887752,"16":-0.10395348986384019,"17":-0.09828391389913202,"18":0.005228081580351784,"19":0.10136726985544232,"20":0.13159095389713812,"21":-0.07882531080295938,"22":-0.16244253623099006,"23":-0.014871469553746177,"24":-0.13876344208357608,"25":-0.2069187870625404,"26":0.1472552489411387,"27":-0.1579853952203807,"28":-0.03729877888126755,"29":0.051630320179940695,"30":0.12546647191704752,"31":0.07817836211617098,"32":-0.018265970836546092,"33":0.0166727498497183,"34":0.031747944427378515,"35":-0.01434094073509875,"36":0.24424732276735947,"37":0.1046279770858246,"38":-0.13549241362385575,"39":0.025682470269800774}},"6":{"bias":0.10706971517722931,"weights":{"0":-0.0031730741535963,"1":0.17494714638553002,"2":-0.07115826514528259,"3":0.02283710180750046,"4":-0.2151735980046139,"5":-0.18442948415271854,"6":0.06539806342321514,"7":-0.0693660200939623,"8":-0.029521682486146773,"9":-0.020877617098974472,"10":-0.1875244987785057,"11":-0.19961077799867008,"12":-0.18235145804192346,"13":-0.10041409412198417,"14":0.07791285421270633,"15":-0.09909985014904846,"16":0.11412183837478189,"17":-0.23193648763339644,"18":0.1364269460282618,"19":0.024467519327812215,"20":0.08627630734914564,"21":-0.014043038927819624,"22":-0.14429934966596838,"23":0.07664609273845252,"24":-0.01053589546794673,"25":-0.25359295757560113,"26":-0.11742417312307044,"27":0.1453804179258527,"28":0.00436708688744491,"29":0.153225412492858,"30":-0.24761406276976536,"31":-0.10444689999897092,"32":-0.27601616164973236,"33":0.22731186841768827,"34":-0.09535384875681832,"35":-0.1435275345492434,"36":0.10435357472944025,"37":0.11019969673315717,"38":-0.02897100415012108,"39":-0.14436602901706228}},"7":{"bias":-0.1713675084503719,"weights":{"0":0.1619844829574936,"1":-0.07207386425883415,"2":-0.0372054368712441,"3":-0.1857765953206574,"4":0.22435183134025471,"5":0.005978983324718187,"6":0.022835819301104884,"7":0.1325855884466437,"8":0.1290350221936598,"9":-0.09332411415445392,"10":0.08555024340387367,"11":0.22595207901188838,"12":0.022547279248057644,"13":-0.2594195451727811,"14":0.03233986806128983,"15":0.04257496113391728,"16":-0.007043257813595534,"17":-0.04268039482156698,"18":0.07609749242258783,"19":0.058423636228333596,"20":0.12167463259056466,"21":0.20106540070942786,"22":-0.01535212691883624,"23":-0.1608601046464647,"24":-0.1096735947202187,"25":0.09436677914623903,"26":-0.1325555845369167,"27":0.1295022367628952,"28":-0.0540822805413469,"29":0.020951244763239948,"30":0.24879829991623167,"31":0.006025640377478864,"32":0.07058426173865044,"33":-0.17310167003992144,"34":0.06980253139100966,"35":-0.1557412878576908,"36":-0.0300151342738102,"37":0.007937385367459937,"38":-0.17121528858500865,"39":-0.0704817940724078}},"8":{"bias":-0.022846777037448092,"weights":{"0":-0.0045823529988818215,"1":-0.003545916773610032,"2":0.07093501439800681,"3":-0.12385640518585538,"4":-0.01512804932165034,"5":0.047112993693512094,"6":0.17159472894833025,"7":0.02103492246572241,"8":-0.14433028058488107,"9":-0.10303736969296931,"10":-0.1368758896431563,"11":0.06704060214136248,"12":0.12679716331105823,"13":0.19487728387184827,"14":-0.10278972566500866,"15":-0.10017593289420333,"16":-0.06714845071482463,"17":0.14467242511922918,"18":0.1423129504193682,"19":-0.123493817984373,"20":-0.010920069123416894,"21":0.005331237168841704,"22":0.028231726574086187,"23":0.11197566742647815,"24":-0.19794288995889509,"25":-0.10146223081726914,"26":-0.06971244633769633,"27":0.04908720273049751,"28":-0.042322976792028864,"29":0.16952967336476277,"30":0.013512080803409062,"31":-0.10441273264146542,"32":0.11233749846599639,"33":0.0651534034688136,"34":-0.10999917478559677,"35":-0.03911992144204362,"36":0.14284546738130346,"37":0.13205575903671052,"38":-0.016795520305273003,"39":0.12305148057689341}},"9":{"bias":0.15735908918103644,"weights":{"0":-0.12602987029925,"1":-0.15726227869751908,"2":-0.057895116404338816,"3":0.028744209116066236,"4":-0.01769230975271178,"5":-0.16976107043889346,"6":0.07330038025572713,"7":0.07224867479132023,"8":0.1693285751870842,"9":0.026038756136192505,"10":-0.1628810870655478,"11":0.10661433623446027,"12":0.10534183490353745,"13":0.10473644368546056,"14":0.1622552206542233,"15":-0.10856645893831725,"16":0.18743429029229125,"17":-0.05507645219397328,"18":-0.1323358051951297,"19":0.06249660813121128,"20":-0.1009923537686238,"21":0.10921390143457557,"22":-0.00312233585596169,"23":0.10327815965504857,"24":-0.050851624808897745,"25":0.1740474521714574,"26":-0.012381302001587515,"27":-0.017885788837132804,"28":-0.05825568693467644,"29":-0.12747266250476053,"30":0.11945814735924809,"31":-0.16037452789387727,"32":-0.15995798360154892,"33":-0.028426090114399487,"34":-0.17791819718755805,"35":-0.0935929856155545,"36":-0.09565513895228106,"37":-0.02583221575736098,"38":-0.10805893894056622,"39":0.0071731458600941995}},"10":{"bias":0.07988182607972949,"weights":{"0":0.01653830508001026,"1":0.08392606051139916,"2":0.09402931688162801,"3":0.025113751923074735,"4":0.02104119520883174,"5":0.18887553459617298,"6":-0.008797202339991003,"7":0.23142718020821382,"8":0.027521559613509532,"9":-0.16388032176966735,"10":-0.1720398543517281,"11":0.06464208957560434,"12":-0.2213324260301045,"13":0.0015102349437692033,"14":-0.2523930537440971,"15":-0.06330887671094307,"16":-0.13203817214316574,"17":-0.05871097037870056,"18":0.008039457531271292,"19":0.005420530002915238,"20":-0.17831943195650843,"21":-0.040833735294204754,"22":0.00033116283781150087,"23":-0.09972200302914007,"24":-0.07712262047298407,"25":-0.12564841299014926,"26":0.022545567339598702,"27":-0.08394127395753732,"28":0.018001458100457137,"29":0.21597849473273364,"30":-0.2256437818135126,"31":-0.10817072771616634,"32":-0.1978016275711792,"33":0.16671571943534355,"34":0.050792907510702964,"35":-0.03642914279019721,"36":-0.013998765632750257,"37":-0.2029153887936504,"38":0.13394331234699952,"39":0.10211468546629243}},"11":{"bias":-0.14901376780868486,"weights":{"0":-0.04800215800914063,"1":0.10887319158838145,"2":-0.18694226246545997,"3":0.1830012352943212,"4":-0.1305726583042749,"5":0.08633469034129213,"6":0.14137182734498582,"7":0.13192304806099558,"8":-0.016983743594635572,"9":-0.20000418247337087,"10":-0.07653377887338607,"11":-0.01878645434037305,"12":-0.21924548459916302,"13":0.029576933669409892,"14":-0.2590709934286035,"15":-0.23229032588424378,"16":0.1873910352454674,"17":-0.11794755946840838,"18":-0.18531467848221517,"19":-0.05075091416731793,"20":0.15657346509236095,"21":-0.0028465450997884638,"22":0.029068008331556403,"23":-0.007608798128529624,"24":-0.20671521166744614,"25":-0.17810311234308024,"26":0.21179446184353334,"27":-0.12610084683291042,"28":-0.0013409964609200542,"29":0.2901270366254297,"30":-0.026063801362982048,"31":-0.18838331513284065,"32":-0.06340030724132943,"33":-0.07593603163046937,"34":0.1206869699929731,"35":-0.14701855598837993,"36":0.12300567365364463,"37":-0.17623775283756674,"38":0.10110936692760009,"39":0.07458269955660625}},"12":{"bias":0.09656409273383375,"weights":{"0":0.010406434980955481,"1":-0.08734944088271102,"2":0.0759446540611602,"3":-0.13672620574079816,"4":-0.052152397546340205,"5":-0.012939819236867399,"6":-0.002480980588574618,"7":-0.08323140476663106,"8":0.18532173945492758,"9":-0.17239307215045296,"10":0.006581126368342329,"11":-0.041654260223834755,"12":-0.06261723203545866,"13":0.041183524283740135,"14":-0.16653772221866955,"15":-0.2662709155005847,"16":0.06844606822909145,"17":-0.12444991477798194,"18":-0.16545369843185903,"19":-0.052872743438692624,"20":-0.10314661854734558,"21":-0.15101471711316888,"22":0.08326347381510406,"23":-0.052022473991837494,"24":0.12938958231155112,"25":-0.3189573988827928,"26":0.11092057302765597,"27":-0.11776615838588711,"28":0.1617202004108282,"29":0.22544273941965862,"30":-0.2607165924550778,"31":-0.19079198787196813,"32":-0.2372118400153268,"33":0.0942425233327192,"34":0.28678658143219116,"35":-0.049070554107743816,"36":0.04584636616092266,"37":-0.2274869935218792,"38":0.057776758028126506,"39":0.18166101996701828}},"13":{"bias":-0.052397775639403434,"weights":{"0":0.15813364760085907,"1":-0.11653603646178849,"2":0.053730944108500094,"3":0.06869349968438478,"4":-0.08871497927602472,"5":0.10026739309049248,"6":-0.1417528710663694,"7":-0.1703704306344442,"8":0.12949265265195906,"9":0.11759742902691772,"10":0.10880770702271568,"11":-0.0816831997378038,"12":-0.0295064072013145,"13":-0.22346008677723408,"14":0.14580956032209186,"15":0.1750633439099398,"16":0.027114378678609184,"17":0.08294694810873943,"18":0.0688357653511204,"19":0.12912384696463036,"20":-0.12042450640519389,"21":0.009748831132419616,"22":0.07233290647553142,"23":0.0062451289586039505,"24":0.19606382317466992,"25":0.2708185567369705,"26":0.05607940571756459,"27":0.021691080737621708,"28":0.07878951235449713,"29":-0.24546413972247394,"30":0.15782843021187892,"31":0.12529943851625444,"32":-0.0867287116134223,"33":-0.23099005598930256,"34":-0.091070885308155,"35":0.14352106616685079,"36":0.01656466817346309,"37":0.07779749510866033,"38":0.19915538058394217,"39":-0.05084338216071446}},"14":{"bias":-0.10026548285169584,"weights":{"0":-0.15541578530363018,"1":0.16975153620332054,"2":-0.050161939579411875,"3":-0.022210070959220434,"4":-0.3377927460475353,"5":-0.015328848814185813,"6":-0.12915177883549328,"7":0.08177313874948024,"8":-0.04141150574949778,"9":-0.10634582538197719,"10":-0.20718125586822042,"11":-0.16942618314537863,"12":-0.27092879335806586,"13":0.23461625107102332,"14":-0.14572001297253898,"15":-0.24181819741253519,"16":-0.0011078789261101504,"17":0.009478766285162348,"18":0.11137808547652718,"19":-0.08363410925460536,"20":-0.01619460235104613,"21":-0.1616267813454321,"22":-0.3005063772959858,"23":0.2826895213978992,"24":0.15239031751814164,"25":-0.29785102185028056,"26":0.22711939159340222,"27":0.01821636345230194,"28":0.07797544604908387,"29":0.31857439081257843,"30":-0.2267279901491505,"31":-0.2370641266773275,"32":-0.3387532212348782,"33":0.013247830687244083,"34":0.021612263713941385,"35":0.05799930357243636,"36":0.35064389478517327,"37":-0.25523200496024095,"38":-0.08540109155506045,"39":-0.012071235904821469}},"15":{"bias":-0.038093106881097204,"weights":{"0":-0.23887844717752524,"1":0.11213182104967041,"2":-0.15927841850341676,"3":-0.15378221654058694,"4":-0.09360826382814418,"5":0.016227260271179787,"6":0.09259843158733996,"7":0.05116756309566392,"8":0.09143666195804585,"9":0.0010674469988351141,"10":0.13372426588193653,"11":-0.0949876255141425,"12":0.023208238114469218,"13":0.1994967687862642,"14":-0.06919460547271487,"15":-0.22160700640771339,"16":-0.05246084051807533,"17":-0.1322613991521625,"18":0.07596164488478539,"19":0.018782214681436805,"20":0.18006875401933412,"21":-0.08454492500415071,"22":-0.1184806263330497,"23":0.1565606609538218,"24":0.1431812379652556,"25":-0.12573736886968515,"26":-0.07865888151829674,"27":-0.20112958760535743,"28":0.10400834269328267,"29":0.15305523793814502,"30":-0.18807169510551897,"31":-0.10140381548573346,"32":0.05615354180054817,"33":-0.04838201253921017,"34":0.12427632620220785,"35":-0.04898074912228669,"36":-0.04269232321220101,"37":-0.07327305783833683,"38":-0.033929844879231646,"39":0.019663427849334426}},"16":{"bias":0.11615381426396917,"weights":{"0":0.1354407787508625,"1":-0.06291245066664172,"2":-0.16505984900881518,"3":-0.19451766573930623,"4":0.0022847334407492988,"5":0.13465594576592615,"6":0.11071114252375755,"7":0.10554321547838795,"8":0.018317401160843794,"9":-0.20674474445348853,"10":0.16030156055290665,"11":-0.1326119601509565,"12":-0.19257202867751036,"13":-0.2072291883461015,"14":0.006748425725511657,"15":-0.13264299338136235,"16":0.02768673546191351,"17":-0.1870694301890216,"18":-0.08237524680392638,"19":0.1397004109901305,"20":-0.006910476914028809,"21":0.14576231891318184,"22":0.12498787405120602,"23":0.050212621266183415,"24":0.16488352040785936,"25":0.07717334080324957,"26":0.1611811855610712,"27":0.09026568024533044,"28":-0.030904320412819826,"29":0.07235077169355686,"30":0.099175370856202,"31":-0.17663673799021026,"32":-0.1317655458105167,"33":-0.19758145792278473,"34":0.0022056290455363067,"35":-0.17628218270991805,"36":0.006572065569096352,"37":-0.17710416824038613,"38":0.08217954975218549,"39":0.15030400934539048}},"17":{"bias":0.04780574553736952,"weights":{"0":0.04380871855861764,"1":0.02181624380082471,"2":-0.19158434000401522,"3":-0.20817692947196165,"4":-0.1558839697158395,"5":0.18379934351442878,"6":0.08716095698445876,"7":-0.14795592124109733,"8":0.147770618252696,"9":-0.04256134823791704,"10":-0.1747440571754466,"11":0.06893097323961604,"12":0.014638485204254153,"13":0.10236739665407865,"14":-0.054229866645286964,"15":-0.07291506200960915,"16":-0.10518306737002922,"17":-0.02317702205405571,"18":-0.03762858616216855,"19":0.004234112157261271,"20":-0.24914477404057153,"21":0.035785755057490404,"22":-0.020353177613989568,"23":0.21094855278235208,"24":0.06656244715535957,"25":-0.16277790118916835,"26":0.2571082932382689,"27":-0.16596207826003717,"28":0.24319134118288788,"29":0.16064001089318986,"30":-0.1542933285083689,"31":-0.14484811213417204,"32":0.005295720725077262,"33":0.13394149288476173,"34":0.23995941678003477,"35":-0.04580812863788946,"36":0.025361626982442664,"37":0.04529480412775389,"38":-0.02581545145804544,"39":-0.04531142320146861}},"18":{"bias":-0.227432357552466,"weights":{"0":-0.01907509195456964,"1":-0.04344041911320937,"2":-0.2743704662761379,"3":-0.1358263120368288,"4":-0.3738221338825285,"5":-0.16799786459008403,"6":-0.011718248332923264,"7":-0.01045004101914323,"8":0.019008137178024083,"9":-0.27323947621545047,"10":-0.04566401808513827,"11":-0.13589170000220474,"12":-0.06185378689340748,"13":0.1205784191943411,"14":-0.3375207567845474,"15":-0.1738067509005186,"16":0.05216824068277015,"17":-0.007277691949948353,"18":0.06395758465780862,"19":0.22291681349695636,"20":0.13664004333411417,"21":-0.021733662846744516,"22":-0.2376362287664136,"23":0.166485730714919,"24":-0.03189805396842178,"25":-0.2514483868414947,"26":-0.038586086527404556,"27":0.04706442351784539,"28":0.20778016693341936,"29":0.1730089967878171,"30":-0.31626121526657613,"31":-0.0447635557992931,"32":-0.3016460842989316,"33":0.2765923240753745,"34":0.2869643398023988,"35":0.08056257966976059,"36":0.14225112225218778,"37":-0.009569395209389363,"38":0.021686274494803526,"39":0.13317053771419124}},"19":{"bias":-0.07705456924084675,"weights":{"0":-0.14393235851607644,"1":0.17529498694694104,"2":-0.08966235745602481,"3":-0.060294513295197714,"4":-0.24173312791705276,"5":0.08045526386412907,"6":-0.024587663889346995,"7":-0.11263710487107005,"8":0.06142443551165017,"9":0.10963780772089537,"10":-0.018898039026353133,"11":-0.11263744654783735,"12":-0.21169420276806314,"13":0.2019339717401771,"14":0.01681471058463901,"15":-0.04484657019465956,"16":-0.03136434043590131,"17":-0.17227053131684622,"18":0.03580798404287213,"19":-0.174995199489044,"20":-0.021158808925744583,"21":-0.06631424850848999,"22":-0.012044118677480353,"23":0.0958497117198276,"24":-0.12522570728901303,"25":-0.18777723992877177,"26":-0.020470183855110187,"27":-0.0036164842742930775,"28":-0.10670667046875945,"29":0.28093828305369667,"30":-0.08437294779135313,"31":-0.09737101761370374,"32":-0.25258201709396755,"33":0.018683641782470152,"34":0.14648228717993023,"35":0.03353505700722397,"36":0.11766315745403387,"37":0.07669889865672651,"38":-0.1448272815525243,"39":0.15701866589401234}},"20":{"bias":-0.18564151217040042,"weights":{"0":-0.061172060629554575,"1":0.14078994202884235,"2":0.06090307422561007,"3":-0.052971700346017,"4":0.008496270023805885,"5":-0.04164527707647072,"6":-0.1238582070707679,"7":-0.06409407805275423,"8":0.14410458508007323,"9":0.11535196074315475,"10":-0.1356400951852794,"11":0.13917694112516976,"12":-0.07996246603303062,"13":-0.04806920900991311,"14":-0.10936252079991443,"15":-0.2528879225201716,"16":0.22327368847817664,"17":0.03112365409468543,"18":0.008718459582665983,"19":0.2001956615715512,"20":-0.07399608807654076,"21":-0.16725562955113807,"22":-0.1734557708080027,"23":-0.029335940176394355,"24":-0.08160392342285717,"25":0.09094334038498146,"26":-0.04488424951821271,"27":-0.06879857817153064,"28":-0.10981012291240447,"29":0.15856051526042184,"30":-0.0607015145023378,"31":0.10811342621334784,"32":-0.2213205684695151,"33":0.2760644694063885,"34":0.14733417276664126,"35":-0.019659115353478786,"36":0.20941784226685128,"37":-0.006337192092057157,"38":-0.037955209337829636,"39":0.14417842964816704}},"21":{"bias":0.023674489551309692,"weights":{"0":0.10531255485303828,"1":-0.02650879952810836,"2":-0.01991771609898563,"3":0.11407880892378809,"4":0.13123501868634696,"5":-0.030768297199339368,"6":-0.005553021298739155,"7":0.15451291959869887,"8":0.16308882690712911,"9":-0.07585285026346156,"10":0.19911460731593283,"11":-0.14509256300358916,"12":-0.028175760468086595,"13":0.03875991824720731,"14":-0.13511155619472084,"15":0.15050375941038124,"16":0.05234512400892328,"17":-0.10226051655279306,"18":0.15522321007702253,"19":0.17439574846241238,"20":-0.14525840847940433,"21":0.11408855495724253,"22":0.21183419958113128,"23":-0.07254811289613851,"24":-0.07438638093587042,"25":0.14836773753236998,"26":-0.1898680398176649,"27":-0.1730654817661996,"28":-0.11222711476628151,"29":-0.04785516064515651,"30":0.22199663300130595,"31":-0.13665902176414627,"32":0.07561132308902727,"33":-0.24246911366131624,"34":-0.20149421302770568,"35":-0.1583004377439719,"36":0.06992098549829785,"37":0.1982440250627529,"38":-0.054434842939828976,"39":-0.11595136264883767}},"22":{"bias":-0.062671515110559,"weights":{"0":0.03175514548921516,"1":-0.040630111984330884,"2":-0.14359773992513694,"3":-0.09453987759758488,"4":-0.06989426003331109,"5":0.0454285017633084,"6":-0.03498269929818638,"7":0.03157475173623561,"8":0.05743570778146372,"9":-0.17153246939735808,"10":-0.13980414988138332,"11":-0.16209628400002538,"12":-0.20714645175058635,"13":0.0603914730512768,"14":0.14427152345209912,"15":-0.1172359954568087,"16":-0.046460487125925244,"17":-0.013519000031654228,"18":0.06839369615899685,"19":-0.06287055775481216,"20":-0.022926241701889245,"21":0.014621911575153544,"22":0.033890516155582986,"23":-0.08518840304943893,"24":-0.10635528730287895,"25":0.05973957215945605,"26":0.12119571888210834,"27":-0.19307152813448542,"28":0.21615713802537137,"29":0.05821217336892652,"30":0.10991981783450779,"31":0.05536671704484758,"32":-0.0914257565108373,"33":0.237689444132184,"34":0.2337350807481262,"35":0.044928224070475316,"36":-0.13839441498315866,"37":-0.07227895534046928,"38":-0.08379391601399015,"39":-0.17573361197792478}},"23":{"bias":-0.1185906569421049,"weights":{"0":0.013985638193602599,"1":-0.04373059906571998,"2":-0.08640375091892379,"3":-0.06384103525789993,"4":-0.1939997437375837,"5":0.13547922357324008,"6":-0.09101155401592023,"7":-0.09599285238332785,"8":0.11360888528095026,"9":0.06725471359536558,"10":0.13232943876299377,"11":-0.03549101733681618,"12":-0.2037194437684048,"13":-0.08726507947523039,"14":0.15923327649743643,"15":-0.17242589600694058,"16":0.09883474004440383,"17":-0.004310662026589394,"18":-0.03535848416068738,"19":-0.04137773876386385,"20":0.11657444315661658,"21":-0.1100392776529459,"22":-0.12993353346160688,"23":0.0015101304926861264,"24":-0.11802222299266182,"25":-0.24726942658993126,"26":0.22424429234847917,"27":0.1742218263082425,"28":0.0378481932454069,"29":0.2547354249503813,"30":-0.09316380941830832,"31":-0.10722858501326477,"32":0.031380456906381096,"33":-0.018828101613085103,"34":-0.09506766840564866,"35":0.1983584520914865,"36":0.05932638420753354,"37":0.015794697415345796,"38":0.0338405747139538,"39":0.07420702787812246}},"24":{"bias":0.10637146113662448,"weights":{"0":0.1875975043298829,"1":-0.19411069653893548,"2":0.06974898292239927,"3":0.14123909072401178,"4":-0.15688762831240322,"5":-0.1963313741652289,"6":-0.11769462886213221,"7":-0.016137369336839243,"8":0.10979480276444305,"9":0.10444064630668211,"10":-0.05672798913797544,"11":-0.1554478014076698,"12":0.12760719574814752,"13":-0.17925742585360555,"14":-0.18940328910542864,"15":-0.19088615440178924,"16":-0.18801199588969383,"17":0.14233431342229358,"18":-0.10408210906205732,"19":-0.12052750913347315,"20":0.14977863196873914,"21":-0.10207058005909671,"22":-0.09388232165282459,"23":-0.01878945717974989,"24":-0.10265968902204521,"25":-0.12340820397999447,"26":0.09429262884725073,"27":0.13484979524598326,"28":0.07858401938659919,"29":-0.049251144097610805,"30":0.009960712455470205,"31":-0.11369808881740721,"32":-0.16652751472042251,"33":-0.12331009939265868,"34":-0.029098723355327285,"35":-0.13753013541016545,"36":-0.0831551007269749,"37":0.13754810790011657,"38":0.14159255930744316,"39":-0.07971373780081177}},"25":{"bias":-0.011376826189609734,"weights":{"0":-0.2660363297336977,"1":0.17146991762496053,"2":-0.11211666563577162,"3":-0.01291884166911021,"4":-0.24592972129403892,"5":-0.04671521896380211,"6":0.15387412873506306,"7":0.11044450257065691,"8":-0.12850822243811488,"9":-0.2571342814186276,"10":0.103138421952143,"11":-0.15098957649920025,"12":-0.12304394806020773,"13":0.2231360932843662,"14":-0.09176862810479315,"15":-0.07518412977116774,"16":0.08898963529765429,"17":-0.0430415855457919,"18":-0.20717067796890906,"19":-0.08047782857121343,"20":0.1344964261436086,"21":0.10454625648622118,"22":0.030941821004458053,"23":0.1773469620991336,"24":0.03715231862419019,"25":-0.3468531003837178,"26":0.08256694200817602,"27":-0.1635490738324088,"28":0.18625320365577158,"29":-0.06729952802398677,"30":-0.27687260637146727,"31":-0.19707293860895153,"32":-0.16393845639018553,"33":-0.08332792131985453,"34":0.2626730453139564,"35":0.15163278584797557,"36":0.11471209280104863,"37":-0.26735051674556337,"38":-0.22624158085545265,"39":0.10370631461219312}},"26":{"bias":0.153498353049729,"weights":{"0":-0.18377872734624703,"1":-0.024036154756747353,"2":0.047504976552494055,"3":-0.16146895730009242,"4":-0.0037814295095396242,"5":0.17285639217015752,"6":0.020303156179531833,"7":-0.1362662109211527,"8":0.22661317391967942,"9":-0.13331107559086214,"10":0.08658557383564718,"11":0.05760685746282874,"12":-0.05821201091106082,"13":-0.12061183137530834,"14":-0.145108502003514,"15":0.030023841563013784,"16":-0.05199768642137281,"17":-0.17971394156146003,"18":-0.20141625454197634,"19":-0.10007005443768963,"20":0.1652495541940242,"21":-0.07094784232812892,"22":0.04315858231902052,"23":-0.12060108724550711,"24":-0.05633505927960522,"25":-0.24975493843014554,"26":-0.06624730336868587,"27":-0.1129491732066272,"28":0.17400304696234783,"29":0.04845261961452442,"30":-0.1511834397171443,"31":-0.07585769483326471,"32":0.09400146942016585,"33":0.00795241863559053,"34":0.14083411001442575,"35":0.18466296787508046,"36":0.03738217844647953,"37":0.1399516691771416,"38":-0.1918852273846109,"39":-0.03892152137402733}},"27":{"bias":0.0015033980271137474,"weights":{"0":-0.21916276005376148,"1":0.000632108257406672,"2":0.10885407945335965,"3":0.08803249944192527,"4":0.025093115758467288,"5":0.181893382513495,"6":0.12156516204716754,"7":0.2134389886220896,"8":0.11822323326036582,"9":-0.1517831612246672,"10":0.02877381208784913,"11":0.059980452990038534,"12":0.1158458682036128,"13":0.21787642209614105,"14":-0.06543603294532521,"15":0.10137492157101095,"16":-0.12902135391314593,"17":-0.007036652796114161,"18":-0.13281400704602359,"19":0.04902579091659876,"20":0.030451958629671715,"21":0.009813619768341155,"22":-0.05754196648764079,"23":0.1471693219559579,"24":0.11128762780577653,"25":0.08656989026091094,"26":0.20833710235727135,"27":-0.07369053807178617,"28":0.05906549219371346,"29":-0.11715661732433826,"30":-0.21597064305223812,"31":-0.1973249735663703,"32":-0.020662050442496846,"33":0.12962716250645873,"34":-0.04211062335085279,"35":-0.08257155928662999,"36":0.20025360401915085,"37":0.12447130825870491,"38":0.18648571275230388,"39":-0.0913523826750158}},"28":{"bias":-0.1319393448537816,"weights":{"0":-0.0886736040639997,"1":0.13094792560290844,"2":0.09713866649134936,"3":0.11978150541117294,"4":-0.12024443582420258,"5":-0.05661661174502124,"6":0.0017355183308960986,"7":0.08187825800509263,"8":0.20069879331971122,"9":-0.08566473877481234,"10":0.07332832058534945,"11":-0.07673768846731256,"12":-0.1059464446965016,"13":0.0005224722660457538,"14":0.06902655015238664,"15":-0.005561751190998489,"16":-0.04474319018009961,"17":0.06346154168047163,"18":-0.21406374344963305,"19":0.08482763412337725,"20":-0.04487890095279576,"21":-0.08026034565557531,"22":0.03724958532209079,"23":0.23813992061933406,"24":-0.19075411028130318,"25":-0.3045052176586758,"26":0.1071091763699396,"27":-0.08281076459568085,"28":-0.0711522441690195,"29":0.20968719001365005,"30":-0.15835133597374812,"31":0.04958080352467161,"32":-0.04884398571348902,"33":-0.11199514903112391,"34":0.18244251734140451,"35":-0.006978048735524295,"36":-0.04163952544630947,"37":0.10704990862794692,"38":-0.007497416356184249,"39":0.22629304121777377}},"29":{"bias":0.011745519397463287,"weights":{"0":-0.10524218958432896,"1":0.19680537610541438,"2":-0.07731238561282583,"3":-0.18996121157374096,"4":0.10502640088669855,"5":0.1443651476436279,"6":0.09802658219052529,"7":0.11870126292316552,"8":-0.1257455513076848,"9":0.014743962798803658,"10":-0.12688482837149262,"11":0.009904220378305587,"12":-0.09517490623198356,"13":0.0764997479420446,"14":0.004483024423153189,"15":0.0861981508620819,"16":0.13558803948839046,"17":-0.13069463396778497,"18":0.1418061867716809,"19":-0.1678932136209209,"20":0.07846384255090214,"21":-0.1597344392716137,"22":-0.19257522633561372,"23":0.20936247849651096,"24":-0.1003426160532974,"25":-0.24901547711078884,"26":0.017507594835743816,"27":0.13390570804915305,"28":0.04087611219760539,"29":-0.09995518701639065,"30":0.04195620611262884,"31":0.15178960428359828,"32":0.08825744592302198,"33":0.05222800698161566,"34":-0.004744567431523315,"35":0.04627289779251279,"36":0.12959583057903765,"37":-0.16086626858638073,"38":0.002522314639172064,"39":0.12643699346907045}},"30":{"bias":0.0943506461457797,"weights":{"0":0.03644372280738411,"1":-0.2023473671420685,"2":-0.09333815284796176,"3":0.18912774519700687,"4":0.17103726940885638,"5":0.11907038005287043,"6":0.1481643722199285,"7":-0.19765227722740714,"8":0.03226901161996391,"9":0.16564277710902411,"10":0.1589020955777949,"11":-0.05868531894885265,"12":0.183969936921776,"13":0.04146639427557195,"14":-0.08360981530330759,"15":-0.011074504774079067,"16":0.17183199917169434,"17":0.1616046217887167,"18":0.06643226366663266,"19":-0.00753530708814198,"20":0.08607481341676908,"21":-0.1236020061196487,"22":-0.007134643443905838,"23":-0.0013642549240175576,"24":0.07402254921166278,"25":-0.09337139232751292,"26":-0.12160965944297703,"27":0.05769193804355165,"28":0.06444309434963108,"29":0.021120780242414896,"30":-0.030806081329200277,"31":-0.07394165860382217,"32":-0.005004654715869171,"33":0.1861224531231225,"34":-0.15704359897998046,"35":-0.1289015328378842,"36":-0.08872682387763686,"37":0.05438768988665844,"38":0.14230582414081752,"39":0.15516025334689923}},"31":{"bias":-0.006357977308155303,"weights":{"0":-0.1347735203987007,"1":0.2631218838179937,"2":-0.17184258329885532,"3":-0.023817137853764627,"4":-0.26588486230519703,"5":0.1334545789432433,"6":-0.0039553978486555836,"7":0.1812272978249156,"8":0.03899291170224168,"9":-0.20789247611223186,"10":-0.3209406254039841,"11":-0.2344179943554755,"12":-0.3670325549479676,"13":0.15279106928068464,"14":-0.3228348463539524,"15":-0.11375081189937333,"16":0.2485287922038385,"17":-0.1502238750357459,"18":-0.24812872017221937,"19":0.07819664110279717,"20":0.06225111820614274,"21":-0.0863680365236429,"22":-0.26131751296733874,"23":0.25842280840398413,"24":0.06234232632025964,"25":-0.41413577638137034,"26":-0.0499095375122551,"27":0.039781638636800065,"28":0.1863363298256646,"29":0.10916930722529967,"30":-0.2774030359716532,"31":-0.1702780676426462,"32":-0.4330365199413736,"33":0.2953629374977886,"34":0.27182660981811696,"35":0.10759206027758979,"36":0.23322904242331863,"37":-0.34110840911905477,"38":-0.15131895986482763,"39":-0.14817919218901737}},"32":{"bias":0.15206652026439613,"weights":{"0":-0.17288416050441915,"1":0.12920840231922232,"2":0.1719515898026502,"3":-0.1970360851430166,"4":-0.0062112098218765725,"5":-0.10142176257403408,"6":0.17731548884319923,"7":0.16599883193090156,"8":-0.12550779231829318,"9":-0.11874528019391815,"10":0.059835376279145036,"11":0.022893128423637436,"12":-0.1402479247257334,"13":0.07814721398003313,"14":0.1582020062979939,"15":-0.024036477249696438,"16":-0.024908917871659497,"17":-0.018982952300806367,"18":0.12411343045739666,"19":0.17639275900124254,"20":0.0018818935387887317,"21":0.041311714743329314,"22":0.05090605814475434,"23":-0.1697893503137072,"24":0.16740185061432794,"25":0.010682333534550783,"26":-0.006686282742349119,"27":-0.18155716656518905,"28":0.07487033802949151,"29":-0.01898925405965092,"30":-0.013007147754373513,"31":-0.045243228329791364,"32":0.1119586459666189,"33":-0.07767204284905815,"34":-0.12745388341438063,"35":-0.10840779652423407,"36":0.1696301870491022,"37":-0.19915476873435217,"38":-0.18502740473468793,"39":-0.17672853475938144}},"33":{"bias":-0.1781566266010579,"weights":{"0":0.16104169445240127,"1":-0.17990157178282706,"2":0.06155235290206868,"3":0.017600862864457143,"4":0.0756193962812424,"5":-0.016899355290519353,"6":-0.023296393534327834,"7":0.16889931422850835,"8":0.053127883828287266,"9":0.1767086757042524,"10":0.18526513762603736,"11":0.1498734099082964,"12":0.06516683517610868,"13":-0.05123117319558801,"14":-0.2164667113188287,"15":0.06497695857202475,"16":0.15678484218691813,"17":-0.1875511555459356,"18":0.057988341097971484,"19":0.03433180887890585,"20":-0.21504332211009589,"21":0.04284282301704584,"22":-0.02657401876863961,"23":0.041769588133455264,"24":-0.19416631476966756,"25":-0.04863704271783482,"26":0.024144149180303866,"27":0.07916046988201808,"28":0.08947446361547717,"29":0.2121934991748382,"30":-0.052362754676565273,"31":-0.10150153559868555,"32":-0.13283318150498813,"33":-0.08159071799659133,"34":0.0042462670359176054,"35":-0.0192114493463246,"36":0.06469040490418229,"37":0.15420368353926575,"38":-0.05092204784632131,"39":-0.16379602062440213}},"34":{"bias":-0.06376305321541306,"weights":{"0":0.22421700130668193,"1":0.14387406742247402,"2":0.18817476192227753,"3":0.1361198102005883,"4":0.14359010086918567,"5":-0.08647209019926805,"6":-0.15488335642759396,"7":-0.12744768723036382,"8":0.10359662346461171,"9":-0.03841886685499523,"10":0.20975930452325242,"11":-0.038515400063900716,"12":-0.12768925120709101,"13":-0.19027280303794616,"14":0.1717909203977277,"15":0.1476931058265949,"16":0.1329189563049764,"17":-0.08293771263482119,"18":-0.050059435259463846,"19":-0.09219985598955809,"20":0.10907125135271496,"21":-0.10405946595382799,"22":0.09469143972351851,"23":-0.08590647691543454,"24":0.14395211570072086,"25":0.18342100950791249,"26":-0.12130558726983753,"27":-0.04876797645849592,"28":0.13866890309859423,"29":-0.23786133838283535,"30":0.08933452518986967,"31":-0.08484507086599641,"32":0.16391376379770753,"33":-0.09485771150758565,"34":0.014383033688754895,"35":-0.0008513512091481368,"36":0.03715417016482078,"37":-0.15135356915237516,"38":-0.14778730463719797,"39":-0.013120321499092879}},"35":{"bias":-0.03571905969868937,"weights":{"0":-0.19318271401528792,"1":0.22199282101958262,"2":0.0267325165838602,"3":-0.02356786132145142,"4":-0.014852226346726312,"5":-0.16926152079543116,"6":0.10073629757353045,"7":0.1483525268527679,"8":0.20243298340306473,"9":-0.2578147075482311,"10":0.02531944483373777,"11":-0.25883782819545414,"12":0.0719912387410727,"13":0.18544117299941426,"14":-0.15175431900775538,"15":-0.18832888172089948,"16":0.19583361697287907,"17":-0.2215959715279593,"18":-0.12930736659458483,"19":-0.013691328890606435,"20":-0.21615378920591977,"21":0.05215662178750426,"22":-0.19871893240313773,"23":0.12083075223146154,"24":0.05767340643098352,"25":-0.3748865434324958,"26":0.17020570263819199,"27":0.03645292618867368,"28":-0.06230419580110912,"29":0.15450767234772422,"30":0.0037873105230028237,"31":-0.07915163946111056,"32":-0.27193469135270854,"33":0.18953141978357532,"34":-0.0503009486717033,"35":0.09384763443606672,"36":0.21197208430049286,"37":-0.18062923777985415,"38":-0.17429714690629958,"39":-0.13459467685167412}},"36":{"bias":-0.18827263368212174,"weights":{"0":-0.18704830405061793,"1":0.15433453713409964,"2":-0.02330638486328316,"3":-0.09989044562972758,"4":-0.05223410378865734,"5":0.04146910539474592,"6":-0.024719957297164752,"7":0.1632421471207991,"8":-0.039673654390585254,"9":-0.11472715169260578,"10":-0.003387236546065773,"11":-0.08264593061729775,"12":-0.10390318065203777,"13":-0.10263718430639342,"14":-0.18837526798433857,"15":0.054704852415244025,"16":0.16920712815598785,"17":-0.07405372945481697,"18":0.08055615138616833,"19":0.06245060563595539,"20":0.19042329699091493,"21":0.15448272997213638,"22":0.06463224210930187,"23":0.09154784745256371,"24":-0.024659672568692757,"25":-0.14192057528238736,"26":-0.13612598726818495,"27":-0.04812337311450443,"28":0.18198211780130125,"29":-0.06208462345229883,"30":-0.19841129128954843,"31":-0.1956990307104108,"32":-0.04705409413149473,"33":0.028215645974251777,"34":-0.03637161728997973,"35":-0.16451366283604657,"36":-0.16793087440000054,"37":0.017920393851540425,"38":0.013394053108871656,"39":-0.19317293919948955}},"37":{"bias":0.09381107085452955,"weights":{"0":0.08547343161556034,"1":-0.06361083372679958,"2":0.13651535565576925,"3":-0.04320957794086774,"4":0.1524437149595504,"5":0.16750179518839642,"6":0.03563874831676892,"7":0.06907078886524218,"8":0.1518323035458685,"9":0.17461236522367216,"10":-0.08179766766307844,"11":0.02693644034105321,"12":-0.019820601813930493,"13":-0.05505257750631133,"14":0.15088637973139268,"15":0.1964805678187371,"16":0.11977502815137495,"17":0.04885034798505282,"18":0.054140798250318437,"19":-0.10706667837158,"20":0.015853567768499017,"21":-0.14144031485823405,"22":0.10860774924361759,"23":-0.17035171814391678,"24":-0.1400105662643002,"25":-0.10853698078078541,"26":-0.18375385339432304,"27":0.17635183480615602,"28":-0.10008598229154375,"29":-0.12447094849639082,"30":0.1744449054606835,"31":0.18257487689168117,"32":0.08289904638359752,"33":-0.10573790727599698,"34":-0.19340455508350426,"35":0.11975750155956051,"36":0.06623727176082243,"37":0.19615889513197576,"38":-0.17616522923315706,"39":0.2035650277757298}},"38":{"bias":0.12326631606669035,"weights":{"0":0.01161797235150992,"1":0.01126453143172097,"2":-0.09313248276121423,"3":-0.004424459761502764,"4":-0.1917633815897628,"5":-0.18804879591564777,"6":0.13206538859590577,"7":-0.05946957022784082,"8":-0.0995286109628479,"9":-0.2567759402741848,"10":0.06073555284355288,"11":-0.18653372468330953,"12":-0.1295861047301523,"13":0.2337861205906317,"14":0.003155964850533448,"15":0.07317028808655784,"16":0.07485658629195,"17":-0.18770246103503987,"18":-0.10075884738106987,"19":-0.14525583027731837,"20":0.02696661290322364,"21":-0.06984343777992041,"22":-0.21061210942674766,"23":0.20477472506985456,"24":-0.2226762205940117,"25":-0.3164720662851428,"26":0.18431148778623158,"27":0.016223527773875365,"28":-0.036746515823445215,"29":0.1489825515863892,"30":-0.15542565289234034,"31":0.015013280483696784,"32":-0.07879089692688851,"33":0.2686442395499085,"34":-0.02423404269204002,"35":-0.02665958297332775,"36":0.07889855520891736,"37":-0.2423388398891958,"38":-0.07054674516095594,"39":-0.05731140184147435}},"39":{"bias":-0.1874533633274853,"weights":{"0":-0.018233617294600817,"1":-0.003757229565130649,"2":0.013583699826335971,"3":0.17156061928464736,"4":-0.18608586935138957,"5":-0.10647023987684423,"6":-0.04645504616650488,"7":-0.011999944093340249,"8":0.06265238675450478,"9":-0.07835757380531694,"10":-0.1933149474906151,"11":-0.289809294291053,"12":-0.20958982270516616,"13":0.10831243412523062,"14":-0.0024476818655961006,"15":-0.002702566928884635,"16":0.21550182867278989,"17":-0.19029041389908494,"18":0.10448164882112963,"19":0.016080470849369526,"20":0.06961541155927933,"21":-0.06598776300493281,"22":-0.18560322526382936,"23":0.21848621845274893,"24":-0.00033980541104100087,"25":-0.3001047787014215,"26":-0.05499456618133759,"27":0.058992376068101704,"28":0.1166815485614984,"29":0.19776586486309397,"30":-0.002698893563760382,"31":-0.13295943854389708,"32":0.06911189288447464,"33":0.23801627231474445,"34":-0.07053363938461228,"35":0.023311279847184528,"36":0.10471710316507726,"37":0.011139991570469215,"38":-0.0123803208597816,"39":0.08317622612919949}},"40":{"bias":-0.25719721378555394,"weights":{"0":-0.2447205778692253,"1":0.25975223103413353,"2":-0.3659976113394258,"3":0.05436644850996914,"4":-0.3257063367531286,"5":0.0062264650302155345,"6":-0.011865084714726384,"7":0.1350653483749802,"8":0.0981626640020062,"9":-0.15128631312644442,"10":-0.17483765985674776,"11":-0.31042770468406683,"12":-0.06364969229022222,"13":0.31267827334662684,"14":-0.16968709472405413,"15":-0.3964060400592524,"16":0.054799302080554585,"17":-0.01785491454121481,"18":-0.03956862102611208,"19":-0.1629597862681746,"20":-0.05422353003691542,"21":-0.0781565569668714,"22":0.021341331288444364,"23":0.237725247419545,"24":-0.2622843446530088,"25":-0.21156441379118007,"26":0.22234352143364244,"27":-0.1482249380584198,"28":0.20852252590841874,"29":0.35810319486273395,"30":-0.3169572311005683,"31":-0.08538870961070873,"32":-0.4037561525183352,"33":0.3608715523688988,"34":0.10369575904000027,"35":-0.07040763131131164,"36":0.23105364757867833,"37":-0.27960845612940444,"38":-0.21348224671468863,"39":0.18763109197824346}},"41":{"bias":-0.04061535946799603,"weights":{"0":0.0560583950667727,"1":0.212881917958187,"2":0.010509693052005917,"3":0.1488473803394295,"4":-0.08796988828111539,"5":-0.033681906341905966,"6":-0.0006932989983091719,"7":0.08549031173400205,"8":-0.01811140812740138,"9":0.07389096383018656,"10":-0.17603568465545089,"11":0.12612950382979754,"12":-0.18584630364856275,"13":-0.02913767118785501,"14":0.006110446021077498,"15":-0.21129387584890905,"16":0.17957050754868079,"17":0.09069752327049606,"18":0.13177259759870355,"19":-0.04744921801531284,"20":-0.07663864017711819,"21":-0.02593480085022668,"22":-0.15233122214778685,"23":0.06172592242846474,"24":0.06474935895189943,"25":0.0976282978534748,"26":0.1364802286891985,"27":-0.2002668069742908,"28":-0.0830781840290726,"29":0.07386091899352236,"30":0.16095017417558505,"31":-0.18126456465250018,"32":-0.16434247779775202,"33":-0.0669875932746869,"34":0.09834373674194129,"35":0.14097605965491117,"36":-0.14157538705365857,"37":0.13525854985517033,"38":0.11255507298783042,"39":0.13761908537433584}},"42":{"bias":0.16582473104627657,"weights":{"0":-0.01669833063360155,"1":-0.1113099927500049,"2":0.007468924280768594,"3":-0.0822659361135581,"4":-0.17358907331950596,"5":-0.09271108859962865,"6":-0.09834270786429747,"7":0.07059767115341685,"8":-0.14975311929024204,"9":0.11321674008107972,"10":-0.17610612771987227,"11":-0.11867479514774674,"12":-0.0008181929793009383,"13":-0.05349872052793267,"14":-0.15315160344870432,"15":-0.023711462150445506,"16":0.07604606143736364,"17":0.09401130935518327,"18":-0.1644007087231934,"19":0.10447759609124387,"20":-0.14667021002669398,"21":0.07917340305372875,"22":-0.11322938847865426,"23":0.20219938370409235,"24":0.02865405008216242,"25":-0.2773178321948873,"26":0.1541491082322831,"27":0.07488557114211668,"28":-0.10786691909978748,"29":0.24242843850832332,"30":-0.0027841352083589326,"31":0.1232581564495983,"32":0.12751308926122293,"33":-0.062416486296815774,"34":-0.03602782322222558,"35":0.009194234001380003,"36":0.05922704967854113,"37":0.1309261758158829,"38":-0.058725546063125765,"39":0.15333590180283255}},"43":{"bias":0.06786766027975474,"weights":{"0":-0.1864542418133324,"1":-0.024158562826914295,"2":-0.05382930882344985,"3":-0.0659048531310053,"4":-0.001432792612383843,"5":0.09072424330180848,"6":-0.02998369076179577,"7":-0.034933380782207785,"8":-0.09850959252586473,"9":-0.04846439579503884,"10":0.16876384975520012,"11":0.12919436100203538,"12":-0.11831838138240044,"13":-0.05522006370634252,"14":-0.1709039433903521,"15":0.1409254794868372,"16":0.14585119920150744,"17":0.0030101405712384065,"18":-0.03947283901269126,"19":0.16587033075168092,"20":-0.10441588531863921,"21":-0.08820352141821622,"22":-0.17446105208718224,"23":0.07570968101886043,"24":0.029619475076040683,"25":0.09413252909531403,"26":-0.1522443783603983,"27":-0.1094170428431749,"28":0.03366291552789208,"29":-0.11905966321729546,"30":0.09210485338050609,"31":0.15223399090195053,"32":-0.14617563629997038,"33":0.01273060943541126,"34":-0.11567231844329919,"35":-0.009039108665424341,"36":-0.004452927834309855,"37":0.0363564206235996,"38":0.1841535000289643,"39":-0.06139013866084024}},"44":{"bias":0.10653224375901915,"weights":{"0":0.013697219002163032,"1":-0.06955931297280131,"2":-0.05473443427477959,"3":-0.0426053679010415,"4":0.0728547716991896,"5":0.007667910971851434,"6":-0.12826004104320313,"7":-0.13800287250315038,"8":-0.19518436412728962,"9":0.07631708312649386,"10":-0.002942844799066805,"11":0.14881526911550427,"12":-0.12344150765620371,"13":0.0078953955463593,"14":-0.11259783362110869,"15":0.23432555006359734,"16":0.11596231606997931,"17":0.13385087077062513,"18":0.22355290874583034,"19":0.07014828120692702,"20":-0.1693532054867995,"21":-0.10825919104299783,"22":0.055759582933952986,"23":-0.21002538366342094,"24":0.06387625434443339,"25":0.10369158708796332,"26":0.043605685043440534,"27":-0.17862804950167063,"28":-0.09654272097985846,"29":-0.13000963225179227,"30":-0.12205063164087662,"31":0.19540985840935718,"32":-0.026334229304976677,"33":-0.010135099424456206,"34":0.17484410982803916,"35":0.2062618968836036,"36":-0.14991631649862652,"37":0.19053894954912434,"38":-0.1464705012908308,"39":0.06668548025407174}},"45":{"bias":0.05341393112277678,"weights":{"0":0.1229103218512728,"1":0.04867607554070397,"2":0.13688841480928932,"3":0.048375180606845654,"4":0.1370006348193258,"5":-0.044332745692274245,"6":0.17008565570212675,"7":0.08098277434559564,"8":-0.022191408393188665,"9":-0.028091302098055885,"10":0.18119002509043744,"11":-0.1355042083396715,"12":0.142714773544477,"13":0.1612842013564192,"14":-0.05843371621742169,"15":-0.16185613622345246,"16":-0.0641677768289352,"17":0.05297726208548864,"18":-0.07075151592447224,"19":-0.16023281501198372,"20":0.1025033168614832,"21":-0.010570443431351169,"22":0.0688863665691572,"23":-0.20608544463742745,"24":0.11940459314950226,"25":-0.025876677682894155,"26":-0.1499639751605166,"27":0.022720903512776832,"28":-0.10240071296380024,"29":-0.06466747968848381,"30":-0.14255037755976607,"31":-0.04532865319832037,"32":-0.04951974021164683,"33":-0.04860644426398754,"34":0.10530519300089193,"35":-0.08459951412543021,"36":-0.0851377717805464,"37":-0.10433552415058821,"38":-0.06300203997923638,"39":-0.0163819054984472}},"46":{"bias":0.03333705420568712,"weights":{"0":0.23214326972606303,"1":-0.1518384123984044,"2":0.09827712068066558,"3":-0.013108491746618704,"4":0.2457876744376514,"5":0.0920677148006692,"6":-0.08387569482492536,"7":-0.24328478714319832,"8":-0.04452426093996198,"9":0.2098469976146285,"10":0.2342875432930487,"11":0.22530007913492642,"12":0.1556725104326353,"13":-0.15700675286603313,"14":-0.003896752675664787,"15":0.2338075386832838,"16":-0.05503572337649963,"17":0.24491347875030822,"18":0.22472312724573068,"19":0.07947289589892341,"20":0.14293106027437097,"21":0.10111310709918064,"22":0.17770339388895892,"23":-0.3196676354518425,"24":0.13608147283102665,"25":0.308307239933765,"26":0.02874869973872843,"27":-0.07767549084557457,"28":0.03586214469900344,"29":-0.18376839111603255,"30":0.1739420400718369,"31":0.1266324035693757,"32":0.2990750130302693,"33":-0.20605317409403306,"34":-0.06895503505256857,"35":-0.2306921956449535,"36":-0.15874214082623042,"37":-0.01906707745413218,"38":-0.11506487104995303,"39":0.04208346499376689}},"47":{"bias":0.05870989502558917,"weights":{"0":0.13888682069311817,"1":0.06507131224365012,"2":0.1116084868677276,"3":-0.022572722479329836,"4":-0.02965013859484968,"5":-0.141960563933001,"6":0.1658420543901975,"7":0.031856815334257355,"8":-0.06760197889167116,"9":0.066012636146114,"10":-0.07837778192241188,"11":0.1371188938919935,"12":-0.11353221553363049,"13":-0.12773714752767518,"14":-0.16720095019503348,"15":0.17991212708754237,"16":-0.1272710756913822,"17":-0.10997155072881497,"18":0.12051613248799105,"19":-0.15593011201571305,"20":0.06976724157218989,"21":0.08101747705148467,"22":-0.16891217475474185,"23":0.16377102802480756,"24":0.09609277576042705,"25":-0.11043599668807155,"26":-0.1381141265704541,"27":0.14865825608973438,"28":0.0006902259353946662,"29":0.0851740153421484,"30":-0.017802415548348674,"31":-0.0038003957675847477,"32":0.08328796401107631,"33":0.015779152504546295,"34":-0.18551965511721716,"35":-0.21112372290415068,"36":-0.08855521728417678,"37":0.04992158622173479,"38":0.1512386757546312,"39":0.15737959599646345}},"48":{"bias":0.08601455459110978,"weights":{"0":-0.016011883286831823,"1":-0.19019036641300133,"2":-0.010859221587476995,"3":0.18337944155388622,"4":0.03871028457672641,"5":0.026222709027821575,"6":-0.0672577612390342,"7":-0.14933783388324193,"8":0.11451737189762715,"9":0.18423122877292603,"10":-0.057032776902175876,"11":-0.15608568166287215,"12":0.08212092723423307,"13":0.12255845045392966,"14":-0.063409015927453,"15":0.1885274318431284,"16":-0.0604980280636995,"17":-0.0735378489530549,"18":-0.15183986322165835,"19":-0.1535460302937289,"20":0.10762013939520886,"21":0.18873349398478192,"22":0.15724605722948093,"23":0.06889365056707657,"24":-0.16748602416994912,"25":0.11852829163220897,"26":-0.10277236223821062,"27":-0.023069184687134165,"28":0.13856403274075968,"29":0.01722145568643019,"30":-0.009367062781803116,"31":-0.055415382363910734,"32":0.11835300863633434,"33":-0.05010488379313046,"34":-0.13826759225008844,"35":-0.036289252716716805,"36":-0.11242527908267817,"37":0.04038735274407552,"38":-0.09448111908712913,"39":-0.09363915240346907}},"49":{"bias":0.09866641960303726,"weights":{"0":0.07139474987856113,"1":0.10579719226809167,"2":-0.1479672412130452,"3":0.10789961121968562,"4":-0.05149441753817484,"5":0.06855424664460534,"6":-0.1614800851425434,"7":0.011186400854141952,"8":-0.07261855118500017,"9":-0.10487055104427516,"10":-0.19426496033091925,"11":-0.18025494331113992,"12":0.07071453247485765,"13":0.18855310558308838,"14":0.17689133315898745,"15":0.18280753147424075,"16":0.0737724124601563,"17":0.18310506797873558,"18":-0.10436246844707933,"19":-0.09737799705307831,"20":-0.11989215633513496,"21":0.18664165325267773,"22":-0.022802946181270285,"23":-0.14650082331366826,"24":0.08910459565093382,"25":-0.1847835793749353,"26":0.19030821035634585,"27":0.12011942358697798,"28":-0.11979318763617887,"29":-0.17057458195330202,"30":-0.021572920719944506,"31":0.11013755998478222,"32":-0.07883051428095109,"33":0.15696183260187185,"34":0.02607974016812634,"35":0.0258458875152621,"36":0.05320734607728706,"37":-0.03840879140785536,"38":0.04745070146842074,"39":-0.06652776820103419}}},{"0":{"bias":0.1397691083278648,"weights":{"0":-0.32377641982521493,"1":-0.025118693235179852,"2":-0.5258017269129975,"3":-0.15418923628276396,"4":-0.0016648929810322572,"5":-0.0375055667201696,"6":-0.2807525939796786,"7":0.2055179273371487,"8":0.049935463536842604,"9":-0.10432414370087495,"10":0.01909985614466726,"11":-0.023686744494526908,"12":0.012994510713224858,"13":0.2640396559803842,"14":-0.36476306674460485,"15":-0.0015029883157625296,"16":0.06898824965346008,"17":-0.22769583567602084,"18":-0.3489855126131966,"19":-0.28706133354133867,"20":-0.19281607812067242,"21":0.0014345299371301783,"22":0.12313784390369771,"23":-0.10154144281388783,"24":0.0995743925759441,"25":-0.23872675658934037,"26":0.04016838545704962,"27":0.09255084773099831,"28":-0.05776671734686777,"29":-0.07648713152183897,"30":0.1401333773240426,"31":-0.3301595931847317,"32":0.2393609567991642,"33":0.19527429991483783,"34":0.17815323671653993,"35":-0.27493958532855833,"36":0.053735088130495205,"37":0.2968055301638107,"38":-0.09162511145178559,"39":-0.3031879280606939,"40":-0.4123196265674721,"41":0.035378311526304176,"42":-0.015753978662400362,"43":-0.04058723561840501,"44":0.15688474599545302,"45":0.1674000591258934,"46":0.36301647915160135,"47":-0.07124174692637843,"48":0.2935438429864166,"49":0.15918073235209343}},"1":{"bias":0.0449098373205503,"weights":{"0":0.05593810604806913,"1":-0.03652562789620434,"2":0.03541868450519562,"3":-0.04819585306714296,"4":0.03700831270392781,"5":-0.21572770640869168,"6":-0.24271266843918057,"7":-0.16870038553046413,"8":-0.07467958823921647,"9":-0.08397003929911206,"10":0.07425967775602531,"11":-0.12934850196829956,"12":0.08181808837799566,"13":-0.2558767492169337,"14":0.05697603456678513,"15":-0.1371799026373393,"16":0.09439677187184414,"17":-0.23805654295879744,"18":0.11501694989369039,"19":-0.22032240806567405,"20":-0.12188859761901517,"21":0.027093652490256352,"22":0.10604850225081805,"23":-0.1682860034213683,"24":-0.2616090423329034,"25":-0.15318680071365554,"26":-0.1887908135137941,"27":-0.18692700204801255,"28":-0.2513948209511135,"29":-0.036879381103462235,"30":-0.135719557459725,"31":0.08691589279622317,"32":0.10973720258465565,"33":0.10582754100839586,"34":-0.2304721897058391,"35":-0.22096069689471526,"36":0.06894290635733633,"37":-0.21612806255386874,"38":0.06341052350609144,"39":0.0327356306293139,"40":0.034025517513633266,"41":-0.19164644683643725,"42":-0.15804031602522478,"43":0.0362006731548574,"44":-0.21247841374979945,"45":0.024157900415288227,"46":-0.3216754779536119,"47":0.10368289752856265,"48":-0.2606899384847888,"49":-0.053838341546363425}},"2":{"bias":-0.08239732052582274,"weights":{"0":-0.18074582019522598,"1":0.028743652351585047,"2":-0.3434104852274592,"3":0.03740115977060675,"4":0.14603041960244234,"5":-0.16312173066235824,"6":0.08104143414939216,"7":0.2229698995873015,"8":0.01297123610923126,"9":0.08838223735490043,"10":-0.26216406521693736,"11":-0.022573328566210766,"12":-0.22618284481639686,"13":0.10805150397961033,"14":-0.24265736473394195,"15":-0.098504703236442,"16":0.02813659841072754,"17":-0.08526123670782135,"18":-0.05991351275656734,"19":-0.25787289763687843,"20":-0.18902355917576927,"21":0.19106018369592012,"22":-0.06270737813535379,"23":-0.03437384927671202,"24":-0.05742237108979836,"25":-0.23687735871789226,"26":-0.15279675029391152,"27":-0.09940278790068484,"28":-0.21778176932231474,"29":-0.17747626455277646,"30":-0.053848624135785214,"31":-0.21978675033006576,"32":0.11623046325007659,"33":-0.1706395603666067,"34":0.20117301442247884,"35":-0.21015629961595586,"36":0.08156862276718484,"37":0.06373615880274182,"38":-0.2157823905967059,"39":0.001641929852734791,"40":-0.26784847835796954,"41":0.15825081178290845,"42":-0.21834418900217373,"43":0.09894293726874032,"44":0.08314043939925389,"45":0.02171302281973818,"46":0.1914702188771799,"47":0.05052262561674274,"48":0.0024172125344214847,"49":0.07126992245968547}},"3":{"bias":-0.219274159574961,"weights":{"0":0.042211014102250824,"1":-0.29987452342879667,"2":-0.11705648114945981,"3":-0.12389432102206029,"4":-0.19560265404483687,"5":-0.1764374486746467,"6":-0.04238051896722793,"7":0.07786846917295208,"8":-0.1489426322717767,"9":0.1066251848538731,"10":0.04897768531707995,"11":0.05435693400710061,"12":-0.2567274057007654,"13":0.1319994261540707,"14":-0.05770518206732774,"15":-0.08512594182967473,"16":0.012146244112405146,"17":-0.032030364168927176,"18":-0.253303880708185,"19":-0.05390571553088277,"20":-0.20471560356605642,"21":-0.2419355168775514,"22":-0.14340177570619125,"23":-0.23955657903340835,"24":-0.11429958685580771,"25":0.0532071507344357,"26":0.04748128370917282,"27":-0.26628004360570157,"28":0.029118445935456864,"29":-0.0155679266028036,"30":0.09245173667841618,"31":-0.26318984856810396,"32":0.11793218894478671,"33":-0.012453203937466854,"34":0.07083470359764317,"35":-0.0725170770338597,"36":-0.08593208064369282,"37":0.02370865666109464,"38":-0.0950614309682642,"39":0.05702901551878051,"40":-0.24675971316110942,"41":-0.11845644074444833,"42":-0.23434244245816246,"43":-0.11622064179583885,"44":0.058912642468689574,"45":-0.11577066622402592,"46":-0.09609053048628838,"47":0.0018967051114866555,"48":-0.1566018589222253,"49":-0.11839233146144544}},"4":{"bias":-0.25235413945746266,"weights":{"0":-0.02953232226907289,"1":-0.1201365409307068,"2":0.016241222125589212,"3":-0.1531977923348574,"4":-0.14620007861555798,"5":0.1368312384982222,"6":-0.116678793008387,"7":-0.23995044042358038,"8":-0.1701710559840513,"9":0.06904179733129354,"10":-0.08980889825190416,"11":0.11272383957792009,"12":0.19801087359513578,"13":-0.12933130591902472,"14":0.08430118328234741,"15":0.020576798836167403,"16":0.04960403062711208,"17":0.0644798310699529,"18":0.15457763325898846,"19":-0.17185322896643035,"20":0.09295947886239603,"21":-0.016428186798696592,"22":-0.08128981863051749,"23":-0.11971303173034065,"24":-0.14394587003604734,"25":0.045665029647054704,"26":0.07190088981012697,"27":0.008014244071210158,"28":0.06309377174911816,"29":-0.09699863669686269,"30":-0.1096444763781317,"31":0.17841060427524189,"32":-0.14841887404100465,"33":-0.0721816008561312,"34":-0.0012441105174061664,"35":0.04813695736848191,"36":-0.14365889476614785,"37":-0.28279716355073187,"38":0.0907073859447489,"39":-0.07403258124094324,"40":0.17335568270189086,"41":0.12603269231447314,"42":-0.15292108381081537,"43":-0.12627260930705597,"44":-0.23460399401172638,"45":-0.059113820240141425,"46":-0.19918161586782612,"47":0.02863715245174897,"48":-0.16129784831708457,"49":0.09541201301967007}},"5":{"bias":-0.08633883674363524,"weights":{"0":-0.2513445112289966,"1":-0.1716027872536706,"2":-0.191373925419817,"3":0.06429149836606704,"4":-0.017921494018496128,"5":-0.25587971289890576,"6":-0.012916258880476386,"7":0.16523452568672758,"8":0.08901520289686633,"9":-0.04772663568308032,"10":-0.14021279855195024,"11":-0.16557792028710677,"12":-0.2578655662997979,"13":-0.22343946231120385,"14":-0.10037939174300893,"15":-0.05482585095157873,"16":-0.03884655600279217,"17":-0.18317557666341563,"18":-0.26359144906602777,"19":0.026862269139373375,"20":-0.002295665873154641,"21":-0.010911097159877143,"22":-0.08627647403867443,"23":-0.28761566902111274,"24":0.12667048768869246,"25":-0.2668039643005464,"26":0.05467365745943811,"27":-0.06804789454439034,"28":-0.16380491500694463,"29":-0.20382429473099492,"30":-0.20559027104714353,"31":-0.18246671822874175,"32":-0.12272247238636749,"33":-0.12103557323428105,"34":0.1384920052362089,"35":-0.10806942881602506,"36":-0.12266758782189785,"37":-0.08992686629529649,"38":0.07943073098257623,"39":0.01319648353808352,"40":-0.033959354617685046,"41":0.06818576631850716,"42":0.09414325484381522,"43":0.03575963862466615,"44":-0.04264673096235476,"45":-0.20065069817347958,"46":0.1359521268070726,"47":-0.08208718083921022,"48":0.06467184557062026,"49":-0.13395897034397444}},"6":{"bias":-0.056112370261711786,"weights":{"0":-0.0328978342018357,"1":-0.2032267344777684,"2":-0.3080779295141246,"3":-0.1491630256551913,"4":-0.08268993418311985,"5":-0.20426552599102385,"6":0.02404156654329318,"7":-0.013228137636160946,"8":-0.22960249215159642,"9":-0.014004090437086099,"10":-0.1929639397893093,"11":-0.19113836126230557,"12":-0.05424549851252511,"13":0.02160848916103547,"14":-0.0023468306796538742,"15":0.006834286035419445,"16":-0.04712422111402699,"17":-0.2279102202257944,"18":-0.030723028725010086,"19":-0.030447900435886625,"20":-0.11666692039281647,"21":-0.05761256206051687,"22":0.04277625528668922,"23":-0.08816043556148224,"24":0.008039037982575228,"25":-0.10726259039854243,"26":-0.0839459787605787,"27":0.1440866631842365,"28":-0.20921461243588202,"29":-0.012798617384130948,"30":-0.07691114245305007,"31":-0.22115490631515616,"32":0.0859502819967507,"33":-0.14336844972635035,"34":0.05908595272231453,"35":-0.13990275179304767,"36":-0.08230970784564381,"37":-0.11398904025384744,"38":0.013607337983050716,"39":-0.19466460057497076,"40":-0.31512927994220885,"41":-0.07621541801270423,"42":-0.18303428645728337,"43":-0.039928092316956675,"44":0.20200076328444372,"45":0.17072879499424956,"46":0.23544626916379274,"47":0.005553718651741888,"48":-0.12280482171957516,"49":-0.08153019245922853}},"7":{"bias":0.04558096980466854,"weights":{"0":-0.11499837920414845,"1":-0.01780613942856458,"2":-0.16401127031202978,"3":-0.10307753192300965,"4":-0.2686917765978089,"5":-0.24838463294777,"6":0.12644493717176383,"7":-0.08787029968426424,"8":-0.14969981291640622,"9":-0.1746379896846076,"10":0.011523873939848684,"11":-0.0275680540903703,"12":-0.09752124466565545,"13":-0.05797208018102328,"14":0.16690489634396607,"15":0.166079171318261,"16":0.09511319821969738,"17":-0.24002092938188122,"18":-0.050755759414302715,"19":0.041288906955280556,"20":-0.18739856042341402,"21":-0.16304160072945373,"22":-0.046735963957423445,"23":-0.06220470349169895,"24":0.07468185382435452,"25":-0.01607856197041826,"26":0.05052438485249237,"27":0.10689551423578252,"28":-0.08708745177987091,"29":-0.10443854533014613,"30":-0.2551346267348275,"31":0.15176161479848863,"32":-0.24987379792966138,"33":0.05110588885776066,"34":-0.2191516731817695,"35":-0.017909961329087367,"36":0.09505977934784773,"37":-0.14063832789361666,"38":0.10883799367705682,"39":0.12255015070902758,"40":0.07857908555072349,"41":0.10334264013792756,"42":-0.08208545321872683,"43":-0.26311404652646075,"44":-0.21619810090951166,"45":-0.05982390706400031,"46":-0.23027370705918038,"47":0.08171057456810352,"48":-0.2522176679892112,"49":0.04197648684643325}},"8":{"bias":0.03667050470281761,"weights":{"0":0.04563236989193869,"1":-0.010674506302766914,"2":-0.012144030777649556,"3":-0.10731211496769383,"4":-0.2868429850800643,"5":-0.2235867087109876,"6":0.0716670892827043,"7":-0.05014685423317057,"8":-0.1532775165653077,"9":-0.08855318997794713,"10":-0.22895930809570725,"11":-0.09595333571416037,"12":-0.08875342254447016,"13":-0.09339868430389703,"14":0.06775139921511977,"15":-0.24178197869583948,"16":0.0017014961960384672,"17":-0.16106355688839943,"18":-0.21876098043799044,"19":-0.10693013629093429,"20":-0.22123370255998678,"21":-0.056988944263055966,"22":0.09762149028207483,"23":0.007581374278846982,"24":-0.09753041512629836,"25":0.0767688199719989,"26":0.13741416169617796,"27":-0.26378836606394157,"28":0.05136461916793162,"29":-0.12034829407541973,"30":-0.11265158829076283,"31":0.0871026357084551,"32":-0.1414051810946726,"33":0.062381136160409446,"34":0.05336706351933021,"35":-0.033023818880516975,"36":-0.003579288446640767,"37":-0.08314701631113393,"38":-0.026874527902972616,"39":-0.1748070795317974,"40":-0.19117338882490914,"41":0.07225722745533707,"42":-0.1342079111031431,"43":-0.007250842126532156,"44":-0.2549395478779875,"45":-0.218688976525931,"46":-0.19698237139956326,"47":-0.2318425598326209,"48":-0.2500165737323568,"49":-0.11625435875352524}},"9":{"bias":0.27036847620924903,"weights":{"0":-0.2655788657320397,"1":-0.02823969936335895,"2":-0.36534239009502684,"3":-0.11765189325222387,"4":0.09556756154348063,"5":0.10325334991182439,"6":-0.25245581666873046,"7":0.08009755470577092,"8":-0.11846416605177819,"9":0.03359146302418662,"10":0.0787063296762041,"11":-0.11027738856058007,"12":-0.15467920749733063,"13":0.28469170639591057,"14":-0.3291466076342803,"15":-0.20087927750714699,"16":0.055371424219334574,"17":-0.21700056889410171,"18":-0.27683483591659236,"19":-0.21535722211775532,"20":0.044928944151846,"21":0.12184837507720009,"22":-0.019337899478464385,"23":-0.01917871019181497,"24":-0.02198404813165373,"25":-0.15169785246175058,"26":-0.10033575296684383,"27":-0.17112143827500353,"28":-0.10381247061446956,"29":0.018090926900227056,"30":0.0342765569093591,"31":-0.4528335487795453,"32":-0.05656781656278957,"33":0.20944086815189444,"34":0.16796067564159303,"35":-0.2135151519114735,"36":-0.0688364242148997,"37":0.32556519759185093,"38":-0.14523756290409726,"39":-0.0329726666497175,"40":-0.449214725064518,"41":0.024416775013498704,"42":-0.005165748924870329,"43":0.22116910696393147,"44":-0.07323471371248522,"45":0.08853280623398598,"46":0.14960513797684546,"47":0.10566290464833812,"48":0.22019851926994863,"49":-0.05221719026131075}},"10":{"bias":0.06258305408416326,"weights":{"0":-0.17010048915819173,"1":-0.09859895122705188,"2":-0.3928117186184457,"3":-0.06965975471518888,"4":0.0158049235328427,"5":-0.11585338435851894,"6":-0.17226640151991265,"7":-0.07942000469139616,"8":0.018701649258077085,"9":0.02196671067142872,"10":-0.16458370468122013,"11":-0.29322140441453776,"12":-0.0028954325019645982,"13":-0.1850642355364799,"14":-0.04389799724377568,"15":-0.12332971997340288,"16":-0.08780651130421649,"17":-0.13472137873070866,"18":-0.07466460371656132,"19":0.050941582873750585,"20":-0.01812682204741239,"21":0.000536745509451119,"22":-0.23370618790417685,"23":-0.045598618884310535,"24":-0.016667228258886627,"25":-0.2484701100619525,"26":-0.16835099345657423,"27":-0.0809092045795535,"28":0.015855754220883804,"29":0.12787892329117653,"30":-0.04231032530257085,"31":-0.20607646225056636,"32":-0.22002306527000287,"33":-0.12107722168742369,"34":-0.10455216171177335,"35":-0.04315818695282956,"36":-0.08354345826679077,"37":0.027846924289631002,"38":-0.09242102372166641,"39":0.013255758323791887,"40":-0.34925504227674764,"41":-0.04317520867106138,"42":-0.051869947246459325,"43":-0.18110045467857647,"44":0.013889561478194328,"45":0.0015500193858836065,"46":0.16657462468794426,"47":0.12057381587925566,"48":0.13019260536569183,"49":-0.16939272337741718}},"11":{"bias":0.2529439390687926,"weights":{"0":-0.19862063936793053,"1":-0.21974400934392274,"2":-0.5409488585092802,"3":-0.2468519689775481,"4":0.17054870825947965,"5":0.075707496953859,"6":-0.2442994813887696,"7":0.32414944384613414,"8":0.1922953041244233,"9":-0.046853017890231254,"10":-0.029910880679442853,"11":-0.18491981323833023,"12":-0.30157031899030107,"13":0.24196905332250013,"14":-0.3955387328627625,"15":-0.0970517202035031,"16":0.09552290359059372,"17":-0.20365641795045616,"18":-0.31403357233812873,"19":-0.1484874724624036,"20":0.04152320008413295,"21":0.3101657290479162,"22":-0.18490589830998652,"23":0.09555348608087785,"24":-0.10483238431985518,"25":-0.2083630039955414,"26":0.18794893672226665,"27":0.07977565871097464,"28":-0.08466436933481296,"29":-0.06234137899737207,"30":0.1925265234220461,"31":-0.4171370895015335,"32":-0.03287894801268971,"33":-0.04887738656236005,"34":0.3485083537579931,"35":-0.07893215425557995,"36":0.09419219213667164,"37":0.11806658950472135,"38":-0.25146756849072394,"39":0.008411562840072922,"40":-0.5492058680675527,"41":-0.057138066334022526,"42":-0.0856695199955377,"43":0.056953118397501064,"44":0.2516295409047766,"45":-0.04471376701344329,"46":0.559425489054182,"47":0.163391747111442,"48":-0.02562943116169463,"49":0.12612731127575785}},"12":{"bias":0.09773802427003114,"weights":{"0":-0.2206170453671811,"1":-0.1403014195287001,"2":-0.14986650701829038,"3":-0.07248527999194183,"4":-0.20151511396301505,"5":-0.24490457667201254,"6":-0.03653535382098011,"7":0.1431829887345497,"8":-0.11402928020436456,"9":-0.24652014321210378,"10":-0.09951038098043233,"11":-0.07401726389718025,"12":0.1487966873946099,"13":-0.1815939793864814,"14":-0.05189586964653325,"15":-0.1613694269394412,"16":0.0027695986326411594,"17":-0.09187913697741497,"18":-0.22848643008219663,"19":0.09732962715285208,"20":-0.026307395060869293,"21":0.05010262230468506,"22":-0.18713585830306081,"23":-0.16086132247045912,"24":0.00019672023315653688,"25":-0.2007493025560039,"26":0.007964900058350082,"27":-0.120779273602111,"28":-0.07542807770598532,"29":-0.15731445745089026,"30":0.044476062130116345,"31":-0.28024263772324204,"32":-0.18522002140878005,"33":-0.054612496506685364,"34":-0.0251356213648715,"35":0.0020939830567701305,"36":-0.00811063601762646,"37":-0.24057668036832008,"38":-0.19146481515975436,"39":-0.24277009454259948,"40":-0.11701960492460747,"41":-0.19410158346005466,"42":0.07293555227599885,"43":0.03806275331037602,"44":0.03187787146036884,"45":0.09980653456824387,"46":-0.22386466075563713,"47":-0.08138858178808565,"48":-0.03479587479370481,"49":-0.06820709175738958}},"13":{"bias":0.2207713845830581,"weights":{"0":-0.3405009978075538,"1":-0.1034900284058529,"2":-0.23974621380271002,"3":-0.1235527442620374,"4":0.20125069759370534,"5":0.0756891192159809,"6":0.008592354403467162,"7":0.20838390123582085,"8":0.0384084924479266,"9":0.18886625323196424,"10":-0.24567275115964587,"11":-0.26970288184562363,"12":-0.041441767196236164,"13":0.2349686437035706,"14":-0.3535418141414937,"15":0.013967409092107695,"16":0.09049847212115729,"17":-0.05161999525263704,"18":-0.36609078920593463,"19":-0.06317109965829175,"20":-0.1455523165172219,"21":0.2858962903872866,"22":0.11696699591905893,"23":-0.16101442574698951,"24":0.14264620290887253,"25":-0.23331154455809922,"26":-0.1742621369981334,"27":0.013558937871414501,"28":-0.14528137865404456,"29":-0.15424170176120017,"30":0.09215635083481012,"31":-0.5383607777115594,"32":0.04645486319730268,"33":0.04574492241812065,"34":-0.017009197119177148,"35":-0.3544606757229044,"36":-0.13669927775775606,"37":0.21448673267046872,"38":-0.2783339862988438,"39":-0.3304458726023628,"40":-0.22665786533669072,"41":0.1283066367368914,"42":-0.048673274244337206,"43":-0.09217956725026276,"44":0.28558947804191476,"45":0.18616448150763046,"46":0.4617438080831658,"47":0.18468145870534905,"48":0.13081772582820475,"49":0.06537462530707873}},"14":{"bias":-0.10892732591350845,"weights":{"0":-0.15593287401425118,"1":-0.2466791030061673,"2":-0.1888364150596448,"3":-0.07342894777159686,"4":-0.011447776987324116,"5":0.09829871997685911,"6":-0.08037227904702304,"7":0.1874636323507999,"8":-0.20512988951432226,"9":0.04595265920214113,"10":0.11232862027078756,"11":-0.057089350415762255,"12":-0.2735025044376419,"13":0.052893024437199315,"14":-0.06558455065802729,"15":0.03687577864467146,"16":-0.06290512837059302,"17":-0.238974830203906,"18":-0.118275573015956,"19":-0.23961048838183094,"20":-0.06275449531472128,"21":0.10307825230789773,"22":-0.08699861849870623,"23":-0.19220955004541457,"24":0.16404784179426332,"25":-0.03245980743054452,"26":0.05632434802648888,"27":-0.2527626558787872,"28":0.10147780117204849,"29":-0.023826953200419443,"30":-0.21872905898909276,"31":-0.24972739379668132,"32":0.14683813418461572,"33":0.08400667648945573,"34":-0.028541246196866855,"35":-0.2841713859876244,"36":0.12120299710197371,"37":0.17193992970189736,"38":-0.2625639286683545,"39":-0.2892237047661725,"40":-0.20208018174742806,"41":-0.181613819790477,"42":0.05397623818615239,"43":0.03396640683059462,"44":-0.06424054831013032,"45":-0.04542231451930188,"46":0.11516414232649841,"47":0.0892774894414912,"48":-0.044907027797459906,"49":-0.10025086684637885}},"15":{"bias":-0.14163066984558317,"weights":{"0":-0.017605634120289912,"1":-0.004466040497550149,"2":0.34827522878203215,"3":0.20011614748719161,"4":-0.2406351335750774,"5":0.2007055307923949,"6":-0.10125619508144004,"7":-0.04969304238434952,"8":0.1526868476772504,"9":-0.148599280175416,"10":0.15605053644908254,"11":0.02486936651006578,"12":0.27221125405103425,"13":-0.01849786239085348,"14":0.17054799337922058,"15":0.1747988918122024,"16":-0.019496497782109438,"17":0.08968728634456768,"18":0.16805251727228032,"19":0.10977586078762862,"20":-0.13004002961644556,"21":-0.1785421798213964,"22":0.13942685094384677,"23":-0.14152599808731936,"24":-0.16627163339323509,"25":0.22826587447292937,"26":-0.06444751100619484,"27":-0.15446564983031424,"28":0.15087013014975922,"29":-0.1337994152158823,"30":-0.23026977797040685,"31":0.3219211512576612,"32":0.048577986214745475,"33":0.11013394469496424,"34":-0.16599371672729987,"35":0.22095810424372034,"36":0.15255105507183508,"37":-0.024515118942027295,"38":-0.07306424935793052,"39":0.01634059652044987,"40":0.32487830051206584,"41":-0.099605921896493,"42":0.11465846102438114,"43":-0.10880566934345136,"44":0.03663218743717989,"45":0.041797964573417286,"46":-0.3576402920255705,"47":-0.22825970545567986,"48":-0.10096003634913836,"49":-0.15767802508015052}},"16":{"bias":-0.03442193446243466,"weights":{"0":-0.03854776765145082,"1":-0.1797430467776636,"2":-0.29230573563084017,"3":-0.12666644433393864,"4":-0.21694612892943882,"5":-0.19088629175649943,"6":0.05028495089875136,"7":-0.008750747003358962,"8":-0.015330414080176878,"9":-0.030761272251865642,"10":-0.20502376676054776,"11":-0.23468894373911509,"12":-0.02957688631220258,"13":0.07946899203341198,"14":0.024897386804083536,"15":-0.22560366153403738,"16":-0.13295776096343725,"17":-0.21796391431020098,"18":-0.03309743123761295,"19":0.006999123304224937,"20":-0.20467299239257974,"21":0.10801515397478507,"22":0.11915248663500747,"23":-0.1569758768915299,"24":0.006646686040263892,"25":-0.1821268665127857,"26":0.011624713628975542,"27":-0.28717322792859923,"28":-0.11178653133256657,"29":-0.24641521187429688,"30":-0.15123818264884054,"31":-0.0009760775734605141,"32":-0.04475542277301145,"33":-0.08653462212039001,"34":-0.07596531315385081,"35":-0.14813312372615425,"36":0.11913848957793179,"37":-0.14345484183178914,"38":0.029515887838739655,"39":0.028022937176201145,"40":-0.29132160408297764,"41":-0.029084178752364628,"42":0.08544356501196455,"43":-0.1397006696467178,"44":-0.09945274223904639,"45":0.03608943985586765,"46":-0.18794343891256793,"47":0.08465391132081053,"48":0.0940994338187826,"49":-0.03434149853020185}},"17":{"bias":-0.1323541528286096,"weights":{"0":-0.2127063676956632,"1":-0.1961834539422641,"2":-0.10715586040949877,"3":-0.12894135131498266,"4":0.10414720212474889,"5":-0.06088550338704552,"6":0.06449043159034087,"7":0.14378155886572191,"8":-0.24140878662887508,"9":0.049793048814568544,"10":-0.15861871048989423,"11":0.014861665029405028,"12":-0.14415542844713286,"13":0.027385105709712157,"14":0.025601887346851183,"15":-0.15355735121270336,"16":-0.08861086923984776,"17":-0.009090318327897582,"18":0.04043621928569465,"19":0.058878330643333004,"20":-0.1178854322106452,"21":0.10309564754586333,"22":-0.16033142583342588,"23":-0.15789977972689706,"24":0.06645487342591,"25":-0.11379053188134505,"26":0.0007578859266177411,"27":-0.041482653877761975,"28":-0.1832502992578165,"29":-0.2114982554919899,"30":0.006992516769110763,"31":-0.2679148109839303,"32":0.08948647799062998,"33":-0.2590438672941696,"34":-0.1671064285271988,"35":0.011752986990759549,"36":0.032189659819324916,"37":-0.10168485016713164,"38":-0.06808305775822361,"39":-0.30796073197873075,"40":-0.30131658001590694,"41":-0.19443820399427456,"42":-0.11441227542265488,"43":-0.09751026311326115,"44":0.025230785424954535,"45":0.11536022246584668,"46":-0.026436155185125154,"47":-0.03145712762380705,"48":-0.193174033933349,"49":-0.12905659307022166}},"18":{"bias":0.07860933486093649,"weights":{"0":-0.2446643152471511,"1":-0.2517437014011406,"2":-0.2844258841578994,"3":0.005801067541679739,"4":-0.01872390600636587,"5":-0.24614837699412073,"6":-0.24686679479247145,"7":-0.19805723085798477,"8":-0.013130074190449894,"9":0.14757308256107776,"10":-0.15205944972751478,"11":-0.2761878077331932,"12":-0.12160486241596337,"13":0.17533805770618338,"14":-0.33048206910600436,"15":0.02425459808630292,"16":-0.03059004471628339,"17":0.05679788559282485,"18":-0.2409786793423908,"19":-0.007537211595660207,"20":-0.20494180359529487,"21":-0.12845874988374192,"22":-0.045255973252524,"23":0.019910767572626806,"24":-0.05468103670298068,"25":0.05441600599380426,"26":-0.2296212025490532,"27":-0.26222300865864206,"28":0.08702442023871682,"29":-0.12376251029347977,"30":0.10624785356942663,"31":-0.19709748582808254,"32":0.03342450644997367,"33":-0.013973867425410989,"34":0.15362598608242298,"35":-0.11976758473355187,"36":0.01818614453463898,"37":-0.050426116002306925,"38":-0.17698482045501038,"39":-0.11959448258969184,"40":-0.26488886289795616,"41":0.016254204944554273,"42":0.12021432468064315,"43":-0.008318546093168464,"44":-0.10694990658928215,"45":0.10185338165361806,"46":-0.029946325027639536,"47":0.06017299687722674,"48":-0.05833586259790964,"49":-0.07569163616355953}},"19":{"bias":-0.06744356774092868,"weights":{"0":0.050134690362973786,"1":-0.19758873401502489,"2":-0.3558632064690744,"3":0.07440136096422774,"4":0.1378132320471977,"5":-0.23788020334074517,"6":0.025299568087919787,"7":0.16985531464837847,"8":0.08050382020452669,"9":0.08853118063095934,"10":-0.12009381138176216,"11":-0.19840509354618746,"12":-0.2164046482436148,"13":0.1589259518977968,"14":-0.2157864063735353,"15":0.04625729377112736,"16":0.061537607238670244,"17":0.05920651453018118,"18":-0.3073031551050194,"19":-0.25451996969697716,"20":-0.16306252568978766,"21":0.11976217346038412,"22":-0.04314953464282535,"23":-0.19239808109478848,"24":0.002485961414226652,"25":-0.01991596963896007,"26":-0.0779290801922164,"27":-0.004656690932172669,"28":-0.27202655080638544,"29":0.05088977396684375,"30":0.13689335371324182,"31":-0.35653557804912295,"32":-0.11919107491639899,"33":0.1455556137328044,"34":0.18320715827038908,"35":-0.1013660971243111,"36":-0.20315641439872603,"37":-0.16104544343388494,"38":-0.13750846583385873,"39":-0.2623980932504445,"40":-0.20691963043672418,"41":-0.17560912952708713,"42":0.010336514962887573,"43":0.17018198251358266,"44":-0.011074279804598432,"45":0.09510099022934493,"46":0.016700465453314568,"47":-0.2308982072061289,"48":0.021313348556874754,"49":0.049274202245111004}}},{"0":{"bias":1.1507915383266447,"weights":{"0":-0.735569792693941,"1":0.15611322527155228,"2":-0.5483299090299374,"3":-0.14674299303386962,"4":0.2127935971631203,"5":-0.23904572612615366,"6":-0.3673958584906403,"7":0.1980972420862941,"8":-0.04941165922016888,"9":-0.7718385770118469,"10":-0.2974273523208339,"11":-0.8232401820861863,"12":-0.1757630395534563,"13":-0.7820121715655937,"14":-0.5008162891202383,"15":0.6972184222651999,"16":-0.2015605798489572,"17":-0.12699979564079833,"18":-0.480722393263182,"19":-0.5446903832091148}},"1":{"bias":1.0689071900604386,"weights":{"0":-0.7977308999352585,"1":0.030505199228712424,"2":-0.4534884209217217,"3":-0.2668872000885121,"4":0.3444113185658355,"5":-0.30959156389065534,"6":-0.3093819708076781,"7":0.20277460612203416,"8":0.08502373660201012,"9":-0.5783279932566833,"10":-0.4191184002704626,"11":-0.9075867554515984,"12":-0.09954711477290626,"13":-0.7640782384662457,"14":-0.23803843355669738,"15":0.4637432524039949,"16":-0.14270851416930988,"17":-0.35365303257663133,"18":-0.1952943557164127,"19":-0.26979936154376716}}}],"outputLookup":false,"inputLookup":false}