{"layers":[{"0":{},"1":{},"2":{},"3":{},"4":{},"5":{},"6":{}},{"0":{"bias":-0.09649362227776877,"weights":{"0":-0.20164872135092707,"1":0.048426837804620995,"2":-0.21046962860842286,"3":-0.19123227237565601,"4":-0.08757983956552294,"5":0.12442090251206905,"6":-0.2139591521373588}},"1":{"bias":-0.111642625661459,"weights":{"0":0.3125887655360035,"1":-0.008043377931159364,"2":0.014025662363077228,"3":0.0154014036501687,"4":0.152706389174883,"5":0.27864959660549343,"6":0.3370364991072566}},"2":{"bias":-0.08457508859445756,"weights":{"0":0.36792063340171094,"1":0.28630975591240854,"2":0.2241886091672064,"3":0.25423641472177116,"4":0.42179983901722085,"5":0.280839980041064,"6":0.12325713303721754}},"3":{"bias":0.17105160942096287,"weights":{"0":-0.15801682045926782,"1":-0.14711682030655576,"2":0.16990279811452955,"3":0.0753235474844186,"4":0.018003620604556205,"5":0.08630638212974322,"6":-0.026810115209039316}},"4":{"bias":-0.09778518317789768,"weights":{"0":-0.010828087346554495,"1":0.3546479040295956,"2":0.38225132180658417,"3":0.33245510822363045,"4":0.14438863700823049,"5":0.2880881618664013,"6":0.37860979996401173}},"5":{"bias":0.03815503238112879,"weights":{"0":0.11712965002886822,"1":0.11637678309491652,"2":0.20986727984953554,"3":0.1059429271754122,"4":0.07571347839853157,"5":0.09267051015550952,"6":0.3028893648912481}},"6":{"bias":0.15348845764431499,"weights":{"0":0.05488059199744119,"1":-0.34216658228437735,"2":0.027308724745187404,"3":-0.10898823190884539,"4":-0.1700098065914524,"5":-0.0728730420973212,"6":-0.22580673440226062}},"7":{"bias":0.09829521170385971,"weights":{"0":-0.02153374968821952,"1":0.08305065937118707,"2":0.10722016545122899,"3":-0.07498198879188203,"4":0.04970970509158884,"5":0.24608789045741528,"6":-0.09379318468800354}},"8":{"bias":0.15629775973266974,"weights":{"0":-0.23287862749659993,"1":-0.3611674311376836,"2":-0.3665668793765255,"3":-0.09937183406025311,"4":-0.21854433569551232,"5":-0.3256003935054572,"6":-0.36469571525187283}},"9":{"bias":0.041403938828268955,"weights":{"0":0.15608454556054188,"1":0.39085939244771917,"2":0.2271771228990171,"3":0.16701035953581972,"4":0.3900847379748559,"5":0.1828775508576464,"6":0.21058249287130895}},"10":{"bias":-0.06585997973321066,"weights":{"0":0.17674750291272062,"1":-0.09562526936895584,"2":0.04130836094131082,"3":-0.07097246003101756,"4":0.11987646253939697,"5":0.2335794402790429,"6":0.05943428981101277}},"11":{"bias":0.1008159280986211,"weights":{"0":0.13215519519443766,"1":0.0022300280980077558,"2":-0.25115077840486794,"3":0.06793263597220674,"4":-0.0889534254569703,"5":-0.055620112057490824,"6":-0.15665302368179798}},"12":{"bias":0.10810986252386369,"weights":{"0":-0.10666172415005014,"1":-0.07959853000743856,"2":-0.23471863093874257,"3":-0.2512929898158335,"4":-0.21349598529133337,"5":-0.1112349952035915,"6":-0.13895327628802825}},"13":{"bias":-0.039518506786294275,"weights":{"0":-0.16557062409843532,"1":-0.32874240344468425,"2":-0.282626271059027,"3":-0.01357527605382784,"4":-0.033900393005083365,"5":-0.013077973949449269,"6":-0.26505485317361854}},"14":{"bias":-0.15913002866575832,"weights":{"0":0.015341074672013792,"1":-0.20854423738214925,"2":0.1680376105558009,"3":-0.2112089019092432,"4":0.09111882763820037,"5":0.06949151484183017,"6":0.00853444720379169}},"15":{"bias":0.1532594638570311,"weights":{"0":-0.10418946968751616,"1":-0.028053158576768742,"2":0.17386830043413112,"3":0.07363119053823466,"4":-0.09111734857382614,"5":0.03247417908651214,"6":-0.11100951397612009}},"16":{"bias":-0.07092397446241465,"weights":{"0":0.3319207431192336,"1":0.3693400044536519,"2":0.3023746986001562,"3":0.31192970068988374,"4":0.2555187923442294,"5":0.38742857435782196,"6":0.28459824140632767}},"17":{"bias":-0.17182214524004094,"weights":{"0":0.3302507856860661,"1":0.13736879932576376,"2":0.22321187933099532,"3":0.05876948918680241,"4":0.19135588923904995,"5":0.3334268000030828,"6":-0.04030577480818615}},"18":{"bias":-0.17561518149641342,"weights":{"0":-0.06896192342601054,"1":0.14563688660076046,"2":0.15443293815676712,"3":0.0147564326170549,"4":-0.01752270183983869,"5":-0.10217308143771381,"6":-0.0005530851524986121}},"19":{"bias":0.10924815319889486,"weights":{"0":-0.1926358016557801,"1":0.02098070535120721,"2":0.07413262423054442,"3":-0.09437941499691596,"4":-0.17533059200708626,"5":-0.23886229035105655,"6":-0.2059682708114047}},"20":{"bias":-0.15165022746339205,"weights":{"0":-0.0359281348358241,"1":0.2946537562177599,"2":0.08024162655705412,"3":0.20311007094671224,"4":0.2539037025106784,"5":0.1109823426064185,"6":-0.048438058116634444}},"21":{"bias":-0.08590633941649484,"weights":{"0":-0.38720398933814854,"1":-0.3952017623049445,"2":-0.2802421376594677,"3":-0.09930939242342227,"4":-0.04403499621324273,"5":-0.08012081160413267,"6":-0.1857670517336113}},"22":{"bias":0.17377524555024373,"weights":{"0":0.07762337496898153,"1":-0.025400760066546617,"2":0.2752533305056428,"3":0.12640736343901118,"4":0.02346874611273316,"5":-0.02596004769129628,"6":-0.029972529386781726}},"23":{"bias":0.1136920508778719,"weights":{"0":-0.09712294194030653,"1":-0.1958228625373714,"2":-0.08533177888220225,"3":-0.3107938346286911,"4":-0.07032402698886157,"5":-0.2812661464983532,"6":-0.37154777786122956}},"24":{"bias":-0.13439748671911383,"weights":{"0":0.26784605857811256,"1":0.38803847458889734,"2":0.09018338719891404,"3":0.3561576280897053,"4":0.3148605029862865,"5":0.2560013858425206,"6":0.39878723089526746}},"25":{"bias":0.03398651416129589,"weights":{"0":0.2010236031977995,"1":0.21947208568662707,"2":-0.023381478295642237,"3":-0.09988755640255173,"4":0.12733989767428439,"5":0.036249110622926545,"6":0.15216450151701913}},"26":{"bias":-0.0021280131885178986,"weights":{"0":-0.33373913068683236,"1":-0.32280751471534025,"2":-0.35363160714839226,"3":0.014879157946536306,"4":-0.23332854142152942,"5":-0.18151412306346743,"6":-0.1573395372686032}},"27":{"bias":0.14656244196508436,"weights":{"0":-0.20760781501694633,"1":-0.04094627213105116,"2":-0.00403526081800757,"3":0.10126694911979864,"4":-0.22808193002386595,"5":-0.05340841826489364,"6":0.02909062643837457}},"28":{"bias":-0.19604714559038122,"weights":{"0":-0.12482663537536078,"1":0.007916343055581998,"2":0.001038483738923835,"3":-0.19302178531940709,"4":0.0026849810001584036,"5":-0.15421600845047267,"6":-0.09290671003278687}},"29":{"bias":0.05121946755673416,"weights":{"0":0.08649872088944283,"1":0.19858240469545874,"2":0.22536402029939828,"3":-0.008329480024478038,"4":0.1050863026136588,"5":0.08072096080500431,"6":0.014689151297660335}},"30":{"bias":-0.14847031929595686,"weights":{"0":0.08673536655037128,"1":-0.003039169093937767,"2":0.014054782645578686,"3":0.05803959705982442,"4":-0.1544285546011916,"5":0.18949291536380558,"6":-0.1514863191427499}},"31":{"bias":-0.016502584551906518,"weights":{"0":-0.26526140813405724,"1":-0.04299027690678317,"2":-0.1284966795965138,"3":-0.2227792032951876,"4":-0.4131709561248659,"5":-0.06569551453731894,"6":-0.39777119857834586}},"32":{"bias":-0.0919330940768013,"weights":{"0":0.009585009276279938,"1":0.15054011789555977,"2":-0.18828388156504322,"3":-0.20135428971683209,"4":0.16524309397277412,"5":0.07175474440171371,"6":0.007034393871243579}},"33":{"bias":0.06322366250401434,"weights":{"0":0.11117867439734229,"1":0.1987039722429965,"2":-0.08298133253194513,"3":0.26467959348108233,"4":0.24878262822049052,"5":0.08809205549775838,"6":0.005989989280058966}},"34":{"bias":-0.011795719983300682,"weights":{"0":0.027998001029767246,"1":-0.05874122297429315,"2":0.1256383020085965,"3":0.0007262208349441874,"4":0.1680886527207002,"5":0.1561151091839915,"6":0.09414526092853731}},"35":{"bias":-0.21050029641358764,"weights":{"0":0.06122351909069243,"1":0.08649941775286116,"2":0.16369217692830748,"3":0.06570816360181665,"4":0.17168127413842407,"5":0.2630264841067697,"6":0.3284720374906293}},"36":{"bias":0.0993252793524498,"weights":{"0":-0.03848016223523624,"1":-0.091424962242018,"2":-0.1211243468786298,"3":-0.07451360618622141,"4":-0.3350102058799749,"5":-0.3307944044336488,"6":-0.319045070082201}},"37":{"bias":-0.18672231823174848,"weights":{"0":-0.07960318082772001,"1":-0.01564323569084707,"2":0.11178739167733207,"3":0.09183762386250795,"4":-0.1600523956258263,"5":-0.020797576681217844,"6":-0.172320234762309}},"38":{"bias":-0.08866316973310367,"weights":{"0":0.028429676233048085,"1":-0.20397265545229623,"2":-0.13509132891101053,"3":-0.043921400895360375,"4":0.10426871521401096,"5":-0.1201724455106159,"6":-0.0491193546226055}},"39":{"bias":-0.10514792636059803,"weights":{"0":-0.13448126186816223,"1":0.01326222425197378,"2":0.1292997268707537,"3":-0.16936125517144576,"4":0.16153990769635007,"5":0.15495900090742887,"6":-0.058897630399809546}}},{"0":{"bias":-0.034732330854551366,"weights":{"0":0.17310972454470658,"1":0.14062050736228385,"2":-0.09438117596063568,"3":-0.15980999373075577,"4":0.1419747854276973,"5":0.1578423133398169,"6":0.14913580078609556,"7":-0.06269033025978325,"8":0.041235445777009085,"9":-0.04238758928411183,"10":-0.18496068584518457,"11":-0.16970735156867708,"12":-0.0364654544181624,"13":0.14023410999065794,"14":-0.06716543796474643,"15":-0.13492888860455649,"16":0.16326161757366384,"17":-0.12325150802060028,"18":-0.12251793976794713,"19":0.012199890026227388,"20":-0.044825352587275144,"21":0.08970150632583336,"22":0.026502368818863104,"23":0.08418600380568382,"24":0.1766633169551089,"25":-0.1597331152501473,"26":0.1605440185626765,"27":0.17506803474450044,"28":0.08876017836298065,"29":0.11832686696467834,"30":-0.020130539988430604,"31":-0.05053183898492486,"32":-0.14313418201664044,"33":0.08196230819132386,"34":0.10805558864703912,"35":-0.18150021101847608,"36":0.14141838607116078,"37":0.1401604832092277,"38":0.005305554828343782,"39":0.11777945478584122}},"1":{"bias":-0.0391057716155118,"weights":{"0":0.10175909283393597,"1":-0.06031676472296014,"2":0.08892410675736649,"3":-0.014011066519588776,"4":-0.00004070110340106663,"5":-0.008358836182396901,"6":-0.22417444358408264,"7":0.12384940396644237,"8":-0.08538927899502795,"9":0.25288569515664056,"10":-0.10374437963001469,"11":-0.052536118182643386,"12":0.04550546410271447,"13":-0.20342102507819018,"14":0.15100592861947598,"15":0.12128020120573892,"16":0.158555233596826,"17":-0.12159840297355728,"18":0.08436779089939415,"19":0.09502962038396705,"20":0.0944846118667455,"21":-0.250432870085427,"22":0.10063984486956437,"23":-0.12292177271338306,"24":0.21929295040058625,"25":-0.023019660794487588,"26":-0.09585248375809721,"27":0.03428271630861206,"28":-0.0468687579400842,"29":-0.05532332034878386,"30":0.022237895644118447,"31":-0.25441169797464896,"32":-0.05894776861675269,"33":0.1624849171724246,"34":-0.0065021707196428,"35":0.17546912825512898,"36":-0.10633688331330732,"37":-0.0637088898214182,"38":0.13013030872095258,"39":-0.016208514000961433}},"2":{"bias":-0.11185556484807119,"weights":{"0":0.10320900271928085,"1":0.0659225621437748,"2":0.011294171947357264,"3":0.14237872576487018,"4":-0.08843215352675993,"5":0.009433715761196105,"6":-0.007160251904574414,"7":0.1811550556925039,"8":0.034885811397092396,"9":-0.042436518476967146,"10":-0.0009414508228959308,"11":0.05846766273420319,"12":-0.01648964141600837,"13":-0.15534446304940885,"14":0.10382911369244856,"15":-0.06146562528226258,"16":0.17795851022913783,"17":-0.13584194518980172,"18":0.08983087145437271,"19":0.10527872994010148,"20":0.06230618853130943,"21":0.06984888151522425,"22":-0.03704685403689344,"23":-0.17528532115630774,"24":0.16724777257487353,"25":-0.17714397216001662,"26":-0.08034300960421142,"27":-0.02085192659225385,"28":-0.1308513557227349,"29":0.0017448251972669844,"30":0.11233853971307338,"31":-0.1775220161555166,"32":0.10798525610836585,"33":-0.04629978777331061,"34":-0.04679548274650212,"35":0.05251705773143027,"36":0.03685489141198271,"37":-0.20188714867946336,"38":-0.044042599684309604,"39":-0.02749803516268346}},"3":{"bias":0.15125425318275929,"weights":{"0":-0.1211278995471957,"1":-0.20700436724331317,"2":-0.22382571391572353,"3":0.17389008672145326,"4":0.1368809784011556,"5":0.03529777322843925,"6":0.039580754043966056,"7":-0.06738829112483076,"8":0.1402447964589327,"9":0.03437360688457201,"10":-0.12257838063707822,"11":-0.03874194501784104,"12":-0.09634800282687578,"13":-0.0634525533508915,"14":-0.061354545106042956,"15":-0.07615498456536972,"16":-0.09432690651559263,"17":-0.012226441073020582,"18":0.06804386934323947,"19":0.1400465365882489,"20":-0.025692826488419442,"21":0.04161916297967501,"22":-0.02758111345109862,"23":0.0868173713495525,"24":0.07633907947452796,"25":0.05383436103184318,"26":0.009097677591403949,"27":0.14639419359777267,"28":0.18268314080759543,"29":0.1537241030803239,"30":-0.007265843174616427,"31":0.11400898423105517,"32":-0.09465546165675383,"33":-0.12324092269009176,"34":0.16899327382800425,"35":-0.13177347818499377,"36":0.08485357644117213,"37":-0.018586083791248133,"38":-0.05335423254002636,"39":-0.17677118159523622}},"4":{"bias":0.04193989691186937,"weights":{"0":0.007278926997227876,"1":0.05715618463069735,"2":0.19080335077781377,"3":-0.20174920540337396,"4":0.07371204388942754,"5":0.04549963039640719,"6":-0.17605307079857777,"7":-0.07553960157730806,"8":-0.06418323004446616,"9":0.18865345681701204,"10":-0.12919797563799956,"11":-0.21746546433254965,"12":-0.01150147916895573,"13":0.11198718682489343,"14":-0.17461452481094833,"15":0.07331562724052891,"16":0.3843035964626382,"17":-0.003232533035267754,"18":-0.07384864638423132,"19":-0.2329234119960004,"20":0.1342971024662246,"21":-0.1938172067230868,"22":0.18664414392177014,"23":-0.15844762777270344,"24":0.13411253701044723,"25":0.05891771876437514,"26":-0.22918761892040465,"27":-0.06746598619024963,"28":0.10707390013439329,"29":-0.12811190698523758,"30":0.1046672180199525,"31":-0.053399864389828876,"32":0.07090685807214782,"33":0.22764457267508484,"34":0.09447447259168908,"35":-0.1552063782755397,"36":-0.1258537760554436,"37":0.028479930878918643,"38":0.10874720252273054,"39":0.06853119329422344}},"5":{"bias":-0.14904683124061666,"weights":{"0":0.18250717923550058,"1":-0.006836808378913163,"2":0.18537424885980233,"3":-0.06883048205020983,"4":0.22937314376787118,"5":-0.004407191644181498,"6":-0.04488521402536604,"7":-0.10404348997783856,"8":0.1527790309983047,"9":-0.019198328742304996,"10":-0.14963708721855545,"11":0.10137920325152028,"12":-0.1252002529590771,"13":0.09108203538554455,"14":0.12953505112537106,"15":0.056160824612323704,"16":0.15825519478601044,"17":0.10764969633750385,"18":-0.16730993314002787,"19":-0.18123433162373398,"20":0.08627796839559837,"21":0.1439390413362834,"22":-0.14471740568224017,"23":-0.014188239296758798,"24":-0.07870243567150934,"25":0.19337975230503882,"26":0.06049803835231702,"27":-0.1474053185798152,"28":-0.030664377276091725,"29":-0.13141290238916428,"30":0.14687434294937451,"31":0.17146780477752924,"32":0.04104085477896083,"33":-0.13087076484347918,"34":-0.054129386070639295,"35":-0.02254399400938568,"36":0.08458864159292177,"37":-0.05069409379815739,"38":0.17377100519125246,"39":-0.07858931532187771}},"6":{"bias":0.08600506951506778,"weights":{"0":-0.19459979997201943,"1":-0.056525259139949484,"2":0.1735536492044938,"3":0.14992010366652508,"4":0.07688425225855594,"5":-0.09604631054781078,"6":0.07601941878170644,"7":0.1472146171786667,"8":0.06557985950960778,"9":0.16468599555309688,"10":-0.0989123373308163,"11":0.12023330319983337,"12":-0.1177282071711307,"13":-0.2160747754892842,"14":0.01503518245534181,"15":-0.12947446087699682,"16":-0.0229041099164708,"17":0.02804731919046202,"18":-0.1429233054515905,"19":-0.13519291244904166,"20":0.19640270703546092,"21":-0.13159462019139698,"22":0.0716614418769774,"23":-0.2670825996721975,"24":0.20526287846511004,"25":0.16511513989348597,"26":0.10911705545579801,"27":-0.017424999252482518,"28":-0.04760183066123097,"29":0.09082638441688735,"30":0.11585248373493166,"31":-0.14545626766559255,"32":-0.19111295862858438,"33":-0.07838340192341765,"34":0.06142065486872469,"35":0.1218678286871296,"36":-0.19249459755225093,"37":0.004324478194721165,"38":-0.13135009963097624,"39":-0.18550586029083915}},"7":{"bias":-0.03951647191581646,"weights":{"0":0.04260757162886042,"1":-0.0977599545373499,"2":0.07935382842721293,"3":0.053880881867946366,"4":0.18612007500203498,"5":0.17063283452061856,"6":-0.10730945556408299,"7":-0.05213460044722786,"8":0.01210313653228588,"9":0.18185208593534535,"10":0.012313412837628143,"11":-0.008371969225239109,"12":-0.1815043175566058,"13":-0.05775179220586378,"14":-0.03659465698252506,"15":-0.19150407312794296,"16":0.10900432361592213,"17":0.004294541551969861,"18":-0.15264089409506532,"19":0.005955053146707706,"20":0.04455611692820668,"21":-0.24565690964702375,"22":-0.14053283847014555,"23":-0.23280070328186,"24":0.13424640755979328,"25":0.13634335671409073,"26":-0.13439623771156173,"27":-0.15785016059580945,"28":-0.0016711658417449785,"29":0.21343950960953845,"30":0.15525787849695366,"31":-0.10647628616783514,"32":0.04429980847211676,"33":0.1317169986891478,"34":0.05746289813980618,"35":-0.09727945927524742,"36":0.025578778046631338,"37":-0.029085586015144802,"38":-0.049525352161794337,"39":-0.030001304797423023}},"8":{"bias":0.05798383056678148,"weights":{"0":-0.16228092718126705,"1":-0.04174880648864881,"2":0.15451343841268497,"3":-0.08867821339617808,"4":-0.07663445196799273,"5":0.1335918621082312,"6":-0.043116672917776745,"7":0.027092827850846376,"8":-0.13893072865784276,"9":0.21276774986400895,"10":0.19521043373545094,"11":-0.15836580739907982,"12":-0.05548359625874913,"13":-0.04305014714030456,"14":0.15801575741172025,"15":0.04371315461832013,"16":0.03431866852998458,"17":-0.08871547089452074,"18":0.20021495188325308,"19":0.0031792056124138506,"20":0.06762050876491814,"21":-0.1813588430699886,"22":-0.18770410363808027,"23":0.05019509342941873,"24":0.005308312012988142,"25":-0.004796862071198616,"26":0.10029356061869711,"27":0.031054890513582706,"28":-0.18868723125727202,"29":-0.020125000463099917,"30":-0.13170692810391238,"31":0.09970154156293744,"32":0.16252411101155856,"33":0.04388808128226725,"34":0.0031680917047432126,"35":0.1393019113140681,"36":0.10441367559376885,"37":0.12807553730989668,"38":0.009028927899889959,"39":-0.16381996409512078}},"9":{"bias":-0.17056912520504544,"weights":{"0":-0.15823411644623925,"1":-0.12229177798395689,"2":-0.03777310674547238,"3":0.12005077418925364,"4":0.27981671479308917,"5":0.1343932144694312,"6":0.15031332667109226,"7":0.15705265063303447,"8":-0.09746225553980938,"9":0.15722693922517894,"10":0.041593812362670006,"11":-0.1164745259946415,"12":0.08029942479120532,"13":-0.16612522651704187,"14":0.08470241356030227,"15":-0.14762785310434695,"16":0.15226577675450126,"17":-0.00804886906354056,"18":0.06931281227117174,"19":0.10988625872605484,"20":-0.05151336835807493,"21":-0.027654630676685527,"22":-0.027692574105509706,"23":0.017408395694338587,"24":0.19552449540182432,"25":0.22596593284857247,"26":-0.024356427575927205,"27":-0.14063468993311673,"28":-0.060599370396787554,"29":-0.11136436262820158,"30":-0.09503331663049784,"31":-0.132950362954825,"32":-0.14084742022682198,"33":-0.05157032614935771,"34":0.1504069466952981,"35":0.08529272510649571,"36":-0.2725493307906336,"37":-0.07077742715642887,"38":0.14767888297526763,"39":0.0006572228882885538}},"10":{"bias":-0.15156241027365544,"weights":{"0":0.20059016009190883,"1":-0.11913391975875874,"2":-0.26388839984743123,"3":0.013464336283455084,"4":-0.19250283899860138,"5":-0.04677861829127508,"6":0.17041285324871358,"7":0.06174376760050746,"8":-0.028337762323914276,"9":-0.16654361389147856,"10":0.07846324133901328,"11":-0.10301054060128803,"12":-0.016835613093140914,"13":0.13292484533759444,"14":-0.05690386935329117,"15":-0.13703113085148727,"16":-0.021553368184714563,"17":0.05492530954538461,"18":-0.1455319074861047,"19":0.10401400197200672,"20":-0.08019006776831016,"21":0.18759244171914452,"22":-0.06638414166808457,"23":0.20634322557461887,"24":0.11021618654331926,"25":0.1621953875129539,"26":0.10322905249849564,"27":0.14214899928684324,"28":-0.08341061870587667,"29":-0.03162668113242025,"30":0.13129337251181633,"31":0.1354990497615792,"32":-0.005980492079570823,"33":-0.1982633523601923,"34":-0.1858572163830703,"35":-0.18306783111593372,"36":-0.06456309349168507,"37":0.12125643004819608,"38":-0.13282297628546919,"39":0.042118569376395416}},"11":{"bias":-0.10217690616062872,"weights":{"0":-0.13638433780356124,"1":0.1741783182145798,"2":-0.21488721666296304,"3":-0.09393498637577709,"4":0.1806869244537418,"5":-0.20693723559390165,"6":-0.1002803009436409,"7":0.03873144240616903,"8":0.1359996566639377,"9":-0.10787074554740278,"10":-0.026892730127167034,"11":-0.188768634893824,"12":-0.08082484409243924,"13":0.010145420912226007,"14":-0.05658130014531879,"15":-0.0688369406388237,"16":-0.13138256688990058,"17":-0.10016593402996418,"18":0.06256356582870934,"19":0.20298647316698185,"20":-0.14235077066319582,"21":0.10991385305803344,"22":0.12380981563551403,"23":-0.039246378206589896,"24":0.13473763223444785,"25":-0.1748057906870935,"26":-0.12108409744725658,"27":0.021690671388094683,"28":0.1312283469231562,"29":0.06864998617869264,"30":0.14654226698326744,"31":-0.07830998945106939,"32":0.09103892809973897,"33":0.031292374022233733,"34":-0.10177432181978929,"35":-0.10202036888531288,"36":-0.14857069147392118,"37":-0.02734708081647661,"38":0.10724907209600108,"39":-0.14253147213734085}},"12":{"bias":-0.1328349350676361,"weights":{"0":0.09884389484291321,"1":0.08670467694594013,"2":-0.08109118093360725,"3":0.15405128188694697,"4":0.08452409067150812,"5":-0.14703499764098624,"6":-0.00123382107255469,"7":0.13331858170815084,"8":-0.055754034217184306,"9":0.20547374298059543,"10":-0.0725724209971928,"11":0.016096745604421606,"12":-0.1359730598654459,"13":0.03496157821455669,"14":0.010757723140884324,"15":0.15486950547647968,"16":-0.044125254859969376,"17":-0.1153679370319098,"18":-0.157272751615776,"19":-0.06017791611396991,"20":0.11491061086884646,"21":-0.05256216907630636,"22":-0.18432211563392986,"23":0.19053093051521144,"24":0.02470526916143157,"25":0.1252776775609751,"26":-0.012609383096863758,"27":-0.016897230748113955,"28":0.04474578168857536,"29":0.17638897160528963,"30":-0.18068786881379692,"31":0.1388752556880015,"32":0.028642016962166356,"33":0.01544871170700816,"34":0.09304891191607104,"35":0.09136455402487,"36":-0.03541770386497466,"37":-0.13413505076511187,"38":-0.01077902468702236,"39":-0.08450720475758253}},"13":{"bias":0.002705889192713494,"weights":{"0":-0.27510339703019326,"1":0.2344412596362029,"2":0.23866625290063884,"3":0.10442542506020677,"4":0.15072202201738852,"5":-0.015186299465909962,"6":-0.0165819250220991,"7":-0.07615682345948878,"8":-0.24826282001491298,"9":0.14209610911491527,"10":0.16259796423676998,"11":-0.04223737570481449,"12":-0.20967140489302774,"13":-0.09668753767244413,"14":-0.18342511363371997,"15":-0.012229499843755478,"16":0.027297980510855486,"17":0.22017417245016113,"18":0.02174691970440119,"19":-0.038569250538530025,"20":0.09605483273790724,"21":-0.2340078310838806,"22":0.11222479112317292,"23":-0.29767779456001475,"24":0.3118904072685267,"25":0.10011837528847958,"26":-0.26140385714509146,"27":0.002235515773912098,"28":-0.1651604582156462,"29":0.18586292239113952,"30":-0.13753848162653423,"31":-0.18283606495170596,"32":0.08220911329220806,"33":-0.014034951849383963,"34":-0.13975663793678628,"35":0.11324287568636024,"36":0.03518606310403167,"37":0.021950849830443434,"38":-0.21412255974776165,"39":0.10970206080318687}},"14":{"bias":0.03155103077468219,"weights":{"0":-0.07169951520267875,"1":-0.050803578265929766,"2":-0.16491263131304543,"3":0.18730128144674632,"4":-0.14450876948687358,"5":-0.13606009960343807,"6":0.18013847422821402,"7":-0.18544743656259927,"8":0.25821918975124064,"9":-0.23262404140049078,"10":0.1667870616257219,"11":-0.03159504739134671,"12":0.23424476300108063,"13":0.14666011994086234,"14":-0.021085226198630017,"15":0.15288454888873357,"16":-0.04421750745309261,"17":-0.06302495757066792,"18":0.03926372047597589,"19":-0.10547774101110752,"20":-0.1179701179993833,"21":0.0714988064118484,"22":0.12285950419955438,"23":0.06641556119020393,"24":-0.23692956000893634,"25":-0.1375340695282226,"26":0.15579005475656274,"27":-0.0956395507174472,"28":-0.09534391405035753,"29":-0.09087843243882279,"30":0.17751415681957353,"31":0.2313139187804533,"32":-0.10633764288145074,"33":-0.09433691750851365,"34":0.0380215339076382,"35":0.013719521056393081,"36":-0.06822603425809963,"37":-0.13638000405303924,"38":-0.052955721879060315,"39":0.19514307013112123}},"15":{"bias":0.2022420190332756,"weights":{"0":0.15184655833071342,"1":-0.0677606124655873,"2":-0.0878233924745764,"3":-0.07348559081595457,"4":-0.07463704021506859,"5":0.09818009087417418,"6":-0.05036882977978507,"7":0.020610835908076237,"8":0.09647442243599393,"9":-0.08451520872057065,"10":0.043336264944227515,"11":0.13925071265625927,"12":-0.006403609366047608,"13":-0.08610571756395824,"14":-0.17336930111661214,"15":-0.09528915815101567,"16":-0.07136372875484313,"17":0.08398410619975073,"18":0.015070618947020054,"19":0.22095024127755314,"20":-0.08796315814185589,"21":0.17248184437477415,"22":-0.19034042585721328,"23":-0.1091798086440299,"24":-0.17290096278312495,"25":-0.043441471865107426,"26":0.16243859582893472,"27":-0.06161032659043927,"28":-0.14832994745392616,"29":0.13754609082924532,"30":-0.08967028196607181,"31":0.07093602392218504,"32":0.06326492627730063,"33":-0.016561513937682633,"34":-0.12463631181486909,"35":-0.15180000377573763,"36":0.16287380338540647,"37":0.14670981823598858,"38":-0.040402041581785494,"39":-0.1371658688980454}},"16":{"bias":-0.13826162339794115,"weights":{"0":-0.021204013798932504,"1":0.03899025584039816,"2":-0.15478316826763486,"3":0.14844773623154467,"4":0.10225635442332649,"5":-0.08259257723811701,"6":-0.09511857563156223,"7":0.08433806948872964,"8":0.22960716100447603,"9":-0.054354782527427224,"10":0.1377370667125251,"11":0.08700484998853736,"12":0.10962861411324751,"13":-0.009275015519082176,"14":0.055337148230329855,"15":0.00022473581416976172,"16":0.024521757346423666,"17":-0.06279621444286308,"18":0.04960549219562152,"19":-0.04570377513697627,"20":-0.1162980445193657,"21":0.04164684735824934,"22":-0.14985330244254302,"23":-0.1389886454968635,"24":-0.17289594738627445,"25":-0.165763054403268,"26":0.13364771307524875,"27":-0.028073068331999736,"28":0.10116551380419346,"29":0.14745070638032498,"30":-0.12005999481135145,"31":0.18850415658581773,"32":-0.13112000725151252,"33":-0.1844317453067146,"34":0.020081754053899732,"35":-0.13107324688360014,"36":0.1334740687286389,"37":0.08050458902745138,"38":-0.031249744142370767,"39":0.057601760838091036}},"17":{"bias":0.0909803380470612,"weights":{"0":0.07500874490221965,"1":-0.097397740825731,"2":0.0010251306196431172,"3":-0.13204895045631315,"4":-0.19300427717862859,"5":0.0034374171575244517,"6":0.0243219160245912,"7":0.17531223192016868,"8":0.10689867242310047,"9":0.004328790915578946,"10":-0.10864601026138934,"11":-0.07565501767730673,"12":-0.13593460574989766,"13":-0.02964184295541724,"14":-0.05585805439668119,"15":0.0622138748762725,"16":-0.04533379730380432,"17":-0.22465685468577562,"18":-0.1892835834716652,"19":0.215164824911473,"20":0.09639350526986333,"21":-0.0897583984813673,"22":0.11581196218523152,"23":0.0022177571607103494,"24":-0.10356992689383761,"25":0.12020862202350437,"26":0.17544247826407666,"27":0.18299770049827432,"28":-0.14422336094795435,"29":0.1756943138519723,"30":-0.15533972802201992,"31":0.15136130527470562,"32":0.18482346672242286,"33":-0.05542541861860819,"34":-0.20330197210366957,"35":-0.04608316534556797,"36":0.02899098269165547,"37":-0.013480692424723521,"38":-0.0016993939566059939,"39":-0.16931388285670376}},"18":{"bias":-0.07683088580845185,"weights":{"0":-0.023166957921304857,"1":0.025096206443955472,"2":-0.04693451599297777,"3":0.22126189515214995,"4":-0.285424707427096,"5":-0.09369460336383903,"6":0.11394818083549349,"7":-0.03425255607081453,"8":0.23407463010022747,"9":-0.19196131062347618,"10":0.18200458200403338,"11":-0.13604346040115428,"12":0.07856384289957853,"13":0.19694702015050797,"14":-0.08994523135563144,"15":-0.05859374033875045,"16":-0.2877762000248403,"17":-0.2138437267062873,"18":0.046776163379016585,"19":-0.0809010125806633,"20":0.12260507388684685,"21":0.07920155018170787,"22":-0.05585939188029393,"23":-0.11008117773045273,"24":-0.12431872144791513,"25":-0.08301561266916749,"26":0.06375740468219879,"27":0.07651589645385934,"28":-0.10490773138026578,"29":-0.04674540666214761,"30":-0.12274160677924255,"31":0.1699786057507739,"32":-0.12342473434354961,"33":0.08353219529805411,"34":-0.12450348284525158,"35":-0.07990667481070253,"36":0.17974649608848797,"37":0.00811553950217877,"38":-0.13770443535422883,"39":0.21038635056115698}},"19":{"bias":0.014224188578599703,"weights":{"0":-0.01677834797667768,"1":0.011311615136581995,"2":0.08230509250178256,"3":0.17322504065016303,"4":0.08719008780885465,"5":-0.001735032123444655,"6":-0.20361737633724628,"7":0.011332284862167277,"8":-0.27184819998332493,"9":0.2573730481943965,"10":0.03299283531465221,"11":0.15118682756724713,"12":0.016723307828864182,"13":-0.12297347608657919,"14":-0.03021538668859301,"15":0.18551427073111112,"16":0.22400072401187368,"17":-0.061544206847935344,"18":0.0009404957019550796,"19":-0.21488466216530577,"20":-0.04736211459373992,"21":-0.09964519524409911,"22":0.17457165124208984,"23":-0.15453212157630125,"24":0.0649275571139132,"25":-0.16115390408891903,"26":-0.18284463702080914,"27":0.06881648344911281,"28":0.026527715699512358,"29":0.1663213481481413,"30":-0.07687430629366432,"31":-0.24798215447249944,"32":0.11260768706118347,"33":-0.13511592561549837,"34":-0.07525652301226893,"35":0.10749146239134479,"36":-0.1161787262799435,"37":0.13303669904938825,"38":-0.16698411094668242,"39":0.008923578688380797}},"20":{"bias":-0.0771303347265101,"weights":{"0":-0.19274771503434554,"1":-0.10641642648177649,"2":0.15216968463716907,"3":0.0061169227702907334,"4":-0.17349650648000964,"5":0.08423972322209182,"6":-0.049291757488756374,"7":-0.17815025340955068,"8":-0.07532294651716159,"9":-0.20692710889370525,"10":0.010294271707031701,"11":0.03253665514427717,"12":-0.12374628600332284,"13":0.03290487560310941,"14":0.1092503258961651,"15":0.07686659263566135,"16":-0.15887894113853301,"17":-0.19388750506585994,"18":0.158177773566697,"19":0.03882903780893941,"20":0.15258468567298722,"21":-0.18854041433784036,"22":0.1205212018519031,"23":0.1660985734816797,"24":0.06557431863674787,"25":0.008757950084685445,"26":-0.11511774468388815,"27":0.02866517841359689,"28":-0.0642227169715593,"29":0.0023055493605456433,"30":0.025273664237319304,"31":0.18318047304241983,"32":0.07202534186714504,"33":-0.04674644516657653,"34":-0.11684999210164038,"35":-0.027987411502933695,"36":0.060241916888258945,"37":-0.10448408510773638,"38":0.011693355727459663,"39":-0.02739193866808129}},"21":{"bias":0.00727936006295754,"weights":{"0":0.03864062586108814,"1":0.06462356078033536,"2":0.03182633722835348,"3":-0.1311854456026606,"4":-0.16180498827367826,"5":-0.15192613297393395,"6":0.10569316622713347,"7":0.012373658519272546,"8":0.0435522404719469,"9":-0.03383408514791468,"10":-0.02022885331686713,"11":0.03909799465811296,"12":-0.013989651985508614,"13":-0.04035004794467744,"14":-0.18317020239251286,"15":-0.1376320187619015,"16":-0.07558868548127319,"17":-0.0026597764763664376,"18":-0.10882198761359142,"19":-0.11199389503623551,"20":0.07152992815146036,"21":0.05032622428511501,"22":-0.05920661898421075,"23":-0.1476632932653233,"24":0.07531301082940789,"25":-0.15056042990835777,"26":0.1748354247385533,"27":-0.11280197527053701,"28":-0.0898515420274983,"29":0.0012165893552982718,"30":-0.14573036863823155,"31":-0.07256449946492004,"32":0.11939181821972489,"33":0.011923997273536656,"34":0.11859326146602736,"35":0.11434510581416281,"36":-0.02305568467719767,"37":-0.17399956084318252,"38":-0.18116907379283925,"39":-0.11282345226160341}},"22":{"bias":-0.14974071065645256,"weights":{"0":-0.18937662248747972,"1":0.053018093860419724,"2":0.1908941474489659,"3":-0.12727157241054274,"4":0.19169498189339557,"5":0.03762080154542316,"6":0.03603495934090452,"7":0.10235569527247046,"8":-0.14634612026084776,"9":-0.037195823884677875,"10":0.19527082783573954,"11":-0.1438087709709044,"12":-0.018722598644014567,"13":-0.18127357247648127,"14":0.11491500637426358,"15":0.16771335350615496,"16":-0.08624013336938098,"17":-0.05456663157440534,"18":-0.15859117629566602,"19":-0.023517916497762154,"20":-0.06562403764355132,"21":0.1136040120681034,"22":0.017468717405531815,"23":0.1520465228900406,"24":0.17488085288231117,"25":-0.010513842191985066,"26":-0.1434069502067557,"27":-0.033058764769304784,"28":0.08648866450739723,"29":-0.0877660147452626,"30":0.08889489405355912,"31":-0.19444203959450704,"32":0.0978720502484326,"33":-0.15130454625515452,"34":-0.06570044388088284,"35":0.031192008732226616,"36":0.04688124793425848,"37":-0.033414600318832054,"38":0.06525423385471643,"39":-0.0476681315293414}},"23":{"bias":-0.16798026150212336,"weights":{"0":0.05873599720754998,"1":0.220973154573921,"2":0.13385551108493327,"3":0.09456519482433003,"4":0.054757545315073305,"5":0.1450627122598355,"6":0.0145085136042649,"7":-0.17439365519501193,"8":-0.021298351475795934,"9":0.23801114730235778,"10":0.06824783498713925,"11":0.14947402493989181,"12":-0.09367673320704069,"13":0.00008614828159165459,"14":-0.10060232566266956,"15":-0.1929675157233269,"16":0.16422782059636376,"17":0.11809900180415231,"18":0.0782711704745748,"19":-0.12044080107416472,"20":0.02876920119335893,"21":-0.25634823004455415,"22":0.16403652314348197,"23":-0.10137436524496489,"24":0.2832942732694488,"25":-0.06706047221420393,"26":-0.26673648704745223,"27":0.10506734910613726,"28":-0.12604128078110108,"29":0.08766934880791363,"30":-0.05950867707513604,"31":-0.14722884909145978,"32":0.1829382640782596,"33":0.10117916949461642,"34":-0.16569260859325813,"35":0.011498452772660227,"36":0.041511193096129995,"37":0.007718291583325147,"38":-0.07221817455477235,"39":-0.07391262268292352}},"24":{"bias":-0.05211933814324843,"weights":{"0":0.08805102569058157,"1":-0.07022899294272743,"2":-0.059231011175141554,"3":-0.058258560378201575,"4":0.10107991088853555,"5":0.16980891347510346,"6":0.2107143687392895,"7":0.03650970852544285,"8":-0.17826012544130937,"9":-0.07175192722226359,"10":-0.18006468807198525,"11":0.05564404835851749,"12":0.05826682951225594,"13":0.06224588479350248,"14":-0.09985505483882197,"15":0.066954012540255,"16":-0.1886040228929576,"17":0.14389019925477012,"18":0.05340026197048143,"19":-0.1427015370622877,"20":0.18144037220874734,"21":-0.03075379268585431,"22":0.15756735364659943,"23":0.13938505740451246,"24":0.01079051038117013,"25":-0.07084749152480675,"26":0.07054023320827005,"27":0.16728498750652498,"28":0.14464619437570678,"29":-0.09221301623577054,"30":-0.010439620027800942,"31":0.0014354255307837973,"32":-0.021262657845236694,"33":0.1418901068414364,"34":-0.04630163028688075,"35":-0.05411140164059863,"36":0.049447619642204295,"37":-0.09760463197999437,"38":0.15192969423479222,"39":-0.04475062018710685}},"25":{"bias":0.10766439953416686,"weights":{"0":-0.05569410503976966,"1":-0.16704266366796938,"2":-0.18891572668325385,"3":0.05800031270060327,"4":0.02016974792739952,"5":0.0028422587607219284,"6":0.15262100965864578,"7":0.034495815884038036,"8":0.14264769611446,"9":-0.057327724717736964,"10":-0.12978789576232874,"11":-0.0966626366286617,"12":0.06475930025662373,"13":0.07096694520576849,"14":0.18160033002273634,"15":0.1859380708175236,"16":-0.2004843760497883,"17":-0.1254039780755451,"18":0.10889043436440633,"19":-0.13931287898486358,"20":-0.01931466327123147,"21":-0.1328443607706206,"22":0.10526834106263244,"23":-0.17475597680584318,"24":-0.10715912497518794,"25":-0.1611100687326726,"26":0.053479321615854815,"27":-0.04904360576773748,"28":0.09308836167923906,"29":0.0698132815587012,"30":-0.1324555466015198,"31":-0.03856250712086896,"32":-0.13050006161137612,"33":-0.06857868626406774,"34":0.16994384163271598,"35":0.11842737160498694,"36":0.14596681941680947,"37":0.1525725237544968,"38":0.1947898957698954,"39":0.10128872938313126}},"26":{"bias":0.09981921232185194,"weights":{"0":-0.19561624015073525,"1":0.0731883174246897,"2":-0.010982176151835854,"3":0.03458765650589551,"4":0.09146222727687708,"5":0.0820064299738198,"6":-0.030090068188045743,"7":0.10633358137205094,"8":-0.02026316887110599,"9":0.07762680597661059,"10":0.14614500114481677,"11":-0.14080773550893935,"12":-0.20269669969967813,"13":-0.04681516364569703,"14":-0.08580016243204351,"15":-0.1694975488722414,"16":0.18953639166103342,"17":-0.029725036768324668,"18":0.046745526950834296,"19":-0.09926973600721027,"20":0.19051283960193424,"21":-0.20493924642369582,"22":0.177685956296099,"23":-0.05095377080298905,"24":0.11444046380349826,"25":0.020779649767773467,"26":-0.2812554559819379,"27":0.018403255259646607,"28":0.09760408062013051,"29":-0.045693441346556195,"30":-0.1632123441812296,"31":0.06808116066679096,"32":-0.137110221385784,"33":0.016410274497938766,"34":0.12634283318159129,"35":0.05041667735995563,"36":-0.06995646725374854,"37":-0.08243965782370939,"38":-0.12700750036475597,"39":0.11891428496981762}},"27":{"bias":0.03630254944538396,"weights":{"0":0.03956289042276219,"1":-0.06893775930314862,"2":-0.20768688522677362,"3":0.19353412167969578,"4":-0.0062928483709921,"5":-0.1856340041863007,"6":-0.016860411720502434,"7":0.06379008108828432,"8":0.17914583735466183,"9":0.11981543924162204,"10":-0.15813090265824567,"11":-0.014604459388664531,"12":-0.01699041610267489,"13":0.12519265670687,"14":0.07421325421745224,"15":0.1636125469551521,"16":-0.2566764276877247,"17":0.012051168513002189,"18":0.1559051370585928,"19":0.12388747072317365,"20":0.03536909443012451,"21":0.14239892073034996,"22":0.06594064447142116,"23":0.15131006797829638,"24":0.070094769879599,"25":0.08933255931186365,"26":0.05054970549402255,"27":-0.15463751308275195,"28":0.0987836467163354,"29":-0.18972121191815466,"30":-0.1337049965095947,"31":0.1247371633786466,"32":0.1013363437604542,"33":0.02785411554596941,"34":0.12765409407930367,"35":-0.17291904866509752,"36":-0.12501006405124784,"37":-0.05008600540637953,"38":0.05033080879082135,"39":0.006720373270044299}},"28":{"bias":-0.049309460739381014,"weights":{"0":-0.12296635675499115,"1":0.17096922542628365,"2":0.31411878289417033,"3":0.07164981111419468,"4":0.3058788072499582,"5":0.103271054231764,"6":-0.20935659453965044,"7":0.19458721128659603,"8":-0.3520880522198602,"9":-0.07840400562634993,"10":0.1498339474469576,"11":-0.074572119384577,"12":-0.086295494272415,"13":-0.2717490981857115,"14":-0.04674989568540816,"15":0.1736801203821831,"16":0.1967692510546985,"17":0.07933292579306246,"18":-0.08674983718460585,"19":-0.25770637257381124,"20":-0.1410532260836214,"21":-0.09775052741084528,"22":0.028309751275116875,"23":-0.2703521297195339,"24":0.2435633280667677,"25":-0.07152956980346704,"26":-0.2689940879093471,"27":0.1129866683633813,"28":-0.08915396322456723,"29":0.07094756681521594,"30":0.015940034214014808,"31":-0.15220441968977208,"32":-0.21322068835206262,"33":0.010994928456331774,"34":0.16790928194155927,"35":0.1440479234562533,"36":-0.2211281137941681,"37":0.11246811713512499,"38":0.022133528800276456,"39":-0.14664146411176898}},"29":{"bias":0.15188590168767444,"weights":{"0":-0.22118655309700616,"1":0.16276627363754592,"2":0.1737746327785997,"3":-0.11083979954162784,"4":-0.09364535356745902,"5":-0.17312023362391463,"6":-0.21281874848956894,"7":0.11906105315897332,"8":-0.11501592430508548,"9":0.060958842140593245,"10":0.13844146854182446,"11":-0.1914120936125157,"12":-0.04069690992527938,"13":0.05487826048328213,"14":-0.08100905248366407,"15":-0.025316976368517114,"16":0.05157922573503936,"17":0.05361769489507457,"18":0.06991842568053026,"19":-0.013285651146392866,"20":0.20487894552784486,"21":-0.10954430295349496,"22":-0.15694649824729975,"23":-0.04960496953985169,"24":0.11465130982763887,"25":-0.028190933415205992,"26":-0.06376793208386976,"27":-0.0005005567147400082,"28":-0.03443656233363474,"29":-0.08477166870048312,"30":-0.15676313291505775,"31":-0.06729141539934626,"32":0.07975666643374636,"33":0.047869090234594076,"34":0.006019055424633639,"35":-0.01589050788690156,"36":0.08648141932015692,"37":0.1724251155300708,"38":-0.009863647982324851,"39":-0.11813291682936382}},"30":{"bias":-0.0018197305332937556,"weights":{"0":-0.19649813930396762,"1":0.05816055046019995,"2":0.29241930963344837,"3":0.14993397515579626,"4":-0.0014271323134872266,"5":0.2390579930551751,"6":-0.12910699780383134,"7":-0.03030434790039692,"8":-0.2463488070232537,"9":0.2233814332427576,"10":0.027360527728891353,"11":-0.04289067498117885,"12":-0.25830582318206746,"13":-0.04824903477155935,"14":0.007172535797027124,"15":0.056499290913914264,"16":0.041093779514820176,"17":0.26255585422925193,"18":0.15278515199890297,"19":-0.10551832484908336,"20":0.0716932726433295,"21":-0.2332886281041631,"22":0.19698213454499972,"23":-0.09437544555175918,"24":0.19461722916938015,"25":0.22461882092703334,"26":-0.128688972217768,"27":-0.22174882480664382,"28":0.03851288149603974,"29":-0.009109730285616796,"30":0.025080884818259916,"31":-0.164749705504443,"32":-0.20270516491897228,"33":0.1148874175180548,"34":-0.045520908857032354,"35":-0.008706281882936644,"36":-0.3096550854605469,"37":-0.21368539811155068,"38":-0.10899208483085873,"39":0.10892773240697266}},"31":{"bias":0.1731924860365818,"weights":{"0":-0.19901460589712464,"1":-0.10793864310068733,"2":0.2330528720444041,"3":-0.13819426760030504,"4":0.17136839253536235,"5":0.08457872795913791,"6":-0.05106820135590507,"7":-0.0924023503024723,"8":0.08481164226878428,"9":0.016026479397437787,"10":0.07817128316385173,"11":-0.12162522143073996,"12":-0.0532788100790363,"13":-0.017679974858877817,"14":0.11888900643449528,"15":0.1048974998143487,"16":-0.007230968180603849,"17":0.07458313574724468,"18":0.18903502241213144,"19":0.03761169225925879,"20":-0.048413234434173814,"21":-0.09775240926338978,"22":0.16289528319151506,"23":-0.1942350492282493,"24":0.15377268472438793,"25":-0.08691379109709256,"26":-0.10257032465128958,"27":-0.18163614818058424,"28":0.005008339183441804,"29":-0.1310111616337953,"30":0.07327178053956986,"31":-0.22486405997570685,"32":0.16385651788485803,"33":0.09397897174266871,"34":-0.05021347463677811,"35":-0.13324790269782774,"36":0.08779688347245243,"37":0.16384933395497325,"38":-0.1443971692579208,"39":-0.11348866745390798}},"32":{"bias":0.1526673337930073,"weights":{"0":0.10811460600285751,"1":0.14409533438387742,"2":0.014874741914590301,"3":-0.03898659719493735,"4":-0.12502456186721703,"5":0.11473698194144578,"6":-0.04371903288757478,"7":-0.16069725737899318,"8":-0.12248591633491666,"9":0.06309479078667778,"10":-0.013201566026264263,"11":0.20431105145988646,"12":-0.06188614764194667,"13":-0.08383061141388358,"14":0.07859396956051706,"15":0.07195410031199212,"16":0.17816494635507604,"17":-0.12285643382766104,"18":-0.13135586611863284,"19":0.0945019600785837,"20":-0.07474682433290578,"21":-0.051570960324903804,"22":0.12754602719847458,"23":-0.13910916136376983,"24":0.11597577066195297,"25":0.08779519677606433,"26":0.11620346317504221,"27":0.08246189826713543,"28":0.16604440323051986,"29":0.013251062110774151,"30":-0.1929012171853868,"31":0.2004593816913021,"32":0.12367644472627624,"33":0.030854345535168765,"34":-0.034826222967056765,"35":-0.0008240911668327922,"36":-0.14180856217956164,"37":0.18359567515391256,"38":-0.07937752034742354,"39":-0.19149523894825213}},"33":{"bias":-0.12128795555370814,"weights":{"0":-0.16812743250448106,"1":0.15949046799346595,"2":-0.11857791159906639,"3":0.11850346123224874,"4":0.11477188477832291,"5":0.005040007247533068,"6":0.14988234791197896,"7":0.04351768983407916,"8":-0.16656362573381442,"9":0.16448134045366483,"10":-0.04780571108030036,"11":0.015768327874306105,"12":-0.17865050102738272,"13":-0.030095460432248502,"14":-0.15876179800162132,"15":-0.1743195663911487,"16":0.2390572256388354,"17":-0.010851921845918346,"18":-0.18167319177995292,"19":-0.1816395446078184,"20":-0.0668931824058127,"21":-0.09623733326359932,"22":-0.16456343393795655,"23":-0.21603750616654674,"24":0.09727269542624037,"25":0.13461137625712832,"26":-0.07733592612805869,"27":0.13780402704919406,"28":0.0046575997926908115,"29":-0.0257579566605934,"30":0.04562952732726014,"31":0.00678121190407807,"32":-0.10943360219681705,"33":-0.015499703350209998,"34":-0.07746177540405583,"35":0.20574991963472267,"36":0.11452251219004922,"37":0.08114840575903674,"38":-0.10506461440048483,"39":0.174513706704603}},"34":{"bias":0.10729238409918818,"weights":{"0":-0.05020612070337544,"1":0.0868950990272696,"2":0.002517120382298058,"3":0.021703273844940155,"4":-0.012414420232776972,"5":0.08991180634916458,"6":-0.17763624392540217,"7":-0.07502419613826486,"8":0.03800787718459198,"9":0.18506442544251803,"10":0.1486716165475771,"11":0.043800599552908874,"12":-0.1617169983719747,"13":-0.010139662816474422,"14":-0.07378821499868479,"15":-0.14557581140109227,"16":0.24875741940235957,"17":-0.12443222747048412,"18":0.19819406149935193,"19":0.020837820193233464,"20":-0.10348904688217417,"21":0.1358370400698452,"22":-0.15729578043376494,"23":-0.1919286092497608,"24":-0.06885987140022064,"25":-0.031995166414582735,"26":0.12981840428446279,"27":-0.11322194499435331,"28":-0.04967290466869649,"29":0.14324380898973427,"30":-0.01759384802544171,"31":0.09708301983645455,"32":-0.15471861673935242,"33":-0.006191783008358312,"34":0.07306559684145238,"35":0.015229485538870872,"36":-0.11746975726047182,"37":0.07176339716952095,"38":-0.012232949927570657,"39":-0.10978979786234604}},"35":{"bias":0.12769248146722106,"weights":{"0":0.17913469503902088,"1":-0.014302804241916742,"2":-0.17378788495258202,"3":-0.10977295697463374,"4":0.14997821059257102,"5":0.10911045130531888,"6":0.13145366515146018,"7":0.08734613114391901,"8":0.1513103863852103,"9":0.005752124638702687,"10":0.17761868259597346,"11":0.04344750989706571,"12":0.11556800744333709,"13":-0.02815852138477358,"14":-0.029265033162566526,"15":-0.12794101630423066,"16":0.05687593295821481,"17":0.1354033998291151,"18":0.13617520004387237,"19":-0.17809475884717527,"20":-0.16708646492158805,"21":-0.03536102383328186,"22":-0.06683679736778732,"23":-0.0010661940993097082,"24":0.18927615361404174,"25":0.053964665198853186,"26":-0.08624812772168348,"27":0.09058943212853757,"28":-0.005738543601256722,"29":0.18599060941748177,"30":0.040772221013117185,"31":0.11807435284937343,"32":-0.14593264674985804,"33":-0.07532552401429983,"34":-0.10823749951597653,"35":0.17181357473497222,"36":0.17089455751363428,"37":0.1819881127502484,"38":-0.0583757882145823,"39":0.0077692536442059085}},"36":{"bias":-0.12536133704156976,"weights":{"0":-0.23774449630725014,"1":0.09336080498083493,"2":0.2333297824177284,"3":-0.03697689925830156,"4":0.2661894474591622,"5":0.1787623541974633,"6":-0.17496790090710776,"7":-0.051077721106097415,"8":-0.3920051184769545,"9":0.18872869868906367,"10":0.05247678285677347,"11":-0.1492852016794161,"12":-0.2696832977693827,"13":-0.25355457580870816,"14":0.03872895749555893,"15":0.1445401518057922,"16":0.30440983749076783,"17":0.08995304335096971,"18":0.053297418192893534,"19":0.0006170282095719889,"20":0.0015030601110274623,"21":-0.037651942848540745,"22":-0.11149471454903027,"23":-0.25472257202352394,"24":0.32170913663813094,"25":0.09841902183211301,"26":-0.15099314436567865,"27":-0.2246344506008285,"28":-0.26820253741475214,"29":0.020274361299161978,"30":0.17378638930990573,"31":-0.22571426376616283,"32":0.05489156460468535,"33":0.11844166279484004,"34":-0.04576867503933736,"35":0.2503040387677908,"36":-0.20901439475688988,"37":-0.08921426283954557,"38":0.0031556375622315475,"39":-0.035066943794661416}},"37":{"bias":-0.026175639628118367,"weights":{"0":-0.024231582890783948,"1":-0.1115906414860472,"2":-0.1711834058963657,"3":0.08466716839213331,"4":-0.15435264959198328,"5":-0.1215062672561735,"6":0.07533801054552003,"7":0.038281658522386956,"8":0.055064824580679565,"9":0.027741070328571392,"10":0.08298311680025812,"11":-0.14314731538739522,"12":-0.138725815238433,"13":0.18457814217537613,"14":0.16622914848969267,"15":-0.15698178596685386,"16":0.030632056173602852,"17":-0.059492696368886974,"18":-0.050449278290052024,"19":-0.13942088123571442,"20":-0.05140131324552002,"21":-0.03924406157731375,"22":0.08783861418265024,"23":-0.027374616096493713,"24":-0.1977334063674581,"25":-0.08679805099334054,"26":-0.10116181303785404,"27":-0.001880831478295768,"28":0.0554776480899153,"29":0.03519250329460287,"30":-0.1399272254024993,"31":0.19177211711955394,"32":-0.059589505147002286,"33":0.08576502025177722,"34":-0.19127022218019207,"35":-0.05014950831463775,"36":0.07100842332350252,"37":-0.04605892376610909,"38":-0.030393758854199985,"39":-0.13820923076470384}},"38":{"bias":-0.09998152061213518,"weights":{"0":-0.19080940230766036,"1":-0.10277688667810253,"2":-0.12119315121956924,"3":-0.08154538102318427,"4":0.22739136117572287,"5":-0.029455530691559893,"6":-0.0871306230433283,"7":-0.1474257844312815,"8":0.10522794088901793,"9":-0.1483837945027136,"10":-0.0702159311892792,"11":0.09826605990029429,"12":-0.038422775511289475,"13":-0.11972530289934122,"14":-0.10249216174874701,"15":0.16291086959426887,"16":0.039496498551095015,"17":0.14188521234522883,"18":-0.09074817861940622,"19":0.05913170575005687,"20":0.04345904226747444,"21":0.1237590369371763,"22":0.11310663118857814,"23":0.017055972708912712,"24":-0.05165206711343881,"25":-0.055391985608285246,"26":-0.21227595784031628,"27":-0.17018574749196053,"28":-0.20947813274035923,"29":0.16699753718228855,"30":-0.16772018324721893,"31":0.11009881455567434,"32":0.03684834079977687,"33":0.03210347225607183,"34":-0.0006070392920167797,"35":-0.00894295607223716,"36":-0.052957206168662056,"37":-0.0019481046455464106,"38":-0.12280301154296779,"39":-0.0726078203739645}},"39":{"bias":0.0847860008811466,"weights":{"0":-0.08615662106831738,"1":-0.17651626857891226,"2":-0.03871403776616645,"3":0.1516162344784042,"4":0.12269343651927847,"5":-0.17169779367731092,"6":0.05999889162986039,"7":0.03876339512312272,"8":0.1473247938577589,"9":0.022494774198462224,"10":-0.10938910820824772,"11":0.17016733787549243,"12":-0.054540258729284585,"13":0.08054653644094312,"14":-0.08067360330245986,"15":-0.017127050752707398,"16":-0.0587398755257905,"17":-0.24449582479419119,"18":0.18292269327589886,"19":0.19221071618135602,"20":-0.17344972617834975,"21":0.24281262411905594,"22":-0.07362412411115762,"23":0.06983255761185996,"24":-0.24430320763643668,"25":-0.11195767402284747,"26":0.17180954159954123,"27":0.06748704413501883,"28":0.10224967489227418,"29":0.05677141856070916,"30":0.11790049193573537,"31":0.035717343965243245,"32":0.14957739326763433,"33":0.0923295108644767,"34":-0.024112848776382662,"35":-0.1342130366391151,"36":-0.04915360196736971,"37":0.0494194507520725,"38":0.17505103554874446,"39":-0.17077382284605253}},"40":{"bias":-0.06134245563509679,"weights":{"0":-0.04773788689202946,"1":-0.10658924221303416,"2":0.2287212021242233,"3":0.13042312287840158,"4":0.2184475425502965,"5":0.05542496606924084,"6":0.11576233976862062,"7":0.14426920832851337,"8":0.04517774650415745,"9":0.14298740489176648,"10":-0.13336056138143293,"11":0.07830189860172043,"12":0.11593803261857889,"13":-0.15449841404730683,"14":0.12693463533749036,"15":-0.10163051059403719,"16":0.14777122307905566,"17":0.07298783221406915,"18":0.0022730553172115977,"19":-0.08586796567514289,"20":0.18899861995884806,"21":-0.18237787594951738,"22":0.1524300977411443,"23":0.011371073679107887,"24":0.023456990126303492,"25":-0.03074251717924615,"26":-0.17110964263830436,"27":0.138818774820344,"28":-0.03734060203047207,"29":0.07326524713067033,"30":0.024811596858020864,"31":0.07092747709614526,"32":-0.05667946481337058,"33":-0.15155847288692958,"34":0.013813259558555203,"35":-0.1198401279256168,"36":-0.09847304828583152,"37":-0.1440126448295517,"38":-0.16047959616247462,"39":-0.050146251193240336}},"41":{"bias":0.05378536057565806,"weights":{"0":0.12511628566215582,"1":0.11632461033645274,"2":0.1784295335270651,"3":-0.12048250430799787,"4":0.19138868246022253,"5":0.16846177446952146,"6":0.12247122757322497,"7":-0.02172817498580571,"8":-0.08067639620925394,"9":0.08426157528868962,"10":-0.14589475853766395,"11":-0.08615973884163762,"12":-0.17816015015772554,"13":0.019538444542760783,"14":-0.0675772377222418,"15":-0.06549452010887008,"16":0.023395520281092298,"17":0.04408602246050659,"18":0.010036663885018657,"19":-0.19180821803027825,"20":-0.07474012584776968,"21":-0.21969014886311128,"22":-0.04969452059628863,"23":-0.21222174321863946,"24":0.33619600376770165,"25":0.011853567187662261,"26":-0.20294486608524964,"27":-0.05795200077787234,"28":-0.03428511182217531,"29":0.14030016983119437,"30":-0.1826506132725727,"31":-0.22055186015269473,"32":0.06105621159309759,"33":0.22634366193378816,"34":0.15536066327477166,"35":0.21250377323307654,"36":-0.15902825225197698,"37":-0.20524486858810423,"38":-0.2364470582868106,"39":0.18222877647717922}},"42":{"bias":-0.05978613455781638,"weights":{"0":-0.129434814394046,"1":-0.026140541728734295,"2":-0.1398037005640494,"3":-0.06173933163049743,"4":-0.11503474509545221,"5":0.033745840493557465,"6":0.004642918317653423,"7":0.1656051536706642,"8":-0.02563206083864618,"9":0.17941816835575786,"10":-0.013133190772419444,"11":0.07594045360756956,"12":-0.1477548677629683,"13":-0.11229686510282084,"14":-0.02103779240600349,"15":0.18115491483716503,"16":0.167197592786481,"17":0.03471782330707282,"18":-0.12410080611786974,"19":-0.20513307109299644,"20":-0.16398068861011694,"21":-0.11530471662062797,"22":0.09839798965612195,"23":0.0021991277145237092,"24":0.22265858551905132,"25":0.13701486451003886,"26":-0.014763967067673767,"27":-0.12289887684494377,"28":-0.07129066535438269,"29":-0.14632152376359947,"30":-0.05290255433302542,"31":0.11477008128715374,"32":0.01615796979588754,"33":-0.1214513167610896,"34":-0.18207759528797118,"35":0.05222565193929852,"36":0.16131459968748288,"37":-0.19431843255223147,"38":-0.17576339455444093,"39":0.04306890861246157}},"43":{"bias":-0.18816266621838043,"weights":{"0":0.07971277793189858,"1":0.17820833262533325,"2":0.11636908529777164,"3":0.16946003813588617,"4":0.1295326050976125,"5":-0.07259592744404293,"6":-0.10187567847454224,"7":-0.13948447495796928,"8":-0.013289282829539962,"9":-0.038883121783043116,"10":0.18530211225905402,"11":0.07899262296136446,"12":-0.18377839802000157,"13":-0.14367177475054366,"14":0.024523932149136687,"15":0.066460340426192,"16":-0.06573610932188889,"17":0.0048456294807206965,"18":0.03518784834890626,"19":0.15387843289152395,"20":-0.024616728523586616,"21":-0.19086176795542573,"22":-0.02279387828323138,"23":-0.14070518041997745,"24":0.15020451047384403,"25":-0.027087693005551042,"26":0.04957478225848118,"27":-0.06620788508757262,"28":0.05079497769956393,"29":-0.11022905071399547,"30":-0.19892102600457012,"31":-0.005304137586825972,"32":-0.02559776526030372,"33":-0.13156794808570688,"34":0.02359207359834465,"35":0.13850850803768003,"36":-0.18108909614554475,"37":-0.024027395830904446,"38":0.06170633505058321,"39":0.1285548356515384}},"44":{"bias":-0.133316911052761,"weights":{"0":-0.018922387990412837,"1":0.21020785051219895,"2":0.2044288729306287,"3":0.07006806083400975,"4":0.2192000295941824,"5":-0.0021101999375229266,"6":-0.16446291023491902,"7":0.01856634603046191,"8":-0.3398815177030598,"9":0.20383187284906457,"10":0.13172658311620608,"11":-0.22712545551194416,"12":0.013350130831467896,"13":-0.010868794506452334,"14":-0.09345473342451269,"15":-0.0726480275160945,"16":0.36145935680082525,"17":0.2535404625630288,"18":-0.06402400378290392,"19":-0.1707491400661183,"20":0.13952185584245133,"21":-0.32700045152346896,"22":0.08870299951260573,"23":-0.3156185484974878,"24":0.09031909558059217,"25":-0.02869176618594463,"26":0.013469655019580343,"27":-0.15348906884713934,"28":-0.049777729433464805,"29":0.18442426288702565,"30":-0.14121668669435275,"31":-0.2703130421504017,"32":-0.04179606253963085,"33":0.18688175914770164,"34":-0.11892293239023667,"35":0.17771498884692688,"36":-0.3379785582194654,"37":0.1657698025509942,"38":-0.002589619709209251,"39":-0.06870489898666232}},"45":{"bias":0.04438575066090345,"weights":{"0":-0.058045450259774145,"1":0.04682975468058562,"2":-0.202370107440041,"3":-0.173258351974193,"4":0.09174932583783117,"5":0.08515528169973367,"6":0.03752547729042273,"7":-0.003757436648292067,"8":-0.15372246567365042,"9":0.11478757458815375,"10":-0.20671406488614827,"11":-0.12853126435527146,"12":-0.00048512876415581467,"13":-0.16764961072854617,"14":0.07819684831183418,"15":0.0488406718817062,"16":-0.20320894212844964,"17":-0.17150745997835665,"18":0.07433806262720252,"19":0.13405088785185862,"20":-0.07815357236818352,"21":-0.1276068871444009,"22":0.16276959881561362,"23":-0.03169956842756271,"24":0.10695280098873178,"25":0.08530784968636473,"26":0.20285655185034854,"27":0.13997622001717738,"28":0.10889135307193755,"29":-0.1736419009721594,"30":-0.07745047185830223,"31":-0.006264274307728302,"32":-0.19775100975663396,"33":-0.139287160108273,"34":-0.14107323839070063,"35":0.076137427825505,"36":0.025804343758817985,"37":0.1515686373235736,"38":0.08111589675598406,"39":-0.02648218111569127}},"46":{"bias":0.022925342838658196,"weights":{"0":0.11930571164729101,"1":0.21530287214914703,"2":-0.0047040136624198385,"3":-0.13809847668780864,"4":0.23208366089067634,"5":-0.03253565784650979,"6":-0.11570798343269148,"7":0.20459216551858228,"8":-0.17995809608381103,"9":-0.12421428488537634,"10":0.20643049044469294,"11":0.15102132672757057,"12":-0.1301609078667934,"13":0.1627890413741106,"14":0.14099507379108303,"15":-0.10672949240023633,"16":0.11467882321441593,"17":0.21298143505932435,"18":0.12365967472230022,"19":0.15592458528263015,"20":0.08507088383938036,"21":0.1012638721111569,"22":-0.1307421125196118,"23":0.024769808892287172,"24":0.07405256321506837,"25":-0.16153071944709907,"26":0.04514081600040328,"27":-0.18712206277842675,"28":0.12981007882393797,"29":0.0781755966203937,"30":0.2028051507048234,"31":-0.04915679473841819,"32":-0.11402969983417646,"33":0.02396572025182949,"34":0.06481055985496616,"35":0.005318114327973489,"36":-0.0901492323911846,"37":-0.08832157620887808,"38":-0.1686215692760134,"39":-0.07357185626032804}},"47":{"bias":-0.16285955003786912,"weights":{"0":0.1277767874552,"1":-0.18976120592102713,"2":-0.2513386477146814,"3":-0.064548731759774,"4":-0.022775516629863112,"5":0.030934965042190763,"6":0.1971447533248546,"7":0.06244442152040276,"8":0.09632336018190478,"9":-0.07852057751927534,"10":-0.09868980399366449,"11":-0.10309766531660927,"12":-0.08537012245690576,"13":0.23978098845376233,"14":0.005269811946587084,"15":0.08185813268841939,"16":-0.1948266201275324,"17":-0.14147613665923112,"18":-0.02257085278840198,"19":-0.04716905210069119,"20":-0.08744349820254696,"21":-0.07827098802661728,"22":0.023142904319767447,"23":-0.04608042083499859,"24":-0.05846747699930282,"25":0.16615050925212463,"26":0.15006395394970398,"27":-0.016272378010827145,"28":0.12204715717960922,"29":-0.10327408320234628,"30":-0.0303630509020672,"31":0.26735665202474557,"32":0.05331301098944499,"33":0.008878086792511812,"34":-0.17529410975374898,"35":-0.1861778524228124,"36":0.029157681569357153,"37":0.06501369667098277,"38":0.18765327614672614,"39":-0.08709856615938387}},"48":{"bias":0.11777920101137324,"weights":{"0":0.11245677306275823,"1":-0.03210594312751283,"2":0.07685058997768643,"3":0.046925824953577965,"4":0.14140141557763816,"5":-0.10919262618597886,"6":-0.06795984390563606,"7":0.17844139225979647,"8":-0.215077337744792,"9":0.21502007259109582,"10":0.10588581947507554,"11":-0.13898430175621082,"12":-0.02691913996217358,"13":-0.15155662532739064,"14":-0.1964543273221069,"15":-0.032658636136134116,"16":0.12777010306568698,"17":0.10408942929561567,"18":0.13406295036353585,"19":0.10991183544306356,"20":0.16058578795475004,"21":-0.04800899806549278,"22":-0.02859977219381462,"23":-0.04753258507648373,"24":-0.033518005828036504,"25":0.03494695496763942,"26":-0.03665328481537074,"27":0.025863928461722665,"28":-0.0006689251087895442,"29":-0.07796530582647478,"30":-0.0018729816924213027,"31":-0.13676286515453553,"32":0.0338326305000334,"33":-0.08398263184727019,"34":0.1883936821614053,"35":0.05821522358467196,"36":-0.2740052911585744,"37":-0.14117261742086595,"38":-0.04722154049913003,"39":0.02295418899637129}},"49":{"bias":0.02061716499433545,"weights":{"0":-0.0191758286798345,"1":-0.029236922146688625,"2":-0.15387539305620307,"3":0.059437149188264364,"4":-0.17490679111561258,"5":-0.17473319217791355,"6":0.09199949604774972,"7":0.1086626761186168,"8":0.1876571803335767,"9":-0.09177647307265248,"10":0.014799707203648297,"11":0.021815090163232166,"12":0.22374994736551992,"13":0.23185734998232277,"14":-0.18138738779803038,"15":0.18617725061931575,"16":-0.26688953231888524,"17":-0.18291185386820122,"18":0.17243616836447603,"19":0.02705287252241121,"20":-0.2111501892890528,"21":0.23616766842704806,"22":0.14662732684560686,"23":-0.01330197731882516,"24":-0.043318643975106534,"25":-0.1493946104215582,"26":0.21164435591784214,"27":-0.160388733386636,"28":0.05396432467373731,"29":-0.10943239619999423,"30":-0.06586548251138574,"31":0.016132392733580983,"32":-0.05019018224406201,"33":0.04844972296627761,"34":-0.02912892863822452,"35":-0.08886535561912283,"36":0.03336639250260511,"37":0.13030667212974298,"38":-0.04992586008378467,"39":-0.0947652099697338}}},{"0":{"bias":0.03227333449768725,"weights":{"0":-0.10281228248287241,"1":-0.17252567549552417,"2":0.08545277227239552,"3":-0.16176015801957916,"4":-0.05774215206962771,"5":-0.19398278424335832,"6":-0.0654089514772068,"7":0.026531760084205137,"8":-0.027588994612012713,"9":-0.10864803538483793,"10":-0.08930990732521103,"11":0.055008592874487,"12":-0.1535409931589007,"13":0.017277785070667316,"14":-0.11917535442405451,"15":-0.11609158238077238,"16":0.1540470286440246,"17":0.023458853790184624,"18":0.030548129996979905,"19":0.006882399157897172,"20":0.09249178200647529,"21":0.03360045744343072,"22":-0.08104187287620687,"23":-0.26155136279274993,"24":-0.04730678949830688,"25":-0.09445532619018002,"26":0.04983971566022614,"27":0.029082133348308982,"28":-0.21586636842092913,"29":-0.052682343087742424,"30":-0.13286290107647042,"31":-0.2709164191431459,"32":-0.17861169836625768,"33":-0.1376453864379173,"34":0.05152404373624242,"35":-0.12230223200103371,"36":-0.26772695264177476,"37":-0.20524892827334493,"38":-0.035635447999393936,"39":0.0738985207502899,"40":-0.14319039228719693,"41":-0.2063844566192297,"42":-0.06921781596317898,"43":-0.013258940871019894,"44":-0.25832753747274684,"45":-0.17251055601549714,"46":-0.013689593038050835,"47":-0.052449179590119396,"48":-0.06286838136290322,"49":-0.0340045396050795}},"1":{"bias":-0.04553422192666656,"weights":{"0":-0.01618829164892755,"1":-0.21602600904332941,"2":-0.102071172520441,"3":0.08282251361178412,"4":-0.12618801379738467,"5":-0.24905927806111844,"6":0.053425144844720066,"7":0.10669700354566453,"8":-0.16985272729029038,"9":-0.08013799019690349,"10":0.12436179080163286,"11":0.07774104765879997,"12":0.037203380485111286,"13":-0.25614748230917794,"14":0.01816293943579103,"15":-0.09090565725266439,"16":-0.14206211921287637,"17":-0.00007760137627973204,"18":0.13622553501439522,"19":-0.19862829381085587,"20":-0.14379140557507508,"21":0.16347188621295838,"22":-0.26116991842366416,"23":-0.16935417718771534,"24":-0.15240517320270838,"25":-0.008478621191307833,"26":0.022589777131396725,"27":-0.1120913618634653,"28":0.033093699385984554,"29":-0.11389827831660508,"30":-0.2767183775453247,"31":-0.024789247636848324,"32":-0.05521853243529457,"33":-0.019015651109673973,"34":-0.1928294537971522,"35":-0.10948023744607198,"36":-0.0002477556324366608,"37":-0.1402769659781367,"38":0.015989430684347,"39":0.05589983669472751,"40":-0.10280155487549571,"41":-0.10780736205422586,"42":-0.09094865088533849,"43":0.12959733247888447,"44":-0.17923206513068815,"45":0.09016890555778538,"46":-0.2338264160517075,"47":-0.020002550866158614,"48":-0.2473545811780926,"49":-0.09623012259681873}},"2":{"bias":-0.04972866399577502,"weights":{"0":0.0649914702464282,"1":-0.29582717257187424,"2":-0.06356086220846953,"3":0.15823040230848515,"4":-0.05941484445030453,"5":-0.07559134339425976,"6":-0.05458257152541016,"7":-0.16481187456797913,"8":-0.20207110418134816,"9":0.08068273312652922,"10":-0.11982355112790662,"11":0.1317759030670199,"12":0.10114036036978777,"13":-0.1853198134064973,"14":0.24906639271555506,"15":-0.08456344552987544,"16":0.219684026600433,"17":-0.13307220051052282,"18":0.2747659493368799,"19":-0.0792201162672463,"20":0.1668201271399987,"21":-0.04086373921442787,"22":0.08892062710164418,"23":0.0015370369224899122,"24":0.10467373654458145,"25":0.19998854292719412,"26":-0.28744012412275316,"27":-0.035940958694876776,"28":-0.4079282565939034,"29":-0.12505977109230754,"30":-0.32412598042489177,"31":-0.003567078704052253,"32":0.10526127582767444,"33":0.07729032091117027,"34":-0.15158939338714236,"35":-0.04433195950636622,"36":-0.11396746958749182,"37":0.04567401777230626,"38":-0.14554950578586287,"39":-0.09452010047314693,"40":0.016600525882042024,"41":-0.09502242290366106,"42":-0.2257599855034839,"43":-0.018511461824939276,"44":-0.3950551488353374,"45":0.0633107091813628,"46":-0.2496591867316007,"47":0.2462272944346476,"48":-0.26289489814865574,"49":-0.005667007684321716}},"3":{"bias":-0.2052717978597398,"weights":{"0":-0.07435805068122212,"1":0.014497498287691602,"2":0.03765663692450358,"3":0.10914015173943055,"4":-0.1313841779826639,"5":-0.22629761838606383,"6":-0.23069538515536425,"7":-0.07904674868253522,"8":0.009529257809061116,"9":-0.02094491807838078,"10":-0.1815082242047554,"11":0.06632823191522107,"12":-0.23570939470267252,"13":0.015169976439378972,"14":-0.07865772433041457,"15":-0.058003019993066084,"16":0.07097954774133526,"17":-0.007335297400060215,"18":0.127015077568027,"19":0.05968902839608976,"20":-0.06718728710852373,"21":-0.22916689815390595,"22":-0.004744787687645678,"23":-0.1374287342521109,"24":-0.1035322003669163,"25":-0.12699544017058587,"26":0.010801689372778596,"27":-0.2227614749821427,"28":0.09183823084263158,"29":-0.17878470808628405,"30":-0.010806156976639926,"31":-0.027571192856513396,"32":-0.22712752887505022,"33":-0.040053908024236695,"34":-0.02151208443961758,"35":0.06318146181176193,"36":-0.19578464932331036,"37":-0.1251459997406268,"38":0.11530672578522148,"39":-0.21991074984938805,"40":0.0723674343906852,"41":0.02511521325098794,"42":-0.033652153529858474,"43":0.1417197230276446,"44":-0.1401267276514959,"45":-0.038256006059030366,"46":-0.2172619485465015,"47":-0.25455393754725425,"48":-0.18209976846870846,"49":-0.2518194741296305}},"4":{"bias":-0.21860767088993022,"weights":{"0":0.04175529920793659,"1":-0.00026056936120982723,"2":0.010415335537582334,"3":0.04500010971185199,"4":0.025044686232866306,"5":-0.01866547237591273,"6":0.09418974842642422,"7":-0.029854403625712407,"8":-0.10464803768512573,"9":0.0051434465972673635,"10":0.11098452754217639,"11":-0.0677616127065744,"12":-0.10543226396726314,"13":-0.2556964464942623,"14":-0.2535080662311888,"15":-0.20225357564726984,"16":-0.2501854227833166,"17":-0.26133335296848675,"18":0.05028423274758708,"19":-0.2628246006640937,"20":0.02209050630847738,"21":0.11882102377928197,"22":0.10990982067457965,"23":-0.2594660915342009,"24":-0.14052038401739145,"25":-0.2167018894633851,"26":0.05050032356977556,"27":-0.10100346261043298,"28":0.0654548377632587,"29":-0.08880498672369787,"30":-0.26371969278175034,"31":0.02469156051165696,"32":-0.12334301503950733,"33":-0.022835105929744207,"34":0.07853792505570535,"35":-0.16166155838837473,"36":0.08187833247477858,"37":-0.0890429765841876,"38":-0.004617395793525479,"39":0.014283830029023007,"40":-0.06928204431006602,"41":-0.2009513390038197,"42":-0.1663139834145963,"43":-0.25062588725035234,"44":-0.18427379037708327,"45":0.096850258022083,"46":-0.13624134809987448,"47":-0.05314472976893667,"48":-0.06188628624534971,"49":0.1233248345526258}},"5":{"bias":0.12989167862506026,"weights":{"0":0.09915147129908261,"1":-0.2713932770275916,"2":0.11612241242458707,"3":0.04349307216608173,"4":-0.18953600946668442,"5":0.11365066752072524,"6":-0.24262565645443515,"7":-0.24469264919482286,"8":-0.05401884380417668,"9":-0.1532365433056899,"10":0.00389584727837122,"11":-0.007198624350042909,"12":0.0734652156960513,"13":-0.15862457598839586,"14":0.2906118030130245,"15":0.22177108022409767,"16":-0.05068682303209471,"17":0.1524676668508975,"18":0.2626650070685566,"19":-0.11603287467029907,"20":0.07105447498710639,"21":-0.16889727227582862,"22":-0.1934338345025743,"23":-0.25015580361044343,"24":0.008682820844302849,"25":-0.03401729316306144,"26":-0.250382580817208,"27":0.03156358767268499,"28":-0.06967444635642267,"29":-0.14988880777496832,"30":-0.22046700080191564,"31":-0.09873472180010759,"32":-0.045304650751042806,"33":-0.2717988700176516,"34":-0.00046247415896629644,"35":0.16749132125416274,"36":-0.20388438216631927,"37":-0.03044171243432363,"38":-0.12330505272018837,"39":0.1759405306216899,"40":-0.07961428798776587,"41":-0.26002872959682766,"42":0.08926038308738977,"43":-0.18547167470529324,"44":-0.03709181858189684,"45":-0.07779454242633146,"46":-0.20572638748251318,"47":0.1985393405855426,"48":-0.19218822242725758,"49":0.001404251788888985}},"6":{"bias":-0.28921682613932603,"weights":{"0":-0.04454275853213931,"1":-0.1716258756365356,"2":-0.19357560465969667,"3":-0.0024633548043637835,"4":0.10115105021588118,"5":-0.038099102208636916,"6":-0.0031353824699587255,"7":0.08352647247362427,"8":0.007128548943505703,"9":-0.19334473263612567,"10":0.07673537020824373,"11":-0.20614545221876995,"12":-0.07174018154891476,"13":-0.10259069622994484,"14":0.09391336601620108,"15":0.0013989766871552465,"16":-0.18365803268634937,"17":0.006799423171292812,"18":-0.08804548503815977,"19":0.1102658485739299,"20":0.003374848423170097,"21":0.010301349828968602,"22":-0.23886576493942716,"23":0.087826943854031,"24":0.05565518905707497,"25":-0.039982533983355925,"26":0.09834556041882801,"27":-0.20505331081686565,"28":-0.07264040611365914,"29":0.08639956282212059,"30":-0.059380682594488546,"31":-0.20751201756282228,"32":-0.278612886219989,"33":-0.22211260143328937,"34":0.07370484398731836,"35":-0.2985936928126798,"36":0.13582093349928148,"37":0.1416737102123503,"38":-0.14787389533241083,"39":-0.15241527861411783,"40":0.10420908871826384,"41":-0.24414832672558923,"42":-0.0716329366003062,"43":-0.16808496937571912,"44":-0.17970398709979765,"45":-0.10706980405109358,"46":-0.2544599979703387,"47":0.0015886708557879855,"48":-0.09968409535675377,"49":-0.15948513544439066}},"7":{"bias":-0.24136298104342366,"weights":{"0":0.04120120073728852,"1":-0.255679944749045,"2":-0.1285290740453632,"3":-0.1388648249153175,"4":-0.20291542168849896,"5":-0.2021648632540812,"6":0.10116464700135276,"7":0.04763558117501877,"8":-0.14151442465245953,"9":-0.0805063519544077,"10":0.07519359807626372,"11":0.1261696423519664,"12":-0.06901587338441181,"13":0.043043465248044525,"14":0.13880958689364062,"15":0.0876643198135126,"16":-0.11246496021005702,"17":-0.048513374615046775,"18":-0.17972172142366874,"19":0.05852501966811726,"20":0.10300615886627282,"21":-0.008303292331432725,"22":-0.05250987554340253,"23":0.02385854045919496,"24":-0.2363528383543305,"25":-0.1530766175140963,"26":-0.23471670892753918,"27":0.12437020170627189,"28":0.030117024299410745,"29":0.05426693497494204,"30":-0.07246697230455082,"31":-0.20065627791713447,"32":0.0651312344201205,"33":-0.2697423745034113,"34":-0.12083658666840016,"35":-0.2555253986937323,"36":-0.3327982208193391,"37":0.097897622406597,"38":0.015259569293386824,"39":-0.07349411493301217,"40":-0.17789777535678922,"41":-0.022650329625695714,"42":-0.19939170931978015,"43":0.004723669618508084,"44":-0.08798815670857847,"45":-0.04888704351625333,"46":-0.2543794179077229,"47":-0.029549298623899895,"48":-0.14250162686492152,"49":-0.04501144797075648}},"8":{"bias":0.18936648278373205,"weights":{"0":-0.032086055768655315,"1":-0.09282934783495672,"2":0.013228334241405175,"3":0.24505710779824513,"4":-0.24323645927382245,"5":-0.04390019915810949,"6":-0.2474525203387628,"7":-0.2786905542408716,"8":0.0051058310009847495,"9":-0.27154123984581124,"10":0.3270567718089557,"11":0.17205898146628193,"12":0.015332100331949866,"13":-0.4735912661930761,"14":0.31408161733013645,"15":0.3419910036929589,"16":0.22507029153859148,"17":0.28389362519983397,"18":0.39766040535094227,"19":-0.1447443753418916,"20":-0.05479361806232086,"21":0.11013895498250895,"22":-0.0857274776045141,"23":-0.3342401363253276,"24":0.1953424045872117,"25":0.22497982134868727,"26":-0.11210347516366966,"27":0.23559284131607533,"28":-0.3562284707578743,"29":-0.040798361714857824,"30":-0.2762349516086522,"31":-0.21336972348599423,"32":-0.134128734491649,"33":-0.09789022999242883,"34":-0.05767096552778536,"35":0.0851000989624725,"36":-0.601940849637815,"37":0.12076241217988022,"38":0.170441692028644,"39":0.3408590682209959,"40":-0.20028745570636455,"41":-0.31537448505080445,"42":-0.015153514081059765,"43":-0.06401842397063791,"44":-0.5108570820623902,"45":0.01025546584951969,"46":-0.142102363845963,"47":0.14147490281513858,"48":-0.19074543106863612,"49":0.4192390623683325}},"9":{"bias":-0.10414958729911004,"weights":{"0":0.028434017110041343,"1":-0.22257064749231126,"2":-0.08740763733475135,"3":0.12037869737635028,"4":-0.25581148922808605,"5":-0.03652694602708397,"6":-0.17267119090477695,"7":-0.21450001805415275,"8":0.053308039199377,"9":-0.16614835052433638,"10":0.08861517803330597,"11":-0.091405374049409,"12":-0.2115659219667664,"13":-0.18629627099813775,"14":-0.1096811814527843,"15":-0.03640945367013123,"16":-0.15699761584625113,"17":0.015301073438095681,"18":-0.051707478713895506,"19":-0.21623843800506376,"20":0.05590364738210821,"21":-0.1654443754371366,"22":0.020903673540089682,"23":-0.18321169643181687,"24":-0.15690091789472282,"25":0.1331210543519323,"26":-0.013978050315745795,"27":0.10240336899172689,"28":-0.2782409954188519,"29":-0.08876705201658468,"30":-0.08225184363528047,"31":0.041830531915602834,"32":-0.2584574846157187,"33":0.04513690068479121,"34":0.06410863329565263,"35":-0.14540099076790036,"36":-0.14063734524371074,"37":-0.18761128160585508,"38":-0.01708683174163961,"39":-0.10406695891810694,"40":0.02522227293211515,"41":0.001094609868689334,"42":-0.20062032046185652,"43":-0.074047765083974,"44":-0.1959998316884741,"45":0.08251927915864687,"46":0.08903696870076344,"47":-0.04146755668579602,"48":-0.04398481168886227,"49":0.16770474662446078}},"10":{"bias":-0.0014030045599471893,"weights":{"0":-0.1302803964972198,"1":-0.04213328589829916,"2":-0.06748603417203818,"3":-0.2250148852548747,"4":-0.24498695083507188,"5":0.0026100719132261586,"6":-0.26582548872142253,"7":-0.016611547032572078,"8":-0.17745496604995842,"9":-0.008621198208735673,"10":0.09780921982318094,"11":-0.01357320132682506,"12":-0.0573777948721104,"13":-0.16046995989419402,"14":0.12880720642081653,"15":0.02376695550421418,"16":0.006512936653640812,"17":0.008037779984998708,"18":0.09440775498322959,"19":0.08426397288291536,"20":0.12424455433845673,"21":-0.19820068715082295,"22":-0.1341609265882496,"23":-0.06378263980024336,"24":-0.17448769329129116,"25":0.1121563767549773,"26":-0.28887523301318824,"27":-0.12151584517870984,"28":-0.16049152476384154,"29":-0.141413119853042,"30":-0.15943091072443186,"31":-0.023273277123266125,"32":-0.12391866209318347,"33":-0.12358916932951303,"34":-0.1603261547082302,"35":-0.07813662907829838,"36":-0.10552377735461209,"37":0.12131114283325295,"38":-0.11295703375837975,"39":0.009900428768614206,"40":-0.2942825053470572,"41":-0.2888932317689906,"42":0.1196064975727029,"43":-0.041138798254880184,"44":-0.1074200427014656,"45":0.09538617298601197,"46":0.06710661044857794,"47":-0.056019611620205675,"48":0.006547777863984562,"49":0.13022545236447747}},"11":{"bias":-0.05570699224981125,"weights":{"0":-0.014397668740259637,"1":-0.2057147054410407,"2":-0.15323931175554112,"3":0.0748877787731278,"4":-0.18534167766932194,"5":0.0023175569671196284,"6":-0.14063935911127454,"7":-0.17317979734991976,"8":-0.031059153718878615,"9":-0.2522692028046426,"10":0.28647778675186797,"11":-0.13365576452567973,"12":-0.1519122796291729,"13":-0.2744007468254576,"14":0.18182836798417307,"15":0.056173718882469,"16":0.1688534947924772,"17":-0.05008282521798272,"18":0.18439816032788273,"19":-0.2625930965113049,"20":-0.03498093424568395,"21":0.14964960289193302,"22":-0.035349329661988185,"23":-0.1685999409748873,"24":0.15428539042620615,"25":0.1721039013119246,"26":-0.23438592443895406,"27":0.27279878076118286,"28":-0.23861196622396574,"29":-0.08363623478937077,"30":-0.3037689248461575,"31":-0.02538434906841103,"32":-0.0009665661662082713,"33":-0.014136502638614167,"34":0.009610213924393455,"35":-0.020181042313366614,"36":-0.37721371464625697,"37":0.2116389757859904,"38":-0.14622725584362814,"39":0.28718331820113613,"40":0.07276374713003061,"41":-0.30809383431370196,"42":0.15028081778942778,"43":0.1263012112471582,"44":-0.39809945614039666,"45":0.23193478828837696,"46":0.04054028343889257,"47":0.22328788222555407,"48":-0.14159383640628662,"49":0.22364732971367396}},"12":{"bias":-0.18592183261853296,"weights":{"0":-0.2668226891302322,"1":-0.07980862551487214,"2":-0.1555425865859511,"3":0.08695323516798269,"4":0.06519320634711975,"5":0.09173078946111975,"6":-0.06689441861693302,"7":-0.05421938957238904,"8":-0.10555278943861343,"9":-0.12089619161190415,"10":0.13331594880523065,"11":0.12697790978029005,"12":-0.20540855506166206,"13":0.029311105239280995,"14":-0.24137047865337857,"15":0.026490263316710925,"16":0.08600287404604766,"17":0.11660758226900347,"18":-0.13782902393410124,"19":0.05518392510231945,"20":-0.22748916637345715,"21":-0.01467464410112936,"22":-0.16037693141540257,"23":-0.116653739888999,"24":-0.22590675586658523,"25":0.08886822062664634,"26":-0.23099101554046425,"27":0.11160294777488944,"28":-0.01048985952238435,"29":-0.007431753134158315,"30":-0.2528015304883169,"31":-0.16209129941804826,"32":-0.12135942917612816,"33":-0.17065328833486312,"34":0.0844663158293451,"35":-0.07963256034975684,"36":-0.14062373946712564,"37":-0.1555549959045614,"38":-0.02131865478116812,"39":-0.06697270783117791,"40":-0.252460354333138,"41":0.06973913437006077,"42":-0.17304949653498322,"43":0.10791604073275916,"44":-0.19428730925093537,"45":-0.16233677546242403,"46":-0.26336633556568295,"47":-0.13934383972348882,"48":-0.06402204394592786,"49":-0.09402477741527217}},"13":{"bias":0.01674984817995491,"weights":{"0":-0.05239674431885834,"1":0.030648549574055762,"2":0.10129465263928124,"3":-0.1323084019787722,"4":0.18880549305267588,"5":-0.22106017022926516,"6":0.0694778061968057,"7":-0.1339063873179418,"8":0.02838986937507653,"9":0.05131230368741033,"10":-0.30567204401890613,"11":-0.01809400619956942,"12":-0.05422952978973155,"13":0.017213843084284437,"14":-0.3283313376338979,"15":-0.03199142068456698,"16":0.005734263862808183,"17":-0.18407199233513374,"18":0.007129025282055476,"19":0.19491705967283005,"20":0.09366839011731644,"21":-0.1310231138431253,"22":0.05013343893970601,"23":0.044847796250714625,"24":-0.17166743933228487,"25":-0.033601868545426836,"26":-0.18498519522719883,"27":-0.287047978245199,"28":0.2335285220818029,"29":0.014596849751328227,"30":0.2465508987075865,"31":0.1591065236069397,"32":-0.24930513901524048,"33":0.19188628731772406,"34":-0.0929433282864357,"35":-0.0068920753845548,"36":0.17890653124382147,"37":-0.13367963829516338,"38":0.11867716587720675,"39":-0.2141302186536479,"40":-0.10380989368161661,"41":0.19380874555117975,"42":0.03651993381749015,"43":0.1214535222051377,"44":0.24395041857069671,"45":0.027197400148049115,"46":-0.13986774289741316,"47":-0.19594405331078266,"48":0.11590919217848288,"49":-0.13910831621345263}},"14":{"bias":-0.06134661707769472,"weights":{"0":0.11221547574594545,"1":0.04922238089839861,"2":-0.11312431803456961,"3":-0.07921032729803276,"4":-0.07170939228798158,"5":-0.21505169024946255,"6":0.051377706243998435,"7":0.06756198560812833,"8":0.105848904320203,"9":0.10595296264139567,"10":0.08550495553917552,"11":0.04825648192468602,"12":-0.1750796601079275,"13":-0.34531769258618455,"14":-0.05559306087486498,"15":0.06340414616682978,"16":-0.08015373020406732,"17":0.1515377758010924,"18":0.2223042335432111,"19":-0.27101326131419096,"20":0.06145893317389706,"21":-0.16640892614709446,"22":-0.11559075420706237,"23":-0.20566460769478706,"24":-0.085887607197117,"25":0.04378712923532384,"26":-0.23473849193306956,"27":-0.09713908334874949,"28":-0.22295847840547425,"29":-0.0678150799976818,"30":-0.3094164808834881,"31":0.050588716296659814,"32":0.018340579285820568,"33":-0.18482919330605962,"34":-0.010100569833572824,"35":0.1349021025115518,"36":-0.3290699546476972,"37":0.17846460191295335,"38":-0.23226266509460405,"39":0.07805526034753787,"40":-0.25412029869008695,"41":-0.31421552207669357,"42":-0.20130255815679282,"43":0.007726647234902528,"44":-0.0631991338409531,"45":0.03891088054337807,"46":-0.12381036809629677,"47":0.12846036403282676,"48":0.11478080085472307,"49":0.24717864606098672}},"15":{"bias":-0.1866273138513687,"weights":{"0":-0.016376348496104587,"1":0.09986248859121256,"2":-0.07732161028942522,"3":-0.21772078242242612,"4":0.07255070088454085,"5":0.07684030041209683,"6":0.0038810055516838486,"7":0.12767043009675477,"8":-0.028876372201484254,"9":-0.041114016450635636,"10":-0.2372364389710507,"11":-0.248561462335617,"12":-0.2577387679803651,"13":-0.1367734603012473,"14":0.04398592441692476,"15":-0.16982223090543078,"16":-0.10640555817281545,"17":0.08434853279134027,"18":-0.05908238730437015,"19":-0.06844356703421631,"20":-0.10975991718453762,"21":-0.03798592727962962,"22":-0.009562037807799888,"23":-0.12972712350696988,"24":0.11454758454141777,"25":-0.03466335100741343,"26":-0.01137883242420645,"27":-0.06929456435367302,"28":0.06022464183406369,"29":0.017576594002554007,"30":0.06477306491469459,"31":-0.1224020227420567,"32":-0.13374815602080234,"33":-0.006760331282432004,"34":-0.251468483220934,"35":-0.27036832523255105,"36":-0.023749948972278345,"37":-0.1777460839049099,"38":-0.03146685107508728,"39":-0.21665055615716342,"40":-0.010459724351261798,"41":0.07546758843786373,"42":0.12661765321277998,"43":0.0381874427083668,"44":0.17006441390198937,"45":-0.12022093721590442,"46":-0.027752277014876082,"47":-0.25851703963360323,"48":-0.07839523997646185,"49":-0.10260206615318043}},"16":{"bias":0.07949084430533773,"weights":{"0":-0.18605607440709368,"1":0.007759130918073338,"2":-0.171576109993004,"3":0.1312686814008701,"4":-0.24823341716717967,"5":0.010604832420060962,"6":-0.16876300656957227,"7":-0.11585773807355536,"8":-0.2500483540164561,"9":-0.06001908150408525,"10":-0.07774223369168404,"11":-0.12658189009422513,"12":0.06878485383914427,"13":-0.21460738879397095,"14":0.13361934623561822,"15":-0.07276500809843173,"16":0.07501777242174941,"17":-0.1253458979802356,"18":-0.16042900309555982,"19":-0.28982862787841934,"20":0.011121942908360246,"21":-0.18207749792832786,"22":0.07977708272941836,"23":-0.2528410088302052,"24":0.04304042637894644,"25":-0.2006797841492166,"26":-0.00264372409265569,"27":-0.163269989784959,"28":-0.04234132743356621,"29":0.07336562494465483,"30":-0.23275278472822247,"31":-0.11792063598622579,"32":-0.09379199907144901,"33":-0.14979355941874523,"34":-0.24159778968268683,"35":0.12073383581378534,"36":-0.16328469728347914,"37":0.05595734602889503,"38":0.12270442437394403,"39":-0.015110862265519661,"40":-0.13310228488366682,"41":-0.12928292611914927,"42":-0.11498602068043794,"43":0.08620452925246251,"44":-0.05778268146320507,"45":-0.09440004964879466,"46":0.03726509788154561,"47":0.19121861359534348,"48":-0.2715223064052981,"49":-0.09886821965136532}},"17":{"bias":-0.012412287288302593,"weights":{"0":-0.1447659776230334,"1":0.08547189131399181,"2":0.007708688906893719,"3":-0.014699434488637532,"4":0.18322269562827326,"5":-0.1672234896704362,"6":-0.06634767979809979,"7":0.19899956307626543,"8":-0.15530894591394306,"9":0.1420887485040632,"10":-0.04811034464376907,"11":0.1419751492027109,"12":-0.07431070821929646,"13":0.15145358616211968,"14":-0.2993313143761911,"15":-0.08590882529635561,"16":-0.2855572788758939,"17":-0.18053375791065648,"18":-0.12492510448458595,"19":-0.04972329659886715,"20":-0.09213793930058746,"21":0.06810335655246125,"22":-0.10404389476390671,"23":0.1608902429297252,"24":0.027949279687664738,"25":0.08955899725426637,"26":0.0571653500431059,"27":-0.2841828568622267,"28":0.2697528786306533,"29":-0.10190244120320975,"30":0.12938685410988682,"31":-0.19394237962542693,"32":-0.17510346236467975,"33":-0.056836628518998185,"34":0.09787608491085868,"35":0.053445969039176276,"36":0.27925477494555895,"37":-0.019794725272326792,"38":-0.09562091220962186,"39":0.029623350535684212,"40":-0.14810996541448115,"41":-0.09032078325329598,"42":0.08784955315110286,"43":0.13477778498262005,"44":0.13504291820155429,"45":0.001046657429029796,"46":-0.19892631583857717,"47":-0.2766623850546292,"48":0.08605462683671242,"49":-0.3265905406245504}},"18":{"bias":0.09039349488611288,"weights":{"0":-0.16111859482979735,"1":0.04700175052845312,"2":0.055399494066807886,"3":-0.20237985929060767,"4":-0.27924166735791894,"5":0.09768965258572647,"6":-0.10920538849797763,"7":-0.17703895654542007,"8":0.009146177373364315,"9":-0.2852492070831386,"10":-0.07232893807924033,"11":-0.023708463773441598,"12":-0.039868011458266496,"13":-0.3005248870265698,"14":-0.0976703209185629,"15":0.11715247367709429,"16":0.07681349752798211,"17":0.09644239924859681,"18":0.13868869301087394,"19":-0.24527745462976233,"20":0.11479634194976203,"21":-0.028050772929109687,"22":0.020122186279656427,"23":0.04251130513680995,"24":-0.1483605116584455,"25":-0.06587129308495486,"26":-0.07555298467082538,"27":-0.2187831614211197,"28":-0.27143623551799334,"29":-0.26750831663151275,"30":-0.07730488030045844,"31":0.05680974363751994,"32":0.016611738488296203,"33":0.05872992974766932,"34":-0.1552763550118585,"35":0.035379601977435816,"36":-0.01869083537754004,"37":0.03420832230307637,"38":0.036046579297868434,"39":-0.14954102774846373,"40":-0.13137473088749718,"41":-0.2103195326752126,"42":0.0008355600898257791,"43":-0.10901019940556997,"44":-0.20985802623457764,"45":-0.08067218343184238,"46":-0.2566626778183375,"47":0.05483018741380619,"48":-0.0990787753419515,"49":0.07318759608795879}},"19":{"bias":-0.31170754831564007,"weights":{"0":0.03649790419537873,"1":-0.26938250535642416,"2":-0.24248946267343321,"3":-0.016684667102131574,"4":-0.26615223118072,"5":-0.0935447792401857,"6":0.10976321461342457,"7":-0.11191656878294734,"8":-0.08989218424040865,"9":-0.21476226050716707,"10":-0.14086869913647282,"11":-0.20527713785694424,"12":-0.10841949211640185,"13":-0.0006946219610000509,"14":-0.044563646398619566,"15":-0.022445130857884292,"16":0.022021432032434902,"17":-0.17116298916897155,"18":-0.16196757146013463,"19":0.01973777769292215,"20":-0.01792983364431533,"21":-0.12127087587764901,"22":-0.1736825724738532,"23":-0.011718468140502916,"24":-0.03808396930762173,"25":-0.07013882457935651,"26":-0.18633733824157633,"27":0.103708427895227,"28":0.043602099428117755,"29":0.08939156346557534,"30":-0.18334841383004938,"31":-0.026353943481114264,"32":0.07210172333356382,"33":-0.1153740817715369,"34":-0.15289242824156754,"35":-0.06820009986888319,"36":-0.1165066107869898,"37":0.11264208551770041,"38":-0.20636801631401755,"39":-0.17146066745517033,"40":-0.1141162015801878,"41":0.02743609116729803,"42":-0.08423901279321741,"43":-0.09769691096187448,"44":-0.11545946677963531,"45":0.11643553408360903,"46":-0.06839834746669524,"47":0.054143653800324903,"48":0.06172003832546717,"49":-0.11480023839968083}}},{"0":{"bias":0.6690231667401254,"weights":{"0":-0.15998613271761958,"1":-0.264274611368042,"2":-0.4338104168143582,"3":0.04857708636546695,"4":-0.14138374945081336,"5":-0.3975812089565204,"6":0.024277111733910693,"7":-0.15710721373991765,"8":-1.2366960901547246,"9":-0.34472412735687885,"10":-0.2512413109471385,"11":-0.6817551377545901,"12":-0.056117494622134285,"13":0.46668726094962604,"14":-0.5381626063461435,"15":0.12843834563806558,"16":-0.15333637836463523,"17":0.43464753360694225,"18":-0.23445371684009758,"19":-0.1112629111886744}},"1":{"bias":0.6292998134037768,"weights":{"0":-0.3094424624234499,"1":-0.07359591847211026,"2":-0.4996959691967849,"3":0.07363897744993653,"4":0.04407939497728243,"5":-0.575869848675838,"6":-0.01826693288867486,"7":-0.16050058692352898,"8":-1.0237508934865558,"9":-0.12322686646982384,"10":-0.3589683498323015,"11":-0.7218381165648924,"12":-0.1394657020668666,"13":0.4253415347550644,"14":-0.21124826395298504,"15":0.2432135519252623,"16":-0.2919451837220877,"17":0.3302084159284814,"18":-0.31130738402400787,"19":0.027387750599876692}}}],"outputLookup":false,"inputLookup":false}