{"layers":[{"0":{},"1":{},"2":{},"3":{},"4":{},"5":{},"6":{}},{"0":{"bias":0.05662653795123783,"weights":{"0":0.10157551593087699,"1":0.12172794948178192,"2":0.12926649141060662,"3":0.022942973641732867,"4":0.1179551235787679,"5":-0.03614986319757282,"6":0.12520407793624488}},"1":{"bias":0.14500976107921626,"weights":{"0":-0.15065975674510237,"1":0.1292904093125623,"2":0.09603326032002792,"3":0.08421743005469537,"4":0.1258794526618885,"5":0.0674570545384417,"6":-0.014401760985715327}},"2":{"bias":0.1456588196646642,"weights":{"0":-0.08125224114309768,"1":0.08013572910873192,"2":0.18810539690065164,"3":-0.016023337534591824,"4":-0.12411815839479784,"5":0.1913848940041081,"6":-0.1258554038667647}},"3":{"bias":-0.08562581657183943,"weights":{"0":-0.08584756154204572,"1":0.11233890219168363,"2":0.15314175413714254,"3":0.1651405723527351,"4":-0.18428939676841813,"5":0.11343826774829929,"6":-0.12392995958099005}},"4":{"bias":-0.025436399962240355,"weights":{"0":0.07527525150582393,"1":-0.098324113379755,"2":-0.0005958596402060662,"3":-0.07069686978381114,"4":0.15611744875321323,"5":-0.06320315377007596,"6":-0.09766929766939392}},"5":{"bias":-0.06001632253068958,"weights":{"0":-0.17095159991418626,"1":0.1890553198957889,"2":0.06644306178609362,"3":-0.09245739930876984,"4":0.050814144557613135,"5":0.11824253265343859,"6":0.15291178687796592}},"6":{"bias":0.09665404903990023,"weights":{"0":0.11541647158618573,"1":-0.10551546596400857,"2":0.1904215264268738,"3":-0.03935896479286091,"4":-0.044067322464610766,"5":-0.07915629560651768,"6":-0.08203470402527807}},"7":{"bias":-0.0025097298754763087,"weights":{"0":-0.19438144881379738,"1":-0.14545615423511815,"2":0.09495812186015398,"3":-0.031230100821225237,"4":-0.07204409422762895,"5":0.15047936166463566,"6":-0.06595277842465486}},"8":{"bias":-0.15067318438209815,"weights":{"0":0.07493108979225181,"1":-0.1884279208115107,"2":-0.020938716025426886,"3":0.008930956763603318,"4":-0.10727361241931606,"5":-0.08198477975878292,"6":0.19672816056577272}},"9":{"bias":-0.10978521601358511,"weights":{"0":-0.08837752129222441,"1":-0.02787257178605099,"2":-0.03131107769878662,"3":-0.02379592860441954,"4":-0.12707089551451234,"5":0.011534503840177113,"6":-0.15348688662097335}},"10":{"bias":-0.006121112365373956,"weights":{"0":-0.07343424867518865,"1":-0.1112406118844414,"2":0.023829173468771052,"3":-0.029350956413237744,"4":0.12836876529747393,"5":0.0041751433928137955,"6":-0.13859596842177105}},"11":{"bias":-0.15440087696854282,"weights":{"0":0.011404037549057246,"1":-0.13413587523383394,"2":0.016628399343078012,"3":-0.1231359073562966,"4":0.02699536947795987,"5":-0.06407171138858682,"6":0.12242990280360065}},"12":{"bias":-0.012367691362549157,"weights":{"0":0.1840948348267919,"1":0.043134610610727216,"2":-0.1731768038573804,"3":0.021883103971683585,"4":-0.09850860275774176,"5":-0.19891725634225146,"6":0.17386767942379588}},"13":{"bias":0.1011303425407843,"weights":{"0":-0.05968321714174428,"1":0.1546450730121749,"2":0.06390673316764522,"3":-0.12733471584645642,"4":0.08743893496873492,"5":0.16831138582319213,"6":-0.10539808286537508}},"14":{"bias":-0.11328673385030189,"weights":{"0":0.0422416449590998,"1":0.12234135301875325,"2":0.17719218979859194,"3":-0.051801466341403674,"4":0.10489404893186742,"5":0.08802038247108425,"6":0.16885614573476862}},"15":{"bias":0.15855784955977045,"weights":{"0":-0.02020289983436736,"1":-0.0038182193342302818,"2":0.04147276849990284,"3":-0.16158247045676777,"4":0.11416927129647339,"5":-0.08202606490389205,"6":-0.01070419399942349}},"16":{"bias":-0.045304247410593905,"weights":{"0":0.040843753584048716,"1":-0.18298257732854076,"2":0.11340060995256875,"3":0.035151161493371344,"4":0.1859995673703478,"5":-0.08802523164300222,"6":-0.1550608098110666}},"17":{"bias":-0.0018763269503885968,"weights":{"0":-0.17668437073892154,"1":-0.07806618720346363,"2":0.19867170103614162,"3":0.08707256535377651,"4":-0.0024884919721651034,"5":0.07711237039952154,"6":0.1300473671613841}},"18":{"bias":-0.01990400481201061,"weights":{"0":-0.0012011309878209027,"1":-0.10051099594060436,"2":0.14943383958136677,"3":0.13820430555826596,"4":-0.09493591464051962,"5":-0.13135969879465778,"6":0.09050468118742604}},"19":{"bias":0.11581509596188407,"weights":{"0":0.1185959062368916,"1":-0.19515146123821075,"2":0.0347452007033253,"3":0.1910519492500514,"4":0.13822950736977865,"5":0.03788729534902192,"6":-0.073443240444123}},"20":{"bias":-0.025578127271377184,"weights":{"0":0.18355039283421237,"1":-0.028667395851135005,"2":0.034751007009180095,"3":0.15494538176966338,"4":0.11718531745505191,"5":0.17316897000642953,"6":-0.0701663086238226}},"21":{"bias":0.139320504768877,"weights":{"0":-0.05396388364212142,"1":-0.04295574165026126,"2":0.008123984202792561,"3":0.08368377366634344,"4":-0.16154365711914795,"5":-0.11861610723441786,"6":-0.032435044556334634}},"22":{"bias":-0.0907328838438553,"weights":{"0":-0.1233488955088101,"1":-0.03181196186625608,"2":0.14470685900469918,"3":-0.17615210515606644,"4":0.1814130797310134,"5":0.056824508075974875,"6":0.18094033372840412}},"23":{"bias":0.07240934623563644,"weights":{"0":0.19467367480614356,"1":0.06507292034681852,"2":0.08036380341422958,"3":0.020908955497670367,"4":0.07168986143219372,"5":-0.1864141783271548,"6":-0.05465285127470039}},"24":{"bias":0.07635494909236094,"weights":{"0":0.10589618305062597,"1":-0.12265831583330898,"2":-0.1313896777423517,"3":-0.017989481859019527,"4":0.05232243570034544,"5":-0.06116574206310215,"6":-0.09394528920371585}},"25":{"bias":-0.1559193818997552,"weights":{"0":-0.11810394815676432,"1":-0.02956851372859273,"2":0.11982152977733201,"3":0.14155576862715855,"4":-0.12069413005930867,"5":-0.1092346362623653,"6":-0.06927852453560909}},"26":{"bias":0.12519683188159345,"weights":{"0":0.19486773818316694,"1":-0.026080521080495474,"2":0.1521125105196956,"3":0.0598206881152724,"4":0.0876714012779821,"5":-0.033578462163575754,"6":-0.13897710463056206}},"27":{"bias":0.06701158171472558,"weights":{"0":-0.19762543553624062,"1":0.04807306230888075,"2":0.011041400952319428,"3":-0.17016069690532962,"4":-0.036799095160135444,"5":0.10044224323698148,"6":0.07936662721637049}},"28":{"bias":-0.023203674259980926,"weights":{"0":0.11098043177185993,"1":-0.057401505012744644,"2":0.018661768793747247,"3":-0.16348027110101637,"4":0.17491068936560467,"5":0.03529747616781656,"6":-0.031646722204538055}},"29":{"bias":0.05283890916344659,"weights":{"0":-0.16604877698765547,"1":0.18279964371995838,"2":-0.16736772175061204,"3":-0.0890469105802016,"4":0.14402059345495574,"5":0.14444522266144944,"6":-0.17867485133407915}},"30":{"bias":0.04142433712200779,"weights":{"0":0.11966303776800792,"1":0.06567273189066157,"2":0.012414955056677798,"3":0.07422244265147881,"4":-0.02519906494454556,"5":0.13157832020489119,"6":-0.0925767519634798}},"31":{"bias":0.1609008425208066,"weights":{"0":-0.07802699184825487,"1":0.14484429429926396,"2":-0.03351174014407461,"3":0.18262206656713476,"4":0.07757794822272718,"5":-0.06921585012423964,"6":0.19968722708947642}},"32":{"bias":0.12413211567361185,"weights":{"0":-0.040174259438153524,"1":0.05151742639391359,"2":0.11902554923351406,"3":-0.1030545073257785,"4":-0.13081942963848509,"5":-0.08004611086761367,"6":-0.1504764083410304}},"33":{"bias":0.0980373526250767,"weights":{"0":0.11287932970896931,"1":-0.08666946182285583,"2":0.14769341614110418,"3":-0.1360529115978981,"4":0.04882003174643285,"5":-0.1399126344264015,"6":0.1951697282843927}},"34":{"bias":-0.10670214788550349,"weights":{"0":-0.04151959209899646,"1":-0.16764594832687388,"2":0.011392410345247465,"3":0.05399947109719789,"4":-0.10836919109268701,"5":0.05042511678513001,"6":-0.07499912764658477}},"35":{"bias":0.1576359880374702,"weights":{"0":-0.08597165765580977,"1":0.035355667474531796,"2":-0.17084079945274772,"3":0.13071685364867472,"4":-0.11944757184305299,"5":-0.019712853403446688,"6":0.17534349071469574}},"36":{"bias":-0.12209627512840594,"weights":{"0":-0.02427946499271503,"1":-0.18106630355414322,"2":-0.11239297192583213,"3":0.00215628628544026,"4":0.03081023534396244,"5":0.047832081520431086,"6":-0.14406069173271074}},"37":{"bias":0.052053714499971905,"weights":{"0":0.02786226762665404,"1":0.04829364862857027,"2":-0.010733341361538863,"3":0.040785579390764756,"4":-0.19901971288521236,"5":0.11297690558477554,"6":0.05741096960972217}},"38":{"bias":-0.15838259322718498,"weights":{"0":0.19077581648116318,"1":0.18295848650653304,"2":0.16056526883093067,"3":-0.07513945350341965,"4":0.019842010929053834,"5":-0.03952135148920029,"6":0.17853477856183106}},"39":{"bias":0.0448268788363382,"weights":{"0":0.010686798961219204,"1":-0.13594059726549915,"2":0.09215454764192337,"3":-0.1685999030435707,"4":-0.0931276357334852,"5":-0.12422409588011764,"6":-0.06925504816448802}}},{"0":{"bias":-0.00456385867909342,"weights":{"0":0.018362952820113587,"1":0.18020810156569964,"2":-0.17690629492092802,"3":0.007554952230137967,"4":0.12210980927882077,"5":-0.11698947371926699,"6":-0.09908022232195941,"7":0.003222116513180707,"8":0.054916319485663855,"9":0.051239971870025984,"10":0.0690482220524572,"11":-0.16378118850978757,"12":0.17577087592208993,"13":0.1240831567844278,"14":-0.009558405695059552,"15":0.18197602053711365,"16":-0.14778612101875166,"17":-0.08830831318139074,"18":0.1933431228818148,"19":-0.14790310460845457,"20":-0.00042479613257394327,"21":0.07255534908755165,"22":-0.012263074187466767,"23":-0.07746494616960563,"24":0.1960494338266411,"25":0.025257832986819818,"26":0.0713848915321489,"27":-0.06010162535001659,"28":-0.1723416537311426,"29":0.18388454460928935,"30":0.1482760681902135,"31":0.11502699737934247,"32":0.09113124003604604,"33":0.04666590234522708,"34":-0.08054877776471098,"35":0.16028961332356753,"36":0.05162878375745132,"37":0.03633144513265037,"38":0.1774217079554529,"39":-0.11568725690255167}},"1":{"bias":0.07529232031683578,"weights":{"0":0.0341186252296839,"1":0.02786594787344961,"2":0.11340911272756787,"3":-0.15744263581350756,"4":-0.04336024051654319,"5":-0.17893454379283286,"6":-0.010537072006754761,"7":0.029464678096100642,"8":-0.08190902585369299,"9":-0.11843580058733355,"10":0.14799490508015284,"11":-0.019856825834733152,"12":0.0960313548819772,"13":-0.0866671640985103,"14":0.02133932718703428,"15":0.18760821604729408,"16":0.021658188533840113,"17":-0.04889612269411636,"18":0.16461314493761103,"19":0.10400284879774407,"20":-0.004585276902493308,"21":0.032455582736627415,"22":-0.11070776560264463,"23":-0.140022316089026,"24":0.0031387606825845848,"25":-0.010332597166592152,"26":0.041657697950904286,"27":0.12130248532283407,"28":0.14737705721871203,"29":0.09500842061134379,"30":0.18929565953841004,"31":-0.002540260890560086,"32":0.13287521095110386,"33":0.02288044154430226,"34":-0.13138019809196463,"35":0.16244067646598265,"36":-0.1735370338323519,"37":0.09958837616658694,"38":-0.14808072944969972,"39":-0.09449342121828139}},"2":{"bias":-0.19914073526854623,"weights":{"0":-0.05009383331008117,"1":-0.1066909408078211,"2":0.08910850147006535,"3":-0.11952185928570698,"4":0.028510493954669074,"5":0.10971824035881445,"6":-0.09462892406685702,"7":-0.13302161438151205,"8":-0.03861470796437689,"9":0.19065575284252662,"10":-0.15280336752230747,"11":-0.10515007450243312,"12":0.10159899661269518,"13":-0.07581500440587069,"14":-0.0472774626225927,"15":0.09517672163954906,"16":0.003474038420460541,"17":-0.040958693023339085,"18":0.1541735779776257,"19":-0.11457484184426116,"20":0.1336017275244904,"21":-0.14731987864702006,"22":0.19010130803270364,"23":-0.043785934113369014,"24":-0.1386949123663708,"25":0.030008962272158334,"26":-0.16126129527285182,"27":-0.06936567491734105,"28":-0.1319852302210369,"29":0.008266431096558599,"30":-0.05171877083634672,"31":-0.11719206297336475,"32":0.09053904067163634,"33":-0.1457660103460557,"34":-0.20010840102666105,"35":-0.11543867776226041,"36":0.011005489318558846,"37":-0.10010630337700314,"38":0.03991176108232206,"39":0.02545720334316462}},"3":{"bias":0.04624775010301694,"weights":{"0":-0.15976326482879494,"1":0.10875558058865994,"2":0.08964679014494191,"3":0.04252493539287712,"4":-0.0025328442673825725,"5":-0.036381058848545055,"6":-0.18217830678059588,"7":-0.07762382912732872,"8":-0.13543498923947594,"9":-0.060226185416169364,"10":-0.16996078860874161,"11":0.00754781489604036,"12":-0.05073486912848961,"13":0.17232407086321255,"14":0.1935600449011003,"15":-0.1973834172076049,"16":-0.09417244028256379,"17":0.052800514943636294,"18":0.18983836986685113,"19":0.04298014705925868,"20":-0.029179729623616618,"21":0.14206112482680416,"22":0.05435071011632965,"23":-0.12251207294620939,"24":0.14889870803296068,"25":-0.02588044871231675,"26":0.06296506398653867,"27":-0.039767036018014394,"28":0.11311781334694959,"29":0.1745098402467136,"30":-0.056268439538047874,"31":0.17793675442303844,"32":0.1664189898220667,"33":-0.08507442510362705,"34":0.06302570836521681,"35":0.14855945497172565,"36":0.096526946474882,"37":0.08302692982963926,"38":-0.10504063128333083,"39":0.1180050451091582}},"4":{"bias":0.16960259512681955,"weights":{"0":-0.17221208507010613,"1":-0.025485831361638234,"2":0.016365099624230793,"3":0.04597671483934138,"4":-0.09638049768567258,"5":0.037311495653061105,"6":0.011871776806182718,"7":0.14519665858737235,"8":0.16805370567942157,"9":0.16979070739981347,"10":0.19592189181378641,"11":0.15717625963405185,"12":-0.13384787108529705,"13":0.1952809798271518,"14":0.10121829307277852,"15":-0.17341651659834506,"16":0.11269838879875439,"17":0.04364262365008792,"18":0.04363885570425039,"19":-0.0034637983239004786,"20":-0.10203179599943298,"21":0.13854027467351573,"22":0.06830564983894813,"23":-0.09690213033212705,"24":0.20120706110006548,"25":0.10975003129101567,"26":0.027380330663792495,"27":0.17539899425108796,"28":-0.053400024267657255,"29":0.143322972687763,"30":0.13340440539177906,"31":0.03057882044659294,"32":0.11196907361607591,"33":-0.13660582566482382,"34":0.11649328290948244,"35":0.07635795912118531,"36":0.1518521263216077,"37":-0.13622728015493069,"38":0.11146186054228086,"39":0.14506351101604223}},"5":{"bias":-0.16433738284048308,"weights":{"0":0.15957335552847837,"1":0.10501824370628854,"2":0.05755172455478375,"3":-0.11607645849394753,"4":-0.02257447709277325,"5":-0.07887435107673871,"6":0.017956010255792226,"7":0.061586745973824485,"8":-0.1587529196796365,"9":0.042827187720640224,"10":-0.007554368910744737,"11":-0.1930503512836834,"12":0.027547118683097633,"13":-0.049558413831932574,"14":-0.17145480451132705,"15":0.1986710637825967,"16":0.05527183647739398,"17":0.1335925441298401,"18":0.024315215204531997,"19":-0.046080562944789814,"20":-0.005360754774887578,"21":-0.028724423301104907,"22":-0.07083150649678796,"23":-0.010828643444004051,"24":-0.07866420407632556,"25":-0.10412243099677236,"26":0.09980957014633252,"27":0.11474711493936122,"28":0.042123536845215144,"29":-0.1984722976773223,"30":0.17419886054134875,"31":-0.12407184778574047,"32":0.10030094659426417,"33":0.0074689651623730015,"34":-0.1749516943651296,"35":0.018609559284406448,"36":0.03286006638042854,"37":0.14690286682370107,"38":-0.14071825780181885,"39":0.07493304612503239}},"6":{"bias":-0.09805689545243836,"weights":{"0":0.07564890314800903,"1":0.013501056588928495,"2":0.09465201984822438,"3":-0.1047848652083357,"4":-0.07340508485591178,"5":0.13091543117671367,"6":-0.11665980564315852,"7":-0.13139529971287375,"8":-0.14914458161821703,"9":0.1880555348488877,"10":0.08648778217240824,"11":-0.08261961474988012,"12":-0.03014724631541889,"13":0.0633418485552066,"14":0.015275086824183647,"15":0.02410743811176443,"16":0.1960317414307997,"17":-0.07792976771402511,"18":0.1569624793550981,"19":-0.09054851620175709,"20":-0.07779167164368618,"21":-0.027937600446870325,"22":-0.16542269996606335,"23":0.18100997649848038,"24":-0.13943751702276427,"25":0.12934524933917166,"26":0.07686646168027848,"27":0.18625937224433806,"28":-0.03539215542527834,"29":-0.18671727036355418,"30":-0.10905232544381219,"31":-0.12925972011962877,"32":-0.18183451079817609,"33":-0.12981801597256132,"34":-0.17442888029920217,"35":-0.1754342179235531,"36":0.09819474476920803,"37":-0.07512031229958235,"38":-0.09176537687395192,"39":-0.040744169039949915}},"7":{"bias":-0.031043495653790058,"weights":{"0":0.04652043308246472,"1":-0.1083330827947135,"2":-0.18735792863951392,"3":0.1406719354438744,"4":-0.045450591582109144,"5":-0.09348060762372568,"6":0.06999977072515962,"7":0.011033510380927071,"8":-0.13703184674498947,"9":-0.13518322299958896,"10":0.13817264884337388,"11":0.0006682033659158729,"12":0.19703914244414122,"13":-0.1292348697967282,"14":-0.08803958630374092,"15":0.03289394051498419,"16":0.00620749695126149,"17":-0.0701879407187257,"18":-0.048640247041091836,"19":-0.026413242529115206,"20":-0.1366047094934187,"21":-0.10687108378723398,"22":0.054624676342010535,"23":-0.12708694624234693,"24":0.12591808182189992,"25":-0.11566546099265643,"26":-0.03825110171533734,"27":0.11880128463656972,"28":-0.09680541927785943,"29":-0.025443140884977986,"30":0.13226426016095383,"31":-0.11590414106010379,"32":-0.06971003405997499,"33":-0.19197295649979257,"34":0.14185048873598521,"35":-0.10219177759836905,"36":-0.06397956874759282,"37":0.118787333954192,"38":-0.14160363694732217,"39":-0.0514169877404278}},"8":{"bias":0.16422078766880588,"weights":{"0":-0.16687717768422253,"1":0.07116560815676333,"2":-0.08890071594527449,"3":0.08044497957644797,"4":-0.0522932383926027,"5":0.03997906371731319,"6":0.08930845510400387,"7":0.0018333986682362352,"8":0.07587596736068196,"9":0.08349997146950346,"10":-0.1009952510543801,"11":0.014947165228630406,"12":0.08812452615811117,"13":0.13295259146439437,"14":-0.09111496456133425,"15":-0.16848055922673547,"16":0.11611533869871862,"17":0.14464052351437842,"18":-0.0676248476183068,"19":0.0073402021243353975,"20":-0.15854886135797772,"21":0.06343650098355111,"22":0.09484348353294285,"23":-0.027969669239857064,"24":-0.06824387667605838,"25":0.008197826381788505,"26":-0.11011967893254487,"27":-0.02615673759967588,"28":0.11610986155905602,"29":-0.07618000301256574,"30":-0.17745822122769708,"31":-0.00714976537186392,"32":0.11687616765850084,"33":0.15229010550340222,"34":-0.041075102355969596,"35":0.15821370287489483,"36":0.08140763357379283,"37":-0.1654442530407234,"38":-0.16559654118391887,"39":-0.05930042439607638}},"9":{"bias":0.1918999952017756,"weights":{"0":-0.07323543510576018,"1":-0.14837898484091744,"2":0.04358139427098541,"3":0.07757264265175748,"4":0.13138011489172072,"5":-0.12813395861243146,"6":0.16423322244057814,"7":-0.12863570063244786,"8":-0.18065781463647707,"9":-0.1872876661417561,"10":0.05409295239946111,"11":-0.11209149370014898,"12":-0.013478561785912467,"13":0.05572028697036843,"14":-0.05256850732311042,"15":0.1644068856476462,"16":0.16911724033876155,"17":0.16206131647579375,"18":0.07275945209404984,"19":0.177274145970847,"20":-0.18981000173516924,"21":0.05467852492734809,"22":0.147925422701527,"23":-0.13181289390618678,"24":0.18194422953122427,"25":0.040543937906867014,"26":-0.10762979851105682,"27":0.041712125810047684,"28":0.13786936626943755,"29":0.07356995105372355,"30":-0.06524656029896068,"31":0.14179965603811448,"32":0.19479807324267073,"33":-0.04320569392118193,"34":-0.10467833275068007,"35":0.04477244351541072,"36":-0.12441064038142075,"37":0.09907474124049472,"38":0.0732785135988045,"39":0.038668841641882924}},"10":{"bias":0.059832975898739926,"weights":{"0":-0.07016729529066248,"1":0.04588117582155174,"2":0.14801081353638387,"3":0.10898133175519771,"4":-0.01510956676268565,"5":0.19288999083156702,"6":-0.008227644249244978,"7":-0.0898980107157735,"8":-0.039133579163913274,"9":0.18025614175156418,"10":-0.0060205723858462335,"11":-0.06396669775622338,"12":0.0832214531503708,"13":0.04134437152138355,"14":-0.18241659615189845,"15":-0.1651279863676265,"16":-0.01232503639510936,"17":0.146031884872325,"18":-0.10822320814742656,"19":-0.1683999965655098,"20":0.0976506449071621,"21":0.07668167145050556,"22":-0.06845086656546405,"23":0.11276205724120515,"24":-0.11749403716699133,"25":0.1859089531669924,"26":0.038814153602022075,"27":-0.10391968300611014,"28":-0.025706296166503623,"29":0.11827120151745152,"30":-0.10113435346700876,"31":-0.15094214230841682,"32":-0.0979497868366708,"33":-0.18155965533212398,"34":0.13615793387779476,"35":-0.02360752733041307,"36":0.17925319322729466,"37":0.19110324424340325,"38":-0.11105978214352656,"39":0.14061966693289046}},"11":{"bias":-0.04083658148656452,"weights":{"0":0.045311977534299275,"1":0.15086733879535077,"2":-0.011684782170008356,"3":0.08416684549308909,"4":-0.18299611637522506,"5":-0.13404903783750113,"6":0.025681389330289697,"7":-0.055659485174154935,"8":0.06928464821118567,"9":-0.010981412536904727,"10":-0.1732509375658415,"11":-0.18730011045785866,"12":-0.14566617858200803,"13":0.19339675390935435,"14":-0.07135346429634554,"15":0.11782305894073271,"16":-0.1257467107367353,"17":0.13394408661152604,"18":-0.16833494857372053,"19":-0.14256121192305254,"20":0.04603293112554942,"21":-0.06089140168389871,"22":-0.017387119390181723,"23":0.07959682924240262,"24":-0.17597765648650143,"25":0.17941730608475068,"26":0.006043210173991544,"27":-0.12606808195689165,"28":0.052310112775188385,"29":-0.05486339178562592,"30":0.03614142184256601,"31":-0.044061343145459064,"32":-0.0774204418180989,"33":-0.11063455689734243,"34":0.021843161731730395,"35":-0.14542787965065843,"36":-0.0870957738631818,"37":0.10984719582857244,"38":-0.038653530114562365,"39":0.10734423958283683}},"12":{"bias":-0.15006795979235787,"weights":{"0":-0.15199188569509156,"1":-0.09241611452891878,"2":-0.1643637380330131,"3":0.041977290654664184,"4":0.19817638864104847,"5":0.1966653613831529,"6":-0.05177471038144983,"7":0.0407456794871722,"8":-0.010927701457940694,"9":-0.17787362107049148,"10":-0.08097378890906999,"11":0.10876069200631691,"12":-0.14537176072730892,"13":0.14533734430837741,"14":0.18706876061220853,"15":0.15329158367802773,"16":0.04029712719555648,"17":0.13728521500247534,"18":0.11690970752019722,"19":0.09109185826326256,"20":0.11835128635871225,"21":0.054943067425204724,"22":-0.1543592019735652,"23":-0.1902182423689416,"24":0.0134902858225864,"25":-0.07505352456684829,"26":0.16883849601376213,"27":0.16272154622970347,"28":-0.18247093993648694,"29":0.02323799466056261,"30":0.06768523905261145,"31":0.1062226905443032,"32":0.048872210126647456,"33":0.12614404887005992,"34":-0.007650254001137065,"35":0.16521224761196543,"36":0.19355181168185523,"37":0.035893542097821245,"38":0.06173475301352698,"39":-0.1479061562156273}},"13":{"bias":-0.03386880470495134,"weights":{"0":-0.12610911235821995,"1":0.1756031528892324,"2":-0.11669284787722098,"3":0.09481964508007724,"4":-0.1235406834266055,"5":-0.07626395697215614,"6":0.08024457012051583,"7":-0.09312955290941517,"8":0.035796784847988594,"9":0.17413735965621055,"10":-0.0643710699279886,"11":0.19397255416095352,"12":0.02594507031018922,"13":-0.1556791164726157,"14":0.1235640733208057,"15":0.02830109061628085,"16":-0.1778934490528132,"17":0.046146939740788186,"18":-0.1946235464590864,"19":-0.1725921314030573,"20":0.13001912645662453,"21":-0.025339294037085375,"22":0.17447239395027386,"23":0.14604109607172422,"24":-0.11360943459698546,"25":0.19558763729520318,"26":-0.0604001025082734,"27":-0.18106195311381118,"28":0.015379364824118353,"29":0.003346499817213899,"30":-0.02823169491743626,"31":0.1780277445139312,"32":-0.18431063309974782,"33":0.049946626675716185,"34":0.06727627243487506,"35":0.06879376246542834,"36":0.17708706833572546,"37":-0.009409070292178466,"38":0.11835951734362615,"39":-0.19050602887908322}},"14":{"bias":0.05256845950871668,"weights":{"0":-0.1443745183557617,"1":-0.19012367611988057,"2":0.000874594416273023,"3":0.05904148775844689,"4":-0.19190634837225243,"5":-0.033930570094467705,"6":0.12481774059490687,"7":-0.07859657395556717,"8":-0.17445307300643215,"9":0.06571207735714131,"10":0.0888659666376369,"11":-0.18953544720202345,"12":0.029597238827869916,"13":-0.01259977920458152,"14":-0.009030329076292037,"15":0.05286203290640022,"16":-0.17033169061811046,"17":-0.02968965151485989,"18":-0.11482588238777108,"19":0.07575101676653845,"20":-0.18709225652725026,"21":-0.022860299605641534,"22":0.18877619725320852,"23":0.02917505266914736,"24":-0.1699485515523049,"25":0.08715468599995649,"26":0.1539774882964848,"27":0.04330942936643406,"28":0.14104394174193186,"29":-0.029777910158196075,"30":0.12211970367916249,"31":0.12462729258485565,"32":0.07961062367875647,"33":0.022066009779698952,"34":0.19269088540288903,"35":-0.040018482986640604,"36":-0.15427524659154782,"37":0.03922647303278492,"38":-0.1859939997124029,"39":-0.1335967928911892}},"15":{"bias":0.07427011554421598,"weights":{"0":0.10277446033698882,"1":0.11559378800396515,"2":-0.052839329643987916,"3":0.065110907662698,"4":-0.1975732049250071,"5":0.12023831334691083,"6":-0.05401078915906889,"7":-0.09147201167618547,"8":-0.06711143999504887,"9":0.19933293119269224,"10":0.12155525351135822,"11":0.15662369826062908,"12":0.13655045968185595,"13":0.005570887925789468,"14":0.13655320963953554,"15":-0.11160225854677458,"16":0.08574420163240896,"17":0.07706717832395152,"18":-0.06291150654596916,"19":-0.016500405088200273,"20":-0.08679606605315766,"21":0.09139005345507491,"22":0.12385644319828841,"23":0.04237754017766911,"24":0.10714048226302143,"25":0.08491211479765756,"26":0.04889025526646499,"27":-0.10171065536544333,"28":-0.1358982719328218,"29":0.0009156959145677738,"30":-0.16241597072929273,"31":0.1221584302060801,"32":0.1857126025834219,"33":0.08757096156692272,"34":-0.1945950393184341,"35":-0.07976024394978579,"36":0.021843093052401952,"37":0.16683869944131963,"38":0.0842214769472409,"39":-0.13728723597768105}},"16":{"bias":0.19432429547071822,"weights":{"0":-0.10971639945184342,"1":-0.08162352179147689,"2":0.054217665495808,"3":0.11720977778786086,"4":-0.1438877618779749,"5":-0.18503557893667824,"6":-0.01400810908371051,"7":0.013228686678547267,"8":0.07094430391558773,"9":0.029613405699062033,"10":-0.0494538171540884,"11":-0.016668545137122494,"12":-0.15022856017907651,"13":0.02830271430296376,"14":0.030994539217435543,"15":-0.0770163996530771,"16":-0.10075508461449163,"17":-0.17143027145411976,"18":0.003178064324685087,"19":-0.04478140668831187,"20":-0.0991452618503565,"21":-0.1619142880087038,"22":0.13120942291071808,"23":-0.011157848106508866,"24":-0.15959375530470252,"25":-0.08715703566641893,"26":0.06255379027856396,"27":0.17568718578865872,"28":0.18378441580856905,"29":-0.07547787029775117,"30":-0.037475513291431485,"31":0.14133119345859685,"32":0.18794003149827124,"33":-0.056271490763833816,"34":0.08172692218456863,"35":-0.050486728840730855,"36":0.15531413335049266,"37":-0.04213310588987894,"38":0.10461398187541215,"39":0.011015066555170141}},"17":{"bias":0.04760275010757016,"weights":{"0":-0.1967601409713861,"1":-0.06234863745650966,"2":-0.16429991925685564,"3":0.006928211360544701,"4":0.13703690298280408,"5":0.11765847193568114,"6":0.1226167212402489,"7":0.03576274233786036,"8":0.1786414783084712,"9":0.07939967474425955,"10":0.09682744102876109,"11":0.03891236511335395,"12":-0.05415788557644731,"13":-0.11709555456917034,"14":-0.006799934531303895,"15":-0.05761735715656565,"16":0.08176789044954166,"17":-0.10035617041154794,"18":0.0710038348509806,"19":-0.07832325685991516,"20":0.13101660150633482,"21":-0.18002364376680965,"22":-0.1701289070726918,"23":-0.06049886979506621,"24":-0.01809657764135661,"25":0.1005266653096491,"26":-0.15612161092429166,"27":0.19129733066125632,"28":0.12639993464323743,"29":-0.18944351993499445,"30":-0.1392665510161498,"31":-0.1516144577413602,"32":-0.13511279421948852,"33":0.10658171483103519,"34":-0.04575620516454536,"35":-0.04808322861874906,"36":0.019502535105231294,"37":-0.11725437745274528,"38":-0.13208102371164782,"39":0.09958172366364167}},"18":{"bias":-0.10818857214768501,"weights":{"0":-0.015981141441964077,"1":0.10312220405215841,"2":-0.18900870567711375,"3":-0.14321449162126526,"4":0.06133747256098856,"5":0.121285238685326,"6":-0.059291464047143555,"7":0.015491005776157024,"8":0.07421134606237396,"9":0.033315796549091954,"10":-0.07332736428381081,"11":0.050015232070875916,"12":0.07274639609059574,"13":0.028648127213065918,"14":0.11294868890732386,"15":0.07553043381646721,"16":0.02863414490814726,"17":0.10512156609305828,"18":-0.08708142255718986,"19":0.0593373550671416,"20":0.09465727138687229,"21":0.004045178785210888,"22":-0.07100163176884536,"23":-0.1807214508982032,"24":0.10280558776721116,"25":-0.07192457005228915,"26":-0.11050566379167305,"27":0.0499262592500636,"28":0.04414816121462695,"29":-0.1987885022007037,"30":-0.020369537593301547,"31":-0.012333576512101978,"32":-0.16669099294715806,"33":0.0505599912575022,"34":0.14875037323253282,"35":0.12732621440619643,"36":-0.14286040905952738,"37":0.10673582049781175,"38":-0.16126831770787733,"39":0.1192629385196001}},"19":{"bias":0.09626684713348624,"weights":{"0":0.1337332250546027,"1":0.11440007873250566,"2":-0.03512390349106252,"3":-0.11908518495771825,"4":-0.0005543391540643158,"5":-0.1923926959664037,"6":-0.05588879254244821,"7":-0.00023770494345442378,"8":-0.17038565200437764,"9":0.017866986076875594,"10":-0.07302504400318596,"11":-0.08385471825507464,"12":0.15857338442121388,"13":-0.06321662876877528,"14":0.09487566249391376,"15":0.12025003886762929,"16":0.055114681393013946,"17":0.04010821620529752,"18":-0.14553962213617758,"19":-0.11108323396184695,"20":-0.18823956964160904,"21":-0.02354808527980724,"22":-0.0549866825220328,"23":-0.09774622426011068,"24":-0.03150957758837181,"25":-0.14307435112750908,"26":-0.06829755767349581,"27":-0.06548050159961508,"28":-0.006438746630395322,"29":-0.06404704134061158,"30":0.05295679538001204,"31":-0.01392920156938942,"32":0.005884817550467416,"33":0.033283485140446115,"34":-0.142584693469357,"35":-0.16058175773735658,"36":0.014733615157900181,"37":-0.08493049605686998,"38":-0.07887054938110659,"39":0.18641492898066214}},"20":{"bias":0.06365913133770494,"weights":{"0":-0.06433316007694476,"1":-0.08877135786196053,"2":0.14148459735577917,"3":-0.12004269566153561,"4":0.05048981860318393,"5":0.10809928723894158,"6":0.09450001137388772,"7":0.00155513482071363,"8":-0.06730341375304597,"9":0.04790004106452486,"10":0.1275558928274963,"11":-0.18271835629033092,"12":-0.07812194408045296,"13":0.1891714734685766,"14":-0.07620640039358954,"15":-0.14744909480005616,"16":0.17013723540384265,"17":0.025571943787097613,"18":0.1715308850020335,"19":-0.19076561524263533,"20":-0.03016930821374798,"21":0.037012355360202066,"22":0.14510447460595502,"23":0.033798118898771386,"24":-0.0791426757769459,"25":0.04238861347118478,"26":-0.1032692274743649,"27":-0.02484404767210356,"28":0.0680153580943541,"29":0.13112671567155365,"30":0.034950919703200016,"31":-0.008821553549537784,"32":-0.16112786358355793,"33":-0.08336894652273534,"34":-0.11156985984805819,"35":-0.03713785587313971,"36":-0.09902586045931705,"37":0.00839964566568718,"38":-0.09181262126045091,"39":-0.1874612963271039}},"21":{"bias":0.05175227504211721,"weights":{"0":-0.10093485325050457,"1":0.11199877756784658,"2":-0.09812600528672058,"3":-0.0892301513657068,"4":0.0729424118801,"5":-0.03377552827741493,"6":-0.020145120011127175,"7":0.12054602682510293,"8":0.15057655136720263,"9":0.11617631352347088,"10":-0.14929439262931232,"11":-0.08340718812373517,"12":-0.0815951920872068,"13":-0.15829547065003713,"14":-0.04087487464652001,"15":0.06711661481873332,"16":0.007364539601139696,"17":-0.12414036281176374,"18":0.12252014200306165,"19":0.1734009494405705,"20":0.11009309284676615,"21":0.177405734223913,"22":0.01428636231353778,"23":0.0743824649262136,"24":-0.18690192447846316,"25":0.017579172555392687,"26":-0.1637394811211089,"27":0.04661050110951981,"28":0.07139059212125973,"29":-0.1292325512967728,"30":-0.19647229426151788,"31":0.10542732143636407,"32":-0.046880434758368124,"33":-0.1630908450381443,"34":-0.05584970375562708,"35":-0.10171794783017651,"36":-0.15483760746466527,"37":0.057216047301966944,"38":0.11704865542744902,"39":-0.1150480921226804}},"22":{"bias":0.19335032986319595,"weights":{"0":0.08166829754540668,"1":-0.1361738565540536,"2":-0.19384976282041871,"3":0.07009684967239173,"4":0.10288649584101822,"5":-0.16376044350778274,"6":-0.12451468034912232,"7":0.15430280516949318,"8":0.18083383483792087,"9":0.00830175812663039,"10":0.10531441256055725,"11":-0.1740089292173941,"12":0.12477970845854178,"13":-0.06383220423558998,"14":-0.08945467002619358,"15":0.02903394914085789,"16":-0.08111840802690475,"17":0.17159079592522422,"18":0.16576198960547334,"19":-0.0696698565542074,"20":0.18338679928162152,"21":0.08152243468164361,"22":0.14418080090366453,"23":0.104065002750687,"24":0.18208660338407492,"25":-0.0633241197000795,"26":0.0392209170427556,"27":-0.014697740819011238,"28":-0.08710866820701313,"29":0.03256429091979496,"30":-0.10002184007714598,"31":0.17040387594143452,"32":0.15161718265851928,"33":-0.12148276634766413,"34":0.04455988787018968,"35":-0.0983170288631217,"36":0.16449765120920365,"37":0.10785952445316863,"38":-0.16200959393224135,"39":-0.18816265629902623}},"23":{"bias":-0.009470737902793949,"weights":{"0":-0.16835865617416756,"1":-0.054294499631365054,"2":0.04979626363874261,"3":0.05253166489603117,"4":0.14008654062029682,"5":-0.01213247819968575,"6":0.03281213375560755,"7":0.18907404711137754,"8":0.1318843410024557,"9":-0.15825390303999665,"10":0.1873158826749819,"11":0.1350310262286802,"12":0.06936073072204925,"13":0.022929653998556166,"14":-0.1400166426324044,"15":0.08707944651764798,"16":-0.15376374850952618,"17":0.01928063935232656,"18":0.004959807781646391,"19":0.004934726265197948,"20":-0.14704225516947017,"21":-0.11150485018241081,"22":-0.1693505077989327,"23":0.14054113714823827,"24":0.17918975946668003,"25":-0.10630851961937857,"26":-0.10612059510981364,"27":0.17460537219930297,"28":0.1220195422277947,"29":0.12717754241672957,"30":0.15016267744561387,"31":-0.07909418664077097,"32":-0.15015339164538094,"33":-0.1227410573587097,"34":0.14141376015919616,"35":0.09372581483992401,"36":0.040940845935535715,"37":-0.06154843267738444,"38":-0.01675425398478533,"39":-0.031995160564627576}},"24":{"bias":0.16325436816130853,"weights":{"0":-0.05398609541001052,"1":0.16732320098200407,"2":-0.17282704142981603,"3":0.11777963176207774,"4":-0.11432099335444375,"5":0.1097874767126836,"6":-0.11806657609060839,"7":-0.1764055655689883,"8":-0.1556474232802816,"9":0.051602558459657166,"10":-0.18009565654248952,"11":0.08170179316033634,"12":0.0440622857767165,"13":0.09133070984514778,"14":0.10981025076738793,"15":0.12481987098910627,"16":-0.1207656235347484,"17":-0.14709650015143272,"18":0.1526841706490626,"19":-0.046634184826679505,"20":-0.029405421311518024,"21":-0.018821650001141596,"22":-0.06312930651825219,"23":-0.044513485751770436,"24":0.09002417798063451,"25":0.13415760747851893,"26":-0.007284886059387088,"27":0.07520940032324462,"28":0.14116638615308083,"29":0.08027902952635944,"30":-0.1873365302318057,"31":0.06661108336125347,"32":0.14586428121485553,"33":-0.11836823529747613,"34":0.03410561323547037,"35":0.009682563316198886,"36":0.1763789245560062,"37":-0.06831253351560085,"38":-0.00844411589966853,"39":-0.06513809821263182}},"25":{"bias":0.17590595110608467,"weights":{"0":-0.1764589584242222,"1":0.10548131830745594,"2":-0.09044736870459644,"3":-0.19853633168115303,"4":0.18466598822834837,"5":0.15310970776305036,"6":-0.17083803661964944,"7":-0.02638389738499889,"8":-0.05186034371873583,"9":0.01799794339952275,"10":-0.00564901481741095,"11":-0.1006618489362274,"12":0.04507036629967511,"13":-0.028100762111797437,"14":0.1848890865661944,"15":0.02050310919664387,"16":-0.08276066949724845,"17":0.06368553140839334,"18":0.14199861741575848,"19":0.12318594339330964,"20":0.1782955740802641,"21":-0.10074511958729279,"22":0.12531222314643312,"23":-0.18382568219984627,"24":-0.16900138644273327,"25":0.045247459482151794,"26":-0.15222301959194376,"27":0.126871890478364,"28":-0.08413100328017671,"29":0.05978476380406694,"30":0.07422536913321912,"31":0.021120790204923457,"32":-0.11454771027532497,"33":-0.08682321491508914,"34":-0.1786343631360503,"35":-0.1443886919097769,"36":-0.1267826448230379,"37":0.11088947861126973,"38":-0.08926183583725715,"39":-0.1689038215700391}},"26":{"bias":-0.1921051767262363,"weights":{"0":-0.031154243498665794,"1":0.12127112806842023,"2":0.025171418029608653,"3":0.0051204515941040895,"4":0.14113704117022347,"5":-0.09971598432278835,"6":-0.16937813397455012,"7":-0.07012828711032015,"8":0.1267763943334723,"9":0.08195201192069583,"10":0.12267150080780448,"11":-0.16187493415337692,"12":0.03642973567071031,"13":-0.14511746081190394,"14":-0.11688585180907911,"15":-0.010701994691734443,"16":-0.12701621130357588,"17":-0.09685303049604493,"18":-0.15697169484445161,"19":-0.1029694397528013,"20":-0.17082108460495107,"21":0.08956344042986816,"22":0.0863673386295165,"23":0.04034141567540012,"24":0.001168902083438118,"25":-0.0679399069883354,"26":-0.02989601918638127,"27":-0.10266154550196312,"28":0.04596555325413019,"29":0.024766511093762433,"30":-0.10275300259057538,"31":0.1642000439638531,"32":0.15978290204950046,"33":-0.028555289419303784,"34":0.013557209946947743,"35":-0.1860353646652041,"36":0.18386129162632406,"37":0.11628964881225189,"38":0.18350198436985332,"39":-0.17689830281704452}},"27":{"bias":-0.12459311389668896,"weights":{"0":0.03733460487702553,"1":-0.057713972387929476,"2":-0.11273688974309017,"3":0.06599806035248082,"4":0.18635978277457996,"5":0.02958791776344344,"6":-0.19421021396670068,"7":0.11914176682693522,"8":-0.13021610391461422,"9":0.10604581273221014,"10":-0.0980279982251371,"11":0.062213887588649604,"12":-0.19540111677611202,"13":0.1923135884655475,"14":-0.12892012498768962,"15":-0.1744457918217863,"16":0.03647487324780583,"17":-0.1077779057878939,"18":0.1696252177506303,"19":-0.1395147385180011,"20":0.08575513916624854,"21":0.1578358953809005,"22":-0.042205239150122136,"23":-0.02426046124609771,"24":-0.1455165473404821,"25":0.15688997244533745,"26":-0.14115240475957722,"27":-0.040216597413636965,"28":0.19736603153194798,"29":0.1666201537055186,"30":0.1904012529426658,"31":-0.16548053869838478,"32":0.17591786213377614,"33":0.17286284201257612,"34":-0.046904573312478055,"35":0.1956419769510218,"36":-0.18638586550922157,"37":-0.1942761523360717,"38":0.040381573613209897,"39":-0.17019357652762754}},"28":{"bias":-0.016770907597243187,"weights":{"0":-0.1628298200316825,"1":-0.15104814446899653,"2":-0.1889372901001374,"3":0.015832081467959086,"4":0.11362287229690486,"5":0.15088457533600852,"6":0.07947065296999502,"7":0.039526768337382306,"8":-0.14612779428832795,"9":0.1967352138759868,"10":0.18048968258502135,"11":-0.03865718761553694,"12":-0.07007628304636589,"13":0.021486010235626987,"14":0.14905551484589463,"15":-0.1686078088086062,"16":-0.16283348007390128,"17":-0.10320288917069673,"18":0.0535491413023835,"19":-0.005072429520210341,"20":0.16274792520220807,"21":0.022302374002664493,"22":0.07158434002336873,"23":0.05544849600047818,"24":-0.1821444604644304,"25":0.06639142484955422,"26":-0.168940304493239,"27":-0.0787030712380881,"28":-0.1819824345616223,"29":-0.1789804926214582,"30":0.023427214977601068,"31":0.05916159625858067,"32":0.0519328696830476,"33":0.0859323249450807,"34":0.028388929265891906,"35":0.19315897049821773,"36":0.026682245780935466,"37":0.017798170161816493,"38":0.06791639294850497,"39":-0.10204495504990287}},"29":{"bias":-0.04936731758573004,"weights":{"0":-0.09688237617997122,"1":0.19364298579711234,"2":0.028506416739118343,"3":-0.05958847596914169,"4":0.09540699369889669,"5":0.18849587986273167,"6":0.09273921805233747,"7":0.02961588276549832,"8":-0.19790141193457242,"9":-0.1886299355263471,"10":0.04381765308542367,"11":0.11825917054750647,"12":-0.17564465864102527,"13":0.034103480855279665,"14":-0.04755937718754767,"15":-0.18892193026762083,"16":0.06965290196043396,"17":0.13047414324342127,"18":0.005932187950125872,"19":0.01830009977567442,"20":0.16455370041856116,"21":-0.14765387404330713,"22":0.12431884958773957,"23":0.11981003336862153,"24":0.13661676246064822,"25":-0.13623949407086064,"26":0.15868553666556717,"27":-0.10730664591613752,"28":-0.1823586331068717,"29":0.09840352265527298,"30":-0.025253018369408072,"31":-0.03928535799162491,"32":0.0023542786808791855,"33":-0.038373742707860446,"34":0.17236879260097207,"35":-0.1874071565826423,"36":0.07879298548069126,"37":-0.05365940401033374,"38":-0.08963323206898934,"39":0.13952098136660385}},"30":{"bias":0.19988515444009325,"weights":{"0":0.1504077914605539,"1":-0.15236452598886935,"2":0.1649327999137825,"3":0.12734415518240305,"4":0.1053751123810036,"5":0.16063631572889794,"6":0.07278689841322873,"7":0.023414032319880353,"8":-0.014521331711173936,"9":-0.18247669622799254,"10":-0.06484613412624848,"11":-0.16344756208175107,"12":0.1442184969780309,"13":0.0026378163598532933,"14":0.1721928896984909,"15":0.0993413484063311,"16":-0.18717484783963054,"17":0.19099491599854757,"18":0.060308827326644034,"19":-0.02784823849324026,"20":-0.19029790558089432,"21":-0.08316994044595967,"22":-0.19554039777406654,"23":-0.03229883205216626,"24":-0.18966098098137854,"25":-0.056452141561962814,"26":0.11741341879542035,"27":0.008173652954124066,"28":-0.0634505166645365,"29":0.13669222626013453,"30":0.11459191899574822,"31":-0.11561764670458825,"32":-0.1862406508475695,"33":-0.07890026725398686,"34":-0.05935971053402697,"35":0.018987903228190457,"36":0.05701707821963527,"37":-0.04115534391119819,"38":0.1724932827969566,"39":0.18479960244632743}},"31":{"bias":-0.17016931194865917,"weights":{"0":0.13230539362593388,"1":-0.15627775518262638,"2":0.11127323851106885,"3":-0.04214901895692373,"4":-0.14344485845199945,"5":0.049408040095589904,"6":-0.10585681377987906,"7":0.18647137445772896,"8":-0.013110094209310147,"9":-0.05153130973914886,"10":-0.19413980502629138,"11":0.11989858424535016,"12":0.010465362564862711,"13":-0.01877384358059276,"14":-0.05368812567791704,"15":0.16415455537244591,"16":-0.02823188534710645,"17":0.05677318965962368,"18":-0.0989308943686141,"19":-0.05434168653167607,"20":0.0428565455427391,"21":-0.1521901105293235,"22":0.011023937357050038,"23":-0.12247647552310574,"24":0.1452066784374895,"25":-0.03141960531611936,"26":0.00902899079958268,"27":-0.026993796446753614,"28":0.0877747837065196,"29":-0.16119124794139375,"30":0.09338911578247402,"31":-0.13080204211267754,"32":-0.1243221719496814,"33":-0.086763415630864,"34":0.1484595340544647,"35":0.15747609135111493,"36":0.014779195450887328,"37":0.005499795197686141,"38":0.05139593488274851,"39":-0.0048980564513630385}},"32":{"bias":0.19798361373160647,"weights":{"0":0.0023500203247224924,"1":-0.09747570267967191,"2":0.12487497389236293,"3":0.06250734904839704,"4":0.15128739437679795,"5":0.13778100577676408,"6":-0.13121063545745856,"7":-0.188996829500055,"8":0.1003492164991775,"9":0.10750184570186608,"10":0.1469013863282595,"11":-0.13269797218325907,"12":0.024457819073769805,"13":0.05039569555253081,"14":-0.1936554009531559,"15":0.06833614471503446,"16":-0.20001494318780824,"17":0.07303000979894528,"18":-0.1835677563595965,"19":-0.09782021934320977,"20":-0.023523346764237722,"21":0.0033255491978003504,"22":0.15113182196026048,"23":-0.11791607997211966,"24":-0.008561504272364335,"25":-0.17895628482557727,"26":-0.0455429219543319,"27":0.07436470856571473,"28":-0.12514819023799859,"29":-0.09913542849230812,"30":0.16294579859386873,"31":-0.03979063811826085,"32":-0.19253707152456775,"33":-0.0036913672339489727,"34":-0.017442901598599833,"35":0.024525082185670774,"36":-0.1050744392561938,"37":0.11243577280304146,"38":-0.008920580454070508,"39":0.1714365292922826}},"33":{"bias":0.08650888729900688,"weights":{"0":-0.03052890440058387,"1":-0.07191868714590349,"2":0.07349004495628628,"3":0.04656059418969171,"4":-0.06488463169511942,"5":0.06547202235618442,"6":0.1496315061542266,"7":-0.11680169003358475,"8":0.017250166269021112,"9":-0.13855077796484008,"10":0.17268564468683142,"11":-0.1545154683346159,"12":-0.06641035614606577,"13":-0.0681434853263756,"14":0.10508622705562755,"15":0.16391997789147986,"16":0.07335487297018596,"17":-0.02499280004998982,"18":-0.030544539309406878,"19":0.1713190437576339,"20":0.03722562757402314,"21":0.09431262176593624,"22":0.18790497044790058,"23":0.13049640163271617,"24":0.18855098817762517,"25":-0.18633450705931645,"26":0.134500997812578,"27":0.07547110626102169,"28":-0.048794179538029066,"29":0.17694343300478957,"30":0.006618210008469731,"31":-0.08053854777161273,"32":0.14835801211686003,"33":0.16069289590920646,"34":0.007461955426760617,"35":0.06847416297657219,"36":0.15869854259607202,"37":-0.1503637506481269,"38":-0.025402939842189907,"39":0.12787623660402508}},"34":{"bias":-0.023386380012820864,"weights":{"0":-0.17305361517533932,"1":0.0024988319678357334,"2":0.014941866446181376,"3":-0.01583265049548883,"4":-0.1231389889358122,"5":0.13473609288309446,"6":-0.09035146224155485,"7":-0.13567272265683245,"8":-0.16773683884463617,"9":-0.017182393507383792,"10":-0.1154073427834144,"11":-0.01831917778914651,"12":0.159515850861668,"13":0.1343474414384771,"14":-0.1359704331159279,"15":-0.07195820446001287,"16":-0.015011864003358402,"17":0.015857109781531747,"18":-0.19316878079984842,"19":0.025698376710284958,"20":0.18407881529428144,"21":0.17901383200583287,"22":-0.13289059837166128,"23":-0.1370551175309336,"24":0.06561500825054656,"25":0.16057622981759637,"26":-0.11010473635471003,"27":-0.19382965238897407,"28":0.02904555568111326,"29":0.12993927519939216,"30":0.18692876890618482,"31":-0.08938622652347931,"32":-0.043720401851387036,"33":-0.03847559251963746,"34":0.15993073257874305,"35":0.12237542217052191,"36":0.12196626743440268,"37":-0.011929944054092515,"38":0.15962562131734265,"39":0.09754372927130361}},"35":{"bias":0.10803652650234155,"weights":{"0":-0.04772070080789476,"1":-0.05389091360084584,"2":0.16267000480745553,"3":-0.09688522106660533,"4":0.10541198548402714,"5":0.16333410908636165,"6":-0.18318567915137124,"7":-0.003899560022863694,"8":-0.159614796588199,"9":-0.13200195442052012,"10":-0.05334232638729285,"11":0.09323686748833095,"12":-0.16057025959690283,"13":-0.09014201155748287,"14":-0.06571431451134009,"15":-0.19716561883640932,"16":0.06417444490664834,"17":-0.030329255176690006,"18":-0.09241489107373449,"19":-0.14150887124889194,"20":-0.03994375370567567,"21":-0.03189871931704694,"22":-0.18077218668624634,"23":0.11703506912311301,"24":0.17578198620629,"25":-0.11165592921188325,"26":-0.17608983638470516,"27":0.1676857242213955,"28":0.039616507856907374,"29":-0.0350187730669401,"30":0.04123446674947774,"31":0.18011688051191788,"32":-0.14685709929496693,"33":0.07555894641689859,"34":0.18146449237674214,"35":-0.13055690582896806,"36":0.11074873617998247,"37":0.17015887887717954,"38":-0.13395087014075038,"39":-0.03154684742053666}},"36":{"bias":0.008584650890933741,"weights":{"0":0.04961977861177018,"1":-0.12688228000190863,"2":0.1967274561171208,"3":-0.15823248080241756,"4":0.016038830000549686,"5":0.03450149559831654,"6":-0.047717780785426794,"7":-0.1972476399215715,"8":0.08476586979356088,"9":0.18946250775341197,"10":0.11907518859751892,"11":0.176097955456824,"12":-0.11253146072337053,"13":-0.10254349956846878,"14":0.04748908464099201,"15":-0.030580295758258998,"16":-0.07822827812866431,"17":-0.05942777569596657,"18":0.08924413040488505,"19":-0.14100964705130167,"20":-0.039006021682942954,"21":0.030390143911794,"22":-0.050171092433014916,"23":0.1838269904186829,"24":-0.1439409332859097,"25":-0.11409879046297298,"26":0.13062333580193158,"27":0.16604547198238215,"28":0.017050211228968146,"29":0.08984738533243085,"30":0.09486644247875937,"31":0.052004172204404196,"32":-0.054979334727847586,"33":0.01827975337195569,"34":0.10239311350177825,"35":-0.13373772930055935,"36":-0.04007387065185818,"37":-0.005464361502448587,"38":-0.053113907653705626,"39":-0.0036721903210524326}},"37":{"bias":-0.1699852475693777,"weights":{"0":-0.10531248952140203,"1":-0.1259052933329726,"2":0.046469794331371064,"3":0.16969563324148323,"4":0.06855200826755124,"5":0.08338165920549054,"6":0.04023181048163557,"7":0.17071281077875364,"8":-0.07228175076919613,"9":-0.047920502824267276,"10":0.08607535855981926,"11":0.18650589390622915,"12":-0.19109732246329117,"13":0.06365989242865634,"14":-0.022550660532968534,"15":-0.17166580308600804,"16":-0.11454200617036739,"17":-0.04229858411754037,"18":-0.193544680211611,"19":-0.04464815883223567,"20":0.008086848278902317,"21":-0.15438775163180332,"22":0.00628278113890203,"23":-0.04477374115675035,"24":0.0014323956376801588,"25":0.13699616596412467,"26":0.052816941952338686,"27":-0.05383613691109172,"28":0.13148835621434676,"29":-0.14404089510233364,"30":0.10736511550146173,"31":-0.1993504519137884,"32":0.1919611821453827,"33":-0.1472078739317137,"34":0.07314564155705665,"35":-0.01371813552788476,"36":-0.11000090253267088,"37":0.18937351165096042,"38":-0.004761677922709324,"39":0.024032807023307914}},"38":{"bias":0.0692114285339696,"weights":{"0":0.16573163533751348,"1":0.07267033288505201,"2":-0.00012925325461683336,"3":0.13323458939786303,"4":0.14304237593218277,"5":-0.02449902144077344,"6":0.041372884524641475,"7":0.05123590172192124,"8":0.10619698018344785,"9":-0.1694369796920695,"10":0.1506220247901639,"11":0.06658944575893953,"12":-0.0636356891416391,"13":-0.028537188751082635,"14":0.08582667175881653,"15":-0.11673041221013596,"16":-0.18404119391208368,"17":-0.11322734267961508,"18":-0.0547518432689201,"19":0.1410516409117589,"20":-0.06341690833346657,"21":-0.06672243036688827,"22":-0.10835652400734747,"23":0.0948876728348668,"24":0.17944421135369867,"25":0.17794669915382494,"26":0.15182383393987103,"27":0.02318319591986182,"28":0.11450794234127085,"29":-0.19039792968882968,"30":-0.02127375708159754,"31":0.13787533612702318,"32":-0.059115605686211416,"33":-0.13738895358381828,"34":-0.1519454907358862,"35":0.09848572992175578,"36":0.10915844793573344,"37":0.18650634596489069,"38":0.05915608993497661,"39":-0.09179256471541818}},"39":{"bias":0.05173410148040295,"weights":{"0":-0.08841937061585091,"1":-0.07185761287508095,"2":0.1827048854541659,"3":-0.022194133061265456,"4":-0.039184295857319716,"5":-0.04551487992298377,"6":0.03301170153454564,"7":-0.19025440309567776,"8":0.08585877307173126,"9":0.052760832329631406,"10":0.1704332837119714,"11":-0.05888867311932944,"12":0.01870895907313144,"13":0.036521499770172466,"14":0.04078774408198403,"15":0.1260520929600805,"16":0.1968240823441643,"17":-0.07318291557184761,"18":0.1633015435302427,"19":-0.016304839771906367,"20":0.055377763212449714,"21":-0.14269439965438036,"22":0.1254379741555484,"23":-0.05822960106269173,"24":-0.04194608012806841,"25":-0.04866610822803482,"26":-0.16794858241324384,"27":0.09389003602098105,"28":-0.11721432115654132,"29":-0.05105154565966903,"30":-0.03932963224347648,"31":0.0042754369315272,"32":0.1716613069004384,"33":-0.03673787226378517,"34":-0.021992309467805973,"35":-0.18721885652315784,"36":-0.13682401629935148,"37":-0.10171632777035164,"38":0.0533117848019297,"39":-0.198077892926073}},"40":{"bias":-0.0912698742547651,"weights":{"0":-0.1453886502143932,"1":-0.017931882260721222,"2":0.037416674206978785,"3":0.12290402581010088,"4":-0.16634204137128866,"5":-0.14864900222980756,"6":-0.021539341448306715,"7":-0.04473403046373464,"8":0.0669863166504592,"9":0.021332070465185198,"10":0.173958197176176,"11":0.04778510568187875,"12":0.14976116966085445,"13":-0.020105594723911446,"14":0.10856073878214055,"15":-0.016259841555762808,"16":0.1836939599595027,"17":-0.017335301207943916,"18":0.12935183255360563,"19":-0.09973642142913922,"20":0.06538849152615629,"21":0.059196698954953594,"22":-0.06553002995681965,"23":-0.06756427616225781,"24":0.17168972595074428,"25":-0.10833415988672575,"26":-0.09289335161066452,"27":0.07463512999243646,"28":0.04181675919787875,"29":-0.024066999231909136,"30":0.09574983785928755,"31":-0.0650575517777697,"32":-0.10341067065117096,"33":-0.04408479055992232,"34":-0.10584213625254806,"35":0.08556163293612508,"36":0.0664440931626549,"37":0.09399328825053738,"38":-0.18812424983696543,"39":-0.15847906450959542}},"41":{"bias":-0.1538824792049581,"weights":{"0":-0.05486372856413881,"1":0.018415162226317026,"2":-0.1176665337216876,"3":0.11031137900723158,"4":0.06028410483555047,"5":0.14700064918478134,"6":0.08611980805987514,"7":0.13203686402955278,"8":-0.19538699143355018,"9":0.1479320447485083,"10":0.019309800877847127,"11":-0.047024984253815655,"12":0.15540502439490927,"13":0.08917926707075863,"14":0.11250938835014491,"15":0.03590729096123725,"16":-0.035914938279505086,"17":-0.13026964168094138,"18":-0.1489790752238448,"19":0.0799991808253757,"20":-0.029122591741886115,"21":0.07884292769107089,"22":0.08873997803773703,"23":-0.19091808598544785,"24":0.09185853255608135,"25":0.07556668447962801,"26":0.174312716570269,"27":0.11587416240478719,"28":-0.09619253273882704,"29":-0.12271265457200418,"30":0.04828737368675887,"31":0.014953270910313378,"32":0.13444870568666265,"33":-0.08598558464214462,"34":-0.15170341055126954,"35":-0.06805631536430616,"36":-0.0922655074038148,"37":0.11642283444840781,"38":0.04404608846851972,"39":0.09359881727130472}},"42":{"bias":0.08945755645593836,"weights":{"0":-0.1849000668745698,"1":-0.1781899733327492,"2":0.017113488944902115,"3":0.07585945758810007,"4":-0.15550727593811342,"5":0.07787187035071585,"6":-0.021946710445871265,"7":0.012042656924186644,"8":0.18260313417897736,"9":-0.03313385214767582,"10":0.1470377176035647,"11":-0.012001738979029153,"12":0.029337902070507887,"13":0.04667460384849825,"14":-0.035395250327859715,"15":0.11824214958594675,"16":-0.13502580063439956,"17":-0.1287156671886049,"18":0.0058563606179895585,"19":0.010935657450486108,"20":0.04105528494327018,"21":0.050373464913923416,"22":0.06628137032588952,"23":-0.07548422536407703,"24":-0.011962836636882709,"25":-0.0616404590469743,"26":-0.024161707557157894,"27":-0.19571814609919333,"28":-0.19512176059686134,"29":0.09175486808342086,"30":-0.17352323448504983,"31":-0.03656559982654025,"32":0.16810777589180603,"33":-0.027454005142009054,"34":0.07030094677496972,"35":-0.14347566594055472,"36":0.012560856023230803,"37":0.03838845857873219,"38":-0.14812342862535952,"39":-0.16258175250625026}},"43":{"bias":0.07776559443738587,"weights":{"0":-0.05679692992391029,"1":0.05413631430499994,"2":0.12144644038161612,"3":0.02804052526084597,"4":0.042964054260071,"5":0.05568302123576073,"6":0.07777861334853783,"7":-0.17207505660548927,"8":-0.1065129643012992,"9":0.04145026522720197,"10":-0.15266723087315395,"11":-0.19694156532683105,"12":0.08093195227000113,"13":-0.014477176971161104,"14":0.04471747423934241,"15":0.14506933113108542,"16":0.05441581977830718,"17":-0.021667728520292542,"18":0.03249159871471047,"19":0.19173608878854623,"20":0.11735007883965803,"21":-0.035292680740549566,"22":0.15846086046025953,"23":0.085518174009958,"24":0.06639097145559231,"25":0.038466715669089616,"26":-0.15876804772354,"27":0.12362779588102857,"28":-0.0383398758043468,"29":0.004039268149448476,"30":0.06906413574023038,"31":0.0560046264614526,"32":0.07979588939896848,"33":-0.12971315024358543,"34":0.10423369071011228,"35":-0.07109724792000402,"36":0.17348428091642035,"37":-0.09154887743719511,"38":0.10335978863491793,"39":-0.05632709900455572}},"44":{"bias":-0.05873917658428295,"weights":{"0":0.02906826023741919,"1":0.17094959844556074,"2":-0.04245593334346809,"3":-0.11220027390985521,"4":-0.00926158938620614,"5":0.1756956424460364,"6":-0.15822264809390962,"7":0.12474343914573616,"8":-0.14068582990921147,"9":-0.04313544223231853,"10":0.1740262433055086,"11":0.06459101578430504,"12":0.10908747148400522,"13":0.04340511137526998,"14":0.04209430306871601,"15":-0.021421050750697414,"16":0.1269582522902052,"17":0.1403406903389741,"18":-0.18302606974312977,"19":0.01165106519876846,"20":-0.09481066902262114,"21":0.16507227718690282,"22":-0.1770640940061441,"23":-0.11523241519138454,"24":-0.024911398020064725,"25":0.14873613625749937,"26":0.039288158109510925,"27":0.06412563381069668,"28":0.10783671349371463,"29":0.025849440206604526,"30":-0.07479471005594435,"31":-0.14387543012499454,"32":0.11181015791230835,"33":-0.030203236679734867,"34":-0.15912859944979113,"35":0.19262326189535003,"36":-0.18334474813547127,"37":0.021830952142772912,"38":-0.1569494429381533,"39":-0.17304433961366486}},"45":{"bias":0.18472734526070228,"weights":{"0":0.07469954446975001,"1":-0.1782471365920549,"2":-0.04693495614705022,"3":0.13105285195783806,"4":0.14223675683488207,"5":0.1879919379454594,"6":0.14249402465392813,"7":-0.0985490010701475,"8":0.04785442445388185,"9":0.10807297054557667,"10":0.0733068851023717,"11":0.10823962403089143,"12":-0.12650022133279293,"13":0.05895390789690447,"14":0.013880250975332183,"15":-0.05314251031057746,"16":0.12631119575658376,"17":0.15122506157928803,"18":0.18119074593642165,"19":0.058735263760729975,"20":-0.008734051033663584,"21":0.06631555900771824,"22":-0.1564627743292425,"23":0.056535778699558656,"24":-0.18818228332648324,"25":-0.05954446908437985,"26":0.10925439467376871,"27":0.09831495276267757,"28":0.12391984004909327,"29":0.1671365708592241,"30":-0.16008121787037918,"31":-0.1553325059849549,"32":-0.0353461556577505,"33":0.0059905080606888475,"34":-0.07469939200266143,"35":-0.11356093195847752,"36":0.049524462883240666,"37":0.02061582573208972,"38":0.08533873536493944,"39":-0.12690541653576493}},"46":{"bias":-0.167620501221842,"weights":{"0":-0.01585238761203841,"1":-0.10799561675909163,"2":0.06516304895704342,"3":-0.15103515874851486,"4":-0.19440503958313446,"5":-0.10479797019542017,"6":0.15983119388186134,"7":-0.12890171871288783,"8":-0.12540690359758214,"9":-0.13115467749197748,"10":0.166618954145276,"11":-0.03170957314661783,"12":0.16430742263154016,"13":-0.05922863191780945,"14":0.011552980524621292,"15":0.16020105592817457,"16":-0.18643891776770263,"17":0.06742311013586812,"18":-0.05123471713411665,"19":0.0045467585026696625,"20":0.04186137227776199,"21":0.17310179887635013,"22":-0.06028997173203883,"23":0.09633385163160733,"24":0.03983561906840239,"25":0.12855299305145207,"26":0.12739162463612588,"27":0.10569828235064722,"28":0.19379167555169194,"29":0.1734824474660379,"30":-0.15402482939974071,"31":0.014172518302464245,"32":-0.10475808290657251,"33":-0.03402447035046226,"34":0.11598254974316542,"35":0.1510713389904439,"36":0.18486678563780312,"37":-0.09793544212374257,"38":0.008500389132443642,"39":-0.17300713802378226}},"47":{"bias":0.14952262632962418,"weights":{"0":0.18114507909913913,"1":-0.1263918454229964,"2":-0.035988740222578135,"3":0.014348956505576493,"4":-0.07252175445506537,"5":0.0002423440049165358,"6":-0.15535018940636056,"7":0.10107132119678658,"8":0.053069105183723056,"9":0.1139162971316273,"10":-0.01239862390761092,"11":-0.06661945977549473,"12":-0.17741812827258813,"13":0.15889815359761714,"14":0.045039260087876766,"15":0.19367832116088318,"16":-0.07152818435096085,"17":-0.08679029748271802,"18":-0.10093786817318091,"19":0.008772109696189887,"20":0.018502969118193283,"21":0.14256558019187587,"22":0.06595089170356354,"23":0.18739444005659772,"24":-0.10464276781855462,"25":0.173350712468972,"26":0.15771124836796993,"27":-0.06108994670645459,"28":0.17258049423891467,"29":0.06137556916210935,"30":-0.08302004697752306,"31":-0.05014647142493898,"32":0.15198925711615816,"33":-0.0678937996099595,"34":0.010720393947477792,"35":-0.03183067640836152,"36":0.08787270257549458,"37":0.1952613277181792,"38":0.07259177059342375,"39":-0.10090119573055753}},"48":{"bias":-0.19564792631565125,"weights":{"0":-0.08591476497358831,"1":-0.1461938764619141,"2":-0.00006421411523434899,"3":0.039648115707222056,"4":0.06457977874760153,"5":-0.10206507913479414,"6":0.027300132620626014,"7":-0.03314792044137487,"8":-0.03961632111573994,"9":0.09330638849600448,"10":0.06365262122625355,"11":0.16038902992261253,"12":0.12032077129443139,"13":0.03094032321464356,"14":-0.16987486604353777,"15":-0.18304039161062868,"16":0.10534508352571556,"17":-0.0007101720912693642,"18":0.007834201912453908,"19":-0.11976504583715664,"20":-0.08379208529563743,"21":0.19535567664068776,"22":0.047435692205981525,"23":0.03076154590450489,"24":-0.1407777834635399,"25":-0.18516448929627843,"26":-0.05855769671116791,"27":0.12493819670178076,"28":-0.10417052779495174,"29":-0.0518321634674582,"30":0.18761600056107097,"31":-0.13621092324699047,"32":0.05490137526480034,"33":0.015085137366779178,"34":-0.19275211737993828,"35":0.11722894128041048,"36":0.15047181929973344,"37":-0.0117673253889162,"38":0.1990340824066514,"39":0.052374761029810465}},"49":{"bias":-0.04313367098115298,"weights":{"0":-0.04774238867468211,"1":0.012377216560264333,"2":-0.024252762092119694,"3":0.1432305880921899,"4":-0.17899365396447736,"5":-0.1373391043303887,"6":-0.02364981535362509,"7":0.06401585709558823,"8":0.18306873529790457,"9":-0.10777804160122242,"10":-0.05536706789675422,"11":-0.11398194391083111,"12":0.15557550310796503,"13":0.06148692883978418,"14":0.14349083099024348,"15":-0.01892066335175463,"16":0.04690053478348281,"17":0.1815404132239045,"18":0.0233069167882003,"19":0.013225943519278003,"20":-0.03633644807587489,"21":0.06982122698181045,"22":0.14117413798039896,"23":0.15988808536049118,"24":-0.18811175315000103,"25":-0.03287873975175057,"26":-0.042311856882741236,"27":0.06850100840791755,"28":-0.05277866884731931,"29":-0.1897738101338416,"30":0.009277061854651387,"31":-0.022706793639337648,"32":-0.17052561250043716,"33":0.13464686068294535,"34":-0.08228344140264147,"35":0.12753635605755081,"36":0.1401529213128648,"37":-0.0033308007618082936,"38":-0.1948910327762163,"39":0.097974340524805}}},{"0":{"bias":-0.040515225937645706,"weights":{"0":0.15473718263677133,"1":0.14240244248775955,"2":0.0908851222072153,"3":0.054199989742257745,"4":0.11501669130585336,"5":-0.18587432103813178,"6":0.10014571759299946,"7":0.06661916785005913,"8":-0.03169649828568733,"9":0.18981707033577394,"10":0.167454266586376,"11":0.05158662681556735,"12":0.144430306350213,"13":-0.0363229636675511,"14":0.13668014219692576,"15":0.04777301647573016,"16":-0.15006061847969718,"17":0.1559485194133257,"18":0.18997390584303459,"19":-0.03210375090559866,"20":0.02798648385968749,"21":0.1886629785599346,"22":-0.16694366656736068,"23":0.06473909953260822,"24":0.0607526624587552,"25":-0.08036217545978612,"26":-0.06926963149412087,"27":-0.1458767569304358,"28":-0.19539021442221371,"29":-0.005064353522694346,"30":0.11433181543182236,"31":-0.1800113270794517,"32":0.08073266104238952,"33":-0.12602311194952728,"34":-0.10502500533155902,"35":-0.07956470919229254,"36":0.05827013330217806,"37":0.10619785442388997,"38":-0.06686086991968405,"39":-0.006440745187032395,"40":-0.10525351090479043,"41":-0.02390998678494706,"42":0.08065282025301551,"43":-0.17252314367160196,"44":-0.0802973803231807,"45":0.09708665342422607,"46":0.08264383402792366,"47":0.05043853728840808,"48":-0.14303461246096902,"49":0.1367283389056787}},"1":{"bias":0.07717404687299023,"weights":{"0":-0.1493553317817408,"1":0.14574042498204756,"2":-0.15616728658225,"3":-0.1366316339080221,"4":-0.09477611948803832,"5":-0.17014048853728,"6":0.027123151530088707,"7":0.13017196031970496,"8":-0.09565022807840505,"9":0.1428595547341849,"10":0.18799895914423806,"11":-0.030580243069912423,"12":-0.08799726614083365,"13":-0.17302246046122835,"14":0.03939581595362008,"15":-0.12037979329483142,"16":0.13427715122624434,"17":-0.011988252388644313,"18":-0.11188064766908813,"19":-0.003829586606911755,"20":0.12266076511644321,"21":0.010549675934046494,"22":-0.019780739499214196,"23":-0.06863627939108434,"24":0.03814386260367633,"25":-0.011710581058371859,"26":0.12605826685854848,"27":-0.029391503685361534,"28":-0.00875701949270119,"29":-0.15241604218031574,"30":-0.00855719836696669,"31":-0.131169019015414,"32":0.11095173524916238,"33":0.0823460947607447,"34":-0.03506740839831152,"35":0.08043578472224062,"36":-0.04596834824611074,"37":-0.07794992035535844,"38":0.10086438711317329,"39":-0.1296321877997857,"40":0.12671076703902207,"41":-0.07918561180639241,"42":0.08925959911257621,"43":0.16160903292066675,"44":0.13120823167122012,"45":-0.1255437254535992,"46":0.048224330200517966,"47":0.01382751174669762,"48":0.016499069195115054,"49":-0.014876730136294626}},"2":{"bias":-0.10565531030192045,"weights":{"0":-0.14331200718753634,"1":-0.04079849120457526,"2":-0.17078501900104157,"3":-0.04183750023214497,"4":0.17827288860797574,"5":-0.16755271077387204,"6":0.16547313493589372,"7":-0.13120966320472746,"8":0.13246632546149675,"9":0.060796421836657226,"10":0.008677515959084224,"11":-0.01385720737055389,"12":-0.055012582225804185,"13":-0.08389890032744692,"14":-0.044223908820302076,"15":0.14627430092917318,"16":-0.05286504523787484,"17":0.030381314456911657,"18":0.12907508567016981,"19":-0.02957404141459876,"20":-0.14250138142905203,"21":-0.11698014899044216,"22":-0.033083027907206325,"23":0.06981746710709368,"24":-0.005506241945983307,"25":0.021196090230086263,"26":0.1527050428987527,"27":-0.1421957893887314,"28":-0.16341588942252427,"29":-0.19199476447805872,"30":0.16488734713620445,"31":-0.008279050524541913,"32":-0.0923114004911152,"33":0.09752281148021148,"34":-0.1782668879038793,"35":0.13853261026664468,"36":-0.033358596096903455,"37":0.17598741721701536,"38":0.09082927127458783,"39":-0.08887035748214582,"40":-0.17357686906326625,"41":-0.07301333674456402,"42":-0.1779581648462372,"43":-0.05049068615825837,"44":0.1724127168890222,"45":-0.03836927121222118,"46":0.02296309019529272,"47":0.04168615805510998,"48":0.02505719830639452,"49":-0.11615353153065872}},"3":{"bias":-0.18074639990878444,"weights":{"0":0.10168851453814293,"1":-0.050398286926305554,"2":0.009004754820410712,"3":-0.1462696835795312,"4":0.08709757738293454,"5":0.02176197508632605,"6":0.16006940418021148,"7":-0.04770082444750551,"8":-0.0781928542071094,"9":-0.14960985453532993,"10":-0.11397320961296803,"11":0.19165349482439176,"12":-0.048863758142747536,"13":0.07196613237044511,"14":0.020337984689639356,"15":0.1434804511226524,"16":-0.1280870574557055,"17":-0.09474401522963374,"18":-0.0663983876069829,"19":0.01676467523362676,"20":0.09920636194379764,"21":0.08524715308780904,"22":-0.06019733715779625,"23":0.05305118009931367,"24":-0.08377433373810739,"25":0.12817634722623966,"26":0.16443703162536288,"27":-0.005010469978250616,"28":-0.09308471936263625,"29":-0.004409294599059825,"30":0.1631851188893149,"31":0.11202118677501492,"32":-0.15961237901190115,"33":-0.17753020529906072,"34":0.11905374652411287,"35":0.044930004168644344,"36":0.036607289196726164,"37":-0.06852541013322559,"38":-0.049454510464479996,"39":0.13156296061351172,"40":0.18947239871299157,"41":0.13101015931649945,"42":-0.118983997837094,"43":-0.10944908388244617,"44":0.03159336791700577,"45":-0.19231349459714978,"46":-0.020378183745106342,"47":0.178385564210832,"48":0.1015001103092497,"49":-0.1596860340420288}},"4":{"bias":-0.15037095121242774,"weights":{"0":0.17765092268744265,"1":-0.056391789667285454,"2":-0.17052851990315396,"3":0.05347563405543734,"4":0.03523309044395541,"5":-0.1442533372153361,"6":0.04756522366968757,"7":-0.1998036202712815,"8":-0.15457938181918482,"9":0.12635770309676242,"10":0.0858798183205707,"11":0.1783875055771338,"12":-0.16912328173327956,"13":0.04241240174764595,"14":0.15551671161280295,"15":-0.10499676988976885,"16":0.043361884058423034,"17":-0.16517725988051007,"18":0.05401900791565943,"19":-0.018684885867342398,"20":0.17588784118459816,"21":0.10725609544027755,"22":-0.03376989514768355,"23":-0.1946072665625322,"24":0.17379779970211104,"25":0.13407168164629563,"26":-0.13135458366448183,"27":0.09456197855573101,"28":-0.10334828928901994,"29":-0.02825500655020836,"30":0.0813195437010315,"31":0.05791464394732946,"32":0.1395925101013854,"33":-0.18182751911701758,"34":0.16625564290314718,"35":-0.081636229421503,"36":0.008305645846895778,"37":-0.11645448935632163,"38":-0.0351976801101042,"39":-0.18730203432404208,"40":0.0701245665465912,"41":0.15195545475760816,"42":0.03893536381974531,"43":0.05584497417683539,"44":-0.14827325813891282,"45":-0.13527026590388744,"46":-0.07512828282674953,"47":-0.1667793614094304,"48":-0.12381378283331476,"49":-0.1141710695112513}},"5":{"bias":-0.17887911754909605,"weights":{"0":-0.12801082042349776,"1":-0.1681675642070757,"2":-0.06973886272601582,"3":0.19798493631664602,"4":0.02916126994698167,"5":0.058535567854555395,"6":-0.007869015794689037,"7":-0.03555547514659081,"8":-0.007001826663829668,"9":0.18828247955257715,"10":0.027200510759867173,"11":0.03590705458242895,"12":-0.1688645341482894,"13":-0.12186433192335056,"14":-0.004492252895278176,"15":0.14533257193472773,"16":0.17890034196478505,"17":-0.040126079509836494,"18":0.011398127498163714,"19":-0.10293095578138639,"20":-0.1362172050220419,"21":0.1599084431654232,"22":0.13756978323107472,"23":-0.03090398182571006,"24":-0.17711964164553592,"25":-0.1695619176771954,"26":-0.07885284934716412,"27":0.11780689888166318,"28":0.1176161112871538,"29":-0.010827032047170964,"30":0.030214476448940226,"31":0.0908172820824705,"32":-0.03587804779295416,"33":-0.18825552525963432,"34":0.07442174714697258,"35":-0.03339756581699143,"36":-0.12542931108291205,"37":0.15801135000903682,"38":-0.12701070267952183,"39":0.08453038464449378,"40":-0.07911285822846674,"41":-0.08038820980707104,"42":-0.19550928285618518,"43":-0.015128047443018405,"44":0.19472685502448417,"45":-0.1812635802186539,"46":-0.05259230461922135,"47":-0.03138642838769709,"48":0.08904004398845793,"49":0.17277596713103213}},"6":{"bias":0.09552745184595034,"weights":{"0":0.08420413166066375,"1":0.05767827426377297,"2":0.16365368391355706,"3":0.07578223987294427,"4":0.19074793360656533,"5":-0.18093741935312055,"6":0.12270782704741622,"7":0.004601133157270351,"8":-0.19430321105893145,"9":-0.15784881065067702,"10":0.19697887639791853,"11":-0.12165891198880861,"12":-0.010877912230620854,"13":0.09710779760240222,"14":-0.11639752031831797,"15":-0.11461170357629173,"16":0.16081804465376034,"17":-0.12803725768558893,"18":-0.1637511396676229,"19":-0.08161775222984945,"20":0.006959385876035605,"21":0.11292565024307116,"22":0.011603800708758888,"23":-0.13788341964817008,"24":0.16556911746880335,"25":-0.018628265418781653,"26":-0.01622584317598519,"27":0.020605565958641853,"28":-0.003933026780007274,"29":0.16644722008822607,"30":0.1788087429567821,"31":-0.1645071610957784,"32":-0.09202013519160404,"33":0.2001359827176331,"34":-0.032996161666914776,"35":-0.028195610698587104,"36":0.10304928045123214,"37":-0.18619460404471133,"38":-0.10644783891515025,"39":0.15694124614749488,"40":-0.01138737116417808,"41":-0.09089428284001781,"42":-0.06911322011422194,"43":0.07392737999677099,"44":-0.10735136106286804,"45":-0.07527773410411867,"46":0.026217546016402707,"47":0.17468581649603132,"48":0.021806184119529753,"49":-0.10168758588437171}},"7":{"bias":0.13381956403326223,"weights":{"0":-0.12757083104869757,"1":0.13505151108366623,"2":0.14573493481048727,"3":-0.006794722662358374,"4":-0.16183220219415032,"5":0.12020896074888107,"6":0.11805185302506332,"7":0.024204434897536375,"8":-0.1316096757115346,"9":-0.19084620922306525,"10":0.0037423389675058823,"11":-0.130208547816003,"12":-0.1341988801918388,"13":0.10484123009916346,"14":0.016299435428592093,"15":0.048866683324907116,"16":-0.08809176692669586,"17":0.1626471447966121,"18":-0.16705474841835422,"19":0.024323221592291257,"20":0.1915439332922606,"21":-0.20168637073402032,"22":0.031182009285241792,"23":-0.023270660917195284,"24":-0.06082128549619734,"25":-0.05216958992396647,"26":-0.06350221032543754,"27":0.021485093042203657,"28":0.000995500862366294,"29":0.11259544636146841,"30":-0.1064366466277569,"31":-0.16705630888566128,"32":-0.11120198149363111,"33":0.1780459990047625,"34":-0.07264034632726149,"35":0.13469765516691967,"36":-0.11700267803743376,"37":-0.01790123227938181,"38":-0.046090399552247,"39":0.15905170612636357,"40":0.14478485518319031,"41":0.18320706425539204,"42":-0.1001784903835278,"43":-0.07224361931733447,"44":0.02661389189710774,"45":-0.03839188344786272,"46":0.01399473528009334,"47":-0.11974800768063579,"48":0.18325417744741226,"49":0.08205889949317532}},"8":{"bias":0.003267059829814257,"weights":{"0":0.02480917784027897,"1":0.02659267968180884,"2":-0.06485373989878773,"3":0.020051171640069247,"4":0.1969459706896603,"5":-0.043114755439106985,"6":-0.010362975421510585,"7":-0.030969423038807387,"8":0.1810653546616713,"9":0.06759268559098396,"10":0.03232437945926835,"11":-0.003371370836410886,"12":0.07937118018700466,"13":-0.022793711524146356,"14":-0.1837638784133538,"15":0.20356618830461634,"16":0.09930947134706751,"17":-0.19057196521808265,"18":0.033718044769889086,"19":-0.04618172709557135,"20":-0.1257347323154428,"21":0.07198536794624424,"22":0.0365965971170828,"23":-0.13430150462090137,"24":-0.013864419988266536,"25":-0.1256185504233009,"26":0.20324273801896003,"27":0.17369271902724387,"28":0.08696961776175285,"29":-0.07963502737497134,"30":0.07123569667315612,"31":0.1703391422865864,"32":0.08576824587035989,"33":0.07819530251607218,"34":-0.04190229627075442,"35":0.13176255213335486,"36":0.17789181757561662,"37":0.12194522993294245,"38":0.04298370702475244,"39":0.11675801809923958,"40":0.009495036871493164,"41":0.19061637588798913,"42":-0.12102056131834595,"43":0.025199764896262293,"44":-0.16580070297213578,"45":0.09513812702187574,"46":-0.05514161701086011,"47":0.0784848770732449,"48":-0.14492182101852033,"49":-0.06050522093168229}},"9":{"bias":0.08642290793826818,"weights":{"0":-0.10527053979085192,"1":-0.03310813017429581,"2":-0.059792839724535446,"3":-0.09043301672410164,"4":0.007779997010589881,"5":0.14639168994325727,"6":-0.024674471597090766,"7":-0.09383772571288782,"8":0.034392159499990076,"9":0.14179032482994008,"10":0.16815601585855638,"11":-0.112738801653482,"12":0.12734498034082473,"13":-0.1795296207951103,"14":0.0013455175047073532,"15":-0.020837446637222912,"16":0.11017716684198903,"17":0.17816789168934308,"18":-0.1606816314065177,"19":-0.07059664163480657,"20":0.01640148188108728,"21":-0.1836377804953657,"22":0.07042911918612399,"23":0.09840523161857735,"24":0.1298519939673006,"25":-0.07332768747603867,"26":0.0352928789281241,"27":-0.05752014212709374,"28":-0.062116347982242116,"29":-0.19029618526700723,"30":-0.17824758889762127,"31":0.14868596287329866,"32":-0.12034783001297393,"33":0.06917780925506062,"34":-0.11725031874196931,"35":-0.1556059850186772,"36":0.054971584811304486,"37":0.11405437073190501,"38":-0.07840028439072305,"39":-0.14207090562638142,"40":-0.1573510780877663,"41":0.09633305554624018,"42":0.08592844991250258,"43":0.07173142590212554,"44":0.07541191611371827,"45":-0.137293312515116,"46":0.147631561068177,"47":0.007209764726766688,"48":0.08456626697222802,"49":-0.07229344805142221}},"10":{"bias":0.17339932061024224,"weights":{"0":-0.11383367420506992,"1":-0.08435293423461136,"2":-0.09535333167838494,"3":-0.02705464153642625,"4":0.13802913376765272,"5":0.17299269093783756,"6":0.12752701310521017,"7":0.170101398103917,"8":0.17977377034021555,"9":0.1744032774381058,"10":-0.04612753081156117,"11":-0.18871397226849898,"12":-0.10029516467775787,"13":-0.04214984112298371,"14":-0.04759159149235445,"15":-0.10872308524311693,"16":0.056616447107637746,"17":-0.1742158872272081,"18":0.07455622653482756,"19":-0.001681939078768975,"20":0.15386389223475747,"21":-0.147112840418695,"22":-0.04818538323021176,"23":0.19330281883976308,"24":-0.0937880381687003,"25":0.17595671308864944,"26":0.06501449074245237,"27":0.18010403333661987,"28":0.12887619229825784,"29":0.06565389586845397,"30":-0.003894688057680708,"31":0.03056996762774007,"32":-0.09480625260593181,"33":-0.1653921936489782,"34":0.05670845979577242,"35":0.09833006644796775,"36":-0.045396296328632305,"37":-0.17462679256626512,"38":-0.1460690398493179,"39":-0.023281355284819186,"40":0.02969512815418379,"41":0.005309159704084464,"42":0.03235863366235543,"43":-0.15075709205717094,"44":-0.00003997966333956792,"45":0.11661292455949333,"46":-0.15491949777813702,"47":-0.0958586391437949,"48":0.1148434294967656,"49":-0.0329233845858231}},"11":{"bias":-0.06182176364643283,"weights":{"0":0.18645771537612957,"1":-0.03442063587947674,"2":0.004206958378590542,"3":-0.13790214827812605,"4":0.139149662567653,"5":0.004245491096874946,"6":-0.09051589680917456,"7":0.0017651719560295908,"8":0.10007700114140214,"9":-0.07082105972796761,"10":0.07368440436407171,"11":0.18309035616540192,"12":0.11824899075204089,"13":-0.016133833778625324,"14":-0.03101591201345245,"15":-0.1630786218446964,"16":-0.1347984195653903,"17":-0.031168136881744992,"18":-0.19404555785336428,"19":0.05756369987981196,"20":0.06459650670043192,"21":0.02057052720351178,"22":0.14654126549273086,"23":0.17129451857346706,"24":0.17989067989621124,"25":-0.007546054375715365,"26":-0.012927935561953305,"27":-0.08894956159641593,"28":0.14849001047613725,"29":-0.18806153883295296,"30":0.11329963070594545,"31":0.1934760195274371,"32":0.06413833217359183,"33":-0.1754143760607881,"34":-0.15075824319529446,"35":-0.14011269237597235,"36":0.02040317681189029,"37":-0.08430752986839993,"38":-0.09425042409320016,"39":-0.03774120206497378,"40":0.0817433610394313,"41":0.12766663986485163,"42":0.037132077327916575,"43":0.17648877386145706,"44":0.1773490193727661,"45":-0.06777569260029838,"46":0.16670751860345803,"47":-0.010678825742314895,"48":0.09956449162904499,"49":-0.18891303923232444}},"12":{"bias":-0.08639056840704341,"weights":{"0":0.15387315782899266,"1":-0.11579073955047758,"2":-0.1519865191365218,"3":-0.10005733575701559,"4":0.1620484955658817,"5":-0.1792344403348984,"6":-0.0033773274824556404,"7":0.1265948814536063,"8":0.1894305629090317,"9":-0.11548777038768612,"10":0.01652038733717803,"11":0.1269133468290568,"12":0.13328383919046707,"13":-0.05319316269615082,"14":-0.06198293508539231,"15":0.15423171506176506,"16":-0.037436960597600974,"17":0.19783110104297644,"18":-0.01591756282382801,"19":0.05522091777650212,"20":-0.14948701590285715,"21":-0.14604723736208525,"22":0.015537091806941192,"23":-0.1883731587770384,"24":0.009170856252883658,"25":0.0018170424559628999,"26":0.14069530681039716,"27":0.06032644874630685,"28":0.027306562950280593,"29":-0.15085172822996026,"30":-0.11051991834016037,"31":-0.046052307143513,"32":-0.008940066018606694,"33":-0.00366677010048711,"34":0.13228018890350554,"35":-0.11056255759566277,"36":-0.05034850794279822,"37":-0.08702072245240752,"38":0.13411034574373937,"39":-0.16098447787515016,"40":-0.04127351650707443,"41":-0.004485624873169859,"42":0.08567565697526924,"43":-0.008141452126950166,"44":-0.16759431613276088,"45":0.066215682396863,"46":-0.13579388757780617,"47":-0.026964338321544688,"48":-0.020729027318740233,"49":0.08013677052839771}},"13":{"bias":0.07538270219340257,"weights":{"0":0.1584602086051006,"1":-0.10693786620321487,"2":0.1817125424338599,"3":0.007518901151450149,"4":0.19634897026608444,"5":-0.1378083069348549,"6":0.009631224221475568,"7":0.011212128777129085,"8":0.18572556081168132,"9":0.12738154824162182,"10":-0.009764538841079827,"11":-0.04382716272083208,"12":0.08978104156490684,"13":0.1720678646892862,"14":-0.02681116226085231,"15":-0.16438437594544525,"16":0.11183915753469821,"17":0.09221195111054799,"18":0.04012626858718939,"19":-0.05177171101070201,"20":-0.16903128813576185,"21":0.09089068174116084,"22":-0.17383812506161223,"23":0.12144115010086733,"24":-0.13287430634296013,"25":-0.04493538627708129,"26":0.1612957824379042,"27":0.0923887259188733,"28":0.08288316296473341,"29":-0.10022639048499606,"30":0.0019507632384159882,"31":0.09536300495990038,"32":-0.05953194355484168,"33":-0.0351264498928633,"34":0.0845319366387713,"35":-0.10401932858792695,"36":-0.03614050795434054,"37":-0.13192965388831238,"38":-0.12290085812660188,"39":-0.05726023221692055,"40":0.021120448661157164,"41":0.14867425079031515,"42":-0.15750520627192005,"43":-0.041786940244676635,"44":0.13849837335808698,"45":-0.11627740199062592,"46":-0.07670728043448861,"47":0.0814821561644988,"48":-0.10004325056867097,"49":-0.025622888588057224}},"14":{"bias":0.1277373287100579,"weights":{"0":0.131618157005591,"1":-0.12740571559796557,"2":-0.07810161484547054,"3":-0.15377198452759966,"4":-0.03210591013394208,"5":-0.16781185971565948,"6":0.11671677162157924,"7":-0.0933576695182334,"8":0.1115135515786056,"9":-0.10285092940593148,"10":-0.1584971655963461,"11":0.024974166930552672,"12":0.16430448132257355,"13":0.04147966849819689,"14":-0.056370973607908784,"15":-0.010559679126198014,"16":0.16197767731361604,"17":-0.11754332361525892,"18":0.01310586328744323,"19":0.10102212749219591,"20":0.07850370125694976,"21":0.14114157732092583,"22":-0.10811397011753614,"23":-0.14839221483801257,"24":-0.11317449285172121,"25":0.17452436910819108,"26":0.1377151470783397,"27":-0.18982308664059802,"28":0.08102296434703253,"29":0.019586021264898282,"30":0.05744533429425832,"31":-0.1434284493830399,"32":-0.17525820629424707,"33":0.015808367285645268,"34":-0.03798087435429728,"35":0.03784473025065799,"36":0.05218647089309099,"37":0.1916385502801548,"38":-0.1757132802135389,"39":-0.04852497251720135,"40":-0.17909201149340567,"41":-0.03410429979709252,"42":0.10335485705082005,"43":-0.0032509113803516625,"44":0.03328251353562954,"45":-0.008114413126045437,"46":0.06306549650205805,"47":0.18820676169431885,"48":-0.13932512545837494,"49":-0.16897825485770007}},"15":{"bias":0.15518950206917176,"weights":{"0":-0.18407934893956543,"1":0.15825722306657616,"2":-0.002140137328239078,"3":-0.007078213251667745,"4":0.1255461861190196,"5":0.14624578895700727,"6":0.19847668422087117,"7":0.13064931290409063,"8":0.0016395651851862899,"9":0.02133071139173505,"10":-0.17899024387511614,"11":0.07792452789123344,"12":-0.07461085403281413,"13":-0.113920462818942,"14":0.12526764362500895,"15":0.0699317694064026,"16":0.010243398811861844,"17":0.16108824098221117,"18":0.05656598845952748,"19":0.14560477482827217,"20":0.11204574392470784,"21":0.011236315821803117,"22":-0.14364658857806592,"23":-0.09955275786148447,"24":-0.07496646942958092,"25":0.016403104313929023,"26":0.1199952976235288,"27":-0.1547511156710902,"28":0.04709561556639335,"29":-0.060102106426864935,"30":0.04932967807495839,"31":-0.13108200444411486,"32":-0.1516626937100261,"33":-0.034462524426982936,"34":0.10028426864463405,"35":-0.13814963277850195,"36":-0.05101630385657364,"37":-0.09280292998834225,"38":0.17337958581845656,"39":0.004798498993309065,"40":-0.012730271243954856,"41":0.18451448211668264,"42":0.12392324259781852,"43":0.16458284794288278,"44":0.16089602932106867,"45":-0.1082014274367226,"46":-0.1550366254583311,"47":0.06413984443071279,"48":0.007781013142984745,"49":-0.07249860043330598}},"16":{"bias":-0.002201291477248527,"weights":{"0":-0.018482174489018018,"1":-0.11249261364352732,"2":0.1214326140746685,"3":0.026644835473408585,"4":-0.08685796686978163,"5":0.17711098041845583,"6":0.04895446434912021,"7":0.07945318615508758,"8":0.04597701526327068,"9":-0.04150659385110233,"10":0.10605574433747439,"11":0.018850474728008663,"12":-0.11156002374024737,"13":0.07531530473488493,"14":-0.03450555619299518,"15":-0.024630270544123246,"16":0.04113177498728933,"17":-0.04616117127894484,"18":-0.11087388177456342,"19":-0.1387916454477969,"20":-0.17738807279402752,"21":-0.19299239409944347,"22":0.18555984206897644,"23":0.12214458199120029,"24":-0.10788281246049992,"25":0.008640431117321679,"26":0.036951713544300824,"27":-0.05616062883215114,"28":-0.09396898562295583,"29":0.19134632355456258,"30":0.06968681326350228,"31":-0.04581035285235127,"32":-0.09004547656864074,"33":0.10877621203167218,"34":-0.14631528689240889,"35":0.19865198948089083,"36":0.08434888747516814,"37":-0.02512053298997792,"38":0.18687990474302174,"39":0.1727065261283289,"40":-0.13704482277550334,"41":0.15036633637468175,"42":-0.10746488406473105,"43":-0.03519481885545926,"44":-0.042649863170369,"45":0.026078273457572645,"46":0.02555806750239026,"47":0.038057314961163526,"48":0.0756331844282482,"49":-0.13367804414943452}},"17":{"bias":-0.11410920042389588,"weights":{"0":-0.015312031297402506,"1":0.0323425090843461,"2":-0.1679188498035927,"3":0.0776242268050718,"4":-0.0011685742807231352,"5":0.059591173245737226,"6":0.03196796263052468,"7":0.19807602196816937,"8":0.018684059927296614,"9":-0.13663677867617485,"10":-0.07229658773582075,"11":0.02332471233582063,"12":0.06681897427293454,"13":-0.12708100505880582,"14":0.020626452352824988,"15":-0.14745893091925943,"16":0.027736580409676477,"17":-0.16521581361391727,"18":-0.0805546840387878,"19":0.14000560057244057,"20":-0.10101534679418576,"21":0.04044212089801356,"22":0.10776938875654607,"23":-0.19361187466399588,"24":0.15619251745763685,"25":0.1060523519626674,"26":-0.1036944166165945,"27":0.011119684151422414,"28":0.19909860371949828,"29":0.021601575898998557,"30":0.0005691863772674625,"31":-0.09205159178529759,"32":0.15884863951078884,"33":-0.15908619971391566,"34":-0.1004545944464448,"35":-0.021523380868148756,"36":0.09096831604316315,"37":-0.15437127256893424,"38":0.05947434803615239,"39":-0.07741480879714006,"40":-0.13661828168666143,"41":-0.07875451002692285,"42":0.1827279283627741,"43":0.0013397273399192832,"44":-0.17148461772264562,"45":0.0027567958070536173,"46":0.19011306680663106,"47":0.10729987332259289,"48":0.19022465362174562,"49":-0.058608170381781455}},"18":{"bias":-0.176239649861985,"weights":{"0":0.10921701203830211,"1":0.10720300845024001,"2":-0.19684682697964354,"3":-0.11946552685940784,"4":0.06355422342065623,"5":0.05586565285806442,"6":0.08250902406683408,"7":0.15098484131128273,"8":0.11835311173148956,"9":-0.17773472050629266,"10":0.06796112547942713,"11":-0.05596391930205641,"12":-0.006394311801713744,"13":0.18892240223547224,"14":-0.1437181514719792,"15":0.036599407712785095,"16":0.06035807042085192,"17":-0.05141017159303734,"18":0.012731269290679687,"19":0.15125307310935074,"20":0.09440490911720208,"21":0.0720705954840953,"22":-0.1887890903741569,"23":-0.11142589702312673,"24":-0.06477843319622752,"25":-0.0308909357073554,"26":0.009199890745132291,"27":0.18426409430335008,"28":0.09453367476225798,"29":-0.162077330552711,"30":-0.12057162106304517,"31":-0.16245435905451175,"32":-0.10136853856623579,"33":0.1596703200660142,"34":-0.13926402595476908,"35":-0.10710155982985987,"36":0.015501951464110875,"37":0.17607904301039767,"38":0.08706601814286667,"39":0.14485069421172592,"40":0.14583195118304365,"41":-0.14119547215392234,"42":-0.10706367646744042,"43":0.18128451237915064,"44":0.08503521918323889,"45":0.1213995013726427,"46":-0.19787234175202806,"47":-0.1962283736327658,"48":-0.16929588300758472,"49":0.07221434298195482}},"19":{"bias":-0.12136462586381681,"weights":{"0":-0.10640065755509517,"1":0.01426993890171002,"2":0.183308379496884,"3":0.05982586808109689,"4":-0.03900543331885057,"5":-0.16937826730116462,"6":-0.06650578814934947,"7":-0.015864989958463728,"8":0.01713236683962347,"9":-0.08259432698985374,"10":-0.08747359177246092,"11":0.07273932486112927,"12":0.04893805914458766,"13":-0.10238323269599182,"14":0.13756180360584183,"15":-0.015349187854818428,"16":0.21345644434141622,"17":-0.1691813534880632,"18":-0.14911367731199296,"19":0.09440225147842385,"20":0.1609254144194368,"21":0.0738466324255197,"22":-0.0018200474794777535,"23":-0.10267661691133542,"24":0.1480035224727156,"25":-0.11781752288041529,"26":-0.17248051550921467,"27":0.1985900496937089,"28":0.12861012929888765,"29":-0.02611140502186058,"30":-0.03987736839687948,"31":0.10653281329405014,"32":0.15864553610610443,"33":0.15307843683014116,"34":-0.06631139152247456,"35":-0.10946892732080789,"36":0.2044685221521456,"37":-0.16818288695693703,"38":-0.0965166530305755,"39":0.07075385855172782,"40":0.06627335246538131,"41":0.011684959416972836,"42":0.10231192671726821,"43":0.13706050101331277,"44":0.1953206827785425,"45":-0.13469286952076573,"46":0.17397502404259263,"47":0.004537443203438958,"48":0.16199831318514138,"49":0.07290985602732523}}},{"0":{"bias":-0.2822271302413139,"weights":{"0":-0.10826201288608613,"1":-0.1989232077773248,"2":-0.09441317371022219,"3":-0.03816151423954117,"4":-0.19517340038824074,"5":-0.20833987348462346,"6":-0.28408487181790504,"7":0.038578334621430226,"8":-0.24120905587601998,"9":0.0755981764849635,"10":-0.2428807158202962,"11":0.011731123457970083,"12":-0.09033933122512412,"13":-0.3010318114374664,"14":-0.019461413887769924,"15":-0.21274286877716855,"16":-0.1681491773543594,"17":-0.2591193846708488,"18":-0.24555026243165481,"19":-0.2449419274660858}},"1":{"bias":-0.48779222310115006,"weights":{"0":-0.09471610923496868,"1":-0.04445448278092053,"2":-0.2209147435133043,"3":-0.2471369017322613,"4":0.048050915163542776,"5":-0.035882435356285915,"6":-0.06958805488805409,"7":0.01547741223107255,"8":-0.22350004962038977,"9":-0.3496470102494835,"10":-0.2873452872491459,"11":-0.17131174437248933,"12":-0.303180973539454,"13":-0.034744190012243964,"14":-0.07252228616091869,"15":-0.07481244004960344,"16":-0.1485018745284134,"17":0.03899080359102953,"18":-0.0013457597220297704,"19":-0.3337693196523641}}}],"outputLookup":false,"inputLookup":false}