encog,BasicNetwork,java,3.1.0,1,1422169867088
[BASIC]
[BASIC:PARAMS]
[BASIC:NETWORK]
beginTraining=0
connectionLimit=0
contextTargetOffset=0,0,0,0
contextTargetSize=0,0,0,0
endTraining=3
hasContext=f
inputCount=15
layerCounts=2,42,42,16
layerFeedCounts=1,41,41,15
layerContextCount=0,0,0,0
layerIndex=0,2,44,86
output=0.715466303,1,0.9999517583,0.6762014239,0.4299230133,1,-0.9757272308,-0.9223830407,0.5735072338,-0.9475615038,0.9817643897,-1,-0.0104424,0.5680032368,-0.7466001496,-1,0.9837296991,-0.2025415858,-1,0.6593273474,0.8368022881,0.5338182115,0.8533043396,-0.9241992625,0.8925898219,0.9999984525,-0.8183589498,1,-0.9999999918,1,1,-0.9542503593,1,0.9901645949,0.3634387629,0.888596769,0.6768626519,0.5008309713,0.9995689194,1,-0.2402874424,-0.9247729811,0.7103751971,1,-0.9974202757,-0.4082526415,-0.2064828742,-0.1730386464,-0.9693008946,0.8128646876,-0.9888458224,0.8859242683,-0.9763783154,-0.978607304,-0.5177458617,0.4829792306,0.2945201727,0.8737193627,0.192466028,0.7416085377,-0.4636233666,-0.9863505477,-0.9938120628,0.2947958886,-0.9921374595,0.179889074,-0.9999784737,0.9403662152,-0.8863969179,-0.8596799195,-0.9943852498,-0.2456156929,0.5228435672,0.0626844766,0.9608005716,-0.5940882098,-0.6995757758,0.9999999999,0.5723375423,0.9480690844,-0.9867472045,-0.2754715129,0.674682616,-0.9965589129,0.9290442139,1,0.8967397292,0.922104508,0.9144182114,0.9185175696,0.9459320275,0.9315842738,0.9433699286,0.9684784976,0.9218482981,0.9115999026,0.9180051498,0.9572052626,0.9518248549,0.9456758176,0.9331215332,1
outputCount=1
weightIndex=0,42,1764,2420
weights=##0
##double#2420
   0.100615561,0.0096593354,0.0911921873,-0.0506306547,0.0551433037,-0.0522402204,-0.113425384,-0.1099178571,-0.0999618029,-0.1318817468,0.017585572,0.0960708151,0.044681834,-0.0458848695,0.0749144907,-0.1309517202,-0.1023481831,-0.1035523493,-0.0027890232,0.00088043,-0.0484148022,-0.0643918053,0.1799477683,-0.0394097211,-0.1757196406,0.0329089786,-0.1330662818,0.0573124215,-0.026765309,-0.141214232,-0.0149049878,0.1612568418,-0.0291658741,-0.0367504898,-0.0414596213,0.0199471774,-0.057891382,-0.0478385624,-0.0485573622,-0.1069681328,0.1904439808,-0.3020825231,0.1232606855,0.1193335871,0.0853766581,0.0884314732,0.0230749627,0.41151406,-0.2276163352,-0.0999597035,-0.2333996473,0.0014605908,0.2725812074,0.8448079589,27.5933590455,0.4644870274,0.5901132906,-0.0724643502,-0.1201922014,-0.3399150753,0.2452568741,0.0612924747,0.1376992475,-2.5958991584,0.1378413332,0.2196943355,-0.2410716663,0.2823978657,0.184513931,6.6098806586,-7.5652316594,3.8831086785,-0.2331926775,-1.6684834054,0.4074130336,-0.1481813183,2.6934388858,-0.2723150043,0.0106439827,0.752293061,-0.0667214105,-0.2864068069,0.2413958962,0.0396036081,-0.3147173353,-0.0554459427,-0.1035648684,-0.0014324548,-0.2416921458,0.1893524266,0.1314111465,-0.2549828307,0.0883418312,-0.1462790817,0.0148032335,0.2891571459,-0.1422268142,0.2494396591,0.1651034427,0.2051378662,0.1474492555,-0.1008786147,0.0458710266,0.0430775536,0.0751588668,-0.0703432336,-0.3126975275,0.073256134,0.2025386099,0.233666801,-0.1604034902,-0.3685003627,0.0594300052,-0.0066952176,0.0567572569,0.0058085988,0.3808252811,0.1118489403,-0.0866866428,0.2843212313,0.1665655838,-0.0476293806,0.1029216313,0.1452142655,0.0610052035,-0.2567753953,0.1496825156,0.1839086385,0.2501985514,0.2118830858,-0.0714210243,0.1258460449,-0.4309386661,0.0899866815,-0.4525490925,-0.2594380156,0.3626315159,-0.2108343028,0.4274681412,0.5304674172,0.2263175717,0.1091011668,-0.2198722604,-0.1738809334,0.2291544311,0.1951636613,0.2954760675,-0.8763647437,0.2126853438,0.2777157449,-0.2650469817,0.3184176671,0.1853634105,0.0292591389,-1.8644130447,0.2865629277,-0.1476831062,-0.3987651961,0.574344842,-0.1298287669,0.7864808153,0.0474557007,-0.3364565991,2.6806568302,0.1593262747,-0.3335287382,0.5528681354,-0.1442306381,0.0849425529,0.212698623,-0.017567714,1.7131278473,0.1184767877,0.5418417607,0.2626888444,0.0412231837,0.2582706848,0.4358175518,0.3283889972,0.1979501019,0.0164995739,0.2654138463,-7.2642079841,0.2184047113,0.3639081642,0.2438044469,0.2585385778,0.1754396752,0.4857778779,27.2984846622,0.1676410081,2.4321366847,0.4095499223,0.334305396,0.1133762194,5.4840798244,0.2198876303,571.0105824063,0.1864539489,0.4538648384,0.5144955151,0.1825002237,0.3061562812,-0.0400423581,0.423891398,-0.2218106072,0.4112299432,0.1342809161,0.2181758451,-0.0868563343,0.156777131,-0.0207776267,0.0269064656,0.0251667069,-0.32519888,0.1041752167,0.15826372,-0.420915638,0.2647633231,0.3664865166,-0.0267164777,-1.0028187201,-0.0472324622,-0.036759874,0.3250925936,0.1450442184,0.3448923033,-0.7150014956,0.1014383109,-0.9287503036,0.2495833253,0.174486329,-0.2534906771,0.2025065251,0.4580668529,0.2893407904,0.0486746548,0.1678589553,-0.7424066756,-0.016866521,0.3083139705,0.1404622036,0.2113639668,0.46834431,-0.009737719,0.2777893276,0.2209480306,0.6790966822,-0.8521327133,0.1365617545,-0.0822691836,0.1878722194,0.0537904624,0.0067746385,0.345984064,0.359328967,-0.1062415583,0.4110417836,-0.0966469731,0.2604235359,-0.2423214813,-0.3031229924,0.3163884236,-0.1636400404,0.1390530462,0.3606818847,0.0085170976,0.1296369253,-1.9239020557,-0.2419353103,0.1201502588,0.1210312872,0.2374432375,0.0766798898,0.0092646723,0.2948434803,0.2267510389,0.0284227125,0.2469142989,-0.053239231,-0.3284713808,0.1233765944,-0.0045800224,0.5257957272,0.3856967328,-0.0074796653,-5.5043957688,0.1185774078,-0.0638831087,-0.9858678134,0.0291083762,-0.1178051407,0.2220397423,-0.4394935608,0.1198004907,0.0277625724,0.0355324632,0.5076080416,0.3818816716,-0.007249985,0.4479084829,-0.0224433399,0.0595789094,0.0664879894,0.276619163,0.5398993343,-0.3601791003,0.0288310136,0.3762615214,2.6633695329,0.6523232622,0.0181317224,0.3522839401,4.3870804204,0.3335440022,0.1210461411,0.1675561975,-0.2033531104,0.2583058333,0.2762310307,-0.1161618198,-0.0619199183,0.0878310912,0.3082788383,0.2141624975,0.6282254018,0.1707130628,0.3094675312,0.5631687771,0.1486339054,0.334061424,0.3394589488,0.2456975365,0.2918581634,0.1575231748,-0.0118501759,0.3319470539,0.2629090259,0.2294401087,2.0154114606,0.1631043304,0.2659507397,0.133288482,0.0555466622,0.3679650849,0.0829582386,0.415563738,-14.5334613057,3.5092416284,0.3003557059,31.4716290782,0.2260981801,0.3089343358,0.2830148387,0.3662917706,0.5730737926,1.0961952502,-32.6155188861,0.3916415056,0.1485371463,0.1171374799,0.3261486852,0.4043941824,15.4945556796,10.8090604691,21.4710955146,-0.0066812966,-12.0373425594,0.6038326572,0.2855813053,0.291033367,-0.0202788302,0.3536419929,9.9029407552,0.1637738977,0.2152507786,0.3876192172,0.2901862292,0.1920038991,0.0297326938,0.0969069641,0.4663796345,0.131964942,0.2858195638,0.1712332369,-0.0150411468,0.2736591395,0.1548454624,0.4678404829,0.3629713076,0.2487572931,0.265506533,5.631622654,0.473372271,-1.6006139165,0.1042793788,0.3400827256,3.0132503791,0.287501847,-5.6334285571,0.3005572676,1.7257129477,0.2936608249,0.5636160168,0.01785065,2.0015165616,1.5293819578,10.5634845916,0.3208654612,-0.4240180612,0.4951937449,0.2700490492,0.1616488476,0.0395891919,0.2129267059,1.3024835148,-0.0381884169,0.1472535084,0.4258338282,-0.2166218113,-0.0957561537,0.2030579301,0.0961537353,0.2541768422,-0.108283607,-0.1205048729,0.1355103805,-2.1326181943,0.2131062344,0.8859968774,0.1356703692,-31.549629116,0.1257688077,-0.0270822272,0.072056391,-0.9734183492,0.1265732029,1.1170905527,0.0988329377,10.1192498405,0.1192073545,0.0496976087,-0.0156055299,-0.0684624198,0.1476591923,0.1489708564,-0.2505631385,0.5401956829,2.1562501854,0.0491581942,0.0634675672,-0.0130786073,0.4818609395,0.1713395474,0.2454988766,-0.0137073511,0.0829580073,1.1091822777,2.482361649,0.5119826063,-1.2410679938,-0.1351266118,-0.2091321419,-0.061849807,-0.0394864123,0.1531686597,-0.2423174322,-0.1173789916,0.0389240294,-0.1634223685,0.1590539538,-0.0622652906,0.0737547538,0.1376477793,0.0726363956,0.3551025602,-0.0182632603,0.1847142419,-0.0011314473,0.2438609721,0.1020586957,-0.0914704214,0.2800602509,0.1834320512,-0.1760546777,0.2482783126,0.2396069697,0.2068395104,-0.2521091411,-0.0895391392,0.0766549491,0.2006722361,0.0904028948,-0.0107249673,-0.0183647157,0.1545475549,0.1999055394,0.0919079184,0.1784401999,0.1970589731,0.046373596,0.1957993815,-0.0416821231,-0.3418405326,0.0031685517,0.2867682836,0.177589579,0.2350321952,0.0442047897,0.4652599557,-0.0757470828,0.1723403616,-0.0795404389,-0.1723356179,0.2186058333,-0.0204836731,0.0461787679,0.3735000405,0.2346343411,0.1634813307,0.551056064,-0.2148948744,0.0491054543,-0.1068785705,0.1692006379,0.020023217,0.2389834191,0.174371994,-0.1713947277,0.1400996569,0.2108664387,0.1635672538,-0.508221883,0.3669509752,-0.2381276837,-0.3561085778,0.2316909271,-0.1308526035,0.414600029,-0.1870814344,-0.2103748435,1.9511903151,0.1304168148,-0.3108483622,0.4746916995,0.2152208545,0.1835627286,0.0674404007,0.2335856693,0.2255967084,-0.0560909416,0.3480615476,0.3245189938,-0.1479348368,-0.0928216234,-0.0999946823,0.0372506845,0.0277258996,0.1453962454,0.3265127623,0.0641370112,0.0096481434,0.3219581471,0.1442750519,0.203382753,-0.023598301,0.0294061462,0.1626262727,-0.0994031783,0.2693420254,-0.0736938213,0.2889722641,0.1515904444,0.1842218096,0.0254710977,0.1644784451,-0.0332035,1.2893725392,0.3186992064,-0.0334672724,0.1505695452,-0.0883634322,0.2227535566,-1.8552796031,-0.0537427512,0.1476076627,0.0455266962,0.3221968116,0.5236324983,0.2905906183,0.1222938576,-0.1986690911,0.5795863883,0.2263876855,0.2705715816,0.0018365972,-26.5725322191,-5.0028189737,0.2700161495,-40.1481469481,0.0840514361,0.5535768748,0.3442721631,-5.8164656125,0.4633802984,-3.7893718607,0.4763717745,-73.1388488309,0.587285975,-0.0507278977,0.2496756634,-0.8605420159,-0.0112974864,0.5727098773,0.1661523712,2.5637133919,-9.0395568327,0.2372624439,-0.1713665435,-3.0179866387,0.3693525875,-1.9757497924,0.3898002788,0.2224983854,0.3006921518,-9.2143996092,-21.2329144799,8.3372498791,0.453565985,-0.0529050472,-0.3733701478,-0.1311125521,-0.0117092408,0.1119014665,-0.603253721,0.1008824842,0.0725214029,-0.1685024589,2.445609415,-0.0257207963,0.1699213615,-0.9515685833,-0.2900056406,-1.4112803773,0.1415252238,3.1368962657,-0.2246326365,-0.0839314256,0.0728627525,5.6387756273,0.134019431,-0.201177897,-0.3889878608,0.1716205671,2.044810829,0.0629608305,-0.5522896238,-0.5439288528,1.822010256,-0.0752737404,0.1708526194,0.704827337,0.0547253046,-0.1561323313,0.2441734977,0.1669117121,-0.0761198758,-1.1305694038,1.3501366737,-0.462662409,0.1923722504,-0.286246701,-0.0742625597,-0.1107439045,-0.0774189787,0.0390513131,-0.1219375837,0.0490670327,0.262655762,0.061634552,0.1239780907,0.279913299,-0.0432076494,0.0125760383,0.113545335,0.1213275399,0.1638398621,-0.1942132094,0.025815788,0.2725054598,0.1598338381,-0.1164069787,0.3016468031,-0.0588020508,-0.3431660574,0.0541619377,0.1490097316,0.0694765981,-0.3207933681,-0.1363767714,0.1194770627,0.1374109801,0.0679101038,0.2716609445,0.0664894639,0.1718460916,0.1507184738,0.2107161241,0.0199367647,0.2200434914,0.096717946,-0.0063013221,0.0857567275,-0.1754936041,0.2227946179,0.5027304759,0.2531140234,0.5194317222,1.8373989041,0.4650302443,0.1851715515,-0.0251156063,3.8405160253,-0.2494838695,0.5480804005,-3.10377074,0.4461051666,0.304546566,0.5068745537,-14.0929145944,0.4070225443,0.6076170435,0.5653925887,-5.4451791708,0.4650131283,0.2189302353,0.2469336953,0.2349469979,0.0576646149,0.5958359,0.3738583261,-1.8437229464,-3.4933718668,0.5857176268,-0.6737130976,-0.3852097471,-0.3314493372,0.9231781437,0.4640871725,0.2875152502,0.2104547068,0.8694774546,4.7979812701,-0.0252192082,0.5528868135,-0.0236179689,0.0222708221,0.1425502651,0.2970967255,0.3629140137,0.1163204207,0.1166838254,0.146775189,0.0587799669,0.0843206743,0.3603520049,0.434277622,0.3949764547,-1.566496768,0.2290980118,1.0007181204,3.4733291614,-1.1803315874,0.4266555067,0.2305001212,0.1584129575,0.5173829961,-0.5421761647,0.0233502634,-0.125505937,0.1801245207,0.3892476155,0.1154553147,1.3101223353,0.1123027933,0.2751282396,0.2894888509,0.3972057498,0.3014505051,0.1283290126,0.217671848,0.0271529498,0.1785162964,-2.8182045327,0.0107544357,0.1815378688,0.2176264555,-0.0065925555,-0.232617099,-0.088580333,0.0416225941,0.2411898606,-0.2847304854,0.0490039802,0.1163926991,0.1279373792,-0.0056631935,-0.0171217342,0.1042186781,0.2694678173,-0.0864684902,0.341937999,0.2163127248,-0.1559459516,-0.1740120056,-0.0275201061,0.1725463633,0.0152786087,0.0859505502,-0.1486749427,-0.074794005,0.1674309624,-0.1573181721,0.0518675178,-0.1160821178,-0.0072012698,0.2822517868,0.1177146071,0.0964364598,0.1292084065,0.1718798492,-0.1241155881,0.4650906605,-0.0347607954,-0.0251453671,0.059926186,0.1790376403,0.2574272323,0.2152150471,-0.1246028766,-0.2487332003,0.1307329459,0.1345376694,-0.0086467546,-0.3718075919,0.7102139123,-0.0294874659,0.2519906785,0.0493780127,0.0903702694,0.180116613,0.1331653063,0.021692493,0.2367021077,0.0965917698,0.1180332728,-0.204008527,-0.0487829423,0.0484761366,-0.1894395743,0.0586882688,0.1119298509,-0.320143495,0.127606794,0.0660166464,0.1105184854,-0.1182861071,-0.2070170733,-2.4415082644,0.098166352,0.0226984342,0.088478376,0.1118983839,0.0065034052,0.4346310977,0.1679265502,-0.0289188481,0.1732954368,-0.0429589709,0.1186949765,0.1706844823,-0.3996254029,-0.4202386093,-0.0689726502,-0.0961601722,0.1044440599,-0.3498423588,0.2844021244,0.0852564194,0.050387092,-0.1976980431,0.1361004367,0.0571724087,1.9799191513,-1.2117324053,0.3602897393,4.2816706074,0.3591890462,-1.1939634926,0.9463537885,0.1481820803,4.8056979835,0.1295820946,0.1102846056,-0.5019381488,0.3605748607,-0.0365000608,0.0860746621,-0.5681679424,-4.0690205081,-5.4554876536,0.1127376091,0.3097516562,-1.0313467198,0.3581471127,0.3112601634,-0.1771909304,0.0792642685,-0.0297763694,11.3882765157,-0.5388664341,0.3280816871,0.791862565,0.0721733358,0.0916092617,0.0688087148,0.079287899,0.4160585093,0.373661328,0.4889307293,0.4128000516,0.1298909813,0.1669154277,0.4584661637,0.5617809117,0.1596573213,0.1299254455,0.0960917,0.2404339392,1.0726159318,0.3905693415,0.1278626535,0.241911086,-0.6278946872,0.2361298825,0.2693622485,0.091970834,0.3597192413,0.1033445405,0.3424975154,0.0471972385,0.1361871454,0.1205749859,0.4486989786,-0.0156992554,0.3056666397,0.314923123,0.3087828137,0.4382817707,-0.0558807659,0.4287229651,0.2946384285,0.3646084691,0.3489087206,0.2460156044,0.0452336682,0.0197449527,0.1647898267,0.0140200739,0.0547011902,0.2377278627,0.1674471989,-0.2010591375,0.1326229266,0.2217020048,0.1642698261,0.306071661,0.1407758,0.2219468548,0.6005806661,0.2566086831,0.1016288042,0.2946056129,0.0110892979,0.0169916628,0.1549119275,0.1779686125,0.1256234265,0.2199013095,0.4843090928,0.0381976932,0.2607803897,-0.0311855377,0.3998102812,1.3620939143,0.1071866194,0.2893420641,-0.0407271238,0.2279598161,-0.057635493,0.0789353394,0.0407612327,-0.1796224055,0.3603668002,0.0727207192,0.1882380582,0.2896475468,0.3307837174,0.0277059809,-0.0050160947,0.0734729514,0.1138194894,0.0489110055,0.2774115217,-0.3896821065,0.3219680532,-0.3868092767,-0.3968604107,0.0058823396,1.2378113955,-6.3217498241,0.1526477259,0.00514035,0.0356586221,-10.0469646591,-0.1052479805,0.0076959997,4.4168619771,0.255963187,0.1724803056,0.009850682,0.2163576022,-0.1553667089,0.0399944279,0.0083415209,0.5460920151,5.5493904089,0.0525991419,-0.2109074461,24.4054697303,0.4940286923,-0.3554201365,19.0538729217,0.0023934956,-0.3878389501,-7.0251052486,0.0614589911,-0.0100680613,0.2931219596,-0.4511418872,0.1340814904,-0.1408770943,-0.05705633,0.2572006374,0.0630979996,0.2861601178,0.1073175537,0.0397855647,0.0170346058,0.2639134515,0.1293168991,-0.3751863626,0.1024242513,0.0726173781,0.3332449632,-0.1172822765,0.1793408929,-0.0821826359,0.3064941929,0.2195942488,0.1835952855,0.2172646235,0.2549590511,0.0770780025,0.1296258283,0.1317239149,0.0726733854,0.055618125,-0.012669978,0.3110252914,-0.208344297,0.0268310618,0.1370798786,0.272928213,0.2778392918,-0.2398255692,-0.0241865433,0.1153574916,0.2873179913,0.3458891831,0.1503672397,0.3040164656,0.0471384128,0.1422436019,0.3882042873,4.3243877394,-0.08662328,0.4784418384,-0.216851713,0.0529435859,-0.2264434114,-0.1540935381,0.0992055901,0.3111008579,-14.1076949042,0.4127010536,58.7737526823,-0.1525144303,-6.2378835455,-0.1717901145,0.3158501213,-0.0161340691,0.1521395996,223.8057040664,0.1454573519,0.0723107109,-0.1317250527,0.1966779413,0.2260378299,23.5061781148,-0.0147632686,9.2677836349,-0.2390582582,-5.7182457281,0.500909338,0.0096185655,2.4254525503,-0.1855221879,-0.1032225173,86.9459491524,-0.1724155148,-0.23863506,0.4277072862,-0.2593457582,0.323996419,0.4118719717,-0.0275055886,0.4419137686,0.0388278243,0.1289598313,0.3729911298,-0.0384140632,-0.0392604549,2.1560878673,0.5800520838,7.49538872,0.0486128623,0.3464915923,0.6059521867,-7.4576230914,0.2595556446,-0.1621010995,0.5510332916,1.1031834241,0.4569639551,0.1881639285,0.0543790956,-0.0625891504,-0.9775486907,0.3545816906,0.2719676722,0.2571299983,-3.4852500587,0.6934284807,0.2220230596,2.4227704896,0.3625682577,1.6445381217,0.3591908238,0.3088012395,0.1723324424,0.4830812757,-4.4926119804,0.2173471943,0.1088041666,0.1450780612,0.2388131505,0.1836765431,0.2881905214,0.3880569858,0.1132410717,0.0690534023,-0.3160110346,0.1131169449,-0.0978247814,-0.3026662828,0.1270412883,0.0846589784,-44.9465253175,0.169143007,2.6989262727,0.1306732962,0.6234365969,0.0147748567,0.1249253258,-0.1601322841,7.6336987078,270.6829592881,0.1529087261,0.0723139845,0.0122953207,0.2161108895,0.1384142562,12.2980250705,0.3630419072,11.9841599175,-0.0546768244,-2.2708592847,-0.3314846877,-0.1178552453,1.6837524069,-0.2028964671,-0.1405287423,-8.5556760596,-0.4255294229,-0.2717887232,0.3137875117,-0.6266067117,-0.1974727231,-0.0090229747,0.1536924714,0.0965114481,-0.2743457849,0.1256488789,-0.0370126422,-5.3964024929,-0.4272096053,-53.4648024243,0.0369639077,22.0389266913,-0.1759064799,0.2891123187,0.195596315,3.4612201384,0.2128252594,27.7042356161,-0.0191903989,-29.0657210234,0.2982250341,-0.1141932358,-0.1278057391,-0.3325433749,-2.9584480822,0.1434443749,-0.263061571,-2.3968674615,6.6186309553,0.1688632279,0.1201272819,1.7229981968,0.2715620906,1.3076022567,0.3350135324,0.2352911813,0.1957158273,-0.6743306921,34.099162822,0.1572935902,0.0123775881,0.3606215093,0.3737167659,0.0467931601,0.2800901044,0.368969487,0.1633520408,0.2129827986,0.38120384,0.3237089208,0.2912438478,0.2693102619,0.0871329733,-0.4952391828,0.1100404437,0.4351770056,0.3576879239,0.2324709052,0.10763398,0.2672332771,0.3695321957,0.0701062409,0.326906934,-0.0387941704,0.1840576248,0.0064079863,0.1946672691,0.2964179024,0.3795824798,0.085809274,0.0994637124,0.3013212208,0.0735395541,-0.0228033495,0.1551727263,0.2629328467,0.2558709192,0.1370603602,0.1181197642,0.1331483879,0.2544568965,0.0625140606,0.1246449089,0.2274731305,-0.5143360946,-0.1908561517,-0.068097781,0.1615732598,-0.3160307868,3.3707757395,0.1470670525,-23.1924984608,0.1344723067,-15.7766320912,-0.0326518301,457.6009455868,0.1780233237,0.2187744584,-0.0024272867,11.9788834882,-0.2391537021,1.0442774249,0.0830147668,54.4044712262,-0.0236291568,0.1438919508,-0.2767764922,18.5276427316,-1.1181589233,0.0008770215,-0.2423484923,-1.4698696644,-201.7824982338,0.1552939861,-7.1973887984,1.0849526895,-0.184705308,-0.9231069107,0.1595771459,0.2243072528,0.0006929196,-7.1885213503,-0.0756676661,-0.1257663664,1.354276948,-0.0250232177,0.3026213668,-0.0397620781,0.123979599,0.8189986559,-0.0174285934,0.4053139105,-0.1519365077,0.2190931898,0.2213940102,-0.0831999942,0.3109816534,0.4849427172,2.7930858018,0.4962009966,0.1674077283,0.1546471245,-0.2703290503,0.3260626601,0.3693778148,0.212122547,0.3729643506,0.0254204463,0.1721856361,0.5784803304,0.1741131394,0.2620655559,-0.08011821,0.4021409645,0.2253737426,0.2961635796,0.267214222,0.2966389713,0.1606644269,0.2687037806,-0.708801638,-0.0976963434,-0.2446718635,-4.2515182495,0.0569808897,-0.0033381386,0.3514648107,0.3130942092,-0.2901265347,-0.0434182392,-0.2091767555,-0.0296421556,-0.1827322104,-0.2637829792,-0.0501853243,-0.1954801504,-0.1988935683,0.0995801585,0.2302939352,1.0484108458,0.0616989299,0.0396504064,0.0580364026,0.147690838,-0.0241287201,-0.0088231618,-0.0096546737,1.3741912217,0.2217368658,-0.1902042877,-0.1849105876,0.2723096878,-0.0481482285,0.1893901775,-0.2195867724,-0.4620230091,-2.9385037387,0.134627467,0.2184913664,0.1168744858,0.2559676863,-0.2495255202,0.4301813965,0.3016000495,-0.0398814751,-0.061912713,-0.1874884691,-0.1448450696,0.1027253956,-0.1899742144,-0.2852471916,-0.0465349941,0.120225621,0.0845937751,-0.448311111,0.0178863176,-0.1198326561,0.0211584276,-0.0947237152,0.0955375574,0.0891374613,0.1489290281,0.1142315018,0.1026631439,-0.098649773,0.1192838612,0.0328611812,0.1642772746,0.1380565232,0.1492016908,-0.0943325766,-0.1142984653,-0.4162843519,0.0537739727,0.2192659931,0.0959898572,-0.3162794335,-0.3774976056,0.2137173381,-0.1375426528,0.0175644017,0.2074011821,0.1908742204,-0.0732711055,0.1321985301,0.132495464,-0.1820154747,-0.1341866985,-0.1539251971,-0.0111070596,0.048612261,-0.2126815247,0.2787871879,0.1132891022,0.028022504,0.606317736,0.0193578713,0.3484663911,0.0852706329,-0.0352174697,0.1470307437,0.3033654778,0.3913383144,0.1138592857,3.797108921,0.2430132744,0.3053995915,0.6163139445,3.3911894448,0.2089562574,0.3425286127,1.3888316063,0.4278881128,-0.0149664604,0.1971888939,0.1552958545,0.4108842275,0.3863028355,0.0475769725,-3.3916815101,-0.0812777221,0.4901496199,0.3912879118,5.8765113491,0.0321922337,0.8901091748,8.1914581503,0.1377080308,0.2190672176,1.02721544,0.4588465293,0.2768142139,0.2471115018,-0.3744295627,0.0539568883,0.1527861066,0.0775942699,0.3436403818,0.1503510281,0.1022446921,-0.1634799763,0.1995329162,-0.3561781719,-0.4515272464,0.3151379521,0.0408458109,-0.5056115406,0.365962113,0.2956768329,0.250136862,-0.0405744423,-0.4030862142,0.16850952,-0.0407730582,0.197574387,0.0565862066,0.0129204498,0.2264144158,-0.2734467575,0.2501810358,-0.0013672424,0.5411912087,-0.5209097131,0.0675442177,-0.0488278877,0.7141538478,0.394411002,-0.1173982261,-0.3145854688,-0.1429408777,-0.1773673654,-0.1937421119,0.0067811385,-0.4359703159,0.3283641726,-0.2642641931,0.1289892497,-0.0356025957,0.2106691145,0.3524593911,0.0737825402,0.2467579876,-0.2555445733,0.2427520833,-0.0119164041,-0.4341933131,0.3381699455,-0.5566762561,-0.8143069439,0.2092307692,0.4819779998,0.0006839471,-0.4581604835,-0.0843566176,0.0956591889,-0.2389325264,0.0537245916,0.5729321685,0.0021963574,0.2054904718,-0.1555935529,0.2583298489,-0.1189239868,0.5893020015,0.8661298452,0.2536914857,0.0585050623,-4.3999643876,0.553374826,-0.2617159137,1.9325013652,-0.1296806481,-0.3503288987,3.2086541038,-0.1584698878,-0.1704957648,0.7050862532,-0.0992702966,-0.02767965,0.1084024219,0.2343806958,0.209931432,-0.3000734786,-1.4424751624,0.0534067395,-59.624702924,-0.1091654567,17.6223101653,0.1082547525,216.399694976,0.2660118061,-7.846466279,0.1535046559,-41.765343167,-0.0360740398,0.3877479879,0.2162884078,104.3165074991,0.3307493128,0.1575452018,-0.2914762899,9.0532084728,-9.8544060126,0.3000473908,-0.3688972634,1.0645337486,157.6206071757,-0.0168366554,0.1022622503,4.8743631675,-0.052958846,2.182274063,0.3281590638,0.0384096079,-0.0370817977,19.5926287087,36.5215660137,0.1122857457,-2.3157831786,0.2385407542,-0.5150506699,-0.1995773583,0.0649805372,-0.0865160448,-0.3421702236,-0.0345052438,0.2054810243,0.040211085,0.00794214,0.136422482,0.105319724,0.0647361382,-0.1802498336,0.3229462453,0.0612681456,-0.1009479967,0.0594602758,0.2172837147,0.2122004072,0.0310117952,0.1157626559,-0.107894033,-0.2008744047,0.2004097215,-0.1457136924,-0.0352418725,-0.2303692985,-0.4594811231,3.7412574627,0.2602979638,-0.0201185545,0.1566492188,0.2322921804,-0.0319331171,0.0454186243,0.1492110836,-0.1267962246,0.1942229357,-5.1693573614,0.0616353784,0.1466190051,0.2160419617,0.2467938239,0.1110595042,0.1165912991,0.3528517697,0.0246653321,0.1149905177,0.2232686824,0.0845568872,0.0389964223,0.0492294101,0.3175630375,0.1262061551,-0.078163791,-0.0209727932,0.1090323814,0.1120946747,0.1848245447,0.1663688686,0.1697100329,0.3305250697,0.3200677845,0.2274417729,0.3289219181,-0.2524856075,-0.0299130484,0.2547333811,0.3126789609,0.0098228445,0.5180617714,0.1629848923,0.0940483511,0.1017036046,0.1601367807,0.0978500899,0.1325100298,0.2227407767,0.3291964709,0.1827164206,0.1212211269,0.0323457157,0.2718485881,0.11784671,0.2639565325,0.0893253022,0.0619080661,0.5281266366,0.2810346267,0.0910847576,-0.0611701327,-0.139898991,0.3075042951,0.2104602049,0.2191813618,-0.1390125403,-0.0106286026,-0.0126410191,0.2989530459,0.1160907901,-2.6911258814,0.2682825424,0.0265576632,0.1050415335,0.3042794847,1.6935261291,0.261424035,0.2666463877,0.3038053138,0.2700578092,0.056469626,-0.510990994,4.3456583278,0.1506869724,-0.0428698069,0.0395593031,0.2979414793,0.150394303,0.1060926167,0.1164874807,0.0220667034,-0.1005638136,-0.427632139,0.2082335236,0.0008626889,-0.2772440519,-0.2346974847,-0.5454169497,-3.7182022047,-0.3827353242,0.8773194719,-0.4602466908,-0.4570782547,-0.4486285198,-0.2354916337,4.7855538045,-0.1637547367,-1.8930770524,-0.3584436008,-0.2337494553,0.4273390559,-0.4160390937,0.1856974857,-0.124904882,0.2291912342,-0.1478150071,-0.1052219408,-0.0603337418,-0.1512545369,0.2287597856,-0.0659029905,-0.1363062805,0.0265136931,-0.0271481538,-0.1115755508,0.001539773,-0.0796867741,-0.1160289815,-0.0686585636,-0.0180623837,0.010039872,0.0032841169,-0.1311272462,0.0535741089,0.1781277749,-0.0482681234,-0.0556676898,-0.1392481277,-0.0417646211,0.0624107817,0.0634834088,0.0350848237,0.0772618416,-0.1994754502,1.4315694587,-0.1991619072,0.3696222732,1.324313461,-0.1149103048,0.2542308698,-1.8613672312,-0.3175871515,-0.0713549518,1.6109375553,0.4820608752,0.1069484796,0.1027639181,-2.2851735594,-0.153035607,-0.635532143,-0.1270138721,-0.3200050196,-0.4756136337,-0.3056806394,-0.6314806898,-0.3268832822,1.545454362,0.5509605632,-0.2975475857,-0.4934085001,-0.604838777,-0.2470794496,-0.3854975912,-0.4625839272,0.6051621661,-0.290085905,0.2233593711,0.0768362463,0.2935627725,0.1463359552,0.1009474102,-0.0662020165,0.0244933114,0.2016993438,0.1150962882,-0.0016560773,-0.0406717344,-0.0390983294,0.1151686558,0.1239292307,0.2891554209,-0.3173101775,-0.1030070581,-0.1334336853,-0.1538078413,-0.2864026065,0.104167279,-0.1484707554,-0.392240461,-0.0132380427,-0.398686764,-0.3924040507,-0.1256432289,-0.2214084831,-0.4070697084,-0.0654626697,-0.0287662203,-0.0212739045,-0.0219963259,0.2701792378,0.0303796416,-0.0410079878,0.2007250925,0.365466698,0.0920200032,0.0343547941,0.0974227254,0.1053246672,0.0696761601,0.0170803823,0.1015318141,0.3741261064,0.1384515196,-0.3130524215,0.0660352203,0.1028443821,-0.1640528063,-0.0837257842,-0.1043910188,-0.421014815,-0.0264887989,-0.2816666994,-0.36707161,-0.3256611497,-0.3329442636,0.0357894305,0.077270108,-0.5630271201,-0.2832874085,0.2780520108,-0.1647606945,-0.2387964766,-0.2838138077,0.6324716688,0.1619389503,-0.240770637,-0.1096987966,0.3194201143,-0.2711698496,-0.4881710989,-0.2508332967,-0.2587188822,-0.092778712,-0.3893081476,-1.1254630778,0.3278011476,-0.0769321547,-0.1198622673,0.087275673,-0.1406470586,-0.0644037925,0.0767770055,-0.2012028748,0.072537404,-0.0808942801,-0.0772525975,0.0708090944,0.1554373674,0.1339935583,-0.0958557763,0.1432954769,-0.4748008455,-0.0486252783,-0.2226097774,-0.2266264193,0.0033475881,0.2504430287,-0.0810405196,0.020183849,-0.2075698707,-0.0691199398,0.0046944547,-0.0781388136,0.5023626163,-0.1341150795,0.6903248017,0.239518461,-0.0978899491,0.1969666013,0.0399736981,0.0469938809,0.0211103468,0.2046126106,0.0294522699,0.1459640007,0.1375909372,-0.0412234896,-0.0709185184,0.2687230107,-0.0535672192,-0.0083427555,-0.3538095947,0.0745249545,-0.2840541778,0.2279431381,0.2119734207,0.2801707793,-0.0381240912,-0.0513086872,0.2165204633,-0.0345983357,-0.0261159102,0.2867913657,-0.0350907905,0.18532009,0.2750673743,-0.0008961235,0.2262115581,0.2106933564,-0.4431791987,0.3835329805,-0.1217607062,0.0722524943,0.5026401936,-0.4393584716,-0.2212617402,0.2214878396,-0.0273758763,0.0891260593,-0.0217864255,0.154015025,-0.1057138033,0.0721076,0.2067073223,0.016755112,-0.5074574759,0.0692943296,0.1635516682,0.2197634821,-0.0906235361,-0.0598174849,0.1022861694,-0.1263064143,0.1797304376,0.0808802946,0.1753258158,-0.0944898155,-0.0811223582,0.2421303498,0.5578084182,-0.1632043559,-0.145914683,-0.2968235067,0.1711417333,-0.0385280552,-0.0396033652,0.0184663082,-0.0006816227,0.1295513883,0.2020203822,-0.3291942861,-0.3381838525,-0.0335600186,-0.0212542122,-0.0543554286,-0.2489724467,-0.1787789316,0.460267955,-0.1861539721,-0.0131238695,-0.0175534784,-0.0887652699,-0.1832822251,-0.1112171285,-0.195391586,-0.2115795995,-0.35407044,-0.3553186925,-0.4309996779,-0.1408648423
   -0.3565804579,-0.1159384181,-0.2618961053,0.3268843525,-0.1951843632,-0.4135915253,0.0354357401,-0.2917671944,0.021242413,0.0805713212,0.1406361835,-0.1476325304,-0.3113124622,-0.3074305421,-0.1238847002,0.0741205021,-1.181602865,0.1404741487,-0.0428745549,-0.538594516,-0.1045985102,0.2520359858,0.040150662,0.2584910773,-0.1355140548,0.1482753778,-0.1036213646,0.0756599914,-0.1364985251,-0.1088684011,0.0926128178,0.1646094877,-0.0796533549,0.1638994645,-0.1348433738,-0.0652673758,0.2639564679,-0.0797944571,0.1806198763,0.0851456939,-0.2035427064,-0.5626242306,-1.2669259796,-0.2183229237,-0.4732544882,0.2007759769,0.0663786465,0.078298228,-0.2501460561,-0.2058174143,-0.048209239,-0.4555528655,0.1259222823,0.0262157765,-0.0570979011,-0.0190335048,0.1235336129,0.0256253361,0.1695812705,-0.1306319221,-0.0375128239,-0.057262461,-0.051632189,0.1120718924,0.1751719562,0.0470761878,0.1036483586,-0.3407853561,-0.4677382339,-0.3714390524,-0.2136741528,-0.4784301569,-0.2950337329,-0.4322638349,-0.1823581328,-0.5154019029,-0.4751553656,-0.4838888833,-0.222785554,-0.5685287066,-0.5481897558,-0.4020412635,-0.3103241388,-0.1505450981,0.0132690495,0.2527615835,0.092169412,-0.0014759667,0.2272750835,-0.0363499905,-0.0148111734,-0.0570681182,0.265234662,0.2189546201,0.279274209,0.3433060954,0.1622077738,0.2747197293,0.3013773204,-0.4230798986,0.0792856974,0.20758225,-0.0842585363,0.1250207701,-0.5147795191,-0.3576402194,-0.2477226011,-0.094368179,-0.1293135826,-0.2276884529,-0.0772470471,-0.4458189971,0.3872385668,-0.3970325411,-0.0715752752,0.3381429821,-0.169145267,-0.1242682794,0.1092590308,0.0680030118,0.0882872568,-0.2526286239,-0.0509639356,-0.0071382233,0.0773236763,-0.2236141623,0.0027854857,0.0662454694,-0.1937156791,0.0285063483,0.0700532098,-0.8227415769,-0.3355410398,-0.621721939,-0.65185779,-0.457588971,-0.3924580695,-0.3433482672,-0.5020327765,-0.5455441342,-0.409327573,-0.088914578,-0.6277428307,-0.4461130877,-0.8741390647,0.1615084073,3.474113953,-0.4535328525,-0.6180301249,-0.3369316085,-0.6004249239,-0.6174232752,-0.360099344,-0.4779671727,-0.5231647912,-0.4475419769,-0.6113733233,-0.282415668,-0.2031040988,-0.4115916686,0.4669052327,0.1127027805,5.0163309013,-0.3871876027,0.2392905589,0.226647126,0.0820647895,-0.1318681562,0.5987182238,0.1380580515,-0.7966556843,0.1890866244,-0.2365899432,-0.1766231656,0.2373892089,-0.0193308357,0.2572190835,-0.0545274,0.2380454002,-0.1594904549,0.5033346402,0.2185628081,-0.1063654738,0.619176776,-0.1549685469,0.1202317445,-0.0951255409,0.2044804298,-0.1486817366,-0.130652172,0.1085344644,0.0607103653,-0.2046009818,-0.1416351775,-0.1982728565,-0.5231910136,0.1363430983,0.154541825,-0.0159433229,-0.0034547097,-0.5209077255,0.0583123551,0.0283301322,0.0747291535,-0.135133935,0.2927179149,0.3059575876,0.1929043806,0.9399309499,0.2351278231,0.2838888602,0.0588326147,-0.0700564139,-0.2235473891,-0.0635032091,-0.403517237,-0.0509115127,-0.4228926315,-0.3486667694,-0.0153220993,-0.3920266219,0.1251385269,0.7538692789,0.8475361726,-0.2130488808,-0.236325814,-0.4460387294,0.3860537599,-1.5372758165,-2.7359564511,-0.252726559,-0.0675062651,1.7665135878,-0.7662948863,-0.3862378877,-0.1880485313,-0.4730778435,-0.3355934623,4.7708692056,0.5489777951,-0.5221618279,-0.0377206633,-0.1293327433,-0.5924116799,-0.479804926,-0.784170567,-2.0025942507,-4.8415586694,3.490866761,2.6366229951,1.614280869,1.3100044325,0.5827597929,1.7462298706,-3.2513129551,0.2838964403,4.6905757197,11.6332302016,-2.8663913912,-1.1580923967,0.0771853093,0.06556022,-0.0802430613,-0.0235749508,0.2569081434,0.3508383917,0.4236793418,0.4454749356,0.0204871076,-0.8308483326,0.6923226322,-0.0004396142,-0.4628118533,0.2516144349,0.0011397484,-0.4797320541,-0.012445918,0.0405469505,0.2495420804,0.0617734788,0.0082601411,0.1013629925,0.1777391438,0.1328647269,-0.0869965997,0.0985919443,0.1520153137,0.3378105715,0.2977338135,0.1402967636,0.1443156755,0.0792807056,-0.1347048033,-0.0318832535,-0.3922165086,-0.3038902639,0.2102720217,-0.3468124328,-0.4130850384,-0.0349015528,-0.1376147275,-0.2939050143,-0.0760094068,-0.1438620249,-0.1643948969,-0.3342799541,-0.0691165969,-0.0300180662,-0.2965538337,-0.099577168,0.2016271972,0.9106722686,0.1367863094,-0.0826225217,-0.2314078387,0.1458496721,-0.0865853508,-0.3863974817,-0.3141213954,-0.0895591459,-0.115164994,0.0393619496,-0.2837106697,0.2220470591,0.3918103192,0.0635598643,0.0628718885,0.2711505167,-0.1126739075,0.1219994843,0.2023771079,0.1417818501,0.0753987709,-0.1013657184,-0.0029589063,0.240628613,-0.1303626265,-0.1719716391,-0.1106712659,-0.0472540724,-0.237088835,-0.3852954081,-0.1608920847,-0.2316297607,-0.143029272,-0.4524644131,-0.2881971703,-0.235989256,-0.1848823252,-0.1261927244,-0.0484348938,-0.1874423379,-0.4194319302,-0.3831867799,-0.3809319323,0.4297105393,-0.041327914,0.162045963,0.3544861705,-0.0258509524,0.1284551976,-0.009037152,0.3713784839,0.217052316,0.1286273021,-0.0246239114,0.2946151511,0.3333908881,0.3379021311,-0.0393772419,0.0396011873,-0.4421020126
##end
biasActivation=1,1,1,1
[BASIC:ACTIVATION]
"ActivationTANH"
"ActivationTANH"
"ActivationTANH"
"ActivationTANH"
