encog,BasicNetwork,java,3.1.0,1,1384057761186
[BASIC]
[BASIC:PARAMS]
[BASIC:NETWORK]
beginTraining=0
connectionLimit=0
contextTargetOffset=0,0,0,0
contextTargetSize=0,0,0,0
endTraining=3
hasContext=f
inputCount=15
layerCounts=2,42,42,16
layerFeedCounts=1,41,41,15
layerContextCount=0,0,0,0
layerIndex=0,2,44,86
output=0.6067949809,1,0.9585695314,0.8291835579,-1,0.5191570057,0.4496339585,-0.4333400095,0.4081240377,-0.0217195851,-0.6363786842,-0.96645686,0.0536575226,0.4483109372,0.0751139344,1,0.5157581704,-1,0.9999520469,-0.8798805669,0.5735082573,-1,1,-0.99999976,0.8936931925,-0.5263995537,0.2309448149,0.9997946725,0.9992687122,0.9908346594,0.6273600953,-0.9999652607,-1,0.381871299,0.9938658754,-0.9999945454,1,-0.1915439656,0.5553778251,0.4584601823,0.9998182546,1,-0.498694803,1,0.4079810537,-0.6519640495,-0.3333203649,0.6062995351,0.0698199233,0.5334781708,-0.5699607669,0.2089219369,-0.5576929431,-0.6044051785,0.3364312442,0.6429963599,0.5011592538,0.037556271,-0.0905034973,0.6387141307,0.4523996205,-0.1647039912,0.184130866,0.5823631482,0.5908369089,0.2250067191,0.044672941,-0.396132037,0.7485548096,0.6325908889,-0.3815646859,0.5188808382,0.6048102034,-0.4540822933,0.0868875278,0.2782908047,0.466222618,-0.7849175728,0.6279499463,-0.3313154363,-0.439965927,0.6228653552,-0.6011376214,-0.9097050802,-0.4214188065,1,0.2003992016,0.1604790419,0.1604790419,0.280239521,0.4798403194,0.4798403194,0.4798403194,0.4399201597,0.4,0.4399201597,0.4,0.4,0.4399201597,0.4,0.4,1
outputCount=1
weightIndex=0,42,1764,2420
weights=-0.1130723999,-0.047978235,0.042696573,0.0991768657,0.0383547648,-0.2350087691,0.0610321339,0.1462495244,-0.1582480398,-0.0821548272,0.2010942689,0.1958201742,0.1315214141,-0.1000474429,0.1019423185,0.1399041652,0.0660202087,-0.0974439003,0.1290133936,0.1686005232,-0.0469677615,-0.0880765421,0.0763436078,-0.0683676799,0.1173115498,0.0884473787,-0.0786009281,0.0650751972,-0.0344150658,-0.0973207736,0.4039679587,0.027466196,-0.1135635786,-0.0461158036,0.0499769644,-0.0514279375,0.0835190579,0.1177234808,0.0661984516,0.0307622661,-0.1904957311,0.329650934,0.2480323035,0.0627666917,0.4664463421,0.2538606398,-4.9466788605,0.3466304085,0.2932042886,0.4557253338,0.3363205573,0.8394951116,0.1864969857,0.3713594676,0.4258321626,0.4725896069,0.2944682799,-0.0180227434,0.3525121417,0.7582216053,0.9608725979,0.3248831998,0.2916950234,0.353287355,0.6646817045,-3.8766632701,0.2478017445,0.1479999409,0.2529588121,0.2842972781,0.3478670504,0.1227814684,-0.1342883997,0.2591791219,0.2766412774,0.2792626909,0.4564324055,0.412307453,0.2610095725,0.345015445,0.2173697769,0.1263205404,0.3917586983,-0.2102461141,0.1680975551,0.0459100004,0.4774335859,0.1075620263,-38.4973699656,-0.8165333522,-0.0018601453,-63.7758689254,0.6743998561,-7.0556481968,-2.3103997551,0.0719502294,-0.1022548471,-4.3805430964,-7.9645914439,-0.0919903819,-0.1365813774,-1.7399033873,0.112593602,0.0848783448,-0.175260749,0.1527950593,1.348193097,-17.5505068243,0.0489080436,0.1636122895,0.3676500759,-0.0852156645,-0.1013546118,0.3460685999,3.8283049133,1.6966529283,-0.1239664771,-2.562699546,-0.0212570352,0.2020500162,0.1050219303,0.0795535764,0.1494770861,-4.9715190207,0.1828891894,0.0710240378,0.4315909812,0.3868361493,-0.7989749098,0.1316993713,59.3181358469,0.2743962288,0.4503068923,9.8009590434,17.9322225711,13.4142056748,-13.8370378748,0.2160283404,-0.0028350213,-25.1990328404,238.0423859044,-0.0528026547,0.0651187094,-5.995090138,8.2122155977,0.2356657287,0.2433344312,0.3807381182,22.3293914309,19.0450801389,-0.0167943545,0.0770621378,0.0300558447,0.203046496,0.1330166325,0.1262561294,-86.7305266994,6.4844353938,2.2927352512,37.679178828,0.0763383416,0.3150399296,0.3657189033,-0.0419631143,0.2561194545,0.1008751296,-0.8081409657,0.1208640117,0.0528098042,0.1622501714,0.1523084885,0.3091163803,0.111885046,0.0005542117,0.2435853199,-0.0258618657,0.0599974343,0.2085127612,0.2626713272,0.1508508012,0.1799812807,0.3118117825,0.1493448666,0.1961965736,0.2925640185,-0.2132099506,-0.2289301336,0.1867453004,0.1645430282,0.1306335825,0.2175701864,-0.1493122296,0.0987399325,0.2688324685,0.2035664781,0.1383221686,0.069812572,0.2171380025,-0.1328081418,0.1034049243,0.0271755883,0.2504171119,0.3362873622,0.3909900051,0.3587619145,0.3688953207,0.2809946532,-0.0236542797,0.2235143344,0.062745836,0.2012622886,0.3548853547,0.2308939797,0.0287847389,0.1304627446,0.0564494256,0.0800694933,-1.8694472654,1.6926565725,0.0174342896,10.0248700304,0.2693849216,0.2849059906,17.2270091963,22.1593995536,0.3222190952,0.3222636927,0.9976337497,-0.0811106552,0.1108227486,0.0519823926,-0.0658733785,0.1317157159,-1.1441766267,0.1768266596,0.0836830059,0.9174961907,0.0363506692,0.3539334381,0.2510130259,-4.8350035198,0.1326912869,0.1570875506,0.1909944867,0.3420743745,0.2503461849,0.2317008709,0.1404705824,0.2936528368,0.0747448608,0.2781807849,-0.2475224319,-0.0917588204,0.4351113473,0.2901970905,0.1208323032,0.4203536064,0.0309035611,0.3790340624,-0.0536418561,0.4392073962,0.2052840881,0.1961089355,0.0857223886,0.0705672119,-0.0415843183,0.2148748236,0.1188707832,0.0707975114,0.2938723731,-0.3756749546,0.087607365,-0.0393725042,-0.0613122616,0.1718935297,0.0509134754,0.1779782932,0.2646577802,0.0813185361,0.0477671173,0.0661828924,0.2154483977,-0.1414973659,0.07838064,-0.0170809259,0.1855453769,0.1671594381,0.2879572653,0.1393424147,-0.032704023,0.118871351,-0.1138202051,0.1500070551,0.3144271047,0.2460687676,0.1041824903,0.156088563,0.0741585635,0.2989843693,0.1164506018,0.1529339653,0.3650301568,0.309909987,0.0892636084,0.0744560288,0.1687505689,0.1059402807,0.1707087122,0.2404442398,0.0597571162,0.0726496176,0.0253021171,-0.1185225699,0.2674239806,-0.0607499148,0.0060848905,0.3436020371,0.0953377876,0.3367569891,0.1690598176,0.0235061513,0.2484288398,0.3813025324,0.0675393096,-0.9148205698,0.1581764815,0.3715592521,0.1825737457,0.1295168299,0.1882404886,0.226109909,0.0450748335,0.3242501983,-0.0350024393,0.2437506582,-0.1076191331,0.1474497848,0.2273164138,0.0681757426,0.3300793699,-0.0914035462,0.001057964,0.2767746745,0.1867054981,0.2246517002,0.3683535918,0.1139874619,-0.000800145,0.0135302674,0.3467873774,0.3451755806,0.3631859501,-0.0071750709,-1.0653617853,-0.2777850585,0.2758421054,0.2356287257,-0.1229100094,0.2248273932,-0.0063070686,0.0523683811,0.2750033088,0.0314837813,0.2783854836,0.2847686019,0.1730441614,-1.1224307211,0.2342684912,0.3569130407,0.3553894352,0.1505596147,0.0724381915,0.2211319963,0.1318002931,0.1252544197,0.2050526777,0.3467120004,-0.2445671658,0.047300117,0.0557829285,-0.1013844328,-0.1323356376,0.4937958553,0.048359307,0.2038581818,0.1339641638,0.1280504567,-0.0823488636,0.0998834538,-0.1661626679,-0.0156910085,-0.1695398909,0.4496553108,-0.0806425945,-0.0865328519,0.2671459139,0.0827342354,0.1472485559,-0.0653786349,-0.1434143662,-0.0803759641,-0.0901551886,-0.1220083616,0.0811196513,0.2462201534,-0.1163977553,0.0799837334,0.0961036296,-0.4325082227,-0.1090500498,-0.1053493285,0.1790440539,0.1803850746,-0.0585265045,-0.0368735963,-0.007826193,-0.0821619424,-0.1301738594,0.031062593,-0.2899051191,-0.1595177504,0.3190229275,0.3987424278,0.2247394867,-2.2938137358,0.0394062224,0.3239483708,0.1288554586,0.268342073,-0.1450666957,0.5729526919,0.3180106953,0.164100156,0.3393058745,0.5108956272,0.1620205778,0.1520044553,0.5518294969,-0.6750043255,0.0579835095,0.2749554333,-0.2790824008,-1.8169421324,3.2666419433,0.1364683933,0.1048951683,0.3833163333,0.0452528085,-0.0036191373,0.3777394109,-2.0941218682,-0.0158439559,0.3080246799,0.3987885601,0.2782273276,0.3169041431,0.3335467197,0.0512082989,0.1959258165,-0.1034328212,0.391062091,0.1490456634,-0.0743549696,0.4249926675,0.406461827,0.2297832546,1.7973969911,0.3646831566,0.331073268,0.1153461952,0.1590691895,-0.0381201375,0.2125991132,-0.0126783055,0.0584366343,-0.8107459805,0.4241622946,-0.0829110837,0.1366941704,-1.2898363122,-0.3719344122,-0.0419305107,-0.0185589698,2.4884698083,0.3846521296,0.6408653398,0.0113983296,0.0024624255,0.3638619254,-0.03766486,0.1976213466,0.2682371151,0.1052607453,-0.2881503068,0.0977439698,0.1931011561,0.142416521,0.2242113238,0.3579436789,-0.0914585855,0.0776412208,-0.468611578,0.370210192,0.1063017546,0.0656897634,0.3505434757,0.476613216,0.1919913343,0.421779521,0.1033832786,0.2374037545,0.2802212658,0.0614138275,0.009619618,0.2278500622,0.051570847,0.3150037116,0.0794767503,0.320393464,0.3008055867,-0.0384366134,-0.085016193,0.2178709328,0.159433609,0.2864041741,0.0043160354,0.2190487827,0.1580042595,0.1428187621,0.1486645824,0.0652159322,0.299648982,-0.0133836771,0.2456195305,-0.8483236479,0.1961111521,-0.0070444272,0.1600466151,0.0882876667,0.2643902158,0.2647572318,0.1466480198,0.0789655383,0.0317143574,0.0614879626,0.173900647,0.2911355676,0.0547136269,0.40816569,0.1015947818,0.0017702787,0.0085430401,0.0648773528,-0.0134162368,0.4344176444,0.2766648697,0.3119813288,0.1726204721,0.0883712181,0.2498665051,0.4220738053,-0.0548970204,0.1882797967,-0.4139934229,-0.0324365521,0.2107820758,0.0988189718,0.1403088404,0.3339383339,-0.0517411547,0.1196990288,0.2851198077,0.297744274,0.1204127059,0.230478976,0.3346986536,-0.2035526224,0.0441308115,0.1517962849,0.2627981561,0.0469445034,0.1847672277,0.1965115734,0.0619218906,0.1217126453,0.1278473103,0.3355929022,0.2644915146,61.0421906302,0.194708529,-0.0614555622,0.2721516914,53.1889447079,52.2037815158,-0.0462340591,-0.3902538412,0.0138893589,0.6729053567,0.2978665111,0.3873445928,0.0353673275,0.9610904016,1.1522351965,0.2659506898,0.231039941,-40.7168475041,0.3632578879,0.0258846086,0.3856295482,36.7209334708,2.1093051733,51.4622525373,0.2701119872,0.0112837186,0.2698022345,0.1595535997,0.3098551533,0.1001905703,11.1118727519,0.1692704341,0.188326261,1.259175248,3.1904817575,0.2669631146,-0.0634015453,0.2707082827,0.1943021861,24.0048299247,0.2388947409,0.1272087959,0.0416461112,0.139580921,0.2322540494,0.2593106201,0.0811517211,0.1619387567,0.2925646451,0.0245521572,0.24340707,0.2097744169,0.1297623609,0.083434379,0.2792601236,0.0525332272,0.009559614,0.2802021162,0.3176754189,0.0837718664,-0.198831767,0.1211199296,0.0569377597,0.1532729692,0.1397451749,0.1904623632,0.3092244418,0.1952260209,0.0496032523,0.0129093749,0.3586783751,0.1195780148,-0.4649350013,0.3276705278,0.0928729131,0.0950442206,0.3497958131,0.3867742232,0.1556456676,0.0537597207,0.0368559716,0.0495610003,0.1307584804,-0.1422868415,-0.7338544221,0.2850515388,4.6400959441,0.0029669835,6.6983013632,0.0250448488,0.5760655326,-2.3254209577,0.0037448501,-0.1900977968,-1.6434182459,0.0354386482,0.2493804757,0.5959772769,0.0986804071,0.304779366,-0.4732324414,513.552586764,-0.1463082419,-0.1736677024,-1.2383437887,0.7148626044,0.7376317603,-6.9114643237,-0.0473410005,0.2301470149,-5.4011687888,-0.3906836245,-0.0000358457,0.2099412241,5.2808293811,-0.49639008,-0.2295203792,0.119776624,-0.0224031144,16.9766199365,110.3553752455,-0.0563962068,2.8911422194,1.7485484801,-0.5313239342,-0.1239847271,-0.2195515736,0.294178742,-1.1155373797,0.1743771108,12.2637829062,0.4820619514,0.122957501,-4.0059180494,0.6945301849,-15.6330517797,4.2853153377,0.0699778986,1.1939457545,16.1286737691,16.3429409738,0.1491893294,-0.1061475882,143.99498811,-7.8030963427,0.2535719963,0.1732808291,-2.0282712714,45.5177914951,0.8811700718,0.1456887241,0.2129574074,0.5934597723,-0.02474002,-0.0117528139,0.1956424417,-0.1436071934,-8.1811971028,0.1384884781,0.1205145366,0.1110537486,0.4784692713,0.2269558514,-0.0494820723,0.4162027699,-23.5299649459,0.1618231867,-0.1851966746,0.4077758293,0.3564199193,3.2662121849,-0.1573028453,0.6957234274,-7.4321438666,0.2019693663,-0.8799254843,0.7689036135,-12.1282842372,-2.2364096402,-0.1418926906,-1.319591427,-18.2373842194,9.0847834141,0.0197643699,-0.2869775752,11.5234529416,-0.112586065,-0.0573521864,0.1160919348,4.3542857499,-22.2131133894,-9.8271870297,0.0649215047,-0.1238861647,3.8903198641,-0.4863797674,-0.0226340474,0.5439952761,-5.8360269005,27.8890187535,-4.9286532535,0.1862966234,-0.7650746069,2.5006924879,0.2033587047,0.012829552,0.1029199321,0.9214256439,3.8770107491,-0.5374480713,0.1574255043,0.0818029844,0.0633711162,0.1107376837,0.3457663462,-0.0630893716,0.3687915899,0.2364223356,0.2927923722,-0.0021620731,-0.0356774856,0.2188907772,0.2171527959,0.2656426294,0.3495570073,0.0997332999,0.2869921361,0.0666722996,-0.2659767258,0.2437226715,0.1524000734,0.1699410016,0.1825020576,0.0613772009,0.1689117093,0.3236535804,0.2022191997,0.0105057166,0.0215670425,0.3147268901,-0.3230792591,0.1136136773,0.1644366108,0.0611671573,0.2740123096,0.2492548544,0.17784631,0.3306135369,0.3156828887,-0.0409888684,0.0262566889,0.1091536734,0.0583226241,0.2840543261,0.075918892,0.1706525891,-20.8200911338,0.170879787,0.1757101191,-45.3780248921,-2.5293818611,3.1659211719,14.7364771144,0.0353152986,-0.0953522644,2.8011036214,72.3459782686,0.1793067917,0.0136475888,-0.2797928418,4.9611512766,-0.0035334526,0.0024030158,9.5947552009,-0.3979005079,3.2129102147,0.282942968,0.0876741098,4.1486349335,0.0152046765,0.067185147,0.2263383534,-10.0043785544,0.8686073462,0.1740526342,7.7094417105,1.1487598903,0.1154678241,0.1301830702,0.1577691918,0.2886489232,6.3784991927,5.0108376519,-0.3471797215,0.2136281908,0.219879285,-0.6085451961,0.3588472522,-10.6851675364,-0.0654697316,0.3167309975,8.3686554427,0.3633493541,-12.3914190331,2.2103901427,0.0744510239,0.3558001941,16.9998147703,19.8704853961,0.2852227778,0.1424919377,-13.9401742986,60.8160394256,0.2064621609,0.3846964106,0.0198166798,-28.9524696369,23.5853210748,0.1029356069,0.2425884282,0.2683204481,0.1633005462,0.2284823385,0.0309670357,159.6626862794,21.233494762,0.2780727739,0.0730277343,-0.4967772016,0.0135305227,0.3045537116,0.3295248702,0.3758090511,-0.4106264902,0.2742086694,0.0170947076,-0.0094112048,0.2270065077,-0.1862463991,0.0015131104,-15.4023686706,0.0348807136,0.2400132761,-5.9554804025,1.1141344473,1.8547181087,-2.4335905193,-0.121656711,-0.1268032328,-12.8576368949,-1.7791357553,-0.0178419917,0.1872338818,13.2278817185,-1.9696423644,0.0410193429,0.183519121,-0.0272304228,-1.6144631828,9.2899068233,-0.0543869049,-0.1638301551,-0.1198569067,0.1244676337,0.1853773221,-0.0851497221,2.030732677,2.5693091569,0.7951811379,1.3341598205,0.4645632919,0.2200784253,0.026369721,-0.0028316661,0.1470759381,-4.1553853528,-0.0443659524,-0.5702259862,-6.4314300789,0.3421648415,0.3473588123,-0.1804376903,-0.6688917074,7.898740627,0.3108966401,1.5489385941,0.0870185601,-1.3664425251,1.6994515912,-0.113118417,-0.0925112363,-0.0507843762,-0.092346334,-0.1057736848,-0.1751971448,13.4394332071,-0.1266253972,-0.2199106958,-0.4514871282,-1.8315911162,0.0253714783,-11.0068288319,-0.201380377,-0.2443962339,0.0286919989,-0.2286364568,-0.3227907234,0.2014708072,-6.6373006408,0.0499030121,0.0621257176,0.2802383696,-0.0703076121,0.2458608677,0.2733867567,0.013475011,0.1477092746,-0.0698752661,0.291639228,-0.3474377449,-0.0427305292,0.3546807444,0.3438412166,0.0456818264,7.5766002041,0.1304663193,0.3124225136,0.1685284119,0.200201791,-0.970858138,0.148625625,0.1296856328,0.1719600265,-0.5512911085,0.1321599261,0.1901967906,-0.0172556541,1.0255034304,0.0426702527,0.0976231601,0.1866996038,0.1895259809,-0.2843285234,5.4172545879,0.3162174385,0.1299619744,-0.0044834106,0.1812125428,0.1989707451,0.1841616261,-0.5493838293,0.3408856742,0.0333449335,0.2154463199,0.457632638,0.0871682078,0.0139492728,0.1995553426,0.1600045944,0.0000548138,0.2164171457,0.0947127231,0.0571666324,0.3789062844,0.3797292161,0.1758109043,0.3546405283,-0.2788988817,0.2075633229,0.29786211,0.2438713902,0.0908266286,0.1054936653,0.2030320418,-0.0247512628,0.212146035,0.3097990705,0.1645729763,0.3168113757,-0.1114284961,-0.0583270198,0.2874959867,0.2031953218,0.0235937182,0.3633791783,-0.0451235558,0.1032943563,-0.028085201,0.1439730401,0.2822692995,-0.0409698789,0.0941245516,0.1906477281,0.3061891922,0.1367751128,0.2833882578,0.2557851407,0.3611060825,0.269273335,0.136082594,0.2645909182,0.0302087266,0.0606470979,0.3115105411,0.0199253941,0.4259099843,-0.213958984,0.0293180224,-5.8165935102,0.1862975702,0.2607020325,-2.5207204745,0.3382490178,-1.2666104705,0.0542374175,0.004501553,0.1235908701,-6.290447503,-2.2243358366,0.318143588,0.0518980955,-3.7173538262,2.6978329538,0.1909643462,0.1346198125,-0.0649885237,-2.9705405301,-6.0429857489,-0.0532816496,0.215638776,0.2709160471,0.3185044903,-0.0341026396,0.1461314901,12.77192599,-0.0140282918,0.354152898,0.3267657244,0.4730604739,0.1135297855,0.0645594859,0.1934353376,0.1378569601,-0.0670319778,0.244054246,0.0437190101,-0.1160151029,0.3662283874,0.1711027355,0.0990652769,0.0087515999,-0.0138220752,0.0348169411,0.3075524163,0.4493979296,-0.7859260213,0.206925574,0.2154302599,0.2678752164,1.6846352133,0.3163758797,0.0502766061,0.164732243,1.8972071185,-0.5806396077,0.0426533757,0.0607735129,-0.5117956182,0.342948856,-10.4029689455,0.0539879167,0.3490385692,0.4459824354,0.1744288013,0.1084919502,0.2029394381,-1.5274351746,0.3363226757,0.0382250323,0.3168230563,0.0458624246,0.2559964155,0.2200155966,-0.0159923992,0.130659798,-0.2934790753,0.3241178235,0.0575412073,-0.6822209457,0.0178797721,-0.0661533524,0.1118248635,-5.7472799473,5.0184780149,0.0372193155,-0.9176769161,0.2405866194,1.199758508,-6.3290230922,0.0890936202,-0.0434444127,5.1989566247,0.203911679,-0.0255811366,-0.4093379006,15.1848541895,-3.2020242364,-0.4546327776,-0.4444465983,-13.8765256075,-4.8258584273,-16.1081139263,-0.0011882364,0.2602679426,0.3288951871,-0.2149895341,-0.025607983,0.2943854622,8.2370582495,12.4152439169,-0.25404724,0.0563668034,0.1213190304,0.3683193638,0.2644742089,0.1793893102,0.1430236893,-0.9395381816,0.1758447652,-0.0494916747,7.663267979,0.0511566464,0.1685800733,0.3603066723,1.7587105948,0.1450227584,0.1007296515,0.4274271075,0.3683895821,-1.0466683787,4.3940568524,0.3524607001,0.1572413721,16.5164827533,6.3981919621,0.1533044423,0.3646617139,-2.2456597877,2.1684293701,0.3337144487,0.129253328,-0.3891262728,15.7874590029,11.9332622998,0.1384125692,0.3751159354,0.2781907419,0.2381958188,0.2203589921,0.1574550432,1.975415707,-1.3598079585,0.1674478071,0.0942532189,3.0556104614,0.1484455246,0.3177651633,0.2514470323,0.3119097988,4.6842224302,-0.0015538367,0.1484514488,0.3418150568,0.0944872481,0.152692627,-0.2088376922,8.812801409,0.0147446189,0.4018598434,-4.3032204378,0.0664396032,0.2155962564,7.2156471924,0.070825832,-0.1825461502,-0.0469419693,7.1820402227,-0.01438642,-0.0643135878,-6.5541833241,0.0807062606,-0.1589813693,-0.095221566,-4.5558868655,1.9550097269,7.2589378583,-0.00819557,-0.0092061297,-0.3892652886,0.1826705874,-0.0431456697,0.3363042113,-5.0834534877,-8.397544142,-0.1131537829,0.0973899438,-0.2472886359,0.1969557868,0.1879049707,0.0418034162,0.3267327281,-0.3040854885,0.1689213947,-0.4088438834,-163.5479226918,0.2873983026,0.0200827724,-0.2283308404,11.013208168,-93.3883660987,0.3347602395,-3.5662809412,0.3136628529,0.2028008239,-2.958571768,-0.0787256651,-0.0812784164,0.2111991623,0.2728263448,-0.1496244524,-0.167645381,142.9223976721,-1.4466622588,-0.3034420528,-0.2245916361,-0.1230296489,0.2398900735,-20.2332531308,0.0124472731,-0.2072680323,0.0880187745,-0.2973618517,-0.3834005666,0.287794853,-0.712370707,-0.1781948992,-0.307358494,0.1732195766,0.5394690876,0.2775159253,-0.0390793478,-0.2709737637,0.0126245492,-57.9828976287,-0.0388282353,-0.1612809735,-0.1182280265,0.2281999261,0.1484956698,0.2278804487,0.2468685116,-0.0616743883,0.2087305268,0.1458808411,0.0132542251,0.1685217598,0.1721380927,0.3026299212,0.2307303018,0.0398383729,0.0313410417,0.3604260938,0.243292414,-0.0662255057,-0.0070998441,0.0954121125,0.0949667555,-0.0435192966,0.2984838511,0.2608543807,0.0368413676,0.2684626853,0.3608452468,0.159821246,0.2826442093,0.2081086279,-0.2036415356,0.1238013596,0.1667572575,0.1774740075,0.185518851,0.1280182518,0.3060491038,0.2700952921,0.2860329715,0.1045027017,0.1809566163,0.0567533351,0.2750115413,0.2196138582,0.5744364395,0.3412079632,3.070431622,0.1521530357,0.2063564884,-0.094305973,0.3418894477,-0.2184801268,0.5054828656,0.1230318868,0.145724339,1.6597549433,0.2064087188,0.4679803735,0.3899836076,0.7361512422,1.4811749821,0.4644080763,0.1214930139,0.0849260214,0.8401468538,-3.4230826894,0.2859654236,0.1612149554,0.1574012679,0.4051512692,0.3437627049,0.2684199648,1.1067349343,0.2609517805,0.3658106705,0.3217367469,0.3274399574,0.0864935181,0.1407537237,0.1584900339,0.3427287116,0.147226221,0.2333856698,-0.3540614888,-0.0658790425,0.1178361619,-2.2095298536,0.3309118314,5.1681663856,-0.155863955,0.1331191054,-2.1665116925,-1.9154994809,5.3933376703,0.3501417537,0.1193004995,0.3383136678,-11.854959867,5.8499356371,0.40565199,0.0534849471,0.2035270182,9.5030308079,0.3685938502,0.1131627322,-0.0301519198,-2.7170226463,14.5894936174,0.1991249636,0.3136135539,0.333550434,0.1182192293,0.349833747,0.0159888532,-9.6549102234,0.3854846384,0.2747530996,0.4047503131,0.3514039171,0.193151134,0.0907344782,0.1234140259,0.2732540915,-0.0932450944,0.1983668362,-0.1553573421,-1.0823548766,0.1006353749,5.5885054286,0.1655512185,-10.9529932969,-3.1170808305,0.2894905857,14.239662962,0.1937259005,-10.5149212067,12.8589076276,0.0569354652,0.275753234,-5.2353896031,-62.4420329111,0.2968086613,-0.0497587868,21.8738947348,-33.2438773171,-0.0351289279,0.0190480193,-0.073594152,3.0491503456,-50.1401707139,0.1836075181,0.0627936291,0.4267948922,-0.0051314953,0.1156390058,0.4380819706,23.7489910728,9.550783371,0.006914025,0.2242738532,0.7880658152,0.0849512376,0.0768700086,0.1953240707,0.1731539423,-2.7928781563,0.0965732089,0.0098218838,-0.0460026107,0.3080288848,0.1475605146,0.0770285676,0.8673128213,-0.1599129846,0.162481139,0.3277645595,0.3874419264,0.1102222504,0.011149967,0.2249060097,0.0618755491,0.0815916019,0.3881613217,0.2800841812,0.2268256617,0.4931296883,-0.4728876306,0.0773739555,0.3216026307,-0.0093774176,0.1068408578,-0.300194857,-0.0275084247,0.2931114954,0.2016394013,0.0571802186,-0.0345503315,0.3864477213,-0.276234625,0.0124058454,0.0359397175,0.2879995401,0.3217819985,0.4214160207,0.1868973853,0.066203776,0.0955699009,-0.1163877929,0.3639416077,0.1346937972,-0.0050589764,0.3114586587,0.0240327851,0.3138376766,-0.5184127804,0.2331241508,0.1911015883,0.2524585955,0.1603775537,0.984385094,0.1335512832,0.0331100938,0.2059868291,0.1661583951,-2.7319616777,0.2808925763,0.3276321356,-0.2662276432,-0.4627601649,0.3543934745,0.0731308353,0.0676264362,0.327712168,0.6119789684,0.0178232918,0.0324086701,0.1758896491,0.353926744,0.3382863325,0.1382643678,0.974396283,0.2305915341,0.3629217162,0.0189863565,0.2049524167,0.1115630815,0.300057363,0.1570684166,0.2254038512,0.0310141833,0.3694113868,0.2216606675,-0.0606176464,0.0680469646,0.1393800584,0.0596895946,0.3231453895,0.115342344,0.2542507596,0.0049900408,0.2955544947,0.3502681518,0.2363526069,0.3639176661,0.363208472,0.1229552152,0.1816715672,0.0980985998,0.1968536115,-0.1502165767,-0.098835506,0.3502671692,0.2351478753,-0.0071551919,0.3524575221,-0.0491370559,0.1426800866,0.3605104889,0.3006499598,0.0143079609,0.1043309202,0.0732542521,0.2093444957,0.1731670315,0.1258410923,0.1196824856,-0.0013291119,0.1220237033,0.1118090502,-0.0085471528,0.3686059243,-0.1197366749,0.144699009,-0.0265533032,-0.0105308505,0.2149286767,0.2621578043,0.1354668041,-7.0486220953,0.3139300979,0.4109275062,-0.283658969,0.097824145,-4.642194873,0.4861279106,0.1948489249,0.0408383061,1.092036774,0.6776406619,0.2675556461,-0.0041886781,-1.0751088991,0.2870721163,-0.0478045235,0.1125494483,-0.0458038727,4.1806214703,-7.7855393165,0.2555524034,0.0855006961,0.4414012676,0.1528792087,0.2245083822,0.1305457597,-13.6133287099,0.2929197064,0.126480411,0.1473049101,0.294493529,0.2374575348,0.1050813363,0.2868529105,0.2068499429,0.6060273345,0.2037388112,0.1304366164,0.3164710726,0.344416912,0.5522586884,0.128577058,-1.6062963177,0.2492883055,0.4354442151,-9.1599092292,-4.1754668453,0.0856977388,0.4277298075,0.2532134254,0.1650938078,3.3672454694,567.3836754056,0.2261812032,0.0967442456,0.2266514041,4.4070740824,0.1662811316,0.1818936238,0.3096024304,-0.3402471835,-189.3575797394,0.3735604859,0.0725899894,0.4343087697,0.0510191486,0.0950054287,0.414472571,1.3507090619,-4.9177670988,0.3039466346,13.3266324863,2.2703466173,0.2290770938,0.3400626414,0.1159550835,0.3290623645,0.1521235578,0.460578257,-0.4720931161,-0.0802684659,0.270440057,0.2779137164,0.1535411445,0.7643094572,-0.1796555591,0.3681102931,0.2810458855,0.2742472049,0.1541001764,0.0601992915,0.0828362461,0.1287458565,-0.1574046808,0.2724938727,0.0593396656,-0.0118942274,0.3194752399,-0.3208748138,0.3081533596,0.0067272531,-0.2307323419,0.4018981246,0.0173704059,0.3087868146,0.0018752433,0.3305543359,-0.0514440664,0.27261365,0.2310863274,-0.2103004848,-0.0340071888,0.0490671995,0.2803641713,0.2230570405,0.1855657154,0.2589120942,0.3165998748,0.3651520206,-0.112112506,0.0915441706,0.0095106876,0.183124768,0.1096776417,-0.0596311922,0.1141004093,-0.1493095851,-0.0593463842,-0.122960379,0.1545130318,-0.127769454,0.0156448415,-0.0335022835,0.1442336488,0.4004681176,0.4235675291,0.1568122918,0.0392381381,0.1565453356,-0.3812728006,-0.0447524132,-0.0519702792,-0.3396184677,-0.0797081527,-0.0233034214,-0.2952922277,-0.2592675417,-0.1476787418,0.2968048054,0.0385351092,-0.0442676156,-0.0113707079,-0.0320336118,-0.3134759264,-0.1037945984,0.0499076437,-0.2013322429,-0.1216872482,-0.2398928313,-0.2750607744,-0.2093982267,-0.3513170433,0.2228234311,-0.0260782523,0.0372520684,0.0647474285,0.3715828815,0.2075496436,0.3370658303,-0.2650017435,0.008813288,-0.103569878,0.1940094664,-0.1015061482,0.0880748427,0.1571626551,0.1310650843,0.0369056717,0.3377741,-0.0318798802,0.1698513994,0.0573657776,-0.0809042894,0.3015359995,0.0291463521,0.2097610826,0.4904277539,-0.1761548956,-0.2611745297,-0.3098201726,0.1340980873,0.2612419058,-0.0574995509,0.0617960052,0.2001818444,0.3921833316,0.1313971088,0.2906408663,0.4896625205,0.1405275591,-2.091558281,0.0829462619,0.2727770517,-0.0050834346,-0.0990890259,-0.1829435879,-0.2573748526,-0.2272287725,0.2919685974,0.2008451564,0.2396916131,0.0323421464,0.3919876235,0.0940501747,0.2210907426,-0.0591309941,0.4585288288,0.0508527691,0.0191879113,-0.1568284461,-0.0101256265,-0.1633910073,0.0363677573,-0.18013666,-0.0095106575,-0.2334553185,-0.347635015,-0.1710770917,0.1612284528,-0.0242382009,0.2841353888,-0.0256522277,0.3015721822,-0.4783240138,-0.2225961264,-0.1361083127,0.3720493061,-0.252745063,0.0613927954,-0.2014208005,-0.3624263826,0.0595563137,0.1558605284,-0.9409188488,0.3311703753,0.2501750561,0.4130728982,0.4599040867,0.115660957,0.2116169951,-0.2369000517,-0.0345386723,-0.2316558507,0.0698584917,-0.3343540145,-0.2377126963,-0.0810300064,-0.345987072,-0.0274850949,-0.1388717593,0.1938457293,0.9134723235,0.2153403779,0.864009025,0.2397925543,-1.0003673551,1.0265006751,0.1962004287,0.4430883543,0.6132653801,-0.6376334194,1.4106294173,2.2821172644,-0.9180299386,-0.4607049602,-0.7261352092,-2.2191740825,-1.0937406476,-0.2502581821,-2.2948349253,-0.002907099,0.6157506866,-0.6339636149,-0.0594649712,-0.166902346,0.1294590666,-0.0351838963,-0.3900619874,-0.1653684547,0.0156370143,-0.0117762539,0.4327007357,0.0886036022,0.1574788487,0.2442699567,0.4070274769,0.2087863784,0.1158167321,-0.0651958239,0.1216933774,0.0287313721,0.0296838932,0.2437422889,0.1054047415,-0.0364293746,0.0750607027,-0.0366357534,0.1379020604,-0.2449368489,0.1696658451,0.123821816,-0.0867668265,0.2020457712,0.4443102929,0.1198905308,0.0042241975,0.2472681647,0.0518985185,0.0190655114,0.0635461445,0.1801222167,0.0010197682,-0.1726118545,-0.0885722491,-0.1207839374,0.0811985539,0.0504563861,-0.0473484751,0.4198538515,0.2980495361,-0.0606008998,0.4600113563,-0.2301781458,0.0806883204,-0.0611172665,0.137219702,0.0237259265,-0.0634600804,0.060804934,-0.079269455,-0.3387584756,-0.7438216225,0.2591613157,0.2857039751,0.2507555751,0.0852267307,0.1604104027,-0.3181409011,0.0972299981,0.12715381,0.0280099089,-0.2473710176,0.0355174496,-0.2347564733,-0.2796607458,0.0412058942,0.3074564896,-0.0090009541,0.2703358193,0.259077366,0.276845101,-0.2905305671,-0.0634028094,0.2183222133,0.0059905768,-0.2016099383,0.0068862044,0.0994240968,0.0457199117,0.2103663375,0.2110523334,0.1051107346,0.0878775713,0.0244102339,0.0735846855,0.1324696089,0.1946315924,0.2849233808,0.0367703776,0.3028700304,-0.1081314858,0.1617351561,0.2423850296,0.1892094915,-0.0606309802,0.3370174305,0.2645290618,-0.0975301358,-0.1657269802,-0.1855608618,0.0393952717,-0.0655620212,0.0369070696,0.1492446695,-0.5092027086,-0.0161688978,-0.3372589629,0.0273092721,-0.0100468137,-0.0643916557,-0.3799750217,-0.2369244097,-0.3454328087,-0.0498551035,0.2247473529,0.2124372264, 0.096852309,0.2757094743,0.1954208563,0.061336281,0.1726155848,-0.0615114773,-0.0924269399,-0.1866332958,0.3339393224,0.2149302561,-0.051618778,0.3139787489,0.0700224796,0.2970502176,0.2756649572,0.0271187506,0.2830161436,0.2282006586,0.2387787997,-0.7391546335,0.0339419712,-0.039323306,0.1807189835,-0.1873604049,-0.1177741184,-0.0211747358,0.2949711221,0.2985122189,-0.0544013314,0.0079116834,0.0458871169,-0.0845810949,0.2888467931,0.2086491153,0.211091386,0.2216485687,0.0973959925,0.0974535397,0.0161247554,-0.0804948246,0.0839348399,0.0241794056,-0.0831504536,-0.0051920798,0.2350988252,0.2423146607,0.1207798392,0.3365075967,0.0941464185,0.1112857359,0.064377284,0.1588333995,-0.2877483788,0.3064079517,-0.0152836359,0.0881192089,0.0132804568,0.2796252379,-0.1198065188,0.105665241,0.1609917735,0.014800403,-0.2963407085,0.1432524245,-0.2751588834,0.051377797,0.3038658668,0.0549081829,0.2483615508,0.1101615138,0.1126226119,-0.103951857,0.0156231793,-0.2265737897,-0.0551966183,0.0630041766,-0.207322167,0.0893617345,0.2262445803,0.3754209063,0.2464710882,0.363693701,0.0817622617,-0.3953575049,0.2698274341,0.3853424373,0.8583516178,-0.0329657197,-0.7647112061,-0.0118100679,-0.3555423546,-0.4636855541,-0.2383806529,0.1734306162,0.2031675263,-0.0086031892,-0.0013971825,0.2763111063,0.0366698913,-0.0996268332,0.2104901389,0.0816846484,0.1175122816,0.0025238195,-0.1026985569,-0.0152651869,0.0248935928,0.0766229465,-1.7087356379,2.6458266783,0.2506416837,-0.2702108473,0.0455504349,-0.1748395104,0.1124859644,0.4380267934,0.1336032304,0.0339958982,-0.0669269281,0.1290066656,0.1335900755,0.1098068322,0.0067055204,0.2691065607,0.0107750444,-0.0799824564,0.1504862529,-0.0023468326,0.001448215,0.0215269828,0.1429318673,0.3548866146,-0.2312186875,0.0447794529,-0.2516944793,-0.3551124188,0.0502531896,-0.1681165636,-0.1271649258,-0.2876474173,-0.2389322377,0.3379189639,0.1298815823,0.2444842485,0.1118550404,0.3299350363,0.3027000078,-0.4838073341,0.1366377129,0.0112330708,-0.0130063086,0.2498237047,0.2255490525,0.0937660026,0.0057322194,-0.0817711407,-0.1733272132,0.2171731765,-0.1067537946,0.1287149473,-0.0625080977,0.1665436074,0.07670934,0.2529059853,0.0852568443,0.0660381267,-0.0543518543,-0.1371928353,0.2124708507,0.3642504107,-0.0431021272,-0.0863400495,0.2361793447,0.0103111789,-0.0097633119,0.1896780764,-0.0363967005,-0.072328557,-0.0307543481,0.3883851809,-0.3074101852,-0.13056111,-0.2534714077,0.0080073136,-0.0911985397,-0.1817942995,0.0380246509,-0.0159793425,-0.1561213249,-0.2080226842,0.3436690242,0.0995430897,0.3325191452,-0.0403509592,0.0540797633,-0.4241605396,0.0005750757,0.00339661,-0.1129157677,-0.5418628867,-0.2061258054,-0.2977034031,0.2182570524,-0.0332685666,0.407411635,0.0785183493,0.1926046106,0.321952869,0.1323324583,-0.0328645516,0.3598493158,-0.1842556698,0.1413381358,0.1332291977,-0.0194796957,-0.3613403341,0.2840279031,0.2516162992,0.2190629504,-0.5547486427,0.1334414262,-0.0323224527,0.0659586087,-0.0646643186,-0.1955792828,0.1054165846,0.2104708747,0.1424273068,0.2749827316,-0.1480664762,-0.0785011066,0.0662334225,0.1609052534,0.2187041429,0.0182452452,0.0954806156,0.2990026136,-0.0120856849,-0.297098305,-0.1350298243,-0.1956091405,0.0559993333,0.3121492079,0.2323741211,0.2124497883,-0.1783338539,0.4780208723,0.0867370821,-0.2007947436,0.3631242038,0.2063905557,-0.2575605488,-0.307779953,0.026622511,0.1789481767,1.595410537,-0.0556807956,-2.6763697856,3.3459055471,-2.078311637,0.2943106406,0.1053665995,0.0332951952,0.105621533,-0.0806754332,0.0667141524,-0.3809927118,-0.0821402929,-3.2684167525,4.3642412446,-0.0301691725,-0.2445208999,0.1944611636,-0.2168053495,0.1493950595,0.2915847194,-0.1636188303,0.0471685815,-0.284023073,-0.2074094256,0.0748579582,-0.1543591813,-0.1088613847,-0.3106559266,-0.0002877754,-0.0448391756,0.4023830002,0.1263687372,0.2052623768,-0.0413752177,0.3172962906,-0.3806612214,-0.0654787143,-0.2758910071,-0.1653203992,-0.2639967368,-0.0206705747,-0.2140913286,0.0397880197,-0.0686411495,-0.2490437563,0.0378639011,0.322681789,-0.0355509384,0.359041781,-0.0125427689,0.2189171184,-0.4629175996,0.0486998334,0.1252542809,-0.0648507659,0.1591516513,0.2577476822,0.2603013417,0.2395674708,0.0514100631,0.0266955797,-0.0345579324,-0.0997248373,-0.0868717523,0.1373968775,-0.207248899,0.0179779091,0.3738962883,-0.1581262635,-0.0581242962,-0.296528591,0.0522954193,-0.2908531964,-0.2649228745,-0.3368593714,-0.2811676412,-0.2393330247,0.0214838701,-0.0364405289,0.3800225947,0.0638483171,0.1831938195,0.1951126349,-0.2995268826,-0.5025806276,-0.4329352691,-0.0435116836,-0.2734798948,-1.4140338705,-0.2346326428,-2.1775292525,0.0412602852,0.133770649,-0.4924932689,0.4199557349,-1.0756257076,0.7645484841,0.4858501192,1.0345325173,0.0267407994,-0.2019969198,-0.3645307465,0.0312399787,-0.3350108169,-0.2741534085,-0.0807528187,-0.0002491464,-0.2115352252,-0.2808592816,0.226610587,0.2065849869,0.1851677154,0.3493709167,0.1831267882,0.007061303,-0.3719084879
biasActivation=1,1,1,1
[BASIC:ACTIVATION]
"ActivationTANH"
"ActivationTANH"
"ActivationTANH"
"ActivationTANH"
