encog,BasicNetwork,java,3.1.0,1,1384056528669
[BASIC]
[BASIC:PARAMS]
[BASIC:NETWORK]
beginTraining=0
connectionLimit=0
contextTargetOffset=0,0,0,0
contextTargetSize=0,0,0,0
endTraining=3
hasContext=f
inputCount=15
layerCounts=2,42,42,16
layerFeedCounts=1,41,41,15
layerContextCount=0,0,0,0
layerIndex=0,2,44,86
output=0.876135017,1,1,0.9681940687,0.9999999978,-1,1,0.7858739169,1,0.9999999759,1,0.995958773,0.9999789107,0.9999807352,1,0.9999999915,1,1,-1,1,0.9998363297,1,-0.9698025153,0.9777421955,0.9951800354,0.8569798055,0.9995231752,0.6032620823,0.9999999649,1,0.9999999799,0.999999982,0.9999999982,0.9999994659,-0.8916248949,-0.9998032877,0.9999992787,1,0.929550041,0.9082599798,-0.9999999284,0.9999998934,0.9999999979,1,0.3515907504,0.9915044932,0.5034953121,0.9803271373,0.8334067433,0.98799924,0.7745344566,0.5950998672,0.9583668089,0.9971389774,0.999999568,0.9739647205,0.9977754994,-0.6368322084,0.781340298,0.8823198917,0.9887945916,0.9926371134,0.8193066507,0.9995641191,0.8074970026,0.9286839456,0.9999765732,0.9999997991,0.6435442505,0.9640016636,0.9995507665,0.8900759985,0.7711839129,0.98929168,0.9843615799,0.9733758486,0.9457392848,0.9999986802,0.8599162519,0.9607301532,0.9997773508,0.6335911382,0.4501965248,0.9199504503,0.999999749,1,0.6351557907,0.6586713698,0.6586713698,0.6586713698,0.7527336861,0.7527336861,0.7527336861,0.7174603175,0.7409758965,0.8232804233,0.8232804233,0.8232804233,0.8232804233,0.8232804233,0.9996472663,1
outputCount=1
weightIndex=0,42,1764,2420
weights=0.0414044178,0.0926250503,0.0360994387,-0.0233536251,-0.0434711489,0.0758099899,0.0893089423,0.1116028305,-0.1239718666,0.0596518713,0.1008331194,-0.0537152847,-0.0300655893,0.0565710411,-0.0627536063,-0.0307981567,0.0481590279,-0.0261673046,0.0927689471,-0.0261417137,0.0420375888,0.1431417425,0.0858404645,0.0928617749,0.103837083,0.1224833727,0.1084371981,-0.0349953912,-0.0439367908,-0.0733483809,0.1016276248,0.0922975746,-0.1201225629,0.0305316799,0.0722987341,-0.0247337978,0.1690865012,0.1097695667,0.0520376026,0.1045313987,0.0535299392,-0.0354555689,-20.9823175055,0.0891581186,-0.1364013973,-0.3968515007,0.4182594453,0.4913328153,3.1405434707,-71.7362685143,0.187474808,0.5056025704,0.2162480476,0.2260822097,0.054134266,22.3580226859,4.6067453948,0.1841620055,0.2046579276,1.1451352425,4.6038509696,-0.4100749724,0.4493567262,1.2732722403,0.3451291085,1.8443650328,18.7021238908,0.0524707484,0.0112079778,1.6526542494,0.2673848885,0.2950079317,0.19470559,0.1922229482,0.3763516235,0.0122791684,5.7743905558,0.4230439686,-0.4966481116,105.3325306679,0.1896336462,1.4804941292,-7.241531801,-0.7109278295,0.2905015685,0.2860194595,-2.0154081672,-0.3026987527,0.2057540276,0.3402476133,1.3049780165,0.5040196517,0.5335433507,-0.7491369616,0.0089214309,0.2429198448,0.1579382756,-0.1561787969,0.258345452,-1.844675648,0.3011762576,0.0924785499,0.3063992379,0.2681119273,0.0431795769,0.3508752091,0.1165297212,0.1340774632,-0.9564679075,0.1580702526,0.0051230836,0.1427780048,0.2188410825,0.0469670716,0.1103724017,0.101900592,0.0527602882,0.191765742,0.002706305,0.0035559013,-0.1837433482,0.345340653,0.1597691096,0.2424056068,0.1576295066,-0.0182601096,3.3602128583,0.1340201841,2.7467480946,-0.8492790935,0.1901520683,0.3798582362,-1.0685568095,-0.2856911907,0.126652663,0.0723955739,0.0916014451,-0.0255348191,-0.1212864361,-0.1092193275,10.8878241228,0.1802362608,-0.1643067931,0.0755206609,1.2180217232,-0.1081667154,-0.0222551127,0.232720255,0.1325955144,0.4020082817,3.7870905067,0.0899082682,-0.1102893453,-1.4427741125,0.600410062,0.1254594597,-0.1143067549,-0.0029544362,0.2208672775,0.1246494155,-0.6187583486,0.3147479862,-0.6394145904,-0.1199251602,0.4663469498,-2.9987466948,0.1048187694,-0.0416989428,-20.5801445705,0.1509684617,14.4687692341,-0.8323587515,-0.9630303119,0.3828154313,-46.6088392612,0.4234432748,-22.4801186615,0.1839261468,0.0977700857,-0.0652279833,0.0358854227,-30.2670555002,-11.5840723254,0.1635384621,-0.0331810856,-4.2138533863,-1.8227981848,-1.9869543297,0.2469164496,25.5351254404,-2.4553862707,0.1377046795,-39.3843700878,0.1871856628,-0.0357342118,0.9310357413,-6.9313374122,-4.5688641347,-0.047724762,0.1543387773,-1.0715636563,-16.8327348611,1.9922427796,0.0340928259,-0.6715318736,0.3988151128,-14.9008029218,0.6505124439,-0.8332832506,-0.3059065662,11.7184432009,0.2132642707,-3.593743503,-0.5584107605,-0.1290750211,0.2293739319,2.1832971889,-0.1105196313,14.5447174264,0.4301519078,0.162441626,0.080625869,-0.1022737284,-1.0056150329,0.8982151403,1.3595539679,0.0532732378,-1.2927407604,2.2643665623,-0.0908751361,-0.0854182331,3.6880034109,0.4700886634,0.0012966173,2.6308968268,-0.0908080681,0.6076883214,0.4638136105,0.1911293639,0.2247188871,0.1644679431,0.0203018147,-4.6631449564,3.4198659804,2.958827276,0.2336897521,-0.3888407623,0.2377672569,0.1906648148,3.093922435,2.1540666144,-0.2066571751,-3.1057877747,0.1889139327,0.5607945237,0.1853222672,0.1869495887,0.1613816807,1.138754233,0.4306633959,0.0805846192,-0.4999893998,0.3162796729,0.3182797774,0.1326175027,2.7064335283,0.1194701601,-0.2982508064,0.3538606728,0.3268240551,0.0499861131,0.2101899125,1.0609407802,0.1551142022,1.8244385755,-0.3316015325,-4.5535516619,0.1578470425,0.4231602016,0.2231981547,0.3979052278,0.2234775724,0.0794201142,0.0711967429,-0.176586695,1.661574986,-1.2557534426,-2.3990827744,-0.0298665121,0.1670313546,0.276581167,0.2540177384,1.1536138847,-0.0316492405,8.5720840977,0.1364212671,2.6170498295,-0.4574523561,-0.6440462119,0.0868201606,10.6262627141,-0.0949094723,0.2410683368,0.1823659626,-0.0517247593,-0.0769237605,-0.0076161447,-3.4549495031,-16.8379127475,0.1260861893,-0.1496956835,-0.0285699385,0.2447027771,-0.4546055107,-0.0976393288,0.1372352221,-0.0785418583,0.0094462303,-7.1370905035,-0.1449038472,0.0081382073,0.192605166,-1.2334585398,-0.1233528869,0.1438809476,-0.1705342858,0.3429907827,-10.3559438957,-5.5457744458,0.0127098978,-0.4571379069,134.2122255355,-1.51604445,-2.203594379,-1.4300334772,-0.0629030711,-0.9253735441,-0.0882697578,0.0179276821,-1.3320708136,-0.554197386,0.0249745789,1.5579129453,-2.8857565199,0.1510542834,0.1374208186,-0.1053686686,-0.2081401862,-0.315337112,-9.9793956347,0.0513140311,0.3592518449,-0.334354723,-0.2013482041,0.1610843685,-0.3572006658,-0.254519736,0.4684307979,-0.2188031941,-0.4975897795,13.0508703651,-0.2519971287,-0.1510052956,0.3539994517,0.1568325252,-0.0817970342,-0.4832941296,-0.0840661654,0.0412202177,-5.9366762135,-1.1598893298,0.5776656182,-1.2261080685,14.6645976754,-0.0954297723,0.4233296295,-0.250403781,-2.9776840889,-3.8296659215,-0.0577250195,0.2804686297,0.1201254333,0.4336736745,-2.1541802047,11.4429064261,2.7250184411,0.4875867368,0.2789220069,-0.2495824067,-0.3541414094,-0.0653636876,4.1965197675,-1.9238022613,0.4548367163,-0.0402189512,0.6546750076,1.026759068,0.0893910267,-0.7881782899,0.4099615852,2.2271577739,-4.7525945448,-1.1694162144,0.1951329745,0.0318689019,0.4008396618,4.0412305419,0.084853139,-0.1481732581,-0.0700711238,0.2292685565,-5.0291068255,-4.2048245307,0.2703462342,0.0443613665,67.3739353931,0.7838925267,0.329251702,0.9823647838,-0.3012417946,-2.5487109912,0.2436001502,0.244632721,0.1096175823,0.0016408952,0.2473366793,-2.8434620359,0.0352354687,0.3287372421,0.3114831475,-0.2191211679,0.0490584283,-0.0982075092,1.009124012,0.5033291889,0.1792205725,0.2824491912,-0.040230884,0.5126357443,-0.2662912617,-0.0684816781,0.4737423882,-0.328941464,0.8242709067,2.218799029,-0.1890128645,-0.0684876643,0.8270082376,0.8748881621,-0.0703322851,-0.2431354092,-0.2289480318,0.1560745445,0.7439865072,1.1675329995,0.0445471536,-0.2673139595,0.1629239867,-0.0722958322,0.6177201421,-0.1468722004,-0.296947187,-3.4731234901,0.1158215358,-0.2139116889,0.0028276642,0.3745548639,0.0313186832,-1.515242556,0.3633181077,0.2177910542,-0.2244920482,0.4916750409,0.175647791,0.1933064302,1.22029648,0.1886511191,0.2608023885,0.3691750142,0.1940600382,0.3312047947,0.2030139792,0.5706204771,0.1366941567,0.2704093498,0.1609739405,3.1315847733,0.2254712482,0.0165593012,0.2799880338,0.3021667954,0.647292366,0.2734847554,0.1357433802,0.1900914078,0.4158606495,-0.5977005996,-0.4511005756,-0.0535110635,0.7958221066,1.5296666549,0.6535768106,0.0677660768,-0.1663217375,0.2685496734,-0.13067213,-0.0651835189,0.1397261526,0.0499563694,-0.0607142151,4.3949869259,-0.0303039857,0.150845786,0.3571557915,0.1576576209,-0.0508109792,-0.1485819898,0.3920779094,0.216093531,0.4004460359,-0.0277329963,-0.1653186045,-0.2544440198,0.1544658322,0.1329710855,-0.1686225251,-0.5502117682,0.2250679012,1.6615353479,-0.1527238285,-0.0653717502,0.4317098054,-0.5761240634,0.1553949357,0.1422737104,-0.0278625076,-0.0626333128,0.5320018659,-0.3280842166,0.0432813226,0.2899684642,0.5104913231,0.1136873205,0.2974595053,0.1296998591,-0.1380803973,-19.7869286921,-0.001415596,-6.7537618845,0.0849369487,-0.1181575687,-0.2690504154,12.4286993684,-0.0469342482,0.4496395113,0.7239678835,0.8716995028,1.0915762006,-0.0961063139,-2.6051358405,109.7998407065,0.242735166,0.1176909398,-0.1559083497,55.7757035803,0.3366497827,-1.0445942557,0.4031349687,2.1738709684,0.560461143,48.0917341432,0.0568403377,0.7876679287,14.5930164949,37.8066917031,1.162585433,-0.0282451534,0.1027038963,2.6736299648,6.7892321115,1.1852186524,1.2271636601,0.1218423046,14.8436368476,0.5008891517,12.2044484703,2.5803789337,0.2631550948,-1.7748219819,0.1698730768,-1.5289552733,-0.0735724807,0.0734299429,0.1767935769,0.1391385635,-0.0096133304,0.344426345,-0.5330845228,0.2707796273,0.0241972201,0.2033209466,5.9871963374,0.7445718946,0.9379226651,0.075801214,0.5511643936,0.0551873317,0.0097828547,1.6374931619,0.2470857425,5.9095500814,-1.0474320112,-2.0713857175,0.0650113527,0.2668258752,0.1132333164,1.7435236657,0.3017031603,0.0212479096,0.2372199112,-0.6354949272,-1.3708196213,4.9288744167,2.5238992779,0.0307735169,0.1762517167,0.0193618557,0.2251786142,-0.389297502,-0.0368628915,10.4217770674,0.1584090123,-0.4808248677,-0.0651471749,0.0670602892,2.3577934294,8.6872908774,-0.6168567093,0.2588371209,1.9476404992,0.8881547817,-0.0790337674,0.1060310383,-11.7202552322,0.4131734165,0.5903307443,0.2086706287,-1.1961656727,0.4252711449,-6.9718147738,1.2672981249,0.234015834,9.7644594866,0.2329856026,0.9162111865,0.3634351315,-0.0331132365,0.2924114196,0.5964732651,-0.5638676616,0.1545007478,-0.0039373546,0.1542706873,0.1911983535,1.3002003322,0.5402104676,-0.604582005,0.1716215331,0.0780242286,0.3723268562,2.2781144375,-0.4646374497,22.5566574851,-0.0136534884,11.2412294296,-0.2120034117,-0.0031785098,0.1876875617,-16.9231627557,-7.6476153567,0.3636616762,0.2376791696,-0.3573027139,0.1805772386,0.1312582594,-15.6435203223,132.1533461335,0.4748741478,0.0006283761,-1.1669940232,1.9291192739,-0.1287921304,0.2169111478,5.0215989582,0.2017882714,5.6963131895,94.0442020638,0.2237315315,-0.0571039906,1.0069545443,-7.9196391581,17.4476619175,-0.0137879253,0.2936064031,0.4195811395,-7.8793814892,0.1522881381,0.3713969223,-0.2746523527,378.9271908191,-1.2499170387,-17.9375861836,-1.6955565141,-0.1866970963,-1.9968849016,0.0123843374,-19.5342609068,-0.3395891435,0.0170563362,16.6097774885,-3.2046881806,-79.4748051252,-0.3955435719,21.6943638502,0.066971314,-0.1409779808,-0.0893059303,9.0105504889,4.2080341728,0.019898292,0.0030058846,-6.7492509154,2.135189353,-0.5497856953,0.0882700887,0.7662370074,0.2734030572,-7.4867253198,19.7879123846,-0.1305118913,0.1318608368,-0.8342917142,-1.2468493689,0.0281040111,-0.1218586707,-0.1546629475,0.4951547947,0.1995185732,1.6619892784,-19.6330259209,-0.3869007582,5.8670736713,0.1091015482,3.8505002129,2.4249155497,-0.2267128746,-5.0470292005,-0.0663822679,-9.1896637777,0.3705551476,0.2392575585,24.4424090695,-14.1958174783,0.2946341227,0.2732764653,-11.3308549722,0.1896127396,0.0100093761,0.1319885254,-4.5605607071,0.4677096182,0.3942883319,0.1000236501,1.3639464265,0.1885917205,6.394045063,0.7060534677,0.3485960326,0.9166186657,0.1238829916,-7.2679325822,-0.0766081197,0.131274987,0.166333513,0.4418783166,-0.2765337226,0.2038520908,-0.0917160081,0.2084427604,1.6339639902,1.5476101345,4.1881072382,0.1880966829,0.1375556952,1.2158597686,0.1962942908,2.1587879056,-0.1931942256,7.5715488204,0.0562592925,0.1278617492,-0.6459141486,-0.0670411218,0.1119705049,-4.9135807969,-0.4562561376,0.3828828307,0.2846204845,-0.1508136181,0.1406102337,0.1874597842,7.6472841254,-0.1707631357,0.0323651562,-0.0408945186,1.2598218537,0.8553316453,-0.4469900444,-6.140285227,-1.6404961305,0.1484515772,0.0700304053,-1.3667925341,0.1562316891,-0.1170648501,0.166488911,1.7800759749,0.1735581109,-0.0785374551,0.1813447884,0.0995782558,1.5537700696,4.4516019881,0.0454372664,-0.5316578737,11.6286402378,4.8186269296,0.3267711537,0.0940583793,-0.3367362437,2.7613311018,0.2799295094,-13.0687901265,-0.2353924507,0.0431263723,-1.1652724648,-33.2896235802,0.1481979892,-17.7299194486,-3.2998240049,-0.0319953242,0.1733895252,0.1491915229,-20.7920765001,14.4224647979,42.1821232743,0.190706439,2.8485533023,4.2051221001,0.0650490029,0.6413411284,133.0323345566,-1.6671724891,0.154856922,-4.362751635,0.1863212859,0.7919710385,0.1448411382,44.1479310632,1.3108756573,0.2453373333,-0.0074720606,93.464100554,-9.9875819121,3.6977243127,7.9203551406,-0.0766781819,0.4117933813,-1.4562097594,-43.8743378772,1.6902164299,0.1869857458,2.7427227523,-0.1458050693,1.4369385421,-0.4432410812,-0.0138090585,0.3041751106,-10.0023198626,-0.2356492851,0.5909185456,0.1557058303,-0.0514959253,0.1453749677,-0.121574478,-0.2080065522,-3.7587017585,0.3864640365,-0.1433173558,0.4803908708,4.3276049411,-0.6514968087,0.3371510335,0.1823827236,0.1080904207,-0.1282396495,-5.9830836262,0.0689528439,-0.1405150207,3.3992676488,5.3541038965,-0.2572274867,-0.0311631423,0.1167064632,0.6957823282,-3.045070718,-0.1333460983,0.1713905336,-0.5282803607,6.6557212991,-5.1622634715,0.8062544041,0.0210669712,-0.3265973244,0.0573643133,-0.0520675053,0.2960128798,0.0400590069,0.1026305448,0.5752326623,2.0832127797,0.041349091,0.2387503379,0.3019147066,0.0560753452,0.0199855779,-0.1959463337,-0.1348231153,0.3904907199,0.2413727181,-0.1143413717,0.3617704992,1.0898840327,0.3248693894,-0.1327815535,-3.4434500327,0.0960188224,-0.020165177,0.1454526493,0.1289059536,-0.1347232345,-1.35917802,0.7510362136,0.0888446167,-0.127685606,-0.1911152896,0.4625515022,-0.0636941021,0.0347967816,0.3882419678,0.34039033,0.4602791415,0.0986549894,0.3943684964,-0.0373028098,-0.4609707344,-1.3916258588,0.0244952183,-1.6106240101,-0.758827022,0.1076763168,0.1528692612,-3.5039634878,0.1439240776,-0.6251261668,0.4173386782,0.1210268066,-0.0185593433,-0.1087252552,-0.259300202,0.2232914888,2.1021043085,0.1673794133,-0.0478331609,0.5622359868,-0.1479974772,0.1489806405,0.3476765094,-0.0640501018,0.1321436109,-1.2615146949,0.0817578049,-0.0885984355,0.1290349218,2.3670096677,0.0954914332,0.0086547116,0.0831736037,1.3811218666,-1.5199511526,-0.334291671,1.9263534883,-0.4240375073,0.2320020597,0.2256879492,2.089282303,-0.0339318173,0.1075184211,-0.3773968513,0.1390420099,-0.3042168279,-0.039317542,0.1454678338,0.3233782336,-0.3286624865,-0.3544483986,-0.0248512674,0.180949728,-0.1832537244,0.1162869655,-0.0081630585,-0.4059349912,0.2493760409,-0.0725440665,0.1130012596,-0.1430547613,1.5958049727,-0.3014269417,-0.3049640727,0.1742536079,-0.3296145365,0.2627796259,0.5765567672,0.2489313479,-0.2025772018,0.2765367919,0.123366042,-0.1417151173,-0.2541739912,-0.3056303006,0.0441853591,-0.5467467317,-0.0396268716,0.0892018983,-0.3368575311,1.0984407708,0.2382091515,0.2556005988,-0.0494405428,-0.0599923044,-0.6002798216,0.1391340512,15.32892115,-0.0568636704,0.0551826545,12.7952626068,-0.4492235016,-1.4058361769,0.6070571494,-4.9665563866,0.3277285855,0.2201569623,0.1451155851,-5.1836994759,-1.7979903464,-6.7953362272,0.1492674459,-2.5277714566,0.0493841952,0.2919291141,-0.6082264781,-0.5660388415,2.597356667,0.00603879,3.4528705514,0.094049168,0.2509841544,0.2627122783,0.2388218024,0.4007940992,0.2103467266,0.2078432187,-1.1638897881,-4.8887280277,-0.298552896,-4.9701831549,0.0319442206,0.2615037976,0.2461019973,0.447249512,-0.501963433,0.3198493081,-4.2309061299,0.2441415219,0.9585445538,0.0415131575,-0.0229848383,0.0625467534,2.5056068889,0.584633005,0.0103776422,-1.874978841,0.1827610492,0.3634201541,0.3480170769,-2.4845797154,0.4243739802,0.1163694063,0.3529166782,-0.5536496107,-0.0048972966,0.2999192704,0.9690879947,-0.2446842256,0.3518470075,0.3734177444,-1.0284697801,0.0624444108,0.2092270896,-0.0758485258,-0.9177528641,0.2354178787,0.2229526479,0.0368328058,-1.4607386547,0.3571843202,-2.1073829391,-0.3183655164,-0.0918625254,-0.6477686928,0.4846544391,-0.1130614431,0.5980916612,0.2845650129,0.3074091019,0.0913908897,-13.3226459123,-0.2175218288,0.1936086391,0.7074291648,1.6063051454,0.2473926094,-0.1753579709,6.2790541605,0.1347625643,0.0964719605,0.1605884508,-6.6812410598,0.2604475179,0.1250076183,-0.0288671683,-0.808558789,0.1698337661,-0.0591894172,0.401607177,0.3772242741,0.2521276909,0.0348449994,-0.3412133973,-0.0282567589,-0.4351549629,0.2837084953,0.3412654298,0.0953320692,0.3133278779,0.0357130303,0.4636066308,-0.1580996383,-0.1766956787,0.3695523306,-0.0600347592,0.299848236,-0.091806706,0.1563642466,1.0865835286,0.0651650123,-0.6099245192,0.3487237538,11.9267604336,0.1016411404,0.2183976597,7.6419963309,4.3253787106,-0.8708747361,0.4670920228,0.1815846995,0.0310758143,0.1710836659,-0.0142765277,-1.4664126534,0.3560855998,0.5055420882,-0.1087689988,0.4081382293,0.4692648396,0.2005247304,0.1052566522,0.3760635666,-0.3798004966,0.0922567791,5.5960660705,0.0009303947,-0.8611830241,0.4467274739,0.3567784781,0.2217466704,0.2171756884,0.1790202447,-1.1434487901,0.3641734113,-1.0942560178,0.6736007266,0.1982577135,0.1838023229,0.1630328619,0.4389214189,-0.8133730828,0.1570356531,0.8316517829,0.1082788726,-3.272651976,-0.2595304445,0.0130658772,0.1449096259,0.6315599321,0.0013389455,2.0392521185,0.3105714426,0.2350285658,0.0983704862,0.1468473901,2.8501460513,-0.0549927056,0.422771833,0.2598834188,0.0429447338,0.1139515093,0.2301189222,0.1399566733,1.3753684582,-0.088372335,0.1659266113,-1.7287193222,-0.0322220955,-0.2775375503,0.4835392708,14.2402477565,0.1017253381,0.2297394823,0.1207282706,0.4360461447,-0.5734956477,-0.8631360439,0.2257190941,-0.5060055638,0.1858966588,0.0786407187,-2.9917391592,0.0464845158,0.0285664551,0.1135233837,0.2498621837,-6.314022187,0.3969149575,0.0581607468,1.1049679383,1.2476823417,-0.0864718846,1.1730443842,0.3879770079,0.4537566815,-0.0603023916,0.1528162164,0.5333652236,0.3800784784,1.3133287216,-0.0340192502,0.3810181313,0.4369422913,0.283354697,0.0286808141,0.3386932452,-0.0674794017,-0.0358378777,0.1910467001,0.1896590463,-0.1190513936,0.1366694712,0.3798034384,0.1985733715,0.1873010724,-0.0875243006,2.7930751053,0.1863198231,-0.0961488568,0.6759026293,0.3184566119,0.4339120221,0.1057458651,0.299285709,0.1885839817,-0.081028803,0.8077716067,-0.102203714,0.0425934734,0.0701052791,-0.0224257955,0.3278094492,1.2460725193,-0.1435387866,3.0610765601,0.4887462976,-0.1868349301,-0.0752209378,-0.129648362,0.3949917689,-0.9322305538,1.4693806609,0.0588595898,-0.0673580972,0.8233992954,0.3248653154,-0.1528652978,0.0188173767,0.1993863429,0.0147894849,2.7563831659,-0.1096997048,-0.0042482743,-0.5403521632,0.9477986963,-0.0028771697,0.1127839012,-0.1396429241,1.3872342043,0.0058716394,-0.0644859085,0.5526825441,0.1887451745,0.4426382269,-0.009946021,0.5253106063,-0.0820848468,-0.0405976901,0.223260659,0.0268632031,1.9940477018,0.004751249,0.1737675424,1.0214425605,-0.9268564582,0.0661514826,0.1702219473,-0.0560345484,-0.0635412447,0.3304286718,0.0512965156,-2.5656285246,0.1867148843,0.1164428953,0.1774172699,0.2227725035,0.2010003326,0.1141080188,0.1828986121,0.3025647422,0.0778054096,0.1697295618,0.0843483955,0.0545875216,0.3028067358,0.058604193,0.2557948374,0.0554522685,0.0908233508,0.1873660056,0.3915555411,0.176382647,-0.0185712581,0.294458476,-0.3299853968,0.4281043454,0.1594771525,0.1987386844,0.045464057,0.2871949927,0.0013719503,-0.0974332789,0.3984804967,0.1532838649,0.0694319602,0.1978152464,-2.5333051738,0.162098815,0.5091109234,0.3212392511,-0.1070335669,-0.0505679279,0.1711795567,0.0394104554,0.5086774177,0.1799744123,0.0441170882,-0.1124425249,0.2871548226,-0.1881544073,-0.0769523617,0.4579502158,0.0628027476,-0.139151486,-2.0967541237,0.0019468351,-0.0513565745,0.2200143957,-1.6008313421,0.1314279726,-0.123294809,-0.0706655207,-0.3093857143,0.061637244,0.1496404883,0.426294246,0.0380801948,0.231073403,0.1348703563,0.1385883952,0.0122514793,0.1133180442,-11.3222366353,0.1209539504,-0.5549414167,0.0515006427,-0.0370963671,3.2690322677,-12.6750250024,-0.2574432395,0.3798938135,11.2964826616,0.0104490429,0.3037012633,-0.0457183985,14.2572231595,6.2133095163,9.4097009996,-0.0549281155,0.9524185969,0.186397111,0.1022456854,0.0000685772,-9.4945214839,1.8956362256,0.1002106136,-7.824559384,-0.1936734123,0.1503941728,-0.3073765756,4.3319559924,0.0981593908,-0.1937923185,-0.007901499,-6.4566881086,2.0159136705,-0.4367688086,2.5119895835,0.2567980475,0.5060571443,0.1050212712,1.3137534629,-1.5230935877,-0.194451135,8.3565949763,0.112237851,-2.3214297881,0.2414873449,0.0275879396,-2.6875817106,-1.4453193109,-0.0156881559,0.5486461038,0.5874018079,0.0578477173,0.0999258573,-0.0934956117,-4.3597585165,0.6629510793,0.3745038187,0.1192736885,-0.1063781129,-4.7116757226,-0.1466663337,-0.1175342978,2.4451576677,0.0182601186,-0.0096659564,-3.3263420532,0.0370525989,0.1804291014,-0.9588411676,8.1898430355,0.0788682557,-0.1351715858,0.0508602808,0.4002550174,1.6954374729,1.2630174762,0.3273141936,0.2950716874,0.4015703801,-0.0018315486,-1.8296282667,0.1821167858,0.0189021084,-12.2895916789,0.1813586185,0.4405866171,-0.2528219054,4.1573426624,0.3978545844,47.3836902276,-20.3577302393,0.3989494242,0.2716327511,-1.9975342725,1.2726269124,0.2305630925,-6.2053018284,9.0316461183,-0.014208521,-0.017089009,-3.24720216,29.4663857858,-0.0565436288,-5.0328440411,-6.1586428042,-0.7493308142,9.0693683391,-3.5207530181,0.2892803759,0.9769160402,0.1106398859,-5.6319884808,-0.7572781592,0.0794056211,0.2472598796,0.3483199692,-3.6304915323,15.8496935343,-0.0483886199,-1.3614144258,14.2856059007,-0.5089694293,-10.7807818027,13.8376348611,0.1496192858,0.3550787413,0.1667445755,-0.2182770056,-0.2230804989,0.0887153317,0.0739434445,1.0602224414,-1.4818825751,0.1897760529,0.1903311403,-0.3990954627,0.2971412922,0.0266998414,-1.2530179789,0.3421630842,0.3773161744,0.2236476688,-0.2231309259,0.4171155017,-0.632841041,0.0198298136,0.0523369716,-0.0860813768,0.0643291061,1.2526545392,0.2619378754,-0.0661297099,0.2240601746,0.4519757309,-0.6868222482,-0.2176915562,0.1743251272,0.1697335107,-1.2677904387,-0.13102672,0.186866656,-0.6959961008,2.0931327946,0.0007522752,0.2014665861,-0.1071913841,-0.3162346793,-3.2038449747,0.3573438139,0.1604946831,0.0073802068,0.3652228486,-0.0227312062,-5.1996777971,0.5213688952,-0.0925824204,0.2478245881,0.2109946151,0.1244628823,0.3653152765,1.0522218326,0.245155942,0.2451159026,0.355807526,0.2647950141,-0.0627715511,0.1026329084,0.0693974155,0.189023525,0.0058292236,0.2841397459,3.2619487852,0.0357866366,0.0319458778,0.2913028484,0.1397573884,0.2219055928,0.1272320671,0.3798040404,-0.0434685513,-1.426595906,2.4428980465,0.2269730112,0.2404021891,-6.3068243933,3.1991072644,-0.0135728554,1.7111624016,0.3750037978,-20.6382914981,0.1016091341,-11.1502044692,-0.4685707075,-0.0043445323,0.2532804893,-0.4109519921,-14.920456793,0.240517344,0.2687641053,0.5335829568,0.1234255875,-0.0974714033,-9.0193939974,-6.3848016199,0.3434871014,0.0116905132,-0.676258241,0.9133914303,-0.59930934,-0.2967424364,13.7015578203,0.9450137916,-0.1669704423,-9.2221648257,-0.0504404851,0.0464864194,-2.916467745,0.4580946098,-2.0244018852,0.080253105,-0.0228956921,6.4784588006,4.2128766356,-3.4058170831,0.2797679538,-0.5903735299,-0.0185409584,-0.0759594921,2.0660400025,-0.2172704003,0.140165503,8.0793412394,0.1837398943,1.7584289955,-0.039928715,0.6214684847,0.0300843165,-5.3441450953,-2.2341895322,0.0323712609,0.2798281205,1.8452515858,0.2135086501,0.2196487172,1.1506538781,0.1028497618,0.178901466,0.3939959479,0.3666770728,0.4050492147,0.37069498,0.2468279713,0.2444810746,0.7297067922,0.0324966564,8.7636692222,0.1600627008,-0.2052955891,0.1695729228,0.1255725814,0.2431649714,0.1462506609,0.2649226204,0.3580112356,-2.3176397865,-0.7710116885,-1.3673150699,0.1521163792,-2.0856026285,2.946581375,0.3237579302,1.6497878596,0.0653109392,13.7911160389,0.0893573843,-0.277093307,0.1390256291,-0.090529383,0.3890387275,6.97658285,-0.3628288852,0.2659539885,0.2127484031,-0.4085549766,-0.1232680926,0.1247438765,-0.196126834,-7.9597437877,0.2441746357,0.1945810669,-0.3221005533,1.1396735528,-0.384444501,0.4190290462,0.2588421552,-0.439481329,-0.1278939825,-10.9254929117,-0.3970619046,-0.3699131974,-1.0283155199,-2.5902948024,-0.3167973472,-0.200632635,-0.2323024782,0.1083353801,1.6552852434,2.3982403569,0.3928110692,0.2723182497,20.7670586867,0.5310296961,0.8119006968,-2.0411730898,0.1407904478,0.2845377892,0.0598288427,-0.2119401664,-0.0449706693,-0.7317799303,0.2796779282,0.2862283988,0.7667508571,0.6482390044,0.0528941027,-0.0312465552,0.529885386,-0.2579990428,0.0383346268,-0.5849698155,-0.2776973485,0.3949754007,0.0880123252,0.3444627199,0.2409092451,0.1394997166,0.287710998,0.0488854178,0.4084193704,0.0520855261,0.0815620741,0.2637876698,0.3795808265,-0.4594652464,-0.0046055396,0.8407969757,0.2888906976,0.5005920357,0.4579677227,0.4525535221,-1.2752463502,0.5047501985,0.0994302039,0.1064677693,0.0634054215,0.4208877344,-0.2936028138,0.1599670178,0.2678693773,0.132279137,-0.2469675469,-0.3355692939,-0.0966700536,0.2049501093,0.4257136546,0.2842139361,0.09796551,0.3488529757,0.069455109,0.2540182683,0.2150698382,0.0078612733,0.3353311924,0.3040477189,0.0794770041,0.1104077379,0.0940367879,0.2743667845,-0.0570396855,-0.0063863457,0.0381632277,0.0693558745,-0.1276155031,-0.0600971001,0.0522738812,0.2290467686,-0.034784396,0.1596709636,-0.0294969171,0.2957811138,-0.1098951018,-0.2294888334,-0.0517409297,0.9427384046,0.1169758634,0.1489187468,0.3782291533,0.2583308526,0.2423107381,0.3001861606,0.0378522304,0.1790657275,0.1509795988,0.530549023,0.06900895,0.1524925136,0.1838033463,0.4089896884,0.3114087466,0.4935795974,-0.4293791271,-0.7315085864,0.2405103006,0.7636392415,-0.0539342614,0.2747532097,-0.4524160168,-0.3744659658,0.0854930323,0.1027962105,0.7736641536,-3.1283802855,0.3873908894,-0.9541905548,1.6240480254,2.177741824,0.039610045,0.2834620517,0.1539954011,0.5611506574,0.274393837,0.3744542454,0.3183029577,0.188665988,0.3946894781,0.2188728624,0.2122408336,0.277379541,0.3094816404,0.0805378384,0.1936009278,-2.1805073006,0.0410309816,0.4584977123,-0.0673411479,0.0336674117,0.310971295,-0.0204759579,0.0482065277,-0.304286093,1.4076739016,0.2942857591,0.3582154506,0.0450068305,0.1819837934,0.5475642776,-0.5167289304,0.3587989556,-0.4340646221,0.2529077092,-0.0684656524,-0.0211326106,-0.0031405494,0.2501994072,1.2461035117,0.331829264,0.0719142755,0.262033257,0.6212553012,0.1571137101,0.0978644915,0.5903920245,0.2253948578,0.4447331362,-0.2848416479,-10.6018124673,-7.0224539757,4.6801866071,9.9110743564,6.2332959108,0.7841632278,-0.8663759204,4.5734302077,-7.0262832762,9.8796253161,-2.3978433091,2.3459795276,-0.5439750551,-1.9546167247,0.4197493593,0.2638106752,0.07551158,1.1377181521,0.1287993534,0.2728218768,0.3327160763,0.5538817314,0.147785966,0.2871586974,0.1310108857,0.2208591485,0.0735731705,0.1369786192,-1.5215854248,0.253575098,0.5285668497,0.1809521184,0.1801752049,0.2979265064,0.2266567835,0.3031786459,0.2567229741,0.2580980597,0.115352243,0.1504359682,0.1105854229,0.1307029636,1.0559477865,0.02170177,0.3324188476,0.3008701133,0.4161933506,0.1440066128,0.0060159797,-2.8207396159,0.0337719987,0.217627137,0.6027215404,-0.5045293112,0.2049007808,0.208333153,-0.0692796504,-1.0599506954,0.412306304,0.1140778654,0.7321145455,0.8870465561,-0.3228008125,0.0383570248,0.3347856746,0.3286982518,0.008145418,0.5278699825,0.0005582936,-0.0520677163,-0.6663874159,0.0368818611,0.077422105,-0.313120967,0.1938231014,0.3544915653,0.3367270506,0.2836217015,0.551670061,-0.5326717143,-0.2165636865,0.0719323758,0.3450008641,0.2036506125,0.1794838185,0.2746900975,0.1099856387,-0.2096581484,0.0403927791,0.3994105346,0.0649449454,0.1309356707,0.2814789913,0.212849364,0.2834757818,-0.3696727684,-0.2046338553,0.2669378331,0.2215344285,0.1898106115,0.2222350991,0.0583192799,0.3863743659,0.3886637948,0.2682281194,0.084934326,0.3640349777,0.0399285716,0.28682275,0.0200621894,0.4451258263,0.1929102117,0.492487374,0.5760718402,2.3684235116,0.068614255,1.1134250468,-2.1194755224,0.0884530804,7.3827056692,-0.4831983147,0.0207416574,-0.7264705258,0.5429854457,-1.1980251336,-5.9778808554,2.3525023122,-0.0550338445,0.0109849496,0.1336131829,0.1426486275,-0.0455267969,0.0411373722,0.0517931253,0.2353413067,0.0625829793,0.0058058943,0.0714620048,0.2317450238,0.2958187927,0.0162510903,0.1344206238,0.4651720732,-0.3827743971,1.4091132859,1.2381248173,0.1668238872,0.3028597718,-1.1382089449,-0.587492346,0.2436823085,0.070679527,-0.2811940723,-0.2520646001,0.1621318313,-1.109366638,3.7265105706,1.3793716492,0.2790941902,-0.0263506839,0.6626295787,0.0724046749,0.1118458762,0.4698844139,0.1684506374,0.7683755049,-0.3292460116,-2.1815026626,0.0755601378,0.6570007841,0.1133296959,0.2685439578,-0.1129722999,0.3755658286,0.1856080477,0.0628519431,0.0163303441,0.3897717167,0.3426186455,0.0876743388,0.3590470406,0.3090398353,0.2909932422,0.0812161865,0.2543185802,0.3557451837,-0.0091065935,0.3052294603,0.1166258543,0.0179652623,-0.0072356099,-0.510678229,0.5141270995,0.3251677288,0.6767440249,0.0571040628,0.246071851,0.2324594985,-0.9525571979,-3.8489058054,2.8086200448,0.8699490726,0.2328307872,2.9509037493,-0.1826761608,3.2656007216,0.0298353211,-0.2148328538,-2.3762730968,8.4509703573,9.3900474643,1.5306657188,1.0543478956,3.3932473188,0.6074521715,1.7530812543,5.6169069529,-11.7809798069,-2.2332957494,-2.8633189553,-3.0252549143,3.5754328329,-0.0802341517,1.1040088148,-1.1876113665,-0.4482977494,-1.3050246878,-1.1469747671,0.0205410743,0.3035711992,0.0591502867,0.0160664867,0.210918012,-0.0295232579,0.2024380988,0.0292898621,0.0467306682,0.1722854408,2.4473803979,0.1792542318,-0.0488096331,-0.0735095407,-0.0699972296,0.2183610293,0.2154741202,0.3016041028,0.294856824,0.0757387841,0.1964219823,0.3284221702,0.3086281989,0.1204619938,0.186503553,0.1587364868,0.2020887219,0.0603843781,-0.2847220835,2.1070898855,-2.268926374,0.255906391,-0.3809912628,0.0284960476,-0.845286158,0.5843946165,0.8886478924,0.2359780525,0.0514787417,0.5163782031,0.3502172449,4.6245037721,-0.1665343816,-0.4477057115,0.2152789951,0.3192336133,0.3118326569,0.1769166767,0.2392663224,-0.0502753823,0.1246258955,0.0252961138,0.2217360444,0.1239156243,0.3579508194,0.2191640596,0.2225285362,0.069551346,0.071956079,-0.5546984066,0.1079615419,-0.0390810556,0.3099123836,0.0694658907,0.012847346,-0.0683418171,0.0146903614,0.2142323334,0.2554656359,-0.0052200497,0.143847555,0.0162089815,0.0557125984,0.1906352051,0.4071562257,-0.3190562066,0.3701051342,0.074666704,-1.1558500009,-0.0657101047,0.4898234548,0.3846140493,-1.6432976443,0.4662929223,-0.6673900404,0.474122807,1.3352996554,0.8162944617,0.7181384402,0.1865270092,0.7657388675,0.1993646131,0.1149969468,0.4148278629,0.0569775614,0.3179507684,0.3719450504,0.3812315511,0.2214637439,0.0580142724,0.1718470656,0.1927161761,0.3467527793,-0.0050179407,0.2300289063,0.3890949665,-0.0574201731,0.0335123392,0.3600685614,-0.0457592704,-0.0206937596,0.0050304717,0.3682987631,0.1186674234,0.267274663,0.2994155216,-0.5772210288,0.3692808066,0.1873291761,0.3805879406,0.3154585547,0.1218577607,0.4096724161,0.0686058094,0.2167125084,-0.02914621,0.2553510756,0.171024413,0.0272283134,0.632500915,0.4682601321,0.21739522,0.0775953269,0.1113114275,-0.0091840234,0.3743339108,0.0231354786,-0.0478814556,0.3696310089,-0.4134246846,0.9703249396,-3.7225244491,-1.550002021,-3.4639450257,-4.9266922336,-2.2614617162,-0.0244785822,-3.2154318333,0.2150603721,0.2533858806,3.5883728177,0.4677860071,1.8649318391,0.2524968811,15.7910980311,-1.2461928553,-1.116527576,-1.0493119102,0.0797615163,0.6385948678,4.7117554816,0.1597973364,-1.6012285195,0.4717861017,-2.4834477092,-1.1800006667,-5.795891242,6.7043151847,1.9559857999,-0.8708540998,0.381597172,0.2089404003,0.2416621948,0.2939712511,0.5976311012,0.2765245672,0.1758139464,0.1742057341,0.1126694754,0.0892507728,0.0606975636,0.1514006816,0.110774199,-0.021549599,0.3687709014,0.0758397269,0.3889858768,-0.3778782905,0.0420833167,0.1664666695,0.2238362342,0.0764006159,0.3669269225,0.3503073709,0.1190382854,0.1391704248,0.2000367131,1.6604413708,0.0190793574,0.8481545581,0.838900803,0.7974917527,0.0825664701,-0.1709541765,0.1138727271,0.1831094898,0.0176188131,-0.0100254587,0.0171686539,0.1268727157,-0.0988299337,-0.0293132386,-0.0602528745,0.0522924772,0.2431463915,0.0746402666,-0.075238482,0.6465383469,0.3494721289,-0.5432672413,0.0895043083,0.2029386238,0.2070333209,-0.0385274423,-0.516962286,-0.9542358097,0.1941975314,0.1834768951,-0.0804541627,0.0548013764,0.1975095805,-0.0140335829,0.1691716064,-0.0383599191,0.539728507,0.2292543137,-0.0226348557,-0.0105550629,0.0346339338,0.2838000189,0.3918954484,0.0795945205,0.2702246729,0.0618176841,0.1046221618,0.1781590701,0.0138210326,0.1774333526,0.3892660322,0.3438975171,0.273207577,-0.460739031,-1.7669705098,-0.2580010044,0.8188561506,1.448195622,20.3857981405,2.491157308,-9.271501928,-2.5021352481,-4.0899128213,-5.7589320871,3.0853157773,-4.5564755108,44.0836617775,-19.9733228426,-12.0096050664,0.4370369481
biasActivation=1,1,1,1
[BASIC:ACTIVATION]
"ActivationTANH"
"ActivationTANH"
"ActivationTANH"
"ActivationTANH"
