encog,BasicNetwork,java,3.1.0,1,1422169864022
[BASIC]
[BASIC:PARAMS]
[BASIC:NETWORK]
beginTraining=0
connectionLimit=0
contextTargetOffset=0,0,0,0
contextTargetSize=0,0,0,0
endTraining=3
hasContext=f
inputCount=15
layerCounts=2,42,42,16
layerFeedCounts=1,41,41,15
layerContextCount=0,0,0,0
layerIndex=0,2,44,86
output=0.0782789886,1,0.9999989795,-1,-0.8371131629,0.9685841579,0.9999752881,0.6081691883,-0.9816023217,-0.5182247648,-0.8086321143,-0.7316652836,-0.6921375502,-0.3966306158,-1,-0.744846884,-0.6266697483,-0.8752124393,-0.9999998265,0.8625119336,-0.3648864603,-0.9164568432,-1,-0.6522414833,-0.9999963374,-1,-0.9639378362,-0.4783756734,-0.933920549,-0.7573446106,-1,-0.8325634717,-0.8490967649,-0.7194511285,-0.5190394932,-0.9999952889,0.4583671417,-0.0222302028,-0.9999994958,-0.9998853585,-0.2277414174,0.8080002746,-0.47822378,1,0.2666505911,0.3162132431,0.4223109408,-0.2938146937,1,0.3276266635,-0.206576397,-0.0588992897,-0.0223372583,0.1691064257,-0.3694687401,0.0248598237,0.080169756,-0.1695613459,0.2542937284,-0.510673382,0.1440709185,-0.0826478244,-0.0199796658,-0.0435238935,-0.1690585363,0.2743627267,-0.0171170924,0.046247164,0.1732605982,0.1731034024,0.279577551,-0.0271813661,-0.386766556,-0.2220958283,0.39508519,0.0153955736,-0.1385279995,0.2876894717,-0.1941731623,-0.0002061367,-0.2738587725,0.2036120321,0.0485735247,-0.0764767148,-0.3941305539,1,0.0487142164,0.0584182436,0.0584182436,0.0584182436,0.0584182436,0.0584182436,0.0681222707,0.0681222707,0.0875303251,0.0681222707,0.0681222707,0.0875303251,0.0875303251,0.0875303251,0.0875303251,1
outputCount=1
weightIndex=0,42,1764,2420
weights=##0
##double#2420
   -0.0570004712,-0.0323521749,0.1927871112,0.2213074069,-0.0591491674,0.1176035936,0.1255259658,0.0358225405,-0.064382137,-0.0679815915,0.1882819819,0.0686666768,-0.0830067387,-0.0723954599,0.0106982518,0.0884387083,-0.0313176552,0.146360033,-0.1216683487,0.0961581564,-0.0331399735,0.0557123342,-0.061261024,0.0589790087,-0.0655205884,0.024617713,-0.0799872893,-0.0861159164,0.0788022532,0.0553485222,-0.014994907,-0.0468125936,-0.0821453729,-0.0879160983,-0.039433714,0.1330848375,0.1255472768,-0.0797848028,0.0793703953,0.0939676854,0.1126787811,-0.1110004131,-3.3531002936,0.2151233469,-0.151723533,-0.1924966917,0.1944129242,-0.8363893876,0.15136819,-0.0377599401,0.0373361383,5.6401009708,1.1028291805,0.2914712036,-0.0922225655,0.117873693,23.3215726356,0.4641099959,1.039362513,9.1042925648,0.3050692172,-0.4414192591,-6.6141415473,-0.1034157485,0.0071598862,0.022319452,0.2112384554,2.5289885018,-0.0536051688,0.1990432687,0.2396223094,-5.5725869927,0.1751666091,1.1938734892,-0.1128090666,3.3646177303,0.1466644471,-0.1675449271,1.1411856046,-0.215603764,0.2544757519,0.0572317797,0.8574712969,-0.4888602648,-49.6485527322,-0.0578516542,-12.5792276248,-2.5591901759,-14.2566536498,-1643.5040595843,-8.877529818,-1.0054580362,-5.8967475835,0.5608693662,-3.929768738,-11.3076995088,7.6681506145,-8.1120562699,4.2097102087,96.5982774406,6.6860141913,-0.9336913814,-6.0940045585,10.8490236315,-6.6809741207,-7.7404980375,-17.1638802117,-1.237730708,-5.6293850186,2.2726183294,-7.0996649386,-4.3798275176,0.2034256293,-5.0115689948,0.162994142,0.2294885814,6.8698177282,-0.8258127405,5.7769106614,-2.4699738929,0.4955472512,-13.1596878241,-1.9239088701,-6.362444815,-0.9518546576,-13.8225086821,0.3898262661,-0.1413409626,-0.1026414482,0.3398405734,0.214394284,0.0906419221,0.4241723608,-0.0084491222,0.1483118465,0.1351598443,0.2632157805,0.1026762573,0.0795489323,0.1053972377,-0.4439448623,0.2003978968,-0.1736835586,0.2145530189,0.2358660552,-0.3827666599,0.2910734435,-0.1415367071,-0.1077484141,0.20480503,0.2483249118,0.0347994795,-0.1426231788,0.278335765,0.3999213442,0.2002732766,-0.0506577834,0.1282288412,0.0707141139,0.0619582816,-0.0302781044,-0.0125489513,0.1763078765,-0.1312205208,0.2203889264,0.1582792065,0.2094652103,-0.5144236635,3.1283289238,0.0422341761,0.1132677092,0.7199187516,0.2686889707,0.2836570841,0.1284175948,-0.1240821523,0.0517967827,0.5707309481,3.3043098211,0.2579100171,-0.1515159168,0.3024867082,0.2148647795,-0.199638327,0.1392635184,-2.0659910819,0.0384719953,-0.2547442477,0.1535799229,0.4281724159,-0.0692057207,0.2538062619,0.1621254419,0.1729257501,0.0168122455,0.2080261144,0.5558996624,0.0315005006,-1.1800105832,-3.3926553567,-0.3335484011,0.0901554569,-0.0717537032,-0.072627091,-7.4825568196,-0.1441213139,1.0410252799,0.1706523277,0.3467620936,0.4396032366,-8.0609220982,7.9550441401,0.2867209254,0.2887516905,0.3392026411,0.9133027909,0.2157294102,0.0807781715,0.441931508,0.2037644781,0.0722507115,-0.1962567853,0.2455708323,0.0242735405,0.1399374991,-2.2649685593,0.1217279214,-1.8569779161,-0.3111058109,0.3230742684,0.0199200067,0.1116691355,0.3499175881,-0.1986572425,-0.279814907,0.3383285561,0.2979717088,0.1814888999,-2.1335596362,0.1725540073,1.0705905216,14.9662584142,-0.1626836008,0.264644564,-0.0667758095,0.148462094,-3.2797339527,0.1905239812,-0.0979069084,-0.2835542529,-0.6198431095,0.4446756312,0.0380228573,0.5783322173,0.1279218601,0.0086957505,0.0666181206,0.0983656708,0.1941412776,0.1937023215,0.1511467824,0.0697452601,0.1928475037,-0.1259254059,0.2193391155,0.1017219237,0.0072701681,0.1276632116,0.1353718496,-0.416973264,-0.0538421745,0.1126589174,0.052015678,0.2936205978,-0.0551596751,-0.1014918342,-0.0900014383,-0.0456898353,0.2847093177,0.3585975515,0.2576802026,0.0688589396,0.299985651,0.1392334549,-0.1089870936,0.1434445765,-0.282201977,-0.0225156671,0.2724224436,0.2790233116,-0.0875312506,-0.117504809,0.2097164195,0.3575075074,0.0184780646,-0.1647183372,-0.2158385156,1.0083464754,-0.0231502269,-0.1996273052,-0.28313271,-0.1180852034,-0.0083090074,0.0149333648,-0.1052154424,0.2048016714,-0.2042637461,0.3004168854,4.7420758696,0.3755507177,0.0901481085,26.0668752735,0.0945554891,-0.1665712184,0.2418877002,0.0831409736,0.1117637398,0.2642328643,0.2199754712,-0.5933569807,0.1509523712,0.3801232464,0.3978802894,0.1672188845,-0.0903352953,2.3866237289,0.1261910397,-0.1236940063,-0.0891915393,0.0484467183,0.2827153653,-0.1957857666,0.0873776359,0.2877128242,0.3200763511,-0.2120338586,0.0503086221,-0.1326208112,-0.1522706977,0.1493767828,-0.0935244701,0.1602505774,0.0707988021,-0.2640163163,0.1701701483,0.1503340497,-0.1392301189,0.0791626298,-0.0869722361,0.0872285766,0.1014010276,0.229900599,0.0193978641,0.1751070586,0.0012691822,-0.0424047274,0.2583190676,0.0504999528,-0.4969236308,0.0115266751,-0.0006449296,0.0077553357,-0.2472834281,0.333364845,0.5990325038,0.1648550385,0.0090445637,-0.3224444825,0.0462646421,0.4812118168,-0.0890350081,0.0369397367,0.6483970316,-0.2148800799,0.255467582,0.2276212473,0.0131186313,0.1007240046,-2.4064376933,0.0229673304,-0.3617760461,-2.1761647526,-0.4390299103,-0.0147517189,-0.0450583061,0.2892735296,-0.072433905,5.8058093437,0.3327695647,0.0915968661,-0.0267628897,0.233093116,-1.5296250182,0.3376787992,0.4047453643,10.2026576042,-0.4631905617,0.5069502118,0.016164541,-0.1298831997,-0.0048877816,-0.2922341677,-0.4177310289,0.1384386869,-0.3687156095,-0.1298468682,0.3395906898,0.3047529535,0.0170613327,11.3220319398,0.244830528,1.1478550747,0.3313339319,0.0893244802,1.2653853168,0.1970447908,-0.6068197228,0.021239261,-1.0225273461,-0.065302917,0.0597395598,0.2730926345,0.2437053135,1.1673541672,0.1745893029,0.2053759737,0.3548345572,0.2703607654,0.1986833632,-1.3693022742,0.9986346046,0.0334527832,0.2124461544,0.2513563126,1.0938538322,0.5290560845,0.2129946114,0.8151392629,-0.0021093369,0.3801364656,0.1972110175,0.2025561529,0.0067859591,0.1063396065,0.0599516373,0.6033953727,0.0806827562,0.3052466627,0.5914561311,-0.2795208907,0.2509929936,0.2878925955,0.0250135072,0.2020613629,0.0445285218,0.0798042452,0.4940502638,0.3244078554,0.0412500419,0.1017925825,0.5352281259,-0.1253332382,-0.0718247623,-0.0077550917,-0.0186708651,0.1429966621,-0.124130715,0.1193854417,0.0086100578,-0.6794059603,-0.0816138083,-0.2762972544,-0.3927622471,-0.089609206,-0.0954706189,0.0502704641,-0.019853759,0.3312440053,-0.1019524734,0.1073585446,-0.0141686244,0.0657844997,0.0985375046,0.2815227164,-0.2040690625,0.042231403,0.1007672858,0.0216275184,-0.3081532411,0.1363769224,0.7579675724,0.2504143639,-0.2276922482,-0.2708948712,0.1282890047,-0.057843408,-0.0445673249,-0.0248770302,0.6244329331,-0.270205088,0.1849983534,0.2329005028,0.3123584271,0.2140191379,-0.0309772065,0.1182546471,0.0463058394,0.1094363475,-0.1037332171,-0.0630990377,0.3768829765,0.2229609458,-0.0442157332,0.235059893,0.3505235191,-0.2177263845,0.1174310467,0.0824139075,0.2053371223,0.0616261056,0.0926242046,0.1160945324,-0.2145856324,-0.0507261844,0.2584828454,0.0203415642,0.1784751001,-0.009860729,-0.1662906753,0.2024683275,0.170058526,0.075988626,0.1352074727,0.1861544432,0.2372680669,0.0910879864,-0.3158823582,-0.0269351381,-0.0449511936,0.1342344486,0.4216353154,-0.050475796,-0.1296158848,0.0486428782,0.3133162004,0.049913617,-245.8508954585,-58.0869646295,-0.0156971468,0.1105736683,0.1807191486,11.3167735464,0.168866053,-0.2284777416,-0.026951787,-0.1062192221,-8.6236477008,0.2965712058,0.1300997085,0.1687425558,0.1939689701,77.2558729611,-0.0751276019,5.9329815881,0.0403989679,-0.310496165,0.460381193,-0.1059273245,0.0835240983,0.0287968367,0.1965774878,-0.1117183169,-0.0066490397,0.1809209174,1.3700107695,0.2925376126,-0.1809955952,1.5271846618,-0.0185287756,6.3986372857,0.0134110919,-0.1073686055,-0.0626854467,0.0048429774,0.1039682978,0.1110131651,223.9754711554,-0.5802157128,0.0408075914,0.2085534368,0.2012407675,0.2683189914,-0.3966375379,0.2271164889,0.2206003386,-0.0573767324,-0.4032427091,-0.9114294349,0.3379888508,-0.3328934608,0.1719524203,0.1822022746,-0.4196989044,0.0857511127,0.0718113468,0.4154807627,-0.3417577463,0.1536505941,0.0569734799,-0.0840346158,0.0878216008,-0.4831649738,-0.5167999852,0.2515741428,0.1168327076,-0.1217506328,0.0670995557,0.1681505727,-0.1719867957,0.0063757701,-0.0569646758,0.1027210171,0.1388908103,-0.1487528315,0.3055980555,-0.0203260506,-0.3372495692,-0.5354310787,0.2156624919,0.1253748515,-0.0328313064,0.2776238639,0.082215516,0.0203326997,-0.1395448453,0.1758218483,0.351361355,0.2104011349,0.0112368554,0.0546016291,0.6746101375,-0.0942975652,0.2160219473,0.074154234,-0.0809161643,0.2288783319,0.0788214297,0.1430096656,0.1249389281,-0.0021464075,0.2368438246,0.1070950196,0.1376326324,0.0131509071,0.0613563978,0.0450135233,-0.0834754606,0.1095238037,0.0696130372,0.0701009071,0.0835102675,0.1523840553,-0.164532286,0.0682627687,-0.3163887731,-0.2627539814,0.3036443451,0.0608745507,0.005522745,-0.1854016554,0.1050921874,-0.2773225486,-1.5493120372,-0.0947587889,-0.0084855862,0.3757510222,-0.0410579499,-0.4656715588,0.3650375669,0.1719027567,0.1441477921,0.9737194497,0.2937800513,-0.1671068558,0.2565311846,0.0220312627,0.2813728817,0.2085099096,0.0489647544,-1.4048070181,-0.0769085252,0.1806887891,0.0880935122,0.1592472363,0.0585541949,0.1216982208,-0.2149681858,0.188981235,-0.031563951,0.1193086391,0.4380440096,0.3548942587,0.7639953928,4.4656465796,-0.214011884,0.3046669262,0.0460778399,0.1905259018,0.2943304981,-0.0284386097,-0.1928023829,0.0510453033,1.0681516983,-0.3930109753,0.095244721,0.1757103891,0.3449723434,18.5208453969,-0.0218863087,0.8142639423,1.9382722884,0.6157984099,-7.0581247602,-18.9041419837,0.9590262163,0.2119342123,0.2730101161,0.1814461855,-6.1615761999,-5.378410985,2.1288020751,-10.4482155104,0.1987004992,0.225394673,0.2479861099,-0.0821749007,-0.0424110888,-0.0920887562,-0.1762854226,-9.1764226545,0.1827468128,0.1978855497,0.3439435232,-0.3334554366,0.1013632456,1.7690294257,-0.0476007289,0.0045558409,-0.0199814329,0.01383582,0.4209607307,0.0242892666,-0.0279057141,5.8735390092,-1.012273996,0.1206557874,0.7672948477,0.3767719908,0.284542173,0.3433710451,0.1311314511,0.1483669203,0.0988013597,-0.0347873787,0.0482559001,0.1717475115,-0.0695361392,0.0528985012,-0.0977294635,0.254715856,0.3835504945,-0.1626721588,0.1520679291,-0.0040541495,0.1587997963,-0.2341370746,0.1860305664,0.1489239281,0.0305732935,0.0706353661,0.2384441704,0.1682878411,0.2191923908,0.4028734099,-0.1549115458,0.0962805956,0.2743686516,0.0704366146,0.2100993604,0.3170103815,-0.0469087553,0.1976257551,-0.1560659103,-0.1474316137,1.0430105999,-0.004697054,-0.0466966814,0.1506065016,0.0735498916,0.3120775958,0.1821233234,0.1460586077,0.0584629386,0.3298981953,0.3636176216,-0.0049187783,-0.4994304494,0.2331284647,0.6906596568,0.05946503,0.3542908238,0.2125391673,0.160423349,-0.0541175029,0.2990751835,-0.2979481998,0.0755313377,0.6128640248,0.1426080893,0.1622749477,-0.0389276901,-0.3550172796,-0.2545679375,0.3368053892,0.111560196,0.1587538192,0.0070388379,0.4306940922,0.0075921265,0.0644770724,0.2341856311,0.3241937632,0.2343766508,0.0229059413,0.2158658889,0.1647015026,-0.4863739074,0.0204711848,0.3411949173,-0.3051419877,5.2436520515,0.1650842999,0.0435377633,-3.2515714145,0.0102135258,0.1332393295,0.4462333468,0.0144827116,-0.2176845031,-10.3764018994,-0.4552208971,-0.1667570699,0.1094091292,0.3314429092,-3.2709037318,0.2079457853,0.0046603245,4.0829870623,-0.0737727742,0.5087919133,0.0886624345,0.1403134324,-0.1250604291,-0.2063430101,-0.130243461,0.138250848,0.076058935,0.2459780712,0.9949794513,0.1576211299,0.0516994574,-6.9931577997,0.0995798031,-0.1288139594,0.2129429441,0.1448629991,-0.4033755138,0.028306168,-0.1272604227,-0.0053846757,0.861148372,-0.2265936556,0.027254482,0.1322858026,0.1425680217,4.0806939024,-0.0576289883,1.1720494687,-11.7811491921,-0.2080777245,1.5029734624,1.0641066097,0.5770971929,0.1262447438,0.2892330292,-3.71091873,12.6948512256,0.1571674451,10.6339652926,-36.4976761511,0.3215387341,0.2542117294,-3.0268615158,0.1189635821,0.0761419061,0.1353696891,0.0726859395,21.8396698863,0.3400180801,0.1910236753,-0.4170121082,144.8981699678,0.2103956984,6.9725744775,0.2702089324,0.0067067228,-0.0623014192,0.1036933233,0.3484101379,0.2168332945,0.1331677206,-1.6816243071,0.5774535888,0.0051300452,-0.0134517742,0.0273589525,0.1463232341,0.1721691378,0.2019242971,0.0741192969,0.1696414662,-1.0519196388,-0.0415313446,-0.181473674,0.2064726039,-0.0765174716,0.1312611119,0.3209519307,-0.0558709535,0.5585461168,0.2271926371,0.1069584928,-0.0615658934,0.3969774128,0.1931620697,0.0888138795,0.239991343,0.1258610266,0.1167937121,0.1252588548,0.1134260672,0.1271127071,0.3324344218,0.3266432693,-0.1052682082,-0.5620804571,-0.1779806142,0.000061817,0.0811168454,0.181338657,0.4031600258,-0.3962298789,0.104379136,-0.0418401957,0.3360696336,-0.1109877348,-1.8858521276,0.1491190806,-0.2150610619,23.1639350664,0.0875940294,0.8880102674,0.2323923601,0.2253321912,-5.1886027004,2.1970250931,-3.546953793,-0.0173108306,-0.1669209319,0.3175598652,15.6747759076,0.5432102667,0.0624986705,10.3513240795,0.2178814711,0.2647821358,0.1051569583,0.2050601405,0.0372532316,-0.0501479334,0.0883659347,-9.4702683972,0.1372791312,0.2708375306,7.6521571064,-1.0431745939,-0.0892083993,10.2185699209,0.1527489894,5.0510586871,0.2550459217,-0.131355372,3.6228493294,0.1273327541,0.1743669334,0.2985487603,0.6159665374,-0.1423256667,44.5769027764,-4.3110985971,-0.2689639617,0.3579712144,-0.6704693946,22.9693046604,0.0870836727,0.2673540375,0.0017692652,-2.1564237016,-13.8237144509,-0.2095834138,-0.2073813092,-0.0375869263,-0.419869997,154.3527174876,-0.2212961012,40.2927867574,-0.2004298909,0.2686525573,0.1617511037,-0.0802526696,-1.1699923982,-0.224374168,-0.1129605589,30.9322049585,-0.2736931334,0.2405389132,0.5748044158,0.3514244577,11.1896651809,-112.6979951789,0.0410562486,-0.2568115811,0.1233982482,0.0201688434,32.3961092723,0.27408447,0.1152232228,0.0707504755,-8.4643271067,-0.0562132642,0.0210840095,0.0488852875,0.1596973473,0.3009575305,0.3094221035,0.2652470722,0.513358236,0.2374701059,0.2187633152,0.0048468592,0.8022098562,0.1052028127,0.318579674,0.1625685885,0.3652484108,0.3715968356,-0.0998515262,12.5903741565,0.0584489285,0.1759341755,0.3393428751,0.1455466143,0.3365689129,-0.0335128977,0.2250752189,0.8725775047,0.0387301444,0.2288757042,0.4656100648,2.5587920623,0.1533096081,1.1044772597,-0.0137177354,0.2207086535,0.1893290857,0.0230295362,0.0463646547,0.3687655495,-0.0304064884,0.7732086998,0.6195520391,-0.0999071762,0.2137822098,-0.0802995865,-0.0862111045,0.2065849594,-0.2031235101,0.0630685148,0.0014648265,-0.1051863093,0.0853732976,-0.0188839782,0.1571412033,-0.007260885,0.1703525194,0.3023082031,0.1776938805,0.256282625,0.1643225967,0.0293344847,-0.0531553899,-0.0274310637,0.2182705995,0.188170931,0.0491248801,0.1374752361,-0.126362162,0.2341951932,0.1332167439,0.2846649777,0.2449316753,0.3634468265,-0.123607919,0.1156428949,-0.2553218084,-0.0897443906,-0.0102013322,-0.1127872948,0.0859530912,0.0542999026,-0.1793945807,-0.1329670866,0.1300933119,0.0891679245,-0.0841570879,0.1256678091,-0.1645096075,1.8675731189,0.2012379867,0.0520240851,0.175028998,-0.1039667069,-0.4221848227,-7.7000549161,0.9248065601,0.0773263725,0.1081642134,0.3551442055,0.7592537845,0.3704807697,-0.2042416692,-15.6276595348,0.0771163735,-0.0726000372,0.1616085625,-0.0597114765,0.0975807976,0.2890360442,-0.0190596428,-0.1301286889,-0.0410625582,0.3197338291,0.5257115151,0.181193705,-0.1586402176,-0.4630901998,-0.0901039797,0.0473686324,0.1319493671,-0.1882248222,0.4457204294,0.0933303516,-0.0332288852,0.2420526049,0.445835398,-0.1694706137,0.0567838158,0.0763011774,-0.1170234754,0.2668022815,0.008270952,-0.3770700654,0.0689043977,-0.2609312894,-0.10093027,-0.1881376073,0.744792478,-0.0961194615,-0.0454802957,0.0149069158,0.0710313451,0.051045724,0.1044406474,-2.5156756065,-0.1087382296,0.4072157818,0.0091047373,-0.1194974521,0.1805004102,0.0045243523,0.10102514,-0.0396779631,-0.1041519322,0.1756270214,0.3875675728,0.1865487824,0.0583318894,-1.345115607,0.2262630971,0.1736692139,0.1902543368,0.0146593052,0.0620351738,-0.4833591876,0.0729087756,-0.1720017987,0.2332673624,-0.2149583543,-119.1128939758,-112.2154610167,-0.2249655859,0.0738744657,0.1405663255,-9.3606084037,0.3567889916,-0.3456841917,0.1204218211,-0.1177741628,1.0984098166,0.1850307039,-0.1710701238,0.2112626967,0.1287327322,61.5368283698,0.0701542247,3.5264371878,0.0681857805,0.084863485,0.1091986737,0.2207178927,-0.6472285045,0.1276824863,0.0608441538,-0.2048144585,-0.2948304508,0.3043153638,13.2551766241,0.0816959346,4.7266899339,-12.6605847553,0.0456393654,0.0435954884,0.2671820777,0.1844947472,1.8263400162,-0.2222171256,-0.0314199823,0.1354443873,-13.7834849274,-0.436032036,0.2481617372,0.1184042165,-0.0103039875,0.0248745804,-0.1960113413,0.1024448404,0.0201862817,-0.1550135063,-0.0349775407,0.0924455611,-0.1727480954,-0.1573072374,-0.1705222675,0.2439102447,-0.1456449412,0.122434469,-0.0203187415,1.5474859266,-0.1359496156,0.2420030491,0.0038294661,0.1299796116,0.0918174881,-0.1515498578,-0.0714720908,0.0656805218,-0.0266831423,0.0963905188,0.5984641534,0.3393968662,-0.2933722972,-0.5202069733,-0.0242643513,-0.3620354872,0.0150589697,0.3639143845,0.7461963284,-0.0887513853,0.0099976278,-0.1439319127,0.000740479,-0.1835645229,-0.6661996839,0.0389891828,0.2584471879,0.1602015696,-0.2907777893,0.3723149873,0.3519791051,0.1269979395,-0.5679701351,-0.6264301612,0.6654282728,0.0968708616,0.3640549455,0.33719546,0.3891812271,0.2889940502,0.0907773699,-0.0534408871,-0.041042329,0.8112342513,0.1297733467,0.1166040341,0.0518701788,-0.9356954835,-0.3507990541,0.27059469,0.2979250808,0.2582751154,0.2054608851,0.250890422,0.0443433072,0.0776128269,0.7633126732,0.2502677895,0.2552524657,-0.2201308924,0.2508662431,0.0441835254,-1.0735339501,0.1783698189,0.1709314673,-0.1060227946,0.0202086122,0.229237577,0.0441713397,0.1784583549,-0.0805612284,-0.011758376,0.3557638457,0.2310809921,0.0823863399,0.2020950171,0.3749665365,0.0659624415,0.0325466215,0.2151572398,0.6766628168,0.147164108,0.0354137913,4.4036293246,0.3410868788,0.5519673199,0.449263218,0.1809839125,0.0229590118,0.1703287226,-0.1181757242,0.3524884047,0.2776012763,-0.0418532273,0.2373469161,0.135528479,0.0395435378,0.2794319968,-0.0659288968,0.1122548262,0.0341937657,0.1245848483,0.2553539067,0.2636656486,0.0695077824,0.3064139085,0.4815447854,-0.1550549178,0.0004291045,0.0855606112,0.1152778757,0.4432501545,0.1295845561,0.0202107444,-0.6113984525,0.1623256382,0.2664828811,0.0951264612,0.6650944312,0.3798799529,0.1845723259,0.2891309532,0.1799042275,0.4635650106,0.1506666926,0.0496240437,0.3791831879,0.1146175752,0.4024966707,0.0467765119,0.0091958248,0.0033462118,0.0361926166,0.0898198678,0.3282328343,0.5317920084,0.3700435511,-0.5382299396,0.1597440742,0.0282528341,0.0904754218,0.0897393924,0.1702984564,-0.0081178134,0.262853002,0.2108493094,0.2828820288,0.1347993069,0.6174487088,-0.1223891034,-4.2081098928,-2.0428920621,-0.1296057733,-5.1417087029,0.0460240926,0.3680415638,0.2759808879,-0.11391617,0.1061446896,-1.7269760626,3.2955607724,0.2285681372,0.0633594325,0.1855879272,1.7907038242,0.619959334,-0.2814754859,32.1871626084,0.0544963119,-0.4014071697,0.2871430865,-0.1494814031,-0.132841774,-0.0279793451,0.2706153053,-0.2241179023,0.1111892724,0.4317522567,0.2158806442,0.2165644876,-3.212938668,-6.1113426737,0.1876738672,2.2954451193,0.2063156973,-0.0993997908,2.4656218022,-0.0394060242,0.3818117597,0.0013549188,0.7223109426,-0.2938658122,0.0219535563,0.0577507934,0.3175549248,-0.9643194184,-0.069672532,0.1471461331,0.1107101625,0.3815261387,-0.0153136142,0.0746523084,0.6729320932,-0.118032466,0.0173260068,0.0886500949,0.2545606545,0.4316788651,0.0745399717,-0.0295026511,0.109298076,0.028394688,0.1382576294,0.1174919183,0.3554194741,-0.1895663491,-0.1478279563,0.0473670015,0.1938068973,0.0899151216,0.402481615,0.0886666958,0.0783062575,-0.6277503252,-0.0394902188,1.6127859114,0.1531375306,-0.1976789173,-0.7721373183,0.1290292539,-0.1957592103,0.0658121638,0.0914052637,0.0175171569,0.1760007406,0.0919548785,-0.0497238034,0.0352086487,0.0159643772,0.029924013,0.1120252275,-0.1229186194,0.2465837252,0.6509977972,0.2344421924,0.1887992801,-0.0201155475,0.4219310469,0.0913332763,0.1484432489,-0.1175923589,-0.120607413,-0.0114280543,-0.1968230605,0.3357458416,0.1648953888,-0.2221106679,0.0394775637,0.0233649309,-0.0594955623,-0.0064542336,0.280543395,-0.0173594912,0.1223806185,0.181817555,0.0387926195,-0.0037397464,-0.1261629742,0.1049925047,-0.0507477191,0.0653451666,-0.0092103155,0.1338546428,0.1232450662,0.2662313686,0.177882622,-12.4547659019,-9.0026798958,-0.0851194013,0.3661068864,-0.9955004044,-18.8502678632,0.3183218201,0.2204163193,-0.1787878886,-0.1870628552,0.2080065222,-0.020033097,-0.3663071093,0.2151214869,-0.3069412692,-6.3860647032,-0.1206348989,10.3340357038,-0.1224269996,0.3070599129,0.2639162828,-0.1041707015,-1.9742301278,-0.151231135,0.0706869981,-0.0731708539,-0.0061334083,-0.0343363096,-0.0448534942,0.4103864625,0.0388726195,-10.758208,0.2024528762,-0.6272790965,-0.0880255718,-0.2909414751,5.4684930094,0.2794416069,0.0789283464,-0.1246858602,-15.1767086889,-0.2564886377,0.1923396085,0.2136591,0.1040967704,-8.9579539937,-0.055890597,-3.9728954848,2.8645734973,0.3800559911,-1.328391797,-12.6772635286,0.609918375,0.3315223475,0.4768048013,0.2409506189,6.1232863927,0.2949679594,0.0600377707,43.7984397854,0.0585491863,0.3155332887,2.0400635471,0.1855568091,0.2868296326,-0.1483242545,0.2446392875,-0.4884730724,0.0518089365,0.275969883,1.7670764118,0.3712777,0.1695619658,-6.5960972732,0.016462124,1.0558092093,0.0857703729,-0.1165737402,0.3952729438,0.2526462086,0.2451907375,0.2937117178,0.2661726479,-0.1242092541,0.0361164253,0.2295000169,0.1539788132,0.0262262808,0.1317274815,0.2941769929,0.2798016287,0.2423407752,-0.0857366614,0.150152551,0.2333410875,-0.0259662886,0.0472252717,0.0731515647,0.092802835,0.1424699095,0.212339847,-0.1878589566,0.1542181814,-0.0098733601,0.1006428333,0.2074228824,0.2059332914,-0.164926477,-0.0997964548,0.0831368979,0.0243807144,0.1598024042,0.3308853468,0.2788932862,-0.0742364707,-0.0553904515,-0.2841363837,0.2209174709,-0.2932842373,-0.1388631159,0.0715455357,-0.0592602742,0.1084765234,0.0705176979,0.0387561335,-0.3745551556,0.0074313697,0.3229144133,0.3645546065,0.1347499702,-0.101846767,0.1551731928,0.1326238903,-0.0718881338,-0.0428136786,1.4011271895,0.0363700894,0.1057074506,0.0503657378,0.0711274467,0.1130245221,-0.0267016907,0.1945531105,0.0945065395,-0.1245209848,-0.0743936156,0.101823214,0.0191128731,0.1244483034,0.0699924151,-0.0905985343,0.3498689899,0.1788910458,0.3105427669,0.2372217579,0.3285595184,0.3393642282,1.4516564292,-0.3367982473,0.3460064075,-0.0481355742,0.0301026576,0.3388026332,0.1683226676,0.0125256309,-0.0543581209,0.0856520692,0.554255236,0.0390947434,-0.0512128458,-0.0529718643,0.0615352008,0.006633214,0.0887435517,0.3280084027,0.1232060885,-0.1888498071,0.2314348806,0.1704203184,-0.0603950052,0.1289662704,0.0634530076,0.0167833312,0.2670760344,-0.0211756959,0.2016089474,-0.0738496335,0.1945283413,0.2684187061,-0.0115930143,0.0530268078,-0.0280395259,-0.0819283254,0.059454568,0.0078512931,0.0169652437,0.4109834654,0.2006413425,0.0676354774,0.0273201754,-0.229274837,0.1869263835,-0.1840730507,0.1663943444,0.37336459,0.0202366858,-0.0733600953,-0.1489509025,0.052612908,-0.035696713,-0.1780692158,0.024139206,0.0722557692,-0.2667879794,0.0730739043,0.0800694112,-0.2536322878,0.1114976983,-0.1874139035,-0.2588944141,-0.0745733387,-0.0077813288,-0.1856088325,0.1153317322,0.4596716995,0.2983375237,-0.0778622561,0.0362755099,-0.2360931025,0.1324435568,-0.1361955145,0.0956505616,-0.0643120824,0.1317389691,-0.0164153991,0.0156767986,-0.2148385256,-0.2513717504,-0.0492930696,-0.0379479771,-0.0889337105,0.3853656568,0.0584253547,-0.0152514582,0.3683607141,0.189563917,-0.1126007729,0.2467771318,0.1534395253,0.3158490726,0.3222729895,0.1692361602,0.0329668122,-0.1948346262,-0.1165746801,0.3518644194,0.077964981,0.3237971979,0.3013645658,0.1751681563,0.1620290121,0.0977658009,0.273693693,0.1060365247,-0.2785624878,-0.0087860515,-0.2314270518,-0.2731142558,-0.0081408443,0.1471436596,0.292692315,0.345166054,0.1671463366,-0.3893603754,0.1097946516,0.1881670856,0.1159776975,0.2320306453,-0.0081614693,-0.0346328971,0.0420662674,0.2614937269,0.3128856564,0.0593363066,0.0393553658,0.3563681057,-0.0384714963,0.2585208413,0.0196548326,16.5587629804,-0.2473938271,-0.3657843563,-0.0255372341,-0.0867874487,-0.0262414378,-0.259040146,-0.2674661072,0.1152377364,-0.2850638624,-0.0476390366,0.0721400585,-0.0940100727,0.0214246165,0.9049814426,0.2610882378,0.3347545243,0.073940916,0.2043602165,0.3092624119,-0.0499648995,0.27937333,0.3058649783,0.5751826427,0.3673148698,-0.0787452537,0.2567307373,0.1185960769,0.140969049,0.0523389296,0.2793936701,0.2994361076,-0.4249351684,0.1794140591,0.1247446468,-0.1305621921,-0.0776719169,-0.1297605767,0.2605726925,0.2829237899,0.274126961,0.1888083472,0.2525996136,-0.0175578289,-0.0784922271,0.1161402519,0.257915281,-0.1605806785,-0.1527727345,0.1512388327,0.1772190996,0.0403905569,0.1411912357,-0.0593241548,-0.0793932605,-0.0374721048,0.1524142814,0.0710928107,0.0646239996,0.2331767929,0.0752588546,-0.0400055942,-0.3328013702,0.0315624673,-0.0536233012,0.1045369114,-0.1394783677,-0.3683800736,0.1352989217,0.0587038234,0.0517228742,0.1202381472,0.1029349526,0.0322441165,0.0390900263,-0.0128074699,-0.3286227562,-0.1469911493,-0.4179693051,0.0151210044,0.238043804,-0.0089538658,0.2748108755,0.1822851342,0.0018588737,0.2234544477,0.3279032601,-0.2698207132,-0.1062079311,0.1317441379,-0.0550710227,0.2381500549,0.0482584867,0.0206813267,-0.0656879847,0.0661254201,-0.4508522756,0.0259818632,0.3649533968,0.3650851868,0.1156019537,0.1900285186,0.0819272802,-0.1267750904,0.2195286926,0.259031899,0.187614936,0.2066585629,-0.0417739835,0.1467441413,0.3495334987,0.0735286272,-0.1437581301,-0.0804210791,-0.2379777373,-0.3292202378,-0.3459761541,-0.0387291894,0.0526647944,0.0096006318,0.0892851525,0.1125689508,-0.0170914641,0.027543229,-0.186447932,-0.1729668688,-0.4406924915,-0.4463571773,0.2285936831,0.2681761175,0.3087861433,0.0732713069,0.307977839,0.1289255668,0.2173450591,0.0634066531,0.3275890032,-0.0909272325,0.0716839827,0.0271510353,0.3302184247,0.1993362928,0.0077839452,0.1227255613,-0.3280032742,-0.0563457952,-0.2682979677,0.0768637094,-0.0531154274,0.0787683816,-0.2838311801,0.007311658,-0.0535198045,-0.2917397902,0.0205133562,-0.1627458351,0.0802618556,0.0369674578,-0.1937996083,-0.298443341,0.3602066314,0.0221681566,-0.1447144101,-0.0108486278,0.3246473054,0.088732435,-0.0363294029,-0.1517437004,0.2097394559,-0.055757438,0.1228337967,0.2896425427,0.0660728832,0.1563369489,-0.0964065624,0.2063746558,-0.6339214029,-0.1253907545,0.0185372617,-0.205078824,-0.3259482874,-0.2421071249,-0.256859597,0.0911734858,-0.2785691952,-0.0394179533,0.0496095999,-0.1021686506,-0.2721007878,-0.0230735984,0.059383009,-0.2157055162,0.2695923469,0.1970640697,0.0454836989,0.091479218,0.0478888267,-0.1210225394,-0.3544952761,0.1187531585,-0.1389170546,0.0019570018,0.0264591342,0.0536044681,0.1974870749
   0.248140821,-0.1332444785,0.1162337147,-0.1172251975,-0.0639026687,0.2565099813,0.0657541788,0.2781766397,0.1553674946,0.152377249,0.1634299074,0.2035733831,0.203918722,-0.0272731512,0.2995991138,-0.0579939472,0.1718921927,0.0637821508,0.1432711971,-0.1594185906,0.0158739374,-0.362355605,-0.3851074788,-0.0471814522,-0.3178145416,-0.2647372527,-0.1183981619,-0.169947188,0.0322845583,-0.168885909,-0.2541170094,-0.0897528792,0.2396925418,0.0078211329,-0.2863443681,0.09301644,0.1279673507,0.1605814347,0.2960739534,0.0231837605,-0.1082437442,0.2347164811,0.1392034023,0.3195558309,0.2310202166,0.0424307312,-0.0231060431,-0.0021855924,0.3444670295,0.2382534145,0.1572748225,-0.3297210034,-0.2303387875,-0.1477072336,0.2154644729,-0.1122897894,0.0675762706,0.1180364394,-0.1726133083,0.0672410737,-0.1435052275,0.0053389035,0.1248867518,0.2188486166,-0.0084079317,0.2262557424,0.5241924276,0.2113158144,-0.2647576813,1.7489621632,2.2125359174,-4.0139609504,6.8428225125,0.5886632995,2.0593182485,1.5519468726,5.1900181091,1.3297143793,-5.4985001761,-2.7711073965,-0.3779531602,3.9112493495,1.740528051,-1.0706588778,-0.0629632053,-0.0098527352,-0.0925821264,0.0396523816,0.0941751269,0.3428166575,0.0054308431,-0.0508456749,0.2809772772,0.0576320961,-0.0734021426,0.0543103045,0.1934811799,0.229034881,0.0085207099,-0.0354218364,0.0482528926,0.198774621,0.0453319779,0.1078522899,0.23008926,0.0765595785,-0.1023107702,-0.0063685196,0.0745301849,-0.0399494735,0.0206447421,-0.0697759922,0.2206147194,0.0081488313,0.2774699794,0.0981925597,-1.1702720472,-0.0661948166,0.3934224526,-0.2754441605,0.4313539966,-0.2704855964,-0.3566159018,-0.3236331917,-0.0652356146,-0.0415730698,-0.3117927617,0.926624542,-0.5223323117,0.0145158765,0.4080889296,0.2231940319,-0.0357068357,0.2045655347,-0.0748414531,0.2720864292,0.2773780318,0.2011159311,0.1232971045,0.3071358636,0.2485467309,-0.106958838,0.1956204662,0.0859889954,-0.1165552531,-0.0269735657,0.0332381377,0.1825471898,-0.0289570778,0.2319015388,-0.083737357,0.1299302151,-0.0133338023,0.1316316954,0.1457208449,0.2830187172,0.2670822464,0.1697708044,0.1267189748,0.0764477068,-0.0031055307,0.0449775603,0.275105371,-0.1561526761,-0.0748458807,-0.1890302469,-0.0521133505,-0.048485662,0.1952863464,-0.0266908123,0.0777250985,0.1917126897,0.02918139,0.1501433443,0.0600830282,0.2403612806,0.1955255324,0.1926576799,0.1206378813,-0.4980818151,0.2221383736,0.2225630455,0.2053460287,0.0161867156,0.0552396869,-0.0269029602,0.152767954,-0.2160044933,0.5347538688,0.2833187859,-0.1260911728,0.2232709589,-0.1359393874,0.2552585775,0.2870585125,-0.372602998,-0.1346205493,-0.0229542483,0.0960330624,0.1151137747,-0.1533684326,-0.2069185957,-0.1538189232,-0.0208770617,0.0049958056,-0.0697866352,-0.2238693537,0.0335246409,-0.0707439753,-0.2320207051,-0.367408026,0.5216168782,0.0406251702,0.2285072972,-0.0133023973,0.1369627204,0.0587777579,0.0986605533,-0.0151893914,0.2378522566,0.2332776628,0.1332828168,0.2945252235,0.2573193676,0.0687570152,-0.187174863,-1.5104346741,0.0389678015,-0.0266625443,-0.172713822,0.0909562994,0.1095681341,-0.024225355,0.0260648551,0.0241555172,-0.1722457878,-0.2296728684,0.0586006003,0.1397664505,0.0161613309,-0.2434803352,-0.0765356412,-0.2995007468,-0.0703674584,0.0400786466,-0.227591537,0.1724356998,-0.0489195383,-0.1404885928,-0.1936739052,0.0559636768,0.087914703,0.0661133222,-0.2011739476,-0.0260803302,-0.0606313093,-0.0594229092,-0.288610105,-0.1237600543,0.3661902171,-0.123215046,0.171187085,-0.0519650069,-0.1617532396,-0.2570816944,-0.1629763643,0.0770260568,0.0609009806,-0.2027528162,0.1449483325,-0.0816376822,0.0647174792,-0.1388099238,-0.054597476,0.0291720823,-0.1508951617,0.2429161278,0.2697436097,0.256616791,-0.0160013402,-0.0034696619,0.0910530604,-0.0457624933,-0.0651411232,0.2922643038,-0.0093436496,0.1350243675,-0.1184274626,0.0808172725,0.0705651048,0.3601818978,-0.107970386,-0.085611467,0.0823369492,-0.1011547413,0.0727341697,-0.0813520776,0.1621766887,-0.0101693211,-0.0937571464,0.2226226455,-0.0878057212,0.0068788598,0.3050040241,0.3448341189,-0.0018296423,0.0735411967,-0.354782646,0.2537235522,0.4426392539,0.212036565,0.4022042948,0.2340772511,0.1466474001,0.1360050653,0.2008686138,0.7629768299,0.1919874124,0.311100011,0.2086867929,0.0936319713,0.2589553014,0.3677321181,-0.0951642314,-0.1220002737,-0.0507351425,0.0341914137,0.0860789115,0.0609188257,-0.0395302011,0.2621275361,-0.0622516434,0.1228315232,0.0273190498,-0.0592983448,-0.0313038099,0.0351984871,0.2714774112,0.0452509156,-0.0010098977,0.0862234991,0.1948370035,-0.2000256552,0.1991298485,0.6139538619,-0.1049984659,0.3635379549,-0.7962468262,0.1062070137,0.3049877846,0.1229195309,0.0629567687,0.438153704,0.0273483439,0.1493324078,-0.1901851587,0.1707174468,0.1802408743,0.0191965586,0.226222148,0.0273999077,-0.0194551897,-0.0446722788,0.2396739123,-0.175962448,0.1423285802,0.0623172564,0.0732992277,-0.0769151461,0.0370414654,-0.0746221036,-0.45854452
##end
biasActivation=1,1,1,1
[BASIC:ACTIVATION]
"ActivationTANH"
"ActivationTANH"
"ActivationTANH"
"ActivationTANH"
