encog,BasicNetwork,java,3.1.0,1,1422169707938
[BASIC]
[BASIC:PARAMS]
[BASIC:NETWORK]
beginTraining=0
connectionLimit=0
contextTargetOffset=0,0,0,0
contextTargetSize=0,0,0,0
endTraining=3
hasContext=f
inputCount=15
layerCounts=2,42,42,16
layerFeedCounts=1,41,41,15
layerContextCount=0,0,0,0
layerIndex=0,2,44,86
output=0.82719968,1,1,0.6762327646,0.9999256588,0.9929253659,-0.9872123083,0.7290113462,0.968217801,1,0.946599194,0.8591874215,0.9891621304,0.9999672706,1,1,0.9999974801,0.9999620774,0.9526366407,1,0.9804354563,1,-0.0258845557,0.6742766431,0.9927677625,0.6216083849,0.8919232571,0.6959231052,0.9526841195,0.9999937837,0.9933229678,0.9405372708,0.9524639291,0.9651769224,0.9380091404,0.8909454951,0.9688690539,0.9999909178,0.5308097334,0.984224239,0.9760602378,0.9005523306,0.7860464047,1,-0.1106224198,-0.8822949832,0.1561713259,0.6012130002,0.8688401541,0.2451089199,0.9521599012,0.9688612273,0.2562864918,0.9856516499,0.9882507306,0.0982850427,0.6193601827,0.8366509383,-0.9602542958,0.9914426239,0.7842312555,0.0957438198,0.1637481099,0.1697249674,0.9778924398,0.7693657862,0.5052385773,0.9995551613,0.8473062934,0.8202922404,-1,0.8853332118,0.5677864469,0.9883013704,0.9156006132,0.9998370878,0.6745795216,-0.9999998193,-0.9951809582,0.9799028495,0.899721216,0.9903753383,-1,0.9337726181,-0.9919198937,1,0.8967397292,0.922104508,0.9144182114,0.9185175696,0.9459320275,0.9315842738,0.9433699286,0.9684784976,0.9218482981,0.9115999026,0.9180051498,0.9572052626,0.9518248549,0.9456758176,0.9331215332,1
outputCount=1
weightIndex=0,42,1764,2420
weights=##0
##double#2420
   0.0145781672,0.1395731469,0.0504814199,-0.0542276882,0.0891002503,0.0923876044,0.1223373227,0.0987406951,0.1040794102,0.1289595453,0.1496341607,-0.0073407913,-0.0295472865,-0.0950200091,-0.0475310585,-0.067938715,0.0723283671,-0.0229947882,-0.0236927858,-0.0069136213,-0.0514686273,0.0413830733,0.0500601834,0.1563597275,0.0038905694,-0.0045946606,-0.0684229216,0.1274352866,0.0483973154,0.1549460863,0.1333629961,-0.0160906813,0.0487151155,0.1093101288,-0.1422777595,-0.0108508619,0.1609716343,0.1777969087,-0.0083690009,0.1071534489,0.1470926044,-0.2514220728,0.1816630662,0.2943722877,-0.0018161779,0.4910461006,0.2099525061,0.5323308135,0.1741209328,7.4094035767,2.3909825496,0.2782522045,0.2590795273,0.6332691921,0.2100929075,5.7644133997,0.4545236522,0.1053942671,-2.5220997033,1.3736886415,0.0871049802,0.7818104405,-3.5510546052,0.0457032136,0.3632182339,0.2681384904,-33.8257523555,37.2247987216,0.1608860344,0.0999332935,5.8791975336,0.1017380608,7.4946201813,0.1771437864,0.6823781085,-0.0189720335,0.3450895795,0.0433361048,2.0499943666,0.2677323569,-0.0012085784,-2.4317012982,0.3393701082,-0.0342507734,0.2919904569,-0.4969548774,0.166208214,0.4852654355,-4.974597074,-0.0482269938,0.3294738724,0.3358436356,-0.2706609013,0.2633000804,0.3251268761,0.4284564317,0.110133093,0.0030906949,-0.0048292202,0.3777203491,-0.0185175184,2.4368159251,0.0220486072,0.1414741492,0.3284589101,0.475187788,-0.0977133239,0.298530302,0.1855747048,0.1371564032,-0.1424949909,0.2768074214,0.8820903524,0.3032485459,-0.0534207025,0.1496206232,0.3154823659,-0.0484731,-0.1383274977,-0.1599317197,-0.3817765273,0.3355875925,0.0761246342,-0.1095243413,0.2601801417,0.2542422059,0.0085980998,0.0977479624,-29.8629624967,9.9203251839,0.2885285261,-0.8088611765,0.1609454905,-8.1528164399,17.5003459033,0.2113536261,0.2147185255,27.5938462643,0.2739417447,0.5157050622,0.2497620943,0.2977766813,0.5037627871,-20.9301788781,22.8578084615,3.5969982995,-4.5502024975,7.3238385085,3.0720470955,0.1485964778,10.9046824823,0.1759790499,0.0049493105,0.0747808791,0.967748002,-18.0767604879,-0.3598418817,0.1917153434,5.0749435658,4.5363292298,0.368681527,0.0810182395,8.4835191611,0.059187128,0.0471916671,-0.5298371547,0.176958785,0.1102667611,-0.0998529475,-0.3929157043,-0.1356221192,0.2133619396,-0.0065275504,0.1593340917,0.1574223643,0.2511864497,0.0510575528,0.0646871513,0.0055666949,-0.2815237845,0.0042736104,0.1422450765,0.2297669061,-0.0519576362,0.1711810887,-0.0819864787,0.1579842236,0.1518192766,0.1797504002,-0.0226967469,0.2955783603,0.0301448366,0.7641000608,0.7199857157,-0.7295722718,0.138127871,0.25168134,0.2185544429,0.1620279188,0.0380395555,-0.102153032,0.0050462175,0.102826615,-0.1066657309,-0.5583251437,0.0182903691,-0.0814411136,0.236845376,0.3298715367,-0.3365622085,-11.0904536583,0.2409811604,-22.3573783958,5.0192112327,-0.009888977,18.0567898023,0.2210240499,-0.0568634577,-43.9337973157,-0.16518139,-0.2808735804,-79.3199292322,0.1006138065,-0.1318979953,0.0071509993,-0.1736949129,-0.0819180929,123.8175468849,5.2709102997,0.2510759983,-0.1099000285,-0.2228882849,0.2243857329,-0.0953646655,0.3379849631,0.1335993245,-0.0837290805,0.0470381637,0.1621220253,-0.2973385702,0.350540611,-0.12338182,0.0390604403,0.134489748,-0.1435149501,0.2730276552,-1.096883904,-0.0889804664,-0.0647246578,0.0962654169,-0.0549802448,-0.3016362414,0.0362113479,-0.6386153738,0.0531410869,0.013915562,-3.2226205387,-0.0034325855,0.0309391595,0.0226928599,-0.1202468652,0.1429562441,0.2175313218,-0.0185946821,0.0602574573,0.3504695776,-0.0164466898,0.0042051895,0.2313773116,-0.0759348222,0.4085364841,0.3917882971,0.2001798034,0.3287123611,0.1362482858,0.1837689363,0.2744103377,0.0162341314,-0.4673945583,-0.0867054316,0.5777168745,0.2973035134,-0.0196547082,0.2364791219,-0.1029594298,0.0475205368,-0.1442263104,0.1289425351,-0.301854311,0.3116511315,-0.1078687541,-0.1114788619,0.1368812504,-0.1173692873,0.0051535316,0.1387856741,0.1219193554,0.1217963013,0.1367928855,0.0842509282,-0.2121797664,0.3367425544,0.0873364365,-0.1634005567,0.0783999931,-0.0060356699,0.0861345113,-0.0033180027,0.0133975314,0.099672592,0.0834603506,0.2394641111,0.3361529934,0.2610482332,0.0965504568,-0.0141907372,0.4468925813,-0.1691644784,0.3419446971,0.3807660062,0.2069715264,0.1407484021,0.1726585877,-0.2888003454,0.2716295903,0.0642189989,-0.0616720459,0.0270411755,-0.1912255149,0.2093282033,0.2635809831,-0.075310593,0.0399038288,0.3105686863,0.01615607,0.0586977497,0.1176477357,-0.2068465573,-0.1079159127,0.1312844624,-2.0608498674,0.4020152348,-0.3323981127,-62.349452661,-0.1378422561,0.2116405393,0.0948794742,0.6091070811,0.0216912905,0.41856912,-0.113178782,0.0037896788,0.1718526387,0.0502438583,0.2418377644,0.2531867481,8.8676598868,0.0707945025,0.203994629,0.3216202995,-19.4042373229,86.4476078438,-0.3622910984,0.1259194837,0.0882988925,0.2120883135,687.6625100211,0.2653556574,-4.246367934,0.3020114249,0.1233877231,-0.1785571791,0.3339296751,0.0126496108,0.0692834193,-120.7887535535,0.2088960674,-0.272566068,50.771564646,-0.7237590444,39.2898717055,1.346266704,-5.4291502307,-6.3499362955,0.3021575849,0.2519770333,51.754569726,0.1595786233,0.4285822645,21.240110566,0.4535986525,0.2873877938,0.1470652659,0.2662566175,-0.0147497199,-51.3742854996,-25.8934548769,-0.7820032651,0.1673484615,0.4765632378,-0.0950086946,0.4185033763,0.0898855192,-0.0629431707,-0.4233113764,0.236129888,0.9283948675,0.3817654804,0.0414852563,0.2755114143,1.0268557058,0.3954856576,0.3050590615,0.144910608,-5.8721291472,0.4418962782,-0.1057127308,-0.0983379483,0.1168083723,0.3353347729,1.2228320247,0.0134206344,-0.1900923646,1.1068708693,0.3216964974,0.5413705587,0.0867064961,0.1163606738,0.4357569136,-0.2277106886,-0.001625221,0.222726985,0.0231917289,0.1102599035,-0.0666071523,-0.252301668,0.6924869329,-0.1858620392,0.4771862655,0.4573371854,0.0869677195,-0.0228795889,-1.4601343556,-0.2633294671,0.8593394136,0.2744114567,0.014413532,0.0204958566,-0.090820102,-0.1933656577,0.4167292718,-0.036558199,-0.0972635527,0.0804590782,-0.1849968409,-0.0720951683,0.3671229001,-0.1722742936,0.0451315933,0.4188643536,0.4052124051,-0.5118469891,0.1142829985,-0.0636994767,0.0402374624,0.0565445853,-0.071641703,0.1723456703,0.0567521958,-0.2656499688,0.1783612253,0.2147136965,0.2327574754,0.1855522964,0.1087250988,0.3280729199,0.2560061914,0.3318388143,0.0859349805,0.1642859879,-0.0078953735,0.1968837537,0.3652524259,0.1903859237,0.0449214037,0.3066830487,0.25132448,-0.0389290649,0.0431515728,0.3896926037,0.0721738694,0.1697538529,-0.0359719227,0.1813750326,0.1430607359,0.4368311876,0.1371385922,0.0439292281,0.0077531468,0.280038147,0.1394956734,0.1623669468,0.1618929584,0.3248539905,0.2979493522,0.2703105186,0.0366834629,-0.0120578346,0.3842213278,0.2260786953,0.1500181803,0.4173709297,-0.1026830793,0.0863327551,0.1247378107,0.0618217979,0.0561717771,-0.2329333998,0.2205294954,0.0171607666,3.8416973979,0.1734431213,0.0124648379,0.0708050774,0.2680446537,0.1561322094,0.1628523862,0.1024610618,0.9597945175,0.0852762454,0.2246739855,0.1355921371,0.218691511,0.2464980298,0.2610052851,0.2720482506,0.2496968944,0.1856376822,0.183821459,-0.1020678925,0.1506575181,0.0789896678,-0.11099786,0.1783740286,0.0698456302,-0.3761952591,32.244651341,0.0316306741,31.4299808174,-10.9103669637,0.2579367852,2.2162611164,-0.2141476682,0.1095625301,-13.9853379557,-0.240959665,-0.2113948657,-4.4928157423,-0.07489077,0.7801312509,0.0903554027,-0.1193349551,0.3469268267,-5.8596637671,48.3100091778,-0.3222954635,0.0840608304,-0.2439619534,0.9332544711,-0.1300865314,0.1256092873,0.0243488856,0.0485893642,0.0651785142,0.3560304736,-0.0253464154,0.0849752912,0.0689534397,-0.0311851422,-0.0421271115,-0.2520622735,-0.0227365159,16.1541946703,-0.0468416769,0.0413966052,0.2324166758,0.9461174602,-0.0586216409,0.2555831281,0.038023468,0.2517212318,0.2715473554,0.2294049414,0.3104861539,0.320639769,1.162734941,-0.2469110033,0.2988571508,0.2326924746,-0.2575172811,0.2470792042,0.1895444668,0.2340283124,0.306182506,0.4260766119,-1.3099427002,0.3724563516,-0.0572662224,-16.0269851519,0.174342848,0.0082613925,0.2429960252,-1.0946521978,206.2338983541,0.0561804741,0.0932041262,0.1290497574,0.6055218029,293.56554667,0.0827868378,-3.3133375286,0.2502202505,0.1763725291,0.1206610148,-2.8222836742,0.1132384538,0.1744618869,18.3546903875,0.2030889071,-0.045442646,0.2641654336,0.0499228574,0.4303640595,1.131514131,0.0511013137,12.596944084,0.2766061422,0.1204337577,-8.8081652784,0.0420995541,-0.0323520371,-1.9222627042,0.0041473345,0.9004633286,0.3991943243,0.2328117319,-0.1252975395,0.6508733744,-0.6364550406,-3.0864685461,0.2019927043,0.3256644451,-0.7502296673,0.0290521493,0.2408080326,0.5691254584,0.2932056755,-0.172150193,8.6982231127,0.2200721674,0.2536875642,0.1772418833,0.2622277696,0.1474749018,0.3484622491,0.1068315938,-0.2471165166,0.0815110511,0.1884345215,0.32089553,0.376376517,-0.1693368089,0.1019093238,0.1778533131,0.1939855834,0.3234833866,0.3044234431,0.0591996437,0.1628661457,0.1306872393,-0.0814785452,0.2105235708,0.0983526858,0.0396666915,0.3775682595,3.0930754822,0.4115226529,0.1505813337,1.1535015174,0.1428976496,0.5788857726,2.9195241367,0.1758913964,0.2188521932,0.2517314435,0.3483563753,0.3124240398,0.8114756381,0.1001158898,-0.0048378632,-1.4854822796,0.5011602555,0.2043566074,0.2417964202,0.2127072775,0.3454080117,0.2730852392,0.0327689227,-0.5686389051,0.2977613017,0.3293244521,0.1530057425,0.311900315,-0.1211840551,0.3107704161,-0.6493368277,-0.2735647286,0.1711031643,-3.4762731552,-0.0994309206,0.2369356289,0.1887809103,-0.3380393929,0.2798543737,0.3931260471,0.0808588672,0.0533808502,0.3202176296,-0.107364012,0.3230104511,0.3290102855,-0.150504945,0.3292741628,-0.0328404529,0.2533773233,0.2912741532,0.1141615769,0.1434115528,0.3126733508,0.1504511303,-0.3595610364,0.1464724851,0.8955865226,0.0677178616,-0.0459873169,0.0785640364,-0.1363227983,0.2029427636,-0.082550771,0.1005716692,-0.3996107491,0.0290680275,-0.0554345954,0.0158017973,0.0082652302,0.5157393529,0.2552180798,0.0633168249,0.0774748963,0.0437984956,0.0432325882,0.1758836874,0.2008311618,0.2885443023,-0.1058667687,0.0516733588,0.2477975525,-0.168863811,0.0022637892,0.9705035528,0.2172462362,0.2874692452,0.116474327,0.0852806884,0.3687820301,0.487375167,-0.0046780357,-0.4023081677,0.4526914375,0.120744495,3.2987922159,17.4602992001,0.01058452,0.0029074496,0.4541459931,-0.0265149305,-0.1092980994,0.3004366978,0.1027262506,0.1938028368,0.3984492531,0.2528487256,-0.0302303021,0.3778177527,0.1377583989,-1.8755940407,0.1821295153,0.06755906,0.3422098722,0.2821229384,0.1828838541,0.1732322842,0.0348098848,0.2858496927,0.1518070484,0.3020064718,-0.1049315441,0.2796078207,-0.0173858856,0.2038098912,0.1673292258,0.5160875146,0.3337814547,0.2366560382,0.3927753621,-0.0172900272,0.4226411762,0.2871917185,0.1340843334,0.2429276981,0.2324193501,0.2689756788,0.2384965161,0.3184781501,0.3658824568,-0.2040707565,1.1067967739,0.0576723196,0.0519431447,0.3283397247,0.2974175297,0.0992362931,0.3681875551,-0.0729909984,0.3838539416,-0.0590627049,0.1986602945,0.0116255465,0.5223104346,-0.1269038687,0.0918505468,-0.5378422583,0.1525820964,0.1557069403,75.7265531351,0.2544639085,-0.0533725158,16.297696098,-0.1429328943,0.266103059,0.0753745609,-31.6225968626,0.7094921808,0.2700154363,0.0146381512,-0.0005151675,0.308794971,-7.2942624926,0.285723069,5.4059887101,72.9350778971,0.1052161022,0.1964683391,0.166296413,0.3482664487,-237.2935327746,-0.1888536152,0.025972447,-0.112535527,0.1903403811,499.4143783086,0.2350173071,-22.1621452209,-0.4688140783,0.0349865978,-0.202772435,5.2958955617,0.0267036404,2.0470314032,-249.4896813527,0.1704278652,0.1856328886,-0.3529243641,-0.2188310642,-0.040147667,0.4538324423,0.4996726867,0.5111955845,0.0452045139,0.0691333219,0.1826271835,0.1715284184,0.206097156,0.1262957446,0.0531924386,1.0312614104,0.0137041033,0.0566368307,0.0338375323,-0.1890477024,0.1248274792,1.058272469,-0.3025795683,0.299268909,0.0604634104,0.3146737826,0.491166352,0.3858635789,-0.6368791187,0.0556801778,0.5678621956,0.0959819082,0.2943394173,0.2174119137,-7.401047019,0.0001179525,-0.0647623022,0.0250540055,-0.8484136469,0.1078042409,-0.1875241201,0.1941471488,0.2499191844,0.0636684717,0.0683458295,-0.6474403972,-0.180550802,0.3132129413,-0.7530727587,0.1739925929,0.1304721193,0.1979079284,-0.2859608561,0.0582800412,0.1547838964,-0.0228842892,0.1452049265,0.2434241852,0.107089913,0.1168787583,0.1201152052,0.1471533246,0.0177831363,0.391510645,0.0295143604,0.311988964,0.0965124015,0.2798277089,0.3276660501,-1.0000094676,-0.3940950558,0.0250282615,0.1078094094,-0.0387592134,-0.0450210833,0.0454479015,-0.2033914565,-0.1156396253,0.0138553452,-0.1564276674,-0.3977962555,0.0391834397,-0.0452367682,0.0817079513,0.3711103603,0.0275177714,-0.0838844681,-0.0997461309,0.0064389389,0.3313754998,0.079661246,0.538953746,-0.0339857678,0.0596853449,0.0197959402,-0.2441734753,0.0049301647,0.0612135673,-0.0150000437,0.3764043463,-0.2261439671,0.0250706215,0.2274355429,0.1679080448,0.3661082388,0.7463984304,0.3975169369,0.061144739,0.4365972213,0.0250929474,0.1818936599,0.4100356229,-0.0488593523,-0.011376275,-0.0728151063,0.0759382261,0.1223209926,-0.0029728245,0.0618128198,-0.0083448711,-0.2565176823,0.1002333346,0.2032395531,0.0844602721,0.1859096997,0.2863649056,0.2047968544,-0.3207607947,0.133198367,0.1011926093,0.0486508497,1.1785725581,0.3813020247,0.2352604208,-0.0216610963,0.2204577546,0.0173525447,-0.2057179547,-0.0458042122,0.1298806611,-0.1141857535,-0.0593253268,-0.2943831875,-0.1868949243,-0.0406482855,0.420050329,0.5125535642,-0.1209304232,-0.0242879199,-0.2783233506,0.1801699528,0.0567855047,0.0912757873,0.0247573908,0.0091687129,0.0124238378,-0.1109742772,0.0575519672,0.1426770058,-0.247140596,0.347476913,0.0331476144,-0.0632517392,0.0076085496,0.2090219905,-0.2017249874,0.2131123343,0.0827386977,-0.3201292504,-0.6128206179,0.4060648218,-0.3611659526,0.2573052506,0.234742386,0.1415527149,0.4839056029,-0.348727944,0.2376345806,-0.1328824309,-0.0641631191,0.1697446901,-0.0449674216,-0.0780713868,0.1433038103,-0.0409485564,0.1875331672,0.434646947,0.1412363401,0.2335978208,0.4174880291,0.1623817298,0.1677344227,0.5852157654,-0.0009898961,0.0184864778,0.2338734986,-0.0663059383,-0.0929203971,-0.545063565,0.0206240559,0.2529259166,0.1690774064,0.1014621388,-0.0382788172,0.0090344197,-0.3129202223,0.0335914087,-0.0030846284,-0.0347980861,0.1200800742,0.3590804986,-0.4845208574,-0.0263591116,0.0542116069,-0.1227226526,0.308253578,-2.2905042517,0.2824429658,-0.1601863946,0.3706122015,-0.1482729823,0.0484613286,-0.0122597024,0.0744008845,0.6276065447,-0.0216514263,-0.6074899334,-0.0107685584,-0.0366603176,-0.0285955175,-0.0763094664,0.0659280793,0.0052359308,-0.148269502,0.0527799691,0.1537544902,0.3376066723,0.0612819841,-0.1294837166,0.1071445283,0.1277515985,0.1201299461,-0.0350747624,-0.0297255908,-0.0013493249,-0.0817735098,-0.4166298173,0.142972938,-0.1445026472,-0.0758983706,0.0888940449,0.2237891484,-0.0619744062,0.1635279038,0.1490630094,0.3069267525,0.1896649324,0.1841938464,0.2036441355,0.0322266502,-0.0575246892,0.2497793648,-0.0598494592,-0.0546900402,-0.1450438297,0.0901152881,-0.2008581481,0.4321922374,-0.1368886337,-0.0574329606,0.179180216,0.0673761953,0.4230182679,0.6423081261,0.0762472052,-0.0480725287,0.1289611691,0.0029758804,0.1112477259,0.1312080371,-0.1278338199,0.0422466343,1.0286660547,-0.2144829868,0.0254765802,-0.1434595686,0.3606381137,-0.019341616,0.0216529627,0.0023706529,0.4017986139,0.0995466619,0.0903289811,0.284229071,0.3657956575,-0.0388379904,-4.527623109,-0.5765519448,10.5852633088,0.0134577049,-3.3548846609,-6.0151670743,-0.0981468332,0.2322783288,3.8023757508,0.117526139,0.1466445311,13.6214643496,0.1308766657,-0.0096234033,-0.1134065636,0.3203759763,0.0035609769,-15.7425887966,-18.0191765707,-0.9712604881,-0.0701582524,0.4068093366,0.0151254696,0.305747989,0.2982996036,1.1806044157,-0.174272089,0.0480622213,2.908857111,10.3173265431,0.1347720004,0.323349177,-0.1252038668,-0.0413378207,0.1298069522,-0.001244928,-5.9874217457,0.0901805743,-0.1123576673,0.0449405873,-0.0436833518,0.4569473495,-0.2752970642,-0.0706408771,0.0129033006,0.7726980589,0.313195542,0.2897936565,0.0520233076,0.238086701,0.0993114839,-0.0985443469,-0.2011619155,0.1811001227,-0.0870093476,-1.0272601564,-0.3372542248,-0.1501793243,1.6336091891,0.157809698,-4.0633454928,0.226579343,0.4201334113,-0.0755777416,0.9894618785,-0.0961743446,0.6784952215,-0.5069902195,0.1479036499,0.2233161671,1.3083545112,-0.1183626623,0.2514903191,-0.0474685559,-0.0128773735,0.1193181697,-0.1244198904,-0.0402399156,0.0893986654,0.0983411376,-0.0212452494,0.1690822979,-0.1929903764,-0.2902871769,-0.1321673618,0.0702023054,-0.0284729893,0.8610385422,0.4251072969,0.5422679761,0.0077331103,0.3794932645,0.2625735223,-0.1449277447,0.0786975493,0.2954997811,0.1061278066,0.1165035325,-0.1201837185,-0.2282554254,0.2913518445,0.109781308,0.0989281411,1.5665342883,0.0508016952,-0.0565365489,-0.1998634469,0.0823342072,0.054579696,0.2758009228,-0.0484668974,0.1135557598,0.77431937,-0.1826007656,0.105326932,-0.0604786642,0.1880936574,-0.0625408926,-0.230097071,0.1239855997,-1.1936729203,-0.004301327,-0.0578844154,0.1789354259,0.0017553458,-0.5942092899,-0.5824806984,-0.5020023886,0.394644167,0.5119066141,-3.8071020556,0.0130045535,0.1362169354,0.2444898486,-0.2259387431,0.4914373796,0.4217103579,-0.0928351728,0.4678336015,0.0838984864,0.3136895782,0.4379972071,0.1925877404,1.1563196843,0.037174903,-0.058090852,-0.0259771474,0.4028936758,-0.0709210613,0.450658947,-0.0142038785,0.1643544715,-0.4819984842,0.3071795269,0.6519755591,0.1998735282,-0.1899574862,0.474942699,0.0152589517,0.1446461133,0.1306796969,-0.0752812842,-0.2760904998,0.3756497301,0.1293622898,-0.102429486,0.0827811775,0.4109375616,-0.0840065704,0.0648215128,-0.0398499817,0.3742246561,0.1546043317,0.0732263944,-0.1254116829,0.2998048857,-0.113687073,0.0053784535,0.0694868688,-0.1419106802,0.0960016121,0.2983148981,0.280823685,-0.0055884768,0.4821556816,0.0788464971,0.273393306,0.413439754,0.3129754294,0.0405345831,0.2289874967,-0.058693954,0.5615407139,0.2738564246,-0.0346203422,0.0622212071,0.2626641254,0.0886016873,0.2064609767,-0.0282790766,0.2396504382,0.1333538006,0.2871925522,-0.2233713018,-0.1079414571,0.2645116839,-0.1239243952,0.0577020268,0.0771155315,-0.4146667215,0.2907804523,-0.4645375969,-0.055989117,0.0409322356,-1.3526733613,-0.1894958709,0.1794062051,0.1647989379,-0.2647945343,0.3088001777,0.228181393,-0.1777224237,0.3082967467,0.2325171971,-0.1520050978,0.1542496818,0.3090781768,-0.063658732,0.2610064509,-0.4588089068,0.2182412587,0.1567991506,0.142670694,0.27849708,-0.0109304632,0.0351899698,-0.2805100602,0.0579949108,0.4779343988,0.1691207679,0.0534602767,0.0384206471,-0.3300748948,-0.0136785355,0.1127755913,0.0200891599,-0.5820676464,0.2707544266,0.0264011514,-0.0226323796,-0.0688488056,-0.1367211949,-0.0194395915,-0.4601726768,0.0698800398,0.4896549447,-4.8235150178,-0.0494518502,0.3276472959,0.0460465647,-0.259627232,0.175721399,0.3544360814,0.371113476,0.2230529863,0.0930625447,-0.1059905069,0.3198395265,0.3437615401,0.494930138,-0.0255393826,-0.0020705894,0.1558161352,0.2640494423,0.0639363088,0.0620717371,0.0204183005,-0.1622127195,-0.402879216,-0.1243522678,1.3024495644,0.3214538927,-0.0707381504,0.2981752325,0.4720068414,0.1510751727,-0.1168384521,0.0557581751,0.1599357085,0.2825369729,-0.1955464245,0.0951134151,0.1568645556,0.3105099558,-0.2375362852,0.0085472969,0.1199844256,0.4636654232,0.134820191,0.3796686757,-0.2344157344,0.0989702603,0.2844378752,0.0320278344,-0.0668692114,0.1578047274,-0.2209586574,0.0758978882,-0.3334641628,-0.0082767066,0.278496,0.0022375468,0.1152321576,0.5184100081,0.3686046742,-0.1905886683,0.3297179662,0.0452261426,0.200017886,0.3201919061,-0.0897227355,-0.0802580806,0.4539519456,-0.2066346968,0.3397173836,0.0591987987,-0.0578413832,0.343524436,-0.2656654823,0.1996509473,0.3642194524,-0.1510399223,0.0660800876,0.1392128054,0.4167697964,-0.1499100975,0.4678664401,0.0541270279,0.1535003202,0.195902475,0.2602009156,0.1402521869,0.2453385112,0.1509178906,0.054986773,0.1437358362,0.0617421104,0.3067882036,0.1507612941,0.0760465733,0.229570844,0.3272047541,6.3847450188,0.282657509,0.2100206309,0.3382587308,0.3449713087,0.3261768083,0.0504778573,0.2794166297,0.29537168,-1.5909339517,0.3390360744,0.2091574892,0.6966211058,0.0926398839,0.05504528,-0.0058728707,0.1512689795,0.109793834,0.5088006507,0.1470657548,0.0969663815,-0.1149662272,-0.1507602128,0.1535597854,0.0235595274,-0.2554749434,-1.6815450718,0.1664300102,0.3525202324,0.9156090459,0.1499488873,-0.7995971139,-0.0947849328,0.3224247666,-4.5366190678,-0.292038233,-0.2331152597,0.0182168033,-0.1012169657,0.0166780467,-0.1711894053,-0.2446430169,0.4789464206,0.2882721261,0.5066424684,-0.3599509609,0.0550700607,0.0658461813,-0.1166337861,-0.1723443498,0.8102212197,0.2063221513,0.1178542775,0.1880166502,0.6664021309,-0.1301551776,0.4240605986,-0.1906615937,0.011309282,0.1853330417,-0.3455017211,0.152437386,0.6291971712,-0.1931216689,0.1663353861,0.1545793469,0.3910564998,-0.3344341219,0.0943314301,0.0284345898,0.1642578073,0.0039306858,-0.4006316223,0.2141754995,0.068080148,0.060450157,-0.0258478237,0.0691889643,0.2648707014,-0.0566206421,0.2307919508,0.2932632377,0.2034641523,0.3735268472,0.1386346177,-0.08530304,0.1498790162,0.0310042961,0.16365674,0.3814279205,-0.011676639,0.2257044738,0.1967633745,0.055561343,0.1338925801,0.3936860709,0.2381155424,0.1578430973,0.0619932016,0.1473388682,0.3326297184,0.4752600094,0.0472582952,0.2294575337,0.0796248861,0.0172367351,0.1623477352,-0.0023412192,0.2157701227,0.3530698186,0.4658531289,0.3850378542,0.4195023481,0.1314222129,0.1497437001,0.1524140008,0.0167058076,0.2205572508,0.1240164524,0.308841073,0.2501861155,0.3004932243,0.0452834677,-0.0057369056,0.2370203546,0.3209183697,0.3818476539,0.1728151047,0.4500190677,0.287521074,0.1300215263,0.1149424915,0.5876160594,0.2056493816,0.3887502464,0.0107347599,0.4038305597,0.0233992093,1.1660277344,0.1298004279,0.0602885388,0.0356256322,0.0699769911,-0.0228774531,0.2979019186,0.098546004,0.3195563186,-0.0046735524,0.2691435612,0.0129773618,0.3865322127,-0.1758518597,0.1931414909,-0.2825031608,-0.1673525407,0.1243945925,-0.1218189824,0.022659752,0.0128239054,0.1953210644,-0.1996304608,0.0759842427,-0.0284568101,0.0100806449,0.2111252762,0.1235546885,0.1302291214,0.136407553,-0.0230128326,-0.2090433814,0.0869484295,0.2205575812,0.133632915,0.0759356298,0.2682419428,0.3393130389,0.1274228667,0.203905721,-0.2857288527,-0.0779402924,0.0889386213,0.0687682938,0.2125194344,0.0855557692,-0.099566849,-0.0103146322,-0.1139055351,-0.0018337214,-0.4442638703,0.1209135411,0.0743373172,0.0452327575,0.3672757666,-0.0897634147,-0.0672924612,0.0698777573,0.2039141762,0.6355605405,0.3048205773,0.5225552602,-0.0676215741,0.3166425786,-0.3506095478,-0.0480337447,-0.2847233953,0.084320526,0.10517906,-0.0028361717,-0.2079227697,-0.2935750944,0.0604962225,-0.367409933,0.628372227,-1.01513235,0.0963954023,0.0148367702,0.0221878283,0.0076679307,0.2947535045,0.1493439436,0.2189401952,0.1473335881,-0.0575547807,-0.2340116913,0.2379852653,0.0242255625,0.1962075179,0.08209902,0.000065501,0.1030276051,0.8172880969,-0.259836678,-0.095553708,0.2959367253,0.2265066058,-0.6008398413,-0.0386452674,0.1868776269,-0.063719399,-0.2557616537,-0.0439702147,-0.1436631094,0.06137447,-0.1427452652,-0.2250828397,-0.1106865097,0.0815205499,0.1135045365,-0.1466045156,-0.0038555022,0.0769132849,0.4965478659,0.197740705,0.1840829548,-0.7703297111,0.0095861402,0.1486942469,0.1238939095,0.0669811742,-0.1930760372,-0.271148964,-0.1570418195,-0.1727521432,0.0455788841,-0.1204951674,-0.1019873649,-0.1373022569,-0.3224366983,0.1279742702,0.0973797574,-0.0979722709,-0.1993885439,0.3986053449,0.1401662959,0.0826757547,-0.1094325276,0.0894322481,-0.527817568,0.2491327069,0.152517324,0.1823347411,0.0858882036,0.1890961433,-0.6612084189,-0.0346427104,0.0042623604,0.2207569916,0.058655262,0.2142718585,0.1484268728,0.0881822997,-0.0987178835,0.0156267713,0.0283915682,0.2103227681,0.0841290297,0.2994161043,0.1086592318,-0.0177526039,-0.5471775903,0.1266858888,-0.0671271774,0.3421633029,0.1057848085,-0.0459586359,0.306388864,0.1249401999,-0.0429373678,0.2890090326,-0.0942529309,0.3454156281,0.3444649819,0.0190720091,-0.0380375713,-0.0412366899,-0.2226792167,0.2181457753,0.1805048097,-0.0836677776,0.3412603131,0.0476169894,-0.085027299,-0.0240530242,0.0217040589,-0.1309548405,0.1189408284,0.3199809154,-0.3149331289,0.1222943264,0.103850361,0.026751706,-0.532538061,-0.0710778983,0.2618329551,-0.0894035596,0.1671715489,-0.0080794544,0.1539480578,-0.0329283981,-0.0014440412,0.0912347824,0.1951113389,0.7779166925,0.1180127885,0.1710374187,0.0799995461,0.1302287202,0.0525736027,-0.0651379551,0.2432782048,0.28841662,0.2019101376,0.2471644291,-0.0041156704,0.3334476656,0.0856542287,0.2876183974,0.3406234768,0.1104535385,0.2792017629,0.0163179085,0.2304850794,0.1709774878,-0.5065564733,-0.3903085182,0.2103893311,0.0709764496,-0.0177254778,-0.0709765653,0.083330941,-0.0282309732,0.2383290131,0.2241921615,0.0698199969,0.0227198179,0.2619313419,-0.273253652,0.0329109502,0.1928253164,-0.3380230485,0.3490347981,0.0379499869,-0.0934611995,-0.0523455813,0.3062236014,0.1600057536,0.3136618389,-0.0304577006,0.2827022988,0.113674633,0.1496520872,-0.0404363877,0.136513534,0.1227378985,0.3412295917,0.5181365963,0.3435393279,-0.050436768,0.2416912989,0.3206407104,-0.0586284558,0.2456087972,0.0288497188,0.0303686306,0.0565396045,0.1933574265,0.2736146287,0.2593926451,0.1036660369,0.0929983499,0.3657025422,0.3028368836,-0.1479776027,-0.2142704289,-0.1095814341,-0.052530309,-0.0326764838,-0.1981577026,0.1797863138,0.3603329039,-0.1515813328,-0.1988177993,-0.2012478418,0.065565126,0.1208476167,-0.0451288756,0.9375406738,-0.229958897,-0.1043783406,0.1242983924,0.0271325469,0.112127385,0.014551551,-0.1832101238,0.1598210978,0.1858069547,-0.0771837228,-0.1981314032,0.1821659112,-0.0149256444,-0.0934273554,0.0919150072,0.463348585,0.0698095295,-0.1484653606,0.1428313123,0.061910969,0.0294343063,0.2203133626,-0.047494994,0.2995396997,-0.0549451163,0.1378340205,-0.0459061696,0.0913127468,0.2645502458,0.0131112387,0.0598027925,0.8386509209,-0.5396990319,-0.2036546524,0.0276363491,-0.2971439519,-0.3249403751,-0.0611338046,-0.2940388117,0.055439379,-0.3384865068,-0.2567042756,-0.2597244037,0.0409324452,0.0348298402,0.0604628751,-0.0697880937,-0.3573999815,0.12985856,-0.0532783538,0.0061489394,0.1622038175,0.3198765978,0.0637962586,0.2696197943,0.2617144007,0.3416117653,0.4227883598,0.1114356385,0.1054159722,0.0371186991,0.1537584529,0.0602870844,0.2535242753,0.3720591274,0.2337971918,-0.0833544754,-0.044526208,0.0704156035,0.2857874371,0.044119185,0.1595860194,-0.0793527659,0.308300348,0.0130353736,0.2286514441,-0.0408760002,0.2049187624,0.0707044024,0.2272307267,-0.4264314325,-0.1739322598,-0.1558497037,-0.0538803408,0.1634001765,-0.1408457966,0.0576487525,0.1451167498,-0.1826461342,0.2019802237,-0.0723965118,-0.1910536516,-0.1742513445
   0.0122235119,-0.0387464319,1.032852537,-0.302367089,0.2807449479,-0.0302160497,-0.2045510609,-0.1475579344,0.2005254065,0.0927055024,-0.257815516,-0.0739706092,0.2331735164,0.123146886,0.2422993153,-0.1678378702,-0.0139365133,0.3167618132,0.0154518521,-0.3869647469,2.3039117911,0.3856235073,1.1823178102,-0.0772540334,-1.9496315125,-0.0386189206,-0.9677276599,0.3835118502,0.2831280026,0.2499622201,-0.8480056037,0.3463942674,-0.0658511946,-0.4301319369,0.1238877001,-0.5268084524,0.0673317079,0.146498988,0.213801832,0.1626408774,0.0217562384,-0.0170279311,0.8127284461,-0.001807561,0.2267093851,0.3076201422,0.5694675859,0.1986532125,0.0019021093,0.0830289773,0.1466449209,-0.4826061366,0.2464840088,0.2207000528,0.0107891593,-1.0398129659,-0.8169087952,0.227669369,0.2810988841,0.1731131626,0.2742835133,0.1273146026,0.181334382,0.0953057627,0.1238445722,0.2882950443,0.3437641336,0.3293757259,0.1360100992,0.0683545196,-0.0038878635,0.2221404823,0.109819479,0.2233726394,0.3176172622,0.0558663912,0.0678835811,0.0157346611,0.0458561909,0.1042521956,-0.3209974489,0.0974863699,0.0411596451,-0.5387462905,0.5572723432,0.2775084323,1.7223172391,0.4777282846,0.0063564444,-0.2387275088,0.1339796593,0.0930030665,0.2801300132,0.1002565828,0.2684540065,0.0170750902,0.1907015958,0.2211355445,0.1665772288,0.277448222,0.2236880183,0.0704854255,-0.1256681464,-0.0102555277,0.2043600519,0.2888314033,-0.0797179164,0.0239143601,0.2656067843,-0.0669825588,0.1657743629,0.3114670886,0.3662703118,-0.093094371,0.2281591832,-0.4126612673,0.1902487343,0.2978832407,0.4053672466,0.189552281,0.6701518342,-0.0449256341,-0.2930505924,-0.030565369,0.1488773782,-0.0857125712,-0.0802685311,-0.1863443546,-0.0392477605,0.1271867721,0.2988248901,-0.2871747028,-0.2929770184,1.0243185777,0.0606151955,0.1283908475,-1.427423599,-0.2861335533,1.2196481701,-0.067213928,0.3679446282,-0.2163818449,0.5750967421,-0.9685575194,-1.9740555663,-0.1126856141,-0.7932616167,-17.0525259165,0.2613674762,-0.0523847881,0.0131598864,0.1708161628,0.0646871935,0.1293942043,-0.0197227407,-0.0065818192,0.0667191504,-0.0401376913,0.0652332738,-0.0887189426,-0.0097819744,0.151745439,0.4528805762,0.3314964271,0.2897833837,-0.0654359632,0.2173126188,0.0056267405,0.3174114489,0.2412924802,0.1966877831,0.174529862,0.077020137,-0.1270051268,0.0303468216,-0.0868894576,0.0759741009,-0.0612204023,-0.1218671506,-0.4393789835,0.7074775936,3.7723698874,-0.0728086144,-0.0515734188,0.4243866905,-0.3860286693,0.8783497885,1.297436797,0.8137167377,0.3412667016,0.2989357528,-0.3477549633,-1.5797917028,-2.0475037971,-1.3089220708,0.1003865045,0.2793295668,0.3349644918,0.3057775449,-0.0140975842,0.089402518,0.1209576055,0.3226741849,0.1559173482,-0.0555252848,0.1865728717,-0.0375826296,0.1340587936,0.2023463975,-0.0977704248,0.1507871333,-0.3711159015,-1.8928692723,0.1530630382,0.0986892846,-1.1412372698,-0.5570748485,-0.1670346243,0.0296598472,0.1629407534,1.2157701444,0.2023190939,1.8840802544,1.2871776922,0.3765194616,1.1602275345,1.8975990034,0.2255850234,-0.0495338774,-0.0312518053,-0.2281715833,-0.1757252983,-0.1735135166,-0.2495523146,-0.1695980197,-0.0448350393,0.1135997705,-0.1165820503,0.0584392223,-0.0646307885,0.1266632631,0.1663029854,1.627156333,0.0760208152,-0.9479135565,-2.4543115825,-1.3909820844,1.7389829858,1.304227977,0.7663129612,-2.2910812478,-2.4117011944,0.3433373001,-0.9040585443,-0.4060853594,0.0803258248,-0.5992066688,-0.6734878457,-1.2023899182,0.3601904166,-0.0657643435,-0.2039792192,0.014006775,-0.2345615157,-0.1192666465,-0.3553579389,-0.1749349059,-0.1581214233,-0.1494841548,-0.3485704152,-0.1813274093,-0.1947833429,-0.1796400538,-0.0307789199,-0.5641134901,-0.2662786397,0.2446767442,0.00259498,0.1082994693,0.2630083951,0.2612090725,0.2560152277,-0.0051355808,0.2417161562,-0.0783513434,0.1299441681,0.1453426321,-0.0845785416,0.308191464,0.2059755565,0.4869341819,-0.0233329328,-0.119961724,0.0079259603,-0.1955888347,0.2154181688,0.1833991047,-0.1842884927,-0.0399108568,0.0045906102,-0.0183411028,-0.0199284295,-0.1156264447,-0.1171712678,0.4684141906,9.6423315898,-7.2340484625,-0.9773379832,0.1891433765,-0.0203003722,0.2506571319,0.0322995673,0.0810519774,-0.0843350846,0.8953774651,0.0682379501,-0.0160534387,0.0719928951,-0.0475494879,0.4054136163,0.1710809607,0.1891758142,0.4495045068,0.1908211341,-3.8726927555,13.6144909489,9.5800579021,-4.4955739813,-10.0345790634,9.4854102545,-3.3640646688,7.5061480108,-9.1623820143,3.9888479191,-7.7366035234,6.9369452421,-1.7728071032,-16.8064441603,-39.1214804906,0.1839141735,0.1964510624,0.2297521814,0.1346180939,-0.0642387205,0.3244851754,0.1766385204,0.084291038,0.1021869737,0.2267330264,0.2131494861,0.2513222316,0.1673252082,-0.0406909737,0.3007715823,-0.0781832956,-0.3819722876,0.2668089975,-0.157259122,-1.2832432102,-0.3421234622,-0.1480966586,0.0770417163,-0.0952402136,-0.6779890377,-0.2230396547,-0.3694905713,-0.2679103422,-0.2577294555,0.0132448142,0.0970849499,0.7141348979,-0.2812359506
##end
biasActivation=1,1,1,1
[BASIC:ACTIVATION]
"ActivationTANH"
"ActivationTANH"
"ActivationTANH"
"ActivationTANH"
