encog,BasicNetwork,java,3.1.0,1,1422169863837
[BASIC]
[BASIC:PARAMS]
[BASIC:NETWORK]
beginTraining=0
connectionLimit=0
contextTargetOffset=0,0,0,0
contextTargetSize=0,0,0,0
endTraining=3
hasContext=f
inputCount=15
layerCounts=2,42,42,16
layerFeedCounts=1,41,41,15
layerContextCount=0,0,0,0
layerIndex=0,2,44,86
output=0.8332371629,1,1,0.9993133964,0.8025129079,0.7576361801,0.9896863693,0.455639608,0.5350068535,1,0.9994492377,-1,0.9999995679,0.9004922345,1,0.3139358493,0.9740627456,0.999999985,0.6049595534,1,0.9107374257,0.8679060589,0.8501643739,-0.6711162689,0.9407467318,0.9513197312,0.9736976922,0.6164828325,0.6108318545,1,0.9999999617,0.8675407326,0.9196569948,0.8679216578,-0.5705801166,0.9763141317,0.3124077128,0.7791037358,1,0.8825369812,0.7418623987,0.9430571193,0.60382594,1,0.9152265897,0.959107179,0.9506776819,0.9901825139,0.4786728204,0.9258578763,0.9863822558,0.8366363921,0.7734848203,0.9304205628,0.9713291331,0.9477169959,0.9917720965,0.9427775878,0.9767749551,0.059559709,0.97480648,0.9718510823,0.9965395853,0.9925517379,0.9804687854,0.9496297424,-0.022561886,0.9842543235,0.20032741,0.9342816729,0.8781920983,0.9980666949,0.1521346308,0.653562489,0.9284371524,0.9252578075,0.0231887099,0.8937585326,0.6380810346,0.9895157422,0.9900468311,0.8704791911,0.9969527194,0.8593626506,-0.4767116679,1,0.7875403277,0.8185345374,0.8131809921,0.819379834,0.8072639157,0.7954297629,0.7971203562,0.8038827292,0.7855679689,0.7833138445,0.7737338161,0.799092715,0.789794452,0.8162804131,0.8326228146,1
outputCount=1
weightIndex=0,42,1764,2420
weights=##0
##double#2420
   -0.0511313005,-0.1002192067,0.161937119,0.1238043979,0.1342919107,0.1919338042,0.1737811236,-0.0220465178,0.1244509916,-0.0653682135,0.1961493299,-0.1183905037,0.1176813124,0.1680561507,-0.0701108367,-0.0514720777,0.5808712372,0.2028044435,-0.073265199,0.1168080296,-0.1394359915,0.065125361,-0.1221096678,0.0624962828,-0.0628670723,0.353434316,0.156845512,-0.0209197305,-0.1142572307,-0.074819464,0.1759929051,-0.0511479311,0.3281529566,0.0863435423,0.0512416905,-0.0784402668,-0.0527960134,-0.0635049041,0.189954056,-0.0513216862,-0.0966296006,0.1865744217,-42.6516327514,0.2542646813,-2.506807166,0.1244116816,21.916297928,18.0634080233,0.1174201833,0.2517717699,0.3333537923,0.4738500699,0.4378584607,0.3892290207,-0.1727258449,0.042150761,-0.0662712792,-1.3382173516,-0.3565674417,0.0526314117,9.8363129686,0.0312098206,0.0183848298,-5.6167281301,0.0022770033,0.3710068579,-9.831796679,-0.261982027,0.0978244126,-0.2541164238,-0.2756109328,181.0039879016,0.2789287681,3.3696825642,-55.1991673859,0.324177802,-20.8056256813,0.2235145971,-0.0254746677,0.3455794809,-0.2257015807,-4.6481457654,5.592550386,-0.1139483865,0.0913852552,-1.3913101617,-4.8684100943,-0.031240137,0.0229377843,0.5403180321,0.0151182219,0.2320618953,0.1648525954,0.4695103993,4.8325219455,-0.0378336224,0.1145385371,0.266137238,0.3262413186,0.1535824077,7.8412508893,-0.0929964048,0.2881892975,0.226190889,0.1440358129,-0.8606456539,0.3441233255,-2.5452790471,0.3222084611,0.146283697,0.1293222677,0.3264781248,0.3310999411,1.1341134167,-0.0746824158,-2.9161631133,-2.1322004111,-0.0105469109,-1.7717714347,0.0395419862,-0.153113398,-0.0566146572,0.244224474,0.1203793008,-1.8145656854,-0.1382761193,0.2280192929,0.2785317642,0.500191856,0.1884391708,-0.0049371312,-0.207646289,0.2066375255,0.0464506419,0.0274945857,0.0384938901,0.2687555156,-0.0445942619,-0.3657071944,0.2722104928,-0.3447799557,0.1531364408,0.1980233788,0.185730424,-0.4747333161,-0.2429352929,0.163203593,0.1395842733,0.2597073835,0.1065674315,0.0269501735,-0.0340755531,0.1398489139,-0.3360478025,-0.0886531703,0.3636392106,-0.0679544038,-0.0878992518,0.6966382559,0.1433808273,0.2735400645,0.0578471844,-0.180453043,0.0475395305,-0.3508674714,0.2266762593,-0.1009991163,0.0538588002,0.3570910612,0.124865852,0.3518802421,-0.0822564144,-0.0728210154,-0.3559368519,-0.0386623049,0.160942616,-0.0620643546,0.0906077067,0.337696695,0.2705746792,-0.412424864,0.0857087581,-0.2530330328,0.1254179368,-0.0383696147,-0.0376764898,0.213584365,-0.10124962,-0.0262875423,-0.0872573081,0.1621026712,0.2086204747,0.020785806,-0.2388802609,0.2614796785,-0.4533185599,-0.2119293928,0.4015825353,0.2610879479,0.1901684873,0.0477603877,0.1432977897,0.0698665874,-0.0905341036,0.0465913418,0.1229957018,-0.2353072006,-0.0041265727,-0.0187192215,0.1597752295,0.0736464635,0.0760983885,-0.1144036498,-0.0393764424,0.2314693591,0.0079145825,0.2874523479,0.1009114034,0.0689898962,0.0381731064,0.0924499889,0.2430431578,-0.3354481265,-0.045641579,-0.0147762544,0.3809939037,-0.2536191028,0.1368826978,-0.0685773087,0.0281193525,0.0227172702,0.3300750504,0.1908468133,1.0121084533,0.2176073649,0.3003896854,0.0773130139,-0.1366540602,0.0498697283,-0.2826173012,0.2914864263,-0.7167436595,-0.4761860919,0.2193240184,0.3647171351,0.2063232664,-0.1538456712,0.3340090928,0.0287903393,0.1893736738,-0.0157446476,0.2925668998,0.160924519,0.1837066586,0.34731235,0.1983309684,0.0592618033,-0.2277721814,-0.0897023073,0.0136036722,0.1028486273,0.2317058061,0.2373218628,0.2208633541,-0.2752026533,0.0573660055,-0.2283909348,-0.2232912137,0.1985300709,-0.0620557768,-0.3982849505,-0.4758871114,0.2648238396,-0.0055341078,2.9965207651,0.1863124437,4.5502028761,0.0958380647,0.1604733069,-0.4828329335,-0.5947019647,0.2694760343,0.1522972452,0.0076389942,0.2024572282,-0.0828084147,0.1120161625,-0.0191266206,-0.4897736162,0.2818923394,-0.3808871612,0.0967988494,0.6266854941,-0.0551322436,0.4563529315,0.0435209902,0.1613591137,0.2514278577,0.1771056168,-0.1777992043,0.0054639134,0.0412679382,0.0145674003,0.0789872963,0.032871833,0.0054432471,-0.416882746,0.2447365596,-0.2872902575,0.1267949894,0.2195125196,-0.0255782324,0.1646315726,-0.0357311899,-0.0797787717,0.1515263849,0.1748364015,0.0443913332,0.1506116656,-0.3651830208,0.2761618688,-0.3903996697,-0.1314579698,0.4587583646,-0.0931721642,0.1107526497,-0.0100089472,0.2039805758,0.0629285821,0.121720695,-0.109538035,0.1307880248,-0.2437488017,0.116426787,0.0487513379,-0.3334575226,11.3959508734,0.0467938718,1.8061138335,0.2108570506,52.2193015461,48.0920906846,0.0138026373,0.1094335568,0.3581684797,18.5775137812,-63.0717845517,0.1223988646,2.2537947191,1.0099792814,0.1497441067,0.1091775803,0.0917511046,0.3309813769,0.0652835533,4.4478831136,0.6012404117,-7.6123407214,0.0971139895,-6.7951490618,-0.1520943309,-16.1762777088,0.0951771277,0.6392369299,0.1762730614,0.5732504586,0.2848893696,166.781319312,11.1573558402,0.2175519885,11.236539439,0.1160888862,5.6899937082,0.208337538,0.1225258486,0.3230221412,9.0877980784,0.3021465924,0.6200235477,0.2146983659,0.5349930516,0.0143719136,0.1374657031,0.1693320955,0.1935843133,0.2745046911,0.0408133939,-0.0602268142,0.085359057,0.3298643352,-0.1648686386,0.3071197886,0.0977532763,0.4564044335,1.1677874783,0.1989011057,-0.2109659827,-0.2976210885,0.0405623275,-0.1434385827,-0.177529319,0.10765222,0.1438566626,0.1301094936,0.0621189547,-0.2744175776,0.1243075318,-0.2536925429,0.2045841329,-0.2785079957,2.7831957066,0.0186866095,0.9324915998,0.3035019173,-0.2100554299,0.3179420964,0.0479343745,0.1807739009,0.8531169759,0.141612593,-0.4674340396,-0.6321003631,0.3077466707,-0.1049271172,6.5287855922,-0.8716948209,0.1345799459,0.1598949031,-2.9099793726,-0.467376113,-0.389186925,0.009187697,-0.1188136812,0.0425029584,0.0542601834,-4.6441183629,-11.2558982831,0.1132172336,-0.6408543949,-0.2411298657,-0.0732759948,0.1377065748,-1.9750500397,-0.3567579071,29.4517015464,0.1307090478,0.238293393,-0.2234605063,7.7839330607,-11.8642001988,-0.0679442727,-1.0867291724,24.2640260052,-0.0431406243,1.3996311683,0.1485935667,-0.1475364542,0.254134385,-0.3569085982,-0.244828328,19.7882086978,0.0276569468,0.3405009459,0.0306212576,0.4211489899,0.105754143,0.086891136,0.0867705293,0.2221207684,0.2676865603,0.1193533932,-0.2473832571,0.2071790204,0.2086312535,-0.1145811376,0.1005209513,0.0072065055,2.0014198838,-1.2825935944,0.0921004054,-0.2817712556,-0.1872945373,0.1269318337,-0.0475327628,0.3288231819,0.1540053014,0.4637423386,-0.0356846646,0.3331633885,-0.1709559,0.1118163595,7.1034619109,0.2401776331,0.0105191175,-1.0501598423,0.0820392514,2.8725577466,0.2254143956,-0.192510956,0.2853998427,-0.0549974222,0.2541983851,0.5198413298,0.1459278657,0.2151560793,-1.5961369608,0.2430877284,0.1334291916,-0.0498069883,0.1258111013,-0.0983703058,0.165916187,0.0726128516,-0.0354995362,0.3871931722,-0.0586885755,0.1495254512,0.0274467893,0.1883412591,0.3370088975,0.3558330599,0.1412947308,-0.0177505947,0.0308829195,-0.2372217247,0.0548520395,0.2795308515,-0.0046760392,0.0321533366,0.1997725373,0.0629346633,0.0807654522,0.36677092,0.6427414252,0.1510573533,0.2058033247,-0.4210425612,0.0411395176,0.3776277261,0.0906374846,0.0469048528,0.0786329656,0.0465164057,0.0092856115,0.1680820839,-0.2986982146,25.4360713037,4.5496550271,-2.5103208566,-0.0236026429,8.2727098096,4.7957677877,0.1513065648,0.0161891749,0.0223443524,0.1527781797,0.3321925112,0.2144071226,-0.048574723,0.1768571806,0.0288036785,0.3703924951,8.0940723688,0.2957313163,0.0784104447,-0.0580164859,0.0899323318,2.0437525262,0.4346283273,1.3488057503,3.8126017817,-1.1111421507,-0.022617154,0.0110671187,0.2475359987,0.9311104327,-0.0042571656,-9.8905803051,4.8476659307,-0.0331495057,-16.7137000438,0.081027126,-0.0163042338,0.2839889965,-0.0665167446,0.2463772888,-0.3172043263,-0.1749903251,0.2774792572,-0.1635202404,0.2637520882,0.1758441894,0.5896024296,0.5083350478,0.0616769586,0.2520070973,0.0872988487,-0.7798191296,0.0066330647,0.352155984,0.1658511988,0.2387471021,-0.1430621118,-0.0099523532,-0.9965792965,0.3162010979,-0.5902587282,0.1680644068,0.1418575992,0.282247466,0.022041404,-0.2363762937,1.6091172034,-0.1668893373,0.0044817395,-0.0165449506,-0.1152580023,0.0189815968,0.3091211452,-0.9303511853,-0.888674888,0.1953903417,-0.1488561258,0.3509017772,-0.6600986983,0.2672361477,0.4435735778,0.0314926656,0.0987460218,-0.2238879919,0.4190307309,0.2083804767,0.3322455504,0.1229168862,0.2064052291,0.3171015849,0.2032920773,-0.0267818508,0.1710213975,0.1354710568,-2.0340092112,0.1843346869,0.0847278646,0.1021185902,0.4370171051,0.4365929421,-0.5428658421,0.1407437036,0.3618382142,0.2183336626,0.1141405618,0.1293888453,0.2593981783,0.1452027664,0.2939017205,-0.0757647927,0.0141049921,0.1707504986,0.0814269479,0.1656563654,0.1576596108,0.3183951021,0.3126208862,0.0870087839,-0.3376738979,0.0400575388,0.0106289071,0.0560773923,0.3576946046,0.1432862565,0.1119042381,-0.200048471,12.1600776214,-1.1644952822,16.6471872569,0.2723284228,0.3156933239,0.5410663356,-0.037002524,0.281939912,0.2211515064,0.1903137364,-1.1352142318,0.1162985487,0.3642788344,0.2546692443,0.0755123832,0.1525173107,-20.5539936648,0.0561416973,0.3041611747,0.2944495809,-0.0263077176,0.2408432687,0.9104140464,-0.437961185,0.1515733372,0.2097684048,-0.0753188436,0.3128751519,0.1849654444,-0.1570121412,0.0750068624,0.1350046021,-0.6191847882,-0.064145785,2.3193786488,0.139613906,0.1773403943,0.2245040295,0.2372906507,-0.0511904035,1.759972829,0.1265746228,0.1316237508,0.2484327003,0.1388461975,0.120015338,0.0879974667,0.0039539808,0.2980405872,0.1778043957,0.2652035294,-0.0286364202,0.0664136135,-0.0021567588,-0.1737719048,0.2660945861,-0.0680282987,0.2476410688,-0.0208576522,-0.0007411885,-0.2621808094,-0.2482531701,0.2299506879,-0.0604294705,0.0540051612,0.0769782731,-0.0394411852,-0.0614262539,0.3359494772,-0.3997295092,-0.0572261585,0.3870380178,0.0360775713,-0.3611174786,-0.0277992162,0.0916576329,0.1160261608,0.1782843223,-0.4509008096,0.3750517293,-0.0769512701,0.1794638761,0.1601016844,-0.3662036102,0.5373550763,2.7165625554,0.4867502961,0.3233026633,0.2967729089,-0.9731210724,0.0583959817,0.062649122,0.1634396132,-0.3231974089,2.9931367729,0.0053579493,0.1716219496,0.3375025924,0.1309410802,0.2766583803,-0.0229041092,0.1430209409,0.1149258817,-0.0095324403,-0.0198904248,0.788120078,0.4847531197,-1.9815350045,0.2078562257,-0.3561582702,0.2383674935,0.0523022086,-0.0243363234,0.595488238,0.066437443,4.8910768997,0.7561243589,0.2715924825,-0.0182353236,0.1206090221,1.2115234588,0.0093206137,0.011132177,0.2875906503,-0.6848076389,-0.2272096134,-0.0571954142,0.1801410086,-0.0396411915,0.0606683599,0.1194378418,-0.3247916578,0.2342360876,0.0317129081,0.1864622465,0.1605453388,0.3404632245,0.2789962298,-0.0841668275,0.1806567028,-0.3305637531,0.0703912729,-0.3357504489,0.1560411898,-0.0028323223,0.2235020785,0.0256815553,-0.1779427653,0.4772243326,0.2968949081,0.1320367775,-0.3223022016,0.0645551566,0.2475228149,-0.2208570314,0.5098982517,0.1203874595,0.1539505255,-0.8106284047,0.2228795922,0.0666811043,0.1050993157,-0.0216916172,0.0986107156,-0.1479482829,0.216028853,0.1484374547,-0.4045416983,0.4298839044,0.0531068499,-3.2402648476,0.0154211638,0.050546568,0.1968241762,0.2777223978,0.155277816,0.1894425817,0.1342199864,0.1665295649,0.1798928437,0.0392391497,0.2442848967,-0.044343665,0.2408334224,0.3274890949,0.0743374681,-0.0442603107,0.1618687341,0.2249550062,0.3557456307,0.2225727894,0.9711004104,0.3541231023,-0.0149347408,0.1763372009,-0.0635403499,0.2643750989,0.5778141836,0.2755515166,0.2172444448,-0.0062503718,-0.0203684553,-0.2751940315,-0.0248916849,-0.0077638394,-0.0189567715,0.1690625973,0.1037891763,0.5767881438,-0.2892089203,0.0618694286,0.4958867215,-0.0092540139,0.1791207733,-0.127371332,0.0407550532,0.0363934118,-0.0458739104,0.1122391152,0.2585341209,0.1611026257,-0.015229326,-0.1032214437,-0.0396469128,-0.0939932833,0.7878855403,0.0110375966,0.0170797656,0.1062831209,-0.0510784714,-0.0482427755,0.1946923572,0.3708417704,-0.9716856524,1.4785723018,-0.0869228452,-0.0170000041,0.0713092336,0.6388091978,0.3466467084,-0.0178209277,0.3185142862,-1.1125613276,-0.0214749984,0.4178372737,0.2297901789,-0.1192771389,0.056226326,0.2107969647,0.029294978,0.2850102934,-0.3109708697,0.3199875048,-2.3253525754,0.1500888849,0.1741068825,0.3678371243,0.1063652707,0.3519911153,0.3534480712,0.3578052018,-0.0253280494,0.0260421337,0.3592124006,0.1503082232,0.0210632979,-0.0720820315,2.2403831425,0.6151176169,0.1261330295,0.0806201721,0.2553705447,0.2818064091,0.3635786977,0.242819394,-0.1055028521,-7.1277508165,0.2311507459,0.3558563945,-0.0247109468,0.3571554979,-2.1026696533,0.2487508335,-0.3143466141,0.8626214465,0.1668092156,-0.5495240461,0.0358195781,0.0699935653,0.3342964914,-0.0202861201,0.371486334,1.3080585668,-0.1128182492,0.1646719633,0.2813533777,0.2877023875,0.1886984236,0.1441326861,0.0510079402,-0.0450779684,0.1263644474,0.275113982,0.212162428,-3.5131300291,0.0739632238,0.1750155373,0.0713093019,0.2341353001,0.0231488913,-0.0287133068,-0.0756533127,0.011569956,0.1270246186,-0.0177620302,0.2823075217,0.6695896963,0.1550391108,5.5102347792,0.3503371802,0.0211930187,0.3544931586,0.2707363378,0.4270914096,0.0611553146,0.1931214632,-0.5891687431,0.1227424457,0.0472578503,-0.0569767299,0.3228420676,0.071677708,0.342652854,0.0963916425,0.710684078,-0.173775952,0.2723040666,-2.6379222989,0.3325463644,0.2034517613,0.1146617078,-0.0081215961,0.1751123048,0.3398275634,0.071719448,-0.2595207121,-0.2796167182,0.2676764043,0.0119293822,0.047998642,0.1299852635,0.3435379638,0.8788743228,0.3748609169,0.2277268387,0.1690034174,0.2720177293,0.024357144,0.2267341087,0.0846421982,0.1122609223,0.3081899595,0.3473372329,0.1843381783,0.3394326499,0.506148604,0.0106665103,0.1127109023,0.6824175638,0.3769247285,-1.1287116591,0.1101929579,-0.0935798132,0.1260093287,0.1130576367,0.1135313242,0.3008930901,-0.0015127921,0.4704034333,0.2570532811,0.3124014237,0.0339590498,-0.0049837257,0.2044297364,-0.0776659873,0.1950104735,0.2840079219,0.0767692063,-2.6367764287,0.2314012231,0.2110620891,-0.0644527444,0.2299896748,0.4300571576,0.0935132679,0.2207401861,0.2830354399,0.042425632,0.045721862,-0.059392101,0.2072963716,0.2839186946,0.2954683159,0.0854127543,0.0294680725,0.0732488817,-0.0611468342,0.244181727,0.1587075517,0.2065605124,2.619690617,-0.0062351807,0.0839426288,0.0090811625,0.0388426496,0.182847305,0.0794496902,0.1933017858,-0.2404678461,0.2347506733,0.9661988949,0.2423180532,0.8917083958,0.2417764592,0.1213580037,0.1067050931,0.0220724404,0.0383441398,0.1247135832,-0.6780585097,0.1284681691,0.2318333911,-0.5006089021,0.245372471,0.176512407,-1.0690302721,-0.7478134689,0.3036248618,-0.3120858184,-0.3674591343,-0.1515827912,0.2186135335,-0.0385267378,-0.0266444583,0.2252802092,-0.1172318065,0.0114232546,-0.5071283224,0.1860288875,0.5756587228,0.0441531221,-0.2098382058,-1.1839463282,0.3251047939,0.1884801954,0.3494054231,-0.3068581252,0.2399917413,-0.4843779263,0.0409545799,-0.1143258439,-0.2047923363,-0.7155896807,0.3558882784,0.124556516,0.204619435,0.0791599605,0.1856773022,0.3122782484,0.1338245301,-0.005386114,-0.0903503183,0.2714368615,0.0221076389,-0.3448619855,0.135140988,-0.2748617817,0.1338870579,-0.0578385014,0.2083567161,-0.3367246262,-0.1272477926,-0.0485864831,-0.0131696574,0.2491608,0.1027117499,0.0432480507,0.125604908,0.2289458628,-0.3543388205,0.2888249342,0.1638033014,0.0735781706,-0.0033349876,-0.0763493263,0.2312105812,0.2563643284,-0.0316907902,0.0449618107,0.0018160678,-0.2216491534,-0.0697098084,-0.0149856117,0.3330888497,0.3288038477,0.0182376688,0.4036766485,-0.015677308,4.8036752963,0.2251392668,0.1418148242,0.2117469023,-0.1546138753,0.0045681318,0.1903488035,0.1428627207,-0.2474513813,0.0476479306,-0.0738394074,-24.7328205245,7.3019187501,-0.0493204323,-0.1468186065,-0.3263458298,0.2204954928,0.2322565349,-1.1062370589,0.0831773785,75.325525334,-0.0248695177,0.1659384127,-0.4483858373,0.3617224322,-1.1836787341,0.0690947225,-0.3441772421,21.8326491868,0.0599034073,-0.8891905152,-0.0916070908,-0.1979922288,0.0044138242,-0.1861334617,0.2021472815,1.671455915,0.2164165139,-0.1724485442,0.3519650159,0.2046682683,0.2527175726,0.2598023703,-0.2827996365,0.1748400581,-0.0263555064,0.0886743512,0.3515368079,-2.4741132701,-0.0183800247,0.3180819813,0.0588156414,0.1287120117,2.7416658031,-0.0858736424,0.0171807025,0.0269001496,0.0510088068,-0.082078524,0.2969041125,0.1992907237,-0.0233223836,0.2610730695,0.292972433,0.2613274941,0.0379050791,0.8280503706,10.2825456098,-0.077146366,0.0074002378,-1.6716693811,0.2680510844,2.0590412418,0.1415469304,0.283403024,0.0616063356,0.2677606483,0.0676955254,0.0916571328,-0.2167848448,0.2669911244,-0.3655544875,0.1241532144,0.2095552225,0.2518383567,-0.2354936523,0.1968482181,0.0972256819,-0.0429367157,0.3449236598,-1.4603903147,0.0559266058,0.1906723873,0.1172249602,0.2984021058,0.3281094736,0.2509187992,0.2802269708,0.0251085896,0.2604073677,0.1016315734,-0.2126165827,0.3608322566,0.0932768854,0.2281830826,-0.1808964439,0.0057573642,0.0955130875,-0.1695098329,0.3633937709,0.13751796,0.1341574634,-2.2175173192,0.1341985234,-0.3963469649,-0.0021552986,0.1381107247,-0.0853467671,0.1242713639,0.1122732243,-0.0243632752,0.0625584974,0.2327721143,0.2522448339,0.3182495203,0.2730891599,0.0932700446,-0.1011037186,0.1803147895,0.0640011415,0.0245770206,0.1910775175,-0.0034202169,0.1623752965,-0.2486920227,-0.0430490267,-0.455371805,0.242583824,0.1876954002,0.028290409,-0.1321399205,0.2080769269,0.1639684127,0.0998305975,0.0965544146,0.1428788312,0.0322829338,0.1157200467,0.0401547485,-0.2005234094,-0.0254316778,-0.6465061949,-0.013733094,0.0932890695,0.0329994991,-0.0186149863,0.0583383552,0.2246445845,0.1991752963,0.1511317333,-0.3215664821,0.0674930939,-0.0570777007,0.133433557,0.1953392028,-0.0019699494,0.3877919962,0.2715729888,-0.0144263405,0.1827323119,0.1489282566,0.0391605739,-0.0032598866,0.1535359107,0.1923104936,0.2424217462,-0.0131050625,-0.1503970221,0.0229095042,0.1577904572,0.1816394688,0.176994314,0.015422932,0.3168961121,-0.1431592891,0.0787474374,0.4909280994,-1.7284069994,0.091964364,0.0615945675,0.1987395138,0.1562929676,0.1771785976,0.6969281619,0.0723443134,0.2579592923,-0.4217023152,-0.0332897568,0.3420765462,-0.2304579277,-0.0267660113,-0.1007616932,0.2015013682,0.0636682806,0.0435805413,-0.4328975846,0.174317602,-0.0700139777,0.3234987104,0.0538254509,0.2040634087,-0.1398298623,0.0376576519,0.2337848338,0.1409449711,-0.8980298115,-0.1481968079,0.2168909247,-0.0872255203,-0.0386898442,0.0284458616,-3.0688619935,-1.4641394566,-0.0522637933,-0.024797565,-0.2268976828,0.0484020417,0.0692231958,0.0435686003,0.007381901,-9.1151041552,0.290644066,0.2808875859,-0.2360755693,17.8489143037,0.275923929,0.1820812339,-0.6289900934,-4.5414277691,0.2653353278,0.0377716297,0.0984025451,-0.1954436478,0.0822781683,-0.3099981769,0.2673590637,-0.4869395334,0.0251221084,0.1405003119,0.3066764874,-1.1556465912,0.1262545558,0.0231175996,0.3065711936,0.3176279994,0.2263443669,0.2562968806,0.1602499421,0.1911644483,0.2461772134,-0.3287277476,-0.0426690646,0.2745141552,0.3329740727,-0.1906361833,0.022723377,-0.0974022739,-0.2985282186,0.2299039701,0.2571510497,0.3561455677,0.5503769486,0.4446961195,0.0603422016,0.176390443,-0.0323320064,-0.0002531269,-0.6115240821,0.1151769622,-0.0291928419,-0.2239490372,0.1824918791,-0.0202816754,0.1374187541,-0.079158217,0.3138315616,-0.023576227,0.1669323698,0.0309932178,0.301915585,0.1452795374,-0.0583288746,-0.0572176517,0.1460081075,0.790859174,0.2244845785,0.2029037503,0.2951179559,0.1111243528,-0.8282425275,-0.2286267551,0.0820920909,0.0446312753,0.277536383,0.0789209853,2.5572237197,-1.0340622767,0.291533443,-0.2503528368,-0.0221908213,0.1623632555,0.2481625125,-1.7498934869,-0.2387720186,-0.5490099829,0.178121576,0.2538695103,0.0015872153,-2.4129279084,0.3317632133,0.2567829621,-0.8008282713,-5.2619229997,0.1195933963,-0.1820865583,0.3487689681,0.0340774228,0.0903940574,-0.0213088805,-0.0354657113,0.0723947246,0.344927262,0.4361399149,0.0433029058,0.3406847066,0.1903562957,0.0543731262,0.2333769371,0.2445271187,0.1041367442,-0.0392679497,0.1071648472,-2.4022021595,0.0389306659,0.0071465392,-0.0475694176,0.2687391502,0.430874729,0.0422813819,0.2358123469,0.1911334183,0.0422173084,0.1400328456,0.1718002023,0.3326352631,0.1016620259,0.0865267586,0.4258547055,-0.0658959182,0.0214642626,0.3647325597,0.3629062152,-0.0402117568,0.0698293419,0.149458937,-0.0045384349,-0.7150089182,0.0873716246,0.3344405061,-0.0040446861,0.0941227458,0.2671716259,0.250637645,-0.2593487778,0.3365334901,7.5688072783,-0.8133483924,-0.030228381,-1.6810076378,1.216941645,0.2974025001,0.2501144864,-0.0494248327,0.3629768792,99.262402124,0.1990852976,0.3541312733,0.1808979408,0.4388851632,0.2040121126,-4.9093082163,-0.0358247345,0.1202861206,0.2516890641,0.1247629615,-5.0920779385,0.2097883851,-27.5413534475,0.4522204743,7.3552715819,0.0673827579,0.2469977098,0.261318347,0.450705348,0.0889529852,-25.1988132049,1.6983037315,-0.022637943,-3.7279567283,0.2237916342,-12.6045325633,0.2047373203,0.4343893013,0.2386564172,4.6933651999,-0.064105813,0.1246402375,0.1055136598,0.3371862173,-0.0833256843,-0.1221880911,0.0483514145,0.226506565,-0.0562794097,-0.0493555032,0.2092836541,-1.7216348723,-0.0714428095,0.3326582701,0.0877774681,0.0058425345,0.3518954172,0.0537808059,0.1946840531,0.2853972438,-0.0174643349,-0.0253170806,-0.0486327385,0.1802271129,0.1467445153,0.2211392981,-0.2227358156,0.0803654993,0.2050150852,-0.2166076226,0.2820676094,0.2137761116,0.2652221965,1.0972474453,0.0074052306,-0.5734920696,0.1585719868,0.3561523589,0.2166572426,-0.0004878133,0.2370752836,-0.1210948515,0.0053328965,0.4070547267,0.2081927338,0.5189257773,0.2161844646,0.0263130017,-0.3848795084,0.077365293,0.100145721,-0.0235573078,-0.0042579589,0.0491421607,-0.0745122815,-0.3511542605,0.0273242776,-0.2390619137,0.0439432402,-0.0157428426,0.2578884813,-0.1419768287,-0.2633753691,0.2735301375,0.0015289952,0.131987259,0.1619625738,0.1537793962,0.074360768,0.1624402078,-0.4797676223,0.0981964243,0.3268587469,-0.0563298112,-0.0294764692,0.3065868307,0.1962810626,0.0050784426,0.0289532456,0.0570589915,0.172424609,-0.225311501,0.170436259,0.056937925,-0.0301474811,0.2737250725,0.1221211866,0.4224943898,-0.0376306884,0.0979880611,0.3416033092,0.150901209,0.2890793999,0.1770939675,0.1785332284,-2.7931609421,-0.0055020498,0.1834364315,0.1493846193,0.13670816,0.2881275934,-0.1341010142,-0.0215684191,0.1429355712,0.1336668506,0.1305263651,0.142745134,0.4374025392,0.1992701242,0.2151122914,0.2133406945,0.1073047633,0.3716214739,0.182622573,0.3363158373,0.1931743358,0.1793019872,-0.1484302259,0.211410702,-0.0034883641,-0.0475316436,0.0998626729,0.0184860357,0.3773466477,0.2771632983,0.3269801979,-0.3625207666,0.1403145214,0.2736629079,0.3776968306,0.1832156347,-0.7983356159,0.0871755475,-0.0048914946,-0.0704973059,-0.0173198735,0.2738068159,-1.7291112916,0.0718804305,0.3477506032,0.1605785227,0.4346248454,2.3461786239,-0.8319360947,0.0594322964,0.17389045,0.294197185,0.2031945309,0.5033513208,0.1304016468,0.273361082,-3.9759421244,0.0668899565,0.0511397272,0.2057258521,0.1120598668,-0.4011522795,0.0014103344,0.1326939927,2.9142933579,0.0824280003,-0.3982177064,0.1205125834,0.3076313639,-0.0094173422,0.077913238,-0.0133749721,0.4236317343,0.2248923188,0.2758484854,0.2811276176,-0.0011529326,-0.0164850563,0.1002023156,0.139173376,-0.0133130692,0.3071742266,0.3940803589,0.0319833953,0.1944534618,0.2346920783,0.0316163617,0.0867883038,0.3712430156,-0.3795623769,0.255140505,0.1586336271,0.0370671314,0.0668194226,0.1171576635,0.2431010657,0.3679295465,0.287145956,0.1172720624,0.1228701529,0.1125260631,0.3335399053,0.1588441836,0.3696924597,0.0623529313,-0.3142003318,0.3447732259,0.1670975327,-0.0226632279,0.0508956687,-0.0132324528,-0.0618016,0.1543430014,0.3971091529,0.2582114652,0.4065537515,0.341924208,0.1319574601,0.2993931188,0.2397891192,0.0901874616,-0.3738047322,0.2813173297,0.2496878085,0.0590473895,0.1921496859,0.2344351616,0.2870863408,0.181226296,0.3556355255,0.1082692676,0.1148999798,0.178097371,0.2859296662,0.1523164849,0.0609215371,0.0986815736,0.3830329575,-0.1448350062,-0.073576749,-0.1064248782,0.1012200551,0.136580105,-0.0346569445,-0.1372752145,0.1610280255,-0.1182933284,0.2224681581,0.1497683308,0.2147452173,-0.0392305067,0.1881035985,0.0421817199,0.0699431168,-0.5447789102,-0.0941133107,-0.5967645836,-0.3276338166,0.2663484784,0.3601409671,-0.0355817385,0.1355091791,0.368829076,0.4787797871,0.7117156593,0.3475746394,0.4172092444,0.4465833016,0.1887961994,-0.0381156777,0.2625686696,0.2601271059,0.3209418617,0.0863060842,0.2848784326,0.0682817075,0.0052809329,-0.1634242488,0.2505611814,0.3127277313,0.1346839414,0.2356998787,0.0547395488,0.353439123,0.2539315843,0.3052995751,0.1166840852,-0.0932859188,0.0863147293,0.2986936409,0.1384989595,0.1914343678,0.0119556728,-0.0710311678,0.040080869,-0.0368431001,0.2708685648,0.0038606289,0.1108528692,0.2663155367,0.0050131315,0.138475548,-0.0445903541,0.0118839104,-0.0378594906,0.0455089129,-0.0644153991,-0.0127610926,-0.0358181506,0.0152663606,0.0945746921,0.0760446775,0.3098182012,-0.0290246534,-0.0294615313,0.261201828,0.3082444385,0.3292796526,0.060937802,0.0573871588,-0.0772259009,0.0500025194,0.2641511915,0.1375190285,0.1458474497,0.3250748021,0.0301519244,0.2007823014,0.3041121479,0.1854024817,0.3909157291,0.1428321114,-0.0340752318,-0.0732110519,0.3113469995,0.0596633526,0.2123946075,0.0007175062,0.2550589607,0.39336071,0.0522309885,0.1416319463,0.0269937606,0.3185291362,0.3381832501,0.2497556949,0.3461786546,0.1542537034,0.1060223178,-0.2458840367,0.1420680168,0.2050053238,0.2939913861,0.1056025283,0.0344777086,0.3376523948,-0.069889018,0.0561504386,0.2021315475,-0.0885417376,0.0356260056,0.0318062971,0.3126594641,0.1257847349,0.0544236869,0.3804060647,0.1669239106,0.2192868688,0.1419768648,0.0849585452,0.3346003353,0.2567004201,0.4151326471,0.3451210279,0.1699943306,0.0927863443,0.0723180394,0.3061724495,0.1884217992,0.2894915734,0.4051763717,-0.0633583528,-0.0339105586,0.0337222078,0.0892704987,-0.1062762473,0.3236948154,0.2846733651,0.2629774448,0.1521875666,0.2064050754,0.0078595988,0.1865717778,0.2731626868,-0.0376309068,0.1517654848,0.2034520003,0.1618421621,0.0339369462,0.3220834084,0.3454457818,0.0786586874,0.1647664903,0.0359429659,0.2397673098,0.2555750641,0.3211214778,0.3140828695,0.055085332,0.1202149106,0.0464829039,0.2882817104,0.0609595695,0.0683356287,0.1259476662,-0.1532529659,0.0548590468,-0.048924227,0.1340908249,0.0942862754,-0.1864852083,-0.1423307513,-0.1844192863,-0.2303579941,0.1177158351,0.2146797779,0.1780335721,0.4372374458,0.1149364952,-0.3693452669,0.3296776444,-0.1507072855,0.399930802,0.1958880734,0.2065836423,0.3823688428,0.3180847124,-0.0121979902,0.0175398953,0.1845394366,-0.0585684793,0.6156616226,1.1534185126,-0.4588700073,0.1663059115,-0.435692293,0.2663175603,0.0378804862,0.2919332102,0.068763409,0.1236974715,0.2174603901,0.3292287789,0.0070616165,-0.071093772,-0.0194248571,0.2170399751,0.3550578838
   0.241400709,-0.0158635583,0.2193566377,0.3082469602,0.2497049548,0.3582912292,0.309969697,0.1829265483,0.4761626029,0.3179371293,0.4803522011,0.4174160288,0.0666963387,0.3703308728,0.2221803664,0.4073593062,0.2654122785,0.0521629232,-0.0120580293,-0.1507877514,0.410204385,0.2502898663,0.1249220569,0.2375070829,0.0835737668,0.2203702815,0.3509540757,0.2327236137,0.3130802596,0.1760082685,0.3570521033,0.2526166453,0.2872152874,0.1987151838,0.1678231357,-0.1298357951,0.306402612,0.2117219927,0.0164806762,0.051585042,0.0563713483,0.119369179,0.3508991974,0.2487318538,0.2137901348,0.2553781433,0.2927951806,0.3435812971,0.278985443,0.1865252991,-0.0568023775,0.0247553709,-1.025150628,0.339500053,0.0478408174,0.3865680305,0.2158823309,0.0681933456,1.5696513063,-0.1680881266,0.2285927267,0.0647317096,0.1662254091,0.4330217769,0.0577235293,-0.127785935,0.0231450762,-0.0082631285,0.0553961971,-0.0537948695,-0.1699248804,-0.0704666693,0.2116353978,-0.2756956867,0.2317118764,0.0772032006,-0.1079726051,-0.1570006791,0.0845789678,0.0088724611,0.0995185363,0.3951602485,0.1989386846,-0.4560870308,0.1206885996,0.0332596839,0.3351452468,0.0906711004,0.1924474103,0.3526305909,0.2789303788,0.2584910297,0.318782954,0.3973925133,0.1611493375,0.1635642883,0.2981215277,0.1030353683,0.3243377204,-0.3235790299,0.0799270486,-0.1294083481,-0.0259880357,-0.1176041688,-0.0777622098,0.0477303071,-0.036216034,0.0473217651,0.0719269427,0.3096029526,0.1736106844,0.2875075861,0.0182596368,0.0026992622,0.1863669141,-0.4557070894,0.3048735736,0.2657506619,0.0779714717,0.0950341715,0.1495764876,0.3506432758,0.3228730119,0.3296007731,0.3761132653,0.3271644323,0.1335093213,-0.103861635,0.1828276779,-0.1988767297,-0.388683093,-0.0603036741,0.3081407181,-0.0998165111,0.0779112551,0.013834501,0.1313503273,-0.0555797108,0.0836501077,0.0535054237,0.2614469017,0.1305500472,0.3071132375,0.0295914572,-0.0771927588,-0.0208211366,0.2120058579,0.2931575,0.3689774024,0.190639371,0.3611457944,0.253551951,0.2448352939,0.2057420943,0.340793286,0.2892512436,0.2792587319,0.371580353,0.4428347655,0.4079482839,0.2727051744,0.4033936038,0.0337554698,-0.0950214146,0.1576115823,0.3242145867,-0.2060585233,0.1856287414,-0.264347012,0.2895250275,0.0439365607,0.2259705573,-0.1742456936,0.1680033096,0.3352649147,-0.0312350447,0.1736369062,0.1885960002,-0.1359355924,-0.86135974,-0.1438290967,0.1150124293,0.1979243262,-0.1485467031,0.2886014351,0.1686973139,-0.0372693362,-0.0743489335,-0.1131828291,0.2033885473,0.1881480966,0.1590114352,0.1533593324,0.1372099578,0.405920732,-0.4304472425,-0.0979042282,0.1561547497,0.3393376988,0.1369517185,0.1394950817,0.0794260276,0.2449292591,-0.0553538307,-0.0666923117,0.0358539645,0.2150031188,0.1419769578,0.022441424,0.033359009,0.2820544881,0.3462433969,0.1736467826,0.1134090172,0.2542629999,-0.097621643,0.2156978387,0.0396509699,-0.0391686258,0.0113532609,0.3127416429,0.4615813695,0.1917550099,0.1488013109,0.0608541989,0.2557878362,0.1797196801,-0.1965515851,0.1090471576,0.4510843007,0.2858851684,0.159996012,0.4256828553,0.1140304524,0.3337434037,0.0571054969,0.4526341226,0.0850936063,0.4445384733,0.1391002651,0.291842322,0.2870989017,-3.1539304446,-0.2579220836,-0.0030927512,0.2826340751,0.0839261866,0.0212168222,0.0262327552,-0.0522471795,0.0554195641,0.0254352332,0.0595837844,0.2173189371,0.0417897494,0.0401301589,0.1093799212,0.1965764542,0.2067172377,0.3811148774,0.0057547282,0.030096525,0.0475596997,-0.0259224878,0.0190064041,-0.1336227906,0.2228018498,0.2871793856,-0.0159523683,-0.0262540601,-0.0016424453,0.2379066945,0.2298926751,0.3169662223,0.0482481479,-0.2454009228,0.2931386903,0.2055821316,0.3077123037,0.4511164807,0.3099498931,0.2051552545,0.3478607958,0.0208025421,0.2019469339,0.22199406,0.1930427346,0.3286932525,-0.0742894752,-0.330947884,0.3296467982,0.2062760971,-0.0096580157,0.3351734169,0.425230797,0.4167354629,0.0477696135,0.2796331165,0.3421997648,0.1341658036,0.145119181,0.2927373595,0.2314064603,0.365603777,0.3198463993,0.0628406468,0.1212018388,-0.1659355426,0.2736539337,-0.0916654881,0.062537641,0.0992155636,0.0192158423,0.0290465465,0.150348235,0.0144633347,-0.0199194672,0.015023604,0.2813656957,-0.0632265859,0.1920104104,-0.0403414397,0.3170022583,0.3463726928,0.3402220492,0.1096392886,0.3260653158,0.080759598,0.2643067145,0.158247245,0.287517139,0.1684267379,0.2033821998,0.3458654676,0.1741877844,0.3935692013,0.3939971036,0.3553262558,0.4605932366,-0.0149499826,0.2382001663,0.1661561171,-0.037528252,0.0028445487,-0.037991805,0.0877072217,0.2153406014,0.0186631362,-0.0108121006,0.013106358,0.2559260136,0.2912831238,-0.0316992242,0.3165825763,0.0442826518,0.0669324809,-0.2623056352,0.0678927569,4.0243238134,2.4210583353,-0.2615646569,-1.2420766356,-0.9015478398,3.0935189477,-0.2765562677,-1.6911074953,-2.4575856335,-1.5101441398,-1.4913288933,-0.0890176307,-0.1108868812,-0.200016879
##end
biasActivation=1,1,1,1
[BASIC:ACTIVATION]
"ActivationTANH"
"ActivationTANH"
"ActivationTANH"
"ActivationTANH"
