encog,BasicNetwork,java,3.1.0,1,1384059163506
[BASIC]
[BASIC:PARAMS]
[BASIC:NETWORK]
beginTraining=0
connectionLimit=0
contextTargetOffset=0,0,0,0
contextTargetSize=0,0,0,0
endTraining=3
hasContext=f
inputCount=15
layerCounts=2,42,42,16
layerFeedCounts=1,41,41,15
layerContextCount=0,0,0,0
layerIndex=0,2,44,86
output=0.4976523846,1,-0.1642921684,-0.9999999752,0.9498202233,0.9892151546,1,0.9999999994,-0.9183082114,0.9386260825,0.0190961564,0.9830079929,-0.9129152772,0.1874756899,0.412312517,-0.9999999999,1,-0.326560869,-0.2024778086,-0.2822896369,-0.9895350161,-0.4103070638,-0.9999999999,0.9999942036,-1,1,0.3126134812,-0.5824526119,-0.9322138946,0.9996666376,-0.9937747307,0.999961618,-0.9926336971,-0.8425869277,-0.5881727847,0.9251989353,-0.776522315,-1,0.9061387909,-0.6097449599,0.999961911,-0.6196435764,-0.9998078162,1,-0.3573524731,0.0093325773,0.0048102622,-0.0735612001,0.9129946879,0.2367016996,-0.5895831821,-0.1982765373,-0.4162563937,0.1851765971,0.7214317029,-0.292386539,0.1161058939,-0.2351040159,0.7630039662,0.3259310858,0.0293967631,-0.3705550018,-0.1593696121,1,-0.1159658149,0.076371875,-0.0115678376,-0.2361090588,-0.0233920279,0.4786968413,-0.0835282762,0.6960504598,-0.2640672146,-0.9940481075,0.7862215005,0.286881934,-0.0388966006,0.0844019173,-0.7578577639,0.3540417069,-0.0623354409,0.2931246031,0.372881942,-0.0484952596,0.0608704436,1,0.3004975124,0.3004975124,0.3004975124,0.3004975124,0.4,0.4,0.4,0.4,0.4,0.4,0.4,0.4,0.4,0.4,0.4,1
outputCount=1
weightIndex=0,42,1764,2420
weights=0.125461507,-0.0900654076,0.1148108704,0.1178419549,-0.0823548901,0.080508282,-0.0778714074,0.1066305337,-0.0884192601,0.1030176495,-0.0592947893,-0.0791341232,0.039035655,-0.086380275,0.0828185255,0.251457803,-0.0658913325,-0.0707629218,-0.0819137236,0.131471216,0.1421288879,0.1127896787,-0.0674742679,0.0942894693,-0.016709746,-0.0318503074,-0.0959731256,-0.0521505348,0.1455488398,-0.0955189285,0.119689987,-0.0881393514,0.0977845069,0.1191904188,-0.0759674334,-0.1094335981,-0.1143216244,0.1662366362,0.0667081889,0.1255708884,-0.067930731,-0.1925542083,0.3806868238,0.327895757,0.1121300866,0.1711133435,0.196851049,0.1774477489,0.1315611724,0.2448286534,-0.3062269609,0.3068079797,0.1677992698,0.1480214467,0.1971519821,0.2437698287,-0.0166004547,0.1450558225,0.203554552,0.1711870522,0.0881802673,0.0114119569,0.2094202232,1.150182036,0.1681354901,0.1789833719,0.3892466595,0.0463647093,0.1675077215,0.0117729428,0.2436487549,0.369713574,0.2145334551,0.0299346945,0.0324486412,0.3150184624,0.2550662111,0.0180083068,0.1240415131,0.0302101127,0.1928257694,-0.6140084287,-0.4154168895,-0.0065036771,0.4167969397,18.7672676084,-0.0310928021,38.8371765941,0.1030065532,0.06418627,0.3224719408,-17.2175735886,0.241277975,0.0210070273,0.0020133634,-3.0275975709,7.6115183196,4.3308145325,0.0828909661,-16.6910499354,0.0480495395,0.2928413439,-9.7128543453,0.0256462486,1.5951771261,1.1480608251,-18.168170671,-2.8549891905,0.0702740535,0.0170955826,4.0903025038,0.007755963,18.0418565764,0.3107762606,-0.0475714261,-1.533285154,1.5996747872,0.3287040019,-0.0331436576,0.155064879,0.5110590254,-0.0359264612,-0.9897735224,6.9984304875,0.6205566647,-0.5896621264,0.0625622653,2.6005830639,0.1224442861,0.1306042264,0.3742662248,0.2923502651,0.0980924326,-0.1025590049,0.004311111,-0.0220272627,0.1243695074,0.137588633,3.3938458938,0.027952834,0.1667523263,0.4467628014,2.1421548079,-0.0196049303,0.098423558,0.4886256227,0.1782982729,0.2518692556,-0.5940246175,0.5228290316,0.1703931155,0.4052360238,0.1889394436,0.2913147066,0.2609890303,-0.104044191,0.4384370082,0.3826249966,0.7052575498,-8.2309358515,0.1579395997,-0.6905765864,0.0875526134,0.5973182682,-1.2944875667,-2.0628159936,5.5654933031,0.4291422643,-0.0470206596,1.3593952046,2.3262562105,0.0332502319,0.4027952426,-0.0656704808,-0.320176765,0.622803092,-0.1759983996,1.0743018402,0.3479900882,-0.0955463831,0.6642360838,0.1747903887,0.3230400885,0.5672874201,0.2104891459,0.1994385201,-3.0129362317,0.3436499912,0.0927821714,-0.5154553029,-0.8040108901,-2.849952465,-1.1700682604,0.1979260324,0.5483700252,0.4375574131,0.1386575572,0.8765754384,0.2740515623,0.6673562757,-1.9177522826,-3.1868544015,0.19557798,-0.369224023,-0.2086021589,0.1220726165,1.0649601713,-1.8674593194,0.0528506502,-0.199980225,0.2595599752,-45.120240069,0.1322392839,-0.3119673622,5.192379198,36.1375202051,0.1259647801,-0.0082927922,0.2157372438,20.1631648493,0.1894315196,0.1713066838,93.0837460362,0.1541737978,0.2146546361,2.5846484618,0.0172706452,0.0632419448,0.1756436714,0.2707240724,0.7369791824,4.7040714176,76.1954610488,-1.6291047824,-4.4068331627,0.2805656762,-0.1948744584,0.4375988816,-0.0052313709,0.3596987632,0.1653229407,0.2656109681,-3.4739717734,17.1772373606,-0.0327906433,0.3589589093,-0.1730993472,-0.4330788231,46.7991582055,0.7213964944,0.692870903,0.1620413324,0.2633695791,0.3938825316,0.270158361,4.6757607613,0.0934083629,-1.3659616495,-0.0928104064,0.2275056488,0.2682124594,33.7379011405,0.2268992116,0.2632930394,-8.3030447191,-0.0335489833,0.3594995964,1.107641437,-6.7611976813,0.1463558016,0.1824862498,0.4278039965,0.4753117655,2.8267369135,-5.2722910462,-0.6120695088,0.1904388619,0.4313653569,-1.0271532574,0.3329326726,0.0745564643,0.1982492001,0.3018242892,3.7282187427,-6.6637465168,14.6578453365,-0.0806097777,-1.9615311015,0.08273486,-0.1370188605,6.9069657709,-2.489799289,-3.199463011,0.2991973805,0.2191139442,7.2555804706,-3.9411163016,1.41993936,-0.0176141373,0.0578676048,0.0162193714,0.1932579794,0.3493699759,-0.3589644376,-0.1956814339,0.0107504032,2.7718974704,0.3737995331,-0.1441810921,0.0155895061,0.3348781738,0.3092104213,-1.4402317064,0.0755726739,2.1436947947,-4.2328784367,4.7807586958,-0.3239067303,23.1078571377,0.1069159761,-17.8031908419,-0.2028872009,0.1656876426,0.7034983477,-0.095225952,-1.6918275467,-5.2161105438,-0.6407874967,0.8164239917,0.1397703793,-1.2389130379,-0.1639863544,-0.1720708874,-6.1653002573,0.0945388783,-0.2188411883,0.17652881,-11.1036805461,-0.2473392764,0.3540912536,-0.3080466741,0.0127101912,0.1410724656,-0.0851344414,-0.1359546208,0.4234550752,0.1174665936,0.0623039224,2.4051286379,-0.094560429,0.3636708352,0.2455270365,-2.1368255982,-0.0576409773,0.071639949,0.4929857699,-3.4286932816,4.1360393109,-1.469920639,1.0793314633,-2.1600475692,0.0839122126,11.0559126145,0.2461872752,-0.0315849108,0.0830873243,0.4345655385,1.2448012493,-2.1647971069,0.0992273563,-0.0277711035,0.3634280935,-0.184354506,0.3826567307,-0.060314237,4.1896763752,0.0824950524,0.3801648845,0.1864143419,-0.0940218256,0.1338528696,0.0910359649,0.0125104624,0.1065034249,0.3711350462,0.1401745159,0.2669944475,0.1969061237,0.0065327692,0.2416759836,-0.0797525257,0.0986772127,0.2476354759,0.2854797127,0.198553385,0.1048615797,-0.0183071603,0.3281906643,0.2138447191,0.1120689502,0.3625865622,0.0909969679,0.2276070594,-0.0329099084,0.0335374542,0.1633110231,0.0727648151,0.1487340299,0.2356788993,0.0033826983,0.1287349402,0.2019635553,0.4276401342,0.0848366325,0.086448259,0.1102401251,0.2398402352,-0.0013072947,1.919456944,-0.1226954855,0.0909033178,2.9417332233,0.240471047,0.1146258196,0.1837913101,0.1117469323,-0.1170140488,0.1015075116,-0.2595091745,1.8064127902,0.0708895279,0.3512562843,0.9070468188,0.0387569884,0.2976317847,0.3389509626,0.1298840346,0.3912350409,0.1984401117,0.2631329204,0.0253226023,-0.5852777396,4.763908568,0.4828912085,-0.0648341441,0.2898192782,-0.5914617429,0.1005523781,0.0544454649,0.2729905566,0.0770701754,0.3334581666,1.1265739994,13.9671897158,0.1758878552,0.1776985514,0.1453901936,-0.0009622301,1.3430803198,0.2695194646,-0.6937477381,-0.1803039656,0.4588033433,-6.1506612644,0.1153071967,0.1461037459,0.4800126035,-0.0074275241,0.2821983363,-0.0432007188,0.2025972557,0.1748380782,0.2243473726,0.1371168048,-3.5372353117,0.0101240264,-0.1307257125,-0.117398693,0.7367722236,0.3915194315,0.6013951721,0.262866039,0.4844281561,0.2193018816,0.1666193106,-0.4445917728,0.0710618637,0.0011158684,-1.4496924809,0.2331273405,0.0700573016,0.5244784036,-0.0792486141,-0.0466145404,-1.4026733011,-2.6189420504,0.3286356882,0.096697613,0.4533647126,-0.406278174,-0.5733025177,0.426372051,1.3546044883,-0.2038570125,0.0774447522,0.4291207903,0.1744978786,0.0815053097,0.1199647265,0.3580826824,0.2317947175,0.2888393768,0.3148994938,0.2377293528,0.129896117,0.1855233188,0.3338114837,0.2246984428,0.3461805391,0.0503820715,0.1243462719,0.2270926351,0.3326971118,0.3409720507,0.0934586386,0.4119787166,0.1249666079,0.3683270587,0.3464248209,0.3342567456,-0.0458917443,0.0398983181,0.2351147676,0.3753267816,-0.0177795319,0.192024132,0.914607976,-2.3411155707,0.0613246741,0.2956071168,0.1950477605,0.0221182567,0.0227155255,1.1996691115,0.9924371753,0.2401464418,0.2087799722,0.1829488003,0.376902226,0.4006878282,-0.0359087012,0.0640582294,-0.1386416183,0.2748403244,-0.074951652,0.3085664639,0.1580546089,0.411814887,1.3317533504,0.1464429632,0.2879342461,0.1186130364,0.3166873717,0.3330877185,0.0660395577,0.0146019688,0.1864906992,0.2871475326,-0.1847422657,0.2028132542,0.0553381023,0.1314349153,0.2363878165,0.1705816643,0.4122018474,0.1850632175,0.1314598857,0.1654470869,0.1738443209,0.2504073545,0.0432481003,0.1019218891,0.428947919,0.0482387891,-0.0714115707,-0.5354455434,0.8465601522,0.1497408003,0.2103504654,14.9990377751,3.0309240841,14.0448486743,0.097965109,-0.0394026071,0.0689890324,-1.409385577,0.0843233424,-1.0750108585,0.070541692,0.2704330349,22.505850323,0.7109817402,0.1243961894,0.1153087623,-0.1513316221,0.4295577765,28.489982349,-0.1105945046,0.042329178,0.3355763305,8.992434724,-1.9718988404,-0.9880085687,0.2170641156,50.9179533659,-0.0348393932,0.1388192907,-0.3689596332,0.0331049899,-17.8531394268,3.5813110059,0.7151977281,-0.0077731826,-0.0462906553,-6.1762505154,-0.0373987196,-2.2473992405,4.8541766193,9.0552969221,-0.0059181995,0.1701268924,1.0813488683,0.1529339737,0.0633653726,3.7177585823,3.268920768,-0.0522052994,-0.1039285759,-0.1407698034,-0.4572104969,0.2576679463,-0.0476794724,25.2981585189,0.2483924633,0.3930032208,0.5696410533,-0.0228751855,-0.101578871,-3.2191711731,0.2657306223,0.0327789366,0.1329169474,0.1849413877,13.0636080734,0.1096617583,0.1254405147,0.1406518998,0.149113627,0.1477215304,-1.758625601,0.1184666232,0.7012864156,-13.6569518598,3.1527007148,-0.5281433793,17.3905663719,0.0757358406,-0.484168643,8.4219320376,-9.908028179,-0.0397122521,0.3789850057,0.223440381,0.7096309462,0.3486582997,0.1443421342,-0.1211600842,0.0897284387,-0.0052911971,0.1330300228,0.1396667314,0.0452342787,0.2132657605,0.3286922186,-0.0246814714,0.2895722929,0.2578621393,0.2607321174,0.3230351853,0.2805471809,-0.3438304256,-0.0085273459,0.2765220561,0.7141654801,0.3549427061,0.1651892825,0.199516526,-0.0748396508,0.1896256494,0.0172725914,0.26861791,0.2136044141,0.3701962742,0.0494397138,-0.0309106674,1.499728583,0.0873872099,-0.1321710172,0.3779753551,0.065537855,-0.0412527767,0.110262758,-0.242648059,-0.2466961954,0.3292414218,-14.2196442863,-0.327475768,0.22355688,-2.5101290438,-1.2053849108,-0.0596559586,0.258521263,0.0038278657,0.3423232341,0.1925069682,-0.1265592752,2.9761429763,-0.0994684333,0.0683278879,-2.3048472923,-6.0467438404,0.1354002577,3.0895527411,0.2591145836,0.8829346872,0.2063033411,0.5294967648,2.4239691574,3.0575297454,0.0783844354,0.3514672596,0.1572905445,-0.0305539122,2.4756388494,0.2270906734,0.4445234065,20.6963841494,2.5420923216,-6.0244461537,-0.0747800421,0.2770953773,0.00186103,-1.932170682,-58.9684763253,1.9940089163,-0.217012975,0.062339936,0.2964311821,0.0940249877,0.3338010838,-0.1509999485,-0.2717239403,0.0255629513,0.1343035718,0.0561194652,-0.008409531,0.1595178085,0.2835173207,0.1224596702,0.2406388238,0.0079524869,0.1995760784,0.2137685993,0.2969767995,0.0562864107,0.2916505066,0.1722228472,-0.2839635844,1.1657793241,0.2339968882,0.6669244232,0.0687546703,0.0305238978,0.0912315583,0.3817091296,0.4294455345,0.3109016865,0.2082850961,0.3041350154,0.0173730671,0.2880896121,0.0400577145,0.3189129215,0.2642117918,0.2795531853,0.3437901434,1.5672347219,0.011984488,0.3198990407,5.164262748,10.721602553,0.5100192901,-0.6489347994,0.1635371112,-0.1390475779,0.2291936745,0.3850581814,0.0684140175,-0.1279062423,0.2776108602,2.4485322037,0.1872325315,-0.0492084962,1.4533245315,0.0960519204,0.5684198217,-2.7582710302,0.0336428694,-0.224089494,-2.0704408865,-12.8319272194,-3.4394202183,29.6787370928,0.1106505882,0.6359766186,0.0162516675,0.4893014059,1.0617902001,-0.2151286702,1.0174615895,-2.2770431982,-0.2461307701,0.476167899,-0.3467876611,0.7643902109,-0.8373938037,0.518458864,15.7725790602,-0.4445174686,-0.4510625792,0.2337342122,1.4213776476,5.872867925,4.2594475321,0.0034109017,-0.0954919507,0.092174071,0.151612135,-0.0808186853,-0.4026048926,0.0634702311,0.0991946492,-3.7919125207,0.2383618267,-0.0485825437,0.3523589332,2.3646915466,0.2262772432,-0.3020526777,0.0830065834,-1.7145045622,3.7265259566,-7.8512861006,-0.1511135906,0.06729798,-0.1821302501,0.9558400711,-0.0974500376,0.0879918868,0.1265124391,0.0892567914,-0.0877935711,-3.730024163,0.3839100114,-0.0525507082,-0.0469256697,0.2044504383,0.4121472548,0.0399153087,-0.1997781751,1.2117212858,-0.3274921562,0.2147272134,32.6546276551,-33.6728932051,69.7807234432,-0.1428301581,0.0688441799,0.0230909116,0.839798389,-0.0070148405,-27.7458078248,-0.0829525139,0.1184845354,4.7796367728,0.1081061232,0.1483911799,1.3531548618,-2.2395871766,0.2966722457,-0.1216951761,-0.0763776369,13.6433686756,0.1205623436,-12.3379122591,-0.3060157132,14.0887328822,-0.0805878316,-5.3282097282,-0.0999073424,0.2417710009,0.2228057367,0.0154692588,5.8432655403,-1.031679796,-4.862664264,0.2928770968,0.0877808782,20.1237418764,-0.2379309008,0.0930903958,-2.8220238812,-0.0093838647,-0.302288219,-0.0809470234,5.7543609254,10.4720404836,-15.4697865531,0.1120250435,0.5173209604,0.2090790682,0.0241102513,0.1963058387,-0.0712489728,0.4629576081,0.2222901648,-0.219273535,-0.0106618947,0.4885864159,4.7555977107,11.6635269556,-0.0984626393,0.2099883731,0.1795832614,-14.385497511,-11.7059963213,2.600768595,0.4816688083,0.21075159,0.0797206407,-1.133208241,0.2536850596,-0.0381952507,0.1125170371,0.3275901363,0.9947041446,0.2253856905,-2.2553833602,0.1369515464,-0.0091702454,0.2530518909,-1.1007951008,3.8850108818,0.140451486,0.6922210687,0.1932496236,-5.8067933624,68.6113211301,9.65317104,1915.978163257,-0.8498033891,-0.5612021498,-0.1296597991,-29.8982084984,-0.134003089,-16.9611886803,-0.2347314229,0.1412458265,65.5663986906,-0.0769576181,0.0925310024,0.321679793,5.5728101071,0.1601673035,-0.5835984193,0.2761980577,-66.6922320329,5.9431415696,2.0179685243,-0.8489944625,-1.9206575841,-0.9467313233,51.2542646588,0.0409668623,-0.1184487049,0.275044703,0.3050502464,0.5640509155,-0.1892656266,0.361891023,-0.0072879129,-0.7923586439,34.5213649588,0.5066343039,-45.8156354842,-3.5167006955,0.2128563874,-0.2725872969,0.1546004283,5.3864645426,0.1241929519,-0.0060912529,-0.3296785093,19.4710258477,-0.1514922311,0.1291868243,0.0215717984,0.2939465775,0.4821499446,-0.0449812757,-1.9975829136,0.0944306756,0.4722640749,0.237932661,0.236243026,0.2074140679,-1.8921697478,0.118650911,-0.0238070839,-0.3236872591,-0.8521082297,-4.1337342547,1.0014647204,3.650967694,0.0949353307,0.3899600251,-0.1010737691,4.1283022832,0.1961818399,0.6815269399,-3.3611181612,0.0163212982,-0.744556988,18.2166222995,-0.0068725187,1.5249621957,8.0728550306,-3.8005518268,-0.0807749035,0.1302649411,0.333194131,0.279295354,0.2191132014,0.1443404565,0.3764543287,0.0518144879,0.2781443297,0.0388232313,0.0178462644,0.3775486999,0.2355288895,0.1260086096,0.4850688338,0.2867566835,0.0277862189,0.2932884197,0.1397820122,0.2029231674,0.3194361192,0.1072133129,-0.1251783861,0.0124044503,0.129408615,0.456023639,0.0352172841,0.3695607303,0.1962760089,0.0859141997,0.3312379743,0.2129331714,0.1421962164,0.2068038266,0.2615533003,-0.9387776253,0.1689295378,0.1254685277,0.2307464011,0.1828388845,0.0100180248,0.4602455017,0.278230671,0.1163848395,0.2964625536,-0.6046085784,0.1732376471,0.3391025559,0.1749107624,-0.0492212806,-0.083320286,0.1171933999,0.1152749528,0.4943964539,0.2239518766,0.2855746649,2.1234989759,0.1432886132,0.0115235978,0.0369348223,0.1061349887,0.299407268,0.2301683499,0.3195457049,0.0190965056,7.0696925807,6.0080341308,0.1256718694,0.3079292427,-0.2452106751,-0.2522272151,0.1550876455,0.1558308984,0.219116053,0.1578142588,0.2185136766,1.2723724385,-5.3441252261,1.4358594666,-0.2340401921,0.1661294926,0.2029829465,1.4316152915,5.2957276083,-0.7555991119,-0.214112732,0.2115780282,4.6556678102,0.0011403118,5.4242220974,-0.0934173009,-0.2508817486,-0.0765617735,0.2240005708,0.0715793486,0.705722074,-0.1042645612,0.0053237663,1.4010459468,0.4212718473,0.0063325633,0.0681264382,-5.853522192,0.2422232478,-1.6837706377,-0.0823456809,-0.9111823043,-1.9881040831,4.9479117157,0.051399749,0.0791326809,0.1908309991,1.3466756662,-0.084257397,0.4694891331,0.3489759872,0.0407715649,-0.1474767643,-0.1868169552,-1.3706151389,0.2630222479,0.080916028,-0.4514625334,0.6174583202,0.196433741,-1.9447382907,1.0962753475,-0.6248743976,0.0197470366,17.5157650506,5.7859810302,0.1919355809,0.817255515,-3.8766728859,0.3775513027,0.2708521857,0.2155332169,3.1044889121,0.3835246155,0.1319676382,31.0011441974,0.1972676009,0.1904356853,4.3040070206,-4.4966361458,0.2717374548,0.3064790319,0.2124342733,0.060859664,-1.4631508264,-4.7100454493,9.4167551556,-0.1795914457,0.226163009,-2.2911341152,0.3074589729,0.2133387255,1.4866925177,0.3633807776,-1.4101900592,-15.1178668565,11.3170339224,0.1406336725,4.0170600599,-0.0567598399,-0.2262759687,-1.1657272582,1.9820301906,-6.1749980649,0.4056632632,0.2972092109,2.9162792616,2.5355619707,-6.5923486878,-2.3092873598,0.1394156736,0.0048436899,0.2052489806,0.1946897498,0.2157799034,0.1488850069,0.0842224394,-1.3294462531,0.3942459506,-0.1263958194,2.773362819,-1.2027516268,0.1839128853,0.1528167775,0.0005660466,8.8648868267,-1.2991824582,-0.6943579234,-0.6079521441,1.2343277172,0.2348100217,1.658138616,-0.0213924314,0.3546835412,0.5658677551,-0.0543079739,0.0922129201,-1.0120306142,2.7438078253,0.5727221002,-0.00881378,1.2307109958,-0.3647380361,2.7917254812,6.4720274721,-0.4399154461,-0.2912183871,-0.003884318,-2.3337948554,-1.424679409,0.7094569091,0.3381835474,-2.8691655784,0.1496017095,-0.0812904534,0.2492534828,5.7480431783,0.2093749975,0.1126461626,13.006035824,0.0657010187,0.2842187901,-1.6335803804,-8.222845807,0.1325311378,-0.7667892469,0.2036038205,5.3144689847,-0.9969959764,4.9651643924,0.1503146687,-0.0661245265,0.2331440811,8.3638487017,0.4805077977,0.1015553963,0.0787234675,0.479715811,-2.9328924751,0.5541099486,-1.9629312226,0.1902219905,0.0757517504,-25.497585029,2.9353827343,6.6016903989,-0.0974924242,1.4167775003,0.5674212737,0.233806972,-4.3131786454,0.1123979442,-1.2457279115,-0.3499754986,-0.0590251469,-0.2226574757,0.0353223989,-0.1393310277,-1.944709316,-0.1074016725,0.1208055906,3.5991019577,0.1479916592,-0.3554916766,-1.7156356066,-3.2599083801,0.3099123981,-1.5660602838,-0.0116296389,0.6787569001,10.0270228025,1.3703091289,-0.4696563091,-0.6925370683,-0.4833934454,-0.1979435869,0.218023652,0.300540709,0.3159184009,0.2258674534,-1.9586399763,-4.2926280346,3.8597078325,2.1528274107,-0.5444477337,-2.0431123976,0.6554415146,0.3396699275,-0.3853871131,-7.0226086794,-0.3876029667,0.446484118,6.8460195009,-0.2973406919,0.3068311193,0.314997507,0.24033049,0.1631961532,0.1349122122,0.0624139071,-0.0512833223,0.006898723,0.4693027992,0.0549814453,0.2357497515,-0.1545426894,-0.1439383532,-3.8322916545,0.3665411747,-2.9510231,-0.0254129011,-0.8451964963,-0.3520521447,0.4663779638,-0.1327817987,-0.300091244,0.1839090653,5.7785833782,0.0709507388,0.3194269507,0.3763015028,-0.0250650651,0.1695299829,-0.1151571444,-1.6042323067,0.1053090479,0.0589111604,-0.703306469,-0.0764612365,-0.0101568175,-0.1825783784,0.8401675439,-0.3638227778,0.2919509055,2.8443124506,0.1359095743,0.054725056,0.1476058744,-0.0427857406,-0.0628159161,0.26197753,-0.0459332609,0.1498122695,0.2521641335,0.3917410829,-1.5790557861,0.0567298357,0.0175716424,0.1794251109,0.2711875705,0.1533112893,0.6059048551,0.2784615842,1.4220630603,-8.4683380086,8.0310823426,-0.0427337033,0.0580499668,0.1813738101,0.4009721326,0.0963083805,0.3392963571,0.3285673931,0.2237780261,-0.2598696243,0.0573853994,1.7241961025,0.323641069,-0.0268667256,0.192898744,0.3643871635,0.6377409017,-1.8596946291,4.102157009,-0.2966554314,0.0712187832,0.1089193815,-0.0043136035,-0.0399988796,0.1439651359,0.6466249343,-0.3547505397,0.0639402412,0.0763113538,0.2465377656,0.1441235693,-0.041410698,0.6672490715,0.0680651965,0.2439317229,0.2993834352,-0.405650609,0.1158070967,0.145984059,0.1837165348,-0.1151020399,0.2580248909,-1.6487697916,0.1938692378,0.2878284232,0.2599439805,-0.046829582,0.4911692685,-0.0735412065,0.2560690097,0.4644388299,0.1989483272,-0.2904609227,-1.3342278407,0.1837018514,0.2276445636,0.2161219391,0.1443906181,0.0218545403,0.1356355304,0.2395568167,0.0417482763,0.2428683491,8.6858092503,7.1518549132,1.6246239966,2.5404600857,-13.2755040469,0.1434452865,0.061997432,0.1020798534,5.1578034932,0.2428826551,-0.0304791143,5.066106495,-0.1863521632,0.1906546428,1.8366097444,1.4744496504,0.3806049586,4.6810340375,0.0576341053,0.9150449955,-9.7199093909,0.9606698371,-2.7980960037,-0.0390294711,-0.0027135625,-4.0683852125,0.2057856076,0.1827293419,-0.2544020768,0.1476849574,-0.927204504,-6.2070981242,-0.1821257928,1.891704213,0.0428255045,0.3560978657,0.7842049326,0.2587458122,22.2857150669,0.6417656161,-0.1212907411,0.3300159673,1.2832747656,-15.5732720603,-31.1944972493,0.0233370019,-0.4472307325,0.098841913,0.2851848524,-0.0554141431,-55.7197309904,-0.0341887736,0.4272843426,14.2200761122,1.7450026085,0.2197558289,-12.1907825089,6.633296369,0.4652607226,0.9865803594,0.0566390462,64.3718939901,51.2077365656,7.7126356621,2.244335255,0.3338515763,0.2467075683,3.2468271767,0.1487243295,0.4413465083,0.3038035141,0.2676023534,-0.5177137197,0.8341632748,-11.8299137848,0.373735846,-0.2732614758,17.4100208413,0.0916170124,3.4780454437,0.4714074739,5.5303295448,0.1156831684,0.2752319154,0.2229671823,0.3104974813,0.2454047926,0.2084047186,-0.0008601729,0.2972299517,0.0363236865,-0.0178635238,0.3013845001,0.1122740343,0.1292853021,0.0731005174,0.0921024405,0.2547604215,0.3015219307,0.5238052648,0.2028480773,0.5129975147,0.1474614075,0.2622892562,0.4847338424,-0.0313843287,1.6553816297,0.246406873,0.2904768965,0.2551864895,0.1603662659,-0.0057318575,0.1111283902,0.2374320174,0.0715251302,2.1845976639,10.0104558044,0.1231472373,0.1518019665,0.1345739192,1.4545821634,0.5490687875,0.9454846819,0.692277377,-0.058459749,0.4226152676,-0.0236862963,0.2690709921,0.2699662817,0.0087420759,0.127378745,0.1003838261,0.0596667343,0.1273891477,0.1830720795,0.1054252179,0.3249622532,1.8578811878,0.2638010167,0.1673525818,0.032833322,-0.4057971346,0.3935758107,0.321665951,0.1725545174,0.0178378561,0.1993960017,-0.1355125876,0.738827378,0.327686899,0.0712857553,0.2282797274,0.3124931559,0.4021909134,0.1846518811,0.2902974596,0.0741543647,1.9201179115,-0.8841329319,0.2339034258,0.1383747788,0.4188997297,-0.0011297427,-0.0352314073,0.3415123734,-0.8369516707,-0.3636104544,0.3044941745,-3.4038288256,0.12038566,-1.0762610966,-0.3875927994,13.9659568262,0.2766552728,0.0117906237,-0.5336002788,1.318864789,0.1327534178,0.1007149087,1.0366172617,0.1187531707,0.3698824389,0.2722075684,0.181289605,0.2740568335,0.7175202447,0.3474956804,0.2912394456,-0.2798380367,-1.9334310834,-1.5619884709,3.9368453174,0.168024514,-0.0061624228,0.2430596728,0.2294248381,-0.4048461714,0.3186876183,1.2923803776,-0.0360513715,-0.5497987328,0.3730350118,-3.295922917,0.4513581462,1.110995165,3.636274829,4.00728931,0.1865127858,0.1427026645,0.2057881917,-28.2569995192,-2.1602783748,-29.5251008701,0.370583774,0.1232566421,-0.0179832941,0.1285449886,0.0396727499,-3.0041158407,0.1117095468,0.1329086118,9.3328770793,0.4202361065,0.1802333033,-0.1201186451,39.6734357601,0.314185058,-0.3132817276,-0.0787186723,-1.3362877728,1.9395253448,-3.7632415523,3.5998362047,42.5083622921,-0.1184521442,5.4258054933,-0.0985084264,0.2294019302,0.1243081999,-0.1204941585,0.1640746339,1.3469347149,0.3576690683,1.8631181379,0.1487240564,16.743393526,0.5529531552,0.6438149463,-4.2836384858,-0.1927269982,-0.3394143156,0.3624562486,95.8037839847,-4.5605401487,-43.0625299904,-7.7592658752,0.1142804916,-0.0617105083,1.5764697599,0.0255415006,8.1891760799,-0.0594285529,0.1771369315,-14.5330342586,0.395469995,0.1152996702,0.0456688559,164.754479358,0.2971530954,-0.543992197,0.2552864457,-22.3572130421,22.5803594932,-39.1314266519,1.5078977467,-21.4678751161,-0.1908137728,55.926652222,0.010845033,0.4342864867,0.2535391268,0.1703923978,0.4700790961,22.3786735744,13.9998230432,-0.055964034,-0.8299039405,84.911480207,0.3238636829,-2.2735922377,10.394922523,3.5155666676,0.2024651278,0.0823238022,-0.3076165668,0.0377855636,0.0350679699,-0.2403440178,-0.0400343526,-0.302574769,-0.1238669388,0.1793264353,0.3830702609,-0.0102651333,0.1864921031,-0.0498257058,0.2438061838,0.122774265,-0.4674632057,-0.3272210596,-0.0712170125,0.452396668,-0.3546019284,-0.0914628481,-0.394171972,-0.2905084041,-0.3922040244,0.2664272306,0.2154236009,0.1900861937,0.1421332891,0.3747121699,0.3504000019,-0.0112260097,-0.0441682693,-0.0922341279,-0.1023431577,-0.2729475365,-0.2850918785,0.0009091612,-0.0276013024,-0.1755859555,-0.1134464255,0.1888589542,0.332770568,0.3029876809,0.3360078667,0.0831265274,-0.025557374,0.2446292088,-0.2278698184,-0.1659473401,-0.0588404843,-0.2443536788,0.0065740009,0.0485917547,0.0482725554,-0.3134623138,0.044957999,0.1195403202,0.3155651757,0.3719647613,0.0447211888,-0.0124888658,0.0994986059,0.1356490557,-0.2958180296,-0.1394931699,-0.2349798553,-1.299033919,-2.9026049585,-0.4429567419,5.0035793363,0.2194157005,-0.9030489163,0.1993996712,2.8433705508,0.5011479586,0.3238163426,0.2617245219,-0.0694040395,-1.4185596869,0.312944373,0.0523990341,-0.1152088368,-0.0409499005,-0.0721101584,-0.2942857187,-0.2212790536,-0.1692277308,0.3575681092,0.0028116538,-0.0128544069,0.1472716851,0.2533602445,0.3352643123,0.0350864434,0.5812919176,-0.1118773849,-0.1956051825,-0.2978402477,-0.45697892,-0.301648572,-0.2112089299,-0.4976859529,-0.5739370016,-0.0253949035,0.2680481587,0.2602867407,0.1723067891,0.0719012461,0.2868181321,0.0685512149,-0.1747440324,-0.1587587054,-0.0915371476,-0.0498149591,0.0733714536,-0.3001596381,0.0001603636,-0.0803350511,-0.2078940409,-0.1916468263,0.4084459626,0.1678808175,0.0467693064,0.0911855119,-0.0142013868,0.2536886179,0.3527612984,-0.4210385104,-0.4383459487,-0.1085601398,-0.034431269,-0.2346901551,-0.1980312096,-0.2023302561,-0.3005085676,-0.2798156574,0.3458373863,-0.0035122803,0.1076162492,0.1178629929,-0.0300254368,-0.022576536,-0.007954571,-0.0085658432,-0.1965223284,-0.215871012,-0.1711213731,-0.0326855745,-0.214431472,-0.02585255,-0.2402545803,0.052300738,0.1106366693,-0.0957187987,0.0514990143,-0.1857195462,0.1894765608,0.094958961,0.3837491116,0.3242468422,-0.0942112998,0.0241807129,0.0744172533,0.0987227518,0.1709178908,0.0938121717,0.1138283098,-0.0662512787,0.1375523454,0.0973130328,0.241236047,0.135511628,0.3834963272,0.0746203865,0.1178329909,0.2796921096,-0.1491841081,-0.0042051814,-0.3543233214,-0.1621345685,-0.1201222959,-0.3010044203,-0.2647086392,-0.2305686348,0.3103218488,0.1408891115,0.1534712192,0.3477013911,0.3419246579,0.1715977933,0.2288306916,-0.4112195945,-0.0410755645,-0.2104893183,-0.3338692668,-0.1455872495,0.1406750942,-0.2751978294,0.1032710032,-0.4330122716,0.1636193578,-0.0043156135,0.2416803195,0.2340381909,0.1928682697,-0.1808729041,0.2119123027,0.1784356239,-0.1026570148,-0.2402020055,-0.1334577009,0.0066434988,-0.036222105,-0.3464599236,0.0678536835,-0.320873176,0.1515450039,-0.003614701,-0.0187742898,0.1564097794,0.345164105,0.041561885,0.0692943564,-0.1408035186,0.3680513023,0.1616247308,0.3707454442,-0.3856397494,-0.0435575433,0.0148550531,0.078887518,0.3839190028,0.0242419944,0.3068137107,0.3313486185,-0.0415153136,-0.2250170484,0.2841037246,0.4824123222,0.2100780687,0.0262148956,0.1498754228,-0.1361733468,-0.1656433897,-0.0140993871,0.214163718,0.072845514,-0.0879184147,0.3988225665,-0.0122252095,0.4842477377,0.3367777073,-1.3396155261,0.0680674096,0.0371188804,0.3127754002,-0.045298246,-0.3584589834,0.0849738095,-0.3360435116,-0.1331750954,0.0121450507,0.0076398434,-0.0510418711,0.0422791038,0.3559144534,0.2508797669,0.1721964879,0.2335308346,0.0935885844,0.1601748265,-0.2314736946,0.0669207803,-0.2599499808,-0.3397419975,-0.0713011524,-0.1469899997,-0.2666470687,-0.125708878,-0.0807606563,0.3513704161,0.1250710412,0.0737218115,0.2841106207,0.1359883474,0.1075206431,0.0623767124,-0.4155652431,-0.6078477921,-0.3858430005,-0.0563900928,-0.4122301992,-0.2689665948,-0.3260286703,-0.3989188255,0.4229218283,0.5741935718,0.4233465817,0.2993545266,0.0032314857,0.2405273237,-0.3816930219,-0.068605175,0.0709358181,0.2522511726,0.2344524224,0.1763128888,0.3090044421,0.4160696628,0.1298118234,0.3432116901,0.0472878155,0.1254194618,0.1575230285,0.2814314417,0.3540927123,0.2880496571,0.092858692,0.0639742182,18.2942073985,-0.2085184694,-0.0915536664,0.2496727951,-0.0513964462,0.1854236418,-0.0804072494,0.1106936831,-0.1045487463,0.1684320685,0.3175683011,-0.0428136059,0.3178048001,-0.0080713421,-0.0235431675,0.3004643223,-0.5423015905,0.0133786836,-0.0693742316,-0.3736802714,0.063474795,-0.0698567757,-0.0296672102,-0.0400317842,-0.1246103489,0.2745022881,0.042713818,0.0136279462,0.235168259,0.8070074763,-0.0417746454,0.1331356892,-0.2935225075,0.3946466619,0.0512075805,-0.2911033976,-0.1059415476,-0.0308609213,-0.6917858921,-0.3908512553,0.3084229371,0.4779745064,0.2329500041,-0.0727049805,0.2224427681,0.1658339643,-0.0686302018,0.3902270635,-0.243442623,-0.0937693168,1.0651738546,-0.0912505955,-0.8448407706,-0.6671955539,-0.861828632,0.0868030712,0.0403182953,-0.0616112342,0.0702880925,0.073280645,-0.0144253928,0.643087307,-0.1973591374,-0.1729535219,0.1733774854,-0.3934015504,-0.1592471411,0.0363503958,-0.2358207421,-0.0796492225,-0.2570963879,0.0526070201,-0.0430353199,0.1040386546,-0.0129013189,0.5037561715,0.1010623095,0.0721822454,-0.0991229713,0.4907539374,-0.1304244432,0.3187053944,-0.1162151672,0.1049909575,0.0164656321,0.0989238004,0.0049596257,-0.2457487009,-0.0395537066,-0.048908402,0.0998821682,0.0233868021,0.1347775137,0.0922717912,0.4262808849,0.2175946459,0.1184005759,0.3126430077,-0.1353216045,-0.0540397427,-0.0538282183,-0.1953089697,0.0127887717,-0.088674469,-0.2357439172,-0.0420091401,0.1146540145,0.2280465058,0.1637050538,0.1633916585,0.1642446725,0.0491727568,-0.2383007134,-0.0089347715,0.0105557455,0.2089501933,-0.3385237869,0.2292183369,0.0144826481,0.1727966178,0.1787339921,0.3054357608,0.2154332796,-0.0111730668,-0.6560724681,0.0829091009,0.2136404904,0.7130827428,0.3146524034,-0.2406842639,0.0086692713,-0.0267880152,-0.2143453202,-0.14413939,-0.164235902,-0.1221427112,-0.2521193208,0.113422635,0.0846239959,0.0013190753,-0.0243864119,0.3888702752,0.0831516951,0.4327252712,-0.2871312687,-10.3339376404,2.9862408175,-7.3421001809,0.6830883347,7.3686493246,-4.9246422881,2.1249349744,1.3511705005,-0.2266649642,-0.7112849222,2.4677651258,0.8531797579,1.091096275,-10.1996523805,0.810916088,1.2996876963,0.0605269917,-0.0679342537,0.3610959453,0.0887707321,-0.0450111302,0.0559903745,-0.015271135,0.1921510627,-0.015025572,0.3938727924,0.0291325881,-0.119355201,0.2145824537,0.2637013675,0.2643598798,0.4408497261,0.2617847666,0.0776787414,0.2288562454,0.1896002648,0.2809132129,-0.0875556064,-0.0839894303,0.422459641,-0.5173741892,-1.474125493,-0.1991780969,-0.1169672519,0.2129140621,0.1485756234,0.7001441673,0.3530854987,-0.0090361402,-0.6683804839,0.0989631376,-0.3744939884,-0.3852844628,-0.239949518,0.0217018784,-0.0049717058,0.1215952552,0.2453967451,-0.0390144618,0.0906500841,0.1815497963,0.2386368178,-0.3366013084,0.289958463,-0.0320926749,-0.0038282133,-0.0473187492,0.0216054061,-0.6151276935,-0.1599614959,-0.0099336798,0.1376164537,0.2550290531,0.2716686588,-0.0216940726,0.2910130434,0.0489961287,0.0734546367,0.3601346044,-0.1493541258,-0.1640289193,-0.2165408931,-0.0882720175,0.1376904378,-0.474373229,-0.3615851688,0.4897644637,-0.7670138851,-0.1879339888,1.2758692869,-1.0536595602,-3.948519838,-0.3932755299,-0.711272596,4.1524282102,-0.0998240271,-0.2560365323,0.0468262688,-0.0572931193,0.0668119877,0.0264138774,-0.2816507055,-0.0116078427,-0.0086955903,0.2333925178,0.2628514926,0.2462769574,0.2587614787,0.0951841602,0.2949255117,-0.0135741367,-0.0108471629,-0.032776625,-0.2428852736,0.0105985844,-0.2651649328,-0.1641914983,-0.198001014,-0.1137511017,-0.2384352939,0.3589937274,0.0968941861,0.201956526,0.3173256752,0.3532749278,0.3629461932,0.4227129107,-0.4629741948,0.1208253117,-0.1105796364,0.1422509914,0.0936020411,-1.3087375126,-0.507532755,0.0219731889,0.0084625382,-0.7082217624,1.3201193163,1.7839293058,-0.8358475272,0.9267496158,-1.069684603,0.4452965156,0.197426589,0.1807952078,0.1221726868,0.2762303055,-0.8316236017,-0.7177128292,-1.9000890519,-0.6500299223,0.2531257557,-1.2066364453,0.2627306401,-0.2069163497,-0.1795822326,-0.2980224499,-0.9638444404,5.8692874029,0.362695476,-0.3626215975,-0.2720729805,-0.2619108962,-0.0826757867,-0.2360842408,-0.2475149071,-0.2199537996,-0.0263004993,0.0198476162,0.1370182716,0.0354457411,0.1721918313,0.2440783981,0.3643976835,0.0403652061,0.1323417321,0.0728909735,-0.1870560607,-0.1100944339,-0.1539696113,0.032718721,-0.2190051283,-0.2536173357,0.0570455687,0.1667750824,0.3719970686,0.3738987911,0.2199497325,0.2762228633,0.0033319401,0.1175791143,-0.2841558634
biasActivation=1,1,1,1
[BASIC:ACTIVATION]
"ActivationTANH"
"ActivationTANH"
"ActivationTANH"
"ActivationTANH"
