{"layers":[{"0":{},"1":{},"2":{},"3":{},"4":{},"5":{},"6":{}},{"0":{"bias":0.13759576904859788,"weights":{"0":-0.12125189011391077,"1":0.11150600538163138,"2":0.09159062982161273,"3":0.1125380846400501,"4":-0.05151710685202277,"5":0.0075485840834786195,"6":0.12834245924530502}},"1":{"bias":0.013692832016789981,"weights":{"0":-0.1346427476172405,"1":0.09299531159508583,"2":0.020604678688529297,"3":0.14373016935537028,"4":0.14167551851159765,"5":-0.0421685796151572,"6":0.17114327189014952}},"2":{"bias":-0.0844035849293746,"weights":{"0":0.026662239201179008,"1":0.09094455449962364,"2":0.07489073591075318,"3":-0.08562900906160745,"4":-0.18432785264746454,"5":-0.0175230962518105,"6":0.16213913492789586}},"3":{"bias":0.0005759059023476608,"weights":{"0":0.08027624962778246,"1":0.1849966034591053,"2":0.05826236871747424,"3":0.0438350809342458,"4":0.0363109390322742,"5":0.17212054068677163,"6":-0.1188743773869887}},"4":{"bias":-0.053173262764437325,"weights":{"0":0.1927846883482449,"1":-0.07882103177623878,"2":-0.05659334227929446,"3":0.09579627434925918,"4":0.18791448013330833,"5":-0.12634948450386246,"6":-0.000945219143017495}},"5":{"bias":0.13035950661955648,"weights":{"0":-0.15387362224047696,"1":-0.015108957944390915,"2":-0.05954422049386517,"3":-0.0674403342971261,"4":0.14035447095164402,"5":0.18927643441391362,"6":-0.15023040221604791}},"6":{"bias":0.03029514815744504,"weights":{"0":0.12748378662773382,"1":-0.16305497527932475,"2":-0.014761547258675541,"3":-0.12122391682084985,"4":-0.07814506648494614,"5":-0.1583171195145672,"6":-0.009867903458134607}},"7":{"bias":0.18638560144918964,"weights":{"0":-0.10493067281928092,"1":-0.08086325554166283,"2":-0.13029488797898434,"3":0.07562959713882916,"4":-0.1727385712236186,"5":0.013058677794110919,"6":0.07033023978285491}},"8":{"bias":-0.039452619235234465,"weights":{"0":-0.1969142118302549,"1":0.025872551053185148,"2":0.17014338735512877,"3":-0.10940484077102072,"4":-0.05486251187602245,"5":0.19036985591611058,"6":0.01641715770207943}},"9":{"bias":-0.19397833160495812,"weights":{"0":-0.09078624865977448,"1":0.051020072413947154,"2":0.16575550869872255,"3":-0.0883984081802915,"4":0.10926799769251906,"5":0.029308750198189557,"6":0.04073452771737311}},"10":{"bias":0.11727837169381443,"weights":{"0":-0.026279929105215538,"1":-0.008050926913068248,"2":0.07930410976330701,"3":-0.019294039485263984,"4":0.08472361531209434,"5":-0.054438757041393435,"6":-0.19414275608203443}},"11":{"bias":-0.168486854250567,"weights":{"0":-0.07660017368488356,"1":-0.012968646345441476,"2":-0.15022584148898413,"3":0.1421516258475438,"4":-0.08017535380347872,"5":-0.1506559653004919,"6":0.027864671901205843}},"12":{"bias":-0.12175905437666942,"weights":{"0":-0.03582534425198282,"1":0.08859160941766751,"2":-0.15537441653631598,"3":-0.1746557726680362,"4":-0.043331380699317294,"5":0.03241928508564239,"6":0.1621720166957117}},"13":{"bias":0.0059840255725778875,"weights":{"0":-0.19371639299607674,"1":-0.11990752068762928,"2":-0.09722713781856905,"3":0.10949671841014619,"4":-0.11322644527132138,"5":0.04781130724240111,"6":0.06476662447804182}},"14":{"bias":0.009962919762079619,"weights":{"0":-0.06171191380236871,"1":-0.18624399650960713,"2":-0.0028570819152503916,"3":-0.07003976326806947,"4":0.15237749136405698,"5":-0.19049163876840552,"6":0.05050487129793529}},"15":{"bias":-0.1415519655049637,"weights":{"0":-0.1291817266723007,"1":-0.03803604644880247,"2":-0.03863352068575063,"3":0.14534753169810283,"4":0.031060003608533237,"5":0.04266538507720063,"6":0.177520165212998}},"16":{"bias":0.19041695115451104,"weights":{"0":-0.1294655066807104,"1":0.016912134842202022,"2":-0.06060207726646964,"3":0.12046292323878609,"4":-0.033078691496741607,"5":-0.014918890665174924,"6":0.049361143736818755}},"17":{"bias":0.007287091705913514,"weights":{"0":0.09979178568596336,"1":0.12172415075372074,"2":0.01722894729758695,"3":0.17031527882089134,"4":0.08570259340941021,"5":-0.13833470725083363,"6":-0.0162150592070653}},"18":{"bias":0.1706218617600911,"weights":{"0":0.09499512773997262,"1":-0.010017435444859923,"2":0.08306296571679146,"3":0.10048009414984943,"4":-0.08649953175746804,"5":-0.13336982151458646,"6":-0.1487478655040714}},"19":{"bias":-0.16232120991187174,"weights":{"0":-0.05409554359993558,"1":-0.18176021355106417,"2":-0.053288361195432905,"3":-0.06416745965388708,"4":-0.08553322389723982,"5":-0.191010363380521,"6":-0.03413192647686082}},"20":{"bias":-0.11590819858973435,"weights":{"0":-0.0032298025639909372,"1":-0.008247745409721962,"2":-0.16059220026280008,"3":-0.1460298942424861,"4":0.12577969754095916,"5":0.10949285904672756,"6":0.17835290815298702}},"21":{"bias":-0.13158609601691912,"weights":{"0":0.02186058843326078,"1":0.05291781408788048,"2":0.17840510580205024,"3":0.05559101234829182,"4":-0.12802432932384303,"5":0.06667497854383002,"6":-0.04793088655365993}},"22":{"bias":-0.14133919793479718,"weights":{"0":-0.08402875022346092,"1":-0.1885126178012874,"2":-0.033331192921403095,"3":0.015517602354758598,"4":-0.04723820812193709,"5":0.14750925937840742,"6":0.09342842802463028}},"23":{"bias":-0.11614101270757651,"weights":{"0":0.01284738542570107,"1":0.12299213761121362,"2":-0.08175680175221732,"3":0.03474894676858607,"4":-0.18586692066498892,"5":-0.1838155285703502,"6":-0.02717022406159353}},"24":{"bias":-0.1946670154368541,"weights":{"0":-0.12104474111768379,"1":-0.0941926702533063,"2":-0.03941256753056066,"3":0.14570235577923882,"4":-0.12015603773490505,"5":0.03252725205712051,"6":-0.023420604680622154}},"25":{"bias":-0.011324128861152036,"weights":{"0":0.01669720068690805,"1":0.12571439165620818,"2":-0.1292332161391505,"3":0.021873265960434193,"4":-0.11717201730037982,"5":0.1243552897864142,"6":-0.08858346462919792}},"26":{"bias":0.1679523262287205,"weights":{"0":0.0013230286902751567,"1":0.0823289922994904,"2":-0.15612466944061912,"3":0.08613524994956642,"4":-0.02862575623117494,"5":0.137410578079318,"6":-0.16611836441298913}},"27":{"bias":0.029890665886292717,"weights":{"0":-0.09078843558741703,"1":0.1632443643986684,"2":0.1322689557983896,"3":0.10702544146159478,"4":0.09585800647143751,"5":0.06188219155630829,"6":-0.05407924636632491}},"28":{"bias":-0.03241684347357734,"weights":{"0":0.05378651364210629,"1":-0.08071846432736533,"2":0.07773769911984114,"3":-0.07408124388225219,"4":-0.15323209295997944,"5":0.04511899729677636,"6":-0.062044415333272596}},"29":{"bias":-0.16144762503908888,"weights":{"0":-0.14193248075996417,"1":0.05142853092092293,"2":-0.08721893627041268,"3":0.1155415160885381,"4":-0.19059610901430052,"5":0.09509612845971395,"6":-0.031849306340116845}},"30":{"bias":0.18046491481179897,"weights":{"0":-0.17862971827650787,"1":0.13251013311662274,"2":-0.11592517302099266,"3":-0.05067200914771297,"4":-0.062445635425896734,"5":0.01526405171144883,"6":-0.06602610719465983}},"31":{"bias":-0.08048264288759092,"weights":{"0":-0.06714740802645666,"1":-0.09431712820624914,"2":0.1383863329894474,"3":-0.15452698778797502,"4":-0.01831122460557018,"5":0.08844005449588063,"6":-0.12191547627168016}},"32":{"bias":0.061534932561391045,"weights":{"0":-0.017545360213597438,"1":-0.02175761757425989,"2":0.028695487958196115,"3":-0.18751510291002602,"4":0.09736259883177711,"5":0.15723719187989274,"6":-0.09311484629478575}},"33":{"bias":0.04876000663239439,"weights":{"0":0.14884575885151288,"1":-0.09899659965172247,"2":-0.10671886999395529,"3":-0.16551795969656394,"4":0.18462516885914693,"5":-0.12811782604801392,"6":0.18430213568213422}},"34":{"bias":0.10800422128319817,"weights":{"0":-0.16840779198949868,"1":-0.10077007492764577,"2":-0.033485637704829804,"3":-0.03603273115182804,"4":-0.013567136004913856,"5":0.1538549677665396,"6":-0.06821744697745666}},"35":{"bias":0.12752804585016128,"weights":{"0":-0.1958296556125474,"1":0.0318987567502052,"2":-0.09714217797660048,"3":-0.0027384213056231023,"4":-0.04399690596742018,"5":0.1359134650875759,"6":0.020102153605998728}},"36":{"bias":0.037773251366838435,"weights":{"0":-0.1872172407064631,"1":-0.1609518829016817,"2":-0.028123287748936535,"3":-0.05729944092350149,"4":0.0031170760324691657,"5":0.06531878042635889,"6":0.019149510659107638}},"37":{"bias":-0.18382050620144885,"weights":{"0":0.03708267141081695,"1":-0.18412487322280202,"2":-0.20017983044530877,"3":0.11732214453772342,"4":0.09109393216356004,"5":-0.05129338418111145,"6":-0.036088370635297906}},"38":{"bias":-0.06829671327901178,"weights":{"0":-0.19963985980722343,"1":-0.07803510411502163,"2":0.09567954852206295,"3":-0.1281524338411891,"4":0.02530028998471764,"5":0.005890229599708052,"6":0.00781468321389736}},"39":{"bias":0.03369710561428558,"weights":{"0":0.055351187104587404,"1":0.17290653017647625,"2":-0.1336990014258384,"3":0.07985760646806231,"4":0.11972354211389845,"5":-0.03282353776056393,"6":-0.13529760304667088}}},{"0":{"bias":-0.06224337582276588,"weights":{"0":-0.08058273548714923,"1":-0.0032482619356350604,"2":0.19030571355512974,"3":-0.1007600094077972,"4":0.16015694390267088,"5":-0.03367825357478861,"6":0.1573862236989327,"7":-0.07678050505666019,"8":0.12713620843974016,"9":-0.07995415666160804,"10":0.1268480921282136,"11":0.1124208881225714,"12":-0.10033550540203072,"13":0.05183149982660193,"14":-0.1652965990321051,"15":0.07881213720499598,"16":0.028607381212020017,"17":0.1279231904822695,"18":-0.19482392123966066,"19":0.11090396931213868,"20":0.022882868358589575,"21":-0.1829924480501754,"22":-0.1228592526896429,"23":0.034082861719200636,"24":-0.10924090754506814,"25":-0.1523010546524158,"26":-0.00040011836988983846,"27":-0.057668443901768944,"28":-0.1471052149801119,"29":-0.1617938981748549,"30":-0.18350228007832525,"31":-0.06724949146920756,"32":0.006489320833617687,"33":-0.11506353789730984,"34":0.09191349241926644,"35":-0.10775320433220749,"36":0.06477842020420153,"37":-0.08733753777262056,"38":0.017591808002896645,"39":-0.05705317064479601}},"1":{"bias":-0.11790602154292397,"weights":{"0":0.035773968990611055,"1":0.16559601275453478,"2":0.09114289813367975,"3":-0.06957094188058945,"4":0.012750349671820356,"5":0.07666366305371365,"6":0.18819002939348675,"7":-0.17423531603506046,"8":-0.05781047834345715,"9":0.15045848387357064,"10":-0.044458635192867337,"11":-0.17723745443294653,"12":-0.10399679827057873,"13":-0.11246069300152274,"14":-0.18725326219017055,"15":-0.0073835023203411895,"16":0.17032041357068714,"17":0.19165144904816614,"18":0.05318720108181816,"19":0.16086064250128942,"20":-0.15932670872668836,"21":-0.001998472358580036,"22":0.03558599878292103,"23":-0.159925408072311,"24":0.04882830443464527,"25":-0.14737836990925857,"26":0.03612957247005434,"27":0.01503828548846462,"28":0.09693788553108722,"29":-0.09192650487580305,"30":-0.19109466813685658,"31":-0.09677585419736684,"32":0.07695194361996399,"33":-0.04295215615571737,"34":-0.018256300942953985,"35":-0.020359623742068098,"36":-0.017182140017213052,"37":-0.10612564706984184,"38":0.15254942307247685,"39":0.14295743921000728}},"2":{"bias":-0.06347243184212678,"weights":{"0":-0.1057327968275061,"1":-0.05375424064378638,"2":0.1114834091320261,"3":0.1267461124094096,"4":0.04003457271161333,"5":0.1545423115058188,"6":0.11967571418459796,"7":-0.022517534396195485,"8":0.1900986759182592,"9":0.09649322095473573,"10":-0.1795248826709411,"11":-0.1994262192836925,"12":-0.18008242583227319,"13":-0.17156025919257634,"14":0.04060340157728602,"15":-0.19011737557467534,"16":-0.1744122866038734,"17":-0.06357479366034335,"18":-0.140423128556905,"19":-0.00896153762112512,"20":-0.16780391506769335,"21":0.047420695189013214,"22":0.07406355045724353,"23":-0.03575494776829902,"24":0.04561672845910887,"25":0.1480818196086192,"26":0.14131089595621957,"27":-0.018207223577210864,"28":-0.011008127118166577,"29":0.040501795470317195,"30":0.12591411121654547,"31":-0.07970155935773564,"32":-0.16115224512490636,"33":0.022762493308034298,"34":0.10142367987203807,"35":0.11460933247256579,"36":0.07302935535968888,"37":-0.1212604026348213,"38":-0.12294111930180907,"39":0.07352735933902838}},"3":{"bias":0.07316796844144127,"weights":{"0":0.047830199985227084,"1":0.055879292906436256,"2":-0.11896115198895472,"3":0.17535578029309043,"4":-0.05162526811880474,"5":0.04685834238949339,"6":-0.1958842135718669,"7":0.12962869932464555,"8":0.1534864534282487,"9":0.01692651335236187,"10":0.13761250693259477,"11":0.19531892963085762,"12":0.1348866773029878,"13":0.04611626027303829,"14":0.03503242978748567,"15":-0.15532362969346333,"16":0.029425277606390896,"17":-0.1762544496542242,"18":-0.04341498963169678,"19":0.0685680449374303,"20":0.19948611327459861,"21":0.06726915723701025,"22":0.19509930919005647,"23":0.1935397435711215,"24":-0.0897141762425352,"25":0.08826786363197583,"26":-0.12087573519558294,"27":0.17001087813267013,"28":-0.14239801005754485,"29":-0.0008751203202645376,"30":-0.08804495294815101,"31":0.16737516712366324,"32":0.020600185874322174,"33":-0.11186032926716498,"34":0.1167838308219265,"35":0.08609034962384708,"36":-0.009188180288770945,"37":-0.18724477365778242,"38":0.0290544179739492,"39":-0.07795779893848698}},"4":{"bias":0.034633851400446516,"weights":{"0":-0.03476274743096324,"1":0.09656365424252224,"2":-0.11689254881283391,"3":-0.059667325359179936,"4":0.19917161056449223,"5":-0.14793493146871323,"6":0.05930312069322848,"7":-0.05293158689904967,"8":-0.05790713988213819,"9":0.13166298752420202,"10":0.08490547150694396,"11":-0.13538790531608771,"12":0.057187281173228376,"13":-0.014526282323189981,"14":0.11318366123035452,"15":0.17009823326888268,"16":-0.11489736548244908,"17":-0.006549632308460175,"18":0.14316280976130735,"19":0.10818639817564951,"20":0.09817455316878985,"21":-0.11305704023093913,"22":-0.15816035522230623,"23":-0.09547921840314706,"24":-0.1958811108106588,"25":-0.16236619513695125,"26":0.08859615629238055,"27":-0.16490245063502565,"28":-0.12441045607559331,"29":0.15514667835816837,"30":-0.03446645084540742,"31":-0.08710871666454038,"32":0.1783807741613223,"33":-0.10020658140501114,"34":-0.06424924096493856,"35":-0.06857246538245096,"36":0.06698675175969131,"37":0.02243240189459817,"38":-0.012119223147892747,"39":-0.03743450482907661}},"5":{"bias":0.16874014413409655,"weights":{"0":-0.06474539198922236,"1":-0.1834560758007703,"2":-0.04005414343581786,"3":-0.02790990046759485,"4":0.048125836206677784,"5":-0.1661229654185057,"6":-0.1267464933479698,"7":-0.18824141422466384,"8":0.18170632826507324,"9":-0.1380751926100224,"10":-0.0058807304133210924,"11":0.06873324385389222,"12":0.1501558587731227,"13":0.12611956367129204,"14":0.08217997216039111,"15":-0.019198129189710447,"16":0.1926598918803043,"17":-0.05078229612887192,"18":-0.19664667309328776,"19":-0.13668679105446566,"20":-0.16815073049251472,"21":0.16744317389401273,"22":-0.08945213141047036,"23":0.1681818118981473,"24":0.08063544478665746,"25":0.1274637454362513,"26":0.049222938029298446,"27":-0.17531188666510245,"28":-0.0739319837732944,"29":-0.1480815481688823,"30":0.1693964280201739,"31":-0.01799810910222977,"32":0.1902952654506821,"33":-0.07878904473025812,"34":-0.1071721632242523,"35":0.05072083541639068,"36":-0.06010458691026527,"37":0.13036194957783662,"38":-0.06561314189233686,"39":-0.11344822878843461}},"6":{"bias":0.11992320187964099,"weights":{"0":0.06961960119537591,"1":-0.18028167737259496,"2":0.18996494822352578,"3":0.11577008887348754,"4":-0.1688652046055227,"5":0.14124743064314535,"6":0.06960807328985752,"7":-0.019864887977121885,"8":0.14350910585871893,"9":-0.1418595482124185,"10":-0.10116788953964025,"11":-0.1715394441654822,"12":-0.003709611330720029,"13":-0.16858668071831032,"14":0.20015092043655489,"15":0.11590036641137173,"16":-0.0929438621276322,"17":-0.10042492803128023,"18":-0.07190546980692485,"19":0.12433098939128509,"20":0.17602616105257776,"21":0.1363380112677043,"22":-0.03822303394632272,"23":0.14751117181033124,"24":-0.11581421837033627,"25":-0.11680933348578858,"26":0.002638962785193591,"27":0.054504846006786525,"28":-0.13811871231831424,"29":0.04097230490761233,"30":-0.030231395195400693,"31":0.13548312447312458,"32":0.1635033878062927,"33":-0.03803607132840214,"34":-0.11727714829963161,"35":-0.14306690039467942,"36":0.11961886365804006,"37":0.19385170204705557,"38":0.16613044923827067,"39":-0.03513890850180278}},"7":{"bias":-0.1564255308231209,"weights":{"0":-0.12732573540424857,"1":-0.03891412293997598,"2":0.03802681473532472,"3":0.03486689821201545,"4":0.18110089215746475,"5":0.0031342302234346913,"6":0.12910272587255125,"7":0.052147378678721934,"8":0.14390720087213155,"9":0.17954252913977672,"10":-0.1834289609872333,"11":0.09846467037887978,"12":-0.10423955400472373,"13":-0.07552997258275672,"14":-0.033556899762692445,"15":-0.12545167180718503,"16":0.05225628222925949,"17":-0.07823423446318965,"18":-0.1149387064354236,"19":-0.1379177038614144,"20":-0.1213476043780061,"21":0.17094164685610103,"22":0.0022651193249826444,"23":0.01882477619220635,"24":0.14282843797936962,"25":-0.12806693937421906,"26":-0.15331823742171047,"27":0.010895164686463142,"28":-0.15543981498635154,"29":-0.027980528248393994,"30":0.1528371845366867,"31":0.07029583494290965,"32":-0.030840290699133705,"33":0.13141292748799646,"34":0.17189586255934755,"35":-0.0063858083945469105,"36":0.15677619250441963,"37":-0.13620763691961255,"38":-0.15773172843754202,"39":-0.14356320900719188}},"8":{"bias":-0.04552760769248221,"weights":{"0":0.0026271312168788205,"1":-0.14181874759168062,"2":0.19466095433913677,"3":0.16064638564271094,"4":-0.06110074823267114,"5":0.10237477205453084,"6":-0.1072428995152086,"7":-0.14285649533296627,"8":-0.07311539151462483,"9":0.08056217886255516,"10":0.0445705800505323,"11":0.1639093967071571,"12":-0.19555369001721057,"13":0.015039842177014042,"14":-0.05169820751253235,"15":0.17773796340035922,"16":0.17970238966223626,"17":-0.12364644010110339,"18":-0.030660130669082103,"19":-0.10624696942814009,"20":-0.01982436585053326,"21":0.0879286225348544,"22":0.10830020884798852,"23":-0.021414079464388724,"24":-0.0704250162937546,"25":0.1257125980066237,"26":0.1840683535400262,"27":-0.19929826801386555,"28":0.06481072282906594,"29":0.04760453498349774,"30":-0.103593756175708,"31":0.11832081312330978,"32":-0.13460006430903645,"33":-0.04914223556744777,"34":0.07747902868346392,"35":0.1084817830205451,"36":0.08406273946264159,"37":-0.000482911416879295,"38":0.08843044674035096,"39":0.02919052387206406}},"9":{"bias":0.041097422934980025,"weights":{"0":-0.03140132110137831,"1":-0.022868052597288493,"2":0.1112290206197703,"3":0.1801034967332283,"4":0.12164844117535399,"5":-0.18237861325067445,"6":0.052418370139321366,"7":-0.11879831454697927,"8":-0.08001612372642282,"9":0.08671118826222514,"10":-0.14999733451759995,"11":0.16264075427456562,"12":0.15315873648308367,"13":0.18883332896582067,"14":0.16000197008556302,"15":0.07650867608135972,"16":-0.16048097652093066,"17":0.030874038007180818,"18":-0.016779922546129405,"19":0.17930131412582695,"20":-0.13404363106038997,"21":-0.12424011383949228,"22":-0.09999648554034918,"23":0.09806570261890399,"24":0.06149765636937036,"25":0.12017517146729777,"26":0.022290926029279984,"27":0.06057537414013716,"28":0.141735251503678,"29":-0.08351989741924835,"30":0.08562264734325736,"31":0.1361822522788581,"32":-0.024167302786122707,"33":0.030062919041368076,"34":-0.002567351446410378,"35":0.015033890998949528,"36":0.012904679737901686,"37":-0.1896455126298873,"38":0.04617663730089445,"39":-0.18766527982797754}},"10":{"bias":0.0004650204511461488,"weights":{"0":-0.04104464076570113,"1":0.10150204204372543,"2":0.006870109151864078,"3":0.10895840113393741,"4":-0.15606230301959,"5":0.14640459881434098,"6":0.1642106424841056,"7":0.15716882135551316,"8":0.07141642039938663,"9":0.13590877355489847,"10":-0.14471512460262317,"11":-0.01836433832051338,"12":0.1753267451740347,"13":0.08906719343474052,"14":0.0432694854426293,"15":-0.061065363648887254,"16":-0.17331971871867727,"17":0.13678603124383998,"18":-0.07764266787552067,"19":-0.054544269615480936,"20":0.1546204015516455,"21":0.1792656915727246,"22":0.11027285721262312,"23":-0.1752136606606494,"24":-0.18584514415974177,"25":0.02600659156169242,"26":-0.16722514189195375,"27":0.06269245551340984,"28":-0.12156858647163674,"29":0.061918890697512295,"30":-0.15180079388322265,"31":-0.184312941165371,"32":-0.12155197925787797,"33":-0.006912099176942737,"34":-0.030013186665784137,"35":-0.006545231037327264,"36":0.15751051323056334,"37":-0.02868099442133601,"38":-0.002263285416098357,"39":0.17169872529643396}},"11":{"bias":0.08973335194288751,"weights":{"0":0.021466447524087284,"1":-0.04867183759056732,"2":-0.08886872565205346,"3":-0.19384795716316694,"4":0.13380595512562404,"5":0.06915842369414074,"6":0.19759509897561442,"7":0.16021649410445096,"8":-0.19763483748649602,"9":-0.05935341942733323,"10":0.199415108633758,"11":-0.16687789755914242,"12":-0.012347323509375204,"13":0.17793191214114945,"14":-0.09541225984804322,"15":0.1348260491900834,"16":0.005626874172298504,"17":-0.02490379590631524,"18":-0.15967318900135463,"19":0.18112913668862546,"20":-0.19599110009372364,"21":0.1613461884180049,"22":-0.10539061077970936,"23":-0.019541242762062858,"24":0.07972158388488504,"25":0.18922046623634847,"26":0.165500169837825,"27":0.06714057553729423,"28":-0.15443582712250772,"29":0.18746961434620474,"30":-0.12210171938118199,"31":-0.0665550323990465,"32":-0.13517159283114105,"33":0.14592173011706713,"34":0.17084619880569257,"35":-0.04865085522423929,"36":0.1973301474760341,"37":0.16799016281259746,"38":0.05726480517129791,"39":-0.09394205311358184}},"12":{"bias":0.09098784934116295,"weights":{"0":-0.1663583323754313,"1":0.19561316958450567,"2":-0.014278809478943008,"3":-0.14505224170702488,"4":0.07895195710727133,"5":0.027568104772702887,"6":0.03432579332749376,"7":-0.01488377082287157,"8":-0.07757006334106223,"9":0.1560594033205188,"10":-0.1711395864506475,"11":0.16548324280989912,"12":0.16198241650462336,"13":0.19179712048581637,"14":-0.038326828035564864,"15":0.05534595251627166,"16":0.018742365701154697,"17":-0.062163008526517724,"18":-0.12913715030710884,"19":-0.14425715618719434,"20":-0.032268257857213475,"21":-0.1731478268943181,"22":0.0331740807300543,"23":0.012501947564953226,"24":-0.19205758438150278,"25":-0.14306427169872074,"26":0.14566875870680732,"27":-0.17032350810087674,"28":-0.12032403830479804,"29":-0.09409882971814122,"30":0.19694117481502643,"31":-0.13644965531460665,"32":0.17519369919249014,"33":0.18354448596315412,"34":0.15436869776056544,"35":-0.182380440498701,"36":0.15068441789462858,"37":-0.05795746717037661,"38":-0.13325535665805008,"39":-0.17073992626788728}},"13":{"bias":-0.0050945361147306835,"weights":{"0":0.1517563533003077,"1":0.09190615892632023,"2":0.1118945973850664,"3":0.11121483416208604,"4":-0.003456788462737067,"5":0.01687379204063411,"6":-0.014962563546578968,"7":-0.04635903194255953,"8":0.1617442096625506,"9":-0.042465585288476305,"10":0.06495203556714897,"11":-0.019156263624302124,"12":-0.011359093378381532,"13":-0.19820483863069346,"14":0.18956030142244348,"15":0.1370518762748324,"16":0.11414076266106463,"17":0.05891333855084878,"18":0.09382779748574684,"19":-0.1772809684852996,"20":-0.10773474473549102,"21":0.024465167483282275,"22":-0.13776794394997188,"23":-0.0022086613141733607,"24":-0.1551539535572413,"25":0.14073998947639565,"26":0.004929872007671396,"27":-0.033330715283745586,"28":0.17995368624939978,"29":-0.024990326994855216,"30":-0.03430708386634739,"31":-0.1749973566968238,"32":-0.1440181802883288,"33":0.06079318870981068,"34":0.1777881825952396,"35":-0.17839236456323207,"36":0.08059236463511026,"37":-0.1596703504227962,"38":-0.11703158885669289,"39":-0.07144184789674164}},"14":{"bias":-0.07943785995910807,"weights":{"0":-0.09525963178157724,"1":-0.1780341681959991,"2":-0.1359340270411813,"3":0.05341800396461878,"4":0.08089982555883123,"5":-0.13368987295913054,"6":-0.12619184376877174,"7":0.14715483627834525,"8":0.1422906380119428,"9":-0.19328530272524602,"10":0.11013026766816336,"11":0.014125112004829365,"12":0.17374588778832387,"13":0.13581377250026289,"14":0.01833775348407761,"15":0.04797758256343027,"16":0.18262537930024175,"17":0.18822858243520554,"18":-0.10344903458229503,"19":0.0767885938195468,"20":-0.15343083510871613,"21":-0.03927256002623191,"22":0.03147803163861054,"23":0.19808535632448163,"24":-0.0017308746536614287,"25":-0.0034364307988362123,"26":0.12700387512916364,"27":-0.10146948673315086,"28":-0.19169488523147837,"29":0.12514724039710678,"30":0.05230720930296153,"31":-0.16836415411535005,"32":0.11766513246472587,"33":0.04008281161961409,"34":0.010078217103643428,"35":-0.02262324133514231,"36":0.168751959437428,"37":0.13952679710345606,"38":0.14435135613278435,"39":0.02053850901718205}},"15":{"bias":-0.05472242066810427,"weights":{"0":-0.04717943785050127,"1":-0.19055028440779298,"2":-0.13656081711392482,"3":0.19567440561601124,"4":-0.06372448587980671,"5":0.05120156413074073,"6":0.1261442175789367,"7":-0.06546485356712016,"8":0.07903652795797174,"9":0.08176270067942668,"10":0.1308693938040215,"11":0.19725755702485986,"12":0.14640208419172976,"13":-0.11561014557277143,"14":0.09871987308951367,"15":0.045425435543970556,"16":-0.04047773378915598,"17":-0.12758004516058094,"18":0.04283248610417828,"19":-0.17435761433268374,"20":-0.11357855053840064,"21":-0.09704284870698694,"22":0.02689065661362071,"23":-0.014280612340202956,"24":-0.16074301264304228,"25":0.043351713373858465,"26":-0.19484353415024336,"27":0.040493556707250716,"28":0.11266571117041121,"29":-0.041540285010281314,"30":0.17894050147708193,"31":0.18218780294532924,"32":0.08550150402007345,"33":-0.08115932497252198,"34":-0.05752757775657187,"35":0.10604353119109264,"36":0.13982344159754856,"37":0.00633351053421664,"38":-0.005725754283086857,"39":-0.02647562161616884}},"16":{"bias":-0.002217940378185794,"weights":{"0":-0.14899397650591564,"1":0.07421646170840684,"2":0.011174605986982765,"3":0.11167463028091677,"4":0.13383643176947424,"5":0.07349584952214527,"6":-0.13331542539811203,"7":0.11645542612751274,"8":-0.17339910436883332,"9":0.1816826243021378,"10":0.13469197626550514,"11":0.08679969015214503,"12":-0.0033789180001722874,"13":-0.12821313420181762,"14":0.0694093940749804,"15":0.16611102567568078,"16":-0.17000946010918325,"17":-0.15760620074957618,"18":-0.170370449001139,"19":-0.18706498014240727,"20":-0.0622660783192118,"21":-0.09129196986783723,"22":-0.1372363703921966,"23":0.12643888817759064,"24":0.16761470936018902,"25":0.061808289690451615,"26":0.04620481086803374,"27":-0.05748729005613569,"28":-0.15829838122395407,"29":0.11180135489293855,"30":0.016790156806341324,"31":0.1501554609884986,"32":-0.1989999299304852,"33":-0.011092959070385568,"34":0.0004977302097596652,"35":0.10894126336675042,"36":0.004678318496222303,"37":-0.17617556572480034,"38":0.00819846811334077,"39":-0.14438144583768248}},"17":{"bias":-0.19014713558687993,"weights":{"0":0.12975184048590155,"1":0.04179832674260116,"2":0.09308532592521905,"3":-0.08048265589826475,"4":0.07031420105189203,"5":-0.10076878350962128,"6":-0.1350038573707501,"7":0.18838341006464332,"8":0.0997247121518063,"9":-0.060797396620374256,"10":0.11721096610585797,"11":0.022455186599266812,"12":0.14633581797236958,"13":0.19169742352235863,"14":-0.19987432683120673,"15":0.10751494376313965,"16":0.19058427830404742,"17":-0.033775032982674126,"18":-0.1258051014537231,"19":0.059985212072251645,"20":0.029362207012570155,"21":-0.17354328504105504,"22":0.1162505362109734,"23":-0.06609492499059419,"24":-0.1880991663650305,"25":-0.18064331263016628,"26":0.056107110932237,"27":0.11615882909358966,"28":-0.17468944635670938,"29":-0.12363774640962316,"30":-0.003413107985596664,"31":0.16572858406328123,"32":0.140798482619775,"33":-0.0515253844139578,"34":0.17153257268728755,"35":0.1253888468682816,"36":-0.06316917559329373,"37":-0.09368840148192231,"38":0.05904909099772298,"39":-0.10248766405141746}},"18":{"bias":0.06017484887583778,"weights":{"0":0.08681902335216328,"1":-0.1574088172339019,"2":0.06705459120488089,"3":-0.10797601640940765,"4":-0.0933567071382498,"5":0.10764112579658053,"6":-0.18195269483797835,"7":0.1521308797080669,"8":-0.11400049554364171,"9":0.17555255358947297,"10":-0.03810793152068858,"11":0.16267675958313219,"12":-0.06077253952871567,"13":0.16904565473299535,"14":0.008426510348242402,"15":-0.12262024759493664,"16":0.1809230067261964,"17":-0.012542384157630832,"18":-0.05291675868123939,"19":0.07035952246756856,"20":-0.1049819767712978,"21":-0.020967822427744993,"22":0.06695345882748036,"23":0.1080209546307,"24":0.09653181782375819,"25":0.05749612050808951,"26":-0.12397620925937568,"27":-0.1253764422549992,"28":0.031687383617005634,"29":0.0246973470217675,"30":0.17111952971877553,"31":0.08414804235685089,"32":-0.16154147070964786,"33":-0.06214965555294091,"34":-0.0932421804856361,"35":-0.06616239671258356,"36":-0.03655840054245079,"37":-0.07921199824627806,"38":-0.09237759846329605,"39":-0.049267094988132816}},"19":{"bias":-0.10350444452545812,"weights":{"0":-0.03089604672372333,"1":0.17735611597300202,"2":-0.04388236497485594,"3":-0.0807050133511455,"4":-0.16258548073208146,"5":0.18627411979385666,"6":-0.19541048908169367,"7":0.10201133583928595,"8":-0.009334100753251574,"9":0.020838340384106164,"10":0.044749710988306914,"11":0.11539002359981514,"12":-0.1870325969898572,"13":-0.03486886744228501,"14":0.13824536901734436,"15":-0.08395824832041456,"16":-0.05994695692829471,"17":-0.15403013926029338,"18":-0.1320104643988346,"19":0.17594904663751423,"20":-0.17963387615418178,"21":0.09516594545018656,"22":0.12032017837682617,"23":-0.1128637296467376,"24":-0.15928291090797106,"25":0.01180627970362237,"26":-0.07417558052429786,"27":0.17612526315410315,"28":0.10356546443501939,"29":0.11498645812864944,"30":-0.015160345540764912,"31":0.1658102241117978,"32":0.15628846429076096,"33":-0.08602953977174964,"34":-0.15085623694178765,"35":0.1638380320505591,"36":0.1598204425346827,"37":0.17261152713464983,"38":0.0018082224081362873,"39":-0.14588111859526884}},"20":{"bias":-0.07022259190252882,"weights":{"0":-0.19023148158803654,"1":0.05448171433817214,"2":0.19595169759889994,"3":0.022770224493024946,"4":0.05193869392963944,"5":0.15612294087258138,"6":0.04076628496210128,"7":0.12106445694763751,"8":0.17452701654684957,"9":0.18226780438923895,"10":0.10026354721415484,"11":-0.11338542416039629,"12":0.19419388284998343,"13":-0.13600402442779563,"14":0.16698664231471114,"15":0.11961758705247999,"16":0.019564701805780856,"17":-0.11374840807552687,"18":-0.0439101375672457,"19":0.15320927293240008,"20":0.16144710778539167,"21":-0.10985266941502562,"22":-0.1235861356791422,"23":0.07749883439139511,"24":0.19511484146038233,"25":0.013962202419657675,"26":-0.08645778358388607,"27":-0.018001109439315568,"28":0.03275339742144756,"29":-0.06770493293825758,"30":-0.05574821007026211,"31":0.01223301236470057,"32":-0.08281102997816751,"33":-0.012334681008355188,"34":-0.15151979826238623,"35":0.14555376455955066,"36":-0.022626134539959316,"37":-0.0902073769201348,"38":-0.173910727683128,"39":-0.027060469843552596}},"21":{"bias":-0.08573264002649464,"weights":{"0":-0.01408307167305564,"1":0.18848468321281386,"2":0.06626137577762146,"3":0.11008373962517912,"4":-0.10833645295996062,"5":0.1713875843683162,"6":0.085520665283508,"7":-0.07245186308922902,"8":0.167982598673739,"9":0.02803589798226239,"10":-0.14547640494835898,"11":0.1721868510081721,"12":-0.1424818414100478,"13":0.09831388564715693,"14":0.04240552484671759,"15":0.1641834067961976,"16":-0.15837522602077128,"17":-0.17789719817052918,"18":0.12891640437723684,"19":-0.15157201970215553,"20":0.13229819912062804,"21":0.08793289787381185,"22":0.11661104908096503,"23":0.026932999202492813,"24":0.03720064166010066,"25":0.06920562002048232,"26":-0.09970800366662284,"27":-0.12671211342718192,"28":0.19447283549480365,"29":-0.1707283912186321,"30":-0.1935708811318103,"31":0.08325529995997452,"32":-0.00859815938854324,"33":-0.1933783485912561,"34":0.049192940965318434,"35":-0.01731635832306446,"36":-0.16402411761398789,"37":0.17991981920908065,"38":0.18336969552212298,"39":0.047280707095960606}},"22":{"bias":0.04176925850862655,"weights":{"0":-0.004268332317392357,"1":0.185522363728763,"2":0.08426034033618147,"3":-0.03689621862561357,"4":-0.05061706156253122,"5":0.18381122509644449,"6":-0.18854339104562176,"7":0.029751229808418534,"8":-0.02493203556555258,"9":-0.05346708690014998,"10":-0.10196244963998076,"11":-0.17645341349571153,"12":-0.11475328900625537,"13":-0.060327165140531484,"14":0.14273758880338508,"15":0.14567110459615792,"16":0.19120118785455972,"17":0.12836348436101624,"18":0.008848206840033524,"19":0.1767551204764808,"20":-0.12218429819909736,"21":0.14792367594461078,"22":0.09963899574780202,"23":-0.19285000668928842,"24":0.17793562976679586,"25":0.0063248858596947465,"26":0.15665765104183138,"27":0.08807381570016473,"28":0.09753867688291329,"29":0.02911550428438391,"30":0.19524216400801628,"31":-0.08010355112322505,"32":-0.1871817345377047,"33":-0.08538357034701563,"34":0.19084568892068804,"35":0.042472596380231785,"36":-0.012713695739081382,"37":-0.032081327182072045,"38":-0.16340353672648103,"39":0.17790945788557358}},"23":{"bias":0.19083784043472704,"weights":{"0":0.18249878095098615,"1":-0.054974624630105676,"2":0.08446307306692914,"3":0.1634709341383385,"4":0.12248039724048303,"5":-0.09749781185534344,"6":0.04624574675014415,"7":0.0045883471124863575,"8":0.16810078831915656,"9":0.08083568851314157,"10":-0.09792153824243618,"11":-0.15422930955586986,"12":0.141558330268308,"13":0.06383627937564229,"14":-0.06310414269425592,"15":-0.004102207441364982,"16":0.0416129224918921,"17":-0.04227719192804065,"18":-0.029092928982848036,"19":-0.0045504321171411675,"20":-0.1935886825244056,"21":0.13291788575080535,"22":-0.0960842509184649,"23":-0.17036823188408895,"24":-0.16508786072404,"25":0.026723661622331557,"26":0.15182990752972134,"27":0.1455838935539239,"28":0.1414366776167517,"29":-0.10147661205803055,"30":-0.03695390543841475,"31":-0.12679368588927592,"32":0.014718736057449085,"33":0.16081339436905237,"34":-0.15171715028115976,"35":-0.11380844801767485,"36":0.0349807817690548,"37":0.0048864453471359785,"38":0.07496120412011474,"39":-0.07613224186384336}},"24":{"bias":0.09307688655068731,"weights":{"0":0.0030586744636151653,"1":-0.055155228429090424,"2":0.14198038908169458,"3":0.14337805801804235,"4":0.02809507240993005,"5":0.13418871632179138,"6":0.1495700835562528,"7":-0.1529971038737872,"8":-0.014984530301586854,"9":-0.1592278507798755,"10":-0.14084015690901228,"11":-0.11883221259526915,"12":0.16590072577050874,"13":-0.1865301487063948,"14":-0.07296001246388477,"15":-0.04561739147889584,"16":0.0884820026651245,"17":-0.07609847311197236,"18":-0.0739859435286642,"19":0.028618569204743247,"20":-0.07719670261849304,"21":-0.16575174276517257,"22":0.02063202308992657,"23":0.0281537001738939,"24":0.13450201176228443,"25":-0.17835497050540236,"26":-0.19357577141619317,"27":0.05591885528991628,"28":-0.14738207638348594,"29":-0.07317924998774236,"30":-0.11340193427340016,"31":-0.09177354936270485,"32":0.18585548337792612,"33":-0.12930836363175657,"34":-0.13267530844188544,"35":-0.09366830206037942,"36":-0.1438895194980713,"37":-0.16332691146256156,"38":0.017586495512086932,"39":0.020718993078277893}},"25":{"bias":0.07115087877251457,"weights":{"0":0.17055756401322728,"1":-0.15708601374107464,"2":-0.1613655778666994,"3":-0.14745453278828094,"4":0.06572873123651575,"5":-0.13455314001449312,"6":0.028839689856065734,"7":0.18987300854178976,"8":-0.08820295505165057,"9":0.1770651460206281,"10":0.026118816966190964,"11":0.16364067206257793,"12":-0.07249295873795009,"13":-0.1025755089852204,"14":-0.10636010438080745,"15":0.07661186039599681,"16":-0.13022876935207822,"17":0.15748877523709742,"18":0.07751960775538727,"19":0.10119407677747976,"20":-0.16021670159789084,"21":-0.0000768426684733403,"22":-0.03500376228378309,"23":0.0758675509483573,"24":0.029055965049334883,"25":-0.10516145151375725,"26":-0.01645671386700007,"27":-0.07765882462612637,"28":0.13668586015467257,"29":0.16477299436549758,"30":-0.05022275672815582,"31":0.02838186030168983,"32":0.01827095502421438,"33":0.17511630629308772,"34":-0.12047488525624568,"35":0.17630998325621805,"36":-0.1330963128448914,"37":0.08276562407920351,"38":0.18015802530211442,"39":0.06714969310427439}},"26":{"bias":-0.01743027859612363,"weights":{"0":-0.1676348322750835,"1":0.033758662672446496,"2":-0.009228550792781821,"3":0.10593233585419776,"4":0.0736069628579875,"5":-0.053495930427929626,"6":-0.0697706735600483,"7":-0.16791076380138614,"8":-0.10895538133474304,"9":0.10117952880970063,"10":0.14136787341270388,"11":-0.14698732817859747,"12":0.038389454620060985,"13":0.06307527200929539,"14":-0.021170491813092707,"15":0.07595041851622392,"16":0.12387718342006471,"17":0.06279233543085931,"18":-0.14429597516986262,"19":0.1791853860573471,"20":-0.12653851180752324,"21":0.006311568249711502,"22":0.1375429556581239,"23":-0.17853274133774336,"24":-0.03956159937054968,"25":-0.07804594026444044,"26":-0.07908141514091138,"27":0.15104435383086967,"28":-0.1886055200664503,"29":0.042386852184664356,"30":0.024570263648924923,"31":0.14589356688406216,"32":-0.00008215448976070552,"33":0.14902881246474978,"34":0.0818219798264299,"35":-0.09653799752356773,"36":0.021310335159652388,"37":-0.12956226538573407,"38":0.15157546842275363,"39":0.20059718378432687}},"27":{"bias":0.14395138514255815,"weights":{"0":0.1094825057763477,"1":0.06850774422133397,"2":0.014097731451711977,"3":-0.02259321586073936,"4":0.06779649867349218,"5":-0.12277949754142084,"6":0.18557545883919457,"7":-0.039393049568184,"8":0.16008388887540104,"9":-0.08713853726753877,"10":0.10758489459453151,"11":-0.15865931585381846,"12":0.1628846283452504,"13":0.048412059179763864,"14":0.12833596782935433,"15":-0.12890999105793272,"16":-0.15177727103270416,"17":-0.006602978249239071,"18":-0.013516971198299064,"19":0.006156066741751647,"20":-0.05794367099230237,"21":0.030758007985962076,"22":-0.19564248143662155,"23":-0.06221585800441166,"24":-0.15304700763780008,"25":0.109240035310315,"26":0.08594927337603964,"27":-0.06454231767542075,"28":-0.14802244039396406,"29":-0.01998015216380765,"30":-0.029532018347720575,"31":-0.1030702214111938,"32":-0.07399095004215242,"33":-0.05920660141879976,"34":-0.03812112699634018,"35":-0.17932109490079592,"36":-0.1699314403387402,"37":-0.07191261370656775,"38":0.14141748140412533,"39":0.06451649927506885}},"28":{"bias":0.008360766951880993,"weights":{"0":-0.10822866189388927,"1":0.07267644894931931,"2":0.08115285675294252,"3":0.08844537027690216,"4":-0.12951116842682228,"5":0.09685636607438279,"6":-0.10051434801879455,"7":-0.014314509305434077,"8":-0.02420781814793003,"9":-0.035641687148538166,"10":0.13696460137386746,"11":0.17478077923629373,"12":0.06098074271000901,"13":0.03297995576090468,"14":-0.012629208802984121,"15":-0.12495325654454349,"16":-0.12549563810069445,"17":-0.18586780528549748,"18":0.05225145995121002,"19":0.02594613276959082,"20":-0.04991908338887995,"21":-0.12147418775166904,"22":0.15237224348895073,"23":0.09856189408586656,"24":-0.057975349709199986,"25":0.0663776491754898,"26":0.15049652074174585,"27":-0.11762248264715937,"28":-0.031089581348979173,"29":-0.03705558631480295,"30":0.17654666104374936,"31":0.15977661581848,"32":0.1178910974244226,"33":-0.16119397992213694,"34":0.18792788110971909,"35":-0.1049805456543369,"36":0.10125917829661744,"37":0.11728751481159323,"38":-0.017837397087779486,"39":0.14077029973552915}},"29":{"bias":-0.11944016888456324,"weights":{"0":-0.11505879035457096,"1":0.09924158833137224,"2":-0.07825682437361939,"3":-0.10136915892268103,"4":-0.17193701855647048,"5":0.1218126836673426,"6":-0.1426618547800901,"7":-0.1395795190764298,"8":-0.1803211972334937,"9":-0.06965719732273166,"10":0.04561216763205546,"11":-0.19979835138651875,"12":0.026826705265219998,"13":-0.18255857615151516,"14":0.08654580401134104,"15":0.13302168384472185,"16":-0.1560725820226613,"17":-0.17268332572503067,"18":0.06242614510545586,"19":0.1603203369736029,"20":-0.06309630794681814,"21":0.1926189004987005,"22":-0.0789734835252355,"23":-0.10980796815438237,"24":0.19703522415683958,"25":0.060144191607039155,"26":0.022487008516634068,"27":-0.042386574649289514,"28":-0.17139298511809883,"29":0.1202936851213849,"30":0.00502735806469713,"31":0.16238475022126395,"32":-0.08515219032048736,"33":0.13768691620364715,"34":0.18431878537980664,"35":0.0061355987257658215,"36":-0.07905280042208829,"37":0.14498253170923525,"38":0.17273654865019852,"39":0.16854502547548345}},"30":{"bias":-0.10956931778917295,"weights":{"0":-0.09043153807621962,"1":-0.07000252774507676,"2":-0.11952674886896578,"3":-0.07887214649545825,"4":-0.12436968088093818,"5":0.10758109607475351,"6":-0.17362956283179615,"7":-0.14013295431512218,"8":0.05054132396704754,"9":0.18854173472922284,"10":0.18627782323258849,"11":-0.15432609684565413,"12":-0.18897147937930436,"13":-0.06119365351942155,"14":-0.12671294322762255,"15":0.1159974224437811,"16":0.013014352684364777,"17":0.06592745176061719,"18":-0.018097055138031774,"19":-0.043540702641062946,"20":-0.12028545550265407,"21":-0.1993068120167089,"22":0.10354358196981946,"23":-0.1954887093043321,"24":-0.09699138339967671,"25":-0.12927335201175105,"26":0.05306248300559236,"27":-0.11778128514904872,"28":-0.055765300535745695,"29":0.11205769643919737,"30":0.08023088000882343,"31":0.1553339637230426,"32":-0.16060351314917098,"33":0.18166309355571802,"34":-0.1690755972269042,"35":0.19677814756659903,"36":0.14404529247346576,"37":0.13852440670516575,"38":0.10007768550060132,"39":-0.11166866723430346}},"31":{"bias":-0.0807426189551318,"weights":{"0":0.18604412829037864,"1":0.1746902318515405,"2":-0.18341980236885266,"3":-0.048719782520210156,"4":0.16502491608750092,"5":-0.1480202591002283,"6":0.1241850404777671,"7":-0.03490782002948449,"8":-0.08823265691184239,"9":0.06327236710880647,"10":0.10112530304154897,"11":-0.1453392531435888,"12":0.034945726743530726,"13":0.12483488197728004,"14":-0.19074580657667847,"15":-0.04503395754989566,"16":0.02985021737223419,"17":0.1611432898633114,"18":0.1871789889242585,"19":-0.08120109550834359,"20":-0.10589644338106126,"21":-0.03058359193260419,"22":0.09967324481065938,"23":0.034340751017904,"24":-0.07513966941511123,"25":-0.173821437248845,"26":0.05338480604328608,"27":-0.03998243774362311,"28":-0.08642123274982777,"29":0.14610238625601588,"30":-0.028806749709077484,"31":0.04273056983103233,"32":0.04211461350384526,"33":-0.10537134086759832,"34":-0.0033790873073311157,"35":0.18540011586030467,"36":0.06867441507284885,"37":0.06592819986462488,"38":0.0017118185492503604,"39":0.16211096174722536}},"32":{"bias":-0.13024896269554356,"weights":{"0":-0.14351086496724588,"1":-0.16726619776199364,"2":-0.1567535199989705,"3":0.17893717553760824,"4":0.11815826663978789,"5":0.17743998250307508,"6":-0.10799004814781306,"7":0.05551607268321986,"8":-0.060130777135413496,"9":0.08166934195400592,"10":0.05555249190511377,"11":0.030266807204417642,"12":-0.1725918342703143,"13":-0.0967282952461594,"14":-0.08155461428371438,"15":-0.10939871348653023,"16":0.1749233780417051,"17":-0.15908710749931773,"18":0.07001135365289754,"19":0.08331620463658654,"20":0.1202256483204381,"21":0.05271874071927505,"22":0.14438081663791236,"23":0.08287655308600624,"24":0.02717388140232305,"25":-0.10567451220195791,"26":-0.013754620379498093,"27":0.1898383378504014,"28":-0.055033663918894055,"29":0.17598488261114772,"30":0.09211883331511543,"31":0.09921120264312396,"32":0.037729006786778464,"33":-0.16091587052027934,"34":0.12571579647338774,"35":0.03404820590321319,"36":-0.15971503718371202,"37":-0.052939464839801345,"38":0.18512771946665596,"39":-0.1946981217723326}},"33":{"bias":-0.1576051770189292,"weights":{"0":0.05251318780174045,"1":-0.07103287621338225,"2":-0.11821020383054606,"3":-0.10864008053659495,"4":-0.046557800742147916,"5":-0.11872046086709856,"6":-0.03388025883084762,"7":0.03467845068772581,"8":-0.07685935608908441,"9":0.15937340899706234,"10":0.14670707187131274,"11":0.07878113686400456,"12":0.004078990927301726,"13":-0.06814306736310705,"14":0.014946594314177605,"15":-0.02130158802096342,"16":0.028608504935744558,"17":-0.07147331810195448,"18":-0.19128003470169927,"19":0.031706999868335986,"20":0.12304480818627726,"21":-0.1106066829203208,"22":0.03538502530247407,"23":0.11789500573740133,"24":0.1458193170424831,"25":-0.09721930791053114,"26":0.17646815249455958,"27":0.14977228548618515,"28":-0.0841311497060568,"29":0.1537483745523185,"30":0.12841080951285813,"31":0.0021530769358777367,"32":-0.19863644302805608,"33":-0.15680913113236705,"34":0.07043212683995012,"35":0.04639053961528384,"36":0.19867941112725562,"37":0.15972007561054297,"38":-0.06608514593999827,"39":0.052131213495448504}},"34":{"bias":0.058023470498009454,"weights":{"0":0.045202579489051084,"1":-0.10018306852187565,"2":0.07784441311540868,"3":0.14056445685116192,"4":-0.13995269501810179,"5":0.13189579355960965,"6":-0.0406403915567022,"7":0.002787001348551718,"8":0.15936251613111205,"9":-0.13737487105635923,"10":-0.10033853795449901,"11":-0.034192314788866376,"12":-0.12062781169414355,"13":0.05111114332785169,"14":0.15783074337152245,"15":0.08809334876171893,"16":0.12163117743069433,"17":0.17919078872466032,"18":-0.07063960897282347,"19":0.11746565957093184,"20":-0.19741074999302444,"21":0.09295396526511335,"22":0.08373562328931343,"23":0.06289201657892403,"24":0.0619495574074315,"25":-0.10601112961201148,"26":0.16808708031375838,"27":-0.0005529122157457697,"28":0.16460645967657,"29":0.14072469534968848,"30":-0.15424788017714908,"31":0.03856535856617199,"32":0.06189788234760012,"33":-0.19537356981701953,"34":-0.10321003018377571,"35":-0.0038227882609647547,"36":0.18044780473833608,"37":0.1734317996155117,"38":-0.02555103855338533,"39":0.12388651027762318}},"35":{"bias":-0.13047223526697688,"weights":{"0":-0.0672654442583824,"1":-0.023309006811877177,"2":-0.09539708578359367,"3":-0.10377567870234922,"4":0.11250666017668835,"5":-0.0206114235189656,"6":-0.11986690620043447,"7":0.02552741814361781,"8":-0.1827530888374028,"9":-0.03357465930864523,"10":-0.13863297827935595,"11":0.036992926005053745,"12":-0.19403017709983147,"13":0.10405714358081307,"14":0.05961234605814805,"15":0.1502366114127489,"16":0.142991174302282,"17":0.16140725722442945,"18":-0.10684093012297306,"19":0.015919859283819268,"20":0.13399727368965778,"21":0.10369536351518925,"22":0.11349203443140847,"23":0.020345956820977437,"24":-0.10716569399291971,"25":0.16004783994342323,"26":0.1780989841372709,"27":-0.08518174856162473,"28":-0.08082608633145365,"29":0.17279552635949957,"30":0.00811263059871687,"31":0.17036123670563447,"32":0.025000837501668587,"33":-0.11919795283409128,"34":-0.007716891165652514,"35":0.09093550205789291,"36":0.11634276855381555,"37":0.015419189970799801,"38":0.14127974834147716,"39":0.10514267341276864}},"36":{"bias":-0.13025936440855398,"weights":{"0":0.09191286237866239,"1":-0.19879728151562437,"2":0.05966767425036561,"3":0.04889190234998364,"4":-0.04778562170975642,"5":-0.09624857318876508,"6":-0.05064550495568002,"7":-0.03760083550707638,"8":0.07256387167884996,"9":0.12785027685837164,"10":0.051757813769131085,"11":-0.18908035481669136,"12":0.009945957308132605,"13":0.1076903327394966,"14":-0.033563913516253506,"15":-0.013178510243656275,"16":0.02064216081745703,"17":-0.07985538704913962,"18":-0.12642131803298268,"19":-0.05016754429568703,"20":0.05717483225593448,"21":0.056505729556639545,"22":-0.15404480752400362,"23":0.07066930553557876,"24":-0.14534935251676298,"25":0.19465370446111507,"26":-0.09130764738036377,"27":-0.024594102711650977,"28":0.12410033252683315,"29":-0.15851272903688376,"30":0.12390915827860083,"31":-0.007112336796614085,"32":0.19784408236709075,"33":0.13776944487454826,"34":-0.18559195701555956,"35":-0.161517000388834,"36":0.05832591465646238,"37":-0.06018605720102593,"38":-0.0910239467215569,"39":-0.13851963779498894}},"37":{"bias":0.05645663172279719,"weights":{"0":0.09697448196416877,"1":0.0873261820997269,"2":0.1400010592307816,"3":0.16610956814517833,"4":-0.1670629696107048,"5":-0.08890232631246464,"6":0.17248078660974384,"7":-0.06846378102035948,"8":0.06889252014183689,"9":0.16888256116802733,"10":0.08517847407536708,"11":0.09528758251915516,"12":-0.017000722935197277,"13":0.02495496348803419,"14":0.019012066678811813,"15":-0.059865064069219015,"16":0.14403783419283894,"17":0.033782601827184656,"18":-0.06274230699239597,"19":-0.1837795427743309,"20":-0.11279543044880648,"21":0.13878724200951537,"22":0.17557883809204583,"23":0.07293927364813317,"24":0.1361178546708934,"25":-0.06282693862527962,"26":-0.006286891116775749,"27":0.004561637510361086,"28":0.0591772348229806,"29":-0.15488573317207383,"30":-0.15561032278430262,"31":0.18009861765232385,"32":-0.11868634829103503,"33":0.16931548384086426,"34":0.037250344868347426,"35":0.17992044074654626,"36":0.152827174935506,"37":-0.1890026073672475,"38":0.048122139145169884,"39":0.08989372779045403}},"38":{"bias":-0.18953874286648761,"weights":{"0":0.11337395384496757,"1":0.026246749637587934,"2":-0.07233155901966834,"3":0.058061921020502186,"4":-0.004304773953961787,"5":0.10501954827083397,"6":0.07985736150458807,"7":0.13273079384994707,"8":-0.11027050722785979,"9":0.09225487530080999,"10":0.10447322953561763,"11":-0.014543434388055484,"12":-0.11602225604288831,"13":0.14428858612207632,"14":0.06728005325209613,"15":0.048519512862383006,"16":-0.01579328183133556,"17":-0.009703638491160866,"18":0.0038323795570156605,"19":-0.0977564160907793,"20":0.10929207858843083,"21":0.11474149204856975,"22":0.19628249612786977,"23":0.158508617804813,"24":0.02782770198770014,"25":0.1764889721007565,"26":-0.10514741405062283,"27":-0.1271062006753099,"28":0.17549849163951137,"29":0.16568331274446244,"30":-0.11251726784967135,"31":0.12884000263026554,"32":-0.01787392166102881,"33":0.036903451955756596,"34":0.15730542046815535,"35":0.08604852265272434,"36":0.10260261563348944,"37":-0.023146702359641513,"38":-0.005906693906916467,"39":-0.19794934068493836}},"39":{"bias":0.14801486216299867,"weights":{"0":0.06205719866636161,"1":-0.06595863048450339,"2":0.15885573429319377,"3":0.11581307765649397,"4":0.0422212333506712,"5":-0.05898435782240461,"6":-0.15910400647437437,"7":-0.14666064434010423,"8":0.1271740470387959,"9":0.1761021118001361,"10":0.16956355068769283,"11":-0.042445955193911686,"12":-0.13934830032571796,"13":-0.16547443020925065,"14":-0.09548705731867453,"15":-0.028406567610955353,"16":-0.1917532037840069,"17":0.032188584459390705,"18":-0.0859591166931565,"19":0.04969480077393131,"20":-0.1374589769960122,"21":-0.12566605597734004,"22":0.022351907124765213,"23":-0.055794742773822376,"24":0.11901219517085922,"25":-0.10264468388057468,"26":-0.032779290197559624,"27":-0.1017115810955629,"28":-0.11237881886983785,"29":-0.14156177478437634,"30":0.10200594216744927,"31":0.16878632574255834,"32":0.023431115551809392,"33":0.13040911426409346,"34":-0.12501400223794804,"35":-0.1698182700361776,"36":-0.0034850326936629573,"37":0.1716805552849738,"38":0.011923334950849193,"39":-0.10094248123207666}},"40":{"bias":0.05732060868403142,"weights":{"0":-0.14809122692905452,"1":-0.15248613050283044,"2":-0.0011861669453790801,"3":-0.13121602744730293,"4":-0.014382682467400865,"5":0.08720709436635879,"6":-0.10180641719443083,"7":-0.13856418226029757,"8":-0.008694181998976877,"9":-0.10861530125854947,"10":0.19666086118066253,"11":-0.057266751592088445,"12":0.12603209778049512,"13":0.08246832577404759,"14":0.03277727505030043,"15":-0.08072251410589731,"16":0.07703360708400266,"17":0.08971949562879059,"18":0.004662543346715314,"19":0.16905077252906806,"20":0.07634348930782137,"21":-0.032741444237884235,"22":-0.15395905449202874,"23":0.19469727282822316,"24":-0.1861596294098361,"25":-0.18998980991269143,"26":0.12755762696442768,"27":0.17773299375141416,"28":-0.03005080794647927,"29":-0.06715398053630901,"30":-0.07571601377748614,"31":0.00429708337288789,"32":-0.16782068757624627,"33":-0.09306351142623413,"34":-0.0599639313386682,"35":0.14323824854002626,"36":0.11032490834987944,"37":-0.018483351838389252,"38":-0.1787836626055786,"39":-0.17376006235379104}},"41":{"bias":-0.17744028842030013,"weights":{"0":0.1092441336259244,"1":0.11550330152344969,"2":-0.04520529735439475,"3":0.05974314030680704,"4":0.11047815428230984,"5":0.09737906866402814,"6":0.10565367709478694,"7":-0.018711101759015185,"8":-0.1481740125806212,"9":0.03249647326776474,"10":-0.016719805206062047,"11":-0.144431379534139,"12":-0.034768693720845345,"13":-0.08755757431896705,"14":-0.18371520195476118,"15":0.15848524644938577,"16":0.07467761767173824,"17":0.17707368432002038,"18":-0.13530771101665848,"19":-0.0750483032446917,"20":0.1375139729561139,"21":0.15498359834668604,"22":-0.04873595431270906,"23":-0.1508622178756318,"24":-0.18238845921515753,"25":-0.10234803225160183,"26":-0.016829832109130805,"27":0.10732942178414533,"28":-0.13477927269510592,"29":-0.1105263982193908,"30":0.008533330217186413,"31":-0.18960410490043755,"32":0.029463963375158414,"33":0.12117998941327164,"34":-0.0748138937629797,"35":0.035290210781150334,"36":-0.10814983384902636,"37":-0.02052214157961815,"38":0.07493146290982458,"39":0.07891212034902516}},"42":{"bias":-0.044162652966562854,"weights":{"0":-0.16389156043431402,"1":-0.17382268787040825,"2":0.0015909656514025896,"3":0.042476596524568214,"4":-0.05689894192904998,"5":-0.19435910373611362,"6":-0.02682537192056064,"7":-0.05514750326006638,"8":-0.017128209114642926,"9":0.1702216485765386,"10":-0.03428882448363193,"11":0.17564960217213263,"12":0.12619953901682382,"13":-0.1535959879655974,"14":-0.05553300877675125,"15":0.08361680837924623,"16":-0.1770979757627106,"17":0.18990231046664782,"18":0.059628114232250964,"19":-0.0743457809258094,"20":-0.07354955366750109,"21":-0.19114231175771562,"22":-0.10262129831708282,"23":-0.17525462471163655,"24":0.15560714688762314,"25":-0.1021377885594553,"26":-0.06780063604260532,"27":-0.002433073183046193,"28":0.05004245059521803,"29":0.11962607262640065,"30":0.12197368143943087,"31":-0.04472599149253791,"32":-0.09764170070086743,"33":-0.06393754116151637,"34":-0.18463164295756013,"35":0.07525648079014577,"36":-0.17958613672298182,"37":0.042276210981960737,"38":0.08347317063315031,"39":-0.0995022874396444}},"43":{"bias":0.1540164342077764,"weights":{"0":0.15035403059429892,"1":-0.17564489723792623,"2":-0.19000906741299659,"3":0.00842992468247567,"4":0.0180685312068868,"5":0.1518834400477755,"6":0.14195876647954567,"7":0.08040284459526595,"8":-0.06819382413484101,"9":0.16522473154171433,"10":0.09619359039312769,"11":0.14799126789321998,"12":0.05975292173811603,"13":-0.060341180306855126,"14":-0.16028097602564761,"15":-0.15750141297221854,"16":0.15748442815149108,"17":0.001794168324382695,"18":-0.07517593186544254,"19":0.043415561217741545,"20":-0.06104183342769345,"21":0.0020948583490541604,"22":0.03660376497719231,"23":-0.025798250669831088,"24":-0.09992178353675293,"25":-0.10719118105212966,"26":-0.15095242443558057,"27":0.003119768872540271,"28":0.142639904735308,"29":-0.07564390703796459,"30":-0.1234932651463795,"31":-0.08458847811477306,"32":-0.10012784845306817,"33":0.08333454090097109,"34":0.08500762647676552,"35":-0.0007843163269116934,"36":-0.03457359783374346,"37":-0.14559794203704268,"38":0.031218413480388417,"39":0.10423445309421568}},"44":{"bias":0.004656871658376498,"weights":{"0":-0.06498004104155382,"1":-0.030054939291817233,"2":-0.10997921788244157,"3":0.1906337442843458,"4":0.1952990942072058,"5":0.1761789833905693,"6":0.10451035471043307,"7":0.045294312355535424,"8":-0.13912941503565268,"9":0.15138704943870357,"10":-0.13811499486629347,"11":0.062192874122830547,"12":0.10699967191047456,"13":0.11274119527553098,"14":0.10723700596279569,"15":-0.007197017920765115,"16":0.1652101688190975,"17":0.16882611501986755,"18":-0.1951226008662361,"19":0.03695548139023804,"20":0.19149856363954623,"21":-0.0005462503218255063,"22":-0.0671331385975875,"23":0.04109913451210006,"24":-0.11929346456846819,"25":-0.05759487507179514,"26":0.04015597924040731,"27":-0.07399055663903575,"28":0.07878160151358364,"29":-0.10511082033152153,"30":0.003333699932743794,"31":-0.02373655832403689,"32":-0.17315853736572706,"33":0.06648248040511193,"34":-0.07444075335029236,"35":-0.036262067706797727,"36":0.10902626533141532,"37":0.17369216326629044,"38":0.18604437835427587,"39":-0.19959660301467913}},"45":{"bias":-0.1330152834953106,"weights":{"0":0.19690675223742699,"1":-0.056881746511583314,"2":0.1862957217022779,"3":-0.19853721214424516,"4":-0.09427922108627351,"5":0.08357358328854288,"6":-0.01650355514738335,"7":-0.058121756124906165,"8":0.007444354043027569,"9":-0.1374575024034861,"10":0.06278040805456851,"11":0.1855044963869009,"12":-0.16100474407413592,"13":0.07384644050191892,"14":-0.08239533709482853,"15":0.061419763238263786,"16":0.05569241776459136,"17":0.06662899513176461,"18":0.04715667901680327,"19":-0.18471173982031489,"20":-0.10311093743367647,"21":0.04169656211548426,"22":0.1259218344641197,"23":-0.006747313240599954,"24":0.06640414426476453,"25":-0.0400268824390711,"26":0.14831407445842315,"27":0.11063955264810695,"28":0.11923138017886156,"29":-0.06624231061196913,"30":0.10239940244441025,"31":-0.01217066395491586,"32":0.1379289904669753,"33":0.19326886651503927,"34":0.1898199115614059,"35":0.18622523685869544,"36":-0.11041958829949497,"37":0.13281075882239352,"38":0.016745116356047775,"39":0.07335385249179005}},"46":{"bias":-0.11841659048508002,"weights":{"0":-0.08186987439900803,"1":0.004111667249132969,"2":0.14126967294455853,"3":0.02346863309648601,"4":0.12416984510270979,"5":-0.0683386469396563,"6":0.15456713507240097,"7":-0.11810501493435738,"8":-0.06040496296154494,"9":0.0438257690374022,"10":0.011401672371206753,"11":0.03106944596471318,"12":0.17232796548024157,"13":-0.18069180599678322,"14":-0.16193570068823135,"15":-0.06946403589968901,"16":-0.026413621602596034,"17":-0.12908679458865713,"18":0.16861932685533526,"19":-0.18632049020351718,"20":-0.10740760356645053,"21":-0.03828023055918913,"22":0.04431775882218449,"23":0.11216713227478066,"24":0.11394792502537752,"25":0.08596512472817007,"26":0.11460368630856481,"27":0.03700124433961061,"28":-0.05491563768531068,"29":-0.06608405222737243,"30":0.1264607551670424,"31":-0.0380184498568187,"32":-0.06209020705430766,"33":-0.04695438719021618,"34":0.05596528370116243,"35":-0.08929637613889298,"36":-0.11267225942148532,"37":0.12925335204989494,"38":-0.03750427271232334,"39":-0.08805112887704881}},"47":{"bias":0.17163199390004033,"weights":{"0":-0.06398097372035921,"1":0.15536117082946335,"2":-0.14260255498829927,"3":0.0281758697735279,"4":0.04044050379805751,"5":-0.19088329356491057,"6":0.07998988161087787,"7":-0.14755411123898715,"8":0.08324965825225968,"9":0.1875836482993773,"10":0.16119453987846336,"11":0.10056638265171193,"12":-0.011672326955574778,"13":-0.11163085591255534,"14":0.12840234172646758,"15":0.12720850177904944,"16":-0.17359777983477467,"17":-0.16580807746767368,"18":-0.16605574377273716,"19":-0.005030364820621665,"20":0.0092759999056815,"21":0.1440268250398523,"22":0.11762859943570478,"23":0.034596318665580585,"24":0.01695905077354319,"25":-0.12392233494938036,"26":0.025209128754311146,"27":-0.16111676389271734,"28":0.018034175615700327,"29":-0.12022565339821428,"30":0.0779908620632252,"31":0.09030008323401156,"32":-0.17663817283370514,"33":0.030315961976784326,"34":0.04777245775622598,"35":-0.08902757346570944,"36":0.16380075691194199,"37":-0.09196083139684241,"38":-0.027650256140905626,"39":0.12144143089343468}},"48":{"bias":-0.1353472851895289,"weights":{"0":-0.06608275181171545,"1":0.13152555888615228,"2":0.0316629100734179,"3":0.022252971775280742,"4":0.06851484335409548,"5":0.08532140723830328,"6":0.0645651211917823,"7":0.136261988173951,"8":0.11185705625636216,"9":-0.19660392803070678,"10":0.023599378065483238,"11":0.15763519212284408,"12":-0.15406218227409663,"13":0.0524108764259199,"14":-0.006223272011916689,"15":0.17507869582521313,"16":0.13773137691030934,"17":0.03259307329772712,"18":-0.04837736784654751,"19":0.19809091303236737,"20":0.16303080076720958,"21":0.1293972104747538,"22":0.16802584069943863,"23":0.07857889742868401,"24":-0.0038849197253412117,"25":0.08667991906384956,"26":0.09490631820807191,"27":-0.09497600902253721,"28":0.15963048923410278,"29":-0.051435336127035075,"30":-0.017093946669437116,"31":0.16542606256056044,"32":-0.04889634241615136,"33":-0.14923666909968167,"34":0.009909512368725087,"35":-0.026399639197677162,"36":0.14404665903757438,"37":0.025131904408875444,"38":0.10490605246710683,"39":-0.10350477843874087}},"49":{"bias":0.05331164316030962,"weights":{"0":0.1967464304087119,"1":0.19692642444258932,"2":-0.038412508650843856,"3":-0.00684936938489246,"4":0.11493709957009846,"5":-0.10311610847679105,"6":0.016056789456249193,"7":-0.10827380658722602,"8":0.02574048951320271,"9":-0.13762748966040056,"10":0.03473182709940183,"11":-0.010619671454636565,"12":0.02298876092340366,"13":-0.14846395126726358,"14":0.15482286616257296,"15":0.16553318312309317,"16":-0.07340684132688007,"17":0.18555288252352334,"18":-0.1066767257258827,"19":0.18624462211495657,"20":-0.13197688485084436,"21":-0.08558390266446121,"22":-0.008376523519637795,"23":-0.08504015909692973,"24":0.03801440595757494,"25":-0.19696075447692254,"26":0.027776164719013938,"27":-0.129796758434963,"28":-0.08299102412986453,"29":-0.1969497209261877,"30":0.12493315057622471,"31":-0.045550981948489236,"32":-0.022071795136789658,"33":-0.10500666504990061,"34":-0.010828425211408454,"35":-0.14364533052916245,"36":0.16902769162392892,"37":0.06837629386022784,"38":0.044938292732454824,"39":0.11544993291208656}}},{"0":{"bias":0.064235275687781,"weights":{"0":0.16141920291774944,"1":0.0816799056929596,"2":-0.1945682177587004,"3":-0.08235879365466225,"4":-0.001918903483239152,"5":-0.058348568414179854,"6":0.17902738811209085,"7":-0.02509021270170994,"8":0.0899230275949345,"9":-0.1927673841264545,"10":0.11463248385080566,"11":0.038380050891614906,"12":-0.1715355353514292,"13":0.15002646366079145,"14":-0.006550615250442772,"15":0.15893714625387323,"16":-0.11726220229485482,"17":-0.005138048301554534,"18":0.14602696149355607,"19":0.018012800111855104,"20":0.03668061098010988,"21":0.15731304759889717,"22":-0.04272479225970379,"23":-0.06097499052848005,"24":-0.14609967068968369,"25":-0.17543259578963527,"26":0.07664358322515678,"27":0.029628860586685294,"28":-0.09209548391839215,"29":0.02525181893156645,"30":0.10091480531460667,"31":0.08942351915518243,"32":-0.14293040290594705,"33":0.10696522461092099,"34":-0.11691525720760083,"35":0.08026491207905176,"36":-0.03397123051716476,"37":0.18393645704074285,"38":-0.08598596499897079,"39":-0.04993660383717091,"40":0.14303309874255132,"41":0.18747414325190453,"42":0.1840861199030462,"43":-0.1638268438098652,"44":0.19010260512624508,"45":0.07519992081434397,"46":0.14507833945450277,"47":0.19769423200673056,"48":-0.0027086026703069008,"49":0.08480568104585157}},"1":{"bias":0.15752758581322554,"weights":{"0":-0.1108746981625511,"1":-0.14833936560872862,"2":-0.18817229838721697,"3":-0.18633343132112182,"4":0.1805354981363306,"5":-0.19720244532913694,"6":0.014858406342980041,"7":-0.06302538798524157,"8":0.02147715507167191,"9":-0.11413649313148737,"10":0.10079911275348913,"11":0.0814873084971732,"12":-0.14910962605066677,"13":-0.16504211960218612,"14":-0.13491281629341256,"15":0.14407118367739724,"16":0.05207786436493169,"17":0.19499139674483373,"18":-0.1594889621122681,"19":-0.037831694750134925,"20":-0.16191783750554337,"21":0.18391672145778923,"22":-0.09765208850384355,"23":-0.12068887534045782,"24":-0.12021703915617303,"25":0.09336814279600983,"26":-0.11497548776952883,"27":0.1873206907751151,"28":0.0013181958434005997,"29":0.10766735751114126,"30":-0.02006606835176987,"31":0.09022648523676997,"32":-0.03068725944694351,"33":0.08972435478767433,"34":0.17411735993111013,"35":0.019757002999620115,"36":0.10167707525385769,"37":-0.16230834518548157,"38":-0.09023730187855793,"39":-0.05450022415518425,"40":-0.10969763578382187,"41":0.09330584890263863,"42":0.17023474221603382,"43":-0.07334771605987206,"44":-0.001909980265655347,"45":-0.08679412759598068,"46":0.16589304608802324,"47":0.1316502019181658,"48":0.1300386975108096,"49":0.17576870264423813}},"2":{"bias":0.010733385025422922,"weights":{"0":-0.1578255865454104,"1":0.10459194563433336,"2":-0.08464946227333969,"3":0.15961358366910502,"4":-0.05227163030044505,"5":-0.1703035693805305,"6":-0.14826865437057649,"7":-0.16251606258239942,"8":-0.06121964849774916,"9":-0.15435457247173223,"10":-0.054852563256828746,"11":-0.17532572237134147,"12":-0.05609107870236937,"13":-0.08380209986346447,"14":-0.06983572030151768,"15":-0.03578401625413779,"16":0.14836543100144808,"17":0.12838882082947492,"18":0.07034907577759632,"19":-0.1969827772258735,"20":-0.024392878495723806,"21":0.023130338268718506,"22":0.10138646824932344,"23":-0.17256361660225317,"24":-0.04471192550478283,"25":0.014874303758069878,"26":-0.07498394969200196,"27":0.1532665894553726,"28":-0.19642594601135227,"29":0.0590929399242779,"30":0.08675830931257017,"31":0.012692003557585388,"32":0.13178825396834162,"33":-0.021260591203142668,"34":0.10152030186160599,"35":0.034748232558418864,"36":-0.07146715988408311,"37":-0.009155184580833118,"38":0.1484171889648668,"39":0.1398179392784345,"40":0.08896052099873106,"41":-0.14834420828822653,"42":0.06899050861511902,"43":-0.17118050056209708,"44":0.10577559884257284,"45":0.1347289835304837,"46":-0.10941425466620229,"47":-0.1702024289864456,"48":-0.15753802857099597,"49":0.09144830149924854}},"3":{"bias":0.09754787629633263,"weights":{"0":0.08768645318316534,"1":-0.00009735392303839583,"2":0.13906872366976628,"3":0.14885397537035955,"4":0.03637749216538453,"5":0.0664332797830735,"6":0.18744298759075514,"7":0.0323316089543817,"8":0.1324707863568465,"9":-0.1720465849654931,"10":0.13707787463006332,"11":0.07242797720753444,"12":-0.17327253126806863,"13":0.007353927661913329,"14":-0.06439915541766919,"15":0.0839478474030869,"16":-0.04478742846485978,"17":-0.1722973061911465,"18":0.0001906768050050408,"19":-0.178791214551541,"20":-0.18816733585952264,"21":-0.15789430208412583,"22":0.12987752716342402,"23":-0.10521642862005397,"24":-0.07555290158657757,"25":-0.18525863365824682,"26":-0.19167256294752558,"27":-0.14812672451545655,"28":-0.10117722139200362,"29":-0.1876748104028456,"30":0.1536002741867759,"31":0.10791247555587836,"32":0.013489998545514746,"33":0.17984851749598962,"34":0.11775475219400275,"35":0.011192912930373899,"36":-0.12995019591634283,"37":0.01090183553763374,"38":0.19305122598282234,"39":0.05303193169559803,"40":0.1317196578622047,"41":-0.1269563013481095,"42":-0.12987563590529994,"43":0.1062492705845733,"44":0.1276010710085346,"45":0.024346278517913954,"46":-0.1206742801580141,"47":0.08351697528905615,"48":0.11378555369072098,"49":0.08044120340292452}},"4":{"bias":-0.138705881662966,"weights":{"0":-0.016409160760755322,"1":-0.12059023831867569,"2":0.17254663679250595,"3":0.0676365591439764,"4":-0.12954643846528058,"5":-0.12502020550445855,"6":-0.12964451083720394,"7":-0.029374885710592904,"8":-0.1986357888642805,"9":0.023153385391848084,"10":-0.0734326252080809,"11":0.07563160648482184,"12":0.055854513132619805,"13":-0.011958259094452117,"14":-0.01921294212720393,"15":0.06241810161691182,"16":0.01028597292449223,"17":-0.039400782654019764,"18":-0.16548557486989976,"19":-0.05016687629393274,"20":0.07273560876157621,"21":0.001261691974732837,"22":0.009595133478991819,"23":-0.16385266018533945,"24":0.1642517182569972,"25":0.02772684409183396,"26":-0.10172874104612553,"27":-0.002150036951671617,"28":-0.10195286128569478,"29":-0.07095861668985655,"30":-0.026037119410130795,"31":0.15885590439263558,"32":0.1870229804602954,"33":-0.06530095934673379,"34":-0.12612279586746222,"35":-0.07574703322067865,"36":-0.19558945122031302,"37":0.12785354991993395,"38":0.18602587944226306,"39":-0.19664050027293145,"40":0.07446746043867482,"41":0.1505929656891075,"42":-0.06445834199942495,"43":-0.10089799631160304,"44":0.12472428636451668,"45":0.11874344659902294,"46":0.12444800273594207,"47":-0.18742935346505357,"48":-0.043139538325267165,"49":-0.13063374297071156}},"5":{"bias":0.09178999582228174,"weights":{"0":-0.1357765393948119,"1":-0.1755166821030897,"2":-0.08251337082357076,"3":-0.11950803070869634,"4":0.1439909561907726,"5":-0.04732579260664911,"6":0.030807623791279784,"7":0.062194022526207426,"8":-0.19435566132866836,"9":-0.1420559319555924,"10":-0.12995328637391432,"11":-0.0331282150212802,"12":0.08275167604994584,"13":-0.09220200376570221,"14":0.048601579650539975,"15":-0.034930642839461415,"16":-0.1283650718318023,"17":-0.1898847764686979,"18":-0.17601443403031747,"19":0.11020984781299241,"20":0.02548200126020634,"21":-0.1793063082353168,"22":-0.039677084263847355,"23":-0.1920156809750815,"24":0.12706007941018127,"25":0.18546808745402155,"26":0.0469175936580283,"27":-0.06762731963875426,"28":0.12894173044864687,"29":0.16848442961067345,"30":0.04662155458443882,"31":-0.06247551613569577,"32":0.009450792673562547,"33":-0.1919884386480434,"34":0.14894561552641156,"35":-0.05881536241820462,"36":-0.07610877606612329,"37":0.1052871873318945,"38":0.13205002691815146,"39":0.09394751115491987,"40":-0.07157454880430622,"41":0.19280962826571213,"42":0.06685879477941369,"43":0.09835731257355684,"44":-0.1837306271150451,"45":0.17265568815373483,"46":0.15848040137514144,"47":0.17303115478449196,"48":0.05902657140089679,"49":-0.021414006971620703}},"6":{"bias":0.028560430724908954,"weights":{"0":0.11664269708937089,"1":-0.003135883274810787,"2":-0.16715882186976563,"3":0.0015599589507911192,"4":-0.1287394832757594,"5":0.06280085551241207,"6":-0.03863994371417976,"7":0.19370685345673727,"8":-0.028376865781519656,"9":0.08552050617401816,"10":-0.11240245287974089,"11":-0.0750887169359516,"12":-0.05972305182541312,"13":0.05409547639484278,"14":-0.09428456572673247,"15":0.07036781922462276,"16":0.03520259766628282,"17":0.06841050090453074,"18":-0.008532791228282202,"19":0.1850258346397469,"20":0.05823126317574564,"21":0.02833885956447847,"22":-0.014856046609690575,"23":0.010121946715445926,"24":0.09898186221903127,"25":-0.002698621948894774,"26":-0.012996366733066991,"27":0.1373033890264021,"28":0.07364897120848715,"29":0.1622422456963687,"30":0.01443823470815414,"31":-0.04040769429749622,"32":0.09039103573509755,"33":0.15679145398516375,"34":-0.09306964630923564,"35":0.08693462612780065,"36":0.038141180821785386,"37":0.006378132959204891,"38":-0.12980634424160079,"39":0.16270920987906445,"40":-0.1468463409653566,"41":0.14409768520545393,"42":0.009721651715315348,"43":0.09432943491307402,"44":0.08883564418748581,"45":-0.18301481818633067,"46":-0.0359990861174374,"47":0.0357528043771985,"48":-0.10154399131444929,"49":-0.14166831127252616}},"7":{"bias":-0.05968846259524367,"weights":{"0":-0.10561676061857796,"1":0.10459614652566879,"2":-0.12918843817093126,"3":-0.1673778230926959,"4":-0.004906539420431393,"5":-0.04844975151627979,"6":0.1870965961009896,"7":-0.07615174774527396,"8":-0.15917752086774078,"9":0.18738927451464737,"10":-0.19521149593498793,"11":0.0489927588131257,"12":-0.15353745314166686,"13":0.19125709018511475,"14":-0.09067278349071696,"15":0.08338653746579408,"16":0.030206931786258447,"17":-0.1426231683303954,"18":-0.07592218391934702,"19":-0.05784619775524915,"20":-0.08149896362821857,"21":-0.03355520283025259,"22":0.032804668388592036,"23":0.07287789822633049,"24":0.13446267771516948,"25":0.12356761827103838,"26":0.18093385432507428,"27":0.024006900046003202,"28":0.16102915124542178,"29":-0.014658120102296912,"30":-0.021282749648399355,"31":0.17646291396296757,"32":-0.029270488382217515,"33":-0.02570876518235666,"34":-0.09345649444158009,"35":0.07249628180289977,"36":0.14725807584429235,"37":0.02724628467381818,"38":-0.002250913310704472,"39":-0.06970890096901323,"40":0.026908052623687947,"41":0.009958010297529346,"42":0.13549952496248815,"43":0.09979281398906227,"44":-0.011918551051839088,"45":-0.05211304466358626,"46":-0.05979407268016609,"47":0.11468237265702586,"48":0.046446819994164175,"49":0.11118158551184246}},"8":{"bias":-0.03276013779239019,"weights":{"0":-0.1033053710608586,"1":-0.05775490790805254,"2":0.014449889075415846,"3":-0.1949948995820203,"4":-0.18463635134457565,"5":-0.1828571676846813,"6":0.09177019984046954,"7":-0.032247310502184635,"8":0.02339229966324917,"9":-0.05082733127494286,"10":0.05560675702071456,"11":0.1850451684525658,"12":-0.01963697429152615,"13":0.016693656452094256,"14":-0.09719268230232336,"15":-0.04702656993465534,"16":-0.024298906695777597,"17":0.09626962467254296,"18":-0.17791943709578828,"19":-0.10733255082262785,"20":-0.06995917039487173,"21":0.0711326920034894,"22":0.12096455471489773,"23":0.12210316043668829,"24":0.09881861542658868,"25":0.07548587907165026,"26":-0.06825984122443514,"27":0.10678609025938686,"28":-0.12265188183224908,"29":0.17272483483145876,"30":-0.00789861462653776,"31":-0.14751736367160356,"32":-0.055937132653105986,"33":-0.1722347840920175,"34":-0.05163498180877813,"35":-0.07269681454375858,"36":-0.165510120624674,"37":-0.11207062342994198,"38":0.14065019410258806,"39":0.1636875212297371,"40":-0.09918880947699989,"41":-0.02948042179053299,"42":-0.004271192534949304,"43":0.10155820424449263,"44":-0.16560341056306307,"45":-0.1452982775829679,"46":0.13643190139524958,"47":0.087073297143272,"48":0.12958421411971408,"49":-0.02059508634828875}},"9":{"bias":-0.18467826061212989,"weights":{"0":-0.18107547971303412,"1":0.18110827904099866,"2":-0.040156553624763044,"3":0.006524784387287525,"4":-0.18791564175616113,"5":0.08585855076764201,"6":-0.06794773461590925,"7":0.16775614300817812,"8":-0.03526988113864118,"9":0.17112292426989284,"10":0.05703464076417824,"11":0.182334872007893,"12":-0.1407139608325164,"13":-0.04387570454189783,"14":-0.12677174715990236,"15":-0.031226296902110165,"16":0.04145841035071893,"17":-0.15807713762208433,"18":-0.012268034254720455,"19":0.07425833189866692,"20":0.09353542891353253,"21":0.1106141678486407,"22":-0.01423149132668673,"23":0.07583457485914999,"24":-0.04774799018071591,"25":-0.09944729747508893,"26":0.09990257575242076,"27":-0.04004736989715396,"28":-0.15525235937130738,"29":-0.1105331469297349,"30":-0.14391018422915497,"31":0.11497054072271548,"32":0.008602908630282659,"33":0.11534385726689063,"34":0.1771935448195841,"35":-0.0958802004037876,"36":-0.16291145934000242,"37":0.09665028321304295,"38":0.17915932316712802,"39":0.19088113011407182,"40":-0.05674462460046632,"41":0.012081725315127167,"42":-0.1260678178074987,"43":0.18632938913235564,"44":0.11100906486395941,"45":0.17172591392058337,"46":0.04272424515302667,"47":0.2051832359884536,"48":0.17498612884826725,"49":0.05891765659443267}},"10":{"bias":-0.02420343035891634,"weights":{"0":0.16488556499624246,"1":-0.027395101998708284,"2":0.1375203192496647,"3":0.027707038922204608,"4":-0.10266452265034216,"5":-0.018629206659245202,"6":0.048485723874864384,"7":-0.09547183299982166,"8":0.04915212708541148,"9":-0.19491813736675706,"10":0.18736736112489633,"11":-0.0798038743973307,"12":0.11753538326317702,"13":-0.15578010629608,"14":-0.16442858666505733,"15":0.1985394153424427,"16":0.12179841247079826,"17":-0.03824307837791336,"18":-0.09122517622383425,"19":-0.01718361049281239,"20":-0.10804698199868833,"21":-0.1456386960422272,"22":0.1812593597314268,"23":-0.02205905829954938,"24":0.14089027324406114,"25":-0.07436583543216752,"26":0.1697522935583659,"27":-0.08045139655689455,"28":-0.12970697277106732,"29":-0.06997774129946033,"30":-0.19543011674929725,"31":0.028200291376761364,"32":-0.14645396227419089,"33":0.15522146753565666,"34":0.16455623370528397,"35":-0.07583715157172631,"36":-0.06336666670445658,"37":-0.041830565624294165,"38":-0.00454446899158166,"39":0.16135672784743607,"40":0.1858876902239906,"41":-0.13327436451627742,"42":0.11131918701169295,"43":0.08393097359352515,"44":0.05215077550421071,"45":0.15606881384595564,"46":0.011559973817419128,"47":-0.18224046632326146,"48":-0.17268407085628024,"49":-0.07713771910361296}},"11":{"bias":-0.02284759495165374,"weights":{"0":0.11059460934649543,"1":0.1277752784489398,"2":0.20306378951187276,"3":0.07708001748978391,"4":0.07931833108021435,"5":0.20369161305109204,"6":0.12044817733818507,"7":-0.1674926835529771,"8":-0.06547427465235812,"9":-0.16793646922786828,"10":0.08611720745352007,"11":-0.06276614965878029,"12":0.11471727426371946,"13":-0.1467895011927891,"14":-0.0911147758593474,"15":0.1972981730698739,"16":0.1792742648089737,"17":0.14303195584628114,"18":0.08466506260796992,"19":0.06989166279613135,"20":0.07169478413654905,"21":-0.04753084831190827,"22":0.12584307402459016,"23":-0.09632499951465108,"24":-0.14815640102419622,"25":0.05239008806299557,"26":0.16316406834277597,"27":0.05632479317757591,"28":-0.04146665057023039,"29":0.1535226735080164,"30":0.132829623165498,"31":0.05072148060881813,"32":0.10717723651303394,"33":-0.03558269435408242,"34":0.13162376445450902,"35":-0.1061541752905198,"36":-0.0631040920751726,"37":0.1800296331583936,"38":-0.032211795907118944,"39":-0.12829520250941773,"40":-0.18845817541957893,"41":-0.06784689180861925,"42":0.1636547431947188,"43":0.14173355131067897,"44":-0.09241041195816761,"45":-0.0820609963924004,"46":-0.16656515665682628,"47":0.20981637826010302,"48":0.17402648689046743,"49":0.062379367410558474}},"12":{"bias":-0.06742484251555524,"weights":{"0":-0.006691281778826842,"1":0.08062918755308346,"2":0.019000476882320313,"3":0.014441557982419851,"4":-0.010128230849100934,"5":0.016497607875796846,"6":0.017860024282813778,"7":-0.12577995120270072,"8":-0.03602457313972928,"9":0.07798788992772948,"10":0.18276059454050161,"11":0.06617203343083528,"12":0.04097161358895956,"13":-0.0470499598977238,"14":-0.08606075071743972,"15":0.13299672607257781,"16":0.1461333601285098,"17":-0.15710720050443877,"18":0.022971996691864102,"19":-0.13694227560175629,"20":-0.17663834066710474,"21":-0.10783014315046921,"22":0.103335816791451,"23":-0.15576657394721918,"24":-0.1355882032607489,"25":-0.16086572705754837,"26":0.018298082465139736,"27":-0.16873804695714864,"28":-0.09945939013671004,"29":0.06408885940467592,"30":-0.13867885517124087,"31":-0.17326135500647333,"32":-0.03247711267006629,"33":0.002849874856465863,"34":0.13593319441032792,"35":-0.0638654245955711,"36":-0.1812036523200877,"37":0.018006904696606024,"38":-0.09935156179715636,"39":-0.17826853100241236,"40":-0.003740416465197633,"41":0.08521138282236565,"42":-0.06112290012440848,"43":0.13228471674741435,"44":0.08954957791118341,"45":0.15242732533547426,"46":0.11389104764605293,"47":-0.14387329883282157,"48":-0.06118725069571001,"49":0.125818289506283}},"13":{"bias":-0.00830236561445861,"weights":{"0":0.13636399577567618,"1":-0.19075223887608145,"2":-0.13449984124740302,"3":0.003946773008649788,"4":-0.06657067955758389,"5":0.18448520164177465,"6":-0.14199481572403683,"7":-0.07080516553594311,"8":-0.08703684094088646,"9":0.06997993715859936,"10":0.07111940475664508,"11":-0.11654527853222861,"12":-0.0590055353800495,"13":0.18916855886433898,"14":-0.017533002147619926,"15":0.16301530146820872,"16":-0.1304268313902804,"17":-0.13134670758833347,"18":0.19200360713617526,"19":-0.09254857467952625,"20":0.04093192412640702,"21":-0.15334000554779165,"22":-0.19256314780159464,"23":0.07827803164947206,"24":-0.061872590210425064,"25":-0.18178359815412745,"26":0.15900213748696712,"27":-0.0772824240795104,"28":0.07532218063629262,"29":-0.07525166956780718,"30":0.11264908453454704,"31":0.03318337342491135,"32":-0.12240582257224641,"33":-0.15724426661847216,"34":-0.0006509103224573778,"35":-0.0807300216861738,"36":0.1930264605239751,"37":0.04084298002427113,"38":0.07837113711299258,"39":0.18168986680824667,"40":-0.12076580651782574,"41":0.052309354650339,"42":-0.1907513999389271,"43":-0.0017445777548619741,"44":0.043430146270772935,"45":-0.17292899538763687,"46":-0.005925662646959162,"47":-0.16377433839798214,"48":0.1198352600289092,"49":-0.19146900497507494}},"14":{"bias":0.017931777499258294,"weights":{"0":0.1635977999063103,"1":-0.15939037945552498,"2":-0.16423976878705615,"3":-0.09010376975363155,"4":-0.05359747292600982,"5":-0.00952407886325953,"6":-0.1779669348188163,"7":0.16598413139863644,"8":0.1709855389259582,"9":0.002208098646402253,"10":-0.05853604249641998,"11":-0.11015144178444829,"12":-0.13777366034895797,"13":0.17696089041692054,"14":-0.05203686013817732,"15":0.12860119904608122,"16":-0.16615338553243608,"17":-0.1187130865666048,"18":0.04065568112640177,"19":-0.09811299587701641,"20":0.002839764875204894,"21":-0.023909053237502125,"22":0.17111761827908836,"23":0.07656562597824097,"24":-0.0994530543169409,"25":-0.072995215890697,"26":0.09916027879306223,"27":-0.05613091432176668,"28":0.027965727230057223,"29":-0.09756606504663053,"30":0.06355403477178007,"31":-0.15897798733500731,"32":0.05472328019840518,"33":0.04403942453629893,"34":-0.14227410581698782,"35":0.02511264024842455,"36":-0.11601873268386444,"37":-0.1940404959078308,"38":-0.0707996575209581,"39":0.17715575301892653,"40":-0.18586619910985164,"41":0.01864723241308794,"42":-0.12523046933340062,"43":0.1850352097245759,"44":-0.12942345405759628,"45":-0.15244629943976498,"46":-0.046098322327909884,"47":0.14956774174757975,"48":0.16673245605297876,"49":0.16259734109374213}},"15":{"bias":0.019982199332820652,"weights":{"0":0.14668576299847064,"1":0.06681972388614889,"2":0.15127835824291974,"3":-0.08266619777224696,"4":-0.1839475377025083,"5":0.19247585752697502,"6":-0.11459202708336336,"7":-0.15707984755499887,"8":-0.1669336351236364,"9":0.010227905166798825,"10":-0.06725689730504802,"11":-0.07387524329472432,"12":0.19359167790856074,"13":0.07300792310233752,"14":0.14520581735256707,"15":0.20208154032803768,"16":-0.052937152062838985,"17":-0.10787790623269697,"18":0.09740562920584142,"19":-0.11311754259700914,"20":-0.10954147915233786,"21":0.09396512470762243,"22":-0.16012942290432472,"23":0.002739929594879358,"24":-0.021615099823086698,"25":-0.036573777031380046,"26":-0.13005743599494649,"27":-0.08292747840672604,"28":0.18166771872233298,"29":-0.010344066088407124,"30":0.1235595841403881,"31":-0.026346911322834846,"32":0.10170385140289129,"33":0.15617166228932525,"34":-0.059169266003039137,"35":-0.14985497806509257,"36":0.02373489708586001,"37":0.026356526062922138,"38":-0.13042206006753276,"39":0.011251259621344156,"40":0.10282870450253336,"41":-0.03362386478031701,"42":-0.19623947785662557,"43":-0.10796669784730394,"44":-0.052461081375419744,"45":0.13014322598149905,"46":0.07392013709659401,"47":-0.15089288755436686,"48":-0.1678103568048146,"49":0.08475184409629391}},"16":{"bias":-0.02040693283737588,"weights":{"0":0.03145974666495968,"1":0.06046348108752917,"2":0.001995962555079802,"3":-0.005092115516506031,"4":-0.04694520171106361,"5":-0.19237826497240743,"6":0.09533124922763578,"7":0.18515021336796778,"8":-0.1897773313670058,"9":0.12528892574802963,"10":-0.10654332883572572,"11":0.14700038354765893,"12":0.0652247578932789,"13":0.018871454011337944,"14":0.10260542842225381,"15":0.19697503085985144,"16":-0.1827941463990478,"17":-0.015164138209148739,"18":-0.18913530808973159,"19":0.15802396164776344,"20":-0.18513686910566624,"21":0.09029012739960161,"22":-0.13576944132794955,"23":-0.03227168686872023,"24":0.12628389944213028,"25":-0.06877822981163594,"26":-0.020959402528913613,"27":0.10973453555349344,"28":0.17627162179564518,"29":-0.013510948615784682,"30":-0.16709866535763174,"31":-0.16541386621536455,"32":-0.04278834049541567,"33":0.06662504315564993,"34":-0.0775781226689292,"35":-0.030883834415688118,"36":-0.18936218020178622,"37":-0.16310062739369421,"38":-0.14972221287638768,"39":0.09780026527817372,"40":0.17622534036320553,"41":0.0577346997160316,"42":0.02285742499464868,"43":0.08718039183493287,"44":-0.13171398038717458,"45":0.03181004471479719,"46":0.06729663513816803,"47":0.2020691758516749,"48":0.08822135932959653,"49":-0.15571297723621577}},"17":{"bias":-0.07262840833736754,"weights":{"0":0.05733829479101328,"1":0.0844003523861121,"2":-0.12195164580273084,"3":0.11929403585319592,"4":-0.09325167270216114,"5":0.18992890159108058,"6":-0.16960594190308664,"7":0.02418473638372553,"8":0.13640452426796973,"9":0.1791379670525889,"10":-0.04222229397519169,"11":-0.11161266231495567,"12":0.07348516215697456,"13":0.14680861374014018,"14":-0.09425519924200239,"15":0.11135012110059446,"16":-0.1065683103209478,"17":0.027966028278073932,"18":-0.19224818228507892,"19":-0.11330571709958245,"20":0.011270780719164394,"21":-0.11458004270144052,"22":-0.11155029813212433,"23":-0.16493173586393375,"24":0.05014133169459334,"25":0.07913678760140533,"26":-0.0010712406033682828,"27":0.15018049527345417,"28":0.05088887036927794,"29":-0.010195168317724306,"30":0.16331789097217597,"31":0.0940578043840489,"32":0.051175354744446414,"33":0.06739748321101849,"34":-0.09391436609603718,"35":-0.07933007912932777,"36":0.00003169479730063781,"37":0.05041359194146076,"38":0.1518462888173836,"39":-0.04815593258630268,"40":0.08722393661108856,"41":0.13234331450348458,"42":-0.08313052614528682,"43":0.196393606333535,"44":-0.09797590241515365,"45":0.03366966291260942,"46":0.12818809567013864,"47":-0.19822434236658262,"48":-0.10574915590981024,"49":0.13624152416205118}},"18":{"bias":-0.0823823008376656,"weights":{"0":0.05620298970359755,"1":-0.04648175671261371,"2":-0.11266720030322838,"3":0.14472570916346514,"4":-0.043516707937701446,"5":-0.15115225773208144,"6":0.15190117046716387,"7":0.13370672513456122,"8":-0.15715908908649698,"9":0.08517631720063115,"10":-0.1865787255667008,"11":0.18201496928024385,"12":0.19307365212854552,"13":-0.1397150211188489,"14":-0.17502818022747968,"15":-0.05446534947451501,"16":-0.15563676671683288,"17":-0.12476519944703492,"18":-0.110556107752292,"19":0.1037949605871715,"20":0.19550869668557255,"21":0.14123721373496093,"22":0.1523508431851539,"23":0.11694706610650736,"24":-0.057688891847093776,"25":0.07845790371540155,"26":-0.10691637597710256,"27":-0.17788954496942636,"28":-0.1032309948998924,"29":0.10804127618582224,"30":0.1992658929155996,"31":0.03381135025929091,"32":0.003976205003469282,"33":0.037525222154627016,"34":-0.13510874690199096,"35":-0.10917173071607215,"36":0.00952379030051648,"37":0.1319101110165952,"38":0.17738792051230054,"39":0.14217850064760149,"40":-0.1340799271427664,"41":-0.07505778049900409,"42":0.15100294321936802,"43":-0.1880807426835277,"44":-0.007519481628075585,"45":-0.12288148675616203,"46":-0.05267362669506261,"47":-0.1627705037872595,"48":0.12665328401236484,"49":-0.17199588573211358}},"19":{"bias":-0.08882254216734976,"weights":{"0":0.060353737484392656,"1":0.15969646652212247,"2":0.1159601851029608,"3":-0.1378723069309099,"4":-0.04237535254498428,"5":0.010180686898246725,"6":-0.02987492755008063,"7":-0.10963309482643235,"8":-0.08605946483460655,"9":-0.05524730092271299,"10":-0.12021932567751191,"11":0.08426042833207892,"12":-0.05486253085455661,"13":-0.16593176067048793,"14":-0.1265924135352265,"15":-0.10277346044526348,"16":-0.017354799104795773,"17":-0.020007582107023233,"18":-0.1767728436134739,"19":0.0990979454282859,"20":0.01400910356494377,"21":0.01097144936013807,"22":0.028858359021947597,"23":0.15710901955615036,"24":-0.1899702032899834,"25":0.06318578319893356,"26":0.04654216646464864,"27":-0.19138215461221014,"28":0.06853302909340599,"29":0.17355801570279253,"30":-0.12421887709198455,"31":-0.000833285723733518,"32":0.13292543110392982,"33":-0.18492335446632557,"34":0.1678363298150374,"35":-0.17294262025431842,"36":0.16431328960921268,"37":-0.16705882590506754,"38":-0.1957485781689315,"39":-0.20244791922449068,"40":0.1747208359349019,"41":-0.11342389429753484,"42":0.04439230910518671,"43":0.06662344402992279,"44":0.10226303383878253,"45":0.17663189138286559,"46":-0.08432988182659913,"47":-0.08154267941824071,"48":-0.10790408152819614,"49":0.09373505990355907}}},{"0":{"bias":-0.10233546746688998,"weights":{"0":-0.0565214364794342,"1":-0.023874380564500575,"2":-0.007851834796156828,"3":-0.11912043770764812,"4":0.056438714116015046,"5":0.005172382559865699,"6":0.000725239011431001,"7":-0.024053048205944623,"8":0.04446520995789492,"9":-0.3227440569462249,"10":-0.2142556308585075,"11":-0.3206582054400576,"12":-0.029119008036026996,"13":-0.18933506762059638,"14":-0.018191333732368496,"15":-0.05992134741060583,"16":-0.08471632925734594,"17":-0.09003058998812868,"18":-0.2407517190396346,"19":-0.05158865521098664}},"1":{"bias":-0.0033042835377442084,"weights":{"0":-0.28955474380211715,"1":-0.17752421117347977,"2":0.12379716674024581,"3":-0.16783876364411027,"4":0.09357607081175626,"5":0.029469723764497587,"6":0.09981144062673146,"7":-0.16021909647019325,"8":0.10161254421842689,"9":-0.1360194015166579,"10":0.040357574296736275,"11":-0.2533795546650461,"12":0.020799429067089103,"13":-0.008268984620787005,"14":-0.1754089400316092,"15":-0.23679973157747689,"16":-0.2145452009083461,"17":0.048910354889683816,"18":-0.15161448658004117,"19":0.14163203613459407}}}],"outputLookup":false,"inputLookup":false}