{"layers":[{"0":{},"1":{},"2":{},"3":{},"4":{},"5":{}},{"0":{"bias":0.0033811706874345023,"weights":{"0":-0.8044670815265323,"1":0.019899876892859582,"2":0.19442252327916973,"3":-1.2833670552533762,"4":0.0057757901015657,"5":-0.9109490323918092}},"1":{"bias":1.6399409280689095,"weights":{"0":0.16090251694820254,"1":-0.3493557570977579,"2":-0.38647627503208093,"3":2.722792724733867,"4":-0.3298855336591405,"5":-5.080767537728077}},"2":{"bias":0.060608557376255076,"weights":{"0":2.4669672342157205,"1":-0.26727504073236535,"2":-1.369853229371496,"3":-0.4885698391490908,"4":1.4387020728002893,"5":-3.8552154103858576}},"3":{"bias":0.26198474590773413,"weights":{"0":5.060425082526677,"1":-7.960028282021052,"2":-3.3046264108769736,"3":-3.943741250728068,"4":-0.9011785655103098,"5":5.334940363848827}},"4":{"bias":0.7976732985758012,"weights":{"0":-1.648432134559257,"1":-0.15380082703048417,"2":1.2787135842932573,"3":-1.7690935792109999,"4":-0.09624157796627748,"5":-0.8411451587232001}},"5":{"bias":-0.4003730690051349,"weights":{"0":0.7981976547276468,"1":1.4471089265969943,"2":3.141202657451441,"3":-4.631548512121009,"4":0.9719443909775628,"5":-3.5438565245372677}},"6":{"bias":-1.3842883754666864,"weights":{"0":6.799021334607204,"1":-2.338874654947339,"2":-3.1460404218389693,"3":-4.201749398457137,"4":-3.232711043215058,"5":5.31727096858171}},"7":{"bias":2.7059421496830813,"weights":{"0":-3.770799551513897,"1":-3.436161835237601,"2":-3.7284067562139156,"3":4.732752741796546,"4":-0.7022994625903077,"5":-0.8509726726728882}},"8":{"bias":-0.588767713611991,"weights":{"0":-2.0801859945773673,"1":3.253605799155572,"2":3.8636251345255235,"3":1.1304123788378055,"4":-3.5816980403013257,"5":-2.5807823046857847}},"9":{"bias":-2.013233260097601,"weights":{"0":0.6403111321696277,"1":-0.5555676935719298,"2":0.4097775972833868,"3":0.9561723026689201,"4":-1.0089792411651275,"5":3.748055736601969}},"10":{"bias":0.1840210847517279,"weights":{"0":-0.1149199186922972,"1":-0.05946291375588164,"2":-0.42266144480617507,"3":0.16283439286294116,"4":0.2459784015622506,"5":-2.0977686060664484}},"11":{"bias":-0.4181112049531166,"weights":{"0":-0.6561654221333676,"1":-0.7745352161297344,"2":0.6115664780061411,"3":-0.6763621235872018,"4":0.29482015667839995,"5":1.205594254315455}},"12":{"bias":0.8884769628045445,"weights":{"0":-0.79161344800926,"1":-1.1411349215687432,"2":-0.4897871579968862,"3":0.4423512730839135,"4":-0.5667912650531421,"5":-2.3260085268865636}},"13":{"bias":0.3096305640260775,"weights":{"0":-1.5438707691457036,"1":0.25085097372238513,"2":1.250216043493656,"3":-2.3972481808866175,"4":0.20038412364434582,"5":-0.45073145748196786}},"14":{"bias":2.151964248109427,"weights":{"0":-0.36992955730592925,"1":0.3843202088368078,"2":-0.8154409743890949,"3":2.9650571502646,"4":-1.4835344844370364,"5":-4.212378989617569}},"15":{"bias":-0.7859205623848071,"weights":{"0":0.23214650060014796,"1":-1.0387713904003926,"2":-0.7383598309821736,"3":-0.07197636185307776,"4":0.12148482288129274,"5":1.7937833240132637}},"16":{"bias":-0.4857190005797884,"weights":{"0":-0.7874677203003274,"1":-0.5063479210817409,"2":-0.5684263564203258,"3":0.12153143390789321,"4":-0.14347718601510967,"5":0.4461512396033663}},"17":{"bias":-1.908345216548405,"weights":{"0":-3.0139656642410917,"1":2.369123555396877,"2":0.5711026292259366,"3":1.7771967627314358,"4":-0.16592062410626637,"5":0.3830009960154166}},"18":{"bias":0.5423656432544748,"weights":{"0":-1.829344441228057,"1":-0.10376645044383238,"2":1.2656744308946066,"3":-2.4128536268366254,"4":0.6272020834601588,"5":0.6446361454746152}},"19":{"bias":0.3210033358455041,"weights":{"0":-0.11995452224338217,"1":0.6148497714699498,"2":0.5597186275153682,"3":-1.297710120477551,"4":0.788291644305908,"5":-2.6394086493466635}},"20":{"bias":-2.1137959288680164,"weights":{"0":1.925228415199553,"1":-2.927468080021463,"2":0.24244591462729764,"3":-0.05576021004167406,"4":1.137691464002698,"5":2.6034872380146603}},"21":{"bias":1.1241815161241024,"weights":{"0":-1.7378477793449663,"1":-0.7295054432948119,"2":1.650066863549921,"3":-1.521456203450866,"4":-0.017741741786807517,"5":0.1451988914794118}},"22":{"bias":0.40577520450077875,"weights":{"0":-0.40076617437444895,"1":-0.5458698051945139,"2":-0.1752276160467952,"3":0.03804645038817188,"4":-0.35553644259180495,"5":-1.78934215691681}},"23":{"bias":-2.7089781386451164,"weights":{"0":-0.8353077693299304,"1":-1.094234010498212,"2":-1.486489305714331,"3":0.12707627047597786,"4":1.7897721916504015,"5":4.182252561385636}},"24":{"bias":-4.999812432310742,"weights":{"0":-12.965422555456838,"1":8.107119019764097,"2":1.9804744777226009,"3":5.528135421831892,"4":2.891115972669805,"5":0.3294212396250907}},"25":{"bias":1.4985502864832936,"weights":{"0":0.019426310204214557,"1":-0.0730060203935624,"2":-0.28790145987986043,"3":2.630800081898837,"4":-0.39717825813269786,"5":-4.962259499124806}},"26":{"bias":4.977259939438433,"weights":{"0":-1.6755124854425902,"1":-3.187286492003928,"2":-4.851285538076048,"3":-4.028618777141569,"4":-1.9406783082068917,"5":-1.5183088385527033}},"27":{"bias":-0.22745666127690975,"weights":{"0":-0.549318848537458,"1":0.2018936238089338,"2":-1.145950883308325,"3":-0.3390846542082137,"4":-0.15603579920326185,"5":-0.9134674445566451}},"28":{"bias":-0.7473568738083578,"weights":{"0":0.05256013800273697,"1":-7.530268076954622,"2":-5.227745439688751,"3":0.36645925940562485,"4":3.8079361817575035,"5":5.249866649145745}},"29":{"bias":0.7818980927314795,"weights":{"0":-0.1484196293119968,"1":0.5148568729614756,"2":-0.5053532704448488,"3":1.1587608611168183,"4":-0.21358530372739878,"5":-3.1694124856560135}},"30":{"bias":-0.051727628613269454,"weights":{"0":3.597280083799816,"1":-1.2546440494790374,"2":-1.63968880022326,"3":1.50511189155695,"4":2.707680187329317,"5":-4.444519729042415}},"31":{"bias":-0.7761745337974596,"weights":{"0":-0.48543489447735094,"1":-0.09026355192917662,"2":-1.4346734489574093,"3":1.583679713423377,"4":0.7109441328904771,"5":1.7777887676238353}},"32":{"bias":-1.2281908613982457,"weights":{"0":-0.9705391297683783,"1":0.9795384754083626,"2":0.46556465975794964,"3":0.772132382742136,"4":-2.872678869217942,"5":2.730577296690158}},"33":{"bias":-0.11805250250734071,"weights":{"0":-0.024235868886466214,"1":-1.8818700179800505,"2":1.7344011062776274,"3":-0.4226164255057962,"4":1.644866549445718,"5":1.2189309735940466}},"34":{"bias":0.5595899508589743,"weights":{"0":-1.5497602910317234,"1":0.7876382181266338,"2":0.6517707128427805,"3":-1.2699918180686873,"4":0.3961397560443208,"5":-0.9885645395729812}},"35":{"bias":1.0423648320461851,"weights":{"0":-2.3129553092863153,"1":-1.776128861428174,"2":-1.1342439666290531,"3":-0.8561277324951467,"4":-1.5013597409450776,"5":-2.335478236502562}},"36":{"bias":-0.4115647822624024,"weights":{"0":-0.5719353796899298,"1":-0.855403663423343,"2":0.3955548790292475,"3":-0.6771644354357448,"4":-0.2647839055673863,"5":0.9324316392666601}},"37":{"bias":0.22893451881803592,"weights":{"0":-0.49843381139636345,"1":0.07083984834217472,"2":0.25610366771933996,"3":0.05418483945526348,"4":-0.01384898841173664,"5":-2.0313510220369713}},"38":{"bias":-0.4572787730127603,"weights":{"0":-0.5656944763453748,"1":-0.7035243477487558,"2":0.19165680262756565,"3":-0.38170239314940846,"4":-0.5023031372025706,"5":0.5427358035024897}},"39":{"bias":-3.536613029600056,"weights":{"0":1.0408305303378338,"1":1.5365011427348592,"2":-1.3434319240641048,"3":2.0912812791226907,"4":-0.7941430737525929,"5":2.070164819837852}},"40":{"bias":-0.23725880921021517,"weights":{"0":-0.6004321238572876,"1":-0.3940345474255749,"2":0.3995757666120874,"3":-0.20931651297759032,"4":-0.44472547824258907,"5":-0.5149823502175688}},"41":{"bias":-1.0044606555674855,"weights":{"0":-0.16519723955391424,"1":0.3901833500058045,"2":0.991080870234226,"3":2.7182978173557757,"4":-1.9416817042136636,"5":2.20459809313719}},"42":{"bias":-0.9921412590498888,"weights":{"0":0.4120617050947878,"1":-1.5384256839165689,"2":-0.06759328218181926,"3":0.5162816587046363,"4":1.1671947076336722,"5":1.8404915465147376}},"43":{"bias":-0.1515405376916351,"weights":{"0":-0.46108378319628035,"1":0.31730768166117723,"2":-0.08635054901117281,"3":-1.5095609625254538,"4":0.3555881250393652,"5":-1.2141903615390022}},"44":{"bias":-2.5493219273447836,"weights":{"0":0.9400221314605363,"1":-0.29583755215256013,"2":0.11136043085112546,"3":1.2808499640794802,"4":-1.8417789997024674,"5":4.594485808571201}},"45":{"bias":5.937745183530423,"weights":{"0":-1.8412375440642355,"1":-4.782849168524443,"2":-6.230525504767982,"3":-4.291600570428079,"4":-2.068295592245142,"5":-1.6543029142219672}},"46":{"bias":-1.8164502982118946,"weights":{"0":0.47098064196598577,"1":-0.21640298542726646,"2":0.6824822392543141,"3":1.096228926894261,"4":-3.306457120052161,"5":3.563595016279371}},"47":{"bias":0.5121790977302011,"weights":{"0":-1.2341319623855052,"1":-0.02667626566134444,"2":1.5207445803497253,"3":-1.600665678077954,"4":0.05974091107536282,"5":-0.7018746868316337}},"48":{"bias":-0.5400963273472278,"weights":{"0":3.2057551795735852,"1":-2.757474564043383,"2":-3.7032572136999162,"3":-2.559404604521843,"4":-0.34833865891397015,"5":3.608081668315344}},"49":{"bias":2.8500527024675453,"weights":{"0":-3.568806546279017,"1":0.5746589214012366,"2":-0.9128257107646824,"3":-5.386409046295373,"4":-0.29721949206462606,"5":0.9793258093052912}}},{"0":{"bias":-0.30634531229915846,"weights":{"0":0.3932012630940605,"1":-0.06374652719533723,"2":-0.24558812478468883,"3":-0.7990786422495009,"4":0.4676055581159821,"5":-0.14528150400240958,"6":-0.45930185239485577,"7":1.1448256172527354,"8":-0.5613707127815671,"9":-0.12683418711812317,"10":-0.062417793046719856,"11":-0.12532749001853147,"12":0.22383115860050778,"13":0.46880574473032294,"14":-0.0384087503107249,"15":-0.10633755775827243,"16":-0.12345858940603074,"17":-0.4202547712090656,"18":0.1548333092855064,"19":0.22425145309635236,"20":0.1649217163375965,"21":0.3369041374526454,"22":0.08469790110084811,"23":-0.1281479525399175,"24":-2.0633056444164155,"25":0.1540922228826889,"26":0.2762490809297491,"27":-0.14225135133626693,"28":-0.40530024101565926,"29":-0.28088911685888157,"30":-0.10434039103817067,"31":-0.27487473889188374,"32":-0.3586421986116173,"33":0.018212574098315948,"34":0.11892021819209432,"35":0.1459281799033101,"36":-0.018888480428940663,"37":-0.14254269737545522,"38":-0.028147917491862736,"39":0.0282886741670249,"40":0.02135949245873652,"41":-0.5074822005392731,"42":0.1423556030892092,"43":0.14535650795671484,"44":-0.19575056678713448,"45":0.3130308626132737,"46":-0.11743282125010736,"47":0.3704840167426034,"48":-0.14893451335216584,"49":0.3723538276212159}},"1":{"bias":-0.5168393551330782,"weights":{"0":0.23826798551563733,"1":-0.35807809777193156,"2":-0.5799662669316641,"3":0.2851945529828368,"4":0.39925185727540463,"5":-0.0719354183981082,"6":0.7661625205989543,"7":-0.055645227433165925,"8":-0.025275687972340595,"9":-0.2693772367077346,"10":-0.18190563644608485,"11":-0.052062782081734635,"12":-0.1489828031509217,"13":0.26757330402495066,"14":-0.26748791655071513,"15":-0.007617174063744517,"16":-0.12402411344859611,"17":-0.2755737101069784,"18":0.058228827812518306,"19":-0.27029957072216093,"20":0.06652774567985058,"21":0.1282305501867576,"22":0.03167098032001591,"23":-0.2338422109210307,"24":-0.7091554555515769,"25":-0.31536229416063055,"26":-0.048662597519808226,"27":-0.24769705394356387,"28":0.32759987127481976,"29":-0.08575566331150536,"30":-0.5977674035925812,"31":-0.3174683816579868,"32":-0.1251074146818711,"33":-0.2629577183789941,"34":-0.1566308858900309,"35":-0.1261866882331881,"36":0.043719578673882764,"37":-0.12466185400933713,"38":0.0663802041780357,"39":0.11731456520821104,"40":-0.1250310481427809,"41":-0.2632126311769663,"42":0.054486885766184046,"43":-0.2022146653684008,"44":0.15249289200686628,"45":-0.26832477040351177,"46":0.09226514738494439,"47":0.19181434228080313,"48":0.5543613669791604,"49":-0.1831836796251524}},"2":{"bias":-1.144009179838656,"weights":{"0":0.5855567969045659,"1":1.1358718417298186,"2":1.3429724105575598,"3":-0.5649198846122123,"4":0.6156109886279739,"5":3.610691034397511,"6":-0.38228892501498435,"7":0.650245858247397,"8":0.1047742504366028,"9":-2.409034265247565,"10":0.44648802502360685,"11":-0.6956098158096407,"12":0.8157467708378625,"13":0.8550665462093588,"14":0.6085607277847352,"15":-0.8153612353032325,"16":-0.5709005638894464,"17":-1.2817389783987012,"18":0.2851020701385072,"19":1.616078748008058,"20":-1.3829918145682105,"21":0.14325196003997312,"22":0.614495921786518,"23":-1.5222200533880625,"24":-2.29102261159608,"25":1.424580334222988,"26":3.444829327297621,"27":0.06362685349644295,"28":0.702528401089851,"29":0.6775490195969023,"30":1.3716293877550256,"31":-1.6353893891647342,"32":-1.8595628360027046,"33":-0.46983917800310726,"34":0.7676796464305392,"35":1.0632241244712648,"36":-0.7095892816781886,"37":0.6700474131461504,"38":-0.3879486214063084,"39":-1.3570725628458784,"40":-0.07489503645730113,"41":-1.9363009519535885,"42":-1.1886257447724335,"43":0.9628373436280167,"44":-2.5225532712109406,"45":4.7238542341951755,"46":-1.573618658739892,"47":0.7213538168845165,"48":-0.5510803435819329,"49":-0.48923022030379604}},"3":{"bias":-0.04224749016088908,"weights":{"0":0.3868637400562108,"1":-1.0738688647109889,"2":0.764386449365724,"3":-1.6506068160094134,"4":0.7498586688295388,"5":0.6611098904015501,"6":-1.6013109986022036,"7":1.1029508811108866,"8":-2.9300666006646283,"9":0.40917043737975717,"10":0.058917050082368916,"11":0.27359958980453153,"12":0.642505028276028,"13":0.722987389495471,"14":-1.581233424610004,"15":0.39987671854016155,"16":0.14669385515296807,"17":-0.5949670059408496,"18":0.7425407753912491,"19":0.34512488352617926,"20":1.435385084727161,"21":-0.1402830302027149,"22":0.2609380735827657,"23":2.154281499821567,"24":-4.878032485697732,"25":-1.284655585400344,"26":2.5964440679123326,"27":0.12650575506671374,"28":-0.1856903515273942,"29":-0.4041187418085484,"30":0.43452141048934856,"31":0.3065836150294403,"32":-0.34020225496153583,"33":0.6288688869280133,"34":0.42828026857024787,"35":0.8462388638458738,"36":0.24591089137705238,"37":-0.014212349605572532,"38":0.17601577303790303,"39":0.5730822451563388,"40":-0.32734999845219803,"41":-1.1186889085078282,"42":0.9733713681403858,"43":0.2746530753308766,"44":0.5175626002374636,"45":2.43010555570425,"46":-0.17895414039908633,"47":0.37441886566210586,"48":-0.41889270229255837,"49":2.754187200106515}},"4":{"bias":-0.14736017282139563,"weights":{"0":-0.2356287994924398,"1":-0.6334678093787739,"2":-0.6958527334020217,"3":-0.3157537256629955,"4":-0.4983581044901445,"5":-0.6585940414025775,"6":0.10361190000006129,"7":0.04289384363510932,"8":-1.121638580150108,"9":0.8369648712677394,"10":-0.41504340622220415,"11":0.4112462553376041,"12":-0.3170069910449546,"13":-0.393623597590507,"14":-0.779868628999887,"15":0.41936973137285133,"16":0.3705942403345103,"17":-0.07581930151232653,"18":-0.045711755955673755,"19":-0.4087919801057073,"20":0.7983824113126813,"21":-0.1929355344676214,"22":-0.3627550547278115,"23":0.9819887465793431,"24":-1.0619232906251657,"25":-0.6612447752202514,"26":-1.3165580133096288,"27":-0.39248610472546175,"28":0.9328524773856111,"29":-0.4148547464262627,"30":-0.4273855187114525,"31":0.3184015867086423,"32":-0.15261038083347903,"33":0.6598463135221495,"34":-0.5609099469592608,"35":-0.7375041411847238,"36":0.3199404070512415,"37":-0.25822375516660745,"38":-0.10086280002929128,"39":0.16573909442921422,"40":-0.01744244373319569,"41":-0.04573220705817314,"42":0.6985973617057064,"43":-0.46064728443868774,"44":0.5923091430801245,"45":-1.5246958275114544,"46":0.23120114583815535,"47":-0.16043918710043664,"48":0.11290163108285838,"49":-0.8364551846315059}},"5":{"bias":-0.3417744727860789,"weights":{"0":-0.19081144302926664,"1":-0.03387987128900588,"2":1.3949038950757473,"3":1.1419103179710726,"4":-0.7118646657110702,"5":-0.07390412225215873,"6":0.4963428704164712,"7":-1.3017176563314528,"8":-1.4565586193003661,"9":-0.19551999508418383,"10":0.05862678443885006,"11":-0.31975290773700954,"12":-0.21543689477556754,"13":-0.6425365374951296,"14":-0.16760549478831901,"15":0.11133286731589982,"16":-0.16476797057446965,"17":-0.11805254726646337,"18":-0.6769961643349439,"19":0.08094753079099075,"20":0.6632245403179563,"21":-1.1274724705941375,"22":-0.27339289062708405,"23":1.0161282314424134,"24":-0.09292726023067127,"25":-0.13173062312277276,"26":-1.2630170641398515,"27":0.31486879250096367,"28":0.7422530774302962,"29":0.16202577533149057,"30":1.851376638372011,"31":0.6553412372797834,"32":-0.6689217457466651,"33":-0.31512395565025675,"34":-0.4726279959395605,"35":-0.7188712765459638,"36":-0.3458380240542196,"37":-0.41728509365143107,"38":-0.3558083597868678,"39":0.7504414829106784,"40":-0.24414612018115045,"41":-0.8453188253974945,"42":0.0998980485027799,"43":0.11365155234602725,"44":-0.41689494627494156,"45":-1.440705267986455,"46":-0.6878087050528473,"47":-0.7881866147021319,"48":0.6150451948336091,"49":0.37844122803100144}},"6":{"bias":-0.6085653197550136,"weights":{"0":0.39873067368509035,"1":0.06537177320031164,"2":0.027721859006470298,"3":-1.0306551952756882,"4":0.8481828487949838,"5":1.0817637456103084,"6":-1.0717783103676437,"7":-0.06774831596594942,"8":-0.37836645376802996,"9":-1.3251203894895038,"10":0.1538397894024642,"11":-0.068120521139608,"12":0.4452942780007437,"13":0.9441648303700712,"14":-0.3387369611591188,"15":-0.6481029210194185,"16":-0.07481363301672772,"17":-0.606901222750573,"18":0.5848273547551297,"19":0.9653013926764341,"20":-0.8248736813888025,"21":0.39710717465300394,"22":0.41362139422846217,"23":-0.5226983821296506,"24":-1.6018214706555762,"25":0.09181432902912615,"26":1.3426921496921551,"27":0.04499384840007088,"28":-1.196380245321346,"29":0.03426174128958243,"30":0.2734073571301844,"31":-0.7234565685170812,"32":-0.5363035084544165,"33":-0.14034534049101008,"34":0.7731982730659593,"35":0.8316279608072162,"36":-0.13835415585418395,"37":0.28269828620348114,"38":-0.05555169103699066,"39":-0.7007122427811822,"40":0.21431056050378125,"41":-1.4177335426769706,"42":-0.5937265257218108,"43":0.6165356174825158,"44":-1.4538481564512507,"45":1.4925536813115035,"46":-1.0458795772964713,"47":0.7195025751921234,"48":-0.9132603686862706,"49":1.0528552837331049}},"7":{"bias":0.01907795477265562,"weights":{"0":0.19207744774068347,"1":-1.2398884118520734,"2":-1.4810551963188523,"3":1.941837994768743,"4":0.3202768239873499,"5":-0.7741718850265147,"6":2.5379885802782165,"7":-3.145296344073638,"8":0.37259504319290415,"9":1.2375516668878124,"10":-0.60015781121307,"11":0.6425521965557437,"12":-0.8289234509511096,"13":0.7060973640038481,"14":-1.2362731848006034,"15":0.5056358095308295,"16":0.043714290334686955,"17":-0.26207657465064577,"18":0.7961179615966617,"19":-0.5016039645203859,"20":0.6151693190163621,"21":0.9561404693536202,"22":-0.6208593245460776,"23":0.7893992661757818,"24":-2.2366235738445863,"25":-1.219030759407022,"26":0.15938304493509056,"27":-0.13716015901875678,"28":1.2403303525581861,"29":-0.9882880179083073,"30":-1.8163399467621277,"31":-0.08494408870848236,"32":1.1785560539488502,"33":0.7336788061075126,"34":0.2538252083196264,"35":-0.7378206940128672,"36":0.6175870203380446,"37":-0.13947675296259884,"38":0.20505224408408057,"39":0.6182802753525205,"40":0.06613260093540461,"41":0.3792311036729856,"42":0.5871400019018834,"43":0.11092625412699166,"44":1.4468422359054967,"45":-0.44987671269730684,"46":1.6458058959828514,"47":0.28883238803595074,"48":1.314845621873511,"49":1.9828871114998712}},"8":{"bias":-0.2639659751247172,"weights":{"0":0.08286285340663616,"1":-0.19825501939286566,"2":0.045215493358707025,"3":-0.5598230678960122,"4":0.2280185248328553,"5":0.12600878270198632,"6":-0.2550760807180698,"7":-0.015337068371240213,"8":-0.6653879139143669,"9":-0.3128228156229778,"10":-0.12755666677580685,"11":-0.1956784074994896,"12":0.060394949609583935,"13":0.0318972338858245,"14":-0.3123823673800229,"15":0.07224625786259287,"16":-0.11863316204021111,"17":-0.3336610863191298,"18":-0.1159714408401012,"19":0.09930138269359874,"20":-0.16751097722511774,"21":-0.04401319126931204,"22":0.040080795848791775,"23":0.244732405218419,"24":-0.962531135668407,"25":0.05794380192914578,"26":-0.28513444109603653,"27":-0.06257453487973684,"28":-0.17092198695290117,"29":-0.31647571092342164,"30":0.18747038126535107,"31":-0.22495943749788136,"32":-0.10228304312712944,"33":-0.1448940063474505,"34":0.014265015583824366,"35":-0.21604159510368126,"36":0.01894757433966555,"37":-0.06083271764531345,"38":-0.17797588283159357,"39":-0.05404841817470708,"40":-0.11943582407911825,"41":-0.20928015230622862,"42":-0.03596132792898578,"43":-0.15972314731130313,"44":-0.3344630105930286,"45":-0.17333171894646932,"46":-0.051372052638684516,"47":-0.1618093001985652,"48":-0.11914821939515781,"49":-0.014428118307628874}},"9":{"bias":-0.01899499158055266,"weights":{"0":0.10641572197205512,"1":-0.03441926829149115,"2":-0.22822258585079952,"3":-1.5689802504183574,"4":0.3771716751977493,"5":-0.04457237549969952,"6":-0.7412196323807543,"7":0.31884185244881635,"8":-0.20895499155246136,"9":0.2072142605713529,"10":-0.2795961486059782,"11":0.30919696400718977,"12":-0.261715792310136,"13":0.3478970119017226,"14":-0.5128800785532016,"15":-0.29738548703473006,"16":-0.11108919642731342,"17":0.3113786352215102,"18":0.43535060545316095,"19":-0.05345589818623398,"20":0.13343460169905172,"21":0.3178982205870173,"22":-0.09041787552288218,"23":0.7560342637531042,"24":-0.6180881593391625,"25":-0.30234059158922305,"26":-0.7185022080779364,"27":0.09645848510868482,"28":-0.8349598723406884,"29":-0.36933705936953,"30":-0.05014786754166427,"31":0.17340616815637866,"32":-0.21503214143896549,"33":0.4173262327783541,"34":0.03133752379095787,"35":-0.18748713255279706,"36":0.0034031097872852844,"37":-0.16466599057717798,"38":0.16773225499562988,"39":-0.20863123857977206,"40":0.13880587925988114,"41":-0.2872139209103024,"42":0.36639581035055085,"43":-0.16747847253880596,"44":-0.26070108079745197,"45":-0.734337573353142,"46":-0.4277779863109261,"47":0.1403503533187002,"48":-0.45788267424483514,"49":0.22930147952243654}},"10":{"bias":-0.044134434501293084,"weights":{"0":-0.09264196733567785,"1":-0.5820978855199275,"2":-0.20119315622441014,"3":0.20844807194485,"4":0.3598329819700161,"5":-0.12053500908108739,"6":0.8238763415314696,"7":-0.12787955662993647,"8":-0.8592786806037492,"9":0.2228814742423136,"10":-0.00968456788118151,"11":0.5115915586401257,"12":-0.38190291316461755,"13":0.2511796135323443,"14":-0.9048653730630484,"15":0.1538804870934114,"16":-0.0040983850306585135,"17":-0.16148629501105255,"18":0.5469185467091092,"19":-0.164933437099299,"20":0.5864125333082737,"21":0.5932467083163803,"22":-0.13825090024436226,"23":0.5421617541045191,"24":-1.103831652094249,"25":-0.7638771889207138,"26":-0.4521295719571174,"27":-0.1433042032639385,"28":1.198215805296509,"29":-0.3041090550503597,"30":-0.471555176457883,"31":0.1835434264441239,"32":-0.20458806292715223,"33":0.5641837868290602,"34":-0.025278298117464945,"35":-0.4527630327105105,"36":0.4293926993525021,"37":-0.023440901304241903,"38":0.3334296758238567,"39":0.027630560112881095,"40":-0.10559713130825636,"41":-0.15364977902568752,"42":0.3589316376344434,"43":0.1752090339532153,"44":0.2801061690669646,"45":-0.6168689892101004,"46":-0.19705110764150977,"47":0.47052214933231457,"48":0.6832959086092912,"49":0.40764158368623316}},"11":{"bias":-0.13668029634923962,"weights":{"0":-0.08450929973911225,"1":-0.6157448965646591,"2":-1.1953306759012257,"3":-1.2025433741780835,"4":0.2474192612401188,"5":-0.47820396820045014,"6":-0.15791693368465123,"7":-0.353294329077889,"8":-0.06928661130073209,"9":0.6157598824457599,"10":-0.32057150989174743,"11":0.3006154325629531,"12":-0.40294849991786647,"13":0.18654064243655555,"14":-0.44811796230121065,"15":0.13575855608252352,"16":0.05889791811297337,"17":0.14862573599930926,"18":0.46730627674398073,"19":-0.10259617194956441,"20":0.5586161972798922,"21":0.5240711566962524,"22":-0.4354462654624263,"23":0.550616008821331,"24":-1.9118562825447845,"25":-0.5088960383792929,"26":-1.281585426328955,"27":-0.007709456883487911,"28":0.5325177424138265,"29":-0.4042217913707166,"30":-1.026030364602892,"31":-0.04736349347198261,"32":0.13132902957500223,"33":0.777057440387119,"34":0.16663018871179927,"35":-0.5964014919153944,"36":0.20042301065444812,"37":-0.34693709986437343,"38":0.1034733909242917,"39":-0.15186683411986726,"40":0.2932113782753689,"41":0.0483337176444313,"42":0.2564920597615543,"43":-0.23896531409692953,"44":0.40412870617515356,"45":-1.7535658378923091,"46":0.4755755230802094,"47":0.14936103988596472,"48":-0.2996831668813172,"49":-0.008126699188358589}},"12":{"bias":-0.29720073403454994,"weights":{"0":0.016299706182447457,"1":0.1479565289647323,"2":0.4530215811961082,"3":-0.3937713720933017,"4":0.1438441369870073,"5":0.6754015295222717,"6":-0.5607624931211976,"7":0.4326248150817875,"8":-0.7021089940281465,"9":-0.40328979977115664,"10":0.03314900353208005,"11":-0.26041324836166335,"12":0.1918895750149982,"13":0.11772412416183355,"14":0.27303220130599315,"15":-0.2390982246223688,"16":-0.3063488295346793,"17":-0.4084600020641452,"18":-0.11850364050502445,"19":0.11944636804224384,"20":-0.005829347708829232,"21":-0.2193111269997291,"22":0.23664726570165903,"23":-0.08543212635410319,"24":-0.1941433297235538,"25":0.4062852390297172,"26":0.09132380392322784,"27":-0.04324462880951388,"28":-0.9839322114733807,"29":0.07042163026930295,"30":0.6575319975509114,"31":-0.18909082088568321,"32":-0.45793653603932627,"33":-0.055387731255242385,"34":0.021712827158849507,"35":0.2912401231370513,"36":0.06028029471466257,"37":0.06564810923504134,"38":-0.25744779681343055,"39":-0.6240478729679725,"40":0.119983771484426,"41":-0.6084589066834,"42":-0.0624318865896744,"43":0.2760978725270134,"44":-0.4345823705058895,"45":0.3337342982983719,"46":-0.2746252190513089,"47":0.16345640951899545,"48":-0.6601693160994785,"49":-0.18819163004020942}},"13":{"bias":-0.8768728504570782,"weights":{"0":-0.38736575366205694,"1":-1.279374422346749,"2":-0.47077820781860036,"3":1.2783905949739796,"4":-0.5367312162338378,"5":-0.3908029061392273,"6":1.1489336151902878,"7":-1.7141751947480488,"8":0.12714193471977053,"9":0.16640722931157703,"10":-0.6616420766598583,"11":-0.3309082897224647,"12":-0.7026407570673006,"13":-0.2755089730443957,"14":-1.1303435490632612,"15":0.003430857649598272,"16":-0.2872570252284906,"17":0.4402556259337818,"18":-0.5497081827290922,"19":-0.501624172268424,"20":0.4658394956336943,"21":-0.8922780789151511,"22":-0.5551559706379021,"23":0.6958865512246328,"24":1.6000246303903254,"25":-1.1996694647829371,"26":-0.6388259775271891,"27":-0.23216578448115174,"28":1.226740114648413,"29":-0.5440128509798416,"30":-0.3637041433390272,"31":0.18974539765720116,"32":0.40112923155854513,"33":-0.2551189760040143,"34":-0.5859624760319495,"35":-0.6957243403360602,"36":-0.4188432349727444,"37":-0.6563745047794715,"38":-0.34853223581263615,"39":1.0360199114157882,"40":-0.5655283023643934,"41":-0.291376267988318,"42":0.1180338928746834,"43":-0.3570419716481872,"44":0.14748273584803664,"45":-0.967155463850182,"46":0.5266566822780555,"47":-0.6536596379429035,"48":0.774575285483043,"49":-0.03418296200132175}},"14":{"bias":-0.4050805750478927,"weights":{"0":0.06733660602862239,"1":-0.34526096195426215,"2":-0.04773674524322926,"3":0.5323224023294546,"4":-0.33982805114162684,"5":-0.3187323954824551,"6":0.458394184649993,"7":0.04385367455468948,"8":-0.48558684719399176,"9":-0.002892810154611942,"10":-0.14747417163602428,"11":-0.019014298407645066,"12":-0.04645262137774083,"13":-0.33516943248247094,"14":-0.2827689670236883,"15":-0.07172053052480999,"16":-0.05331765410153823,"17":-0.17143140310813468,"18":-0.04135100428042582,"19":-0.14005716519957723,"20":0.045281286758695076,"21":-0.293300744076795,"22":-0.034236251639385644,"23":-0.06877069521343825,"24":-0.07670246688944944,"25":-0.20414308383293134,"26":-0.42946459646497903,"27":-0.11522365258893635,"28":0.5677680939370673,"29":-0.1299206538164144,"30":-0.01839907423034554,"31":-0.05834400852821042,"32":-0.0686256205961752,"33":-0.07841892958570276,"34":-0.13033949785903476,"35":-0.08579015509228799,"36":-0.21557418627730407,"37":-0.11628574129211422,"38":-0.10055119642104887,"39":0.3143429305724186,"40":-0.16843251542770957,"41":-0.28927284280102994,"42":-0.007378931080040995,"43":-0.09252303422357232,"44":0.02385791786269109,"45":-0.5147597119914077,"46":0.18295661086982554,"47":0.01664897373960429,"48":0.23189805103363015,"49":-0.36710201202343873}},"15":{"bias":-0.09780714654064515,"weights":{"0":-0.014311171289017965,"1":-0.33982724191493713,"2":-0.5965857749828154,"3":-1.845164791193228,"4":0.5722717784333082,"5":-0.08367335099969654,"6":-0.8323382778452026,"7":0.7175610062734017,"8":-0.18620309281072378,"9":0.0383033837668743,"10":-0.26006568700859595,"11":0.025223181164628437,"12":0.0892560970522618,"13":0.5482855452404604,"14":-0.4604046384003501,"15":0.1239607984532897,"16":0.08242729055614824,"17":-0.113381032915892,"18":0.4871768828272526,"19":-0.06528539100710723,"20":0.34133846910162413,"21":0.3390784420434646,"22":0.06764626223616498,"23":0.42828814185165986,"24":-1.2020224805302977,"25":-0.16216930079065847,"26":-0.47114533047913576,"27":0.00706844409393045,"28":-0.7355572028978935,"29":-0.4309295423115623,"30":-0.34182741075742856,"31":0.0985910580107707,"32":-0.0006265442691422927,"33":0.4837958374834211,"34":0.10688599841186378,"35":-0.057878458826917493,"36":-0.026665159630775887,"37":-0.20187323015495467,"38":0.1241240432753017,"39":-0.12562064033556905,"40":-0.16836010157351744,"41":0.05094381260439828,"42":0.3722044147867595,"43":0.17625504104623815,"44":0.23222341876234112,"45":-0.9254141766846056,"46":-0.3165230807055107,"47":0.3553011389204759,"48":-0.8160454826641121,"49":0.042881429879271724}},"16":{"bias":-0.30995437121797065,"weights":{"0":0.08140681792089069,"1":-0.17622720202711872,"2":-0.13922214499275568,"3":0.3341692388870115,"4":0.17258119701435065,"5":-0.30086012313274013,"6":0.2566148097110246,"7":-0.1421168488026222,"8":-0.5127374035544219,"9":-0.07939839879355687,"10":-0.11702132302085905,"11":-0.18031914236916746,"12":-0.3120934753985678,"13":0.02540442544959152,"14":-0.18077432118219652,"15":0.0905507426982606,"16":-0.24057295258340383,"17":-0.1519114887638787,"18":-0.25712304509440354,"19":-0.31630499588150995,"20":0.19059039268328565,"21":-0.1897494068710304,"22":-0.07322591772976225,"23":0.1380210495302748,"24":-0.44166858985483287,"25":-0.3822430969974864,"26":-0.39275497455159386,"27":-0.06985769289742039,"28":0.47767005787154154,"29":-0.024139715679474632,"30":-0.07792934546703184,"31":-0.21840250206128614,"32":0.04848099708286479,"33":-0.1515772489687713,"34":-0.20041101200540057,"35":-0.035117479337435954,"36":-0.02669512119217208,"37":-0.2563116402208245,"38":0.04709618098312317,"39":0.2638190970151466,"40":-0.1196767821852417,"41":-0.08691314574887524,"42":-0.1461240717902424,"43":-0.00928672010841325,"44":-0.2342723983113459,"45":-0.33980713750133795,"46":-0.13090384815077155,"47":-0.06183067363443528,"48":0.18994290147839638,"49":-0.08984203637953896}},"17":{"bias":-0.44251711602196886,"weights":{"0":-0.3089934473857208,"1":-0.4870664682077327,"2":-0.49869052852655893,"3":-0.07404241141992739,"4":-0.1084642991922873,"5":-0.26240112605186533,"6":0.3224389333936452,"7":-0.19944909602181435,"8":-0.522709312666858,"9":0.40196018841553544,"10":-0.049471666619940305,"11":0.3083237867267746,"12":-0.3789370014486215,"13":-0.21582574841521535,"14":-0.5008244328917046,"15":0.13912390023274868,"16":0.19931632517874592,"17":-0.091272213282226,"18":-0.08926190374807066,"19":-0.3689721762893327,"20":0.4294897356846057,"21":0.030525607870692372,"22":-0.08511849091703165,"23":0.5580360274912678,"24":-1.439692410972352,"25":-0.5707276185761752,"26":-1.031583123899281,"27":-0.37884377810419784,"28":0.6782658043944163,"29":-0.230418812358595,"30":-0.48528173574180394,"31":0.023184941978994088,"32":0.0016249855398120766,"33":0.40256363437132514,"34":-0.18074703958734098,"35":-0.5346964556987492,"36":0.3078329925940877,"37":-0.17368613491334045,"38":0.030437649260994012,"39":-0.05491926624391585,"40":0.07656851302868622,"41":-0.041358402196532654,"42":0.2560057134477631,"43":-0.3494732061038785,"44":0.31605959762628,"45":-1.096199978023724,"46":0.17410837602977902,"47":-0.09129311708884684,"48":0.21614810099978812,"49":-0.11794576763002484}},"18":{"bias":-0.29466425620105785,"weights":{"0":-0.20113246474667226,"1":0.01773421474990748,"2":0.0340234911753173,"3":0.0878919698069688,"4":-0.1611831291618173,"5":-0.7344577902785419,"6":0.4111081194700122,"7":0.08508021293299653,"8":-0.8765550401470026,"9":0.08527871169960498,"10":-0.25197023211317904,"11":0.06381776731741902,"12":-0.060252534659725465,"13":-0.39408223528367003,"14":-0.2793094226866694,"15":0.16149968049297775,"16":0.08741078850530962,"17":-0.10807786023884139,"18":-0.5923125280084223,"19":-0.19336179731306266,"20":0.627013799269059,"21":-0.6013644384518808,"22":0.012901869066673424,"23":0.44074138303278176,"24":-2.1235005896153085,"25":0.023576191384063222,"26":-1.0612361843008886,"27":-0.3200047555191945,"28":1.0195890079150849,"29":-0.2353643295626346,"30":0.6301836753871851,"31":0.305967880511621,"32":-0.3484324546815015,"33":0.22353303695183258,"34":-0.6367334900617991,"35":-0.43660527833370755,"36":-0.08341833486099436,"37":-0.4450994974710141,"38":-0.07099768107040377,"39":0.24378218309434635,"40":-0.2624446492236604,"41":-0.04106879034350734,"42":0.21467243831635008,"43":-0.05710564364458948,"44":0.01525003117275889,"45":-1.2236768203622204,"46":-0.12300048343244371,"47":-0.11017482383676525,"48":0.17438489378029182,"49":0.018250539738710485}},"19":{"bias":-0.2505021024982942,"weights":{"0":0.16154566116277588,"1":0.7103387847570255,"2":0.6583863354618845,"3":-0.895242387345564,"4":-0.11551435460824834,"5":1.0892714017530603,"6":-1.0672848033414573,"7":1.3371036890075023,"8":-0.3574555222383196,"9":-0.531897111212386,"10":0.36217687290614253,"11":-0.37064137051837787,"12":0.2542867648639895,"13":-0.04812074304841861,"14":0.3668220492217722,"15":-0.3072127867275981,"16":-0.17916810405854455,"17":-0.3209902446120998,"18":-0.38000585737154324,"19":0.41408231035959575,"20":-0.02514088057580375,"21":-0.1846082943088436,"22":0.0771065393616874,"23":-0.5331516300701379,"24":1.039320145477896,"25":0.7232405161137074,"26":0.31233947526182093,"27":-0.19724141074045873,"28":-1.1834646779744078,"29":0.38572972846909104,"30":0.7708092950280973,"31":-0.4869062043658219,"32":-0.528504554829443,"33":-0.34524149880539695,"34":0.031267946898879025,"35":0.3678755666739395,"36":-0.17197506261160392,"37":0.23927136919900768,"38":0.07322824762529741,"39":-0.7879675572766439,"40":0.16289969032391582,"41":-0.6978016492778546,"42":-0.18203863796635786,"43":-0.01372588219847606,"44":-1.026762406167027,"45":0.6418347256111072,"46":-1.0004588667081042,"47":0.2013472371522781,"48":-0.7863463897884314,"49":-1.0195406710646306}},"20":{"bias":-0.7512803234102929,"weights":{"0":-0.32463936642624613,"1":-1.001978115700595,"2":-0.0517756291835245,"3":1.0357313449383945,"4":-0.49780054905575494,"5":-0.531101136721392,"6":1.0148007391007883,"7":-1.7638885085676212,"8":-0.09998785918306931,"9":-0.24733104623396152,"10":-0.29522363480383895,"11":-0.11448438025559682,"12":-0.5877390073785507,"13":-0.5231002473683609,"14":-1.1619583758367489,"15":-0.14102232667562603,"16":-0.16285736339751358,"17":0.5778008167847533,"18":-0.6891638467281143,"19":-0.6528957090712575,"20":0.397741972686581,"21":-0.7273608321511547,"22":-0.5372024498223926,"23":0.8957018988331679,"24":1.9497895367150795,"25":-0.88150012269998,"26":-1.0802623273030956,"27":0.03584758337947103,"28":0.9757573194679656,"29":-0.6693682525999828,"30":0.17187750248091782,"31":0.4545803273979602,"32":0.25427586963800697,"33":-0.4448696633829683,"34":-0.4877185967965651,"35":-0.5174696647663397,"36":-0.47691018956244247,"37":-0.3793060226529052,"38":-0.5621928749967254,"39":1.0912190577924712,"40":-0.4559334961858458,"41":-0.3409683315707832,"42":-0.030584030518723323,"43":-0.14522462831010932,"44":-0.08171763926019911,"45":-1.2735584272460734,"46":0.028090751851277393,"47":-0.648423804678639,"48":0.6024026651938101,"49":0.666211253785577}},"21":{"bias":-0.20566573849852154,"weights":{"0":0.11591901657071689,"1":-0.14237841255459227,"2":-0.22438505437965453,"3":-0.2824883785680315,"4":0.008727180534096862,"5":-0.19260411780718484,"6":-0.3337033508932115,"7":0.2255605479825995,"8":-0.3571595695521631,"9":-0.12725245281130193,"10":-0.2703768045735618,"11":-0.005624202519734918,"12":-0.16848142287216297,"13":0.011206096753260683,"14":-0.3037778766290053,"15":-0.0874711459852837,"16":-0.1448123275003438,"17":-0.1773467235546461,"18":0.017682178520108956,"19":-0.2018715638847937,"20":-0.047213027734142196,"21":0.13378941577635528,"22":-0.16721507110654715,"23":0.06749477132631725,"24":-0.2534860483047816,"25":-0.1715828523099636,"26":-0.32796229210692723,"27":-0.28015900978691766,"28":-0.12861608404129427,"29":-0.2654366879022864,"30":0.05262680477807985,"31":-0.10420270501188901,"32":-0.08615474879677736,"33":-0.0383113099520291,"34":0.10495071925984478,"35":0.04812331909653728,"36":-0.12372142422091156,"37":0.12763465781813838,"38":0.08350260592943586,"39":-0.16623007167691994,"40":-0.21576975487525943,"41":-0.08631902703752208,"42":-0.03685112775805513,"43":-0.036959823080745934,"44":-0.2363482541458874,"45":-0.3269673561688828,"46":-0.4176497500446727,"47":-0.03253728634628143,"48":-0.3106338843335159,"49":-0.26500928143525015}},"22":{"bias":-0.658325955847536,"weights":{"0":0.4424699785857766,"1":-0.5191551711105656,"2":0.1441775666044052,"3":-0.7744298808489897,"4":0.4540675623474047,"5":1.5508528920017641,"6":-0.6411059806274633,"7":-0.44468240043561474,"8":-0.20892248713528142,"9":-0.6397375225008239,"10":-0.2251130523755129,"11":-0.15886840663791346,"12":0.1098333717585731,"13":0.8403738332563682,"14":-0.5908282143974547,"15":-0.43410225879113384,"16":-0.23822371873611345,"17":-0.44251947273800285,"18":0.6561994854242719,"19":0.4791302243551113,"20":-0.130707360668038,"21":0.17615673696121537,"22":0.08717519808121059,"23":-0.3640522906134942,"24":-0.300330362941732,"25":-0.505773042125162,"26":0.7826321571406829,"27":-0.004023414504348413,"28":-1.1385877232917314,"29":-0.46861431495475614,"30":-0.19658155070442823,"31":-0.494557218376417,"32":-0.23044313436981528,"33":-0.30678900178189467,"34":0.2807422382035663,"35":0.4508939697212938,"36":0.11307377577648886,"37":-0.03960689446946439,"38":-0.13633124851318187,"39":-0.6916647203062564,"40":-0.051022220844573,"41":-0.8856619336470356,"42":-0.3584827613344733,"43":0.42957118412066664,"44":-0.9082783884845236,"45":0.8074006154817728,"46":-0.3878981920536011,"47":0.5778194315733647,"48":-0.23662790376096268,"49":0.46692763770608603}},"23":{"bias":-0.3397658864135236,"weights":{"0":-0.16580621481930616,"1":-0.04141438986212238,"2":0.913250116734969,"3":1.2125344828197777,"4":-0.6482683394775826,"5":-0.3485711518446188,"6":0.7540135337498971,"7":-1.0266492470059598,"8":-0.8601892530368578,"9":-0.4458082224018199,"10":-0.1097260917282465,"11":-0.46669935027362597,"12":-0.48056787017050867,"13":-0.29356262738475414,"14":-0.13935935824019124,"15":0.1263553549787362,"16":-0.19823282505760575,"17":0.3430786549866509,"18":-0.8245014652811689,"19":-0.11314943145867232,"20":0.05127615193011641,"21":-0.8255951185513342,"22":-0.2363826075648938,"23":0.543490526713756,"24":0.9973534601067082,"25":-0.23636444098610443,"26":-1.2177325249746538,"27":0.1813992348226729,"28":0.8935387546965151,"29":0.001236606184977064,"30":1.223897339961771,"31":0.32965944533288416,"32":-0.32337665230858337,"33":-0.47207267970550626,"34":-0.3650284867961061,"35":-0.6924636633062726,"36":-0.32345136907464095,"37":-0.1272097635263783,"38":-0.3403530214514731,"39":0.6411107630359263,"40":-0.3860581685792426,"41":-0.7194105709094444,"42":0.12070375231842012,"43":-0.19610493589326738,"44":-0.5019526202863327,"45":-1.242747010168351,"46":-0.24761369824274626,"47":-0.6150272943139903,"48":0.5754551724412008,"49":0.24577218094120037}},"24":{"bias":0.29895375089848203,"weights":{"0":0.29002547398407824,"1":0.5817673925894331,"2":0.3623854740663419,"3":-2.525811029312681,"4":0.2813823951719663,"5":0.432671041713656,"6":-1.7466776548884335,"7":1.80949753322316,"8":-1.4200997676663436,"9":0.16775817184939443,"10":0.1395357896580335,"11":0.3509030923758025,"12":0.37832291469007584,"13":0.3059963800051764,"14":0.009465938185596955,"15":-0.00023227828548130517,"16":-0.1067092316972969,"17":-0.49060678492310617,"18":0.38273106653050804,"19":0.09335618142971848,"20":0.7524694799307425,"21":0.1693076369044397,"22":0.22673917397727686,"23":0.974075343495098,"24":-3.7822352594679316,"25":0.5747075759397703,"26":0.7874952572998876,"27":0.12163662488456971,"28":-2.2872667115664833,"29":0.19861411613052124,"30":1.1093889386894056,"31":0.3315330335781802,"32":-0.7048910572621196,"33":0.6524393835308899,"34":0.1877611217322923,"35":0.460547134242096,"36":0.03427083012914353,"37":0.15621223368831275,"38":0.09777284803486058,"39":-0.3004372300488142,"40":-0.1337801210635521,"41":-0.19348174983939775,"42":0.6361669060735351,"43":0.04855004344177237,"44":0.022701492244661045,"45":0.818224436445021,"46":-0.580224541671598,"47":0.3089702288225526,"48":-1.2022554196278028,"49":0.4598321325322231}},"25":{"bias":-0.11212848219042848,"weights":{"0":0.03343281452665847,"1":-0.9933313289979703,"2":-0.413892458398212,"3":0.6789295248827608,"4":0.5129057696253965,"5":0.18069198516811524,"6":1.1334109198055067,"7":-0.403770943343074,"8":-1.032526762033085,"9":0.32881431565406505,"10":-0.38281882830010316,"11":0.5433451033180762,"12":-0.44642811759739104,"13":0.41661492128100935,"14":-1.0900174864381826,"15":0.3653232461110133,"16":0.2965201618171001,"17":0.08318305466772982,"18":0.8615134435964069,"19":0.012281293816690976,"20":0.7215766809598334,"21":0.7212088871104859,"22":-0.060476903040279646,"23":0.4841850087989672,"24":-0.9646267958788453,"25":-0.9725613425968019,"26":-0.127107989050469,"27":-0.05444604761463926,"28":1.003747053659419,"29":-0.7508116012041011,"30":-0.5819393966223425,"31":0.2962188343540002,"32":-0.07494550193088133,"33":0.6163706289588997,"34":0.1266135872183965,"35":-0.3915358845209996,"36":0.13700234700566633,"37":-0.3155906938766099,"38":0.059508245304366006,"39":0.1409482428764596,"40":-0.05803528346837197,"41":-0.44908240698670066,"42":0.43701543411273047,"43":0.0044603023384704845,"44":0.37791196872737143,"45":-0.6379826597437219,"46":0.21310455217142552,"47":0.4743410722338681,"48":0.9284249151261589,"49":0.6753237021940018}},"26":{"bias":-0.24796539843315277,"weights":{"0":-0.008605037801100265,"1":-0.17439201903322282,"2":0.19893460630709112,"3":0.4326748712267633,"4":-0.1869803639679941,"5":-0.28510168713331585,"6":0.36254069023800284,"7":-0.5808214180056525,"8":-0.5115467763242062,"9":-0.06031164846750392,"10":-0.07259332075921089,"11":-0.23211043398373568,"12":-0.15452362597696764,"13":-0.18502920662481143,"14":-0.38126943072959973,"15":0.051517661688602716,"16":0.02666585459776859,"17":-0.1400487242498424,"18":-0.3177447793127207,"19":-0.26453049186782757,"20":0.038664261846634115,"21":-0.6179249617399168,"22":-0.2922111901409539,"23":0.3617598317971192,"24":-0.282858111523709,"25":-0.09895997770847588,"26":-0.8606196473525577,"27":-0.0892583526828656,"28":0.7791223460004152,"29":-0.3086142862077439,"30":0.2963711595417278,"31":0.2650626329582577,"32":-0.322645811865388,"33":-0.26417966143486066,"34":-0.11593463023373597,"35":-0.2495430689547923,"36":-0.20791676928417815,"37":-0.19717681593260894,"38":-0.2518614725283661,"39":0.1616112055187814,"40":-0.2468307868009616,"41":-0.3027440565588202,"42":0.12324797519677251,"43":-0.06968531961249633,"44":-0.28841761328961757,"45":-0.7005119768924865,"46":-0.06588630225208203,"47":-0.1843795857418743,"48":0.14927996665814205,"49":0.02806340478654717}},"27":{"bias":-0.5130401648783064,"weights":{"0":-0.026898180285385983,"1":-0.42129043802472377,"2":-0.10661370352698828,"3":0.6942176721913095,"4":0.009535922902823553,"5":-0.47806435529783814,"6":0.8943612370980577,"7":-0.2183521952908138,"8":-0.9146581231436626,"9":-0.2350935761360953,"10":-0.12339312089961715,"11":-0.1074296440794491,"12":-0.25466354048329853,"13":-0.0024432845355340724,"14":-0.461941477078942,"15":-0.03724459780001256,"16":0.10845422926045578,"17":-0.22033409479937918,"18":-0.07410356412952888,"19":-0.1561057852107157,"20":0.14863921987513823,"21":-0.3875126917208395,"22":-0.2865844667164258,"23":0.14307205309667814,"24":-1.2170354384446591,"25":-0.39527739208237916,"26":-0.49271394194877216,"27":-0.05072822929868925,"28":1.1960741256330578,"29":-0.5077222562491503,"30":0.4250572057315653,"31":-0.06892657257975683,"32":-0.12868484728800123,"33":0.016379963809915514,"34":-0.45174586207705464,"35":-0.4687106035341957,"36":-0.2659942387152343,"37":-0.20834931350264796,"38":-0.1421267128379566,"39":0.4218837185820287,"40":-0.39444965365945023,"41":-0.28886862586269235,"42":0.17801902304320577,"43":-0.2610769897597814,"44":-0.062540487017075,"45":-0.8463808356908573,"46":-0.23437293614376725,"47":0.05884911280961887,"48":0.7374117743105592,"49":-0.007115908857592502}},"28":{"bias":-0.36987627543459045,"weights":{"0":0.2623066923311498,"1":-0.02605041447645213,"2":-0.21573998639156547,"3":-0.7262168669681615,"4":0.41265247653533754,"5":0.7369074623696504,"6":-0.21026337859862831,"7":0.47136447975699786,"8":-0.5020411662667813,"9":-0.2867231760430504,"10":0.00715961518143597,"11":-0.03650684260418563,"12":0.2672081603369612,"13":0.3299075060876159,"14":-0.10788582323894637,"15":0.015160042932754495,"16":-0.1716260307814009,"17":-0.3924145905873384,"18":0.22809671701984457,"19":0.11772684492776951,"20":0.08055823513090746,"21":0.2048110406566879,"22":0.023085298042839448,"23":-0.3339819069371016,"24":0.1665836631094419,"25":-0.11025415669564609,"26":0.17493981920548357,"27":-0.23998059727874665,"28":-0.7591734752474394,"29":-0.09250001415320182,"30":-0.2051582038708825,"31":-0.44329848871620015,"32":-0.4240693101447776,"33":-0.1397823041280076,"34":0.20520974797141348,"35":0.23286441372372,"36":0.115772969474718,"37":-0.13836884823009968,"38":0.06532053961439623,"39":-0.37707295064901736,"40":0.17549978178238518,"41":-0.41755577745580036,"42":-0.3510863564378458,"43":0.06300557695147506,"44":-0.44211485100674947,"45":0.27856893949158246,"46":-0.20019055685272968,"47":0.18500074979150186,"48":-0.17225125102529007,"49":-0.11894915721215392}},"29":{"bias":-0.24243608297027128,"weights":{"0":-0.06614340188805454,"1":-0.3484594117680845,"2":-0.004282188537626617,"3":0.8451632085903282,"4":-0.4142526721624429,"5":-0.4008003507327353,"6":0.5747660606603396,"7":-0.3343156684946336,"8":-0.45456203205331086,"9":0.020022794412014013,"10":-0.03479906886947056,"11":-0.12481586263768034,"12":-0.3285845103191872,"13":-0.173021383478437,"14":-0.4346283125455912,"15":0.037055748481177576,"16":-0.27956622227916894,"17":0.0102732065468191,"18":-0.5673983489717908,"19":-0.33523851195606963,"20":0.16937474536749147,"21":-0.31617935201578895,"22":-0.15024171024839897,"23":-0.11082652094482087,"24":-0.30946496825959546,"25":-0.2724696353149023,"26":-0.4237903068640128,"27":-0.1947795348463757,"28":1.066363580435167,"29":-0.38355698812914224,"30":0.45698701234101596,"31":-0.07788015841003716,"32":-0.22674671024529894,"33":-0.052078227671036544,"34":-0.17829308924642412,"35":-0.4109280955883737,"36":-0.07302838062135573,"37":-0.26003464823819167,"38":-0.38705331611796634,"39":0.419392564594152,"40":-0.4138308046844527,"41":-0.3353517208753878,"42":-0.10310867920673138,"43":-0.1815278775721203,"44":-0.035050362364590706,"45":-0.54547147088235,"46":0.07310896153844527,"47":-0.3688314617356424,"48":0.627529013941787,"49":-0.10832549162313306}},"30":{"bias":-0.53268349058819,"weights":{"0":-0.061012248574758406,"1":0.3219617022392794,"2":0.4186131971003341,"3":0.2240583489058175,"4":0.2922403891781797,"5":1.55293211995292,"6":-0.6333441877775848,"7":0.7706603813594514,"8":-0.5216504476704371,"9":-0.5906001483237844,"10":-0.05364466281416173,"11":-0.33645026445987536,"12":0.2792894448692589,"13":0.27302330364261007,"14":-0.18036973256288352,"15":-0.2647314675382712,"16":-0.250481470743414,"17":-0.8750407493720451,"18":0.17109125535259684,"19":0.14304312497691568,"20":0.35325144223555144,"21":0.11171193112000967,"22":0.296069467770426,"23":-0.68809939418392,"24":1.1729684909072704,"25":0.22309160760941243,"26":0.8176636833956997,"27":-0.15287075538287545,"28":-0.26948778844535887,"29":-0.2383073031675394,"30":0.4333317409094039,"31":-1.0330404125930595,"32":-0.44243782109417157,"33":-0.12151315529404896,"34":-0.09773396327311225,"35":0.6278400578168151,"36":-0.05381355579455511,"37":0.05975903921185281,"38":-0.04388344540124876,"39":-0.8726164905529046,"40":-0.06686790397303402,"41":-0.5311845327127218,"42":-0.45555782720846943,"43":-0.0002262649921404996,"44":-0.8205332872586939,"45":1.663779996320373,"46":-0.5476830973392236,"47":0.4390867798135216,"48":-0.46553981363999325,"49":-0.768275685434153}},"31":{"bias":-0.4629917670661817,"weights":{"0":-0.039221760204602225,"1":-0.28620594278081285,"2":0.1910705624214823,"3":0.4562983178528707,"4":0.06074282126240373,"5":-0.17847896863628918,"6":0.2940507688065582,"7":-0.36022685229179013,"8":-0.889403782920836,"9":0.07368102110795453,"10":-0.1468338393677323,"11":-0.23975228253802694,"12":-0.2464410586409086,"13":-0.22151227390874184,"14":-0.5975829209470975,"15":-0.12971538749100098,"16":0.029912159948739667,"17":-0.09475729199620263,"18":-0.09323187652818285,"19":-0.11217592935369962,"20":0.09400148759744892,"21":-0.3052345476700623,"22":-0.007936777512593488,"23":0.24543137985447985,"24":-1.4642038098301744,"25":-0.5448591302836454,"26":-0.8323736408799354,"27":-0.10329450518417575,"28":1.0450255019822887,"29":-0.4913716585112928,"30":0.5507384571946364,"31":0.09682223317738818,"32":-0.017898561256332986,"33":-0.07800169350627041,"34":-0.1753367840756986,"35":-0.3525012292069668,"36":-0.005920339275656121,"37":-0.4333018524161197,"38":-0.3312015514478967,"39":0.27453444339120986,"40":-0.04290307084931003,"41":-0.2050188415590527,"42":-0.02153028783754152,"43":-0.3057674194303976,"44":-0.03454958850936421,"45":-0.694757864223972,"46":-0.04386345610672826,"47":-0.30427071148408047,"48":0.3552170972834196,"49":0.45665964949277454}},"32":{"bias":0.5536731702011309,"weights":{"0":0.7078910062464686,"1":1.5966229767042937,"2":1.2065405559391154,"3":-1.9914930607829622,"4":0.9947817552422821,"5":-0.5575280424640563,"6":-2.905524406961127,"7":1.7010638702706764,"8":-0.8630404866365813,"9":-1.564615724612819,"10":1.0680343202367908,"11":-0.15108138365308582,"12":1.1723513644968833,"13":0.4667657189963612,"14":1.6623315447464841,"15":0.22179811803271984,"16":0.6974201039046497,"17":-0.30583422355267154,"18":0.447470164676696,"19":0.6488477348142908,"20":-1.1844011705456512,"21":0.04555838414825742,"22":0.9895501424630121,"23":-0.3788127371205042,"24":-4.133285971143838,"25":1.507970077331979,"26":0.6797562093451258,"27":0.9111406253374205,"28":-0.6358621537486328,"29":1.2323753512818434,"30":1.6322861896600303,"31":0.38946739767992905,"32":-0.2601006970685402,"33":-1.0596989003884887,"34":0.8541614155210309,"35":0.8058287470314984,"36":0.03877496146720605,"37":0.66145928986456,"38":0.17115092483119967,"39":-0.9115084981381224,"40":0.2986313583102382,"41":-1.0658748540633287,"42":-0.38573398162834727,"43":0.754149999387882,"44":-1.7113359893854478,"45":0.31680664283082216,"46":-0.8081731375425272,"47":0.30559976808672806,"48":-0.8737509420435359,"49":2.5592637535182057}},"33":{"bias":0.04156817812321213,"weights":{"0":0.6324132797755421,"1":1.2471134416417615,"2":-0.12589489474054297,"3":-3.20808990413548,"4":1.0312933344680286,"5":0.47703987609779425,"6":-2.992142320644975,"7":1.2592512349764877,"8":1.4631942884158957,"9":-0.7491560159281438,"10":0.4287584357965584,"11":0.07956951257305711,"12":0.8363458654151094,"13":0.7361353588899141,"14":1.4712675204514862,"15":-0.3091758394891553,"16":0.3707094411964164,"17":0.3247171737228418,"18":0.7372070375487032,"19":0.3205757781514481,"20":-1.4453121397629265,"21":0.6764963441149323,"22":0.6668318665263732,"23":-0.616226857754433,"24":-2.570506404271254,"25":0.941944635057634,"26":-0.32399771081923306,"27":0.5361568616490683,"28":-2.334134587311741,"29":0.7386733870705596,"30":-0.5215363484690524,"31":-0.25421777338585094,"32":0.5701544468173371,"33":-0.21706294204445012,"34":0.7063447985561103,"35":0.4266573459301308,"36":0.2778652510315458,"37":0.7413437901226037,"38":0.44525064284367466,"39":-1.0202986742965838,"40":0.39136371209301984,"41":0.10242834143606963,"42":-0.6607257435332602,"43":0.22041645851679892,"44":-0.7947813321825615,"45":-0.20818490086531163,"46":0.18901549398408263,"47":0.9716871555449951,"48":-1.8142120500617205,"49":1.3050607312243148}},"34":{"bias":-0.26840339164072047,"weights":{"0":0.05580951649670764,"1":0.3305000672339638,"2":0.6525943707590234,"3":0.08841434313951874,"4":0.3107240554581996,"5":0.9668756149415999,"6":-0.5859740600488679,"7":0.707013067320371,"8":-0.7310874809314597,"9":-0.5465007393228886,"10":0.15917229345840536,"11":-0.2365575031285143,"12":0.34734860010954455,"13":0.24846563350948705,"14":0.06213092158215288,"15":-0.22910672883709127,"16":-0.09925351070335006,"17":-0.5925139173122602,"18":0.02465137385307104,"19":0.26804988618638276,"20":0.24353480230643626,"21":0.058305462918799754,"22":0.3585508427579253,"23":-0.2686940492179403,"24":0.03554835601657962,"25":0.10283632292700885,"26":0.53694175552098,"27":0.047575784286425296,"28":-0.43534579028333176,"29":0.05206265594974707,"30":0.7759147075844791,"31":-0.5825823843430132,"32":-0.7021244183721156,"33":0.1711974864419012,"34":-0.09432831663268082,"35":0.40411110476922246,"36":-0.2189103817897389,"37":0.1477166326169279,"38":-0.20466906536272184,"39":-0.4353817155051088,"40":-0.0627509988856726,"41":-0.760118583193207,"42":-0.15631705977078167,"43":0.26673543604829925,"44":-0.7934787492917716,"45":0.6387847113832714,"46":-0.6588758780077142,"47":0.09337160191226117,"48":-0.18873292318968277,"49":-0.2907634837462644}},"35":{"bias":-0.27659386428614435,"weights":{"0":-0.13133947342206545,"1":-0.14203557272231396,"2":0.15496388500656424,"3":0.6077690234740463,"4":-0.2372897922304568,"5":-0.3203727888188303,"6":0.34647325800922923,"7":-0.29816355620658497,"8":-0.7569883538759159,"9":-0.2061262844723083,"10":-0.12742523506312228,"11":-0.16675384791790934,"12":-0.13693893517196673,"13":-0.27734884058499226,"14":-0.2710652267234704,"15":0.08678519129715855,"16":-0.2326386214698351,"17":-0.032989238982188536,"18":-0.2267373075770843,"19":-0.3799071112069595,"20":0.48634237344822473,"21":-0.6628819772538317,"22":-0.14432059101483835,"23":0.30141253162043774,"24":-0.9993766522056725,"25":-0.3119246836245858,"26":-0.7402646313799326,"27":-0.3110502233812105,"28":1.0521154726422703,"29":-0.4264408245025514,"30":0.396079300439349,"31":-0.10423237655493682,"32":-0.07359681892575612,"33":-0.2471458174810552,"34":-0.3323877612239852,"35":-0.31842130995593226,"36":-0.31884013900644537,"37":-0.2437805677592986,"38":-0.05698364445807453,"39":0.5469023260397522,"40":-0.3253975671166924,"41":-0.12731606033504175,"42":0.23020775389454692,"43":-0.026601887699860466,"44":-0.08426299730839426,"45":-1.050902541384793,"46":0.06040921865447722,"47":-0.1503808571994838,"48":0.4725434796443931,"49":-0.0049264039441043956}},"36":{"bias":-0.11788013831281792,"weights":{"0":0.034429260123971614,"1":0.2540868860621123,"2":0.3206747304740451,"3":-0.6577247177913899,"4":0.5699135962576253,"5":0.5691350400479739,"6":-0.6629710218600322,"7":0.49313780505454086,"8":-0.7110166788404905,"9":-0.46449010966163806,"10":0.25500414657298126,"11":0.17727992424397715,"12":0.07693052081475427,"13":0.4493866318124615,"14":-0.0622823063015874,"15":-0.10654560646577657,"16":0.0320000339771452,"17":-0.19605821574224208,"18":0.3537398381939802,"19":0.17200872632760209,"20":0.07466334542308839,"21":0.30670561872965274,"22":0.22976585426638482,"23":0.15260548933593646,"24":-1.3223474071649626,"25":0.18284108813351585,"26":-0.7972502292203243,"27":0.19592588027900476,"28":-0.48237673540308196,"29":-0.01394352572644443,"30":0.3500119942400239,"31":-0.21539010378173482,"32":-0.40274998797522826,"33":0.048481805087892696,"34":0.2985971492854709,"35":-0.009381035115889395,"36":-0.17012360938349294,"37":-0.04668335345111004,"38":-0.18223499836767834,"39":-0.38588719541746586,"40":-0.04635388236031312,"41":-0.7293368364407163,"42":-0.20268784756686412,"43":0.34958953286387906,"44":-0.7303476859168105,"45":-0.7246794803514781,"46":-0.5196260323668478,"47":0.2910227096295315,"48":-0.22826712223896542,"49":0.09826522039437433}},"37":{"bias":-0.28650169056255087,"weights":{"0":-0.01804282768495974,"1":-0.3270772678456244,"2":-0.17321679435489917,"3":0.35461167406772226,"4":0.03780097468000124,"5":-0.19331055764388116,"6":0.5917991618360721,"7":-0.058404250798853904,"8":-0.6565251702950359,"9":0.1361125165225346,"10":0.0033344605421332593,"11":-0.1094588483130653,"12":-0.2472157156259124,"13":-0.2225694912189876,"14":-0.3938302422930561,"15":0.0958599203799826,"16":-0.19744671034896616,"17":-0.05367998534914325,"18":-0.1282575699073746,"19":-0.18659210719382763,"20":0.32845305053515284,"21":-0.2489063452212904,"22":-0.20628844088402126,"23":-0.19553737509901972,"24":-0.6299189221706897,"25":-0.09554054870353292,"26":-0.47070261190840995,"27":-0.19557802903904872,"28":0.647609371436172,"29":-0.28745887910588935,"30":-0.013059955792604723,"31":0.055863898542567667,"32":-0.24245785258600183,"33":-0.012027475267302414,"34":-0.2208559433820397,"35":-0.16505877012445075,"36":-0.1849488337290178,"37":-0.3485257914313227,"38":-0.006746190761935497,"39":-0.01135736162615561,"40":-0.1169976947463822,"41":-0.16023300946183575,"42":-0.14832963539391192,"43":-0.03203092235946823,"44":-0.12529750960155164,"45":-0.6432822685075829,"46":0.07694859350332708,"47":0.10800552075399827,"48":0.3296338570909247,"49":-0.2259823081022286}},"38":{"bias":-0.21422614640571735,"weights":{"0":0.10900806771325582,"1":-0.1434554705503902,"2":0.12526237831282827,"3":-1.4046084433825592,"4":0.3195886205302717,"5":0.5286881863918765,"6":-0.8047765239424275,"7":0.28386715102146937,"8":-0.6085459217202623,"9":0.06957770350506474,"10":-0.1169682119298109,"11":0.09927361064510629,"12":-0.05375709077008922,"13":0.1390992281049235,"14":-0.4065361085173964,"15":-0.22810760817649864,"16":-0.13758330032578042,"17":-0.06563098584506674,"18":0.10278860653072834,"19":0.2175415264012115,"20":0.31853301385731314,"21":-0.16522361771808694,"22":-0.1487754752162855,"23":0.8053302587821404,"24":-1.215450582780599,"25":-0.31472942143313115,"26":-0.5586787922591641,"27":-0.057446115165477755,"28":-1.3810109473346217,"29":-0.25192121151913593,"30":0.35185575944704434,"31":0.12455946455042458,"32":0.06599372601438071,"33":0.27462545641201314,"34":0.10090728140617014,"35":0.024929013372738455,"36":0.1605800768419989,"37":-0.007790765236287127,"38":-0.17230357663602058,"39":0.03787302292677687,"40":-0.10979559972452663,"41":-0.26974998195283895,"42":0.2189420426603859,"43":0.1364610313853636,"44":0.06072908917128461,"45":-0.49450471611455327,"46":-0.34263273384472426,"47":0.07690663000739967,"48":-0.4072985379199155,"49":0.21718010766241905}},"39":{"bias":-0.3770523041860357,"weights":{"0":0.13174675629479862,"1":0.3850509384136521,"2":0.5627910513638232,"3":-0.14151974823852653,"4":0.12506637571925108,"5":0.6007516033046856,"6":-0.4535252709365418,"7":0.10757799921783408,"8":-0.5107231195296182,"9":-0.5366359238784935,"10":-0.040546451742415925,"11":-0.17464767775301968,"12":0.05721012237672485,"13":-0.06662570923686145,"14":-0.052630861188073315,"15":-0.010667206183154932,"16":-0.29516715862969606,"17":-0.25474271090381595,"18":0.058169369083151505,"19":0.16375122843066117,"20":0.10390614730118014,"21":-0.19210113208042612,"22":-0.05871516742549704,"23":-0.21141358560920942,"24":-0.5003904810637008,"25":0.1755206166327279,"26":-0.20607901285140576,"27":0.11789011154687923,"28":-0.2588888800385454,"29":-0.024179785982609652,"30":0.6500031021863986,"31":-0.17464748464235258,"32":-0.4635690249495621,"33":-0.04456525805137255,"34":0.11376609125825167,"35":-0.13891317678009624,"36":0.05514602251091571,"37":0.005690033075974567,"38":-0.28602057159682814,"39":-0.5585999223752115,"40":0.04730959772015246,"41":-0.4258995710154838,"42":-0.13701834286686645,"43":0.1426542413305217,"44":-0.5050639891378744,"45":-0.17260100443712695,"46":-0.5971354676722079,"47":0.08356734111358154,"48":-0.3113401749491754,"49":0.1483850320345239}},"40":{"bias":0.32779872435184737,"weights":{"0":-0.0038237636395683553,"1":0.009534267111711871,"2":0.42524464597686307,"3":-2.0588720371246514,"4":0.03904076347960281,"5":0.4033122741820623,"6":-1.3904125172074222,"7":0.8877608854455238,"8":-1.0001048291834174,"9":0.3198823867267948,"10":0.050490340728327254,"11":0.14907859754104227,"12":-0.022905714674186724,"13":0.35845518481924915,"14":-0.3192514500372712,"15":-0.04811937146067548,"16":0.26853617931308277,"17":0.44080115961512245,"18":0.31448574373801846,"19":0.02701194912710653,"20":0.7692940578876025,"21":0.1471638689183334,"22":-0.11912586925312169,"23":1.2693520807170569,"24":-0.4925650170508457,"25":-0.0029423208750678806,"26":-1.071358648695096,"27":0.2018286353867254,"28":-0.6442683661954154,"29":-0.17592495922442278,"30":0.6848294279892881,"31":0.7354896344714551,"32":-0.20787767922048406,"33":0.5860409628601404,"34":0.1503933203070722,"35":-0.20766795684277212,"36":0.008026599579675596,"37":0.13107818651756736,"38":0.11569988589695165,"39":-0.15139160196646648,"40":0.1380443783897859,"41":-0.32778968960288085,"42":0.596786292626475,"43":0.26179292936731285,"44":-0.2849757229851314,"45":-0.8455721079427271,"46":-0.6117381617154928,"47":-0.0438509254463425,"48":-0.9907013952685596,"49":0.5122228902546735}},"41":{"bias":0.17242155531870393,"weights":{"0":0.07764616908597302,"1":0.4353131270664256,"2":0.26675547715663717,"3":-2.306917407227255,"4":0.22271367828765018,"5":0.5305564310383395,"6":-1.3758802480912768,"7":0.6937088086770357,"8":-0.4963700208171498,"9":-0.22728371483060542,"10":0.29514319672242156,"11":0.24711914128166085,"12":0.3135862279985263,"13":0.11684577588028872,"14":-0.08057711514984853,"15":-0.28034865997859126,"16":-0.05337746796550055,"17":0.3124049415419666,"18":0.3173252437700272,"19":0.41203647768425716,"20":0.32034361794722316,"21":0.10309926436384834,"22":0.1278876421323546,"23":0.6806624381554999,"24":-1.1617078351488233,"25":0.23604112820839515,"26":0.09928857645497408,"27":-0.05686460616920178,"28":-1.8705565604762497,"29":0.23481321206560155,"30":0.4028729420008613,"31":0.11960968228549408,"32":-0.4972571621455306,"33":0.5427220055247217,"34":0.33073812573282085,"35":0.23322614462614222,"36":-0.06269927998759721,"37":0.12368070184950616,"38":-0.22461197045917286,"39":-0.4152216142207122,"40":-0.07902206867537546,"41":-0.03658181666631169,"42":0.22698707332788992,"43":0.22626403842812473,"44":-0.5867034738502276,"45":0.13210129901455975,"46":-0.7350855780809367,"47":0.10086884216907804,"48":-1.0399193687335309,"49":0.5535723738058492}},"42":{"bias":-0.45892955701645055,"weights":{"0":0.31493050718384336,"1":-0.45349516582834354,"2":0.2892203582360475,"3":-0.26201459950418443,"4":0.3715499474036977,"5":0.9887404136404233,"6":-0.5379266577786308,"7":-0.09834445527286816,"8":-0.5808364708662369,"9":-0.4390250702405543,"10":-0.16136953006962704,"11":-0.024874291378495183,"12":0.08460221389632387,"13":0.5414202528719333,"14":-0.2511397858048255,"15":-0.15911239697204904,"16":-0.16381767322200058,"17":-0.45667820559627365,"18":0.35103339020343555,"19":0.24054465162598562,"20":-0.15922786474203435,"21":0.21922611516916488,"22":0.2779934078815659,"23":0.017301515724120402,"24":-0.7142611244121349,"25":-0.4170699369260957,"26":0.867556181173392,"27":0.0798425937560088,"28":-0.972236617794844,"29":-0.17091095683318966,"30":0.19249618304639113,"31":-0.6582100791159238,"32":-0.3360411269536214,"33":0.07590451169898872,"34":0.25727134014648084,"35":0.32719729745001835,"36":-0.08746215984936115,"37":-0.14675474362219873,"38":-0.08298235781688024,"39":-0.4489341728075438,"40":0.11758198155582449,"41":-0.6308915930338871,"42":-0.33277949726120415,"43":0.1151275237905152,"44":-0.5018144002734103,"45":1.104699800931681,"46":-0.2626152240929576,"47":0.15931727575917057,"48":-0.44877669761778777,"49":0.19284489350418327}},"43":{"bias":-0.12739765500203443,"weights":{"0":0.11916110147040461,"1":-0.28357576457196915,"2":-0.39665587758756976,"3":-0.7027724224968704,"4":0.05091763561252346,"5":-0.46711850374559516,"6":-0.38966407567447414,"7":0.24301653562039663,"8":-0.5175937403874069,"9":0.06358074561042766,"10":-0.013753974063424903,"11":0.04294236203040392,"12":-0.23838144857540902,"13":0.10043656239396026,"14":-0.19758868945544514,"15":-0.1282870942173551,"16":0.1884498287451471,"17":-0.07307799143470275,"18":0.2267446908514375,"19":-0.34580063621584595,"20":0.6273526747493696,"21":-0.10408614201926705,"22":-0.02711375594726732,"23":0.35988595229390585,"24":-1.7799148291210338,"25":-0.29655564065585893,"26":-0.9969330924121856,"27":0.009590074928226248,"28":-0.029045994617464384,"29":-0.10842617141364379,"30":0.11022997394798159,"31":0.34322869875624795,"32":0.12993744555976225,"33":0.3282543847061422,"34":0.06801146617866265,"35":-0.32407766491418005,"36":-0.08031622621189331,"37":-0.3237928793685784,"38":0.11917931245891263,"39":0.2477111827023788,"40":0.0009489418293935408,"41":-0.17563313576572226,"42":0.3209028335450733,"43":-0.31885669931248106,"44":0.36590394260752895,"45":-1.1777884570010668,"46":0.11205840232790906,"47":0.07026233715912839,"48":-0.3707020987718007,"49":-0.02612440952554015}},"44":{"bias":-0.4987430133353779,"weights":{"0":0.36336816259930954,"1":-0.280122996208282,"2":-0.023764598305709005,"3":-0.6122415360682569,"4":0.5469293195027489,"5":0.6624767725860198,"6":-0.4394944292695643,"7":-0.11845332462955904,"8":-0.2336062915846842,"9":-0.49498002779420447,"10":0.11979802266316343,"11":0.0244116210996662,"12":-0.07008151170234928,"13":0.5617379218593893,"14":-0.4835757194231017,"15":-0.044906712793950254,"16":-0.3441652489639763,"17":-0.4917827922206061,"18":0.47168784742882247,"19":0.27732521699832957,"20":-0.11684576096178317,"21":0.12205680741657506,"22":0.02529586972276618,"23":-0.31440567306545864,"24":-0.6086847599015374,"25":-0.32839710451626725,"26":0.3513281091750488,"27":-0.08255893555356461,"28":-0.9753233072217292,"29":-0.09770697386413828,"30":-0.0522631894804767,"31":-0.3960728908162726,"32":-0.2307582054221219,"33":0.07039325262870008,"34":0.16869138921481514,"35":0.17376288586140043,"36":-0.10985853518673129,"37":-0.0075833286215862055,"38":0.00813386523466796,"39":-0.3972474408323933,"40":-0.1697236024850487,"41":-0.8698481912862963,"42":-0.11749376156527463,"43":0.23948899398666693,"44":-0.6768657138626509,"45":0.6060217747629943,"46":-0.47997587170234207,"47":0.4619753180421127,"48":-0.24940945529696476,"49":0.43805898814803756}},"45":{"bias":-0.2249258148752773,"weights":{"0":0.2540043045030743,"1":-0.30361673475183093,"2":-0.36178935979140625,"3":-0.6510556375554019,"4":0.2945697368000419,"5":-0.07381788350907308,"6":0.18665641378838335,"7":-0.21517151795053174,"8":-0.33151404778128507,"9":-0.0029932968643502458,"10":-0.28995601688465084,"11":0.21011507449905797,"12":-0.35314938495584997,"13":0.3897838020635774,"14":-0.5565785393266656,"15":0.2503428030052486,"16":0.04833107880047904,"17":-0.48610022889927207,"18":0.22407258417836484,"19":-0.08456804671972916,"20":0.4352653125931233,"21":0.07604291750050063,"22":-0.14637380907178807,"23":0.16178661784594958,"24":-2.0992380223716927,"25":-0.257851362581622,"26":-0.7692064076568098,"27":-0.2589415891885355,"28":0.14971968443305858,"29":-0.4033887545380053,"30":-0.3843019469458129,"31":0.009772663073968292,"32":0.015738981252317763,"33":0.37653187407715855,"34":0.21070745329778104,"35":-0.25691650838505886,"36":0.03665167422532734,"37":-0.2330298653130011,"38":-0.11980349075892745,"39":-0.015728909481369104,"40":0.1323999875421532,"41":-0.13149067198027187,"42":0.2930303661487581,"43":-0.030037926465217846,"44":0.20653140427427388,"45":-0.909540749533531,"46":0.41077993736374135,"47":0.2659055898931778,"48":-0.07617023724163162,"49":0.7316719514527327}},"46":{"bias":-0.5361636087212049,"weights":{"0":0.1742354029021076,"1":0.06142813284333207,"2":-0.10002398733828681,"3":-0.18714559265107045,"4":-0.07319971880247944,"5":0.11472551730370674,"6":-0.020228345037618112,"7":0.1238194185330181,"8":-0.5391308822012145,"9":-0.15099108269294453,"10":-0.14420516511989576,"11":-0.09447949399126424,"12":0.17480452472502456,"13":-0.1452591313212056,"14":-0.09038367820099802,"15":-0.24253016580065676,"16":0.07805150900623921,"17":-0.24138558783866004,"18":-0.1880433880170395,"19":-0.03576413815438077,"20":0.03927318556440822,"21":0.06948188538737389,"22":-0.09704520024928104,"23":-0.33328541252600835,"24":-0.1735219704464979,"25":0.031185193761514945,"26":-0.2440090967790847,"27":-0.13864354730481412,"28":-0.35877789724372033,"29":-0.023094965285404404,"30":-0.012279876700198008,"31":-0.21389606101548278,"32":-0.14756862413790037,"33":0.02487981947719787,"34":-0.04216698176290327,"35":-0.0013504695817032459,"36":-0.22745422579502905,"37":0.08386327258723307,"38":0.02270768355302339,"39":-0.3984220306484161,"40":-0.007986799645061899,"41":-0.4260141557573785,"42":-0.17158438307558785,"43":-0.21087502919182396,"44":-0.2602432252570779,"45":-0.14217077160279815,"46":-0.3747003305025683,"47":-0.008020148055896546,"48":0.06432400008866321,"49":-0.2802234133182435}},"47":{"bias":-0.9695643886154254,"weights":{"0":-0.386900682353062,"1":-2.1578195132614453,"2":-1.3090745498091223,"3":2.59897963710731,"4":-0.08875851449361515,"5":0.00010482848391828864,"6":2.7679279465078794,"7":-2.811427543634327,"8":1.9927151477966245,"9":0.14139749062944554,"10":-0.9506076110303939,"11":0.11330302375841704,"12":-0.9276766625008736,"13":-0.03623172726567327,"14":-1.8961511827882294,"15":0.1985380950918076,"16":-0.5489835495742763,"17":0.4100181996433869,"18":0.2606219692200927,"19":-0.7271574251133578,"20":0.04325234118983178,"21":0.2829446068801804,"22":-0.47171607120165876,"23":-0.20536076894855532,"24":5.249698020654599,"25":-2.1314081965723224,"26":-0.5100292262703959,"27":-0.5823208585577906,"28":1.9717220460395213,"29":-1.2940454717271512,"30":-2.3782657104881264,"31":-0.7376613473096115,"32":1.1897015752735374,"33":-0.2544209681751431,"34":-0.19724907907964512,"35":-0.6214580973512133,"36":0.22433150455498643,"37":-0.5964698847531152,"38":0.04186301201266064,"39":0.42229364290423127,"40":-0.21233947630360542,"41":0.03959159858919738,"42":-0.45981526088135966,"43":-0.4611514939050786,"44":0.07408920167952124,"45":-0.6340142312671275,"46":1.2327803105508865,"47":0.27566689026451335,"48":1.342460668698384,"49":0.142419136731117}},"48":{"bias":0.07989874693191326,"weights":{"0":0.2565657774940963,"1":-1.6204520430230223,"2":-1.4255342225559637,"3":-1.640043393790634,"4":0.6366310250636257,"5":0.8388532745807472,"6":0.2872263035028684,"7":-2.0479124986151067,"8":0.3688276912546231,"9":1.0288658603066483,"10":-0.3885005603549742,"11":0.5001058429134826,"12":-0.9436004722247545,"13":0.9070685624166195,"14":-1.5173323775495922,"15":0.33402331139078245,"16":0.0987112063219914,"17":0.2573163853326265,"18":1.0373331474316316,"19":0.03933672613287793,"20":0.324872461030676,"21":0.8731104373755405,"22":-0.6540133624336462,"23":0.9554161816850759,"24":-0.8055484963453023,"25":-1.3206901394080501,"26":-1.3858829357092695,"27":-0.33663489329379154,"28":-0.2342184487801921,"29":-0.8828465291899216,"30":-1.383166441534997,"31":0.2831935735122432,"32":0.9433056528200651,"33":0.6977391715990221,"34":0.6175944399103729,"35":-0.6864137703730311,"36":0.5016790178523217,"37":-0.38207803858248,"38":0.39186573556785975,"39":1.1074015911939123,"40":0.13016587951123748,"41":0.36252270161362676,"42":0.4801070728585194,"43":0.16141680717319273,"44":1.2482528662028947,"45":-1.6974492329904614,"46":1.1447402035650147,"47":0.8126503045297234,"48":-0.07239214659607174,"49":0.26931702598155693}},"49":{"bias":0.8066729764214771,"weights":{"0":-0.20102884480906907,"1":-0.3183230121172334,"2":-1.46203350443393,"3":-0.7814275409573382,"4":-0.03541574975145674,"5":-0.7513847977163027,"6":0.1453189921815057,"7":2.083494446526889,"8":-2.9848527509555223,"9":1.8030868559378739,"10":-0.3198797012117779,"11":0.8404595892184836,"12":-0.09817795991193817,"13":-0.11117261810937742,"14":-1.2144153600920888,"15":1.0399284624476106,"16":0.3996920096562516,"17":-1.715135993888601,"18":0.36410702378035814,"19":-0.8319732829125263,"20":3.1375829792139687,"21":0.46669589996745536,"22":-0.3897688802376699,"23":1.9259244473448807,"24":-4.580346418668156,"25":-0.6876091746167612,"26":-2.7335401915188218,"27":-0.6673406952832956,"28":1.3158635664618177,"29":-0.9691229379045581,"30":0.05429113227696262,"31":1.1627249545498959,"32":-0.06973792602703408,"33":1.546232630043443,"34":-0.8630523655211138,"35":-1.0302763582373418,"36":0.898533325401372,"37":-0.46228413939648766,"38":0.568514221362988,"39":0.7027364415439873,"40":0.09855546178346855,"41":0.9861647079834771,"42":1.7719668052296704,"43":-0.44078751390065274,"44":2.1219582669794272,"45":-2.6258388233584546,"46":1.1139088528262555,"47":-0.21833765210249756,"48":-0.5120144990817418,"49":-1.9308751703145788}},"50":{"bias":-0.017864972844193912,"weights":{"0":-0.01392985522492851,"1":0.2215683380620755,"2":0.33687859533617515,"3":-1.9539082756281836,"4":0.3018947820865775,"5":-0.2701831383286652,"6":-1.5163281198532312,"7":1.3395191184160224,"8":-0.738754777703344,"9":0.07198044420180263,"10":0.2050252875429902,"11":0.15928884410108207,"12":0.2724292481258989,"13":0.3795322196347903,"14":-0.13170970121525752,"15":-0.18298834198192532,"16":0.07042445408863636,"17":-0.021006212440659627,"18":0.29890371212724903,"19":-0.049690081467481245,"20":0.3789792284123253,"21":-0.10410122530394607,"22":0.05620524668563551,"23":0.5997003893318283,"24":-2.8440502910858703,"25":0.009588517977532155,"26":0.8491567968503984,"27":0.2004767497035199,"28":-1.640348166324192,"29":-0.10636383238589073,"30":0.6529875115901755,"31":0.1547360441260844,"32":-0.05693419320529775,"33":0.35617940302984896,"34":0.14030642321539116,"35":0.7012190851490031,"36":-0.05196809657937514,"37":0.16688772479405162,"38":-0.14313485277078591,"39":-0.0015653191721542174,"40":-0.20191479320837735,"41":-0.11940581253699312,"42":0.2160506395430058,"43":0.15274996979501004,"44":-0.14188766236650713,"45":0.8491182720483814,"46":-0.1446680512978129,"47":0.12433689559402279,"48":-0.9169852132141897,"49":1.0022419700840202}},"51":{"bias":-0.04301639933772714,"weights":{"0":-0.29266783594543955,"1":-0.09491026743735352,"2":0.6397148635386384,"3":0.18118259008136456,"4":-0.19147067915170357,"5":-0.32601501147461615,"6":0.03112817230136453,"7":-0.4003938710091606,"8":-1.1434816264970076,"9":-0.24450338501318392,"10":-0.15740408088241406,"11":-0.21311900518476137,"12":-0.3287463757650294,"13":-0.5269431725101328,"14":-0.34224089936021423,"15":0.14209426697227442,"16":-0.08370201648701939,"17":-0.3276160758398311,"18":-0.4908259907839284,"19":-0.27138604922851356,"20":0.3573227944238871,"21":-0.4770347377894845,"22":-0.2505706518114122,"23":0.5016094185191475,"24":-1.5118349461296603,"25":-0.1616904623159931,"26":-0.9030961937232886,"27":-0.11998769487057931,"28":0.6698503445226702,"29":0.04142177494426958,"30":1.1525533682201694,"31":0.13461002008555825,"32":-0.24376577875716884,"33":-0.1468494706507681,"34":-0.38448558652305465,"35":-0.23193097252603792,"36":-0.1025902185673102,"37":-0.1682483032648349,"38":-0.0704588655493797,"39":0.5385508031284214,"40":-0.3724910417806891,"41":-0.35794095770471973,"42":0.37443238438388227,"43":-0.16896831125239706,"44":-0.25004850848491944,"45":-1.122149749903628,"46":0.021020019119176375,"47":-0.22769355957432244,"48":0.35097302494296617,"49":0.11778323789229245}},"52":{"bias":0.7513748644072742,"weights":{"0":0.29030760319883997,"1":-0.3152730156297374,"2":-1.2300325381975055,"3":0.5378323502727786,"4":0.4079829426683937,"5":-0.3817710866157061,"6":1.782899677386011,"7":-1.3582803722873489,"8":0.38514854712761926,"9":1.656708549864479,"10":-0.25974555997755744,"11":0.7710972095356284,"12":-0.6858907474511022,"13":0.5242485979286122,"14":-0.06712937648152201,"15":0.4819114491408285,"16":0.27331709024447093,"17":-0.9243507133881866,"18":0.8040045448848973,"19":-0.16046430990174482,"20":1.505540774856949,"21":0.9286624246370655,"22":-0.13252290178310944,"23":-0.24049619220396015,"24":-4.333492502672191,"25":-0.3685199610600157,"26":-1.7574466806538587,"27":-0.16778634178123197,"28":-0.5193159734433233,"29":-0.6025797141985859,"30":-1.0383723517005536,"31":0.09396955782106169,"32":1.3212088622398497,"33":1.096146430977185,"34":-0.055412716896262725,"35":-0.9304322368921696,"36":0.7431332831492594,"37":-0.366049076725999,"38":0.7129803947264136,"39":0.7093512295256353,"40":0.28257008894033836,"41":1.1885487502342356,"42":0.5561715187846109,"43":0.07125105965867154,"44":1.9975834670325017,"45":-2.7762391889959748,"46":2.118424872708165,"47":0.4202767818294614,"48":1.05439399247149,"49":-0.05667731997605316}},"53":{"bias":-1.010775730248669,"weights":{"0":-0.6183204411405583,"1":-1.2992412680224399,"2":-0.3615929555687445,"3":1.0402185395758738,"4":-0.7202932626198119,"5":-0.8236058191699289,"6":1.1769876584219008,"7":-1.780970175293232,"8":-0.3548590051448059,"9":0.16087899217971902,"10":-0.7868584531686099,"11":-0.2711621983968797,"12":-0.8231393605220654,"13":-0.5117428526560139,"14":-1.5585511109150987,"15":0.023795801169952377,"16":-0.4800082910024736,"17":0.42172067142927966,"18":-1.0107888395207378,"19":-0.8778250605252017,"20":0.7099822970409395,"21":-1.010571567357808,"22":-0.539231902771908,"23":0.8925914036815941,"24":1.5891619747895775,"25":-1.4394216182730692,"26":-0.6617902029503534,"27":-0.2641057932168915,"28":1.3124765410586374,"29":-0.9809625643834564,"30":-0.009698777199111129,"31":0.32867577114354646,"32":0.27213185010114055,"33":-0.3119911092898341,"34":-0.8990127946618213,"35":-0.6431629994502269,"36":-0.33254796132247744,"37":-0.9505688062526844,"38":-0.2757571088517321,"39":1.2954111802523802,"40":-0.7078325313494437,"41":0.019798707260118616,"42":0.19047880714380455,"43":-0.5897110671846177,"44":0.3549637829751393,"45":-0.7019779731687611,"46":0.6729945334404633,"47":-0.8209905753071247,"48":0.42613129613428463,"49":0.08206195923268704}},"54":{"bias":-0.4296339185638456,"weights":{"0":0.3166060322074076,"1":-0.15587024001712294,"2":-0.25581749627635875,"3":-1.2832795327690847,"4":0.4469923432737081,"5":0.3540923346219716,"6":-0.6345152842345171,"7":0.4809077634579755,"8":-0.3693541828770685,"9":-0.17868301349805782,"10":0.04320818119426754,"11":-0.02516260250878038,"12":0.07915937227624138,"13":0.16698753170901134,"14":-0.29610210393001346,"15":-0.06837272404270162,"16":0.04764208447928861,"17":-0.19950636366356478,"18":0.20600671107353466,"19":-0.10041921545102951,"20":0.01623574055575978,"21":0.36832535483727913,"22":-0.13876983680392976,"23":0.25781900503347177,"24":-0.6427972885879321,"25":-0.15765757559741572,"26":-0.2917265312129229,"27":0.1126475698561548,"28":-0.7808354201986919,"29":-0.15067494636847514,"30":-0.3310464018689722,"31":-0.25944107150345086,"32":-0.2264922903316861,"33":0.3086036574613234,"34":0.20339979821144447,"35":0.028501651655266264,"36":0.1116401757062736,"37":0.08549250866003805,"38":0.0224537523274191,"39":-0.048970475097781824,"40":-0.11770110476741165,"41":-0.37510401629408835,"42":-0.08987344642511605,"43":-0.03271563447023164,"44":-0.35591220812608443,"45":-0.09528024079974383,"46":-0.26002846296408694,"47":0.3192193072332447,"48":-0.46254549842246645,"49":0.22491306783547135}},"55":{"bias":0.23995533193048527,"weights":{"0":0.15460591714364477,"1":0.4004084148067167,"2":0.016546198568775875,"3":-2.7481221617720877,"4":0.3945540945256135,"5":0.8561588437794182,"6":-1.9806258740287108,"7":0.357770891738656,"8":-0.17996105972114773,"9":-0.09819263588410307,"10":0.2401443973005914,"11":0.5145033982106756,"12":0.13071006663043386,"13":0.4126761628151811,"14":-0.24374403402316708,"15":-0.4472683052572707,"16":-0.027938754351874737,"17":0.07029025907452022,"18":0.7044788284668423,"19":0.33718657623853016,"20":0.2564296624086489,"21":0.5516590476461115,"22":0.18318870507090285,"23":0.6846390720841208,"24":-1.5384827872206916,"25":0.3895766641397636,"26":0.016628822000246714,"27":-0.24388517917711341,"28":-2.130262764300497,"29":0.13012092869096814,"30":0.04640371881585974,"31":-0.020323977455274173,"32":-0.6644717329559758,"33":0.829907065211361,"34":0.42228376475853335,"35":0.38314826608843233,"36":0.2879003616636767,"37":0.38460451434494064,"38":0.018381459761060776,"39":-0.8741447243569953,"40":0.22666183122330652,"41":-0.3805356186777939,"42":0.44403344533564026,"43":0.03435997746133332,"44":-0.6620971513413049,"45":0.15381971348360587,"46":-0.928043053001121,"47":0.5294227259932365,"48":-1.6409217134659768,"49":0.7679900337256819}},"56":{"bias":-0.4523091605860553,"weights":{"0":-0.4527190342562439,"1":0.2597439424691074,"2":0.6277467459291847,"3":0.6851511368468794,"4":-0.4723055986226561,"5":-0.2424872283201255,"6":0.1380236141198766,"7":-0.3471001780053341,"8":-1.0661915482655258,"9":0.02630350293086503,"10":-0.1186793327468266,"11":-0.26893076184431935,"12":-0.1900208388916499,"13":-0.25153489261417256,"14":-0.34897742533354775,"15":0.00404755602578487,"16":-0.2848878258732497,"17":-0.08955167878559624,"18":-0.5170782620618775,"19":-0.4078742337853844,"20":0.44309060011529955,"21":-0.7759113062573648,"22":-0.23034834249047478,"23":0.38883488657254633,"24":-0.5150413892572372,"25":0.20365561491664344,"26":-0.9825262667075727,"27":0.06062150849374597,"28":0.7360199550592501,"29":-0.28912190413226413,"30":1.138452826926043,"31":0.3419458477482582,"32":-0.5144613951907705,"33":-0.1512597957976401,"34":-0.5852987119511093,"35":-0.3066050264025226,"36":-0.20891365970489234,"37":-0.32761472511998396,"38":-0.1741707801002964,"39":0.3582080775454092,"40":-0.15957846073129198,"41":-0.2993505326458532,"42":0.25608434259128365,"43":-0.04227679059857198,"44":-0.30393835278318415,"45":-0.9059752005787145,"46":-0.12061122814019677,"47":-0.6056594649086596,"48":0.2934501276764423,"49":-0.24445782443823377}},"57":{"bias":-0.9084158910728628,"weights":{"0":-0.21937119485968376,"1":-0.9953420906054439,"2":-0.36575803641218657,"3":2.062389857055825,"4":-0.3294969534056221,"5":-0.4011673591560321,"6":1.603828256526993,"7":-1.4688538658564085,"8":-0.4361545957257849,"9":0.1908330549216265,"10":-0.43190209286854275,"11":-0.0189801090329237,"12":-0.7106210905385025,"13":-0.2875909040377333,"14":-1.0921807501548269,"15":0.08752323256484265,"16":-0.005856761070663863,"17":0.05931784831539883,"18":-0.34035247114976364,"19":-0.5958707541920581,"20":0.6122184394235651,"21":-0.3477832504503734,"22":-0.5646674129719368,"23":0.413850611069475,"24":1.2597352963858925,"25":-0.7210759164394046,"26":-0.7540516639337532,"27":-0.10696464360066146,"28":1.67095325765955,"29":-0.6436134054535464,"30":-0.0688796132667685,"31":-0.05871650298593606,"32":-0.0926520235178305,"33":-0.13453643306067994,"34":-0.637032878433252,"35":-0.6431960591973058,"36":-0.23628987176818378,"37":-0.610862457586426,"38":-0.03165649879998732,"39":0.5254918497530154,"40":-0.2817254939257984,"41":-0.5126768483093013,"42":-0.10613238434865793,"43":-0.26280859925409694,"44":0.1606167617749954,"45":-0.8017426138496739,"46":0.07836866882680264,"47":-0.5762440433817209,"48":0.964311049873288,"49":-0.28095689935995943}},"58":{"bias":-0.05392772162146593,"weights":{"0":0.006857972521019504,"1":-0.008427892761833203,"2":-0.18408070978106628,"3":-1.6434331135754774,"4":0.3905376709360343,"5":0.06363126797120139,"6":-0.9483319310485311,"7":0.6012832405694337,"8":-0.6205632805809763,"9":-0.09089911969426401,"10":0.14019440274880368,"11":0.13233161854043662,"12":0.10075206055247372,"13":0.3964951163613018,"14":-0.17237585199397945,"15":-0.029200006057991144,"16":-0.030020183745055388,"17":-0.2504218264557404,"18":0.27000479252138965,"19":0.02896259703551651,"20":0.32615122960184484,"21":0.36186978559046457,"22":0.21722019618242414,"23":0.2734963453375293,"24":-1.8236664585186437,"25":0.1407184847753613,"26":0.7397212132011787,"27":0.07803222573705569,"28":-1.5134490230567197,"29":0.049622827151283654,"30":0.1715382332902997,"31":0.1937665678647896,"32":-0.4885741798551511,"33":0.7189154000919857,"34":0.31705335027843223,"35":0.27902359059754933,"36":0.12798076439804423,"37":0.15616124116296767,"38":0.22043815750211151,"39":-0.2858015039904977,"40":0.08738275703942296,"41":-0.09000954273475377,"42":0.4127387013431076,"43":0.2348601123239506,"44":-0.03119052853607758,"45":0.4879443469810441,"46":-0.2946821192892333,"47":0.2717391574207947,"48":-0.8558629819227888,"49":0.24209605996027092}},"59":{"bias":-0.07352014532666899,"weights":{"0":0.252239845224321,"1":0.639481322585621,"2":0.3198528495110254,"3":-1.328308161012595,"4":0.4364534963268546,"5":0.4604901642251854,"6":-1.0323412459114854,"7":0.41521603915216243,"8":0.09586513924113797,"9":0.0020283590478277947,"10":0.2944054240131304,"11":0.05007694029899824,"12":0.3849848190449016,"13":0.2659037146040915,"14":0.36732470155472446,"15":-0.1462269883204471,"16":0.010221203194765742,"17":-0.1633848132178469,"18":-0.13194279513724533,"19":0.24955411372046293,"20":-0.05333743795407036,"21":-0.24048554613532733,"22":0.23695597537996657,"23":-0.09802573479382962,"24":-1.6169693121907338,"25":0.45583602396908285,"26":0.5262911263661383,"27":-0.1381147586840375,"28":-1.64971884322108,"29":0.1083052956042452,"30":0.6913724252358842,"31":0.02763869864199122,"32":-0.27472973545011325,"33":0.10048019489445481,"34":0.09741007946083796,"35":0.5977900387822893,"36":-0.13039788605935834,"37":0.3269598442481755,"38":-0.23816319050563226,"39":-0.14523058944978906,"40":0.07051059820024981,"41":0.055464070668139416,"42":0.09061166447974846,"43":0.19206034929557367,"44":-0.27842579115325505,"45":0.5637111292924394,"46":-0.07584904475870528,"47":0.1978395334312356,"48":-0.7726252779236819,"49":0.3793973303943876}}},{"0":{"bias":-0.29052366377256816,"weights":{"0":-0.18283105123871818,"1":-0.30765787662831046,"2":0.1281788571878384,"3":-0.38221015135525016,"4":-0.1647823934969045,"5":-0.2594081659113918,"6":-0.4412761524085126,"7":-0.31522989840228083,"8":-0.2669544028304079,"9":0.03136520064719518,"10":-0.3733773484491343,"11":-0.3239436903319407,"12":-0.24904385032194465,"13":-0.24864008215244432,"14":-0.33050386547500177,"15":-0.047653291230938734,"16":-0.17623249175395997,"17":-0.39380048415069085,"18":-0.3357422465028617,"19":0.15366202465582818,"20":-0.3501907710741087,"21":0.10205501962248766,"22":-0.018639951493397512,"23":-0.25611456351989503,"24":-0.2970209169107023,"25":-0.42934521255838404,"26":0.0475735466407786,"27":-0.17125829029871267,"28":-0.22921777319864986,"29":-0.148349953218422,"30":0.035722813559556726,"31":-0.34087131217363875,"32":0.013369272447936138,"33":-0.15147823069917266,"34":-0.04543597442567897,"35":-0.2608670121281982,"36":-0.19007285516436706,"37":-0.04895002701130714,"38":0.060005660881155234,"39":0.08866148453409373,"40":-0.12201928169704457,"41":0.04246068406451674,"42":-0.05428497486047671,"43":-0.3618378288072162,"44":-0.20500066039246692,"45":-0.3704294135856965,"46":-0.06483778359926967,"47":-0.1770352000474809,"48":-0.35176376847043356,"49":-0.1163997893674268,"50":-0.37195111040246,"51":-0.28231945563472916,"52":-0.4761803336932434,"53":-0.08568559333514619,"54":-0.07180957693436629,"55":-0.011078285100130146,"56":-0.020248633363246647,"57":-0.09200771447533006,"58":-0.34726552378362846,"59":0.032228450779009286}},"1":{"bias":-0.44600822189123174,"weights":{"0":-0.10792754626885466,"1":-0.24649484414367834,"2":-0.3792915813334532,"3":0.166683023940708,"4":-0.12943080997415424,"5":-0.16960218699496918,"6":-0.24728099159911548,"7":-0.005038778543336598,"8":-0.04622721687058018,"9":-0.0796796566948224,"10":-0.2047308728836284,"11":-0.09476367544874711,"12":0.1098627216912669,"13":-0.2581034026579364,"14":-0.22902059011237233,"15":-0.0747276926457066,"16":0.034523052584611434,"17":-0.05026880738826137,"18":-0.2511574018176959,"19":-0.25853954205204127,"20":-0.15150231503012135,"21":-0.15433866927753717,"22":-0.08277061909875164,"23":-0.08940940382961668,"24":0.1555685069179296,"25":-0.10386968684276733,"26":-0.13468818939853383,"27":-0.35917454874541604,"28":-0.2840452122640336,"29":-0.11758498947460012,"30":-0.1249151160282557,"31":-0.19636435719157508,"32":-0.04488181335139709,"33":-0.09390289339328325,"34":-0.2941464919953948,"35":-0.3816350283139381,"36":-0.2769410847879918,"37":-0.14258539648652432,"38":0.09892074207294241,"39":-0.18836313728952256,"40":-0.2257124772123745,"41":-0.20434173728328622,"42":0.034621678646510445,"43":-0.2882620444391057,"44":-0.3146001432171643,"45":-0.1166969441312533,"46":0.060129498164272946,"47":-0.40004404909797264,"48":-0.23045361228854613,"49":-0.44100565170287265,"50":0.04211713537872622,"51":-0.1702406680778802,"52":-0.21234513032284075,"53":-0.12399257180198339,"54":-0.12750368226793973,"55":0.02123892066755369,"56":-0.3925912529030215,"57":-0.07945176796808394,"58":-0.13195447963594287,"59":0.02279641006817006}},"2":{"bias":-0.3675817175765335,"weights":{"0":0.0695768552279129,"1":0.14967664567876415,"2":-0.8145213497719491,"3":0.23821629552068121,"4":-0.15611618527466092,"5":-0.24971437355034812,"6":-0.15858204780772275,"7":0.22783435766947172,"8":-0.19809128873762447,"9":-0.11117955294080284,"10":-0.013116974680367394,"11":-0.17105003038381458,"12":-0.2753469750275802,"13":-0.4410081735295459,"14":-0.03585570559748493,"15":-0.101714941071042,"16":-0.09381024615476492,"17":-0.27316154132755216,"18":-0.059162089559756235,"19":-0.10195420347075963,"20":-0.44476437712710504,"21":0.03638618238076002,"22":-0.3284418677051392,"23":-0.24715104054058484,"24":0.05144273877157895,"25":0.12212798463227531,"26":-0.18829168469191168,"27":0.018230423600182035,"28":-0.22911039170647785,"29":0.023458090889675192,"30":-0.16286789093206788,"31":-0.06438753786738124,"32":-0.6659631042269101,"33":-0.1979793622272579,"34":-0.213550778588431,"35":-0.34850733531585737,"36":-0.23943388680676095,"37":-0.09567820848100958,"38":-0.14549468728003598,"39":-0.11487948142093717,"40":-0.6164474647251371,"41":-0.2306103052820322,"42":-0.2561367996116489,"43":-0.25218093816519593,"44":-0.010056654162319007,"45":0.0943147594853026,"46":-0.1361262133396216,"47":-0.1888093913249248,"48":-0.13624733888727647,"49":-0.4725116975814656,"50":-0.2171063455854486,"51":-0.4287170628503712,"52":-0.15279672151187448,"53":-0.3009184778703872,"54":0.07808612296842732,"55":-0.3224997512202962,"56":-0.34470789244660527,"57":0.004336656712393521,"58":0.13182520546354135,"59":0.06864322874293564}},"3":{"bias":0.0843926624409326,"weights":{"0":-0.15329334370892658,"1":-0.47755234481452125,"2":-1.736728746256752,"3":-0.6415039188081877,"4":-0.49363404133294764,"5":0.12958505817419738,"6":0.030455661193560888,"7":0.4542776986412777,"8":0.10377090451958872,"9":-0.02972254136974146,"10":-0.6783575867190499,"11":-0.20823945784224743,"12":0.23000668440680683,"13":-0.24518402838499453,"14":-0.27138262630049304,"15":0.08371977403470664,"16":-0.11838333896485344,"17":-0.18444133274673874,"18":-0.27892820302251875,"19":0.03745108598623338,"20":-0.1581907230021604,"21":-0.17971706468829432,"22":-0.5884887208961601,"23":-0.19690348665083066,"24":0.7921195467892306,"25":-0.8290519513853291,"26":0.15391388082090376,"27":-0.3447065047620124,"28":-0.2999423391902716,"29":-0.21457787582045365,"30":-0.02641608546675297,"31":-0.0037033125135485173,"32":-0.1777705393390792,"33":0.39053633009157274,"34":-0.007536878769845948,"35":-0.061169877231846415,"36":-0.2198707350560218,"37":-0.31833607784669504,"38":0.02937456554971407,"39":0.35973431370840875,"40":0.07820135300444248,"41":0.6618323464267089,"42":0.05730330468067392,"43":0.08885672480715802,"44":-0.1903640207261641,"45":0.07607848827309109,"46":-0.17795879190203462,"47":-0.29365803096571036,"48":-0.5122333305867091,"49":-1.3279020109286026,"50":0.5208088196849673,"51":-0.019428091202261626,"52":-1.5369678372027262,"53":-0.18175973796542919,"54":-0.3822820658116067,"55":1.396375877947341,"56":0.15615636956212955,"57":-0.2186550865303703,"58":0.2472405469579566,"59":0.43736047043474213}},"4":{"bias":-0.2960882830623435,"weights":{"0":-0.03414460420172361,"1":-0.04348116558084661,"2":-0.813226504625576,"3":0.10106048285151577,"4":0.21404892615952922,"5":-0.43494795832049915,"6":-0.6570262291176914,"7":0.3620761261825688,"8":-0.1319484998193751,"9":-0.06777313516348796,"10":0.25184611301555576,"11":0.16786424615983075,"12":-0.3949818543215858,"13":-0.49000666207794874,"14":0.0012678873414705134,"15":0.10772813820505871,"16":-0.1325936549575028,"17":0.10637803243861957,"18":-0.3040311268404675,"19":-0.05721920725154121,"20":-0.7834969092239839,"21":0.03481958813158854,"22":-0.2928701455053387,"23":-0.6013441602650418,"24":0.03914920207487814,"25":0.020560364954373998,"26":-0.2634075912168495,"27":-0.17235083126814443,"28":-0.1445145061476642,"29":-0.25125617218719043,"30":-0.21163303956988608,"31":-0.24203799669945242,"32":-1.3890661717110322,"33":-0.8416245726344754,"34":-0.5216604116173932,"35":-0.31247293757092937,"36":-0.4369291030579752,"37":0.07897012645824987,"38":-0.09717795125923058,"39":-0.4624843570885335,"40":-0.3331318302242418,"41":-0.09771527151402616,"42":-0.0019475293779672054,"43":0.006722550168166998,"44":-0.15044319076825619,"45":-0.03607662914517596,"46":-0.04147369445758168,"47":-0.9480323807206789,"48":0.11955848726640052,"49":-0.3461244889121511,"50":-0.310232707495113,"51":-0.11918035764609494,"52":-0.1407135881308786,"53":-0.7526794000629773,"54":0.037225172765411416,"55":-0.1905367259348317,"56":-0.30049529631043886,"57":-0.16657561472121235,"58":0.10506486585709525,"59":-0.2092794772871028}},"5":{"bias":-0.22268710761683122,"weights":{"0":-0.00224724266149359,"1":-0.16301960649164737,"2":-0.30942792079701514,"3":0.1281081778319644,"4":-0.20586583672502415,"5":-0.24842872889269083,"6":-0.00387515140317836,"7":-0.09464587043408529,"8":-0.2230720748083648,"9":-0.028923620016289096,"10":-0.3934504852203498,"11":-0.053000348455931635,"12":-0.012774147076248467,"13":-0.025749707079789873,"14":-0.1431151431531173,"15":0.002867551138083404,"16":-0.08493799582203068,"17":-0.1553583681530492,"18":0.03649630918752459,"19":-0.25824619606637134,"20":-0.10465781740680304,"21":-0.020132253694253616,"22":-0.0553095572342464,"23":-0.324680641728324,"24":-0.08227815112677662,"25":-0.11537998537432666,"26":-0.2518159138814435,"27":-0.30194366439946885,"28":-0.11009576633859067,"29":-0.18804316021244438,"30":-0.03354079371419428,"31":-0.3157547605383575,"32":-0.2205515326441615,"33":-0.02591383767681074,"34":0.012869281661858314,"35":-0.09401194040034667,"36":-0.09112675645749656,"37":-0.31313754110360426,"38":0.06554910107798526,"39":0.17115142544130646,"40":-0.15623882066891687,"41":0.048800267895970785,"42":-0.2157719842266347,"43":-0.1315977265268457,"44":-0.3030822268454313,"45":0.03446978260038484,"46":-0.09456969583188912,"47":-0.2963249948094139,"48":-0.47855386871388644,"49":-0.6681072086999852,"50":-0.2079577870551823,"51":-0.18456476085608273,"52":-0.32074662730882264,"53":-0.1504751609604073,"54":-0.16082116105810743,"55":0.13685910831357026,"56":-0.23510762530878576,"57":-0.03342169697003392,"58":0.03234950433003908,"59":-0.11013261091549079}},"6":{"bias":-0.3258557604172028,"weights":{"0":-0.19193886922145045,"1":0.11577400724881648,"2":-0.8014310780212669,"3":0.033808606326344665,"4":0.10399463489184893,"5":-0.7016838808489272,"6":-0.3695496838936192,"7":0.14344672627584962,"8":-0.31705572356078965,"9":0.006628780737114069,"10":0.21436770159601384,"11":0.2252865889666474,"12":-0.4321934546325795,"13":-0.46788112157125894,"14":0.06889832755859886,"15":-0.02295020051968485,"16":0.14358844627757258,"17":0.2305431432890646,"18":-0.2787491142383305,"19":-0.12477048763407672,"20":-0.4662687326070348,"21":0.1625176871092921,"22":-0.23976231620710625,"23":-0.36381331743281453,"24":-0.3133397230457233,"25":-0.028889572438551843,"26":-0.09646649184270663,"27":0.10052508951887483,"28":0.14975582091286532,"29":0.0005682925823596579,"30":-0.04971185755175833,"31":-0.30569338099072696,"32":-0.5377088386762459,"33":-0.6378282146025009,"34":-0.5065867739345585,"35":-0.27754863232504523,"36":-0.2663591329696913,"37":0.08285169338017968,"38":-0.5117869151837757,"39":-0.07253540226436922,"40":-0.7449479664010744,"41":-0.13883430502097732,"42":-0.20254903160079557,"43":-0.22123231910647756,"44":-0.2795397021534261,"45":-0.0855938696590045,"46":0.03266885228914454,"47":-0.4356629515896232,"48":0.2716652699444066,"49":-0.6786813615616866,"50":-0.3924890259077831,"51":-0.434053949719138,"52":-0.013909547059119957,"53":-0.5456738674153577,"54":-0.23370971576642596,"55":-0.1565332451405382,"56":-0.13149687002724245,"57":-0.24202733610833618,"58":-0.2118600265494736,"59":-0.19308118030977447}},"7":{"bias":-0.3822154242607612,"weights":{"0":-0.12334611138531072,"1":-0.20641198562374144,"2":-0.6621225692968549,"3":0.041820838663115305,"4":-0.07699493600531374,"5":-0.44153392999091734,"6":-0.3011140476191191,"7":0.2369424288330249,"8":0.023608402277628865,"9":-0.06490614644484347,"10":-0.044600076466687115,"11":0.127285518501743,"12":-0.12443584291893195,"13":-0.4187302974815797,"14":-0.11285883898333594,"15":0.06398476696455682,"16":-0.11425802344540936,"17":-0.1531025708112362,"18":-0.05549052416527243,"19":-0.21927610082485263,"20":-0.43534776469665243,"21":0.08666152952054614,"22":-0.1497513715403238,"23":-0.2939186168698895,"24":0.19390970271120017,"25":-0.011385728998984804,"26":0.020996891520819794,"27":-0.27892590909347764,"28":0.0537065622115623,"29":0.03496832022131413,"30":-0.014232261376707451,"31":-0.0684602874372267,"32":-0.7957039998346365,"33":-0.5625743465718883,"34":-0.2620235193603419,"35":-0.2771055115220371,"36":-0.4216318638998222,"37":-0.058488996904098124,"38":0.04602490227154018,"39":-0.3146321424320874,"40":-0.08126736136044618,"41":0.04439690909749666,"42":-0.20771412107984644,"43":-0.08163161871358486,"44":-0.0824698640136331,"45":-0.27708595599060865,"46":0.08257845737778129,"47":-0.5082678239350975,"48":-0.2115095519156913,"49":-0.4304610535972,"50":0.05399724686133884,"51":-0.24879858707027977,"52":-0.4731404071252521,"53":-0.36687958782795477,"54":0.008670140512964313,"55":0.16411359857874905,"56":-0.4278586097984449,"57":-0.0841958794012997,"58":0.020181837497392142,"59":0.09869943985358687}},"8":{"bias":-0.2966427162912415,"weights":{"0":-0.18326894516562034,"1":0.25102718427948656,"2":-0.5226965837338067,"3":0.23680569883523186,"4":0.023050105847158744,"5":-0.5173410392834685,"6":-0.18049673695341015,"7":0.23596578135085386,"8":-0.3374375117133254,"9":-0.03793941896291782,"10":-0.1588910128237796,"11":0.0730319013952611,"12":0.015877416918316237,"13":-0.25356708907668446,"14":-0.07212379721269357,"15":0.10595064811826328,"16":-0.16185554165713456,"17":-0.06244612659528691,"18":-0.13549237474997666,"19":-0.04337409615633745,"20":-0.22491231825613625,"21":0.03358351676771334,"22":-0.07282265658256584,"23":-0.4531131000370648,"24":-0.07460284248312207,"25":-0.16109158023993272,"26":-0.16481013170669304,"27":-0.29473059229949705,"28":-0.21075564326642224,"29":-0.16606416133608312,"30":-0.2614780313583734,