{"layers":[{"0":{},"1":{},"2":{},"3":{},"4":{},"5":{},"6":{}},{"0":{"bias":-0.034733983313672896,"weights":{"0":-0.2125298284507427,"1":0.16404288326729344,"2":0.0032142546558271467,"3":0.12008900599957385,"4":-0.13143667774517945,"5":0.08112813517498058,"6":-0.1825816340514539}},"1":{"bias":-0.020336790329813444,"weights":{"0":-0.051910291320330315,"1":0.10201304320853027,"2":0.15636113622336414,"3":0.03899945304423223,"4":0.2680565409652111,"5":0.2115324143130596,"6":0.10205400380166316}},"2":{"bias":0.055300655661033746,"weights":{"0":0.006078185424693756,"1":-0.06586203144331117,"2":0.07479108883149535,"3":0.00794008101955057,"4":-0.08979476636242464,"5":-0.22692483330784344,"6":-0.18898494308447406}},"3":{"bias":-0.1848604947033525,"weights":{"0":0.1824367327669545,"1":-0.016659964428703922,"2":-0.13196686316747605,"3":-0.029927658315354537,"4":0.18327532911823072,"5":-0.10963448787449959,"6":0.026959321528963243}},"4":{"bias":0.10309341584567415,"weights":{"0":-0.05553322844184011,"1":-0.004373426151790532,"2":-0.27407426078420877,"3":-0.23712363597366165,"4":-0.29397231221041276,"5":-0.1962198264458015,"6":-0.130780166974014}},"5":{"bias":0.13505722806992618,"weights":{"0":0.0596959605639997,"1":-0.2712972281346504,"2":-0.18262803177370057,"3":-0.008278712138287648,"4":-0.20642206066651592,"5":-0.26975340512282736,"6":-0.03546531711534613}},"6":{"bias":0.16093459272274835,"weights":{"0":-0.34383985885532503,"1":-0.3007492112424479,"2":-0.19224169781944178,"3":-0.2698843980049178,"4":-0.007528869841812488,"5":-0.06645789828645089,"6":-0.35745778721948246}},"7":{"bias":0.03774029697610724,"weights":{"0":-0.08047405182477425,"1":0.001964883220339713,"2":-0.17194730879669892,"3":-0.2873055578484004,"4":-0.28719241402231543,"5":-0.15064110138070694,"6":-0.055295959232152206}},"8":{"bias":0.1884727993034718,"weights":{"0":-0.1337993918071913,"1":-0.06958684005141506,"2":-0.024559400698188863,"3":0.12482744425311908,"4":0.008905620486279396,"5":-0.07094369891667178,"6":-0.1645752426514391}},"9":{"bias":-0.28894608906910274,"weights":{"0":0.2860648366594017,"1":0.26938805491296214,"2":0.35643861324512427,"3":0.31590578328128466,"4":0.4103935327976959,"5":0.36741927123699697,"6":0.16122420248118974}},"10":{"bias":0.012587273787299414,"weights":{"0":0.18146437023985507,"1":-0.09739311595255289,"2":0.17943741074986266,"3":0.03477359818369445,"4":0.14436895892342883,"5":0.1252218600565691,"6":0.10290785978033558}},"11":{"bias":-0.0911460597080738,"weights":{"0":-0.16330048451739132,"1":-0.1338647966422507,"2":-0.1432267778523815,"3":-0.0826420503794634,"4":-0.16236351371498922,"5":-0.20700615229363148,"6":-0.019311019515043694}},"12":{"bias":0.07472468754550837,"weights":{"0":0.22175156614481956,"1":0.22346271576629506,"2":0.11470119976314025,"3":0.0007095668431635527,"4":0.052305386983979144,"5":0.2214022689835276,"6":-0.02820384176746258}},"13":{"bias":-0.18960885737737704,"weights":{"0":0.31915835977868523,"1":0.38209013106208384,"2":0.043171425201037894,"3":0.3292646594577664,"4":0.005903230259506103,"5":0.3599766510688915,"6":0.2792501549549081}},"14":{"bias":-0.009079113131560394,"weights":{"0":0.2590930579526215,"1":0.1720053170668424,"2":-0.046633778580415494,"3":0.13104208774927883,"4":0.11125191013767961,"5":0.25951891543368605,"6":-0.05299835213502023}},"15":{"bias":-0.1916584903806395,"weights":{"0":0.0324875196122849,"1":0.23010970228810357,"2":0.09533346901351503,"3":0.10553079620477358,"4":0.07047408364366423,"5":0.09578170841749373,"6":-0.014895231938796633}},"16":{"bias":-0.0077891666484356985,"weights":{"0":0.04773736332906549,"1":-0.16996056701853493,"2":0.014727493887945682,"3":0.18677829374202298,"4":0.133228246366193,"5":-0.11607615209438676,"6":-0.0785890976507302}},"17":{"bias":-0.2617518954356786,"weights":{"0":0.37094344801919854,"1":0.2508338474676774,"2":0.39772216206259525,"3":0.28811965476860324,"4":0.3189597645111042,"5":0.25307017430486206,"6":0.09626418441704693}},"18":{"bias":-0.044530854410622246,"weights":{"0":0.09338591862082887,"1":0.09011657269155328,"2":0.1582565999208206,"3":0.12444370218358246,"4":-0.18581118137748093,"5":-0.08503076466230848,"6":0.16900940996279046}},"19":{"bias":0.1155256104119232,"weights":{"0":-0.2925314878695058,"1":-0.10409171401795875,"2":-0.04728152660787352,"3":-0.18523154701001643,"4":-0.3356625283677776,"5":-0.0442099221365564,"6":-0.35743041905563144}},"20":{"bias":0.20870317627093676,"weights":{"0":-0.1699430102652169,"1":-0.07029992912704598,"2":-0.3187979581157349,"3":-0.36593612504778233,"4":-0.34251472174881786,"5":-0.1916871716689384,"6":-0.1493085343728633}},"21":{"bias":0.26410611686500407,"weights":{"0":-0.2848273095820549,"1":0.027159440486294643,"2":-0.2693635154202956,"3":-0.2186563546871409,"4":-0.2659488242882346,"5":-0.3612976661496618,"6":-0.3470933002409956}},"22":{"bias":-0.2546081449357254,"weights":{"0":0.10397246277776093,"1":0.11619637252673844,"2":0.2853166646123829,"3":0.3168719729318831,"4":0.3702001990277164,"5":0.20440794447476476,"6":0.030842849993100902}},"23":{"bias":-0.1120468215886705,"weights":{"0":0.2657705310358917,"1":0.18091136581623557,"2":0.020898249831907283,"3":-0.002324574672491768,"4":0.10628747612616724,"5":-0.062267061085558316,"6":0.1759236686497145}},"24":{"bias":-0.060925212000153994,"weights":{"0":0.029535276130273357,"1":0.019268495453250736,"2":0.257046188135925,"3":0.06718077511672353,"4":0.3591332155040224,"5":0.21426116465008338,"6":0.14674123091086758}},"25":{"bias":0.0061028336502406645,"weights":{"0":-0.10165881885651222,"1":0.044764277194093406,"2":-0.06469681299209816,"3":-0.23880897037227022,"4":-0.296948842209418,"5":-0.1969746183637622,"6":-0.2538072612366077}},"26":{"bias":0.17744681503955856,"weights":{"0":-0.2475051569557479,"1":-0.13397376615490195,"2":-0.10591454886217043,"3":-0.12496393868710202,"4":-0.017874281060460233,"5":-0.06830619243313106,"6":0.0007840010954883252}},"27":{"bias":0.09352596547667016,"weights":{"0":0.20643233415555232,"1":0.03775068596523411,"2":0.04294277706004023,"3":0.20123178390404037,"4":0.1757421192229585,"5":0.18692886899101344,"6":0.15512338409106946}},"28":{"bias":-0.09895776771389665,"weights":{"0":-0.16836245554540422,"1":-0.12425904938819513,"2":-0.03265436569084863,"3":-0.06113802083214406,"4":-0.18109239105582053,"5":-0.23774117294734987,"6":-0.15781982128393757}},"29":{"bias":-0.25431093054103515,"weights":{"0":0.36328051940372,"1":0.357032345073739,"2":0.00464388623826105,"3":0.3110459447932722,"4":-0.01932242776037416,"5":0.2540255147832239,"6":0.2577709000436503}},"30":{"bias":-0.11146633951245281,"weights":{"0":0.027506938515227786,"1":-0.12540752004264114,"2":-0.2261422349262297,"3":-0.1942182890381828,"4":-0.013253486579002023,"5":-0.2591868621763928,"6":-0.19223113966813007}},"31":{"bias":-0.036003155823197686,"weights":{"0":0.10419052806312484,"1":-0.09022616496814209,"2":0.04693532561934839,"3":-0.21222479416173382,"4":-0.05604839225730411,"5":-0.1943635772809934,"6":-0.04654689642732166}},"32":{"bias":0.1560098364925687,"weights":{"0":-0.13726623956478926,"1":-0.1357364622317661,"2":0.0028657807135497675,"3":0.12050164611829826,"4":-0.01622087818628237,"5":-0.024853295767627886,"6":0.09489506138628206}},"33":{"bias":-0.006651510180084586,"weights":{"0":-0.21962455010633677,"1":-0.0314474854995315,"2":-0.09125340978230721,"3":-0.2754063240806686,"4":-0.20741734305755108,"5":-0.1610951739065946,"6":-0.07164332162097167}},"34":{"bias":0.07558574898058773,"weights":{"0":0.28491901235733286,"1":0.05230445111389859,"2":0.26943370335102307,"3":0.3571432195531547,"4":0.14521069613086238,"5":0.18712141175546038,"6":0.26272723535504255}},"35":{"bias":-0.040543980774226045,"weights":{"0":-0.1728886755155523,"1":-0.099264807203142,"2":-0.050647402705980026,"3":-0.19205306889856616,"4":0.061052635318095565,"5":-0.1455735029272254,"6":-0.23612360576130004}},"36":{"bias":-0.1955331364303403,"weights":{"0":0.35476803947792207,"1":0.21925728792835686,"2":0.020019474416436832,"3":0.37758360479886877,"4":0.04473866770641242,"5":0.3704254213132115,"6":-0.00265382992031646}},"37":{"bias":0.0884425588091679,"weights":{"0":0.08619940102201659,"1":0.022571902706170485,"2":0.22080448284434837,"3":0.015119210184639846,"4":0.0339545463911005,"5":0.002455906349594348,"6":0.06332199882823608}},"38":{"bias":-0.0937066301350339,"weights":{"0":0.014187587202989594,"1":-0.08022387110489922,"2":-0.04361013786384742,"3":0.045164982682296725,"4":-0.2603571364048795,"5":-0.09145184240512781,"6":-0.09372908766338793}},"39":{"bias":-0.3602996955829939,"weights":{"0":0.2270591240481414,"1":0.36710500731890416,"2":0.43837067541147545,"3":0.10574668065290738,"4":0.3966865449836467,"5":0.19628863815757522,"6":0.37261999808168966}}},{"0":{"bias":-0.16317146874865399,"weights":{"0":-0.00161930111322052,"1":0.031898162344490666,"2":0.017296510470557757,"3":-0.04448978850172991,"4":-0.0657984558229599,"5":0.05009154414385286,"6":-0.22671882992822653,"7":0.0801514589933449,"8":-0.19111948034201365,"9":-0.07677985225773133,"10":-0.12567599265956908,"11":-0.04269177425585186,"12":0.0354301341859358,"13":0.10013439121363271,"14":-0.040605470415282945,"15":0.190351495698222,"16":0.07373499807877698,"17":0.15651556482914575,"18":0.03895289834828618,"19":0.1683645610826882,"20":-0.1383940087561641,"21":-0.11206622049701058,"22":0.18452923056813805,"23":-0.03109992596819883,"24":0.022065592632936552,"25":0.17627940443405207,"26":-0.13041924318167777,"27":-0.042484732983817865,"28":-0.0352384145472371,"29":0.03951600693584825,"30":-0.1411918158052281,"31":-0.19360107293583043,"32":0.15305922894996904,"33":0.11227155843324486,"34":-0.034833281650712596,"35":-0.1131078121749539,"36":0.07862228774433605,"37":0.14723497712822267,"38":0.17601044083200132,"39":-0.016295258386734016}},"1":{"bias":-0.17714629530153686,"weights":{"0":-0.02297906897067955,"1":0.2188256251856211,"2":-0.055342705215147676,"3":-0.19813921137577956,"4":0.07188762620870968,"5":-0.21617975287792113,"6":-0.24477136680410816,"7":-0.1576235177073949,"8":-0.02011936560422666,"9":0.17715814052033163,"10":-0.1146530726068108,"11":-0.10526350234725897,"12":0.08186416133536703,"13":0.1984448994611065,"14":-0.03162334417691742,"15":-0.08380857484397722,"16":0.012193098551405934,"17":0.2694287699166857,"18":0.17596403952789927,"19":-0.217671265319715,"20":-0.06341405792440796,"21":0.0335777578322804,"22":0.19938723154284135,"23":0.13591525939762195,"24":-0.11656288359113492,"25":-0.1908225255703684,"26":-0.0027754170890953367,"27":0.19995232263615736,"28":-0.05788215137984596,"29":0.11230560510436226,"30":-0.05579761848029989,"31":0.0020906472245811785,"32":-0.0534265607134286,"33":-0.20388395691460565,"34":-0.05701006185534784,"35":0.11856226654830769,"36":-0.038209766179226494,"37":0.07941875667110913,"38":-0.11806218195409589,"39":-0.1125003502544777}},"2":{"bias":0.10235711885388155,"weights":{"0":-0.09919832783594186,"1":0.2068964518466707,"2":-0.0504034853251422,"3":0.10527761757880516,"4":-0.20152316037590667,"5":-0.11150851817014726,"6":0.03089422068082222,"7":-0.10615280614839848,"8":0.06607110948329421,"9":0.0530987769001023,"10":0.08161553281870171,"11":0.04552635679308612,"12":0.19878251029569743,"13":0.02795026825190246,"14":-0.04101584205923334,"15":0.18195545375955627,"16":-0.017226149106871622,"17":0.023991853498978713,"18":0.01440346789119436,"19":-0.2857310324264808,"20":-0.23682749168946893,"21":-0.11563091895710848,"22":0.07652515828282853,"23":0.1348118847196678,"24":0.049090905071528676,"25":0.07624410771126527,"26":0.02262861601536485,"27":0.009219543797422527,"28":-0.18547793339167157,"29":-0.07313416951007877,"30":-0.007478717113072044,"31":0.014556942863559331,"32":0.018007815896817207,"33":-0.22602163808664527,"34":0.10593042589407066,"35":-0.24034106713803416,"36":0.16954583247622398,"37":-0.1827664674796156,"38":-0.025194751285656732,"39":0.24393714820420986}},"3":{"bias":0.07300196089620312,"weights":{"0":0.1033976220816179,"1":0.19632024424551056,"2":0.13375218799113414,"3":0.051749888168889924,"4":-0.24872080004334,"5":0.045768298595587065,"6":-0.18861988115809553,"7":-0.204566099678056,"8":-0.22703346995451815,"9":0.18159978078709904,"10":0.19325384091985381,"11":-0.06978828405825067,"12":-0.051338590626116995,"13":0.2042416381780598,"14":0.07881440827920758,"15":0.13770735781585602,"16":0.07198183716422522,"17":-0.030310848630790293,"18":-0.04884916981323871,"19":-0.16953449538713228,"20":-0.1939108401642227,"21":-0.05014969133948125,"22":0.03348560297022044,"23":-0.09822528191382432,"24":0.17636347510600336,"25":-0.2644611511324763,"26":-0.23765581428556168,"27":-0.04903037450864241,"28":-0.061050046308807365,"29":0.048481254054830523,"30":0.07027077710795993,"31":-0.10845731653037138,"32":-0.06108852807146792,"33":-0.20026268955605844,"34":0.20366763175303293,"35":0.030640932622269874,"36":-0.1536659614220977,"37":0.09209276532072766,"38":-0.12268667794319693,"39":0.17457274560102573}},"4":{"bias":0.09905960803169706,"weights":{"0":0.11482388781217553,"1":-0.17120584941982137,"2":0.12954998007382998,"3":0.11693534954521284,"4":-0.0741355885187525,"5":0.19446853035690875,"6":0.3046459287239518,"7":0.16452352934524603,"8":-0.01817696925206179,"9":-0.12791566154842957,"10":-0.0013011054402035684,"11":0.0051511252161959295,"12":-0.09734969401124234,"13":-0.0933401869855777,"14":-0.050769434517161184,"15":0.1558320644831614,"16":-0.0022991851884817164,"17":0.062216845943340746,"18":-0.19587098637242986,"19":-0.010718747201750133,"20":0.0625656513373102,"21":0.2946494491370462,"22":-0.14509734165426186,"23":-0.15209739353682464,"24":-0.024682278001813683,"25":-0.09117652386732589,"26":0.08778015666519146,"27":-0.078375151199651,"28":-0.08893972226291663,"29":-0.18509937990043807,"30":0.2004784005591301,"31":0.1400353200133631,"32":0.026637095391780736,"33":0.008722381313894917,"34":-0.24449609585548945,"35":-0.08462735133069316,"36":0.10070827837117054,"37":-0.027132953913429757,"38":0.03034295001024492,"39":-0.25018891850220876}},"5":{"bias":0.14676344433644262,"weights":{"0":0.11335010406873296,"1":0.20154429093882978,"2":0.11139700544151816,"3":0.07800373741049173,"4":0.09519102193172814,"5":-0.1436467358233897,"6":0.11806244146898155,"7":0.08777006288594677,"8":-0.09160273104361354,"9":0.15751926963255125,"10":-0.0021618080823060364,"11":-0.09353130766171779,"12":0.07290868226007519,"13":0.1164492054357624,"14":-0.07344278354342562,"15":0.10297585972469148,"16":0.06346107905544468,"17":-0.01914313147166649,"18":-0.05301211642702699,"19":0.05864800178428792,"20":-0.19525086111971313,"21":0.06617238992515066,"22":0.1407398464254175,"23":0.02954373810302211,"24":-0.07435881481345674,"25":0.08784367021248672,"26":0.15157362290558718,"27":-0.04875085045789381,"28":-0.007591869595640548,"29":0.18256067077818636,"30":0.03167706328017049,"31":0.06750598282778499,"32":0.14840957586366293,"33":0.10078878446515518,"34":0.17515163753158747,"35":0.008443681837186643,"36":0.10425698001749707,"37":-0.05413950730780565,"38":-0.09211686699570007,"39":0.1286097329375189}},"6":{"bias":-0.1400569215353681,"weights":{"0":0.006701824231862472,"1":0.06669939572845213,"2":0.1387236251326334,"3":0.12356261579933492,"4":0.04587132035212678,"5":0.07175212675405443,"6":-0.10259340797545631,"7":0.016200496383926538,"8":0.0856029969891947,"9":0.0916965207946958,"10":0.045196585602251795,"11":0.0008811373932085355,"12":-0.008247216801399022,"13":-0.0016150307209723247,"14":-0.01281366988347782,"15":-0.18161427492278628,"16":0.16316743909287615,"17":0.18226804173240332,"18":-0.00023959036591691222,"19":0.21594229459774358,"20":0.027900226839430213,"21":-0.004670887727780303,"22":-0.00695075448372836,"23":0.18923964942322427,"24":-0.06760116513304505,"25":-0.05767192226585351,"26":-0.10000828331378632,"27":-0.13615858162573996,"28":0.2095936702290294,"29":-0.08717924594363584,"30":-0.04249156950453073,"31":0.01815771872823109,"32":0.050607654480620407,"33":0.0013146457598323153,"34":-0.14298813353007064,"35":-0.04669609442604037,"36":0.015386807262740495,"37":-0.1064417824792871,"38":0.13484116759985565,"39":-0.09939359041078397}},"7":{"bias":-0.14330736211176992,"weights":{"0":-0.09989202086978673,"1":-0.15462331062317763,"2":-0.03737582644048192,"3":-0.08293590485115142,"4":0.009498816989483924,"5":-0.17740795843144624,"6":0.07640516399757583,"7":-0.22065441514901538,"8":-0.11186982716278869,"9":0.026202841988592466,"10":-0.153709820823449,"11":-0.11436926130478038,"12":-0.023891402060352666,"13":0.07822252053998877,"14":0.006476720063759348,"15":0.05853229959467866,"16":0.0783704531535886,"17":0.20714913283767772,"18":-0.17366932843278163,"19":0.17481702804320706,"20":-0.015230806264831717,"21":0.11491947347824599,"22":0.02720702902482338,"23":0.1391546382249095,"24":0.10620255958806143,"25":-0.16596813519084988,"26":-0.04978322961590038,"27":-0.05912782707648861,"28":-0.06819738090833544,"29":0.12922954390796232,"30":0.13366588685158215,"31":-0.08457117394914064,"32":-0.06135348305312028,"33":-0.013278020610895986,"34":0.12041750755948745,"35":-0.16335717248341508,"36":-0.16593762809158857,"37":0.07676656147769613,"38":0.14833875036214625,"39":0.019179486008992344}},"8":{"bias":0.11031913526222636,"weights":{"0":0.08755770943110502,"1":-0.04922755806012686,"2":0.1806633832731601,"3":0.0024467723104875092,"4":-0.1446643341931827,"5":0.037690028803894285,"6":0.14418981007058823,"7":0.0979466386068664,"8":0.20946964181038835,"9":-0.02969412706045245,"10":-0.054564088565218,"11":0.19424455216578396,"12":-0.05259357983044849,"13":-0.046975389266260624,"14":0.14399236099602591,"15":0.11165425468727912,"16":-0.1713063300525971,"17":-0.18101876994024116,"18":0.1888341333621562,"19":-0.06500714428903653,"20":-0.038425943860288296,"21":-0.017102361789689505,"22":-0.014610662061478014,"23":0.009969591636519117,"24":0.02387808519607692,"25":0.0402345057011096,"26":-0.1139410680002074,"27":0.16102976579288406,"28":0.06933345843954646,"29":-0.1771257193405601,"30":-0.10198836058261242,"31":0.20912067148361274,"32":0.1602598486422257,"33":0.128829918372332,"34":0.08710514130821136,"35":0.02505575548151651,"36":-0.032006910740268756,"37":-0.07343131939846248,"38":-0.12834775249481015,"39":-0.042233231753336285}},"9":{"bias":0.0648120608489502,"weights":{"0":0.06930754658442549,"1":-0.09652717105215286,"2":-0.05320196440580186,"3":0.0001955663275194991,"4":-0.1591364123061334,"5":-0.18446827573325844,"6":0.044472614082047314,"7":-0.14904943906125917,"8":-0.1591198515636172,"9":-0.15968801684971448,"10":0.09337971558886322,"11":0.09277775335601898,"12":0.05651769101640494,"13":-0.15529073892792283,"14":0.08835708896245531,"15":-0.11269416127041411,"16":0.19698779195469496,"17":-0.07669722844972793,"18":0.09747172938533033,"19":0.20170564141297745,"20":0.07089933479690555,"21":-0.1758104499036124,"22":-0.17029378215901445,"23":-0.18623156785907533,"24":0.0798941373162565,"25":0.10105688637758448,"26":0.13618409059908285,"27":0.2073046938186397,"28":0.11525302918101442,"29":0.0985434959764682,"30":0.1812163859892573,"31":0.14645813350747552,"32":0.20521891084514718,"33":0.1782218287495546,"34":-0.09884141286010432,"35":0.20572678592601265,"36":-0.18845622481053603,"37":0.041589395842481995,"38":-0.11787029628606392,"39":-0.018074731674492292}},"10":{"bias":0.03805577249558113,"weights":{"0":-0.1333086269914825,"1":0.16113906935911435,"2":-0.013228833966748052,"3":0.06500723764164579,"4":0.14538433412138713,"5":0.2708494729921222,"6":0.10772322914011423,"7":0.2585660957143101,"8":0.027541783943074452,"9":-0.0483274724392967,"10":-0.15076607674814516,"11":0.16255419963183815,"12":0.14748507179905646,"13":-0.2831754349398736,"14":-0.15573199190990922,"15":-0.09494928274865608,"16":0.02924241262799039,"17":-0.2615040952924364,"18":-0.1651814405807407,"19":0.22214603405331507,"20":0.2008783200055635,"21":0.07415918055071255,"22":0.0844758905334376,"23":0.0682553669257617,"24":0.01256364265735105,"25":-0.001973974812003987,"26":-0.09219450813018847,"27":-0.1462479373732681,"28":-0.0694084164887233,"29":-0.18163558981589886,"30":0.24534471107392736,"31":-0.04625247012405043,"32":-0.15071439639112585,"33":0.19785752794215766,"34":0.06911243686120136,"35":-0.013724492889722589,"36":0.04081543934981011,"37":-0.10523883954898325,"38":-0.0985604848341127,"39":-0.07243772844178081}},"11":{"bias":0.10647318672573357,"weights":{"0":-0.1799177802149498,"1":-0.07523676464245863,"2":0.05113073817907865,"3":-0.13700372579932557,"4":0.005027059852389053,"5":-0.0771554444149908,"6":-0.07596367979413757,"7":0.04113288224435456,"8":0.022640780493193673,"9":0.2140535790840849,"10":-0.027811353818636565,"11":0.08900401911238152,"12":0.15149838308926097,"13":0.045385206692873936,"14":0.21256675032242392,"15":0.16653780043307204,"16":-0.21473763405376337,"17":0.15777558181938695,"18":-0.13634647786698947,"19":-0.20137558946214634,"20":-0.1985048393112022,"21":-0.06071395487133927,"22":0.04090589659055471,"23":0.1049514913358883,"24":0.012014748031985777,"25":-0.15340991774259452,"26":-0.14129824517306042,"27":0.20507347083538216,"28":-0.2590096353109475,"29":-0.0300307804645656,"30":-0.19282463896530125,"31":-0.141105525907558,"32":-0.10558854515208926,"33":-0.09557619444240649,"34":0.18216157312811593,"35":-0.13927432030985998,"36":0.0032692750362222868,"37":-0.011929898100184756,"38":-0.17270959812882825,"39":0.1676475071238615}},"12":{"bias":-0.1448261917276326,"weights":{"0":0.060544787004682535,"1":0.00901179480954916,"2":-0.038137510240298565,"3":0.08588030038705739,"4":-0.002662046099691485,"5":-0.15825565827802288,"6":0.17914493638562592,"7":0.028562175493067055,"8":-0.16505084736088804,"9":0.09697372466554964,"10":0.16397894670104707,"11":-0.051718001455950485,"12":0.07591426272989765,"13":-0.01049123671529992,"14":0.0611031691597446,"15":-0.1772547332227855,"16":-0.14310512621511143,"17":-0.15298239110532524,"18":-0.0024581315087649196,"19":-0.002709449508440627,"20":-0.20132503898042003,"21":0.03729107081895466,"22":-0.08542863768831885,"23":0.10876039694394574,"24":0.03035198932613505,"25":-0.2097002763817113,"26":0.037054913453499407,"27":-0.16977624391260399,"28":-0.11140675852820044,"29":0.08354219140840964,"30":-0.11787537580076139,"31":-0.17013106620829888,"32":0.1275416649341783,"33":-0.05295286390864741,"34":0.1857592033264832,"35":-0.10924401120953514,"36":-0.03648378506133933,"37":-0.1964488194590874,"38":0.014832482898491737,"39":0.16369587131251853}},"13":{"bias":0.14729033055825091,"weights":{"0":0.11543876269553704,"1":-0.048671261755148756,"2":0.03520993154502873,"3":-0.016412243288372076,"4":0.1081066936901875,"5":0.15166615998777289,"6":0.16659763348198156,"7":0.15872955030713823,"8":0.17703466589669023,"9":-0.30931302419376777,"10":-0.14289370571292992,"11":-0.05684747532801009,"12":0.12727138776774813,"13":-0.20535041761421177,"14":-0.14392370127077342,"15":0.1323916048258071,"16":-0.149876542761964,"17":-0.2770109835608939,"18":-0.12192199752195194,"19":0.11150555579352252,"20":0.23676642369109535,"21":-0.02219479977919313,"22":-0.08642385046086548,"23":0.18067132775286096,"24":-0.20302118949445197,"25":0.25974563170926673,"26":0.16653791669173162,"27":-0.16345312663981548,"28":0.19397221199806533,"29":0.06271497474284064,"30":0.2584989559265372,"31":0.22442771487454916,"32":-0.03180322268005732,"33":-0.011824139342226118,"34":-0.1068223871952471,"35":0.20301615576608456,"36":-0.24204787573048375,"37":-0.07611812870069534,"38":0.1929964051955344,"39":0.035454930474418514}},"14":{"bias":-0.11154316934549383,"weights":{"0":-0.01324992987486981,"1":0.11900949672438929,"2":0.1703826596066644,"3":-0.17101371174273286,"4":-0.1399669801431882,"5":-0.05679867602145931,"6":0.16220032076663704,"7":-0.04994841359531355,"8":-0.07178429538782613,"9":-0.14885550893125452,"10":0.10207320769316497,"11":-0.007890952426374522,"12":-0.046409994814695286,"13":0.12016999150301597,"14":-0.134173846950113,"15":0.14248869416497129,"16":-0.07892946391473188,"17":0.053291752750852434,"18":0.1586282020299994,"19":0.00815641006198096,"20":-0.019625806210018,"21":-0.006747791851767619,"22":0.019311696201132877,"23":-0.14526161034978324,"24":0.0318383316894646,"25":0.05764398256125229,"26":0.0515102208471836,"27":-0.17444977358431168,"28":0.08084488033682824,"29":-0.08012782094807994,"30":0.01840100984781111,"31":-0.07983002866261067,"32":-0.19043902494722073,"33":0.09802656059031029,"34":0.16214676169854286,"35":0.1652863403287544,"36":-0.20296495194229394,"37":-0.1681973301620809,"38":-0.18823265269602274,"39":0.11642341890979223}},"15":{"bias":0.08288619253060793,"weights":{"0":0.026759585982758103,"1":-0.10820922803779463,"2":0.10386547075889555,"3":-0.07186141460692579,"4":0.1731472788634516,"5":-0.015905063003046175,"6":0.22665689891212473,"7":-0.013217378376979552,"8":0.18869798137418564,"9":-0.03261837422490763,"10":0.12767497168939215,"11":0.08600522288413101,"12":0.023590086918169786,"13":0.10989314231078451,"14":0.1331630839533859,"15":-0.10039893524213514,"16":0.13341278402146783,"17":-0.16111054861457477,"18":0.059403352149128015,"19":0.0015369285259282644,"20":0.026052694626358935,"21":0.12085705116413502,"22":-0.07213382258193508,"23":-0.11964452292919137,"24":0.028344317106267926,"25":-0.023937572598145204,"26":0.1790171540628414,"27":-0.049753732524149524,"28":-0.0639344617325347,"29":0.060826089480746845,"30":0.022253047250445745,"31":-0.00567042455326121,"32":0.11032080102217613,"33":0.16740805708543383,"34":-0.1400718386942289,"35":0.2043087267464466,"36":-0.19540203564932154,"37":-0.11991814793517407,"38":-0.10077659509358583,"39":-0.15829545450738447}},"16":{"bias":-0.0428438348127367,"weights":{"0":-0.0007256919426579372,"1":0.11803885548643699,"2":-0.14574592203656478,"3":0.2141656811243883,"4":-0.03252145463474265,"5":-0.0019278561964891053,"6":0.003918575231437672,"7":0.10533261778186043,"8":-0.0019015124026258285,"9":0.04764011567778332,"10":-0.017281647891364414,"11":0.03295775712925745,"12":0.05005939586326839,"13":0.025518822194902684,"14":0.11199649418315964,"15":-0.14846778693303259,"16":0.14729176475417144,"17":0.021733143453879025,"18":-0.19413570291755966,"19":0.1745936876561047,"20":-0.09492939230767106,"21":0.19638553746221782,"22":0.16155684215481034,"23":-0.1586599343977679,"24":0.11803903151160587,"25":0.12775916083350544,"26":-0.06456096759750057,"27":0.04695150708576348,"28":-0.0737722822174348,"29":0.08739475301617126,"30":0.12457365781377693,"31":-0.07289985895708116,"32":-0.1351367903156717,"33":0.07078507773204404,"34":-0.09560619343766226,"35":0.18561361735895532,"36":0.023449144087205612,"37":-0.11065772045481335,"38":-0.13368407438686644,"39":-0.15950897219161048}},"17":{"bias":0.1428650849208133,"weights":{"0":-0.041202122199053684,"1":0.10258144347782903,"2":-0.055416351910333665,"3":-0.11174356074348779,"4":-0.17464326171336925,"5":-0.2256415103980491,"6":-0.17227872260795543,"7":0.09916151992931378,"8":-0.031659491084920034,"9":0.15293698629761407,"10":0.07696759201847374,"11":-0.0026970037352103053,"12":0.052727286722460895,"13":-0.029543626034389384,"14":0.0408507485835627,"15":0.13787765693492765,"16":-0.1558698053925106,"17":0.10837653823184507,"18":-0.043787960703788105,"19":-0.08404123806674245,"20":0.04846324498053504,"21":-0.15878852645900662,"22":-0.014081770214042028,"23":0.1347218132172608,"24":0.05976015441692723,"25":-0.23849839511684487,"26":0.009442880616543707,"27":-0.06773782089442112,"28":0.025972054548660514,"29":-0.06394664933187659,"30":-0.2238834551330774,"31":-0.11489248850565423,"32":-0.08117329106446232,"33":0.055477005362120704,"34":0.21231264375875247,"35":0.08950144971238477,"36":0.027021505674772517,"37":0.11853469789908129,"38":-0.20443622113995033,"39":0.14244043052284427}},"18":{"bias":0.10909015709358122,"weights":{"0":0.17576480001313502,"1":-0.09541374751504722,"2":-0.15377947567362643,"3":0.09558604651830807,"4":-0.11797473221775798,"5":0.05345996418432311,"6":0.12603110625643238,"7":-0.10449120137056694,"8":-0.13716704592373444,"9":0.26242808274631263,"10":0.20187580857330362,"11":-0.09335127303095346,"12":0.17310421426357162,"13":-0.02089599091779421,"14":0.07040312962139311,"15":-0.004417570858708257,"16":-0.09782991973985491,"17":0.07743106099557452,"18":-0.13151464570913382,"19":-0.005468167873927429,"20":0.012746699169986712,"21":-0.21775313260464624,"22":-0.059737545686923695,"23":-0.09603802564195058,"24":0.15542029686684317,"25":0.0013279926501145506,"26":-0.08643142670312547,"27":-0.04447398051495531,"28":-0.13523525598860558,"29":0.2437881643066439,"30":0.022260719641714857,"31":0.11305008562845638,"32":-0.09905134551722711,"33":0.10540054003011946,"34":0.12145990065956759,"35":-0.12157531292755662,"36":-0.1416676116895882,"37":-0.1298016710744827,"38":0.11969616294825657,"39":0.24193434658476887}},"19":{"bias":-0.17063836454739223,"weights":{"0":-0.07933710730083804,"1":0.21311131159108407,"2":-0.005100004510525466,"3":0.1209307305447873,"4":-0.23105613262282887,"5":-0.18203405930069647,"6":-0.2595292921400829,"7":0.05884010026556352,"8":0.025987441967875575,"9":0.039840167702176306,"10":-0.08252569027414601,"11":-0.1988652020717657,"12":0.03722265239581558,"13":0.16800714373880185,"14":-0.12146938104673957,"15":0.1404002795165301,"16":0.11775241910829495,"17":0.13025446445524838,"18":-0.028743671029818063,"19":-0.13622113544240622,"20":-0.17122859902827042,"21":-0.09959375911998497,"22":-0.11246265308023462,"23":-0.13749929289700075,"24":-0.0057699307582409565,"25":-0.022313901354978825,"26":0.14938759748774585,"27":-0.12604749160570985,"28":-0.10242517057660384,"29":0.14898223012386289,"30":0.10326842238289462,"31":0.05811766864788145,"32":0.10838994566733452,"33":0.023758064314979743,"34":0.27381735619188874,"35":0.10540265712285311,"36":0.16199952987410343,"37":-0.1736798854790715,"38":-0.15717974389957995,"39":0.15203809756281148}},"20":{"bias":0.016301192897481536,"weights":{"0":-0.14038945673669956,"1":-0.08459719043077993,"2":0.0693971964727571,"3":0.1154504509964504,"4":-0.14426721279590904,"5":-0.25722592128738003,"6":-0.19016840151497819,"7":-0.25048597964353475,"8":0.005905196464794087,"9":0.305462440460483,"10":0.11015427969339125,"11":0.043421600759639765,"12":0.1309744348761554,"13":0.08876864262082663,"14":0.02548677985675591,"15":-0.04935634721331735,"16":-0.05612113363478668,"17":0.2823024372595751,"18":0.04761723035776649,"19":-0.26139809011676807,"20":-0.029267822229579566,"21":-0.24473653936290402,"22":0.1911740699968124,"23":0.14501133276638473,"24":0.04499214804470595,"25":-0.024528776530823856,"26":-0.04996502699438677,"27":-0.0650782528817168,"28":-0.18753130315243013,"29":0.01527612410944981,"30":-0.1372653145642662,"31":-0.1706468001229033,"32":-0.2386205323150674,"33":0.07328983520568096,"34":0.11379810242369548,"35":-0.22290589203670455,"36":0.013428874164706426,"37":-0.014962302438978045,"38":-0.006610919686481691,"39":0.23486248234757562}},"21":{"bias":-0.14227166294955768,"weights":{"0":-0.1466033590749649,"1":-0.0055428841923527575,"2":-0.057058376224096125,"3":0.0496469784506749,"4":0.06153709826256901,"5":-0.1422581991072366,"6":-0.23814195066982563,"7":-0.09886479634871768,"8":-0.21137327567237527,"9":0.08262859588263813,"10":0.11950399509226856,"11":-0.23091909044880354,"12":-0.11395377081404195,"13":0.06558697818248951,"14":0.17878783821327304,"15":0.1335397464187453,"16":-0.009246353584575186,"17":-0.06591870853182479,"18":0.14606093262849223,"19":-0.23702641402198735,"20":-0.12073070711010458,"21":-0.20253780208716238,"22":0.06241256698373029,"23":-0.09422703073640064,"24":-0.0017600760647039037,"25":0.033268760698404426,"26":0.11359485529136223,"27":0.07145655863268521,"28":-0.02280703149591525,"29":0.04949967904406256,"30":0.08706867339861422,"31":-0.2515579966689695,"32":0.11785570876400098,"33":-0.2339733851742416,"34":0.1279690340001424,"35":-0.24304426085613454,"36":0.1288528022280834,"37":0.1543536394586701,"38":0.0029630617798394113,"39":0.2293990339510412}},"22":{"bias":0.1731644255361551,"weights":{"0":-0.1648295382675667,"1":0.12472834297462881,"2":0.12954588793571753,"3":0.07884422254345294,"4":0.22167881614527993,"5":-0.006466064804616313,"6":-0.05756954809578014,"7":0.09844622102254183,"8":-0.044953966140856644,"9":-0.11426105695773342,"10":-0.1324739079310992,"11":0.09005102334440784,"12":-0.017745552714696987,"13":-0.20324988226705828,"14":-0.12780055863154396,"15":0.07588581294031262,"16":0.004372596620823339,"17":-0.19790438236470417,"18":-0.006576983008614821,"19":-0.0953823910470365,"20":0.2292966800425852,"21":0.293463319128924,"22":-0.06345009491135449,"23":0.1320078138178575,"24":0.1415530049293225,"25":0.03484829924231766,"26":-0.03125707896317539,"27":-0.049144678087992624,"28":-0.0975390776656164,"29":-0.13693360467465868,"30":-0.0054658419082514315,"31":0.13913707437772854,"32":0.15660510303934796,"33":0.22314305014399768,"34":0.12199781843010025,"35":-0.1226990987960688,"36":-0.10624746326844953,"37":0.023713563847886567,"38":0.039184137527926384,"39":-0.2668070216099872}},"23":{"bias":0.009248680423310424,"weights":{"0":0.09291248889384945,"1":-0.1924140722664846,"2":0.02380581407023527,"3":-0.08690228134163641,"4":0.05538842769476257,"5":-0.038743153816682335,"6":0.1708252112509223,"7":0.03339217631902218,"8":-0.09814373753842139,"9":-0.16286749591357194,"10":0.04718107520274625,"11":0.06598101874611512,"12":0.12703882135365135,"13":-0.1797497907583069,"14":0.14235069771559744,"15":0.0003810501067014875,"16":0.039306968616180375,"17":-0.08657096667459195,"18":0.15813586129777113,"19":0.1378223102678853,"20":0.11081627227955142,"21":0.1891574373537575,"22":-0.055173672920004434,"23":0.11508684781251487,"24":0.023061764146163805,"25":-0.07126471081112622,"26":0.18439562868723613,"27":-0.11768516197741545,"28":0.11495236841902885,"29":0.03929838958535721,"30":0.19048984479263886,"31":-0.02322841103322724,"32":0.12978074412122861,"33":0.0983771664158849,"34":-0.24385974536125785,"35":0.06966952853929885,"36":0.049423180427819846,"37":-0.18117700181900875,"38":-0.10318706785683836,"39":-0.11280988387092368}},"24":{"bias":0.17770733694679555,"weights":{"0":0.20387765862375398,"1":0.13432044611391086,"2":0.22044566799891013,"3":0.07629232922908696,"4":-0.11545097566573975,"5":0.1719564712130173,"6":-0.12735662532183606,"7":0.09618684561179733,"8":-0.03675360777111628,"9":-0.22547951420145612,"10":0.15479372085390283,"11":0.03875122225388121,"12":0.10699424860524105,"13":-0.07759630564695989,"14":-0.19871249694068316,"15":-0.023129818411410288,"16":0.019804305472467826,"17":-0.029543676379970105,"18":-0.12197885951875856,"19":0.22794169080437446,"20":0.16938666606978753,"21":0.03539079277283492,"22":-0.13784255607453752,"23":-0.13762818451921996,"24":-0.21543590229082724,"25":-0.028443101671073397,"26":0.1328489751787384,"27":-0.1060934870182066,"28":0.0031281783757496837,"29":0.04876035344190281,"30":0.0756086173923044,"31":-0.06567354976923251,"32":-0.11869968920759115,"33":0.19679663639905481,"34":0.002238929531893074,"35":0.19180494008379828,"36":-0.11952094571016247,"37":0.1559638820419654,"38":0.1661235163169292,"39":-0.21659912814268878}},"25":{"bias":-0.18548851190365967,"weights":{"0":-0.13283460100329902,"1":-0.11490116020404688,"2":-0.09744313713728515,"3":0.14987906425391717,"4":-0.300033512501092,"5":-0.0027529964685262857,"6":-0.18950538696291236,"7":-0.1312895564804806,"8":0.013601407329253967,"9":0.2779800687849898,"10":0.10326765310323992,"11":-0.10933993855821644,"12":0.05333815075644658,"13":0.26418020380603546,"14":-0.04361775979437635,"15":0.12380952834791428,"16":-0.06584338989247973,"17":0.2913720412988979,"18":0.03765291700678646,"19":-0.2730379466968571,"20":-0.2448204136072328,"21":-0.22669710228560183,"22":0.004898268293076781,"23":0.13893333271033906,"24":0.10554686002593117,"25":-0.159062927557138,"26":-0.20024931345968688,"27":-0.05080412818757925,"28":0.017654498161229118,"29":0.10430899051031546,"30":-0.08737364830575789,"31":-0.024392759340962265,"32":-0.07019862314885485,"33":0.05728329523650974,"34":-0.07518840367589438,"35":-0.06149132162347721,"36":0.05402662200294839,"37":0.13807295383843776,"38":0.09019757381574593,"39":0.03462696135447557}},"26":{"bias":0.1608146835820231,"weights":{"0":0.1199901559055074,"1":-0.10185683954049396,"2":0.011434096723120353,"3":0.07176517352642561,"4":0.19341279223793603,"5":0.19395385456522188,"6":-0.12858344305551736,"7":-0.10040337797996286,"8":-0.15959944453050387,"9":0.044467055065122774,"10":0.14112958866475073,"11":-0.08569227135001589,"12":0.16924325318607703,"13":0.06569146287720125,"14":-0.06552448724858104,"15":-0.11335134027624529,"16":-0.18348733449126564,"17":-0.19896445486012085,"18":-0.10746099817786074,"19":-0.05194006667903518,"20":-0.19209712807305476,"21":0.027503626682098686,"22":0.0073338839074015795,"23":-0.018360576192507774,"24":-0.13718486726117562,"25":0.12342320715499257,"26":0.06728982538495973,"27":-0.024848483424788556,"28":0.10593676279091785,"29":0.015257179677225894,"30":-0.04311977999682323,"31":0.16747791713629245,"32":0.09946303071431177,"33":-0.030229150585620777,"34":-0.1191011010972133,"35":0.1333184990621873,"36":0.0817879269521589,"37":0.14347731006936745,"38":0.056374655626464654,"39":-0.08089976549573273}},"27":{"bias":-0.047617848291125045,"weights":{"0":0.12883030813185728,"1":0.030318081257706676,"2":-0.020657598112424094,"3":-0.16809036724978513,"4":0.04632814328939875,"5":-0.09868381549787467,"6":-0.054431799333114206,"7":-0.019261500809310238,"8":0.021508884990731385,"9":-0.1401473349279463,"10":-0.12409062525793806,"11":-0.14253754976068408,"12":-0.003232399364743152,"13":-0.1414242156247316,"14":0.1362924511612763,"15":-0.08291349644341815,"16":-0.033439023680216486,"17":-0.06144358429170107,"18":0.1542495985185889,"19":-0.1241890694500014,"20":0.16032584985817672,"21":0.1825430389475635,"22":-0.2022290964864978,"23":-0.11776844253407978,"24":-0.10001125526585705,"25":-0.11128407756941383,"26":-0.060469711777681984,"27":0.0686147920984425,"28":-0.11937341367863229,"29":0.01248632374371234,"30":0.12238683999284468,"31":0.173530043751569,"32":0.01053334159928582,"33":-0.0838535204385148,"34":-0.1668865274901194,"35":-0.06287076341357979,"36":-0.17680105147735936,"37":0.1709683177155132,"38":0.1689366749664835,"39":0.033065085647003147}},"28":{"bias":-0.033778856057212724,"weights":{"0":-0.09535851185904264,"1":0.14036594014741913,"2":0.02369449008502816,"3":-0.10101666468782174,"4":0.09761568487650857,"5":-0.07527785663578691,"6":-0.1570204561121238,"7":0.028445511643267203,"8":-0.060111004179607776,"9":0.22931056204055783,"10":-0.17305740243133155,"11":-0.24270548247890567,"12":0.20898993448324307,"13":-0.0005249166087900907,"14":0.10815899313802474,"15":-0.16793313153220285,"16":0.023463818190201408,"17":0.12388913256569101,"18":-0.14169279917769054,"19":0.11282949965377197,"20":-0.09662039953011407,"21":0.03296566774760043,"22":0.13924697490288998,"23":0.028023796061912718,"24":0.1845114421234022,"25":-0.06684475349639069,"26":-0.19592996141478697,"27":0.13117289307898147,"28":-0.01574658590257283,"29":0.24825982816102146,"30":0.08093805274019414,"31":-0.20151374850086726,"32":0.033381224293554786,"33":0.03209039224127404,"34":0.18840832748420136,"35":-0.21310821866915186,"36":0.17351867510434385,"37":-0.14364731992431476,"38":-0.2057880687227981,"39":-0.1176690037060098}},"29":{"bias":-0.06130245908631314,"weights":{"0":0.0012978146601919176,"1":0.04073163418113569,"2":-0.1905141478057793,"3":-0.12461221160493849,"4":-0.2694283001816097,"5":-0.09233550653432751,"6":-0.191617883179948,"7":0.08230818258805132,"8":-0.2125291576418376,"9":0.2542129891377964,"10":0.1799651799942206,"11":0.03901695117350542,"12":-0.12529614715830342,"13":0.182972651845614,"14":-0.07915089013577903,"15":-0.09108839224378659,"16":0.0004608382214972468,"17":0.06129035822592442,"18":-0.10293098900667179,"19":-0.2629948191064631,"20":-0.17883696037491348,"21":-0.11385660053667246,"22":0.14916966761689918,"23":0.07919733017451135,"24":0.19749370638423,"25":-0.13223431599692703,"26":0.10564226769868189,"27":0.12420087719154903,"28":-0.1877092174925969,"29":0.22366676787314996,"30":-0.22856742013510709,"31":-0.0912553685433776,"32":0.020404369373906956,"33":-0.010302594178202427,"34":-0.10853100693880176,"35":-0.2219974987320507,"36":0.1888129632652625,"37":0.01586538838465529,"38":0.1472886330071588,"39":0.061247633512819526}},"30":{"bias":-0.13898656021706104,"weights":{"0":0.08585078302952559,"1":0.1994957268965849,"2":-0.08140634591011764,"3":-0.075926646124224,"4":0.10550075599640651,"5":0.09431958100885814,"6":-0.14668044120301235,"7":0.08480841588244906,"8":-0.06602312661716576,"9":0.1345117271649823,"10":0.2075528207731606,"11":-0.21902491791477047,"12":0.1885890075323646,"13":-0.0020812850830120976,"14":0.06673468027350572,"15":-0.10964101899818335,"16":0.09505997025633055,"17":0.12612008338018,"18":-0.1767338671536015,"19":-0.1270428740753624,"20":0.009771194763377983,"21":-0.2961159946065852,"22":0.08356828120048734,"23":0.1770376964202111,"24":0.02132283899407378,"25":-0.07151307445187167,"26":-0.13293358759967477,"27":0.2215002801222034,"28":-0.11320790605264698,"29":0.024373256716229304,"30":-0.10401090395451201,"31":-0.006337920050078778,"32":0.17169761288785376,"33":0.0017770021900743544,"34":0.0522997270179707,"35":-0.12622465085453619,"36":0.01801287604600784,"37":-0.15263176669699724,"38":-0.04689335854033431,"39":-0.11679937271200261}},"31":{"bias":-0.00859611414344667,"weights":{"0":0.07059904863111409,"1":0.13517252069551214,"2":-0.07747085645242176,"3":-0.017001108411669515,"4":-0.13947099930029144,"5":0.06570318372647245,"6":0.06027315127844089,"7":0.14696917973330392,"8":-0.17599136561155537,"9":0.016961828175152554,"10":0.02509682672216832,"11":0.06432503901616378,"12":-0.060815190935808,"13":-0.10663876822115644,"14":0.10627049502942473,"15":-0.09170669390246468,"16":-0.1404688082386651,"17":0.06312700072660674,"18":0.12164520529656697,"19":0.004942008631806136,"20":-0.022124254698272318,"21":0.08593147382955184,"22":-0.11534311736772344,"23":0.1657228489078371,"24":0.19045277731971266,"25":0.13218613582530825,"26":0.15876171861992597,"27":-0.16343071317046534,"28":-0.2045951987533696,"29":0.11100212553308592,"30":-0.1673565423733796,"31":0.012661914201167428,"32":-0.02995421728927144,"33":-0.03195859815328327,"34":0.2004711924745976,"35":0.07503117854204795,"36":0.11653463211504948,"37":0.21327874348541495,"38":0.11473267901856087,"39":-0.054051175337584724}},"32":{"bias":0.029601375182654894,"weights":{"0":-0.006512249076234135,"1":-0.033482376144672255,"2":0.23262559759844917,"3":-0.09232864561938359,"4":-0.05819888893148492,"5":0.07114724863573023,"6":0.20704104509340074,"7":-0.06314409772226555,"8":-0.06886427437580754,"9":-0.2767995162704394,"10":0.03152767015093722,"11":0.15821686886031264,"12":-0.166934828549329,"13":-0.019583243827975747,"14":-0.19939722439254462,"15":0.06591395864959253,"16":0.022234990536135816,"17":-0.24508243941059482,"18":-0.10787944363658275,"19":0.18438151752414642,"20":0.2863257600458449,"21":0.21832994859721508,"22":-0.20403529907315268,"23":-0.00548419605789505,"24":0.1008135210846708,"25":0.05716284883557169,"26":0.25338187216543256,"27":0.03177096773249374,"28":0.1905861166991267,"29":-0.05225683840495712,"30":-0.11097923888189157,"31":0.21115634417577664,"32":0.1152861423477056,"33":0.27354811230924886,"34":-0.037784841097712574,"35":0.043156863829557114,"36":0.0836197883067468,"37":-0.013390757837874098,"38":0.1458052759232822,"39":-0.23446595110847995}},"33":{"bias":-0.17881491051748621,"weights":{"0":0.07015104756584299,"1":-0.051923897941504996,"2":0.06749959992643464,"3":0.05027444764520411,"4":-0.29345395345488995,"5":-0.3062316520153145,"6":-0.36978321436078765,"7":-0.23555862754152357,"8":0.11535091729495768,"9":0.29469861958190224,"10":-0.12088699787469857,"11":-0.0028038041742199445,"12":0.01466139072413564,"13":0.2058443287101112,"14":0.06791706997226746,"15":0.19723640844667226,"16":-0.12529262521634754,"17":-0.0044039428470236015,"18":0.0036947785625102768,"19":-0.12621626175512526,"20":-0.31990733007200867,"21":-0.28599704834117734,"22":0.21628882026097077,"23":0.11136548631234544,"24":0.1339268753293077,"25":-0.28178622851879526,"26":-0.10082499939554232,"27":-0.02633292573504892,"28":-0.20707487546926676,"29":0.32720804382564395,"30":-0.2978633447261099,"31":-0.0672476898212315,"32":0.14914476828074397,"33":-0.26073462601664554,"34":0.05682630782242788,"35":-0.19740702584921144,"36":0.21703398268342075,"37":-0.035246415807447154,"38":-0.23571523436563946,"39":0.2439067592164523}},"34":{"bias":-0.1866887107581517,"weights":{"0":-0.12403934905847282,"1":0.11465508545803786,"2":0.016902298818903146,"3":-0.08810733964106374,"4":-0.027200811938239887,"5":0.16095085834517334,"6":-0.0868065872211533,"7":0.0009358189009656659,"8":-0.1415094819197205,"9":-0.10459577320819047,"10":0.18078824787150005,"11":-0.11074312596156326,"12":0.018428292070262583,"13":0.10754081853126135,"14":0.12748692617499272,"15":-0.12889807122918667,"16":0.012853346571924109,"17":-0.0015120368457801818,"18":-0.15206788804688473,"19":0.004026201459745221,"20":0.04987578897489134,"21":-0.1008088123849031,"22":-0.09262732435590058,"23":0.21233114251734903,"24":0.22433375057911642,"25":-0.13930644367667935,"26":-0.058747282501144894,"27":0.1323301796618475,"28":-0.0006110033530631587,"29":0.20622652172311778,"30":-0.08879460555614255,"31":0.1145379412369008,"32":-0.19159102732872813,"33":-0.12344111804959979,"34":0.20570548948218761,"35":-0.10714212039320409,"36":-0.1280426998416355,"37":-0.13477022220370616,"38":-0.20110913098225502,"39":0.23331434514681207}},"35":{"bias":0.18195935842266,"weights":{"0":-0.10852656991799499,"1":-0.15228669830584066,"2":0.004401571461145589,"3":-0.16096473146887172,"4":-0.11869579683772652,"5":-0.07740086435922645,"6":0.0864674399126168,"7":-0.06025936425649576,"8":-0.17247305294254658,"9":0.06973486752301072,"10":-0.10261565099399797,"11":-0.03688282270135746,"12":-0.12873688525495938,"13":0.12484267968934387,"14":0.12794534585908127,"15":-0.09915270213476163,"16":0.043625588656827516,"17":0.03474803179024296,"18":-0.17729370695463664,"19":-0.02694485747961831,"20":0.051493385813112184,"21":0.15097274044764472,"22":0.021444991334314302,"23":0.12954304794431457,"24":-0.025879653040892233,"25":0.17157659091570468,"26":-0.09662049097185206,"27":-0.012510759865750478,"28":0.03387316694676022,"29":-0.022314347856297104,"30":0.15486470451528092,"31":0.14534520660308253,"32":-0.17744642224750137,"33":-0.17205194492971865,"34":0.16634987935070772,"35":0.16450672954687315,"36":0.18394300956022008,"37":-0.1595329089048903,"38":-0.06838801662947437,"39":0.022111784020067707}},"36":{"bias":-0.27219697175168167,"weights":{"0":-0.15207567182137227,"1":-0.13848663955313864,"2":0.09627449183398129,"3":-0.003208463412045579,"4":-0.10375591646808491,"5":-0.10543875369922386,"6":0.025202618683044103,"7":-0.17071729716049938,"8":-0.25716343155344074,"9":0.16820895655864662,"10":-0.0245035146969251,"11":-0.3123184356366096,"12":0.2211562287680717,"13":0.26539456309443055,"14":0.14707364212419127,"15":0.16869818004466386,"16":0.019642943389814215,"17":0.19852232506325249,"18":0.07595423431143801,"19":-0.2813449809849931,"20":-0.06940651705686207,"21":-0.13857979558787809,"22":0.231299458042694,"23":-0.042313837841672024,"24":0.13248564787403697,"25":-0.29986464916326766,"26":-0.10709160586502901,"27":-0.017548056285576496,"28":-0.024654124722988564,"29":-0.019339423203569888,"30":-0.22556352330683893,"31":0.0445674407505162,"32":0.018324665242592044,"33":-0.02521677497218473,"34":-0.008554878819872621,"35":-0.020975143852649886,"36":0.18192466028376153,"37":-0.04310480557775732,"38":-0.21315122491274865,"39":0.29830414698533975}},"37":{"bias":0.09706841744328192,"weights":{"0":-0.05551177880305426,"1":0.11192165891621873,"2":-0.15557583785600326,"3":0.04816645055126397,"4":-0.0337977803515266,"5":-0.21701918283188223,"6":-0.04592405862821712,"7":-0.07313879954897744,"8":0.12187310913115687,"9":-0.005209210908619256,"10":0.04330898217725408,"11":0.051148868906149066,"12":-0.130321395702092,"13":0.12012991192072991,"14":0.1827588375634524,"15":-0.04485633800295623,"16":-0.14544290982665875,"17":0.2201424589669642,"18":0.02841519837899179,"19":-0.05769505285670935,"20":0.01557986002604314,"21":0.04430481724429574,"22":0.03020649430671209,"23":0.17235132324225394,"24":0.007028744454621233,"25":-0.1970871833492347,"26":-0.12226599587069467,"27":0.22559365827849884,"28":-0.09775046107889777,"29":-0.12750234765935262,"30":-0.027106379239905463,"31":0.1191071880830088,"32":-0.1507082998525598,"33":-0.09590226370193047,"34":0.0644353161065033,"35":-0.11872649497686338,"36":-0.041756701055720796,"37":0.12644326365057842,"38":-0.16514385934336004,"39":0.13281599641548308}},"38":{"bias":0.135990925121317,"weights":{"0":-0.03346401896385924,"1":0.20988544524767463,"2":0.04765843593031066,"3":0.15839621414609517,"4":-0.13268401223071252,"5":-0.2028422451722093,"6":-0.006738477811024016,"7":0.054975088474509444,"8":0.19280835439969443,"9":0.0882462730067322,"10":-0.14919641829533895,"11":0.05532788622173402,"12":-0.0957784042145609,"13":-0.06433487497034107,"14":0.17359770919023632,"15":0.14666833383563688,"16":-0.1926342950107357,"17":-0.08093622771913388,"18":-0.09515984665123264,"19":-0.21231831540102328,"20":0.09099539432511973,"21":-0.02538046744826266,"22":0.14164634639950788,"23":-0.014865307870376338,"24":0.06663126119050927,"25":-0.10492630046091338,"26":-0.11006970461540803,"27":-0.014520389056056173,"28":-0.005986460453230945,"29":-0.0016658433423260917,"30":-0.007751484892479663,"31":-0.07534978974879203,"32":0.14857211631009318,"33":0.054261449954391375,"34":-0.07810254752647987,"35":-0.11970560297451396,"36":0.026743215567700093,"37":-0.04900832647183616,"38":-0.11009917905731437,"39":0.12836163929570754}},"39":{"bias":0.04618381308352262,"weights":{"0":0.03447518446988106,"1":0.035239142279785744,"2":-0.19540348033359986,"3":-0.13504224589201352,"4":0.018460102794901873,"5":0.023863049226644832,"6":-0.23449083743265886,"7":-0.08554629002893895,"8":0.09273537146327439,"9":0.010051023999997882,"10":0.11291303523426327,"11":-0.1707293036434755,"12":-0.15452972835247764,"13":0.14876783346816916,"14":-0.17573176401651197,"15":-0.07139684085441188,"16":-0.21793768592377943,"17":0.28682746123286146,"18":0.0446909507116273,"19":-0.22810153075887024,"20":-0.08105510557098244,"21":-0.21001886221119984,"22":0.13282039593327827,"23":-0.08527004854362588,"24":0.2044990787777654,"25":-0.2371950021471745,"26":-0.2590805228058333,"27":0.2287065618688291,"28":-0.13475563906281038,"29":0.1167249463528858,"30":0.047503161616974335,"31":0.08583873997946492,"32":-0.24046657524679393,"33":-0.07447320350622641,"34":0.250672401615567,"35":-0.266920121309813,"36":0.16560851899846027,"37":0.061874527699003735,"38":0.026193539389669413,"39":0.25852787410143707}},"40":{"bias":0.0567973377954157,"weights":{"0":0.15817160003333958,"1":-0.08445938237328403,"2":-0.017920530999856618,"3":-0.15942745470933675,"4":0.1338842820037991,"5":0.036053752219702924,"6":-0.03523397547823775,"7":0.2097189283800169,"8":0.023334502313363537,"9":-0.03795835556212334,"10":0.037001643431031024,"11":0.1916504712118948,"12":-0.13528178280768355,"13":0.021268223712765988,"14":-0.1510404824675932,"15":0.10255799581117221,"16":-0.14821293582925518,"17":0.03755805483051868,"18":-0.15246811272638777,"19":-0.09065604952459817,"20":0.17368030593920408,"21":0.14111327414889765,"22":-0.10550395671167209,"23":0.09067183280924708,"24":0.02671863030332964,"25":0.08775976975497975,"26":0.04626487698978372,"27":-0.059384746993896544,"28":-0.07180601119433314,"29":0.09515330035384865,"30":0.21609508127562857,"31":0.20839905388335525,"32":-0.03981876211892325,"33":-0.1633620065936911,"34":-0.17244554247840227,"35":0.1866011044796057,"36":-0.12757195861613763,"37":0.1509691558153409,"38":0.12024153203076618,"39":0.035895681678984714}},"41":{"bias":-0.049905581845507245,"weights":{"0":0.09233829966294217,"1":0.0994224050149864,"2":0.1018935672424272,"3":0.13258523450307164,"4":0.012270004168199598,"5":0.19663526083975313,"6":-0.1107214401577096,"7":-0.16458321649263669,"8":0.1337344585498454,"9":-0.18683736784540883,"10":-0.16377923048235363,"11":0.10533895157601962,"12":0.1022726244277015,"13":-0.14510810639882435,"14":-0.17240483249274216,"15":0.031151248767356247,"16":-0.08739165545659369,"17":-0.08637288892341904,"18":-0.09655329768871494,"19":0.0260391607663024,"20":-0.08059820615545878,"21":-0.11890160062768484,"22":-0.06404659126242836,"23":-0.15790350899086192,"24":0.00899218744169278,"25":0.05451104423622048,"26":-0.10783358191362236,"27":0.007150145089490722,"28":-0.14466651149018012,"29":0.10567732904037733,"30":0.022356188671256855,"31":0.003697232438462641,"32":0.10920601566767402,"33":-0.025608903481078138,"34":0.16976451894740482,"35":0.13004090691636447,"36":-0.14910839008054286,"37":-0.16610345457442,"38":-0.15325304395629324,"39":-0.11799562384708513}},"42":{"bias":-0.11295850611775983,"weights":{"0":-0.20377923549304572,"1":-0.007734384778593143,"2":-0.01953848038918603,"3":0.1504533790775576,"4":0.08160421561575264,"5":0.06106870771786903,"6":0.036575196082729466,"7":0.028858311919093382,"8":-0.12406836138844701,"9":0.11193984653158098,"10":-0.13334347519713588,"11":-0.010217929678860167,"12":-0.06056161220996924,"13":0.23158806932136314,"14":0.06861965945146786,"15":0.039554487804032645,"16":-0.12605374991753088,"17":-0.02284034400036657,"18":0.08052149051258939,"19":-0.11006266428563981,"20":0.11687638319512514,"21":0.051138989344028954,"22":-0.11423195056283975,"23":-0.158482024388119,"24":-0.10212728474125994,"25":-0.061894424605462295,"26":0.16078145751001174,"27":0.17784619591823175,"28":-0.07333660198958529,"29":0.03578768431708635,"30":0.03775011133246675,"31":0.18238485257439074,"32":-0.2076112806916088,"33":-0.01557177436225619,"34":-0.0598222632732789,"35":0.0641837259268376,"36":0.06111509486129782,"37":-0.022956241325196674,"38":-0.15365564986420727,"39":-0.13545163424067186}},"43":{"bias":-0.08781475009281726,"weights":{"0":0.018072528969070252,"1":0.07451651489430768,"2":-0.0014959115863710797,"3":0.08269846259851785,"4":-0.246666979499108,"5":-0.11531869274169979,"6":-0.05068975393373225,"7":-0.2362961634541365,"8":-0.1805892288107278,"9":0.2998805699913538,"10":-0.08324149926306658,"11":-0.0643698789255694,"12":-0.06108855501617112,"13":0.006766905801612818,"14":-0.17344025553717096,"15":0.009168269707160248,"16":0.09540308286524611,"17":0.1393588427822628,"18":-0.025119922617773512,"19":-0.05447767291296861,"20":-0.09345623855712872,"21":-0.25959899521628693,"22":0.18236273359513533,"23":-0.013014906815680868,"24":0.09378610151017984,"25":-0.055520936200526325,"26":-0.09239674304114338,"27":0.15212907073876566,"28":-0.287900365633578,"29":0.06813414959415728,"30":-0.0828455781731262,"31":0.08711900017469068,"32":-0.07369808773575318,"33":-0.1793080849121861,"34":0.2488619783736803,"35":0.028682108206767185,"36":0.09075966976563564,"37":-0.09705205798019377,"38":-0.022689715002505596,"39":0.2587031926666578}},"44":{"bias":-0.021199775077211717,"weights":{"0":-0.1397498421909736,"1":0.036782929252171026,"2":-0.15581490095970155,"3":-0.10752456193929702,"4":0.09090019292493189,"5":0.09959101154954145,"6":-0.17525590535981408,"7":0.08697720308626161,"8":0.1332626766833379,"9":-0.11273332039433102,"10":-0.13875612400880366,"11":-0.20756088569676612,"12":0.14704946322360782,"13":0.1104439372522014,"14":0.12539489197108722,"15":0.18218947878090258,"16":0.09378775283549587,"17":0.08755946370046279,"18":0.04038177556277455,"19":0.06151196685911249,"20":-0.11880971775385875,"21":0.04764709207154437,"22":0.22810536289453126,"23":0.18662799933244442,"24":0.03601238735199236,"25":0.012601770994521543,"26":-0.13605063494548064,"27":-0.08753446221445066,"28":-0.011120218338975068,"29":0.12655325964294656,"30":0.04808821384826415,"31":-0.06356876385017309,"32":-0.11338405157691601,"33":-0.1765536343076128,"34":0.10750974220631193,"35":0.13359477720064292,"36":0.0786446249359047,"37":0.12244697801342286,"38":0.16357902592201118,"39":0.04563287044879132}},"45":{"bias":-0.23069602841247597,"weights":{"0":0.028210489266046482,"1":0.1596818187564509,"2":-0.1080785923279583,"3":-0.11281849212146618,"4":-0.14845373034398907,"5":0.08633190250976004,"6":0.035438578925417484,"7":-0.07713620607273977,"8":0.006554631309694571,"9":0.3003387677334419,"10":0.17775612707039792,"11":0.03730682128404897,"12":-0.08713467884140173,"13":-0.08161650394079217,"14":-0.05672115611360337,"15":-0.17211551895230354,"16":0.11791046986654241,"17":0.2876804705386378,"18":-0.1531433310373,"19":0.02877100219628704,"20":-0.3037190875384967,"21":-0.290727533831928,"22":0.11604898739370954,"23":-0.18070483309329288,"24":0.11675824404747515,"25":-0.273078575017831,"26":-0.1889927677282256,"27":-0.03025412852518343,"28":0.015630245060473037,"29":0.2872277994704341,"30":-0.19094286529843513,"31":0.042882449816978925,"32":0.061481106912722586,"33":-0.05811644126549946,"34":-0.0020403294684512075,"35":-0.1428425526662745,"36":0.18230898601540801,"37":0.12955384498019712,"38":-0.10783016487366688,"39":0.269090480377558}},"46":{"bias":-0.05440040534652354,"weights":{"0":0.11897194054125955,"1":-0.040142199475876814,"2":-0.22965962954333557,"3":-0.1594811755621959,"4":0.05991965421158558,"5":0.12221986331800774,"6":-0.22249480939076194,"7":-0.24308552388497923,"8":0.06415359614894768,"9":0.09979390534616654,"10":-0.06433751682091399,"11":-0.03953165082150633,"12":0.1434126406143531,"13":0.017171574037079505,"14":0.16015864922722964,"15":-0.006345843081988705,"16":0.0037533882909635916,"17":0.2465179813369678,"18":-0.12280717960666881,"19":0.06846552349389069,"20":-0.22665374524084123,"21":-0.2666914290931243,"22":-0.07585909234851267,"23":0.13526634210199537,"24":0.1726318885209848,"25":-0.15375585959066793,"26":0.08692912490979916,"27":0.1599547154362596,"28":-0.19807735485497083,"29":0.10538510251589782,"30":-0.13134282580940357,"31":-0.12942200321358951,"32":-0.10795257065518112,"33":-0.16569022901247196,"34":-0.03825863779157457,"35":-0.07121739935514275,"36":0.1099426966528333,"37":-0.06117975845297582,"38":0.1264858263153295,"39":0.16793561488855008}},"47":{"bias":0.01680650629728066,"weights":{"0":-0.01106472620136881,"1":-0.16027196216391393,"2":0.034090591300648794,"3":-0.09030915175508056,"4":-0.1481639452646408,"5":0.06251516511345638,"6":-0.1914381624057842,"7":-0.06502113382473877,"8":-0.1309878184872548,"9":-0.004639852242618776,"10":-0.00909256605350152,"11":-0.18331975016361982,"12":0.1428584318136105,"13":0.1465481562350546,"14":-0.029917329774315844,"15":0.0010843692147190587,"16":-0.1873719927311881,"17":0.01147456708783323,"18":-0.025476955769437034,"19":-0.1619661161857762,"20":-0.2079120285547821,"21":0.07292173986155105,"22":0.11947832565865303,"23":0.15048282087981807,"24":-0.0805008778037595,"25":-0.10780530794845093,"26":-0.11757982484891745,"27":0.11227255678197992,"28":-0.040813417499868124,"29":0.015656343131872186,"30":0.0737798639935486,"31":-0.01633683694785018,"32":-0.12124376524859498,"33":-0.09319731132436115,"34":0.18516720969874573,"35":0.0804000228869336,"36":0.02003314218165946,"37":-0.09686165746215007,"38":-0.14830318758893218,"39":0.253970480693273}},"48":{"bias":-0.09036799424378508,"weights":{"0":0.03676927144636696,"1":-0.14408934189750994,"2":0.10373626549997987,"3":-0.19523104879425301,"4":-0.09979008545652791,"5":0.21153944134697936,"6":-0.025509408559552773,"7":-0.08489793147632482,"8":0.1543371617758799,"9":-0.19173216889538833,"10":0.16552398050150802,"11":0.024569568843078822,"12":0.1922637846634792,"13":0.13121067146899978,"14":-0.10447593775564458,"15":-0.1286972639068232,"16":0.07033168014502936,"17":-0.14024229750451278,"18":-0.14653739641102792,"19":0.18305756954112665,"20":0.21748355766199123,"21":0.20645203335628678,"22":-0.1994535955180064,"23":0.01414107546022874,"24":0.006341677516540529,"25":0.1545805525221873,"26":-0.1604117467333029,"27":0.020145923703795744,"28":0.1991923919875924,"29":0.15433298969668413,"30":0.15397108090039036,"31":-0.17087078595446198,"32":-0.1809248646528265,"33":0.05242028998246302,"34":-0.13215345689457023,"35":0.12068869675669673,"36":-0.18154561348151935,"37":-0.048167797695846434,"38":-0.0837738922122717,"39":0.09708704116632379}},"49":{"bias":-0.2201404702591689,"weights":{"0":0.0020515974913741636,"1":0.10268049768632431,"2":-0.18240738201666937,"3":0.029261631079509968,"4":-0.23094254766833014,"5":0.06874240108937299,"6":-0.18514588974335158,"7":-0.15719946069523588,"8":0.027038817886174127,"9":0.10731964580655429,"10":-0.018698691416718757,"11":-0.07034992051532032,"12":0.2116035368376986,"13":0.10827396710551418,"14":-0.15381114950288477,"15":0.10872183152542425,"16":0.023136177619467086,"17":0.24914871849305364,"18":0.006119898044860554,"19":-0.2563875470984251,"20":-0.07958181568987231,"21":-0.05297821450299224,"22":0.01794393665077984,"23":0.015548891183064056,"24":-0.08878034163480669,"25":0.14170056586519195,"26":-0.10867148965588166,"27":-0.13298213171629572,"28":-0.025473371143912085,"29":0.11153439278528596,"30":0.14574852674319677,"31":-0.16149953511862553,"32":-0.0974035524243716,"33":-0.19417968945769362,"34":0.16918244880932534,"35":0.0019456633685955853,"36":0.1410705280268009,"37":-0.05405539408471535,"38":-0.13563525767510393,"39":0.23640203944961224}}},{"0":{"bias":0.05350341309015831,"weights":{"0":-0.08610798886219244,"1":0.051113363688262324,"2":-0.16956222371507504,"3":-0.23445505658945676,"4":-0.10246969637605874,"5":0.018708587205492497,"6":-0.22149978564991693,"7":-0.013698113157023942,"8":-0.1931682368518117,"9":-0.11997696800620027,"10":0.07445766540353412,"11":0.04753313272501207,"12":0.11951118476443351,"13":0.17587173012751958,"14":0.003586366632301289,"15":-0.029379001570294265,"16":-0.027489280246290115,"17":0.09638326803479229,"18":-0.2036405563127207,"19":-0.24641816324140986,"20":-0.13099643823809945,"21":0.07540442063171686,"22":-0.10692374319864176,"23":0.09782075465863184,"24":-0.08320977943635803,"25":-0.2900153115394669,"26":-0.011749388524638875,"27":0.1621024789844539,"28":-0.1865718154557573,"29":-0.21417979318384814,"30":0.03118795473281194,"31":-0.23995528806494787,"32":-0.19646846286770303,"33":-0.30572200100449487,"34":-0.2562772885031907,"35":-0.027742366530670106,"36":-0.1237669567960355,"37":-0.21490590952787106,"38":-0.15125526594641903,"39":-0.09362364322174649,"40":0.12418590435058625,"41":0.07444639299740807,"42":0.06132819219280493,"43":-0.16064591143934112,"44":-0.04994373659156424,"45":-0.1801096529474902,"46":0.08372135114539161,"47":-0.2492215195343681,"48":0.031673600979113335,"49":0.06175156232199578}},"1":{"bias":-0.21138191676717027,"weights":{"0":-0.2424343140697894,"1":0.11295449662664898,"2":0.001561632007345267,"3":-0.05383005507824677,"4":0.008293541467140297,"5":-0.27568468895658377,"6":-0.23337536294591987,"7":-0.05367483198643387,"8":-0.18310464797184112,"9":-0.017115536774281653,"10":-0.15554909726663865,"11":0.11412811856290665,"12":-0.011578246322455011,"13":0.10807884126649746,"14":-0.029440135783491396,"15":-0.2290917342781375,"16":-0.18166392270372997,"17":0.09661685259827417,"18":-0.22352506895955754,"19":0.0632634552919968,"20":0.08867506750632373,"21":0.05845190316119859,"22":-0.20088898606090153,"23":-0.047770108599495084,"24":-0.09835280797744561,"25":0.08765230529830247,"26":-0.04932239617309078,"27":0.128277570779913,"28":-0.2362118621701166,"29":0.11024862528846263,"30":-0.20617580522618636,"31":0.010608023378164064,"32":-0.1869288603582376,"33":-0.20685783118183632,"34":-0.014022666352664671,"35":-0.17696355626171667,"36":-0.008743347249531309,"37":-0.1345649184831555,"38":-0.0360505726819704,"39":-0.14621745763524818,"40":0.0012462581198136335,"41":-0.040969624844636565,"42":-0.1144025905857136,"43":-0.14891968928298996,"44":-0.19724898649923872,"45":-0.26377581246742404,"46":-0.17548293088962263,"47":0.08406217435055885,"48":-0.0777286636478201,"49":-0.22347658913072865}},"2":{"bias":-0.20598661708408014,"weights":{"0":-0.07155489172101787,"1":-0.08673411575477659,"2":0.10364561794631202,"3":-0.13098559081924924,"4":0.18151955777994963,"5":0.11899198187560397,"6":0.10516584792068714,"7":-0.0499167227921371,"8":-0.07529996234327017,"9":0.15828766071826172,"10":0.08984660910495594,"11":-0.0395634581605283,"12":0.08614733641907438,"13":0.22318495418603665,"14":0.05769388823651297,"15":0.041381108249675835,"16":0.08492340812481118,"17":-0.07356809681893209,"18":-0.17659128824062678,"19":-0.2529301894304536,"20":-0.1822312508885276,"21":-0.1192224776473694,"22":0.22188906311755446,"23":0.20373061594616168,"24":0.2585639090306958,"25":-0.25589023248596876,"26":-0.1141809780073643,"27":0.0005138030339498277,"28":-0.04467116174737747,"29":-0.03511514295469196,"30":-0.13225636747022346,"31":0.03661759864468422,"32":0.21079196915451856,"33":-0.08186608411114546,"34":0.037177670049667565,"35":0.14392281314198427,"36":-0.31045140934391974,"37":-0.22351129377512408,"38":0.011937306359814083,"39":-0.3115562316558418,"40":0.03641630128837041,"41":0.16617919154221966,"42":0.005176043738599656,"43":-0.22366366327420592,"44":-0.21620200085405533,"45":-0.24311541318174773,"46":-0.13982885103978793,"47":-0.12785764156294097,"48":0.028630215881075706,"49":0.0701269546288379}},"3":{"bias":-0.28543207448768204,"weights":{"0":-0.2184643738213155,"1":-0.1701286761215644,"2":-0.15716948758789492,"3":-0.27831506828542646,"4":0.20627176119453705,"5":-0.0347481717432139,"6":0.06087511571434819,"7":0.06503564854693906,"8":-0.19689811515046557,"9":-0.10766505825878964,"10":0.17793354276209777,"11":-0.24753467002432683,"12":-0.21911949685602303,"13":-0.010493750815096573,"14":-0.13796367143738839,"15":-0.07899048379581887,"16":0.06739826739690938,"17":-0.2886884924793514,"18":0.10560056891812573,"19":0.0752032627061508,"20":-0.08765323503431795,"21":-0.03433541934569952,"22":0.09660388587621375,"23":-0.14189639628193396,"24":-0.17482536524589096,"25":-0.08740215547132223,"26":-0.06845585624691283,"27":0.04037987583956068,"28":-0.20783667788525173,"29":-0.08355438571233148,"30":0.051098219574079125,"31":-0.15211660159726986,"32":0.030184003863405997,"33":-0.15374006706200577,"34":0.09169327683507965,"35":-0.2571975571237965,"36":0.08769062450611108,"37":-0.19700651883729414,"38":-0.20283156597160037,"39":0.0556605085682304,"40":-0.21578136193362443,"41":-0.08016756134853821,"42":-0.06983549706864584,"43":-0.05398920829796917,"44":-0.0536027954573767,"45":-0.07256382496439148,"46":-0.013812760205401594,"47":-0.18306001232949196,"48":-0.06222088840937999,"49":-0.02021925493608139}},"4":{"bias":-0.14122140915836176,"weights":{"0":-0.0026062758608457596,"1":-0.26453409992418564,"2":-0.24334510132606968,"3":-0.21623728632677452,"4":0.0371726520664382,"5":0.0750013178572088,"6":-0.02123048389893165,"7":0.0061728878522657096,"8":0.09146824877716897,"9":-0.08693123256179072,"10":-0.1362232998598336,"11":-0.1312977980557726,"12":-0.014836138364414407,"13":0.18672617616739118,"14":0.00405309714347764,"15":0.10747925557902406,"16":-0.16158863090208647,"17":0.09079519143835178,"18":0.09938932997430724,"19":-0.16112828258681577,"20":-0.31307914375169,"21":0.014001973760555612,"22":0.11573014000103128,"23":0.0067833181586418306,"24":0.046137985401030264,"25":-0.11586308811315543,"26":0.16859240350826238,"27":0.11355159421497044,"28":-0.22837463532449176,"29":-0.25317192936733773,"30":0.06227114294793872,"31":0.06999706633448247,"32":-0.05395763380802461,"33":-0.23237458692385468,"34":0.016688682550815823,"35":-0.05205175714379233,"36":0.048289352750746736,"37":0.03575299484838765,"38":-0.05565009120937986,"39":-0.24877049802670143,"40":-0.07216947102024159,"41":-0.10579035146284843,"42":0.10294036781573834,"43":-0.21832691027300882,"44":-0.11409986539193366,"45":-0.29552647360901246,"46":-0.082637992708583,"47":0.10910096625378085,"48":0.04560766256936335,"49":-0.24682219447863724}},"5":{"bias":0.1062778845602393,"weights":{"0":0.06195087609200566,"1":-0.019001469493239557,"2":-0.1982304190844072,"3":-0.20631619775418164,"4":0.136699929391671,"5":-0.19376760431120785,"6":-0.02660337493416245,"7":-0.0055807226411149395,"8":0.08950136883814692,"9":-0.03309940555471258,"10":0.3149029398733411,"11":-0.08787464227539192,"12":0.10603462171778999,"13":0.36636509558127855,"14":0.18658169251212223,"15":0.3055874472493348,"16":0.011211221571250199,"17":-0.1862407922167904,"18":0.07576072345287543,"19":-0.19179558230408805,"20":-0.30081397153234735,"21":-0.2592082947962505,"22":0.13004114110715587,"23":0.12734492519317825,"24":0.31355821258660393,"25":-0.2515556595085477,"26":0.18567039034372607,"27":0.19076904331108951,"28":0.007080203170049617,"29":-0.0911802941156366,"30":-0.008003891576357447,"31":-0.1492453231195549,"32":0.04454646733931973,"33":-0.3633514823230535,"34":-0.0016207407022583954,"35":-0.11952814894981754,"36":-0.006170056909044209,"37":0.13417109928326468,"38":0.11884856687957486,"39":-0.13784968836155018,"40":0.1027670908824705,"41":-0.14854063930148947,"42":-0.12565822938422957,"43":-0.21335784465892274,"44":-0.09127661243653454,"45":-0.2322435899424473,"46":-0.10714756599633682,"47":-0.20752887677537538,"48":0.2014597500418733,"49":-0.08105576572812874}},"6":{"bias":0.0608179145396067,"weights":{"0":-0.13533654003082923,"1":-0.10013168882431646,"2":0.024603531147455525,"3":0.0004883265164663784,"4":0.1615672904598186,"5":0.08016221280887194,"6":-0.02928474696614525,"7":0.07500165909643977,"8":-0.20648435175405858,"9":0.032447993968151706,"10":0.16992155188222768,"11":-0.24511222344325118,"12":-0.2537486755731724,"13":-0.06771166050778105,"14":0.047680035131059624,"15":-0.19865603954299868,"16":0.02738668024175661,"17":-0.06921921710732713,"18":0.08776825527033287,"19":0.08814947526428828,"20":0.02053182178070242,"21":-0.02680796716072924,"22":0.12923738175389993,"23":0.11097202770245261,"24":0.11039269979520776,"25":-0.27720239997626567,"26":0.09598441765924708,"27":-0.018503114442997005,"28":-0.14272688018483173,"29":-0.06625312225475255,"30":-0.02945597269513035,"31":-0.23013898725802748,"32":0.10675783090056132,"33":-0.14359100446534062,"34":-0.17335331334535198,"35":0.09214087574383738,"36":-0.3361148441483279,"37":-0.2463890022099245,"38":-0.15871621939914576,"39":-0.16412245706548606,"40":-0.2042892706968149,"41":0.054265249934007075,"42":-0.1486813679920543,"43":-0.2807272694302147,"44":0.025598286480809997,"45":-0.20044541338843483,"46":-0.11999074079192197,"47":-0.12933488991763453,"48":-0.11671966940977553,"49":-0.18935257039119407}},"7":{"bias":0.2788358660129916,"weights":{"0":0.17800652807812306,"1":-0.2353178277116558,"2":-0.09725832815193439,"3":-0.19937034776089263,"4":0.36210301762979946,"5":-0.07761446193993005,"6":0.2672489077234464,"7":-0.013106668682984754,"8":0.16949688720117073,"9":0.2491579903589359,"10":0.44154096623576966,"11":-0.29871751037452,"12":0.09591300910628246,"13":0.5519910043663304,"14":0.04799935107291972,"15":0.3380067291766931,"16":0.1994295217380064,"17":0.0417809891300982,"18":-0.21567203326138407,"19":-0.22686539238155795,"20":-0.3514362808749744,"21":-0.39022272202046765,"22":0.2938432430178155,"23":0.32212189766414884,"24":0.2525126076788987,"25":-0.16893064712784536,"26":0.21140062203688456,"27":0.13308356119763315,"28":0.05027761062671864,"29":-0.2638064813727784,"30":-0.031037951049512118,"31":0.10233456131048421,"32":0.6103696025833741,"33":-0.5573710336034311,"34":0.06137807025983251,"35":0.18468989233268857,"36":-0.447813233780838,"37":-0.17471065868911598,"38":-0.04368564196631693,"39":-0.20827284084055553,"40":0.4194442147026367,"41":0.22226676333888087,"42":0.14285569153453442,"43":-0.3122979600671977,"44":0.1170441201753141,"45":-0.21794194968309064,"46":-0.3387586860158924,"47":0.03936361293970276,"48":0.3480563335615614,"49":-0.17931273293651384}},"8":{"bias":-0.10205065838927917,"weights":{"0":-0.13118389379423248,"1":-0.146646203189226,"2":0.115110046468285,"3":0.13945006711223482,"4":-0.29405253621294086,"5":-0.2689258993617613,"6":-0.05625064736517261,"7":-0.11939845074053956,"8":-0.23258488030719304,"9":-0.008061330133048033,"10":-0.16130907792853186,"11":-0.015025696464658293,"12":-0.08918114897295117,"13":-0.02126839158293193,"14":-0.049140972997678105,"15":-0.25815326771758396,"16":-0.1319618921211946,"17":0.0903942487884023,"18":0.08196327869265113,"19":-0.23706026932050123,"20":-0.22357224346904234,"21":0.08581714866270525,"22":-0.2095244438436642,"23":-0.21348376342026365,"24":-0.07575318680780697,"25":-0.05108105384200167,"26":0.039961196775242486,"27":-0.17160645003789293,"28":0.09098787910821673,"29":-0.10134479448300869,"30":0.07986650689246166,"31":0.006915828262915465,"32":-0.12224673673772257,"33":-0.17744432360697587,"34":-0.10992416719650032,"35":0.08610703315977579,"36":0.0527511326703118,"37":-0.07551594076431331,"38":-0.16319266655295514,"39":-0.08114415227371502,"40":-0.1496305191127142,"41":-0.04803419970968756,"42":-0.05086335747794376,"43":-0.07834254666609769,"44":-0.1238506643556284,"45":-0.1675044323533677,"46":-0.2048960482771889,"47":0.07077486140292011,"48":0.06927306442991062,"49":-0.13339110997902337}},"9":{"bias":-0.03653848773336555,"weights":{"0":0.006264483717092014,"1":0.12906047587765845,"2":-0.256736655311534,"3":-0.2675086121510037,"4":0.12134058465353806,"5":-0.022255981682738464,"6":0.11416710476388378,"7":-0.09290746410439181,"8":0.1008534106897542,"9":-0.11800090240457387,"10":0.08039788134072412,"11":0.11545937422346202,"12":-0.09324681175387392,"13":-0.17036963086400456,"14":0.12798896710983626,"15":0.05565759391020303,"16":-0.16139895018202194,"17":-0.04476957213488584,"18":-0.2790345941118964,"19":-0.19323502383438507,"20":-0.2538398048967832,"21":-0.16996804427678494,"22":-0.23953271087395522,"23":-0.1113927545009234,"24":-0.0640933025948829,"25":-0.014761821329750615,"26":-0.03637281257668184,"27":-0.1539325162840274,"28":-0.158819207442366,"29":-0.003803225282292336,"30":-0.15506066752446335,"31":-0.22993665933604543,"32":-0.1056005249666518,"33":0.06788889311172158,"34":-0.23554097843881783,"35":-0.07940945500156112,"36":-0.15387320325997852,"37":-0.155817019803687,"38":-0.1488059390894095,"39":-0.11477099969500355,"40":-0.13944548602683232,"41":-0.2513761768310175,"42":-0.10754476617432529,"43":0.030670889958927344,"44":-0.05123456009740318,"45":-0.15193879688478845,"46":-0.0077187316982229885,"47":0.07105895618386716,"48":-0.2320144547117121,"49":0.048372764017391996}},"10":{"bias":-0.10370849926704521,"weights":{"0":-0.18255119709811907,"1":0.05228902692588542,"2":-0.04165972418764056,"3":-0.1321463472185065,"4":0.27842486253037724,"5":0.12060572463714757,"6":0.2092948576648345,"7":-0.012922192440991322,"8":0.24670333740983882,"9":0.033681866790351865,"10":0.03385218102312416,"11":-0.14950388077829999,"12":-0.15317658779840612,"13":0.22488969261184427,"14":0.04729035043851417,"15":-0.010375538157422249,"16":0.10088154176996796,"17":-0.2421927786565835,"18":0.09277104257485587,"19":-0.049978167669575295,"20":0.02573943774217634,"21":-0.1131459492677497,"22":0.3399485636484318,"23":0.3064041829632074,"24":0.12017810687255073,"25":-0.05690261424145206,"26":-0.04550678451758012,"27":0.11032795813551995,"28":-0.20695725353571448,"29":-0.25357060836629874,"30":-0.1958684633277276,"31":0.06782780040414843,"32":0.21676655100266948,"33":-0.1439475526866511,"34":-0.17814623115690634,"35":-0.1424050363716762,"36":-0.29459974286181406,"37":-0.08981687681301652,"38":0.06438496921464168,"39":-0.27757623060025455,"40":-0.01817009737764798,"41":0.11214466979242699,"42":0.1536818208725379,"43":-0.279519920924397,"44":-0.06609438996802328,"45":-0.2800648841717778,"46":-0.10515522445904775,"47":-0.06085726799701747,"48":0.0553939317724169,"49":-0.11783577574898299}},"11":{"bias":-0.08328314120915706,"weights":{"0":-0.12721336691741522,"1":-0.22943668051934807,"2":-0.23449175145144724,"3":-0.13062124123007957,"4":0.1282085065423863,"5":-0.13869727537123422,"6":-0.12320208692824906,"7":-0.026744223690543818,"8":0.07779898882728226,"9":-0.21819250823295008,"10":-0.23453134877991763,"11":-0.29208878097343405,"12":0.06922772755674972,"13":-0.05783089070720669,"14":-0.07065425172557493,"15":-0.03411279782906391,"16":-0.1272986091113403,"17":-0.17074937206650043,"18":-0.2418994967331037,"19":-0.16846570783707795,"20":0.06825730694515116,"21":0.0460589046256336,"22":0.008081976883226842,"23":0.03206688496891244,"24":-0.15590783861458873,"25":-0.06078474640750719,"26":0.10727580526243567,"27":0.04409304235374425,"28":0.00029316467727997467,"29":-0.18347422074472575,"30":0.08901961192099149,"31":-0.2537349978134446,"32":-0.17249806984322213,"33":-0.21711161160350065,"34":-0.2573847067497015,"35":0.12388536382489063,"36":-0.05340688755316016,"37":-0.10894572003477866,"38":-0.2705155727614348,"39":0.006969901728721646,"40":-0.06845320505072741,"41":0.09006629327773852,"42":-0.029354839544591144,"43":0.01382002702121284,"44":-0.06815057291173753,"45":0.04113939278560162,"46":-0.12483075310497795,"47":-0.1710977665303261,"48":0.13275861883402323,"49":-0.11547660273979642}},"12":{"bias":0.012455940386440958,"weights":{"0":0.022059364647000413,"1":-0.03759876493694567,"2":-0.28977120715707,"3":-0.020694187615190738,"4":-0.07427080962990171,"5":-0.02433409619036407,"6":0.009563065185330835,"7":0.11790369551699875,"8":-0.2909758169492642,"9":-0.1189037814339382,"10":0.050963933314939015,"11":-0.04719899798226295,"12":0.05076249481237226,"13":-0.1098875650301794,"14":-0.21549626329761404,"15":0.023586597366295505,"16":-0.20615888903317617,"17":0.09137251656980487,"18":-0.3035089841558383,"19":-0.024402800240592826,"20":-0.1015788336894002,"21":0.060223244956338275,"22":-0.17557828588868135,"23":-0.22545707363998063,"24":-0.1372914736421229,"25":-0.08682215562473065,"26":0.08199919741063522,"27":-0.09770345009136136,"28":-0.2190009612251771,"29":0.0439389738903649,"30":-0.09912217845602535,"31":-0.13739607217544583,"32":-0.2534866264520226,"33":-0.21513299341606376,"34":-0.06232157404837861,"35":-0.1247066830103092,"36":0.1065991560284472,"37":-0.21367137002823686,"38":-0.08799356426387764,"39":0.05531044815785723,"40":-0.03839949519134487,"41":0.13117586764337424,"42":-0.004010224615815619,"43":-0.08668893714547961,"44":-0.3084291375970275,"45":-0.19708796206955473,"46":-0.021861453768302286,"47":0.07116206313342334,"48":-0.13818029328936599,"49":0.0030331552092409545}},"13":{"bias":-0.2469042783694445,"weights":{"0":0.05096400250204252,"1":0.02046496918277153,"2":0.2648302889941899,"3":0.1982107827736154,"4":-0.29887943556832974,"5":-0.11576349590613817,"6":-0.0808922511073548,"7":-0.07873812018369734,"8":-0.28823074397020537,"9":-0.21578597251317194,"10":-0.30470609964825396,"11":-0.05272141773370252,"12":0.1874421848201226,"13":-0.39623328062858454,"14":-0.21742997017386664,"15":-0.2119869042211608,"16":-0.21297256673382942,"17":0.16648741353943805,"18":0.1151882887882878,"19":0.11482102749751277,"20":0.11132809940646174,"21":-0.0694984729580065,"22":-0.19278568381933076,"23":-0.21043525321359924,"24":-0.24543647962442378,"25":0.32140741921750887,"26":-0.009317939086750411,"27":-0.15735098434763312,"28":0.05467880503215255,"29":-0.01572160497256215,"30":0.13602430073350036,"31":-0.13455154844761938,"32":-0.4222257512916637,"33":0.4312815608043303,"34":0.17786276948990226,"35":-0.17714492571909787,"36":0.24018334671564395,"37":-0.11781923840769216,"38":0.03527213939885842,"39":0.29708784908623004,"40":-0.251177430090115,"41":-0.21551015051750114,"42":0.014447729282214742,"43":0.19636987503390485,"44":0.04295976414318792,"45":0.3050977653600933,"46":-0.031689295894704754,"47":0.26374800535093024,"48":0.04516567264434906,"49":0.012548690634926257}},"14":{"bias":-0.01894359064114065,"weights":{"0":-0.027844650081487204,"1":-0.2342070346971711,"2":-0.02148414762166743,"3":0.029091904089002873,"4":-0.14939145351123573,"5":-0.26265878116032015,"6":-0.12961780768900785,"7":-0.18384001580610682,"8":-0.18172536161941877,"9":-0.1444213673924748,"10":0.15869309573688742,"11":0.014674656472883916,"12":0.007212353934134488,"13":-0.17170085730583726,"14":-0.2113981155290903,"15":0.08510566614452145,"16":-0.037455965672247765,"17":-0.007911008543214863,"18":-0.2803863625038508,"19":-0.18124024485111306,"20":-0.28423553549506053,"21":-0.0899209008523181,"22":0.012336331879782657,"23":0.043333138351864475,"24":-0.060419501572238715,"25":-0.04869795217132789,"26":-0.1916661442182305,"27":-0.058581395704004786,"28":-0.2075374781926006,"29":-0.17759696416817655,"30":-0.23083194164379678,"31":-0.08693046831485386,"32":0.02959533203547108,"33":0.0785803788790328,"34":0.06771198342274211,"35":-0.17870244213576225,"36":-0.09597210784463178,"37":0.10594443517550887,"38":-0.027071652782968917,"39":-0.2728490283680116,"40":0.10499838203567266,"41":0.09233006363411503,"42":-0.11862507788921804,"43":0.08772612609710388,"44":-0.18338796670426463,"45":-0.2201336205313971,"46":-0.1013874716068738,"47":0.1069120153188394,"48":-0.12462120378028266,"49":-0.11740200081221797}},"15":{"bias":-0.14890032155188496,"weights":{"0":0.011481087563271883,"1":-0.10319316681606304,"2":-0.0999427067732006,"3":0.0021011781781263717,"4":-0.13400291818508822,"5":-0.1829673864329401,"6":-0.1333235677916905,"7":-0.0013467898299855032,"8":-0.18133666979882088,"9":-0.0980530679150617,"10":-0.03674557403702543,"11":-0.026322004557189898,"12":-0.06260431129168745,"13":-0.10628303669942672,"14":-0.1994556013607838,"15":-0.21709283897654386,"16":-0.1823677858639597,"17":-0.1349728927888901,"18":-0.08501098366460078,"19":-0.2353754193329849,"20":-0.006803188357089158,"21":0.03564045865019345,"22":-0.038070481171542964,"23":-0.27658935135632007,"24":0.09210660898966289,"25":0.09517156952159216,"26":0.017051970323717896,"27":-0.06991453401921548,"28":-0.19274422429424973,"29":-0.10334897238189239,"30":-0.029662841005379106,"31":0.04689760670022643,"32":-0.11477665865476905,"33":0.020908801006395746,"34":0.03956207235123085,"35":-0.12558489455632418,"36":-0.0026356421554073707,"37":-0.12427850322501605,"38":0.01760296908933005,"39":-0.2698764729872066,"40":-0.028699654858751006,"41":-0.24398580122648253,"42":0.0547620820521507,"43":-0.054474190555196575,"44":0.03876124225113547,"45":-0.15509581160113875,"46":-0.2649542855802142,"47":-0.0944944449020268,"48":-0.03126177363008443,"49":-0.04464153153333061}},"16":{"bias":0.05966197228520054,"weights":{"0":-0.09192751313646594,"1":-0.20485484328220133,"2":-0.2669958704335951,"3":0.06170405808707425,"4":0.14317558215399354,"5":-0.027842088327716695,"6":0.053811076465275595,"7":-0.0607974049618634,"8":0.03435141455606999,"9":0.15940765635855011,"10":0.26933297555568386,"11":-0.18642955088214827,"12":0.10126122972004777,"13":0.24628346716318011,"14":-0.05696530271538498,"15":0.2815177853293483,"16":0.1548736185862985,"17":-0.1300539022714614,"18":-0.10625966030601953,"19":-0.04107670556662884,"20":-0.2878526746135301,"21":-0.017834181700073573,"22":0.23796766191038582,"23":0.13063067064941875,"24":0.12967699122877882,"25":-0.1694752081090404,"26":0.10590556810976731,"27":-0.0030012641237445823,"28":-0.1889460469838126,"29":-0.2951411502217354,"30":-0.23646700743506668,"31":0.11264563373460319,"32":0.17389057619507592,"33":-0.25802095850613727,"34":-0.1265495302986614,"35":0.11221037849981254,"36":-0.011283424410364042,"37":-0.01783889803261474,"38":0.006919847993024159,"39":-0.15186188381830681,"40":-0.11257063686592143,"41":-0.015464638046390124,"42":-0.10295085186561423,"43":-0.07261163070450995,"44":-0.17649170748054527,"45":0.04144077888333772,"46":-0.21301757537493,"47":-0.010158049341699227,"48":0.24142455473097219,"49":-0.2724877609625038}},"17":{"bias":-0.1627787535841806,"weights":{"0":-0.10663041933638231,"1":-0.15791488862013434,"2":-0.11912063848346295,"3":-0.10806122132763708,"4":0.1871555235818167,"5":0.06677527039354368,"6":0.008227016954306748,"7":-0.1977313675306542,"8":0.1007515506457128,"9":0.14620643455462384,"10":-0.031074296476011558,"11":-0.04590842262750611,"12":-0.22977846109086417,"13":-0.17691964736262797,"14":0.06108623175881337,"15":-0.002449703154115683,"16":-0.14701514982342595,"17":-0.11252310667466858,"18":-0.0621681880742866,"19":-0.11604318943067013,"20":-0.2074896859477964,"21":-0.006584230403183054,"22":-0.12393926049209945,"23":0.15077576459270722,"24":0.1623438575575681,"25":-0.04070328073271353,"26":0.11667651462030314,"27":-0.07687553636280059,"28":-0.22470058441813254,"29":0.028644345609524727,"30":-0.24120889923635866,"31":0.0931563077602933,"32":-0.06548417237599095,"33":-0.3238461259995869,"34":-0.2614150916787455,"35":-0.14656371561109255,"36":-0.15160745083941374,"37":-0.04789478912806101,"38":-0.041427533640352,"39":-0.06431951490804602,"40":0.06468620341447272,"41":0.1007123308065819,"42":-0.10796929598824903,"43":-0.011808006079947779,"44":-0.1303131814672996,"45":0.04744613985077832,"46":-0.24132769995297954,"47":-0.2213034519165934,"48":0.08315480498973113,"49":-0.18759793312213688}},"18":{"bias":0.02242165342810869,"weights":{"0":-0.20341744395500663,"1":-0.050921558341513184,"2":-0.12279641289578437,"3":-0.01677676003318036,"4":-0.0625915691979104,"5":-0.2806123730501918,"6":-0.18443525939168423,"7":0.011274961907780061,"8":-0.13788115099421117,"9":-0.15952298806505455,"10":0.10215924088610101,"11":0.005791465415910234,"12":-0.015291391905213792,"13":-0.018287372273549426,"14":0.10609424777278277,"15":-0.14271623514369572,"16":-0.1603211843659129,"17":-0.18518170047172527,"18":-0.04098468460813865,"19":-0.0717308868160814,"20":-0.18863702154405848,"21":-0.02492070408300644,"22":0.014755992870161687,"23":-0.14586899615739243,"24":-0.1617872862951741,"25":-0.14727695077512995,"26":0.06330520015840894,"27":0.08964008148176751,"28":-0.04132258975177852,"29":-0.0767991086044666,"30":-0.020116503674921776,"31":-0.1758756283810175,"32":-0.035453185782849735,"33":-0.3087250873415127,"34":-0.26779890286797997,"35":-0.2072356740351701,"36":-0.1707535989716758,"37":-0.20402729435095573,"38":0.014192549735197279,"39":-0.037440739268038474,"40":0.12240461915823946,"41":-0.22653268550438418,"42":0.09508543222942484,"43":-0.0466230472635791,"44":-0.12271243724156014,"45":0.01720953247365543,"46":-0.12091584970084396,"47":0.05348658602828917,"48":0.08486293116194109,"49":-0.1476784353013012}},"19":{"bias":-0.2113261720364693,"weights":{"0":-0.1024960855061439,"1":-0.10210918586800662,"2":-0.13098841065002653,"3":0.060319930964117446,"4":-0.022660454535997562,"5":-0.1878394443325017,"6":0.008975929121473079,"7":-0.07145728870888479,"8":-0.008248524169006182,"9":-0.13595016848367927,"10":-0.1781015503538099,"11":-0.18441003693341526,"12":-0.011954645860288157,"13":-0.062458974646133945,"14":0.03692766810149217,"15":-0.2337481582526554,"16":-0.1350974418337787,"17":-0.22307675633153123,"18":-0.09386874257675494,"19":-0.10222302805223449,"20":0.11830556771085046,"21":0.08578372420437369,"22":-0.09080054291981678,"23":-0.16560279796601554,"24":-0.22224768027899083,"25":0.05234056137459506,"26":-0.21063852397604702,"27":0.057288120590248064,"28":0.018907174050217697,"29":-0.2052757426104119,"30":-0.05755950133278091,"31":-0.11774012338964304,"32":0.0007999712629246934,"33":-0.1024995302628582,"34":-0.027119969894330628,"35":-0.10126768622246249,"36":0.10417269358060458,"37":-0.20798713693380683,"38":-0.14322647262014754,"39":-0.2548837691313653,"40":-0.15344431156713886,"41":-0.19899205835675457,"42":0.1236238631356478,"43":-0.10301196304580824,"44":-0.25809644466461773,"45":0.026322570464339293,"46":0.007526697007170323,"47":-0.009077046269513042,"48":-0.05548151916409166,"49":0.07575476904245053}}},{"0":{"bias":0.8578223095237415,"weights":{"0":-0.26462398826477507,"1":-0.03670874756383107,"2":-0.5852461538217788,"3":-0.2898043331759988,"4":-0.2974258521439896,"5":-0.6541270886857264,"6":-0.33880936511350307,"7":-1.5239995732439646,"8":0.05361413772412324,"9":-0.08200587992899791,"10":-0.6302141447268729,"11":-0.08249211548443756,"12":0.08676542764884736,"13":0.9473639030173813,"14":-0.12943776574345478,"15":-0.047905520772661477,"16":-0.6209829301358123,"17":-0.32884154641257274,"18":-0.13759012712915192,"19":0.12298972296230119}},"1":{"bias":0.8668127922018359,"weights":{"0":-0.21935763449838463,"1":-0.0002457463086249946,"2":-0.42471247141667007,"3":-0.07820698706017502,"4":-0.48797172659360555,"5":-0.6441954650798358,"6":-0.3297606263644823,"7":-1.5656327804606733,"8":0.09752482177910823,"9":0.009258525711812017,"10":-0.5827414514141956,"11":-0.24672635044240507,"12":-0.037347624499416254,"13":0.8271559127615498,"14":-0.21590256293762694,"15":0.03397842843144287,"16":-0.558163107912575,"17":-0.26902070926421695,"18":-0.31328522072479653,"19":-0.1304298030673262}}}],"outputLookup":false,"inputLookup":false}