{"layers":[{"0":{},"1":{},"2":{},"3":{},"4":{},"5":{},"6":{}},{"0":{"bias":-0.16145862911511097,"weights":{"0":0.043048855620547506,"1":-0.22616193940320656,"2":-0.24950044458441872,"3":0.1280306621032983,"4":0.11995295638590411,"5":-0.0703784306910474,"6":-0.17976862587161485}},"1":{"bias":-0.04211173077539826,"weights":{"0":-0.1605336282885791,"1":0.03544983841234087,"2":-0.1867314714591188,"3":-0.059887409084918596,"4":-0.3194447540065053,"5":-0.28045330333125146,"6":-0.14237913812334746}},"2":{"bias":-0.21559942277169533,"weights":{"0":0.21976596601232512,"1":0.3472989154960971,"2":0.1865875762890626,"3":0.2665087859965127,"4":0.33088049213830106,"5":0.37940869892004225,"6":0.22090349278024551}},"3":{"bias":-0.14594457909180186,"weights":{"0":0.2781617775264187,"1":0.37875791667857034,"2":0.40298579784923616,"3":0.40120249623183163,"4":0.37118231284053366,"5":0.14835234655349705,"6":0.27652085008639404}},"4":{"bias":-0.0035264274987996547,"weights":{"0":0.006870320857080007,"1":0.08525573512922957,"2":-0.25418693729424496,"3":-0.24559560125176508,"4":0.015639388011290868,"5":0.12105063981502624,"6":0.024656566283733476}},"5":{"bias":-0.022621162698447845,"weights":{"0":-0.1539283211125989,"1":0.10469210194012678,"2":-0.04962880734078559,"3":-0.2440276081807512,"4":-0.1152194251039096,"5":-0.10168497647981531,"6":-0.18920670455928656}},"6":{"bias":-0.19020697084896893,"weights":{"0":0.1995832663269328,"1":0.19277944850671286,"2":0.19818579526452665,"3":0.22973860734854937,"4":0.030455333569533526,"5":-0.05492664164430483,"6":0.08268617808115528}},"7":{"bias":-0.004045509057322495,"weights":{"0":0.2751679350163487,"1":0.25257045200471684,"2":0.05840929666174876,"3":0.42234581457648984,"4":0.11910637677647501,"5":0.3678860384006369,"6":0.1614461864953582}},"8":{"bias":0.091314693006001,"weights":{"0":0.3404254563159659,"1":0.08236145910657021,"2":0.2885040323447452,"3":0.1450885831515976,"4":0.3056124138036667,"5":0.3264143032455818,"6":-0.027128912222534694}},"9":{"bias":-0.15061707928063892,"weights":{"0":0.2737914231333103,"1":0.2074048116343532,"2":0.34986483849068145,"3":0.3453500078099842,"4":-0.006196290992204639,"5":0.04417642423098977,"6":0.09510333513884213}},"10":{"bias":-0.17408262424206955,"weights":{"0":-0.25603544880915635,"1":-0.15757578588168153,"2":-0.25174685914612527,"3":0.07520344810853911,"4":-0.15081369164914574,"5":-0.04839272414413312,"6":-0.11197218659021559}},"11":{"bias":-0.17167687773339332,"weights":{"0":0.18564713010212908,"1":0.391962206910082,"2":0.40492336587700745,"3":0.29815975876043815,"4":0.23383630188081692,"5":0.37415311192178957,"6":0.40714086794427473}},"12":{"bias":0.15919474553262528,"weights":{"0":0.12460605048742109,"1":0.1019795908330753,"2":0.22337824206696263,"3":0.06867647611785171,"4":0.21157533893878488,"5":-0.02575989810985581,"6":-0.08015166620285885}},"13":{"bias":0.055735502009340215,"weights":{"0":-0.18213931246962295,"1":-0.07277181188330764,"2":-0.26141805141370944,"3":-0.15107508894823907,"4":-0.24740900492512347,"5":-0.060306241843566706,"6":-0.03655368936041927}},"14":{"bias":0.11434512986022907,"weights":{"0":-0.15158033604745422,"1":-0.016418553898621194,"2":-0.033598386029897655,"3":0.09456097074159735,"4":0.20340162658901495,"5":-0.08057744172505825,"6":0.1936508842931074}},"15":{"bias":-0.18351090157005917,"weights":{"0":-0.15068083189649475,"1":-0.03097540633790765,"2":-0.16582048130365304,"3":-0.30333070401294915,"4":-0.2647763857545541,"5":-0.23536675648288255,"6":-0.12152696459996007}},"16":{"bias":0.06971573166519117,"weights":{"0":-0.19565557488309923,"1":-0.2836090872498111,"2":-0.10389151923745894,"3":-0.3271357558139089,"4":-0.36487165192364235,"5":-0.3957028874642025,"6":-0.3908144397357179}},"17":{"bias":0.1950708190409919,"weights":{"0":-0.1784479593307844,"1":0.18899532607844693,"2":0.2150154654153735,"3":0.14108868880645084,"4":0.20554700341905624,"5":0.17075235286806084,"6":-0.07647695866668376}},"18":{"bias":0.1303600013929977,"weights":{"0":0.035648027385091915,"1":-0.055827284763506714,"2":-0.3109135768843895,"3":-0.1719967980645766,"4":-0.059456568166599874,"5":0.057204445227319656,"6":-0.3002076171628912}},"19":{"bias":0.0659191489283555,"weights":{"0":-0.20111587862199715,"1":-0.28443496531293183,"2":-0.3646822386590805,"3":-0.2847553563105732,"4":-0.2613405033077455,"5":-0.1693606263822666,"6":-0.3771247523438623}},"20":{"bias":0.16592761987225646,"weights":{"0":-0.0033906543662705754,"1":0.03948488728186194,"2":0.01581497569825956,"3":-0.09339708545114003,"4":0.011517759264303085,"5":0.13336630174945008,"6":0.023784116824637977}},"21":{"bias":0.17399049408239994,"weights":{"0":-0.2296747084569388,"1":-0.006946392876603136,"2":-0.30864539910992556,"3":-0.2898029411950811,"4":-0.1636897757024476,"5":-0.28864045603765054,"6":-0.1937643547335115}},"22":{"bias":-0.11119944766518094,"weights":{"0":-0.12171310407302244,"1":-0.16624046541967913,"2":0.1679968346697645,"3":0.0593862250644124,"4":0.04979029656230122,"5":-0.08670666834186452,"6":0.031221504793454008}},"23":{"bias":0.21562833709690413,"weights":{"0":-0.38024623274166186,"1":-0.4319158153955594,"2":-0.33114797447160654,"3":-0.3539475423297488,"4":-0.2653861606334279,"5":-0.3000545680552451,"6":-0.23620308453960873}},"24":{"bias":0.017104962435170217,"weights":{"0":0.33095999196210363,"1":0.13341859504913667,"2":-0.057514507677202446,"3":0.2924461115306806,"4":0.29035610931289724,"5":0.060432953294145345,"6":0.15290746429535204}},"25":{"bias":-0.0915542913487907,"weights":{"0":-0.21488368772413913,"1":-0.040224158179537325,"2":0.07521513362330647,"3":-0.19855353400959017,"4":-0.1604211520708989,"5":-0.10503263629404762,"6":-0.14083296174678658}},"26":{"bias":0.06980018145097483,"weights":{"0":-0.1266456252467854,"1":-0.020617330665892893,"2":-0.12249475070344536,"3":-0.2734850509731822,"4":-0.11269671859419289,"5":0.05081472461279553,"6":-0.18154351191607085}},"27":{"bias":0.11901793975135362,"weights":{"0":-0.22097010858532892,"1":0.01373408990215096,"2":-0.029020788063422964,"3":-0.2306978103526915,"4":-0.34493303117483576,"5":-0.29289202354131505,"6":-0.19611393311950104}},"28":{"bias":0.05621687485948167,"weights":{"0":0.15249839098575066,"1":-0.0006458681901032557,"2":0.014301371575032406,"3":0.010400276360147348,"4":-0.07103384125670273,"5":-0.1174612243361172,"6":0.11333807601875201}},"29":{"bias":-0.050832822380483644,"weights":{"0":0.23191056021474155,"1":0.23151950485543185,"2":0.18437851886511827,"3":0.047279548134933076,"4":0.036465106541568086,"5":0.23815858367468073,"6":0.2828392934372822}},"30":{"bias":0.1172569039288956,"weights":{"0":0.07983288143324038,"1":0.23200331227788965,"2":0.2647618808873699,"3":0.06802941207380506,"4":-0.040009289246518184,"5":-0.010851315616320193,"6":0.22533366820555265}},"31":{"bias":0.1309674129570573,"weights":{"0":-0.10967515386652178,"1":0.07576701022473618,"2":-0.053511242294457695,"3":0.11914752321817612,"4":-0.14694519572347886,"5":-0.20390930938309956,"6":-0.16105813368193486}},"32":{"bias":-0.12880062669800083,"weights":{"0":-0.011654935974575769,"1":-0.12692222843728054,"2":-0.018970981600833887,"3":-0.12218419033874357,"4":-0.06707713538212492,"5":0.07944383033183355,"6":-0.06839032802422908}},"33":{"bias":0.09702527948226626,"weights":{"0":0.250469914269764,"1":-0.08053947426443776,"2":0.241929609161881,"3":0.15052068275792502,"4":0.15879368037342256,"5":0.11271065555070894,"6":-0.015502905324329559}},"34":{"bias":0.18681885296009576,"weights":{"0":0.29669358565120735,"1":0.04250171457348385,"2":0.06220317673795749,"3":0.1845790378569904,"4":-0.003213213326656291,"5":0.02939011069037212,"6":-0.0533042797793389}},"35":{"bias":-0.188347416250737,"weights":{"0":-0.2146991904277343,"1":-0.20334648909860165,"2":-0.02072252108118763,"3":0.0503469871400252,"4":-0.175598756128157,"5":-0.1466639414624104,"6":-0.14521255224419025}},"36":{"bias":0.13276054638769658,"weights":{"0":-0.25716138878833517,"1":-0.19277917657777524,"2":-0.2524630033392253,"3":-0.3229206974407945,"4":-0.36532310845365074,"5":-0.2988965049787847,"6":-0.4107042186230788}},"37":{"bias":-0.18960826034263828,"weights":{"0":0.4019401924518485,"1":0.39446692367095637,"2":0.4530266669203578,"3":0.11044642889838571,"4":0.24586836279311144,"5":0.27860531464807564,"6":0.2650766417638056}},"38":{"bias":-0.08254502200154004,"weights":{"0":0.1980309376173426,"1":0.3169499361401208,"2":0.11843450329673254,"3":0.2859897643049816,"4":0.17724326374429816,"5":0.1995406799370889,"6":0.1284085716968412}},"39":{"bias":-0.18190572872491093,"weights":{"0":-0.13570092832050198,"1":0.08938914949208489,"2":-0.04718535327145252,"3":0.07403723468802599,"4":-0.15357477301544645,"5":-0.2437377733431076,"6":-0.053263790880683934}}},{"0":{"bias":0.014407236832232835,"weights":{"0":-0.06827940242741111,"1":0.13583849881090648,"2":0.0890142869149686,"3":-0.24687643891012653,"4":0.10598408922668118,"5":0.08996214874287209,"6":-0.1032142782628358,"7":-0.1933679096814314,"8":-0.18747261766241685,"9":0.12051722023517034,"10":0.03740148698912867,"11":-0.17871702538602877,"12":-0.22082943326460025,"13":0.07738674765126406,"14":-0.13231675868883433,"15":0.14165965811711959,"16":0.13086373310898272,"17":-0.08096075199135586,"18":0.1566172542256163,"19":0.22257204875931694,"20":-0.03198357654788761,"21":-0.07691410177378895,"22":-0.012748884023777458,"23":0.0635139116093934,"24":0.03305493398454539,"25":0.014056474753807618,"26":0.07967922936879787,"27":-0.12474808833062084,"28":0.032091938154595254,"29":0.11975828399601984,"30":-0.21352975712404432,"31":0.14239835413557453,"32":-0.034583847730015015,"33":-0.11551668175208726,"34":-0.04517664904197543,"35":-0.04433824955502236,"36":0.19000925931296467,"37":-0.06713035919294608,"38":-0.12195149982170699,"39":-0.042611972467858424}},"1":{"bias":0.16518672362102077,"weights":{"0":0.14623021400449504,"1":-0.00998605481340972,"2":0.04154761311301281,"3":0.25259251265739446,"4":0.07379627785286555,"5":-0.05177922678307206,"6":0.04861276733894306,"7":0.018971567706008823,"8":0.15838307124201925,"9":-0.08059581826899528,"10":-0.029654974129225565,"11":0.03872834773821537,"12":-0.06728241106536363,"13":-0.14732383129943824,"14":0.16637177840602768,"15":0.044304606874988266,"16":-0.11530375475873592,"17":-0.06791712576837805,"18":-0.04427548457240931,"19":-0.08488922772792579,"20":0.0014412137645123265,"21":-0.19578736459652382,"22":0.13204945320030415,"23":-0.22092867123077278,"24":0.14434258453040508,"25":0.010107296398376847,"26":-0.2243926507009315,"27":-0.16031719001288428,"28":-0.027532685550516005,"29":0.09243259261962965,"30":0.04716298741612295,"31":-0.12175430333365207,"32":-0.17043069722662776,"33":0.0699022296075782,"34":0.12183750944594815,"35":0.002690556574101502,"36":-0.19167893108335826,"37":0.25150298847230523,"38":0.263769197728843,"39":-0.07353192201895492}},"2":{"bias":0.160415833997946,"weights":{"0":0.030975646513581805,"1":0.14145540954245536,"2":-0.15932221788034293,"3":-0.2211554185179409,"4":-0.13254163477638412,"5":0.06595389613292757,"6":-0.11333243234418433,"7":-0.09791306684076437,"8":-0.17232295124217106,"9":-0.17060381069231703,"10":-0.08442620901378863,"11":-0.005162104048273294,"12":0.07091723778577287,"13":-0.16775280576299925,"14":-0.13567345436507514,"15":-0.018665455122056494,"16":-0.016189742020675447,"17":0.15968626108738906,"18":0.20780518239877785,"19":0.13898183180334936,"20":-0.07553788601859662,"21":0.14402491515624682,"22":0.16129197370824555,"23":0.15797366692959589,"24":0.1392134045765007,"25":-0.052777048099731945,"26":0.19516100618693594,"27":0.0562019337985055,"28":-0.09486463153783517,"29":-0.18737092487588405,"30":-0.034507946773487855,"31":-0.09876336663317249,"32":0.17848531982080235,"33":0.0716424876850905,"34":-0.19160062641984518,"35":0.12434185276302384,"36":-0.014818513698344799,"37":-0.13661026874605636,"38":-0.022299833806426184,"39":0.1564288708349774}},"3":{"bias":0.04116944074894993,"weights":{"0":-0.15261679629263405,"1":0.09351230942446166,"2":-0.14625871778167088,"3":-0.24424237749834574,"4":-0.05641688038937099,"5":0.043835869463543196,"6":0.050509132226323215,"7":-0.21817186822924176,"8":0.038357160292954225,"9":-0.22352688065296947,"10":-0.07416799528251668,"11":-0.009097656620844403,"12":0.11355198309741273,"13":-0.038489125176269116,"14":-0.10380826670695292,"15":-0.03713846729679836,"16":-0.045568614391752846,"17":-0.07840668110195471,"18":-0.020866690483463197,"19":-0.024306089161567988,"20":0.18541461029753953,"21":0.09580537739597834,"22":-0.11681072963063543,"23":0.09016459241843808,"24":-0.027978776315584618,"25":0.03750526358851082,"26":0.09576861568269364,"27":0.19985565507091216,"28":-0.0037376766468281723,"29":-0.0276835536315485,"30":0.13770454579802155,"31":0.14061957119155938,"32":-0.006165073301105436,"33":-0.032464314886614616,"34":0.189349424739412,"35":0.11082831601196115,"36":0.021432747574085326,"37":-0.18936359484981508,"38":-0.030317941271224426,"39":0.1805195613526306}},"4":{"bias":0.14678894930591077,"weights":{"0":0.08100794284477907,"1":0.26845672129673115,"2":-0.21962803521779117,"3":-0.39733474112204265,"4":0.049696428507980075,"5":0.21120121231821204,"6":-0.05681194587180261,"7":-0.31859750300969514,"8":-0.32403219780361453,"9":-0.12465159582938577,"10":0.22080446293059575,"11":-0.4080904666160992,"12":-0.10674083402773378,"13":-0.004785340870488854,"14":-0.17659556835433846,"15":0.1534201673256467,"16":0.35527807551417534,"17":-0.06745351031650773,"18":0.10900530111034609,"19":0.34760966041728,"20":0.05686847357704374,"21":0.13401799860263627,"22":-0.04564430464162757,"23":0.30330529030769443,"24":-0.011700960795443744,"25":0.10763590855515762,"26":0.11343779522493412,"27":0.008825512797728204,"28":0.1220936307053015,"29":-0.0932176650181675,"30":-0.25471753741109526,"31":0.130651096645978,"32":0.1732888094597679,"33":-0.2629469678901059,"34":-0.1768489579957355,"35":0.18081223509753233,"36":0.26156912229936835,"37":-0.274696814269219,"38":-0.27410705117864465,"39":0.07727589283817224}},"5":{"bias":0.02620582768630043,"weights":{"0":-0.15136608875278418,"1":-0.09299468112818504,"2":-0.03101612531923343,"3":0.07437976506355876,"4":0.010747255517639732,"5":0.15278924854466255,"6":-0.031116994475243433,"7":-0.1813401037269936,"8":-0.007608066375935378,"9":0.17275254763927722,"10":0.16621302905518204,"11":-0.05447057627924908,"12":0.16070909124290822,"13":0.20104437235994296,"14":0.1719783372757379,"15":0.03874278837879196,"16":0.1696662294972507,"17":0.005795177891334286,"18":-0.14754125293924847,"19":0.012533654853027572,"20":-0.09254113404487195,"21":-0.06017799192114212,"22":0.13358761650420614,"23":0.20086270424072328,"24":0.1560365083574671,"25":0.06440707132821563,"26":-0.037151823050913496,"27":-0.07186889887896751,"28":0.08759675383546334,"29":-0.0580518957841456,"30":-0.03602251248852853,"31":0.03314236773934503,"32":0.1842324448971307,"33":0.04762139440188276,"34":-0.06325861910246866,"35":-0.04016688828283375,"36":0.18106643756523927,"37":0.01676133485175295,"38":-0.10358770351310585,"39":-0.004209764528310805}},"6":{"bias":0.00783057111714474,"weights":{"0":0.04891726851298518,"1":-0.18248286325350516,"2":0.12117361429924911,"3":0.016940112896967886,"4":-0.1417780236718309,"5":-0.015458947571889512,"6":0.14977416541118888,"7":0.18969358536207492,"8":-0.14050857383400686,"9":-0.043042448485360804,"10":-0.040050116024056184,"11":0.22734544918426594,"12":0.10240085368352068,"13":0.08747972544139117,"14":-0.08314773201023301,"15":-0.08489309149501313,"16":-0.06581285288680082,"17":0.05265670965846929,"18":-0.13458919760406948,"19":-0.167046617861734,"20":-0.004403634399851442,"21":-0.21097218467014298,"22":-0.031257377993780505,"23":0.009528561819731798,"24":-0.13175958775410526,"25":-0.0867914272799224,"26":0.06990101270178742,"27":-0.04454584960064914,"28":-0.16376433859480277,"29":0.19043177797862515,"30":-0.04256391948658591,"31":0.11388770882651915,"32":-0.11785409919177581,"33":0.16374597149100636,"34":0.17552228049656102,"35":-0.038957233088368445,"36":-0.008371744124941752,"37":0.09432278636756995,"38":-0.1268858021895328,"39":-0.14595850524402906}},"7":{"bias":-0.0010310942602749199,"weights":{"0":-0.0710596371094192,"1":-0.056866016217609935,"2":0.07604158625974199,"3":-0.09734511419832187,"4":-0.10443640291988943,"5":-0.10848500813918219,"6":-0.07616131655393928,"7":0.12898035583036022,"8":0.005759875581554399,"9":-0.0851525984096305,"10":-0.034111156167876085,"11":0.240892938728856,"12":0.17919794653876917,"13":0.00006338789864932757,"14":0.07115530979092287,"15":0.0010074288197103173,"16":-0.23937949674929085,"17":-0.04110773356542882,"18":-0.15030748563727658,"19":-0.0870537725153095,"20":0.20249980413808902,"21":-0.11398865905036676,"22":-0.052575413442944974,"23":-0.21044240978857093,"24":-0.09216552532943323,"25":0.02475503028667734,"26":-0.04653383982759397,"27":-0.08079828824099537,"28":0.007965511011598618,"29":0.1740168977747692,"30":0.13755246142508554,"31":-0.13963061392822565,"32":0.11358120476781984,"33":0.0011028553286302032,"34":0.06358333993270864,"35":-0.14185225027770804,"36":-0.2519145400889857,"37":-0.11096071202272317,"38":0.1007390861429583,"39":0.06837664881288012}},"8":{"bias":0.18277966485261468,"weights":{"0":-0.13157290508368696,"1":-0.16262813852652208,"2":-0.044650149712234695,"3":-0.1025565946255768,"4":-0.040628081770359405,"5":0.020837179133696565,"6":0.05081980680012395,"7":0.018664379363685753,"8":0.11173655574529633,"9":-0.0064315316165197605,"10":-0.0939163069907553,"11":-0.11064526364397285,"12":-0.015729060495687862,"13":0.1745283986994551,"14":-0.14235133078703355,"15":0.14073420216549926,"16":-0.020317661153916658,"17":0.1936530525388929,"18":-0.0428865322668876,"19":-0.12309750732870296,"20":-0.012013150560264148,"21":-0.18688215956708965,"22":-0.0024449423330748566,"23":0.15976531546259018,"24":-0.018758224246008637,"25":0.14945129268242152,"26":-0.11509936370472727,"27":-0.10209588749867037,"28":0.017663360323724352,"29":-0.10135990635246331,"30":0.03336640043701292,"31":-0.0919690235574274,"32":-0.16249048429215032,"33":-0.015510838528155498,"34":-0.11805715576871673,"35":-0.19865231221749574,"36":-0.064224356117691,"37":0.19450246011587694,"38":-0.10365666688512909,"39":-0.12495479762098359}},"9":{"bias":-0.0661436480488568,"weights":{"0":-0.13351895534675454,"1":0.13841194607429208,"2":-0.03373982125820807,"3":-0.15531690381806243,"4":-0.11741719279040282,"5":-0.09478779368027236,"6":-0.14782426242032437,"7":-0.13316080612261605,"8":-0.014707762822284757,"9":-0.18351178715359578,"10":0.2044444070843164,"11":-0.24546585100678378,"12":0.11960559428619924,"13":0.11007016524558678,"14":-0.12108463826191447,"15":0.19822855935018457,"16":0.20835758471206667,"17":-0.024544847472463775,"18":-0.1344984604689536,"19":0.02145527889879849,"20":-0.2145386306183401,"21":0.2275316331599717,"22":0.16442911712225497,"23":0.199326577927725,"24":0.13851161460136968,"25":-0.12454967121746421,"26":-0.09820601646755839,"27":-0.14101205651957832,"28":0.12337459818803757,"29":0.09165121771600539,"30":-0.13153011180277405,"31":0.013757527147544576,"32":0.06578915643402124,"33":0.038771899550704966,"34":-0.07244483660509576,"35":0.10232823429181495,"36":0.12445163869239768,"37":-0.08123498442971161,"38":-0.048951964379177364,"39":0.11898748459471133}},"10":{"bias":-0.15484158884701202,"weights":{"0":0.0336287597859706,"1":0.05997534788015504,"2":-0.07015734727774552,"3":-0.14360322104628712,"4":-0.047669100436557955,"5":-0.10941063706451637,"6":-0.0808219549917238,"7":-0.10338315273442916,"8":-0.058051765482971564,"9":-0.26135645848561617,"10":0.23098761546570998,"11":-0.3021011244259298,"12":-0.005556777925560357,"13":0.16793792359104703,"14":0.16973576334926116,"15":0.2764334755062036,"16":0.29684147420238827,"17":0.0991636732712016,"18":0.043344745350605576,"19":0.2842804248730388,"20":0.1608803733571522,"21":0.18266085889016556,"22":-0.1212469278693851,"23":0.2077855135623065,"24":-0.25708328932997854,"25":0.009055333479650174,"26":-0.11843273326842609,"27":0.1896407144295801,"28":-0.06638048254958151,"29":-0.22441588670984725,"30":-0.1824403298809788,"31":-0.024093015871321267,"32":-0.046679172003984075,"33":-0.10195266330034719,"34":-0.144350347277241,"35":0.049532930645342026,"36":0.20400132582484853,"37":-0.0846977249536297,"38":-0.2201340790050737,"39":0.02712110134223967}},"11":{"bias":-0.15156902369050557,"weights":{"0":-0.103231515850127,"1":-0.10378076889546566,"2":-0.08873483408044835,"3":0.12530374959434912,"4":-0.13366626089279313,"5":-0.09860540795153065,"6":0.22116243015959208,"7":-0.07943531684378109,"8":0.1635076262815767,"9":0.028160337379037986,"10":-0.10000363695118765,"11":0.07175357643894084,"12":-0.05611416959703843,"13":-0.007531816165288795,"14":0.14914226578002546,"15":-0.19557258737095284,"16":-0.22074907674340402,"17":0.20581633679641817,"18":-0.04469081268620728,"19":-0.05221939972717874,"20":-0.012595384889087374,"21":-0.13991662850311856,"22":-0.10103406048255503,"23":0.06280941868976009,"24":0.0562270079705676,"25":0.10819056219532037,"26":-0.05926078627817959,"27":-0.004180822167643041,"28":-0.14403408241275628,"29":0.014147730200442975,"30":0.1293655127638658,"31":-0.14717347258051244,"32":-0.0504559443630546,"33":-0.0736607874335926,"34":0.16158562713291202,"35":-0.10345263830760647,"36":-0.13476615160099203,"37":-0.10976445352807145,"38":0.07717302069249661,"39":-0.19753335068290642}},"12":{"bias":-0.15576235649625553,"weights":{"0":0.03203966678542314,"1":0.0280860442193301,"2":0.3248825565308306,"3":0.02162713265188667,"4":0.05190019664103524,"5":-0.09765819561641681,"6":-0.009399629122488427,"7":0.21965073984735525,"8":-0.07390732149025289,"9":0.05630676762894387,"10":0.08029820357320505,"11":0.27054642468508616,"12":0.11610051443286654,"13":0.027349793403355655,"14":0.1143374076472238,"15":0.030186863907583163,"16":-0.11967858969529278,"17":0.038877962409208704,"18":-0.22477403246812336,"19":-0.22176979935610286,"20":0.07415754684416138,"21":-0.08113983049339704,"22":0.04412490484442813,"23":-0.23162066147832863,"24":0.1827193574976647,"25":-0.18348006658482446,"26":-0.19038199928985491,"27":-0.16426097514212878,"28":0.1467415062767907,"29":0.21989319627146967,"30":-0.023437933173844322,"31":0.16164080016765064,"32":-0.01776281734230952,"33":0.20332721445581511,"34":-0.16177113600393458,"35":0.05270125090109755,"36":-0.3404489987407455,"37":0.17908546319701457,"38":0.16178476378036355,"39":-0.12499021381879585}},"13":{"bias":-0.07672046709508304,"weights":{"0":-0.11659960270650287,"1":0.0646276327215658,"2":0.07004534492404474,"3":-0.02014496232527856,"4":0.1363623234526108,"5":0.06801196174871794,"6":0.25305733565275185,"7":0.13343741020740563,"8":-0.10362506089259878,"9":0.09943572183529942,"10":-0.0320858226422653,"11":0.17729077595736062,"12":-0.06510733499401564,"13":-0.12005341265928207,"14":-0.05752897317104523,"15":-0.15873127504142678,"16":-0.19271364621556178,"17":-0.05097422201495268,"18":-0.1934757827688467,"19":-0.10505668755599464,"20":0.12118254949463617,"21":-0.06547460772421643,"22":0.18808804890551895,"23":-0.24134038600473215,"24":0.1943304471474776,"25":-0.1744318125994293,"26":-0.19857718598404422,"27":0.03473158005170357,"28":-0.185713522370697,"29":-0.08509359696442469,"30":0.22028029366897714,"31":-0.17400674608731648,"32":-0.157934120426995,"33":-0.09798957424406117,"34":0.038876512970436046,"35":0.07291421771842904,"36":-0.08564305329807774,"37":0.2437951910828949,"38":0.2042859120562244,"39":0.00746087807800614}},"14":{"bias":0.09557047609579383,"weights":{"0":0.08011239732419323,"1":-0.03846497290338153,"2":0.06064185725977073,"3":0.0726269178291697,"4":0.00606434434891765,"5":0.18830483440921145,"6":0.13262873046567591,"7":-0.2617187829084282,"8":0.08195520842476477,"9":-0.26461048846703233,"10":0.03218991150751631,"11":-0.28689038887676527,"12":0.033377300473117544,"13":0.23925534915976313,"14":-0.04513727967509185,"15":0.1306505502660347,"16":0.13163979469001175,"17":-0.2386444182359785,"18":0.01724195681669603,"19":0.19663765312013973,"20":0.06877409855056603,"21":-0.04864707286348117,"22":-0.06424502820935353,"23":0.12173523738794002,"24":-0.12264237685838168,"25":-0.12271516654107903,"26":-0.04944788120287499,"27":0.16825316107495633,"28":-0.14565931083363784,"29":0.021594750042001194,"30":-0.09344582390023398,"31":0.1298147503310489,"32":-0.14865420473849844,"33":-0.023895183617987203,"34":-0.17941225661593238,"35":0.034660695305016136,"36":-0.04651670950224269,"37":-0.07156906440718769,"38":0.0060797667969743376,"39":0.18749358762177434}},"15":{"bias":-0.06681583139743276,"weights":{"0":0.06498282168632785,"1":0.13615108928686187,"2":-0.09674224997119471,"3":0.005200968526423605,"4":0.10207989206235256,"5":0.022630156502092,"6":-0.006512230634239577,"7":0.0630645519369001,"8":-0.04240931113964168,"9":0.023835417686816747,"10":-0.007030777600956286,"11":-0.06297563971187943,"12":0.19138975475125752,"13":0.10328344262328408,"14":0.16622378864947346,"15":-0.13022484470068754,"16":0.15055389755539733,"17":-0.06478426358398524,"18":-0.16311995435980928,"19":-0.06219509630044148,"20":0.10428230690392208,"21":-0.02137555467143943,"22":-0.03331929507080283,"23":-0.13909836882510446,"24":0.020358567484919578,"25":0.19398127418736227,"26":0.009992905047924267,"27":0.01723532501606735,"28":0.001231347737993549,"29":0.08552394532017431,"30":-0.13599589158067346,"31":0.17634230787706168,"32":0.13175077388776385,"33":-0.17046640680041011,"34":-0.07639364482202554,"35":-0.024614826318541876,"36":0.16454641310728096,"37":-0.04534654852892334,"38":-0.11650025412441121,"39":0.0654636580366286}},"16":{"bias":-0.1755100123372167,"weights":{"0":0.059609928172954144,"1":0.07750075766707878,"2":0.01600619215449997,"3":0.10783745955258082,"4":0.15177467467115496,"5":0.09158412824666433,"6":0.05832437245756177,"7":0.00911195609759605,"8":0.004166090312304384,"9":0.010902311883402894,"10":-0.10827720931511046,"11":-0.10660414409175353,"12":-0.06175853935970793,"13":-0.12494061775375287,"14":0.03793590662063923,"15":0.16174644474039762,"16":-0.07744589884952985,"17":-0.017258527580273745,"18":0.008885021646168986,"19":-0.07616384684832996,"20":-0.01064504950484078,"21":0.06173435792176459,"22":-0.08114695213135607,"23":-0.0412075020425877,"24":0.17421729023725807,"25":0.005343847670327429,"26":0.06697220881949655,"27":0.09141607985221117,"28":0.06778402685791234,"29":-0.027005251401659124,"30":-0.08463496156640464,"31":0.013455366271736501,"32":0.1948639506217717,"33":-0.03567443877175817,"34":-0.08666736768754718,"35":0.1832859278059735,"36":-0.136522792070057,"37":0.039371271093871785,"38":-0.02567381122118775,"39":0.05847934971088083}},"17":{"bias":0.13101077919795506,"weights":{"0":0.1634497185628206,"1":-0.021438963612284003,"2":-0.19622416416279173,"3":-0.2501580428843583,"4":-0.11684264650853293,"5":0.15590420768744412,"6":0.011197135762416346,"7":-0.149609795479245,"8":-0.20682648398355682,"9":-0.15580420450353485,"10":-0.14386357775725434,"11":-0.2196153189391398,"12":-0.1808013645526294,"13":0.24011777458074654,"14":-0.1346444200268728,"15":-0.10600082588407418,"16":-0.010241007697254252,"17":-0.06965025150341914,"18":0.1527614109278397,"19":0.06024163512751945,"20":-0.06634312789717069,"21":0.05778912695755979,"22":-0.05137633870338512,"23":-0.09887740903429203,"24":-0.07202315681535927,"25":-0.06431651762728034,"26":-0.09433798303362691,"27":0.004812968352245839,"28":-0.1840545975502594,"29":0.06224226167202456,"30":-0.15800161422531728,"31":-0.15897612563795782,"32":-0.010400425658765318,"33":-0.07061896317978943,"34":-0.0007971307416761118,"35":0.22220781687079658,"36":0.06409350285920135,"37":-0.10028370013736586,"38":0.15638986974747252,"39":0.012308222228193751}},"18":{"bias":-0.06044676517605481,"weights":{"0":-0.061979695607931054,"1":-0.002579051378965697,"2":-0.08039759755603279,"3":-0.24620297341177472,"4":0.11261428502188098,"5":0.002310567197297299,"6":-0.1806479405653804,"7":0.0514240802846782,"8":-0.2169681118204711,"9":-0.11222429822984373,"10":-0.10255887835969255,"11":0.08573213496131891,"12":0.024049936355388275,"13":0.08587356760833724,"14":-0.15838361242281399,"15":0.14521350105362335,"16":0.21549401873718907,"17":-0.04990307593413188,"18":0.1467212533483581,"19":-0.04599440774630134,"20":0.13029988373749843,"21":-0.049013505335410115,"22":-0.18435602003917562,"23":-0.12146616138191368,"24":-0.19293134749198898,"25":0.21293561162088684,"26":-0.04564818374025656,"27":0.07615521669255854,"28":-0.03653323616411018,"29":-0.15531821117200492,"30":-0.1798731955121408,"31":0.03732327932969201,"32":-0.08186228367234281,"33":-0.07791254975560274,"34":0.08354859508286223,"35":0.015133048331261459,"36":0.14974601880638133,"37":0.00788543888750748,"38":-0.2019858670429569,"39":-0.13492856802458308}},"19":{"bias":0.01957584311379697,"weights":{"0":-0.186837687977145,"1":-0.10363645867474379,"2":0.055621581374386886,"3":-0.014737243985158723,"4":-0.14267020024178512,"5":-0.07888620658267355,"6":-0.12213505500642698,"7":-0.21061930931817086,"8":-0.21477684314385384,"9":0.12676854663196546,"10":0.19110959952672937,"11":0.02863791749615601,"12":0.08794187312688014,"13":0.17192946482843174,"14":0.1565357701456515,"15":0.21790124163073427,"16":-0.07374031463740481,"17":-0.10160898857843287,"18":0.03153366267918054,"19":0.22938890085141062,"20":0.08580699574574678,"21":0.14935878819281126,"22":-0.0965240259214908,"23":0.05482587031274994,"24":0.16739201926286187,"25":0.1018638425102793,"26":-0.08351957763405597,"27":0.056560225082112954,"28":-0.13136372288448678,"29":-0.19702902597577493,"30":-0.06153014111898545,"31":-0.10649036703399088,"32":0.10097420933183979,"33":-0.1982887089050819,"34":0.020478468114392166,"35":0.013683625503422624,"36":-0.04046817494496001,"37":-0.08720953555141668,"38":0.08341520755879354,"39":0.008597043557447899}},"20":{"bias":-0.1267340468493364,"weights":{"0":-0.04815855868029022,"1":0.07326951330511512,"2":0.17908569857705697,"3":0.06461686035468424,"4":-0.14065246256641395,"5":-0.11435391340491313,"6":-0.017469019007620226,"7":0.24107556510914208,"8":0.2602766377818351,"9":0.052303523882589624,"10":-0.25365991039926133,"11":0.20840414694355955,"12":0.1618339000322546,"13":0.09753162131335373,"14":-0.019503976875847755,"15":-0.22315939495755996,"16":-0.10931162694396554,"17":0.03982965717058948,"18":0.010119644823699632,"19":-0.1306060982519435,"20":-0.0023491287641346655,"21":-0.22689731584601616,"22":-0.09202202706356515,"23":-0.2987718918554015,"24":0.030521172884909416,"25":-0.18020018050681713,"26":-0.12392475899908825,"27":-0.19010159485727512,"28":0.138641968139482,"29":0.24016274557806422,"30":0.20868077268884838,"31":-0.023900013362660382,"32":0.018167092974315097,"33":0.005119102698242598,"34":0.038599164074773755,"35":-0.07751270934042663,"36":0.006426840051771746,"37":0.17931254714918382,"38":0.19135803854118044,"39":0.12369886618854613}},"21":{"bias":-0.04052935846911362,"weights":{"0":0.01009652094865348,"1":0.15364315038460044,"2":-0.22723061301844635,"3":-0.21249871080598928,"4":-0.013228471069185595,"5":-0.10356645812403162,"6":0.07716351118174586,"7":-0.10938678415812524,"8":-0.12279539942209165,"9":-0.14397737088260407,"10":0.19406386847711032,"11":-0.14963517433233614,"12":-0.15813378381099305,"13":0.21969939865912735,"14":-0.17901431689240901,"15":0.2579395139197416,"16":-0.046472940842711315,"17":-0.14102415753050535,"18":0.06419873657678275,"19":0.057787979316002346,"20":0.11570787566778933,"21":0.10992288622461982,"22":-0.026837272959645393,"23":0.16487548628215776,"24":-0.201468764181233,"25":-0.06400764571985,"26":0.008624636391773268,"27":0.22879883426813075,"28":0.09621787463374051,"29":0.05635788708381736,"30":0.13068376537234197,"31":-0.022413860544021853,"32":0.15298897130032257,"33":0.00985236424513989,"34":-0.07260723532481489,"35":0.05611678456700068,"36":-0.10111887856737713,"37":-0.23357930623919843,"38":-0.23477082443310687,"39":-0.00885795898988754}},"22":{"bias":-0.08190941181667048,"weights":{"0":0.022724872164066042,"1":-0.0654140657129664,"2":-0.0334288561685058,"3":-0.0252885515261749,"4":-0.06504520354867191,"5":0.09262861235111432,"6":0.15997208576676616,"7":-0.10446323644875091,"8":-0.07441218673465827,"9":0.10736710250795871,"10":0.0791358993561667,"11":0.2868434923733575,"12":0.04570598476406138,"13":0.07969307803911825,"14":0.11789170964999073,"15":-0.02084369681493382,"16":-0.23587472290553288,"17":0.029083184931148826,"18":0.05823155854756923,"19":-0.20545555118589554,"20":0.07577703482259192,"21":-0.18978242380471746,"22":0.1053733507371636,"23":-0.24661950869060692,"24":0.10689293136566834,"25":0.04300299120360012,"26":-0.1862531818015949,"27":-0.042656774163316424,"28":-0.08026630053593377,"29":-0.00714084909529544,"30":0.039785568865157384,"31":0.07583908649450653,"32":-0.18373946382497439,"33":0.12361019590461211,"34":0.0762781468395334,"35":0.07286377424880286,"36":-0.21925718011503814,"37":0.05652172704022866,"38":-0.06753794485138961,"39":0.10382129598241523}},"23":{"bias":0.1864327140258602,"weights":{"0":-0.18019535692734173,"1":0.045291006897164206,"2":-0.11351524761764441,"3":-0.15974079663851387,"4":0.007440344753598141,"5":-0.15314057733634084,"6":0.016327728900660993,"7":-0.17388948901703466,"8":-0.1930234974987331,"9":0.10076574573562186,"10":-0.07811170626072807,"11":-0.04561207727283618,"12":0.11238165319216734,"13":-0.01549657180872223,"14":-0.14633720981698783,"15":0.040685449736102774,"16":0.13164881401237996,"17":0.014223598279120309,"18":0.1532429725571437,"19":0.0063588803071171944,"20":0.119875625732467,"21":-0.11387220449209214,"22":0.16024152154625823,"23":0.19454383251583127,"24":-0.09903065122735252,"25":-0.09896429345583621,"26":-0.027645775422164093,"27":-0.12269515376848282,"28":-0.14068507086554954,"29":-0.028780432491803495,"30":-0.16538600418362204,"31":-0.14952828882599944,"32":0.13255181193197385,"33":0.12233983643885932,"34":0.03023108843960118,"35":-0.11014964276872768,"36":0.2464045953899337,"37":0.05522023714370887,"38":0.08111128084746662,"39":0.15559332079313354}},"24":{"bias":0.12668969334900385,"weights":{"0":-0.08439076416111123,"1":-0.21046507615182578,"2":-0.14795653548998178,"3":0.09153637010927779,"4":0.06167724579209999,"5":-0.11004235075257643,"6":-0.07969690394590152,"7":-0.1274559865535321,"8":0.1018113181700508,"9":0.012630234244505474,"10":-0.05891900255959957,"11":0.06893352800924854,"12":0.0925494206977869,"13":0.16941871139080664,"14":0.05862957732360828,"15":-0.1788727967635755,"16":0.031344095328639764,"17":-0.09240756378346861,"18":-0.15731073401742263,"19":0.007649649728717562,"20":-0.18175861968663692,"21":-0.01484373658663156,"22":-0.11306032766856368,"23":-0.1540927866696452,"24":0.14081532029038527,"25":-0.14253136900835484,"26":-0.098926109480479,"27":-0.18464812532290897,"28":0.051883153367161164,"29":0.1781857084769976,"30":0.19583446986746253,"31":0.00011473591590956337,"32":0.010674290781783809,"33":-0.1484866146889817,"34":0.1084155699994621,"35":0.06231668975723066,"36":-0.20985804169252342,"37":0.08823198488097543,"38":0.11873042819370201,"39":0.04760557244296536}},"25":{"bias":0.0200843030755453,"weights":{"0":-0.13667025559099502,"1":-0.1406129670787689,"2":0.15805435128521053,"3":0.30446702958110905,"4":-0.14973201954043908,"5":-0.14230808609231863,"6":0.032964660642884544,"7":0.01535797663957807,"8":0.1921739435829897,"9":0.037138041601362214,"10":-0.05297082326879554,"11":-0.07948111568036151,"12":0.06450903412492939,"13":-0.006986197349009982,"14":-0.05219636730044332,"15":0.11201389372075457,"16":-0.22986336969744464,"17":0.060227117476377205,"18":0.16267078862201287,"19":-0.3032749485873643,"20":0.051838373441317545,"21":0.0866208387276205,"22":0.02923185162453784,"23":-0.3235482195507217,"24":0.0987628493512506,"25":-0.23731613693706702,"26":-0.06360775544617993,"27":0.05810217208070797,"28":0.12260114078492423,"29":0.14691878146366671,"30":-0.004384814147757062,"31":0.08676193372930176,"32":0.12938901715807805,"33":0.051237434281129424,"34":-0.04240156899087457,"35":0.049547371477199016,"36":-0.12063282708093494,"37":0.16964508076593957,"38":0.10773126255155555,"39":-0.06426590732338959}},"26":{"bias":0.07171570387530048,"weights":{"0":0.08876466310589168,"1":-0.07185559306546342,"2":-0.09069553512815003,"3":-0.02845420944467863,"4":-0.19808911023754672,"5":-0.14609865433711222,"6":0.08455355849901855,"7":0.08480171843208344,"8":-0.0976381858403071,"9":0.04387424716310593,"10":-0.173082011817318,"11":0.10171370721541526,"12":-0.10213480565546307,"13":0.1456239280848613,"14":-0.06586105373537873,"15":-0.09199911168329769,"16":0.07165654905279704,"17":-0.03144191134235027,"18":0.09208723953918338,"19":-0.12641058190160903,"20":-0.13281169032102605,"21":-0.033830220859462225,"22":0.1940764076928359,"23":0.07710319461010073,"24":-0.15519692017905726,"25":0.0032700941041966924,"26":-0.20283803796586866,"27":0.1089156972461667,"28":-0.14138365022181693,"29":-0.07793819852841277,"30":0.029753266639734974,"31":-0.10672875930115591,"32":-0.14538856291792643,"33":-0.02257430640807408,"34":-0.058700935591651036,"35":-0.04184182008452811,"36":-0.1354095598058537,"37":-0.049128272447542636,"38":-0.14083750675248724,"39":0.10091795851600964}},"27":{"bias":0.11388539640175263,"weights":{"0":-0.11045840656438702,"1":0.008810813321015082,"2":0.009731474836180257,"3":0.13790543685797974,"4":-0.046789584769947115,"5":0.07758339593085538,"6":0.07981525586372364,"7":0.11956294154607605,"8":0.17608651058986408,"9":-0.030647303407066576,"10":0.09960164132084279,"11":0.191795427501775,"12":-0.16806590438920643,"13":-0.12891911373866505,"14":-0.07382910826426846,"15":0.08266348208748707,"16":0.011425749152285853,"17":0.15078252599708317,"18":0.054154699443358274,"19":-0.04492905066267558,"20":0.17601988953531994,"21":-0.10800476448879402,"22":-0.04571130125195544,"23":-0.20681566559535314,"24":-0.006852963657259362,"25":-0.030739154388410853,"26":-0.16654041637652103,"27":-0.1852172132387361,"28":0.001113038195287417,"29":0.1645148914524723,"30":0.10174380094056658,"31":-0.20307758826361508,"32":-0.1764838414672774,"33":0.18634359476356518,"34":-0.010055769629030127,"35":-0.2237498564235458,"36":-0.06382141308380061,"37":0.09371569190399756,"38":0.12254028291413505,"39":0.13399159326329027}},"28":{"bias":-0.20142338397138004,"weights":{"0":0.032814274546009464,"1":-0.11851274777783034,"2":0.08466201989674582,"3":0.17183895549825862,"4":-0.04023154135380103,"5":-0.05833599345946445,"6":-0.05042472645551154,"7":0.22678456964224822,"8":0.042118248274116504,"9":-0.0023418676280380726,"10":0.07287488043488671,"11":0.27703130397669984,"12":0.1979164610837519,"13":-0.1838347955373011,"14":-0.07798746235114978,"15":0.03592562090299312,"16":0.09613163764661214,"17":-0.026563577305946922,"18":-0.14053068267713575,"19":-0.08613626790585512,"20":0.17287565997951987,"21":-0.14810021721410369,"22":0.09060282066175258,"23":-0.053456846591147716,"24":0.03945450187287316,"25":0.015411582361699726,"26":-0.07855921347752085,"27":-0.09099249985661118,"28":0.11066214475659958,"29":0.13259234294606115,"30":-0.1523368484442667,"31":0.07384445798070514,"32":0.1577576831220832,"33":0.21399602174147767,"34":-0.007853876135575838,"35":-0.00512142479064021,"36":-0.2427235992687688,"37":-0.042793798362134344,"38":-0.07977592841460866,"39":-0.009393240548072758}},"29":{"bias":0.08406762379916172,"weights":{"0":0.14022651301894976,"1":-0.13681412662444695,"2":0.12990190443551705,"3":0.10334856908274415,"4":0.06262840198594485,"5":0.1459693664830733,"6":0.006174044409655087,"7":0.024836163968112543,"8":0.08093864469101994,"9":0.11667963636684534,"10":0.13674236549798985,"11":0.08258570927360269,"12":0.06564343982712982,"13":-0.028764695846500356,"14":-0.03317421863539756,"15":0.153338016337615,"16":0.039545456336812876,"17":0.0428977305077388,"18":0.01139471923833172,"19":-0.11006228247531777,"20":0.024597917781497523,"21":0.10014140653677896,"22":-0.09500936292757062,"23":0.07367559678313541,"24":-0.03309155981579422,"25":-0.08389188890320609,"26":0.03012843556130661,"27":0.10858665683679716,"28":-0.12400325883689525,"29":0.023740250716673496,"30":0.09058972811862814,"31":-0.014311985721952752,"32":0.17775015782032186,"33":0.03855615151043593,"34":-0.20044355109488549,"35":-0.016029878457269768,"36":0.07841311292900634,"37":-0.0842257097253774,"38":-0.20085308489951445,"39":-0.1500438853632855}},"30":{"bias":-0.1364253736487791,"weights":{"0":-0.1555859134906756,"1":-0.14148288114666197,"2":0.3150315137349914,"3":0.15913466169794557,"4":-0.13086285639341996,"5":0.0961120274222453,"6":0.16348106006523613,"7":0.24993499056349408,"8":-0.059278463793603686,"9":0.276066029016044,"10":-0.18706796244907034,"11":0.29017102001446893,"12":0.21705219266772846,"13":-0.23851507584238585,"14":-0.06860040811844717,"15":-0.17679608163055963,"16":-0.08704326688425122,"17":0.13622964612383906,"18":-0.032185947076367454,"19":-0.03056846457176297,"20":-0.13505460577036982,"21":0.04099959452221333,"22":-0.12649280040063107,"23":-0.015021551298280473,"24":0.19487247642670924,"25":-0.1198503648643132,"26":-0.14013287616261405,"27":-0.24414884582452331,"28":-0.027545542437141524,"29":0.04215790389765422,"30":-0.14433536008300796,"31":-0.0828539074963892,"32":0.1379649831514574,"33":-0.07790025682601377,"34":0.14919791125755558,"35":-0.21773403128821442,"36":-0.25256587180447193,"37":0.252541026185564,"38":0.25920378735773797,"39":-0.010494313931913846}},"31":{"bias":-0.06342025441751367,"weights":{"0":-0.03786745072285321,"1":0.08716422543194312,"2":0.08830146132850623,"3":-0.09145624275889529,"4":0.18116907708388869,"5":0.16560777574045168,"6":-0.14696451619468168,"7":0.002929795243509734,"8":0.21044296688409667,"9":-0.15840555079334664,"10":0.06508993963997554,"11":-0.12251797518728659,"12":-0.10042777778045395,"13":-0.1816291857824389,"14":-0.015800021461204367,"15":-0.21534776319218588,"16":0.06838367854706008,"17":-0.051741329364231946,"18":-0.1383386249092269,"19":-0.017434637688008247,"20":-0.030445572417728755,"21":-0.10481697086885165,"22":-0.01563532636883535,"23":-0.010942898846630094,"24":0.19586436933912857,"25":-0.21960797635495116,"26":0.057694229538058285,"27":-0.1413499568424846,"28":-0.028332054810924955,"29":-0.06294193680219501,"30":0.12117770030630497,"31":-0.14862513710546296,"32":0.05368347210403316,"33":0.1501344026877104,"34":0.16566527011381255,"35":-0.19841354015201837,"36":-0.04626328106373187,"37":0.17174677035732341,"38":0.17450253851530828,"39":0.016032735356511355}},"32":{"bias":-0.12860863139014833,"weights":{"0":-0.15081353979124806,"1":0.059605431441293225,"2":0.008702538791989747,"3":-0.09520497796392462,"4":0.08722614897703976,"5":-0.1646849923782308,"6":0.16842977707439408,"7":0.181532405275866,"8":0.1565068640386313,"9":-0.03824511222975276,"10":-0.028403723392086036,"11":-0.06291376127386543,"12":-0.11123549410190386,"13":0.1682926294840175,"14":-0.10543509066142265,"15":0.07185135881009624,"16":-0.1699303097269917,"17":-0.11508489993840373,"18":0.18016195122572987,"19":0.13710021002002235,"20":0.11035970554352693,"21":-0.03440547320976117,"22":-0.037812035193829356,"23":0.11742951276544894,"24":0.027747984944703426,"25":0.14250045651127125,"26":0.15805129290185937,"27":-0.21087463558302894,"28":-0.0005955050985902772,"29":0.14530171363819877,"30":0.18842770635174005,"31":-0.030976283460756364,"32":-0.0007777262598438081,"33":0.16687324316524285,"34":0.051283901139078714,"35":-0.19001921596088217,"36":-0.12874283379873375,"37":0.12513757866326464,"38":-0.060443581047791455,"39":-0.053357901536272574}},"33":{"bias":-0.16709298096495734,"weights":{"0":0.011453204505454643,"1":0.013235335336732174,"2":-0.06594087665056755,"3":-0.12231277907819811,"4":-0.009907437387891788,"5":-0.09889122038410188,"6":-0.018540304420672223,"7":0.03569901999314805,"8":-0.11340389651973633,"9":-0.06774223644206342,"10":-0.08012815574750513,"11":-0.15330581204379798,"12":-0.004567435472625977,"13":0.021486885361448313,"14":-0.10133659297867402,"15":0.10189162107763772,"16":-0.018803550051973445,"17":-0.1941112245104062,"18":0.05714433845186051,"19":-0.12161256130827164,"20":-0.055426674021855506,"21":-0.039720292418519466,"22":-0.14705830936733125,"23":0.1002472969633036,"24":-0.11007189046702545,"25":-0.0037513328418549035,"26":0.05143150354868672,"27":-0.05793268589854058,"28":-0.12404309746932549,"29":0.09765513500658439,"30":-0.10183182654788371,"31":0.18988623472263724,"32":0.046206704407129005,"33":0.0653912788474993,"34":-0.1816882094377527,"35":-0.1815523998955901,"36":-0.1896195285836088,"37":0.13241753685752566,"38":0.14305920495337768,"39":0.176050353572432}},"34":{"bias":-0.12190674250469907,"weights":{"0":-0.02606518556106008,"1":0.02579792969737054,"2":0.16109057115362893,"3":0.3169452285057637,"4":-0.10300345142771113,"5":-0.09006828413233145,"6":0.20478605112438994,"7":0.27980639686610753,"8":0.24266409668572483,"9":0.16449530682895974,"10":-0.13523188961652952,"11":0.13020670700381207,"12":-0.0024222345167537085,"13":0.05283794203316093,"14":-0.17395929009186,"15":0.07844347387680103,"16":-0.1904123084403403,"17":0.03326279260134735,"18":-0.08321130879373795,"19":-0.29065206240594915,"20":0.12215607360608935,"21":-0.2989486111661434,"22":0.001978809982861894,"23":-0.30598387003130667,"24":0.002654628730952389,"25":0.05619796751823892,"26":-0.12119729917111326,"27":-0.18537722254341576,"28":-0.07050931649172788,"29":0.25459781204167015,"30":0.054737885327609176,"31":0.027717621921445203,"32":-0.14599550914457596,"33":-0.14601084363562158,"34":0.07932683402276494,"35":0.1338369296976054,"36":-0.10441538108907912,"37":0.2836536680801343,"38":0.12177220963819903,"39":0.005447819969175959}},"35":{"bias":0.11903310036771998,"weights":{"0":-0.1301612390438913,"1":0.196356549186825,"2":-0.0841862386303125,"3":0.08605250860313973,"4":0.08155184258472269,"5":0.14799456501638253,"6":-0.03706472278328152,"7":-0.2177039085830771,"8":0.14208807224498626,"9":-0.12761470079155834,"10":0.06993419620097,"11":-0.16032628955469247,"12":0.12125111139193653,"13":-0.03859991062187568,"14":0.050494697144063634,"15":-0.013226318886447293,"16":-0.14980126968955354,"17":-0.008747642548161053,"18":0.11014447430876223,"19":-0.01130329482849799,"20":0.09517649898823971,"21":0.10795391349859626,"22":-0.11740610713847495,"23":-0.08618443795842519,"24":0.03435119216134912,"25":-0.15401075226693994,"26":-0.11740350201467283,"27":-0.1455501970545703,"28":0.03220232306470638,"29":-0.0735803228531086,"30":0.1197133950477104,"31":-0.08466440866110124,"32":0.06661485030427641,"33":-0.0494559444004551,"34":-0.07817104832110444,"35":-0.025362327710093942,"36":-0.006393146440675776,"37":-0.12334802880450468,"38":-0.16670942686111934,"39":-0.13985964878947343}},"36":{"bias":-0.01941907486972775,"weights":{"0":-0.13737694522734467,"1":-0.21061346116118365,"2":0.27596144432325875,"3":0.05875640669360314,"4":-0.0433517838876289,"5":-0.10321490910179602,"6":0.20189742887499265,"7":0.15192571664876667,"8":0.19054731786651,"9":0.18617822588468794,"10":-0.013324646729223335,"11":0.054522301638589094,"12":-0.0513775515376158,"13":0.04393203252455155,"14":0.11209122263580602,"15":-0.07429072438129028,"16":-0.21220097136104507,"17":-0.0004636441420491636,"18":-0.01205948412102039,"19":0.08122447436693796,"20":-0.01359993753780085,"21":-0.04126504633463287,"22":0.09758627484254981,"23":-0.13106284684746292,"24":-0.10471571284001802,"25":-0.06734599158669792,"26":-0.15472580762807397,"27":-0.09971624259904052,"28":-0.04702043606027519,"29":0.1551165835066596,"30":-0.01934360411211484,"31":-0.17427940892973667,"32":0.08682298151256691,"33":0.17104046102972933,"34":-0.02120001533714607,"35":-0.06356851983978128,"36":-0.22347367771477786,"37":0.11718040727416391,"38":-0.10340620957098251,"39":-0.08744385396473217}},"37":{"bias":0.11620649564878693,"weights":{"0":-0.0634376019371119,"1":0.153692127060172,"2":0.22187512050380165,"3":0.013224210390012647,"4":-0.10766315898309337,"5":0.12871110152713472,"6":0.09238300530957001,"7":0.07360399582347782,"8":0.09475853571687637,"9":0.2170601260176582,"10":-0.044662756888923245,"11":-0.0801052528494973,"12":-0.07083465823456941,"13":-0.21016391119124087,"14":0.17665427728702873,"15":-0.04023499685528757,"16":-0.22357380892676232,"17":-0.11489523806068941,"18":-0.2085639753015736,"19":-0.020357000661747327,"20":0.1309581698999992,"21":-0.02886780418705156,"22":-0.10981196142789248,"23":-0.2346527675611429,"24":-0.14295636764523612,"25":-0.07163992574056127,"26":-0.0011146392163576134,"27":-0.028238441474953586,"28":0.066139280334776,"29":-0.06414493834311544,"30":-0.07855562278037452,"31":0.14358248271493923,"32":0.029841067340764894,"33":0.10999273659169365,"34":0.03568773483488806,"35":0.14267143368669363,"36":0.09301256627221127,"37":0.1574349339487587,"38":-0.17137498521360223,"39":-0.006592118269547419}},"38":{"bias":-0.07755414718095259,"weights":{"0":-0.08138740087165966,"1":-0.2025255119144251,"2":0.13382684747206303,"3":0.13886514453964457,"4":-0.0476074660694597,"5":-0.11188596763275277,"6":0.06713309421361993,"7":0.2240599124261992,"8":0.04363859219960869,"9":0.057946349827403494,"10":-0.2008901747001076,"11":-0.007242374443592485,"12":0.12716163269809866,"13":-0.060412958671434674,"14":-0.13825864733772106,"15":0.06164417663435756,"16":-0.20326510704844947,"17":-0.0916425734658422,"18":-0.09753592761658098,"19":-0.09569813729289553,"20":0.013375749951981363,"21":-0.17026201795012952,"22":0.08646010689884043,"23":-0.22436681769157546,"24":0.26091226096176307,"25":0.130770535914105,"26":-0.1631010133785629,"27":0.03811181848429233,"28":-0.042253699176833324,"29":0.05061897044586568,"30":0.08595325309103047,"31":0.019624016654800996,"32":-0.1628024800371899,"33":0.06588774766770866,"34":0.17833064207259372,"35":-0.051874486200227554,"36":-0.1569751274792625,"37":0.25274889186981764,"38":0.15042854958063406,"39":-0.04523700650061151}},"39":{"bias":-0.1578354635505752,"weights":{"0":-0.14862175201897496,"1":-0.19708114207970007,"2":0.2515456639879653,"3":0.3307614175178261,"4":-0.0005267838198142055,"5":-0.08159582934564025,"6":0.19303643744131954,"7":-0.05406399878465349,"8":0.2828216355475071,"9":0.11865420056978102,"10":-0.041949814154918684,"11":0.284686703923275,"12":0.08281982534572192,"13":-0.023240459229338095,"14":-0.09022349687714348,"15":-0.18588630368450984,"16":-0.2209725196498652,"17":0.11319275566503709,"18":-0.09020647981647885,"19":-0.08727963759916871,"20":-0.007083398014463549,"21":0.0200368712536307,"22":-0.19862666151616712,"23":-0.3123796617541181,"24":0.034469990970360825,"25":0.06403842816522302,"26":0.10211797953211658,"27":-0.22920813957373504,"28":-0.002390867743875699,"29":0.19748293884475365,"30":-0.13657956513558314,"31":-0.19800953358819973,"32":0.14644389962697954,"33":0.1359176012644569,"34":0.17585988909751848,"35":-0.2475523476180623,"36":-0.29547361451937637,"37":0.32699869276878174,"38":0.13162621211404685,"39":0.0426224824157935}},"40":{"bias":0.09086435523628747,"weights":{"0":0.10398540336198221,"1":0.14298273099608794,"2":-0.27680678650408513,"3":-0.30229312460776214,"4":-0.014799810723894375,"5":-0.03995050755656074,"6":0.14652255889540433,"7":-0.013191591145284677,"8":-0.14038470749391296,"9":0.13394602668170957,"10":-0.096732863020128,"11":-0.18504440285959456,"12":0.1235547375178346,"13":0.1790696065951666,"14":-0.17601727567197004,"15":0.18493451787627666,"16":-0.009031553642804394,"17":0.10313008243592228,"18":-0.0862292977495246,"19":0.05287964423946398,"20":-0.15399500180199763,"21":0.09844430864736695,"22":0.16329567561838929,"23":0.057229999869159366,"24":-0.2614760317047387,"25":0.17039036762972812,"26":0.1836748389649475,"27":0.032993066183583455,"28":-0.1619488734396835,"29":-0.17433319924213547,"30":-0.11191255595986581,"31":0.1788382349294204,"32":-0.16824002038835084,"33":0.012198484808741545,"34":-0.0005428883088144956,"35":0.21067372623563638,"36":0.008879372870443368,"37":-0.2765850094553783,"38":-0.03561230177488418,"39":-0.012649370763947872}},"41":{"bias":0.07690479428204496,"weights":{"0":-0.009904563809010787,"1":0.013238841496346382,"2":0.09381878926649886,"3":0.23770427629672056,"4":0.07802759019376557,"5":-0.22446626559256505,"6":-0.12664855672181563,"7":0.021337911919170123,"8":0.019471015205815324,"9":0.09666964977063129,"10":-0.1484656582064132,"11":0.09779091998614872,"12":0.20762180748459658,"13":-0.08549827401477018,"14":0.0772116758410575,"15":0.0019476633502732126,"16":-0.2724978309889119,"17":-0.056592725350579985,"18":0.01081712239098587,"19":0.04856474753947957,"20":0.04290539483273968,"21":-0.22201809921337562,"22":-0.12211996954454775,"23":-0.24303667588807223,"24":0.06165792206475982,"25":-0.15089276143337935,"26":-0.03189078136801564,"27":-0.06445966501632903,"28":0.07952650872785244,"29":0.10721009668350134,"30":0.08373038313323691,"31":0.05163987510789256,"32":-0.012668585330769635,"33":0.20567100259728532,"34":0.021259274768635525,"35":0.09313405621215104,"36":-0.21594202337847448,"37":0.01602924361136466,"38":-0.11920365002282982,"39":0.1262084727806962}},"42":{"bias":0.11923285792889182,"weights":{"0":-0.04017666915061185,"1":0.17179769525940994,"2":-0.06048681697878686,"3":-0.02632722204845025,"4":-0.026559192691927004,"5":-0.14371891914813995,"6":-0.0011555185316599267,"7":-0.0323821235310728,"8":0.14462403349954328,"9":0.1486571838074048,"10":0.013163147044174596,"11":-0.11677279296983747,"12":0.1649330506093549,"13":0.10339228585469312,"14":-0.01795581219197373,"15":-0.1564977474538844,"16":-0.08373766131146006,"17":0.11306305969123595,"18":-0.11573789900522018,"19":-0.08929584426476324,"20":-0.07169908608329974,"21":0.14309520931654163,"22":0.027650436557134703,"23":-0.006449783076938511,"24":0.07463894560623681,"25":-0.13665525975810153,"26":0.17825316968600557,"27":-0.024520687239633736,"28":-0.09360141511066775,"29":0.05306466807048199,"30":-0.0951506099794626,"31":-0.11868250912299368,"32":-0.10644280852937905,"33":0.07328975349017386,"34":-0.12457692259627388,"35":-0.08641418797846283,"36":-0.1331997892378769,"37":0.1243816666108314,"38":-0.09944539330947866,"39":-0.014671008423654586}},"43":{"bias":-0.027456884336701168,"weights":{"0":-0.1161567988848369,"1":-0.08248874814528342,"2":0.10452025477338753,"3":0.22800420293212745,"4":-0.08725096404239453,"5":0.07225785622441877,"6":0.18594314393410422,"7":0.04932149489414728,"8":-0.026918757453931352,"9":-0.07819173964645622,"10":0.08078295019976814,"11":0.13068779130756972,"12":0.021989912076356397,"13":0.004866428841701068,"14":0.0775379818748469,"15":0.10720415274549758,"16":-0.1345663261845269,"17":-0.1211680431111014,"18":-0.13430726975908486,"19":-0.19214964551325472,"20":-0.0002518084219183462,"21":0.15065686490799743,"22":0.18865197580994972,"23":0.012980864612749783,"24":0.03327807001327558,"25":0.09065856130763443,"26":-0.09613427172430764,"27":0.11900550280726815,"28":0.04955912818638783,"29":-0.10759444798423065,"30":-0.007642876471666685,"31":-0.0051665507643503675,"32":-0.04208482796951557,"33":0.08331533517347214,"34":0.1195598713201957,"35":-0.1530783170906422,"36":-0.19809404475533832,"37":0.016890601752631875,"38":-0.060073275128769504,"39":0.1240011679679601}},"44":{"bias":0.12406731727290662,"weights":{"0":0.057188631737216916,"1":-0.053379977543634556,"2":0.12509177671342808,"3":0.22462730631381983,"4":0.00012954632680661944,"5":0.1412438360243548,"6":0.23854215262266007,"7":0.12234750127888591,"8":-0.10826000882073795,"9":0.24747766227762383,"10":-0.24467054952663667,"11":0.21689471783327824,"12":0.15501955769701561,"13":-0.11890697365216654,"14":0.04571106668049971,"15":-0.19905041616230887,"16":-0.20851319163882745,"17":0.09761601123277282,"18":-0.053426117891250374,"19":-0.2553962446198612,"20":-0.061786310941554706,"21":-0.06377670674936903,"22":0.15415839408022264,"23":0.05155747293600755,"24":0.16721031119084356,"25":-0.1840021995956418,"26":-0.0069073758561362265,"27":-0.23667867048170912,"28":-0.12656057685884797,"29":0.15061160552778452,"30":-0.09412793164564451,"31":-0.04954344262690909,"32":-0.09897033059804612,"33":-0.11222197538723273,"34":-0.09135349000096413,"35":-0.1698378538950973,"36":-0.3147923376051447,"37":0.315835544640562,"38":0.13528735993121485,"39":-0.2040317138240136}},"45":{"bias":0.04196432602433701,"weights":{"0":-0.16511008780941186,"1":0.06022886116960429,"2":0.10149235314579091,"3":0.036028381980446514,"4":-0.1834156640804689,"5":-0.10733204723765177,"6":-0.12786903822036302,"7":-0.15505662567914782,"8":0.1242185244502731,"9":-0.12304956504101362,"10":0.14152661402942907,"11":0.1806117026292279,"12":-0.010607362424504718,"13":-0.07927768500060027,"14":-0.016709363611109668,"15":0.18421544368764375,"16":-0.047955329438434724,"17":-0.1530633406542563,"18":0.19172018908113522,"19":0.040141839171919505,"20":-0.09881218918678615,"21":0.03336037679281774,"22":-0.08943246160063552,"23":0.032146409618236074,"24":0.09745680171633002,"25":-0.13205768241746005,"26":-0.14400158843452904,"27":-0.1973776490005864,"28":0.09292184605568948,"29":-0.13356813454825392,"30":-0.1601801444838032,"31":-0.11700964514519371,"32":0.04728879625586007,"33":0.19617503644888332,"34":0.08253491266662821,"35":-0.15213107400315623,"36":-0.20332342310398566,"37":0.05517731039192392,"38":0.15070972779881803,"39":-0.020361018353629766}},"46":{"bias":0.08123743322193229,"weights":{"0":0.04499674225903003,"1":0.22666918712373318,"2":-0.20842054563856635,"3":-0.12683585915339446,"4":0.2042938123763628,"5":-0.020917117864302476,"6":0.09315255534173154,"7":-0.15663516620449708,"8":-0.1810449930481913,"9":-0.21377636844575065,"10":-0.06474779386516834,"11":0.03172044638001099,"12":-0.022873337831334484,"13":0.05676753882929424,"14":0.12493765309025762,"15":0.00937998108414115,"16":-0.06467485948064987,"17":-0.18745304431863172,"18":0.19536481106334722,"19":0.02675889967562846,"20":0.11098282247046934,"21":0.17027043147518428,"22":0.02506701142141824,"23":0.11766268157431169,"24":0.0010454953326501282,"25":-0.03695673175617759,"26":-0.09542155876078287,"27":-0.09151802071477122,"28":-0.021841790251031896,"29":-0.09080092996743787,"30":-0.07322159590162727,"31":0.05544932479547144,"32":0.0756749018549825,"33":-0.17584523843206773,"34":0.18577542877807254,"35":-0.1620944608324401,"36":0.05812635697489512,"37":-0.21670989445507988,"38":-0.1785632914726094,"39":0.009447002690319587}},"47":{"bias":0.07824609417435183,"weights":{"0":0.07476510265069186,"1":-0.0939631756479516,"2":-0.0023914632697977604,"3":-0.06177958506562926,"4":0.16660636109629626,"5":0.032363789825361665,"6":0.15088631840863262,"7":0.05681877720614825,"8":0.018143822495536303,"9":0.007698686681364442,"10":-0.06902487744712184,"11":0.01795610513831122,"12":0.03411803477412995,"13":0.08428222699238441,"14":0.15710670146453481,"15":0.1612924762141608,"16":0.007666744837144029,"17":0.031223826515346585,"18":0.17597221700639087,"19":-0.18328066867791884,"20":-0.17487372918229116,"21":-0.14764035544395276,"22":0.19164592894556143,"23":-0.03616713829911825,"24":-0.11485274692849765,"25":0.14576686644186448,"26":-0.14765515411266916,"27":-0.15864089636839576,"28":-0.03256570940931895,"29":-0.1293815459539431,"30":0.15181295304568412,"31":0.1117097181691525,"32":0.07430830111590701,"33":0.08307905582537232,"34":-0.06510226044725846,"35":-0.053326030735939535,"36":-0.0032474205559042076,"37":-0.08380226567438898,"38":-0.08545483180757785,"39":0.1759433050658216}},"48":{"bias":-0.17849079161379955,"weights":{"0":0.0014110187393008384,"1":-0.058748961428928756,"2":-0.0023139160899657714,"3":0.1777144859396482,"4":-0.027421223797758066,"5":0.039949793348699754,"6":0.1225803806193518,"7":0.03353064325077155,"8":0.03259832226717675,"9":-0.1695559262903329,"10":0.1608251528309555,"11":0.0736618862763931,"12":-0.02196423658767386,"13":-0.04390327650968398,"14":-0.007126783434900426,"15":-0.031756230632688884,"16":0.0009493608836477595,"17":0.004043712646418103,"18":0.023867809227416315,"19":-0.21910118621555963,"20":-0.13032778591137326,"21":0.03709043690190617,"22":-0.1840490134814615,"23":0.005279072996554051,"24":0.1547927825545472,"25":-0.1606737948042714,"26":0.06297961600593326,"27":0.01250680605311875,"28":-0.0003348788595468598,"29":-0.1898600072923089,"30":0.15704835993074268,"31":0.17715702444692075,"32":-0.09778204379866201,"33":0.026768748161127898,"34":0.14845025167447679,"35":0.12466585015410613,"36":-0.009207546769063303,"37":-0.1772791857186546,"38":0.15428509176901797,"39":-0.14632999815316763}},"49":{"bias":0.10599708259458476,"weights":{"0":-0.013992605321508166,"1":0.21940847570163158,"2":-0.2416669934188421,"3":-0.27956849385697236,"4":-0.004536036266995005,"5":0.10907213864331008,"6":0.07786518237547832,"7":-0.07492018470486307,"8":-0.23892250441047921,"9":-0.25594150860030934,"10":-0.07257481697589337,"11":-0.23708842801362406,"12":-0.01150762507614727,"13":-0.10696908125436795,"14":0.15380834855737635,"15":0.044834583673274274,"16":0.28733155775207936,"17":-0.08940504862347363,"18":0.06195247948014617,"19":0.2563047248154653,"20":0.16475627012548566,"21":-0.07867479485223412,"22":0.08040955900807495,"23":0.12645376426035515,"24":-0.2173258958017101,"25":0.147663474683046,"26":0.11518406124727933,"27":0.1997485527651781,"28":-0.06079607119005319,"29":-0.20899609046763062,"30":-0.15702492374650798,"31":-0.07774112394889933,"32":0.0453327867871824,"33":0.08203833251484687,"34":-0.021100613914129877,"35":0.030753083114181387,"36":0.10858677696667146,"37":-0.30146514667483754,"38":-0.06213774059727718,"39":0.07502671433376262}}},{"0":{"bias":-0.042510763526747306,"weights":{"0":-0.0661953376492522,"1":-0.15329746193755295,"2":0.02846467609703676,"3":0.06644214256828171,"4":0.25890088397580036,"5":0.21937415874092986,"6":0.03129558658444233,"7":-0.2598313648273339,"8":-0.1948098011414294,"9":0.1074917395247477,"10":0.15427910532798886,"11":-0.09878547708045142,"12":-0.32352274983105805,"13":-0.28707619259252204,"14":0.1536588777407363,"15":0.16070844984826652,"16":-0.20646799283994524,"17":0.13472619995020269,"18":0.24211865920498066,"19":0.07630214759424858,"20":-0.08467871979598843,"21":0.26612078327227134,"22":-0.2396102766955968,"23":0.03938656472871832,"24":-0.14176366153144124,"25":-0.08193443576261186,"26":0.1576081477534965,"27":-0.2997389691966681,"28":-0.2398316578911522,"29":0.08919933514136211,"30":-0.3213069633459711,"31":-0.1073476664904748,"32":-0.17682122150412172,"33":0.15976818455233124,"34":-0.1881051453881046,"35":0.15739280091744817,"36":-0.3099822786883769,"37":0.049988714493832326,"38":-0.33827620763822785,"39":-0.20916289399051852,"40":0.2899869942224353,"41":-0.2839626884199783,"42":0.11577567443469561,"43":-0.14289437478433326,"44":-0.17430258807374788,"45":0.12000964509766926,"46":0.13167480216246688,"47":-0.1604151014365893,"48":0.01473828900217039,"49":-0.018394536400080028}},"1":{"bias":-0.15372165187811976,"weights":{"0":0.12430584933663179,"1":0.0008113983760371795,"2":0.05714165821670098,"3":0.19520609530593552,"4":0.27278754319265275,"5":-0.07467069992176646,"6":0.012704236859768661,"7":-0.3001528327300818,"8":-0.024453364095264683,"9":0.043333998114107285,"10":0.237334136138213,"11":-0.2040291037458389,"12":-0.20446340989986625,"13":-0.16239292811330558,"14":0.015181938719920766,"15":-0.23331555881508284,"16":0.03681229640318543,"17":0.04942374561197062,"18":0.10123904201972214,"19":-0.09117047940413812,"20":-0.13006767385048484,"21":0.03566258664511224,"22":-0.2782887924140758,"23":0.004639223371840898,"24":-0.06342021955998998,"25":-0.25359163353249786,"26":0.15249846105815962,"27":-0.021875147139616066,"28":-0.19548830081412136,"29":0.08115117339696068,"30":-0.09907813034087404,"31":0.06319425970665647,"32":-0.018638431831975534,"33":-0.06678327891690873,"34":-0.10359661846229144,"35":0.0050161551445471264,"36":-0.26294235959539614,"37":0.05237552780273666,"38":-0.2516405202510829,"39":-0.08830908681199606,"40":0.003311841856226823,"41":-0.18468337822176542,"42":0.041990798696224935,"43":0.09189094956907398,"44":-0.3801102237520289,"45":-0.13289494769639335,"46":-0.10973494068787934,"47":-0.0165026385640691,"48":-0.07135322566031786,"49":0.24057671951348422}},"2":{"bias":-0.07535112648753815,"weights":{"0":0.21626811718596572,"1":0.080224354030438,"2":-0.09161137209544108,"3":-0.01855102429964422,"4":0.24536066394320766,"5":-0.09189212858090172,"6":-0.2433294877641021,"7":-0.18123665064966438,"8":-0.15529111968520412,"9":0.014285614526133332,"10":0.21056905732578823,"11":-0.1702303672906331,"12":-0.27449996665647897,"13":-0.1568507947457565,"14":0.20961008070110662,"15":-0.17791530183379176,"16":-0.16519028759970805,"17":0.09833713424782568,"18":-0.034940507770072876,"19":0.08687724997949967,"20":-0.25578759639366616,"21":0.26952770244882046,"22":0.05404577885441489,"23":-0.1565707688532354,"24":-0.07773800258711722,"25":-0.14014195041937424,"26":0.043244611592032696,"27":-0.11683513654562397,"28":-0.1703105432618082,"29":0.11402774575513996,"30":-0.3417045688755122,"31":-0.11024465209881659,"32":0.09570361977185345,"33":-0.16771393171535895,"34":0.007225447105279388,"35":-0.16122689333574833,"36":0.035212453254531685,"37":-0.12082016890778476,"38":-0.009839134858076139,"39":-0.2669087295251852,"40":0.05394824194072008,"41":-0.24463175589031375,"42":-0.18986444390405705,"43":0.06214539873515512,"44":-0.21655743377892078,"45":0.02001646840405101,"46":0.09604412843880837,"47":0.01213648001537114,"48":-0.08044637441620095,"49":0.23547116602010842}},"3":{"bias":-0.10052799278805621,"weights":{"0":0.03539081615612613,"1":-0.195717743179689,"2":0.17231714240428325,"3":0.08023093400341672,"4":0.25140826154143064,"5":-0.10795470532270346,"6":-0.0826721690268513,"7":-0.24862646603390268,"8":0.16370069575177687,"9":0.1468642542379504,"10":0.13772622032520632,"11":0.12366642563185441,"12":-0.16085495952609352,"13":-0.2546637201954679,"14":0.17584167795149683,"15":0.04503214685187029,"16":-0.0018822535587505592,"17":0.10172304637409614,"18":0.08649525336402444,"19":-0.04657007396030821,"20":-0.2698792179609966,"21":-0.020959777711875526,"22":-0.24331074090422508,"23":0.057425983419017765,"24":-0.2115874318236776,"25":-0.17696056366778867,"26":0.05296329493986685,"27":-0.27080228297026043,"28":-0.1393884023352375,"29":0.03771257366513089,"30":-0.1553966372795609,"31":-0.20203805813081083,"32":-0.07845189341581797,"33":0.18904548672494334,"34":-0.3415095654157098,"35":0.010289797269375012,"36":0.0314363036735461,"37":-0.21329444933430153,"38":0.0011337405844669666,"39":-0.3440044303511088,"40":0.2526630971403258,"41":-0.14874512471250717,"42":-0.07856145199508843,"43":-0.12335551689363514,"44":-0.30565787858502674,"45":-0.21876751504627207,"46":0.1937627999625109,"47":0.1733255673193913,"48":0.0920267579439344,"49":0.2258442583220651}},"4":{"bias":-0.24567938093793254,"weights":{"0":0.059844666860716274,"1":-0.04018210219265546,"2":-0.18935724271970178,"3":-0.10132298360627706,"4":0.028404249428475855,"5":-0.04009885022841748,"6":-0.09451876370714207,"7":0.11017521059129118,"8":0.15851058442596866,"9":0.01702482024981363,"10":-0.06865716332564706,"11":-0.14953941787359526,"12":-0.18925244577229908,"13":0.1573218524839831,"14":-0.08649769186969641,"15":-0.14465656195501153,"16":-0.22874202376803796,"17":0.016610089020424317,"18":0.07188802304123444,"19":-0.02187961695275741,"20":-0.11683703966706782,"21":-0.08153886868531231,"22":0.11370895652837261,"23":-0.23505714566741429,"24":0.14698140135223028,"25":-0.013551502215673847,"26":0.08081747031198902,"27":-0.23188734684576742,"28":-0.027585725384027933,"29":-0.04718561395594482,"30":-0.04600843748313915,"31":-0.0029265613618579102,"32":-0.07267146002782353,"33":0.09824275992869491,"34":-0.0232082202787261,"35":-0.0045437236216109185,"36":0.11895002224841177,"37":-0.17094644818382923,"38":-0.23463635357113538,"39":-0.023657728687918326,"40":-0.15562045462656188,"41":-0.07272763172299612,"42":-0.16400715413234623,"43":0.0923779362950869,"44":-0.16849846384794312,"45":-0.16256814871758377,"46":-0.21023269485389726,"47":-0.009030763270031732,"48":-0.049081416854155,"49":-0.15043327084053987}},"5":{"bias":-0.06313790622051216,"weights":{"0":-0.12691987731101398,"1":0.0003396424476843214,"2":-0.001158675148271977,"3":-0.24622547299609607,"4":-0.23724790487197747,"5":-0.027138359365552974,"6":0.06075934120478785,"7":0.1434727171278714,"8":-0.1969076854213775,"9":-0.08075474104420358,"10":-0.21839265446193293,"11":-0.002705790204149496,"12":0.03491638506170869,"13":0.006576993516829138,"14":-0.031664163143156246,"15":0.06615929177321923,"16":0.007946605397553435,"17":-0.06922131886339954,"18":-0.05714815873916403,"19":0.022515286358976528,"20":-0.1982753114804135,"21":0.14542786812222,"22":-0.06552809435213879,"23":-0.2330285112364437,"24":-0.0008576789009736083,"25":-0.21770127087016664,"26":0.02307172085641201,"27":-0.017219484817818393,"28":0.09000179333312898,"29":-0.12674887850472719,"30":-0.015191538781451259,"31":-0.165291554230156,"32":-0.21401605607632684,"33":-0.04970028700258958,"34":-0.04208765996318387,"35":0.11243420658132279,"36":-0.007752004517338595,"37":-0.16632799666719425,"38":-0.06499380583901694,"39":-0.08218989336605453,"40":0.1286871717257239,"41":-0.021818886630007816,"42":0.022545878420685755,"43":0.022447554034799026,"44":0.10162350806348601,"45":-0.2224820785364531,"46":-0.16501248991903852,"47":0.0391545330758354,"48":-0.19480520277973654,"49":-0.11755136124575497}},"6":{"bias":-0.24526586944714726,"weights":{"0":-0.03648616812280579,"1":-0.14765042181194954,"2":-0.05688058352016577,"3":-0.0863482183651745,"4":-0.008616210084045981,"5":-0.12504345401114103,"6":-0.057188022912961795,"7":-0.14415756659809859,"8":0.0486128493010264,"9":0.04019716022925938,"10":-0.033467506031205616,"11":-0.18621017103651932,"12":-0.0217451427199812,"13":0.1314335043340949,"14":-0.0960470580766621,"15":-0.12224681588435334,"16":-0.09508783113815186,"17":-0.18798205067855076,"18":0.11774989987156072,"19":-0.1813137467400669,"20":-0.19096643022188653,"21":0.12232146717752404,"22":-0.16355156150932132,"23":0.02859118844118725,"24":0.08428762039299417,"25":-0.1924370655801057,"26":-0.13770202825064345,"27":0.12146422217378804,"28":0.007493060052863748,"29":-0.14299619785730192,"30":0.0968488033604588,"31":-0.15382502465780964,"32":-0.21312850949752235,"33":-0.11546796558495091,"34":-0.2261626785719865,"35":0.10595872925315934,"36":-0.09660286437640013,"37":0.001504195074271969,"38":0.11643288769402607,"39":-0.2606562143450689,"40":0.029632396514200233,"41":-0.006766913114687479,"42":-0.18426539517532983,"43":-0.17209070678076357,"44":0.03416254526815816,"45":-0.2223716105323135,"46":-0.04788645046175046,"47":-0.22900663745431968,"48":0.09987483876574922,"49":0.0342707333159067}},"7":{"bias":-0.10701243732949489,"weights":{"0":-0.046340739988633334,"1":0.20611221409437983,"2":0.006659251407939153,"3":-0.08064447922230879,"4":-0.3726764021228197,"5":0.1284505296597788,"6":0.008566805713160087,"7":-0.11224850948451089,"8":0.03791037360032093,"9":-0.0781146014131785,"10":-0.14315548953044324,"11":0.1998907691226742,"12":0.2607699447488392,"13":0.07440950328685532,"14":-0.1965061792492803,"15":-0.1678368304484326,"16":-0.06426310191152224,"17":-0.18543240452516238,"18":-0.15961072689380762,"19":0.0941055978976653,"20":0.2677054272507115,"21":-0.18279635349928733,"22":0.23274510478052907,"23":-0.14193377718967876,"24":-0.08034601369704593,"25":-0.049504825018684445,"26":-0.1482563312041101,"27":0.10599015131063078,"28":0.24458642242768033,"29":-0.1346262828963781,"30":0.1270116832068363,"31":-0.13850535119693083,"32":0.06461871994454853,"33":-0.009168766317415034,"34":0.1663471694093819,"35":-0.15415528668273001,"36":0.03050354721868697,"37":0.1267906124045712,"38":0.22196807947897398,"39":0.33297801519510384,"40":-0.09469107376414206,"41":-0.09383033649274394,"42":0.09516842377888605,"43":0.01409322923100377,"44":0.26077716033213516,"45":0.02781837010211186,"46":-0.10909198748750963,"47":0.02236072813133424,"48":0.16758303977555764,"49":-0.18883277043503832}},"8":{"bias":0.03865073961233415,"weights":{"0":-0.2562986067725916,"1":-0.15058636732799896,"2":-0.11043649832903064,"3":-0.22434350830151667,"4":-0.07364867780523199,"5":-0.044068178805067235,"6":-0.11691524789632361,"7":0.09246748484978871,"8":0.11499687079008036,"9":0.028332352857288957,"10":0.007501621680579919,"11":-0.17378081025026948,"12":-0.20281023168484014,"13":-0.12471632557797055,"14":0.08481325232407758,"15":-0.25683131170224155,"16":0.03810036001401797,"17":-0.228494227375966,"18":0.03393890373025188,"19":-0.02900471465170996,"20":0.14712883188376943,"21":-0.19142776724142632,"22":-0.14276642337044565,"23":-0.07439963256454515,"24":-0.03793087864840405,"25":0.05509745579031976,"26":-0.11966879905028194,"27":-0.012873606670098259,"28":0.06751851724298719,"29":0.07854044355180015,"30":0.07337091120697128,"31":0.13906110732557717,"32":-0.12678658778387902,"33":0.023177017422116676,"34":-0.14309384461779054,"35":-0.02975200332266503,"36":0.03654199259718848,"37":-0.12141048390237177,"38":0.06725197861815184,"39":-0.08834613370277625,"40":-0.0667203812513776,"41":0.03587381789570208,"42":0.07646387570759602,"43":-0.08191874264318574,"44":0.10944470197278228,"45":0.018595311995930525,"46":-0.268745874723843,"47":0.10127698877536058,"48":0.0671367337013945,"49":-0.25400780369643705}},"9":{"bias":-0.16921292249303949,"weights":{"0":0.07794451020181412,"1":0.30667643321839116,"2":-0.03511817781856769,"3":-0.1247116716100731,"4":-0.3998717006830992,"5":-0.1604448163756085,"6":-0.0015387551091664642,"7":0.04042061762122474,"8":-0.016157555359367196,"9":-0.12260626661730432,"10":-0.21510710964595112,"11":0.02587939018116705,"12":0.237285939200045,"13":0.22161925291076187,"14":-0.08435005101096385,"15":0.1753983734121826,"16":-0.0476133048356246,"17":-0.06552700102036488,"18":-0.045514456407168113,"19":-0.19120670535764325,"20":0.18750180855851817,"21":-0.28146180080737276,"22":0.012132720689393067,"23":-0.1570588651677043,"24":-0.08666732211112475,"25":-0.011805632732370525,"26":0.08830731108855974,"27":0.2545668849434705,"28":0.026002868774681533,"29":-0.051864508268381945,"30":0.3503405417657588,"31":-0.0022915427679589427,"32":-0.013265085488558427,"33":0.11684745311737395,"34":0.21607291659723987,"35":0.16668028530728463,"36":0.25009012434407546,"37":-0.03882149093779228,"38":0.16447859816713803,"39":0.3412121459117888,"40":0.049385951870813675,"41":0.12149928108990538,"42":-0.0633701672957461,"43":-0.11046124929644889,"44":0.3262551146972648,"45":0.09137699505049388,"46":-0.10062430518156172,"47":-0.05571543453064145,"48":0.19596652292603853,"49":-0.34299361547951507}},"10":{"bias":-0.00067137492939007,"weights":{"0":-0.03907897864896671,"1":-0.1261891641682813,"2":-0.04792926161031617,"3":0.030522559689643427,"4":-0.18837552230401267,"5":0.08488492488292547,"6":-0.1689299549356668,"7":-0.02746174012958431,"8":-0.04907417888497418,"9":-0.28373073139474053,"10":-0.14736412758959533,"11":-0.1559731360992596,"12":0.09362073820821927,"13":0.03136440577793655,"14":-0.22668802157619033,"15":0.08988233498242339,"16":0.05045148219886295,"17":0.11466879655155678,"18":-0.25785587589305037,"19":-0.017461908775580195,"20":0.06741396166289615,"21":-0.042999768460608094,"22":0.03768336316669131,"23":-0.07102265202060327,"24":-0.004806349142630137,"25":0.04282555882576393,"26":-0.004659781462318899,"27":0.1115168553704282,"28":-0.16534211474637828,"29":0.1125752187030914,"30":0.0557184091406665,"31":0.12485252733950575,"32":-0.12273946474615949,"33":0.0136331888772271,"34":0.06020081046290522,"35":-0.06139165085095597,"36":-0.12756863344161845,"37":0.153412890611179,"38":-0.13616074151253357,"39":0.03360748788595416,"40":-0.14276533588753143,"41":-0.10853095082388545,"42":0.05129668336316297,"43":-0.11478801324159937,"44":-0.053020885091534554,"45":0.048083756544830665,"46":-0.14938777685490723,"47":-0.0441724438827684,"48":-0.03396127711042172,"49":-0.2968755607384943}},"11":{"bias":-0.1942917660609831,"weights":{"0":-0.06834707856701912,"1":-0.18070756068387883,"2":-0.08279867108292363,"3":0.06593470418747639,"4":0.0308455277275926,"5":-0.026754927905309228,"6":-0.0006911513086865123,"7":-0.1222026569925125,"8":-0.24577020873868446,"9":-0.05093645030415301,"10":-0.018915201435610998,"11":-0.011588525519020261,"12":-0.21256024815447475,"13":0.05268449385120523,"14":-0.008275737698230395,"15":0.013726787973255945,"16":-0.17739964321035,"17":-0.15490279072035523,"18":0.047078293737617,"19":-0.09239936262164801,"20":0.05425336528600154,"21":-0.24114639871338253,"22":-0.17862015700456488,"23":-0.09738842611519326,"24":-0.11215802855933127,"25":-0.08809845416390459,"26":-0.04860691344405818,"27":-0.11291680280757237,"28":-0.032871538262087364,"29":-0.12613093140087267,"30":0.16624430620474664,"31":-0.03981114229090372,"32":0.0961888015880646,"33":0.06630386960022973,"34":0.10107375288505102,"35":-0.1440484389494914,"36":-0.1695645811519301,"37":0.013605863757966359,"38":-0.13717278999575758,"39":0.14627792852540655,"40":-0.013554197810486512,"41":0.038432689635993826,"42":0.14031867180379648,"43":-0.12110700110243462,"44":-0.02062365065163388,"45":0.09776436158149136,"46":-0.11226654098181714,"47":0.08936420298628969,"48":-0.09893785544656829,"49":-0.23255267646617256}},"12":{"bias":-0.20205690822469008,"weights":{"0":-0.25593352880002124,"1":0.14493192263042598,"2":-0.211483237671674,"3":-0.20043093511351945,"4":-0.3592804476753136,"5":-0.21699853729454982,"6":-0.08723776576804645,"7":0.0553978154091127,"8":-0.13612018789035185,"9":-0.06456748944222643,"10":-0.2878328966447248,"11":0.14128803995347158,"12":0.21110546089790538,"13":0.23689121940351954,"14":-0.025643586041548663,"15":0.06651297015125865,"16":0.12329441585940527,"17":0.041306786016794904,"18":0.11893207035949654,"19":-0.12130258792642948,"20":0.08638354258894582,"21":0.09491868582225454,"22":0.1284865649878606,"23":0.10137041405093127,"24":0.21205478845637069,"25":0.1720126668143165,"26":0.0049640481495497445,"27":0.06578114627970214,"28":-0.11027474773273782,"29":0.053768634633201404,"30":0.06959441526226447,"31":0.15452669710556405,"32":0.13655768990552866,"33":0.08154294013018806,"34":-0.06268166700446257,"35":-0.11446246358484405,"36":-0.11140423147823601,"37":0.04287780411560919,"38":-0.041027251563689256,"39":-0.05623096338749137,"40":-0.1535805197263433,"41":0.12320881456469077,"42":0.0986504835348762,"43":0.17489486211532532,"44":-0.1258239458997238,"45":0.06288670810445433,"46":-0.15790865302994953,"47":-0.17447556882481574,"48":-0.17944646394281927,"49":-0.07119645187256443}},"13":{"bias":0.025322409868392792,"weights":{"0":-0.18535044690553723,"1":-0.08849715773400539,"2":0.11745295591920946,"3":-0.1287171199767256,"4":0.16022935575454217,"5":-0.11052358678780211,"6":0.045128487201401904,"7":0.10073604759051666,"8":-0.13989077909130648,"9":0.057677845928205164,"10":0.10887880607486841,"11":0.106645486748051,"12":-0.3017549251629982,"13":-0.11328971873276608,"14":-0.21881343152836588,"15":-0.021041896175042377,"16":-0.0813065616155486,"17":0.0017329230344236104,"18":0.02632012586977518,"19":-0.11111153762441879,"20":-0.07261118483467512,"21":0.10063102909666885,"22":-0.2600360065690395,"23":0.1171847439594105,"24":0.03436072629049224,"25":-0.08695493889742309,"26":-0.2197972944777468,"27":-0.20588932395067885,"28":0.019725088417535497,"29":-0.04164239302991343,"30":-0.13360223934649584,"31":-0.04989225973418379,"32":0.0957685659954722,"33":-0.16257748522917503,"34":-0.29159008849218865,"35":-0.03699814398061934,"36":-0.2447838661014502,"37":0.11037555550734338,"38":-0.11871842393327607,"39":-0.16831703636057938,"40":0.18261210938183858,"41":0.015066758822427735,"42":-0.07595907881734146,"43":-0.21612390847562918,"44":-0.12857818160317916,"45":-0.26246211507692374,"46":0.08456168062802655,"47":-0.16416533842467237,"48":0.018910743761087805,"49":0.13228520190831664}},"14":{"bias":0.07688317563969381,"weights":{"0":0.080297752542916,"1":-0.20602914070193457,"2":-0.1758832315137689,"3":-0.2333353368425447,"4":-0.058236673578008345,"5":-0.19685284669776218,"6":0.06558139833341138,"7":-0.17727606911328514,"8":-0.024233581802251273,"9":-0.041786465431615606,"10":0.0032082873740969012,"11":-0.15009178905738374,"12":-0.16068124488588056,"13":0.006199014760561213,"14":0.03817252938397071,"15":-0.14904543489563046,"16":-0.18422781266297045,"17":-0.19573960252353223,"18":-0.15130135998693497,"19":-0.1368825047398494,"20":-0.06657125058153571,"21":0.04499475432690637,"22":-0.04435900063635538,"23":-0.2333990668824371,"24":0.03407784005509552,"25":-0.07827947117897956,"26":0.1276457053945894,"27":-0.10975367535593397,"28":0.0641995241434139,"29":-0.0013695736816240485,"30":-0.18435567239851172,"31":0.07638006370308854,"32":0.03653384293893678,"33":-0.0968009912311399,"34":-0.24744446117760852,"35":0.040818800855143,"36":-0.21158415850052434,"37":-0.05947304037957159,"38":0.0374757089931291,"39":0.030700648888781542,"40":0.050915450490548,"41":-0.05993030181780215,"42":-0.1581725721339859,"43":-0.1670007209152092,"44":0.1272053275296206,"45":0.11400590062135682,"46":-0.030410733721822108,"47":0.005338774673025983,"48":0.11073552645607533,"49":-0.05348037167497553}},"15":{"bias":-0.1350620456441972,"weights":{"0":0.274500141961855,"1":-0.36600488490883076,"2":0.2316923708815064,"3":0.10358567534232267,"4":0.4291222284860077,"5":0.2039208237341939,"6":-0.11218422593414214,"7":-0.0028572602638804443,"8":0.014793213887107793,"9":0.06196799131606853,"10":0.3461954864623092,"11":-0.0055358900910392585,"12":-0.31480301834727886,"13":-0.23644763347354952,"14":0.12307745784526282,"15":0.11562886616964327,"16":0.10297820407872607,"17":0.13898333763109424,"18":0.06401465478262523,"19":0.028844767966978612,"20":-0.3476423181769502,"21":0.12005086446994453,"22":-0.19605493860167592,"23":-0.17126998092461704,"24":-0.10068069815136627,"25":-0.3503652554262417,"26":-0.04217540180638969,"27":-0.10244461959916076,"28":-0.31654105458249054,"29":0.02875219107925348,"30":-0.21148959859639044,"31":0.08960813103031073,"32":-0.05137917082058082,"33":0.1265629633360092,"34":-0.35924501512289636,"35":-0.01906185972147956,"36":-0.14317501939796293,"37":-0.05997429071783295,"38":-0.2912760714592457,"39":-0.15787510065116922,"40":0.07678782916376754,"41":-0.029327676737405297,"42":-0.22695227945970642,"43":-0.21458611076011552,"44":-0.22970742000668756,"45":0.0005014198900454287,"46":0.07723738246551388,"47":0.028888735603709022,"48":-0.022357475310639006,"49":0.2685994875734941}},"16":{"bias":-0.27106014915348026,"weights":{"0":-0.07790420214154473,"1":0.03168089687725984,"2":-0.0687344393413411,"3":-0.05827157785487314,"4":0.15619878127464565,"5":-0.2539877450760319,"6":-0.06126426730810475,"7":0.07886471157049066,"8":0.1407100712425061,"9":-0.16534919037216322,"10":-0.0012089003974192342,"11":-0.173559323988415,"12":-0.1310486700906778,"13":-0.22130543902039776,"14":-0.04632676006524144,"15":-0.0950283139817963,"16":0.012832189805992471,"17":0.14551210826854757,"18":0.14543908725956092,"19":0.09860125317776755,"20":-0.016965643857938015,"21":0.1236289707508813,"22":0.12150895266871904,"23":0.06059007354066242,"24":-0.13972209204458438,"25":-0.08897449368377856,"26":0.13928695301033145,"27":-0.26062177643433215,"28":-0.022662169356969266,"29":-0.043378552047123736,"30":-0.11381006341555064,"31":-0.2123212866418106,"32":-0.23128830097384895,"33":0.03612179994535177,"34":-0.14543696262556066,"35":-0.14970053263983193,"36":-0.24880639796044357,"37":-0.1518864491179186,"38":-0.263096710351157,"39":0.09869802798091615,"40":-0.05343421982268506,"41":0.03782208600063082,"42":0.05734556540238934,"43":-0.12014029095002186,"44":-0.024522689747840345,"45":-0.199157630058823,"46":-0.19181064274787638,"47":-0.1506974618331113,"48":0.13789320393090262,"49":0.16723112186653769}},"17":{"bias":0.10662569655550339,"weights":{"0":0.24241982847005408,"1":-0.32836098601173536,"2":0.09590831823359565,"3":-0.06000719126758893,"4":0.34981304439246846,"5":0.17622630328187383,"6":-0.18042178745514653,"7":-0.2424892387298327,"8":-0.07230462372731476,"9":0.04532974358360493,"10":0.3936963136313305,"11":-0.22336851792162238,"12":-0.09486881739629596,"13":-0.06907581536311225,"14":0.2385696047351615,"15":0.15314047510029635,"16":0.12401446900423223,"17":0.1067244934313987,"18":0.03884076669780311,"19":0.1268575899362245,"20":-0.27113203196968766,"21":0.1931305652138444,"22":0.020189591483856323,"23":0.15929701159887488,"24":-0.0616390437838593,"25":-0.2881108517098738,"26":-0.22464923805679524,"27":-0.012174607207740032,"28":-0.2603973558156208,"29":-0.09528871851661021,"30":-0.3046380574889046,"31":-0.13286669739427376,"32":-0.13714092589052776,"33":-0.12414771916978853,"34":-0.3283728238376892,"35":0.13742424650886262,"36":-0.22527750145037786,"37":-0.21440722401459036,"38":-0.37643102775709686,"39":-0.484158642929926,"40":0.23973431014038185,"41":-0.20590227813352863,"42":-0.03265066963418192,"43":-0.08202516945899535,"44":-0.23031906285110404,"45":0.06129850539243257,"46":-0.09153936632477776,"47":0.08144045479367337,"48":-0.10116942276506112,"49":0.21926512819147684}},"18":{"bias":-0.07466026415647217,"weights":{"0":0.22183878202922183,"1":-0.32953698380403657,"2":-0.03176846066549568,"3":-0.05443641941842985,"4":0.38905486694130975,"5":-0.11017197587667821,"6":-0.23240662738009535,"7":-0.18380330671639591,"8":-0.03875405921931966,"9":0.23086354352501487,"10":0.15055261207488815,"11":-0.024615157927971303,"12":-0.30096403220747303,"13":0.013874021330350693,"14":0.18925239316919823,"15":0.06700957029352146,"16":-0.0883305856846359,"17":0.09241977014822512,"18":0.13252899026417148,"19":0.0033739757214161967,"20":-0.21604260807284786,"21":-0.05449988299473058,"22":-0.14833928110027542,"23":0.10969174523305177,"24":0.004831293071220452,"25":-0.1927840837759165,"26":0.13387956966668058,"27":-0.12956392883033035,"28":-0.043342044120099434,"29":0.06637169958156498,"30":-0.219513934135616,"31":-0.15833256574685192,"32":-0.07208555871040911,"33":0.17028332260181234,"34":-0.2529043114723304,"35":0.02582105179502719,"36":-0.22929531446768114,"37":-0.2045066480371853,"38":0.028766119737691293,"39":-0.2378032303042637,"40":0.07450970777040021,"41":-0.32195901058904675,"42":-0.03066709641676586,"43":-0.13039700394342624,"44":-0.08421053947756113,"45":-0.1532068592496759,"46":0.2357101321730069,"47":0.020006928798087957,"48":-0.061211763608424986,"49":0.21523563299432844}},"19":{"bias":-0.0068299718957693595,"weights":{"0":0.24479403404196898,"1":-0.04342534311224832,"2":0.17375578924213433,"3":0.22312005192181586,"4":0.1439100378454731,"5":-0.09293514920354073,"6":-0.2827577480391161,"7":-0.02228406441649718,"8":-0.09211096552090678,"9":0.2246214364977209,"10":0.12374144728648756,"11":-0.24590111446975194,"12":-0.2685472114586628,"13":-0.15473142012445215,"14":-0.041500291961655174,"15":0.07544131861626475,"16":0.07724024435654461,"17":0.11674904073841458,"18":0.05781633856901226,"19":0.1808910879457844,"20":-0.23248125666408348,"21":0.27965701291757933,"22":-0.16694053277648938,"23":0.1750635941565819,"24":-0.17507584355979974,"25":-0.26743017444439293,"26":-0.035713618531093304,"27":-0.037430418989719376,"28":0.10212144844880286,"29":-0.21884996826975484,"30":-0.17182637605363144,"31":-0.2184284110834661,"32":-0.054967833191505354,"33":-0.04873475532737214,"34":-0.33981480073518794,"35":-0.006385958137015898,"36":-0.14209225490494806,"37":-0.10389355403004646,"38":-0.1672061901102312,"39":-0.27826052480189706,"40":0.2724030150047334,"41":-0.27967152238162934,"42":0.004246127852271424,"43":-0.14021310325246888,"44":-0.2860991605606036,"45":0.14010084475839304,"46":0.2467854290180925,"47":-0.22472722587364985,"48":-0.052900996136703286,"49":0.015751745296274815}}},{"0":{"bias":0.49836387690788925,"weights":{"0":-0.5863154593409388,"1":-0.47329986831817616,"2":-0.35379489452876367,"3":-0.5466655307331534,"4":0.1363913625454991,"5":0.03529589101621577,"6":0.011745285251320119,"7":0.687013132442608,"8":0.24339021627374263,"9":0.6475163259375785,"10":0.23072666446062953,"11":0.1908310750632833,"12":0.42014706643031147,"13":-0.1461420374994178,"14":0.054662959297436885,"15":-0.8387908168563879,"16":-0.13542079719340863,"17":-0.7721467409244884,"18":-0.6917100128491765,"19":-0.5231945938779402}},"1":{"bias":0.5610441122440869,"weights":{"0":-0.6225951656096852,"1":-0.36337978884788075,"2":-0.48931494223602007,"3":-0.5722728546274597,"4":-0.06572029870421826,"5":0.22690486471034654,"6":-0.16127362952204785,"7":0.5634493003444622,"8":0.14120310694100974,"9":0.8625047967848326,"10":0.24713958068746428,"11":0.0356352252753485,"12":0.3595677244894992,"13":-0.3404675318626138,"14":-0.0038278599868767542,"15":-0.6644368294130034,"16":-0.10534869440015861,"17":-0.8710084601041719,"18":-0.3930567505791319,"19":-0.6573958581430503}}}],"outputLookup":false,"inputLookup":false}