{"layers":[{"0":{},"1":{},"2":{},"3":{},"4":{},"5":{},"6":{}},{"0":{"bias":0.08541426474951669,"weights":{"0":0.16290631962402702,"1":-0.07064640725131828,"2":-0.02460700292463152,"3":-0.16180446703276133,"4":0.10635975815469312,"5":-0.04209986723676176,"6":0.1881205954795827}},"1":{"bias":-0.1650680542024962,"weights":{"0":-0.09824985097141616,"1":0.15105976089983192,"2":0.1789141446908584,"3":0.09711308463369894,"4":0.19269440568767304,"5":-0.028453549469551986,"6":-0.17284265787044856}},"2":{"bias":-0.08879164619035933,"weights":{"0":-0.10527910502703933,"1":-0.1472696896287097,"2":-0.07472744552934803,"3":0.07675754379115687,"4":-0.17439738205580527,"5":-0.033356439345861855,"6":0.16548125852236412}},"3":{"bias":0.02063258212173185,"weights":{"0":-0.18532321464446286,"1":-0.19626797581103206,"2":-0.07150149445723711,"3":0.0007967059082084066,"4":-0.19700967174170692,"5":0.001668145423552738,"6":0.20037338984515643}},"4":{"bias":-0.04082088950892382,"weights":{"0":0.19989317123265168,"1":0.15009826721534156,"2":0.0871656754000345,"3":-0.12417180385589748,"4":0.031583579491380395,"5":0.12772524759567747,"6":-0.027057770744831986}},"5":{"bias":-0.04716517226043135,"weights":{"0":-0.022988940582284536,"1":-0.15508634551221648,"2":-0.08274003404553065,"3":0.16795985499636085,"4":0.15247601045911774,"5":0.034405561127658135,"6":0.16324229682702832}},"6":{"bias":-0.07272230615786505,"weights":{"0":-0.12001228250110803,"1":0.10945101322798799,"2":0.03249892192726398,"3":-0.07952070986257466,"4":0.09254207543219235,"5":-0.07669616090520623,"6":0.008033166031347107}},"7":{"bias":-0.1582545411405749,"weights":{"0":-0.006809709356238745,"1":0.18626672243683642,"2":-0.059807280563656716,"3":0.020004886917181622,"4":0.07225936888113733,"5":-0.16166425962670475,"6":0.09288672575926409}},"8":{"bias":-0.1434228853837505,"weights":{"0":-0.1545926515336413,"1":0.12339021405631194,"2":-0.17673875040795206,"3":-0.15288357654749166,"4":-0.1839358979466116,"5":-0.1511251805965487,"6":-0.06542070573801546}},"9":{"bias":-0.13475262504362573,"weights":{"0":-0.10424363127191562,"1":0.15763461248464944,"2":0.07259822809518783,"3":-0.16087996436334245,"4":-0.06352276783158403,"5":-0.07667463109787698,"6":-0.10723768628159719}},"10":{"bias":-0.14670127032694513,"weights":{"0":-0.18832514611724557,"1":-0.04267340269490985,"2":0.06414740901959773,"3":0.17172797481622462,"4":-0.16245668438011895,"5":0.1578868544074308,"6":0.05324349933591256}},"11":{"bias":0.14227195413972807,"weights":{"0":-0.10887639453277102,"1":-0.13359582315349203,"2":-0.10601180246618656,"3":0.11215542973260058,"4":-0.06821819641009881,"5":-0.17449858845445343,"6":0.18341387186277106}},"12":{"bias":-0.002609351448919688,"weights":{"0":0.1976039114336037,"1":0.1621616656937177,"2":0.08601301210836505,"3":0.1287577678214073,"4":-0.17898352420989896,"5":0.06925766303601008,"6":0.06199990491646861}},"13":{"bias":0.0324167932045238,"weights":{"0":-0.07772622811554149,"1":0.11823092583033824,"2":0.014094935908718248,"3":0.07960445041403084,"4":0.046188116095766264,"5":-0.10401603710461754,"6":0.0888880028797176}},"14":{"bias":-0.0337079976249196,"weights":{"0":-0.1831664247757418,"1":0.11804257486142389,"2":0.1808255662826752,"3":0.08073508630262452,"4":-0.11410856557490993,"5":0.0725501346264174,"6":0.09347166643720563}},"15":{"bias":-0.04153236357081728,"weights":{"0":-0.04227278366672495,"1":-0.19697893050454157,"2":-0.10692269976632784,"3":-0.038380402788602254,"4":-0.14807698709926093,"5":0.18517873773353952,"6":-0.09303022597279748}},"16":{"bias":-0.14246460658471988,"weights":{"0":0.01374483267576393,"1":-0.06002825967531157,"2":-0.07133219345440563,"3":-0.18885368598867489,"4":0.14609959836041161,"5":-0.04063550704279274,"6":0.006446189787207924}},"17":{"bias":0.08050084702758627,"weights":{"0":-0.12272675278096608,"1":-0.1847132235218093,"2":-0.1244896987279802,"3":-0.19131007565158575,"4":-0.11146915109392937,"5":0.09936778279457475,"6":-0.13648949859303747}},"18":{"bias":0.08503490515277388,"weights":{"0":0.1741315631219207,"1":0.020847635345856163,"2":-0.16833421646820185,"3":-0.09710136597502685,"4":-0.19820568506987918,"5":0.10022743494884409,"6":-0.16317216862090508}},"19":{"bias":0.1785813067587689,"weights":{"0":0.1399490995463063,"1":-0.14624244791312158,"2":-0.1165760479277116,"3":-0.07916942505395215,"4":-0.09480791618209293,"5":0.06541383589669278,"6":0.039369311485222845}},"20":{"bias":0.13025264452765992,"weights":{"0":0.03865044948218894,"1":0.11160952601922586,"2":-0.020289413483101287,"3":0.10243257539093063,"4":0.073803427169971,"5":-0.08377082678332855,"6":0.04526077339255641}},"21":{"bias":0.18214036729162486,"weights":{"0":0.0909195631787186,"1":-0.13599930231259505,"2":-0.13565712088960719,"3":-0.18599755691829192,"4":-0.14694571296820014,"5":-0.12957117567051654,"6":-0.08255577687778923}},"22":{"bias":0.1414087322105357,"weights":{"0":0.1346126813371661,"1":0.1730235101371173,"2":0.005265224658026209,"3":0.07558320890632428,"4":0.0673640575796975,"5":0.08938981924769078,"6":0.1414352562873016}},"23":{"bias":-0.007762000813782673,"weights":{"0":0.027318493907050705,"1":-0.07398191912677277,"2":-0.11256543938679084,"3":0.05979873265929577,"4":-0.06343580070254333,"5":0.014733395735580081,"6":-0.03961606054512185}},"24":{"bias":-0.028898840257455403,"weights":{"0":0.1397813307752237,"1":0.014764296220530201,"2":-0.15545828647236487,"3":0.11137449420692257,"4":0.06813400564514593,"5":-0.12120377831306559,"6":-0.11901000192309368}},"25":{"bias":0.17073632123963128,"weights":{"0":-0.012015714421898374,"1":0.03534344651065263,"2":0.011498408765596985,"3":0.19512472499711014,"4":0.13353756554121915,"5":-0.004075900174160213,"6":0.07124537164962272}},"26":{"bias":0.05075741120361996,"weights":{"0":0.003400156014948825,"1":0.1449393968037861,"2":0.1631508796946469,"3":0.03946549983037857,"4":0.19358896157229924,"5":0.04059871377347205,"6":-0.16015679770353422}},"27":{"bias":-0.19368284293063698,"weights":{"0":-0.1267564597033637,"1":-0.16952673053435402,"2":-0.15897785222816008,"3":0.08673972564317328,"4":0.134427910312396,"5":0.060168293932642176,"6":-0.12762984434166258}},"28":{"bias":-0.07900295833375208,"weights":{"0":-0.13922054358161676,"1":-0.06360426111611545,"2":0.1493125581405,"3":-0.12156095943135496,"4":-0.03839090392180414,"5":-0.1402749989326631,"6":-0.17973907723160448}},"29":{"bias":0.09158727776680335,"weights":{"0":-0.08470706085976944,"1":-0.04310398640160064,"2":-0.008055399501400051,"3":-0.14286733196898616,"4":0.19568242840169284,"5":0.14113875233009918,"6":-0.10396254371508735}},"30":{"bias":0.11192879384113319,"weights":{"0":0.14976198794035636,"1":-0.08252075381198497,"2":-0.06848498945314715,"3":-0.15471995697799315,"4":-0.11227984207049722,"5":0.1564558947666993,"6":0.11397921809764132}},"31":{"bias":0.08852247947008109,"weights":{"0":-0.0570079971870449,"1":-0.1972889342915715,"2":0.14380247969844087,"3":0.14944293702499076,"4":-0.01369304083088115,"5":0.10996076673729134,"6":0.11356687006228372}},"32":{"bias":0.13773556175453705,"weights":{"0":-0.021196704135258447,"1":-0.162005287786507,"2":-0.09102535421968193,"3":0.1515614572280679,"4":0.13600951906218228,"5":0.05427999211937014,"6":0.006903247123985014}},"33":{"bias":0.15560081551393748,"weights":{"0":0.19884593306529805,"1":-0.10016571540439989,"2":0.030679391726337272,"3":-0.17569021810050187,"4":-0.17602647087753048,"5":0.15348773836057283,"6":0.1987166362303094}},"34":{"bias":-0.16651250213562807,"weights":{"0":-0.07621332825026551,"1":-0.002218399031614119,"2":-0.14548254248421288,"3":0.0046924548321457035,"4":0.08853555559428584,"5":-0.12286982643919035,"6":0.19602286807723848}},"35":{"bias":-0.11560894472814008,"weights":{"0":-0.11116205493968857,"1":-0.018645844641975814,"2":0.043984638014698055,"3":-0.025590246284985012,"4":0.1714423364789125,"5":-0.1724815147777895,"6":-0.19082985604823494}},"36":{"bias":0.043486661529135814,"weights":{"0":-0.14922346730262573,"1":-0.19957115492599842,"2":0.093264497853052,"3":-0.021850815418890376,"4":-0.1334698536563586,"5":0.16102008748279345,"6":0.02354499114923767}},"37":{"bias":0.10593494808981824,"weights":{"0":0.11431043465887358,"1":-0.16528370790251956,"2":0.07056886075108779,"3":-0.1107364805502001,"4":0.14692829497483273,"5":0.11783504080832,"6":0.01683018971583408}},"38":{"bias":0.07388300686687682,"weights":{"0":0.08940654991710575,"1":0.1379736161398377,"2":-0.15683720333711398,"3":-0.08742403853723785,"4":-0.16048544337430182,"5":0.10412584095440586,"6":0.19794393118585235}},"39":{"bias":-0.1988248422228242,"weights":{"0":0.08073580015453044,"1":-0.05360025435300815,"2":-0.04475851536218579,"3":-0.13165437241160222,"4":-0.18198382240413172,"5":-0.0278759996430519,"6":-0.020989117753283666}}},{"0":{"bias":0.11606826205420646,"weights":{"0":0.07483421259525969,"1":0.19960071353252226,"2":-0.14470902014030257,"3":-0.1704332811081375,"4":-0.010367353454492667,"5":0.04109588388425562,"6":0.09493082591673248,"7":0.1430696541625298,"8":0.0548736100141483,"9":0.17197332345276167,"10":0.0602276057382815,"11":-0.1726665969042088,"12":0.18566169822605544,"13":-0.016226380275534368,"14":-0.12909611547894462,"15":-0.05228661165075309,"16":-0.12216986063122179,"17":-0.06397295077537556,"18":-0.15614757656201028,"19":-0.1434345495468364,"20":0.08261684263686735,"21":-0.09047921980240922,"22":0.13320481135273896,"23":-0.1704860395116162,"24":0.059395013269825984,"25":-0.16199636274261006,"26":-0.03954246657310724,"27":-0.1285499771075554,"28":-0.17233185604639722,"29":-0.18977492979040664,"30":-0.09550638386191157,"31":0.15036367902641337,"32":-0.10573588213802812,"33":-0.08507009959031632,"34":-0.1799722773809387,"35":0.17972620410890422,"36":-0.05614212758832258,"37":-0.14942778402197568,"38":0.14338400159192585,"39":0.12095527706534093}},"1":{"bias":0.1876843608046891,"weights":{"0":0.05034243545940296,"1":-0.17321928227688513,"2":-0.08235889966348679,"3":-0.11785757557932058,"4":0.08618878204618573,"5":-0.14794041077674022,"6":0.07814887918350037,"7":0.011292632174622567,"8":-0.0202147933515589,"9":0.19763059198094962,"10":-0.10847604954909582,"11":-0.19173342230793117,"12":-0.07948211015013322,"13":0.05241606902081406,"14":-0.020531007101485317,"15":-0.16842338727846468,"16":-0.020607582313325927,"17":-0.2000316333611015,"18":-0.18123766812009723,"19":-0.13475187592167726,"20":0.19098736324934465,"21":0.17020647929362662,"22":0.07603108693627862,"23":-0.17393993293774015,"24":-0.14722355821024022,"25":-0.1079898221650253,"26":-0.027223216601841804,"27":-0.18033771472455318,"28":-0.07236650584601395,"29":0.08185077065262436,"30":-0.16736828456910158,"31":0.12929147447128023,"32":-0.1564830335344908,"33":-0.14453651646185708,"34":0.05739154233591718,"35":0.0772492807069254,"36":-0.08395470192841768,"37":0.005189194406254594,"38":-0.12586818606427155,"39":0.16464409931188653}},"2":{"bias":-0.0175648493897522,"weights":{"0":-0.07171155164971789,"1":-0.17268693957110567,"2":-0.06472537280107375,"3":0.17378992064856955,"4":0.19719272730707718,"5":0.01075367139957926,"6":0.03535138411078291,"7":-0.05727818589319527,"8":0.0717414326720824,"9":-0.1364908982903102,"10":0.06576879910756249,"11":-0.10527982012944263,"12":-0.11444977557167071,"13":-0.0010128032394243704,"14":0.1732511730832029,"15":-0.06881191796372119,"16":0.057974734647058476,"17":-0.06119662103906684,"18":0.1186427122443565,"19":-0.09513722640536752,"20":-0.1126100006820547,"21":-0.016723891474897886,"22":-0.17223897665320229,"23":0.023508196154711274,"24":-0.0004223422124739607,"25":0.1386992761201009,"26":-0.14664225140175322,"27":-0.12015491120894278,"28":-0.1926253568714174,"29":-0.1141878235503439,"30":0.10439898504264385,"31":0.191342677909133,"32":-0.1363761439036175,"33":0.06597505048663171,"34":0.06643326477860835,"35":-0.012083075007314948,"36":-0.17986413692799572,"37":-0.03187701787164972,"38":-0.1480547983854351,"39":0.07107582546226307}},"3":{"bias":-0.029106252684129957,"weights":{"0":0.18132998649035909,"1":-0.03418169588637356,"2":0.12517355110926662,"3":-0.18759748417065011,"4":-0.15079201891572508,"5":-0.0739793612713307,"6":0.0974050363152055,"7":0.16073654210251273,"8":0.1479269812117707,"9":0.09808348493943739,"10":-0.14945869860489383,"11":0.13590268490259544,"12":0.0900836180031816,"13":0.1478489635613044,"14":-0.019307914983063335,"15":-0.0490999022944341,"16":-0.09512367801832351,"17":0.04172738874135177,"18":0.08000159939332777,"19":0.04743605609884761,"20":-0.18105983503800038,"21":-0.14257479741771084,"22":0.12792842118965897,"23":-0.09184027644687516,"24":0.09383661055899312,"25":-0.14016281651856086,"26":0.0004622709506148278,"27":0.18582286611940704,"28":0.14691882262925898,"29":-0.01967705065083309,"30":0.023191915421520954,"31":0.18998472001528754,"32":0.036013353546499,"33":-0.14429304269328747,"34":0.07151881845141433,"35":-0.15737397867441066,"36":0.1373952192292805,"37":-0.04790444584912496,"38":0.008771648908387386,"39":0.023606598958344587}},"4":{"bias":-0.029686410665948865,"weights":{"0":-0.08421003336322141,"1":0.03801696959402377,"2":-0.09986818109918848,"3":0.09426224518371351,"4":0.08573768540419831,"5":-0.12058564344075308,"6":0.03420640616337285,"7":0.07151441203885608,"8":-0.15149986545191702,"9":-0.1633971400893498,"10":-0.0791312150129526,"11":-0.032438330716208184,"12":0.16909441322367677,"13":-0.13828644074504373,"14":-0.06663273400214624,"15":-0.12352574041455189,"16":0.08326787870368012,"17":-0.106926345623124,"18":-0.1520426108367216,"19":-0.025489899132603112,"20":0.11172351634275766,"21":0.19255486463583124,"22":-0.14406463200495598,"23":0.10046221346707108,"24":0.11326541654392315,"25":0.02453242388516367,"26":0.044512774232657266,"27":0.14312591273117306,"28":0.05620120487282944,"29":0.05899845646079828,"30":0.12225564881636584,"31":-0.07515874596271177,"32":0.10603645086256257,"33":0.046706913781671716,"34":-0.06520263170739263,"35":0.12679999027970695,"36":0.09386716122133748,"37":-0.14177479826986003,"38":-0.09586510649098111,"39":-0.1462254212330406}},"5":{"bias":0.14605248499866993,"weights":{"0":-0.007050722481717179,"1":0.1253375527969152,"2":-0.15982426843567868,"3":-0.19353411351938873,"4":0.12131401116718324,"5":-0.17528783377992035,"6":0.09992196234731986,"7":0.1102165543185374,"8":-0.06260513278654903,"9":0.03429868853955145,"10":-0.04894453774988233,"11":0.08914667991602677,"12":-0.1109848891412235,"13":-0.13680053569194678,"14":-0.06440619973584742,"15":0.05728761945261007,"16":-0.08491075537586487,"17":-0.11526718729445341,"18":0.1836873112769035,"19":0.023741252410150276,"20":0.13310142775892525,"21":-0.18375317812747693,"22":0.02716320581007497,"23":0.16019604128814793,"24":-0.013672489548179843,"25":0.04855352245140128,"26":-0.09964305464492774,"27":0.062368572079402614,"28":0.074839143848814,"29":0.0680270303813797,"30":0.13322599209471767,"31":0.0687213517129648,"32":0.11001451460658417,"33":0.0614846507623742,"34":-0.031010740137439697,"35":0.0590591213905034,"36":0.0727575624041091,"37":-0.02131466953634083,"38":0.13724590923305258,"39":-0.14174434292202295}},"6":{"bias":-0.19615504097616693,"weights":{"0":-0.08028164221510596,"1":-0.18634442692313893,"2":-0.1183866538492409,"3":0.03805451149187175,"4":0.005513260670487767,"5":-0.12994888924334624,"6":-0.10086009357289308,"7":-0.17162032537385488,"8":-0.08330174095142956,"9":0.11000416789634511,"10":0.1793185469762458,"11":-0.1478519730010848,"12":-0.01660338995255481,"13":-0.004296689003665288,"14":-0.07429132836384901,"15":-0.19848830918568025,"16":-0.08187995487556479,"17":0.09096949425521482,"18":-0.18688850784214872,"19":0.1224372604329204,"20":0.025719631061405512,"21":-0.11597601407449802,"22":-0.09071702473933689,"23":0.046607262488202,"24":-0.10514947056531139,"25":-0.15537347408700417,"26":-0.1298510968339217,"27":0.03008103756473424,"28":0.03774311868596911,"29":-0.1902511472011321,"30":-0.17197601751262348,"31":-0.1949130772453484,"32":0.18989083127610865,"33":0.044116872305808845,"34":0.14516840076213758,"35":0.0671998328814467,"36":-0.046421122425423775,"37":-0.033620622522484066,"38":-0.1396587832860723,"39":-0.07654102259851339}},"7":{"bias":0.09806523863799955,"weights":{"0":-0.01707818983932503,"1":-0.19816789552252756,"2":0.06489508686534018,"3":-0.08060224186042786,"4":-0.08310864232476622,"5":0.008748851078470912,"6":-0.1674960228113817,"7":-0.08716140668126103,"8":-0.005636909389783547,"9":-0.040809206299674355,"10":0.1765579036230737,"11":-0.05767331864426069,"12":-0.09605526711646058,"13":-0.017825582173046448,"14":0.16195914203894668,"15":0.025853022368496098,"16":-0.08564253371090122,"17":0.10761677124248113,"18":-0.00009656871142644117,"19":-0.05710119005735559,"20":0.022113641304404054,"21":-0.18935248979713326,"22":-0.08415949049049103,"23":0.05114745581097161,"24":-0.1248849658612594,"25":0.028718595683911413,"26":-0.05452112262772032,"27":-0.15152990232505642,"28":-0.13867084979542946,"29":-0.056632442394956614,"30":0.11549458162636521,"31":-0.08245630550896373,"32":0.15582960923536557,"33":-0.013984609095808006,"34":-0.07148038175528962,"35":-0.17804826314448588,"36":-0.060436186977115086,"37":0.16585865363607968,"38":0.09095309365734326,"39":0.10294052358184848}},"8":{"bias":0.028464176210301523,"weights":{"0":0.1984003346944824,"1":-0.012512354680580998,"2":0.04048969634931414,"3":-0.1545008269167258,"4":0.18861057510726714,"5":0.13865999709463114,"6":-0.07737821958362454,"7":-0.14963460038042858,"8":-0.024525643826748225,"9":0.15414746116606662,"10":-0.09891352117293373,"11":0.006368147723582032,"12":-0.13048937919851092,"13":0.07296789729284321,"14":-0.17995000760279894,"15":-0.10746017279258314,"16":-0.14749212265390457,"17":0.12740067108920833,"18":0.12986869295242986,"19":-0.027750420033923792,"20":-0.15144587939550083,"21":-0.027177191624080516,"22":-0.00773187461601782,"23":0.1063188640111863,"24":0.05354458039717248,"25":-0.005672533685776208,"26":-0.14626439211036152,"27":-0.13245389129188292,"28":-0.07948319263151266,"29":0.012405129488408913,"30":0.177599828717422,"31":0.1666219324194844,"32":0.046084217304765106,"33":0.14128144956117641,"34":0.01751723701947948,"35":0.007531651379079996,"36":0.040502094933888,"37":0.018474492672973915,"38":0.16953095034368362,"39":0.18674244427059244}},"9":{"bias":0.18334663153588251,"weights":{"0":-0.08826194988111065,"1":-0.1730901980191239,"2":0.13945714842141893,"3":-0.154860681937788,"4":0.007974872383657827,"5":-0.032981541928616624,"6":-0.19254063294343532,"7":-0.1801536798691517,"8":-0.16446994027255804,"9":-0.19109721536110658,"10":-0.013986988573349592,"11":-0.18810197639780843,"12":0.042371754587889644,"13":-0.05792158147478003,"14":0.061036071889277885,"15":-0.18847158784905738,"16":-0.13141256389384615,"17":0.15212310432368162,"18":0.17682434209936615,"19":0.16913933708763867,"20":-0.1025681181357965,"21":0.04936627355472168,"22":-0.19163445137345916,"23":-0.14400258272197575,"24":0.11067539959677175,"25":0.04332112121981525,"26":-0.19545056974247924,"27":0.16156751542744693,"28":-0.004697964220570795,"29":0.15662466202027728,"30":0.10362695034839137,"31":0.03461217412904704,"32":0.03883516829573143,"33":-0.10279012385513318,"34":-0.19632743131381605,"35":0.1418673939372866,"36":0.12530439534575966,"37":0.0932553869375234,"38":-0.08121974425171068,"39":0.17225744959635045}},"10":{"bias":0.17933772897153397,"weights":{"0":-0.032375800327967136,"1":0.19254732704644206,"2":0.05967709894383977,"3":-0.043838849067199565,"4":0.05004752637321532,"5":0.08955780331112412,"6":-0.08323476619709409,"7":-0.09847943833538762,"8":-0.18001295301223297,"9":0.032164004669209094,"10":-0.011471716966984487,"11":-0.17320566126822784,"12":0.03746439214938038,"13":0.18147625629863148,"14":0.16446706159705674,"15":-0.17235523838635738,"16":-0.15872371289367057,"17":0.12261504621799049,"18":0.17677891382217323,"19":-0.004870427649882278,"20":-0.1561235046139813,"21":-0.03275342866295188,"22":-0.07733159998494235,"23":-0.0625795141842335,"24":-0.17995646397219242,"25":-0.1381292249196301,"26":0.17652878003670372,"27":0.03623256763303378,"28":0.17159081053196368,"29":-0.028009328715579797,"30":-0.054494380142177605,"31":-0.06471728806359801,"32":-0.0754758901605424,"33":0.1883839627753362,"34":0.17000120706064498,"35":0.16004278747423523,"36":-0.04689832677891921,"37":0.005506189208314927,"38":0.06248040336293859,"39":-0.012721433200222539}},"11":{"bias":0.002133781525732685,"weights":{"0":-0.1618713296993984,"1":-0.1092741833321169,"2":0.03485545434845014,"3":-0.045813438598499484,"4":-0.0569610567479871,"5":-0.011228362239138083,"6":-0.07251817556401537,"7":-0.16917044454628208,"8":0.04827849256546902,"9":0.0006324724803847252,"10":-0.13834663132004482,"11":-0.11203244630124165,"12":0.0010849257691814345,"13":0.16237410790847517,"14":-0.16102282597880638,"15":-0.17606422477878836,"16":-0.12594932255049074,"17":0.10428086386133975,"18":0.004771518034472975,"19":0.19131889258688956,"20":0.07070019463914676,"21":0.12016372958007945,"22":-0.09442965553790145,"23":-0.1804169821213536,"24":-0.00008021579811197419,"25":0.07863220300906174,"26":-0.1823300986297192,"27":0.1807678653843714,"28":-0.18222574706081218,"29":0.06868413494498005,"30":0.1881890392598047,"31":0.12963230575795726,"32":0.09276965279130042,"33":-0.06680415832607711,"34":0.05524966168692751,"35":-0.09253409386574932,"36":0.18149353730275405,"37":-0.10452323072140447,"38":-0.15145789781538127,"39":0.19034660036294482}},"12":{"bias":0.018658794831411345,"weights":{"0":0.017579114465474485,"1":-0.14428394422595267,"2":0.019486425735020248,"3":-0.13252028257391524,"4":0.18173248374028272,"5":-0.13311054804341438,"6":0.006742616399367157,"7":-0.13651175679722843,"8":-0.053721672643641374,"9":0.1331626643568124,"10":0.02578595577049031,"11":0.17051794280176097,"12":0.02439095631683634,"13":0.12275011069288486,"14":-0.09749989642370802,"15":0.04201616569535025,"16":-0.10146892660664315,"17":0.1711887666168537,"18":0.09614371118503837,"19":0.051396364810218496,"20":-0.09333819692976425,"21":-0.08096732079446184,"22":0.15860876199924268,"23":-0.013682495584389675,"24":0.17843548181951524,"25":-0.10487372593826937,"26":-0.028286725487648434,"27":-0.09369544468348577,"28":-0.11184301726050255,"29":-0.1561708925943976,"30":0.1471530409852449,"31":-0.039244747231516525,"32":0.10627713750066309,"33":0.09445721048030238,"34":0.07235626226622925,"35":-0.1268675487338319,"36":0.06784290828727141,"37":0.0991692895337624,"38":0.13475655355229024,"39":-0.10312806724195338}},"13":{"bias":-0.1759817035033063,"weights":{"0":-0.09396958187400697,"1":-0.016883790675192353,"2":-0.03874093347904214,"3":-0.18841176175444846,"4":-0.08221977731749258,"5":-0.04328729405155122,"6":-0.07465918438785746,"7":-0.024774121784945945,"8":0.16741217098128214,"9":-0.1527064298173333,"10":0.050856802264647956,"11":0.19396535204527365,"12":-0.0813604366998288,"13":0.12461719989158021,"14":-0.09666175203979982,"15":0.1734267842263673,"16":-0.007321785809044475,"17":0.056229583060789096,"18":-0.0688154905199135,"19":-0.19402488272845342,"20":-0.0822715753377367,"21":-0.13733901925802455,"22":-0.11803656084237438,"23":0.1012624955820405,"24":0.01639476014519789,"25":-0.10962483798119103,"26":0.11940048882622296,"27":-0.05664805801301038,"28":-0.19745651112236154,"29":-0.026079639517946774,"30":0.04313475909194905,"31":-0.11018825081962147,"32":-0.023480027584901968,"33":-0.14111058191161285,"34":-0.03744568365262875,"35":0.06354162339205084,"36":-0.03588789555961375,"37":-0.14578914620309305,"38":0.1930535584086014,"39":0.010133934688433106}},"14":{"bias":-0.18404505406666719,"weights":{"0":-0.09827882474447668,"1":0.11501375354725935,"2":-0.128683709802901,"3":0.11088839261754144,"4":-0.08119342468967004,"5":0.1010505983723733,"6":0.02624870910313833,"7":0.14505682704644882,"8":-0.15040634713589576,"9":0.03178408350141406,"10":-0.07929540282769347,"11":0.010733918877086716,"12":0.00008533217702385811,"13":-0.1928125707972638,"14":0.014958134159912538,"15":0.05939675193336001,"16":0.07924327966716316,"17":0.06070106642861808,"18":-0.16635321432153857,"19":0.18157401865516426,"20":-0.09599123647830073,"21":-0.09718140808761,"22":0.12233662714878818,"23":0.19072743746634252,"24":-0.11639895485612703,"25":0.18524608234204215,"26":0.18473044467076188,"27":-0.16884059140207416,"28":0.04290102805632088,"29":-0.031539615447353515,"30":0.09015923644365732,"31":-0.07576954199756554,"32":0.10935385298431906,"33":-0.078633589405453,"34":0.06795278182824015,"35":-0.018917395220943566,"36":-0.004014498098923631,"37":0.09423095969321917,"38":-0.04035621402633687,"39":-0.02298349100958861}},"15":{"bias":0.01715835371196975,"weights":{"0":-0.013834813794285496,"1":0.006752667467296643,"2":-0.13555957395173215,"3":-0.1477442785239056,"4":-0.1676393287715914,"5":-0.1380705077162415,"6":0.15155409252985913,"7":-0.08277560675629235,"8":-0.044185540885452596,"9":0.13309034053408703,"10":-0.01038176359217552,"11":0.030537026460069252,"12":0.041394277163895314,"13":0.09170675905939907,"14":0.11155936584615046,"15":0.08692507136071463,"16":0.16108849959433988,"17":0.179480698958051,"18":0.025279356243928276,"19":0.08564784918774897,"20":-0.027229415928561696,"21":-0.1281544750609823,"22":0.05901806858085971,"23":0.1736901209215277,"24":-0.16112466713672227,"25":0.050703798244513994,"26":0.11225917234411882,"27":0.027315388750968738,"28":-0.06034423426520474,"29":-0.13364963683419928,"30":0.05495608452915209,"31":-0.09787883933883865,"32":-0.1334516502408529,"33":-0.060586552321614424,"34":-0.19152856803639276,"35":0.04694546334383688,"36":0.14368810645948907,"37":-0.061856408396237954,"38":0.08285448117232669,"39":0.08602181803971803}},"16":{"bias":0.07607995662363026,"weights":{"0":-0.06663135505811572,"1":0.1851477575097765,"2":0.17300937319733575,"3":0.1814971008515132,"4":0.06063812772696509,"5":0.11520901635293421,"6":-0.08740457101352929,"7":-0.11253456526464736,"8":-0.19457712946682706,"9":-0.01889094226029115,"10":-0.06435701872785314,"11":0.008758603767671628,"12":0.04007231316605458,"13":-0.01158752016620092,"14":0.0017490866065848181,"15":0.08146303766960386,"16":0.16221557919339266,"17":0.1029679991506329,"18":-0.07049488413886829,"19":0.003703534034832469,"20":-0.038853657722453756,"21":0.11434086694950951,"22":-0.09636280254815073,"23":0.13940374787952872,"24":0.1510221331532048,"25":0.06579528550801331,"26":-0.19993242161283434,"27":-0.0013580035562087657,"28":-0.013298461784144202,"29":0.15169132682399875,"30":-0.1459344340928064,"31":-0.17556425962474884,"32":-0.08936415897293212,"33":0.1533817453068956,"34":-0.046551523326817376,"35":0.11451403629817497,"36":-0.06599262934717219,"37":-0.12191039180381152,"38":-0.12243201369350319,"39":0.02937966269389184}},"17":{"bias":-0.17790507792394294,"weights":{"0":-0.06469771076570523,"1":0.04305040302314088,"2":0.09552462699602116,"3":-0.08870167045848612,"4":0.13956046180373333,"5":-0.05876445987556726,"6":0.12636974862654501,"7":0.16098402041177348,"8":0.14746663115733147,"9":0.12197585000940289,"10":0.09315210576806696,"11":-0.06500679763005916,"12":-0.15811542290956535,"13":-0.03339341730731499,"14":-0.0022676073727218612,"15":0.14458161690414847,"16":-0.09902891276382779,"17":0.06818722980513296,"18":0.18185910563934576,"19":0.16732248797189528,"20":-0.05844170387631574,"21":-0.03744069336021239,"22":-0.07823377412263126,"23":-0.16549661052929338,"24":0.13594856686290635,"25":-0.050868314181466395,"26":-0.13975103200468342,"27":-0.055486924349759735,"28":-0.006577746414213044,"29":-0.11974346539484146,"30":0.09890003994845564,"31":0.01797707698419251,"32":-0.1604245805632788,"33":0.17581740223108877,"34":-0.06741936171524451,"35":0.11622704364731065,"36":-0.03241601994428111,"37":-0.08203220634488287,"38":0.06354261482632759,"39":0.11459512020259853}},"18":{"bias":0.17412501870306746,"weights":{"0":0.038121784945727884,"1":0.06867189882207544,"2":0.1597570503487923,"3":0.07186995855541878,"4":-0.10712986154284164,"5":0.0018870338024399114,"6":-0.09760727158751889,"7":-0.03709887546717835,"8":-0.1935478293177799,"9":0.037703093894891467,"10":-0.008534711667571814,"11":-0.07653484957772788,"12":-0.007433694810866591,"13":-0.05347336302963795,"14":-0.16585764301501355,"15":-0.04413430630970477,"16":0.1439055334808067,"17":0.02610286266741172,"18":0.12478813627429908,"19":-0.06498265847102658,"20":-0.16601085431500665,"21":0.06630495316803664,"22":0.1803534686066787,"23":-0.15255143715410052,"24":0.0218837857173847,"25":0.17295488039033513,"26":0.08527376649170695,"27":-0.061553423239056215,"28":-0.09132526354708567,"29":-0.16386625645698308,"30":-0.18843283116516663,"31":0.04737888960978468,"32":-0.10031392065450999,"33":0.19289237394743908,"34":0.009762549274457237,"35":0.18627349152754852,"36":-0.13912685488957885,"37":-0.12795866797815203,"38":-0.07452345233477944,"39":0.11220991424652947}},"19":{"bias":-0.000027740679425040838,"weights":{"0":0.054631505598285404,"1":0.022925968037331827,"2":-0.12474930929858095,"3":-0.0734025070592684,"4":-0.08393448832873018,"5":-0.031234630722079576,"6":-0.19477102503882923,"7":-0.1324094956182,"8":0.12798603826280455,"9":-0.04279116517628648,"10":-0.09762970889012389,"11":0.11472567577832603,"12":-0.05227483189331558,"13":-0.051982878100643636,"14":0.046290939810374465,"15":0.04603239318752791,"16":0.19021867233700954,"17":-0.12251696695136668,"18":-0.015548669555628164,"19":-0.09474686583720107,"20":0.1507798751567199,"21":0.036221813285045694,"22":0.06155759113322254,"23":-0.008506419953507188,"24":0.1683869061777772,"25":0.176790849931754,"26":0.16477131413646784,"27":0.02606303994891893,"28":-0.060079121521422675,"29":0.19926906221309967,"30":-0.009618643690233035,"31":-0.007982508892679435,"32":-0.04652680076174439,"33":0.13817400933292556,"34":-0.13771617721092788,"35":-0.1396874993169792,"36":-0.09158427900738539,"37":0.14908027766427448,"38":-0.158534756771492,"39":-0.05237471825004431}},"20":{"bias":0.15870754299215528,"weights":{"0":-0.07839326975078001,"1":-0.04091713289245191,"2":0.01695756910662731,"3":-0.17947858910987155,"4":0.19803198069776431,"5":0.03212743256572862,"6":0.15656325928044895,"7":0.09664676124827232,"8":-0.17930343336192392,"9":0.02918891720384019,"10":0.04975511073462155,"11":0.17793161721917655,"12":-0.02855975180660492,"13":-0.08125808808953817,"14":0.11400027751589721,"15":0.091654778833021,"16":-0.047389707801896046,"17":0.19480026240748385,"18":-0.022974852447296305,"19":-0.020572027514216752,"20":0.14129320841241094,"21":-0.05143475184081521,"22":0.06863311299557973,"23":-0.12663317964894602,"24":0.031231363442767068,"25":0.09823775105974926,"26":0.01376753454659363,"27":-0.05785463506155417,"28":0.02482184622685589,"29":-0.01389226596316188,"30":0.028497114810026824,"31":-0.12302706192039561,"32":0.16894496884009813,"33":0.19029135043431625,"34":-0.04420473010529947,"35":0.022490039590720143,"36":0.027915779911128338,"37":-0.002519804796643797,"38":-0.09675946737826616,"39":-0.019717429404509663}},"21":{"bias":0.13386893022240995,"weights":{"0":-0.10121630431702462,"1":-0.04949908884175689,"2":0.04594057296757949,"3":0.15580936084629482,"4":0.10707781647706988,"5":-0.17030719475199027,"6":0.17856286965443763,"7":0.05972448131754113,"8":0.13474948027663866,"9":-0.1702486616050736,"10":-0.13668404038886234,"11":-0.029523710163413028,"12":-0.1538763240802686,"13":0.13442049828505806,"14":-0.19351454582168856,"15":0.15097634353153414,"16":-0.0022682219199564257,"17":-0.009162161760982316,"18":-0.050412610516408975,"19":0.13548893131622453,"20":0.19146520227710195,"21":0.18568210383466463,"22":0.19730093283547195,"23":-0.15731972314236212,"24":-0.03997209217433377,"25":0.09212815131078017,"26":0.09686376538646237,"27":0.15124217067409915,"28":-0.18599856558194322,"29":0.1045272213232019,"30":-0.07315274754159057,"31":-0.19404534810131568,"32":-0.07562022710603973,"33":0.13400091751625773,"34":-0.016166881603036865,"35":-0.1908190069951942,"36":-0.11686400654741208,"37":-0.08452243598981071,"38":0.019419280672657597,"39":0.030689551174751372}},"22":{"bias":-0.008496566112838451,"weights":{"0":-0.08895407102866361,"1":-0.011266249812669858,"2":0.0700686646664351,"3":0.08108591306072621,"4":0.17751994308588753,"5":-0.034864464717001255,"6":0.00397251438181853,"7":-0.020798968400638215,"8":0.1923102288278607,"9":0.07930329871435056,"10":-0.029170441292659385,"11":-0.07993721963835744,"12":-0.01847986731562072,"13":-0.1711332908683759,"14":-0.08025944690525323,"15":-0.14339943917479286,"16":-0.10308756964389006,"17":0.02135608877081906,"18":-0.045528208170728945,"19":-0.13186180422972837,"20":0.12402804635023046,"21":-0.15404445591575122,"22":-0.12633343872119285,"23":0.00142180963072378,"24":0.02162538113115236,"25":0.10516501293677612,"26":0.19485220517556864,"27":-0.13081693075525277,"28":0.18006015874088988,"29":-0.03114308452809326,"30":-0.0006663654652190703,"31":0.1565248029091575,"32":-0.0829070580352124,"33":-0.06518912882806713,"34":0.029532972258163512,"35":0.18120246425458586,"36":0.00614234618112019,"37":0.15274059968909295,"38":-0.12256024137898677,"39":-0.10861542822916649}},"23":{"bias":-0.0001220317928897669,"weights":{"0":-0.03584668704110017,"1":-0.11380582238187996,"2":0.017512424446203084,"3":-0.13681011638216353,"4":-0.12916741093032136,"5":0.02928480944813397,"6":0.17353871771247678,"7":0.05711315539974107,"8":-0.12243350361592849,"9":-0.15820459164114292,"10":0.018095518914736663,"11":0.08876847125496792,"12":-0.069539545068346,"13":-0.19788687243749387,"14":-0.12509078743031865,"15":0.1264109246364664,"16":-0.05870187553035455,"17":0.19731783363113603,"18":0.15918800530181323,"19":0.1327087137902382,"20":-0.132941021605582,"21":0.12034874740749384,"22":-0.1670905804616573,"23":-0.008112474787929516,"24":-0.18952609716306007,"25":0.12297342049980162,"26":-0.16476996041698594,"27":0.1361457186647946,"28":-0.022210727946339662,"29":-0.11503633861105336,"30":0.07089236415603718,"31":0.1779565723106167,"32":-0.18449472428962813,"33":-0.12280822391364385,"34":-0.08403016524840516,"35":-0.04207858202405598,"36":0.12279844821749376,"37":0.07463765775933921,"38":0.06077492889147291,"39":0.08662913903732335}},"24":{"bias":-0.03532181005919315,"weights":{"0":-0.03511189863877289,"1":0.16604172854968843,"2":-0.04549111140108304,"3":-0.014527934790966465,"4":0.11550559952901071,"5":-0.15266196547607805,"6":-0.18563335504524917,"7":-0.0672188625129374,"8":-0.13067101978606446,"9":0.048371244447750435,"10":0.06696324643305414,"11":-0.179390684423266,"12":-0.08887404785109637,"13":0.05873887801562098,"14":0.140880075533621,"15":0.11642376372280334,"16":-0.11588454750850445,"17":0.08127083176813199,"18":-0.11893018459441068,"19":0.16778482144896856,"20":0.002941596893541568,"21":-0.16107717761388937,"22":0.1893051713135602,"23":-0.011874852271485077,"24":0.028691927395344416,"25":0.020790139243648562,"26":-0.0009933459366325923,"27":0.12972932029216314,"28":0.16046527301270655,"29":0.18416808623610842,"30":-0.17295509220947283,"31":0.06626472064287332,"32":-0.09530013750397942,"33":0.06892191570844279,"34":-0.09901413148053123,"35":-0.04200597786984086,"36":0.15282255528320376,"37":0.07778737938377846,"38":0.1162005871751175,"39":-0.08553643516775405}},"25":{"bias":-0.17867134485355768,"weights":{"0":-0.19408345365105809,"1":-0.11168313339053369,"2":0.1575590181703138,"3":0.19820214428043548,"4":0.01807881996158319,"5":-0.11552317188352021,"6":-0.037155781360560615,"7":-0.1371625422087979,"8":-0.09634659616570763,"9":-0.1063354790434116,"10":0.03940846779204497,"11":-0.06381390223298684,"12":-0.018293881021103582,"13":-0.134454931582228,"14":-0.10511097757699484,"15":-0.09891167842254496,"16":0.18831310544951968,"17":0.09719450998009387,"18":-0.1733010309645357,"19":0.14994357314579285,"20":-0.03804265959664631,"21":-0.09257474850802694,"22":-0.19325784880101143,"23":0.04405112698772351,"24":-0.12674007420230612,"25":-0.19511571067387695,"26":0.0632791222637211,"27":-0.060876216616416685,"28":0.18049614411233164,"29":0.17605521820772826,"30":-0.006457847552721024,"31":0.13894003435090468,"32":0.13236403758406792,"33":0.06416340253591318,"34":0.08012794606460343,"35":-0.05967756669962546,"36":-0.16818722689030957,"37":-0.050179586443406005,"38":-0.032464789203766574,"39":-0.07202199494771189}},"26":{"bias":0.0963820018736597,"weights":{"0":-0.08628351918544296,"1":0.15059999765081022,"2":0.14783463126621046,"3":-0.15780612600212798,"4":0.025420107620524553,"5":-0.09036919512681998,"6":0.18782252643910471,"7":0.14325872647599683,"8":-0.15911173216141622,"9":-0.06497987153373871,"10":-0.14966643253101974,"11":-0.04582716819015517,"12":0.19506732669528978,"13":0.017896175674189694,"14":-0.027938123905108928,"15":-0.16886993111631896,"16":0.03412335255825859,"17":-0.10092216643056268,"18":-0.06610123680923097,"19":0.13551180538152632,"20":0.14660485462881626,"21":0.15304492449240897,"22":-0.11191545681682875,"23":0.17584823554665877,"24":0.15389600750710916,"25":0.19675875135408524,"26":-0.00007339763272086411,"27":-0.16653045947297512,"28":0.05967659977446325,"29":-0.09247282277352614,"30":-0.01875165607013366,"31":-0.04010919430893293,"32":-0.02975132765447705,"33":0.12323679556835383,"34":-0.15799838720696238,"35":0.1506582018733597,"36":0.16637746790848287,"37":-0.0014669511064769184,"38":-0.19133917581271365,"39":0.08473623425079664}},"27":{"bias":0.01809985491828301,"weights":{"0":0.06588059811357466,"1":-0.02710867877312597,"2":0.19675526030846907,"3":-0.10891146797226194,"4":-0.15961190635003975,"5":-0.05934338035062348,"6":0.08702495123508495,"7":0.20079997399313904,"8":-0.0818622645260595,"9":-0.1049658311900015,"10":-0.09618759773901803,"11":-0.07967695428356268,"12":0.14900642308979295,"13":-0.06755121347870274,"14":-0.0945219194681472,"15":-0.12075343588917704,"16":-0.16271013774113266,"17":-0.00387627297042252,"18":-0.14011708415444082,"19":-0.02671315694831992,"20":-0.12902023324867365,"21":-0.1673944453828894,"22":0.0956361139953216,"23":-0.19856331352206147,"24":-0.10810254284198952,"25":-0.02725677080588047,"26":-0.15031539558218873,"27":-0.1489181849938785,"28":-0.09701160497817767,"29":-0.18729280513546148,"30":0.059921413477322195,"31":-0.14855901591290022,"32":-0.05169011703315897,"33":0.11575805732930165,"34":0.06314370887738312,"35":-0.055323648283170206,"36":0.11378219464684372,"37":-0.05996422089520622,"38":0.10020297386525756,"39":0.019748118076470148}},"28":{"bias":-0.14980023004408813,"weights":{"0":-0.07259402501910636,"1":-0.055428276676470316,"2":-0.023337819849316772,"3":0.11639810288413713,"4":0.06432501152703587,"5":0.11099952336864956,"6":0.14659975369032188,"7":0.16338079998907323,"8":0.03245979217290469,"9":-0.09544307299446682,"10":-0.1576443390591566,"11":0.09957724048077755,"12":0.07262220814928885,"13":0.14898625726829967,"14":0.03956552151767101,"15":-0.03881994004199302,"16":0.11358224982637938,"17":-0.025209732067038054,"18":-0.009592333618335155,"19":0.04318083953225437,"20":0.08286957253593068,"21":-0.04016704559288202,"22":0.19495493272054779,"23":-0.11973200232700666,"24":0.07225941395579598,"25":-0.14712621492708608,"26":-0.0422324166398464,"27":0.08757360116791034,"28":0.046415464110342454,"29":-0.0908896460411406,"30":-0.0690407987475041,"31":-0.0873453003642923,"32":-0.1958547635101679,"33":-0.09138041427974661,"34":-0.11957053397512812,"35":0.10078158984686805,"36":0.16805832981458596,"37":0.019591658312312556,"38":0.000495658428106838,"39":-0.021637406773674248}},"29":{"bias":-0.002765388258486591,"weights":{"0":0.18745619188849993,"1":0.1267391549568692,"2":0.0672689643618664,"3":0.028434544889497766,"4":-0.09766446662333807,"5":-0.16058175322218737,"6":0.13650807661337913,"7":0.01647664593470827,"8":0.07857803150325683,"9":-0.008233340903050546,"10":-0.035067503351651055,"11":0.06640689198558639,"12":-0.16154807199624255,"13":-0.18360644458722042,"14":-0.12457659440257669,"15":0.13681491344810862,"16":-0.15573696107950402,"17":-0.10913299516120364,"18":0.1170175334997162,"19":-0.04657957019095026,"20":-0.1328501546227848,"21":0.1774039064914913,"22":-0.02221981809698682,"23":0.17155709924281562,"24":0.13164048043887094,"25":-0.03575756818266991,"26":-0.17241729426464417,"27":-0.02797368414277969,"28":-0.1031797394722215,"29":0.03926132483401404,"30":-0.07739893498456601,"31":0.10976676318337872,"32":0.11717310677646044,"33":0.04021058850961493,"34":-0.16152550682201233,"35":-0.08904420849843729,"36":-0.1301588317558627,"37":0.08473999958272738,"38":-0.10133472115067739,"39":-0.15406965521189844}},"30":{"bias":0.201255580638072,"weights":{"0":-0.16340020754200338,"1":-0.023074683969291552,"2":0.09506027117762435,"3":0.12230784115309755,"4":-0.0674219936925915,"5":-0.19507179289457627,"6":0.017669745619980443,"7":-0.09740551281301266,"8":-0.16660109340469298,"9":-0.15787247161315351,"10":-0.02250242098182374,"11":-0.036951271428053926,"12":0.19536553014090188,"13":0.12647230270801316,"14":0.18082644303065867,"15":0.16916612598811603,"16":-0.0003445176852575663,"17":0.15864439613420944,"18":0.16249153403316094,"19":0.09528518540755306,"20":0.08262515427137555,"21":0.09650212983871012,"22":-0.0870593846881948,"23":-0.10421139662657913,"24":0.039333702506016865,"25":0.11899172035238398,"26":-0.052844914087396916,"27":-0.10557907524377148,"28":0.11367496405959449,"29":-0.08915403516195497,"30":0.007766089321975488,"31":0.1971840459711611,"32":-0.09768585367477135,"33":0.11477095500100444,"34":-0.056112334827094386,"35":0.03000857150949402,"36":0.017064190523730313,"37":0.16939756782221244,"38":-0.13137708616474147,"39":-0.12519084903387262}},"31":{"bias":0.021891472810831186,"weights":{"0":-0.06040548563335143,"1":0.08621558138668038,"2":0.1447145486433765,"3":-0.16383572767724552,"4":-0.037457381672273415,"5":0.1133033362643064,"6":-0.19053132703547504,"7":-0.1302038838348659,"8":0.14242668668745231,"9":0.16125179373112944,"10":-0.14477292490921656,"11":0.1220140602757171,"12":0.06093912933081849,"13":0.09726498335800278,"14":0.13038657327549558,"15":-0.00949527055277889,"16":0.060444185459108256,"17":0.09515079067266725,"18":-0.11577350464311943,"19":-0.1387426874753922,"20":0.002961095136241876,"21":0.03967357197869181,"22":0.09099882383170367,"23":-0.11490863029494783,"24":-0.15445097381634842,"25":-0.1527380079598951,"26":0.04480178630636163,"27":0.030312750071077886,"28":-0.16566553490668112,"29":-0.0009454596183964185,"30":-0.07191453832041231,"31":0.06612709635785756,"32":-0.019957517098771634,"33":-0.0930569049723297,"34":0.018820412547262567,"35":0.15562848449499886,"36":-0.06987966286876993,"37":-0.16222786573178827,"38":-0.06448915266477413,"39":-0.15463122488769976}},"32":{"bias":0.15506798305852068,"weights":{"0":-0.1679284579072285,"1":-0.18013671858765645,"2":0.19944908030278743,"3":0.17985530979796335,"4":-0.17043721062118292,"5":-0.19587304033673839,"6":-0.022572538427905558,"7":0.03635057020977558,"8":0.17945271206569466,"9":0.08012848521107757,"10":0.1822964221875861,"11":0.14657220393904147,"12":-0.19780418864459892,"13":-0.02477114188387829,"14":-0.07838832450748778,"15":0.18294393593426864,"16":-0.07436646313028629,"17":0.07553398686399791,"18":-0.13934472165821615,"19":0.15962400897728332,"20":-0.13542826224737614,"21":0.13692341720503481,"22":0.18643714304774806,"23":0.13979069948198244,"24":0.1826523151893487,"25":0.1481534418129612,"26":-0.11365405246986814,"27":0.1547919855122032,"28":0.14643930143231024,"29":0.17952404775190114,"30":-0.10693946036771844,"31":0.15844102077061567,"32":0.05892990948491696,"33":-0.013884491958453277,"34":0.10620404744565881,"35":-0.18754148363986306,"36":-0.143044308226022,"37":-0.021859470091962215,"38":-0.1289784276126921,"39":-0.07306517502717717}},"33":{"bias":-0.0945088346859717,"weights":{"0":-0.10608311878452062,"1":0.0006941387605687146,"2":0.14394890008473057,"3":-0.11237724309585347,"4":-0.1805997445505744,"5":0.18497291955725678,"6":-0.006709735872905757,"7":0.1292389682839626,"8":-0.07382262593478557,"9":0.1080989610994256,"10":0.16527257204010218,"11":-0.10118694746024041,"12":0.026306585218748166,"13":-0.12773889013409181,"14":0.14455071573470207,"15":-0.1405490583784591,"16":-0.005524018700665333,"17":-0.06408590031400864,"18":0.06309051807716871,"19":-0.1690354553081236,"20":-0.10876209282894829,"21":-0.1596187566523122,"22":-0.037707124310007514,"23":0.08509737409810189,"24":0.1436237517208918,"25":-0.1490831904212174,"26":-0.018507676894258134,"27":0.16965086610417965,"28":0.03504212805364152,"29":-0.17245798490021583,"30":-0.12699924294851384,"31":-0.03401297530545132,"32":0.054303698098954106,"33":0.1665695722523649,"34":-0.006570776010167336,"35":-0.05491164306045642,"36":-0.17959547948348714,"37":-0.03681345822727261,"38":-0.06399015658627148,"39":0.06941402036592306}},"34":{"bias":0.059447318726043856,"weights":{"0":0.10949958333808649,"1":0.0034398088666037414,"2":-0.10116704522372817,"3":-0.14012924994064116,"4":0.1700874432624915,"5":0.07478622179088942,"6":-0.16459276329908787,"7":-0.05758859128145483,"8":-0.05173610759436118,"9":0.18517928512971107,"10":-0.047271586850579785,"11":-0.08289117589319192,"12":-0.019794266426743305,"13":-0.06347087840491826,"14":-0.019366532781315036,"15":-0.044921666466113064,"16":-0.03639055765206736,"17":-0.0050454222589064075,"18":0.033305612886487396,"19":0.02901209115319494,"20":0.1544958880504673,"21":-0.08191495612610146,"22":-0.014851392789801283,"23":-0.15315762026489738,"24":0.16139186664224106,"25":-0.028508304789824055,"26":-0.05962153863521185,"27":-0.14084420656070576,"28":0.12820995085287393,"29":0.18621125042742817,"30":-0.17379457370902898,"31":-0.1209028018565724,"32":0.18116116433224966,"33":-0.15320456408384564,"34":0.19673384485400824,"35":0.13743860364028998,"36":0.01015522374862812,"37":-0.1907568530835971,"38":0.09318041407610675,"39":-0.0871850015779404}},"35":{"bias":-0.10674301576155708,"weights":{"0":-0.08630444871073091,"1":0.03725256215168629,"2":0.05790160135456171,"3":-0.09062237208801535,"4":-0.0005922971038352022,"5":0.05899835395583409,"6":-0.1942349744245279,"7":-0.15653251606873758,"8":0.16972989965034294,"9":-0.1580595764221851,"10":-0.10349604304011027,"11":-0.07946906896954324,"12":0.08135426167029218,"13":-0.15862031618659728,"14":-0.1850753627349218,"15":0.0347976371908197,"16":0.05228225284679473,"17":0.09187636156045502,"18":-0.15914806444959428,"19":0.18984450568655192,"20":0.04627267723788606,"21":-0.1965423139261194,"22":0.19426790490667964,"23":0.19562493156275904,"24":-0.031833089264534015,"25":-0.18471662845739265,"26":-0.1411177554098414,"27":-0.12330957389763597,"28":0.17064848514726016,"29":-0.17328816100074823,"30":0.1881873557630362,"31":-0.052408307929655285,"32":-0.023048874622453676,"33":-0.1724538016523227,"34":-0.05646620619510753,"35":-0.0204540765157909,"36":0.16696601245270726,"37":-0.011433396701785385,"38":-0.047512199535434875,"39":-0.1107883957962562}},"36":{"bias":0.1345303125190634,"weights":{"0":0.1992301765500013,"1":-0.12492362051855671,"2":-0.04903453131471982,"3":0.18753070533666902,"4":-0.11047283952727659,"5":-0.10074531360145757,"6":0.11669214453380035,"7":-0.1483089317699155,"8":0.026782431669696728,"9":-0.16132818804290136,"10":-0.1303627361034336,"11":0.11610081761804954,"12":-0.17407555010289893,"13":0.01073997562289326,"14":-0.037138673483698155,"15":0.011488226363745285,"16":0.0023723143596807036,"17":-0.1082610190636488,"18":0.19141074629281904,"19":0.11645488292671455,"20":0.19781934383405222,"21":-0.10437799633249349,"22":0.1360095681434141,"23":0.12970693879672923,"24":0.18351231605540683,"25":-0.10978963317241601,"26":0.06340904322702398,"27":0.07024578190570899,"28":-0.03324757698040015,"29":0.15627144147379007,"30":0.01351699581609108,"31":0.14129463536605194,"32":0.05214552878309506,"33":0.016252020816056343,"34":-0.00701781398952552,"35":0.13455011948379464,"36":-0.02690362687746697,"37":-0.06997865613397822,"38":-0.08396703002693894,"39":-0.07423333470793254}},"37":{"bias":0.12515154678322923,"weights":{"0":0.000976898560712069,"1":0.08273080011584573,"2":0.004648906545366706,"3":-0.10617885929974094,"4":0.01639630157087511,"5":0.06558831891802396,"6":0.15509177192795143,"7":0.0322878261071218,"8":-0.003428970220564033,"9":-0.10152182381103439,"10":0.04107494254197401,"11":-0.08608737358218646,"12":0.020172396584147614,"13":0.13106003198249322,"14":-0.050198004023295835,"15":0.14390286079876524,"16":-0.19871166423521752,"17":-0.1005640759553481,"18":-0.1288764050643912,"19":0.03567614100627912,"20":0.06786911603998552,"21":-0.09087005265726841,"22":0.19056015777144467,"23":0.08261200075837061,"24":-0.1334851108449583,"25":0.19709552213792286,"26":0.013054794469524983,"27":0.009189706873237934,"28":-0.08699128913781255,"29":-0.018834206065464973,"30":-0.10519232475153475,"31":0.16785330577191135,"32":-0.027446323929642632,"33":-0.16579801902030233,"34":0.034916140645352416,"35":-0.13428006798718486,"36":-0.12714748606471388,"37":0.12847921647325583,"38":0.09898302061033512,"39":-0.10942105384804689}},"38":{"bias":0.19769047573275855,"weights":{"0":-0.08899683424293046,"1":-0.14966490703819071,"2":0.0015176986909894972,"3":0.15262622290079036,"4":0.18984273400258173,"5":0.1608819999261533,"6":-0.14555838663714607,"7":0.012322403376966617,"8":0.14093673042751795,"9":0.004184657664343222,"10":-0.15357308420436283,"11":0.10731788237640669,"12":-0.004214672569506634,"13":0.12808198998684034,"14":-0.13618910735227158,"15":0.08757503331767989,"16":0.1545743508997474,"17":0.06136900311107131,"18":0.01432830213246963,"19":0.006722705738824833,"20":0.18395270584859658,"21":-0.0178495064411435,"22":0.1360462943902143,"23":0.14692567848228968,"24":0.004608883163930021,"25":-0.1461818507413087,"26":-0.06975097062775798,"27":-0.022397394648884367,"28":0.1288252143678814,"29":0.05320611946192916,"30":-0.1886480750063644,"31":-0.1763826834237949,"32":-0.1328103822514758,"33":-0.004683572901222014,"34":-0.15695561500590172,"35":-0.1492914973817028,"36":0.14807504897802184,"37":-0.018463840859981227,"38":0.11587156902995269,"39":0.12148012397368604}},"39":{"bias":-0.15643783866767172,"weights":{"0":-0.10789467595894746,"1":0.16860664078326182,"2":-0.17690441357416475,"3":0.17079487213686873,"4":-0.10795374657246541,"5":0.01534752778993938,"6":-0.01644973042155149,"7":-0.0008995290454428466,"8":-0.13044220902484632,"9":0.12976700716406137,"10":-0.0667494493686484,"11":0.0506657420865019,"12":0.06938416085738519,"13":0.11401080995222351,"14":0.19456099681405783,"15":-0.058694108241918654,"16":0.052373444256722815,"17":0.026186950841668024,"18":0.19261629537989322,"19":0.024528866952502993,"20":-0.11623208172434758,"21":-0.07747832031822374,"22":0.10166851810396961,"23":-0.04968654231903171,"24":-0.007952180807577215,"25":0.14149628041007722,"26":0.10089010446974528,"27":-0.12382042552008321,"28":0.1619096779136248,"29":0.13440761057611345,"30":0.004039736042867049,"31":0.06665155050624268,"32":-0.012196780602423865,"33":0.018656154457807515,"34":-0.15415750048037968,"35":-0.08032345812573005,"36":0.17322248217191247,"37":-0.06540692231104613,"38":-0.16432036198295294,"39":0.17064241042861242}},"40":{"bias":-0.1078164184854737,"weights":{"0":-0.1754103512762303,"1":-0.06376909091505917,"2":0.14440877279928427,"3":-0.07135768873307358,"4":0.1571916003594439,"5":-0.17220187646772944,"6":0.01977924459971386,"7":0.046300040789552264,"8":-0.08531876564215637,"9":0.05451806321350544,"10":-0.007264301688243295,"11":0.04995457891564935,"12":0.18194687122293882,"13":-0.15529980176867175,"14":-0.09698495261057635,"15":-0.18893794446438722,"16":0.19601898409982685,"17":-0.025899028281052856,"18":0.14417041413457168,"19":0.036945600680724965,"20":-0.07696282265865761,"21":-0.010703241119361577,"22":-0.06436757745579788,"23":-0.13140328263101106,"24":0.09812599659328144,"25":0.10684254391654797,"26":0.11992264662919201,"27":0.03164557331655799,"28":-0.010262681907775219,"29":0.07950828177252157,"30":0.05044816521389648,"31":0.08818759899953518,"32":-0.06153739463886419,"33":0.08888838980769839,"34":-0.020880506473730878,"35":0.10135963131741318,"36":0.1786353092660113,"37":0.17796636478654906,"38":-0.13103145302588456,"39":0.1152274081995751}},"41":{"bias":0.14465475086720211,"weights":{"0":-0.021934560122541177,"1":-0.11228712860768923,"2":0.10431931166190793,"3":-0.16296012566701235,"4":0.11454309287408942,"5":-0.03247244567363352,"6":-0.17440478623632671,"7":-0.03955409660293983,"8":-0.10187755925038881,"9":-0.022755713737248114,"10":0.17150547024961246,"11":0.14414709992092992,"12":0.14669363132516638,"13":-0.06598945137282564,"14":-0.10888454873024729,"15":-0.16771512497132127,"16":0.011560717615955457,"17":0.04846384202464834,"18":-0.07459881816359754,"19":-0.08684152339296375,"20":-0.1862867336310761,"21":0.11449982769668604,"22":0.044368656088935005,"23":-0.019940444204326658,"24":-0.07638127912267796,"25":0.16261223801331673,"26":-0.040332015761547484,"27":-0.12929710330400077,"28":-0.179137779677372,"29":-0.15359196619320303,"30":0.029250075034486983,"31":0.17293813338000197,"32":0.048433134236541844,"33":0.14939988209299612,"34":0.15480489099629666,"35":-0.0956579653721853,"36":0.07861441961432938,"37":-0.12039371456004844,"38":0.19665537837583555,"39":0.007150659827303828}},"42":{"bias":-0.10843200721784593,"weights":{"0":0.0011007712590181606,"1":-0.10389060767329941,"2":-0.1583323504500387,"3":0.12065933440571695,"4":-0.17901021887391688,"5":0.11002205114627019,"6":-0.10481084177311445,"7":0.06278251111116921,"8":0.15299899408444262,"9":-0.19379718716860705,"10":-0.19425067038475258,"11":-0.15273120558510614,"12":-0.15187648042486573,"13":0.15471529282756016,"14":0.010584227237295718,"15":0.13736131782240535,"16":0.026134663350292582,"17":-0.1663168518467024,"18":-0.12471825189470287,"19":0.05527801220245663,"20":-0.019144249962892126,"21":-0.11028116027577997,"22":-0.05364657346084791,"23":0.11245975497541023,"24":0.0851197893043589,"25":-0.01586950333242255,"26":0.18102193975772862,"27":-0.179434215962538,"28":0.14910480088484152,"29":-0.08624770750016827,"30":0.1495913288257184,"31":-0.00010270183346465521,"32":-0.14919165541472268,"33":-0.004786080720323339,"34":-0.06422631151937984,"35":0.19731558988757858,"36":0.05330557742828468,"37":0.11093425453356255,"38":0.13185220980649856,"39":-0.1617220590297539}},"43":{"bias":-0.012428052836369973,"weights":{"0":0.08993529733447722,"1":-0.14706673778916265,"2":-0.14913603326106548,"3":0.06308615414342408,"4":0.032773172016141335,"5":-0.121798696667167,"6":-0.09826760943795312,"7":0.04166650710596194,"8":-0.05606071202591064,"9":-0.1883382157920024,"10":-0.11692955091696777,"11":-0.13425164179792415,"12":0.16462907891767406,"13":0.16507027040076983,"14":0.15951210761177156,"15":0.17468246942741505,"16":-0.07659008176649519,"17":-0.16764401367706647,"18":0.14057479736454498,"19":-0.038520852984498,"20":-0.0025939402660541677,"21":-0.028924436707389898,"22":0.11291655707665806,"23":0.06803711729389007,"24":0.1555465541678298,"25":0.19450958019885473,"26":-0.013364817086570117,"27":0.1816443470685347,"28":0.10746123462568623,"29":0.1017106976200975,"30":-0.19266707315709208,"31":0.07723944595247939,"32":0.18812364513892055,"33":0.0052518815980061384,"34":0.19012786099755627,"35":-0.1278378842825183,"36":-0.05586296650099525,"37":0.04516611389085758,"38":0.14813967960519986,"39":-0.14974566897246602}},"44":{"bias":-0.1781945526328485,"weights":{"0":0.14725427370092953,"1":-0.021228793156464407,"2":0.06584329443646203,"3":-0.17819539165754994,"4":-0.10434233982583867,"5":0.0826533399782617,"6":0.007224785467391923,"7":0.07744038916270765,"8":-0.024812646620975584,"9":0.046513330308582033,"10":0.011283340315725284,"11":0.14123257558161478,"12":-0.11833846950998742,"13":0.09887737644812145,"14":-0.1185959531833935,"15":0.056229459831454706,"16":-0.09607839412032176,"17":-0.11705316793627409,"18":-0.16530615873008017,"19":-0.1500827800796299,"20":0.1754602568922793,"21":-0.18823688688781037,"22":0.061116969883639245,"23":0.1783512999671765,"24":0.02340135896146161,"25":0.10323342837397682,"26":-0.019490251480368277,"27":0.10768651908377179,"28":0.07185495028934526,"29":0.10653080769703188,"30":0.1867519241885122,"31":-0.045895532021745955,"32":-0.14989887764282456,"33":0.16712964821273643,"34":0.11430484263961806,"35":-0.14278517869338442,"36":0.19419157297581718,"37":-0.07516444418195552,"38":0.16610335124080366,"39":-0.15447072266100678}},"45":{"bias":0.10313394332984326,"weights":{"0":-0.11391713089403646,"1":0.027978249844842203,"2":-0.16763026049462632,"3":-0.091705985205185,"4":-0.05578442239619799,"5":-0.18387014330116455,"6":-0.10061385429335812,"7":-0.06840293454532138,"8":0.07730617327104783,"9":-0.09451479220713548,"10":-0.044752580552229096,"11":-0.12511422405039957,"12":-0.12000111851873571,"13":0.19680654821618307,"14":0.11633351077712441,"15":-0.20048008929019256,"16":0.19347062654744868,"17":-0.09853317443211501,"18":0.11125980515365153,"19":0.15634345233751154,"20":-0.16965689903881986,"21":0.026326378037138234,"22":0.06349111934671177,"23":0.09390507361240424,"24":-0.07965908741370588,"25":-0.07769080939955,"26":0.08788922396974344,"27":-0.055804384112811904,"28":-0.19014406938325193,"29":-0.0015392609370123373,"30":0.1088179726068786,"31":0.1077173686747704,"32":-0.18979253333531676,"33":-0.16382486475688646,"34":-0.024012531574955087,"35":-0.059097694953789096,"36":-0.12266475441100462,"37":0.0879114948496519,"38":0.17460050944811248,"39":-0.19284376830835046}},"46":{"bias":-0.04450910230626626,"weights":{"0":0.013677476799863456,"1":-0.03713116359827375,"2":-0.02845093990232952,"3":-0.04170218937948784,"4":-0.18828835731196883,"5":-0.15001556898428972,"6":0.10424920396951534,"7":0.1087308834274051,"8":-0.08840275590429728,"9":-0.03831324315850237,"10":-0.1945520409253017,"11":0.12946170697837975,"12":0.09021038234152969,"13":-0.0929468506109939,"14":-0.1024767222837318,"15":-0.04919346942873197,"16":0.14442102090902356,"17":0.16862395896692656,"18":-0.11940971404112491,"19":0.19567349048358157,"20":0.01151967451058987,"21":-0.15450752864341427,"22":0.1974047872620561,"23":0.1115718138355768,"24":-0.1261917178670879,"25":-0.11137735466983201,"26":-0.07348738654538292,"27":0.029229817220818532,"28":-0.048602707119133365,"29":-0.051469864961656994,"30":-0.12099275509601956,"31":-0.13845267472964426,"32":0.14167881767299817,"33":0.1966301530466561,"34":-0.024787525657211595,"35":-0.12906607251449825,"36":-0.04700406292392445,"37":-0.056651232873788405,"38":0.06485061388774864,"39":0.09717819654498196}},"47":{"bias":0.09652255984024866,"weights":{"0":-0.12006423440854466,"1":0.03752700450708321,"2":-0.0738237409585653,"3":-0.03573477356730978,"4":-0.04808205561654996,"5":0.16158166016440542,"6":-0.004454171998277409,"7":-0.18293908454888802,"8":0.1695403382372196,"9":-0.07460893248768634,"10":0.04119151618846298,"11":0.08740538030022328,"12":0.06435575413693201,"13":-0.19149474667043748,"14":0.10146119294595668,"15":0.05038289900414996,"16":0.14191733147366106,"17":0.15059964463136175,"18":-0.12678643074193494,"19":0.12943516654433052,"20":0.1877884103986851,"21":0.1242175687030756,"22":0.19792445819621035,"23":0.04754127237617971,"24":-0.05809551811211447,"25":-0.1319397636184384,"26":-0.17132568031974296,"27":-0.0018022889137335807,"28":0.0019453699128184083,"29":-0.09128713635334056,"30":-0.10370245127032572,"31":0.067176784057166,"32":-0.02748777883590195,"33":0.0009764750129972142,"34":-0.026467582954332096,"35":-0.12306665428722394,"36":-0.05296147736800355,"37":-0.09346240137835332,"38":0.19261289888810149,"39":0.10709724435505603}},"48":{"bias":0.08353177476333667,"weights":{"0":-0.10262162150676421,"1":0.127979502897543,"2":0.14745326318219884,"3":0.06062518272772302,"4":0.09537109258138235,"5":0.16504737902880112,"6":0.07906469707146874,"7":-0.16219930012250472,"8":0.181207861919352,"9":0.18356239291063026,"10":-0.1439691895341326,"11":0.13044034434923327,"12":-0.0785408361059923,"13":-0.039245259844386426,"14":0.02516735397167436,"15":-0.1529094989570633,"16":0.03827050478034618,"17":-0.0004431169749510942,"18":0.0094889137315452,"19":-0.18361955592005974,"20":0.13373655607935345,"21":-0.08181867581418979,"22":-0.07051013641981112,"23":-0.13715534501413532,"24":0.03447988222949401,"25":0.14619230995287408,"26":-0.17736647610472706,"27":-0.1552935883069307,"28":0.09507755411003897,"29":-0.11511316700739854,"30":0.12290848053552314,"31":-0.08171406039166161,"32":-0.08173054080422608,"33":-0.19351114179896978,"34":0.16332134266332668,"35":-0.0071370170419022974,"36":-0.17780262679275904,"37":-0.1119082018874626,"38":-0.1089507979826844,"39":0.19794530049017212}},"49":{"bias":0.11475337498398132,"weights":{"0":0.1790817277348403,"1":0.1441147199838829,"2":-0.04233186810805598,"3":0.17298543480047335,"4":0.12484778472185708,"5":-0.08572169944530017,"6":-0.06956242312506306,"7":0.09320464854201582,"8":-0.02016165400289238,"9":-0.15456612559379893,"10":-0.010499296128227078,"11":-0.04983296917393826,"12":-0.03663122354926257,"13":-0.04260822256026426,"14":0.12055873916539542,"15":0.1081468251796141,"16":-0.03138902366132271,"17":0.14504531694655862,"18":-0.037385119457467975,"19":0.01050502736394724,"20":0.11193527480029991,"21":-0.13749030603766252,"22":-0.11971679981915365,"23":-0.09653614503988038,"24":-0.0029332328603969876,"25":0.04014081554276982,"26":0.0006405013437731127,"27":-0.13286822145509783,"28":-0.06653124920159824,"29":0.09369299976717455,"30":0.09375214691261514,"31":0.10092191919927321,"32":-0.057575674398550734,"33":-0.08361868160103579,"34":0.0784524609943021,"35":0.11960683344240457,"36":0.05176998346575674,"37":-0.1469812495746485,"38":-0.18391310801469984,"39":0.1970464530864798}}},{"0":{"bias":-0.06867452317317274,"weights":{"0":-0.15629691850671634,"1":0.13487719688517963,"2":0.1476362174331733,"3":-0.12392372189637162,"4":0.13359220698479446,"5":0.061268299359519454,"6":0.099905786655478,"7":-0.06318164741112592,"8":0.0044737589447620485,"9":-0.13792624661077538,"10":-0.029473153759817877,"11":-0.1908769359300105,"12":0.05190656372076478,"13":-0.1854791536186218,"14":-0.1096970333026897,"15":-0.06852254100663274,"16":-0.011571647439928173,"17":-0.1641431983223146,"18":0.03711145613248525,"19":0.15152470544204244,"20":0.0792630263139426,"21":0.049600809872108687,"22":0.029009175325327836,"23":-0.03982175167097195,"24":-0.15064019915021293,"25":0.18642911353244915,"26":-0.15178228893680673,"27":-0.14000891509575752,"28":0.09687096661846714,"29":-0.04167361101642448,"30":0.038473326170233975,"31":-0.1574412304514901,"32":0.024876448553021322,"33":0.16746193475669155,"34":-0.16748811621903617,"35":-0.12846685352956277,"36":-0.08369010578122493,"37":-0.07583688026940505,"38":0.07878904111721807,"39":-0.0363823931395074,"40":-0.11252202697506818,"41":0.05699435349557541,"42":-0.08828780454020686,"43":-0.15162961947600992,"44":-0.031739927222725554,"45":-0.17823172572844995,"46":-0.08869515614569314,"47":-0.13591592376164607,"48":0.04664445276830749,"49":0.1905914997852569}},"1":{"bias":0.010848213435130897,"weights":{"0":-0.12199005245951573,"1":-0.0470232056482514,"2":0.11075635368043514,"3":-0.04602213590555024,"4":-0.011011158950775958,"5":-0.10304269254312945,"6":0.10455232580006146,"7":0.1552855341322051,"8":0.06724335133823729,"9":-0.0831249661760471,"10":0.07309670667924859,"11":-0.11493434990749418,"12":-0.017948587177771813,"13":0.18963302106124488,"14":-0.01660773578058683,"15":0.07645197373249625,"16":-0.0327444543939383,"17":0.01164794503530528,"18":0.05289288446251033,"19":-0.03706498083182654,"20":0.08789192145720898,"21":-0.11413951856146513,"22":-0.07417143678814068,"23":0.10603036238704966,"24":0.1651612797599769,"25":0.09502618564414661,"26":0.11363085378302985,"27":0.16470184487228595,"28":-0.15900798062423874,"29":-0.015780483744445344,"30":-0.16243067960309776,"31":-0.03586418337200538,"32":0.03628611476947867,"33":-0.0802420322943762,"34":-0.17697585732756144,"35":0.10303788246846544,"36":-0.055183619005949223,"37":0.05582720563038628,"38":0.11054026201949971,"39":-0.1253497046335556,"40":0.06317976406766525,"41":-0.08673862259573661,"42":0.19320549300967796,"43":0.1287002252033439,"44":0.06601294438580285,"45":-0.11746317328191293,"46":0.12917804495907675,"47":-0.1041931317034306,"48":-0.03691224105275803,"49":0.13355158216532423}},"2":{"bias":0.1532680627835425,"weights":{"0":-0.033585198869691905,"1":-0.09739651142040255,"2":0.1729519775467417,"3":-0.009762806180822108,"4":0.09940605136018975,"5":-0.07412766766738482,"6":0.0016614377206117003,"7":0.18714603232671,"8":0.17369855383512167,"9":-0.16891281314656634,"10":-0.1277706403538987,"11":0.18176641237950503,"12":-0.07162437888333675,"13":0.1655573640327536,"14":-0.1659650882877896,"15":0.1119585838073521,"16":0.1889996882603839,"17":0.20005517737923526,"18":0.03846083219078327,"19":0.019239692220800162,"20":0.14888863844640807,"21":-0.066409774909306,"22":0.09969497670085402,"23":-0.17816190214697594,"24":0.0178786278660805,"25":-0.05585964371002408,"26":0.05212757167012431,"27":0.038371108256256704,"28":0.03700334155559973,"29":-0.0564758951368306,"30":0.20114044585402524,"31":0.20132328699985777,"32":-0.14660875121679848,"33":-0.04576691185520581,"34":-0.10524920298045792,"35":0.08347352402697307,"36":0.09996221490237543,"37":-0.056766568993762354,"38":0.15466874006128992,"39":0.11976361622711025,"40":-0.05450560534258689,"41":-0.060793742158658445,"42":0.07823915327181667,"43":-0.0714051149800072,"44":0.12359516812922944,"45":-0.026983693137801953,"46":-0.1374029081357455,"47":-0.1708049722607386,"48":-0.15882285847625488,"49":-0.14002738814572924}},"3":{"bias":-0.063900391259194,"weights":{"0":-0.020611502832415918,"1":0.19227264320131798,"2":-0.05756785112292748,"3":0.15721086260432904,"4":0.03469048432883679,"5":-0.17954339890975832,"6":-0.0366588553718762,"7":-0.011992331894299726,"8":0.19712794618231516,"9":0.1110954630287167,"10":-0.03121847119782456,"11":-0.12485087346280864,"12":0.1288753987027813,"13":0.1827227165407526,"14":-0.18734879819261724,"15":0.16468762212043614,"16":0.06153168667346195,"17":-0.13176912253540146,"18":-0.10235644877512697,"19":0.08326567134005472,"20":0.03604463527903219,"21":0.09174499811600381,"22":0.14466776240391016,"23":0.19989456117042512,"24":-0.07171901152406357,"25":0.10492586602742832,"26":0.008398330764117886,"27":-0.027090900836213645,"28":-0.09229401617933793,"29":-0.15782528924323028,"30":0.1785783641610309,"31":0.027430889936121194,"32":0.14568322626169303,"33":0.0993650860272388,"34":-0.14149732183381294,"35":-0.17998618695631485,"36":0.061183209509632346,"37":0.021855998308317855,"38":0.19624793646398353,"39":-0.02104114585979846,"40":-0.1533276435840009,"41":0.009110107001671692,"42":-0.003204065908204051,"43":-0.024273621288991545,"44":0.13238577782505367,"45":-0.13690295520290532,"46":0.0664110561339941,"47":-0.0675473763943077,"48":-0.053298930865125105,"49":-0.06358278902652068}},"4":{"bias":-0.03837506177935884,"weights":{"0":-0.1796824076147653,"1":-0.14930728239488106,"2":0.05637724249554469,"3":0.09507982376837028,"4":0.11509501087129714,"5":0.12151879861545185,"6":0.16198460033835224,"7":-0.011567219830066405,"8":-0.07467645659501472,"9":0.1875804838015118,"10":0.060682326149101774,"11":-0.09520727484923275,"12":0.06566186594302881,"13":-0.09573537774579391,"14":-0.12936659891659652,"15":-0.04652649452013807,"16":-0.05653563396016685,"17":-0.1225576477319565,"18":-0.039525574230950766,"19":-0.047886216468131924,"20":0.07209371383110649,"21":0.11086716542140138,"22":-0.14203047905133576,"23":-0.02494528481172407,"24":-0.07143188501791099,"25":-0.055604818311297925,"26":-0.01368881491071323,"27":-0.09297720517846556,"28":0.1741801251114804,"29":-0.018051213336611277,"30":-0.16923126348446477,"31":0.08930037688773261,"32":0.13578726272153538,"33":0.1246497206417057,"34":0.15539060049130896,"35":-0.00889022266675557,"36":-0.16490106926055048,"37":0.1698362659502013,"38":0.13040905763870134,"39":0.02795641564980275,"40":-0.18843415929163862,"41":-0.19401894401700012,"42":-0.19433135888370626,"43":0.1277260720087736,"44":0.029780706606523762,"45":-0.03326768842161866,"46":-0.0885320746417725,"47":0.1536674060401827,"48":-0.14166155170073813,"49":0.093099196266298}},"5":{"bias":0.1444135873228567,"weights":{"0":0.04523784865130389,"1":0.027298031987700245,"2":0.1338092210810129,"3":-0.1470364965114023,"4":0.044248786861351586,"5":-0.1691457433740646,"6":0.003963926793593371,"7":0.06596705543564263,"8":0.01563412127271003,"9":-0.188241343808273,"10":-0.1585273129228764,"11":0.002881317254007304,"12":0.17269325066897082,"13":-0.053677034281770356,"14":-0.07071728970441267,"15":0.14003877051657293,"16":-0.13871947076417435,"17":-0.01799032300838054,"18":-0.08943100359532258,"19":-0.13454395578197587,"20":0.06181681079423811,"21":-0.16251442684520298,"22":0.19216221529959188,"23":0.04894956810886137,"24":0.19642940828982708,"25":-0.051888608779533066,"26":0.002149507213586954,"27":0.16050691356303073,"28":0.1812508394048868,"29":0.18193346422120207,"30":-0.025459302746693648,"31":0.013987563848151282,"32":-0.05587394456150625,"33":-0.00929458216448894,"34":-0.029990066179298124,"35":0.13436414887340997,"36":0.1817674632661802,"37":-0.08627060793804077,"38":0.06536263106728835,"39":0.048489738484719554,"40":-0.003140694949351465,"41":0.05744241522701651,"42":0.07268337835207105,"43":-0.011493826657313305,"44":-0.17728118035605187,"45":-0.13996490138271042,"46":-0.1620242429859214,"47":-0.1462576498956579,"48":-0.09328746250780158,"49":0.19419788799941753}},"6":{"bias":-0.10507911800185704,"weights":{"0":-0.17123485018065016,"1":0.20305856341817746,"2":-0.1290004282806804,"3":0.15413810236308825,"4":0.1076181229256191,"5":0.034641186902283315,"6":0.15434888569379968,"7":0.17168111360117053,"8":-0.12206014195746438,"9":-0.1884079829837701,"10":-0.09592760138330571,"11":-0.07823928554155994,"12":-0.13479107524426368,"13":0.12578644284174073,"14":0.010682086692238222,"15":-0.1289632313829729,"16":0.07887951900985986,"17":0.09453949533258856,"18":0.0633185889983036,"19":0.19755299185728603,"20":-0.11748047303833492,"21":-0.05108622667172387,"22":0.10416009501930219,"23":-0.17239529313347532,"24":-0.06543635204863558,"25":0.03428136592151023,"26":0.016364499594363063,"27":0.13289007115492366,"28":-0.14688160133342343,"29":-0.17519696344523636,"30":0.12978571187012208,"31":-0.14816870165909574,"32":-0.002688980125395632,"33":0.19256995048553577,"34":-0.06814480096804197,"35":-0.1461084665731027,"36":-0.10187611623370126,"37":-0.0017377703931061366,"38":0.1386762631265196,"39":-0.012102366362531956,"40":-0.07107998556969801,"41":-0.11306021863820906,"42":0.041242907098739574,"43":-0.04014972421776278,"44":-0.13444809145914136,"45":0.09888922762714471,"46":-0.035997286211609865,"47":-0.11209891169433425,"48":-0.015892149256367515,"49":0.16445610901387622}},"7":{"bias":0.09325292129884036,"weights":{"0":0.02755857387665071,"1":-0.013327565039516343,"2":-0.031701981623008954,"3":0.0900704574224287,"4":0.10685362739758848,"5":-0.021908660296309255,"6":0.18886790778455984,"7":-0.07593270292458673,"8":-0.1190640253735623,"9":0.18890445240559106,"10":0.13717461001849052,"11":-0.0841647750758094,"12":0.07168538945773224,"13":-0.08043375390431595,"14":0.05201291785490588,"15":0.08247197779144286,"16":0.18993131384585024,"17":-0.010755229737304445,"18":0.12129862290880734,"19":0.049481922172394145,"20":-0.012543227437411639,"21":0.05821172334969443,"22":-0.08804137954568489,"23":0.07482375544829695,"24":-0.11672144528935063,"25":0.08298171182156786,"26":0.01100588230954322,"27":0.20203446680009401,"28":-0.004639379093394427,"29":0.19097312599870073,"30":0.18139475149265602,"31":-0.058431900729436305,"32":-0.18763277910021903,"33":-0.14965046521165404,"34":-0.15582966209707896,"35":0.12237219325172267,"36":-0.174252697593714,"37":0.1134459243184827,"38":-0.050548018807390155,"39":-0.18846638532562363,"40":0.13143189082326354,"41":0.022034523059858046,"42":-0.035437303070744594,"43":0.07569362005684256,"44":0.08826136497195905,"45":-0.11169589696718976,"46":0.1486392159236803,"47":-0.074370330402383,"48":-0.16684630270785364,"49":-0.011211103043865526}},"8":{"bias":-0.08621009333759176,"weights":{"0":0.09701183612929752,"1":-0.1908541562454588,"2":0.011046836288219251,"3":-0.005057667207716519,"4":-0.11920842243498175,"5":0.06749612172459708,"6":0.06892785556310303,"7":0.040123491463637216,"8":0.023155689004880922,"9":0.06154471300558835,"10":0.08561167825723158,"11":0.06442357604677312,"12":0.17542676893377987,"13":-0.09096386089114629,"14":0.005404916475440923,"15":-0.12077273815200035,"16":0.01752209524363005,"17":0.09642084869881763,"18":0.09203318536355412,"19":0.10392147348297028,"20":0.012592809078677592,"21":-0.151626646279318,"22":0.09611467758608264,"23":-0.08085959301872571,"24":0.03206013024777206,"25":0.16587382783022228,"26":0.10922075295365456,"27":0.10283530998533827,"28":-0.0049748511486572096,"29":-0.015610619103323746,"30":-0.10486156806182166,"31":0.15981901014369287,"32":0.07759461784989805,"33":-0.19253739495376052,"34":-0.09807979396041439,"35":0.05658961710984515,"36":0.19553774198542073,"37":0.20276551431436463,"38":-0.12654803320287072,"39":0.11745944787025915,"40":0.19838654956365262,"41":-0.006122295240768609,"42":0.10838225145323112,"43":-0.10852210477885989,"44":0.1640029057199002,"45":-0.10792374300673109,"46":-0.05966291884987484,"47":-0.007931469085293677,"48":-0.16133785488041782,"49":-0.14175680698169763}},"9":{"bias":0.00327441120826185,"weights":{"0":0.04412034169963789,"1":-0.12393689488182301,"2":-0.1550041207245798,"3":-0.050142083370791166,"4":-0.09007124547437262,"5":0.10450373155733028,"6":0.04132962537566131,"7":-0.10303401212766061,"8":0.19843281309029293,"9":0.09308176326181723,"10":0.19443828902785687,"11":-0.15146443813360372,"12":0.155114947757722,"13":0.14795499299903594,"14":-0.048071466883976115,"15":0.14608237571444532,"16":-0.07150550469694437,"17":0.02834547736002645,"18":0.08917182116207406,"19":-0.1697876248627354,"20":0.09200498268248215,"21":0.005589826437101927,"22":-0.060979093510896934,"23":0.18104578836969748,"24":0.19887399160687094,"25":0.11077018990457074,"26":-0.031181731944840276,"27":-0.1537384381070915,"28":-0.08599679588579752,"29":-0.04045637003614196,"30":0.09679785557634106,"31":-0.03797125749313117,"32":0.006793645854400406,"33":-0.16964350339891543,"34":0.18227345242624918,"35":-0.033257273361210614,"36":0.0877158498840601,"37":0.01869966626942567,"38":0.09443109237510748,"39":0.03553159351824024,"40":-0.021113200211654016,"41":0.01589404726203108,"42":-0.008593864233477192,"43":-0.09904315243483752,"44":-0.18272560470884958,"45":-0.17124966018569165,"46":-0.12175624242747532,"47":0.19345700812208652,"48":0.1978530794324008,"49":-0.040872896984317834}},"10":{"bias":-0.1023258200491542,"weights":{"0":0.12720108080039838,"1":0.09958822602335739,"2":0.13371419160603754,"3":0.07524136785975628,"4":0.18218628282355107,"5":-0.11520907543586632,"6":0.009949670847962364,"7":-0.1515618888575583,"8":0.11647855111556203,"9":-0.14860698887871532,"10":-0.10360572720407739,"11":0.10723665313516413,"12":-0.14406691633647895,"13":0.08179557789579314,"14":-0.057005959077815006,"15":0.18389698965215345,"16":-0.11739900335238258,"17":0.06788937547299247,"18":-0.18873452525176945,"19":0.1733969813177143,"20":0.18853836727140352,"21":-0.09309870784363836,"22":0.07191716673240013,"23":-0.1737902434207393,"24":0.17429714015715383,"25":0.17976257629746883,"26":-0.14014639029423867,"27":0.11515093124912874,"28":0.19334435111003034,"29":-0.06474266555769644,"30":0.10280601058004281,"31":-0.14783876795481748,"32":0.1868579850257436,"33":0.034976011632304904,"34":0.03875389122896877,"35":0.025415089344466374,"36":-0.06343391051330889,"37":-0.17922806077476247,"38":0.05757058846282811,"39":0.11499003760805726,"40":0.12730709165445592,"41":-0.06553414240061545,"42":0.16642742721504117,"43":-0.11878437923797786,"44":-0.09412561839599799,"45":0.06513910633234107,"46":0.05237016298236982,"47":-0.10436671606194016,"48":-0.07962198024086672,"49":-0.06618266283507712}},"11":{"bias":-0.11196195581046746,"weights":{"0":0.061527646748154315,"1":-0.12057093559913042,"2":-0.04039233202423738,"3":0.08849499916625815,"4":-0.029828156343685353,"5":-0.09359929684937447,"6":-0.1332575514608977,"7":0.015349286544772288,"8":0.13215593714204174,"9":-0.14668188011695915,"10":-0.040492743744557504,"11":-0.038846246265157404,"12":0.07180232307587023,"13":-0.1540612301724199,"14":-0.09029163228380296,"15":-0.0830818709381355,"16":0.18905540715971583,"17":0.08271182182511264,"18":0.08746953015984055,"19":0.11184728965598419,"20":0.05422002315264324,"21":0.0017395662620147741,"22":-0.07174913323377981,"23":-0.07448075103688713,"24":-0.07037158861520894,"25":-0.05311920699334038,"26":0.08449086333297569,"27":0.04456581587420505,"28":0.15076427349310143,"29":-0.0684993998836383,"30":0.018351762545167825,"31":-0.06189317225512759,"32":0.19054483131968947,"33":0.11368043594508606,"34":-0.19377903736358898,"35":-0.050802300362290075,"36":0.1806360568014187,"37":-0.10226256525825218,"38":0.15237485389650038,"39":-0.037818347914359195,"40":-0.166225872687429,"41":-0.17132599230056278,"42":0.07278649839051567,"43":0.08053665039186676,"44":0.008870025293742149,"45":-0.01245580144396067,"46":0.13766227305998577,"47":0.09722204995987793,"48":-0.057732336687116415,"49":0.15203330893185732}},"12":{"bias":-0.11184787743569116,"weights":{"0":-0.08493908586300872,"1":-0.04224362734642257,"2":-0.12366641535108096,"3":0.16591912511255427,"4":-0.03290389549571101,"5":0.08449332170498128,"6":0.11042181544622781,"7":-0.07437049500679392,"8":-0.11837627993164544,"9":-0.048768572310996836,"10":-0.11954331808986911,"11":-0.023630262557857044,"12":0.1175237426908855,"13":-0.015971623661812134,"14":0.18102795672944338,"15":0.031697478661254545,"16":0.03680861585089053,"17":0.006010010700327911,"18":-0.11876846086834103,"19":0.07208656790649723,"20":0.15643269923993802,"21":0.136441621090011,"22":0.12966084880347115,"23":0.07542023061032833,"24":-0.06741238472098195,"25":-0.1478827003397509,"26":0.03961005030255697,"27":0.17845926160645822,"28":0.08949271410604939,"29":0.117937824171846,"30":-0.09160909955010131,"31":-0.07949238403298245,"32":-0.06421476551838261,"33":0.1601737838194339,"34":0.14099583270693797,"35":-0.036591233962613975,"36":0.193664054448686,"37":0.0833014298581452,"38":-0.1901695321455571,"39":-0.08344544734130215,"40":-0.18709277371119193,"41":-0.07890223777266503,"42":-0.17656651729807354,"43":0.004110588930131812,"44":-0.19800246787211448,"45":0.19403836624671353,"46":0.12442321797757928,"47":-0.05669921841812417,"48":-0.12005397285344559,"49":0.06725307498527912}},"13":{"bias":0.059222649698167644,"weights":{"0":-0.13959443095629323,"1":-0.06484329165157535,"2":-0.006025263642968634,"3":-0.07530372871318324,"4":0.0070639961843495915,"5":0.0561960595541593,"6":-0.04432194135694458,"7":-0.027070825346808523,"8":-0.07797672395213799,"9":0.03722816267551643,"10":-0.18067518684271816,"11":-0.004618300289002812,"12":-0.1071914120618494,"13":0.19940577396232995,"14":-0.0022425460214169205,"15":0.04112219596267747,"16":-0.17659974779011,"17":0.1429702455745536,"18":-0.03740212906222099,"19":0.02775665754147037,"20":-0.0663986798256715,"21":0.07972147064356712,"22":-0.157848339343598,"23":-0.10157580721408632,"24":0.11784596958239783,"25":-0.0715622938784084,"26":0.04973359089826427,"27":-0.044136990908869016,"28":-0.19194586351853185,"29":-0.11175081629080101,"30":0.19255703272538247,"31":-0.193484285509353,"32":-0.1236881240886515,"33":0.13233603513729472,"34":0.061809369123189614,"35":-0.08605045858285666,"36":-0.12120881125432469,"37":-0.08402158646082054,"38":0.035644691044340565,"39":-0.09431478331906508,"40":-0.020353406823618764,"41":-0.15935642963294877,"42":0.10073435083662431,"43":0.05659557259311797,"44":0.03181915144522405,"45":-0.03162098265731138,"46":0.1308662707773161,"47":0.011298807357022928,"48":-0.10511168541545522,"49":0.20684158231560687}},"14":{"bias":-0.06454916890395376,"weights":{"0":-0.10414991701702363,"1":0.16395342910272379,"2":0.0905035117643307,"3":0.00008937967617329548,"4":-0.15042711560693747,"5":0.030658472995332732,"6":0.06315666660324586,"7":0.02706439504099345,"8":-0.04672153988867845,"9":-0.1391222806636634,"10":-0.1460896044051707,"11":-0.1413576371000805,"12":0.12280328819356316,"13":0.03403945687801219,"14":0.10627460355354713,"15":0.02174065317121789,"16":-0.09401269166033617,"17":0.035310398742208274,"18":0.11572456285257395,"19":0.046558394099781866,"20":-0.1392563228201064,"21":0.1469356372637765,"22":-0.1215731611752049,"23":0.03515144518498723,"24":-0.18892919086197207,"25":0.11288333531427826,"26":0.11120409325154725,"27":0.059311854955096395,"28":0.010209519719393325,"29":-0.07118232647493097,"30":-0.04076726680556378,"31":-0.12135148870012391,"32":-0.1250364119562882,"33":-0.03319750355790297,"34":0.09598870101308886,"35":-0.178510692536278,"36":0.12522424518552291,"37":0.1917566259015799,"38":-0.09412662612130765,"39":-0.1736277483081151,"40":0.13843959876835343,"41":-0.0312551165505856,"42":0.057281385848619054,"43":-0.06634969504190986,"44":0.017126655282131493,"45":0.06974722593732699,"46":0.013050189369751742,"47":0.16311360146578616,"48":0.12627853457427787,"49":-0.18013025532837307}},"15":{"bias":-0.014310045519165884,"weights":{"0":-0.18426408338831027,"1":0.01180577032992192,"2":0.1311721178996391,"3":0.14766445329581546,"4":0.14185173797813871,"5":-0.08451817765762802,"6":-0.08123589417533134,"7":-0.04561784500091129,"8":-0.09025914100925932,"9":0.059115478204659545,"10":-0.12729486788478012,"11":-0.17497911723382484,"12":-0.022906074817560042,"13":-0.12029864538988276,"14":-0.1412659722848184,"15":0.11669666276739975,"16":0.19305247511736598,"17":0.18836041692947092,"18":0.06948896693123426,"19":0.10100559128876287,"20":-0.13848445624495664,"21":-0.10883749279039853,"22":-0.08256324194896356,"23":0.17354015040192203,"24":-0.10921794237862419,"25":-0.1435855430988085,"26":0.11284169640759877,"27":-0.14725908807207896,"28":0.06165640058866278,"29":-0.20002187940892693,"30":-0.09771761943435515,"31":-0.008449367032784209,"32":-0.18129180346589174,"33":0.14652445636719852,"34":0.03275443935215184,"35":0.12492037670953082,"36":0.1539425953989351,"37":-0.008134299406493566,"38":-0.13217637809085497,"39":0.1234255877634886,"40":-0.14979106928908262,"41":0.10561511946961658,"42":0.060418603407961693,"43":-0.06030863264914948,"44":-0.03896997459267668,"45":0.04782801885202316,"46":-0.10107997347999301,"47":0.1325414030586583,"48":-0.010627573712411322,"49":0.02667413674429276}},"16":{"bias":0.06291972350504821,"weights":{"0":0.0823731745070486,"1":-0.06960727927037175,"2":-0.11271882352367395,"3":0.1682731913979248,"4":-0.15305344591911935,"5":0.12540917918912603,"6":0.0043742160867637075,"7":0.184988235305858,"8":-0.15474712652269632,"9":0.15200964393639121,"10":0.046126773828482744,"11":-0.02107971143726486,"12":-0.015053513146756764,"13":-0.09086039703062508,"14":-0.1317570551394097,"15":-0.07596659088858485,"16":-0.09854386963140857,"17":-0.026838124108052752,"18":0.12429525046966337,"19":0.07318111811771921,"20":0.026036584802889964,"21":-0.004583039425753942,"22":-0.17156252257755286,"23":-0.06123960176966189,"24":-0.06028613889814721,"25":0.03039790093688201,"26":-0.11250973662759792,"27":0.1341979474495751,"28":0.18894233168577484,"29":-0.04828899172411631,"30":0.03597441290758569,"31":-0.14267277971029318,"32":0.14267221899747423,"33":-0.01422777396915783,"34":0.07430639627140352,"35":-0.08800410882223282,"36":0.025042217991581354,"37":-0.005920728798231734,"38":0.12533715662471642,"39":0.05039555575743663,"40":0.11625699725448935,"41":0.1249782429473669,"42":-0.0563584180437288,"43":-0.10504080783590507,"44":-0.13122507006775233,"45":0.09762269612071352,"46":0.047886185380719884,"47":-0.022558353403448823,"48":-0.02361139635766672,"49":-0.06691480483455922}},"17":{"bias":0.15859163811452215,"weights":{"0":-0.1549252656178174,"1":-0.020418802739690784,"2":0.05080332591251286,"3":-0.16796678080386684,"4":0.0697950310463557,"5":0.024451164058653097,"6":-0.09801947115667577,"7":-0.13238488920837332,"8":-0.14150771527850184,"9":-0.09038147663618523,"10":-0.11075651236809525,"11":0.12237142798692316,"12":0.20312045179142565,"13":0.09615356098841733,"14":0.01887360228963881,"15":0.057344182782543475,"16":0.13116731662799505,"17":0.01665992321659742,"18":0.09077525000812693,"19":-0.13097317971564662,"20":0.08604930751717021,"21":0.1901781015754797,"22":0.13540948932194058,"23":0.17639170194139558,"24":0.20050698395895813,"25":-0.1357502874850554,"26":0.05320663843604337,"27":0.19100521364931108,"28":-0.05965302071324272,"29":-0.18961466802536267,"30":-0.01648966403432766,"31":0.09976643132320362,"32":-0.11523421303905981,"33":0.16765339345838087,"34":-0.06711165600063511,"35":0.07066652817348247,"36":-0.09697619051686122,"37":0.043785714578220496,"38":0.19245797637499068,"39":0.06462257817151335,"40":-0.043961601373696695,"41":-0.05282260562364088,"42":0.13842660102656415,"43":-0.057584190253886995,"44":0.16544407680031262,"45":-0.1028308425699066,"46":0.09375773793976667,"47":0.051323313530632735,"48":0.18787911544417954,"49":0.043431813548240134}},"18":{"bias":0.18096337507994162,"weights":{"0":-0.04628847354249729,"1":-0.052982242919201616,"2":-0.10153947166777497,"3":-0.021255222877595598,"4":0.12340143368222725,"5":0.05684687396272026,"6":0.0014401798051986738,"7":0.01679720965254378,"8":-0.04469168303927993,"9":-0.10676486428378032,"10":0.20217791475388133,"11":-0.1263630505719386,"12":0.09278402073403105,"13":0.04503463454857261,"14":0.06631366470220668,"15":0.12351757939372894,"16":0.09364223124406006,"17":0.0897978508234215,"18":-0.18757482768898237,"19":-0.14267806290739177,"20":-0.16678801901486462,"21":0.13175292018832635,"22":0.08647878484956134,"23":-0.10753949793588082,"24":-0.07560776871548495,"25":-0.10538374124520743,"26":-0.14978879757163988,"27":0.03600138107797241,"28":0.06081755217379788,"29":0.04070898559865423,"30":0.01765138128285898,"31":0.1409338353826029,"32":-0.06431043714209295,"33":0.2037089077096929,"34":0.15867878891557843,"35":0.016239113675200943,"36":-0.12345193434983617,"37":0.032026087486958815,"38":0.0857811613310889,"39":0.07034986800955441,"40":0.10535516577820564,"41":0.1784008049963595,"42":-0.17588477030571883,"43":-0.158274390930242,"44":-0.17783587994217326,"45":0.13731866524676403,"46":0.1738099568141668,"47":0.15668301206983798,"48":-0.004456609327488067,"49":-0.006048590981571056}},"19":{"bias":-0.06301806964048458,"weights":{"0":0.015797045600818713,"1":-0.034202327123069795,"2":-0.054386632327733136,"3":0.0037837368928555788,"4":0.04238608533144037,"5":-0.07031382842556344,"6":-0.18394996231319438,"7":0.07975915654649847,"8":0.057089807948489446,"9":-0.012899032534101844,"10":-0.058369935412836194,"11":-0.16244535108863692,"12":0.1114728809460146,"13":-0.12088512640780531,"14":0.1971737434645792,"15":-0.08005216968482805,"16":-0.03292978770228823,"17":-0.09554851968533105,"18":-0.1788215445085788,"19":-0.10768062890027903,"20":0.1511912677524964,"21":-0.19136750279943757,"22":-0.016856407348090567,"23":-0.06570264974084225,"24":0.0624172708359726,"25":-0.04121905010972158,"26":0.15380802033323043,"27":0.13948376681989555,"28":0.12459246787529141,"29":-0.152371985314062,"30":-0.17559055431359546,"31":-0.1688061239642489,"32":-0.10586999436182588,"33":0.19716557369848364,"34":0.14663840060414973,"35":0.10160688064979885,"36":-0.13983126043442587,"37":-0.03146662205999204,"38":0.03980606864060798,"39":-0.14568066459626058,"40":0.038349411751606444,"41":-0.07299989494433003,"42":-0.16029597829834522,"43":0.09249208402930312,"44":0.16721729158183055,"45":0.11020674869197886,"46":-0.07736944803093163,"47":-0.15667549929829536,"48":-0.08955814984808219,"49":-0.10546183497952523}}},{"0":{"bias":0.4386589272453379,"weights":{"0":-0.02518709118998406,"1":-0.038308075254530144,"2":0.21175638873640665,"3":0.07941175896316502,"4":0.008877113553753585,"5":0.23034298885486373,"6":0.25465849452469924,"7":0.2337187174973726,"8":0.21532394267508112,"9":0.24098283468695295,"10":0.28817837623741643,"11":0.19440243828227743,"12":-0.02799126876791422,"13":0.23327774660335546,"14":0.0671627050020694,"15":0.0338928932827553,"16":0.08667815023877641,"17":0.07008960452410376,"18":0.24412538636550593,"19":0.12680531269154952}},"1":{"bias":0.07898992178449324,"weights":{"0":0.21054099475295723,"1":0.17557571871537847,"2":0.12548422611523014,"3":0.17235933276091747,"4":0.17019069645526,"5":0.28349319946957524,"6":0.24630820832702616,"7":0.26922526347317244,"8":0.21553562163472215,"9":0.25795940849663884,"10":0.12265211687742555,"11":0.14175995058631,"12":0.22886231419702077,"13":0.1361993005091157,"14":0.11901491374352144,"15":-0.07907539863112051,"16":0.13388594599742698,"17":0.3139382208232578,"18":0.09125858005526993,"19":0.15757133583411728}}}],"outputLookup":false,"inputLookup":false}