encog,BasicNetwork,java,3.1.0,1,1384057169919
[BASIC]
[BASIC:PARAMS]
[BASIC:NETWORK]
beginTraining=0
connectionLimit=0
contextTargetOffset=0,0,0,0
contextTargetSize=0,0,0,0
endTraining=3
hasContext=f
inputCount=15
layerCounts=2,42,42,16
layerFeedCounts=1,41,41,15
layerContextCount=0,0,0,0
layerIndex=0,2,44,86
output=0.8794423001,1,0.9982119952,1,0.9919327709,0.9999999827,0.9999923559,0.9976739674,1,1,0.9997713969,0.9601653307,1,1,-0.9990218728,0.9999999999,1,-1,0.9924432267,0.9999916601,0.9964829733,0.6057902871,-0.9931545139,0.999999984,0.9999977982,0.9999962469,-0.999999996,1,0.521710664,0.9890175529,0.9999999999,-0.708044029,-1,1,0.9415396481,1,0.9990891246,0.9873862291,1,0.9999998978,-0.999961601,-1,0.9999993277,1,0.7608032326,-0.9574550188,0.0108301555,0.9986572748,-0.0128188997,0.9481284686,0.0442829319,0.8791294347,0.9929101804,0.5954841992,-0.2001678548,0.9998898725,0.9034146033,0.7587450701,0.9780382334,-0.8519319342,0.8548057709,-0.0290937364,0.9943390515,0.9732171978,0.5001654235,0.999363442,0.9999286053,0.4808878199,0.9999998157,0.9997436612,-0.0007637692,0.9732463363,0.9949782188,-0.1190040285,0.9969592154,0.4484066326,-0.5583566702,0.7242920414,0.2906117759,0.9998675259,0.4813385767,-0.6326219756,0.940508541,0.707027551,0.9629654671,1,0.6351557907,0.6586713698,0.6586713698,0.6586713698,0.7527336861,0.7527336861,0.7527336861,0.7174603175,0.7409758965,0.8232804233,0.8232804233,0.8232804233,0.8232804233,0.8232804233,0.9996472663,1
outputCount=1
weightIndex=0,42,1764,2420
weights=-0.1818218848,-0.0534748426,0.1372153021,0.0999513699,0.0845073432,0.1307551488,0.1021594423,0.03879417,-0.1850002648,0.1314132298,-0.1087956512,-0.0392980107,0.053810143,-0.113245659,0.0580711052,-0.0911795894,0.1481408153,0.1778439,0.1249719856,0.111770992,-0.0618241623,0.0817271699,0.0618209331,0.1203142549,-0.1502970055,-0.0878166062,-0.0796485968,0.084185529,-0.0681244848,-0.1416297483,-0.1040645043,-0.0719525001,0.1410824596,0.0420593355,-0.2105746788,0.1113057429,-0.1120902366,-0.0882526163,-0.0780227254,-0.0501363692,-0.0688743799,0.2967511654,0.2825352124,0.2686748915,0.1829180409,0.2247393724,0.1137314283,0.4657263293,0.6167880287,0.8753830267,0.1809562502,0.4777960826,0.0689592206,0.0338134403,0.0583026,0.0580135224,-0.0947869159,0.3380131522,0.4901007398,0.0827773832,0.0926726029,0.2287195934,0.2415178062,0.3548295382,0.1030684256,0.0391830906,0.0175854711,0.3089886507,0.3479501869,0.0376950942,0.200459168,0.2798794384,0.3744927665,-0.8899284285,0.1212987536,0.1516144524,0.3250930793,0.3772559636,0.5008044317,0.4974202877,0.6331167897,-0.4358728089,-0.5733849992,-0.1191107797,-13.5015528837,0.0545812137,0.3107117632,0.1179222475,0.8683562906,1.0984110858,2.9950926938,3.5439661866,-7.8736750798,0.345138374,0.1563720698,0.3395594438,26.9151271337,-3.3466412091,-21.7444336089,-45.5676879296,0.203148448,0.1164792301,0.3594189784,0.0849641312,0.196451118,0.2472193995,4.4827720511,16.3321667969,0.3218595174,0.3006197036,0.3166860079,0.1321691374,0.0588811295,0.132928448,0.0886678901,-9.0835985022,3.2878127718,0.2776256331,0.1921521508,0.0313638573,0.1306064438,-2.9955024843,0.2122587968,-83.7502081497,63.2641673248,0.1565263178,0.0364206749,-0.1410144761,0.2968439122,0.3169314254,0.0833853426,-0.1656687766,1.1673863296,0.0542060271,0.2152862416,0.2678160109,-0.0216214549,0.16066946,0.0757017589,0.0353395559,0.3024668473,0.3044216811,-0.2977739,-0.4378090684,0.1336574605,0.0578700009,0.017620029,0.2012158151,-0.138723577,0.9044217483,0.0156653446,0.1069020146,0.2581835555,0.0489961354,0.0108634844,0.1835713946,0.0174028867,0.124697032,0.1478009869,0.1547247413,0.1373135025,0.0280571071,0.2036744766,-0.4159376421,0.3179755585,0.3213695515,0.3512249602,-0.3479735399,-0.4288630743,-0.2068559307,-4.1759972232,0.0237038824,0.5762288227,0.2265155904,5.0382644673,1.4890926863,-0.8308632119,-1.2948784181,24.5350490757,0.0332057163,-0.4140161889,0.5076477453,0.3144075221,-7.7249212572,0.0118093085,1.5684429182,-0.0983162059,0.0016654356,7.9295791268,0.0035969171,-0.8646851459,-0.7126202355,-0.2936358402,-1.0943529809,-3.0403584941,-0.0117478338,-0.5049843715,-10.3318226487,-0.2391637871,-16.4052888411,-4.1174046848,-0.9429264537,10.3790255628,-0.1203952941,35.8901278552,18.2333920662,0.293429049,3.0441088803,0.2342934734,-0.0062920589,0.7238806571,-0.0961596291,0.2046971556,0.1876739372,-0.1344950652,1.5034809883,0.090680255,-1.1102391874,0.3944600132,0.0154101993,0.1858310736,0.1327136939,0.0201204815,0.90696414,0.2270388469,0.3717313386,0.0863343725,-6.6788337503,0.2274315216,0.2372710085,-0.2310401839,0.0623341731,-0.7524707596,-0.9320327328,0.2623475643,-0.066264472,0.231756244,-0.0042120708,0.3044115709,0.3272133797,-0.051841584,3.841931658,0.9731446653,0.0025266126,0.1658389684,0.1535890056,0.2108804381,-2.6505990587,0.7423860835,0.091587742,0.1768115597,-0.1282219069,1.46455022,-0.1872202123,-0.0194443222,0.1698609556,0.1554009925,0.4141863194,2.3312154384,0.2769144869,0.1739012545,0.1086925249,-0.0321736642,0.2411855263,0.0111221412,-1.1035404364,0.3716988048,0.1729017947,-0.2152430072,1.3488797571,-0.0597375169,-0.0636332361,0.2591639461,-0.0164365932,-0.0510803463,-0.0703893961,0.0946899581,0.2568855504,0.0960920497,0.1054572458,-0.0666166897,0.336213093,0.2155245696,0.9762748361,-0.0503002889,0.2255219521,0.1431513638,0.1129574208,0.0949383231,0.2360478725,0.3175394468,0.3269767512,0.0267168157,-0.1785052038,0.7621998187,-0.0085603604,-10.5271748068,-0.2314308249,42.1882930019,0.1233766906,4.9098811147,0.3714337432,0.0659573766,6.6149482544,1.1228449522,-0.5242560288,0.0838577633,0.3159540736,0.3264649388,2.2081515465,0.3561955049,-0.8699711463,-0.3567304288,-0.216542794,6.2721852066,-0.1858859393,-0.4026172684,-3.6930457227,-0.5496111572,-0.0948052729,23.3282443851,-0.3522535012,0.1781725586,38.3530013777,-0.0586425466,11.9079934744,-3.107961464,2.1337174429,10.1675003096,-0.3647702892,19.5220936003,0.1345152371,0.3314293791,0.0611632835,0.3212376078,-0.6759886025,-0.1164594002,0.1020422075,-0.8748746752,-0.27211753,95.4498953663,0.4149035626,-11.2655049915,0.2369463472,-0.195829895,216.2931186137,3.392449128,-0.4863019736,-0.5948866962,0.4045210817,0.0079656016,-15.5445713181,0.5017771735,0.2810138396,-0.5984752997,-0.0545855129,13.6158550391,-0.5867363462,-0.4627274932,-8.7882532969,-0.5334616112,-0.1303453924,-35.4031874906,-0.0702793674,0.1457858384,117.5283308903,-0.0825945296,1.6933769534,6.8738225943,0.7312763668,173.1861689271,-0.3875660819,5.7363071143,0.4503865529,0.3893509596,0.6179297,0.4316135819,-0.8196418492,-1.2252506287,0.0594509666,0.1309061448,0.3712146875,1.661192684,0.6223225852,2.4128010427,-0.0642072497,0.0925755563,0.3645100192,0.1893335174,0.1517859832,0.1612236382,0.1704541746,0.3738062564,-0.0771076862,-0.0833176834,0.7005118253,0.0631028647,0.3413928851,0.2064350156,0.152720214,-0.0277181808,0.4980754107,0.0616250605,0.1735642959,-0.2375820886,0.1752358213,0.3438188163,0.1707802209,0.2439408315,3.343409475,0.7033576845,0.4197952482,0.494250692,0.1571597569,0.3937385896,4.5276095259,0.4845081316,2.9237470563,0.3818443861,-0.2620631718,-0.1164593473,-0.1128322618,0.0170135928,-0.0352835696,-0.0794347148,0.6695351658,1.3776940154,0.1912024889,0.1770672766,-0.0270833208,0.1985421441,0.2046020543,0.2248506388,0.1400466125,0.1059996322,0.0923535301,-0.2139144267,2.9327535996,0.3123810521,-0.0382920246,0.0977790242,0.0017287796,0.056659639,0.2044670912,0.1836580441,-0.0568850526,0.3059536999,0.1953716364,0.1538393842,0.0073235889,-0.0013399986,-2.0115904,0.0309745595,0.1382310001,0.2169739092,0.0426996883,0.1549460167,-0.1563241998,0.2457464282,0.320212348,0.2701811132,-0.4162640473,1.0634286328,0.1373165278,0.0498372482,-0.0319783571,5.1554908969,0.2792649021,-3.1141948418,-0.933909098,-0.1469518331,4.014500552,0.1702712632,-0.0018936342,-9.5297764791,0.7179920927,0.2696167504,2.8323070634,0.3904962044,-1.0049364707,-0.2890039325,-0.1370455664,25.1348869193,-0.0714160769,-0.7497898078,-0.2642995606,0.0331118881,0.289458144,-2.4749099777,-0.1485050862,-0.250301611,-21.7371876858,-0.0057590665,5.5001744881,-2.4335023906,0.4406531584,33.6097985605,0.0349302942,1.1188507266,-0.9051247552,0.4074055927,0.5029756326,0.3094024926,-0.0059476419,-5.2979648185,0.0489194997,3.5547288551,-0.0380566662,16.4164953252,0.4748146714,3.8962688995,-7.8174689525,-5.0990908007,0.3383802608,-1.3623305936,-0.0396300894,0.1244857164,1.9914376026,0.2631564129,11.0157575809,10.5900087212,8.488912416,-0.1569713985,-0.1786226169,-12.9203778017,-0.030626715,2.9733214002,23.5885103946,0.1177368569,0.243613614,6.2676557966,-0.00560585,0.117633275,-3.6291122112,0.3011370484,18.12306091,-11.3929326462,30.9776979873,0.379726436,0.0596462069,0.0868004622,-4.1433457187,0.2526076096,7.0294864574,0.3046698913,0.1513301101,1.7171759522,-0.4131800139,0.3117894878,0.2354692025,-17.6635538098,0.2668334344,-2.7232520749,0.2948812856,0.0764312684,-0.0114143128,-0.1908084648,0.1142989473,-0.0956293659,-0.0059234919,0.13248556,5.8809675207,0.2486809651,-0.6649645101,-0.002780592,0.1933864572,0.3669866937,-0.0347923652,0.3412001837,-0.430224964,0.297995922,-0.4041889866,-0.0308940167,-0.0506773097,-0.253534185,0.3240713158,-0.3390086464,-0.6447634554,3.9730133163,-0.7104580546,0.1825150476,0.2948543771,0.0079528334,-0.1130512289,-0.0284353434,0.9129599177,0.3123863565,0.143078884,-1.6254596458,-0.226246648,0.3745872177,0.0850508486,2.9072142826,0.1396127445,0.3265477868,0.5453662498,0.4352064322,0.3216790517,0.2288883858,0.2804105699,-0.2196010402,-0.3810377339,0.3894787071,2.9632681568,0.3173757663,-3.568061328,0.1655019779,0.326190691,0.3937718036,0.274781058,0.4950614943,-0.1014622538,0.3572146891,0.0140562342,-0.1489969224,0.083520894,0.2203520044,0.3666542568,0.2108874955,-0.1781241883,0.1044567073,0.1038925807,0.2216739359,0.0556940695,0.2544261002,-9.4594321641,2.4729617836,5.0670323409,-1.0487019203,0.2731675334,40.8148536553,-0.0178560016,0.3090796537,0.1175894829,-46.4746504673,0.3169106275,-1.2780384571,51.2775900087,12.5322116893,0.0287621972,-13.9848763588,0.1550544052,-8.3963762372,-0.0874662788,17.4880850276,-44.1517351201,0.1103470279,10.9869597044,0.1468529376,0.3124603038,-0.0620438112,0.1854842757,-0.2294966623,0.7974274537,0.202515994,0.1539792376,0.3257222632,-0.0115851779,0.2292749286,0.3590371191,0.3186623376,13.8864321191,-1.5567544454,-0.0535995719,0.081285173,0.3575465138,0.1601790054,20.9668389695,-1.3542298281,1.8900089453,4.1803299627,-0.2728396765,4.8468932031,-0.1944145063,2.2074147345,0.0788214747,-8.6745535104,-0.0747856506,1.052717592,-0.7801705385,10.5645461233,-0.521941518,-1.3615174411,0.1026262963,-7.4612217878,-0.3212933791,-0.2300611147,27.8793206416,0.2349334364,3.9259498177,0.243472358,0.0338788806,-9.7168880123,0.178846726,2.6531079405,-7.7365845776,0.0792347261,-2.1229530589,-20.0643164394,-0.1021098746,-0.5027785316,10.0090875115,-0.3407772247,16.3034279316,3.1999331047,2.2596706947,6.4778090049,0.1998216555,2.4559742059,1.0969564703,0.2853935067,-1.9964670488,0.0650059105,-0.1615867634,-0.547809456,-0.1420218759,-0.0220707451,0.2506142373,0.0131099465,0.3633137073,-0.9867008156,0.0961850788,-0.2506416379,0.3094966569,0.2414340725,0.152041751,-0.1787134795,0.0798111938,0.1116495796,-0.1891957888,0.0206131485,1.2614383112,0.1097306524,-0.0592305445,0.0795017815,-0.0773030426,0.5603340471,-0.1180514055,0.1833444589,-0.2106700548,-0.3983271278,0.2252117586,-0.3401935405,-1.2205079605,-0.2242691789,1.0047707865,1.0514685149,0.4141145601,0.0795474236,0.0398862216,0.464661125,0.5621607915,0.1079223575,2.4537245661,0.2178204263,-0.1900212329,-0.0159766077,0.1168988173,0.3461627039,0.1498030794,0.2428650297,0.6136450876,-0.4400516825,1.4834329631,-0.0556638781,0.1981600131,-0.1784580952,0.3401735646,0.0257599607,0.0520763747,0.2760458936,0.0343055236,0.4919775661,0.8128264065,0.0802494026,0.3565762208,0.394106004,0.0539444502,0.1368193401,0.2174268722,-0.1535117224,-0.1673697305,-0.158533157,0.1214833884,-0.0997355158,0.1876475711,-0.0383128563,1.2032812219,0.0215696455,0.4774887449,0.2438331037,0.3685942154,0.2309260349,-0.0660433017,0.3477324688,0.4274085876,0.4473824118,0.0794425514,0.956280212,-0.1652873865,0.0732242071,-0.0087562534,0.0041406088,0.4379388914,-2.3931098812,0.1323293947,0.1888963749,-0.0290873378,0.2304588773,0.3144867297,0.0905440444,-0.162524822,0.3705306017,0.0174704801,0.1287916776,-1.5258045205,-0.0353514552,-0.0082384372,0.0465439207,0.0365378623,0.0781602259,-0.4702222362,-0.0650944912,-0.00760862,0.0226300635,0.0021470695,0.2648460107,0.0528384659,0.2275327913,-0.6054824424,-0.0011039143,0.1657862362,0.2050069773,0.3014223118,0.2264817963,0.0013571247,0.0863658204,0.2025560005,0.129416578,0.0188867816,-1.2509517736,0.1242173425,0.0782768108,0.1828705642,-0.1341516701,0.3677833229,1.5326647991,0.237094712,-0.0242654615,0.1776955567,-0.2984239029,0.0926566324,-0.3540880955,-0.0223618394,0.4084347025,0.2104835459,0.20766813,0.0660639455,-0.0055292306,0.1623538894,0.2403796463,-0.0685286009,-0.0556812894,0.8547916949,0.2063300437,-0.3331369967,-0.4832349238,0.1682988327,0.1612151318,0.4348365759,-0.5573140936,-2.7773206007,0.0734028819,1.7755610858,-0.245132811,0.1348135847,0.3514331061,0.2792822477,0.3907388381,-0.0060125508,0.33171805,-0.2187876297,-0.6629300985,0.146294623,0.3075938008,0.0959969296,-0.619767585,0.1933338542,-3.7260024726,0.4152737288,-0.0984887351,0.2669315162,0.0433583557,0.0154080746,-0.1184204758,-1.8969945126,0.2632007214,0.2594208298,0.4074097697,-5.4805825284,0.2094630022,0.2743264285,-0.6707348686,0.3310617768,0.9412389521,-5.9402387892,0.2637279613,0.1717088728,-1.5669283976,0.2768428425,-0.1743837935,-0.8795261065,0.028831306,-0.202230003,-1.7944088689,0.3089907114,0.1981139579,0.0230727333,-1.6756479891,0.3475348446,0.1001517547,-1.6480221517,0.113116951,-0.1970687594,0.5340910628,-0.3803385253,0.1613279804,0.3069191408,-0.0315823809,0.8942883313,-1.963767263,4.6573788091,-0.0647323598,0.3556609467,0.2579009647,0.1790668708,0.2160261896,0.3855736575,0.0370878158,-0.2071163512,0.0001593483,2.9161989066,-0.0587056493,-0.0231098702,0.3371633046,0.024614535,-0.3844888363,0.0156150539,0.2045310015,0.0538706992,0.0318359627,0.0000584354,0.068683901,0.0673020872,0.1238310762,0.8969375213,-0.3083190878,0.3739762765,0.1134681226,0.0280912418,0.1449782096,-2.3155524034,-4.8689561118,6.509652232,0.2155575338,-0.353463632,-2.5371541232,-0.2611075387,0.1036703511,-0.0025240229,-1.9846425368,-0.2225639123,4.3951006305,1.4279411447,-0.3081501162,0.2462257824,0.0334159269,0.0252712256,0.3341690357,-2.0730885051,0.3260346392,0.9571257044,0.8418762143,5.7929495801,0.1564703955,0.0083121781,0.1279947099,0.0819027095,0.1824173525,5.204534465,0.2176438152,0.2303545945,0.3609399518,0.1800175333,0.3004216899,0.1221763822,0.1116886308,-0.2939775986,-1.996700156,-0.0479116972,0.0885958642,0.1625605628,-0.0399548139,-1.5033288922,-0.2629905832,3.9104096705,0.136378316,-0.0963145083,-0.3065387066,0.0806836132,-0.0868111875,-0.2213061913,-0.070098095,0.1486167,-2.262109125,0.2952020969,-0.1210755603,0.9938555271,0.183143456,0.006302927,-0.1919060137,0.0339624134,0.1488399972,-0.5717734917,0.1620647516,1.44402267,-0.1592164718,0.0197873068,1.9766892174,-0.0655046571,0.3204684441,2.2465886523,-0.1542783886,-0.0823027202,-0.3782107515,0.0967899777,-0.0251480305,0.1337728405,-0.1932501027,0.363339433,-4.8209265539,0.1648838747,1.6168821254,-0.1352379936,0.3357479172,-0.1094631952,0.3496404011,0.0441041662,0.2326655499,-0.1315717876,3.6280605369,0.0216248772,9.7610031037,0.128234277,-8.6812039808,-0.5183738793,0.4510346583,0.2299467035,1.0697287856,-0.0769706604,-0.0284311054,0.1295499833,-0.7286929605,-0.2577858121,0.1113305995,6.4723827718,0.1464672116,-2.45253402,0.1268339412,0.3564638576,-5.1375394124,0.0590644864,1.3521109002,2.1770485292,0.2275901838,0.2362933139,11.0516242947,0.0790383025,0.2768749727,-9.3528760868,0.0190367557,-10.1307542807,-1.5004075968,0.169024027,-10.6893266674,0.1498832224,-0.8714901787,-0.338203605,0.243027945,-6.0105040342,0.1745072325,0.380625674,1.6543984125,-0.1244065527,0.139630273,-0.0694405067,2.532809106,0.3045919584,-1.7179260742,0.2420904098,0.2822682487,4.2371823889,-0.4816322358,0.2109249225,0.2022396995,0.0351938847,0.3227264235,0.4262534924,0.1815389206,-2.4008605481,0.1216761659,-0.1399494449,3.6057180623,0.0315648792,-0.7530900645,9.8065095914,0.1873789581,-0.2686983581,-0.9233257826,0.1453982526,0.1773046775,0.6275128524,-0.4786713142,-0.109626348,-1.9149355798,-0.201628278,3.012402288,-0.1456839679,0.6164263305,0.0309500085,0.3875539707,0.0328287143,0.1512363468,-0.0588105336,-0.456485573,-0.0908341753,0.1084377201,0.0223854432,0.0318857203,0.3772100009,2.0497904267,-0.8926477117,0.3375975707,0.157044704,-0.0015823108,0.3151755129,-0.04140643,-0.3053449851,0.0918145759,0.2477389305,0.1228095799,-1.5927715525,0.2085011637,0.0349291302,0.3157764344,0.2507646926,0.1639045058,-0.20700951,0.1022349589,0.1203829619,-0.0059642468,0.1601311846,0.1522999418,0.3003013811,0.2263267847,-0.0686216297,-1.489878467,-0.4050895087,0.2482798542,0.1119391195,0.2024467604,1.5115046481,0.2853045538,-1.4836691604,0.036285055,0.1256991635,0.2218357247,-0.17700172,0.0790674333,0.2273047425,-0.0953493231,0.4330851048,0.4740334204,-0.1117388905,0.1619195998,0.1525912763,0.2500109373,0.2198467834,0.1086009734,0.1528920665,0.2737238884,0.2857113033,0.0069102445,-0.3553993191,0.0468025349,-0.0388777871,-0.037504378,0.11063623,-0.0219221172,0.0447049077,0.2299913119,0.1303740287,-0.0093083161,0.2862370804,0.0338752302,0.2475987063,-0.0202609586,0.1456105351,0.3182100691,0.0111692202,0.0816330878,0.0838410826,0.1960958353,0.1036550656,-0.0063182432,0.1610268522,0.1998537183,-0.0327191577,0.595868529,0.155864236,-0.0164943102,-0.0924985572,0.4060487928,1.1977873241,2.2149408705,-0.3791052248,-1.7860579819,0.1838192876,0.2396573848,0.0233009115,0.5634188756,3.1864802298,0.4384701553,0.1137568799,2.3483711672,1.9162689619,0.0823651474,-0.124123765,0.531699931,-0.0462572449,-1.0255603526,2.3785738531,-0.0011887263,0.0925987151,0.0653613389,0.0141245621,0.1467217574,0.4713173371,0.008682881,-5.2101380786,2.942304547,0.3394310559,0.4441254629,0.0771323691,0.4533891413,-10.309018182,3.3990068002,-0.1136695365,0.2740008562,0.1129662459,-0.4328939483,0.0858178022,-0.0300502934,-0.2142499695,0.132084272,0.1148725514,0.4764213248,-0.0371679603,-0.1741813898,-0.3257540076,-0.7127695196,-0.0736189708,-0.3043739917,-0.4529894022,0.2917976589,-1.3016579471,0.252233131,1.8826638722,0.1772885554,0.2546275293,-0.2345070812,0.1041367253,0.1545374643,0.0641350913,-0.1739946586,-0.2981567355,-0.2859588083,0.0969780052,-0.2608986516,0.1781621026,-0.2287901407,-1.2522817057,0.3609401717,0.033804815,0.3241379481,0.0431130911,0.1726253014,-0.2573064061,0.0759301798,-0.3384770343,0.0105741944,-0.188455517,-3.6845081041,0.0106552998,0.2666047519,0.0160066731,4.5764376423,-0.191070321,0.4806762997,-0.4956284936,0.1106491805,-21.2916032047,-1.0353531509,-0.1791589314,-3.370994723,0.0201701114,0.2959142132,1.5766204545,0.2928543662,2.0751753195,-0.0423846778,-0.1765757886,1.8671607568,-0.2288565664,0.0431141284,0.8276033359,0.0992281898,-0.7767413552,-31.2838185179,0.0834380918,-0.2283496192,94.8964080154,-0.7295398691,0.1145037177,-13.8946206699,0.3410419156,12.6032985795,-0.1515476352,0.5973892771,-0.2014759942,0.4881008836,0.1271341294,0.0217254934,0.0440734321,-1.4011981264,-0.2269196782,0.1045538372,0.2957771726,5.1007943604,-14.9768227317,1.6449381594,7.0696412311,2.5640093824,0.1771158212,-0.6826437298,0.1026360708,-0.4428928327,15.7077161713,-0.0557538301,-8.344918848,2.7535915636,13.7542381593,0.1859593624,0.3313276109,0.2044921713,0.0851838567,-2.4434576447,-10.4563487463,-0.0260680868,0.3369040059,-0.6420491676,0.111231272,0.1473281402,0.0769774633,-0.0207420702,11.0568403474,2.3999772782,0.5053469404,0.250570294,0.0852729352,0.000130494,-9.1864313503,0.4687177931,-1.7359417511,0.7301128623,0.1221834067,-1.4832937531,-0.1884568691,0.0740856427,0.1311243613,-0.1496400361,0.277699347,-0.3514734863,0.5542760311,0.1290164369,0.1621843884,-0.0734446998,0.2376793776,0.1103968653,0.0028407224,0.3521117399,0.0471351475,0.0886530961,1.3045334572,0.0318445773,-0.0597842482,0.0089769303,0.001691464,0.0513481068,0.3320005626,0.2737030373,0.0332628809,0.2218828083,0.1357408304,0.0286510862,0.2372300682,0.1924063572,-0.1159982936,0.3122931164,0.0057737924,0.1148134716,0.3080796361,0.1486129206,0.1133521399,0.1816063752,0.1596827523,0.0619827359,-0.3742248842,-0.9684769488,0.1454981909,-10.0737496278,-0.1671967603,-61.0413226957,0.4035774227,-0.0476507084,0.0900602005,-0.137615058,5.1358642071,1.8447618722,-0.2596839751,-0.3908521519,0.177846546,0.0825073364,-17.2349611383,0.2250322375,6.2253199524,0.0493847479,-0.8343249415,11.1022157506,-0.0321602036,-0.7070193816,-1.15288267,-0.3431131955,-0.1601686788,3.4968327462,-0.1376069056,-0.309458137,97.7532524916,-0.3223983283,0.2478417596,-1.2658880771,0.7303904852,4.569786378,-0.7161347472,7.4136413439,0.1728429652,0.345822009,0.3569756607,0.1709896574,-1.1782136969,-0.1062342317,0.0841334568,0.1948078527,0.1276362798,0.2350258138,0.6609683539,-2.0383072707,1.0672564406,0.1573597943,0.1751080188,0.174225773,0.3351675238,0.0982368163,-0.0680704606,0.1497052391,1.2327569332,0.3005136157,2.8278221472,0.2996742507,0.0096284689,0.1668959321,0.2465031436,-0.1354795353,0.2334027539,0.1190842688,0.1247328309,0.2196193439,0.0331967353,0.3037194512,0.4741114928,0.3339525011,0.1882983097,0.3273180666,0.1523383242,0.4211799097,0.1054483241,0.4569092486,0.4924699447,1.0373060209,0.3101913006,0.1805319079,-0.447198214,-0.1100934305,-0.253408266,0.232711465,0.0280281754,-0.2373899295,0.2391490767,0.4340227172,0.0994225112,0.2492388186,0.2340037825,0.2836987324,-0.0060450471,0.2598771261,0.0224108399,0.2801106314,0.2987633308,0.1910544725,-1.1901737326,0.2194822185,0.0376989537,-0.0468610426,0.0361187463,-0.1278342901,0.1523380365,0.2462424357,0.0174191378,0.2496906703,0.2701050401,0.0886470993,0.0851479258,-0.0104398729,-0.1728450497,0.156702433,0.1835249984,0.2915909528,0.2358317228,0.1401296886,0.2353062508,0.0841976593,0.2037980124,0.2010224954,-0.2199748838,36.3995992214,-0.1975676047,0.319231506,0.3269008713,0.1725451049,0.1957873778,2.4337673889,1.8578709886,1.7741588535,0.2524596734,-0.020249962,0.0382200051,0.1461469951,-0.0787044886,313.765885967,-18.3313397675,0.1402466101,-0.2680150805,0.2981066371,0.2139899381,0.0716214382,0.1627068747,0.3637920385,0.3267821776,0.146814232,0.2334129746,0.0512350924,0.2113524337,0.160433916,0.2034772792,0.0939807919,-0.3920974135,0.1268163224,0.2720127489,0.3472174167,0.3679180104,0.1694857944,-4.0575146758,0.6473676212,-37.5019209741,1.446005551,0.3381623433,0.6479816377,0.3018523983,0.1328100417,-0.0570110023,-19.1927890924,-0.4750309634,1.8079487852,-2.4754356094,-0.0162453717,0.4686612918,0.2753183049,0.1209140048,0.0757735689,-5.4114658708,0.3234428138,-0.6940723956,0.1621331103,-2.3238119455,0.0558562789,0.0810844969,1.3581203863,-0.1681014749,0.0553348427,3.384630192,0.2950367909,0.2225450311,2.4518218621,-0.0417605184,0.2969381595,0.581473025,0.0806754167,14.8577401364,-1.0042133382,2.6204623762,0.4940969776,0.1379864344,0.4528587591,-1.7024083715,0.594528243,-1.8501487656,0.5171750868,-0.4155473152,0.5590619255,-0.3833374651,0.1602281856,0.300881326,-6.2687143196,0.2841685064,-1.531512043,2.132265503,0.1438731273,0.4268667483,0.3798307263,0.2673170715,-0.2112113446,-3.4788834974,0.1879239362,3.0879029736,-0.5514520111,5.5463432935,0.2407055531,0.245780816,-0.1692829715,0.1308476341,-0.8304939913,-0.3565300661,0.1740511311,-0.4047033381,-0.3879654151,0.0522397641,-0.1240078729,0.2552313753,-0.248188836,-3.7516190865,0.1955630335,-2.1941466538,0.3847953493,-0.0096789712,0.3909036117,-0.2116422395,0.2900325328,0.2139819621,0.4350655313,-0.1883722665,-1.864621773,-0.1149355558,3.1022934561,0.2710016753,-48.1951477756,-0.0513571869,3.0574466455,0.820626361,1.0872630438,-1.1732999707,-0.6398463743,0.1766742823,0.1943643256,-0.2632298478,0.1846617775,4.9947641379,0.1028536743,-4.886605748,0.2444588721,0.3652963394,0.4879045314,0.0269883334,0.0031809279,8.3668748219,0.2427116411,-0.0727998528,8.0989115257,0.1326152961,0.0799906752,1.9738779416,0.1136278958,-34.7390293368,3.7466628355,0.1940820362,-1.0398624833,0.0507368704,13.0486846351,0.3400348703,0.0834094415,-7.1509778127,0.1107793719,0.023039673,2.2980522924,0.0432594306,0.1639707438,-0.0708015098,0.1276205264,1.8847112684,-1.8366648754,10.8166348955,-0.2842495054,0.2150111172,0.4744715195,-0.0635900677,1.5499360242,-5.8889342291,0.3916751344,-1.8926577561,-0.1902726729,-1.876134106,0.1577142128,0.242165876,0.5031355306,0.143984245,-0.1293968919,0.6636037956,-0.0756263994,0.2943978997,0.3300186285,0.0700849039,0.2373533401,0.1958826744,0.1540810639,-3.3713366257,1.2469817125,0.2859359645,0.4765734407,-0.1114971111,0.3340422331,0.3898588069,-0.5780677334,-4.5147488522,0.2806140252,-0.01074006,-0.3279623847,0.8868061301,-3.1666909375,0.1931184945,1.6997755305,0.6542344645,0.1746887315,-0.527889684,-1.6333382683,1.0274398731,0.7937712041,0.1614960617,1.0259380998,0.7981014754,-0.8227060156,-0.0451168892,-0.3023070391,0.0160520651,0.0508719159,0.0212499188,0.115600491,0.0795302981,-0.1182566818,-0.2258381126,-0.1789075512,-0.0607542477,-0.2178516951,-0.1467835446,-0.2492628407,-0.3783556138,-0.5039913766,-0.1730200696,0.7342960495,-1.091909526,0.2025283125,0.3359168381,0.5375507485,0.2097717287,0.1951899708,0.5491995577,0.2668742676,0.1174992245,0.5344299048,0.1921371362,-0.5466592166,0.8800772919,-2.7392981424,0.3766842645,0.1296233264,0.4510202412,0.3686735662,0.1104437506,0.5506894129,0.0718044883,0.3488189463,0.3246016403,0.3888063084,0.0449334489,0.0731478243,0.2281936451,0.3942566145,0.3040212847,0.6236596694,0.2222544363,0.0715187654,-0.1784473726,0.1330609322,0.0530928856,-0.2128842599,0.0034333138,0.1604966858,-0.4912058273,0.1195096262,0.2528450109,0.139081744,-0.201620147,-0.168327156,0.2417769535,0.1132130303,-0.0929232989,0.2268957269,0.2613760686,-0.0694476464,0.0596399293,0.3766499167,-0.0307827961,0.2045651858,0.1864353411,0.2753146183,-0.0309270656,0.2343023184,0.2779457103,0.0137316618,0.3220449443,0.4215089992,-0.3430389911,-4.5664862238,-2.4662706462,5.4586240553,-0.2818636484,1.3476762594,1.972413325,0.6986720039,-0.6199033834,-0.8129927063,-1.8942308787,0.0669606896,0.1913966363,0.7409847385,1.4549446885,-1.3042583949,0.0242422325,-0.0064962916,0.7536513293,0.2898526083,0.4558838194,0.4198840512,-0.1696357303,0.3732222514,2.2645808202,-1.5012450736,-0.3959040406,-1.755508275,2.1071459426,-0.5984209554,0.1812694573,0.1270570583,-0.3403595244,0.1929516672,-2.3617799225,0.2609321772,-0.2479053895,1.2567638588,0.5513394026,-2.660254175,5.9946457603,-2.7854359503,0.6956843571,6.569781324,1.9260318359,2.2162605595,-0.7240114708,-6.2312599806,0.0816534818,0.1214016027,0.0674716709,-1.2080898667,0.5320712371,0.0414965566,-0.2270716399,0.3318761911,0.5491701465,-0.5199865225,1.2053384777,-0.2930086468,-0.0038748248,0.0695705075,0.2562814575,0.3590043109,-0.4840501237,-0.2837612491,-0.4992334824,-0.3652473788,-0.3790071512,-0.6345749361,0.2478281087,0.1694971537,-0.0214105359,0.1564308249,-0.2784516946,-0.1659296004,-0.1740479522,0.1353543821,0.3132137633,1.1654271701,-0.1658167341,0.2390984741,0.418590875,0.5098771295,0.378935169,0.3921748435,0.2347448689,0.3842990016,0.4403822893,0.3513201016,0.4598576096,0.3021271514,0.3368285192,0.2835974228,0.5407423226,0.5228751183,0.4470280836,-1.4401047625,-0.162049282,-0.2684418246,-0.8471404815,0.1069659766,0.6017662725,0.795382462,-0.1135958062,-0.404512739,0.3031274907,0.2207034732,1.7898725432,0.4944363839,0.6214180495,-0.4438425707,0.1159537664,0.1141845001,0.1975144429,0.2098942595,0.0118608121,-0.0777163793,0.0268503643,-0.0039122933,0.2592445394,0.1016017108,0.2588064409,0.2720109142,-0.0969277469,-0.0430360416,-0.0399534363,0.3375363126,-0.2017900269,0.0066378706,0.2339120133,0.3733321587,0.1310575146,0.293994863,-0.0605162333,0.0598257701,0.3322669376,0.8903658954,0.2086627932,0.1022397357,0.2643238314,0.0471961793,0.1409780677,0.1942093858,-0.1817771425,-0.346152836,-0.402592361,-0.313925762,0.110703591,0.1550787475,-0.4090721547,-0.1086165039,1.0841208491,-0.0621484952,-0.7726562962,-1.1119892467,-2.1275391556,-0.1063736872,2.6834813277,0.0946822957,-0.0162551358,0.1810337908,-0.0322880609,0.3428476166,0.1980281352,0.1601220238,0.3411531473,0.1303615705,0.0538240099,0.1168147104,0.3488467788,0.0385087255,-0.0410827328,0.1741435914,0.0498119494,0.0869058229,-0.3332060614,-0.0790362765,-0.1436974251,0.0888595782,-0.1172660943,-0.0596314144,0.0742981198,-0.8404396971,-0.2011429484,-0.0387210486,-0.0442901401,-0.3005124633,0.7710887826,0.0239662418,0.1912854417,0.3056664326,0.0953247565,0.3486042779,-0.0154108711,0.3692169887,0.3933011034,0.251435137,0.4211358773,0.3777879217,0.2408914177,0.018760251,0.394466005,0.0642066048,0.1094046656,0.1074733763,0.2150473567,0.1842026381,0.3240010415,0.0101637798,0.1131685102,0.1719619791,-0.0240510169,0.2366804656,0.0996124103,0.3639087807,0.0203438569,-0.0096106667,0.2807375178,0.1960086365,0.1557757483,0.0277473191,0.297361448,0.2928310193,0.3557428267,-0.7374064535,0.2372473169,-0.063302528,0.0249342323,0.2355891891,0.3697239709,0.1977262266,0.134160286,-0.0405459491,0.3615462571,0.0579587555,0.0788966344,0.0925670361,-0.0247260543,0.1219669574,-0.3718875195,0.286551571,0.2726296908,0.3018797286,0.2860453125,0.2222646206,0.3453232703,0.4011175265,0.3249502782,0.4118858606,0.4376973947,0.2899292406,0.4335446291,0.1891522365,0.4311485835,0.2651635561,0.2780695768,0.0153346614,-0.2087012297,0.4569114044,-0.5069458807,-0.5653096124,-0.2557485021,-0.7328173846,-5.6811238991,0.2864394541,-0.0930211931,0.3416474272,1.2198750036,-0.0296941821,3.0934842136,6.7169663119,-0.1316718392,-0.1316895671,0.6169810612,0.2062131316,-0.07670439,0.325484231,-1.6482047892,0.2742858822,0.8104506681,-0.0946184395,0.8069752776,-2.0834453136,0.4700156455,0.7576435803,0.7117115163,0.0858704867,-0.2376670239,0.2916162141,0.6329577545,0.4204864345,1.0931635828,1.5857732698,0.1211262428,0.054024272,0.2340321081,0.2898125328,0.2939490129,0.0746723845,1.0857406312,0.2237651916,1.6048117537,2.0449527842,0.0455444711,0.3620453406,0.2163339862,0.3166499875,1.4132034147,0.2425359569,0.0348394871,0.5736316639,0.278831279,0.2440854082,0.390772938,0.4170841911,0.1900801582,2.1554411134,0.2512683964,-0.675457193,-0.18009188,-1.6366271899,-1.3556206884,0.5447304736,0.24125908,0.0515893405,0.3339902853,0.5457701012,0.2433387036,0.3314326564,0.0491109175,0.4574707931,0.5901856752,0.9206571841,0.3535577665,-1.9375295032,0.277584131,-0.1640506858,0.1842120259,0.1351311385,0.3921581412,0.0546400752,0.1915481775,0.3922523067,0.0160670005,0.1829941074,0.1873617499,0.0244978391,0.081100203,0.1681234513,0.1782262537,0.4136410838,0.2184106221,0.7809195151,-0.031560945,0.2811050987,0.5044958484,0.3360538587,-0.0273370326,0.3406213878,0.1777724781,0.2036015176,0.3392029754,0.277049886,-0.0967145598,1.4533435812,0.7020634819,-1.0421376088,0.0719843427,0.236423122,0.2162413895,0.1981248044,-0.2753263877,-0.1303034898,-0.0942271494,-0.1784929601,0.0226053599,-0.1127086054,-0.1521185872,0.2483848193,-0.0786973814,0.2528161745,0.157672271,-0.0767269348,-0.2663636527,0.294659556,0.311409905,0.2013885389,0.4154055197,0.4345553674,0.1139456018,0.4167506984,0.3435594618,0.0764136134,0.4150242137,0.1588121896,0.2176251832,0.5174465795,0.260357095,0.1112838285,0.0122182567,-0.2600399549,0.0091351812,0.131847546,0.1045597986,0.5844819621,-0.0224601023,0.0284308937,0.1233809895,-0.5047407493,-0.0697408853,0.2431706241,-0.0829097423,0.3894474726,-0.1106792391,0.141405666,-0.1182193008,0.9973147965,0.3186038872,0.0396255729,0.2437007146,-1.4846404437,0.2450672732,-2.2460461659,0.7589177923,-0.090408865,-2.0587388418,0.4730982862,0.1439794624,0.2982295618,1.2959856475,0.1622386334,0.1980975574,-0.020366503,0.0994419219,0.3812954789,0.4976029169,0.1826022554,0.1052953097,-0.1477070113,0.1109691327,0.0036542856,0.041238402,0.1287119717,0.0299799038,-0.0211342917,0.2644258199,0.0760273685,-0.3436002559,0.1179980914,-0.1693148338,-0.1442659131,0.4143491153,0.2792200542,0.2236482021,0.2500202746,-0.0161394342,0.0236613199,0.0535317317,0.0400271463,-0.0408663655,0.1374032486,-0.0998052457,-0.0686100585,-0.4205122461,-0.0041620071,0.0720349986,0.7535252654,0.5082606394,0.020233013,0.1492577008,-0.0072746076,0.0448519123,0.2355288268,0.2520497729,0.1700259519,0.2270792511,0.5358400205,0.9076886252,1.4050698904,0.4789499949,0.1148251177,-0.0009472398,0.1394342771,-0.1012429424,-0.1532628538,0.0342212516,0.1235756577,0.2119002055,0.3576923808,-0.0137887088,0.126248563,0.0197922086,-0.1742310545,0.1855225405,0.246614914,-0.3579272856,-0.2117520736,-0.0480604483,-0.1136013817,-0.1527876754,-0.6568758474,-0.3796275173,-0.3270486486,-0.4635481603,0.029628032,-0.0908844674,0.0337783472,0.8038558077,-1.1408142558,0.2139855966,0.9635686943,0.1178807998,-0.0451033316,-0.0616196228,0.0631899233,0.0930187638,0.3121171389,-0.031206262,0.2089898419,0.3169700535,0.2242918363,0.4179612552,0.3716505587,0.0463088581,0.2980354479,0.3290314139,0.0088875286,-0.2669256117,-0.1635841657,-0.0523143548,-0.1572483605,0.1619311224,0.1513586507,0.0481254706,0.0457718532,0.1860197019,-0.0586271047,-0.0642467722,0.2067583055,0.0505330337,0.0469656155,0.0247864625,0.6035364883,-0.0794682703,0.2354070719,0.1155768337,-0.0694998314,-0.0260133488,0.3240459156,0.2211490523,0.1694910446,0.2467315199,0.14163934,0.1598181387,0.1401038174,0.3641825684,0.2913434562,0.0447126055,0.4303606467,-0.2511162397
biasActivation=1,1,1,1
[BASIC:ACTIVATION]
"ActivationTANH"
"ActivationTANH"
"ActivationTANH"
"ActivationTANH"
