encog,BasicNetwork,java,3.1.0,1,1384059223422
[BASIC]
[BASIC:PARAMS]
[BASIC:NETWORK]
beginTraining=0
connectionLimit=0
contextTargetOffset=0,0,0,0
contextTargetSize=0,0,0,0
endTraining=3
hasContext=f
inputCount=15
layerCounts=2,42,42,16
layerFeedCounts=1,41,41,15
layerContextCount=0,0,0,0
layerIndex=0,2,44,86
output=0.6655393276,1,0.9999999901,0.0430366613,0.999999983,-0.4975206245,0.9370299557,-0.9989294395,0.9949554075,1,-0.2936884777,-0.9998871365,0.9767372226,-0.9999886333,0.9553080862,0.2603016823,1,0.9999543543,-1,0.9999537974,-0.9999275349,0.9740987506,0.854683362,0.9996606712,1,0.9997290597,0.8557801377,1,-0.0891773787,-1,0.9966385284,-0.8781589377,0.9965682683,0.9470270563,0.9974923252,0.8360848832,0.5804736685,1,1,0.6143213988,0.9948995699,0.974537939,1,1,0.986453632,0.4861936008,1,0.8560227332,0.9995565483,0.9469154783,0.9948242309,0.9628940303,0.1533195625,0.3390597211,0.8071365377,0.1110283009,0.9041826701,0.5520632657,0.906444465,0.9013439819,0.9912717062,-0.0602508749,0.9997266411,-0.7031660384,0.9861690104,0.9999999996,0.9863064831,0.0930851343,0.9885200114,0.9987501378,-0.0635590785,0.096328802,0.9956533912,0.5930503632,-0.0359958442,0.5930815011,0.319295548,0.9413607056,0.629214495,0.9464078193,0.9632135105,0.3642731516,0.9966137954,0.718055309,0.8500272601,1,0.7354137023,0.7097730379,0.6725799862,0.6759611727,0.6737070484,0.684414139,0.6815964836,0.6737070484,0.6367957622,0.6227074851,0.6413040109,0.6553922881,0.6793423592,0.6773700004,0.6734252828,1
outputCount=1
weightIndex=0,42,1764,2420
weights=-0.1260017906,0.2546120873,0.0844105201,0.0906944059,-0.0982768565,0.3095602072,0.1166848346,0.1237392393,-0.1148091562,-0.1678070558,0.070155131,-0.0669240646,0.113070125,0.6275777266,-0.0507593061,-0.0850368019,-0.0306866961,0.1261860083,-0.0580749368,-0.0688229834,-0.056855986,-0.032178915,-0.0338518388,-0.0868148211,0.2784183994,-0.0311722803,-0.0347959983,-0.0966629835,0.1285187596,-0.0645881151,0.2182743834,0.0519355494,0.1494612199,0.1103586125,0.0383990706,-0.0793034095,-0.1220368648,0.0293211843,0.1376140565,-0.0760315486,-0.0809955059,-0.1996112094,-0.4329654979,0.5858004378,-0.0689161099,0.2893845628,-0.0775473164,-0.4641296139,-0.2342545787,0.1453309092,99.9718943027,-21.1748606516,0.1651127508,132.2982448451,0.103798748,-0.056133711,0.2254153355,-0.0365055091,-0.1764788352,69.4708871209,0.1767852323,15.7229201652,0.2785298281,0.0496010614,-0.1738480413,37.2818434405,0.0564642022,0.0496252099,70.5256962966,31.543174647,-0.2474902316,0.7442650555,16.7016509282,6.1390018647,-16.7009557608,0.0985633191,0.1507406169,0.1507670644,-0.296419357,5.6616902287,0.07757207,0.0313129112,-0.5081358646,0.2096682031,-0.1353007555,0.258865975,-0.234742436,0.1692864708,-0.2418612872,-0.1328184567,-0.4231277757,0.119738638,1.0647636827,0.5227799859,-0.0313494717,0.6025476198,0.0629316374,0.0594477606,0.062526643,0.0565746172,-0.1087015516,0.6965281387,0.0684500812,0.0421088278,0.1900379093,0.0710893923,-0.2792910748,0.2714740259,0.1627088694,0.0210752293,-0.9572802053,0.0327124397,-0.4401929196,0.2191773596,-0.0640854364,-0.0004085548,-0.4626254671,0.03784049,-0.0489143552,-0.0421861499,0.1015479324,0.440309264,0.2659669041,0.0659967766,-0.1900767234,0.1708226439,0.1062627134,3.4840411108,-0.0155590196,0.2162676883,-1.5083612983,-0.362398703,0.0368718697,-0.0489501921,26.0670329442,2.0962309097,0.086787353,-13.2506257346,0.1833263031,0.0914144373,0.2704130478,-0.6258073995,0.259118943,0.1419386546,0.0484234301,-4.7838635701,0.013896878,0.0455306603,0.0842600877,13.1911237448,0.152790277,0.3367894566,-3.2278738049,-26.4471157293,0.1775062994,0.2243147294,12.8198338547,0.1868804374,6.0547427232,0.2627351539,0.1120687999,0.3643184442,-0.6986314664,0.949756359,0.3788380727,0.2416554634,-0.0805094768,0.093704009,0.0039985348,0.4127846848,-0.2637607676,-0.0043171197,0.0287957727,-0.2090077219,-0.1757928616,-0.6142993085,-1.7405499596,0.0303254473,0.1989781679,0.6433192663,-0.2343214854,-0.1613876626,0.1448390039,1.8296161925,-0.3386426213,2.959290359,-0.1342272978,1.8835504891,0.1722422119,0.0796140954,-0.2379880285,1.8961554132,-0.2781535692,-0.2153523123,-1.6030747242,11.2065855435,-0.1614216432,0.0970339272,-6.2492640644,0.3275154985,-1.2494824687,0.2374249167,0.390413682,0.362157286,-0.2403143896,-0.0658551299,-0.2599099017,0.2247663827,-0.1499913978,-0.1609152941,0.4287937894,-0.0096502149,0.3008851969,0.0834895121,0.3796520193,0.0451677013,0.2569554938,-0.9893533112,1.400217319,-2.8567150089,0.2166085939,4.5621937132,0.3382351122,0.1257897807,0.2030680572,-3.6590730078,0.2577155362,-0.292607102,0.0030742581,1.0009128937,-0.0765533238,0.2368806592,0.1995186555,-2.9759710025,0.1831166337,0.1336790622,0.2421951528,4.0773778665,0.3126707154,0.856940965,-0.0847583768,0.0418098674,0.2498342837,0.2483244632,0.0522332285,0.1704292995,0.3851512071,5.6686137384,-0.0291812646,0.2278878425,0.2535187837,-0.4779030662,-0.2104871513,-3.9358591374,-0.9313062718,0.0207779794,-0.2499000681,-0.1783539233,-0.4963726555,-0.0618493862,2.1647609261,4.5852472917,0.1621351552,18.6038231373,-0.0243002687,0.2883646894,-0.0302288997,-0.0899451913,-0.7256042151,-36.1327842411,-0.3908699949,1.5927673593,-0.1095518804,-0.3557826885,-0.4533046104,14.1993333022,-0.1651696763,-0.1028916377,28.8585733539,-5.1036413926,-0.6286937762,0.4155965103,-25.4121685839,-0.0352945086,-6.4619504887,-0.0002746047,0.1626450848,0.0259630514,0.0842949681,0.4331199101,-0.313547153,0.2686580814,-0.3498830015,-0.0366857635,-0.0927680095,0.2240966013,-0.1091161805,0.2325165205,0.1186673502,-0.1373803305,0.139520467,0.0647287787,-0.0189968102,0.1459341441,0.1212691832,0.1114260638,0.3145106079,0.2419708623,0.2157664744,-0.2240089555,0.0812066206,0.2816825848,0.3956909313,-0.0447929618,0.1271717741,0.1569415337,0.1045752411,-0.0656225069,0.154143471,0.2436965172,0.137331581,0.1309012712,0.073291649,0.3403052195,0.3150327903,0.3421436735,0.0309299986,0.2089114751,0.3009467952,0.292516957,-0.3051598782,0.090431167,0.2366444867,0.0288895907,-0.0549397596,-0.2330823379,-0.193194647,-0.0495074481,0.0384460821,0.0870945082,-1.1299310303,0.1630551992,-0.1907263035,0.045857578,44.2570978372,13.8222213784,0.3135098368,3.194923676,0.288832476,33.4513616678,0.1942428381,-0.0249142052,-0.2619077791,0.0737546775,0.2871602591,1.3819266931,-0.0580771858,0.1307081861,-0.3820833232,-11.6436798342,0.1655472534,-0.0505752014,0.1381144528,4.820188706,-0.2858374472,21.5446509432,-0.7693055843,0.2450654126,-5.001220413,0.1901609678,0.2737002082,0.1728869176,0.1292575476,24.6692999163,-0.0473491765,0.0606745138,-0.2240954226,0.1369689637,0.2854426155,-0.2101084138,0.0309697234,-0.1857392367,-0.2154856793,0.1573383192,0.3374339415,0.0555214222,2.0091949015,-2.2841753107,-0.1458762742,0.1324171903,-0.1438755369,-0.9359267663,-0.1829470478,0.325800492,0.2187699222,0.1805327192,0.0749156436,0.0819705266,-0.2433453869,-0.0084873603,0.2748165606,0.8426235819,-0.1437742886,0.1183007145,0.4425244899,1.3985634452,0.1797643998,0.2126179941,0.0572962359,-0.2035673288,-0.0369744503,-0.0980653333,-0.1838064437,-0.0789776746,-0.0127036477,0.016857104,-0.1076324447,-0.1647824727,0.1754531071,0.1995767323,-0.2073885222,0.7120104337,-0.3170854388,0.05649415,-0.9528303205,1.6388074461,-0.4972422967,-0.7123538493,1.4030658805,0.1800756781,0.1967624258,-1.5040612342,-0.0409460905,0.2209745278,0.2360723844,-0.0436764505,-0.1745210965,0.4974429849,0.0492298517,0.978966425,-0.0362629972,-0.4734176643,-0.3690723162,0.4247695133,-0.3902981951,-0.1090377123,0.1433272195,0.8531794877,-0.2686781494,0.4330282235,0.0972770967,0.2355556732,-6.6239555106,0.0313369625,0.106356684,0.0975793517,-0.1999424182,0.8741294162,-0.2449700878,-0.1111681535,-0.3009554413,-0.3583683073,-0.2066646396,0.2880657675,-0.333391628,-0.1511276507,-0.3141515559,-0.3118274675,-0.1762184819,4.3351209717,3.1124152376,-7.0321237391,0.2773679332,-5.2563219909,-0.331639294,0.109088434,0.219385013,-0.4847357543,-0.2717790813,0.3139110774,-0.2715202431,1.7099960868,0.0454127602,0.0253100588,-0.0197521419,-0.9768683015,-0.2464858772,-0.2241318119,0.1665591079,10.8338214148,-0.2230308927,0.3557475715,0.6191354837,0.0956835958,-0.4025563169,0.2731181382,0.2354841715,0.089238974,-0.2130958088,9.7734978158,-0.1511628601,0.3260493389,-0.0803578113,-0.4151107584,-0.2111038869,-0.0918682303,0.2254628091,0.0442886907,0.641347344,-0.7300504992,-0.2364227385,-0.2422572965,2.0857326301,0.6092178348,0.2648881789,0.2438785204,0.0129706567,3.1565627834,0.0502015479,-1.5020226101,0.0153032091,0.1214522339,0.0619539247,0.6831925492,0.0600297496,0.1715411408,-0.2276625997,12.9474936269,0.3162591476,0.0265418669,0.1027761206,4.5190196495,-0.7850835807,-12.4067441283,0.0092796675,-0.0137860567,2.6528337276,0.1840507433,-0.0253786744,0.3138991627,-1.1070738595,-0.0107709537,0.2945668609,0.1127838607,-0.9308058187,0.0208195937,-0.0087119833,0.3010500599,-0.0651406208,0.3476927975,0.3647162834,0.2257819235,0.0003021399,-1.3716968006,0.9670004014,0.9835469485,0.1630459037,2.3577621731,0.3269015933,-1.1338614235,0.1422448635,-0.3161887815,0.2269789199,0.11120061,0.3573677885,-0.2507359123,0.2235079132,0.1377801384,-0.0304044896,-0.4223850877,0.3565876502,0.1240761167,0.1424816807,-1.387379908,-0.060961596,6.1175345341,-1.1724368652,0.095038589,-2.3919915411,0.3693816153,0.4064990145,0.2434037489,-1.1889999782,-7.3371877445,0.3544480881,0.3795976243,-0.005357431,-0.0412702771,-0.2908947359,-0.0503291016,-0.0067892328,0.1152875475,0.1710202479,-0.1979054777,-0.2321707198,0.0719171638,0.882624916,0.3088374709,0.2410187691,0.1092927177,0.2109398536,0.4292920507,0.0350170642,0.1556652166,-0.3000550221,0.436533403,0.2050435965,0.0544551746,0.1698981516,-0.0711490165,-0.5002620059,0.1732924596,0.1885821197,0.1641956833,-0.4877717458,-0.0023355233,-0.3953465062,0.2756659312,0.0353824312,-0.0227333134,-0.4748218659,0.0963860747,0.0912455408,0.0991140768,-0.4777008117,0.3380562042,0.2246523636,0.208871056,-0.3625135651,0.2002050883,0.3618185118,0.0867135553,1.7481548602,0.2095933635,-0.0860751867,0.081782557,0.1950216278,14.5952277883,6.1058084347,0.8831888731,0.1786389083,0.2465989846,0.1060519298,0.4696593776,0.2026363099,13.0337913043,0.6861540983,0.4777180684,0.1993923578,-0.2948064355,0.0687778538,0.1153686229,0.2191225892,0.0039127845,0.2632712981,0.2172822098,0.1745444755,-2.2242369305,0.313984725,0.352483265,1.0649449698,0.1097110628,9.6034007337,0.2350095854,0.0214800608,0.2521197861,1.1092786774,0.1318419321,0.1460032897,0.0489534526,0.4815691399,-0.0320409207,0.4652856039,0.2255150604,0.2618656427,-0.1777032731,0.209250136,0.0247672862,0.2352509013,0.059774527,19.91701626,1.4674562175,0.1224629307,-55.1317952577,0.2119033135,0.1628627077,0.216336022,0.1335903066,0.2905330757,60.6719398898,-0.0894060141,3.3821686202,0.0777549516,0.2939650307,0.1836850571,-40.7340876387,0.3129416018,-0.0236663651,-219.9283415101,42.0340570842,0.4461555328,-2.4916969249,-24.2060933395,1.1083638978,-4.7569144862,0.0261046605,-0.0161304664,0.0483290875,0.1999597534,-8.2296691407,-0.0670774138,0.0633337046,0.2224664261,0.3772489214,-0.2465697418,0.0292696417,1.4965417027,0.2077772833,0.721341958,-0.335326507,-0.2162868777,-0.4019801933,32.5017108741,-47.469231833,0.2837665459,-11.5308570141,-0.0160543938,66.3925782343,0.3474028626,0.1782942654,-0.428250976,-0.1443669967,-0.7444885803,14.9559652415,0.10255179,1.5408606641,-0.1445709845,-29.140808896,0.1974055285,0.0845654248,-0.1039541628,-6.3153037859,-0.3698234065,-10.5437640608,16.5576852245,0.2816066773,-45.383296104,0.3562681072,0.0292771536,0.2264662979,-8.4397917719,3.3833955263,-0.1937866394,0.1968568945,-0.0978576706,-0.1810595564,0.0705241628,0.0211596484,-0.2696491757,-0.0110825826,-0.1428279444,0.1661430029,-0.1888166489,0.046645436,62.5092006366,0.5476781742,0.2853638183,89.7802203576,-0.1369187844,0.3173068244,0.0552410436,0.0056378402,-0.3023212774,43.2273950886,-0.4227530049,11.5313047339,-0.0291249131,-0.0347003856,-0.0685811729,14.8939519215,-0.058722342,-0.1413775042,19.3561411376,8.2990824195,-0.0726995689,-0.6940253863,43.4318430556,0.0218023946,-6.0564183873,0.2138703816,0.2214463967,0.019312711,0.1849915957,0.8065853296,-0.418322957,0.0691674389,0.1399919413,-0.2136850521,-0.168949286,0.0491822931,0.0482946588,-0.2046067767,1.3414123927,0.4504352685,0.0998818806,-1.4353832008,0.2976889401,0.7582043974,-0.037890385,-0.0876201776,0.1408206673,0.100537456,-0.1618230365,-4.9682630917,-0.0164522481,0.1554337981,0.0773437501,-3.6307308941,-0.2160884127,-0.0339161133,-0.2533777803,3.2654750021,-0.0993125203,-0.1682510701,0.2079425888,1.2344560827,0.1079655984,-0.3780117665,-0.1820412377,-0.1525526969,-4.9574382713,-0.2425297982,-0.2361144529,-0.1805687125,0.0606306799,-0.6657639124,-0.1254425759,-0.2442921165,-0.0996422564,-0.4988510252,0.024154905,0.0589457936,0.0914065809,-0.2354897561,-0.4378430866,0.1213037988,0.2245257366,0.1793665192,1.2196753082,3.8345970657,0.1463511568,0.2189845817,-0.1604196239,0.6845520881,0.0780839433,0.0215319766,0.1636627033,0.3306685096,-0.0052733752,0.3539791872,0.2420408491,-0.0902794004,0.1310533244,2.5089386647,-0.0920561824,0.1098335703,0.2489876722,-5.8353424997,0.3499100731,-0.7664937709,0.1555269518,0.020708265,-0.8572338291,0.2291874686,0.084727935,0.0732741283,0.01188502,0.2846433219,-0.0656212105,0.0458085871,0.3281163293,0.0316913418,-0.4199478111,0.2291263253,0.2685283961,-0.0399639994,0.1443524431,-0.3328884108,-0.1578728901,0.2474071878,-2.5010857871,5.3038222527,0.1825333501,8.0602568086,0.2447613787,0.4191425129,0.1053427708,-0.0220171513,-0.4185364103,4.3320279902,0.1262820417,1.8545157042,0.20275863,0.1522722662,-0.133178707,4.9027876388,0.2592289859,0.0693260712,-0.6277438071,6.3894988661,-0.2060560151,0.2018930956,-4.1258425428,0.3691513259,-4.6733414131,0.1955606507,0.0131934808,-0.0365531475,-0.4018146405,-0.5428022768,0.2702935797,0.232040067,-0.4122758469,0.1932482384,1.4308852956,-0.2638219101,0.4032159229,0.4713352968,3.3791094996,0.2500265462,0.1939737077,-2.9393602497,-0.4116703168,1.1908554432,0.2807158554,-0.4836977384,-0.0113166189,1.134063942,0.1971829279,-5.6744864239,-0.0017373985,-0.3299154426,0.1566703969,0.6934780995,0.2325907413,0.1411736711,0.0869075576,-6.4384502221,-0.0418690026,0.0854476753,0.3671779743,18.6900063936,0.1190505321,16.4736113535,14.3907365951,-0.8533839136,-5.3036488779,0.0824589699,0.2943740264,0.2214571668,-3.1978703984,-2.8613085085,0.2485467221,0.4499336326,0.0669326922,-0.4329745665,0.2680066495,-0.2685868373,0.4143995951,0.2185342589,4.7212442185,-0.1218236041,0.2434152775,1.5501875332,-5.8437113107,3.9152201397,0.111109082,-7.9612519502,0.3404118999,8.5227129754,0.3314739503,23.0307817667,0.0608720582,-0.0045514255,0.0565370158,-7.070916095,0.1679114473,0.6020387642,0.2762225248,1.5253918443,0.1866363015,0.0330301019,0.1642286073,37.2329057462,0.1647148535,0.2102358255,2.5709759227,0.2673764557,10.8412633501,0.1475542913,0.3130035892,0.2110440934,13.5752897739,0.3369344518,0.2516787963,0.1634413854,0.1934498486,-0.4108616392,0.0891107032,0.0666923858,0.0231953635,0.0623672773,-0.0497947243,0.0642161281,0.3590503824,0.2082238074,0.1617575149,0.7313804271,0.2691045101,-0.0521673236,-0.1792611625,0.3507842677,0.0214837149,-0.4413445245,0.1304207491,0.1970005736,0.0685269951,0.1038700617,0.2142953783,0.2095275625,0.3004345594,0.3712867299,-0.1484109784,0.0215462909,0.2569573343,0.3476528592,0.1193727685,0.8177819085,0.2408216318,-0.0462591054,6.372048068,0.0722533517,-0.0858303873,0.07386156,-0.0194430256,0.279030512,-0.1437752033,0.274595345,0.3158004457,-0.2978099057,-0.1859178083,0.2292777153,0.2363160504,0.1265532451,0.3112537606,-0.0776784057,0.0019766484,-0.6694457979,-0.1117795362,0.362154055,0.1049546615,0.2571868324,0.3287876592,0.07671924,0.2063346266,-0.5331085129,-0.1271945074,0.180971959,0.0197561111,0.1172503983,0.0316181262,0.1684395483,-0.2318266047,-0.2741242991,0.277127236,0.0228436438,-0.0766457985,0.5690590444,0.0848407306,0.1422093045,0.7862352486,0.3414978754,-0.0704007804,0.0264130824,0.2534506452,0.1462818927,-0.2015038184,0.1871359334,0.2147138676,0.1352976975,-0.0713595093,0.2745184174,0.0610023922,-2.2734282532,0.1963391234,-0.0883172837,-0.8529003919,-0.0040439238,0.0820238247,-2.4658021507,40.0496056818,4.6771008676,-0.0647601518,-31.3320861206,0.2717063473,34.6845610297,0.2820807125,1.7652176006,-0.0692593416,-5.5222985847,-0.0436089709,-9.6162699801,0.1552916233,-0.0006306993,-0.0145803675,46.46748833,0.3175913781,-0.0695762119,0.2633172047,23.707497298,0.3531321064,-21.0870038784,-5.4533111586,0.03946196,-5.8778112477,0.1068986813,-0.4339700664,0.1400730121,23.5374133702,4.2146070804,0.2624435616,0.2186392153,0.1614715483,-0.1448384182,-0.1862333226,0.1700993985,0.1481179095,0.2224689574,-0.0137879191,-0.048523812,0.2634558521,-0.2725724859,-2.0148007984,0.2256873296,0.1964644674,-1.7743262519,0.2641029926,0.2936447935,0.1133763227,-0.260690642,-0.0014071433,0.3290359364,0.123177726,0.636226563,0.366220748,0.2776236726,0.013160952,-2.7598261788,0.1430479091,0.1919689416,0.3297479863,-0.8030643063,-0.0940356118,0.0675450551,-6.4743865341,0.0475143669,-2.5756545546,0.1615145429,0.2596308002,0.0262606583,-0.142068081,0.2202973137,0.0611537166,0.10844772,-0.2293018535,-0.1618270349,-0.2367831082,0.355510651,0.0775975856,0.1519259436,2.0968519184,-0.4422477258,-0.4574403803,-19.0965081872,-17.1864847484,0.10354074,0.3757010113,9.2338255774,-0.0417704289,-0.1808807221,0.1106529579,-7.9352804574,-0.2862706667,0.3053713215,0.1111606147,-2.0270570085,0.2323580711,0.2095294445,-0.5221116755,-3.036867438,-0.1602861736,0.107167029,-0.2023002375,0.1324094167,-0.5266729318,0.4397519372,0.1524860661,0.3217191273,5.7372751871,0.3700314003,0.1446024164,0.192490837,-22.1642607557,0.2192233023,0.0665945326,0.0117780511,-0.4894664349,-0.2437665395,0.0712092215,0.1929283341,0.107380945,0.330153053,0.0964281918,0.2770274614,0.0205396375,-0.0877146299,0.3446518031,0.174160901,0.3309336836,-0.0256780969,0.089120934,0.6493900594,0.2905601519,-0.0477132785,-0.0806497693,0.4307782742,0.1615410111,-0.0519270006,0.1682544959,-0.0208671144,0.1746540218,-0.3374608409,0.1006076795,0.2421313249,0.2639767637,0.1510696458,-0.0181100948,0.3327287697,0.283628783,0.1596797392,0.4144449197,-0.0221814627,0.0856500327,-0.0048540218,0.2943132829,0.2324997018,-0.0406489178,0.1384844016,-0.0786732619,-0.1927555108,-0.0328420614,-0.0714558695,0.031517844,0.1060603641,0.0418241164,-0.7426197706,0.063601949,-0.6780043996,-10.313384524,13.3382358364,0.0350967369,-0.385350802,0.0048625819,-0.4917189147,0.3061787536,-0.7425731758,-0.1439876948,0.2167115662,0.2923728071,-0.5172092111,0.2520564749,0.1101102954,-0.1807504205,-3.6451203391,-0.0367279449,0.2885667711,-3.4640342951,-2.4838046009,-0.1544385671,-3.3790099614,0.2461275906,0.0803280386,0.1201221051,0.1136307839,0.018070221,0.2041945903,-0.5695085305,-1.6114646785,0.1211019664,0.0795463209,0.0106830691,-0.2962335678,0.1381103842,0.265639268,0.128390632,0.3087605566,-0.0815727258,0.1819313555,0.058134425,-0.0530339087,0.2965639109,0.1639849509,0.3358870101,0.2208983434,0.0497216931,0.396572387,0.0516767911,0.0894225067,-0.0811374466,0.2459591476,0.244706487,0.0809976041,0.0295836573,0.0730254637,-0.0280490277,0.57550645,-0.0411034073,0.2812586276,0.2204772374,0.1585017481,0.0175241919,0.262255922,0.0321471274,0.0259873108,0.0287175679,0.2865474859,0.3441271333,0.2252726752,0.0606795608,0.3693734156,0.0343692685,0.2366797085,-0.0818914759,-0.0461114133,-0.1279136589,0.9093307578,0.169131767,0.0422485617,-0.095295966,-0.4173298201,-0.1146841273,-0.0667241611,-6.6623771865,-6.6727316678,0.2852728751,-6.771323267,0.3128183937,1.7837704787,-0.0548521366,0.0589709527,-0.2850849463,-0.411607512,-0.019558614,0.1499601835,0.3008749395,0.2793757395,-0.2466990038,19.1463688078,-0.0036657877,0.0949798635,8.530652529,-15.9927000118,-0.3556940062,6.8815134415,3.2622908956,0.1721100942,2.1385889197,-0.0089119029,0.1593501347,0.215147284,-0.1741194087,0.5062874836,0.1270404789,0.2586539652,-0.3253173986,0.0009969387,0.1556713989,0.1358585505,0.0164156905,-0.0013155181,-0.0701368107,0.1628497083,-0.0946400922,0.2011544017,0.0946554898,0.3492056584,-0.0383457454,0.0164948791,-0.0117446503,0.5332509894,0.2331169416,-0.1516425934,-0.0067405706,0.1448338519,0.1931276972,0.1526422569,0.2642557187,0.3175537712,-0.043478807,-0.1796337432,0.2105490003,0.2548257282,0.0516548507,0.3664951726,-0.0665897171,0.5532350323,-0.0310915926,0.2315010547,-0.1502371829,0.1992582746,-0.0169264915,-0.0268881995,0.265451084,0.5613496686,0.1336767849,0.076715993,0.1497831254,0.0963460722,0.0231028828,0.3345995625,0.0433329291,0.2060281809,0.4750812419,0.2028346896,0.1791586193,-0.944692308,-1.7598504739,-1.6804839998,0.3649206297,3.8889617443,0.2981693967,0.3295927193,0.290497595,-0.1146930738,-0.0722300475,0.0718505721,0.0463169429,-0.0604193764,0.3287911594,0.1693345857,0.1585036218,-2.5445329999,0.1495008211,0.1730594658,-0.1952724709,1.1533562388,0.0322032691,0.3124509119,2.4246400532,-0.1433920728,-4.3526894422,0.1305907728,0.337346469,0.1416608016,-0.5688984129,0.3968171734,0.1816101489,0.3346321062,0.1516319422,0.2277860029,-0.3029212298,0.0641764327,0.0289510112,0.0715161426,0.1018894616,-0.2227024692,-0.0799190918,0.0288770202,0.4283632916,0.0384235964,0.1913790743,0.3420098897,0.0361441584,0.3066324697,0.1931687763,0.0802706543,-0.1897348504,0.3542116135,0.0570424482,0.0228444414,-0.0618633866,0.1606030451,-0.0610844881,0.5219128969,-0.0072213984,-0.0353895896,-1.6444157844,-0.4551975655,-0.3685671588,0.3809536664,0.1226976036,0.309121948,-0.3824532994,-0.0174710707,0.1733920661,-0.0442695212,-0.3329989968,0.4143325485,0.2855604758,0.1346176581,-0.1087067091,0.2575914902,0.3869588394,0.1976277403,0.6195563968,0.2257817082,2.4897678559,5.6011784925,0.2866453085,5.7035656977,0.8397221051,0.7913188648,0.0378664965,0.4954122365,0.7592769621,0.4248929815,-0.0432495861,9.8262787071,0.3435805268,0.2960836756,0.1061740633,0.7268426045,0.1383032769,-0.3032183236,0.2202170385,13.0121089236,0.3420050687,0.1520601728,0.3962854916,-4.0677776719,0.2372709033,0.1350550215,0.2361456934,-0.0774958486,-1.8202141577,0.1022509891,0.2135472865,0.0741323378,0.8774372748,0.216741131,0.3257573445,0.0079168395,0.3950614638,-0.2961452082,-0.1407620115,0.7048070083,0.1056605552,0.1572892621,0.5011901946,-0.4548403565,-0.2775209729,0.1490876721,37.0778967398,44.4491899143,0.1243945244,38.324226152,0.2754931561,56.4047155752,0.1937893745,2.9601245722,-0.1722790753,0.5731322327,0.1835481612,13.2358711081,0.0265481206,0.2146766904,-0.1366602907,27.470477739,0.1399993923,0.1053920847,0.2760459174,2.5806180169,-0.2736313089,6.8377142747,5.6463295906,0.0507167307,9.0970159223,0.0765821106,0.2629418291,-0.0381197265,-0.3926705603,34.0551728402,0.1853768942,0.182205438,-0.4636517408,0.0971817777,-0.2341988741,0.0037223098,-0.2528866278,0.0941655926,0.3042683996,-0.3778459926,-0.3682411852,0.0671129462,0.1657319701,0.2268577422,-0.0282155857,0.0891416489,0.1868163107,0.2194923067,-0.0191440897,0.071485621,-0.4002914292,0.3847541283,0.0146679693,-0.0861768566,-0.0356859879,-0.0632293189,-0.1050556707,1.1499847327,0.2545948776,0.2616787328,-1.6152501999,-0.3751125708,-0.1682052132,0.474236825,0.2843379843,0.2385130025,-0.275040434,0.1145244367,0.1428756331,0.0273253831,0.1617380802,0.3500106034,0.2577765927,0.2222799344,-0.3892082373,0.156523529,-0.0212926889,0.2132293571,0.0858189224,0.1515800239,-0.0158091903,0.0653402649,0.1219263576,-0.7746883652,0.1868972091,0.1133154554,0.0128815379,0.1898879363,0.0422501824,0.9390112918,0.014286044,0.1648470637,0.2384172198,0.4308155577,0.1367274987,-0.0824428669,0.1960742889,0.2054707599,0.0708842579,0.9210979513,-0.0639435748,0.0403525671,0.29549053,0.118255408,0.2356497038,0.5790869015,0.1235417634,0.2979501611,-0.0767554292,0.2275647404,0.3008448367,0.2141548507,-0.0474959275,1.399447747,-0.2851612303,0.0201886813,-0.0084438648,-0.0002240811,0.2821893965,0.146353471,0.2580057319,0.0606935033,-0.7469080282,0.3257904728,0.2793723461,0.1399136751,-2.8681121757,-0.3337023978,0.0188633543,3.2963832216,0.097798787,-0.3355177941,0.1784340376,0.1491041167,0.1001155874,0.7831292615,-0.246382876,0.9863982608,0.2407679051,0.2626755736,0.0812509042,11.0057167167,0.0086086546,-0.1544983369,0.2065668565,1.2194497343,0.1775268497,0.3517339668,-2.3222691962,-0.064590773,-1.8081101539,0.0848728544,-0.0382707884,0.1757738372,0.5256095214,1.0799100056,-0.1213135442,0.0510746702,0.2361621042,-0.2533308385,0.0643640446,0.2683007082,-0.0399450834,0.1836104956,-1.0626428371,0.270082708,0.158576417,0.1616021903,14.112998487,9.8347273909,0.2669224333,25.0669774139,-0.1109360796,19.2795336624,0.1939652606,0.9900764129,0.0493094129,0.4339369466,0.0964615891,-0.3962734121,0.0817820597,-0.0578312011,0.1899059089,7.3740104703,-0.1142626798,-0.1697157014,0.4800811339,-64.3176388481,0.2972533299,0.0198422699,15.5969840604,0.1546636283,-15.5044749888,-0.0954597743,0.2129376201,0.1334794244,7.119283689,6.7778061629,0.0067993823,0.0403997868,0.3790761735,-0.1879061751,0.1078342599,0.3276010862,0.1636287895,0.3062688076,0.5130117956,0.1726093013,0.4756344736,0.4284957937,0.5100840179,0.1863533939,0.2682356475,0.1925989954,0.1069408581,0.0708816046,-0.0497886479,-0.0377830094,0.1234866169,-0.1775496115,0.2134511172,0.0762667557,0.1495518641,-0.0664045184,-0.2081228173,0.0257607503,0.0907708675,0.1468538361,0.2165785641,-0.1239113216,0.0835220605,-0.0871920735,0.2301573406,0.0807437551,4.5254768869,-6.437040774,2.3333613287,-6.0005548395,0.4361618446,2.1731183949,0.1816955514,27.4999644504,-5.9711227681,-11.7864548662,-5.2696385171,-1.0874863459,7.3999643117,7.7655866105,12.1670802516,-0.8845286484,0.0324487944,0.2374280693,0.0662404759,0.2455928548,0.3382177725,0.2337737429,0.0663809587,-0.0618950324,-0.0525983946,0.0757498023,-0.0143810864,-0.0318560806,0.1887029047,0.3647340453,0.1412662614,0.0299569237,-0.2184402702,0.1262777868,0.5332738081,-0.6183816436,0.1833110279,-2.5745580036,-0.6947201806,-5.2178604585,1.2689128455,1.5231730446,-0.5641229185,-4.0351122489,5.131206259,14.8216951227,-2.9251217122,-0.3412745443,0.2973181641,-0.0273990009,0.2008143252,0.2781804954,0.058327414,0.2030508029,0.1253998532,0.3088877,0.4914248303,0.3624149687,0.3610477961,0.1972360007,0.0943178639,0.1971873607,-0.258891537,-0.1158108718,0.4426189979,0.3115736277,0.1484646189,0.3788991344,0.0635874554,0.4068431885,0.3956100391,0.458886225,0.337043061,0.2049654074,0.3640420312,0.3857922084,0.4416591665,0.0734705012,-0.0499532191,0.0297090539,0.4254855002,0.157661799,0.4043239096,0.0112892958,0.8746931458,0.0477367225,0.2467885052,0.0685854299,0.1520120579,0.2419933108,0.2860196676,0.3236259668,0.1336747121,0.0257604879,0.022739272,-0.3231525536,-0.0950186936,-0.063195483,-0.3774667176,-0.2352379249,-0.0265720907,0.353854879,0.154253905,-0.0257920727,-0.0407998796,0.088659672,0.0018782157,0.3205458617,0.2217451042,0.087908386,0.2679360935,-0.2610231108,-0.2839170854,-0.3692110566,-0.6967383688,1.0304546717,0.2587092665,-0.234437293,0.4074806518,0.3808802981,-0.0877563105,0.0381334704,-0.0086234866,0.3082857545,0.096187758,0.2260284249,0.1500347735,-0.4361014297,-0.0028089005,0.0920668274,0.2118589384,-0.1124999431,0.2693127623,0.0481147907,0.0978701202,-0.0392053172,0.231825356,0.0118736959,0.2405235427,-0.0573086542,0.233639954,-0.0741246303,-0.0570474077,0.3925646063,0.3775836352,0.165372137,0.1621948676,0.4363434623,0.1545014354,-0.0423439101,-0.3039835807,0.2928779968,-0.1175952489,0.2120895127,-0.323632337,-0.3315424553,-0.3155417748,0.286269918,-0.1118439961,-0.2894166314,0.0894554424,0.3603849782,0.1569376069,0.2654621354,-0.0560131663,-0.074144304,0.1526001663,0.2394007488,0.1208264008,0.2240492153,-0.0072051039,0.1177879772,0.2742551393,-0.0429290224,0.3922650577,0.0008619281,0.1651883471,0.294826284,0.1849031326,0.1949499047,0.3797311922,0.2834275174,0.1589618763,0.1941802783,0.1754081191,-0.0196359846,0.0221661512,-0.4130055573,-0.6740528322,0.3514969861,0.1687587819,-0.3913494226,0.0019455631,-0.0099469971,-0.0137948724,-0.0078817971,0.028697215,0.2932281348,0.3337861018,0.2296709482,0.2300856626,0.1862928066,0.0801164088,0.1032894589,0.0487423889,0.0193043041,0.2261781961,0.3450932785,0.4497431277,0.3173474426,0.3041600943,0.1162181109,0.3918441021,0.0522967171,0.0000924903,0.2206213028,0.1202559753,0.3251670708,0.0889575185,0.2313624623,0.0527096071,-0.2825049943,0.1781813805,-0.2604459926,-0.6630397168,0.5264336962,0.2031691021,0.3240264326,0.3182919631,0.4234569048,0.185345386,0.3613888734,0.5652013275,0.291124967,0.1630890456,0.5672680192,0.3806124567,0.3551087528,0.0850038888,0.0252800886,-0.0291151184,-0.3363195602,-0.2769275998,-0.3682370715,0.3118613901,0.1886089036,0.0736773471,0.047127102,-0.0378381622,0.1271038154,-0.0305556821,0.242910085,0.2623205694,0.2917891428,0.0495871517,-0.3900968614,1.0259637402,0.1166662751,0.2972614608,-0.5224998198,0.3003722499,-0.1426695018,1.0527086777,0.530511031,0.4780499144,0.4296005252,0.0292253089,0.8673070698,1.4315040731,0.1689556941,0.5059722956,-0.00160433,1.3269083938,-2.0661224038,-1.461260813,-3.9151619374,-0.0361281668,-0.7568908742,-0.4349322298,-0.1456302255,-0.0065683297,4.0405424563,0.0735661919,3.2790152734,-0.3050347392,-0.2550428218,-0.3679541661,0.1030130261,0.2580426947,-0.0178991277,0.0372994041,0.3457549151,0.3406189735,0.1821434088,0.3847490436,0.2957432633,0.2677928667,0.2616521001,0.0908275895,0.2895980438,0.0148805763,0.3570644012,0.1180261121,0.3190652382,5.1998042793,-0.5020120252,7.1081587381,8.0698151965,10.4196683586,-5.3874121903,-1.1970348866,-3.1555296309,-5.6262435377,-10.0574889808,11.3585554489,6.4205106557,3.6374729318,-4.9852849005,-5.8791002537,0.3337759778,0.1004356502,0.226514309,0.3876414214,0.492643375,0.3722861919,0.0302940523,0.1459914044,0.2618561585,0.2294600223,0.1553064817,0.2056628815,0.1749565827,0.3995258204,0.2876455172,0.2216074579,0.0078439642,0.1024071051,0.1700154903,-0.0597842158,0.1991009262,-0.1863742165,-0.3146727787,-0.2338363954,-0.2619101136,-0.3506670254,-0.4382356069,-0.0341660883,-0.069281629,0.153549616,0.2051520409,1.1014887155,0.0582238627,0.1860040371,0.0084780704,0.0376154229,0.3962769793,0.2941017132,0.0333961892,0.4740451438,0.3385479642,0.4298786396,0.2763048707,0.0986993667,0.3248454543,0.372589703,0.3511293265,0.2308243231,0.0007078489,0.683505989,0.2567061246,0.1019789959,0.0502765166,0.4460317289,0.2935019634,0.8750301464,0.4014296432,0.3499332331,-0.128483259,0.2923766856,0.3436288179,0.8186018671,0.3765402649,0.1782413827,0.0462074121,0.0425855592,-0.2136079301,-0.3512787373,-0.45974043,0.3337294336,0.2793560794,0.3083707232,-0.0170346141,-0.005175091,0.0241495142,0.0823601588,0.1893323483,0.2384027765,0.0210586721,-0.0030378586,-0.3738824983,0.5053033978,0.1420272204,0.1330378046,0.1464077472,0.0523908961,-0.2379682965,0.2357419869,0.0117745233,0.096073602,-0.1929781796,0.3244042941,0.3174092311,-1.7335916172,0.2725931825,0.3629168214,-0.2136921958,0.2678681862,0.4189722006,0.4325608371,0.2375512364,0.4809404971,0.4968354803,0.3772837294,0.2396008996,0.2486011031,0.2623933186,0.1412653539,0.3834910347,0.3749369819,0.1656234292,0.0645608949,-0.0378505398,0.1752426107,-0.001689138,0.3156292417,0.1813639053,0.0351541793,-0.0676866818,0.2340180315,0.1042982475,0.0816602178,0.0827660626,0.3050962088,0.2127650878,-0.1182571767,0.0288802928,-0.0619188317,-0.3235015404,0.1376080377,0.0143317598,0.0874878495,-0.0140807363,0.3326954754,-0.0843685735,-0.1694814951,-0.1143536709,0.0158279145,-0.1578253137,-0.2569254911,-0.7093769649,0.2386544344,0.0703841984,0.1227323915,0.2548876303,0.1546623253,-0.0459030084,0.0889101388,-0.0677904068,-0.165556652,0.1637212869,-0.1456397611,0.1052742608,-0.0387584418,-0.2081628256,0.083609744,0.0815143075,-0.1594188532,0.2301946184,0.6185473172,0.1981880591,0.2509181072,0.3051715594,0.4118257139,0.1733019272,0.4047902816,0.4639535534,0.4298519179,-0.7126890173,-0.0665453561,0.1421560463,0.0692140547,0.2701154986,0.4936085951,0.2621409639,-2.3851389106,-0.0417356623,0.1075072129,0.3133240502,-0.006110482,0.1031309281,0.2351283627,0.0311582192,0.2463020125,0.1876153504,-0.0266353028,0.2661119229,0.0973707094,0.3313865264,0.1457850128,-0.0154840029,-0.0030119834,0.3939043734,0.0032730841,-0.0541419772,0.0617450682,0.2059400294,0.1591552154,-0.1254158287,0.0642355448,-0.0676583187,-0.1129389512,0.1775091461,0.3067722938,0.086839163,-0.0480142638,-0.0863976105,0.2219214649,0.2252402887,0.2486310309,-0.262217357,0.2451863377,0.2584982726,0.3481593892,0.027312102,0.0431504194,0.1012652788,-0.0025796865,0.3456926781,-0.0364270067,0.1951595632,0.3695942065,0.0731228408,0.29121467,0.2940186992,0.331662775,0.4052911944,0.2076983785,0.3692209603,0.3663806716,0.2540769842,0.2173033561,0.1931267202,0.1884074074,0.2822148351,0.395469743,0.075570756,0.1768445429,0.3511183832,0.0287510231,-0.607390285,0.1904502438,0.2408833226,0.2881109332,0.2806463377,0.0574423586,0.1148855176,-0.0458389505,0.0016437111,0.0111338484,0.0460992673,0.0052103569,0.0591282117,-0.3996666507,-0.0251688751,0.1789737163,-0.309760386,0.5876894938,-0.1274073278,0.4313680428,0.3685085978,0.3234313758,0.0994853875,0.2721867226,0.4544065211,0.2200746843,0.2116352171,0.0879644242,0.2295141586,0.4606587111,0.3917884168,0.6204397636,0.0561981531,0.0001284405,-0.0173443997,-0.0701794329,0.166468014,0.089896661,0.1753933712,0.0595361155,0.0673441217,0.1461743973,0.307081756,0.1439088781,-0.0723034754,0.0822360181,0.0449077438,0.0372378664,0.1433846173,0.1769797769,-0.0943221596,-0.1516063004,-0.1839320642,0.1603455161,0.1542434593,0.1716346872,0.0036058084,0.071038925,0.445207318,0.0321691009,0.3679515841,0.1492759522,0.304248657,0.2336749217,0.0372211478
biasActivation=1,1,1,1
[BASIC:ACTIVATION]
"ActivationTANH"
"ActivationTANH"
"ActivationTANH"
"ActivationTANH"
