encog,BasicNetwork,java,3.1.0,1,1384059229890
[BASIC]
[BASIC:PARAMS]
[BASIC:NETWORK]
beginTraining=0
connectionLimit=0
contextTargetOffset=0,0,0,0
contextTargetSize=0,0,0,0
endTraining=3
hasContext=f
inputCount=15
layerCounts=2,42,42,16
layerFeedCounts=1,41,41,15
layerContextCount=0,0,0,0
layerIndex=0,2,44,86
output=0.3754591029,1,-0.9363213296,0.9999997902,-0.9860339023,-0.8052825494,0.9999999573,0.3826939599,-1,0.4350457938,-1,-0.9916179703,-0.9999965335,-0.9811634604,-0.9999999998,-1,-0.9519324629,-0.9800857994,0.6322962459,-0.9849168413,-0.9708928905,-0.9649393596,0.2990424273,-0.9999937842,-1,-0.9999964447,-0.9999999908,-0.9997369098,-0.990275077,-0.8964129779,0.575409873,-1,-0.7859315939,-0.9564837592,-0.9478685098,-0.8954007506,0.0053018384,-0.9120763402,-0.6537062741,-1,0.8613787954,-0.9999971287,0.8615781682,1,0.2241689388,-0.7945959853,-0.4222553953,-0.2138678059,-0.9869746653,-0.7321558133,0.0328011605,-0.3499794451,-0.1224353737,-0.8888456461,-0.5544319017,-0.8219028998,-0.032597469,-0.2379263009,-0.4785990195,-0.315907762,-0.6396045376,-0.4353474379,-0.5781003301,-0.5656071355,-0.8827670708,-0.8429659701,-0.7828078479,-0.475369702,-0.1574919991,-0.4825167964,-0.314034448,0.0815392834,-0.7398026902,-0.4659448519,-0.0997455246,-0.7833599602,-0.6614721188,-0.1364625396,0.091911871,-0.4486957928,-0.7897555875,-0.4452002552,-0.7332292712,-0.0286517208,-0.8918487734,1,0.3804730242,0.3804730242,0.3804730242,0.3771063042,0.3754229442,0.3703728642,0.3754229442,0.3737395842,0.3787896642,0.3787896642,0.3686895043,0.3737395842,0.3737395842,0.3720562242,0.3720562242,1
outputCount=1
weightIndex=0,42,1764,2420
weights=-0.1306355055,-0.0902803086,0.1364318411,-0.0482998044,-0.0427724252,0.0401536713,0.2919649088,0.0651728829,0.3237640965,-0.1562086464,-0.0424573454,-0.0889067283,-0.1639139879,0.2349332938,0.1504549547,-0.1830011687,0.0232799452,-0.16414595,-0.1331493352,-0.1881296437,0.0207803366,-0.0520765352,0.0993316351,0.0253527746,0.1454216485,-0.0682466499,-0.1452510167,-0.1622557421,0.0307118007,0.0943392277,0.0719611289,-0.1401135832,-0.2057342426,-0.0524931436,0.0518390733,0.1149010953,0.0713352747,-0.418409394,0.0752014398,0.0715052084,-0.0904606183,-0.2348509243,0.0177525362,0.2260755066,-0.5884619448,-0.0847743223,0.1129266542,0.3021362979,-0.4150257547,-3.2879101645,1.3938194688,0.3131488106,0.002029822,0.2846870838,-4.7408294229,0.0731534096,0.0711562817,0.1367222156,0.2661595155,-0.0905610581,0.0233641057,0.1389062007,0.200605827,-0.2263833067,0.0740915909,-0.0196540745,-0.0696597354,0.1435136879,4.8402509676,0.1619986896,0.2950395391,-0.0514959932,0.4537590925,0.1998004152,0.0868228938,0.2683180787,0.3144387197,-0.2157076868,0.0283732308,-1.0886741066,-0.0026454144,0.3040977225,-0.0018628205,-0.2483820193,-26.6876097969,0.120112248,-0.0441387427,0.3684591981,-0.1793108448,-0.3297452539,-2.7183258589,0.6939240255,0.0945322301,0.0318412634,-0.9811264557,0.0428896396,-5.6751466234,-6.4745310146,1.8929096258,-1.1568702089,-0.1083706473,0.3479263276,-0.9787188539,-0.2227936028,-0.0666098123,-0.1522411272,-0.3899883355,-0.0813092114,-1.0141029984,-2.1063828177,-1.0926931579,73.4922373537,-1.0378112084,-0.218971772,15.0528651801,-0.0724673001,-0.1783571215,-12.3934179465,19.2355217129,-0.0402872194,-0.2191818019,-0.481979372,0.0680238478,-1.0102924836,-0.1031478889,0.3014310511,11.512145151,0.6677681988,-0.1912166131,-0.1417294792,0.3756053451,-0.1928825075,-2.917819394,-3.5083209172,0.3796989852,0.2978763604,-0.2099873854,0.6159993405,0.1635661063,0.5340692936,1.2290302863,-0.0887024627,0.7097588518,0.5065485698,-0.1922784569,0.3678505278,0.464041635,0.2275598066,0.2563487185,0.4836222626,0.4861483638,1.4766147792,3.848801834,3.0618395924,-0.1766437134,0.1202865278,-1.0662602847,-0.1640933642,0.1055922048,-1.212219394,-0.0054104185,0.2543756353,-1.2038038376,1.4331090578,0.5882941053,-0.4783986569,0.130144363,-0.6666365579,-0.3566465625,0.5018071096,0.1771371999,0.1858787412,0.1523104687,0.1387232681,1.2313416958,0.081181832,-0.5760877626,-0.1622591132,0.1220883314,0.4458774742,0.9097250483,-0.0290099781,0.4196867231,0.1561970694,-0.0711226163,-0.0206217328,-0.0259886197,-0.0634130987,0.3615358295,-0.3012807931,0.1345214528,-0.3807793673,0.3590520625,0.3491921781,0.0512043151,-0.1986082183,-0.0823151919,-0.4197623697,0.2974709572,0.3421786571,-0.1377670595,-0.1160334646,0.151581309,-0.1524483351,-0.103363423,0.1359152942,0.2570345812,-0.7990082515,-0.3241389773,0.0607834944,3.926199171,0.1141233477,3.8470037553,-1.7033390175,-0.0023041377,-3.1517446452,2.1995256773,28.9901213003,6.0248497676,-7.1037250436,0.0087105917,0.1012363739,-0.1238766899,0.0529330589,-5.6308459874,0.0988390592,-3.8722906365,-0.0582964901,-0.1548718774,0.2844951718,0.1103304123,-0.8914722696,10.4348285277,-0.8105014529,0.0949724675,-1.0714555755,-21.1919368072,0.125681206,0.9892118789,-0.6701234171,0.1197966282,0.0342129984,-0.3935373369,0.0665681184,0.093732613,-0.9581537007,-1.4824076797,-11.0154224663,0.3170165677,-0.0698527734,-0.6626156177,-0.2134292827,-0.3120523481,0.2583654172,-0.0965768926,-0.2528342602,0.3216214339,0.0894711513,-0.0787980732,-0.0640100402,0.037829656,-0.2669407826,-0.0498007736,0.2890040089,0.7819319022,0.2114178563,-0.2178252107,-0.169978386,0.0446353137,0.1107556623,-0.0229640737,0.4403618808,0.1769178468,-0.5040741489,-0.3240935333,-0.593058861,-0.0092507385,0.0344529629,0.1387255456,0.2016611447,-0.4796443541,-0.6134636398,0.3052825126,0.4065021171,-0.0550182073,0.3190476618,-0.285832358,-0.5971674729,-0.0266871587,0.3881086397,0.2231393117,0.3495204379,-0.4977713297,-0.2525832115,-0.3174761228,0.2965172325,-9.5986206081,-1.5751966582,0.4066569161,0.1005135369,-1.4607151354,4.0367736651,16.435171649,0.511481493,-0.1295190959,0.2376474442,0.0088140534,0.0855849479,2.2633779345,-0.0373910752,-0.031444188,-0.0915878445,-0.0254474409,0.3873296246,0.5113412985,-0.2427880232,-0.1928429472,-0.4303390917,3.7829246673,-0.6668485843,8.4564132428,0.0478231946,-0.2634686473,-0.409400416,-0.0158907457,0.3821749395,-0.1959998266,0.3777138215,-0.2382802334,-0.3045699333,-0.4795959763,35.704295596,0.2715271638,-3.1410598783,-0.4708212371,-0.6060360694,-0.3267883441,0.2148923618,-0.3898234238,-0.076220988,0.1708534889,0.072549723,-0.1250572221,0.0287248189,0.0956517913,-0.0070823203,-0.1041691966,0.3345549407,0.0377622457,0.0291827214,-0.000555243,0.0859030364,0.0033853887,-0.1261833939,0.0608309799,0.0832221097,0.3208057943,-0.549776852,-0.3129797616,-0.5907766549,0.0794986674,0.0014359133,0.1611571513,0.0267245164,-0.6347970994,-0.5642031304,0.1259403899,0.5247442882,0.0021829679,-0.0050843155,-0.0368484683,-0.5873585208,-0.2614295795,0.2135026215,0.4630022118,0.6802762046,-0.2913256066,-0.172738222,0.1181766478,0.4927553548,-3.1876857904,0.1894709711,-0.0390077699,0.0285268717,-7.5763827527,-1.2594051509,17.2619336536,-0.2030728017,-0.0083734863,0.3909469489,0.470905046,0.1086447099,0.6149570358,4.7071220935,-0.25454352,0.3876671972,-0.1023489938,0.3949769222,0.5485528565,0.1719756498,0.0907833404,0.1891347639,18.6048926793,0.0714319078,-0.1268928583,-8.5356420136,0.2107844607,0.0879077816,8.3565086727,3.7144061295,-0.2170747419,1.9621707992,-0.2767717505,-0.0267925274,0.1345283613,32.9553722948,0.3848459129,2.5572404025,-0.0410262293,0.0134955321,0.1711066701,-0.0000476942,0.5383876113,-0.2473493739,0.1849583381,-0.0150004608,-0.8004992074,0.7007705559,0.4403466986,0.2036337662,-0.0092308522,0.2740888726,-0.0017793238,0.4157596628,0.2203538611,-0.0137154426,0.2374128084,0.2278107445,0.0890296792,0.4107787443,-0.0149445671,-0.0893604762,0.1665152828,-0.0459344393,1.1452040545,0.1688986413,0.0167260303,-3.0529160219,0.1813272857,0.0722762003,0.5908782243,0.1187311702,0.245453404,1.7530911711,0.1064957025,-0.1128279013,-0.0118561895,-1.6981630769,0.164043194,2.1672354237,0.2520064572,-0.1275650489,-0.976572975,0.1298529175,-0.1570932405,-3.5925224588,-0.1549193235,-0.3115694559,12.6454367623,-1.7208351005,0.6484737633,-0.0763937997,-0.0851741806,0.1159375055,10.7720315017,18.0208941336,1.2879116496,5.832939126,-3.2321957366,0.9706049365,-0.3054855797,0.3831290525,-0.6816400037,-0.0661072932,-0.1682962572,0.5083904372,7.6707408982,3.2508098594,0.5123436392,-129.0637115387,-0.3617550277,0.1950246488,-44.7254440318,0.0463432311,-0.0672266525,-40.9167804877,-10.5614536265,0.4431932989,0.0321041243,-1.8849783513,0.1479065522,-18.6661152064,0.0486201448,-0.3338221098,-0.7214141702,0.578457006,0.1498332933,-0.1581398131,0.3528904072,0.1833936524,0.6444068688,0.2516649434,-0.2405700829,-0.1128266478,-0.1138620638,0.3689288273,1.2129882453,0.0451606409,0.2365164632,0.0839244643,0.0941040992,0.1268913114,-0.0496728382,0.102134981,0.4103167447,-0.3438051106,-0.3287367146,-0.3829505865,0.2149993984,0.2319923386,0.282337344,-0.050819037,0.1925006457,-0.3060029783,0.5331597389,0.4919220072,-0.0866292991,0.0554373568,-0.2185530252,-0.4284841892,-0.1163045352,0.1860445004,0.3339803082,0.0525646959,0.1369396493,-0.2351002216,-0.1584797424,-0.0494137269,1.0285505862,33.5331254528,0.0886501561,0.0592459422,-0.6750670374,-2.0652866557,-0.5881643759,-0.1630029543,0.1547274409,0.3009732331,-1.319710771,0.2179654112,-6.0078297659,0.0551415396,0.3046517358,0.1987545237,0.0912553074,-0.0403848394,0.3154330398,0.1067476485,-1.0766576345,0.0623078228,2.1049277328,0.2959965159,-3.2862513101,-8.5374813908,0.0406382453,-0.0571837063,0.1759724543,0.3466485972,0.1628335647,0.1268010584,0.0981093802,-0.0374669769,-0.0914264843,15.059852802,0.2567164059,-2.2354945047,0.117203077,-0.0982565942,0.5703956296,0.809020551,-0.0404520134,0.4424723495,0.9090121478,-0.0413090832,0.3792218109,-0.1787527212,1.2398364595,3.8570232378,0.2041472185,0.6156706698,-3.121696862,0.5329099967,-0.0731346047,0.119501364,3.5444014635,0.7142271769,0.1840544485,0.8050921737,0.829235174,0.2635159097,-0.2186734376,0.4979469553,0.4890600665,1.5016032422,1.3227615989,-0.2426647384,-0.3858587151,0.1925400628,0.5164816399,0.6332915211,0.1236145824,0.4941485447,-0.0829263032,0.391174338,1.553080431,7.1511776604,0.5442985483,0.4043408708,0.4648890617,-1.5688985345,-1.0737077902,0.3311806783,-0.4732925937,0.7616305251,0.3329935722,-0.0295120999,2.3558479617,0.9814459733,2.8129079654,0.006116204,-0.1303839634,0.4079506671,6.5562698437,0.4195812235,0.0081754127,-0.2093738691,0.4854030161,0.3370337223,0.1509651121,0.5387345599,0.4803448577,0.1482333581,-0.0326918565,0.2891470913,-1.2646766569,0.9070089949,-2.2756547199,-0.0059936358,0.3677767817,0.2099394201,7.9495803737,0.363907639,0.0187224339,-17.276508929,0.1263715062,0.4892356653,0.0814186169,-4.6966494543,0.5783136131,-6.9166970631,0.0655956567,-1.3450146214,10.3811629594,0.3193716625,0.3379786607,0.2029460667,0.4229083768,0.2711861444,-0.7630836552,-0.1499470855,1.0164416274,0.1019310394,0.0399666178,0.2711908272,-2.7623159443,0.1902514229,-0.0260763965,0.0702390855,0.4456401325,-0.0193140782,0.2125864842,0.3482799724,0.2702902842,0.0988261643,0.2245618981,-0.124339808,0.0792398237,1.2431460278,2.4089688368,-0.2565660647,0.0917845066,-0.2034875613,4.8502683572,0.2785496039,-0.0143217186,0.4762350297,-1.0937424541,0.0550077325,0.0470286153,-0.3959155379,-0.0258782176,0.4284164576,0.2482706618,0.1828062612,0.1363360362,0.2074815691,-0.5068302596,0.1423833746,0.0936799704,-0.301128643,16.9281972675,1.507820837,-0.0797003072,-0.3667319534,-0.126813206,0.4349339489,-3.1906095121,0.1809388728,4.257382852,-0.9201193368,-0.2938439432,0.2232780521,-0.4326438715,0.2752826113,0.1110346262,-0.0578042092,-0.3389091173,-0.0594265016,2.7971112601,1.3330362436,-1.6410976712,17.5573362008,-0.3707321493,-0.033171472,-1.9245285435,0.1523508546,-0.258173238,0.0215487811,-0.5032583086,0.2008741655,-0.0601058304,-1.348150432,0.0799161433,-13.0694452264,0.0861818184,-0.395316673,-0.2122902518,0.0029925797,-0.3421457741,-0.1058272707,0.2681198127,0.0527602765,0.1622782369,1.0321603494,0.2217083926,0.2676915319,0.2403146665,0.2042379972,0.4631877898,0.2708324598,0.5020043421,0.132058295,0.399570265,0.0381108215,0.0008855875,0.1398955388,0.23415506,-0.0698365863,0.1097207065,-0.1520498368,0.1356478937,0.0533387077,0.0159398922,-1.2798630974,0.2143760668,0.0194388084,0.6395164677,-0.0379777546,-0.0144583072,0.3265117395,0.0530308794,-0.0533450452,0.2434320171,-0.5472621667,0.0843020775,0.8990977166,0.2406559585,0.1582435011,-0.0432577315,0.3048092766,0.2879497657,0.0447348608,-0.022650968,0.3603310384,0.2473448972,0.2456831023,0.0709357244,0.1712718624,0.2867776905,0.0976063296,0.1892108435,-0.0175253272,0.1350299771,0.0515506933,0.0426307539,0.1696103214,0.1677118151,0.1865687443,0.0882448634,-0.1198408724,-0.0470721695,-0.1898956352,0.1712479912,0.0487237019,0.2576887888,0.0223764304,-0.0088993536,-0.1047083047,0.8016404275,0.0916699957,0.1398064675,0.4211814606,0.1669587574,-0.0376926609,0.0457235986,-0.3744187523,0.1621736217,0.7072794207,0.1059876628,-0.3220578248,-1.0506055845,-0.0147195967,0.2848480142,-0.2151607919,0.2700020337,0.3113058369,1.2271228219,2.8486511907,1.3080469437,0.0921897254,0.0156973813,0.185176041,4.7209761307,0.2373788134,1.4512156554,-1.8004562024,0.2125763692,-0.0979150053,0.0124522992,0.2288765195,0.2673937379,-0.0188623545,0.1747129413,-0.1185330332,-1.5321660199,-0.0827414543,0.4286826069,-0.0439576802,0.0900180022,-0.163232768,0.8117962282,0.264612682,-0.0620789129,0.330664365,0.1418724821,-0.1980235129,0.1220975106,-2.8720445079,0.0138539259,-1.70145884,0.259114454,0.0540661817,0.5280591477,0.3860712202,-0.5152252481,-0.0310330233,0.2493097933,0.0507162903,-0.0199333427,0.3649398502,0.7612585905,-0.3185367238,0.0295151972,0.286929283,-4.9555867974,0.2218553281,-0.0515254842,-0.0604008991,0.1718179153,0.0203761572,-0.1615194366,0.2965828998,0.4472896347,-0.2599401146,-0.1454823606,-0.5264327649,-1.245255938,-0.1054406779,-0.0559878713,0.1067931883,0.0256741918,-0.3015920815,0.1811153027,0.3739885232,-0.3371472954,0.1965183531,-0.0288332132,-0.5624127381,-0.2491973952,0.755806642,0.2909229657,0.4302494295,-0.4966245179,-0.0085243968,-16.5394762385,0.4468195894,0.0606580218,0.041414487,0.0424575907,-0.0098439021,-4.7089197272,-5.6973601102,-1.7799792678,0.1858514119,-0.1184299101,0.3222390768,8.3523467819,0.2652931674,0.1919271157,9.2813174735,0.511416346,0.0420970726,-0.0828606511,0.0713935912,0.3615807074,0.2020285779,-0.0349377225,0.1055893486,2.5422725714,0.2569033976,-1.0578535922,12.7197521406,0.2244026874,0.2604594528,3.4862633027,0.2230690541,0.2080295672,-2.750443381,0.1169228961,0.1608344284,0.0068458304,-1.3206135126,0.3369105072,0.268015016,0.1980597936,-0.055101317,-1.7052584221,0.2522641933,-0.632892229,2.061032055,150.8953160825,-0.7570867654,-0.7296771326,0.2572992368,0.8082395366,-0.3739186787,-0.9238441002,0.5121851306,0.4372401154,-0.6097399864,-0.963059822,-1.0782160265,1.0949467254,-0.5962804305,-1.4321339872,0.3423321987,1.3443066012,-0.2571686865,-0.5344344212,-1.1109494846,1.0476886202,1.7643571764,-1.6962725897,21.6322801187,0.2159217942,-1.0178077628,0.2433925334,-32.5294678244,-0.5360716799,-0.9788598533,-15.5651291086,0.3403979709,-0.4869356857,4.1962785569,0.536027398,4.4654388967,-0.4164217196,-0.0192442105,-1.9667172673,0.418083909,-0.342805641,39.967597569,0.0268932139,-0.363779872,31.5086082372,4.7839051487,2.8279332299,-0.142995312,1.0540536075,0.3715523034,-57.8088179472,-3.1109834084,-11.7867317026,-10.1222103934,-0.5050055654,6.7714614097,-0.2831928978,0.4367618959,0.2329193564,-0.0448306102,-0.1598554032,0.1498532816,5.6910699559,-3.8579438869,-0.1853542446,75.2018735301,-0.036322191,-0.0749103555,64.6046903879,0.3914080994,-0.1722353451,-3.2853481712,-20.7237485161,0.0587237962,-0.0266896498,4.8566367442,0.2676083191,36.5657528832,0.1644665306,-0.1413130835,-40.784868183,0.4226404315,2.233350178,0.5055457166,26.8093818352,-0.1044142418,-0.4516359993,4.1175160198,1.5936750865,-17.9952508314,0.0886988853,0.9461497887,4.102938408,0.1971790389,-3.3193289006,-0.1606577431,1.3488792416,0.1987905339,-0.0559067355,0.6705223595,1.1015395763,0.0490652506,0.354773955,0.2090579496,5.2746472955,0.7047903007,-1.4825006619,0.2374664822,0.0749707499,0.1537549326,0.6112241374,-0.6069168101,-0.2100934661,0.5654896976,67.662799985,0.2674868102,-14.0438775188,0.9520657278,0.8428739013,-0.9342516597,0.228049776,-0.6115708332,0.0170119704,0.142586679,-0.5466558122,1.6978119477,-0.0155499666,-0.221254301,1.0014631971,-9.2375757345,-2.129674781,0.214194094,-0.2799262539,0.2196094942,30.2119655631,0.2470197714,-2.3395034063,-3.9890252662,-2.3527498629,0.1045417586,-0.2413468288,0.3072140737,0.390075121,0.1664975393,-0.0657292257,0.2454086875,1.0907719521,0.3966996687,-0.3251388604,-8.4099299574,0.2587105649,0.0909522636,1.3460177,0.1290656925,-0.0514759888,2.7635595748,0.1438805832,-0.0716864676,0.1089138188,17.96122913,0.2179195253,1.0592122069,-0.0383831205,0.0260361419,-0.7115931275,0.137265733,0.886967482,-0.1296204708,0.0778409715,0.2950433205,-0.0250410064,0.2998185938,-1.1321151253,0.0090864217,0.1168330383,0.0481868617,0.3076815466,0.2314713451,0.1726819539,0.3324880643,0.4406594795,0.2135208873,0.2301744509,0.1954324667,0.0011128672,-0.15252231,-0.1197761135,-0.2162687543,0.3089910712,0.2819078314,-0.023124209,0.0036190497,-0.0104912776,0.1824026625,0.4459619266,0.1625514203,0.2324527134,0.2694940686,0.1173623044,-0.0112938557,-0.0673462693,0.9236103391,0.3230758704,0.2503542469,0.3329970431,0.3741096698,0.2049732488,0.0021787267,0.2452832087,-0.3388940631,0.2030247302,0.1149955264,0.0385281634,0.4637890908,1.4641163052,0.1849323179,0.2698718277,0.1547596551,-1.9449647513,0.107189829,0.32494518,-1.1273938161,0.2441775141,-0.0479933291,0.3129605726,0.2325506283,0.2508542449,0.0321701048,-0.0623794705,-0.0226641715,0.8931074011,0.0672912012,1.1848243669,0.0654283816,0.1269027211,-0.0989112423,2.7085763975,0.3304165074,0.0881242852,1.4661010266,0.634530653,0.0973935028,0.1267490049,-3.84063009,0.1747593028,1.1177346737,0.0082529394,-0.0843447948,-0.2932804672,0.3269907098,-0.3738855379,-0.0895754134,0.2778084615,0.1514439113,0.1114667305,0.1329308205,0.0800722453,-0.1456526944,0.0179579348,0.337702157,1.1912478903,0.2131034432,-0.0194674301,-0.1639220941,0.2283228252,-0.1079735823,0.1042712984,0.0316021447,0.3680407694,-0.5286115132,-0.0036377181,-0.6335410246,-0.0478241086,0.37833136,0.1769192081,0.0068510768,-0.6350659647,-0.339688691,0.0740359353,0.2067142974,-0.3212462317,0.0546081334,-0.0923941263,-0.6375420325,-0.2551236153,0.5696531223,0.003123026,0.7221852072,-0.5626882625,0.0426954555,0.6924842802,0.4774325686,-0.2982175582,-7.0807192634,1.8200688577,-0.1631446124,10.1413882569,4.9348673718,0.2620514939,0.0694430924,-0.2949675939,0.409489368,-18.515325557,12.7673491776,3.5803485453,4.149093335,0.7013237611,-1.3254434997,-0.2913887039,0.6110648178,1.792268598,-0.0381330864,-0.2191664224,0.1309970892,3.3735223169,0.1409184889,-0.295987711,23.0453654515,0.1875323926,0.2055275619,9.4182792862,1.3981427021,0.0697576437,-7.5873559146,-25.9439790144,0.2017048091,-0.0546891012,0.6128260759,0.254873359,12.3341318912,0.048014653,-0.2389170606,0.4008870329,0.2365415367,0.0889311098,-0.2480580681,0.2638092343,0.11451344,-1.5406381938,0.0481950594,-1.1860853337,-0.1427860822,-0.0045318463,0.491947313,1.8974821396,0.3297886424,0.0320075582,0.1931978927,0.0027409956,0.0848851429,0.1267726041,0.1817244791,0.4977019367,-0.1849751264,-0.2052904372,-0.2932811734,-0.730635119,-0.1581194636,-0.4912929111,0.29932839,-0.2841678932,-0.2446832651,0.5624060324,0.5363620625,-0.1925300381,0.551222177,-1.6057534331,-0.4796073227,-0.1582578086,0.4082924726,0.5418417039,8.9265681056,-0.3387612759,0.0478962348,0.1626783657,0.1751958481,0.19943182,-0.0551059322,0.2756375622,0.0879879215,0.4892442565,0.1790750844,-0.2588721658,-0.0534255458,0.3358828702,0.2759036525,0.285307008,0.2180293457,0.3275892235,0.1866066203,0.1478677552,0.082081322,0.2317515674,0.2996383467,-0.0277662983,-0.1241358319,-0.0239231882,0.109611293,0.3231871954,0.0808273818,0.0560452764,-1.1748418463,0.2131639652,0.0619101557,0.3417756283,0.1962980476,0.0470069219,0.4103147263,0.0199159512,-0.1649709702,-0.0134960652,-0.3601038839,0.1305294115,0.1932765395,0.0251502288,0.1457205655,-0.1086981238,0.2461219257,0.29826672,-0.0400983493,0.082394061,0.262976185,-0.4372373728,0.6520298773,1.7486806514,0.2028373456,0.0760945578,0.0589167105,-2.3353495657,0.1607329682,0.7464304381,-0.0944671298,0.0915834985,0.2561148876,0.0479685862,0.4044731376,0.151621966,-0.2162388723,-0.1164712434,-0.007108357,0.6839706011,0.4718894408,-0.0896371981,0.3347480407,0.3594689968,-0.0444591602,-0.0336378935,0.1828370372,0.0528637309,-0.5206536606,0.1588000863,0.0487823797,0.0021984763,-1.7007250533,0.2977028617,0.5830586338,0.127668108,0.331148735,0.0935486661,0.3592190025,-0.2512146103,0.2782469919,0.1263280166,-0.2311576317,-0.0559079724,0.0431158237,-0.3135147914,0.2141421842,-0.3628155146,0.1022520975,1.2811193132,0.0301194454,-0.1399803437,-0.2476636601,0.0872560543,0.3022182389,-0.1080273543,-0.0430582872,0.1832369056,-0.0132745595,0.0427026049,0.0794769953,0.2833157675,0.1625036375,-0.2641585607,-0.9738680863,-0.1524150327,0.2215054326,0.0050788242,0.1239122882,0.1161287078,0.2740823617,-0.1362344658,0.0250069501,0.1580069671,0.1511801443,0.2328360941,0.0133375247,-0.00638503,-0.2944121017,0.0327076058,0.3491262808,-0.4469984984,-0.3061682856,0.2171753153,-0.3530813471,0.0470117885,-0.2598091095,0.4627827249,-0.110625242,-0.2507574955,0.1469115659,-1.3073051515,0.3056926791,-0.2035968487,-0.2649925831,0.1762645001,0.3657428937,-0.3836583029,0.1335521196,0.2531882067,-0.015222634,-0.3809092204,-0.0276289861,0.3411834835,0.0180538431,-0.5341323624,-0.3864401377,-0.1142343974,-0.1008269258,0.0558995337,0.2576551112,-0.1116615725,0.1190072381,0.2147617856,0.1673229807,-0.1871139321,0.2656116906,0.0775691223,-0.1556404666,0.0043850805,-0.2747300061,-0.127215711,0.4034733741,-0.0447893112,0.0165728856,0.0168501226,-0.175658414,2.8372422859,0.3187133331,1.9862150892,-0.0754379044,-0.075565584,0.367735682,2.7815066826,-2.332683211,-0.442355239,-0.1323702969,0.4302182735,0.0535640018,-0.3275290181,0.4426046111,0.3555663194,0.0537328704,-0.0705027192,-0.1058837128,0.6848643151,0.3266627593,-0.3039325875,-6.498410719,-0.0495382439,0.0969682756,-0.3035870977,-0.2428760664,-0.2167571778,-0.8165510747,5.524251371,0.2685551099,-0.1182834012,0.4025213965,0.2062121282,2.0914893571,0.2451612579,-0.6063281833,0.622791684,0.3924953942,-0.4343277533,0.2071085095,0.1209201515,-0.4603480609,-5.2433336921,-0.0118208297,0.7342334624,-0.286169651,-0.4175272304,0.280940312,1.1059292651,0.044614128,-0.3921132344,-0.2135529124,0.307121526,0.3743205943,-0.4393913046,0.289008825,0.0976990253,0.0402519513,-0.213758922,0.0617586258,1.1051910388,-0.1398918101,-0.3376902923,0.1419132837,-0.2753073442,0.2303546573,5.3587463543,0.3404466646,-0.0136307007,0.1236192113,0.1927455536,0.2274785528,-0.2559442581,-0.3497564374,0.369408892,7.7970266055,0.0384877121,0.0358558174,-7.9056816305,0.2826415024,0.8917379123,6.7150916653,0.1750210832,0.2739852723,0.1354787724,0.0131279127,5.3261137894,-0.8264264311,-0.2179130146,0.3554248182,-0.3496288101,0.3296508111,-6.5723431552,-0.2181772954,0.335855985,0.1542933573,-0.2929972109,0.3186371218,0.1828330367,0.131422543,-0.6328714447,0.0823110028,0.9542147476,2.724813463,3.8424842482,-3.7893505268,-0.2096921751,0.0117082739,0.0542636695,2.0732193734,0.1803025536,0.103145292,0.0788736118,0.107916334,0.1402620897,19.4668405621,0.3690690249,0.2553237807,0.0282948362,-0.0193565354,0.0445136201,0.2873688675,-0.7215683312,-0.1066900584,-0.0110097709,-0.160829866,0.3761792057,-0.1047044017,0.2742571201,-0.2818354866,-0.2062337811,0.2571922482,1.6523867012,0.2070991646,0.1430723242,0.1410807263,0.002746764,-0.1460736182,-0.1751783933,0.1472945009,0.3843213338,-0.5008601792,-0.3292829028,-0.2780729777,-0.1582374146,0.0612972562,-0.2307808421,-0.6169011613,-0.1232518476,-0.5292723812,0.2654040378,0.3404465419,-0.1312111183,0.020474155,-0.1537787849,-0.4715171206,-0.0939750602,-0.1992954837,0.4849368765,0.0351965566,-0.5095021551,-0.0488140959,-1.0609542591,0.6188826367,-0.1212027924,0.7916357215,0.4292524895,-0.0210532361,-6.7969819702,1.4621007177,3.5940891508,0.1024056577,-0.0510717572,0.6058018834,-21.834455035,1.6337621752,-1.7989070083,1.0681890919,0.7775417396,0.7646357555,0.1086253458,0.7576289068,0.6393698903,0.4282321097,-0.373815914,0.2868937241,2.5258751254,4.0987265117,-0.0204546141,11.5095344479,0.0078101584,0.2033956488,-17.5947857659,0.3381941853,0.1087555098,38.4190546863,11.0215486839,0.3676695671,-0.1006197117,-8.9681609938,0.625187411,19.7490701358,0.3021636278,-0.7621339712,-0.874927968,0.1160493105,-0.4601817142,-0.1252921301,0.1571068969,-0.1256062981,-0.2712635457,-1.3584338976,0.2269635969,-0.1187887423,-0.4517565474,0.1556318608,-0.4945677562,0.3330562666,-0.5621109487,-0.2792851677,0.1333286468,0.2219041715,-0.2286379538,0.1528457476,0.1357119653,-0.1810601736,-0.1122034945,0.0084044977,-0.0347281952,0.4333232095,-0.518291143,0.1931087802,-0.5471400743,-0.1286401966,0.1035101761,0.2290998627,-0.3196899568,0.2753170997,0.1594953963,-0.0325946191,-0.2925749955,0.1346079488,0.235524691,0.3822828921,0.0379148761,0.0815845587,-0.1763346603,0.1019973651,0.0747814198,-0.0006604968,0.0210474143,0.0115371224,-0.1710789355,-0.1108568543,-0.1322924328,0.2247103917,0.0565330109,0.0926198581,0.086538236,0.4445011642,0.1791158085,-0.0332238683,-0.216875557,-0.0951933894,-0.1285303454,0.0556812438,-0.1501589054,-0.0314827428,-0.1877420867,-0.1697768767,-0.2092481516,-0.1357261491,-0.1413729117,0.0273010649,-0.2055240344,0.1347950186,0.0984990796,-0.5725654367,-0.2073354008,-0.149734133,0.0717599069,-0.1402073309,-0.1997704416,-0.1748364212,-0.0401689958,-0.0254744433,0.1034363247,-0.2146686898,-0.0834529666,-0.2251579976,-0.1835448464,-0.2582553806,-0.2213674247,0.2794432699,-0.2114872596,0.1415232624,0.2734493056,-0.2241733176,0.0084054458,-0.2689427839,0.0481098115,-0.2791193011,0.026410533,-0.1006611664,-0.0731251617,0.0858866029,-0.0742694012,-0.1322764792,0.530790013,-0.1249200347,-0.4940472025,-0.5415720633,-1.4803117712,-0.2978728837,-0.4704899414,-0.5640139726,-0.2420506455,-1.1480939244,-1.8024876218,-1.1325738436,-0.0464179243,0.3033622838,0.1790317582,-0.3641562704,2.7938985816,-0.4940805197,0.0628182208,-0.1301742343,-0.2173024735,-0.1618212656,-0.1170438597,-0.1068075534,-0.2729536065,-0.1958458601,-0.0234346336,-0.1981570437,-0.1373176119,-0.0870380226,-0.2517161277,0.0219206631,0.0391039657,-0.2663962109,-0.008258252,0.4649396862,-0.3307725499,-0.5836740837,1.0334314144,0.8663417027,-0.4105487896,-0.1723718151,-0.1596257718,-0.5774930649,-0.3545509728,-0.0705275468,3.0219586189,0.1948824535,-0.6981062105,-0.7911834135,0.947788914,-0.4096228385,-0.6658548989,-1.4187680606,-0.0923681348,0.8904040191,0.3491237797,-1.219129902,-0.7036748459,1.3620286396,0.5798722132,-0.1472473565,-0.041072086,0.0686736483,-0.8361151879,0.1403952786,1.4911873758,2.1996860746,-1.5402821734,-1.1010883045,0.1146760427,0.3904927754,5.1315376354,1.8748746622,-2.38398981,0.0962156952,-1.1169210645,-3.7131846038,-2.5495386767,0.2956806806,1.8785104682,-0.5308706294,0.0619078496,-0.4049944824,-0.1649607929,0.935049736,-0.4100338973,-0.2074937061,-0.3231226725,-0.0909930418,-0.6904938672,-1.8962676554,-0.5302962022,-0.0185646773,-0.05979371,0.158207039,-0.1583263961,0.0150692682,0.4144697613,-0.0707382033,-0.0323561987,0.1304649275,-0.1115827242,0.2354540168,-0.2353359428,-0.0158572646,-0.2591404538,-0.298051838,-0.2599814332,0.0866887852,-0.1857275093,-0.1305775896,-0.2740182519,-0.2490065994,-0.2249000746,0.0939525144,-0.072719925,-0.207239522,-0.0601149634,-0.2618570318,0.1286769128,-0.1584154756,-0.1469888571,-0.0340195803,-0.0353226513,-0.1429931418,-0.1746596827,-0.1217964273,-0.0550103517,-0.6104727662,0.3829282108,0.3038542219,0.021070937,0.1825690145,0.2236074804,0.0793421376,0.0171218852,0.07118149,-0.0227437752,-0.076455271,-0.1309085486,-0.121510946,-0.1888218787,-0.2653025967,-0.2277471913,-0.1318748187,0.1934952494,-0.2631368961,0.1117673172,0.279643207,-0.042766288,-0.1466519421,0.1038114139,0.1796658167,-0.0613299903,-0.0371369613,0.0466386525,0.1574439563,0.2269701389,-0.0717579049,0.0274143391,-0.5068771747,0.8450676293,0.1798328756,-1.2854674843,-1.2081309278,-0.6314362005,-0.5173710491,-1.1796427659,-0.5105488539,-0.1942771009,1.2825243412,-0.2349458969,0.9424271374,-0.2533561277,2.3358404206,-0.4438881391,-0.1911203122,0.1169705002,0.0165522019,1.1866021128,-0.2203063333,-0.0104158321,-0.1189285826,-0.148137956,0.0617345017,-0.2524088064,-0.1235921797,-0.2728067329,-0.258661949,-0.0855883367,0.0951801857,-0.1011009732,-0.2919184901,0.4941244427,-1.8130221155,2.1444906061,0.7033819121,1.9081993297,0.1235744826,0.0370434718,0.7146490938,-0.4627272154,0.3962881289,-1.9131950593,0.7732074405,-4.9509818338,-1.9256918391,3.2536722985,-0.5821622274,-0.1111642922,0.0612821792,0.1318748411,-0.3136488823,-0.2293607612,0.1933757626,-0.0407480245,-0.2831843538,0.602802212,0.0323542943,0.12080385,0.0999359942,-0.2015330846,-0.0056499992,0.1964170787,-0.5619068077,-0.2125825736,0.0844704391,0.0662532117,0.0115365437,-0.144533994,0.0335394527,-0.1571166447,-0.2873527359,0.0274154279,-0.1599594203,-0.1044175272,-0.3201890267,-0.2299244843,0.0971244941,0.0053477404,-0.1760223609,0.1347433729,-0.0598249182,-0.0281582739,-0.200516246,0.0006584386,0.0843617423,0.1745322204,-0.0667156106,-0.1293077961,-0.1665483518,0.0013400403,0.0278540647,-0.0749232386,-0.104398367,-0.0107301384,-0.4832974086,-0.279077583,-0.1922686185,-0.4240369886,-0.5663127639,-0.4969502097,-0.1393847949,-0.4570128135,-0.5174587802,-0.1696425285,-0.5135582221,-0.2581984476,-0.1342941184,-0.4999775874,-0.4137848115,3.3098134716,-0.7172280668,-0.4554133901,-0.1812259359,-0.3143746489,1.5420987712,-0.397706329,-0.0886484497,-0.0779483604,-0.1398136917,-0.4410521607,-0.1393461562,0.1994127127,-0.4239687554,-0.3916414669,-0.5527389031,-0.2984406913,-0.4195359093,-0.1156884507,0.0314789588,-0.0560166097,-0.004092106,-0.3147467081,-0.3477748088,-0.0441050307,-0.6621333379,-0.3664903854,-0.0882117994,-0.1603390767,-0.1156119385,-0.3868757189,-0.0906934534,-0.4274802922,0.1252482986,-0.2191245359,-0.152061649,0.0736288193,0.1117566877,-0.1999193579,-0.0467252951,-0.0504291974,-0.1418950874,-0.2838236041,0.0424246641,0.0767824187,-0.0975685223,0.1450163368,-0.0455062068,0.0240804779,-0.228223447,2.1815309819,-0.184321763,2.2309489505,-0.3298347324,-0.8004019675,-0.0686317973,0.8946002365,-0.3026873947,-1.9816298104,1.963771417,-0.7438359012,-0.2961969909,-7.3178513839,-1.1655714552,6.7495541324,-0.4908249737,-2.0226845126,-1.5783137363,2.941912229,0.2224800295,-6.2481645895,-0.905505026,3.2806198639,2.1365131345,-0.4961890871,1.2410327366,-0.0535361122,3.8638793715,-5.8953597875,1.9546832273,1.8365310311,-0.6221356188,-0.0175534473,-0.0703986058,-0.6486493562,0.2040539056,0.1032194462,0.1433093025,0.1723319684,-0.0867611821,-0.1442318594,-0.1538893786,0.0155937183,-0.1840203745,-0.2339322903,0.0222021118,-0.3162991802,0.1269939408,0.1539158291,-0.1579270182,0.2054941807,-0.0061959858,0.0700351128,-0.039307372,-0.2059625719,-0.1733007893,0.2848481077,0.1563006792,-0.2624241382,-0.1783462616,0.1419812548,-0.0206370334,-0.0703811794,0.1148618143,-0.0177653076,-0.0651061273,-0.4138255056,0.2099822773,-0.0633323968,0.0223476678,-0.2835622837,0.0582922687,-0.3123729327,-0.3384339439,-0.3096590696,-0.2995523926,-0.0476638151,-0.1882583159,-0.3212779847,-0.0600485502,-0.1255803677,0.1477229971,-0.1237675915,-0.0847048359,-0.1732089861,-0.1029920851,-0.2087438473,0.0679287407,0.0375677262,-0.0777243648,-0.0393031285,-0.187720253,-0.0030337218,-0.062037276,-0.0721429775,-0.1272016421,-0.0390010534,-0.0988823572,-0.1231036576,0.1733397037,0.0355200106,-0.028174765,-0.4361409584,0.321867789,0.2704374494,0.5736005784,0.2391103056,-0.1825213994,-0.1119961756,-0.129131708,0.1224236462,-0.3209062229,-0.2988890952,-0.3985629594,-0.5434759422,-0.2472230005,-0.4791095921,-0.4439721996,-0.2222828958,-0.4925247067,-0.1104837181,-0.2256585046,-0.1120693155,-1.1889412675,-0.3030846248,0.0195826647,3.707793059,-0.5373278288,-0.082638168,-0.1886763643,-0.343358447,-0.2719821041,-0.4118199421,-0.1468827203,0.3668282021,-0.1365888978,-0.0867635477,-0.4136114939,0.4473810568,-0.1730137435,-0.0538816686,-0.1915493446,-0.2645561266,-0.0575639186,0.0004571571,0.1623670823,0.0111678363,0.2709632556,0.0977768822,0.1283093168,0.2695313881,0.0478806649,0.0685027627,0.0268089302,-0.0759274634,-0.0212799328,-0.1223767913,-0.2179415867,-0.093849344,-0.3474290503,0.1708499302,0.0088738301,-0.4235143793,-0.0380934559,-0.1321794021,0.0268443369,0.0683347043,0.0164253838,0.0464070477,-0.2395913106,0.1642784525,-0.0021996336,0.0018157696,0.1372013157,-0.1541661473,0.2262443763,0.0143698217,-0.0275147956,-0.1688935787,0.0278628203,-0.1069817958,0.0454131309,-0.0453367277,-0.0423662238,-0.2536292933,0.0346734398,-0.011769006,-0.0051903827,-0.1082380638,-0.1439794102,0.1051748073,-0.2240070671,-0.0401086634,-0.0630870227,-0.2515978539,-0.2209805588,-0.2566742636,-0.3265220551,-0.3562871221,-0.3030517511,-0.294938772,-0.0367322311,0.1467401267,-0.4130721832,-0.0379377133,-0.2914740266,-0.1457409663,0.0146186477,-0.3624407647,-0.4784545616,-0.4658591709,-0.4381319421,-0.3598710535,-0.3049599709,-0.2915707329,-0.338710773,-0.6653108351,-0.4042523569,-0.1562584101,-0.0689840638,-0.4793698634,-0.4389024307,3.6180218589,0.1526946099,-0.1977107493,-0.1191208156,0.1189428286,0.0583734928,-0.0835909868,-0.0583688703,-0.1655848908,-0.0120797359,0.0129388268,0.0032727523,-0.0672725191,0.2218065807,-0.1762662222,-0.1953557546,-0.1027246609,-0.6501740821,0.1178991269,-0.1648801743,-0.0658620232,0.0323485845,-0.0229511185,-0.1477882898,0.1829031505,0.0834044389,-0.0829277304,0.2277812295,0.1901289814,-0.0386454372,0.1610427444,0.1988702014,0.295806712,-0.3891690182,0.0580014837,-0.0449312302,-0.4337896726,-0.3904687041,-0.256082469,-0.1320593396,-0.3218573908,-0.19874051,-0.1893801481,-0.1254752279,-0.1766537276,-0.0085295442,-0.1975694876,-0.3974296673,-0.5417504938,-0.172559258
biasActivation=1,1,1,1
[BASIC:ACTIVATION]
"ActivationTANH"
"ActivationTANH"
"ActivationTANH"
"ActivationTANH"
