encog,BasicNetwork,java,3.1.0,1,1384379235854
[BASIC]
[BASIC:PARAMS]
[BASIC:NETWORK]
beginTraining=0
connectionLimit=0
contextTargetOffset=0,0,0,0
contextTargetSize=0,0,0,0
endTraining=3
hasContext=f
inputCount=15
layerCounts=2,42,42,16
layerFeedCounts=1,41,41,15
layerContextCount=0,0,0,0
layerIndex=0,2,44,86
output=0.0797241533,1,0.9888584538,0.9998415555,-0.8605402282,-0.9983080466,-1,-1,0.9993066307,-0.999001939,1,-1,-0.9999998793,0.9243111485,-0.5701487749,-1,-0.9959115128,0.4051878103,-0.8930681327,-1,-1,-0.9999999999,-0.9999988429,-1,-1,-0.9971991986,-0.999999995,-0.881671457,-0.3330223908,0.9942263498,-0.9999999499,-1,0.992202006,-1,-0.998531787,-0.9896369293,-1,-0.9999378607,0.9999992106,-1,0.9998834936,-1,-1,1,-0.0118289251,-1,-0.3256072228,-0.5082956338,-0.2542895994,-0.1143406911,0.0039329071,0.0611670437,-0.2518593567,-0.9593301334,-0.2646822782,-0.5058437608,-0.4601955643,-0.3699776797,0.1912938937,-0.3490558346,-0.4093253477,-0.250608599,0.0066462413,0.0294528111,-0.8552701525,-0.4466744743,-0.9999278783,-0.1074809493,-0.1717303876,-0.3208663458,-0.4769700658,0.2001250627,-0.2081442296,-0.5724089909,-0.2114257158,-0.4735339778,-0.5040679978,0.0683663575,-0.0236043852,-0.0488934041,-0.3212824904,-0.1634689886,0.1647941513,-0.1889257429,-1,1,0.0442516269,0.0442516269,0.0442516269,0.0442516269,0.0442516269,0.0442516269,0.0442516269,0.0442516269,0.0442516269,0.1744034707,0.1744034707,0.1744034707,0.1744034707,0.1744034707,0.1744034707,1
outputCount=1
weightIndex=0,42,1764,2420
weights=##0
##double#2420
   -0.1737928438,-0.0693109851,0.0776164755,0.1254912521,0.0122638007,-0.0551225586,0.0677582208,0.1263184977,-0.1671331997,0.0787453498,-0.1021341012,-0.0944398344,0.2291355082,-0.1351856681,-0.069994553,0.1301945127,0.1123185674,0.044576452,0.1501041917,0.0766734813,-0.0438188663,0.0882878714,-0.1039101737,-0.3610156771,-0.2038902439,0.0176067151,0.0591535136,-0.0693883043,0.1059759588,0.011646928,0.0456346572,-0.1748591976,-0.0962337852,0.1229563767,-0.0833044934,0.1285269625,0.1227954825,0.0425356567,0.2048273496,0.1661764562,-0.1662934284,0.1684196654,0.1578774881,0.1759377299,-3.3619840343,0.223187696,0.2976303435,-0.9881279497,0.1267557784,0.0687448334,-8.4884408531,0.0107908,0.0710469729,0.4247659305,-0.52916209,-0.1036426257,-0.8704743811,-0.1318894917,-0.0813331569,0.6549351117,0.9252571753,0.3578856354,0.0906106193,0.3561672988,0.300842627,0.2593225318,1.016602956,0.1276022473,-0.1636120781,2.2269594747,0.4295723479,0.4389216434,-0.8905008032,0.0567442323,0.1783455678,0.191475466,0.3938900132,-2.3674822597,0.0702612476,3.7374813636,4.6339961783,-0.1543344775,0.1019855968,0.1551824824,53.9544360906,0.3615013394,-5.0129316345,0.1960200483,0.2627522578,-10.7472198673,6.3258092253,-39.2534885481,-23.7802330095,0.4130881317,0.0152871918,0.3323983758,-0.4073849939,0.2711190207,-0.5438257759,23.7300538654,0.0883148948,-0.1369520766,39.0272068918,0.0105619995,-8.4428460689,0.4140192339,0.2663638053,0.0462904847,0.5507212709,-0.4741693342,0.0330162173,0.9999568847,0.8978391966,-0.1003077498,-11.6561407654,0.29996952,0.1363968403,-0.1416460102,-2.6794151742,-4.8963987164,0.0315488138,-3.0717004658,-9.2866990119,0.1565709582,-0.1013498107,-0.4329554019,0.0445549645,0.2370824024,-0.1174689285,0.1379850637,0.0597571777,0.4775711377,0.2155842961,0.0290177908,0.03176985,0.2096347279,-0.1093936511,-0.1031712824,0.5046029456,0.3708641037,0.3647769775,0.3023559255,-0.0101994686,0.0742859255,0.0220011391,0.2006651678,-0.0287035952,-0.1853520497,0.0911847978,0.3107404862,-0.1763013954,0.0757430496,0.1883970897,-2.2315558313,-0.0230173759,-0.0979880792,0.2691786572,0.0591337951,-0.1414854008,0.2168085007,0.3815760911,-0.2396127838,0.1573426245,0.3928212079,0.0777115596,0.0331210745,-0.0559964993,0.1179096373,0.2470310382,0.1736855192,1.3892078982,-0.2002841827,0.1983830371,-4.4592127953,-0.0870097015,0.2793843855,0.3840726563,0.0111683845,-0.0880811215,-0.1357337008,0.2237592034,-0.104807282,0.1550334678,0.8168714244,-0.0707103872,8.1251359363,0.1973931423,0.1681946452,0.4685150218,0.147912369,-0.0346692447,0.1761028483,-0.2261567956,-0.1282308646,0.0797300575,3.5991761857,-0.0886614856,0.2768959881,1.6046954857,-0.1111519405,-0.2807342941,0.0834322817,-2.5657721081,-0.0020714059,-0.1026357771,4.9642813748,0.2953075223,0.1665721865,0.115177755,-0.3658338982,-0.5453942056,0.2329170827,-30.2860089698,0.0667932064,0.0260322303,271.1752650722,-0.1455772451,0.2515264065,-89.9826803907,-0.60132803,-0.0579382478,-0.0928885585,21.4396499746,-0.5878075918,0.0200065817,10.3437282036,0.3343235145,-30.0972577553,61.5611577211,0.1330075417,-6.2183604769,122.3952440207,-0.1160589283,-0.1184408291,-17.3880730208,23.3362785582,0.1349847462,-3.1384553191,-0.5919533865,0.0878941951,-50.738449241,-0.0424193367,-0.104347045,0.3738742187,12.2704859739,22.4977497182,-0.1826450305,984.63237277,-25.9238002707,31.7323432708,-0.1276567014,-0.2630770021,-0.1260361491,-0.2466047692,66.4926870501,-0.3184883113,-68.4007218069,-133.8963484643,-0.5789213231,0.0987301544,-50.5978980039,-0.8628681591,-0.2504691428,-0.4749749925,0.6073442146,-25.769964222,-0.5426996667,0.5845161102,0.9098205437,2.1462687245,2.5671632012,0.6713865942,-0.3910636551,96.8256272453,-0.5788433642,-0.4335458873,-75.8646264574,0.1518443161,3.8231307192,18.2066338917,2.1187782459,-0.4005976573,55.1153935596,94.2591916866,-0.9555149838,0.5778919548,2.5294270209,-0.4872748686,-76.4350797462,4.727201886,-0.4086319247,1889.35239954,-0.6782577578,0.1572805154,0.149464362,0.2206165622,0.9691729469,-0.0910883025,-0.0719647085,19.0045180706,0.0643158291,-0.0431842294,-8.8012946625,1.7827085474,0.3880926018,0.002336109,6.0060005384,0.014230386,0.4181916459,-0.4492806845,0.0850992549,-16.4538435782,2.3854021652,0.1739450279,-1.6391396323,0.544351704,0.0231258481,-0.0637209615,-5.7151415112,-3.085415686,-2.8742878114,15.5011004153,5.4024979109,-0.1804089926,3.4113175412,0.0473547956,0.0770753315,0.0977599229,6.3124256252,0.6842677347,0.0795420129,9.5121896222,4.8405454168,-0.0060294738,0.1206059634,-0.0529771557,-0.1300586849,0.1316322423,-9.1848547565,-0.2079931249,0.0474032358,66.4088956719,0.2268663163,-0.0779449442,-9.9137114826,-0.030438914,-1.0796997931,0.0632303593,-0.1697958219,3.9994867038,0.4771021882,-0.4888173611,0.3500417971,-0.244116839,6.355023952,0.0473352872,-0.1072911301,-2.1502421027,0.1778277746,0.1941743661,3.7067220451,-0.0922389262,0.1720264325,-26.9626022166,8.939681247,0.096093522,-2.9134658475,-0.3106759081,8.9638826989,0.2327979565,-0.7047947773,2.2847486206,0.0586729817,-3.6924714055,8.8494346795,-41.9925169839,-0.0280530973,0.2169937959,0.098712962,0.1461012763,6.3001241337,-0.1026326419,-1.6698852875,39.8485286016,-0.0132175389,-0.0121712678,-4.6155912127,-0.0499475633,-0.2019112998,-0.2568410466,-0.8457381702,-0.5910888994,0.2110615441,-0.6528841033,-6.3865563049,-30.4505666193,-34.1008270039,0.4688367511,-2.7369802681,3.5622656785,0.0036108768,-0.0687403357,-66.1976680191,0.1810855831,-106.2518162856,-39.7620177157,9.9034716265,0.1013396065,5.0857272467,-10.4806076291,-13.9730241454,0.221758828,-4.3903764038,1.7383983187,-0.145804188,-11.2736969176,-1.9156639211,-6.7659803274,-0.0745243486,-0.0155307785,-0.0260058274,0.1867949274,28.3475792669,-0.1161074357,7.5889774413,-14.8264275954,-0.132460113,-0.0693358626,-56.7101776067,1.4740066575,-0.8030370456,-0.0008307967,0.2220749638,0.0040931982,0.0185895947,0.5735659074,0.0243209747,6.3801873734,5.223415092,0.2160707083,5.5762429233,22.130968217,-0.0933456644,0.0038762163,-20.1404550401,0.1687564181,60.0290358577,13.2187770291,3.158490393,-0.0707630184,-0.7688763854,13.0920075727,-0.0032681326,0.2230376304,-5.2708404308,-1.0043841683,0.152430778,12.8306258405,10.9550699999,33.3843273785,0.0787262855,-0.1034638637,-0.02009969,0.1093947878,0.3894423657,0.103583789,0.0906809496,0.1209585586,2.3825192134,-2.3290501909,-13.5083608636,0.1660910425,2.2209538266,0.2548925285,0.0457039202,-11.0176033268,0.7946808425,-0.4292490696,0.3819449733,2.0493532655,-2.0368246903,-0.3406950415,-2.7819552835,-4.5300831257,-1.1031592687,0.3473371649,0.4433824421,-6.942791087,-0.1711943742,-72.2103781248,28.3671931783,0.4589866561,-1.6867404594,0.3156099046,0.3139976858,0.1146824087,0.309029298,17.5248587758,0.0631897045,-0.7650957393,-0.1291275447,0.8399078789,0.1646103292,-0.0790589548,0.1655191615,0.3160087603,5.6838311273,0.1303695926,0.0918077724,-12.6160446904,-0.3406723586,0.2186302137,15.2512736304,-0.3164602926,0.1608882779,0.1601222017,1.6701957787,-0.8320289292,0.0970304539,5.3932084241,-0.0532021802,-0.0438386127,-14.4376831867,0.1254061258,-0.1437603827,-3.6554685461,-0.0768748372,-0.0120124688,-0.6868016859,-12.4354690265,0.0418355637,7.9929936454,-0.2625348379,0.0787608044,-2.4846565434,0.2359001603,0.3619833803,0.1422177406,0.9262749115,-3.2471872215,-0.0791774365,-2.1754155226,-0.5087035156,-0.2598561275,-0.1424373473,0.0692639649,-0.0913694974,0.3542206066,2.405606541,0.0957507017,0.2449354132,-5.9138889371,-0.0833633461,0.1003807304,-0.2159227788,0.2630791951,-0.0538242849,0.0495618719,0.4613663168,0.1056677983,0.0987481936,0.4440612967,-0.0117280023,-0.1365678789,-0.1188049183,0.1272447039,-0.2612137363,-2.023509573,-0.0474777713,0.1340244813,0.3834244659,0.0941803723,0.1422486103,0.9654365052,-0.0097065896,-0.0674361148,3.1870517305,0.018713701,0.2007430584,0.0732393856,-0.5225015804,-0.1432885575,-0.034033588,-3.7215148731,-1.6326792454,0.1112003854,0.1536233681,-0.1743272654,0.4325739468,-0.0004229903,-20.3414931071,0.428479343,0.3435195772,34.8955519488,0.0504552606,0.1138459936,29.7411188453,0.1191578033,0.1707262077,0.0923204986,0.2393095963,0.9132180024,0.1568777971,2.2819033173,0.1474364562,0.0981246871,3.0066620394,-0.1131505406,-2.7152149822,-0.3410658834,0.2449385389,0.0284579379,26.3096103034,0.2252829844,155.6533832814,80.2006495483,-3.1000209814,0.2216797861,-12.4048747178,10.4384866575,4.6017588687,0.1652669246,3.1673601745,0.2305192524,1.0656363689,3.051123326,8.979697357,-3.9886848157,0.2380305539,0.0725737789,0.4525280516,0.2643275727,6.1604947609,0.3471502067,0.1790435532,-11.6611207555,0.3820422082,0.3246173945,4.7161254449,0.2808229286,0.3535344053,0.1008464076,0.0558328549,-0.4317504093,-0.0108040208,1.1169543911,0.1763815028,6.8796837974,10.4855144523,0.1766461152,-3.1184630446,9.5869763234,0.3030996735,0.0274988466,-6.9859800475,0.4690147007,-2.1464165021,15.554504003,3.6765367625,0.460177316,4.3914688105,0.061904749,3.8340092189,0.0507707138,-0.2992938598,-0.2141807349,0.2180999714,-15.5255036443,2.0370606351,-0.2052537107,0.428876255,-0.1514700831,0.2169147937,0.0052649859,0.1441762608,0.1408444765,0.1220758383,-3.4861544168,0.0396512401,0.199629019,-0.7770627019,0.0697525613,0.108326403,-0.1260983232,0.3920762988,0.3442798727,0.4873910673,0.3154736611,-0.2334117239,-1.7146775936,-0.0254804639,0.1430070856,-0.2118160787,0.1091452685,-0.1294375924,-0.0479664053,0.0787259031,0.2136527013,0.2411755914,0.087758261,0.0041359274,-0.1132946662,-0.5104322408,-0.0756812183,0.169855077,0.0562825196,0.1199478728,-0.082886345,0.2631902019,0.7385865786,0.8423050158,0.0807166256,-0.0762580812,-0.4014065106,-0.0652735483,0.1337095772,-0.0035666943,0.1045466138,0.0043398936,0.9262823057,0.2233871973,0.234648122,0.0699919858,0.0392606414,-0.2014065921,-0.2113335051,0.2613831514,0.3730880462,0.1522651802,0.3576311898,0.1610372877,0.0522164933,-0.1537550845,0.0338386196,0.0715333355,0.1077035465,0.1414240054,0.150212637,0.0655181447,0.2737847589,0.2800324819,-0.3487582446,0.1336641681,-0.003454233,0.985119142,-0.1141542161,-0.1177732416,-0.0861806644,0.0965011115,0.0467179831,0.2806551181,0.3710316781,0.0858369655,0.0551144193,-0.0133486359,0.002162376,4.7153707767,0.3466732522,-0.1130931976,0.2389684983,0.4189079112,386.4865381415,12.5186034108,-0.161239863,75.879446173,1.4656690092,0.0639292975,0.0935722539,29.3911608096,0.1911227315,0.381747154,74.8576010447,0.0733759534,4.0652373929,-55.3355411308,0.0011645229,230.4501403515,24.8637426866,0.277969364,0.0300547917,-0.1526497579,-356.3280276928,0.2269331152,-51.4290912783,2.5226485113,0.1729466827,0.8822766285,0.1314334168,0.0733176207,-0.1554706728,-0.6044342877,0.5771520821,0.4084126616,3.087829658,-1.0601003566,0.2757495106,-0.0081731552,-0.0346179238,0.0073648448,0.2271045343,55.3989409724,-0.1594855991,0.1245890765,-6.9748313859,-0.0089231476,0.1766436432,22.8384770803,0.1291591599,0.1607966329,0.1161630973,0.1614153334,-2.4970399703,0.2621250517,0.5053518551,-1.0388280287,-2.4559550161,-18.8759492046,-0.0976691688,0.4848552631,3.8793316381,-0.0171407554,0.1307405355,28.0276149683,-0.0061740473,33.4124351291,59.033105628,-3.4122263114,0.1529796896,-6.0631437534,10.6735697185,-4.8602792203,-0.0760589558,-0.732315107,-2.8541049521,1.3175649401,3.6003905355,-2.6009480493,6.3851887235,-0.1004451003,-0.1705761615,-0.1865640376,0.1055665207,-2.9433179136,0.0305315679,0.0622353598,3.1581010982,-0.0281882919,0.1646064046,18.2551805508,-0.0180444877,0.0375016612,0.1425418688,0.0902606452,0.1958553287,0.1885939431,0.5310090947,0.2522966283,-0.2297552136,0.1770955552,-0.0137859693,-0.0504336771,8.8727403708,-0.1008437173,-0.1775554573,-0.3674941867,-0.0450891663,23.4295709921,35.0580416623,1.7595098963,0.1684137972,-16.2815621803,0.1911841259,0.2030504722,0.0580441363,-2.4050148993,-0.0394463038,0.138923777,7.6435688243,-7.6409123502,0.3279024068,0.0337148724,0.0734987005,0.2726291946,0.1836888335,-6.2005751134,0.212413862,-0.0758948035,12.439396532,0.1462308947,0.0190888344,-0.3852712381,-0.6828913123,0.1071209133,-0.0309806282,3.0375785515,2.8718371281,0.0874794825,0.0036177922,0.1355923085,3.563697298,0.3851620647,-0.1970227228,-1.0270012088,-8.0990461721,0.149976636,0.1206540694,0.3264122717,6.4188153909,-0.005029278,-8.7366697075,0.4561492424,0.2627725563,18.4634776265,0.1548561016,0.0156192534,-0.1872686163,-0.7818235151,40.3290466916,-0.0041668604,-3.280351349,1.4897335095,0.0460764085,0.0004511348,0.1041911479,0.2017113982,0.2528765592,6.3842120609,0.0986525846,7.5788443334,53.6845779777,-0.1840804194,0.1108344527,113.1522169978,0.1473537457,-0.1788299096,-0.0513693609,0.2327947473,2.2145722068,0.0089364197,0.534433144,-0.4400544532,-3.6286840261,0.5937640116,-0.1031192938,12.6109748629,-5.469823343,-0.0674819866,0.0115500829,16.3276570493,0.0808833328,6.8820212748,-193.0181642145,29.5181165064,-0.0490678158,0.8933115834,2.8374293956,-13.2479047663,0.1360839378,3.604046568,-0.5462954457,13.7175195416,3.9384343333,-21.5024841988,-3.8083799284,0.0394384697,-0.4401675427,0.1471685113,0.2890218409,14.0623738548,0.1628273791,15.0771898195,61.5009380733,0.3430765901,0.2400360086,40.2876692752,0.2949806397,0.2490179026,0.350687626,-0.521697787,-0.4934314746,0.239722231,1.7959690757,-0.1002515524,1.8741345402,6.9274649921,0.1557464285,-4.2195956714,27.0080508899,0.1771161401,0.0373620306,16.018081585,0.0637207964,-20.5614329291,-14.0975691493,5.8766252518,0.1514057484,6.4540734317,-1.2934296954,20.6284073393,0.0863441371,-7.3860888388,-3.2741278636,3.5351833714,3.5542364393,10.2585336226,8.2753274948,0.2696099402,0.0593908004,-2.0829518172,0.2407663731,-1.160843523,0.2438621165,0.3080320922,-2.2319270923,0.1823448863,0.2922553463,17.3926485751,0.3902270043,0.4853780039,0.3454479095,-0.9628464633,0.4489964029,0.2965471097,1.4282230328,-0.0506186096,-0.3913267193,16.0910168635,0.3600894105,0.8018897648,-3.5772145446,-0.2109345517,0.2949223497,-0.0440215621,0.3282940517,-0.0979258834,-0.8693283236,1.1092710931,0.1872815426,-3.9434499781,0.1673084378,0.0983046346,0.0510230102,1.1455964976,-1.5246090093,0.464185438,-6.8460185579,-0.7978918381,-0.2692112481,0.27982475,-0.425192723,0.458241805,0.3063491742,0.4556166817,0.2251264199,0.2442355696,0.1150803274,90.4212119846,1.193868828,-0.7601682035,3.5229568473,0.2545489294,0.2543373011,0.5975193833,0.185564173,0.6399648379,0.3418124079,0.3116447215,2.3282944852,3.8282499373,0.288918166,0.3379158347,0.1609716736,4.9525053466,-0.0769207618,0.0148594508,0.115863105,-0.001077542,1.1655906064,0.3086853445,0.2394767684,-1.1906537355,0.3824617614,0.0749889572,0.1227003497,0.1653415201,-1.7771704448,-0.0132316688,-0.8869780179,0.2422009845,0.1265070914,0.1378651346,-0.1174537295,0.1277580962,0.3352385683,-0.1475530908,0.0399597208,0.2101190773,1.2427095346,0.1820351503,-0.040398816,0.442900313,0.1729311631,-0.1202339975,-0.1445910221,0.3724834941,0.0932630835,0.0785252307,0.2452092636,-0.0118631046,-0.6890190929,0.1794392619,0.0301890222,-0.0872296746,0.0545302275,-0.0808763348,0.1973599659,-0.092411013,0.3068001564,0.1086778817,0.1687801983,-0.025451873,-0.1619238933,0.6221581969,-0.0186822171,0.1158901332,-0.070143387,-0.1499527177,-0.131175883,0.1389423888,0.2774260673,0.0367328714,0.000113076,-0.0476255218,-0.5025424678,0.0119063813,0.110841073,-1.9533037219,-0.1922903384,0.0371796956,0.5322630279,0.0205698235,-0.0673823545,0.4463730508,0.1704944601,0.2159420969,0.0901209265,0.2845078052,0.2669962169,0.3631474861,0.0055500802,0.2072544899,-3.6289277066,-1.0810196196,0.0113793841,0.0000670769,-1.5835806134,-0.0679426386,0.0353716237,0.0208765806,0.2657738233,0.3198021427,-7.1797079636,-0.0256087854,0.1443514001,1.0398103661,-0.1528243131,0.0969074323,0.2222711343,-0.652185797,-5.1155679556,0.1006129434,0.797537237,0.9471445259,0.2838349439,0.0682966916,-0.1432237041,2.110359482,0.2844462121,6.0198470477,0.008873674,-0.1269218199,-0.9287026657,-1.3729549027,0.4417087005,-16.6378923306,0.1787542368,0.2903607457,-0.0105075974,1.8721845102,0.0314498116,-0.3708901027,2.2251017456,0.1788848807,0.7788873345,-5.0001190624,-0.3178882598,-0.1914814936,-3.685423777,0.3323001115,-0.1396075568,-2.2963227688,1.5419023397,0.1228929467,3.9028472135,4.8925944137,0.3975654974,5.5732616851,0.060669416,-0.0273122455,0.0127488267,-5.5239334722,0.2837479013,-0.0976172432,-5.6452697817,18.7043457749,0.0784690904,0.3093565133,-0.3844970219,2.8086438092,0.2290418101,-11.7059255493,-0.0681906526,-0.0708048383,33.8824570142,0.1133593408,-0.0534882021,-8.9559209131,-0.3646540303,0.0536008765,0.0413411058,-0.7989109911,-0.0259656377,0.1595376868,-0.1092074168,-0.0340322211,2.6823960318,0.6378460674,0.2091135761,0.7189929904,-4.1163425383,-0.213678288,-0.0085877969,30.926046347,-0.3319409467,1.4673550524,37.4937800227,-2.1367991188,-0.127871014,34.0123328297,4.750479276,2.4592949769,0.1190617131,1.7487251812,3.9303511201,0.1446669728,14.5491198016,-6.4740808978,-0.4408718438,0.0196103563,-0.0668077613,0.2911319974,3.7984884269,-4.564903763,1.2030629911,0.3233530926,267.1522265608,0.3761578368,-0.1024942841,48.0492546374,-1.1255444735,-1.9807117787,1.9466151466,-0.1186844211,0.1137001723,1.3278073764,-0.6061823101,1.1773428983,-398.4139577916,-0.8573134987,-0.3422893555,0.3695922053,238.9739907503,3.547087916,0.5358654485,27.7529296417,-37.361274917,-3.5434226776,-30.8483568584,0.1391240699,1.6856735989,-116.5990959737,2.0716906297,1.2622348243,-0.719822952,998.0682600019,0.5027568653,0.3199102002,-18.7390080276,238.3749374403,8.4107290691,3.3747595172,-3.5139100249,0.1216139356,0.2358219934,-2.6696705417,-0.0556034036,0.1555271044,0.2405275311,-0.1205577899,-0.0426367618,0.2420451572,0.3105119631,-0.1782628298,-0.042493863,0.2070029055,0.0787947058,0.2603903082,0.2627807761,0.2335030778,-0.6357070532,2.1878691562,0.1381878388,-0.0083527521,0.3901103825,-0.0187366607,0.0964578241,-2.8437169954,-1.8793214919,0.1215622635,-0.0086483138,-0.2604795905,-0.1456347414,-10.6668413134,-0.0884258634,0.1049612492,-0.0387965434,1.525314107,0.1232594597,0.1232413109,1.4932244461,-0.512123992,0.1508818592,0.149858387,-0.1079871816,0.2155877542,0.2312563279,-9.5855112215,0.3746008211,-5.1493258794,-13.5678949632,1.0970462542,0.1586960383,-14.8000999903,0.3262455391,0.2622676302,0.2895713359,-0.0551361327,10.672793184,0.1597536555,-0.3123963425,0.0331907596,3.9451252258,1.4558277714,0.3474461232,-0.4801763061,-3.137875274,0.3871367695,0.5032882148,12.3537831509,0.336218964,-19.7814267555,-36.2099253214,-6.7164619495,0.1665284045,-3.7038087201,65.0254433825,-6.0276679533,0.3614665793,0.6582689968,1.0361373064,9.4707229466,21.6561497734,-1.0599095054,-47.0937808727,0.3655287158,0.1759050997,37.2356335493,0.4105314799,0.1349226075,0.0548715219,0.0501614458,0.1133195879,-42.2583554608,-12.8680370658,-9.3416720255,0.4006931586,0.0776104713,0.1532216786,0.1812420967,0.5742235215,-1.0286599782,0.8660306649,0.0487327089,0.486061215,-143.6835190644,0.2863718793,6.5318655067,0.0334509539,0.078959733,0.2395488614,1.3415768491,-2.1690238009,0.0328933785,11.7171312942,0.2059232384,0.2527938398,-1.1562546912,0.2284152353,0.0751706178,0.2062890342,5.8693743354,7.6879057504,0.0238340845,-0.4621780081,11.8223620095,0.1689250099,0.0685909792,-0.1081655046,0.1582738982,0.0954395407,-0.1604855583,-0.1448910996,0.2689229026,-2.0067543401,-0.0859031973,0.0464643056,0.4737739745,0.2327456967,-0.1567997505,0.0657766735,0.1981857946,0.3321302294,0.3154036652,0.434401831,0.0535905301,-0.1622417179,0.2456470279,-0.0160824359,0.189500825,4.1081728175,0.1346030428,0.1142149278,-1.1462511606,0.020730806,0.0755420312,-0.2326660609,0.0388208509,0.1605739151,0.699005886,-0.3058855626,0.14859738,0.1209016201,1.4162572638,0.4759362114,0.229083204,0.1354151954,0.3530787316,0.3103096942,-0.0862704558,0.0715171305,-0.0822048481,0.0202031825,-50.5963365522,-0.04548885,-0.9334506518,77.9500415644,0.3079660935,-0.1038201808,10.850580291,-2.2183938752,1.9312954189,-0.1623466744,0.1805732218,0.351645408,-0.2990633505,-1.0640649247,0.2706345053,-20.169814764,-9.2317482869,0.088553599,-1.6039237533,14.4474695773,-0.1061483453,0.077638963,82.8244919449,0.2067830477,-11.4117290226,41.278114362,0.0275707303,-0.0166577531,71.1109566956,4.2447979653,-0.0414122914,0.1976963639,2.721913719,-0.9536024286,0.0922380161,11.0757149069,-16.5870677977,16.8885364914,0.113099055,0.0526700783,-0.0072015814,0.0629365947,-16.1823196483,-0.1451240303,0.0034879926,-4.5738335127,0.114768381,-0.0214969663,24.647992987,0.1390070853,0.0651413165,-0.0181055037,0.3863612341,0.2396313465,0.1809742423,0.3483038062,0.1862406278,4.0488582752,4.2863879071,-0.0067808149,-0.4969377181,-0.6755516162,0.2020519316,0.1731765245,-5.3511489037,-0.0289034108,-2.3168370034,-17.7781927007,4.4210302207,0.0656887363,3.5355777967,-0.533687796,0.1652786944,0.0932680849,-0.3159285784,2.4335969951,0.0894276756,1.5154110275,-0.5790579509,0.127932231,0.0642861822,-0.1056775539,-0.1030378879,0.0353043411,7.9700926709,0.0370865315,-0.515214855,1.8115743367,0.1425699837,0.1297295721,-24.676955513,0.2128371252,0.0853052326,0.074307858,0.542114772,0.0775654181,0.5287784879,2.6867497007,-0.0522403884,3.6469597787,0.0807971963,-0.0902858009,0.6042050114,4.5108996735,0.0197114927,-0.0801328611,1.2099386631,-0.0293547791,0.2602097356,28.3581566808,-1.0028960355,-0.0445523508,-1.1844225282,-0.9664802551,0.4731691389,0.2509848288,0.8716786612,-0.5178663469,0.1629139825,5.3139586711,19.2276645579,-2.9751783951,0.0399018725,-0.1583945108,-0.2590100978,0.1531722513,-4.2502524734,-0.2164204766,0.0210012472,-36.2622599041,-0.0137357132,0.2390790795,-59.1226355703,-0.0049205514,-0.0135356814,0.0989498633,0.4360324115,1.1044910422,0.0108938757,-24.2175497665,0.2694172102,157.7351136239,0.0906905118,0.0586893751,-3.8318607468,54.8096783805,-0.054704396,0.1195836467,-0.3770551819,0.2240475253,-15.8469927193,-82.0573877293,-5.070059336,-0.1394528587,49.8113368656,-4.573125104,0.2765095698,-0.0772719928,-1.6240230894,3.8416255073,0.0025525752,-73.049730381,2.6169443346,-2.3128849614,-0.1100382572,-0.5273253711,0.0396500506,0.0363398714,-2.8705484216,-0.2150647034,0.0943477566,5.6087605084,-0.0761612157,0.0143429073,-1.9140297765,0.1628186293,0.1519771267,-0.0598871307,0.1827790357,0.3178456173,0.1560100021,0.1057630958,0.1109919734,-14.6957207823,0.095732521,-0.0355568053,-0.7377679197,-0.5642168413,-0.1302928878,0.1452527509,0.2496121701,0.1714499815,-0.602090836,-3.8221335068,-0.1328110157,-0.1380812164,0.611580949,0.1625155954,0.0111710282,0.0679965084,0.3442091063,-0.9931283275,0.1626310626,0.329304586,1.7314404695,0.0005554482,-0.0868330735,0.1607558991,9.1550309341,0.3676745244,9.9875403518,0.1506655247,-0.0218063925,-40.7078657335,-0.0848084652,0.1848731753,-19.9581047241,0.2267886209,0.0144504467,-0.1335349074,0.5731493776,-3.5392520677,0.3932654545,0.5382722167,-0.2013547734,8.9338003275,-30.2623156523,0.2033082988,0.7179051422,2.265550571,0.1998072854,0.2060203952,92.1109320149,-0.1121929254,42.0043700681,43.3831115043,-0.0480464201,0.1641280475,20.8409750512,12.2612477558,29.7465149708,-0.0288763498,-0.4388563292,0.2322096569,5.8074735237,-0.3760278801,-8.5501459093,-49.5659452625,0.1488778457,-0.5348827581,-0.1572839298,0.1828394566,9.8593400403,0.2124048562,-8.4476711295,7.7406358158,0.3431944222,-0.1965382629,-16.7488901002,-0.2267805804,0.1058139856,0.2438974975,0.2078793955,-2.804480487,0.4572961813,0.3399575001,0.3364645211,-31.0402689601,-0.4708192334,-0.02563957,1.4565905027,8.424369261,-0.0295257768,0.0258696022,5.8813890093,0.0022656429,38.9950311965,40.7820112956,-4.9077766232,0.209046317,10.7326600418,-4.7254237303,18.6610966102,0.2097423375,-4.0558793134,0.0527542276,-11.2635288224,-17.2112416518,0.3765552074,25.1994464058,0.1449407912,-0.2223229242,0.0106260655,-0.1482760898,0.0341731131,0.1091217094,-0.2018247291,-0.261304364,0.0289237629,0.0350407679,-0.0583407607,0.0817719262,-0.0532312728,0.0775829937,-0.077058973,0.2054974136,-0.4133262994,0.0393431854,-0.6962701019,-0.2860479001,-0.6018520908,-0.2405083387,-0.3057256525,-0.1509812798,-0.4294908691,-0.3327758168,-0.3292608217,-0.1399491716,-0.0466366079,-0.3069709053,-0.2693629702,-0.7108722881,1.1859368439,-17.6916053641,-0.3845731643,1.0634383141,0.0463002961,0.1165649769,-0.6258818501,0.0957930622,0.0784425592,-0.1191850094,0.1341699438,0.0303219394,-0.2122851053,-0.3707324439,0.2266769075,0.5037321011,-0.0567026633,-0.3769362693,1.105954751,0.0525248431,-0.2937620522,-0.1966236962,-0.1188449643,-0.1577054882,0.0291347969,-0.2543339824,-0.0868386627,0.0815769605,-0.2963867771,-0.245224708,-0.1896626351,-0.0610668896,-0.2706208709,-0.392790273,0.0716212749,-0.2110060553,0.1002510884,0.1832676917,0.0110563474,0.1603738254,-0.2016296781,-0.1805173664,-0.1922389362,-0.0413177703,0.2049520732,0.0544165081,0.0186091171,0.1857595575,0.0980445256,-0.3393111004,-0.2470502694,0.0157674032,-0.1102006508,0.0077506903,0.1514730837,-0.068217251,-0.0911029167,0.1977955631,-0.0521946741,-0.0390049371,0.1271437518,0.0939327449,-0.0534760896,0.1171167675,0.2562826385,-0.1937201837,0.1852868006,-0.2177490098,-0.2057159139,0.2231304945,0.0341852114,0.2099098313,-0.1604846128,-0.1325531179,-0.2670824314,0.0421629857,0.0032535152,-0.1421971079,0.1564418557,-0.1638970383,-0.1226698087,0.058156559,-0.0527081338,0.2106929249,-0.1413427136,-0.1948367921,0.0556129855,0.1484962835,0.0192651927,0.1813880232,-0.0427424003,0.1637260232,0.0730237682,0.0032645136,0.2049466957,0.1277194501,0.2142867225,-0.0841408791,0.0477145598,0.0830163156,0.1722259625,-0.0375553289,0.0829641389,0.1977972712,-0.2076048478,0.0939592752,0.1361792613,-0.3689396666,-0.2103418097,0.1726960775,0.3573155555,-0.2577927154,0.0594694702,-0.2393817683,0.0043753502,-0.1903525845,-5.3995783117,-0.6352250846,2.6423803118,5.9153762948,-0.53315709,4.9050415955,-0.1249815886,-2.0223367084,-0.3546644001,-0.5146788707,-7.5770041899,-1.4790272053,-0.0064440572,-0.1439363985,-0.338365875,-1.323996444,-0.5273618793,-0.5027400351,-0.2776496962,-0.1845358582,3.3386240282,-1.9183617807,-0.0948102333,-0.1277787792,-0.693087791,-0.2434064747,-5.9164788594,6.2931263353,0.3823548761,-0.1369515171,0.0362124367,0.5294723234,-0.2680548153,-0.2587063064,-0.0197313564,0.0727646098,-0.3049016451,-0.2197301278,-0.2058448439,-0.0112113104,-0.2747414332,-0.2431878006,-0.1923645749,-0.356716001,-0.3568571765,-0.2785902864,0.1531325329,-0.0926132214,0.1756535743,0.0854944236,0.1143776989,0.2081060738,0.0317106534,0.2157931277,0.1863920003,-0.0822649778,0.1248503128,0.1781314291,-0.0886841011,0.2374452097,-0.0103117556,-0.6079045129,-0.0719818987,0.2827003504,-0.5378397573,0.6275533311,-0.4464818851,-0.401453338,-0.381745757,-0.3236454688,-0.3798980186,-0.0782924803,-0.1234170702,-0.0680874886,-0.1448815185,-0.0644553891,2.439387506,-0.6580185416,-0.3735688616,0.5315986202,-0.4538467625,-0.4873577005,-0.4829785744,-1.8151389615,-0.0700511847,-0.7790094022,-0.0487770359,-0.9790804986,-0.3029046654,-0.4371534805,0.5514347785,-0.2051757909,1.715363934,0.3100323886,0.1283941894,0.1802011361,0.2820276206,-0.1282674267,0.1162521444,-0.1247216963,0.1317011539,0.1535564828,0.013741741,0.260646008,0.0711542574,0.2827132116,-0.0036607214,-0.0148503407,0.087731944,-0.5169302336,-0.0071569457,-0.0059255994,0.2260827231,0.1277656457,-0.1581980865,-0.090225311,0.0308784727,0.1969765643,-0.0931748642,0.1960925434,-0.1391301163,0.0528100145,-0.0913299914,0.0526946201,0.0872449568,-0.4724690095,0.1430465124,-0.1233871272,-0.0795015394,0.1422136376,0.0878700613,0.1478394573,-0.0556000431,0.1221597365,-0.1315735275,0.1214406098,0.1533725146,0.1487117258
   -0.0355630822,0.1021037984,-0.1232460532,-0.3312353197,0.019975362,-0.0661347664,0.0093572252,-0.0479775736,0.0433943955,0.1850235367,0.1132365506,-0.0627305263,-0.2196717288,0.1441165771,-0.1819862749,0.1351262735,-0.0023483205,-0.0515319582,0.1991589173,-0.0345230095,0.1440238591,0.0689580127,0.105003932,-0.057520776,-0.053375809,-0.0092237348,1.3034373063,0.0233145474,-0.2325536211,0.07792068,0.2937520518,0.2126373931,-0.1376713614,-1.0111376558,-0.2732459741,0.1183910227,-0.0850655381,-0.0249553046,-0.6418757806,-0.1861042814,8.8374478743,-0.5183718468,-0.8213360455,-0.6525582859,-0.0744580089,-0.430677625,-0.3094313508,-0.0508647059,0.9262907103,-1.7047451091,-6.2310071441,-0.1731428537,0.0423631386,-0.0883490907,0.2191456744,0.0718698263,0.2527436068,0.4597714453,0.0821314486,0.1825811884,-0.2108738345,0.316525248,0.1754370789,-0.3599031071,-0.304771626,-0.1781041257,0.1406195622,-0.4886344064,-0.1990362499,-0.2217797909,0.0100671883,-0.2545734203,1.9363280446,2.0254150309,5.188889167,2.2941139884,0.8183299121,8.5800532072,-5.1133670022,-11.1874674867,-6.6445184593,-4.526617267,-14.9872323521,0.2802886949,-0.0150251367,-0.0455963997,-0.1428343938,-0.1510451883,0.1563600333,0.0544417502,0.0723787061,-0.0817801637,0.1024828587,-0.1037629591,-0.0754087002,-0.1357025227,0.1921345356,-0.1043530918,0.0152585315,-0.0687131739,-0.1207951883,0.075235366,-0.0864805332,-0.1459481284,-0.2211268819,-0.0625901551,-0.0110595576,-0.1761442595,0.0280394169,-0.0910817992,1.0576056751,0.4459849932,-0.1343587796,-0.2084740529,-0.0226001431,-0.3241630925,0.1192353278,0.162376089,0.2503559156,0.1857459167,0.0491025481,0.114526835,-0.148901289,-0.0899368282,-0.0198068239,-0.0354122768,0.1431025299,0.1927930983,0.2039609463,0.2385011285,0.093359244,-0.5060224104,0.1389390651,0.1936572463,-0.1472946526,0.2515462644,0.2000786329,-0.051000564,0.0359835741,0.0011074455,-0.081973982,0.0692727252,0.1157880211,-0.1191009683,0.0689592972,0.1875926069,0.0578792044,-0.6093381838,-0.1216449879,-0.101457088,0.1945249227,-0.1196678348,-0.1861442069,-0.1007068561,-0.0242268099,0.172830351,0.0570548495,0.0657434376,0.2184385426,0.1612973791,-0.1106089403,-0.2125717949,-0.2383242145,0.2332510865,-0.1506336188,0.0211918217,0.5091878237,-0.0973077645,-0.033032685,0.390877983,0.0113901316,-1.5789075359,0.0564684763,0.0164960025,-0.2381561433,0.2236337194,-0.3407448366,1.6819848336,-0.7045526401,-0.2840826494,-0.2143338866,0.097654574,-0.2088160374,-0.06260759,-0.1393815518,0.0781779505,-0.143806263,-0.0653107355,-0.0007590171,-0.1739302924,-0.3558816793,0.0297180266,-0.0260801706,0.0025535437,-0.2293248805,-0.4906122788,0.0632852261,0.0841662414,-0.185983179,-0.0493733129,-0.016415647,0.1784973141,0.2221556452,-0.1448428092,0.2359978918,-0.1300805137,0.1940897651,-0.0188769351,-0.210779165,0.2131159193,0.0847032576,-0.2548615648,0.1182343246,-0.2164687144,-0.1471120849,0.1182350984,0.1107775736,-0.1755974047,0.1349264884,0.0575967872,0.0799652681,0.1646058768,0.1935569118,0.0877164195,0.261026545,0.1424179458,-0.2193728756,-0.6280464366,0.0555663247,0.2241728777,0.0982461119,0.2001527214,-0.0633597192,-0.0049365571,-0.0481116412,-0.0232934578,0.0632492664,0.1803699435,-0.0063241027,0.0331302633,-0.0990180931,-0.1519077883,0.1716756409,-0.599256078,-0.0146194868,0.2874763176,-0.0883686326,0.0797818887,0.0457701927,0.0553111034,0.0762441499,0.1715705769,0.14461259,-0.047552311,0.2931424516,-0.1044812326,-0.0801223987,0.2195589217,0.1431985897,-0.0389621971,-0.9079995045,-0.4868094195,0.0011491397,-0.4739027425,-0.4298186296,0.1464588928,0.1632234737,0.5057407748,0.5249531993,1.1206392115,-0.3101064948,-0.3532995053,-0.6011131377,-2.1821853323,3.2965204756,-0.1505105085,-0.1144318188,-0.3170161221,-0.2590020365,1.0476501533,0.5797595695,0.2109042873,-0.4031239859,-0.096895247,0.2163182717,-0.4905755466,-0.229916689,0.3238876675,-0.3412633507,-0.724023378,0.0560317927,0.158013734,0.1105003306,-0.0538784971,0.1762007106,-0.0425925553,-0.0723067673,0.2325691702,-0.2160792802,0.1143598817,-0.0764024703,-0.0801541133,-0.1764766567,0.2471300124,0.0602556435,0.1024330653,-0.1032862135,-0.3494072751,-0.0602471751,-0.1583751669,0.259922527,-0.0816627855,-0.1277384155,-0.089769542,-0.017858719,0.1748791707,-0.0693866064,0.186404529,0.127577167,0.1360822946,0.1787589558,0.1369249756,0.118022441,-0.3115482353,-0.2257818783,0.2262084644,-0.2241923848,-0.2999731772,-0.1525347099,-0.104429026,-0.1409589423,0.0696755839,-0.2301316289,0.6258436179,-0.248605682,0.2125326864,-0.315932643,0.1479482077,0.4155862697,0.0681555242,0.0587824366,-0.0162514001,-0.0445219661,-0.1107701746,0.0377654216,-0.1304400765,0.1278824002,0.0837472941,-0.0732788649,-0.0843330128,0.1253848518,0.0269556513,-0.0518851036,0.1581323342,0.125372929,-0.2405103993,-0.1469815859,-0.0628238049,0.0553463337,0.1097916769,-0.035413757,-0.6165394567,-0.1902071565,-0.3147367088,-0.4925315961,0.0439174611,0.0843799598,-0.1394948302,-0.5964921515,-0.6850957969,-5.1080869911,-16.8955892512
##end
biasActivation=1,1,1,1
[BASIC:ACTIVATION]
"ActivationTANH"
"ActivationTANH"
"ActivationTANH"
"ActivationTANH"
