encog,BasicNetwork,java,3.1.0,1,1384103437194
[BASIC]
[BASIC:PARAMS]
[BASIC:NETWORK]
beginTraining=0
connectionLimit=0
contextTargetOffset=0,0,0,0
contextTargetSize=0,0,0,0
endTraining=3
hasContext=f
inputCount=15
layerCounts=2,42,42,16
layerFeedCounts=1,41,41,15
layerContextCount=0,0,0,0
layerIndex=0,2,44,86
output=0.7092407752,1,-0.9968709064,1,0.9801980784,-0.9452023471,0.7262563196,-0.8323539891,1,-0.9592680816,0.9961157228,1,0.637659624,1,0.9935192527,0.9999617602,0.231838029,0.9999192662,-0.9998996358,-0.9999783976,-0.9999999955,0.9999704338,0.9872938909,0.111401935,0.9773993639,0.9985955822,0.7951018266,0.9999981265,-0.6370065674,0.9806681555,1,0.9999839899,0.9595886226,0.9524972955,0.9890227971,0.9308197244,0.9961037416,1,0.9999975324,0.6130350528,0.9867891186,0.9999999533,1,1,0.8215462559,-0.3505216597,0.887158372,0.8143866492,1,-0.9999999998,0.9826120097,0.1191187275,0.8058004269,0.7386992513,-0.12209488,0.9848132708,-0.9999619204,-0.3011388613,-0.5396552499,0.6172467526,0.9927605849,0.9999999962,0.9965068517,0.6976396444,0.5896709141,-0.9704866551,0.8529675214,-0.1313968588,0.7902422774,0.8945058078,0.7265689878,0.7043959288,-0.1398759577,0.9999999383,0.9097103676,-0.6735867647,-0.0943637475,0.9266837094,0.5004984689,-0.9990078842,0.8415264283,0.6917337084,0.4032146038,0.0594782947,0.4663530194,1,0.8489753314,0.8594133816,0.9185623326,0.9185623326,0.9185623326,0.9185623326,0.9185623326,0.9185623326,0.9185623326,0.8141818308,0.8141818308,0.8002644306,0.7438989597,0.7793883303,0.8211405309,1
outputCount=1
weightIndex=0,42,1764,2420
weights=0.2245556763,-0.043958647,-0.0752753596,-0.038796195,-0.0721454988,0.0857700572,-0.0270384684,-0.0903196516,-0.1823106866,-0.0576415393,0.1469909955,-0.0424080288,0.0918987841,-0.0993378204,0.0315575438,0.1141960042,-0.040115687,0.0248776356,-0.0424231432,0.1060776238,0.0713840104,-0.0967826496,0.1263213588,0.1101523795,0.1712039198,0.0799869502,-0.0994478057,0.1186065981,0.0207332871,-0.2169520911,0.099846335,0.0765775211,0.0697338181,0.0625546051,0.0750229609,0.0439006306,-0.1870435454,0.1891307715,0.1239326211,0.0439133755,0.0751626536,0.0879150381,0.4427690269,-0.3826171346,-0.2575556244,0.4310056586,-0.9371893179,0.5814153174,-0.2535691958,-113.0075219352,1.3279785016,0.2046461782,40.2655598498,-0.2022249174,0.0331792889,-27.2521717533,0.4392652103,0.0273951527,-0.3143276605,-0.3792189731,0.2661166016,-2.0453502978,0.4205317586,-0.2809199638,0.0592944235,2.8004655183,0.160032424,0.4158070978,0.6125177207,-0.1871080814,21.9117802491,-0.0819939483,0.2095715336,0.6887574939,6.9804962864,0.2875500372,-4.1514602617,0.4365340424,0.2199896911,-0.0142131178,7.1885799982,201.9327533537,0.0525590929,-0.6243179695,0.1798852582,-0.0608819617,0.1088970044,0.4615568813,0.1933364382,2.7598756263,20.703422559,0.0827190051,9.1855504574,0.3334464157,17.9704161164,0.3172188825,3.042523286,0.4581337249,-0.0531632506,0.3528700252,0.1583418213,0.4074623388,-0.5452309847,7.2925714374,0.4477760492,0.2063139009,0.1229925274,-0.05701937,0.2576950156,0.3213195785,0.1075474962,0.2732166715,1.30616855,2.176724903,0.9697963455,0.7847799658,-4.3677057893,2.623969668,-2.0498663696,9.0824047945,0.2356864218,-4.2135557673,0.2307295216,0.1596448374,-0.0106750836,0.200642111,0.0528349633,7.0505968368,0.2392161888,0.0597676053,0.2768644507,0.2906519115,0.1293701579,-12.2215903572,10.1688732718,0.3116522939,-4.081580529,0.0043651414,2.058553468,-1.9709039623,13.5343847109,-0.2523297405,0.1792255124,0.2418867592,-0.0134511263,5.603537049,-2.7046218474,3.5702079497,-0.1529227027,-29.8333839134,0.1274492402,0.2249322386,-3.1434807304,-0.5022866134,5.3857569078,0.1904390143,0.2284344225,0.1235528258,8.1694253868,0.009453838,10.419780162,0.2762152655,0.0569355805,1.9955405556,-1.3438976561,0.4877566268,0.1319582507,0.3844569633,0.2382689377,0.0947157698,-0.1217733632,0.3450993992,-0.027559754,-0.015359887,-0.5862645281,-0.0600246969,0.1897726173,-0.5269708824,-0.0218905734,-0.131393598,0.2853063333,0.2860565189,0.0283077955,-0.3125645624,-0.3969774847,0.1428645734,0.2953928933,-0.3101276475,0.0828694267,0.1508586399,-0.0323701204,0.2841765017,0.4073689783,0.1498261682,0.0398656539,-0.0974279107,-0.0857622788,-0.1366736705,0.4243305189,0.1789629678,-0.5094408043,0.1669193617,-0.1138130672,0.0387657974,0.2311595048,-0.0697576388,-2.199905003,0.1247950295,-0.6924139722,0.1456853723,0.2666072447,33.0306113383,0.0219173035,0.1131226154,-1.4002287737,0.9041833706,-0.1772005107,30.0848026978,-4.0203506873,0.1856791646,-34.4027036306,-0.3124993021,0.2616838204,38.4687677926,24.1630611199,0.0814996773,0.0811142919,0.0715331159,0.0704525935,-7.2720707891,0.8194398115,-2.1896898606,-0.0030869904,21.8691595626,0.1738187421,0.4412241969,0.8000764564,-0.5315156938,2.6986689629,0.1147636473,0.3516221106,0.7114777777,-2.2402147697,0.1358144258,24.845374662,0.4801790438,0.4883837691,0.1545700567,63.1677783528,42.1579435388,0.1122210406,-0.9301568027,0.096977052,-0.8710878905,0.1387098624,0.1092226673,0.3578169596,0.3234908729,0.1080411587,-22.0748613939,0.6460255566,-0.1642607947,-10.2188331796,0.064241984,0.2400149441,1.2051019379,0.7031596677,0.0078849683,-0.116695431,0.1771059962,0.1951538516,-0.1673002179,-0.7826550693,0.0390395383,0.1117090494,-0.3958715867,0.2302862837,0.3403777445,0.116473829,-0.7467601647,-0.6861582418,0.280650924,0.0344719494,0.2428590886,0.4305339455,0.0597586027,0.5948344716,0.2261773898,0.0259753887,0.0939988295,0.1682641699,0.3202789092,-0.0492744496,-0.35006975,0.4218707667,-0.062286957,0.1185636794,0.3251942144,-0.412803861,0.2943966957,36.8301461371,11.6133518176,23.0289692687,-18.6284457196,129.4179010963,0.1225064567,2.2938519746,0.1812537876,-0.575833879,0.0305777978,0.2471758979,-7.5038699627,48.2993914558,4.480536315,0.2391938053,-1.7752295561,-9.9888841386,-0.0855570838,0.1368112397,0.3788509343,0.4011045754,-0.0318972732,-6.9487436615,11.2023633265,2.5862226602,0.6215205785,-39.5086785405,0.1724510157,0.7985332294,-14.5652665215,0.5080213498,5.1834603435,1.2150598943,0.2493510162,0.4177435608,-0.2272790635,0.1995719221,-0.5114677153,-0.1402790743,0.2449296375,-0.6499283583,-0.3157018882,-0.3098179003,183.357857952,-9.6680094105,1.7374487303,-1.0992407638,-0.2984905305,14.1435752278,-5.9801089086,0.402406634,0.0995599288,-0.1975520051,-0.0190796695,0.2066282297,5.90479404,1.4503173019,-0.2835799993,-0.43908333,-60.2991944355,0.173842055,0.3962252968,0.2960353246,-0.0609515953,70.325633553,1.4817052566,0.1994457886,1.4278000362,-3.6319729459,0.2386201588,-26.4830246914,0.181525225,0.308490252,3.9324754606,-1.6128164556,37.7394812577,-0.2095929125,-0.3148104045,0.4106401267,-0.0000177725,0.2541629095,0.2230098008,0.2527532534,0.5261048746,-0.4785291913,-0.5283723737,0.4541358774,0.1382071108,-0.8356736908,0.0848860974,0.0643175577,0.482675259,-0.0110404655,0.2353536318,0.2122244329,0.0678065935,0.2173241676,0.0010930959,0.4716717377,0.3563325796,0.2185502323,0.0157317416,0.2728064336,0.2159602564,0.3520341512,0.2012218171,0.3522825763,0.0062447961,0.1887800137,0.4425700317,0.3678786661,0.2836162474,-0.1023745178,0.0361330642,0.4067996249,0.2579944957,1.9903831041,0.3240225451,0.1859066752,-0.231631631,1.2213164169,-0.0059704418,0.2658134155,6.1986496042,0.1320529872,0.4477038265,-9.3037598843,-23.025422955,-6.4975853735,0.5378614402,-2.0632071847,0.1443638699,0.6349322624,-0.743030398,49.8751247469,27.2739243613,0.1701649751,-0.0851263687,0.3189774521,20.8618278121,27.4529370411,5.0755450958,0.3216602841,2.5672240576,0.5111013359,0.1946992248,0.3784786223,0.2252137596,9.95399646,-0.2874905702,0.114856568,0.3503889601,-27.6965325054,0.4537122621,6.35111548,-0.0167940675,-2.4642626812,-0.3943319252,-4.4982255031,0.190344949,46.5119057191,-0.1185572461,0.0333132173,0.1227297821,0.0612388714,0.3273004145,0.3357567491,0.0279812402,-0.2335274372,-0.08908068,0.0536487939,0.0694857045,0.8656597844,0.0130632212,0.093465238,0.3367963887,0.2373674404,-0.1485941599,-0.2538225627,0.1480257285,0.1274252983,-0.2893698847,0.1383909148,0.3145834718,-0.2082461216,-0.0434985498,0.34806492,0.4009193298,0.2349324657,0.1126604634,0.175112713,-0.0560745485,0.3796967267,0.2666886237,-0.4750940673,0.2128325217,0.1081099832,0.0404721479,0.1786525937,-0.0321124279,0.0706278491,0.3799595282,-0.0428403965,-0.0151785882,0.3663550949,0.1153182753,0.4422146773,0.1057382644,0.2371830029,0.3784207691,-16.2771860681,-4.7804903154,1.1540488132,0.4459021771,44.9411281097,0.3859421038,-1.287025498,0.4205095613,0.2509990492,0.2055334946,0.1784941954,-1.9371766598,14.5138363515,9.2233299583,0.0792703372,0.032723534,0.1268401234,0.0759159692,0.4276519547,0.1087264509,0.4436641413,-2.0391282148,0.4961439966,0.6445107612,1.6282296177,0.4187494908,0.3762894639,0.2251783491,0.6902164848,-33.817599931,0.176172051,-6.8526589826,0.1370971967,0.422761535,0.1478670103,-0.1423361979,0.4108975738,8.6098782046,-0.1514824421,0.4012716824,-0.3942939574,0.4343709801,-1.2655149105,30.4177952483,0.7876632698,-0.0909668232,7.3445712756,-0.0115818216,0.263423607,0.5514384372,0.0573798907,-0.0095154383,-0.3282329091,-0.0453458875,0.5129337094,-2.708415021,0.3601627041,-0.0703857279,-0.0230413221,-23.9854528544,0.1385574108,0.4053137511,0.364581711,-0.1471931102,-1.4623943064,-0.160372239,0.2520159152,0.5500694114,-0.1110019201,0.4248823735,-0.2455720719,-0.1885367883,0.3431589313,1.3943493469,0.4252384492,10.1016616629,0.0411620647,-0.1055203474,0.4551386208,-0.6963017809,0.2231211207,0.49278677,-0.1693104436,0.212691018,-0.1455490087,3.2640493167,-1.7853423661,0.0700121338,-8.4040028267,0.0132144654,0.3629921828,0.4452501217,-2.4215689173,0.1650712575,0.1882055994,-0.0048296904,0.2776701511,0.004368433,-0.1703625093,-0.1325490366,0.1387635444,-10.7040780086,0.2178557115,0.5155830726,0.4909006377,-0.0178913356,0.1755741196,-0.4537967791,0.4946929819,0.3291562762,0.8443602002,0.1564907547,1.6727152834,0.0768492938,0.126726099,-0.5998099302,0.4168991307,0.489760596,0.6276628983,0.0379150353,-0.8492725483,0.1492867341,-0.0207405711,0.2767091017,-0.1322414182,0.4508651522,-1.1188645087,15.2757150315,-7.8220652433,-0.0739035382,40.2798407039,-0.0808004494,-0.6715803801,0.1520039751,0.323860649,0.188775324,0.2349507753,0.0035735307,0.2955958541,-3.1137071884,0.1790400556,0.072177509,0.2882012815,-1.3527982226,0.0732066715,0.4036777559,0.150934169,0.057622428,11.0770528797,3.9334113073,0.3639482608,2.9406155091,2.8940760351,0.5961922394,7.7767297823,0.8439647607,0.2006515115,1.7604469797,5.4681265401,0.2033451514,9.2462364812,0.0639266371,0.1450555496,0.1960665552,0.1110365987,0.1291737197,0.0157720126,0.1460507852,1.1561648293,0.1069076756,-0.0111106366,0.2460068105,-0.8530038066,0.2723816114,0.2770197594,0.1639505429,0.0847747323,-0.062150649,0.0248458459,0.2255169884,0.3432437368,-0.3244493777,0.2768096876,0.186204818,0.1344487243,-0.0382348389,0.4506935157,0.2254113169,0.4302388259,-0.0504839494,0.2050328321,0.4252470908,1.3254908841,0.1898145977,0.1554248843,0.3100071486,0.2757888186,0.3033753032,0.3837123839,0.2237639048,-0.0236282297,0.1099446037,0.1096488772,0.2405349126,0.1615658004,-5.7387318252,0.3014707846,0.3063956738,0.1272213508,0.2800632302,-0.5979164777,-57.4810532808,3.5955811763,0.0241398722,-17.2286327343,0.271213625,0.2339974613,0.4539304676,0.4611535227,-0.3820831595,-0.1207250807,0.3179488097,0.2716016318,2.0918330784,-0.0322315649,0.0751930715,-0.5639427032,17.4062481134,0.0810591273,0.0846929106,-0.1783155914,-0.1584709022,9.6859119385,0.3239643433,0.1211425379,0.170524225,-5.5118930446,0.2076657129,-5.096412987,0.1817112335,0.253224479,-2.021222899,2.7571516606,0.2440408894,-0.8127037585,0.0723430633,0.4561289823,-74.0280443747,-0.0384026968,0.4296214515,-0.0649618599,0.4946100925,-0.2058852478,-112.6228809579,-33.9158380394,0.2861980166,-228.2803780963,-0.0220493223,0.2484218341,-1.9718901735,9.1062421931,0.3193329658,0.0013498868,0.0254318026,0.0518193574,-6.8941568609,0.7103505392,2.4486402462,0.1227237452,-49.7305438943,0.3640453745,0.4975319435,0.171098823,-0.1692268224,30.924506705,3.9880950307,0.0647191271,-5.3966764083,-6.787110366,0.4411447397,-34.3064572913,0.1584081014,0.1956608286,1.1628591904,-9.162357104,12.2848338604,-0.0230052716,-0.2999813044,0.2694027796,1.1697943214,-0.3573581331,1.8426949423,-0.0351666614,0.0683889883,0.3273095236,41.5326812857,-4.6547294716,0.029249888,97.2028066384,-0.0295306353,-0.2482362827,-10.0047708731,-10.4370895836,-2.5911745129,-0.2292102135,-0.2234955614,0.0745303787,-0.273640473,-0.3721124455,-6.2762692144,-0.1787028507,-6.4603946603,0.128057992,0.2935226505,-0.4042942772,0.2593330674,-2.1825814706,-1.3363678371,0.0485779681,0.3274647118,1.6551791435,0.2285339158,-12.2778538565,-0.1659754716,0.1355465567,-6.4271203127,-0.2341171542,0.2548129889,-3.8978365555,-0.6732633588,0.376526645,-0.1423220915,0.1449304049,0.344240589,-0.0477221503,0.4474584221,-1.0079606554,-0.4451023275,-0.0554797275,0.2458835827,2.2555799167,0.1276664898,-0.2226296271,0.2087322741,0.03096723,-0.0630631101,0.0543126464,0.163678904,0.5214047876,0.7462341324,0.1237988812,0.1109511236,-0.2030484402,0.1292900062,0.4308288267,0.6289559875,0.1390517997,0.1974752569,0.0574911945,-0.0805053043,1.0559325789,0.315312103,0.0843234129,0.4812091731,0.1444387974,-0.4665524154,0.4288524796,2.6685375011,0.2157428234,0.314897575,-0.2589385831,0.2362086866,0.2318286874,0.3150231172,0.0180936817,0.3595605891,0.223044372,0.0026474677,-0.193403642,-0.3617044609,0.0513078508,0.0539955469,0.7700319113,0.2460394281,0.1615200741,0.197037171,0.1276094217,-0.1448777721,-0.3278107239,0.291580906,0.4004045283,-0.3225283265,0.2447894647,0.3812008897,0.0104854793,-0.1514840552,0.2533033248,0.3987572459,0.3987273218,-0.040613183,0.2842007167,0.1451747215,0.4419450764,0.1373400753,-0.0963982115,0.5071164694,0.3149263361,-0.043264968,0.2729136902,0.2238593022,-0.0941915428,0.2757217873,-0.1279028126,0.1402108563,0.4653231652,0.2778168805,0.2997721827,0.2846808552,0.295092535,0.3780564967,-0.1022690548,-0.297483932,-0.1033733608,-0.1486179196,-1.8996869809,0.0334003135,0.0485872463,0.1200267294,-0.0346710918,-0.1090966644,-0.2018481162,0.0368077757,0.0650116421,-0.08764461,0.0827349456,0.1745277805,-0.2352372152,0.320836589,0.1328887813,0.0898489526,0.1193585162,-0.4445525378,0.2435061206,0.2778656653,0.0180072197,0.0204623677,-0.1326545853,0.1563402154,-0.0855517524,0.2781471071,-0.011603686,0.6816202337,0.1092567045,0.19529006,-0.1087208903,-0.3757672305,0.1340599958,0.098490067,0.2812570834,0.2465595964,0.3096472079,0.0428123491,-0.2006561847,0.1305330536,0.248910064,-0.003117981,-0.7910664304,0.298975022,-0.1911031915,0.2011223346,0.1072516674,0.1530196338,0.0885734226,-0.0013023323,0.3735210791,0.0734259305,0.1051634418,0.1617799452,0.0416258747,0.2574115517,0.0313796392,0.2713548933,0.4102430597,-0.404220492,0.2212183069,0.1268262137,0.0251157716,0.0523033853,-0.1015642572,0.1789485734,-0.0026835687,0.1131940798,0.2512248072,0.0762783596,-0.4533129684,0.0262687431,-0.1482311816,0.0123034677,0.3784173418,0.0783240484,0.219047428,0.291471294,-0.0293574427,0.39652896,-0.0576901642,-0.3708309925,0.0920349076,0.1732728862,2.7150951417,0.2716429847,-0.286674192,0.3692670896,0.1760003635,-0.0697003306,0.2338748172,0.0447769807,0.2557249523,1.3413296141,0.1246657934,0.117733092,-0.0036313254,0.2592553894,0.5089517145,0.0785805009,0.3963117228,0.1787531295,0.1077767197,-0.2916393117,0.4944366726,0.1101251398,0.2105513369,0.1447876675,0.1568550362,0.0415167678,0.3119675052,0.1395285845,-0.0514287045,0.2576524175,0.2854472517,0.2832845351,0.1681334866,0.1425582011,0.3007577806,0.2317318779,0.3058686822,0.2002474627,0.1679769088,-0.4791894282,0.2199802529,0.1156632476,0.074311526,0.0018945896,-0.1807561841,0.3415099334,0.3779160144,-0.2812811189,0.0196649381,0.0904086686,0.0138484113,0.2006013232,0.2560897966,0.1505727198,-0.5314321704,0.0957981609,0.0296711142,0.1985807675,0.2415043073,0.241456475,0.3059681922,0.1061788701,0.0101124232,0.3389570653,0.1725464089,0.2801037382,0.1414920511,0.3869467845,0.1786984304,-0.0011088156,0.1353465114,0.3919642514,0.2119021149,-0.0754098867,0.4252803307,-0.893471663,0.1701372704,0.1905882984,0.1705283797,0.0652657167,0.0295511826,11.7889234062,-1.9916875287,0.0318448031,-17.2075586547,0.0919392479,0.4177391529,0.3984359016,-0.576505967,0.7696105015,-0.0238255064,0.1697739814,0.3391004074,0.5470596914,7.0271513231,0.2443198698,0.052773064,0.0781598212,0.1709235625,0.1003312298,0.2840928508,-0.0373792342,1.4736446092,0.1816820169,0.2517675105,0.0728064037,0.1091835065,0.0400754604,-0.2545874973,0.4340393962,0.267315591,-0.4649478307,-5.496464739,0.234599949,2.2222746293,0.0038817405,0.393284809,0.3161697037,0.0432724359,0.0318018685,0.2636176542,0.1858741755,0.3623079745,-0.1115345132,-1.4002883392,0.3635967149,14.6840625561,0.048525678,0.0096929127,0.2641335021,-0.0062771815,0.0221547175,0.0661201436,0.0572067755,0.3047552992,-3.073540867,0.3785150352,0.2912828153,0.1299469062,-0.0204545679,0.2523246048,0.4722945246,0.1486998147,-0.2767334087,0.5940437888,0.8910963834,0.3461424203,0.8549023675,0.1900481517,0.2746111572,0.2990028342,-0.042631521,0.3843747272,0.1615454676,-0.4119774058,0.086724515,1.6138476026,0.3528092814,0.6016908506,0.014785208,0.0867734618,0.2787739887,0.2059463681,0.1199729445,0.058628902,-0.1500444659,0.0215800372,0.2171499043,-0.4519141946,0.2711623587,-0.0505445714,0.2340536302,-0.3489561301,-1.9120099444,-0.0755334761,0.0543831091,0.1896071288,0.232916282,0.3392009586,0.0510196233,0.1125088929,-0.001917872,-0.3288716904,0.3696885101,0.2851521824,0.2177882495,0.0840634911,0.1211519168,0.3730162425,0.3506483263,0.1761935264,0.3947294634,-0.0150578816,-0.1176020419,0.3057720997,0.0523319857,0.0462387426,0.3103992041,-0.0753972255,-0.0684064209,2.9417502663,16.2374389061,0.0172610429,0.3823252301,-0.0225644299,0.5397237978,-0.208934456,42.6216936841,-4.750813858,0.1202185245,195.7827635426,0.2870939079,-7.6942567247,0.4616730356,-179.5955601036,0.2236719664,0.2273656799,-0.0649089317,-0.0956846381,17.9475937978,4.6956710196,0.0092550307,-0.1734083389,-93.0831437505,0.26261198,0.2199432885,1.8508940113,-0.1309335065,32.1659020843,-0.0578072817,0.224529624,0.1347900196,-23.033600398,0.3397352645,-1.4909704854,0.0724902964,0.3972603184,-4.8654309064,-46.9208698921,0.2910691086,-8.3557530521,0.031169891,0.2860070653,0.0779193314,0.3076555348,0.1831633106,0.3291302706,0.1751695191,0.3802760111,0.4048073347,0.4493238745,0.1519833725,-4.2772446904,0.245895464,0.1287113246,0.5281301581,0.1874114019,0.319783975,0.1121420315,0.1668412738,0.6775684732,0.1017690463,0.429741774,0.1585604067,0.0750981036,0.0000486862,0.5572198169,0.3363823292,0.5290837529,-0.0919563779,0.0463483798,0.0911807058,0.4026746378,0.392831366,0.2666847891,0.4088044308,0.94629145,0.1123712491,0.340007364,0.1436942834,0.2644148043,0.3805901099,0.1510633291,-0.1205986015,0.2036694198,0.0021017742,0.1714033878,-0.0136018974,0.3332175583,0.129704716,0.0961223215,0.2089207576,0.0980813762,0.2086042713,-0.1122239816,0.1835458378,0.0651094338,0.1592312227,0.1362639213,0.1824558261,-0.0063485705,0.1728108362,0.3590336936,-0.0213474955,0.0986951854,0.0805863157,0.2947491921,0.1429905007,0.194380458,-0.0172246109,0.0488487537,-0.0912445534,0.0742403305,-0.033533225,0.3030154472,0.305636085,0.340831503,0.1841937623,0.0546729063,0.3386825364,0.1000782682,0.1663518719,-0.0111050834,-0.050623424,0.2397459434,-0.0317953493,0.1054467164,0.2575659837,-0.0318300708,0.3399072891,0.3091372789,0.2642408445,0.1971082245,0.3233717254,-0.0275277009,-0.0028920844,0.5463698286,0.0613421666,0.089327719,0.0387195378,0.848131644,0.2029212563,0.0288454261,-0.0375713297,0.3028024204,0.048847564,0.3212231751,0.0599873666,0.2676484589,0.3002858673,0.3523751856,0.2945385381,0.5676294687,0.0963785581,-0.0060362418,0.1932598083,0.0126955756,0.0028098627,0.1637039039,0.3735250071,0.0583283356,0.3064808728,-0.0262088444,0.0107275936,0.1538588625,0.0981197808,0.2828490674,-0.3117160007,0.2107381858,0.0175656621,0.2354243917,0.0774820694,0.2907471791,0.0658825033,0.0659333585,-0.0389862651,0.0568519831,0.0336275516,-2.7618633009,0.1696607443,0.0569982204,0.1705181178,0.1925083996,-0.1285363779,0.0531471802,0.0710815791,0.0991964575,-0.1781603586,0.8536470967,0.0461270711,-0.0070091647,-0.0047514476,0.3816243553,0.071351987,0.0335666794,-0.4213384923,0.2359512682,0.2867748262,0.3219532944,0.105770071,0.1772327021,0.3056708176,0.3054996396,0.3781267085,0.3705287275,0.0801761078,0.1323758501,0.3730250517,-0.1775331496,0.0706862866,0.3840579018,-15.3842385451,-0.0499285582,0.1838053476,-0.2319480842,0.4870907333,-0.0812479398,-6.1162353335,1.2598807549,0.0945680429,10.4832474492,-0.145376716,0.3692389463,-0.3476808505,-0.0505364372,0.2214863476,-0.1319927656,-0.0599484118,0.1997387692,-1.3162061613,0.4623440527,-0.2432897391,0.0330106733,4.3497471427,0.4860534566,0.361725501,0.247215857,-0.0674395001,-0.2868033012,-0.0487219481,0.5372566961,0.3330072521,-0.4663391011,0.2679397742,-5.7414268686,0.0778405205,0.1889173161,-0.3079216234,0.3064108068,4.2196478267,-0.1535841497,0.0764604018,0.282131833,0.2490407986,-0.1224300511,0.3186551458,0.1734219528,0.429645913,0.0579956658,0.2457183985,0.084029676,0.0428107972,0.3802263263,-0.0071593353,-0.1709904953,0.1089167629,0.2591467637,0.1754468222,-0.0196495125,0.0109457979,0.2303676386,0.3669179671,0.4495191014,-0.056328808,0.0044166617,-0.1715048204,0.2815691084,0.4519495175,0.2827337727,0.0717418427,-0.142197208,0.0678055957,0.4062474378,0.3402475257,0.178919799,0.4359386285,-0.0197534356,-0.212932808,0.1471674301,0.015750387,-0.1958012465,0.3269131736,-0.1966102101,0.3342558768,0.6989790186,-1.0276063709,0.0965686989,0.8157467488,0.0619413367,0.9152615598,3.6377988644,20.2573508355,6.1636768328,1.5676812809,61.7024461059,0.1340194358,1.2388510808,2.8239920167,-2.6020661548,0.7681138132,0.1319773403,0.7044238593,2.0957695271,-10.1973494192,0.8101047291,-1.1522643169,0.5578045162,-1.3764508101,1.5450591068,0.3566458551,0.1906324624,0.4180439161,10.6085797559,-3.2980597538,0.4587732761,-0.1475982372,-2.7118285028,0.4635505993,13.2485813196,0.0840932407,0.4046779831,1.5992881104,13.0525563444,0.2032587673,0.3250712593,-0.1387633633,0.2233096085,0.1696240368,0.1739249552,0.7468244154,0.0616989131,0.4824481537,-0.3751811281,0.8441344795,-0.1339884796,0.2643466434,-6.6586650413,0.0985353418,-0.0775487251,0.5053450376,-0.0181411919,-0.1641349778,0.3118068787,0.0557315464,0.349702739,-0.1592705547,0.5355097955,-0.5532778393,0.0407057381,0.2799263598,0.4255188602,0.9125653016,0.5167031173,-0.048085833,-1.5569874078,0.4542215737,0.2799355845,0.2358230126,1.3917294553,0.3852198336,1.2439591359,0.3911462444,0.1643901646,1.5672470073,0.008074879,0.2421824625,1.0998167741,-0.151873875,0.2857879216,0.3061127038,0.1834306709,0.22353338,0.0464599434,0.1667937805,0.1857876765,-0.0195437805,-0.2169246936,0.065979945,3.3449025851,0.0248945628,0.1003129969,0.3645464285,2.6696876495,0.0076114448,-0.0161711348,-0.088510305,0.1455884998,0.1071538677,0.3795730251,0.2327947358,-0.1548811037,-0.0133414723,0.4372329432,0.3334943186,0.2919884355,0.1859075559,0.7055928334,0.1829068015,0.2870529809,0.0171793217,0.5274645403,0.2084527794,-0.5324042776,0.1878108607,0.4857566315,0.007691946,0.4780394939,0.3668882051,2.2396756555,-0.3283299553,0.4049836589,0.0531361209,0.0724663582,0.0707673138,0.0716445989,0.3695736203,0.1961856525,0.081743988,0.1577303226,0.1456746318,-0.0092216134,0.2896389737,-0.0640263071,0.305067937,0.1832576654,0.1911064983,-0.021789973,0.1715074359,0.311064541,0.1890280729,-0.0990747147,0.0289024832,0.1790707072,0.2394587849,0.1844899034,0.0853943419,0.3380493005,-0.2033151543,0.221910715,0.0131928831,0.2595804424,0.0312904901,0.0273632804,-0.0574561526,0.1972047742,0.0457370881,0.2144433507,0.0411169727,0.1625359032,0.1761036766,0.0896918817,0.1814753621,4.0441504053,-0.1108126619,0.2815854662,-0.8352796877,0.0299435833,-0.2234761422,-0.9189674444,1.054370664,3.0954903196,-1.1784275788,-32.4961803394,0.0956898143,5.480327938,0.203035902,0.2005307931,-0.0016251682,0.0420778482,0.3781766199,-0.301538082,-3.143623404,0.3320242653,-1.7489406342,0.1962327031,0.0495773083,-3.3249012302,0.1809714545,0.2948968154,0.0546533141,1.8383251062,4.4340006468,4.3518025485,0.0389762667,-0.9922236323,2.4660891546,-3.5584737094,-0.8061458746,0.5420144608,0.3999422334,-3.0365447213,0.2839646574,-0.9716025532,-0.0076809876,0.124457625,-23.2794502097,-0.0628212899,0.2128571513,-0.0809121437,0.5662524531,-0.4388992029,36.9818908678,-2.4987906577,0.0251812928,0.5665549622,0.1903396142,1.3877546472,0.240573134,-5.6979731692,0.1324713941,0.0837578643,-0.0899282888,0.5875236265,-4.9347418371,2.4639816208,0.1357496613,0.3280237309,6.7095817881,0.4106566965,0.4319748714,0.2303631248,0.0293212087,4.4844389982,-0.0581754599,0.5537085547,-2.2418804717,-4.5860681938,0.2700603451,-10.1938718879,-0.2953127175,0.3875358835,-0.6204462865,36.61829119,0.2437295393,-5.6259849717,-0.1738243159,0.0375894431,-0.0322104944,0.1431419337,0.2760187402,0.073918273,0.105745943,0.31013105,0.1785918113,-0.0099540148,0.5791987825,0.0311239093,-0.0393842189,-0.0992300257,0.1181886679,0.0157916732,-0.3291724021,-0.1720695451,-0.0893530907,-0.3041201916,0.0559836875,-0.2880546296,-0.1819299897,-0.1470960285,-0.1650732157,0.0726303039,0.0424382951,0.0971046389,-0.144598199,0.0762511864,0.0793943073,0.317972265,0.3589075253,-0.7526498769,-0.3667791598,0.0447527846,0.1631177078,0.4395648754,0.3246663234,0.196356987,0.0390679157,0.2433946858,0.2017624931,0.0266880687,-0.1192415136,0.5613844051,0.1192923422,0.2362428031,0.2347031101,-0.1013992521,0.3168615871,0.0730241608,0.2835651467,0.2206110427,-0.1041342555,0.2075737393,0.006338953,0.2547632106,-0.0986532059,0.2347080847,-0.0658972195,-0.0170210819,0.1370821389,0.2238530894,-0.2473911568,-4.3598946627,15.2116588268,-9.8177886766,-10.7786987567,-8.1845664147,23.3066539462,-1.2296090734,-7.8305897909,-9.7076912531,17.2918419534,2.3301690268,16.9918177669,15.2695093817,-16.7285675275,-3.2814712161,1.0629972363,-3.8703599465,0.3068102811,1.1708429981,-10.286832717,1.3208667057,-2.936315966,0.3966658542,-2.9634972985,-0.2973750513,-0.1061021338,2.4318703582,-0.8566183636,-1.1051997388,1.4511462968,3.0729617749,-0.0794613624,0.8294216028,0.6800913924,0.8399500555,-1.7802679774,0.9478070417,0.0868145991,0.2313672548,-0.012153826,0.0414761833,0.6548158946,0.5576357958,-0.5156818617,0.1177600428,0.0026440675,0.380690859,-0.2232635867,-0.3358515695,0.184566845,0.0771781745,0.3287256991,-0.0134950394,0.2795485514,0.1255538266,0.0093340324,-0.0688926988,-0.0418269185,-0.1107083965,0.1479098623,-0.0032187063,0.0279045971,-0.4678701816,-0.0610004301,0.4478446341,-1.2679983088,0.0830455545,0.5667635133,0.1146490614,0.4400838226,1.2491916504,0.4080737816,2.0334702017,0.480759723,-0.0956823912,0.5851412863,0.1861015334,-5.0517132171,0.2544676915,0.1359056342,-0.0649217276,0.0862784778,-0.0287605977,0.0300498974,0.3233609294,0.3044477622,0.1657537009,-0.1071311599,0.1347679748,-0.0237136371,0.1510002759,-0.3882226556,0.0097471817,0.1728013201,0.2308296009,0.0486438865,0.2885586039,0.2248112647,-0.0956946636,0.2310000435,-0.0296549759,-0.1645362794,-0.0568711511,-0.222553318,-0.1201659131,0.1815093573,-0.2488367252,-0.2236648254,0.2540981809,-0.1227336288,-0.0479659665,0.0400753226,0.1270171291,0.1125525195,-0.0685110906,0.0881043008,0.0967260792,0.2347649426,0.1854184478,0.3578082298,-0.0130997187,0.2906156298,0.1094313823,0.3151676818,0.1773914813,0.0892630265,0.3910328709,0.3218647849,1.3600035681,3.9645425637,12.5194650021,-11.197323353,-3.3873954297,-6.3138250083,-6.6552804567,2.4835875477,-2.3566331277,-0.825398564,-3.4500818246,-3.3580374609,3.6938353913,1.7358401466,6.2173363599,0.6594054128,0.1145475626,-0.1874588898,-0.1010964752,-0.1401613041,0.1305223105,0.1661428947,0.1067716082,0.048400868,0.0714815495,0.1771836761,-0.0424485497,-0.1137884675,-0.1674298384,-0.1612314415,-0.0849864243,-0.204645417,-0.0729317091,-0.4166934951,-0.1737165688,-0.2454441979,-0.0717546308,-0.0075613677,-0.4382702992,-0.1055046084,0.0219314861,-0.2506895667,0.0476425948,0.0211183917,0.4705294237,0.1262752841,0.1907718736,0.296910316,-0.1698377199,-0.1334841186,0.0761236343,-0.0652046663,0.1461209866,0.2311150435,-0.023918063,0.0555455175,0.2383779736,0.1446799559,0.1990071459,0.2307265229,0.0680272312,0.0559632896,0.0298027993,-0.208271171,0.1671182788,0.2413902909,0.3828497265,0.0369559231,0.1699961365,0.3959133353,0.2270332556,0.088712565,0.0045228032,0.3877393873,0.3570210917,0.5699046691,0.1973121763,0.2797558591,-0.3730323749,0.1389554121,-0.6088382351,0.3982080322,7.0179323719,0.7943768855,-0.5446640792,1.5591672748,0.1758223219,5.1218286263,-0.392942435,-2.7029291426,-1.9875439914,0.5518129904,-6.9831049301,5.1556399477,2.4899855385,0.1131645536,-0.289536493,-0.0137550733,0.3016772067,0.3335009436,0.2072702292,0.2080686001,0.3608326162,0.1724273826,0.2406664461,0.8882245723,0.4760354057,0.2245321334,0.3501497227,0.1305916994,0.4305158399,-0.2502713331,-1.4796127789,0.1646090456,0.830384946,0.5697200564,1.0072804588,-0.0186286397,0.0648163456,-0.2253369516,-0.0873972764,0.464171003,0.1032977158,0.0591617341,-0.7081159199,-0.2865235798,0.2516336717,0.0449662874,0.224983913,0.060706517,0.1721999095,-0.007429804,0.1856951583,0.0442314659,-0.0753181259,-0.0576940946,0.1801500254,0.1848363088,0.0318829657,-0.0797476316,0.14209486,0.0294862447,0.2583575812,-0.425331976,-0.2291393232,-0.7358811225,-0.4814411619,-0.5451941435,-0.2556801428,-0.4353015352,-0.228222821,-0.6056177839,-0.2064402596,0.0089257026,-0.0673089835,-0.3231385661,-0.1644992646,0.0806881026,1.3917724239,0.4824377769,-0.0331411764,-0.067237338,0.0519118196,0.2705102483,-0.0546559457,0.2132637004,0.268996648,0.1942119607,0.0406855293,-0.0199639298,0.222580346,0.1975311349,0.0097496761,0.2892949174,-0.1073286232,-0.0194859644,-0.0905990558,0.0145481437,0.1700776581,-0.1344516477,0.1987096516,-0.0558318431,-0.2426083856,0.1496201167,0.0496852387,-0.1288489401,-0.0729393631,-0.1247066124,-0.2240400506,-0.0218631542,-0.001905905,0.2574208569,-0.0980231725,0.1796333695,0.1778473257,-0.0783788953,0.061719733,0.2640889856,-0.1023690176,-0.0112712389,0.2503568713,0.0601800698,0.2028139758,0.205308841,0.0049833208,-0.0008143072,0.3339801693,-0.1710532454,0.0642102912,0.2850066419,0.122435951,0.2870058524,0.1804599662,-0.0507625882,0.0732591293,0.1306859369,0.1862106082,-0.0915983647,0.2146773676,0.2677222605,0.0162124938,0.1735433031,0.1222167966,-0.2711705661,0.1490713715,-0.0946125016,-0.07321874,-0.0611930665,-0.0411465321,-0.0161658332,0.1358202774,0.2033778452,0.2262181374,0.0226862507,0.2794303568,0.2979014888,0.3102741711,0.114303478,0.1485623492,-0.3933528948,0.1101739337,-0.0775368401,0.1762879714,0.2849621924,-0.0328702039,0.0125591679,0.2115348274,-0.0559738785,0.2882231099,-0.4541214786,-0.0900514333,0.3428519325,0.0110029224,0.0740040554,0.151943169,0.0144542248,-0.0829367635,0.0538763055,-0.3976879225,-0.0937335738,-0.1384963249,0.2097687033,0.0956994058,0.054937303,-0.2735137718,-0.0729501245,-0.0510418657,0.0042434183,0.8328595905,-0.1079964922,-0.217522388,0.1228940285,1.8771869535,-0.183047048,11.1804014964,3.8847078824,4.703139641,-1.7969424577,2.9210261318,-0.9486085211,-6.5175321282,7.0022321104,-7.7495093117,-2.6893470619,-0.3175883674,-3.8094506234,1.4366410016,-0.3359812384,0.1388732594,0.0931899364,0.0878970686,0.1950859278,0.0645020266,0.2876267447,0.1301837438,0.2361817409,-0.0442686232,0.0576285288,0.1279282194,0.1895374482,-0.0590894335,-0.0037528803,0.4099612881,-0.1439136481,-0.2048225225,-0.0968462054,-0.1419194996,0.0449625916,-0.5843495954,0.158288063,-0.1260069436,-0.3022105341,-0.2403427378,0.3164426558,0.0245337121,0.1169495905,0.0178276108,0.0808641023,0.1842157203,-0.0643814678,0.2287673377,-0.3028289488,0.0307114922,0.0469124808,-0.2053539609,-0.221832255,-1.1018653478,0.087517165,-0.2258970159,-0.1728607203,-0.0371404726,1.0704405431,0.1549988484,0.259733964,0.3843501513,0.1127303893,0.2549050361,-0.0698052509,0.0900642198,0.2926111543,0.2855925899,-0.0246676249,0.194040848,-0.0252240479,0.1408958312,0.1238169483,0.2611911483,0.2208200574,0.2505149251,-0.0648842827,0.2403414343,-0.2210304289,0.19261511,0.2728633953,0.4090302531,0.3866221366,0.3324825922,0.2615184862,0.1797185118,0.3662861801,0.2728501899,0.3505746586,0.1554689189,0.2201699599,0.1229772085,-0.0201840263,-3.3906180314,0.2435072726,-0.3024004968,-0.5037440268,0.728578756,-0.8105057614,-0.4506832424,-0.9524139606,0.4277459521,-0.9197968677,0.1432369431,-0.9208191617,0.3011063599,-0.4091993307,-0.4112504999,-0.2017771081,-0.4556181176,0.239333372,0.1849099337,0.262783636,0.0081236959,0.110350286,0.1101689078,0.3259539188,0.1139799986,0.0339762201,-0.094849936,-0.0310309225,0.1228737937,0.1895105114,0.1178764299,0.0975434631,0.2269221043,-0.2911384367,0.2938533072,-0.6761160039,-0.4359678367,3.5250208024,0.3355915613,-0.5101573645,0.2619879987,0.2447463191,0.088926114,-0.4395781141,-0.9358160884,-0.1212347034,-1.1726242206,0.0722868511,-0.0210526674,0.0086745458,0.0365463066,0.2431192518,-0.1921765047,0.108094709,-0.0639179557,0.0413661341,-0.0987906999,0.0247013813,0.3224898048,0.2774582183,0.0676696961,-0.0291726954,0.1430050632,-0.1385241935,-0.0616764686,-0.1481299679,-0.0936859126,-0.0188533241,0.1720480532,0.0401018671,0.091014004,0.1460467744,0.0194138177,-0.119250202,0.1732213015,0.1155537353,-0.0452104616,-0.0401292874,0.0910888213,-0.0808910738,-0.0062583877,-0.3494827168,0.1249351112,-0.2981192517,-0.0550654829,0.1399880047,-0.0906135497,-0.1472354486,-0.0270819941,-0.2327945686,0.2940712158,0.0587933705,0.1975137789,0.3880014294,0.1312200453,0.348517806,0.1362884577,-0.235738521
biasActivation=1,1,1,1
[BASIC:ACTIVATION]
"ActivationTANH"
"ActivationTANH"
"ActivationTANH"
"ActivationTANH"
