{"layers":[{"0":{},"1":{},"2":{},"3":{},"4":{},"5":{},"6":{},"7":{},"8":{},"9":{},"10":{},"11":{}},{"0":{"bias":-0.008707494444575959,"weights":{"0":0.01172193868901835,"1":0.1077750727630404,"2":0.14400861941216345,"3":0.20006674640248667,"4":-0.17396668068813065,"5":-0.15919797491606458,"6":-0.0014446373093401558,"7":-0.06999802836832782,"8":0.1664045187443997,"9":0.0902651909190773,"10":0.10964486648198744,"11":-0.0016258974014414862}},"1":{"bias":0.23962031994541402,"weights":{"0":0.017756857077069005,"1":0.20951050755201786,"2":-0.06905202609224265,"3":0.20389068345922923,"4":0.01512128820387844,"5":-0.060148200223864384,"6":0.06896805051776148,"7":-0.13563600742424417,"8":-0.15377836739355807,"9":0.16459353756078074,"10":0.22516874308611098,"11":0.07972701501402478}},"2":{"bias":0.026669019634223308,"weights":{"0":0.022663980850396986,"1":-0.07663166749960067,"2":0.1415139798039662,"3":0.007494729352635779,"4":0.07469179382837875,"5":-0.11120105987650021,"6":-0.15297495061683586,"7":0.04106645576438873,"8":-0.1243484191910856,"9":-0.16561913802769845,"10":-0.05657497471110706,"11":0.14156414668640113}},"3":{"bias":-0.034854780379262484,"weights":{"0":-0.10797215317948397,"1":-0.030169944209150593,"2":0.08858602309351618,"3":0.10587025142934607,"4":-0.12016960847611784,"5":0.0400300366119857,"6":-0.1886761491455693,"7":0.001746059025196892,"8":0.11164984521008893,"9":0.19994813929137345,"10":0.11453948942303824,"11":-0.02921026376001368}},"4":{"bias":-0.057930619474602575,"weights":{"0":-0.12521857469470418,"1":-0.15081455463203394,"2":-0.005334408190725815,"3":0.11689623041671013,"4":0.19000217078613296,"5":-0.05529677570548438,"6":0.04164060335857952,"7":-0.0809096319670993,"8":-0.02366281354449901,"9":0.1910335120793329,"10":-0.1520724481328757,"11":0.15646959898194945}},"5":{"bias":0.7119493672184808,"weights":{"0":-0.007672167374741829,"1":0.12196928348442856,"2":0.04913766107937849,"3":0.10754370525539657,"4":0.056885797261570926,"5":0.07103162030332852,"6":0.2532212520732683,"7":-0.08610970639294292,"8":0.14316671661382036,"9":0.05407931812368805,"10":0.10993281141001397,"11":-0.06694519631262559}},"6":{"bias":-0.10555999901470288,"weights":{"0":0.20394768832000162,"1":-0.07847582328643112,"2":0.17703746018702748,"3":0.14328069901738788,"4":-0.1037463237893606,"5":0.08194013274359879,"6":-0.04804847054512571,"7":-0.10600965235945577,"8":0.082870433444455,"9":-0.18072066107334464,"10":-0.06884035934494741,"11":-0.019784693028059498}},"7":{"bias":-0.07194149900268706,"weights":{"0":0.14971377646028464,"1":-0.09666255628426702,"2":0.1333245155187703,"3":0.03511479984283797,"4":-0.0675339635728434,"5":0.2003110337696764,"6":0.17457229759428336,"7":0.09243231235641314,"8":-0.04908651495792665,"9":-0.061906516951150264,"10":-0.10307644330837545,"11":-0.19515063898717538}},"8":{"bias":0.1319383770023163,"weights":{"0":-0.0387565926744928,"1":-0.17129883340895702,"2":-0.14069705448954922,"3":-0.19115676989725539,"4":0.10393742981124873,"5":-0.036970301847923846,"6":0.047973816326692946,"7":-0.05161246657945163,"8":0.08527016236195095,"9":-0.11802963055655633,"10":-0.19211365407850878,"11":0.014575055400882683}},"9":{"bias":-0.0827490315889218,"weights":{"0":-0.0004275360569471662,"1":-0.004163992919575865,"2":0.17941803456274125,"3":0.03119358512637609,"4":-0.010965259718259929,"5":0.06976232955373562,"6":-0.0468505507893715,"7":-0.06792488708988628,"8":0.14376888528601364,"9":0.1493675544518679,"10":-0.06381642791457269,"11":-0.09006889288711174}},"10":{"bias":-0.01068253509552037,"weights":{"0":-0.05217930875215747,"1":0.18847301239578043,"2":-0.07097177029528152,"3":-0.03097898864379046,"4":-0.11245947407749189,"5":-0.1393249825510223,"6":-0.10723872466411848,"7":0.015130580833582557,"8":-0.17377404144740508,"9":0.20237090707763658,"10":0.11417193017994284,"11":0.07423183730023357}},"11":{"bias":0.18718385537857857,"weights":{"0":0.14385010103315146,"1":-0.1113823722649411,"2":0.025081657383212302,"3":0.19999861116602266,"4":0.15504069265163398,"5":0.08662620496236825,"6":0.10757212349347452,"7":-0.1090778997722518,"8":-0.007405823449063761,"9":-0.17266230680721611,"10":0.1894112921456583,"11":-0.15002079265370502}},"12":{"bias":0.6717284528637723,"weights":{"0":0.17921743726775438,"1":0.1289920128975858,"2":0.02064785916148278,"3":0.03216067100494743,"4":0.13158481306518596,"5":0.17070028170862617,"6":0.19571583617286126,"7":0.2251150952397111,"8":0.09996709064042157,"9":0.22629254433295865,"10":0.0016232740325516357,"11":-0.005380042941515924}},"13":{"bias":0.1106221858191358,"weights":{"0":0.14861636793071498,"1":0.042793817622444816,"2":-0.18618595394935628,"3":-0.09488058489742987,"4":-0.07119966785298963,"5":-0.12590469109166896,"6":0.046157115743316546,"7":-0.12641187447478786,"8":-0.15435059996931738,"9":0.06973774556917675,"10":-0.17822891559127063,"11":-0.03846938690910691}},"14":{"bias":-0.005973094515201229,"weights":{"0":-0.05035797351382912,"1":0.0884436348363469,"2":-0.11588115055913166,"3":-0.12017259087919806,"4":0.16939077699012395,"5":-0.08201129990361078,"6":-0.16092729375984663,"7":-0.17057840427529847,"8":-0.10464399401610482,"9":0.18831364577372203,"10":0.01655791910541704,"11":0.10349803203822038}},"15":{"bias":-0.07146554159344473,"weights":{"0":-0.09784456108714311,"1":-0.1657857713196309,"2":0.1613796992484257,"3":-0.007972431090499593,"4":0.146050450790992,"5":0.09601709632426646,"6":-0.10605747009219235,"7":0.07062569230964798,"8":-0.03404101081620047,"9":0.1452109766977949,"10":0.06409973878913634,"11":-0.0317070716401663}},"16":{"bias":0.10926730765898203,"weights":{"0":-0.09413961223405264,"1":0.022835365972651275,"2":-0.16811508501544492,"3":0.1367690142299461,"4":-0.16405433323320387,"5":-0.07359090307706455,"6":-0.1018198026551711,"7":-0.18905209508893797,"8":-0.06418194057726115,"9":0.192049233765669,"10":0.0067907666205188665,"11":0.13070683529790814}},"17":{"bias":0.3572691414445599,"weights":{"0":0.1749898413805875,"1":0.08250839756432427,"2":-0.09686793279872798,"3":0.05348219885114384,"4":-0.06458611383611942,"5":0.23795909934303905,"6":-0.06629262012621391,"7":-0.12165778920694043,"8":0.1577999325074593,"9":0.09941928087765883,"10":0.19284533877674265,"11":0.14407066917820693}},"18":{"bias":0.09298614326208851,"weights":{"0":-0.13220031885534533,"1":-0.11970831754429948,"2":0.14542678115164867,"3":0.14961773222593575,"4":-0.15911799201131602,"5":-0.06902855479731294,"6":-0.0726571697841941,"7":-0.05355475843462873,"8":-0.19282117302911078,"9":0.05542558978970263,"10":0.15853832801326298,"11":0.1889558226986347}},"19":{"bias":0.051727284026734814,"weights":{"0":0.09703668014049482,"1":-0.1842579090983159,"2":0.12461404723706825,"3":0.12361915205476351,"4":0.0542730814049018,"5":0.01968669425333454,"6":0.09584449315954674,"7":-0.17653231026382077,"8":-0.02469951444347186,"9":-0.08546418193468905,"10":0.09194108110957147,"11":0.10101432601501813}},"20":{"bias":0.013970822290594816,"weights":{"0":0.1619225500549085,"1":-0.08891956687186166,"2":0.1249367737156003,"3":-0.12061400534291322,"4":-0.16858996645489643,"5":-0.14364984459162614,"6":0.2115085885794902,"7":-0.08963027197653405,"8":-0.10299704898593214,"9":-0.0021850129953863875,"10":-0.04709506754133701,"11":0.05939721810984912}},"21":{"bias":0.49544397202721224,"weights":{"0":-0.029446689298145597,"1":0.12105555029640706,"2":0.17911304978579767,"3":0.21329090898122313,"4":0.042047320193834246,"5":0.20102095402933245,"6":-0.04964649829914106,"7":0.13091449073709335,"8":0.1778321408864458,"9":0.20996054141713433,"10":0.09443686463938399,"11":-0.05882413969653862}},"22":{"bias":0.20688895364893028,"weights":{"0":-0.12819619779975253,"1":0.19991451571048705,"2":-0.14421461416098302,"3":0.1033788382863026,"4":0.07900559587825876,"5":0.19820380895644213,"6":0.038635979792124256,"7":-0.1349037576068768,"8":0.12705457535789033,"9":-0.03473495595447345,"10":0.16462821080562343,"11":0.15839315854872602}},"23":{"bias":-0.0194389938642878,"weights":{"0":0.1607106059320122,"1":-0.1115780126982367,"2":0.14526886668621397,"3":-0.0036047038405485855,"4":-0.08328658272271476,"5":-0.05922044279036963,"6":0.053762350733481276,"7":-0.06527470613811413,"8":0.19886667877401312,"9":-0.18039651626047737,"10":0.17880345021679034,"11":0.01246787083946421}},"24":{"bias":0.04593359776030084,"weights":{"0":-0.06032898105670804,"1":-0.1022163895091302,"2":-0.01192674112444519,"3":-0.12391108023944541,"4":0.20400615545382766,"5":0.037170862384120595,"6":-0.03861237768635833,"7":-0.029812212232115137,"8":-0.07297478382812884,"9":0.07814119650264548,"10":-0.12958279326228878,"11":-0.08008393448381418}},"25":{"bias":0.01831692739560317,"weights":{"0":-0.11771110702987146,"1":-0.1452391648816687,"2":0.2075637621745307,"3":-0.15409295189166372,"4":-0.1471940732494248,"5":-0.12064696478462776,"6":-0.1346230485203179,"7":-0.049802970197472055,"8":0.1645951688441628,"9":0.043758538423535644,"10":0.1351872252991434,"11":0.11662001281625989}},"26":{"bias":0.03121076000751443,"weights":{"0":-0.0590873898907056,"1":-0.057729293252924516,"2":0.0005462869294660373,"3":-0.08228662906546899,"4":-0.15365189727432257,"5":0.09809468272169825,"6":-0.10834070898138046,"7":-0.09319999030315529,"8":-0.09183877093869272,"9":-0.052455227723730055,"10":0.13483898331907407,"11":0.13943882339306649}},"27":{"bias":0.6507589261324705,"weights":{"0":-0.0460952847972417,"1":0.12427911370719356,"2":0.031227278808286033,"3":0.19192761445623352,"4":0.13215892315424285,"5":0.2305095158025573,"6":0.20966868146503564,"7":0.09087449459740415,"8":0.02825776978812532,"9":0.24351202922609183,"10":0.044936075559262226,"11":0.16528588120737106}},"28":{"bias":0.029066666462903068,"weights":{"0":-0.06594790181404422,"1":0.00929359151625169,"2":0.18460668929662447,"3":0.10796356087331449,"4":0.16297377131962132,"5":0.06406098686206672,"6":-0.05010102959906201,"7":-0.05399232548591915,"8":-0.17027793206378575,"9":-0.00040739832759020285,"10":-0.16488377760157877,"11":0.03834801434834278}},"29":{"bias":-0.1359622711478181,"weights":{"0":0.05990131782169958,"1":0.19374800385106075,"2":0.11037039671932766,"3":0.0022029197698351637,"4":0.055725493087948864,"5":-0.1334531736901687,"6":0.1140685563098266,"7":-0.17548715252670014,"8":0.11342261190936201,"9":0.1443100406704794,"10":-0.09610479921779282,"11":0.009211300602155708}},"30":{"bias":-0.027040649775861007,"weights":{"0":-0.02073317255769864,"1":-0.07981161470451499,"2":0.029471152534724813,"3":-0.13368634799725673,"4":0.07222773039029963,"5":0.14603688784976193,"6":0.09100998149988272,"7":-0.12570136774374396,"8":-0.0942142598810321,"9":0.20503963069195025,"10":-0.08599221274087569,"11":-0.08825234115407077}},"31":{"bias":-0.009177098793141053,"weights":{"0":-0.022916617217650228,"1":0.08732608956783884,"2":0.10386761581185798,"3":-0.08069094563507954,"4":-0.11269180947556538,"5":0.030639291694644036,"6":0.20159233830351794,"7":-0.14340873575573526,"8":0.014018656207398495,"9":-0.1711524159453085,"10":0.15469103250887756,"11":-0.16003106852612536}},"32":{"bias":0.1943471576468699,"weights":{"0":0.21664815229609552,"1":-0.05263655464138848,"2":-0.04481465215210031,"3":0.2248440950584912,"4":0.2181326420208736,"5":-0.10412432208805987,"6":0.07151951719892556,"7":0.05090957562502391,"8":0.06427611270575918,"9":0.1517720763488505,"10":0.08995892684784682,"11":-0.15040334508980133}},"33":{"bias":-0.09769535773445678,"weights":{"0":0.1777767480004936,"1":0.03997461095636495,"2":0.051097088401926956,"3":0.018375844882186902,"4":-0.1207477086219753,"5":0.18771633366748391,"6":0.11981728644869107,"7":0.11335066473269409,"8":0.00006547471440821785,"9":-0.1791194653554246,"10":-0.04999832882800731,"11":-0.03949589130806707}},"34":{"bias":-0.008004231227437103,"weights":{"0":-0.036847440944764234,"1":-0.15503215455512215,"2":0.0783915244295066,"3":-0.14304843252071955,"4":0.03957099687388961,"5":-0.06830814111870233,"6":-0.011933177619425243,"7":0.018528109017242615,"8":0.01650825648671983,"9":-0.09582675597949616,"10":0.07153419321944225,"11":-0.03381795704750035}},"35":{"bias":0.5154938019888509,"weights":{"0":0.22276152952208908,"1":-0.034591156750584905,"2":0.26636192534073105,"3":0.09532564534728688,"4":0.027936026808663507,"5":-0.0456846863422386,"6":-0.08594114808060584,"7":0.053491146292841275,"8":0.08064773434900545,"9":0.28308707949234824,"10":0.044424289497741784,"11":0.27167775149715134}},"36":{"bias":0.09039195957235094,"weights":{"0":0.1487217833811944,"1":-0.05220522823231789,"2":-0.19018995618052612,"3":-0.03495111454120738,"4":0.09692671028138374,"5":-0.1482839270863218,"6":-0.09387849744651862,"7":0.11480995657190535,"8":0.04819945341323425,"9":-0.19174895124060307,"10":-0.014570061705174256,"11":-0.08858940147783562}},"37":{"bias":-0.07825170443812089,"weights":{"0":-0.1105786164565525,"1":-0.006258217598541696,"2":0.08460757074889644,"3":0.09256107404512075,"4":-0.042638900760793595,"5":0.2041661429659844,"6":0.01915082267490761,"7":-0.17134679202112948,"8":-0.16567105161738052,"9":0.06746578115552937,"10":-0.006939673649280087,"11":0.09361594560412474}},"38":{"bias":-0.0329472675119701,"weights":{"0":0.03171693854600908,"1":0.12545177966937365,"2":-0.005925841015731202,"3":0.1989492050052685,"4":-0.1576120455690441,"5":-0.12502274329060048,"6":-0.13421492587957587,"7":0.14616704043898995,"8":-0.0891423863900093,"9":-0.15568055861245725,"10":0.09752587655586464,"11":0.03329920902462695}},"39":{"bias":-0.02957437234795,"weights":{"0":0.014240528419974342,"1":0.011504442324576722,"2":-0.013170268232550852,"3":0.14713121453370268,"4":0.07763302398588294,"5":0.013241858775615484,"6":0.07205676403027948,"7":0.00947573638731754,"8":-0.11888135545397037,"9":0.0837356698643175,"10":0.08348383497192502,"11":-0.07022645557781669}}},{"0":{"bias":0.6050468553884694,"weights":{"0":0.18518922365232365,"1":0.16412569711044103,"2":-0.11479732002675612,"3":0.04567757606024145,"4":-0.08340330793942152,"5":0.22295600755679357,"6":-0.09817770837314907,"7":-0.15064171498389448,"8":0.1373769347047458,"9":0.11592263358716591,"10":0.08321721621157084,"11":0.07487286439454675,"12":0.2684291468387992,"13":-0.20323778623327488,"14":0.026052197641036567,"15":0.07151568335861601,"16":0.06832472927672194,"17":0.043755601390389205,"18":-0.06625945654875696,"19":-0.11921869173866248,"20":-0.18769291587463888,"21":0.3666584007554167,"22":0.07775106501923212,"23":0.05679387484820813,"24":0.13505613827573282,"25":-0.18231243875171257,"26":0.046554987859965154,"27":0.4673241392992538,"28":-0.13980326012271507,"29":-0.16099140940751763,"30":-0.2006436317257802,"31":0.039913412822601045,"32":0.2566823022222598,"33":-0.02960868172572817,"34":-0.06829385892795573,"35":0.2904444802419511,"36":0.13557694006004362,"37":-0.033626870789394525,"38":-0.06398472209451611,"39":-0.08722880117586056}},"1":{"bias":0.14605860280190563,"weights":{"0":0.14969242180638134,"1":0.1223213697370624,"2":0.16688118776549704,"3":0.12006640416859425,"4":0.12588291690954959,"5":0.2977697191026745,"6":0.12522854499807176,"7":-0.19310998557556272,"8":0.14172981219600983,"9":-0.1820789333561014,"10":-0.1137359281685632,"11":-0.11229535596476653,"12":0.15752483692819824,"13":-0.10995504934047397,"14":0.11045130161103212,"15":-0.05763577132182517,"16":-0.012256513670803864,"17":0.2278956679769481,"18":0.11988104402083885,"19":-0.0937701623941314,"20":-0.2208227421960007,"21":0.33340039881206956,"22":-0.10462421522058384,"23":-0.16816090278553994,"24":-0.19395141350387585,"25":-0.1874732549754301,"26":-0.1694057636399598,"27":0.3929525428568469,"28":0.04245128245866676,"29":-0.07391686860693987,"30":-0.20261005943291147,"31":0.11713073429863989,"32":0.175176231341206,"33":-0.1417095533736239,"34":-0.19877076675740613,"35":0.2840439182685675,"36":-0.18437270564686425,"37":-0.12224579625933642,"38":-0.13560157188601962,"39":-0.05600401921693772}},"2":{"bias":0.2722028072083389,"weights":{"0":0.09098515819042256,"1":-0.10302697957333129,"2":0.1730969010325294,"3":0.14625144018582167,"4":0.10508259602919867,"5":-0.15159376532906624,"6":0.10986657069714251,"7":0.06652570536395763,"8":0.11743368106941797,"9":0.00015897918075424028,"10":0.1533294195916023,"11":-0.05626393081087264,"12":-0.1160127938885398,"13":0.052941922341688825,"14":-0.1706665174967572,"15":-0.09421680161044292,"16":0.08886131123449667,"17":-0.019549535578508775,"18":-0.032322338442866534,"19":-0.02633353498856272,"20":0.07999960662942286,"21":-0.09500724056014667,"22":0.13947994364942554,"23":0.123968459064418,"24":0.06339726385406376,"25":0.011222980081132901,"26":0.09698945603308858,"27":-0.11837738940122754,"28":-0.13955825539213057,"29":-0.05314040799282319,"30":0.027752593471619704,"31":-0.1484173704460212,"32":0.16863550669094082,"33":-0.04492881042966461,"34":-0.06631462114419472,"35":0.04135749155798911,"36":-0.03709244858298279,"37":-0.13780509270119531,"38":0.15161209454433525,"39":-0.041281637236083656}},"3":{"bias":0.02843825554481992,"weights":{"0":-0.08949771778434183,"1":0.046512651947056394,"2":-0.03280873568628658,"3":0.00402539871050992,"4":0.1293335032335101,"5":0.224176144466095,"6":0.10863685871895253,"7":0.07311035506918016,"8":0.16930222443798731,"9":-0.11235054033819483,"10":-0.1389821334556583,"11":0.05683819224298908,"12":0.05285950595747903,"13":0.0850699396257976,"14":0.096801253655914,"15":0.0386772447507524,"16":-0.045814929775230835,"17":-0.15864882482065243,"18":-0.12420612873465199,"19":0.06687903652579257,"20":-0.1031933244289696,"21":-0.03455702092830672,"22":-0.15103587374890792,"23":-0.11534718186370457,"24":0.005490842443003317,"25":0.08094420465589074,"26":0.18389659642241338,"27":-0.13757253213357054,"28":-0.0895867386079283,"29":0.14024273207323573,"30":-0.1117837336738745,"31":-0.08706067145851397,"32":-0.055860528455765446,"33":0.023170794798693273,"34":-0.09283730972708627,"35":0.04699952441429706,"36":0.01858821071615623,"37":-0.1445107157227039,"38":-0.17806608458746634,"39":0.1838189476614303}},"4":{"bias":0.22827139022987225,"weights":{"0":-0.08428970919559017,"1":-0.05565680585739348,"2":-0.16934054398223045,"3":-0.1343067230242647,"4":0.17686409170840686,"5":0.27522887288370673,"6":-0.09563041096903502,"7":-0.10515424395168464,"8":0.07407128684601501,"9":-0.011142037781342531,"10":-0.16959842026436647,"11":0.12314110346470068,"12":0.2942899669043317,"13":-0.15213741373261602,"14":0.08213126629849965,"15":0.017707302839743925,"16":-0.06914803999850352,"17":0.1947063998867855,"18":0.17096504718624278,"19":0.1452452775079783,"20":0.13801702400148935,"21":0.2681604145193456,"22":0.1484408465169063,"23":-0.05709448055221223,"24":0.009400631338590381,"25":0.1235933748400097,"26":0.07905207715814849,"27":0.10671896805866782,"28":-0.18528426634639988,"29":0.07980477851848461,"30":-0.07992477088884169,"31":0.11246479298128292,"32":0.22994496811814602,"33":-0.11646864741468636,"34":0.16533930934902247,"35":0.30518381049240567,"36":0.11144560141115517,"37":-0.03516081421082204,"38":0.04883723808671424,"39":0.012418628859642919}},"5":{"bias":-0.050675006335846824,"weights":{"0":0.045001728497366875,"1":-0.18132732723742673,"2":-0.10067615570077301,"3":0.1805940512070041,"4":0.06855724140267604,"5":-0.17871508063538696,"6":-0.17482929928898322,"7":0.12114447203620458,"8":-0.033502073569189106,"9":-0.005521003479763637,"10":-0.2019034672538873,"11":-0.18128412672297836,"12":0.20944409378792386,"13":-0.18934626917760172,"14":0.1902881769678986,"15":0.035304162200868336,"16":0.022532720893384584,"17":0.10538520076416735,"18":-0.12164959970811966,"19":0.1083180065083961,"20":0.18492163078264867,"21":0.027694827232335028,"22":-0.014746828219568624,"23":-0.17916096462626865,"24":0.18922001259578172,"25":-0.07992368818299658,"26":0.027835972779341838,"27":0.03567106469899921,"28":0.1052952840218291,"29":-0.15405430701563427,"30":-0.09856161366967302,"31":-0.09050079573880142,"32":-0.08875510646241268,"33":-0.04214988418060931,"34":-0.16206361968247518,"35":0.15414914722757875,"36":-0.06247206265017814,"37":0.13746362753540625,"38":0.051839750103913604,"39":-0.10397349494355168}},"6":{"bias":1.2066281203911913,"weights":{"0":0.18021587969649133,"1":0.35339022016051086,"2":-0.05948525565417875,"3":-0.03145834114163057,"4":-0.15524558980014652,"5":0.29650994686390497,"6":-0.2999792244738556,"7":0.08310292083860457,"8":0.03719130468516803,"9":0.0704750166512179,"10":-0.03401507418934215,"11":-0.02101206177788071,"12":0.2813024341786607,"13":-0.1615159865288071,"14":-0.1399015609907775,"15":-0.009910746676486108,"16":0.2209907396160827,"17":0.23416441751794534,"18":0.20543867532911866,"19":0.2547578159191967,"20":0.02532518404841452,"21":0.1610617918777734,"22":0.2615987368897442,"23":-0.14578420821775018,"24":0.0587346267589763,"25":-0.15341519155218586,"26":0.10293827411724711,"27":0.2925571727977613,"28":0.14327039897245283,"29":-0.255463367422549,"30":-0.20726488593222858,"31":-0.1245843250354144,"32":0.15115865032777362,"33":-0.2533339216756862,"34":-0.04446757408422741,"35":0.24497443256843807,"36":0.09152816944224476,"37":-0.1497410112401175,"38":-0.22623673900958555,"39":-0.035708776644893234}},"7":{"bias":0.1517811676203735,"weights":{"0":-0.10824133906584603,"1":-0.11365499473401061,"2":0.0014840796778535187,"3":0.12521969438557295,"4":0.14958386583584465,"5":0.0303048810594044,"6":-0.03153413743345236,"7":0.03370608649269751,"8":0.05701496871800803,"9":0.19012709818450346,"10":0.16608007211604509,"11":-0.0037223492411283875,"12":-0.11297119364587485,"13":-0.1654702351996829,"14":-0.036496446031512995,"15":0.10197101266083362,"16":0.01266979123825704,"17":-0.12594349564779544,"18":0.1152028571409255,"19":0.04199621281204299,"20":0.17839919114592812,"21":-0.1244569160397052,"22":-0.14872723037404467,"23":0.1074230125018785,"24":-0.04991273115297981,"25":0.10409056015105855,"26":0.166589168353171,"27":0.19285937826349162,"28":0.16735527857307667,"29":-0.06755155048020464,"30":-0.03633655338992297,"31":-0.08270456571502174,"32":0.08547583700650137,"33":0.03209866937870622,"34":-0.15076931611780942,"35":-0.12856635673425965,"36":0.17301197913186128,"37":0.009987272061272479,"38":-0.15839106614774168,"39":0.1995937371425781}},"8":{"bias":0.1577997717879199,"weights":{"0":0.14617893109597505,"1":0.1987952152581035,"2":0.12247445638037584,"3":0.08239498046379638,"4":-0.17465286570240093,"5":-0.13281152677614558,"6":0.18748209253638404,"7":0.10489329211719467,"8":-0.07121328061163792,"9":-0.037698643732120875,"10":0.16965894739661855,"11":-0.1690517305258208,"12":0.019023663197188543,"13":0.06269007447119979,"14":-0.05232291076508185,"15":-0.0006363499500849793,"16":-0.17038531195488082,"17":-0.057811931444420886,"18":0.024560745788397075,"19":-0.16312878864921035,"20":-0.17446009014414726,"21":-0.10590829727841386,"22":-0.09351106576152009,"23":0.08152413806027692,"24":0.19000369609077408,"25":0.18351155469732205,"26":0.08008485321723897,"27":0.08025897060105003,"28":-0.11640816387886223,"29":0.1635164155833597,"30":-0.08425162022889979,"31":-0.02785513971643912,"32":0.07148673779772524,"33":-0.10204987092629059,"34":-0.20145449127706166,"35":-0.12316011365054348,"36":-0.16064458649093968,"37":-0.07557123874654476,"38":0.16470359176085905,"39":-0.18667849588086502}},"9":{"bias":1.1193928485404663,"weights":{"0":-0.0954562167501576,"1":0.2680938471155181,"2":-0.20604955739433942,"3":0.11288250101714743,"4":-0.32694374494459655,"5":0.5130255570891812,"6":-0.1897506472048347,"7":-0.11082430347020891,"8":0.2019671322051221,"9":-0.14479318911778555,"10":0.044483602013907796,"11":0.30959805646404814,"12":0.30673488708329133,"13":0.12905757028462567,"14":0.0039611511811790895,"15":0.10004407280925434,"16":0.08728699320122627,"17":0.1018199804360165,"18":0.19834031726374637,"19":0.17710553153912859,"20":-0.2570145913468954,"21":0.35323747884890316,"22":0.1527858663111048,"23":0.13273036606672067,"24":0.08073170298191977,"25":-0.07682967232783781,"26":0.06583553585255406,"27":0.2799371750632932,"28":0.05634377045119553,"29":0.009186387781673796,"30":-0.28674258837062344,"31":-0.1667247799439249,"32":0.2292824157174929,"33":-0.24062112213922102,"34":-0.13263327471571998,"35":0.42496255299959895,"36":-0.1304204907748188,"37":-0.01977021568368775,"38":-0.25430172386504135,"39":-0.031209101300734704}},"10":{"bias":-0.042023645331934006,"weights":{"0":0.07507635144014675,"1":0.1461868665285611,"2":-0.10440644113008117,"3":-0.08731973138497198,"4":0.06160608545916873,"5":-0.16382296023374016,"6":-0.05226916553094697,"7":0.0006048354637102006,"8":-0.06164482212564556,"9":-0.13459513436727513,"10":-0.036174241704079464,"11":-0.12347817057034301,"12":0.12490013096679638,"13":0.01857420932881717,"14":0.08978756355704533,"15":-0.16329773309056028,"16":0.12404125311628723,"17":-0.13878234384125201,"18":0.10657369837626605,"19":-0.043631906578813,"20":0.12176710345859511,"21":0.13759634674767166,"22":0.09330763269415013,"23":-0.1326221878743035,"24":-0.17747853725827212,"25":-0.061487348085047584,"26":0.045747276725953565,"27":-0.17757219972025282,"28":-0.07191726108840131,"29":-0.10101941456455842,"30":-0.1579326934179775,"31":0.1007336940967852,"32":0.06814449729557874,"33":0.09141515801119113,"34":0.1263344548499975,"35":0.13296520637852047,"36":-0.07337156835700027,"37":-0.17332463184386482,"38":-0.08606565942098221,"39":0.07388013556569721}},"11":{"bias":0.08530055000411968,"weights":{"0":-0.03000584227837461,"1":-0.16368901353665177,"2":0.11329624100772416,"3":0.10291827121128527,"4":-0.0694133269627359,"5":0.18818514563514896,"6":-0.06200330642356083,"7":0.03440414454923774,"8":-0.1287627891162792,"9":0.14195643785120127,"10":-0.14464526182683696,"11":0.04524322578092412,"12":-0.09120314410789608,"13":0.14503886999760368,"14":-0.18745103163803117,"15":0.007957831205974594,"16":0.1060906733383563,"17":0.08594151887479133,"18":0.10077853048332906,"19":0.11367811571073592,"20":-0.005703737010457219,"21":-0.08246889921706524,"22":-0.0004334652186976015,"23":-0.019963584810493217,"24":-0.2102601687313282,"25":0.17239723474228186,"26":-0.1582320866641683,"27":-0.09112804244106898,"28":0.015993480994351,"29":-0.10429164023716457,"30":0.1528276641383914,"31":-0.19065820986268925,"32":-0.15089594734894557,"33":-0.17364848285769935,"34":-0.15446930833391614,"35":-0.11064009424442849,"36":-0.17498569092839295,"37":-0.19623786664459728,"38":-0.11905008633792236,"39":-0.1632140456263215}},"12":{"bias":0.1307951917579924,"weights":{"0":0.1814448823573255,"1":-0.14223896607594716,"2":0.05598388386906837,"3":0.07942043391183888,"4":0.1510789910068287,"5":-0.055617227257888854,"6":0.1716607905496637,"7":0.10245441673073921,"8":0.1148611496073818,"9":0.03948742994826188,"10":-0.004176626821662095,"11":0.07989513091196804,"12":-0.10585000868821784,"13":-0.11415791052779607,"14":-0.05562682935897729,"15":-0.20402735153900686,"16":0.0846031710237571,"17":-0.06827181077679316,"18":-0.18262738308626236,"19":0.19092921215749623,"20":-0.12498175546089017,"21":0.16418062907823536,"22":-0.029919908438462914,"23":-0.13053691032606032,"24":0.09579861670410518,"25":-0.091843888714407,"26":-0.1959044644659551,"27":-0.12137093605620995,"28":-0.002082037555341273,"29":0.06845144096754373,"30":-0.016159967861080156,"31":-0.06468678907801967,"32":0.09431957831713454,"33":-0.044943998814960966,"34":-0.18753167850076694,"35":-0.08812826752050755,"36":0.061023430988743306,"37":0.030110975510639744,"38":-0.20421166922984213,"39":-0.022228396208566426}},"13":{"bias":0.040596021417874516,"weights":{"0":0.008274824445681306,"1":0.0446026718168101,"2":-0.19144631977084894,"3":-0.1224856441874167,"4":0.09733289186902239,"5":0.023304619612199585,"6":0.044214258374826655,"7":-0.1274283528160833,"8":-0.12243568988873613,"9":-0.10350744116754071,"10":-0.17834225724907155,"11":0.1549642174905621,"12":0.04493893164273477,"13":-0.01373954450898369,"14":0.009846766139976697,"15":-0.05367815015111717,"16":-0.03210121618693232,"17":-0.1589944665840054,"18":0.00032484166156185486,"19":0.15317956803280658,"20":0.10738449147876204,"21":-0.13256116142634444,"22":0.027217556066328027,"23":0.15732052455646173,"24":-0.03527175312780323,"25":-0.01593822318763039,"26":-0.025748159725948704,"27":-0.04215252444334777,"28":-0.07358869284920765,"29":0.08520842843254423,"30":-0.10690771159217698,"31":0.12437342599902845,"32":0.1689755774794185,"33":-0.012961362244761463,"34":-0.17667537823932672,"35":-0.147076161056281,"36":0.1395121966773172,"37":0.06952333260802382,"38":-0.014589864682439413,"39":0.06916964110041544}},"14":{"bias":0.8699963714943381,"weights":{"0":0.029306036774059102,"1":0.29921952519966344,"2":-0.017101762875640907,"3":0.04004744996302643,"4":-0.07818206262847978,"5":0.1840853060853025,"6":-0.09931603195461736,"7":0.006996940851812799,"8":0.013792205066786835,"9":0.14595976644852954,"10":-0.2443526978011012,"11":0.000664129392475427,"12":0.4842047845022412,"13":-0.14828502590384185,"14":-0.17289708580183544,"15":-0.10251830237165596,"16":-0.0826974137182194,"17":0.2714262974818684,"18":-0.12417648328368813,"19":0.15257240874952493,"20":0.015533724770723885,"21":0.24657427985921626,"22":-0.030622488189957008,"23":-0.00854897426808046,"24":-0.17372347876578198,"25":0.009707412910002674,"26":-0.17868136867801457,"27":0.3045811712066042,"28":-0.16311086331389252,"29":-0.12221284542567372,"30":-0.057520012278118385,"31":0.03968058559580488,"32":0.004592163646941996,"33":-0.09962412168958933,"34":0.04073420493843886,"35":0.14858603346291627,"36":0.11273250098264445,"37":-0.0677381134793021,"38":-0.1518696662809235,"39":-0.05303293412806447}},"15":{"bias":0.11542488483523575,"weights":{"0":0.15247454106321262,"1":-0.20409825467943152,"2":0.1916510169109678,"3":0.1218731251477664,"4":0.1819730076755738,"5":0.13514834906547613,"6":0.12069607166531524,"7":0.1838612146397702,"8":0.1428379096984247,"9":0.11084148480980772,"10":0.11173033637519833,"11":0.1125641248594451,"12":0.06096597541759555,"13":-0.1737599738303987,"14":-0.03699637791515742,"15":0.06846032881119743,"16":0.04711038145287132,"17":0.11166237663729865,"18":-0.11806400104163241,"19":-0.07952464978104752,"20":-0.06815613094473474,"21":-0.10951530037965133,"22":-0.17728019901051506,"23":-0.044075825302148604,"24":0.060978939716973934,"25":0.14240412065368438,"26":0.20312998711223254,"27":-0.15070435984762692,"28":0.0020193773359854237,"29":-0.10300748815026779,"30":-0.0010634123042339058,"31":0.11106421581097926,"32":0.12518995056894636,"33":-0.12280289208139487,"34":0.03563138328407145,"35":-0.1532572546269207,"36":0.13041768135060314,"37":0.03333969136834857,"38":-0.18394546813314633,"39":0.11212362457349492}},"16":{"bias":1.2807243531978048,"weights":{"0":0.04893193067469797,"1":0.0007892877716972589,"2":-0.23586729876080703,"3":0.03482854895482739,"4":-0.1739141505273207,"5":0.4614389236394322,"6":-0.1025612161033558,"7":0.050218520002636616,"8":-0.01761095160189832,"9":-0.22107470495254836,"10":-0.21935051589815774,"11":0.1760838011305828,"12":0.19383120968930018,"13":-0.06646002508395052,"14":0.10408675391588554,"15":-0.16339076466171373,"16":-0.05466609198030809,"17":0.4265345216742975,"18":0.06846166008446863,"19":-0.045937674770143135,"20":-0.18840115911977187,"21":0.18449074077198005,"22":0.09525143855821648,"23":0.09500056696543448,"24":0.17730895362303944,"25":0.11493492601686472,"26":-0.2513645118636098,"27":0.2878544579768036,"28":-0.077886956547224,"29":-0.04958139047976625,"30":-0.28742777743054393,"31":0.101841865124599,"32":0.28388489757759416,"33":-0.06485805165572237,"34":-0.049426882076788796,"35":0.4057073867553311,"36":0.05944570648894506,"37":-0.2588059383162401,"38":-0.2777769224728763,"39":0.011067252102335355}},"17":{"bias":0.36912921892129696,"weights":{"0":0.18532978006902218,"1":-0.04120664625433563,"2":0.11793277495834623,"3":0.07622188061934701,"4":0.1572389358841483,"5":0.33554713710021705,"6":-0.05027337450018221,"7":0.11855714248827884,"8":-0.01431511409678104,"9":0.13506400817415667,"10":0.07776764013283007,"11":-0.002950643150301987,"12":0.28436538075279105,"13":-0.1729942944920844,"14":-0.11731615346099007,"15":0.17016249839936573,"16":-0.05275721582790749,"17":0.2026096608584899,"18":0.19982197047082,"19":0.2219913773718919,"20":-0.06265860371420998,"21":0.13437975996345775,"22":0.1209342919050478,"23":0.18051106197552041,"24":-0.008145337097291877,"25":0.004341330250403399,"26":-0.1723662994295801,"27":0.09199165647134999,"28":0.08642278370777459,"29":0.030302033886745086,"30":0.09929474915126525,"31":0.049198134472037656,"32":0.19411620868774476,"33":0.10078481189385953,"34":-0.1076718453853758,"35":0.09563766767452984,"36":-0.19193380059952592,"37":0.1281144156196985,"38":0.12504572291647054,"39":-0.1148090198830827}},"18":{"bias":0.14827483653937581,"weights":{"0":-0.19033520147152577,"1":0.2237679189799647,"2":-0.18634980310726673,"3":-0.07805401780306843,"4":0.037802133845793215,"5":-0.09042195544996365,"6":0.11578657340450937,"7":-0.1872161916353959,"8":0.04807724871452275,"9":0.19079969335382746,"10":0.11952671806310741,"11":0.1864836447024368,"12":0.04259394398720699,"13":-0.07156751357090269,"14":0.165668314185797,"15":0.09204267611152905,"16":-0.18806717829111702,"17":0.15981864019612954,"18":0.13322696702535725,"19":-0.0153912334202187,"20":0.07524042155856744,"21":0.016937843132242413,"22":0.011406303595907804,"23":0.006199348289293641,"24":0.1352887784359215,"25":0.032091929483591755,"26":0.037942340328172834,"27":0.12720878024189788,"28":-0.11499235174126654,"29":0.17920312361405322,"30":0.14373328611697014,"31":-0.08460560310738721,"32":-0.003857233342295181,"33":-0.09747058243262674,"34":-0.07093101246723262,"35":0.19286430351883235,"36":0.13591771795641808,"37":0.028773763214129864,"38":0.12421048774711516,"39":-0.05761457678845894}},"19":{"bias":0.09887832711459658,"weights":{"0":-0.18581750654166013,"1":-0.030001426561762554,"2":-0.033097048035018874,"3":0.14018805068277881,"4":0.08409008416856002,"5":-0.12674786549742437,"6":0.05488104646368511,"7":0.016608395118670374,"8":-0.03861430612063607,"9":0.033743839918294265,"10":-0.16460367571954707,"11":0.1702790567135444,"12":-0.044660290938451246,"13":0.04489189155300467,"14":-0.18925793289427326,"15":-0.09409046505334631,"16":0.14334897655950118,"17":-0.07113861208951934,"18":-0.11089516288488294,"19":0.03425446551318508,"20":0.17434920951241473,"21":0.07040184965121325,"22":0.1394305697361009,"23":0.1763345595413664,"24":-0.17514330813848802,"25":-0.07225668410954025,"26":-0.18303521068662162,"27":-0.07725658214764221,"28":0.15729513626445635,"29":0.15163629822064173,"30":-0.0779386627208994,"31":-0.07287658285156084,"32":-0.10606308588599904,"33":-0.022992706870963234,"34":-0.16738964438908083,"35":-0.07418503069471181,"36":0.004296457366977818,"37":-0.12733198101470988,"38":0.13476695861866944,"39":-0.06512631272108567}},"20":{"bias":0.12032917234560274,"weights":{"0":0.18379281765857727,"1":0.006507843647925597,"2":-0.11978393512770386,"3":-0.09188521720981149,"4":0.14954151154166376,"5":-0.07308627098350422,"6":0.09253321528022297,"7":0.003907526052490733,"8":0.17743848440179394,"9":0.1888887970974812,"10":-0.07717347684257392,"11":-0.15181608263771712,"12":-0.025842951171086367,"13":0.10783411164691127,"14":0.18577310385210874,"15":-0.03805986517844521,"16":0.027788020343720476,"17":-0.10118214836362244,"18":-0.1299391002133891,"19":0.15630572491321446,"20":-0.0606449160424319,"21":0.16310762871464302,"22":-0.02238328957038681,"23":-0.1291719551013888,"24":-0.05656813465839501,"25":-0.09283418770554164,"26":-0.09755678818819882,"27":-0.07024430995703074,"28":0.06586339892300096,"29":-0.11695141526178657,"30":0.06389113241332722,"31":0.18461779735225867,"32":0.06933162182420899,"33":-0.15216593267031228,"34":-0.13602861386491524,"35":-0.05264887902901137,"36":0.041913072414179714,"37":0.10357694529217837,"38":0.12083634677886962,"39":-0.06650382266724447}},"21":{"bias":0.09904114808900286,"weights":{"0":-0.11606071488129231,"1":-0.016556778357475342,"2":0.14285419784127462,"3":0.1393153560359477,"4":-0.1667745869308052,"5":0.10652607534659934,"6":-0.03897357236410373,"7":0.1454126486387913,"8":-0.10463530276830346,"9":-0.008292291829508873,"10":0.157498877327694,"11":-0.09334680398570068,"12":-0.15595459635784872,"13":0.09847884238818826,"14":0.13247377437749633,"15":-0.03333200355700279,"16":0.055688793682419184,"17":0.011660556299553117,"18":-0.17649988826238722,"19":0.09340901202997844,"20":0.07765322672752137,"21":-0.12172931466307077,"22":0.11850980239490816,"23":0.1523369107432083,"24":-0.010521056455951727,"25":-0.08955748987862788,"26":-0.03227132424806602,"27":-0.11784912161434652,"28":-0.17982308798521268,"29":-0.11907554534583709,"30":-0.21471698641770942,"31":-0.14251402419385356,"32":0.033040257963717325,"33":0.1056499425592804,"34":0.14325357245359577,"35":0.16394482296598267,"36":0.0022602391353480464,"37":0.040503152549044685,"38":0.15762878817584638,"39":0.16485335552013655}},"22":{"bias":1.263123274145307,"weights":{"0":-0.1860549168537261,"1":0.2516851589025114,"2":-0.23269789214922393,"3":0.05445444593325309,"4":-0.34445127065426523,"5":0.4862323042020162,"6":-0.30863783883669027,"7":-0.10048738734250526,"8":0.24558880228161872,"9":-0.056693185814136536,"10":-0.00967562722614412,"11":0.002758743321566061,"12":0.5084113866127821,"13":-0.0635424900522627,"14":-0.026591328181412046,"15":-0.21830840513822788,"16":-0.020070263968551903,"17":0.20473372186993666,"18":0.24290610893496603,"19":0.28809192594987443,"20":0.0026934013957572106,"21":0.39694431381913714,"22":0.13600581915021362,"23":-0.036712319715637425,"24":0.07890859463473762,"25":0.15246212016242955,"26":-0.15469892018883485,"27":0.49440012233982406,"28":-0.028239636413512192,"29":-0.131192780164853,"30":-0.01139251461706993,"31":-0.15390630384096887,"32":-0.012751262831055024,"33":-0.24096554369118658,"34":-0.30905641958316993,"35":0.39378006664727444,"36":0.06268711870209351,"37":-0.14778025157573374,"38":-0.2165548213384419,"39":-0.07990880765013332}},"23":{"bias":0.019259335361125764,"weights":{"0":-0.05501166394467053,"1":-0.17777668565637217,"2":0.05019886417875229,"3":0.13997416855022948,"4":0.018989395492375303,"5":0.03298382517231376,"6":0.016245380142393084,"7":-0.0635300080758356,"8":0.0825819479486372,"9":-0.030023419548511177,"10":0.06616608340087353,"11":0.16761367988360532,"12":0.09233610555579361,"13":-0.005818027343191614,"14":-0.005177729003070824,"15":-0.0021882724105059263,"16":-0.11438813413986178,"17":-0.07586685774133572,"18":0.03308505852972443,"19":-0.1662975020322717,"20":0.13786757373256342,"21":0.08875581436464461,"22":-0.11617788351128361,"23":-0.19014356628552231,"24":0.15775786242068818,"25":-0.08481568453519514,"26":-0.2178317620631007,"27":0.08661852029743532,"28":0.03822002839823298,"29":-0.14641211381629596,"30":-0.026121964580437626,"31":-0.15237782512395912,"32":-0.07088463585145398,"33":-0.06266687466261545,"34":0.10256687866864206,"35":-0.10509800044980616,"36":-0.009285992492934696,"37":-0.013704683558403222,"38":0.0469037422290074,"39":-0.150391297958015}},"24":{"bias":0.37818873079516424,"weights":{"0":-0.09215072055726717,"1":0.16804443219053006,"2":-0.12574518452750336,"3":-0.07761918092821402,"4":-0.2020629018170456,"5":0.09686287077953479,"6":0.14251048322871682,"7":0.0703243279977594,"8":-0.03158841395762189,"9":0.08312619342002338,"10":0.1020604243545484,"11":0.10224572127643225,"12":0.21748462503477503,"13":0.09099028724561942,"14":-0.04294270353941057,"15":0.15834755621378652,"16":0.19674172954271954,"17":0.07862744286719191,"18":-0.0686551446384129,"19":-0.008925594532591896,"20":-0.1733159314909809,"21":-0.01397284796507336,"22":-0.003861174295688089,"23":-0.0618963354415928,"24":-0.0181166649100121,"25":0.19329390371085847,"26":0.060776388970485096,"27":0.21956845373221445,"28":0.11649352591572193,"29":0.06625162500268716,"30":0.01805204463193153,"31":0.1284497383244959,"32":0.04869923118096096,"33":-0.11584748615342932,"34":-0.09364457624944474,"35":0.2847283393962674,"36":0.00848128001047628,"37":0.017123775530878023,"38":-0.15915211252826628,"39":0.2014701185032301}},"25":{"bias":0.009597551065232732,"weights":{"0":0.021942864214020967,"1":0.2049981975073825,"2":-0.10481973132941233,"3":-0.15910564260296228,"4":0.14137737272665576,"5":0.08667739183403593,"6":0.14046110471097514,"7":-0.038430719032758735,"8":0.09646383325918137,"9":-0.1057724034923076,"10":-0.0512940587501906,"11":-0.015556007817839288,"12":0.2172878821027758,"13":-0.17578223450593555,"14":-0.04081548136112191,"15":0.13256136286483697,"16":0.16909292002478135,"17":0.08376863068591553,"18":0.06563507077957174,"19":-0.0870813268638527,"20":-0.03379889087426343,"21":0.08682948610272831,"22":-0.16286078829088788,"23":-0.07299361570104758,"24":-0.07466995171490408,"25":-0.03023778322606452,"26":-0.011833274911207337,"27":0.15909213333838182,"28":0.09999848124473225,"29":0.152449841602765,"30":-0.20389041137720643,"31":-0.08132312078271456,"32":0.18079144382239573,"33":-0.04236141356473225,"34":0.08255668832481527,"35":-0.06254744027093509,"36":0.11562100308479123,"37":0.1777914099864758,"38":-0.19958123557322574,"39":-0.1111654414564708}},"26":{"bias":0.4046762766451256,"weights":{"0":-0.0020541803274821127,"1":-0.02868190151965887,"2":-0.22742295894477138,"3":-0.12696364878712219,"4":0.10441069890956463,"5":0.4185251060039073,"6":0.13448960896721235,"7":-0.06640529437111425,"8":-0.1320688937727591,"9":0.048115950287866034,"10":-0.0024573501994322113,"11":0.006758615284458272,"12":0.4493439537507963,"13":-0.03420948421037085,"14":0.009624833904853032,"15":0.08687786246420313,"16":0.10084458405537605,"17":0.06317867758672051,"18":0.0430130459527865,"19":-0.10724838030029811,"20":0.16497886703226958,"21":0.4175204819482435,"22":0.11773389471962489,"23":-0.03611520967378276,"24":-0.14510218668505273,"25":0.030675549095376637,"26":0.14011631226236215,"27":0.32298149427275696,"28":0.11921948570212117,"29":-0.19610577465660847,"30":-0.17926327601401967,"31":-0.08991285983044152,"32":0.00323645797355947,"33":-0.18074806506119362,"34":-0.22000116876173695,"35":0.0196838440198716,"36":-0.020228079886390415,"37":0.15359696732370004,"38":-0.15462771540121445,"39":-0.03171275768951561}},"27":{"bias":-0.036206642216033466,"weights":{"0":-0.08791376585553302,"1":-0.17076049638932764,"2":-0.16441746133188156,"3":0.047156272233291496,"4":-0.03804101562356144,"5":-0.13322413843796144,"6":0.14797179843964775,"7":-0.18069376047705238,"8":-0.0024368970965467766,"9":-0.17723173729272454,"10":-0.021656878090120995,"11":0.1373881493124876,"12":0.13892727164233756,"13":-0.1916716300261255,"14":0.1729141846805762,"15":0.1631544894214921,"16":0.07539496640112556,"17":-0.018654065776550474,"18":0.14337357264045972,"19":0.05942734204754706,"20":-0.19047458061691827,"21":-0.02625596785841161,"22":0.13868597672399022,"23":-0.1800865553918321,"24":0.12828789263207668,"25":-0.06921407148458492,"26":0.10123282594715025,"27":0.18015297306723455,"28":-0.13273134774596346,"29":-0.16384509422245253,"30":-0.06341878714336822,"31":-0.08712865926056389,"32":0.03415210165299358,"33":-0.0640704361843406,"34":0.10838569001195496,"35":-0.17445471672912666,"36":-0.12161025091130506,"37":0.1302473983595751,"38":0.17774338087191469,"39":0.14848015507499338}},"28":{"bias":0.5324965930038985,"weights":{"0":-0.0777178680956505,"1":0.01128975152752394,"2":0.05697439714561626,"3":-0.14035797640468148,"4":-0.07040332220266474,"5":0.2673683317092072,"6":0.09799780751925226,"7":-0.05291711099707605,"8":-0.038895585826717184,"9":0.168539252237423,"10":-0.16165364914899025,"11":0.25665947558134977,"12":0.36336194110882986,"13":-0.1906376619594215,"14":-0.22923322082155353,"15":0.019426097632185932,"16":0.01619976384512595,"17":0.12462295579547457,"18":-0.17275275133982923,"19":-0.04196494072137613,"20":0.10641208935018336,"21":0.2729456310147825,"22":0.2637761470859995,"23":-0.030753970209597293,"24":0.06923549290949126,"25":-0.021255996112894544,"26":-0.05894959381551568,"27":0.20899853766783497,"28":0.1993013193535317,"29":0.09432072133846127,"30":0.03406548989006635,"31":-0.17659908218229894,"32":0.2560500336287032,"33":0.10676328918394157,"34":-0.06875926183398397,"35":0.3952636066054308,"36":0.09974877122767088,"37":0.16008441928552591,"38":0.04747618622978671,"39":-0.06596490847696858}},"29":{"bias":0.030839916794836896,"weights":{"0":0.0637151707783958,"1":-0.0206078043721118,"2":-0.18977012853988617,"3":0.0470231097623823,"4":-0.1533264952927602,"5":-0.05744121699989904,"6":-0.08297309029936942,"7":0.08799092540495744,"8":0.05507221346677606,"9":-0.003957250406777345,"10":-0.035581403533940695,"11":0.16730889581538785,"12":-0.09719516651983759,"13":-0.09554873093640089,"14":0.041469062817824656,"15":-0.11871887515888739,"16":-0.05685133001861159,"17":0.07890298624873177,"18":0.047563481396628686,"19":-0.20063390085500382,"20":0.07656832831927274,"21":0.19032296569956617,"22":-0.008847386381290486,"23":-0.024594972667863188,"24":0.16598022719834818,"25":0.013870681322102991,"26":-0.026505566962984044,"27":-0.18183961975601337,"28":-0.08042677727943152,"29":-0.17988888155151966,"30":0.144691942580932,"31":0.1559457169903051,"32":0.011988429943940265,"33":0.08208486666914605,"34":0.017766092487947846,"35":-0.0725349582488849,"36":-0.09808843001646601,"37":-0.09848464174951524,"38":-0.12857707325133638,"39":-0.1684508076379524}},"30":{"bias":0.996584256398534,"weights":{"0":0.19064520024489276,"1":0.30891119032987224,"2":0.1009834942748422,"3":-0.01002971377497374,"4":-0.12751291502695258,"5":0.19894405281641775,"6":0.05314521549619318,"7":-0.19086979993251188,"8":-0.052604976852391426,"9":0.06877696787302698,"10":-0.14080898343239007,"11":0.1349853988575089,"12":0.42973092582905537,"13":-0.22435163189345586,"14":0.1350225244283772,"15":-0.07513946808751414,"16":-0.014715964668455142,"17":0.24463625880929854,"18":-0.12043653899100619,"19":-0.043524166012023406,"20":-0.12602318216902658,"21":0.35317287183660506,"22":0.30902513919278396,"23":0.14539498074168267,"24":0.14411184267381386,"25":-0.05679076640309351,"26":0.14349061349687664,"27":0.16643528614615838,"28":0.21118295003032297,"29":-0.28348535648516027,"30":-0.055475770757776,"31":0.01693496844290885,"32":0.26337240372080567,"33":0.13224986848547016,"34":0.015593446775471505,"35":0.4340587605667386,"36":0.008722886409885871,"37":-0.14926909633151617,"38":0.046881249857740614,"39":0.16332592967122544}},"31":{"bias":1.2553713670116446,"weights":{"0":-0.04124224112106107,"1":0.26184562218155527,"2":-0.09831524409681602,"3":-0.18939112733025304,"4":-0.2903252276213063,"5":0.38488463939650913,"6":-0.2616622546826619,"7":-0.305555603682977,"8":0.0775553766625204,"9":-0.1018421344111152,"10":-0.005597715028014963,"11":0.07914498684462228,"12":0.45347102052781174,"13":0.16614940135497758,"14":0.031293239234950594,"15":-0.1373848696073025,"16":-0.06303435798014091,"17":0.1494317849817103,"18":-0.040185671410359614,"19":0.06675922442326165,"20":-0.2577680485408026,"21":0.29922033136006787,"22":0.07926218170488833,"23":-0.06310012460048611,"24":0.059757989574407845,"25":-0.17298470583970535,"26":-0.20310580560685867,"27":0.3991103705922318,"28":0.05894248615775816,"29":-0.22945048421553652,"30":-0.06685961509715045,"31":-0.23310258495896172,"32":0.20667665074414507,"33":-0.005508849867500377,"34":-0.21817867974556,"35":0.1683642242589363,"36":0.08644476393152457,"37":-0.32879931459120126,"38":0.03170218612047634,"39":0.04439460805034739}},"32":{"bias":0.7820456121485567,"weights":{"0":0.12998579060154034,"1":-0.030684571537292916,"2":-0.06010418461166184,"3":0.1101347780317362,"4":-0.13527597641970915,"5":0.16260511311759093,"6":-0.20206064565162962,"7":0.04102805068928471,"8":-0.10004878381035853,"9":-0.17600406677160085,"10":-0.2147612229080653,"11":0.019965232254147494,"12":0.36825694160620204,"13":0.005166380323160498,"14":-0.1979893872335274,"15":-0.09968957969113014,"16":0.12425852019590705,"17":0.3050906172145295,"18":0.0809749159806878,"19":0.18084379596753292,"20":-0.1205279670418079,"21":0.19559818564441067,"22":0.2958497768358576,"23":0.1482004747117404,"24":-0.2452864764531748,"25":-0.08158887989076784,"26":-0.11568024974805421,"27":0.42031064495084886,"28":0.16032817473986988,"29":0.0034832357348378563,"30":0.06342222578500073,"31":-0.14342096953096542,"32":0.0430032208236636,"33":-0.07769056436106865,"34":-0.22084945009575319,"35":0.4242234857017656,"36":-0.13672011809664134,"37":0.08690117419371604,"38":0.06537750321953202,"39":-0.14221780897366657}},"33":{"bias":-0.10539948998409086,"weights":{"0":-0.04724479574713168,"1":0.10943476921269825,"2":-0.04039951304595646,"3":-0.1366775790543216,"4":0.17937085791378082,"5":-0.04898437927015877,"6":0.05910513362752851,"7":0.020573308695058808,"8":-0.00982743214817837,"9":-0.18020051120609096,"10":0.0518609441869513,"11":0.09507757975096386,"12":-0.0960522004618233,"13":0.010949329890138249,"14":-0.11992576032679536,"15":-0.07595125443875395,"16":0.1589873190926103,"17":0.1284198755736064,"18":0.06259707832576898,"19":-0.07034379497003641,"20":0.029090962101335622,"21":-0.04664301098510535,"22":0.03735643179971635,"23":0.1451079609619746,"24":-0.06621017471485016,"25":-0.11635515451100256,"26":-0.13613896253635457,"27":0.1383695086165739,"28":0.09797096134192701,"29":0.060729679263580465,"30":0.1869220564923341,"31":-0.1816976007773605,"32":-0.19795032302309984,"33":0.039232511551042175,"34":-0.17285690270803047,"35":0.055416251740963034,"36":0.09266449201450716,"37":-0.19551678985352067,"38":-0.06652939654713551,"39":-0.16147618381246814}},"34":{"bias":-0.08713345946953975,"weights":{"0":0.008164621410732223,"1":0.14047027431676828,"2":-0.19605867252850864,"3":-0.09831285315946015,"4":-0.13439860224555236,"5":-0.13831621858383822,"6":0.0156969266033975,"7":-0.024663535597894408,"8":0.17367246585047752,"9":-0.09232689851010441,"10":-0.08967080869899689,"11":0.0712923940049803,"12":0.17927581106835164,"13":-0.05607872175246064,"14":-0.03889086448770144,"15":-0.04075126755425804,"16":-0.11907544449218341,"17":-0.03436857533147924,"18":-0.032235437960827486,"19":-0.11206754206436409,"20":-0.09287423550504086,"21":-0.0103083647674076,"22":0.0571115046600266,"23":0.05003084079787514,"24":0.02350446921092564,"25":0.003535219773661142,"26":0.05472855455125132,"27":0.1111112679070135,"28":-0.07564037442878192,"29":0.10523393005953252,"30":-0.10242344226092334,"31":0.045378667200373785,"32":-0.03848210367589626,"33":-0.18051060765103125,"34":-0.07668696623860542,"35":-0.1588304416275694,"36":-0.0057663975205901885,"37":0.08432092085317314,"38":-0.15110379230179632,"39":-0.059541743038770516}},"35":{"bias":0.4941504155346741,"weights":{"0":0.13578066809784528,"1":0.29323621514879167,"2":0.006847249036748167,"3":-0.12341849481486611,"4":0.07264223853184673,"5":0.09891200216768235,"6":-0.025249358200456713,"7":0.1271018592609203,"8":-0.19843266749355723,"9":-0.02086533134182629,"10":-0.130421438277375,"11":0.20653569928649124,"12":0.30935476300907655,"13":0.08669300780068524,"14":-0.08559712727395274,"15":0.054447890679931485,"16":0.16646712471071726,"17":0.3094284650797219,"18":0.20463533880212736,"19":-0.061742440953556695,"20":-0.017436102162592323,"21":0.06804937074676069,"22":0.0724148695007609,"23":-0.09077249693990391,"24":-0.05444316567974706,"25":0.15753825495048493,"26":0.10890470304241753,"27":0.44377194373740053,"28":0.14725828381390868,"29":-0.013225978274031148,"30":0.039649184539459516,"31":0.06023086118133424,"32":0.241660471573551,"33":-0.17783729462906708,"34":0.09336592407281062,"35":0.3809648712005527,"36":0.11130888353838958,"37":0.15961385470217937,"38":-0.08122333674972106,"39":0.1659860427174105}},"36":{"bias":-0.11917498820799838,"weights":{"0":-0.15353405681484078,"1":0.19653064590518426,"2":0.15258952410142063,"3":0.09474321388250641,"4":-0.1925782850066121,"5":-0.07681439767235312,"6":0.10233866172534398,"7":0.052313218553361504,"8":0.15264779378290058,"9":-0.10912922930373084,"10":0.06600969729577906,"11":0.13016597709385117,"12":0.1640112948179348,"13":0.15500613934711086,"14":-0.0238361422665739,"15":-0.18220618902828267,"16":-0.009206051357579608,"17":-0.06049588034957211,"18":0.07518743015433754,"19":0.14444499031252117,"20":-0.026102103686200966,"21":-0.13488112775975045,"22":0.19123665332024276,"23":0.13114560171174058,"24":0.01281537674931719,"25":-0.14978724120803766,"26":-0.11243934418790515,"27":0.14005134511924405,"28":-0.1729577758473672,"29":0.13710510401571932,"30":-0.017589228978526095,"31":0.1028581944790435,"32":-0.049188667473557525,"33":0.044019797680269666,"34":-0.1303546608369976,"35":-0.013603260629546463,"36":0.15344351903818318,"37":-0.12020572468510912,"38":0.1423557329863215,"39":-0.06670239275858779}},"37":{"bias":0.07276669255106631,"weights":{"0":0.14057895479002516,"1":-0.08516372203455436,"2":0.2037043668995293,"3":-0.04015227107829557,"4":-0.08663357318232458,"5":-0.2018028048996609,"6":0.195653827698472,"7":-0.03474486570344399,"8":-0.16250778075074593,"9":-0.0169369163268502,"10":0.1636134371010656,"11":0.01656415843706799,"12":0.01364065299348007,"13":-0.1136958849245311,"14":-0.058709955432027436,"15":-0.15968298745357337,"16":0.003945456569493463,"17":0.0026914368575144195,"18":0.13793141228901531,"19":-0.17112113091505513,"20":0.058469819928098646,"21":0.04671705609066149,"22":-0.07977523386002493,"23":-0.18898495349351532,"24":-0.011823907828252217,"25":0.005342176270049149,"26":0.015711836926300234,"27":0.16025090705366699,"28":-0.1355972036751234,"29":-0.18731977661240679,"30":0.15310568423172516,"31":-0.18927727282829504,"32":0.03118854680491305,"33":0.08487903331290485,"34":0.04459359755928423,"35":-0.032432070539545436,"36":0.03470356619422108,"37":0.09745017217596078,"38":-0.14209341618920326,"39":-0.07423377009199081}},"38":{"bias":0.06538267665050587,"weights":{"0":0.13676746354878863,"1":-0.13104041610831949,"2":0.17214339518649432,"3":-0.014546546086792646,"4":-0.159905594030156,"5":-0.08900734129791037,"6":-0.055837628094994984,"7":-0.016854204906314778,"8":0.1980708099742103,"9":0.03705216438611724,"10":-0.16572681343691797,"11":-0.01669210487676116,"12":-0.07197010873994873,"13":-0.08037278616941756,"14":0.020933137936583534,"15":-0.045732046753264866,"16":-0.007657809800823822,"17":0.011982353911382684,"18":-0.004979677086656505,"19":-0.13412811537252126,"20":0.0045774016123366,"21":0.22130954792085689,"22":-0.17880463562791077,"23":-0.08651351158550685,"24":-0.02475427081959123,"25":-0.1720657630515901,"26":0.19096692110812036,"27":-0.08540204282668097,"28":0.15562611044506672,"29":0.12918256979444337,"30":0.08889174044335134,"31":0.03600112732734123,"32":0.005712146888424613,"33":0.026672536955233896,"34":-0.19035338028530932,"35":0.10150902140578362,"36":0.022071814232090665,"37":0.009467172371605749,"38":0.1283863677673838,"39":-0.11151254084390165}},"39":{"bias":1.1929002246431524,"weights":{"0":0.18419364318674586,"1":0.1522054086774346,"2":-0.24480271341084162,"3":-0.17631652276391968,"4":-0.07645509225898449,"5":0.5437978005227637,"6":-0.10446299699778777,"7":-0.2769754202068084,"8":-0.12531810381160724,"9":-0.2147449360939142,"10":0.12388949828375448,"11":0.07966142466724116,"12":0.28519839483582715,"13":0.15578152282068128,"14":0.09858560102180718,"15":0.00036873919170213744,"16":-0.013411865131298762,"17":0.42202744227422895,"18":-0.022553025635527222,"19":-0.06679503881149274,"20":-0.20334019724403926,"21":0.22204149561365397,"22":0.042775395576914794,"23":-0.06287506747439596,"24":-0.03568015061072417,"25":-0.0064283015884473,"26":-0.21598192093639826,"27":0.4699160253615034,"28":-0.09958125415268237,"29":-0.10905354477286092,"30":-0.0033212427512681357,"31":-0.11082789088880624,"32":0.14804829920516488,"33":-0.05595932438668177,"34":-0.3063607707938409,"35":0.24783892086599757,"36":0.20810048945937507,"37":-0.1378008503861565,"38":-0.24768498289502888,"39":-0.02533011289179437}},"40":{"bias":0.4201807975155842,"weights":{"0":0.17649202487029658,"1":0.0702539905267771,"2":-0.12753376446012912,"3":0.14000095409460442,"4":-0.04881132247466909,"5":0.3447518408917759,"6":0.11196313585978279,"7":-0.09972605374453507,"8":-0.04183004064657355,"9":-0.15230449732177506,"10":0.05524933324952877,"11":0.16265920721000476,"12":0.32795693718706004,"13":-0.041403785346062844,"14":0.1458431305587897,"15":0.04208039298383867,"16":-0.09928368525176703,"17":-0.04081884853599127,"18":-0.024549211455816507,"19":-0.11673054968745158,"20":-0.11420060718606542,"21":0.3721940378778674,"22":0.272246212980007,"23":-0.09031938278608392,"24":-0.20978827766860736,"25":0.03370390296993691,"26":-0.12777906699196495,"27":0.11313916068180016,"28":-0.17477188658384926,"29":0.042760648431560716,"30":-0.16835115245524923,"31":-0.12647866534057198,"32":0.037365459677495994,"33":0.1693137411992563,"34":0.07240762520397802,"35":0.3061772841627518,"36":0.04647570672563242,"37":0.14157037785031804,"38":0.120408120254243,"39":0.009858759237510362}},"41":{"bias":-0.08024184243712279,"weights":{"0":0.11961613413189692,"1":0.004025354196923771,"2":-0.021038826883458896,"3":0.027840506437169763,"4":0.09571887310885432,"5":0.1244333731701049,"6":0.14783188657664878,"7":-0.14040905398097756,"8":0.004455879947127383,"9":-0.058443757117097185,"10":-0.06945807368109036,"11":-0.0725085508669487,"12":0.08994113359995509,"13":-0.11653561201418279,"14":-0.01040931839046025,"15":0.15053223294388837,"16":-0.058940595304907105,"17":0.1711247354956123,"18":0.04516269803657156,"19":-0.04922267923781975,"20":-0.1898630872517716,"21":-0.0067486446694707755,"22":-0.022923507573321435,"23":-0.04791465395168135,"24":-0.02737730928699114,"25":0.04283222453274254,"26":0.04003358253140274,"27":-0.07930702201929819,"28":0.10378712484526867,"29":-0.07802146558663652,"30":0.04181887640337693,"31":0.17647705224810675,"32":0.028370037645757035,"33":0.15645656474108516,"34":-0.16667573362544436,"35":-0.18392373640413873,"36":-0.07445038617811321,"37":0.13573692745815782,"38":-0.14928504500748893,"39":0.051415903500968335}},"42":{"bias":0.04599259294427251,"weights":{"0":0.12177898759618336,"1":-0.035015612427903915,"2":0.14048431670712527,"3":-0.03257684260735237,"4":-0.06158310825317061,"5":0.07061611458103263,"6":0.10736579743442841,"7":-0.03365061029615142,"8":-0.08738879046767659,"9":0.18196670759184422,"10":-0.2063083539582703,"11":-0.05239548506476488,"12":-0.156605608581931,"13":-0.1649554929777179,"14":0.10374524557392024,"15":0.03495074864614323,"16":0.1270171315321905,"17":0.11879218321223615,"18":0.07393374498710496,"19":0.14337329400750629,"20":-0.10096700495438939,"21":-0.040102968346433815,"22":0.2168288978155162,"23":-0.06373580041075828,"24":0.0664446170684055,"25":0.16673246229790809,"26":0.17739284915010092,"27":0.0267156333637129,"28":0.06445811042068755,"29":-0.17031126269941502,"30":-0.05084827286648391,"31":0.12614667408307229,"32":-0.12622184636341607,"33":-0.11709119400798476,"34":0.13350928795492775,"35":-0.07432476290461044,"36":-0.18002580457716763,"37":0.04231612767621882,"38":-0.07758673848623672,"39":-0.14583052126563337}},"43":{"bias":-0.12357822798777533,"weights":{"0":0.055782340271425195,"1":-0.059875631910519755,"2":0.08853859749899629,"3":-0.14933045060320638,"4":-0.16997511550274075,"5":0.13470627456483897,"6":0.0038111770641140277,"7":0.12213571924568017,"8":-0.03587311178131206,"9":0.057835983481660656,"10":-0.051535173896602116,"11":0.18208813855479777,"12":0.17922706751423065,"13":0.098897712967523,"14":0.02931949001399635,"15":0.04157332296012834,"16":-0.14706885539191294,"17":0.07136555415653542,"18":-0.191989652613445,"19":0.16597046568664536,"20":-0.1293730710312186,"21":-0.17272963867678787,"22":-0.0403470895211899,"23":-0.11735788280413413,"24":-0.17119394257793538,"25":-0.018991415099563324,"26":0.09653938501628144,"27":-0.0016107809208477902,"28":0.09495731462439531,"29":-0.15578820965410475,"30":-0.0725541083893301,"31":-0.017950714997943047,"32":-0.09818774972839701,"33":0.12971006464456267,"34":0.04962762608085599,"35":0.06205617358936405,"36":0.06835193359883003,"37":-0.11327179851765373,"38":0.17610689626886464,"39":0.06589167320493962}},"44":{"bias":0.6988923506759143,"weights":{"0":-0.02533355282111053,"1":0.09459065689900786,"2":-0.11442052694382683,"3":-0.07122221875452185,"4":-0.05802387558321053,"5":0.4803173884620897,"6":0.03930302727886363,"7":-0.11001816187401106,"8":0.03971131843714769,"9":0.1771285875397607,"10":0.09394220242986966,"11":0.10447669193407144,"12":0.25729730023032477,"13":-0.046841329133067926,"14":0.07632033639227155,"15":0.05717209931966065,"16":0.20031282134659076,"17":0.06736070729167389,"18":0.029086885681335394,"19":0.02351753603384934,"20":0.0024633834091093904,"21":0.19226895969626887,"22":0.005054789042412845,"23":-0.05458895484682952,"24":-0.14513131658760026,"25":-0.15936885900122472,"26":-0.07170018607316263,"27":0.4868991093653974,"28":-0.08798936562436421,"29":-0.10827860653965245,"30":-0.1372899026806031,"31":0.02804047944568511,"32":0.3014911560074196,"33":-0.12546614883050053,"34":0.10109216379749611,"35":0.1999024308608882,"36":0.15186239458371173,"37":-0.08544759656880181,"38":0.12477342366892612,"39":0.18852617003106178}},"45":{"bias":0.19120484954300393,"weights":{"0":-0.15195393635064894,"1":0.18933844480097395,"2":0.043761575789599175,"3":0.17884306481260112,"4":-0.16396761664550086,"5":0.14863419839113087,"6":-0.057996003900536434,"7":0.16753627375706862,"8":-0.04527375518641349,"9":0.044724615028704756,"10":-0.15138087011771764,"11":0.18203091426291432,"12":0.12280048071798003,"13":-0.06701793582517394,"14":-0.1252752940704397,"15":0.14879555503533304,"16":-0.00879587742703029,"17":0.017107902632509765,"18":-0.01919100826398561,"19":-0.09206239161885908,"20":-0.12623780131048848,"21":0.18991413136772295,"22":0.1522268755508555,"23":-0.17859366418717085,"24":0.14285605427638004,"25":-0.15560588450215904,"26":-0.09985649867434726,"27":0.14373342082242743,"28":-0.16169451280538816,"29":0.1761591577333743,"30":0.11226004726956296,"31":-0.10672622180415031,"32":0.0936583586035718,"33":0.17143303422974973,"34":0.11223819668123942,"35":-0.03039056941794047,"36":0.1188701679643088,"37":0.013963979090731393,"38":0.13069804188860165,"39":0.14305851870726435}},"46":{"bias":0.3966588124397524,"weights":{"0":-0.12016783287590745,"1":0.2063563580667338,"2":-0.07598883422374131,"3":0.17037759105725903,"4":0.11547882630184535,"5":0.16596680157716062,"6":0.12156023131183102,"7":0.13613066402708296,"8":-0.2171658649988423,"9":-0.013917369105263786,"10":-0.17664914150747213,"11":0.080174922526438,"12":0.158161345625459,"13":-0.06953725533260044,"14":0.0859114967770248,"15":-0.059106895871889956,"16":-0.18968822650324307,"17":0.2692353637074803,"18":0.1997769239785522,"19":-0.11042559848213233,"20":-0.20073531365575592,"21":0.20402103467203767,"22":-0.03323147351918429,"23":0.07189252996602166,"24":-0.003941415065650658,"25":-0.17117395893272258,"26":-0.1261699561517184,"27":0.39164378179433196,"28":0.08915500123422537,"29":0.13033818084299706,"30":0.11779611277113813,"31":-0.0608785309773465,"32":0.2700028297655029,"33":-0.19369716133551312,"34":-0.2640075518766998,"35":0.20768307625234625,"36":-0.14468617472527792,"37":-0.22557143048824493,"38":-0.16592985540113717,"39":-0.17137257967800393}},"47":{"bias":1.0459209024138174,"weights":{"0":0.056191517979492234,"1":0.06304283682866531,"2":-0.12528540779844832,"3":-0.028879112836431155,"4":0.021744425297546117,"5":0.4608416979463865,"6":-0.10778453572065567,"7":-0.27418968579131603,"8":0.16315710626828295,"9":-0.23592393817393928,"10":-0.05211011162886249,"11":0.25623511247573816,"12":0.5042478408852942,"13":-0.007091002895566877,"14":-0.21655833665993543,"15":0.0023854367642547063,"16":0.1350893100807699,"17":0.18163463054472698,"18":0.222275425761383,"19":0.014906840182161457,"20":-0.23515708043022537,"21":0.477866831916935,"22":-0.014974559125161173,"23":0.14276151281673644,"24":-0.1046708898611391,"25":-0.22405511429237573,"26":0.06990275390295096,"27":0.4702544292105902,"28":0.014459566917418877,"29":-0.06617890992887071,"30":-0.2876157594398326,"31":-0.16935631742136698,"32":-0.1051679405657061,"33":-0.2655507322453551,"34":-0.13955384109433233,"35":0.41344872891049705,"36":0.22211599114786124,"37":-0.24145299933551517,"38":0.08346877388497408,"39":-0.1818100534875478}},"48":{"bias":0.2795649177772176,"weights":{"0":-0.038912496320209114,"1":0.14020070777592702,"2":-0.174691134033825,"3":0.054669403750703206,"4":0.11195771112980392,"5":0.09282150182898784,"6":0.03022931441773487,"7":-0.030589955439362475,"8":-0.013713234866046977,"9":0.1709892001879975,"10":-0.05553257401583346,"11":0.023191233510175328,"12":0.3890861082765116,"13":-0.15959448572771745,"14":0.13005249005743297,"15":-0.07318392765401774,"16":-0.013303223328189942,"17":-0.05077676155894784,"18":-0.09615608120247811,"19":-0.14716064099037332,"20":-0.19425708539571962,"21":0.01242763678862833,"22":0.25502708919845674,"23":0.08777473228837718,"24":-0.18322704411186225,"25":-0.047188501606418444,"26":-0.059589815632950106,"27":0.31723302555928246,"28":-0.12302830792761328,"29":0.12990356521116947,"30":0.09150921901840939,"31":0.06508779434162515,"32":0.14605976325674852,"33":-0.22805654456344251,"34":-0.1060728371450165,"35":0.07378858948953955,"36":0.012272961195696704,"37":-0.11834529701937352,"38":-0.06843288119333497,"39":0.06162356321746765}},"49":{"bias":0.9142367759900087,"weights":{"0":0.17030779028477544,"1":0.012455002758453768,"2":-0.207138178974608,"3":0.12810414555533017,"4":-0.2568449352408235,"5":0.4035573125526246,"6":0.030635367735245438,"7":-0.25159359286794103,"8":-0.06960455577618059,"9":-0.1765129865041956,"10":-0.0679392402249885,"11":0.28089179433688793,"12":0.4167685358628027,"13":-0.2580947907931691,"14":-0.027912541560611487,"15":-0.2099679026914296,"16":0.03979785746862669,"17":0.06798017431398692,"18":0.19242028980538553,"19":-0.03228889076897892,"20":-0.10614876735656684,"21":0.15931081215508586,"22":0.2352078848025656,"23":0.01604393143628403,"24":0.03518324781768706,"25":0.04877983856278937,"26":-0.13541237793520722,"27":0.2954364719901686,"28":0.022627152958709845,"29":0.09812821880834313,"30":-0.19529692240959887,"31":0.08639610203589727,"32":0.14403406863261412,"33":-0.051478568212232415,"34":-0.008281483781673952,"35":0.33229246080311503,"36":-0.01252748491575342,"37":-0.09278766130967596,"38":-0.07469943239645015,"39":0.1755486357644912}}},{"0":{"bias":1.1554058957190927,"weights":{"0":0.6091433656650188,"1":0.40359282698563975,"2":-0.08452977309618401,"3":-0.00646592749594048,"4":0.08405317021285384,"5":0.15224679407783506,"6":1.04897693815058,"7":-0.19297735419357442,"8":-0.29664749271210805,"9":1.2106854510301248,"10":-0.173942334202117,"11":-0.3436304120750242,"12":0.03106570226830899,"13":0.1326368142649864,"14":0.647068867053962,"15":0.08428809665406398,"16":1.4723062749389413,"17":0.47695718795367614,"18":0.2258035274869969,"19":0.013319699317001676,"20":-0.17899763048307932,"21":0.0010018297472606645,"22":1.3799568570980918,"23":-0.13641140789145123,"24":0.12145461118693368,"25":0.17255352294641882,"26":0.4507434523117248,"27":-0.11311419406348475,"28":0.39066581104019876,"29":0.047225000192277225,"30":1.0603393787504574,"31":1.3174980016875468,"32":0.8602206144035749,"33":0.086770974090387,"34":-0.20366828422233832,"35":0.5530795715232547,"36":-0.031161169249611383,"37":-0.1474642498558324,"38":-0.06414180460635292,"39":1.1549053652070247,"40":0.2619512975317755,"41":-0.0694593025385742,"42":-0.03940920327113415,"43":-0.05917291438595314,"44":0.712814095712395,"45":0.40003480592050816,"46":0.6904534690497733,"47":1.2854953419777548,"48":0.5176535894346027,"49":0.7911923209110728}},"1":{"bias":1.1242833608259784,"weights":{"0":0.5758306432668956,"1":0.5657623880925997,"2":-0.06629479855141521,"3":0.07169523383940934,"4":0.3955700386730956,"5":0.25934797939397075,"6":1.1005401404239241,"7":-0.058153731170789674,"8":0.09884365217545232,"9":1.2188029913931622,"10":-0.10126660757770306,"11":-0.20859801918022827,"12":0.03727160735645697,"13":-0.05753183608687951,"14":0.7026125594799072,"15":0.026827010377556082,"16":1.172261015916387,"17":0.3831964701339979,"18":0.16749412287299298,"19":0.09396528110222396,"20":-0.2071218598998894,"21":-0.13387452094570199,"22":1.282243533653256,"23":-0.2671638166724368,"24":0.23562244243043753,"25":0.1667624346889182,"26":0.5709627581277013,"27":-0.09120083720055033,"28":0.5702258761205996,"29":-0.0904910356875025,"30":0.8991857642171535,"31":1.1638341098020009,"32":0.9281301881318413,"33":-0.17108686231936548,"34":-0.04628914861763008,"35":0.5876696745123501,"36":-0.04478244593312851,"37":0.027759164879847236,"38":0.01657599127373246,"39":1.3510826515626282,"40":0.43368131472459487,"41":0.013580637132245076,"42":-0.15509056050134892,"43":0.11007227206959162,"44":0.3981375445839337,"45":0.3324321861282121,"46":0.5553640707430179,"47":1.272339377856354,"48":0.400096720317998,"49":0.9074026323569037}},"2":{"bias":1.960781351381888,"weights":{"0":0.5466072445094684,"1":0.31859021420492484,"2":-0.12909602154411398,"3":-0.18916034557533548,"4":0.32703767692449176,"5":0.018009979906854306,"6":0.9757286758094263,"7":-0.02046936753549174,"8":0.001709413184398636,"9":1.2399903416444362,"10":-0.24074458265676685,"11":0.08552092819523902,"12":-0.01312798189552438,"13":-0.21630835751761068,"14":0.4795064782156294,"15":0.019201727435990412,"16":1.4876900800477184,"17":0.24144387498031772,"18":0.14758317772188406,"19":-0.01670815279867668,"20":-0.014519228994639578,"21":0.05402978676838757,"22":1.6458009573738768,"23":0.08635518043231105,"24":0.18269149604169269,"25":0.19295141672851804,"26":0.536118523401244,"27":-0.20310347955684444,"28":0.5677164277404092,"29":0.08972744766169974,"30":1.0036969346375935,"31":1.4458442971137169,"32":0.6937722990478031,"33":-0.08089746507289003,"34":-0.04459000580321549,"35":0.35307337881188494,"36":0.09622035535522841,"37":-0.11822244450270979,"38":0.09105994707913151,"39":1.208763068362836,"40":0.36247837852508896,"41":0.1496513770885607,"42":-0.2521671953008704,"43":0.16065966262110487,"44":0.48493915560016465,"45":0.11342721704503904,"46":0.4361861257521292,"47":1.299463122033217,"48":0.33226160364514407,"49":0.6687969912725712}},"3":{"bias":1.7918062866341458,"weights":{"0":0.7471137456016754,"1":0.37122726730959016,"2":-0.13430295237821482,"3":-0.17622628383370056,"4":0.432129822032855,"5":-0.0998932214000557,"6":1.1739315763938827,"7":-0.2461697974200302,"8":-0.2534411240269898,"9":1.3523750184493877,"10":-0.18587029284762613,"11":-0.08842791172980052,"12":-0.07515039992312822,"13":-0.045917679622337636,"14":0.5889480833097688,"15":0.22900772608410738,"16":1.4663750833014177,"17":0.2289769733239267,"18":-0.010317377442027395,"19":-0.21982484387400023,"20":0.09404942075429734,"21":0.05292333550630991,"22":1.7938416300802131,"23":-0.05360401695299423,"24":0.39671619926516155,"25":0.2798644685691712,"26":0.2732745490683181,"27":-0.05828899681770807,"28":0.5391105484562319,"29":-0.06279941574977936,"30":0.7141920616393318,"31":1.3210645307699815,"32":0.4844673985140817,"33":0.03909992683960205,"34":-0.14781792582944508,"35":0.38379958616607396,"36":-0.10036945490360771,"37":-0.06260172455846036,"38":-0.10717013601614479,"39":1.185856310889052,"40":0.5209505040626072,"41":-0.137889631259943,"42":-0.05406130091157823,"43":-0.09150595546345876,"44":0.6557377236711168,"45":0.08559984916853162,"46":0.19969242233150067,"47":1.2871999724685081,"48":0.3526892742176168,"49":0.6432613075713296}},"4":{"bias":1.6652259936749052,"weights":{"0":0.6197621308400146,"1":0.16964669801249668,"2":0.05178334139270848,"3":0.12372255207272725,"4":0.37805327553996504,"5":-0.17252682078865095,"6":1.1878107783386398,"7":0.09468441907235343,"8":-0.03401782310151637,"9":1.2284677715929622,"10":0.0759090281779946,"11":0.10479258446827712,"12":-0.11631994842470343,"13":-0.20667668486156837,"14":0.681807052637894,"15":-0.11111611189747994,"16":1.2072588918846985,"17":0.4431643634817727,"18":0.28885601531160354,"19":0.001245360070585813,"20":-0.0014212854737941016,"21":-0.14984927004866586,"22":1.7304159497472824,"23":-0.02779544108466948,"24":0.14760036107627003,"25":0.10390661695933752,"26":0.39096600434734013,"27":0.0316943841655437,"28":0.2860695770322283,"29":0.11807021324024161,"30":1.0096495263239904,"31":1.3837488645477125,"32":0.5708400226155806,"33":0.05767872676930714,"34":-0.2247190445160038,"35":0.3832036487433076,"36":-0.07815556875036175,"37":-0.01042747480835193,"38":-0.060694289198470315,"39":1.4805673011895355,"40":0.5232949549631999,"41":-0.18450074960152466,"42":-0.28369051653687327,"43":-0.010149510102855903,"44":0.8043772713704889,"45":0.17699337051095118,"46":0.19329631179851844,"47":1.3361529786939206,"48":0.20677494872885968,"49":0.7044143492470832}},"5":{"bias":1.1411700699746237,"weights":{"0":0.7264167476427289,"1":0.19026007361994032,"2":-0.42795712115637324,"3":-0.12063696477532947,"4":0.3903080516892923,"5":0.03011931662046563,"6":1.0506382010564157,"7":0.014919185147469913,"8":-0.07916842890002203,"9":1.2783528102878545,"10":-0.23138151312826316,"11":-0.19593338431209872,"12":-0.03920850969776902,"13":0.017794204440374866,"14":0.5267907031282111,"15":-0.01234070495581846,"16":1.1994622054261381,"17":0.5859170534226397,"18":0.04498250194613055,"19":0.00811448130850113,"20":-0.1142295865339381,"21":-0.19968393204877669,"22":1.232842327050163,"23":-0.2022732504020069,"24":0.07864994319480936,"25":0.3819402951458268,"26":0.41742439183704283,"27":0.0814317734881336,"28":0.4514717844729147,"29":-0.12910518706260082,"30":0.903938484820832,"31":1.4374735294714653,"32":0.9529291906396234,"33":0.05853162724493773,"34":-0.07073099932111782,"35":0.3927326946284024,"36":-0.1269886806814973,"37":-0.020178582493894943,"38":0.044607942253144815,"39":1.3587783860095173,"40":0.558615056338349,"41":0.1407432785527561,"42":-0.004919809718703314,"43":0.02102194550904328,"44":0.4190203409666645,"45":0.12252436564725844,"46":0.6882077377748637,"47":1.322008319364624,"48":0.49386057646077125,"49":1.0661692731413945}},"6":{"bias":2.0366692273283413,"weights":{"0":0.3953810292379082,"1":0.3183988785019618,"2":-0.23818211528170155,"3":-0.2136261129619806,"4":0.36467147068271966,"5":-0.20910311217900165,"6":1.125257800717325,"7":-0.10791308295681612,"8":-0.03962986051336291,"9":1.2724701172793806,"10":-0.050452092733854835,"11":-0.1744495957935909,"12":-0.07975423379345895,"13":-0.2654089348735205,"14":0.7105312137621667,"15":-0.07963067604190861,"16":1.1538591530772278,"17":0.41413649233859384,"18":-0.04850376705400628,"19":-0.04431872074331181,"20":0.0356442029874312,"21":-0.08604443379074177,"22":1.8695500423239582,"23":-0.13466235440725163,"24":0.3267940725408339,"25":0.018598207099792444,"26":0.3095490331892824,"27":-0.08127255705493261,"28":0.38243340345840066,"29":0.08235794445292058,"30":0.7604536682771346,"31":1.4370665170538812,"32":0.5336045761935638,"33":-0.030768311509207356,"34":-0.014701326860604146,"35":0.36827539558546124,"36":0.0059392912587628395,"37":0.16453793410656362,"38":-0.0013018549029565297,"39":1.145178614460751,"40":0.44150454334346384,"41":-0.14518231662510905,"42":-0.18245629928499002,"43":0.08526262790522675,"44":0.7156218612029793,"45":0.30962244088259505,"46":0.46813528764236767,"47":1.1471579909869238,"48":0.1504963845017764,"49":0.9975858162603226}},"7":{"bias":2.350157797588651,"weights":{"0":0.6893525391374784,"1":0.48173266497715583,"2":0.04911048195860808,"3":-0.007202193776268889,"4":0.2875692426852714,"5":-0.12965842701532418,"6":0.9679300356276372,"7":-0.26243420244508875,"8":0.05451823478064481,"9":1.2530252148191814,"10":-0.20118605022851604,"11":-0.16773319415034194,"12":-0.17533426534618077,"13":-0.2034209106450389,"14":0.6788839663280317,"15":-0.04404696803029473,"16":1.330498603381583,"17":0.07371432465068091,"18":0.2555424792853381,"19":-0.07517133794725546,"20":-0.2913225720650909,"21":-0.3253043433383777,"22":1.67284966605828,"23":-0.20132046180752364,"24":0.20391777962975605,"25":0.09149232973592654,"26":0.2901785660610069,"27":-0.008051411819607354,"28":0.48651367844105103,"29":-0.039885173937328176,"30":1.0737364088746475,"31":1.2101981275021598,"32":0.6520370704750242,"33":-0.05197948768999756,"34":-0.20389055568991113,"35":0.39690176351663786,"36":0.06503914154993896,"37":-0.13013279700481398,"38":-0.263059154060184,"39":1.3357607943213614,"40":0.21438657207020123,"41":-0.28829559525488524,"42":-0.0672885023595097,"43":-0.11343115940019245,"44":0.553846878967449,"45":0.03546886469778741,"46":0.3749238156632282,"47":1.321705389992142,"48":-0.09588594429048922,"49":0.9036696177829997}},"8":{"bias":1.252168989980641,"weights":{"0":0.5337388510100114,"1":0.5812429881469358,"2":-0.3321720943180464,"3":-0.2821455479670757,"4":0.07758856530624224,"5":0.1637323308331763,"6":1.250103547076475,"7":-0.018904170158589362,"8":-0.264871408217204,"9":1.3697227985498406,"10":0.10035960782678365,"11":-0.12313080044636417,"12":-0.1739927893437142,"13":0.11199810857331662,"14":0.8316924250004761,"15":-0.25133082505037946,"16":1.227679602899932,"17":0.27625947059724515,"18":0.1759236885379268,"19":-0.12633116000828382,"20":-0.22595442872962396,"21":-0.2711848467002375,"22":1.3341582998750448,"23":-0.32400040923520096,"24":0.2488500948805395,"25":0.32025667507051725,"26":0.39405248581865326,"27":0.03258960689235064,"28":0.6851958408960965,"29":-0.0016801221927254626,"30":1.0594978162760458,"31":1.2430294638390567,"32":0.7983998031331219,"33":-0.13959314662805739,"34":0.07837252419181658,"35":0.5637766808895234,"36":-0.1521613288488628,"37":0.15485609265644149,"38":-0.20455575089886263,"39":1.3851534949230926,"40":0.3419281362012175,"41":-0.048057334081099884,"42":-0.19515476298718218,"43":0.176731841407971,"44":0.4951646645565846,"45":0.17555069816993107,"46":0.3950661155733,"47":1.2494084676131227,"48":0.19531993384095822,"49":0.8622171370021685}},"9":{"bias":1.8009715404152835,"weights":{"0":0.5695878817287409,"1":0.3330923391067458,"2":-0.2218936821826759,"3":-0.11473490457976933,"4":0.2694163953098702,"5":-0.1289816350496419,"6":0.9790300670618824,"7":-0.2439596758626737,"8":-0.0005948252563325258,"9":1.304066456077781,"10":0.07039050639853307,"11":-0.11614984209053633,"12":-0.23002638851158522,"13":0.009210241294830326,"14":0.7568388723866212,"15":-0.06440395885178503,"16":1.0356955327106359,"17":0.10829130804864728,"18":-0.08418880270394247,"19":-0.3276260790078069,"20":0.05756036678477041,"21":0.054956117392540145,"22":1.716995306335622,"23":-0.18512609169343938,"24":0.18724149660721123,"25":0.04154716889429483,"26":0.46110420710214944,"27":-0.24382829616386623,"28":0.5688627968219426,"29":0.16838674441761056,"30":1.0469115959554518,"31":1.1527245279569902,"32":0.8116721260731244,"33":-0.11024621851826877,"34":-0.008094978501922005,"35":0.530100544547928,"36":0.03183410634930267,"37":0.13295789880821052,"38":-0.10102459979685315,"39":1.291564201594665,"40":0.22403833322359595,"41":0.040326384334628734,"42":0.011175300303014779,"43":-0.04648848233220545,"44":0.7541579992913505,"45":0.28031791207552265,"46":0.43158548552988135,"47":1.3179085970444366,"48":0.23773250172593752,"49":0.9283725509054764}},"10":{"bias":1.3610956221503785,"weights":{"0":0.6445031170069523,"1":0.179267733985209,"2":0.09881959266716975,"3":0.05579624152544003,"4":0.19073127951923055,"5":0.1462208099333742,"6":1.3254960526116482,"7":0.0397615701210339,"8":-0.13446843221117,"9":1.2834278805860564,"10":0.10210343951220605,"11":-0.14903334356867545,"12":-0.23434888986974636,"13":0.09497255726432426,"14":0.786944559920232,"15":-0.14758487527399586,"16":1.2900268336622887,"17":0.3245974486529693,"18":0.19671135749595703,"19":-0.03981994267028881,"20":-0.22294979496154158,"21":-0.044828728283059796,"22":1.617518280854905,"23":-0.2171856877394215,"24":0.26931239020265,"25":0.28452963977997825,"26":0.3061501481239141,"27":-0.22028741628750395,"28":0.4546398493612992,"29":0.07212728156964619,"30":0.9788906120174484,"31":1.4435915603869733,"32":0.6883848700802966,"33":-0.06951531251902673,"34":0.046253840024160456,"35":0.3101309490996638,"36":0.11395465799620572,"37":-0.09121527918064344,"38":0.007358874581506168,"39":1.2852948400278053,"40":0.2606021462449861,"41":0.06602627002701972,"42":-0.0717225452812515,"43":0.020975137974893306,"44":0.8180157670624608,"45":0.21442144673968846,"46":0.2020467475697628,"47":1.37660378310399,"48":0.3892619406330739,"49":0.8446311336444208}},"11":{"bias":2.1284283679531115,"weights":{"0":0.6009624791198679,"1":0.18039391015279738,"2":0.0349027340440191,"3":-0.2200180187838294,"4":0.2860142191873537,"5":0.13802703510768488,"6":1.0287503048107238,"7":0.04722327829393599,"8":0.05437051560670229,"9":1.2145562956988627,"10":-0.04374736956155648,"11":0.0006776433270977433,"12":-0.2928201919559566,"13":-0.039782146047295235,"14":0.7868098346631769,"15":0.026652637769676354,"16":1.2237803075786822,"17":0.1893045776674065,"18":0.2878650990949728,"19":0.03905005992237033,"20":0.022029165871121092,"21":0.004219046857157228,"22":1.6964701918628333,"23":-0.20741127408039284,"24":0.5221572636548364,"25":-0.04500052775880212,"26":0.3457799258532469,"27":-0.030064920313582055,"28":0.3993183142323921,"29":-0.028302562197115213,"30":0.9243024739648559,"31":1.3805061387587192,"32":0.5871911978113828,"33":-0.07677910960748441,"34":-0.18541657173355083,"35":0.44212336085624404,"36":-0.04000551646291304,"37":-0.06044895457870632,"38":-0.18415128801030461,"39":1.4081668458784973,"40":0.32095003980947334,"41":0.04477433023028145,"42":-0.22076251592787047,"43":-0.08906378659917444,"44":0.7175267712665504,"45":-0.03748178743976318,"46":0.3868174209595415,"47":1.3370120514408508,"48":0.12486335158781459,"49":0.6960540675130695}},"12":{"bias":1.289836849220738,"weights":{"0":0.41597848838228996,"1":0.5032371563624153,"2":-0.4803860665284967,"3":0.03368464509606513,"4":0.3603699542880923,"5":0.1407263885554654,"6":1.338699523275553,"7":0.10590520950916249,"8":-0.003813581443230467,"9":1.19981749044766,"10":-0.13164635573600658,"11":-0.19498773113037288,"12":0.06106793536994415,"13":-0.09123042052336433,"14":0.7456709364172389,"15":0.007652565729351698,"16":1.364218771639965,"17":0.32469612750355875,"18":0.1387084584721046,"19":-0.025216084502274652,"20":-0.20666787964079425,"21":-0.21269483037989725,"22":1.2725593899216574,"23":-0.010885995814989972,"24":0.24361770693580276,"25":0.02702495861235606,"26":0.43503663699409745,"27":-0.037728429962137836,"28":0.5389476684354069,"29":0.06327245263101917,"30":1.103229410273789,"31":1.3356366168528997,"32":0.7792735652567375,"33":-0.17056530352865715,"34":0.1324654690352621,"35":0.4822001341984952,"36":-0.1079174874273736,"37":0.02007522625462471,"38":0.06094554314764515,"39":1.334825431565782,"40":0.4129997431257251,"41":-0.027229472258233314,"42":-0.07573675532156807,"43":0.17669059132352305,"44":0.4207037933648328,"45":0.17275873827518412,"46":0.5633695374234002,"47":1.158827459745885,"48":0.5428508681007573,"49":0.7933899356721781}},"13":{"bias":1.01239548210033,"weights":{"0":0.6476000568234767,"1":0.2862873313622617,"2":-0.1486447653086903,"3":-0.148650819316484,"4":0.2675127094278855,"5":0.033178112699775754,"6":1.1535165517989292,"7":-0.11385502068851057,"8":-0.05820298572691918,"9":1.0449786979752698,"10":0.04131996884810217,"11":-0.18965265335803574,"12":-0.2173566366654265,"13":0.05532230795310138,"14":0.8853006493189872,"15":0.15588001715993507,"16":1.2159073100881181,"17":0.5259383927955816,"18":-0.022744756544114123,"19":-0.2771929120354728,"20":0.10724213833427172,"21":-0.037787246141997924,"22":1.0779661222495462,"23":-0.00442460923403223,"24":0.04158600360663524,"25":0.23097739408971776,"26":0.48188460462701227,"27":-0.011727795748898104,"28":0.5265238201030286,"29":-0.055183680186876,"30":1.1955005573852637,"31":1.0319952291109311,"32":0.9987131786598668,"33":-0.10585205473652178,"34":-0.06393924943829042,"35":0.7161897031522761,"36":0.1037699183303174,"37":-0.15799987371906207,"38":-0.07079842626341418,"39":1.0008303943308643,"40":0.5903121459643661,"41":0.04813910064256002,"42":-0.24560064384738897,"43":0.14729951566818572,"44":0.897674364016037,"45":0.18284512008064968,"46":0.6065922945773681,"47":1.1316689432770504,"48":0.5252559107077802,"49":1.0526758755224048}},"14":{"bias":2.034160520813983,"weights":{"0":0.5635644834534327,"1":0.4460829537094347,"2":-0.016927452818348013,"3":-0.10717980283399196,"4":0.4125052936978964,"5":0.14313705873147517,"6":1.0368470880425615,"7":-0.12249693434606858,"8":-0.023231044478443586,"9":1.1774363162787644,"10":0.056044033771515955,"11":-0.14876100015590563,"12":-0.2271026633939938,"13":-0.005158423687161938,"14":0.7501473471825737,"15":-0.023116257379590076,"16":1.3435456666021488,"17":0.07645678011552223,"18":-0.014929017975666967,"19":0.040865739775683516,"20":-0.22339513339071965,"21":-0.23697266763350974,"22":1.6191203010755852,"23":-0.0661370341881063,"24":0.31164721376262305,"25":-0.03749295807410789,"26":0.3165887714530343,"27":-0.17761002151800884,"28":0.5675557450802294,"29":-0.11505829326664467,"30":0.8706075896578511,"31":1.3624034825815283,"32":0.7214895232297052,"33":-0.2370012660825156,"34":-0.18279600285127753,"35":0.6500382163743393,"36":0.16608442342819615,"37":-0.1489345442336157,"38":-0.006277879049964403,"39":1.0393772171837536,"40":0.35907479515130547,"41":-0.13809962565326855,"42":-0.11870027201562819,"43":-0.21903352312509938,"44":0.4807324536498869,"45":0.13156719687352023,"46":0.08934834421956787,"47":1.4623193372889804,"48":0.30503839939781124,"49":0.9372787856349775}},"15":{"bias":1.9084632147401992,"weights":{"0":0.40646172637430283,"1":0.12280054653475149,"2":-0.007960241833361024,"3":-0.148827765169503,"4":0.47754792513805316,"5":-0.17279432660390678,"6":1.1350233063515947,"7":-0.025975548957150166,"8":0.05221145752956462,"9":1.296466411186262,"10":-0.15815621211908254,"11":0.05916398254075459,"12":-0.20434668437876868,"13":-0.18149346457743198,"14":0.7844045051020608,"15":-0.08101267117431174,"16":1.0962819405154693,"17":0.3632617131257516,"18":-0.07427283641972096,"19":-0.1317476866573215,"20":-0.21785970729939114,"21":-0.056659523248075966,"22":1.7044697652193939,"23":0.1145387133721327,"24":0.3491681903340881,"25":-0.08441497916078568,"26":0.3978690366740157,"27":-0.13483994570704244,"28":0.43466751094246703,"29":0.14211249693678477,"30":0.971178473202703,"31":1.3211087100528152,"32":0.8212598850011895,"33":-0.20529548275177023,"34":0.0552394005500067,"35":0.4829879727572712,"36":0.12208711816882842,"37":0.15043570339168258,"38":-0.12079811471740469,"39":1.3280945157126018,"40":0.3173876229808139,"41":-0.04972102538596171,"42":-0.1321443565307574,"43":0.030731639329940403,"44":0.735614155425465,"45":0.2224952334012706,"46":0.2617490760880484,"47":1.1271194398496627,"48":0.10499822501775521,"49":0.9947083557622571}},"16":{"bias":2.391021708882005,"weights":{"0":0.5220034513722942,"1":0.16601303335467057,"2":0.07014761221761981,"3":-0.0777024273568417,"4":0.3830423393455476,"5":-0.08919643902390728,"6":1.0487603966388261,"7":-0.20942010309604028,"8":-0.17999349147977967,"9":1.2970756176018208,"10":-0.0038449941054994907,"11":-0.2197241542513225,"12":-0.010503586684533708,"13":-0.3750182176400125,"14":0.5903247441707952,"15":0.19517123924228827,"16":1.2424810127605428,"17":0.04110905283129104,"18":0.23802120892215142,"19":-0.30016228623367036,"20":-0.10900048900641672,"21":-0.28771553294278873,"22":1.857997483271141,"23":-0.09385942731505494,"24":0.33663005897053466,"25":-0.07088271664865113,"26":0.6554582621882102,"27":-0.13609767890975927,"28":0.6389451383023228,"29":-0.11889857581531738,"30":0.7263654772200298,"31":1.3419384277952413,"32":0.6866703111920714,"33":-0.19818069208787967,"34":-0.23517938463379046,"35":0.35140285850231273,"36":-0.09822566034395074,"37":-0.006477183236282043,"38":-0.2552381502784354,"39":1.086582825824072,"40":0.31521064412712485,"41":-0.30226417486997975,"42":-0.15829477971347067,"43":-0.05868085435059357,"44":0.563771017667302,"45":0.19661372896283605,"46":0.21802269384176415,"47":1.3806511967078936,"48":-0.10587811975214974,"49":0.9564581530333135}},"17":{"bias":1.038770706750072,"weights":{"0":0.7853958702859913,"1":0.4366558055145464,"2":-0.08727167120661686,"3":-0.18574272267293018,"4":0.2877593462542754,"5":0.17166394593771864,"6":1.1363653153663753,"7":-0.2436781263998238,"8":-0.09720000750157731,"9":1.1690622791648735,"10":-0.11226784037717426,"11":0.11529930473696938,"12":0.07884085826455778,"13":0.03523116000104153,"14":0.8112714617890913,"15":0.1105427428218426,"16":1.0459619678014593,"17":0.4965867991391742,"18":0.20567569680301753,"19":-0.019587756623155386,"20":-0.19502294302046932,"21":0.03965689652140549,"22":1.3987657967590037,"23":-0.18949322040044342,"24":0.29871037561899605,"25":0.10763230485773355,"26":0.30484085787785853,"27":0.1114044057818673,"28":0.7072920639625216,"29":-0.18407012210534093,"30":1.002262042583457,"31":1.3673163703504247,"32":1.0564465062411583,"33":0.17199476759399004,"34":0.13241661546458802,"35":0.3986885544765108,"36":0.17431595287306306,"37":-0.12267051020367943,"38":-0.31458328159629595,"39":1.3703154697881537,"40":0.41904413654910405,"41":-0.044906742530005865,"42":0.08604336465517928,"43":-0.1409654563964973,"44":0.6844290419510288,"45":0.24283898005459284,"46":0.3476409243764785,"47":1.071990090779413,"48":0.35378609946243955,"49":0.8274221763674247}},"18":{"bias":2.112017834650949,"weights":{"0":0.4561045649586151,"1":0.1739235162690343,"2":-0.04499747372826822,"3":-0.0908810245950892,"4":0.25233372168562573,"5":0.03937522526927417,"6":1.0053370150722212,"7":-0.08556467472914481,"8":0.01989863561334863,"9":1.1973677820876891,"10":-0.2765609226754647,"11":-0.08507537226922725,"12":-0.10915024577137752,"13":-0.10009646924936139,"14":0.5559465393480202,"15":-0.07397445375412212,"16":1.3276119649701366,"17":0.09902343024293987,"18":0.21085847967796736,"19":-0.250329289731064,"20":-0.23638328114450663,"21":-0.22521464731620794,"22":1.873967787316151,"23":-0.16975681666198786,"24":0.317757162151249,"25":-0.05884274853563622,"26":0.5260694625578537,"27":-0.19921885530757852,"28":0.5516266447111969,"29":0.12380570149400771,"30":1.0889542765694746,"31":1.4160128902720575,"32":0.6964354272915946,"33":-0.2603453446037123,"34":-0.18860790493129645,"35":0.632760496138007,"36":0.04405012179698274,"37":-0.13666001535488426,"38":-0.061844822693138575,"39":1.133809875007366,"40":0.4932633207938866,"41":-0.2214595165236996,"42":-0.3103902589743894,"43":-0.07134803037529204,"44":0.49207797455009916,"45":0.047208332967498934,"46":0.3321601498504201,"47":1.3278595725103797,"48":0.002101134787920032,"49":0.7688389435600155}},"19":{"bias":2.1556370795777586,"weights":{"0":0.5721915424358399,"1":0.18063231529373772,"2":-0.14215346316099847,"3":-0.3244332355539538,"4":0.11703403759084956,"5":-0.006647830230448864,"6":0.9638154187567344,"7":-0.24283212401772925,"8":-0.1171882619233092,"9":1.422897129816341,"10":-0.07356877978276191,"11":-0.004109887911564188,"12":-0.2922495284353619,"13":-0.3051366890551655,"14":0.5972998620762557,"15":0.05935397104304855,"16":1.458259947889116,"17":0.22953593296913338,"18":0.03401984427288427,"19":-0.0753166028877908,"20":-0.39631899750301436,"21":-0.036867835106329114,"22":1.6132501527360603,"23":-0.13325998315435936,"24":0.40774599712187426,"25":0.052671516291439395,"26":0.6596673247858976,"27":-0.2682005053737794,"28":0.3854606143153428,"29":0.11433328889144008,"30":0.8564936124595388,"31":1.093870424504976,"32":0.6495332875259845,"33":-0.2922123189266997,"34":-0.16610658485298962,"35":0.6703119958607975,"36":-0.0988497471328318,"37":-0.13723684855813936,"38":0.009023480998547485,"39":1.3931829310396182,"40":0.37366669785419765,"41":-0.3205625499393905,"42":-0.12967235307305816,"43":-0.23296673957549083,"44":0.4747743263485505,"45":0.14423893027939266,"46":0.11531795831304296,"47":1.4551005483097301,"48":-0.005422471337133847,"49":0.9728177115894938}}},{"0":{"bias":-14884632.155663455,"weights":{"0":-16538270.008220471,"1":-16538257.794922156,"2":-16538470.533738118,"3":-16538469.805041658,"4":-16538467.059438583,"5":-16538265.702843027,"6":-16538472.553340532,"7":-16538476.037175644,"8":-16538270.108334055,"9":-16538471.341265561,"10":-16538448.968688028,"11":-16538470.81133944,"12":-16538266.75359331,"13":-16537436.674875315,"14":-16538473.063465929,"15":-16538471.891794933,"16":-16538476.220298149,"17":-16538105.53479227,"18":-16538472.421846936,"19":-16538474.971053068}}}],"outputLookup":false,"inputLookup":false}