{"layers":[{"0":{},"1":{},"2":{},"3":{},"4":{},"5":{},"6":{},"7":{},"8":{},"9":{},"10":{},"11":{}},{"0":{"bias":-0.04172752896793392,"weights":{"0":0.15307681368798237,"1":-0.14232144268599523,"2":-0.021542272223187924,"3":0.07240280136650877,"4":-0.019697666118832273,"5":0.06515091077215368,"6":0.14433349679697263,"7":0.05707118405143218,"8":0.09704246743930343,"9":0.09792178672891445,"10":0.0020288414534360257,"11":-0.18258985920385518}},"1":{"bias":0.1311698446284815,"weights":{"0":-0.18706108771525626,"1":0.0745418875277761,"2":0.02928729205296384,"3":0.08761494389627904,"4":0.018581695785918204,"5":0.17997306027173235,"6":-0.019399302145702558,"7":0.0804379517942394,"8":-0.10279497184853635,"9":-0.18696026956699324,"10":-0.0631310281577624,"11":-0.16375139054927226}},"2":{"bias":-0.19943274143764916,"weights":{"0":-0.08129090984405712,"1":0.010844663524087583,"2":0.09507146732504868,"3":-0.055225136933019774,"4":-0.17939566273054938,"5":0.17748727700314693,"6":-0.08545058134885325,"7":0.09836263462476959,"8":0.14388771033769263,"9":0.19879470899628765,"10":-0.1899293308543721,"11":-0.018967660405244873}},"3":{"bias":0.09205245008859665,"weights":{"0":-0.08960244280608619,"1":-0.026962819690803386,"2":-0.19112807654294364,"3":0.03262289944703123,"4":0.08770433723173245,"5":0.19266749925306206,"6":0.13731145315680918,"7":0.13788878690914244,"8":0.06681879093447123,"9":-0.11087709518090093,"10":0.17036501258181577,"11":-0.15368446060811547}},"4":{"bias":0.15697390047887394,"weights":{"0":0.16388037509429443,"1":-0.002917410515356986,"2":0.0716932567771992,"3":-0.030995169854793076,"4":-0.07835087418852232,"5":-0.03199736471389781,"6":-0.038918723698968274,"7":0.10432561516657421,"8":-0.07139722014664403,"9":-0.05058200367493697,"10":0.18826215067525862,"11":-0.18099515281603248}},"5":{"bias":-0.05590278345617746,"weights":{"0":-0.12365150672225766,"1":0.004132630927334463,"2":0.002551054344114157,"3":0.1751056395042472,"4":0.047500899735118146,"5":-0.008276047751034441,"6":0.18285190920407557,"7":-0.052428305538993816,"8":-0.10046288012278717,"9":0.05704321259748527,"10":-0.10867308100660955,"11":0.10819788070158369}},"6":{"bias":-0.09736291274212905,"weights":{"0":-0.002292769268419984,"1":-0.013822594194273922,"2":0.04796801419456596,"3":-0.10230556389795668,"4":-0.0029426230887578363,"5":-0.034264805896726286,"6":0.023828120627527077,"7":-0.11886333047880847,"8":0.09915622671046061,"9":-0.18425533272887454,"10":-0.1746463984745467,"11":0.14961747885882667}},"7":{"bias":0.1683226396954027,"weights":{"0":-0.05714397627655874,"1":0.07463209557980433,"2":-0.07523640701050133,"3":0.05844147621416453,"4":0.003931854231676527,"5":-0.06664527264948998,"6":-0.16520992067455154,"7":-0.03123873810478705,"8":-0.011292836037175624,"9":-0.006936759610536559,"10":-0.11834558525326172,"11":-0.13798183317830304}},"8":{"bias":0.02791468447261002,"weights":{"0":-0.08226395805523604,"1":-0.19509097164995012,"2":0.18442955227504815,"3":-0.012284797731077057,"4":-0.015118367981774313,"5":0.08705057669394614,"6":0.17252768250614192,"7":-0.0768218283504257,"8":0.06339334484226646,"9":-0.07742113643207243,"10":0.12610450829605316,"11":0.09516512560503076}},"9":{"bias":-0.13174162325089794,"weights":{"0":-0.08568416759453376,"1":-0.09899164716592049,"2":0.0832445014947697,"3":0.05644440216722087,"4":0.12047188557042315,"5":0.07906308923819894,"6":-0.07526146675702862,"7":0.0724021114751302,"8":0.1078000456636362,"9":-0.07487268153669006,"10":-0.17685114982569797,"11":0.07417005032676721}},"10":{"bias":-0.027440963760065294,"weights":{"0":0.0603020658430268,"1":0.04245913477009689,"2":-0.08335479998168267,"3":0.1974822349119613,"4":0.11542681243049503,"5":-0.027660321958519207,"6":0.04605546614896573,"7":0.06668474341823627,"8":-0.16115598137646672,"9":0.12565009687218082,"10":0.19101925573366202,"11":-0.04762493077824491}},"11":{"bias":-0.195396405367094,"weights":{"0":0.13749877046274353,"1":0.16840476220722808,"2":-0.1664453567895578,"3":0.06906777092330978,"4":0.07281910732005217,"5":-0.0054344439677538065,"6":-0.16887950027397258,"7":-0.17298780085233129,"8":0.06147715348517665,"9":0.156137943980518,"10":-0.10143941767683522,"11":0.13407804708877744}},"12":{"bias":0.03590871907825277,"weights":{"0":-0.05319257702432847,"1":-0.19994065881265452,"2":0.02702089755663284,"3":-0.04850755745319917,"4":0.04824230345536473,"5":0.1261578415336359,"6":0.09020476343452531,"7":-0.17588855432590544,"8":0.14432793780516515,"9":0.023268862104401274,"10":0.024103050052096973,"11":0.15352329487496325}},"13":{"bias":0.16691761119992438,"weights":{"0":0.11800868073267148,"1":-0.0398640478089306,"2":-0.1896597013891909,"3":0.1034966767468227,"4":-0.02346287817707939,"5":0.10924258358409525,"6":-0.07877294980462611,"7":-0.058323909840531485,"8":0.06227830007369853,"9":0.10806625354624885,"10":0.1411288479965185,"11":-0.03480580456394553}},"14":{"bias":-0.09507992809465392,"weights":{"0":-0.11850763951273975,"1":0.19178942626880383,"2":-0.1640458135069892,"3":0.1617520098153592,"4":0.09307081744310312,"5":-0.13493344250344308,"6":0.1858946844245514,"7":-0.03700842004112809,"8":-0.11792488247390084,"9":-0.0320373649530469,"10":-0.05996912797515332,"11":-0.1721566659991097}},"15":{"bias":0.1898120549298933,"weights":{"0":-0.1395714721100944,"1":-0.00632603958170565,"2":-0.09649499924826863,"3":-0.19677642333590092,"4":0.16409353410522,"5":0.11352858536377328,"6":-0.09656635900751807,"7":0.08006005314991037,"8":-0.041492601846568646,"9":-0.17515581108860312,"10":0.02670215102540199,"11":0.14536916001079567}},"16":{"bias":0.17208622124451736,"weights":{"0":0.12464995919240345,"1":0.19798374895541948,"2":0.014744963675570627,"3":-0.12103611132162004,"4":0.11382538780532522,"5":0.1769372733422743,"6":-0.1421148233364474,"7":-0.059158502642831845,"8":0.14503165419648426,"9":-0.1879815949999779,"10":0.12203455379447081,"11":0.10973709672887817}},"17":{"bias":-0.18243406524471528,"weights":{"0":-0.023960742012049244,"1":0.10987985512330412,"2":0.19898416800718094,"3":-0.02756756207309401,"4":-0.0956404376021538,"5":0.0358636418754808,"6":0.16026068288491355,"7":-0.10313777329532356,"8":-0.1930902734473654,"9":0.09474208501879085,"10":0.17974823249353455,"11":-0.056542476992553575}},"18":{"bias":-0.15569204594362235,"weights":{"0":-0.15664707972478029,"1":-0.018389310224629793,"2":0.07232866858541465,"3":-0.03708454134322299,"4":0.03752929949976772,"5":-0.07705316199924032,"6":0.039100168774979675,"7":-0.141460331659593,"8":0.16344554418283427,"9":-0.049863577967011984,"10":-0.18771688016577637,"11":0.1302270018764839}},"19":{"bias":0.16162453879640282,"weights":{"0":-0.04743157313465636,"1":-0.016225486083591912,"2":-0.020453829823454298,"3":0.03770612099458127,"4":-0.0051895970827518755,"5":0.02080602525927688,"6":-0.007995144145815742,"7":-0.11535662322747121,"8":-0.17226501515063974,"9":0.14729713466706248,"10":0.0951482324305819,"11":-0.04722630380878226}},"20":{"bias":0.06905960065079421,"weights":{"0":0.00704346018605709,"1":-0.10209565369570514,"2":-0.11885645157583935,"3":0.04637026183043897,"4":0.03484682761689498,"5":-0.19840879066449918,"6":0.06426825010700382,"7":0.040331740765568135,"8":0.18318979419172954,"9":-0.03035233578983764,"10":-0.10727992201373258,"11":-0.10150554040082005}},"21":{"bias":0.16480660011619025,"weights":{"0":-0.18862820072453412,"1":0.18572612165208427,"2":-0.16250216635860568,"3":-0.16455484674058196,"4":-0.05192550669269606,"5":-0.09787012756074037,"6":-0.17237874609332668,"7":-0.0099436040827704,"8":0.03283398311363021,"9":0.08866738207680123,"10":0.11225963748546368,"11":0.1222159403758261}},"22":{"bias":0.1863658837168473,"weights":{"0":-0.02629025174063761,"1":-0.02478582987641518,"2":-0.19127498612684282,"3":-0.07732296303255576,"4":-0.05088403938587348,"5":-0.13855459990719993,"6":-0.013601097490991688,"7":-0.011990932958606962,"8":-0.13336950574535403,"9":-0.1699671769190857,"10":0.004481585953671059,"11":-0.17993513755716986}},"23":{"bias":0.018376681861925433,"weights":{"0":-0.1486619163054422,"1":0.11232445031210798,"2":-0.08776522438527457,"3":0.023595482110340973,"4":-0.10360563730409336,"5":-0.12033021896097947,"6":-0.1563728842404006,"7":-0.1660247771849464,"8":0.18419494095655364,"9":0.13503216823010877,"10":-0.13780268293580095,"11":-0.0037591393204762565}},"24":{"bias":0.17434561590406128,"weights":{"0":0.11868451754357505,"1":-0.17224889735231416,"2":0.13334747252596568,"3":-0.10305938085019821,"4":-0.10309846872524124,"5":0.04544724473492363,"6":-0.037056137461286436,"7":-0.06350434279413356,"8":-0.0882436309297996,"9":0.1915028848581169,"10":-0.14252345259096055,"11":-0.036885180717657055}},"25":{"bias":-0.059370212820471696,"weights":{"0":0.09503705821263098,"1":-0.10728016005196438,"2":0.04165381997127482,"3":0.007934608312609698,"4":0.02568386375061827,"5":0.11148542062904664,"6":0.1314251354796448,"7":0.17811639071629146,"8":-0.13169820629866524,"9":-0.06298498026133524,"10":-0.10073275607161322,"11":-0.1918006011892803}},"26":{"bias":0.1676732604426333,"weights":{"0":-0.08523398506674906,"1":0.15825377918640599,"2":0.036375381127108,"3":0.01027396946536321,"4":-0.15192251861176018,"5":0.13361296983638923,"6":-0.003934405360932179,"7":-0.019462221032977345,"8":0.0716135658728042,"9":0.062023909366549494,"10":-0.18609080964916494,"11":0.10267188735274024}},"27":{"bias":0.06940316543821143,"weights":{"0":-0.100133953742947,"1":-0.020439323529133368,"2":0.08195225310543293,"3":-0.11082786922636798,"4":0.17350409637874956,"5":0.10223841628060662,"6":-0.03738988524714262,"7":0.1420205856042757,"8":-0.1139335598549492,"9":-0.1504027290870498,"10":0.09592996642759724,"11":-0.0934677426591934}},"28":{"bias":0.01844964113404575,"weights":{"0":-0.047558274480343096,"1":-0.1706142658688819,"2":0.0008834535674702323,"3":-0.11390595965415387,"4":-0.025228785327641196,"5":0.02275809658996945,"6":-0.0072739562566821025,"7":-0.07981148625751229,"8":-0.18408003199252604,"9":-0.024057074273263413,"10":0.1793159792927113,"11":-0.1002588572162778}},"29":{"bias":0.17437564118694537,"weights":{"0":0.019402480297396957,"1":0.1573075464897511,"2":0.19405993308010505,"3":-0.19238578136093065,"4":-0.15679798664381733,"5":-0.14061232348951452,"6":0.04565943321294377,"7":-0.09132304081615641,"8":-0.15074609139349276,"9":-0.10784643783170592,"10":-0.04389497626007098,"11":-0.16776576200449342}},"30":{"bias":0.053568223833859244,"weights":{"0":-0.11467982667104712,"1":-0.015842268424388316,"2":-0.1697626385591367,"3":-0.017229447709035898,"4":0.014016523144288074,"5":0.18780021293109025,"6":-0.006497210929760355,"7":-0.06829494218578051,"8":-0.14082998031640534,"9":-0.07029592357656683,"10":-0.12726826623125084,"11":0.17566580934581152}},"31":{"bias":-0.1707413664170442,"weights":{"0":0.12341218990046332,"1":-0.17114115974349564,"2":0.07033222563416548,"3":0.09202265203532294,"4":0.023793229518239315,"5":-0.08005348581629121,"6":0.04695051924671154,"7":0.10350808394622388,"8":0.18799449662573864,"9":0.1629761584918846,"10":-0.023988486122690056,"11":0.05674349479338434}},"32":{"bias":0.1075560614216725,"weights":{"0":-0.05718287734938423,"1":0.14350529258388747,"2":-0.029502407020326624,"3":0.037991847006146474,"4":0.020933042510994544,"5":0.16563916578591073,"6":-0.07558986548574766,"7":-0.05000820044491895,"8":-0.10176359937417194,"9":-0.07183853469659891,"10":0.15940973123663796,"11":0.11055368539361124}},"33":{"bias":-0.19296091015055075,"weights":{"0":0.16149384124752905,"1":0.058966492239722224,"2":-0.0160410434270981,"3":-0.15903693813148828,"4":0.15020671478949202,"5":0.08240398090742036,"6":0.19849150580351635,"7":0.03203690946910309,"8":-0.10193528792211558,"9":-0.1611918678656361,"10":0.03996026545636309,"11":-0.09748406440273338}},"34":{"bias":0.19178398740737893,"weights":{"0":-0.16294996058605443,"1":0.15497524219718856,"2":0.12668957431488528,"3":-0.035633271807445466,"4":-0.06494636798827312,"5":0.0740021463192377,"6":0.1637158136939894,"7":0.08000095589543095,"8":0.12160605600755141,"9":0.044192994141634925,"10":0.1939414456229704,"11":-0.024354749893312974}},"35":{"bias":-0.008909672644141603,"weights":{"0":0.10677863446734404,"1":0.17518258677887927,"2":0.03987448296274289,"3":-0.03273441233408543,"4":-0.0652863296793871,"5":-0.12835892089372214,"6":0.17875775461980226,"7":-0.16747801659159553,"8":-0.1642458654326397,"9":-0.15494638949840364,"10":-0.006096626895750822,"11":0.10200824481085435}},"36":{"bias":-0.06493782182623063,"weights":{"0":-0.07121186115868308,"1":-0.15656206723416163,"2":-0.04950077086386965,"3":0.08272937173489558,"4":-0.09994236742222642,"5":0.14331348279521886,"6":-0.17657654710496978,"7":-0.06719207210297357,"8":0.08273913592668504,"9":-0.04052386930751726,"10":0.0785349804030658,"11":-0.05875652323221344}},"37":{"bias":-0.006849979372498418,"weights":{"0":-0.08312773631060881,"1":0.07733510395547159,"2":-0.0021528523315211094,"3":-0.16721692131144433,"4":0.16148636469695538,"5":0.15524524036696957,"6":0.15217726081758484,"7":0.0231960047602457,"8":0.052173882483260596,"9":-0.023292528674967797,"10":-0.12220688170628445,"11":-0.05828609613572166}},"38":{"bias":0.02167343344364887,"weights":{"0":-0.10702811508279444,"1":-0.18417305752691362,"2":-0.08079729229509808,"3":-0.026453443303922734,"4":-0.07319131647437163,"5":-0.011861023393348422,"6":-0.03664463925373059,"7":0.17534211242786735,"8":0.0403147535289281,"9":-0.11765516291125781,"10":-0.013825353447968616,"11":0.03845118654711456}},"39":{"bias":0.09016356671100964,"weights":{"0":0.19335610064540812,"1":0.19183318154060386,"2":-0.10271786063854926,"3":0.08791562992858734,"4":0.09159250115388269,"5":0.08553067949165181,"6":0.08197024607171842,"7":-0.020264344252816424,"8":-0.09685598761955988,"9":-0.11920697905857915,"10":0.14309206491967585,"11":-0.06478607975639186}}},{"0":{"bias":-0.04020262000801315,"weights":{"0":0.06353159716082127,"1":-0.060146461517479585,"2":0.08730052698770623,"3":-0.07790426548996508,"4":0.15230851543324062,"5":0.0015933115393526626,"6":0.18584626822452716,"7":-0.1403529394355872,"8":-0.05811355918696769,"9":0.08588778150253816,"10":-0.06357018117492304,"11":-0.19141321133223127,"12":-0.11912893900476593,"13":-0.16993931815351346,"14":0.12327134320171702,"15":0.19397119070472543,"16":0.05591317895295219,"17":0.15880970677721937,"18":0.13113419072784804,"19":-0.12192003392671844,"20":-0.1407484847598366,"21":0.11048440620070918,"22":-0.15935634205999671,"23":-0.20013861746430764,"24":-0.12183191832759036,"25":0.1880786742866942,"26":0.19657206941220337,"27":0.16709232304120575,"28":0.1859801826030647,"29":-0.19503476053950247,"30":-0.14078320074502695,"31":-0.12411031412908058,"32":-0.015272287882323436,"33":0.03207895909935298,"34":-0.03675036794529029,"35":-0.12169942959768129,"36":0.1579971540955913,"37":0.10073091186263969,"38":0.10923067644776475,"39":-0.08577901733151554}},"1":{"bias":0.1889434068015779,"weights":{"0":-0.18126211877593681,"1":-0.08815008176610983,"2":-0.1534649259808906,"3":-0.1742351242215173,"4":-0.08033816814211663,"5":0.14198473769320138,"6":0.09701265550831184,"7":-0.07833329490858101,"8":0.00687567214918111,"9":0.012471198639732988,"10":-0.017132279520299235,"11":-0.05109539615484698,"12":-0.015610296875004318,"13":-0.18746845130989445,"14":0.07833862228036936,"15":-0.15722662421728664,"16":-0.011728597200443308,"17":0.11196438656942649,"18":-0.0976757054315881,"19":-0.1789759162788119,"20":-0.11951102120475525,"21":-0.1243593968946575,"22":-0.039256227785555244,"23":0.18878977444728412,"24":-0.024465232177119916,"25":0.13262500031881178,"26":0.12344253468613009,"27":-0.1030009181066359,"28":-0.11032333745364496,"29":-0.07538672632148777,"30":0.15232871773650597,"31":0.014099766049998418,"32":0.0076665441141956945,"33":-0.03024754600525902,"34":0.036886496469176994,"35":0.1570292617487502,"36":0.0816464893141777,"37":-0.16114734363693256,"38":0.1832918264271888,"39":-0.06284193416361208}},"2":{"bias":-0.02454869550694742,"weights":{"0":0.14716164142378527,"1":0.08583125743533268,"2":0.13076575798539244,"3":0.1743620532530575,"4":0.10227581487056181,"5":0.01858506364065908,"6":-0.08818465419107513,"7":0.020029164312143674,"8":-0.10389489377493584,"9":-0.10280501318262443,"10":-0.037119262294040146,"11":-0.16720859499608215,"12":-0.013009147078342716,"13":-0.09253837529571991,"14":0.024088491258740533,"15":0.10887503449884182,"16":0.026863412819040262,"17":0.04559844757390601,"18":0.14354972273668243,"19":0.19587111712031463,"20":0.07197769708379823,"21":-0.07970347464996451,"22":0.02163199035086929,"23":-0.15952894445363974,"24":0.15426991592447528,"25":-0.19881257243248582,"26":-0.018165359860256605,"27":-0.008380016012687196,"28":-0.05371356615245848,"29":-0.15338356056097008,"30":0.015439513171260974,"31":0.18472562616665658,"32":-0.04962819650369434,"33":0.12239907001269831,"34":-0.11826204734842212,"35":-0.18281821226612477,"36":-0.11142174110276144,"37":-0.09119692569527445,"38":-0.1852963234174287,"39":0.027079073103045175}},"3":{"bias":0.14569872867253805,"weights":{"0":0.012455495235015289,"1":-0.1459973284585716,"2":-0.11459642427960834,"3":-0.10456086368647714,"4":-0.14475825419937963,"5":0.12011303710809779,"6":0.12666052436990818,"7":0.14371880138786333,"8":-0.057262175862479885,"9":0.13079961274210664,"10":-0.18038484525733414,"11":0.0743883018406026,"12":0.1199512123789198,"13":0.01560436210823727,"14":0.017658992249119074,"15":-0.13182475737509447,"16":-0.017131664040897183,"17":0.12954820308479487,"18":0.03194587535930876,"19":-0.07020815451477229,"20":0.1010920147773596,"21":0.0929222472251595,"22":-0.1891562163856,"23":-0.16861675774350812,"24":0.16674251526139805,"25":-0.12529312351098737,"26":-0.1233041484862082,"27":0.004704270386266338,"28":0.05381922061124292,"29":-0.08033639193909387,"30":0.08605495379484772,"31":-0.016410843529977757,"32":-0.1930861707001748,"33":-0.07486067864484969,"34":-0.13649990336546314,"35":0.09967510714448374,"36":0.16040306466969623,"37":0.16074867126254988,"38":0.1841945216459374,"39":-0.06585218275905472}},"4":{"bias":0.021956050961434593,"weights":{"0":-0.16797423822505203,"1":0.14249142424136133,"2":-0.09144706278399067,"3":-0.0652829398210883,"4":0.18473292238714978,"5":-0.192382203754631,"6":-0.11772629025741162,"7":-0.09627380771101428,"8":0.05651883967906065,"9":0.06386296951794122,"10":-0.11517055771540162,"11":0.170538020598697,"12":-0.02716470681274502,"13":-0.1459887276733943,"14":-0.18325992902583002,"15":0.056671420629590435,"16":0.1825274420330665,"17":-0.16417233708519235,"18":0.1807360229508676,"19":0.09755706397564042,"20":-0.14164258415171418,"21":-0.1361788897906815,"22":-0.15984784129196408,"23":0.03669684804643876,"24":-0.03210811434487081,"25":-0.19123272189741117,"26":-0.04433505169215092,"27":0.040263212599404234,"28":0.1055046281218131,"29":0.1601646255298041,"30":0.004905982093526112,"31":0.09070941176983985,"32":-0.17300896136447286,"33":0.07134691456777317,"34":0.1124023644539604,"35":-0.04065868591699364,"36":-0.06079831796018275,"37":0.056664592394697504,"38":0.019371302690268422,"39":0.030506451796960432}},"5":{"bias":-0.030343049388098314,"weights":{"0":0.14767278130640038,"1":0.05253594890084959,"2":0.15105430776323683,"3":-0.06428941170601653,"4":-0.08094052853270535,"5":-0.11070070519122643,"6":0.025828330276867813,"7":0.013615347817527266,"8":-0.0029228249428107146,"9":0.06823763269283693,"10":0.03979147575386498,"11":-0.012545867031639697,"12":0.17471064841499137,"13":-0.2007163457195981,"14":-0.07190062969585823,"15":0.08261535511842967,"16":-0.09732407573945759,"17":-0.009196203575819777,"18":0.14754196988019982,"19":0.11891042836182446,"20":-0.15554023139767392,"21":-0.10645592005194815,"22":0.10909903900548955,"23":0.05832340862365219,"24":0.016004415264821343,"25":0.0862433980218027,"26":0.17852239401173114,"27":0.07483411636387262,"28":-0.08020990600353617,"29":-0.0665432235275427,"30":-0.018969923002165292,"31":-0.15710326701719834,"32":-0.037297582000054855,"33":0.03251611417099198,"34":-0.18426651220964252,"35":-0.17203827017827789,"36":-0.0658926712187838,"37":0.1788923992444996,"38":0.13684280877689473,"39":-0.10122406170810554}},"6":{"bias":-0.028744720348044685,"weights":{"0":0.17836728649585232,"1":-0.02790872229766086,"2":-0.052643292368472025,"3":0.15998758397318086,"4":0.12529764656238043,"5":-0.06916345460916487,"6":-0.05762197404068589,"7":-0.006333434928858845,"8":-0.15148495607834075,"9":0.12255923600027617,"10":-0.10109154242388231,"11":-0.14618606527014547,"12":0.0023971724272054996,"13":0.04317854850771325,"14":0.058560588723915286,"15":0.03061894585286523,"16":0.15930370810844177,"17":-0.04051529000882119,"18":-0.15280236892182184,"19":-0.12915144019856029,"20":-0.15816525637317116,"21":0.05076433503302746,"22":0.08950523932837581,"23":-0.04407388955579282,"24":-0.191307163157999,"25":-0.08309106512066275,"26":0.12066966553748032,"27":-0.044645935372633734,"28":-0.016381358668964507,"29":-0.0241545078436187,"30":-0.08286940188964316,"31":0.10039723795698696,"32":-0.01903781451940447,"33":0.09209932787375932,"34":-0.03672806426020722,"35":-0.10673033572856601,"36":0.19051799659412544,"37":0.04660662726041473,"38":-0.15803181950559195,"39":0.19251959797271337}},"7":{"bias":0.0011670879700614166,"weights":{"0":-0.11986478463544505,"1":-0.028913494962198236,"2":-0.021686434532031094,"3":-0.08209998157653668,"4":-0.14978923271192704,"5":-0.0924352118890704,"6":-0.1462337063373061,"7":0.09315837242429578,"8":0.0994442419891385,"9":0.05104594036654476,"10":0.16832966851291667,"11":0.07350780829842522,"12":0.05647342199669498,"13":0.03290824569259814,"14":0.05840885835321747,"15":-0.1771908278482053,"16":-0.01985984015097075,"17":0.046570572567343434,"18":-0.13312313896532402,"19":0.06507343854895677,"20":-0.19716528771815278,"21":-0.08433116097244808,"22":-0.11532796408189315,"23":-0.1906498572257915,"24":0.08576306663838547,"25":-0.14056333404674612,"26":0.03154679658877517,"27":-0.18582633809775884,"28":-0.13997199850695594,"29":-0.028903961778455205,"30":0.14738008923866433,"31":-0.0824551524171591,"32":-0.03800606598724558,"33":-0.16966101297943087,"34":-0.10696981505886015,"35":-0.10824593917946769,"36":-0.006649469586826101,"37":0.07004675836475627,"38":0.06609803789176096,"39":0.1405674306465859}},"8":{"bias":-0.12613782185294506,"weights":{"0":-0.10836168249515453,"1":0.13132403918606658,"2":-0.11809400745095763,"3":-0.09676303456694105,"4":0.0328606871533493,"5":0.04867397794467572,"6":0.06165370696569154,"7":0.15501915853158846,"8":0.16430383783195407,"9":0.1571654974770023,"10":-0.13494122002812814,"11":-0.00632277764360163,"12":0.04120586801965409,"13":0.016229186185932127,"14":-0.030136080246412518,"15":-0.13049423891974332,"16":-0.11184561758274923,"17":0.13880620633613447,"18":0.05970369179885811,"19":0.009946133423330302,"20":0.1295989010599564,"21":-0.16179489817141296,"22":-0.02460815263127988,"23":-0.03532587711566388,"24":-0.04488114349582905,"25":0.04100610236489944,"26":0.08380511893490071,"27":0.18114039442950194,"28":-0.14539143928917989,"29":0.12487384841736336,"30":0.05775663578202519,"31":0.029595760066938755,"32":0.02616078935017704,"33":-0.1839440963911905,"34":-0.09458448883985629,"35":-0.15844295142027107,"36":-0.05494201840615199,"37":-0.17217849249776596,"38":-0.15605660664219204,"39":0.026944376976319392}},"9":{"bias":0.09030228193747152,"weights":{"0":-0.1954048713265422,"1":0.11674264789079558,"2":-0.11080073529842464,"3":0.0018041233705723653,"4":-0.020680029218690988,"5":-0.15220851160876678,"6":-0.11746210262384855,"7":0.010702157278240311,"8":-0.1519466261780474,"9":-0.1427574686293448,"10":0.01204724233066079,"11":-0.09623341493565969,"12":-0.17555380313367694,"13":0.07644928115652097,"14":-0.043637386805537956,"15":0.04075523164865509,"16":0.1658172489598984,"17":-0.052915975904002696,"18":0.12746266255973046,"19":-0.02994328997904204,"20":-0.09935049555112799,"21":-0.18483066779754367,"22":-0.013339926715608725,"23":-0.12121407573651122,"24":0.0038160248496893917,"25":-0.1619260738769745,"26":-0.05749341760626617,"27":-0.11654299369322559,"28":-0.0007512048894734005,"29":0.04496097296352758,"30":0.09095463523559975,"31":-0.11140370195489399,"32":0.060887585532552226,"33":0.004062308803587176,"34":0.09313126323316998,"35":-0.19806494872932948,"36":-0.10264486198800844,"37":0.07477950220401548,"38":-0.11198819349574768,"39":-0.05516412852717429}},"10":{"bias":0.13759654494802523,"weights":{"0":0.07583430581719938,"1":-0.11869685700012132,"2":-0.13642011833773818,"3":0.13792799555200944,"4":-0.053888426639436465,"5":-0.13399163282004428,"6":-0.11538284986944779,"7":-0.19504927744332437,"8":0.049866185520693725,"9":-0.05655217199127892,"10":0.05257499771262674,"11":0.10207644170535349,"12":0.056160542576911075,"13":-0.14383062033373079,"14":-0.1440545364767376,"15":-0.005917033360505616,"16":-0.09714366855462914,"17":-0.11973501140694949,"18":0.05189408947658767,"19":0.1162160075289181,"20":0.14161847205986697,"21":0.045126907968638094,"22":-0.07128034905051156,"23":-0.17674374987139296,"24":0.07751381594738505,"25":0.16796586673924008,"26":0.07809527077666444,"27":-0.006552935210634327,"28":-0.16623434543037696,"29":-0.06696013256580705,"30":0.019949290693807117,"31":-0.1570430914872316,"32":-0.00045696117719407346,"33":0.1878740115335022,"34":-0.04102194830848467,"35":-0.037422971898572126,"36":0.16858960804878814,"37":0.02915001819446571,"38":-0.18670897549942755,"39":-0.15690089008674019}},"11":{"bias":-0.053842159482016184,"weights":{"0":0.041016083619114484,"1":0.1488875837974746,"2":-0.03897342452912982,"3":-0.005090045505338207,"4":0.01871633456521762,"5":0.12893439597052828,"6":0.010135607323745141,"7":0.06217448728280161,"8":-0.020924928299097936,"9":-0.07875338546248672,"10":0.05759905244562722,"11":0.10867949037207733,"12":0.13436828647204463,"13":-0.1179284741754749,"14":-0.15460270734092252,"15":0.16984429580054733,"16":0.10858716827027398,"17":-0.10332758936867106,"18":0.10746195724858452,"19":-0.06102321379758529,"20":0.074699069610129,"21":0.09376258009379812,"22":-0.176275443521527,"23":-0.10520107297322154,"24":-0.08601033556263489,"25":0.19431908370615558,"26":0.05169319301511445,"27":0.0814714619181329,"28":-0.07599739382415983,"29":0.12181992856961565,"30":0.10225646343961367,"31":-0.008609432937669016,"32":0.04347928550315372,"33":-0.06483584301399682,"34":0.04753655292517477,"35":0.18945917540672844,"36":0.06412448591135057,"37":0.15813666155107808,"38":0.16559759652923922,"39":0.1712134700654638}},"12":{"bias":0.04783965688360813,"weights":{"0":0.04825717952985492,"1":0.06308057757977079,"2":-0.15381431045023017,"3":0.198287712933616,"4":0.15149102110441448,"5":-0.18882913982622926,"6":0.12254142389346226,"7":0.18126592667624325,"8":0.018768648501294366,"9":0.01986730508824553,"10":0.1261900402055502,"11":-0.18945388241182534,"12":0.1742051654965406,"13":0.13347068831912778,"14":0.17240007532910426,"15":-0.09127995424025286,"16":0.1938470291189048,"17":-0.18708022843622563,"18":-0.04315637263372775,"19":0.15546938811314243,"20":0.012262028968133712,"21":0.07487579765505581,"22":-0.044941800304802465,"23":-0.16072301446579318,"24":-0.18677547027054514,"25":-0.0887013736385705,"26":0.1905269320273042,"27":0.12090549102460443,"28":0.14987029475395416,"29":-0.08425437054870369,"30":0.17584490874444583,"31":0.053784089937362875,"32":-0.06971123164878623,"33":0.0313623003574926,"34":-0.16108182526933046,"35":0.17972784591224775,"36":-0.01640853534460523,"37":0.06044698076834112,"38":-0.1889273437603309,"39":-0.0403503334763368}},"13":{"bias":-0.09218326105355927,"weights":{"0":0.021269909729069583,"1":0.020927616554037885,"2":-0.07684669705079225,"3":0.046128223429078574,"4":-0.054152444855671146,"5":0.19133998483045578,"6":-0.009521419659341257,"7":-0.08204131091017322,"8":0.12402957322291489,"9":-0.1870286951226523,"10":0.18846626226707094,"11":0.11936628504490887,"12":-0.12958882792761728,"13":0.1681872049166245,"14":-0.015716377114412018,"15":-0.06406713287328925,"16":-0.15563974016962742,"17":0.04153385225601393,"18":-0.09495112506312323,"19":-0.155794995537446,"20":-0.07863607929511317,"21":-0.03236499255980779,"22":0.1769286492747918,"23":-0.08527321209486365,"24":-0.03149798056338626,"25":0.006114518583611455,"26":0.18119286622617495,"27":0.03897601496452518,"28":-0.17429671167467184,"29":-0.1464927669364182,"30":-0.03877212694808254,"31":0.1502219699646947,"32":-0.05417994832866962,"33":-0.002812500209953155,"34":-0.08681486998584657,"35":-0.06233221701523667,"36":-0.1389429066217388,"37":-0.028954344991435378,"38":0.019083908217337665,"39":0.1334879191811577}},"14":{"bias":-0.1026030271342906,"weights":{"0":-0.09674339628221026,"1":0.1128714551607794,"2":0.10993549313002517,"3":-0.1449975907868939,"4":-0.11002205647227954,"5":0.04415483469914232,"6":-0.18607116353407802,"7":-0.08419123495168462,"8":-0.05736712333858122,"9":-0.08252084329002748,"10":-0.14869193001729336,"11":0.11502944560843009,"12":-0.14169719526788785,"13":-0.0017192662346402895,"14":-0.16322730244901193,"15":0.046695199487133736,"16":-0.13970206960433507,"17":0.1576553882829055,"18":0.085493218816773,"19":0.1267099037585071,"20":-0.193844872544499,"21":0.09603465854035745,"22":-0.17991000019320824,"23":0.1660676623546483,"24":-0.17209701128158153,"25":0.041620844360861914,"26":-0.1079129045099976,"27":0.10809515706455157,"28":-0.0930560834007014,"29":0.12626445554665264,"30":0.12531081701700722,"31":0.19759063500258559,"32":-0.09375538162718505,"33":0.058477134051263376,"34":0.13101667641546902,"35":0.017447623857060286,"36":0.048770116194769696,"37":-0.048899212224146005,"38":0.18116487933390849,"39":0.1886293912092058}},"15":{"bias":0.11416039195736954,"weights":{"0":0.13174717934304495,"1":-0.07573342662769454,"2":-0.171364714140604,"3":-0.059269049426560076,"4":-0.08121471550662347,"5":-0.17285608169250924,"6":0.019410275176782264,"7":-0.1944125333473682,"8":-0.18386725103747747,"9":-0.049406286591827685,"10":-0.10501699137908775,"11":-0.17015492923949901,"12":0.016985054209451605,"13":0.10064825709795569,"14":-0.04359717221585017,"15":0.052448305952290615,"16":0.057620956308162365,"17":-0.1611621105742784,"18":0.12386805994387166,"19":-0.12400565869160708,"20":-0.08058668520678915,"21":0.11951743572042496,"22":0.004294867857766225,"23":0.03966382479697381,"24":-0.06686791513543798,"25":0.06299670530516924,"26":0.08399266017236426,"27":0.0416482292262778,"28":0.13210153786391202,"29":-0.030058468838783877,"30":0.035000862658292956,"31":-0.1173883004698497,"32":-0.13942432752428202,"33":-0.14458455410583587,"34":-0.12385653007357106,"35":0.12293565523330614,"36":0.07941344285400133,"37":0.17030495879498875,"38":-0.03249059424078595,"39":0.13749746615516703}},"16":{"bias":0.0666940605827099,"weights":{"0":0.19046920011800447,"1":-0.02535269361288726,"2":-0.17573880654535518,"3":0.12072343610673118,"4":-0.06972546383000074,"5":0.057238835131134265,"6":-0.18534794682585798,"7":0.1102107162125859,"8":0.1382366726877605,"9":0.08295976143323444,"10":0.14006443940368724,"11":-0.04100928209108318,"12":0.12691342657809052,"13":-0.19399912970507502,"14":-0.1111700393023226,"15":-0.12550659830823677,"16":-0.167746554255035,"17":-0.19103995299470944,"18":-0.028422032043139544,"19":0.17357281109957828,"20":-0.15777086118759462,"21":0.13048802917206126,"22":-0.07225346668109577,"23":-0.09479064684132184,"24":-0.19349356492842096,"25":0.12566720548527852,"26":0.05921228435719911,"27":0.19490984222276952,"28":0.12842412513731344,"29":0.03919924312986439,"30":0.09577518434517791,"31":-0.18291447196149865,"32":-0.028309809586353502,"33":0.13991530759367665,"34":-0.07846577507427072,"35":-0.058126101125424545,"36":0.148712430444812,"37":-0.016729257448965237,"38":-0.13595364764100307,"39":0.09125167744575141}},"17":{"bias":0.14923682230076396,"weights":{"0":0.1417978744210255,"1":0.07496324347843883,"2":-0.005476949069104804,"3":-0.10612247448711991,"4":-0.043502424594858,"5":-0.11705740742422356,"6":-0.1590934382249175,"7":0.05811171020581567,"8":-0.05723707935412286,"9":0.023135319857832293,"10":0.032675206524720286,"11":0.15460704320978497,"12":0.02553382100800127,"13":-0.1866207142244135,"14":0.19296263621105939,"15":0.032860002486555843,"16":-0.03183445260028345,"17":0.14086102786148094,"18":0.04564764865278757,"19":0.19530283040650864,"20":0.15803521949875982,"21":-0.12177388367377658,"22":-0.19425069470648693,"23":0.13888929804392197,"24":0.06087188622839335,"25":0.11117422983330337,"26":-0.14203780714702338,"27":-0.11290030770354235,"28":0.14342357094219432,"29":-0.08614311587680451,"30":0.16792576534195217,"31":-0.10100238273218277,"32":0.0815299191910062,"33":-0.1511556712151094,"34":-0.07119384030879664,"35":-0.14621363415984776,"36":-0.10709260001106627,"37":-0.04087741960097661,"38":-0.06056429829884375,"39":-0.14414591407283053}},"18":{"bias":0.12056505318082242,"weights":{"0":0.048962101484653825,"1":0.08812634017068777,"2":-0.1537006727438482,"3":0.004851261215126556,"4":-0.08381546471423403,"5":-0.0642610624579519,"6":-0.07402589862153552,"7":-0.15718785812011468,"8":-0.15596990908874087,"9":-0.14177788376752626,"10":0.1645996157094943,"11":-0.04058245021716477,"12":0.02900828241157653,"13":0.12382636986770039,"14":-0.021660290827905465,"15":-0.11958827883544582,"16":-0.14005102363587033,"17":-0.09453543471193375,"18":0.16284178406257754,"19":0.1882938684528261,"20":0.12830131226788466,"21":0.18717495479828078,"22":-0.09732655358356836,"23":0.04888399692397662,"24":-0.19860101514931522,"25":-0.14107225627088774,"26":0.1615664036230895,"27":0.0203284356356198,"28":0.0027160362501322984,"29":-0.13899248589640287,"30":-0.08454798633530362,"31":0.1250986150541582,"32":0.04196416019317688,"33":-0.1579776955706117,"34":-0.059168462432809585,"35":-0.14906215510780224,"36":0.18938370981181835,"37":-0.048401194781457095,"38":0.1014669483427729,"39":-0.08088290337401886}},"19":{"bias":-0.039774952652698245,"weights":{"0":0.07508782985906146,"1":-0.01688888963499735,"2":-0.049696580467980006,"3":-0.09442748835288219,"4":-0.1524876386043428,"5":-0.19081785715167057,"6":-0.18482715599173488,"7":-0.19305829754602638,"8":-0.08674808182077734,"9":-0.009482718957193548,"10":0.16871765777316955,"11":-0.19986562654692275,"12":-0.0799863159199464,"13":-0.027998675815745874,"14":0.09850838851501037,"15":0.06338085765681167,"16":-0.15247086684587619,"17":-0.1446353925155245,"18":0.19672254632806213,"19":0.0036801892457608994,"20":0.15805444435426655,"21":0.11982576727563364,"22":-0.0025591797930331036,"23":0.09145555750024745,"24":-0.030762292765907463,"25":0.04831556114558485,"26":0.11997784501459945,"27":0.15367660726658955,"28":-0.16633463233348542,"29":0.013368279166922037,"30":-0.027796389665365042,"31":0.005976300586194756,"32":-0.13333302563823196,"33":0.13424139110577202,"34":-0.10906662794949706,"35":0.059647053729648666,"36":0.12828881600694367,"37":0.12132251803969342,"38":0.014240273012239487,"39":0.11395733271405831}},"20":{"bias":-0.051830907658460754,"weights":{"0":-0.007141456181335592,"1":-0.10092261001597407,"2":0.19886861602772882,"3":-0.16548734816001712,"4":-0.16745374569362662,"5":-0.18390942682855432,"6":-0.004676345644481338,"7":0.083197383081549,"8":-0.022664585470238727,"9":0.02969787772779566,"10":-0.03273093992627589,"11":-0.08973077961306423,"12":-0.1936656753516452,"13":0.10673779974305761,"14":0.14163383472506935,"15":0.006053183096094912,"16":0.036515078927510145,"17":0.12445482984119186,"18":0.0013604607703639343,"19":-0.18962425993513976,"20":0.10560718264979749,"21":0.13288500577719323,"22":0.17752452904317892,"23":0.17451890777331164,"24":0.15559976361568817,"25":-0.18222478890826038,"26":0.010633545077280556,"27":0.02282127312284365,"28":-0.15659013303166616,"29":-0.03412993260997699,"30":-0.017682054990695438,"31":-0.1686699678361576,"32":-0.053937362741173764,"33":0.13818051361336245,"34":0.04046846796094225,"35":0.10390796680936111,"36":-0.16950913084613392,"37":0.18990961703502354,"38":-0.07688934690461718,"39":0.20143691348378134}},"21":{"bias":-0.18166406687085443,"weights":{"0":0.06585056241389932,"1":-0.1575765118244165,"2":-0.03158364890831971,"3":0.1324656945691293,"4":0.09362744329580115,"5":-0.1148938731920599,"6":0.19664885194500756,"7":-0.01207724260534097,"8":-0.16524034742522636,"9":-0.18038882585587848,"10":-0.05019268366161935,"11":-0.028805463637782486,"12":-0.17839451279459895,"13":0.04389650379961926,"14":-0.18770370965804187,"15":-0.14972584656423177,"16":0.05269829657791699,"17":0.01806862329958933,"18":0.06587246530521074,"19":-0.10057741743018508,"20":0.08534007766072901,"21":0.03790023937374198,"22":0.12017559102110013,"23":-0.11968538399478215,"24":-0.1855429501207741,"25":0.07032326973279278,"26":-0.14844814012103263,"27":0.11980419132318224,"28":-0.19791257760914435,"29":-0.07116624802512798,"30":-0.04172237533231622,"31":-0.11347113446479525,"32":-0.09820813450527814,"33":0.15570258218274396,"34":-0.0070256994656654964,"35":-0.05105761664086107,"36":-0.0080754278356696,"37":-0.15859878817620202,"38":-0.1406706754018284,"39":-0.16567819552818538}},"22":{"bias":-0.040885373912384296,"weights":{"0":-0.19579384532570315,"1":0.07070615756718308,"2":-0.038914074045740585,"3":0.17696966365131292,"4":-0.04432456440783864,"5":0.1055535231204975,"6":0.08148380426754442,"7":0.020296319335106915,"8":-0.016849989370753476,"9":-0.17309338433001537,"10":0.08908070627385561,"11":0.09811808004076235,"12":-0.08845994360608149,"13":-0.0959815935961499,"14":-0.07377547878959456,"15":-0.00005166534817082606,"16":-0.07338199505987429,"17":-0.17871364339258017,"18":-0.13214330147939105,"19":0.1901328137189137,"20":0.17818792418693583,"21":0.03156650704066466,"22":-0.15106877554110748,"23":0.12764121357302058,"24":0.0987733913452144,"25":-0.08493788548859565,"26":0.05950398636144451,"27":0.018240605626894658,"28":-0.1806130717883222,"29":-0.01924572697763422,"30":0.041444596853082,"31":0.0909762366188285,"32":-0.0013789503436962933,"33":0.09880219127032423,"34":0.11721665551127118,"35":0.08436861311620081,"36":0.12730952888368055,"37":-0.06069724918499224,"38":-0.1450358288998692,"39":-0.08294788373236131}},"23":{"bias":-0.09081708104889305,"weights":{"0":0.00040954039863916206,"1":0.02999591862725524,"2":0.1727099941303278,"3":0.004999098326743401,"4":0.15699891257275528,"5":-0.19738266563946713,"6":0.1458529647214455,"7":-0.13624664388350977,"8":0.1907680644049753,"9":-0.1014522375854152,"10":-0.1716064049102403,"11":-0.0823474048443617,"12":0.17546599209770702,"13":-0.05358972932618543,"14":-0.007414830072464165,"15":0.09892145907780553,"16":-0.13143191039170926,"17":0.14354166963307552,"18":0.029735842061843817,"19":0.04191819647457681,"20":0.07201162543843694,"21":0.05653127449434769,"22":0.01643355891903614,"23":0.045856583342641935,"24":0.17422226421101886,"25":0.12352667997785968,"26":0.09299173898625751,"27":0.1762699994324546,"28":-0.16619056476963867,"29":0.12498961620749975,"30":0.0682244913872273,"31":0.0015310070127303656,"32":0.08202104182471708,"33":-0.07143946817144099,"34":-0.08819614704483528,"35":0.03376633396317843,"36":-0.11702389201558129,"37":0.1575017869838344,"38":-0.033945325665313136,"39":0.11085236906179548}},"24":{"bias":0.023703700292943827,"weights":{"0":0.12495217240463471,"1":0.053545740147252045,"2":0.05433747450096535,"3":0.12362076584618033,"4":-0.11114776752078459,"5":-0.18060038831668918,"6":-0.13662037664750112,"7":-0.030644165892109013,"8":-0.017283080758372926,"9":0.049558054308093485,"10":-0.06236103986097644,"11":0.05858118809408113,"12":-0.08089322602743257,"13":0.1524549961027809,"14":0.10230298228091782,"15":0.0007383955822476905,"16":-0.11040541472923855,"17":-0.17384911361992644,"18":-0.16907725295797343,"19":0.19479141281946658,"20":-0.1020202933645888,"21":-0.19292058956359306,"22":-0.07775717870344505,"23":0.08736092334667327,"24":-0.18501690125824968,"25":-0.11762331321518865,"26":-0.09835733163479406,"27":-0.07369761553104558,"28":-0.05629214910902988,"29":0.03876155599337434,"30":-0.1027076339311563,"31":0.0647016888518948,"32":0.08465443860678333,"33":0.09943079221170564,"34":-0.057376027082988994,"35":-0.09983563976308096,"36":0.035197127885683,"37":-0.1238084494236342,"38":-0.00819546880919066,"39":0.07273685519874305}},"25":{"bias":-0.1706659786992184,"weights":{"0":0.13184046221079,"1":-0.024863508181533562,"2":-0.05972893853064212,"3":-0.18752579096825991,"4":-0.023647250297537142,"5":-0.1944828124829076,"6":0.12096660767085729,"7":-0.0977017936911611,"8":-0.06761526060103035,"9":0.19580532545837998,"10":-0.17542861152870212,"11":-0.12002702158558659,"12":0.1162197290808685,"13":-0.18729940307040502,"14":-0.011705421721642984,"15":0.1456164272483547,"16":0.10418270080306827,"17":-0.14951394767803433,"18":-0.06752673012894203,"19":0.08642715960930968,"20":0.0694905965495645,"21":-0.17375220324620735,"22":0.13327350770604413,"23":-0.06081575321280042,"24":-0.12004810969172536,"25":-0.13116982771186672,"26":0.05798779152100338,"27":-0.16940089069894745,"28":0.025096607937580197,"29":-0.1752952558023775,"30":0.17261995033164312,"31":-0.06989190132671926,"32":-0.039681478206989,"33":0.1163540001402934,"34":0.17956711358270608,"35":0.09167059383767728,"36":-0.1861709531709842,"37":-0.10984047997577889,"38":0.17736029092525346,"39":-0.09722731727469121}},"26":{"bias":0.00080365534801733,"weights":{"0":-0.025446397440078695,"1":0.18267270825195672,"2":-0.1443008604070716,"3":0.06955729766658948,"4":-0.12355155027570533,"5":0.14136947180824397,"6":-0.08242555581000893,"7":0.09542396793630666,"8":0.05295296750476843,"9":0.1271373625542107,"10":0.15879642359096763,"11":0.023647677720249477,"12":0.0866791864917859,"13":-0.1478801437162245,"14":0.11053875862465655,"15":-0.12301632268887977,"16":0.01356612170080355,"17":-0.05212452720333875,"18":0.07418768073450073,"19":-0.061423793941816095,"20":0.09220410438525242,"21":-0.05670399864096823,"22":0.10471782789143518,"23":0.09839657159796113,"24":-0.007882500132659289,"25":0.17550607404426014,"26":-0.0702166608245687,"27":-0.12818996699531757,"28":-0.1860786215599814,"29":0.014056585750789158,"30":-0.12534555934623914,"31":-0.05033899198303574,"32":0.1839108741603637,"33":-0.1144996474029058,"34":0.04559605752615279,"35":0.08515970416905883,"36":-0.15502914488512537,"37":0.0013135674195651364,"38":0.06160635529691692,"39":-0.11369416888581908}},"27":{"bias":-0.036774805064070715,"weights":{"0":-0.1313793377983782,"1":0.004972661674244133,"2":0.14027932408622368,"3":-0.08931741056519926,"4":-0.13848804799774703,"5":0.02302113619942653,"6":-0.1552659713080633,"7":-0.14883903996066647,"8":0.10005635416396097,"9":0.12227773080511986,"10":0.0672243202711121,"11":-0.14382516255250483,"12":0.01472147544899532,"13":0.18612969458119075,"14":0.15375795705144418,"15":0.19438143110873807,"16":0.18810156345956394,"17":0.007582019162221442,"18":-0.06330537225427334,"19":-0.1266251759155563,"20":0.13162203500200015,"21":-0.10795310247430631,"22":0.12230097895445233,"23":-0.03478430295115128,"24":0.1884804643671939,"25":-0.06405854542375658,"26":0.07564291215869216,"27":0.08780949718485587,"28":-0.0882626222292855,"29":0.14064936109698542,"30":0.1236208680846958,"31":-0.014492905646480913,"32":-0.08126977046431261,"33":-0.19929064919029366,"34":-0.129300160638687,"35":0.1470499055973676,"36":0.04265615235097506,"37":0.18700030143658544,"38":-0.012344542056010235,"39":-0.017295075503799343}},"28":{"bias":0.07464322129230898,"weights":{"0":-0.11661053361953119,"1":0.19469641353378925,"2":-0.09367765984940854,"3":0.08758722274396,"4":-0.0015667264024638123,"5":0.017859177657440002,"6":0.05407792060303903,"7":-0.10444038633477772,"8":0.13815825598763565,"9":-0.13500956192993668,"10":0.16607800455972,"11":-0.12257951771136237,"12":-0.1499764602272151,"13":0.089781873814088,"14":-0.11218868758004444,"15":-0.12593946898934957,"16":-0.014800659529246881,"17":-0.023710449414261963,"18":0.05502511977371193,"19":-0.07576039477193922,"20":-0.0459911673063142,"21":0.04021463952535528,"22":0.12897941263218887,"23":-0.046646656902077525,"24":0.13685914412773928,"25":0.03954183560853221,"26":-0.017839285634602544,"27":0.18015864437034343,"28":-0.06885284432090255,"29":0.055729400486960665,"30":-0.07277794834124245,"31":-0.10492209885220222,"32":-0.0915589269640996,"33":-0.02263331352921275,"34":0.12410219519397113,"35":-0.13237563282689122,"36":0.08310487353888636,"37":0.032002340546980174,"38":-0.1517674447044276,"39":0.19618559390983265}},"29":{"bias":-0.11938244869552919,"weights":{"0":0.0885752354124479,"1":0.027739085340002207,"2":-0.17546490064594958,"3":-0.19730871059542932,"4":0.11849647591605211,"5":-0.18004276460522695,"6":0.1441990479169558,"7":-0.09858733270569804,"8":0.07760976100897822,"9":0.06684996707881403,"10":0.055708145893792374,"11":-0.12902664505136735,"12":-0.044924591354414956,"13":-0.13646666371015392,"14":0.08603940513864265,"15":0.19765615643914647,"16":0.13915638498504085,"17":-0.10384719605763942,"18":-0.18550135485713962,"19":-0.11942332004284646,"20":0.1805776277997846,"21":0.002769178311682183,"22":0.038556147934471874,"23":-0.0221215608303056,"24":-0.04060999751482085,"25":-0.18620518308920922,"26":0.18010241962520238,"27":0.0398033244186148,"28":-0.08398231693831021,"29":-0.08555184104521919,"30":-0.1965230931838836,"31":0.16627999097148446,"32":0.06386812472977466,"33":-0.15844504613936725,"34":0.040838291303240015,"35":0.10504195789271466,"36":-0.037447155957020466,"37":0.09454614812646951,"38":0.14565009466584766,"39":0.020247870334729787}},"30":{"bias":-0.15840167821161988,"weights":{"0":-0.1918820536882645,"1":0.13113578596065764,"2":0.17947599481613188,"3":-0.0728924530616134,"4":0.005413550125853101,"5":-0.029526628453524915,"6":-0.14420394214317883,"7":0.09766398190385968,"8":-0.14394555893715658,"9":-0.09022058014454465,"10":-0.08849797959215228,"11":0.08209252168426168,"12":0.05816427504976066,"13":0.08707659981068673,"14":0.18922536584585867,"15":0.034535352635123945,"16":0.12035077986197584,"17":-0.09169932164927058,"18":0.15529873697108523,"19":0.005923439465686632,"20":-0.15741653806094122,"21":0.16986294096945562,"22":-0.1111553211681592,"23":-0.06045702349052202,"24":-0.07275906703306498,"25":0.10614382617118544,"26":-0.11831724218421308,"27":-0.11156285712026767,"28":0.19387605499529986,"29":0.1412780672298295,"30":0.03312185779041435,"31":0.18163166598361957,"32":-0.12100813531118108,"33":-0.05946288675377891,"34":0.03395593232766184,"35":-0.008441231238802183,"36":0.05354912661761688,"37":-0.08079888770766758,"38":0.1285580765902146,"39":-0.1642147169312342}},"31":{"bias":0.18285116707894125,"weights":{"0":0.0593613627022728,"1":-0.16405975389563124,"2":0.19834197125684544,"3":-0.16387655030729067,"4":-0.12725059936145144,"5":-0.015777896319850316,"6":-0.1777553186490586,"7":-0.1796029589289305,"8":-0.05945254819015687,"9":-0.13473804232870945,"10":-0.04048764104935972,"11":-0.16149873785333066,"12":0.021330390783574585,"13":-0.17708218925120842,"14":0.09285272304504874,"15":-0.0979994043970097,"16":-0.08323582126866892,"17":0.16886686717070412,"18":-0.01968722159359651,"19":-0.03716264668137245,"20":-0.19374854842356184,"21":-0.09796558277785757,"22":0.17496017048666565,"23":0.16281666183468585,"24":-0.007893818224188597,"25":0.1469667523845825,"26":0.19744062989903247,"27":-0.036971236005640076,"28":0.16146086079437816,"29":-0.10351530981522969,"30":0.027110559862463014,"31":0.014655167709344528,"32":-0.015661066101602304,"33":0.022442708456158367,"34":-0.19859393841549755,"35":-0.0033695425576294436,"36":-0.19140120846920328,"37":0.11291650179975242,"38":0.07700576194128858,"39":-0.1469215016274101}},"32":{"bias":0.10750282919045963,"weights":{"0":-0.111161382557648,"1":-0.16604020238558623,"2":-0.13506297333317202,"3":0.16357550652868513,"4":0.07370636663594289,"5":-0.011898764356335143,"6":0.09856750740483636,"7":0.03272360625095262,"8":-0.09995414485731215,"9":-0.028317316920140365,"10":0.06255239537394353,"11":-0.09586521424848952,"12":-0.0004229687338865101,"13":-0.12459435860550262,"14":-0.016048814605714737,"15":-0.06698856740511504,"16":0.038636625420033086,"17":-0.0967352364057355,"18":-0.13108609679989525,"19":0.06287866328487736,"20":-0.017747740091586185,"21":0.0000026808038402645904,"22":0.06420572816603422,"23":-0.0011284868421214287,"24":-0.13059553148973435,"25":0.14289279591007895,"26":0.17043467743676202,"27":0.10240565824657671,"28":-0.054039264144789934,"29":0.10734695000238552,"30":-0.03443981906976308,"31":0.021116828494240854,"32":0.17403691222099674,"33":-0.04209193504496108,"34":-0.008051631617445662,"35":0.018961406659595715,"36":0.06532586403409608,"37":-0.08181747564495927,"38":-0.1825065309187187,"39":0.13681379646735475}},"33":{"bias":0.028336585867975477,"weights":{"0":0.086252243638935,"1":-0.025201016194081632,"2":0.03559270731464987,"3":0.05120803445935657,"4":-0.031854636133632326,"5":-0.07250514384038734,"6":-0.1983904033572601,"7":-0.13900834668599943,"8":-0.12331340539406908,"9":-0.04202368994966618,"10":0.07082051047152782,"11":0.09320470031935171,"12":-0.05198764511743776,"13":0.03994100234274464,"14":0.10650452723820501,"15":-0.051157551280655876,"16":0.03567673130951715,"17":-0.05576020806956603,"18":0.036732003427584856,"19":0.07026276911422984,"20":-0.06845410048510613,"21":-0.04979127974800627,"22":0.06367933870815452,"23":-0.18710209308179726,"24":0.15267935266243177,"25":-0.039675919757761836,"26":-0.1411835372166566,"27":0.1326361878930716,"28":-0.07744605219317167,"29":-0.1852134976950345,"30":-0.16877330169795252,"31":0.03439298752800522,"32":0.07106675507779917,"33":0.0021333951591988925,"34":-0.13919736262832294,"35":-0.012333508613850169,"36":0.1490168065262258,"37":-0.03300841429540758,"38":-0.07935564449226928,"39":-0.15950818918966056}},"34":{"bias":-0.19777894758347458,"weights":{"0":-0.06374388127512627,"1":0.17698469472238815,"2":0.03986829638740589,"3":-0.02241601289025884,"4":-0.11639967754004515,"5":0.17843065034266722,"6":0.122015566538088,"7":-0.07871892315365761,"8":0.19821849882160045,"9":0.02877360978657368,"10":-0.10699186166807952,"11":0.07793692212002035,"12":0.029265704258974234,"13":-0.10924247098018125,"14":-0.19166269406841505,"15":-0.031180249757512574,"16":0.19247920946729513,"17":-0.1051697282721402,"18":0.0080957684246349,"19":0.17800322013161954,"20":0.099945299698,"21":-0.021393087845673314,"22":-0.07067669094136128,"23":0.026937281201212807,"24":-0.12446473985232766,"25":-0.19030849492075128,"26":0.0925667094288294,"27":-0.07751402770151429,"28":0.06886688101502746,"29":0.15546663961680435,"30":-0.03303920371433247,"31":-0.11991728901738004,"32":0.00753914028925138,"33":0.009466948854577866,"34":0.12298661230034884,"35":-0.18251641343334768,"36":-0.12220239657941412,"37":-0.13873349340667585,"38":-0.08609235629295359,"39":0.0016333228369314902}},"35":{"bias":-0.08406388037005597,"weights":{"0":0.1671588618921764,"1":0.1576914035786204,"2":-0.11188274862658755,"3":-0.07400397028992704,"4":-0.18371173737069457,"5":0.10730127168661575,"6":-0.03438240781115132,"7":0.16974564361822128,"8":0.04326053288809922,"9":-0.04704575046958501,"10":0.12256688346054798,"11":-0.006553021356483257,"12":-0.10468787292680419,"13":0.007644885152453134,"14":0.16584424491106184,"15":0.10571515200686937,"16":-0.11630527097594406,"17":0.11836340757699594,"18":-0.019443209498301507,"19":-0.06122174893602397,"20":-0.06317923419436722,"21":-0.03185147733178189,"22":0.11516921722724738,"23":0.12300241596398342,"24":0.0013954364601960303,"25":-0.04245702194075342,"26":-0.1063813844296241,"27":-0.04619970189363727,"28":0.015167391190778803,"29":-0.058933749394326815,"30":0.08891564617896448,"31":0.11562882476438839,"32":0.1485504203556715,"33":0.20047028335302564,"34":-0.17396551357990342,"35":-0.07842659015461106,"36":0.11545438091120662,"37":0.009138883075952287,"38":-0.06363669177988121,"39":-0.0007233980806257956}},"36":{"bias":-0.003306416631928848,"weights":{"0":-0.004372165635604462,"1":-0.04174340265754807,"2":0.09637737607570512,"3":0.18129749734916606,"4":0.004002327339538936,"5":0.11962887404767715,"6":-0.16106307480152804,"7":0.09094409764721784,"8":0.09319719607368755,"9":0.18342643904444428,"10":-0.03813298315166771,"11":0.08195524797623485,"12":0.11683533401319032,"13":0.03460083486537369,"14":-0.010364037126402478,"15":-0.14532389528132839,"16":-0.15518207432972356,"17":0.03043258141492522,"18":0.11448495703775034,"19":0.0700986985905111,"20":0.08699935736849906,"21":-0.13171277649529975,"22":-0.040075739314331796,"23":-0.021399715305124148,"24":0.16912472914286078,"25":-0.08398943066503957,"26":-0.18682118214337598,"27":0.06482892727441436,"28":-0.02277046685440809,"29":-0.039972640287001315,"30":-0.16050037898176184,"31":0.008123791495171511,"32":-0.19794324115649403,"33":-0.15747556848659294,"34":-0.06443009764735513,"35":-0.17785320425831255,"36":-0.17420488448951338,"37":-0.1525863269994075,"38":-0.17555037402138413,"39":-0.1244665137112266}},"37":{"bias":-0.017777650215734596,"weights":{"0":0.002170397982791149,"1":0.15065614650172496,"2":0.014940080899084407,"3":-0.10843567209741448,"4":-0.07103194383594917,"5":-0.04660665101286128,"6":-0.03715148778734654,"7":0.14106093480163182,"8":0.045757337194915,"9":0.0053771758182450825,"10":0.13687630020411504,"11":-0.12995174076214214,"12":-0.09763485764557903,"13":0.033423580144652,"14":0.1085168604352996,"15":0.04384408379632703,"16":0.06122154935405582,"17":-0.048164109127297294,"18":0.02617267525832332,"19":0.1462827773370595,"20":-0.019235262652567708,"21":-0.1880721205047211,"22":0.0652826114130829,"23":0.021933540795129644,"24":0.17918758331977036,"25":0.016197403474311693,"26":-0.16884475215457442,"27":0.07431665896326037,"28":-0.05007239450270188,"29":-0.027599023829053573,"30":-0.14707349230976133,"31":0.1660562015913806,"32":0.08397718601961739,"33":0.0563941612262529,"34":0.10757788903028465,"35":-0.0732329977245629,"36":0.0494565401869364,"37":0.17269994357801483,"38":-0.1568819066956912,"39":-0.038998940827989444}},"38":{"bias":0.032026076795758154,"weights":{"0":0.01185423734896641,"1":-0.01441526897537341,"2":-0.007786269450058338,"3":-0.03351020262071206,"4":-0.05825903947794361,"5":-0.09789335063744335,"6":0.1804883106070388,"7":0.1701777324038764,"8":-0.02367498738565718,"9":-0.07392713210805132,"10":-0.132594798615994,"11":0.16362656152113744,"12":0.06068933111778408,"13":0.1557186408378885,"14":0.17126049403182175,"15":0.07608791493319206,"16":0.10819390444952633,"17":0.0344918601367258,"18":-0.11752321338683773,"19":-0.16733249046330395,"20":-0.034629128788946036,"21":-0.18904963027696725,"22":-0.019163410476477617,"23":-0.044717378319255104,"24":-0.1743583502078655,"25":0.17101920261429052,"26":0.03924078778350834,"27":-0.11018118609082983,"28":0.11169079386404891,"29":-0.010857312900159451,"30":-0.19259439816772717,"31":-0.09534679143338293,"32":0.04476327103411458,"33":-0.0953404171551716,"34":0.19590831849951526,"35":0.1370262661288531,"36":0.04585194018628752,"37":0.0045028837480092015,"38":0.050405108745498535,"39":0.20049947341167929}},"39":{"bias":0.002611353586177937,"weights":{"0":0.011006941802152325,"1":0.17293198913420688,"2":-0.061245475343060365,"3":-0.1782798748636465,"4":0.16862561500925666,"5":0.08441488214892186,"6":-0.13137550988855828,"7":-0.11188388457551095,"8":0.0010099322343413526,"9":-0.06887494883634056,"10":-0.07125755150494087,"11":0.1361727153500955,"12":-0.07588923953222802,"13":0.001625147642671734,"14":0.13195010768608853,"15":0.15774979153759197,"16":0.01330071911952347,"17":-0.0008089576448783228,"18":0.0018916930907937524,"19":0.05603185322133116,"20":-0.021561097406621814,"21":0.036393106563191086,"22":0.14036806588948444,"23":0.0662741820440893,"24":0.082113370179992,"25":0.15634361481278777,"26":-0.17002381986327286,"27":0.13554091427918502,"28":0.16552699937131113,"29":-0.1061641767458984,"30":0.1704527921653829,"31":0.12401957557220916,"32":0.13462204926832258,"33":-0.00790149364589486,"34":-0.003369088691842724,"35":-0.036790252918471336,"36":0.134971670945954,"37":0.006005723687899639,"38":0.0958759417912146,"39":-0.04201402243740369}},"40":{"bias":-0.17898931039193994,"weights":{"0":-0.010273491272406276,"1":-0.10602332258779794,"2":0.0005952560200073772,"3":0.1106143487394032,"4":0.19659355218926675,"5":-0.10698651434020975,"6":-0.032626709364645505,"7":0.16893653906841774,"8":-0.11683715535366955,"9":-0.08827031739162054,"10":-0.061988866742665696,"11":0.05727194226946976,"12":0.13933833104788151,"13":-0.1429057103190866,"14":0.1518672633049616,"15":0.15020081406315258,"16":-0.02139200332578687,"17":0.12567129830285736,"18":0.09354061019509137,"19":-0.05176646017657057,"20":0.0070972763326916585,"21":0.002474234219219229,"22":0.14163264159493896,"23":0.049674020026941317,"24":-0.15114197319257913,"25":0.06950734230068022,"26":-0.04558988076483489,"27":-0.01844460289219547,"28":-0.12748854996029857,"29":-0.039173960360006754,"30":-0.17197891418897338,"31":-0.09263608938186911,"32":0.18742166134759672,"33":0.04712050090089918,"34":0.15315537569160176,"35":0.14740114090028253,"36":0.14283250451173016,"37":-0.06069543197257463,"38":-0.017117864170116737,"39":-0.10091428708710283}},"41":{"bias":-0.16237841498124778,"weights":{"0":0.08603707544818102,"1":-0.10712109449209087,"2":-0.0022187836979231947,"3":0.16230793759376155,"4":0.14252478912262967,"5":0.180069777338917,"6":-0.14618017543117523,"7":-0.09500673075061823,"8":0.04570573665846504,"9":0.11666065986036235,"10":-0.042886369004891275,"11":-0.0341007758424112,"12":0.12679706851421937,"13":-0.05569842340755728,"14":0.030046371330331043,"15":0.1760415397255229,"16":-0.14761791436293817,"17":0.11885084119824076,"18":0.11183475661746886,"19":-0.019788472985688,"20":0.18069083682094653,"21":0.007889791262105636,"22":-0.1137729021416349,"23":0.09968087804186056,"24":0.17900656791927433,"25":-0.07359907072868765,"26":-0.1184605741915632,"27":0.07143591263710762,"28":-0.1674352575796933,"29":0.13051244951972948,"30":-0.04672296920802281,"31":0.09244915994688617,"32":-0.19961736469121064,"33":-0.07951579412128357,"34":0.1541174681452169,"35":0.13006158417572147,"36":-0.018147377297766273,"37":-0.15147273355331778,"38":-0.14908298009383691,"39":-0.16206648303089885}},"42":{"bias":-0.0031767733710986994,"weights":{"0":-0.11875364419541262,"1":0.09901197768337847,"2":0.17646345356972906,"3":-0.12116153252246283,"4":-0.07371019993272537,"5":-0.1698407615117735,"6":-0.1360722506094977,"7":0.14528600879254705,"8":0.010104356185294545,"9":-0.14751327033991463,"10":0.14780852593573165,"11":0.03240381131161287,"12":0.036383710570986556,"13":0.18663155476683357,"14":0.14243661071828195,"15":-0.19633567955431586,"16":-0.13597236217601189,"17":0.15025149354391992,"18":-0.0030734862527437346,"19":0.12355330133744119,"20":-0.031617168436212977,"21":0.15015358400872464,"22":-0.1564879421319821,"23":-0.030558454410488635,"24":0.1810252437163292,"25":0.09211938797092628,"26":0.021002792381094253,"27":0.12642397604462055,"28":0.17997733655388623,"29":-0.014098113530016334,"30":0.0916527142102507,"31":0.09887005729091992,"32":0.020107067031049353,"33":-0.1541465539776616,"34":-0.10372734086938258,"35":-0.15069938159074223,"36":0.19122442267323325,"37":-0.036362469655179204,"38":0.1150888011109218,"39":0.10615806582511017}},"43":{"bias":-0.18779587296867778,"weights":{"0":-0.012801570332858897,"1":-0.06305026383638819,"2":-0.02047891485548275,"3":0.01656953993062101,"4":0.1295799019375606,"5":-0.19399851446891186,"6":-0.05369968772957814,"7":0.19146643631045046,"8":0.08101142400053761,"9":0.07025207185746743,"10":-0.053667188247745655,"11":-0.06162161248912072,"12":0.16275573791291023,"13":-0.04273499883096198,"14":-0.07556494893259601,"15":0.0401828109169027,"16":0.14492571951785402,"17":-0.10131196081418006,"18":-0.07339677289464358,"19":0.06205615301791565,"20":-0.15073372535768248,"21":0.013921574039507252,"22":0.06923952887835301,"23":0.1990245420858753,"24":-0.1568217825268447,"25":-0.09810143617649696,"26":0.09705212724511773,"27":0.07462823388733925,"28":0.08464973339845296,"29":-0.04666043458787887,"30":-0.11498847676745089,"31":-0.025558818500012292,"32":0.08450386249065552,"33":0.1400685315200129,"34":0.09078000853985,"35":0.026697007208461656,"36":0.08061437980640113,"37":0.147891320070556,"38":0.039966766021464366,"39":-0.1586178986786609}},"44":{"bias":-0.07747375676253648,"weights":{"0":0.15864584809530108,"1":0.17489656321611796,"2":-0.08155334478672321,"3":-0.027971402377013493,"4":-0.06828998172917748,"5":-0.01934705321404358,"6":0.16953729999840547,"7":0.1716331533089883,"8":-0.045517988804297235,"9":0.05437746173386824,"10":-0.03730633624703423,"11":0.0398626294898978,"12":0.08588307366669902,"13":-0.14117220089194293,"14":0.14518363736592513,"15":0.04034718061328707,"16":-0.08349752201980111,"17":-0.14532830732104754,"18":0.054435728342415925,"19":0.1159793577603723,"20":0.13447715012943823,"21":-0.19167947741368263,"22":-0.14822831478509352,"23":0.09780671761337256,"24":0.1633350169479619,"25":-0.16495374173277755,"26":-0.131273891428708,"27":-0.16592871399384376,"28":-0.022478118455861566,"29":0.052258798880749496,"30":-0.013985815809785387,"31":-0.18253875463026376,"32":-0.03992904906613045,"33":0.13433142636347772,"34":0.12643522699114493,"35":-0.03240380469386845,"36":0.07407097211725377,"37":0.045145784318435155,"38":0.06345792915997872,"39":0.061481491367414834}},"45":{"bias":0.15795945919197507,"weights":{"0":-0.02335611936411217,"1":-0.010782465625260014,"2":-0.139920682122558,"3":0.04991228579167956,"4":0.08325134198502222,"5":-0.17022885524396525,"6":0.17309420058818548,"7":0.005912288458673981,"8":0.17687404163342912,"9":0.053102261801089554,"10":0.14896362986622766,"11":-0.0034297005633115328,"12":0.05547443912016917,"13":0.15266488376756682,"14":0.07406511657606786,"15":0.07160714441691768,"16":0.15238804726151037,"17":-0.1946626036079547,"18":0.15999421376131415,"19":-0.1142325090505912,"20":0.18146310954457442,"21":0.11795292609760039,"22":0.11605856570738005,"23":0.04242923871310667,"24":-0.08186729049238985,"25":-0.08311419958198896,"26":0.08237917748416107,"27":-0.06289902640521423,"28":-0.18053062555547789,"29":-0.032117546228740294,"30":0.15759329397793767,"31":0.17243375769014563,"32":-0.006549479245105372,"33":-0.0383363564438588,"34":-0.05797294259163452,"35":-0.0028215565529099837,"36":0.14262733159803392,"37":-0.10731840418277021,"38":-0.1735915684707698,"39":0.11403715341988357}},"46":{"bias":-0.14232733395942201,"weights":{"0":-0.013583865671163544,"1":-0.09761509237243977,"2":0.0322741643762644,"3":0.1312382806683243,"4":-0.1779283566847117,"5":-0.022816163872420876,"6":0.016587168879683138,"7":0.09375528430517308,"8":-0.1721345550302977,"9":-0.1444070237664126,"10":-0.03169651903082686,"11":-0.09633720826880086,"12":0.14635212909066067,"13":-0.10982768874214348,"14":-0.11354378497119025,"15":-0.030070601094140375,"16":0.014748216278921197,"17":0.07047359175549725,"18":-0.12472220351554886,"19":-0.14094579998320542,"20":0.1255510438301914,"21":-0.1834230799192385,"22":0.14964556292469938,"23":-0.12922907523208754,"24":0.026545399890202163,"25":-0.1333818269543939,"26":-0.052183663429176276,"27":-0.03899845689141127,"28":0.1089621053381345,"29":0.05190843556039493,"30":0.15353257649589155,"31":0.1416859415597673,"32":-0.02789110166122398,"33":-0.026322035287647316,"34":0.03742719650669799,"35":0.1005957986384868,"36":-0.030318973137906127,"37":-0.1767623945692737,"38":0.16771752806883386,"39":-0.04192193477782455}},"47":{"bias":-0.19844927335337742,"weights":{"0":-0.04096287776752056,"1":0.1347340582977549,"2":0.09122684164276079,"3":0.170966221484841,"4":0.168869390835769,"5":0.18400927010804854,"6":0.08649356209072309,"7":-0.07253353527589848,"8":-0.06708336185858549,"9":0.10252474959350825,"10":-0.07387377682335274,"11":0.01350605686742201,"12":0.027093162582030778,"13":-0.09737872009332332,"14":0.08960688318989761,"15":0.13634785917919767,"16":0.03043463535616992,"17":-0.053204898762745215,"18":-0.14404695340050802,"19":0.04790240584414305,"20":0.151289544553107,"21":0.12626135076613149,"22":0.020020728416523224,"23":0.00889701567037919,"24":-0.12349591401659749,"25":0.00018235354750059925,"26":0.1617904663665143,"27":0.029659760145775673,"28":0.018387304286365917,"29":-0.015327284922732417,"30":-0.08987834057236427,"31":0.1012670427669024,"32":0.14567432451506374,"33":-0.14660454982030155,"34":0.13458439941939015,"35":-0.019975547440405386,"36":-0.17176803593419146,"37":0.1412026830227344,"38":-0.03409514255758588,"39":-0.0022300853296241823}},"48":{"bias":0.10193677116220087,"weights":{"0":-0.15340468951660416,"1":-0.11636428098601799,"2":0.004186599769329603,"3":-0.004185428695485161,"4":-0.07559748771540943,"5":0.11869324231696336,"6":0.1859314318308482,"7":-0.007590202383085323,"8":0.18237234657750942,"9":0.1073430957261968,"10":-0.11841165433834812,"11":0.14946265504907563,"12":-0.059438069419178466,"13":0.0273225229750992,"14":-0.08820627977153764,"15":0.17866241637099117,"16":-0.04323589485139565,"17":-0.1296114754343686,"18":-0.146378078185021,"19":0.022935653318182304,"20":-0.14628913810172042,"21":-0.12301526919843157,"22":-0.05828042385115131,"23":-0.01470909636593599,"24":-0.07467886018254931,"25":-0.14851710499533222,"26":0.09940476206217122,"27":-0.06982168442057687,"28":0.056656047672120846,"29":0.0959760218481327,"30":-0.1273217644246133,"31":0.06352155279556489,"32":-0.03588797111825563,"33":0.09735456513213192,"34":0.14354215713650423,"35":0.18075644395105145,"36":-0.0061149989262830546,"37":0.1017976196349969,"38":-0.04973214568584037,"39":0.0562756887124153}},"49":{"bias":0.18400395338821376,"weights":{"0":0.012315431385527266,"1":0.055499444434566704,"2":0.015961468248624565,"3":-0.14155394163169785,"4":-0.10651332683812544,"5":0.0016508184791034397,"6":-0.0023362644629623076,"7":-0.08284546339493734,"8":-0.029132464750418162,"9":0.16091196690266657,"10":0.01124191626255245,"11":0.17483239511287468,"12":0.16843868891821856,"13":0.08091104915911708,"14":-0.1652212489187502,"15":0.014176747160498404,"16":-0.11124369133649098,"17":0.07834771416207757,"18":-0.0846379863724438,"19":0.04175431968663852,"20":-0.1803311901444131,"21":-0.13737650023097692,"22":0.045085087735805884,"23":0.11165752762678141,"24":0.031190561221709087,"25":0.14464286238150784,"26":-0.015051867006056189,"27":-0.18742725891595588,"28":0.16110206217887832,"29":-0.17377044996071903,"30":0.0731360613274843,"31":0.1798617716819956,"32":0.16232298130052145,"33":0.09129891707946858,"34":0.13837855462633578,"35":0.10554917639565055,"36":-0.06382651776449923,"37":0.048959617167615474,"38":0.11945699762385163,"39":0.060558184316768224}}},{"0":{"bias":-0.12724875517958253,"weights":{"0":0.17971533214342345,"1":-0.18105975635894944,"2":0.13478298577458264,"3":0.12578461470380795,"4":0.020416744639279408,"5":0.14787796848040646,"6":-0.11439216444093925,"7":-0.12623632546613178,"8":-0.02808568507021974,"9":-0.11211853234927627,"10":-0.1944014005074408,"11":0.019245343930732496,"12":0.14167700380373388,"13":0.06628580710903749,"14":-0.005231563140693091,"15":0.09033193605471701,"16":0.02575472765147328,"17":0.0243798950339511,"18":-0.11153299585335974,"19":0.15326431377524835,"20":0.16515212585455527,"21":-0.16924664150617616,"22":-0.09225152935850409,"23":0.18182967178498202,"24":-0.008398973099958216,"25":-0.08537660910800302,"26":-0.019348157098469883,"27":0.09056582414634573,"28":0.04617747256892571,"29":0.14895639613902237,"30":-0.055032571033949325,"31":-0.06476031267491013,"32":0.13784085484488903,"33":0.08460482672171787,"34":-0.047756990990662565,"35":-0.11376005973262253,"36":-0.010089022167339153,"37":-0.12694431481108526,"38":0.06808289080584938,"39":-0.1980870763524842,"40":-0.10157082731199461,"41":-0.044475050920920293,"42":0.01640514370702748,"43":0.004671031119124734,"44":0.11171397489211059,"45":-0.09092389866422634,"46":-0.08531273402754302,"47":0.04883223267487031,"48":-0.13272233055466304,"49":0.11462802810911776}},"1":{"bias":0.016806466885658296,"weights":{"0":-0.14029215979042603,"1":0.08269197151462289,"2":0.11899114712381696,"3":0.0844799476533193,"4":0.12779363796269264,"5":0.07560097412108534,"6":-0.17437975141743597,"7":-0.018833869483825153,"8":0.006980820417105064,"9":-0.11996560664092609,"10":-0.037433919495607475,"11":-0.04697929191127869,"12":-0.02650973421601996,"13":-0.09030981539280802,"14":-0.02552646899150047,"15":0.18412626619427658,"16":-0.0703899358929768,"17":0.021015223307530553,"18":0.19092845390234128,"19":-0.20280867674043218,"20":0.09430940730959635,"21":-0.0067844197580369065,"22":-0.17633652519973506,"23":0.17120057313039216,"24":-0.12681846551950218,"25":0.0658637519287944,"26":-0.19850867497724767,"27":0.05037758176264879,"28":-0.11072590641435742,"29":0.17026381130143117,"30":-0.0036462368586244478,"31":0.01931271052262573,"32":0.017593468959152633,"33":-0.0670933916496642,"34":-0.10369286621765862,"35":-0.22308072372465876,"36":-0.018467796353160586,"37":-0.07035767550156401,"38":0.00010002026665841758,"39":-0.0360798719580123,"40":0.014666200082066415,"41":0.11689574614370393,"42":0.17332433287827667,"43":-0.12195820907722779,"44":0.08244346248793476,"45":-0.017506123058751613,"46":0.09689298595350014,"47":0.12351512965721628,"48":0.17297047008536517,"49":-0.09624669469595425}},"2":{"bias":0.11613084146967873,"weights":{"0":0.08849119159117527,"1":0.04144409493006018,"2":-0.16948856637195933,"3":0.00009704182323582388,"4":-0.02266370764088151,"5":-0.07735156426497442,"6":-0.19961707316795685,"7":0.06003900373219443,"8":-0.11734222939369668,"9":-0.11099784284246451,"10":0.05536851357530711,"11":0.008868683458828786,"12":0.10123898222425005,"13":0.15407294125983376,"14":0.17121945739888952,"15":-0.03305815241632242,"16":-0.032811465608973724,"17":-0.04252651026373363,"18":0.11931044448031836,"19":-0.16583411866765335,"20":-0.16833235266608593,"21":-0.0264446189362902,"22":0.05304021880323163,"23":0.16654693428299308,"24":-0.07303070950240875,"25":-0.04782299661757687,"26":-0.12454209100051508,"27":0.04250686925081889,"28":0.15935980919541384,"29":0.0651187152880548,"30":0.15946667719679566,"31":0.07961922977205999,"32":-0.1518569234489466,"33":0.09716118853238039,"34":0.16115297435157738,"35":-0.058020072998496056,"36":-0.11806949441074585,"37":-0.16955623503188544,"38":0.05621611087337353,"39":-0.01808058416375926,"40":0.12676388815957165,"41":-0.10979131383106717,"42":0.19313191659647433,"43":-0.0151933064356864,"44":-0.034272520667127215,"45":0.008683489578192162,"46":0.09891945550764662,"47":0.18995860292964478,"48":-0.03931589161526537,"49":-0.10346529118397772}},"3":{"bias":-0.1284018672456156,"weights":{"0":0.19735733471952638,"1":-0.1006002411557982,"2":0.1688256758639588,"3":-0.11741220210140653,"4":-0.13981113734146355,"5":-0.0935497416929656,"6":-0.025627635643523185,"7":-0.16419140831556756,"8":-0.1799086075950179,"9":-0.14818743963101502,"10":-0.040604444426522196,"11":0.16312440198155348,"12":0.13627886094878666,"13":-0.02319579322971956,"14":0.07481874311334835,"15":-0.09045277879887738,"16":-0.06470033917464432,"17":0.031238619492266397,"18":-0.06874812559341098,"19":0.11106819370524001,"20":0.09782116541808324,"21":-0.13259207271079856,"22":-0.14958740386433256,"23":-0.02380482378774382,"24":-0.005206591837217626,"25":-0.17988004664444687,"26":-0.010897052418565305,"27":-0.19445075408157744,"28":-0.1130794620759218,"29":0.018404474515999247,"30":0.19304993549872793,"31":-0.16411991543675863,"32":-0.14845002171704508,"33":0.1863704173646726,"34":0.10400674613252733,"35":-0.1011789192632422,"36":0.05188073584586022,"37":-0.060838280243112275,"38":0.1169064531343731,"39":0.16968723739508812,"40":0.1964375132301787,"41":0.07293469510394432,"42":0.08266997477094498,"43":0.1057555940750098,"44":0.08429395700034367,"45":-0.12157697778187383,"46":-0.179069168371975,"47":-0.08184882207506178,"48":0.0017101261763702172,"49":0.11067623465955073}},"4":{"bias":-0.011631125062691521,"weights":{"0":-0.08982907197009399,"1":-0.08505703443056858,"2":0.030505369911303908,"3":0.021065103709667316,"4":-0.0430529189712367,"5":-0.19416521842084317,"6":-0.0013080388958639272,"7":0.04228955125627216,"8":-0.00537416768312969,"9":0.1362622051607335,"10":0.010000022044781447,"11":-0.020226735317354947,"12":-0.04830977945825203,"13":0.11205240089886923,"14":0.19155720119056419,"15":0.18401366147334558,"16":-0.19236614379996608,"17":0.04381454777647472,"18":0.1760227037638015,"19":-0.06917907756796726,"20":-0.016100147952690366,"21":-0.03183181037192586,"22":-0.059582606564305515,"23":-0.08560591746987029,"24":-0.054927320266786164,"25":-0.020933960175893645,"26":-0.031084333702629148,"27":-0.00569447869015189,"28":0.09524946056014248,"29":-0.059837594217330696,"30":0.1265495360636718,"31":-0.034409239550080184,"32":-0.04833199596677333,"33":-0.17391421043211366,"34":0.1719208542593317,"35":0.027078262391293448,"36":0.07723429017252634,"37":0.09644670071949037,"38":-0.07284316655048184,"39":-0.08778097447839103,"40":0.14048721181428372,"41":0.06891549441816766,"42":-0.17900800183809404,"43":-0.12418997620023205,"44":-0.19976443208857864,"45":0.0013964237683821632,"46":-0.014358325508417593,"47":0.1481341781179376,"48":0.11977595384772224,"49":-0.16792343156732012}},"5":{"bias":-0.013979042143518847,"weights":{"0":-0.0470381527003195,"1":-0.19093930059648792,"2":-0.12181725563780856,"3":0.09569105619222258,"4":-0.1666807400196148,"5":0.12486983147813066,"6":-0.03398920038300326,"7":0.030482232685662716,"8":0.1142040159252828,"9":-0.006642315923806391,"10":-0.18188985020611498,"11":0.05870327916288477,"12":0.1156518834831175,"13":0.005184626892102037,"14":-0.05786162138895433,"15":-0.19045954207894253,"16":-0.011650867565590797,"17":-0.18108164908290536,"18":-0.04599788574155921,"19":0.04206003839856759,"20":-0.19785461315337752,"21":-0.06356165234364315,"22":0.11534976267158002,"23":0.1916622129290752,"24":0.038691143492361156,"25":0.18709856217137538,"26":-0.12230601843204741,"27":0.05941146182306177,"28":0.13009566103054698,"29":-0.13190658572689354,"30":0.023033464614981323,"31":-0.0839747907740851,"32":0.1430927916852901,"33":0.04701573963339269,"34":-0.11872489523303677,"35":0.0003223936775319717,"36":0.14738118217904825,"37":-0.1269594453534954,"38":0.15524365251023078,"39":-0.01789766037232766,"40":0.09156390175173805,"41":-0.0802302917261181,"42":0.04935558938007834,"43":-0.15683652594573927,"44":0.19648497971030573,"45":-0.13246120182803992,"46":0.0062027249593493705,"47":-0.04483296396546643,"48":0.1728158286774935,"49":0.08528396812138464}},"6":{"bias":-0.1121432666306667,"weights":{"0":-0.14943400563843914,"1":-0.17727818820409105,"2":0.11340310547502981,"3":0.04605710034746755,"4":0.11183108252170676,"5":0.05878034501289181,"6":-0.17046044792313556,"7":0.19258165366029775,"8":-0.18873448800748288,"9":0.14860732470627108,"10":-0.08980483241462175,"11":0.036920506719403265,"12":0.02931972029281691,"13":0.09003628293899778,"14":-0.15722706022144284,"15":0.14557778698439455,"16":-0.03205201696564964,"17":0.13204763041899922,"18":-0.08612577751627792,"19":0.14580749556027414,"20":-0.038857106165444896,"21":0.05469455736714188,"22":0.12110592415427207,"23":0.19810735372134192,"24":-0.08261520895328035,"25":-0.0627846713222826,"26":0.003051450839774449,"27":0.011444866639802775,"28":0.11147471304416838,"29":-0.10127113619571838,"30":0.07375859231595086,"31":-0.060674053129746226,"32":-0.07944443431013215,"33":0.0954721444637872,"34":0.17222934886020408,"35":-0.07429192050161594,"36":-0.08315724779608225,"37":-0.1781047139281099,"38":0.11695549268396836,"39":0.01904167507432212,"40":-0.02057812933446722,"41":0.0848653087604664,"42":-0.13108718571534064,"43":0.15957624269025306,"44":-0.10112514652171485,"45":0.1504652696502167,"46":0.1839522211335707,"47":0.1075003140394776,"48":0.1441539971354346,"49":-0.0963598241875667}},"7":{"bias":0.14536666151026428,"weights":{"0":-0.10944515357864636,"1":-0.07876675664403353,"2":0.06065266601231361,"3":0.16917862715258736,"4":-0.0564615966149059,"5":-0.05851042830965377,"6":-0.08334968602007645,"7":-0.07614751892016003,"8":0.11796197488505154,"9":0.04408844023096617,"10":-0.1630698648819966,"11":0.1375667135177967,"12":0.09637715446618772,"13":0.12162169798183546,"14":-0.03351934376295261,"15":-0.198166643307903,"16":0.12472832738750769,"17":-0.1606920836389254,"18":0.01447334008220735,"19":-0.10306188080663141,"20":-0.19942513034632225,"21":-0.15210165982317206,"22":0.12287374125406253,"23":-0.009753729817871452,"24":-0.0994261990865601,"25":0.14940338846844486,"26":-0.1964651091486743,"27":-0.06658383244652406,"28":0.13255537293163414,"29":-0.12636780763069977,"30":-0.15282351927282153,"31":0.08407621588233437,"32":0.17031174555471493,"33":-0.1144384193532034,"34":0.15113112898440667,"35":-0.13271249036296554,"36":-0.04655949363363575,"37":0.1673572310926173,"38":0.09478596570472105,"39":-0.19436623115491802,"40":-0.14822975674961247,"41":-0.050230497327355544,"42":-0.1404156982374611,"43":-0.07694385989986006,"44":0.101636839452816,"45":0.009354117193140192,"46":-0.09203521311682787,"47":0.15550945252652415,"48":0.04990674059240397,"49":-0.09764056035477534}},"8":{"bias":-0.16409771820356486,"weights":{"0":-0.11592759989748598,"1":0.10892236463372103,"2":-0.14573386980099276,"3":0.14578676176947322,"4":0.16222557463677056,"5":0.055120090016923216,"6":-0.14698129025424533,"7":0.009580931205785504,"8":-0.07403303394258513,"9":0.0011554980538503773,"10":-0.08780121615356082,"11":0.05255375603829326,"12":-0.14865891591825584,"13":-0.16186947559407044,"14":0.12868889441753464,"15":-0.032074729402577225,"16":-0.11494405337284574,"17":-0.01706719579988641,"18":0.06429247590453238,"19":0.13503949709448718,"20":-0.0791100787010432,"21":0.03323579258017517,"22":0.09207538117738094,"23":-0.03373544621978619,"24":-0.09057655617390357,"25":0.1090540947054016,"26":-0.029278716194086226,"27":0.025226087360759063,"28":0.19788583309609079,"29":-0.1640181990522306,"30":0.05378588353802388,"31":0.15114117217027004,"32":-0.09894356384354817,"33":-0.02207638107583118,"34":-0.06000989977382167,"35":-0.03571574042924826,"36":0.18293773878051153,"37":-0.029558130886700226,"38":0.06256603570601436,"39":-0.10755244595036062,"40":-0.09374392361474188,"41":-0.06290697728934301,"42":-0.1402619815772358,"43":0.03616933632499095,"44":-0.06150543462947649,"45":0.061558313984012535,"46":-0.13310282126991646,"47":-0.07639415827663656,"48":0.149216059694414,"49":-0.006319594973543832}},"9":{"bias":-0.03617548521802922,"weights":{"0":0.07023128093297559,"1":0.061936442989763016,"2":0.19711153187944133,"3":0.002484791805533487,"4":0.11778517983441646,"5":0.18314725893704045,"6":0.17495135866242298,"7":0.2005821086634499,"8":-0.12025248709666239,"9":-0.09572849286255924,"10":-0.07583171398505976,"11":0.07372139921824655,"12":0.14608116161077117,"13":-0.19316563557619545,"14":-0.11615792993265002,"15":-0.1757715186444599,"16":-0.16486317349407514,"17":0.1906814292646583,"18":0.09290558623999068,"19":0.19296941927788688,"20":0.015630161185124385,"21":-0.18008316472473931,"22":-0.16652947688159406,"23":-0.029316122644822865,"24":0.09630556624716297,"25":0.19316534734952587,"26":-0.04886467543688616,"27":-0.06770753600252684,"28":-0.1382599289811866,"29":0.15042701476205322,"30":-0.1138514710763439,"31":-0.04540806149739534,"32":-0.03051824727640115,"33":-0.08933532252657034,"34":0.02581646229846626,"35":-0.16395557910122419,"36":0.18466360613587807,"37":-0.07626385153336525,"38":-0.027744645837832184,"39":-0.10102517572169883,"40":0.13304747466335762,"41":-0.08541422090020173,"42":0.03126614460583279,"43":0.044644467413788365,"44":-0.13072274970666875,"45":-0.059352377597888153,"46":-0.12464842757681034,"47":-0.16267196831263847,"48":-0.1508033356472016,"49":-0.023993631539427417}},"10":{"bias":0.10904198868946532,"weights":{"0":-0.002989401622504433,"1":0.09654364300642192,"2":0.05588536093620995,"3":0.13259490244592176,"4":0.1878348344724278,"5":-0.02939200952967959,"6":0.1833787398960469,"7":-0.036434892166756314,"8":0.19817858740000435,"9":0.03105454917114926,"10":-0.01918100824799018,"11":0.06492854227749634,"12":0.05876206783166761,"13":0.10842768331340445,"14":0.17152823039763682,"15":-0.1629534256385629,"16":0.07149363438139246,"17":0.12163447654575249,"18":0.1613887226169817,"19":-0.19785533872423444,"20":-0.1535925488968964,"21":-0.05839199893379543,"22":-0.1920759540689146,"23":0.19393000853816916,"24":0.08218572320228468,"25":0.09055030556859735,"26":0.016380945957230705,"27":-0.008758032757188098,"28":-0.03410595013928338,"29":0.09021639959144338,"30":-0.006140600327605332,"31":-0.10548776627699491,"32":-0.03225392657462201,"33":0.041691922124526534,"34":-0.062382186774400765,"35":0.16690498487114586,"36":-0.168068680367996,"37":0.17565019908777443,"38":0.1673134250668267,"39":0.05678263429617909,"40":0.15547179961414032,"41":0.02856582068479381,"42":0.1723649437818489,"43":-0.17158750611967907,"44":-0.1719725568650354,"45":0.11082213848921935,"46":0.12917514884988146,"47":-0.1263554595099723,"48":-0.14555514022751093,"49":-0.07931288238145552}},"11":{"bias":-0.11636070378185571,"weights":{"0":0.16757726446148283,"1":0.1767418433600012,"2":0.04168108479049305,"3":0.02990990058538672,"4":0.100955869828456,"5":-0.17745779166843378,"6":-0.11712586118120313,"7":0.15168686624790814,"8":-0.010563015674230736,"9":0.18174970990332454,"10":0.10118661626259279,"11":0.021579082942369196,"12":-0.08218857792482903,"13":-0.1882881466937492,"14":0.15883072732042106,"15":-0.04706760016866237,"16":-0.09085948035122467,"17":-0.09167372965013208,"18":0.1790925750340042,"19":-0.19266340276827595,"20":0.12565286764940878,"21":0.02158510643834186,"22":-0.0954922904415676,"23":-0.09551924735702888,"24":0.08629051866022314,"25":-0.0009391937531749112,"26":-0.013134213400836548,"27":0.045225178005849305,"28":-0.08231913028733119,"29":-0.16398899711109016,"30":-0.19316864756557567,"31":0.10984966104318535,"32":0.0850704489785926,"33":0.08952029671119263,"34":-0.09057194241468626,"35":0.15771664094510118,"36":-0.10699119447900679,"37":-0.12182578187764544,"38":0.17771172308917038,"39":0.1328635800040212,"40":0.14578381695783943,"41":-0.0050773075350354245,"42":-0.037183101293195374,"43":-0.1761512380146072,"44":-0.04547162002652804,"45":-0.07249184035740534,"46":-0.15140994267142388,"47":0.06885621142837108,"48":-0.1891402251081754,"49":0.15985906702609784}},"12":{"bias":-0.031172771149049802,"weights":{"0":0.12734478795303752,"1":-0.0411873161947059,"2":-0.16500640148946227,"3":0.19112228984747165,"4":0.19430151403671037,"5":-0.0052697475274914125,"6":-0.028930521996375226,"7":0.07915588621520026,"8":-0.035694735047411295,"9":0.10498339091741422,"10":0.10501291971392204,"11":-0.03900120427346757,"12":-0.0007756957674496714,"13":-0.08511034958731009,"14":-0.1686711370397279,"15":-0.0074253970672456,"16":-0.12857511360424287,"17":0.11125571828275356,"18":0.1408407119428319,"19":0.047554314966758805,"20":0.11152265966803893,"21":-0.02474807158929475,"22":-0.001055080544734368,"23":0.13176655449254063,"24":0.057081730649727234,"25":-0.1621659584652871,"26":0.16788225815826532,"27":-0.16506181069762604,"28":0.18956634631207112,"29":-0.1184354505420873,"30":-0.14767062149143334,"31":0.10141903527406894,"32":0.09818611399402784,"33":-0.14666296164881357,"34":-0.05350548104098373,"35":0.026173809097864667,"36":-0.06004588887219304,"37":0.017169280306006483,"38":0.043660424451376016,"39":-0.19138389030997616,"40":0.1131060769564873,"41":0.16528777341902104,"42":-0.16251810080646767,"43":-0.09424762870465046,"44":0.0799717353842804,"45":0.0543444242783858,"46":-0.16504018643468435,"47":0.004044695991844102,"48":0.19748341939928774,"49":-0.00831648489893251}},"13":{"bias":-0.18232162460322732,"weights":{"0":-0.0732421760489355,"1":-0.12792946803608862,"2":-0.11354397610327799,"3":0.05178690670704802,"4":0.0372614167535796,"5":0.13273686632988874,"6":0.08766218945765274,"7":0.10020377926763256,"8":0.1225096273376985,"9":-0.12515968802025698,"10":-0.015346914960438166,"11":-0.06476441905557595,"12":0.004688734340318377,"13":0.13821548811029627,"14":0.16742154324983033,"15":0.14973446149351172,"16":-0.15421502603714607,"17":0.11929978974207925,"18":0.05756515045760619,"19":-0.07824496932621842,"20":0.0810594081436088,"21":0.06999069593544777,"22":0.07628183737394456,"23":0.17857357001699314,"24":0.14854436965874204,"25":-0.02583951881869028,"26":-0.08414693852012065,"27":-0.12448454264007458,"28":-0.16613224419198352,"29":-0.14454590316807575,"30":0.056548889330170625,"31":-0.09412103445397116,"32":0.04507227357089781,"33":0.06922181683073336,"34":0.09691019915619607,"35":-0.07967457596073972,"36":0.1876770723931556,"37":0.15910937155068408,"38":0.17010978919074168,"39":-0.10960958926247033,"40":0.1020551886087709,"41":-0.040477618305211314,"42":0.19674986196422975,"43":-0.0021034777370971857,"44":0.046889820573649356,"45":0.05006552310188406,"46":0.1821460688955087,"47":0.13656693196781305,"48":0.16165443832189377,"49":0.008602576477591238}},"14":{"bias":0.011444558855110363,"weights":{"0":-0.04153019610821149,"1":-0.10988077042543187,"2":0.10840142019725424,"3":-0.12491974619742,"4":-0.1789625859972636,"5":-0.07251860783798693,"6":-0.10861141347982642,"7":-0.14421984977029192,"8":0.1601374157792021,"9":0.1419440576477026,"10":0.14210379701459303,"11":-0.19145182915109288,"12":0.06713861354080695,"13":-0.11847229353888625,"14":0.01656842178821969,"15":-0.10398324214740018,"16":0.0879259303556754,"17":-0.1388534559766877,"18":0.19524205613937465,"19":0.1542842770775515,"20":0.12731701084100613,"21":0.08151124888691504,"22":-0.05058969643935971,"23":-0.12037666313652917,"24":0.0003604963745234625,"25":-0.047877771815878725,"26":-0.18489085205278097,"27":-0.14141643205497706,"28":-0.0954246290996321,"29":0.10545117720003247,"30":0.15149446605149877,"31":0.0037062508997655987,"32":0.09809865368783469,"33":0.1278382065403231,"34":-0.11214975222975532,"35":0.11095990471734773,"36":-0.017832754361945112,"37":0.1135923987576151,"38":0.007780548970583996,"39":-0.08718691681226086,"40":-0.024512964869014327,"41":-0.12261528477052103,"42":0.04416592608172475,"43":-0.13123541585877674,"44":-0.013624146929580373,"45":-0.027650192676058227,"46":0.16185610598768976,"47":0.1257002869398129,"48":0.16029635609763812,"49":-0.07371754559856387}},"15":{"bias":-0.09229186378849981,"weights":{"0":-0.1138326528074972,"1":0.024649155375329024,"2":0.0166407017314656,"3":-0.030123680311611344,"4":-0.1963202857384791,"5":0.17991915365648178,"6":0.17597405518541245,"7":-0.010527110081290963,"8":0.17106287994090946,"9":0.03865897670765067,"10":0.20067873256365554,"11":-0.11474071467269358,"12":0.06133341411640154,"13":-0.020695520585326713,"14":0.06724232678801009,"15":-0.0189411349308227,"16":0.021536668457578775,"17":-0.017271790466913073,"18":-0.13047763074016389,"19":0.1273787435506389,"20":-0.006106674579366907,"21":-0.1427426400565437,"22":-0.0899336679959408,"23":-0.04295064026995803,"24":0.18665037814968738,"25":-0.18461361898871823,"26":-0.19367294192376341,"27":0.0740958995244427,"28":-0.08686009629899677,"29":-0.0960041389826739,"30":0.03740247333252851,"31":-0.12253681264477977,"32":0.030380878749367287,"33":0.13000941107310718,"34":-0.14030880029902637,"35":-0.19840279484041162,"36":-0.04030080527365176,"37":0.11697201605240223,"38":0.06320388963474045,"39":0.03946381220921545,"40":0.11637446797601121,"41":-0.1318804348807917,"42":-0.07744735367679781,"43":-0.08664848456187388,"44":-0.09061030171976207,"45":-0.13302569948840384,"46":-0.17912466826434525,"47":-0.07577865899564691,"48":-0.05216183121200071,"49":-0.05201796113191299}},"16":{"bias":-0.03886282578930272,"weights":{"0":-0.07434458585523523,"1":-0.1076169845573633,"2":-0.14445480911570302,"3":-0.1374107539088397,"4":0.042984225478326574,"5":-0.050050078393024715,"6":0.047694021983923446,"7":-0.028948997399076807,"8":-0.06786380822687714,"9":-0.08719427579278152,"10":-0.13190656714918378,"11":-0.028699124369577018,"12":0.16333350633358606,"13":-0.043204617179630575,"14":-0.1830658669328197,"15":0.045601377477080846,"16":0.034660465477605526,"17":0.013936793460080924,"18":0.13965436624748837,"19":-0.09455740729916756,"20":0.16664705331027094,"21":0.14921614432899555,"22":0.0900379392907076,"23":-0.1140283659173074,"24":0.10906107555436846,"25":-0.0876656388497282,"26":0.020959619895838475,"27":-0.0404384236375032,"28":0.18038095000170123,"29":-0.15466662686529473,"30":-0.04713266910315241,"31":-0.1590260233129185,"32":-0.1712512160506749,"33":0.12312731104126722,"34":-0.1908297553985808,"35":-0.0062106040313627394,"36":-0.07989007796906539,"37":0.0007950455320223025,"38":-0.06357490475517154,"39":0.008923783267206225,"40":-0.18093691691908656,"41":0.08949863641383732,"42":-0.05714884228782706,"43":-0.012828928486395542,"44":0.09513020244791755,"45":-0.19958783876186278,"46":-0.007695187329435024,"47":0.10923168565596364,"48":-0.08694982985293445,"49":-0.04380725794278852}},"17":{"bias":0.052918510735815626,"weights":{"0":0.028805999676417816,"1":-0.05565190954475195,"2":0.11363167416421631,"3":0.055069611629386415,"4":0.0022576373142716216,"5":-0.14272044896904923,"6":0.08204877043857794,"7":-0.18965942897595298,"8":-0.11780360597801179,"9":-0.05546319366897175,"10":0.0858576300749687,"11":-0.18652862854517657,"12":-0.15774295242814187,"13":-0.0025239265081255296,"14":0.008399513806696127,"15":0.08708930166051283,"16":-0.055112992798935764,"17":0.11246307665900197,"18":0.14596229998158175,"19":0.15120467604853857,"20":0.03598689386172084,"21":-0.18447262919994048,"22":-0.046648113893329235,"23":0.13787774986831514,"24":0.12073932686264528,"25":-0.16479644633973195,"26":0.1788872684148908,"27":0.1323175323706772,"28":-0.04088070869647769,"29":-0.006703882644893427,"30":0.07629681011840603,"31":0.10855904502144284,"32":0.08729664552885816,"33":0.024533138344778712,"34":0.07893723093881912,"35":0.1314638913136113,"36":-0.15547454522146126,"37":-0.04249167616376752,"38":-0.16766117330264133,"39":-0.16356364481738545,"40":-0.015129586099836357,"41":-0.15387596170787868,"42":0.025931059296134786,"43":0.1738542888074501,"44":0.03778083126107901,"45":-0.17579799526482753,"46":-0.13738507693179977,"47":-0.06215264069605898,"48":0.06979641688900586,"49":0.09101993127206832}},"18":{"bias":-0.1467190126399338,"weights":{"0":0.031024228057625825,"1":0.10817516837410658,"2":0.027904331607099164,"3":-0.19412393512545292,"4":0.04575972298917922,"5":0.1623529748789189,"6":0.13511783285946025,"7":-0.08613431640676775,"8":0.056858902717616955,"9":-0.035557007020072307,"10":0.07026046229061725,"11":0.12431635137151201,"12":0.038962805249697315,"13":0.018222059190301253,"14":-0.04949775077676712,"15":-0.09974228730171884,"16":0.018941766468890352,"17":0.06682220003665673,"18":0.020213168323844444,"19":0.015483385373611215,"20":0.008688264279625194,"21":0.18729165192400446,"22":0.1625019102771907,"23":-0.10274436103251638,"24":0.19936695719671416,"25":-0.06272413878656347,"26":0.18236434094616225,"27":0.05583435847081082,"28":-0.11187516411498076,"29":0.08721350390169313,"30":-0.1628848051471924,"31":-0.001038495245622312,"32":-0.05355820511493312,"33":-0.12680546392475306,"34":-0.002669371736481022,"35":-0.05367492125194168,"36":0.1214938871829374,"37":0.18000645394703393,"38":-0.04843089744674578,"39":0.14468965216686888,"40":0.13611441598517074,"41":-0.13778586933295758,"42":-0.14202898706696318,"43":0.17939405911607367,"44":0.055762303228253096,"45":-0.024047316271964995,"46":0.12534793908725653,"47":0.0957112536513699,"48":-0.013294154251945548,"49":0.008756236355919308}},"19":{"bias":0.13025652031710702,"weights":{"0":0.005115041616433043,"1":-0.1678078707463665,"2":-0.03628885754926334,"3":0.13585859236659842,"4":0.17546545595074142,"5":0.1603851251877298,"6":0.09686204556124614,"7":-0.09600982931420682,"8":-0.17818451729078175,"9":0.06663934210416197,"10":-0.02737410862125418,"11":-0.11937832126277959,"12":-0.17772793561779235,"13":-0.08220478899568473,"14":-0.051129600954986004,"15":-0.12727537487594184,"16":-0.14636817539243532,"17":-0.08527294952370759,"18":-0.16580033462798605,"19":-0.04302497909610998,"20":-0.09395572507451647,"21":0.05550729090241505,"22":0.09803122040519364,"23":-0.012888236085750909,"24":0.18264264870321786,"25":0.1422625261817771,"26":0.17464610558975086,"27":0.19160561222785633,"28":0.1316968003944798,"29":0.07727082416100707,"30":-0.18008086470702034,"31":0.15376320452012732,"32":0.07851788735228078,"33":0.05774942839276316,"34":0.12475512757329191,"35":-0.18963339995297293,"36":-0.12800231279690333,"37":0.05046227792779324,"38":0.0817076408661834,"39":-0.06325629481947587,"40":-0.16752660553828216,"41":-0.04854661212675505,"42":0.14868752023695558,"43":-0.016970563551019613,"44":-0.039612130605295566,"45":0.05313663051995219,"46":-0.208565560684182,"47":0.0232892771704738,"48":0.18388747381842008,"49":-0.026393957910628464}}},{"0":{"bias":0.011553311831368887,"weights":{"0":-0.16061106827468533,"1":-0.33259097594627857,"2":-0.20854541333490356,"3":0.11552156654255694,"4":0.15652208014082503,"5":-0.07386400534433799,"6":-0.14061758931339996,"7":0.2577953348046053,"8":-0.25386327232195965,"9":0.11496617139463175,"10":-0.09089929594206834,"11":-0.08118884052000776,"12":-0.08082262673993805,"13":0.20994683648652265,"14":-0.19409875760103767,"15":0.18904266756274443,"16":-0.09834984932794144,"17":-0.22245524495965813,"18":-0.12384848024199577,"19":0.2674443999232783}}}],"outputLookup":false,"inputLookup":false}