{"layers":[{"0":{},"1":{},"2":{},"3":{},"4":{},"5":{},"6":{},"7":{},"8":{},"9":{},"10":{},"11":{}},{"0":{"bias":-0.1345891363020812,"weights":{"0":0.1972724274620516,"1":-0.026532558695131388,"2":-0.1341836284644346,"3":-0.09002513792302075,"4":0.05491941335753059,"5":-0.14448265962733275,"6":-0.15006831341626942,"7":0.08906539605616785,"8":0.034197049513151605,"9":0.18492077325389802,"10":-0.14482515165202534,"11":-0.15361729163350338}},"1":{"bias":-0.056262518378661655,"weights":{"0":-0.15975495824857053,"1":-0.11339586737112278,"2":0.15150734343917743,"3":-0.15347199400124856,"4":0.1776970822988159,"5":0.046161779863309556,"6":-0.18077943884278735,"7":-0.09060369800401703,"8":0.11627707678670274,"9":0.12368604142911271,"10":0.18305903348681907,"11":-0.1949425099163467}},"2":{"bias":-0.014989695146099578,"weights":{"0":-0.19604555757858183,"1":-0.012154671925591304,"2":-0.062008668055236645,"3":0.10445056155408201,"4":-0.1594706354369522,"5":0.18901277979774292,"6":-0.1448459265889215,"7":0.09794258959829433,"8":0.13366148368015685,"9":0.037631812381947634,"10":0.020621469656156046,"11":-0.17840780302946635}},"3":{"bias":-0.1261432809835414,"weights":{"0":-0.17047442639270474,"1":-0.027030257031969245,"2":-0.177067659579856,"3":-0.07555271694696607,"4":0.01593260848104603,"5":-0.0049229938617947775,"6":-0.16725958445835426,"7":-0.08006385280640717,"8":0.18276775515950805,"9":0.06911147901534571,"10":-0.009803480410053248,"11":0.11131959952568322}},"4":{"bias":0.13773160991914815,"weights":{"0":-0.17463199999649345,"1":-0.12254049724080679,"2":-0.14843713587676025,"3":0.08859237052214727,"4":-0.0689011328059162,"5":-0.0341475946700579,"6":-0.1730808722134797,"7":0.19448787352465552,"8":0.1271852188155521,"9":0.17035984048984984,"10":-0.00478085790184009,"11":0.1276660788920005}},"5":{"bias":0.13650905075497635,"weights":{"0":0.15328207575774444,"1":0.14569999416810087,"2":0.005341798936609772,"3":0.030497305129008338,"4":-0.02327427724952408,"5":0.1411730944488712,"6":-0.05457517475059349,"7":0.04372025979401125,"8":0.1560470931783166,"9":0.18950126179965956,"10":-0.0761269762183941,"11":0.05120059212289677}},"6":{"bias":-0.038286843878836276,"weights":{"0":0.11361079481997695,"1":0.0556892479739698,"2":-0.0290032030300643,"3":-0.19928685600343646,"4":-0.14130301097983383,"5":-0.16484959239571864,"6":-0.029669549130209198,"7":-0.1569178351274781,"8":-0.1640130564308811,"9":0.1849471597105932,"10":0.07292730044856681,"11":-0.11988597593928423}},"7":{"bias":-0.06412243541331065,"weights":{"0":-0.04333235492926385,"1":0.19675295579705637,"2":-0.05590855151662458,"3":-0.08031074597075451,"4":-0.07375129341344623,"5":0.06463006164872231,"6":0.015146019877625181,"7":0.023144601220227073,"8":-0.008122611648833284,"9":-0.12749521185996948,"10":-0.07521783937359439,"11":-0.018551447369349935}},"8":{"bias":-0.03412399556778161,"weights":{"0":-0.0984003057755288,"1":0.1887833512378377,"2":0.14778479737703892,"3":0.13486848803577464,"4":0.0990412759706058,"5":0.11222810276136434,"6":-0.14489781150764933,"7":-0.19043004542492636,"8":0.09960359282567208,"9":-0.006245891897712167,"10":-0.08219623284713981,"11":-0.04107420680489495}},"9":{"bias":-0.1803761819690716,"weights":{"0":0.02823003037868898,"1":-0.18808431747778623,"2":0.16009474450877778,"3":-0.09941928964772376,"4":-0.08454777171971059,"5":0.012734112594725316,"6":0.03340930875525975,"7":-0.16101320828003557,"8":0.08086931085766398,"9":0.19814296662819578,"10":-0.04040147071039574,"11":0.027483058821250784}},"10":{"bias":0.1349451366474608,"weights":{"0":-0.13512790920943765,"1":0.10352255705767571,"2":-0.06954466766406643,"3":-0.11161447772200357,"4":0.16219759958222515,"5":0.1820284242207193,"6":-0.18217273073861487,"7":-0.13764149706938242,"8":-0.1475347762925951,"9":-0.1245091984975364,"10":-0.12630315888059235,"11":0.17889251526385647}},"11":{"bias":-0.14250589902542288,"weights":{"0":0.11316590232792886,"1":0.08675739965072732,"2":-0.04781361500985301,"3":0.1482037470372459,"4":-0.15080615053326568,"5":-0.11201827968366597,"6":-0.029973235301018957,"7":0.14939533450937992,"8":0.11394745967751367,"9":0.028264691505886102,"10":0.15032556023286292,"11":0.18939612976262604}},"12":{"bias":-0.045277559823020445,"weights":{"0":0.13358921073332716,"1":-0.1481259640966177,"2":0.17403143757066994,"3":0.008289791378661652,"4":-0.16349839426869947,"5":-0.17111481495493422,"6":-0.0405894819957111,"7":0.1165082888043737,"8":0.03482053386212347,"9":0.1835974423129575,"10":-0.011425411278943962,"11":-0.15221006324142475}},"13":{"bias":0.19942373942792183,"weights":{"0":0.17092131830057336,"1":0.07912133175742306,"2":0.13045835486707102,"3":-0.10568198561387071,"4":0.05187038368496881,"5":0.15866989789274036,"6":0.11192922389988072,"7":0.16964891216382946,"8":0.17513092199566077,"9":-0.08311691745798656,"10":0.14106723698658763,"11":-0.07879324773964014}},"14":{"bias":0.1648852366423719,"weights":{"0":0.005911279515867115,"1":0.09664216188651907,"2":0.03483026181736993,"3":-0.12446507822697296,"4":-0.1184833308808629,"5":0.16876211665471844,"6":0.16216557615068833,"7":-0.14423106916030157,"8":0.0315606541372049,"9":-0.007909146376058012,"10":-0.031965053028376426,"11":-0.036671764816759676}},"15":{"bias":0.0729173277775447,"weights":{"0":-0.18173868224587433,"1":-0.043182644238659494,"2":0.18792566982335848,"3":0.134973333784066,"4":-0.09147256178545218,"5":0.09686693121772422,"6":0.06135115996249756,"7":0.06288276689557329,"8":-0.12040669898943049,"9":-0.18479234323153054,"10":-0.12832700540352787,"11":-0.16344963232976956}},"16":{"bias":-0.03030878884329697,"weights":{"0":-0.1771815294026535,"1":-0.1707832390193403,"2":0.19682822543652528,"3":0.011355499546224458,"4":-0.19195486921705235,"5":0.0794364879550834,"6":0.12801872532051833,"7":-0.12116296158504172,"8":0.03157732797830137,"9":0.07251482208011682,"10":0.03219499739751334,"11":-0.15325366876484856}},"17":{"bias":0.05163180555334783,"weights":{"0":-0.11079289022213562,"1":0.13888222354049873,"2":-0.03338707091399112,"3":0.0918686109597241,"4":0.03673216554291458,"5":-0.08137776245686573,"6":-0.08374619358613782,"7":-0.19978588295444008,"8":-0.18371020051479034,"9":0.1575758435137292,"10":0.036338995169880324,"11":0.008683394226281324}},"18":{"bias":-0.002802666106111737,"weights":{"0":0.02957763565189759,"1":0.18537473691860523,"2":0.13854126068458905,"3":-0.1514642613532105,"4":0.15838411029711005,"5":-0.1185972491070263,"6":-0.011951057176915691,"7":-0.1498689101204861,"8":0.14683234527903047,"9":0.19875975410648167,"10":0.1978857414305383,"11":0.12422018873479616}},"19":{"bias":0.0009506272580186273,"weights":{"0":-0.13035440190553266,"1":-0.055948152789238176,"2":0.0247159962623739,"3":-0.14552088681832542,"4":-0.10016862539805009,"5":-0.004334882695474728,"6":0.05669577444573648,"7":-0.0326973006604178,"8":0.13900989670578898,"9":0.030415675311774547,"10":-0.015864734224628623,"11":-0.03712601098947457}},"20":{"bias":0.14049669964329733,"weights":{"0":-0.051744552507256555,"1":-0.09316320606343562,"2":0.002719422851243931,"3":0.15968039283973756,"4":0.09642795186760819,"5":-0.06163988786634161,"6":0.046923626164483256,"7":-0.08851502922682777,"8":-0.03626983238954998,"9":-0.1715342708746346,"10":-0.10065214825605598,"11":0.17056168771163516}},"21":{"bias":-0.06113049428403866,"weights":{"0":-0.00516413515590135,"1":0.14009480490429663,"2":0.023647873127723547,"3":-0.09941657595384887,"4":-0.1261500410784047,"5":-0.15798525989248635,"6":-0.1458896109974653,"7":0.031380705034105866,"8":-0.1012562759316043,"9":0.09968210899738654,"10":-0.14834380589156304,"11":-0.006716392755626989}},"22":{"bias":0.13625497046268287,"weights":{"0":-0.12405135644586107,"1":-0.17195842328340527,"2":0.09348132656620178,"3":-0.10014767308297873,"4":0.010693556431049923,"5":-0.18800390975264564,"6":-0.001278406282090636,"7":-0.12379747843594024,"8":-0.19268689186526314,"9":0.16711226030487228,"10":0.0028088021091882158,"11":-0.06059804221702625}},"23":{"bias":0.17412811822328927,"weights":{"0":0.020247198574255457,"1":0.009908475255022458,"2":0.15224248704218588,"3":-0.11444585601566776,"4":0.1977099717324538,"5":-0.02616759338592046,"6":-0.13116695964649808,"7":0.14737093658498032,"8":-0.10341375919167292,"9":-0.07459290976552677,"10":0.0815973682928165,"11":0.07672382871180308}},"24":{"bias":0.052811898106854896,"weights":{"0":-0.09766660326452693,"1":-0.002552957468198959,"2":0.061333930602358686,"3":0.15684427450749006,"4":0.1629117509078431,"5":-0.04824431803949654,"6":0.030269043206505274,"7":-0.017443845229734495,"8":0.1751149882032077,"9":0.10538935661413226,"10":-0.05735860325354914,"11":0.09475511118224551}},"25":{"bias":-0.16377067012526725,"weights":{"0":-0.1203537945492825,"1":0.0945433865109691,"2":0.15707578146270865,"3":-0.016740167021475294,"4":0.11821423891907602,"5":0.048468285386775035,"6":0.10050634371383076,"7":-0.057473126926251575,"8":0.07063571296874548,"9":-0.007778138327961985,"10":-0.041128926699514574,"11":0.08386454297481316}},"26":{"bias":0.17849700365025822,"weights":{"0":-0.14241353156310002,"1":0.16543347764669658,"2":0.050698321887019344,"3":-0.007309894880448508,"4":0.05607126832109643,"5":-0.10462939816833447,"6":0.14503700023030197,"7":0.19493948913363854,"8":0.19549754966577135,"9":-0.06929671264026413,"10":0.12844410731198305,"11":0.13773158422291568}},"27":{"bias":0.1228292101647254,"weights":{"0":0.08045912479913604,"1":-0.05310010655057207,"2":-0.19795919196014908,"3":0.07843646820017729,"4":0.08118657432895451,"5":0.0580732681622673,"6":0.15224129147076887,"7":-0.13221344151435074,"8":0.015539295093581812,"9":-0.16145816612638234,"10":0.011527481613511664,"11":-0.123338873238123}},"28":{"bias":-0.015492293543968087,"weights":{"0":0.056134559958621634,"1":-0.0771577584551211,"2":-0.17823973476064245,"3":-0.16953559701455248,"4":0.13670846027535355,"5":-0.10072423764315037,"6":0.13940953775548925,"7":-0.059465694576135916,"8":-0.09414988709653675,"9":-0.06526304969222801,"10":-0.1123193103992637,"11":0.1308429980403821}},"29":{"bias":-0.16582897284397938,"weights":{"0":0.0927988854868371,"1":-0.15093799021176893,"2":-0.12493664862051652,"3":-0.16341187067589835,"4":0.13856599677460835,"5":0.17121590435646375,"6":-0.06531485461798368,"7":-0.0998934068503232,"8":0.01067238610996728,"9":-0.13272282787286244,"10":-0.018197950023209956,"11":-0.09679171802624252}},"30":{"bias":0.15663142851550474,"weights":{"0":0.13184353633673715,"1":-0.02534594484211321,"2":-0.17736046401156785,"3":-0.12686484543277016,"4":-0.0805422417956843,"5":-0.05723940229108958,"6":-0.04759694909320335,"7":-0.19653770998321424,"8":0.16711931062455837,"9":0.0950502803751339,"10":0.15561949320970891,"11":0.1383343101730266}},"31":{"bias":0.06950167761245751,"weights":{"0":-0.040676799523664826,"1":-0.011737174820637549,"2":0.04897130112068601,"3":-0.05378901630148063,"4":0.15660920205670878,"5":0.11855316321698256,"6":-0.13925016355077843,"7":-0.03942691946147897,"8":0.0034053300760589606,"9":0.022484936667102103,"10":0.015187438215681404,"11":0.17542758265355063}},"32":{"bias":-0.010133211412297338,"weights":{"0":-0.10923401759811559,"1":0.156716924390648,"2":-0.0622140826757778,"3":0.04731430103918215,"4":-0.05552348595009083,"5":0.03013033967673757,"6":-0.148718791858904,"7":0.12983516442564302,"8":0.0439885290522549,"9":0.135605883482392,"10":0.1537062800496704,"11":0.0546933844018365}},"33":{"bias":0.14971792580282822,"weights":{"0":0.09989179641940495,"1":-0.12899740818630734,"2":0.05847932656592929,"3":-0.026451712548215524,"4":0.12685424039992896,"5":-0.1766387562788651,"6":0.09910145339901583,"7":-0.15486335630533052,"8":-0.11067300539011903,"9":0.08275812241822766,"10":-0.13377156361441733,"11":0.0096893617697223}},"34":{"bias":-0.05714863554472857,"weights":{"0":0.10720594292290471,"1":-0.041106035050964156,"2":0.008512639253472749,"3":-0.11401511658253843,"4":-0.139362328893125,"5":-0.09994053342045305,"6":0.15075399779276863,"7":-0.15081701993387434,"8":0.12140436508897287,"9":0.1500062906010283,"10":-0.12359660069182556,"11":0.11023961243429645}},"35":{"bias":-0.185904412730555,"weights":{"0":-0.17412385728052046,"1":0.16057932794962756,"2":-0.07811091718425829,"3":-0.05902959381469707,"4":0.022471702403629466,"5":0.009636516573744924,"6":-0.08638767857419873,"7":-0.11693413233974463,"8":0.0951555394468986,"9":0.18913622909810396,"10":0.05707662485539471,"11":0.09743954904673056}},"36":{"bias":0.07049865254114147,"weights":{"0":0.1546530048893132,"1":0.1689863652443004,"2":-0.17646446102895325,"3":0.19681823521093345,"4":-0.10371602702235787,"5":-0.10272522539783902,"6":-0.10049279627304504,"7":-0.19194275926490165,"8":0.18461462849093507,"9":0.0972052988956108,"10":-0.11235338523493611,"11":-0.019858763064296184}},"37":{"bias":-0.008449269456916673,"weights":{"0":-0.1155225654469084,"1":-0.0501182196941462,"2":-0.08678206531640356,"3":-0.02650112593906595,"4":-0.03155790847257055,"5":-0.15638560034644897,"6":0.16790112504010357,"7":0.16010016365074203,"8":0.06963994840545874,"9":0.1833098842067036,"10":-0.04361836022888944,"11":-0.1360147466674642}},"38":{"bias":-0.1306872887057912,"weights":{"0":-0.17406047931806218,"1":-0.033401837932570115,"2":0.008512534896028134,"3":-0.15960988742089105,"4":0.06416765978449404,"5":-0.14242042661362606,"6":-0.17805429577966006,"7":-0.08936568144301463,"8":0.14798615537022577,"9":-0.06647005204248861,"10":0.16796744973682787,"11":-0.11242083853546857}},"39":{"bias":0.19755750383570714,"weights":{"0":-0.13817744694946654,"1":0.16551527005985323,"2":-0.032296697869104156,"3":-0.1508725085952211,"4":-0.19524349341432107,"5":0.0028598972356687615,"6":0.039378756762333836,"7":-0.0010767804232798956,"8":0.03555059966491482,"9":-0.042728197471440466,"10":-0.15946429441035825,"11":-0.051005971455376616}}},{"0":{"bias":0.031270703161478716,"weights":{"0":0.18850830704677926,"1":-0.03196916348195604,"2":0.06977197217209823,"3":-0.10277179430901652,"4":-0.12509185059982397,"5":-0.13156773768821528,"6":0.006213100562627543,"7":0.07690261035962803,"8":-0.004057855012840279,"9":-0.006507022497187656,"10":-0.08840812684271217,"11":-0.13415785765358376,"12":-0.0819855051077552,"13":-0.015818557420618027,"14":-0.08674583635435189,"15":-0.055250607004187255,"16":0.11861273693383256,"17":0.18562709155755294,"18":0.01733525191723032,"19":-0.0882871174287795,"20":0.14972897152112455,"21":-0.010462904828893057,"22":-0.0624384366481832,"23":0.10996367052933638,"24":0.1319865047640859,"25":0.08337793853278846,"26":-0.1711077835227742,"27":0.05203998607376793,"28":-0.15409519745429315,"29":-0.18672389505729067,"30":-0.15633632082606203,"31":0.17059406364614008,"32":-0.052859740341961635,"33":0.14591704228666916,"34":0.1732349765276948,"35":0.09322663121757768,"36":-0.17554636247574776,"37":0.017234722871413775,"38":0.02442582858222279,"39":0.04864754921525006}},"1":{"bias":0.12035784047383116,"weights":{"0":-0.07916005369520178,"1":-0.04556829694176121,"2":0.017648351036794224,"3":-0.08743611313333187,"4":-0.173024588665229,"5":-0.10258297759293827,"6":0.11410870836670803,"7":0.17899924852863772,"8":-0.17488741514666828,"9":-0.0520721340660842,"10":0.18038310657207107,"11":-0.1330216854210536,"12":-0.020725622388796414,"13":0.12286498170820909,"14":-0.140530252204808,"15":-0.12954349503057802,"16":-0.1737363903465915,"17":-0.1561358495529316,"18":-0.07130910518530363,"19":0.08263986907106054,"20":-0.11849061450268485,"21":-0.030636910561903992,"22":-0.009155693232386216,"23":0.04900884361227187,"24":-0.0638870647967726,"25":-0.03540370423140777,"26":-0.17968791219121094,"27":0.1476104014488648,"28":-0.09647404961298289,"29":-0.16754352086590238,"30":-0.15208886227997487,"31":0.0214616514121182,"32":-0.03164336496169927,"33":0.1636873201462353,"34":0.05775276036385695,"35":0.15267478720408612,"36":-0.12043323065228213,"37":0.030133546143916612,"38":-0.15149893777067147,"39":0.11755886535496651}},"2":{"bias":-0.11788459909191279,"weights":{"0":-0.07827191109914738,"1":-0.13228767916758705,"2":0.06373301600418023,"3":0.07476622596193062,"4":-0.0560880768722258,"5":0.06664235286771338,"6":0.03786165060046237,"7":0.15015510457949083,"8":0.19522867779164993,"9":0.1510866012603184,"10":-0.07297747749923975,"11":-0.12051306319573334,"12":-0.14105060439574343,"13":-0.08537834784811087,"14":0.11564710602009881,"15":0.014690504037540639,"16":0.06941500368589745,"17":-0.0589129322238158,"18":0.11500478160985013,"19":0.015367766738660985,"20":0.0949687292596736,"21":0.16928250594816885,"22":-0.022762484507035517,"23":0.04156054703137495,"24":0.11622898622623787,"25":0.08792385597377636,"26":0.03658956888299402,"27":-0.1747139027029897,"28":0.09920801523011752,"29":0.02292606852547998,"30":-0.16630148630663136,"31":0.013427403201903863,"32":0.019443928406075506,"33":0.168431379041958,"34":0.1428426628740858,"35":0.16253000692576913,"36":-0.15132796681407884,"37":0.13082923077839742,"38":-0.1352870584273951,"39":0.16308466571150443}},"3":{"bias":-0.07514599631943818,"weights":{"0":0.017374263426216188,"1":0.14119932929743978,"2":0.06405877644610798,"3":-0.055606050272406275,"4":-0.18429748983560484,"5":-0.12153835479932645,"6":0.045009077697856226,"7":-0.15996152137851424,"8":0.1581704766440087,"9":-0.06593138513439378,"10":-0.010876774911830929,"11":-0.06326841201521943,"12":-0.0819005557591564,"13":0.09659052138326248,"14":-0.13875483636840277,"15":0.007611792436940535,"16":-0.023275248132414578,"17":-0.02598507310172907,"18":-0.13340436675796458,"19":0.050544201494331795,"20":0.12280105440434531,"21":0.16082088727172184,"22":0.06271787027441872,"23":-0.0933012148563567,"24":0.0823544188560431,"25":0.15011974189031804,"26":-0.06446438544462449,"27":-0.1960111351460419,"28":-0.01272622558493204,"29":0.0843077689229811,"30":-0.04547518520571911,"31":-0.16773363252599327,"32":0.06157224514003778,"33":-0.1833163933468673,"34":-0.034026740306920135,"35":0.07406439216967434,"36":0.1074912879738674,"37":0.08935915384735135,"38":-0.19515628476721233,"39":0.02644401002060935}},"4":{"bias":0.0914602104066969,"weights":{"0":-0.010260155472035841,"1":0.1324387790637706,"2":-0.053857797269393465,"3":-0.15983103262902643,"4":-0.1041168579156764,"5":-0.1535349509990455,"6":-0.18475895837413123,"7":-0.14798712247708354,"8":-0.04580849118041268,"9":-0.11188330667884669,"10":-0.020933302201457414,"11":0.14356948016088436,"12":0.16661724864401944,"13":-0.1355784607149441,"14":-0.1581716088607335,"15":0.1098830278154863,"16":-0.1955347066816862,"17":-0.11685429052333689,"18":0.1929071834988946,"19":-0.1918677728392738,"20":-0.13462893168738413,"21":0.08873789654092663,"22":-0.025101212474491666,"23":-0.04705592242435949,"24":-0.13415651943622045,"25":0.19973673565400374,"26":0.003777712797796579,"27":-0.12825657588443473,"28":-0.005292819863111015,"29":0.19574791291419688,"30":-0.08335861816327501,"31":-0.06145879315681944,"32":0.11999822235856564,"33":-0.1609411933355106,"34":-0.17149927986456445,"35":0.13378488181988057,"36":0.1576492402272125,"37":-0.13447155857335297,"38":0.06409678870408345,"39":-0.008302753516607234}},"5":{"bias":0.07646809353224096,"weights":{"0":0.19369119742229107,"1":0.002122879686390526,"2":-0.04808992024181519,"3":0.08925021964762357,"4":-0.0423299580038951,"5":0.10082499777466832,"6":0.15573199297411827,"7":0.08880612101750851,"8":0.08772612833945259,"9":-0.13007280051640463,"10":-0.19663700280662594,"11":-0.009962405018428431,"12":-0.06944256693339054,"13":-0.026601404917241375,"14":-0.17569568559732757,"15":0.16237665773471902,"16":0.1569271724341569,"17":0.040566382822896915,"18":-0.004578793595678143,"19":-0.1100307631297391,"20":0.1879500347411652,"21":-0.010071091073405683,"22":0.12176772140441612,"23":-0.16293897302602384,"24":-0.028519679062090363,"25":-0.1101198546205981,"26":-0.15714390992298838,"27":0.06685270501901454,"28":-0.18926487467448402,"29":0.15024537966952786,"30":-0.19104028420826483,"31":0.1978402074818138,"32":-0.10497259108528567,"33":0.14116364794049216,"34":-0.13231944743121576,"35":0.001503362051323657,"36":0.19067214168066962,"37":-0.1212695503193517,"38":0.09470959379479399,"39":-0.0559498516536293}},"6":{"bias":0.0018630686845783895,"weights":{"0":-0.10417082035791433,"1":0.13455796619450555,"2":-0.12680910782496127,"3":-0.07841467475027948,"4":0.0925413281590944,"5":-0.18535784628293248,"6":0.15370214055526618,"7":0.09713425490186113,"8":-0.15200022825505313,"9":-0.0430582123682593,"10":-0.18549587210951227,"11":0.06499744493080359,"12":0.05256646259292124,"13":-0.024729053451502572,"14":-0.00514371317818507,"15":-0.09653368150783719,"16":-0.045296441071675374,"17":-0.10613450398706914,"18":0.060056040568373034,"19":0.01664907865379881,"20":-0.1741079294265511,"21":-0.06313251038628577,"22":0.11146414808658943,"23":0.04164015570958238,"24":0.15933733924693527,"25":-0.14489371668815548,"26":-0.1770153475219678,"27":-0.09264043611359561,"28":0.1434645080403543,"29":0.18705204283338994,"30":-0.07880880633943017,"31":0.052378261303642724,"32":0.17397841907627584,"33":0.02976892353347903,"34":0.12224346757791148,"35":-0.10412019847538213,"36":-0.14934129468753227,"37":-0.10490568631938638,"38":-0.10980874957594917,"39":-0.1711582508432673}},"7":{"bias":-0.06976797776574553,"weights":{"0":0.029579987434527295,"1":0.13879971366355506,"2":-0.003729163600171911,"3":-0.02417118733577833,"4":0.13019330719033814,"5":0.02110387714502129,"6":0.17117204781203305,"7":0.06483649734507411,"8":-0.04894914920011903,"9":-0.1056798811641339,"10":-0.017094471718995235,"11":-0.12004414962793802,"12":0.0430711746423883,"13":-0.015417430095354885,"14":-0.11621065730835582,"15":0.10713860386270986,"16":-0.05344471728053976,"17":0.12788217061396384,"18":-0.011050317465868133,"19":-0.03742568620479265,"20":0.18983658750433108,"21":0.1279430005498774,"22":-0.13165030607073927,"23":-0.18704216930940348,"24":0.18811140228680656,"25":-0.10980327262634061,"26":0.06862366163122524,"27":0.054497453620298494,"28":0.03062351975574949,"29":-0.09366348163243303,"30":0.032623913570796956,"31":0.1754783115510185,"32":-0.05490270729799283,"33":-0.12983385503562017,"34":-0.04256312981895945,"35":-0.15543858692518894,"36":0.04903019336427119,"37":0.12723361073225975,"38":0.04796696412033364,"39":-0.11593363615636759}},"8":{"bias":-0.09978629570302297,"weights":{"0":0.09168851231422116,"1":0.18640502951397464,"2":0.006194983950048977,"3":0.03249689150390831,"4":0.1814614455036699,"5":-0.12308953009903952,"6":-0.1233748229166598,"7":-0.008887177793312193,"8":-0.12257020371666179,"9":0.12936857507691912,"10":0.13835144630991794,"11":0.16857211113254147,"12":0.0064565154206064415,"13":0.012649297162167865,"14":-0.01937856925832319,"15":-0.08051187818633689,"16":-0.044372141084403426,"17":0.10982573110929392,"18":0.030047171366167743,"19":-0.19783858824638648,"20":-0.010900211090851588,"21":-0.08050836620408415,"22":0.09646137903602695,"23":0.12345717003606875,"24":-0.06590160103931578,"25":-0.026061313354600227,"26":-0.11881251127125916,"27":-0.15544555902468393,"28":-0.1500439967756856,"29":-0.03366375937857265,"30":-0.056060519805499504,"31":-0.04062570342912002,"32":-0.1763746029734784,"33":-0.06111132468537534,"34":0.08351451114778594,"35":-0.13049463593979485,"36":-0.08797940154700976,"37":0.034554830674792994,"38":-0.017175700409366133,"39":-0.06413171582545131}},"9":{"bias":0.15574032372009552,"weights":{"0":0.03806462746209042,"1":0.1338932092198515,"2":0.05424976157822346,"3":0.1991593849164207,"4":-0.1203426824734503,"5":-0.08739260061088955,"6":0.11649946638113552,"7":-0.019105942020503072,"8":0.0719872479766202,"9":-0.015269003686503704,"10":-0.18857837904385363,"11":0.15029193225130735,"12":0.11165450864014986,"13":-0.029685996296116905,"14":-0.11528957401848394,"15":0.06498563993344045,"16":0.03993201668614917,"17":0.08459981432937244,"18":-0.008443840515935651,"19":-0.15033275849345096,"20":0.00947180931184395,"21":0.14507318367471295,"22":-0.08964043628003288,"23":-0.08723734483115711,"24":0.13954112432837615,"25":-0.06733056466832374,"26":-0.01616623200595739,"27":-0.14185772339513306,"28":-0.06279155374020416,"29":-0.16262062760886223,"30":-0.07907225499089106,"31":0.10704566457678422,"32":-0.09165312704136691,"33":-0.013910812505881305,"34":-0.02261962994075618,"35":0.18586104274393792,"36":-0.07408230860674998,"37":0.14188137014082422,"38":-0.059068294956092615,"39":-0.08894281652585237}},"10":{"bias":-0.06826526431454749,"weights":{"0":-0.16350825653009932,"1":-0.18106215167335565,"2":-0.11364974660267681,"3":0.12520414825082002,"4":-0.024261990144868708,"5":0.12246370064015345,"6":-0.06552183298620638,"7":0.07789362184291987,"8":-0.00425860513046027,"9":0.12986429127097204,"10":0.024400939154127915,"11":-0.17534992741102104,"12":-0.1060837291920342,"13":-0.1995460445554062,"14":-0.05894837274979624,"15":0.07860437666965193,"16":0.05132952472970588,"17":-0.1309874967546734,"18":-0.0047470715971622435,"19":-0.04968340138942105,"20":0.020329726777104103,"21":0.15641551836523862,"22":-0.11821196468931283,"23":0.13469105802349732,"24":0.17607403898251053,"25":-0.029312023525901842,"26":0.18913840790057304,"27":0.09632269543546308,"28":-0.11785907085776269,"29":-0.07405063142601584,"30":0.1388080765314654,"31":-0.06376581768179315,"32":-0.13050926287991954,"33":0.13263007067432817,"34":-0.13888620104015748,"35":0.15439703623563372,"36":0.056803771614543946,"37":0.14661860034742147,"38":0.17172745546582682,"39":-0.13418014273889808}},"11":{"bias":0.10660071880287297,"weights":{"0":-0.09627243879884645,"1":-0.13788254088762528,"2":0.05650563670092855,"3":0.04260639158365171,"4":0.051690855997537484,"5":0.06693141400205704,"6":0.04535449972645315,"7":0.18724817369733276,"8":0.15633709406499935,"9":0.1814491509955903,"10":0.15064783531625017,"11":0.19771305984250584,"12":-0.16144473459268305,"13":-0.059028842680421016,"14":-0.16382056518077315,"15":0.1489937045821285,"16":0.10978387389988585,"17":0.19658557155211984,"18":-0.20005186777843323,"19":-0.10866854078519149,"20":0.09640989083088149,"21":0.029823671675636057,"22":-0.19627188445850752,"23":0.14040979191684477,"24":-0.05152173266420871,"25":-0.1808892222530839,"26":-0.05784095193598146,"27":-0.011270429226579393,"28":-0.12929731814003825,"29":0.13800009978950048,"30":-0.1116418071598675,"31":-0.15326876216417612,"32":-0.1014739677085789,"33":-0.1848501650704511,"34":-0.09075857127066767,"35":-0.1861281647781365,"36":0.044861371424657785,"37":-0.0261130449123339,"38":-0.08475317825264697,"39":-0.09761017602891953}},"12":{"bias":0.052583778679426346,"weights":{"0":-0.07511331349738938,"1":0.004711583819710766,"2":0.1683169544186925,"3":-0.10910263083856217,"4":-0.01765097098311309,"5":0.05108222714759007,"6":0.04159866727720368,"7":0.0371591810626028,"8":0.1621714757938554,"9":0.17628566764943676,"10":0.011631215451958603,"11":-0.15245467639230287,"12":-0.07868808203310447,"13":0.04650189515537602,"14":-0.11590939978793789,"15":-0.16574296276555092,"16":-0.1708874681063411,"17":-0.13877158967788253,"18":-0.07174813434188815,"19":-0.19151369520834896,"20":-0.17088735219325496,"21":0.17042498463107575,"22":0.16192796450166333,"23":0.011756591345031086,"24":-0.03741468161417571,"25":0.19935896719352514,"26":0.11458165809823755,"27":0.0015384900368211928,"28":0.14224451580959466,"29":0.16184072713657882,"30":0.10894982075929545,"31":-0.0016408995743915499,"32":-0.07105022324722994,"33":0.13320611180716843,"34":-0.07603029441221705,"35":0.19546100998712107,"36":0.12013051152692591,"37":0.060683732188560144,"38":0.1486750062739783,"39":0.10251309719705061}},"13":{"bias":0.14136527232307639,"weights":{"0":0.154682155157417,"1":-0.19639940094869124,"2":0.0026975532723938806,"3":0.12492149658686694,"4":0.03224192490632139,"5":-0.09462456524314862,"6":-0.023618802202002093,"7":0.033866614849021565,"8":0.03444477787639356,"9":-0.19953840991212207,"10":-0.023892687473364576,"11":0.18574870668170546,"12":0.03182300676009914,"13":0.11209335599941063,"14":0.003494093498552755,"15":0.07725893349125634,"16":0.1889529946132377,"17":-0.0059091991135699715,"18":0.06835786709413876,"19":-0.08801226713957155,"20":-0.07094144277834591,"21":0.1430217129618004,"22":-0.1666765542485462,"23":-0.11269384753730424,"24":0.19629812201662367,"25":-0.008771275782869535,"26":0.1577841338583739,"27":-0.15574193075417792,"28":0.11762465007620393,"29":0.14197174394567538,"30":0.15489985819085053,"31":-0.017661780302276248,"32":0.18342308565214888,"33":-0.15136565517112938,"34":0.18420899175522995,"35":0.11497975140068445,"36":0.07869796945954649,"37":-0.15422690424565103,"38":-0.19680977437547467,"39":-0.02025968386883341}},"14":{"bias":-0.08924073608808372,"weights":{"0":-0.12242621355059037,"1":0.14113522350855146,"2":-0.16367186228714312,"3":-0.041026215431817836,"4":0.0746101997235367,"5":-0.03635089490230337,"6":-0.17576263185047555,"7":0.10194979755622405,"8":-0.1143046500792576,"9":-0.0438391277636408,"10":-0.09693231274587649,"11":0.12763661826666323,"12":0.11274071605784915,"13":0.13269779266032736,"14":0.1488318968891759,"15":-0.10175328125339879,"16":-0.09766684633960693,"17":0.07565270743888498,"18":-0.1913570198710484,"19":-0.18250886702647515,"20":0.15060155573432818,"21":-0.14517062089954452,"22":0.09877456121119504,"23":0.18235842307156766,"24":0.15974116628420632,"25":0.0832371251696247,"26":0.003171955166625099,"27":-0.017494293806872237,"28":0.19153433550975463,"29":-0.01799703027213163,"30":-0.1137827135597216,"31":0.1558598455137095,"32":-0.040878907203597034,"33":-0.009128548850508867,"34":-0.05777461445875962,"35":0.17702972525727548,"36":-0.0440378080560015,"37":0.13015190780206895,"38":0.03556395244834884,"39":0.01161999786010281}},"15":{"bias":-0.1017146338567842,"weights":{"0":0.03846467101116534,"1":0.04035582828129673,"2":0.05899786060387123,"3":0.0837439769974369,"4":0.02034200641601605,"5":-0.09153210453787998,"6":-0.08290082625557464,"7":0.02674650141562706,"8":0.048381344974549115,"9":-0.09386209850690481,"10":-0.06742246629839944,"11":0.02647868034665314,"12":-0.05957398743032098,"13":0.02026893613006052,"14":-0.05964266252742578,"15":-0.19874250306424152,"16":0.1757651075008017,"17":-0.012933910077621137,"18":-0.16984394463221306,"19":-0.15541169292155585,"20":-0.1439873653060187,"21":0.14743602864609673,"22":0.16587500683256207,"23":0.1561789109011736,"24":0.011026313702001902,"25":0.161308557782263,"26":0.10409282248935088,"27":0.18550232308682094,"28":-0.11791828306716001,"29":0.02748741713836052,"30":0.1224155355152175,"31":-0.0472446292747602,"32":0.03303462014879359,"33":0.18227710438584452,"34":-0.001724030770694223,"35":-0.050739287208088735,"36":-0.019607964650718863,"37":-0.046894389794933385,"38":0.18221977964717137,"39":0.17870949522454405}},"16":{"bias":0.16782818116503773,"weights":{"0":-0.11242916526873226,"1":-0.1046990891393305,"2":-0.036173897507008786,"3":-0.09654663549552811,"4":-0.17357177202753155,"5":-0.1500665787676705,"6":-0.1131913817684848,"7":0.1890406991159159,"8":-0.16620447616365128,"9":0.052909586613836684,"10":0.026660049649841075,"11":0.1665583240670876,"12":0.0657968900684688,"13":-0.042474747472168915,"14":-0.015131195926649974,"15":0.16646966372743865,"16":-0.06872304642576418,"17":0.05409654722160832,"18":0.16077832376558207,"19":-0.19035662151411,"20":0.13202840459770426,"21":-0.025775485620774766,"22":-0.07667304646413725,"23":0.18576343027473227,"24":-0.12638313000907472,"25":0.18401388488984433,"26":-0.022991575989622197,"27":-0.17261848254799106,"28":0.018282284615235414,"29":0.14757799765013097,"30":0.11695243976209217,"31":-0.12074694549045926,"32":-0.12089765900472989,"33":-0.008173600722453666,"34":-0.13590204299037967,"35":0.03632376775892606,"36":0.08505818909120716,"37":0.1658425415948596,"38":-0.16606954610806654,"39":-0.1496598114732768}},"17":{"bias":0.0019201375786704466,"weights":{"0":0.05381612461286953,"1":-0.06526540677860508,"2":-0.19968934807504415,"3":-0.0234278026672248,"4":-0.048144798362903626,"5":-0.13782114261847137,"6":0.14836750701317705,"7":0.1614868764711375,"8":0.15833642732303654,"9":-0.07653346536436835,"10":0.010020937411385673,"11":0.19884742139127085,"12":-0.07828198937176148,"13":-0.12258096478075273,"14":0.11113901192481747,"15":-0.028587555962038224,"16":0.032379876303055104,"17":0.07287676126961459,"18":-0.12082056960313074,"19":0.018008830070879205,"20":0.0652071280475699,"21":-0.11091334570119095,"22":0.14893065503686925,"23":0.14245606492253832,"24":0.13400411969785556,"25":0.0008440902874669819,"26":0.03447696387094413,"27":0.14337594318269267,"28":0.020382994361388886,"29":0.13576552676793613,"30":0.009451560821308663,"31":0.014278767510315352,"32":-0.06727114709197017,"33":-0.03765171232352765,"34":-0.07174548956211581,"35":-0.17411054872783926,"36":-0.13668278570253267,"37":-0.16885657403033524,"38":0.05666456987514935,"39":-0.04773542185687276}},"18":{"bias":0.09450291737910753,"weights":{"0":-0.15808917003787523,"1":0.06878166973422012,"2":-0.03104875504216904,"3":-0.045015699880335235,"4":0.049556555566337875,"5":0.004668868643867865,"6":0.07434159884968364,"7":0.05412667269314938,"8":0.16654971555391568,"9":0.09082822743192104,"10":0.1310165065640031,"11":-0.06897731218573577,"12":-0.040593647151650154,"13":0.1536574251394023,"14":0.1441089523668299,"15":-0.0484642114683207,"16":-0.07834813513535031,"17":-0.14315017051934856,"18":0.09031192864853403,"19":0.016629301387155498,"20":-0.06052173711409274,"21":-0.104914647272128,"22":0.03650226075414326,"23":-0.01604493201913928,"24":0.07702155293326408,"25":-0.19880161197471358,"26":-0.11486869933523915,"27":-0.19309506431623616,"28":-0.12859610702065108,"29":0.1398378512942415,"30":-0.02293729068140279,"31":0.10539498753003515,"32":-0.19015291529248496,"33":-0.08684621851256459,"34":0.14030078574999427,"35":-0.05527385174244591,"36":-0.19358442854218383,"37":-0.05840192146037408,"38":-0.10509504709396364,"39":0.012390488999881903}},"19":{"bias":-0.04010907447842588,"weights":{"0":0.18508794642887422,"1":0.02932922303671681,"2":-0.10345083343852422,"3":0.04111190055369775,"4":0.10289316868414275,"5":-0.0644482853011289,"6":-0.040343598787423905,"7":0.15484633285847785,"8":-0.06413930490541375,"9":-0.02293196262888843,"10":-0.07910921140117337,"11":0.12230874487558552,"12":-0.1809092133786057,"13":-0.13096026057171872,"14":-0.009375414053193901,"15":0.043716941426231164,"16":-0.12525394258014683,"17":0.14986855411041627,"18":-0.12409111204210851,"19":0.08056786892369415,"20":0.16837304609911785,"21":-0.11728897560567152,"22":0.15791344082836972,"23":0.06709338504168282,"24":0.17468079027094585,"25":0.07073863659964863,"26":-0.09150280904518612,"27":-0.17299814698523605,"28":-0.14534952518410132,"29":0.017902752150608613,"30":-0.16874789831813417,"31":0.1461042307125061,"32":-0.17137823888085615,"33":0.13272883523202436,"34":-0.1571978373143982,"35":0.19400491366007364,"36":-0.1080711814474973,"37":-0.16841060488842763,"38":0.030980607129911606,"39":-0.07852550693244675}},"20":{"bias":0.118518348090755,"weights":{"0":-0.19331338645426144,"1":-0.055599992809121555,"2":-0.12339402560827803,"3":-0.1274264134267353,"4":-0.03589082211250507,"5":-0.07832261355092274,"6":-0.15942619303223274,"7":-0.01671792612989379,"8":-0.11933386264709271,"9":0.08553027755041973,"10":0.16448541022359633,"11":0.11582883450922005,"12":-0.029111046002815624,"13":-0.1928954456670894,"14":0.0916119560722083,"15":-0.12643385008743074,"16":-0.11936120961297178,"17":-0.18146296487504684,"18":0.012431126193937563,"19":0.007482065095221189,"20":-0.024008402940870446,"21":-0.17432302741887815,"22":-0.16316699301888501,"23":-0.03800132732202849,"24":-0.014073763071748999,"25":0.13265055529875758,"26":0.12196106620337697,"27":-0.07786653698661312,"28":0.021677720237016807,"29":-0.07961627185097872,"30":-0.06562804267167008,"31":-0.07274298635606494,"32":0.13053109586269088,"33":0.1411797626980108,"34":0.042334144970242515,"35":0.0807288834002338,"36":-0.10049545540285296,"37":0.17694683788801097,"38":0.16746849341570025,"39":0.024982060380990316}},"21":{"bias":-0.06280706209929122,"weights":{"0":-0.12245368361177433,"1":-0.037268323638608894,"2":-0.146919916543162,"3":-0.05132330207101844,"4":-0.04759424053544771,"5":-0.13812753292406732,"6":-0.07682497225075371,"7":-0.07124703833921348,"8":-0.07013125517245306,"9":0.061501014554632784,"10":0.05508618318815865,"11":-0.009519381415266278,"12":0.18882020650835896,"13":-0.07097796619019645,"14":-0.012047352998014516,"15":-0.05597090946347738,"16":-0.0935533255881382,"17":-0.0768694252645248,"18":-0.003206309532627726,"19":0.15242450389987383,"20":0.06199731077825457,"21":-0.09613127635088896,"22":0.016609213688628006,"23":0.10184362713123697,"24":0.15565674751601324,"25":-0.18572506719105566,"26":0.16186215527766,"27":-0.11539068849325353,"28":-0.06687271967829893,"29":0.007073492304189123,"30":-0.03370865811888319,"31":-0.14114670091807618,"32":0.17181511039552425,"33":-0.02992262999657388,"34":-0.04388269680811066,"35":-0.17300547696188137,"36":-0.01415096480661258,"37":-0.05064121262082351,"38":0.08942769751383026,"39":-0.12829318506722062}},"22":{"bias":-0.19159919343612172,"weights":{"0":-0.1855193422472965,"1":-0.17998557759185513,"2":0.12273581260116671,"3":0.024129649293202417,"4":-0.17435005049127042,"5":-0.16263978255451575,"6":0.02476732579014389,"7":-0.04988083744941424,"8":0.06939367651093101,"9":0.018553212043756286,"10":0.15370335707118737,"11":0.12857831942017628,"12":-0.18705805827617475,"13":-0.018585691892495176,"14":-0.0845926873090077,"15":-0.09128672227224534,"16":-0.1605194050586822,"17":0.08594743426329096,"18":-0.07703395488392058,"19":0.10684432636684527,"20":0.04809897581193984,"21":-0.09059394216897734,"22":-0.013042083963663556,"23":0.04446818916193479,"24":0.05648962538918476,"25":-0.036234631356210766,"26":-0.1301140019947355,"27":-0.09026102394199866,"28":0.08010735962893493,"29":-0.08461918324793948,"30":-0.1184605899773152,"31":0.03309789237276538,"32":0.145621728469975,"33":-0.1997638112806995,"34":0.16133236151126884,"35":-0.025011492067000658,"36":-0.12504388532690897,"37":-0.09345658086031532,"38":-0.1551560142669466,"39":0.03604061942447583}},"23":{"bias":-0.005338352231701119,"weights":{"0":0.09412277052225275,"1":0.05875881743234388,"2":-0.09080345245873887,"3":0.027325341720621014,"4":0.07249958723654258,"5":0.13362175144346325,"6":0.19748350499437625,"7":-0.18569132680741374,"8":-0.004009661325150177,"9":-0.008017706566889165,"10":-0.07539866319454722,"11":0.16957678940116558,"12":0.1905196505914668,"13":0.17495625895523703,"14":0.07606170777657656,"15":-0.008767458525741118,"16":-0.18291274624961473,"17":-0.18461072751137766,"18":0.0018754387238864461,"19":-0.14418143011462334,"20":0.05866518754715171,"21":-0.14547437108624914,"22":-0.11806145288264674,"23":-0.174338543167004,"24":-0.029313871859582046,"25":-0.0800170136737401,"26":0.17294922153945763,"27":0.03963085166162822,"28":0.08209542513891421,"29":0.008692969116513936,"30":-0.06999411628932914,"31":-0.16155580006562437,"32":0.16796865255646373,"33":0.1691821879919944,"34":-0.014111626648798265,"35":-0.16967523821307395,"36":0.1634316828634544,"37":0.05326485887823636,"38":-0.08586366390356716,"39":-0.01057702454199641}},"24":{"bias":0.03394829659884116,"weights":{"0":-0.14533106266828105,"1":0.10884462116040193,"2":-0.14947884151080654,"3":0.13367371538776784,"4":-0.1493544153192198,"5":-0.09568348892227128,"6":-0.11925878832949303,"7":0.13068945232330118,"8":0.08248671749294498,"9":0.19954486143257774,"10":0.05272433371795806,"11":0.19777448827403687,"12":0.032199247954199234,"13":-0.06802927155367945,"14":0.06182266448309216,"15":-0.16501420338621248,"16":-0.01919618592222203,"17":0.025484505833540845,"18":0.16592239997038394,"19":0.01634898288175404,"20":0.04948784414491203,"21":-0.05320855923014494,"22":0.039058843605940356,"23":-0.15357607159445402,"24":0.11191084338032457,"25":-0.09317420828191884,"26":-0.1309306761397494,"27":0.06222723466556702,"28":0.1285289184223446,"29":-0.09129550425582389,"30":0.15407782856863683,"31":-0.05562446383670307,"32":-0.06441594659289361,"33":0.04684472663739801,"34":0.19060748785085865,"35":-0.1491053419953911,"36":0.1778278854788474,"37":0.19658042207116178,"38":0.1452557006624104,"39":0.17080605757744727}},"25":{"bias":-0.1923087694271644,"weights":{"0":-0.02535846397771537,"1":-0.19898713733491125,"2":0.06532113365996588,"3":0.16914042797890813,"4":0.10689838137729102,"5":-0.05558962345498186,"6":-0.045085800422998125,"7":-0.13839257387874054,"8":0.05139616633618731,"9":-0.17384391341201114,"10":0.0984325441081858,"11":-0.10436557705298416,"12":0.09235647245442329,"13":0.0577523668986934,"14":-0.09985277515066807,"15":0.07976205076361477,"16":0.18517982146390818,"17":-0.09505966093363853,"18":-0.008946521703154993,"19":0.08267443958363037,"20":-0.10668751935986338,"21":0.1703210466714863,"22":-0.11086537754529548,"23":0.09155739781997707,"24":0.20120461513804483,"25":-0.10738354185124273,"26":-0.02382120190386018,"27":-0.15221082355515073,"28":0.04293765545096544,"29":0.05252758232375331,"30":0.17126761762288215,"31":-0.18300164811858471,"32":-0.0030097048689704674,"33":0.1715571025571864,"34":0.03814670204437327,"35":0.0021851242425923794,"36":-0.09829917737754006,"37":0.0022431241655187853,"38":0.026615279311021766,"39":-0.15398233335032968}},"26":{"bias":0.1245375061721975,"weights":{"0":-0.06349682069498645,"1":0.14507968557101264,"2":-0.16579334762610912,"3":-0.11015421611320098,"4":-0.13691845191894192,"5":0.199239019193322,"6":-0.1568838246813849,"7":-0.0628416621831002,"8":0.05038609632587216,"9":-0.08491442866808582,"10":0.06372626372044858,"11":0.08417074501577089,"12":0.03212432542891404,"13":-0.04245382689567247,"14":-0.015003197902258025,"15":-0.07487107612205578,"16":0.1862898854603733,"17":-0.007107285876545343,"18":0.15786531990793579,"19":-0.011163876419028704,"20":0.12786613219661674,"21":0.06158348221923549,"22":-0.04468340879351192,"23":0.04135259866077547,"24":0.19312161682585005,"25":-0.018951726947935205,"26":0.1543939817258834,"27":0.18645345604862873,"28":0.14986158504444147,"29":-0.03485285518666801,"30":0.1472215481616851,"31":-0.05183121267089246,"32":0.006653570724263734,"33":0.18359062665534034,"34":0.06112572857158664,"35":-0.05433741264936625,"36":0.08708791216196016,"37":0.12295288665043658,"38":-0.13974187609511415,"39":-0.19415026866876392}},"27":{"bias":0.0231962675168297,"weights":{"0":0.1613746758589898,"1":0.0848852003225088,"2":0.0573718534314067,"3":-0.19019523009273367,"4":-0.1956219137744259,"5":-0.12734588157858806,"6":-0.06340102544136132,"7":0.0000685716137565424,"8":-0.02450932553430846,"9":0.026235173908291415,"10":-0.04536553106233198,"11":-0.04069895051858319,"12":0.10752350915283926,"13":0.15098399498783746,"14":0.0646995589063307,"15":0.04756551993766161,"16":-0.1680197703493032,"17":-0.07112474249728902,"18":-0.18214099428025066,"19":-0.0582220458709435,"20":-0.004257238261636164,"21":0.055310729143782586,"22":-0.01601981815199154,"23":0.013877691406760357,"24":0.0026050591701636183,"25":0.04355811276148498,"26":-0.10977366393425897,"27":-0.03758657997909372,"28":-0.09217047569275175,"29":-0.05015492525934574,"30":0.09359352397798323,"31":0.04663376548212345,"32":-0.15142798638883487,"33":-0.1309046807638364,"34":0.058715100592885316,"35":-0.020503491700462822,"36":-0.051759146279643994,"37":-0.1915281318122746,"38":-0.13766044702312563,"39":0.0686236515414635}},"28":{"bias":0.15675342869896736,"weights":{"0":-0.032608144329916725,"1":0.07691366486969381,"2":-0.14436716735449773,"3":-0.07771622195873279,"4":0.19575755788435034,"5":0.07523730160340109,"6":0.13277595471532827,"7":0.17289871365424628,"8":0.050731005899971794,"9":0.04328414748672268,"10":0.14263620883375075,"11":-0.0916581950059858,"12":-0.0006126698643331604,"13":-0.05002113085567044,"14":0.05568795848480733,"15":-0.16447152711467908,"16":-0.13114482235595235,"17":0.14517267807165468,"18":0.0038546913172825465,"19":0.07964002691307301,"20":0.19458885840301265,"21":0.06495534895112713,"22":0.09660420479353331,"23":-0.1720679878996207,"24":-0.06943125407169569,"25":-0.10371112795565851,"26":-0.005822622860488459,"27":0.1154900589650138,"28":0.07036785352672853,"29":0.07910815336154535,"30":-0.19368890007664338,"31":-0.09527048340723822,"32":-0.017131084379994464,"33":0.03480473463103414,"34":0.06278563271829388,"35":-0.11263668198591727,"36":-0.10047150910014675,"37":0.06154944640869079,"38":-0.05595896166729175,"39":-0.12342884494732922}},"29":{"bias":0.1274978122579917,"weights":{"0":-0.09889019026386157,"1":0.058248582623369724,"2":0.00845297356823078,"3":-0.10523358686940251,"4":-0.1664962397219524,"5":0.16474542728586997,"6":0.11380792697433355,"7":0.06645133818730921,"8":0.17265428459011484,"9":0.19188829221084083,"10":0.02818110300250678,"11":-0.06924207534731201,"12":-0.11444419619557165,"13":0.16033855901327404,"14":0.09813755662981742,"15":-0.12518427453167222,"16":-0.16795153034258542,"17":-0.0731969376648423,"18":0.08979997798820492,"19":0.16278978011727213,"20":0.12323956297756787,"21":-0.16903344395842243,"22":-0.08986890611192609,"23":-0.010132409990486025,"24":-0.16713340041284602,"25":0.04310509077805153,"26":-0.06473296534473531,"27":-0.11079428148854047,"28":-0.09668223274875808,"29":-0.13726860725438988,"30":-0.03873659606544478,"31":-0.04571015148459898,"32":0.04645942473736228,"33":-0.024573934792991668,"34":0.19356246371451033,"35":-0.0503995065539385,"36":0.1143902000323098,"37":0.1352020483750067,"38":-0.05382681442558351,"39":-0.1694044699747245}},"30":{"bias":-0.11994784969047737,"weights":{"0":0.07017028945169827,"1":-0.07556648992507398,"2":0.16933688868263005,"3":-0.0927213291262192,"4":0.12871508473590285,"5":-0.057254870430648766,"6":0.11584871739392155,"7":-0.15552370108932387,"8":-0.07490619873772852,"9":0.08833814915162529,"10":0.029755201456329698,"11":0.08886207261947712,"12":-0.11567128236681817,"13":-0.12913818121817172,"14":-0.07993134009610713,"15":0.0173168351125139,"16":0.1773435392597387,"17":0.03692372625242539,"18":0.05420877307287918,"19":-0.05731042617660272,"20":0.000687782710696642,"21":-0.1900893297847757,"22":0.08653956935653127,"23":0.19251790143999645,"24":-0.19655139315085582,"25":0.11510462237176962,"26":0.1540175716129059,"27":0.0878001570716576,"28":-0.1210094400308674,"29":-0.1467874334815372,"30":0.19230406603952102,"31":-0.11046863266564534,"32":0.011320612916252951,"33":0.07094623815388736,"34":0.017708751697996877,"35":0.19486149951298667,"36":0.08075558481018531,"37":-0.16270344685399166,"38":0.04865611104266923,"39":-0.18391015003363356}},"31":{"bias":-0.16820352825123108,"weights":{"0":0.06322050618027607,"1":0.002597269074061605,"2":0.11889560028462945,"3":-0.17568910563767826,"4":-0.12950298066662919,"5":0.028454664077167974,"6":-0.07151072127368995,"7":-0.13351282125155403,"8":-0.00379597917660504,"9":0.04090266844774911,"10":-0.08953407431804394,"11":-0.13868716015206783,"12":0.09841355822973293,"13":-0.07722878897317502,"14":-0.13836013963454305,"15":-0.11305469910230054,"16":0.015304409258671294,"17":0.17838232208517,"18":0.028258331790210596,"19":0.07672019306675995,"20":0.186059198292053,"21":-0.1642596938488316,"22":-0.09024698980425418,"23":-0.11132944874634039,"24":0.12233532906744467,"25":0.15524258216135628,"26":-0.15072671341330277,"27":0.07685167047258856,"28":0.16475448665619508,"29":0.12463245138759785,"30":0.027933957755235283,"31":0.1361697097023605,"32":-0.15262063189219663,"33":0.04144614635045369,"34":0.06537771321533291,"35":-0.01075167596451476,"36":0.029353801638774078,"37":0.005423832142729393,"38":0.09322479380068903,"39":-0.030359040901344746}},"32":{"bias":-0.04122218304366691,"weights":{"0":0.02735426747315002,"1":-0.079446513661112,"2":0.1897547140767683,"3":-0.016574625550751242,"4":0.07283020126549032,"5":0.05849461848667821,"6":-0.09533679171608178,"7":-0.14761957167878154,"8":-0.060902856192597284,"9":-0.07808143586368102,"10":0.06666724199163103,"11":-0.18242805709448837,"12":0.1656037218275368,"13":0.10493107811668029,"14":0.09940158475058011,"15":0.04539702856825819,"16":-0.13653668238594752,"17":0.012667360698869258,"18":-0.09922342926206877,"19":-0.020806426589780352,"20":-0.019846269778871384,"21":0.1594159066775071,"22":-0.05616432518312593,"23":0.01496868287325002,"24":0.01680220779116433,"25":-0.01943560135499722,"26":0.1936935685419384,"27":0.0012086216065721716,"28":0.1410457406950636,"29":0.062229387715045006,"30":0.026657112200145893,"31":0.03411049479229376,"32":-0.19637816065585104,"33":0.08250899297258876,"34":-0.06883044568858049,"35":-0.08528489475005219,"36":-0.039793856564278286,"37":0.12874829938860152,"38":0.11431655864053826,"39":0.08682191128687848}},"33":{"bias":-0.08411776774494317,"weights":{"0":-0.13869703032116065,"1":-0.144695446193592,"2":0.030165263354054353,"3":0.17267562099624809,"4":0.19397977479426462,"5":-0.028922371805736747,"6":0.0016561150845178312,"7":0.17708445245195503,"8":0.10040926991390955,"9":0.01338262148145292,"10":-0.05548418154520255,"11":0.16287154600090875,"12":-0.0038990554162735493,"13":0.14775212129317788,"14":0.15619989464750833,"15":0.19352965897344485,"16":0.17454479423368213,"17":-0.030378469814228398,"18":0.167553169399524,"19":-0.07974288431294142,"20":0.10219418738651082,"21":0.1050733222117017,"22":-0.12889197409981584,"23":-0.021030900629375997,"24":0.15248612962259453,"25":-0.04050595181850755,"26":0.10633244110512256,"27":0.1791983021456562,"28":0.10569985485522021,"29":0.14372449269067525,"30":0.0863137629451942,"31":-0.10775462500379218,"32":-0.17939606422900514,"33":0.06510238115253902,"34":0.16042120965446588,"35":-0.11450024482852644,"36":0.06596519473186657,"37":-0.16767612488010372,"38":-0.05354415937417776,"39":0.13155560414020576}},"34":{"bias":0.12863952551832655,"weights":{"0":0.08186022633856321,"1":0.06876960847515867,"2":0.08081576531729415,"3":-0.1732896246601435,"4":-0.12734067173853925,"5":-0.11661929863917517,"6":0.0073379569525976185,"7":0.10147301883043734,"8":0.10285019160204369,"9":-0.0017087271681763387,"10":0.1501435965064509,"11":0.10613503425795671,"12":0.09095240362090029,"13":-0.07322605288038128,"14":0.13495783410373244,"15":0.03611020540653744,"16":-0.02989308783936587,"17":-0.08494338307298319,"18":-0.005090321473481929,"19":-0.12074730930375425,"20":0.1747861751617016,"21":0.030940181267621034,"22":-0.12297670584202547,"23":0.17283490673130983,"24":0.09249856290818252,"25":0.07305240264704235,"26":-0.10266791947117646,"27":0.08906385666186092,"28":0.19572016120067912,"29":-0.12993077680436185,"30":0.0894461569037825,"31":0.1929288480408552,"32":0.041396481047212344,"33":-0.14117238877292212,"34":0.17449449922494534,"35":0.14114299176974054,"36":0.031838138566305386,"37":-0.16096035665400737,"38":0.12742630349075557,"39":0.08087380983728806}},"35":{"bias":-0.15966104548555418,"weights":{"0":0.19489169001012774,"1":0.029409664544594195,"2":-0.04924411180475035,"3":0.06053896075339404,"4":-0.19695123582408056,"5":0.19746103879286667,"6":-0.09838406666281878,"7":0.11468539771282334,"8":-0.09346254458926892,"9":0.13677892365492053,"10":-0.09519131310382105,"11":0.04852196568905702,"12":0.032161767809966525,"13":-0.14633309943095707,"14":-0.17572732193983526,"15":0.14025669618774492,"16":0.09639425128293466,"17":-0.03171326136566729,"18":0.18261934014090941,"19":-0.1565113092279731,"20":-0.1449290727199067,"21":-0.056632915521036914,"22":0.16621777589471923,"23":-0.16881732106762146,"24":0.14077514688410447,"25":0.02872588380996721,"26":0.05948627917504061,"27":-0.12653418372407862,"28":0.0041619723715136175,"29":0.05922564204811262,"30":-0.13806424529810035,"31":-0.12381860567775052,"32":0.19539348241835988,"33":0.03974162061978694,"34":0.14768991474639723,"35":0.08488865362716291,"36":0.1588826039700169,"37":0.09721518700654813,"38":0.17764932061953118,"39":-0.06258789649299067}},"36":{"bias":0.15599782802121018,"weights":{"0":-0.089897739628069,"1":0.17981054396766236,"2":0.1363355327192997,"3":0.056925516808516624,"4":-0.10933420088997635,"5":0.1601170544638346,"6":-0.10504527575836047,"7":0.019715635447079875,"8":0.12358190276563123,"9":-0.16656455655505326,"10":-0.015141900040024383,"11":-0.16082844013011693,"12":-0.14057896409346382,"13":-0.0674034086372469,"14":-0.1727664637855635,"15":-0.1555723526466921,"16":-0.03203754173422485,"17":0.09599445870340505,"18":-0.033975867742262404,"19":0.17333922792124204,"20":-0.1519295592085002,"21":0.05135027894906275,"22":0.039758547252999814,"23":0.16315135545520248,"24":-0.026733312894917597,"25":-0.19364901665386736,"26":0.1810251664923802,"27":-0.09277156647509681,"28":0.07000356737412183,"29":0.1741010926985583,"30":-0.11646301279483715,"31":-0.1765153071826518,"32":-0.017002884042760024,"33":-0.10900403766583062,"34":-0.06065857032101604,"35":-0.017684241965113583,"36":0.0752621246231981,"37":0.07932133366006501,"38":-0.10713104986187981,"39":0.00315869964654412}},"37":{"bias":0.0994810638841322,"weights":{"0":-0.18561835488202624,"1":0.09351320289518092,"2":-0.15333887275913355,"3":-0.13041929395723723,"4":-0.19991191881577017,"5":-0.0788225759638199,"6":-0.11010122565361094,"7":-0.0709795947997898,"8":0.10775600582048825,"9":-0.17319053392609213,"10":-0.11267005138441491,"11":0.1358273364256786,"12":-0.10220078520954094,"13":-0.07368819015939894,"14":0.19898737323049417,"15":-0.16645518306936863,"16":-0.13294535148173256,"17":0.015545993516021588,"18":-0.09861386780837517,"19":-0.06711567412566365,"20":-0.05604755043613938,"21":0.049346308089541976,"22":0.10611882804036808,"23":-0.19167006665863703,"24":0.1399078501091346,"25":0.18252966207013152,"26":0.1703887988652212,"27":0.11434887895605311,"28":0.11722631415042327,"29":-0.06167167616771937,"30":-0.14213549640430798,"31":-0.05878145327179757,"32":0.013435804829592871,"33":0.01912623040731173,"34":-0.06869562676838711,"35":-0.17897774041472633,"36":0.1482931602831371,"37":0.04404346886344365,"38":0.08664524091082197,"39":0.1632014876027851}},"38":{"bias":-0.1376287857718478,"weights":{"0":0.027520855599294992,"1":-0.03138710286243419,"2":-0.1382577547960839,"3":0.12250070504285009,"4":0.016249162987162544,"5":0.06045273703087132,"6":0.046425354309985165,"7":-0.10828274156048802,"8":-0.14857087784349832,"9":0.09995542119106837,"10":0.1938009158335354,"11":0.15329396592857597,"12":-0.13168480591008963,"13":-0.08567783531202715,"14":0.013120787285995542,"15":0.057571475738425866,"16":0.15543098638244388,"17":0.03455593235996465,"18":0.05661907095641742,"19":0.19749344398394938,"20":-0.15147415970689274,"21":-0.09215776993965029,"22":-0.000771203709396122,"23":0.10930234849215306,"24":0.08009390173109504,"25":0.02385479537842614,"26":-0.09924790608111113,"27":-0.05300683047093369,"28":-0.16903748061268142,"29":0.18362658022167647,"30":-0.0629611811794641,"31":-0.11549226062737368,"32":-0.15412397463092362,"33":-0.15015105425928194,"34":-0.06323964472487739,"35":-0.06179361096433631,"36":-0.09728890711459413,"37":0.15956855120750332,"38":-0.036989281006005396,"39":-0.1543489715269243}},"39":{"bias":0.13678625017468415,"weights":{"0":0.13489428681029902,"1":0.11572476869883817,"2":0.17044128082676394,"3":0.06491663965594556,"4":-0.10121985747398898,"5":-0.12720412481313598,"6":0.18944957407766563,"7":0.03479614578354781,"8":0.06450388223878258,"9":-0.0576390269313587,"10":0.17726395171334425,"11":-0.12127708860453092,"12":-0.1915866741598494,"13":0.09627821839744591,"14":0.1674413665785264,"15":0.005253553992079065,"16":0.12565907415685312,"17":-0.08116617084729788,"18":0.052718887401801466,"19":-0.08620136794280078,"20":-0.09098582865058213,"21":0.08687108095851477,"22":0.09580360324934074,"23":-0.016667685044419508,"24":0.009761251025874277,"25":0.10317989667801711,"26":-0.15579411156348882,"27":-0.13002470263975285,"28":-0.08700929873964684,"29":-0.18504984386598652,"30":-0.1490058740437932,"31":0.03347401184218813,"32":0.06528022893977008,"33":-0.12643953426814847,"34":0.037637899772310385,"35":0.023158675928576136,"36":-0.14452506588641065,"37":-0.03610740954333465,"38":0.17212232842686429,"39":-0.14426818080670606}},"40":{"bias":0.006128284991101539,"weights":{"0":-0.1839289659801116,"1":-0.045511572529312254,"2":0.010071537897381739,"3":-0.15521671420484093,"4":0.06804979848963646,"5":0.04565625780498855,"6":0.017908478956662595,"7":0.0563248279112557,"8":0.11968217576850905,"9":-0.041185951439645624,"10":0.006922113189909051,"11":0.016713434283244368,"12":-0.030067876413574567,"13":0.11997935540190349,"14":-0.007613004685485262,"15":-0.049360069906706994,"16":-0.08185573549813427,"17":-0.09917136835274645,"18":0.1474407037024505,"19":-0.1862609420368883,"20":-0.08485392073309402,"21":0.16484303899776134,"22":0.18313160112845756,"23":0.03355557458267809,"24":-0.19562701624679,"25":-0.18754881423045056,"26":-0.10753984447064839,"27":0.039373070261485406,"28":-0.06264559453644353,"29":-0.056682359484968074,"30":0.0805186271271348,"31":0.019725651974004815,"32":-0.12935172109733195,"33":-0.17596194013785268,"34":0.18781520366577625,"35":-0.11851182070730756,"36":-0.05420784487661093,"37":0.16150986238496345,"38":-0.011546171787243915,"39":0.014453545877462027}},"41":{"bias":0.029568845829472043,"weights":{"0":0.15724944725299886,"1":-0.1818817975989625,"2":-0.11014512915390054,"3":-0.16016944526132895,"4":-0.009571913682034992,"5":0.12794041292148406,"6":-0.1151694608942674,"7":0.18883787431596252,"8":-0.013842483657106395,"9":0.07091261092765225,"10":-0.021278086340681037,"11":-0.03194224447187484,"12":0.04024770389569088,"13":0.0826314702425542,"14":0.010151161060228064,"15":-0.17626961279476633,"16":-0.1753710340433978,"17":0.019209409296613,"18":0.16871340672075158,"19":-0.1764733657923323,"20":-0.08104422962460651,"21":0.059021990503088734,"22":0.1740436338502863,"23":0.18336490675390338,"24":-0.03221433772648684,"25":0.1272248146073336,"26":-0.1207582408574175,"27":-0.02075229153318602,"28":0.05305692621633885,"29":0.06199670464518084,"30":0.043018726698726584,"31":0.18164240505001789,"32":0.044899965521488644,"33":-0.17968474378994834,"34":-0.1977087992763903,"35":0.06795542689028901,"36":-0.1947549960598249,"37":-0.1368784341097719,"38":0.2003798390657621,"39":0.023923444958453572}},"42":{"bias":-0.19661284772010748,"weights":{"0":0.1891290756022504,"1":0.19187625891135318,"2":0.0016943812562514188,"3":-0.14885876459517783,"4":0.1865776309848656,"5":-0.11805341333588776,"6":-0.014154453426358335,"7":-0.19407005314211062,"8":-0.05778602161473359,"9":0.1943374697070085,"10":0.19404851385117616,"11":-0.07315386421636136,"12":-0.11117526608258223,"13":-0.13623397873100854,"14":-0.021330088740549074,"15":0.0005482503068219045,"16":-0.11724267126514179,"17":-0.07163729485510853,"18":-0.18723173945393667,"19":-0.1279985159162372,"20":-0.044528282707884434,"21":0.00930586170289095,"22":-0.061563621577346725,"23":0.18827124301948797,"24":0.1166806883057319,"25":0.16047455074447609,"26":-0.06297264151822951,"27":-0.030331971725249835,"28":0.017856422796678664,"29":-0.024644779955845925,"30":-0.04605701424327103,"31":-0.16285562619585364,"32":0.18490491101392464,"33":0.016175452174504876,"34":-0.11195377952877726,"35":-0.12932143413330435,"36":0.013027161249180111,"37":0.10379293384844379,"38":0.1448859006945952,"39":-0.1780110659014471}},"43":{"bias":-0.04618852545297441,"weights":{"0":0.11517354016191554,"1":0.01682660762491742,"2":0.1306115409200561,"3":0.09292570467149591,"4":-0.06818692784489197,"5":-0.17573159154295864,"6":-0.06578271068536819,"7":-0.00903713251618549,"8":0.19903900592585788,"9":0.042696353910402066,"10":0.1744631525413529,"11":0.054300822947451255,"12":0.004540941784792645,"13":-0.05376380806885642,"14":-0.16351648705412916,"15":-0.1284477977211737,"16":0.004906123862315654,"17":0.12024251147580554,"18":-0.03581735872106873,"19":0.12286063045734505,"20":-0.040961477646671754,"21":0.04429899241994782,"22":-0.1787682323099567,"23":-0.08395641976644061,"24":0.1743529990552844,"25":0.01896066965771471,"26":0.1036990378797635,"27":0.02744969451710222,"28":0.1267912302969621,"29":0.031775695556352304,"30":-0.041047654735830844,"31":0.11693726161673007,"32":-0.09342247401719933,"33":-0.1610562113307151,"34":-0.1691404995325877,"35":-0.16713529969527946,"36":0.17030856349551804,"37":-0.045406563721321146,"38":0.07742837571168744,"39":0.10912298855591847}},"44":{"bias":0.005384301810749894,"weights":{"0":-0.14292342069920605,"1":-0.10923692690861486,"2":0.04351499314777303,"3":0.06007005405703951,"4":-0.05595893035282825,"5":-0.10908022206108874,"6":0.014591879091027994,"7":0.1489954020055522,"8":0.03440577776490274,"9":-0.17014214292801033,"10":0.13361929662709288,"11":0.16613290463099908,"12":-0.14242139819701513,"13":-0.06794518190843854,"14":0.0486215081955856,"15":-0.15263940624982406,"16":0.03209719785781848,"17":-0.12262696991976856,"18":0.13296074656040727,"19":-0.08549209077698197,"20":-0.08462196749419736,"21":0.19855075279464202,"22":0.1427311075422915,"23":-0.13317619836912292,"24":0.08187032993039677,"25":-0.022256837156607076,"26":0.15530997637470353,"27":-0.12735389908628736,"28":-0.16536996850676605,"29":-0.1208358159796109,"30":-0.15369186368777463,"31":-0.13048740935049724,"32":-0.0927501734544831,"33":-0.13413110672955328,"34":-0.19062810834409882,"35":-0.04554160130671171,"36":-0.10007783354388657,"37":0.03946425923454942,"38":-0.010405971034861466,"39":-0.14508352424143633}},"45":{"bias":-0.059853774136258454,"weights":{"0":0.05218434129900541,"1":0.016015172127069835,"2":0.12384234045492484,"3":0.12728920658222553,"4":-0.10345084851783795,"5":-0.1199237535060925,"6":-0.07660768614236672,"7":-0.0715478821728189,"8":0.12939330665158055,"9":0.08808636616093918,"10":0.17464851813216042,"11":0.1472454806637148,"12":-0.12124256496536981,"13":0.05102480312589888,"14":-0.06882270838985743,"15":-0.1111542451237638,"16":0.023022562169574275,"17":-0.006974124622855944,"18":0.13975732356122766,"19":-0.18110714026420222,"20":-0.09346869064742414,"21":-0.16968559299663982,"22":-0.04545581016539811,"23":-0.06646043840229786,"24":-0.054836421090650705,"25":-0.015198825538475824,"26":-0.06508234679963217,"27":0.062141903086823505,"28":0.036176137922146315,"29":-0.18945931524063442,"30":0.011984197968545893,"31":0.056655393516216415,"32":-0.16012804534492403,"33":0.001822178088669113,"34":-0.03190241181437344,"35":-0.08745845187324568,"36":0.01703293193172919,"37":-0.10791221475134631,"38":0.1624219655562856,"39":-0.09254433538332103}},"46":{"bias":-0.08138016106707513,"weights":{"0":-0.09825293246796742,"1":-0.10418628803603681,"2":0.12690839095025655,"3":0.07312720922479382,"4":-0.029994293347052142,"5":0.05068929691502239,"6":-0.1709674043657639,"7":-0.1963660504997577,"8":-0.07318172677640179,"9":0.04736082385419107,"10":-0.025087134108577047,"11":0.18835983416679933,"12":0.08875589777392476,"13":0.1525548285123443,"14":-0.06567401292741061,"15":-0.115227914135907,"16":-0.039167554476600266,"17":-0.020935057158762285,"18":0.16193968994334548,"19":0.09683057856152578,"20":-0.13275914305585015,"21":-0.15870533057101174,"22":-0.08272604936042502,"23":-0.07418570067214855,"24":-0.10037927702200486,"25":0.07974337015757357,"26":-0.17448380134392474,"27":0.0050680918691512105,"28":0.023916211025860272,"29":0.09644641206373844,"30":0.08599515431973315,"31":0.1156098625508944,"32":-0.12101534216172387,"33":-0.04568765891704526,"34":-0.16879701559695284,"35":-0.06408324068774132,"36":-0.03513118836032351,"37":-0.10975935469379956,"38":0.1969313380463769,"39":0.190472418760503}},"47":{"bias":0.13423727251581058,"weights":{"0":0.10056950215144911,"1":0.12132457809041311,"2":-0.004077740750142815,"3":-0.0006798335467784864,"4":-0.026109546596926266,"5":-0.15209023673149627,"6":-0.13969395039235843,"7":0.07688285854596552,"8":-0.18596830366094616,"9":0.0701601595189614,"10":0.1512567749616647,"11":-0.07642092068230098,"12":-0.19215499170125522,"13":0.08951433780742384,"14":0.046728035501476174,"15":0.1797340830402032,"16":-0.15167590691046076,"17":0.07560763729978806,"18":-0.019018108161815008,"19":-0.08652113411848965,"20":0.12593011936616108,"21":0.028327747720250093,"22":0.11177004422765369,"23":0.18500442421161137,"24":0.07263650383151997,"25":-0.11688259534036972,"26":0.016301910139788166,"27":-0.12919638343803871,"28":-0.052910551717301135,"29":0.008390212157091098,"30":0.0017571960778733813,"31":0.15673522236617743,"32":0.022580840735221028,"33":0.0021750634117433314,"34":-0.07957450730282771,"35":0.0014769967751375426,"36":0.06986444745789991,"37":0.11661446052865718,"38":0.007596544732935077,"39":-0.13357956471597093}},"48":{"bias":-0.1096495428184704,"weights":{"0":-0.14267098610473825,"1":-0.020290672752855145,"2":0.03265746037225769,"3":0.08206691377731197,"4":0.09464904171962021,"5":-0.028838744776922467,"6":0.007421144352137581,"7":-0.18779774478512826,"8":-0.0004122277634076789,"9":0.04617011060155376,"10":0.09271817893296665,"11":-0.07760542476209396,"12":-0.13353474346432861,"13":-0.05495170102427358,"14":0.17622565817603075,"15":-0.15338658504541997,"16":-0.1709825116637231,"17":-0.034550308885481704,"18":-0.1284893221285095,"19":0.16208418981868325,"20":-0.1979894957373036,"21":-0.010244028707554904,"22":-0.046601623142241914,"23":-0.049789509619146945,"24":-0.1174348157500644,"25":0.09335900162738492,"26":-0.08650366671049955,"27":-0.16092938656303077,"28":-0.0333982440829338,"29":-0.13918078595694472,"30":0.00045314864923024265,"31":-0.0064145008952719166,"32":0.007826460464051109,"33":-0.19332389269832098,"34":0.08696427295965739,"35":0.16921082073520982,"36":-0.1730204070980946,"37":0.1826983166472132,"38":0.10586337392403164,"39":0.16772990800922175}},"49":{"bias":0.1070494476409527,"weights":{"0":-0.13084045959144774,"1":0.1056807739615143,"2":-0.04339733899615559,"3":-0.194474356455882,"4":-0.10475624261321534,"5":-0.07187501475685672,"6":0.10912048187447514,"7":-0.19777283991462724,"8":0.007317696159909993,"9":0.0326942573282474,"10":-0.09440756715563847,"11":0.1048604655590785,"12":0.10397557957486729,"13":0.11915291747753205,"14":0.06173915851503247,"15":0.1513811593145785,"16":0.0452202644446864,"17":0.06590621152912515,"18":-0.16305683241560356,"19":-0.1629561667146101,"20":0.08132091635421045,"21":-0.05984017462465034,"22":0.0714719831818384,"23":0.034964713549507115,"24":-0.022479877328668813,"25":-0.027591756388672062,"26":0.13113309872066053,"27":0.14439039208214527,"28":0.030636263495561526,"29":-0.13905836176773964,"30":-0.10026486382805266,"31":-0.005540470514152488,"32":-0.10968440418382139,"33":-0.016063135352106395,"34":0.06087095267110377,"35":0.09787541072577031,"36":0.06251643743228442,"37":-0.15439938006690926,"38":-0.17703159789878495,"39":0.15869892677339592}}},{"0":{"bias":-0.14631447070905046,"weights":{"0":-0.04614275278906585,"1":-0.021067204233650348,"2":-0.003153719742803677,"3":0.011424185852754022,"4":-0.15426849795855221,"5":-0.13603233188418287,"6":-0.1702253820618186,"7":-0.06345479508002402,"8":-0.19568174376982647,"9":0.15148220668060708,"10":-0.19943973815292368,"11":0.04633060809618145,"12":0.1941678688873423,"13":-0.1822108727679929,"14":-0.18447156086470373,"15":0.028188083045720815,"16":0.09970354184753326,"17":-0.00825814083601657,"18":0.00494508279334386,"19":-0.1626535474837614,"20":-0.05511498373620009,"21":0.1566748467515767,"22":-0.19494915094613682,"23":-0.0990476530902677,"24":0.17977553310665378,"25":-0.09662154782277732,"26":-0.016012850381708955,"27":-0.008989949074866872,"28":0.13393501856030549,"29":0.0015226877677901051,"30":0.062386600219648834,"31":0.007636197053662445,"32":-0.11346255956978787,"33":-0.0789238291487809,"34":0.009727788161843845,"35":-0.18588100313303804,"36":-0.13111664237435425,"37":0.08541918747456093,"38":-0.11569160664891946,"39":0.07769100048075389,"40":-0.02655704783192604,"41":-0.025713894432734356,"42":-0.05432648067233558,"43":-0.009699129184970703,"44":0.1971261471005847,"45":-0.026100128273362024,"46":-0.16336244454518434,"47":0.17063280626365673,"48":0.12626122222518962,"49":0.08246124768968946}},"1":{"bias":-0.10218820695930053,"weights":{"0":-0.17979178992937922,"1":0.01826892947565468,"2":0.014699446431219275,"3":0.10188600722478526,"4":-0.03416319204903409,"5":0.17568689781583166,"6":-0.1459783397156822,"7":-0.10594022057976119,"8":-0.109288453220068,"9":-0.08424223559653587,"10":0.06084920528646407,"11":-0.08467673092050727,"12":-0.17918954400282058,"13":0.17438620398179805,"14":0.0996212437533839,"15":0.06894867790658041,"16":-0.01167314257914906,"17":0.13693515014468063,"18":-0.11585129913808835,"19":0.10035073254633722,"20":0.13623299058949095,"21":0.010554435781797725,"22":0.02762653152513594,"23":-0.13418312340492256,"24":-0.16227183768137446,"25":-0.0401259518940675,"26":0.04660685199516414,"27":-0.1865811096920108,"28":-0.15224989679362314,"29":-0.2095866446320927,"30":-0.09840352938166289,"31":0.1635635373042723,"32":0.018757724886787442,"33":-0.19595067809164182,"34":-0.036231998945777895,"35":-0.059915667973153626,"36":0.028795491244406113,"37":0.04956172932175061,"38":0.09677289582327937,"39":0.18668494876100106,"40":0.0899894742974716,"41":0.16145604859762697,"42":0.14611632540868233,"43":0.16336796054210978,"44":-0.11984390894936474,"45":0.10183906879909226,"46":-0.0010895787508910558,"47":-0.14382377120484524,"48":0.1113721091766964,"49":-0.12007174101298237}},"2":{"bias":0.15373802142389523,"weights":{"0":0.11029088192305946,"1":-0.10860080293128484,"2":-0.17258848488044423,"3":-0.18170947740640608,"4":-0.004669599016584108,"5":-0.06265764266219095,"6":0.19219427774965933,"7":0.040296182368063226,"8":-0.06626597955255133,"9":0.0895193114078243,"10":0.06471409385450484,"11":-0.08978254005717921,"12":-0.08881957275675885,"13":0.09263686740111682,"14":-0.039038320236215014,"15":-0.18908726725591862,"16":-0.1627175888145946,"17":0.07837844928226238,"18":0.16266089706872608,"19":0.14185831730731968,"20":-0.009451323554501812,"21":0.19396660440456204,"22":-0.05391513076871282,"23":-0.07158721241890953,"24":0.15964027683457996,"25":-0.022223727344013004,"26":0.10602723132146279,"27":0.08299790267774412,"28":0.09797524155944795,"29":-0.10095821934040371,"30":0.15275516913147025,"31":-0.11506531589507696,"32":-0.16933303756961812,"33":-0.03620887394270203,"34":-0.16684645579292037,"35":-0.14566578782419215,"36":-0.1739962725401791,"37":0.19449229564773352,"38":0.030830399935053716,"39":0.1713955104475294,"40":0.1261898590172443,"41":0.10480406909324064,"42":0.08086308276486848,"43":-0.15793575133388182,"44":-0.06224639600812918,"45":0.10732199136853299,"46":-0.1445076514910141,"47":0.14687575477886974,"48":-0.13650340969497898,"49":-0.14344881892093872}},"3":{"bias":0.039462439165302295,"weights":{"0":-0.057090245580636884,"1":0.17981197830087678,"2":0.18676263180712174,"3":0.1469963162979709,"4":-0.1404255540015932,"5":-0.19514665560721475,"6":-0.18606746457098816,"7":0.15769181171842078,"8":-0.14488187371124772,"9":-0.13835013193248333,"10":-0.10324100289688047,"11":0.12720886919561247,"12":-0.10356408267974977,"13":-0.09888109118779553,"14":0.1764486679560859,"15":-0.13215696260057835,"16":0.07709446884237199,"17":-0.18299338991296546,"18":0.2024301577877384,"19":-0.08346310074049103,"20":-0.09121821688288863,"21":-0.18828130832539539,"22":0.014967811249517564,"23":-0.15228170937445737,"24":0.01241367130578926,"25":-0.12486430487354293,"26":-0.027228140057081962,"27":-0.15529491031432918,"28":0.10858932274133089,"29":-0.16732109855526134,"30":-0.02695837809937921,"31":-0.1833163746614488,"32":0.01851174759955929,"33":0.16137793674521203,"34":0.08752796425591404,"35":0.06502842822550121,"36":0.08989064891447371,"37":0.15394246114631555,"38":0.14258124029535993,"39":0.08446818155642266,"40":-0.11852282006619959,"41":-0.19091194222966776,"42":0.03514585919347409,"43":0.13024532050389284,"44":0.13027511002008077,"45":0.040365662895235965,"46":-0.1805683415806103,"47":-0.08217520948397655,"48":0.05583364775061399,"49":-0.15826716431383916}},"4":{"bias":-0.05832381324343166,"weights":{"0":0.1548949241466326,"1":0.08491923530209305,"2":-0.14940065847886294,"3":-0.10665763420292039,"4":0.19504621293883403,"5":0.07710209357321635,"6":0.17082749001051387,"7":-0.0776298852553279,"8":-0.13141116020660498,"9":-0.19020115497567075,"10":-0.10925821437394677,"11":0.00422746441865299,"12":0.08192128848507078,"13":0.11110016837457856,"14":-0.1113149530905178,"15":0.05638212091194359,"16":-0.05413554484465321,"17":0.12139742958133647,"18":0.1409730321943351,"19":-0.09788807214300715,"20":0.12300354945867666,"21":0.04477972847064457,"22":-0.07212430009299678,"23":0.10401516167976588,"24":0.19052177181418756,"25":0.01414778328741646,"26":-0.10544139356132365,"27":0.019062928435713142,"28":0.09500219139337751,"29":-0.16557492757272166,"30":0.1826188884584763,"31":0.03817609082724812,"32":0.08559983069335741,"33":-0.10638468143277745,"34":-0.08334863820588978,"35":-0.10767342010553163,"36":0.1595404488911322,"37":0.1445258676878801,"38":0.17430517278626267,"39":-0.004163049772756169,"40":0.09336059199693046,"41":-0.02542894701219511,"42":0.19998133539066054,"43":0.10512048351635889,"44":0.19292222980491178,"45":0.1103013323568583,"46":-0.08965066454357777,"47":0.028051865120707432,"48":0.02289725722989827,"49":-0.12497113067829298}},"5":{"bias":-0.15976547018780277,"weights":{"0":0.1771404360302906,"1":0.07468494026018613,"2":0.06904355850010041,"3":0.15600541607731597,"4":-0.07263416622118782,"5":-0.15865642850142422,"6":-0.1597566355086408,"7":0.16366560616003492,"8":-0.11016251469937428,"9":0.1586282288308216,"10":0.13561976494720956,"11":-0.1415883414383292,"12":0.1204803820718557,"13":0.19995299483260837,"14":-0.10058005336668105,"15":0.04306653427794154,"16":-0.15627972787482208,"17":-0.05217602708438263,"18":0.10031518101381431,"19":0.19247496381475732,"20":-0.06463276903357205,"21":0.13055666650907494,"22":-0.15658189846510961,"23":0.03944267975234951,"24":-0.04744192361233598,"25":-0.19488124113211627,"26":0.040989811303643445,"27":0.10620105841000209,"28":0.11265600138087531,"29":-0.063674892098893,"30":-0.04674498702228184,"31":-0.17378037854905815,"32":0.05129466330216934,"33":0.011880858051860734,"34":-0.0801940876506913,"35":-0.1516307462917653,"36":-0.14522190423488873,"37":-0.16800439093672914,"38":-0.17105145561709426,"39":0.18390064294859365,"40":0.05444011209434859,"41":0.08142041323675023,"42":-0.1926572923212408,"43":-0.1294503357740853,"44":-0.043001765381783935,"45":0.07366773653335498,"46":0.10337699005278952,"47":-0.042252754801491994,"48":-0.1607757685703523,"49":0.026116178143552837}},"6":{"bias":0.06696443765885932,"weights":{"0":0.11607767467604162,"1":0.100954225491587,"2":-0.13920355180513364,"3":0.13695704630207653,"4":-0.06601110169493905,"5":0.048838435835732705,"6":0.0991366169392723,"7":-0.035951355729247174,"8":0.05503178024781945,"9":0.1304373340652658,"10":0.1573841161282456,"11":0.017514753636167047,"12":-0.006336801495959574,"13":0.15822956989792689,"14":0.16236888438219998,"15":0.05373703175818281,"16":0.13666688779765362,"17":0.02360824420577843,"18":-0.19031520219537879,"19":-0.20132238529293317,"20":-0.14796797873346135,"21":0.05536782082801273,"22":0.1467340993058426,"23":0.09563957633963455,"24":0.06510814634944564,"25":-0.14956699419529576,"26":0.018305484177102396,"27":-0.10991462867221628,"28":-0.17454360053851764,"29":0.16343149874909582,"30":-0.11941272662101543,"31":-0.06319472221768765,"32":-0.06366632269005594,"33":-0.037842381398605,"34":0.16759757971527037,"35":-0.1647244106839529,"36":0.0981408991739432,"37":0.1854704863737677,"38":0.06882851150301306,"39":0.04902947914803469,"40":-0.04320701137374458,"41":0.13831859543127142,"42":-0.19697686895566918,"43":-0.05589576675542298,"44":-0.010807077807162974,"45":0.16723531376107512,"46":-0.03572465968328484,"47":-0.11700963401590155,"48":0.1324642831756392,"49":0.13287942456208304}},"7":{"bias":-0.12152512904042881,"weights":{"0":-0.07620165952278989,"1":-0.074875627924651,"2":0.046256658826548246,"3":-0.16159698952950372,"4":-0.07935234390519462,"5":-0.16402284836614633,"6":-0.05134071306379533,"7":-0.06537838445820016,"8":0.10649342972314836,"9":-0.19096981550547906,"10":-0.19423824212559712,"11":-0.02946639157827101,"12":0.07622259170488296,"13":-0.15502878123106276,"14":-0.003915970115899674,"15":0.0011712403060601853,"16":-0.11300448250816392,"17":-0.05209729064019856,"18":0.13162822853292624,"19":0.15499456795403205,"20":-0.1286890904649393,"21":-0.11474097301325624,"22":-0.12837694547942052,"23":-0.09497170171999887,"24":0.12615733263114387,"25":0.01431971320647534,"26":-0.12048770991235255,"27":0.17610771283548346,"28":-0.19016830721457398,"29":0.13868348008090675,"30":0.013113607830536243,"31":0.17578156928232613,"32":0.15218923029042497,"33":0.06724343446468638,"34":0.13980249713227463,"35":0.07417549795824929,"36":-0.006073742713336597,"37":-0.012037033060044831,"38":-0.1354066685058493,"39":0.08971282247001898,"40":0.13340983923848948,"41":-0.1566903926578888,"42":-0.1179197566166041,"43":0.14245983095120254,"44":-0.06042251885461555,"45":-0.13650972384503368,"46":-0.18866927249460616,"47":-0.07682348801386313,"48":-0.04806948065030754,"49":-0.02391179486678715}},"8":{"bias":-0.2035105315260741,"weights":{"0":0.15156737874352566,"1":-0.14952651493826052,"2":-0.14874024740671726,"3":0.09797356494397094,"4":0.1489267561336771,"5":-0.1689565679127261,"6":-0.09231350588989087,"7":0.06330760469464493,"8":0.12259574230928588,"9":-0.007814703337992142,"10":0.04277674404275021,"11":-0.05295808643487402,"12":-0.09791618650963042,"13":-0.042253807217165866,"14":0.014136736877021449,"15":-0.042889409186577195,"16":0.041827298143719834,"17":0.011193959256590193,"18":0.1460438911222404,"19":0.1767618981924133,"20":-0.06616364193750633,"21":-0.08200010716501922,"22":-0.1831145263841495,"23":-0.06961754715517253,"24":0.1621873708713514,"25":-0.01997605486212988,"26":0.07206173297124548,"27":0.014965250601658075,"28":-0.09201065028399114,"29":-0.1206333228901331,"30":-0.14800781397933757,"31":-0.13572759505757775,"32":0.1650639171288206,"33":-0.08508089756989368,"34":-0.08101300253447695,"35":-0.021460626685528807,"36":-0.15211835511624158,"37":0.1064960631348112,"38":-0.03907024710289492,"39":0.100957805805624,"40":0.07176058984981999,"41":0.13518770023025847,"42":-0.010936527710664255,"43":-0.03436601243996732,"44":0.14508679495268623,"45":-0.049912320429384746,"46":0.1866149079269006,"47":0.13382055823284486,"48":-0.010846941986197005,"49":0.07452156531517372}},"9":{"bias":0.16325252167065032,"weights":{"0":-0.02407615967381223,"1":-0.18441303951904078,"2":0.18912235441349343,"3":0.03785270219080235,"4":0.01071773149162031,"5":0.1496209168358075,"6":-0.13892357016104093,"7":-0.04044963397480531,"8":0.1799482312696919,"9":-0.19465971852428032,"10":-0.07238220650667913,"11":0.11976005756015753,"12":-0.1390941618053387,"13":-0.058770049966718904,"14":0.007321966918067783,"15":0.14485792517859553,"16":0.11285892686184561,"17":-0.186051551935758,"18":-0.11127300240651021,"19":0.02288693451281333,"20":-0.10681354961250453,"21":0.05331257714692695,"22":-0.047442205284411725,"23":0.022624616204381564,"24":-0.10190653482441783,"25":-0.11156885831196828,"26":-0.057850040169723185,"27":0.13712538500409005,"28":0.07804696153139021,"29":0.10155859077710891,"30":-0.16288508208218958,"31":-0.08392944201536875,"32":-0.02142372931322872,"33":-0.124384392814891,"34":-0.13447640422105914,"35":-0.01752765695764916,"36":0.038606163510690183,"37":0.0025884350555873733,"38":0.19852426984959556,"39":-0.1071023335744761,"40":-0.19450628241507475,"41":0.08062143977569923,"42":0.18740500226774656,"43":0.10870284359731901,"44":0.15025818194438176,"45":-0.028004577179681158,"46":-0.1382651669921076,"47":-0.07824666231266121,"48":-0.18242435737160448,"49":0.16423139331157174}},"10":{"bias":0.15256827093267084,"weights":{"0":0.07043350206828286,"1":0.026391836854684086,"2":-0.10633750014882005,"3":-0.18826904518842666,"4":0.09153343052339341,"5":0.09693267615231532,"6":-0.1335087279379767,"7":0.14272435477779943,"8":0.04759855389302589,"9":-0.13468832003151462,"10":0.18789063742245946,"11":-0.1481263842447262,"12":-0.15180888682457455,"13":-0.10244874144418725,"14":0.030915148946078212,"15":0.02039372428219127,"16":0.18535613485643052,"17":0.07052171851251512,"18":-0.15974295292581,"19":-0.11671266701439448,"20":0.05333485563352673,"21":-0.07634285725564614,"22":-0.18064496328924257,"23":-0.048543911360931016,"24":-0.10253265053738193,"25":-0.08362627672758373,"26":0.16159427025357376,"27":0.16058656023850354,"28":-0.1356432411533255,"29":0.13464246803399121,"30":-0.12676281897252062,"31":0.030368756702595756,"32":-0.15401044527715177,"33":0.07607690472834794,"34":-0.03692609715888934,"35":-0.17448289910989362,"36":-0.17991359992964595,"37":-0.04883700434217632,"38":-0.019383940696686263,"39":-0.05305467423688373,"40":-0.15217032694501528,"41":-0.07371750526139856,"42":0.02766803114404876,"43":0.03233505720853234,"44":0.18833075800922414,"45":-0.0937036254972697,"46":-0.003757439037789616,"47":-0.05488833198012473,"48":0.1653091826696069,"49":0.08223943936807666}},"11":{"bias":0.13237154326494704,"weights":{"0":-0.04020513972461685,"1":0.18781806834324535,"2":0.1768419445524946,"3":0.06625614384436149,"4":0.02937121540672145,"5":0.10109509447725629,"6":-0.13934383969989758,"7":-0.09064624414334158,"8":0.11170899169586045,"9":0.19636387632090874,"10":-0.16929131242941473,"11":-0.051731226355657134,"12":0.022497965817083222,"13":0.09106705818071216,"14":-0.0646272011428549,"15":0.05637670355159571,"16":0.1449741306621954,"17":-0.16602720938441384,"18":0.0930020803308347,"19":-0.17204549012452658,"20":-0.028014991119509898,"21":-0.007874776232378339,"22":-0.07941925240406102,"23":0.12178237056307586,"24":-0.07275466441805047,"25":0.09830094264656401,"26":-0.04960462457191012,"27":-0.03936665566958073,"28":0.09349329573867103,"29":-0.18062613955345225,"30":-0.19515239113162275,"31":0.00825609374766239,"32":0.1750922159783837,"33":-0.10799842025890657,"34":0.10330508630121224,"35":0.17204736602379822,"36":0.11800615742910185,"37":0.1386573150897792,"38":-0.07953959795279682,"39":-0.1828164557124705,"40":0.11486729551233296,"41":-0.16726582980859533,"42":-0.11881725976449407,"43":-0.19998661094175266,"44":-0.1652577811704165,"45":0.19804628394878665,"46":0.19925715299556784,"47":-0.17586790301429936,"48":0.11499152824732826,"49":-0.1178765863223885}},"12":{"bias":0.015394044656655507,"weights":{"0":-0.055753289214268385,"1":-0.006628063017845431,"2":-0.1803372557239037,"3":-0.13841435048844566,"4":0.030759236408551254,"5":0.1835331975051242,"6":-0.1179346308645828,"7":0.19148215722340245,"8":-0.10384576352522491,"9":-0.015984163619509675,"10":0.030468085671821587,"11":-0.0249884357049535,"12":0.14255385757509584,"13":0.14287983554148806,"14":0.17293722803314562,"15":0.16396303865647183,"16":0.04182800266565177,"17":-0.05820370329879528,"18":0.0820515585618622,"19":0.12481369773053114,"20":0.08669490321481814,"21":-0.02282118691214821,"22":0.001473007312307683,"23":-0.0386231233852161,"24":-0.04163424856810916,"25":-0.015004147012592664,"26":0.009924844815865443,"27":0.16089051167183158,"28":0.03726985129368356,"29":-0.14507751472189453,"30":-0.13856835162877176,"31":-0.030900952899877793,"32":-0.19452883946288177,"33":0.05584391870295653,"34":-0.014769652396614298,"35":0.08479386755382946,"36":0.08628929839237137,"37":-0.16329858353955184,"38":0.00023056504765345617,"39":-0.1819437540189541,"40":-0.0730601603712989,"41":-0.18660493992814714,"42":0.19358658538731544,"43":-0.1797403912950583,"44":0.17362718646839884,"45":0.19175001266964029,"46":0.05184561554742447,"47":-0.10944698429269567,"48":0.1923615515326584,"49":0.1474472097125983}},"13":{"bias":-0.11659136101227154,"weights":{"0":0.02973622898628974,"1":0.12533720735073692,"2":-0.02490281555707397,"3":-0.1724059977982393,"4":-0.14578333567634327,"5":-0.09424725838130743,"6":-0.08166755478905265,"7":-0.05486832305329321,"8":0.15651000491388292,"9":-0.19380817762880503,"10":-0.04126735631917458,"11":-0.00903646903261764,"12":-0.19830671246912934,"13":0.03056495390328034,"14":0.05197041050316122,"15":0.18067368698339403,"16":0.1235235661342977,"17":0.16033505744156384,"18":-0.1605341168930688,"19":0.025424823847960288,"20":0.01729057512885849,"21":-0.16537475897519038,"22":-0.017514033574845243,"23":-0.17483298213319434,"24":0.18038909723606425,"25":0.19541922433136683,"26":0.07233447604134956,"27":-0.1331770965645032,"28":0.1590637599551653,"29":-0.03921111130380826,"30":-0.12128387419969652,"31":0.01964274210471175,"32":0.06849494601602456,"33":0.1588249753454365,"34":-0.18030692378015278,"35":0.038993097839261935,"36":0.12290758400690135,"37":0.07979949174822207,"38":-0.13117390499022308,"39":-0.07423196089208474,"40":-0.18791567211154425,"41":0.17899143930428435,"42":-0.18374663422361118,"43":0.1410761530706568,"44":-0.10139509737308905,"45":0.15900893603898084,"46":0.052266074543614593,"47":-0.17736231393482585,"48":-0.015006455027688407,"49":-0.017878251648382262}},"14":{"bias":-0.202616037458429,"weights":{"0":0.11623489320953886,"1":0.07788928527092394,"2":0.06463913644790971,"3":-0.020666782732964538,"4":0.013657537077502818,"5":0.0867389140625665,"6":0.004929686495961814,"7":-0.1996091792341785,"8":-0.19473253572788643,"9":-0.06782498104213454,"10":-0.11838604940466027,"11":0.021675103091627766,"12":0.10756813619111662,"13":0.09350266732261639,"14":0.1279591929400773,"15":-0.1145649561011279,"16":0.1744162551265436,"17":-0.10539450091116674,"18":0.1685345286258235,"19":0.19680319578656943,"20":0.02936252082432941,"21":-0.05162794872010812,"22":0.0911874277915722,"23":0.17336664609108887,"24":0.04871432959457709,"25":0.07707978431731426,"26":0.025444458822543033,"27":-0.06812889863513681,"28":0.1085736469037869,"29":0.04298568546547201,"30":0.07580323898601132,"31":0.11519703385266644,"32":0.04846314889214261,"33":-0.03297471185170236,"34":0.1986436412888218,"35":-0.16598941864995764,"36":-0.0515505893897811,"37":-0.15374885381673284,"38":-0.011105735800770301,"39":-0.053336508084305255,"40":0.07579834908205706,"41":-0.14255136267896673,"42":-0.0761572987302181,"43":0.16507203718822386,"44":-0.009403499759579879,"45":0.14070948331970137,"46":0.04931397056295343,"47":0.038398134648987586,"48":0.027138922909707985,"49":-0.06723208496816768}},"15":{"bias":0.08979434967810448,"weights":{"0":0.15196256503222288,"1":0.13634854186885106,"2":-0.021452960636046063,"3":0.027861147033085617,"4":0.030284831086294466,"5":-0.17808433153476944,"6":0.012883934259627621,"7":-0.06451504830657226,"8":0.08633264316746316,"9":-0.0534350362347514,"10":0.13601759095339985,"11":0.033489934921619176,"12":-0.07841359379441179,"13":-0.12125465653569897,"14":-0.03755553213353864,"15":0.14805066773528452,"16":-0.19614605985183842,"17":-0.0784796543417614,"18":0.08677679455360206,"19":0.024303651850821954,"20":-0.15628970657827518,"21":-0.004088894429902865,"22":0.1294199289623616,"23":0.14232331332054096,"24":-0.10843430170585164,"25":-0.0932708510401637,"26":-0.19777013994327042,"27":0.11683258276203928,"28":0.04416923285800475,"29":0.03373793472392924,"30":0.13658837453218906,"31":0.03147732574411719,"32":0.03456573451858782,"33":-0.11259279432688082,"34":0.14062379180639706,"35":-0.1603508583046259,"36":-0.02677596133758233,"37":0.18798907639599943,"38":-0.09911302319059527,"39":0.17731960782002953,"40":-0.016030482437746466,"41":-0.016314685807346806,"42":-0.14333189123253703,"43":-0.03399151780275579,"44":-0.03607823061440776,"45":-0.1753301167052442,"46":-0.18284948226790596,"47":-0.03755573892256228,"48":-0.08336555148586076,"49":-0.05983627593438537}},"16":{"bias":0.004341484638941796,"weights":{"0":0.09375866152286745,"1":0.030665711879440814,"2":-0.08731903711931752,"3":-0.0028566527071419586,"4":-0.010490001872032587,"5":-0.1596677996766352,"6":-0.032971258993420426,"7":0.19209878568916713,"8":0.09815145253587194,"9":-0.10018353291820005,"10":-0.056555209205947296,"11":0.13356248164137516,"12":-0.14407400220994865,"13":0.1971874607814486,"14":-0.19400367494319395,"15":-0.04796604547346942,"16":-0.17945354220881907,"17":0.06993766233114072,"18":0.0801586344972952,"19":0.15828026449542584,"20":0.18358061135488488,"21":0.10578629688136261,"22":-0.013195553206370185,"23":-0.18441920580414892,"24":-0.04198603347935798,"25":0.12062293554708206,"26":0.13153925901469035,"27":0.07057370812819831,"28":0.117686326346492,"29":-0.03056419189414996,"30":-0.1276307039432402,"31":-0.03348492638880615,"32":0.14459499644090626,"33":0.09489466007725918,"34":-0.09592097660527596,"35":-0.07785606205412868,"36":0.009501763301951256,"37":0.16048074899124204,"38":0.1005767934339028,"39":0.12309102477768946,"40":0.09943702839611539,"41":-0.03600173073519146,"42":-0.16870495976739203,"43":-0.04659564411299959,"44":-0.1410682895802882,"45":-0.0758375103649965,"46":0.09563595244227058,"47":-0.16460756055730036,"48":-0.1367138432780446,"49":-0.043453989411648304}},"17":{"bias":0.10692807705964813,"weights":{"0":0.15548885993993353,"1":0.054390748489564336,"2":-0.0033711094850897762,"3":-0.0381356304948943,"4":-0.07907791719895417,"5":-0.024894164244557034,"6":0.1237505696863903,"7":-0.06148064925605435,"8":-0.12682409238478098,"9":0.030429838965682056,"10":0.03454100032547001,"11":0.04729590133479806,"12":-0.02025053279832794,"13":0.12618878621683075,"14":-0.18257152744233093,"15":-0.0364493621140996,"16":0.10762440390419215,"17":-0.041145911345609326,"18":0.008060219880546367,"19":-0.14629294071537657,"20":-0.17542274481338166,"21":-0.015233994978373794,"22":-0.0179759714030922,"23":0.1567948516204407,"24":-0.030668568904510127,"25":0.17221932274365928,"26":0.10198026643216669,"27":-0.1512994100842709,"28":0.1040019152533667,"29":0.02528915693058041,"30":0.14710222720705254,"31":-0.14741263394303947,"32":-0.10244688154748031,"33":0.06424747330163108,"34":-0.10730322413863388,"35":0.1636168538302312,"36":0.11996969209944493,"37":0.00595114004052761,"38":-0.18448897884683502,"39":0.18841791745362757,"40":-0.010207701617636948,"41":0.17609271555887648,"42":0.019294439441331194,"43":0.05573111028654353,"44":-0.11823895911365252,"45":-0.1095125567886409,"46":-0.004422006797229327,"47":0.1375130550506991,"48":-0.1039266415575596,"49":-0.11508195517196865}},"18":{"bias":0.027809943796461987,"weights":{"0":-0.013381459069894148,"1":0.1432573044582817,"2":-0.16866107917179646,"3":0.14222531215635964,"4":0.02416004879665368,"5":0.1837089345655396,"6":-0.18188881901185946,"7":-0.10271413924210392,"8":0.1742579113320644,"9":-0.011676572020261004,"10":-0.14611088311624837,"11":0.07346681473639856,"12":-0.165573545312638,"13":-0.025828433344488172,"14":0.18131861960978385,"15":-0.1327279395888228,"16":-0.13501112303397958,"17":0.06666564072329191,"18":0.0540053485828534,"19":0.05299714512271737,"20":0.017378405442563593,"21":-0.14105031512334087,"22":0.017687864974754358,"23":0.017528668364968743,"24":0.16745859930110066,"25":-0.1931598479176677,"26":-0.08432051086430488,"27":0.16989131420732753,"28":0.13854033555482254,"29":-0.17586690945160718,"30":-0.12405630690523661,"31":0.10625705197971974,"32":0.014465561151157536,"33":-0.11149139888828832,"34":0.14330096134574558,"35":-0.03712659041446357,"36":-0.1686722649918112,"37":0.14155181481013968,"38":0.016050431684464805,"39":0.12851047495977277,"40":0.07689783728893242,"41":-0.10040440717402035,"42":0.08348285919923193,"43":-0.1669898701745164,"44":0.1419733127946498,"45":0.10099879198103606,"46":0.10382468127743742,"47":0.19199745374219393,"48":-0.18468841020111762,"49":-0.10297525280695245}},"19":{"bias":0.044420141048180824,"weights":{"0":-0.04531921884786418,"1":-0.18639815541623048,"2":0.08968028983211689,"3":0.13384457684869813,"4":0.017340923171999204,"5":0.002664130336160177,"6":0.129960577756402,"7":0.013582465316792122,"8":-0.16030599493659434,"9":0.06877757374903669,"10":-0.04542938610435737,"11":0.17655712040101992,"12":0.14824757685492782,"13":-0.19481942172878924,"14":0.13644823189981445,"15":-0.19619317401768718,"16":-0.05303082598179272,"17":0.18197430123818892,"18":0.12583549731438473,"19":-0.1588573365270252,"20":0.08129175374512515,"21":0.1738702199454245,"22":0.196888065654215,"23":0.12321757204742406,"24":-0.14936888930876419,"25":0.04717324260979582,"26":-0.004272199530478757,"27":0.03859546550437801,"28":-0.048199722331226,"29":-0.07021745762689509,"30":0.11101348720961346,"31":-0.18999084964703528,"32":-0.16009584039034677,"33":-0.09996427110246968,"34":-0.0783470862268219,"35":-0.19220961175732892,"36":-0.1019835543259248,"37":-0.01963406615845157,"38":0.1550390655615962,"39":0.07500525290546801,"40":-0.02327431938966696,"41":0.08877420037592956,"42":0.030561393807550234,"43":-0.0763171954679369,"44":-0.1489726560646207,"45":0.11222149027198043,"46":0.025204578105618006,"47":0.026841489199931227,"48":-0.1258281396679528,"49":-0.17008953586612025}}},{"0":{"bias":0.022099057907758332,"weights":{"0":-0.2241817087413633,"1":0.17016428108685766,"2":0.013504858949060169,"3":-0.26264128489598854,"4":0.08707311841541002,"5":0.1431795929791318,"6":0.26693172688887556,"7":0.01576102605032309,"8":-0.07665898669582595,"9":0.16652045981398408,"10":0.23361221515268446,"11":0.11493823617679871,"12":-0.15391836719215754,"13":-0.02308818188125151,"14":-0.09665841511195485,"15":0.023871888224726693,"16":0.032482976065663534,"17":0.11702356743840138,"18":-0.12349055742282371,"19":0.16845704034321557}}}],"outputLookup":false,"inputLookup":false}