{"layers":[{"0":{},"1":{},"2":{},"3":{},"4":{},"5":{},"6":{},"7":{},"8":{},"9":{},"10":{},"11":{}},{"0":{"bias":0.15877595779040457,"weights":{"0":0.07965603829844216,"1":0.009539562908739875,"2":-0.14945768120172404,"3":-0.05778020662723597,"4":-0.17266655626290273,"5":-0.12154657701480294,"6":0.15725196772115038,"7":-0.03599145032975139,"8":0.08189310873569307,"9":0.09320028528146261,"10":0.12974055479393715,"11":0.16989284182519168}},"1":{"bias":-0.12192945704263133,"weights":{"0":0.09595345249122916,"1":-0.13036975799538814,"2":-0.03139323866623399,"3":0.0897310869644073,"4":-0.14804439487921064,"5":-0.08108296173657846,"6":-0.20098031248995768,"7":-0.0838801359897334,"8":-0.1413190647867791,"9":-0.013195076993097195,"10":0.038334234591970114,"11":0.19491514943650093}},"2":{"bias":0.09082817201075892,"weights":{"0":0.11903019764762325,"1":-0.1469734352512864,"2":0.1111634275475372,"3":-0.17202190846183102,"4":0.07537415824021909,"5":-0.004582897532606339,"6":-0.07258938009940183,"7":-0.012782022115310801,"8":-0.14894957771933937,"9":0.17154336663012962,"10":-0.12233702031870942,"11":0.008074235925441516}},"3":{"bias":0.08685219166563252,"weights":{"0":-0.003672759101876921,"1":-0.045914030898059406,"2":0.11054485840504537,"3":0.18642998081988388,"4":0.1047473594266345,"5":-0.14795750586016182,"6":-0.02162208386365803,"7":0.041547876240445154,"8":0.08445356074219564,"9":-0.10583956616300705,"10":-0.12920079883810043,"11":-0.1500438909284995}},"4":{"bias":0.10158120905749261,"weights":{"0":0.058545484180395284,"1":-0.04826748746053148,"2":-0.05707458222322025,"3":0.12024788775294792,"4":-0.1865808523861994,"5":0.000714407204276323,"6":-0.09415189404785831,"7":-0.06863458064788258,"8":0.04260875422181695,"9":-0.15037239569781455,"10":0.1213836822310916,"11":0.07613483053032714}},"5":{"bias":0.06183021863760965,"weights":{"0":-0.004846003311606846,"1":0.20023129833004963,"2":-0.17404144974428318,"3":-0.1380899436461388,"4":0.17323674499627092,"5":-0.19483729961085428,"6":0.06840728731242027,"7":-0.16993732493216648,"8":-0.1481832775474466,"9":-0.0445150498869153,"10":-0.1437818414061524,"11":0.0686538114958458}},"6":{"bias":-0.09317836545128938,"weights":{"0":-0.12247147886219245,"1":0.016008353982734355,"2":-0.08773505341112958,"3":0.16019792294175492,"4":-0.1484322142823252,"5":-0.042641865796385965,"6":-0.13810757253697006,"7":0.06936785684119529,"8":0.18278323450041775,"9":-0.10589460455790123,"10":0.13418997478184191,"11":-0.013556166998112084}},"7":{"bias":0.016957791322639956,"weights":{"0":0.12282761737877616,"1":0.0961710980404872,"2":-0.09885664804979499,"3":-0.02605247835681406,"4":0.07665183290065787,"5":0.109358314008956,"6":0.041134985074115483,"7":-0.1365781134383322,"8":-0.12373307146590007,"9":0.18676304595704102,"10":0.0865770355078033,"11":-0.19580038361244553}},"8":{"bias":-0.1003719211632727,"weights":{"0":0.14630176351155808,"1":0.012672603013281636,"2":0.09164816154619115,"3":0.01877100192595238,"4":-0.07767276208772078,"5":0.13336163927807332,"6":0.030703821194477943,"7":0.17902968513438725,"8":-0.09810795677714132,"9":0.08867228851474061,"10":-0.1779201657813528,"11":-0.13138735592712955}},"9":{"bias":-0.08842241286333417,"weights":{"0":0.08600650842247558,"1":-0.14159814033387,"2":-0.01761179506305291,"3":-0.11422375542930537,"4":0.04227833399293235,"5":0.01830891821727199,"6":-0.02608791506968977,"7":0.05709709650137051,"8":-0.14032617801078837,"9":-0.15837257892052636,"10":0.1610151195883355,"11":0.08534092256864316}},"10":{"bias":-0.12641509353103714,"weights":{"0":0.10693744554571465,"1":0.028538431433504527,"2":-0.18324497721595953,"3":0.0034895099916504536,"4":0.11192294168854289,"5":0.18629079014038352,"6":0.12514570929248958,"7":-0.16186879703073762,"8":-0.006514873131427922,"9":0.14695505709197848,"10":-0.06482365170905013,"11":0.13078363481711452}},"11":{"bias":-0.10699591271450297,"weights":{"0":-0.14527973437478212,"1":0.09150513097007058,"2":0.10961471736558848,"3":0.07225294057784055,"4":-0.03926570025165913,"5":0.08926386725418307,"6":-0.02004056088689595,"7":-0.15040228512047943,"8":-0.18459441420318434,"9":0.04151157107116892,"10":-0.1561737970720147,"11":0.17658703729202543}},"12":{"bias":-0.11335350826124208,"weights":{"0":0.02128490028887812,"1":0.10584859146897173,"2":-0.1349502399770235,"3":-0.15366960696103038,"4":0.1363381726572772,"5":0.02268404533033248,"6":-0.011113862740383318,"7":-0.086681662549825,"8":-0.022190102767706735,"9":-0.05966657798479193,"10":-0.005167910453084323,"11":0.036469802596655665}},"13":{"bias":0.14673508248916492,"weights":{"0":0.14531863990417143,"1":-0.16697453716858732,"2":0.052624846382526645,"3":-0.1640546539651815,"4":0.11001420524850203,"5":-0.11822723429240209,"6":0.07642703765492975,"7":0.061964687041507795,"8":0.19123308434225242,"9":0.004049962833140155,"10":-0.1920984789197006,"11":-0.008569534078831605}},"14":{"bias":-0.09451716672545468,"weights":{"0":0.09997283481381047,"1":-0.11134532168943408,"2":0.016396854556159676,"3":-0.050415393963825134,"4":-0.09413078306146058,"5":-0.1623803327024208,"6":-0.08157737956855368,"7":-0.05243464003477596,"8":-0.16480446769576818,"9":0.20082441615334046,"10":-0.12547063058651794,"11":0.19568699529554168}},"15":{"bias":0.17695771218577083,"weights":{"0":-0.049379420525282484,"1":0.04575430771397177,"2":0.017863373688387366,"3":-0.14855255633789044,"4":0.046469926769918395,"5":-0.17159110779958017,"6":-0.08703087689930944,"7":0.007366846714851167,"8":-0.13010125618426888,"9":0.032710830816494466,"10":-0.07629025949196154,"11":-0.13694649161833633}},"16":{"bias":0.10178940045709854,"weights":{"0":0.07024003665327638,"1":0.15860286342887478,"2":-0.18114515525937774,"3":0.19583037650807103,"4":-0.1161920843457399,"5":-0.1704058675381006,"6":0.1323960601066238,"7":-0.11372326424711181,"8":0.15348965780575355,"9":-0.16817365639356752,"10":-0.13507522189936677,"11":-0.004877227540685133}},"17":{"bias":0.10320446264359412,"weights":{"0":0.029805245576263847,"1":-0.16870463678139133,"2":-0.006520737171479675,"3":0.07991525577665103,"4":-0.09349147528186778,"5":-0.03034803338223675,"6":0.03862670164040792,"7":0.0909671512698307,"8":0.03850486201512308,"9":-0.13365718141500363,"10":0.19370464916048022,"11":-0.10007240646858043}},"18":{"bias":0.17672638786976527,"weights":{"0":0.03988343093965629,"1":-0.1243495566086363,"2":0.054692410619575145,"3":0.09529445420902581,"4":0.10513014248247875,"5":-0.1421711603175694,"6":0.062399337204522815,"7":-0.09882294354990875,"8":-0.17155680880017088,"9":0.15324936926425187,"10":-0.18309348136100853,"11":0.149069793983705}},"19":{"bias":0.07243186038425614,"weights":{"0":-0.03519993947434993,"1":-0.004357615501567666,"2":0.16367260034696815,"3":-0.16851976663781984,"4":-0.12364407030556222,"5":-0.05589937700080753,"6":0.011469295198076277,"7":-0.029643554820422115,"8":-0.12290135686745444,"9":0.1384807650011164,"10":-0.19550689928180223,"11":0.14629526396210588}},"20":{"bias":0.15945998785687457,"weights":{"0":0.11407769449592607,"1":-0.08212081095058454,"2":0.1639511871946377,"3":-0.09366684025591727,"4":-0.03603715865476661,"5":0.12617370594651084,"6":0.09074739062619151,"7":-0.1881764540095128,"8":-0.12598103405996885,"9":-0.12736709154552375,"10":-0.050290831733177575,"11":-0.04410149759783918}},"21":{"bias":-0.07063438650109481,"weights":{"0":0.15706196567031416,"1":0.11609643140377442,"2":0.013737818988928136,"3":0.18944232502184086,"4":-0.054558885732056986,"5":-0.07778279421551629,"6":0.1448476768597731,"7":0.052381468078523966,"8":0.058279365883482245,"9":0.03062515552797009,"10":-0.16384544868523712,"11":0.018419167435253164}},"22":{"bias":-0.16115865471724525,"weights":{"0":-0.03840949423625298,"1":-0.119369763592056,"2":-0.04197787985095951,"3":0.16943976042947456,"4":-0.04876389109659642,"5":0.19156160369692304,"6":-0.10994026350020472,"7":-0.07436634063404543,"8":0.107830028856622,"9":-0.07931591802711539,"10":0.03446424253559733,"11":-0.10036913487187744}},"23":{"bias":0.0558340788982573,"weights":{"0":-0.15204066012603973,"1":0.10224045879257901,"2":-0.002836176864062671,"3":0.1754914658302601,"4":-0.03461838052754242,"5":0.03852609521801262,"6":-0.1548534390668697,"7":-0.12007182683872451,"8":0.06555337548059433,"9":0.046243128909045694,"10":-0.09300344815281554,"11":0.13397845320069096}},"24":{"bias":-0.059520751708979996,"weights":{"0":-0.022740777743420783,"1":-0.05584711239097732,"2":-0.15221464058869558,"3":0.003445708357482323,"4":-0.03460482543436734,"5":0.033654233348531556,"6":0.19060001197671805,"7":0.11965817834836459,"8":0.19980715736644925,"9":-0.15346809369785028,"10":-0.1657646971395176,"11":0.06430525057403567}},"25":{"bias":0.05853941430310787,"weights":{"0":-0.14496148244996215,"1":0.1745270876445295,"2":-0.11414284340892787,"3":-0.11468084100844442,"4":0.027762718269817244,"5":-0.09594932219346888,"6":-0.08308749492136373,"7":0.1309183904610445,"8":0.12269475977164652,"9":0.04535227702831915,"10":-0.05256290551772357,"11":0.1065011341601736}},"26":{"bias":0.06672934750961058,"weights":{"0":-0.18227710793000507,"1":0.13492559102419985,"2":0.09373553755212395,"3":0.19236957028361068,"4":-0.14113759197218076,"5":-0.06656851442360939,"6":0.15741654777160066,"7":-0.08761975493309596,"8":0.18012042976230355,"9":-0.049729183517595595,"10":-0.015120637528277553,"11":-0.023064651640239534}},"27":{"bias":0.12410630546250268,"weights":{"0":0.11563911171950261,"1":-0.13671963432464995,"2":0.017587149064537087,"3":0.032252238421164175,"4":0.08074226964376655,"5":0.17739830406001839,"6":0.10542178845130519,"7":0.05483894517438979,"8":-0.026870847606450633,"9":-0.03789664848432634,"10":-0.004211383830508291,"11":-0.04785127403909115}},"28":{"bias":0.07689520727982546,"weights":{"0":-0.06970339044799474,"1":-0.11799219992085859,"2":0.09354130392969844,"3":-0.07814587436779996,"4":-0.04516761742454561,"5":0.0914221018171969,"6":-0.05192223145950901,"7":-0.022631059918011377,"8":-0.08809055697536138,"9":0.19363954974147118,"10":-0.12771437789204382,"11":-0.15161539720392775}},"29":{"bias":-0.10595441657914026,"weights":{"0":-0.10757463479126482,"1":0.19399962981048488,"2":0.06945288971768761,"3":0.09324230411258404,"4":0.19583917390375583,"5":0.16981606066963065,"6":0.003754391552732599,"7":0.08441271545381558,"8":0.05003477505358781,"9":-0.18303083169773285,"10":-0.00389078712011757,"11":-0.03260070897954511}},"30":{"bias":0.1640531804899895,"weights":{"0":-0.04250098736943942,"1":0.023786896012932407,"2":0.07176415304670428,"3":-0.059665961522986685,"4":-0.19070818447446708,"5":-0.033896635355124556,"6":0.07444189246515438,"7":-0.09012556949478727,"8":-0.014600654677927193,"9":-0.11510843417036361,"10":-0.057713102346172794,"11":-0.022527073597877603}},"31":{"bias":-0.05456088155160644,"weights":{"0":0.16188174674127745,"1":-0.08826902096668422,"2":0.19497518109411383,"3":0.16027821785171698,"4":0.11015885606464895,"5":0.015074688030077955,"6":0.1545009169419869,"7":0.18095252364619918,"8":0.11004950998618401,"9":-0.17221108221695255,"10":-0.1804324732740086,"11":-0.005768768860986324}},"32":{"bias":-0.031204529236634044,"weights":{"0":-0.17857084176423957,"1":0.06905039436589305,"2":-0.086269846622868,"3":0.05595387909679596,"4":0.0297707678248667,"5":0.03559393713864254,"6":0.1486476268491471,"7":-0.032268561125225886,"8":0.07331525451097058,"9":-0.06702040981305607,"10":-0.19691389537110832,"11":0.059562597453277424}},"33":{"bias":-0.11318547980517128,"weights":{"0":0.03226783770817122,"1":-0.1550619531654954,"2":0.025175057811377195,"3":0.16146236936284575,"4":-0.16816235644448801,"5":0.13439158096853931,"6":-0.16603378580708422,"7":-0.1578944079565157,"8":0.06473838219245547,"9":0.018533018528798118,"10":-0.19802302015842987,"11":0.1767461056543862}},"34":{"bias":-0.18613925509899545,"weights":{"0":0.010878043543251469,"1":-0.1509953220701952,"2":-0.012131336992766263,"3":0.10708985791500554,"4":-0.05918894751868648,"5":-0.020402331798448022,"6":0.16406007978551793,"7":0.13701191766014859,"8":-0.08258080914723266,"9":-0.062413678998588316,"10":-0.05793774790333449,"11":-0.05021910395031517}},"35":{"bias":-0.0720068436798957,"weights":{"0":0.15144526311607512,"1":0.15097075676512337,"2":0.17836313754055083,"3":0.18341331946970624,"4":0.06351361539448983,"5":-0.060796577179186795,"6":0.05574007717622612,"7":-0.012671440313900004,"8":0.07850135604877999,"9":0.10886453223257365,"10":-0.05530985856836478,"11":0.17580973565482474}},"36":{"bias":-0.13880301695573968,"weights":{"0":-0.12142842455106864,"1":-0.09251918316667167,"2":-0.14516263513292316,"3":0.020619467644239158,"4":-0.046884718239551065,"5":-0.1519562120813634,"6":-0.04217014031371123,"7":0.11522360871470712,"8":0.023523733621192342,"9":-0.04760048141175263,"10":0.05672484486923822,"11":0.0786266855895799}},"37":{"bias":0.19913068770267,"weights":{"0":0.017569282620373532,"1":0.01456388241992316,"2":-0.019922756645659425,"3":0.10461924044460065,"4":-0.1774198344549716,"5":0.11662493917342585,"6":0.18030203837567324,"7":-0.10387964887238282,"8":-0.052493041153150975,"9":0.13063615547352914,"10":0.10037552850081924,"11":0.004349857647774685}},"38":{"bias":-0.0255364697819946,"weights":{"0":0.13770837620298157,"1":0.04274932607642994,"2":0.10186704010998038,"3":0.11110844541651521,"4":0.12759762748909298,"5":0.16286350035824987,"6":-0.019655863079051657,"7":0.025254140385124538,"8":0.19236280942745354,"9":0.10008773650748898,"10":0.05272928912633705,"11":-0.0586096734519265}},"39":{"bias":0.03159112404524747,"weights":{"0":-0.18468191947892515,"1":-0.08388607314466144,"2":-0.12379125980244175,"3":0.13572612671249834,"4":0.15395731635159024,"5":0.0996394494343648,"6":0.07544589389704404,"7":-0.1360965892196038,"8":-0.18945984849466518,"9":-0.04933432408017434,"10":-0.06900242615095464,"11":0.11036077010691187}}},{"0":{"bias":0.13848899449341276,"weights":{"0":0.18881174938753056,"1":-0.05793898231715001,"2":-0.1355971047886719,"3":-0.16503329987117668,"4":0.09191511515910589,"5":-0.014790563104543504,"6":0.08204222903831634,"7":-0.14904473716553712,"8":0.024235785905861236,"9":0.1854825302389221,"10":-0.1749153661821319,"11":0.1716800237545792,"12":-0.14765525224810694,"13":-0.11124514252607312,"14":0.0032461952926208,"15":0.08082832386479216,"16":-0.1506543980100564,"17":-0.18124183220744716,"18":-0.1530059578875163,"19":-0.0027703361172942654,"20":-0.08749998525296436,"21":0.03571476933524211,"22":-0.0017353165707656897,"23":-0.06143952976279084,"24":0.024927926886486717,"25":0.19071721382433843,"26":0.08496802461915036,"27":-0.09319530772879023,"28":0.159941416226787,"29":0.06529916710901852,"30":-0.12111126120975636,"31":0.07412596011995042,"32":-0.05384061798783672,"33":-0.15050201147948405,"34":0.1415710679117149,"35":-0.06538347576394458,"36":-0.18146482189292096,"37":-0.031704502709542066,"38":-0.1054525587708097,"39":-0.032765210144864144}},"1":{"bias":-0.17950964310110853,"weights":{"0":0.06661320421327893,"1":0.13942445722777602,"2":-0.1858748358309702,"3":0.1402122408766271,"4":0.08716506037887051,"5":-0.043958467194188756,"6":0.03828355895930609,"7":-0.1306032145247288,"8":0.11604280537064304,"9":-0.06212402632992215,"10":-0.16760650764476454,"11":-0.11149172041067298,"12":-0.0857627380503643,"13":-0.09342487570627603,"14":-0.17113642700512705,"15":-0.12254483358066412,"16":0.19234724830156896,"17":0.13115348311931083,"18":0.1821097203598411,"19":-0.073355441518284,"20":-0.06212278110712132,"21":-0.08407387257416724,"22":-0.02057509514011718,"23":0.0798528931255057,"24":-0.1563551319864619,"25":-0.0946875095634019,"26":0.05737376754527122,"27":-0.006252598918468592,"28":-0.054209935080162065,"29":0.2016127460091716,"30":0.015117554868865787,"31":-0.1927233985478284,"32":0.1747552045273148,"33":0.17231228405346186,"34":-0.10240045143493023,"35":-0.04107070039994084,"36":0.15865238912662546,"37":0.11823562714227127,"38":-0.16460497020428144,"39":-0.11860006649404477}},"2":{"bias":-0.1576300029303932,"weights":{"0":-0.03390670415093524,"1":-0.18909546201155514,"2":-0.030959132983094245,"3":-0.18218305341097524,"4":-0.06292217232440665,"5":-0.157017110750812,"6":-0.09235121265861794,"7":0.057941185296394165,"8":0.01985252204925612,"9":0.09024682276894011,"10":0.1284939638096167,"11":0.11582131793250479,"12":0.039172025662447596,"13":-0.11751819799038143,"14":0.12323421274290046,"15":0.0032916541980778148,"16":-0.19578099403601293,"17":0.10451775917167988,"18":-0.06568521739688851,"19":-0.013013209122883259,"20":-0.07510538565934964,"21":-0.13306669753982733,"22":-0.009678956497141417,"23":0.10914023108895934,"24":-0.021560119245128906,"25":-0.1917348479475239,"26":0.13673087041009843,"27":-0.030157487389562882,"28":0.10361422325224971,"29":0.13990922666108666,"30":-0.1848817639953656,"31":0.042191530155037314,"32":-0.137032974758503,"33":-0.1213934951255221,"34":0.1507297964515713,"35":0.08691354293815676,"36":0.10458027297044435,"37":0.06441741853788407,"38":0.1515207063311431,"39":0.17413952903444138}},"3":{"bias":-0.15092836381255811,"weights":{"0":-0.07783724902660272,"1":0.11642899916224626,"2":0.1788591448905063,"3":0.11406476787377656,"4":-0.1327465778251395,"5":-0.06650891054160914,"6":0.03364713860975358,"7":0.03433867514751565,"8":-0.06715657133512111,"9":-0.12654659174854765,"10":-0.11233347871054154,"11":-0.01712263054083059,"12":0.0673466077060584,"13":-0.10528892927604791,"14":0.1524451713402002,"15":-0.14311152891299642,"16":0.15429978929017918,"17":-0.001412837889175117,"18":-0.1321134383013908,"19":0.02351648395036737,"20":0.17949269639179935,"21":0.16961802562839787,"22":-0.13140060681908106,"23":-0.05891530967883366,"24":-0.09735428073745048,"25":-0.03427986846388884,"26":0.1833040803560522,"27":0.1277048640765202,"28":-0.04741459434724642,"29":-0.10053652995137091,"30":0.041671219870760036,"31":-0.18879824672971063,"32":0.15856677623497173,"33":0.13309005359438683,"34":0.1633511244287208,"35":-0.08275336047617442,"36":-0.04359506576659413,"37":0.1421218606661934,"38":-0.18233288786042104,"39":-0.13392242754785086}},"4":{"bias":-0.023898192245633075,"weights":{"0":0.10291604757511039,"1":-0.0944465608864866,"2":-0.023990665610135263,"3":-0.17282300865490868,"4":0.09995159346885597,"5":-0.09596487852296055,"6":0.12055017323976537,"7":0.04221273420173657,"8":0.013406301864912146,"9":-0.008764612305460672,"10":-0.16324531392848554,"11":-0.08861860989808357,"12":-0.04188849029020154,"13":0.10993155897475436,"14":-0.15944009722238603,"15":0.12924649899482898,"16":-0.16939584297954646,"17":-0.09616803040130673,"18":-0.141402497050175,"19":0.01862160718027164,"20":0.1467854674314387,"21":0.0872306423970883,"22":0.050053790504758,"23":-0.026926102388441453,"24":0.16087571380471374,"25":0.10554190734317934,"26":-0.18005274387056683,"27":-0.05296193726516001,"28":-0.1259702927226191,"29":0.1552004969417998,"30":-0.11462832902736902,"31":0.10516779588075562,"32":-0.1093155903571566,"33":-0.07416360454846287,"34":0.17129215084203744,"35":-0.025973044087334037,"36":0.18523323603317088,"37":-0.10788586347061296,"38":-0.15780490514391593,"39":0.18377619383258784}},"5":{"bias":-0.17362638225544574,"weights":{"0":-0.022072805565600494,"1":0.17148842884620985,"2":-0.14955905330722533,"3":0.012176723488476846,"4":-0.12243126617515611,"5":-0.13666197213466066,"6":-0.09433866033590331,"7":0.07021475035777124,"8":-0.14511074344025604,"9":0.09143906475886798,"10":0.0874766477638068,"11":-0.08131531509362888,"12":-0.04161734827786876,"13":0.014336703502305854,"14":0.15598242689738406,"15":-0.11124600150470747,"16":0.1720142414215523,"17":0.1742381018311375,"18":-0.08442533579146097,"19":-0.08453100368190798,"20":0.19890411378428258,"21":-0.1686354833665448,"22":-0.13524534304096045,"23":0.10104909430490416,"24":-0.12159202866763151,"25":-0.08853576997729373,"26":0.0013355131131363362,"27":-0.19196132488533912,"28":0.01034444835256316,"29":0.08854252482998028,"30":0.15610342013043924,"31":0.05208455022254208,"32":0.19792425020175738,"33":-0.13587205184277215,"34":0.041038251660378146,"35":0.05092144932131037,"36":0.0019679620211027608,"37":-0.030967332914966283,"38":-0.08277178901776318,"39":-0.1287069422256585}},"6":{"bias":-0.1931625871843306,"weights":{"0":-0.08903379795219052,"1":0.0906142631371458,"2":-0.10974758907645381,"3":0.10182078188405704,"4":0.13875208316234452,"5":0.03296996776129078,"6":0.005119000071712711,"7":-0.14720897884941891,"8":-0.1694796965942529,"9":0.03877715938354357,"10":0.16658330574738967,"11":0.04510477977032191,"12":-0.13852682083333434,"13":0.09415155697724162,"14":-0.09540152444464775,"15":-0.013556566131832306,"16":-0.01197893641997409,"17":-0.13360100349170168,"18":-0.020118576508932878,"19":0.04294464082122905,"20":0.01761057557716584,"21":0.02991563604160527,"22":0.13407865742164815,"23":0.14199816410817628,"24":0.014239838596427454,"25":0.002522899997990009,"26":-0.07145338032908218,"27":0.1616005053427445,"28":-0.0047234985850997955,"29":-0.1871996846300082,"30":0.09678134548373919,"31":0.13600336625397336,"32":0.09178472018422253,"33":-0.1672883864159009,"34":-0.013267126740609427,"35":-0.037291316108566154,"36":0.044151671327083836,"37":-0.1753075739900461,"38":0.004511172864085722,"39":0.14541129758233404}},"7":{"bias":0.10087214404840401,"weights":{"0":0.17197922833290008,"1":-0.057040802660167665,"2":-0.03073041056130339,"3":0.16545605346362433,"4":0.07553393998536656,"5":-0.19865987319735995,"6":0.07238424323075783,"7":0.17062317490115023,"8":0.048588330159975705,"9":-0.004990430170754168,"10":-0.16168778336377368,"11":-0.1035388982011143,"12":-0.169325523734708,"13":0.02351365930798235,"14":0.20017515409834402,"15":0.1308463832345811,"16":0.021471465024825064,"17":-0.0815043762648879,"18":-0.1394999375883407,"19":0.14934162990077274,"20":-0.1493523685158252,"21":0.11362873160007539,"22":-0.08174542785700646,"23":-0.18029683495179843,"24":-0.1689766839768734,"25":-0.04268939756334746,"26":-0.05508419357992746,"27":-0.17504659311283735,"28":-0.15584894656280252,"29":-0.046876249688071414,"30":-0.031826740729054115,"31":-0.02720242182828298,"32":0.028728117707887343,"33":0.19597612911631065,"34":0.04126155861604871,"35":-0.007675179635188108,"36":0.12343339523785903,"37":0.15898945059515746,"38":-0.1256703584798685,"39":0.045963204595900586}},"8":{"bias":0.11050545703071205,"weights":{"0":-0.03510588958555965,"1":0.14688044455967664,"2":-0.08850121200580804,"3":0.021338961753988726,"4":-0.09421898695186182,"5":-0.18136485555709717,"6":-0.133984619216399,"7":0.0760353425085458,"8":0.05853648048884671,"9":-0.08346331396657988,"10":-0.10963246246381893,"11":0.18262236393650325,"12":-0.11478555512903366,"13":0.027631457327817494,"14":-0.10286881450224498,"15":-0.044007034243506334,"16":-0.18828085206354891,"17":0.14938934530469677,"18":0.15107670090651368,"19":0.170025002619094,"20":-0.08066806751249743,"21":0.07729345872955326,"22":-0.16685799265430826,"23":0.02858224168411599,"24":-0.020189186450134084,"25":0.11352584007128401,"26":0.040496964282197435,"27":-0.11139099346570759,"28":0.0016809369914007354,"29":-0.04576315150799999,"30":-0.10733583116847838,"31":0.0681453741045941,"32":-0.08651200457564456,"33":0.16375936599974902,"34":-0.06245945071460416,"35":0.0640127406662055,"36":-0.14297048454225994,"37":-0.048456247096624515,"38":-0.13391897504504607,"39":0.060862917494843176}},"9":{"bias":-0.07014351925811567,"weights":{"0":0.06353360976547068,"1":0.008633282073990734,"2":0.040517355360052756,"3":-0.07979328574202812,"4":-0.08549953807877107,"5":0.10975833332516903,"6":0.019543417694755656,"7":0.20011142293973883,"8":-0.008565741587725322,"9":-0.13663489949008537,"10":-0.09318150529774473,"11":0.02056289234722185,"12":-0.003965181063258253,"13":0.12288535424406714,"14":0.07493569201006245,"15":-0.04297981630906726,"16":0.11184518691634301,"17":0.18236124043741542,"18":0.12359226970223788,"19":0.07791752541808486,"20":-0.16928581691227093,"21":0.09849179230132328,"22":0.024649213196422572,"23":-0.03604853151478339,"24":0.0616812300453156,"25":-0.08868350474749347,"26":0.14826105703821546,"27":-0.12211087171017608,"28":-0.10287914527158583,"29":0.06521062854872939,"30":0.13328014993071466,"31":-0.12747669685016466,"32":-0.10149909921925107,"33":0.12734614901398675,"34":-0.192248046644982,"35":0.12480322463625725,"36":0.17168917019239782,"37":-0.0368513879749671,"38":0.19035582828487438,"39":-0.0788498093981235}},"10":{"bias":-0.07001998975947456,"weights":{"0":0.0007368054379842684,"1":-0.10662159503654858,"2":-0.012399015123991997,"3":-0.015431561645332563,"4":0.08061331861332044,"5":0.0011940307135239827,"6":0.17545137560980933,"7":-0.16377552562159964,"8":-0.05145905313226335,"9":0.007341963224439347,"10":-0.15112484419265299,"11":-0.19780550257651094,"12":0.19229921493752494,"13":-0.08258074088432184,"14":-0.09894451703243735,"15":-0.11930372849091522,"16":-0.030951910324093307,"17":-0.15615863562167068,"18":-0.17915823596500646,"19":-0.1490273088023,"20":-0.015361044528991261,"21":0.06794901944353281,"22":0.11424871904419322,"23":-0.16493526825191324,"24":0.12404679222898822,"25":0.18419970212278547,"26":0.18120007446816117,"27":0.05587274051020973,"28":0.14038321405590246,"29":0.06122075606484619,"30":0.1454627848437246,"31":0.03722986856716551,"32":0.11797150304941853,"33":0.04767621500632139,"34":-0.02131566158681004,"35":0.0759072927836985,"36":-0.17546723283731755,"37":0.09531852563227733,"38":0.16099236798367955,"39":-0.1913519005608138}},"11":{"bias":0.09171443502912661,"weights":{"0":0.05512331382745364,"1":-0.12455398695121266,"2":0.08294665142218137,"3":0.10142997032933067,"4":0.1629227094735744,"5":0.19626928464964866,"6":-0.11040639999350134,"7":0.18165049005258202,"8":0.18245764293016642,"9":0.1829417600326017,"10":0.16987402039883118,"11":-0.15563065324310763,"12":-0.02078702867181701,"13":0.06963394041949816,"14":-0.16729160346116756,"15":-0.1425225815342668,"16":-0.0675950292533123,"17":-0.01584659086647626,"18":0.18373435670296145,"19":0.14461796290288803,"20":-0.08976124305821412,"21":-0.0812637290864509,"22":-0.06697170416404903,"23":0.19115421050343426,"24":0.1217579472940743,"25":-0.03546465747668046,"26":-0.0394675216353765,"27":-0.025764625974450544,"28":-0.17225899173145334,"29":0.14478127745926583,"30":0.11407596705287264,"31":-0.11685518816952914,"32":0.14686441969522587,"33":0.0029920079727514394,"34":-0.08609048670170594,"35":0.14832396093591044,"36":-0.008252111544501756,"37":0.052715941701001946,"38":0.09967846312458271,"39":0.05617419130084818}},"12":{"bias":0.01844238267120965,"weights":{"0":0.18088474323642814,"1":0.18057060681648326,"2":-0.02936217369291064,"3":0.13465703683822872,"4":0.1546446634864103,"5":0.09103622173082845,"6":-0.17691914996467126,"7":0.13112091485449592,"8":-0.10703400316778712,"9":-0.13492346957893697,"10":-0.015359693762280444,"11":-0.14768438880126633,"12":0.0015799028533133844,"13":-0.017603597673745197,"14":0.14821035050376835,"15":0.055707370395244156,"16":-0.17697852366501005,"17":0.17907371946317868,"18":0.030417007630001953,"19":0.12374522359622628,"20":0.12162502834079211,"21":0.16465892025531434,"22":-0.1343786229044205,"23":-0.1906059001879634,"24":-0.14629936724977105,"25":0.034730489277870695,"26":0.009641906239484441,"27":0.131676393788355,"28":-0.005925781753179786,"29":-0.007575534417193268,"30":-0.1056996103768164,"31":-0.03125409066860823,"32":0.13784411264283625,"33":0.045236125003033235,"34":-0.12133007392368676,"35":0.16140046649266823,"36":0.14229698686499384,"37":-0.059357478372974226,"38":0.045664026804734484,"39":0.003732538540450862}},"13":{"bias":-0.022830407836366397,"weights":{"0":-0.12719630313539035,"1":-0.12376172038483893,"2":0.07102899734724231,"3":-0.06629364109210678,"4":-0.08063557040050541,"5":-0.010185552329942674,"6":0.15584985726633432,"7":0.01849964596689366,"8":-0.012101753184423573,"9":0.19471089649856865,"10":0.03965735129176803,"11":-0.1462346687924069,"12":0.16509275427219863,"13":-0.014640988218524578,"14":0.05030756460173966,"15":0.07656778477541101,"16":0.17859427429689706,"17":0.08460060367040569,"18":0.17204629851135184,"19":-0.037838416766739026,"20":-0.17573956429029253,"21":0.03558555947301591,"22":0.020272214981655157,"23":-0.11793149134782552,"24":0.1343403631867746,"25":-0.17558981487086872,"26":-0.07745986815707798,"27":-0.19062874037817493,"28":0.09560778676687841,"29":-0.0127965697184171,"30":0.16670623007101512,"31":0.15092693678820326,"32":-0.1288083711761027,"33":0.10605352247539204,"34":-0.004615637867019207,"35":0.10148377585337374,"36":-0.026551568026610246,"37":0.023582522909710142,"38":-0.11977442552222946,"39":-0.11460586200301176}},"14":{"bias":-0.07251721392216885,"weights":{"0":0.1841729174733673,"1":0.05487086561064293,"2":-0.06459533952697435,"3":0.14139245495782524,"4":-0.05654624163663655,"5":0.06235774418467985,"6":0.0008795926113645772,"7":-0.030016991057375663,"8":0.1899682102634682,"9":0.03299833291445417,"10":-0.13296947918788057,"11":0.1701230122793668,"12":0.006318375230252869,"13":-0.07200747553394268,"14":-0.038724030605915234,"15":-0.10683067638826507,"16":0.1391183982498949,"17":0.07572600956306011,"18":0.05271670364052534,"19":-0.10230787418441259,"20":0.10696036180759574,"21":-0.19508355864605306,"22":0.08180450615169031,"23":-0.08028575581399837,"24":-0.04503891895384857,"25":0.1173246884921282,"26":0.022855534930962818,"27":0.0011024326075327084,"28":0.022885019282989246,"29":-0.06438321172492298,"30":-0.0547208778244904,"31":0.022643560864747343,"32":0.08527206446012059,"33":0.04187399214433157,"34":0.16314550168380196,"35":-0.19313029672649626,"36":0.0487762503711871,"37":-0.09783228745711893,"38":0.198717770226239,"39":-0.1842274468313763}},"15":{"bias":0.02819731156885312,"weights":{"0":0.13529079126407442,"1":0.0665634261792471,"2":0.016938507205908178,"3":-0.15709573835159338,"4":-0.0954587268927432,"5":-0.11322142246592293,"6":0.17595038355687642,"7":0.04972990094620451,"8":-0.1041427619387881,"9":0.13046487978363105,"10":0.05045905512544094,"11":0.06761901321825159,"12":-0.18889603415345627,"13":0.0660220362703962,"14":-0.08767439705482437,"15":-0.12320283577376731,"16":0.08804471989020589,"17":0.19760226256781438,"18":-0.09200929525472304,"19":0.02515695682839626,"20":0.08354875365989253,"21":-0.013911859047365211,"22":0.10439021560851044,"23":0.1789118971067269,"24":0.04655386537044574,"25":0.1597232481710476,"26":-0.051016796367184654,"27":-0.1516283845750263,"28":-0.041504384249990804,"29":0.07794739745785904,"30":0.06128280161738069,"31":-0.10719019292157726,"32":0.07514828289846139,"33":-0.10254120366255257,"34":-0.003563647123852074,"35":-0.09136935006531853,"36":0.12238962966546071,"37":0.07043888427910105,"38":0.1733726117401143,"39":0.010874305895141847}},"16":{"bias":0.1620593115780919,"weights":{"0":-0.08662545898769675,"1":0.10565373781563364,"2":0.1674158581140363,"3":0.09067675697305648,"4":-0.004030711957015422,"5":-0.16945336586519746,"6":0.11669082850447972,"7":0.17737142328703034,"8":0.11523458482241976,"9":-0.040266327777768215,"10":0.11100252659706653,"11":0.007639408897219734,"12":0.000661289416251045,"13":0.02786981316256421,"14":0.06126410103956371,"15":0.06685070441568346,"16":0.024521922724715477,"17":-0.12084770516026129,"18":-0.18349422214963215,"19":0.1268818322329329,"20":0.1399133010656559,"21":-0.02623622515736017,"22":-0.16933549271325365,"23":0.17612530326113868,"24":0.025372893148933626,"25":-0.12360884474702118,"26":0.028594251252550374,"27":-0.18671104616353693,"28":-0.09951409074101827,"29":0.10666996185433132,"30":0.13806537252907547,"31":0.07714671999867946,"32":0.020980782542168994,"33":0.07556737673819602,"34":-0.07958235929275266,"35":-0.16874849464020977,"36":-0.06784983618826945,"37":-0.19843714396466208,"38":-0.04592688106097311,"39":-0.12470162354905245}},"17":{"bias":-0.14239184828378423,"weights":{"0":0.13268447523158294,"1":0.1808736002316741,"2":0.05873105051364381,"3":-0.034545903504053094,"4":0.12050315510491423,"5":-0.1405140369507797,"6":0.0956204562055547,"7":-0.07309347131693354,"8":0.17998808878372805,"9":0.16628882622405214,"10":0.011696698559839866,"11":0.13862338089601517,"12":0.1774023656052193,"13":0.033297245923140574,"14":-0.17690432109226226,"15":0.05370330482653695,"16":0.09287041625375098,"17":-0.031109344134305997,"18":0.1595911494548217,"19":0.1586656506864017,"20":0.016217548102061243,"21":-0.11519790898191029,"22":0.13645728964394999,"23":-0.17022536373304173,"24":-0.10681441201417996,"25":-0.040542350990652384,"26":-0.16028640821472864,"27":-0.12222741496700155,"28":0.08700592591792612,"29":0.11692855008983977,"30":0.02280009906687366,"31":-0.16605752734806672,"32":0.021295209410889634,"33":0.058798025224250455,"34":-0.14378666813394542,"35":-0.006356476707310993,"36":0.08939911920481802,"37":-0.022107987916752333,"38":0.1823472409225136,"39":0.19267961628313476}},"18":{"bias":0.04895058428643715,"weights":{"0":-0.1942373532525209,"1":0.0033644880644897865,"2":0.1938020913218226,"3":0.047509638331771534,"4":0.027865373315513982,"5":0.14559406902601235,"6":-0.0992612082410362,"7":0.024159654339922027,"8":0.15533648304423214,"9":-0.024075103507856174,"10":-0.0310709179151277,"11":0.1896991530217768,"12":0.1506526787416639,"13":-0.01439110594953585,"14":0.09959509132091048,"15":-0.1716641624039966,"16":-0.10787603258056336,"17":0.09055831806036654,"18":0.13373131134043265,"19":0.025974937047386622,"20":-0.17180217591590682,"21":0.07857612986810675,"22":0.1979032119742191,"23":-0.1182538610451748,"24":0.17515500269784398,"25":0.007219953024113819,"26":-0.14629426869828369,"27":0.09950939978825167,"28":-0.0583356685984164,"29":-0.04368708233535662,"30":0.05821018328952956,"31":0.0681261810632297,"32":0.17920636023724248,"33":-0.09003056527996671,"34":0.18255505585987408,"35":-0.12262378632984611,"36":-0.018883646916589822,"37":0.10492583194833467,"38":-0.08938104161333457,"39":-0.016051453041762333}},"19":{"bias":0.12275528573246491,"weights":{"0":-0.13625814826736982,"1":0.04952289455648689,"2":-0.18480324425432773,"3":0.08205069105231118,"4":-0.1598529715183537,"5":-0.09692088721542998,"6":-0.13122881269656933,"7":0.08979315692765102,"8":0.11941485810167732,"9":-0.042715442507191025,"10":-0.045550548545783054,"11":0.023695044649968876,"12":-0.19209607271195406,"13":-0.029786074203733557,"14":0.07471578650124294,"15":0.1639643797043133,"16":-0.14428672612952573,"17":0.12105050588455268,"18":-0.1421977791205294,"19":-0.05639454038738709,"20":0.055590173618189104,"21":-0.1154360099179509,"22":0.08590204820345843,"23":-0.15361648603597386,"24":0.18303942584273303,"25":-0.18531105946850807,"26":-0.041755237135519485,"27":0.09063189253021858,"28":0.15676845869985523,"29":0.11355012428185098,"30":0.05826667789320004,"31":-0.015978378135918587,"32":0.056411157808443455,"33":-0.09802274782818335,"34":-0.10115116458704373,"35":-0.13461052535060922,"36":0.021903317145896817,"37":-0.000012723671228451181,"38":0.15521229016512003,"39":0.0284692730685419}},"20":{"bias":-0.05718242717498264,"weights":{"0":-0.19398629903318876,"1":-0.19409793201307193,"2":0.14193049142936076,"3":0.0010795479558114462,"4":-0.08401023696510156,"5":-0.19609745491594116,"6":-0.16574406192317576,"7":0.0019514668101276332,"8":-0.007730472378794046,"9":0.1453715752031261,"10":0.051625686635854214,"11":-0.16383466407399877,"12":-0.1184359307935669,"13":-0.05429201335690072,"14":0.17621848810205118,"15":-0.07762645381732275,"16":-0.17572670749839361,"17":0.011274720033991716,"18":-0.1691331919298694,"19":-0.19949560455998214,"20":-0.18052576356520372,"21":0.06407588617958013,"22":-0.1575624030220919,"23":-0.1884865478588449,"24":-0.16837896897610857,"25":-0.1948935468698411,"26":-0.01194198401724754,"27":-0.044383614501783054,"28":0.04632372620405515,"29":0.1670406715927769,"30":0.10921210000976793,"31":-0.17059200285056586,"32":-0.14036645595366837,"33":0.07478501618011063,"34":0.12635252879634895,"35":-0.06577496697357667,"36":0.019895976900533456,"37":0.1016331642800277,"38":-0.1156954919678402,"39":-0.18897601632523095}},"21":{"bias":0.14792690908253533,"weights":{"0":-0.09379248687742209,"1":0.1930553985556464,"2":-0.018300296516761606,"3":-0.09442725386137618,"4":-0.1276450895504704,"5":-0.014419480270605089,"6":0.11963637531700201,"7":-0.0067172051564896645,"8":0.12371031453610666,"9":0.066465592048227,"10":0.17976757868492857,"11":0.04703257871358899,"12":0.13663606202190795,"13":-0.13258936773569746,"14":-0.12377910856103176,"15":-0.04669817157971588,"16":0.13893636873506043,"17":-0.030528348882456365,"18":-0.05330097905449472,"19":-0.10656249709146029,"20":-0.006939810987875213,"21":-0.036134772640167956,"22":-0.034867329718641586,"23":0.06428649956107614,"24":0.09338832416552847,"25":0.006456482667040203,"26":0.09330469384340435,"27":-0.0023437077834845034,"28":0.07160323187648016,"29":0.17362943098399722,"30":0.03423701546218609,"31":-0.07759877233166161,"32":-0.05439817149016371,"33":0.1987054695471806,"34":0.08626251668759283,"35":0.13294070756020998,"36":0.08607648930744301,"37":0.16635227239967007,"38":-0.16242288868547017,"39":-0.06857404480111094}},"22":{"bias":-0.07452533267247578,"weights":{"0":0.061137768290937686,"1":-0.18455357240646636,"2":0.174182368550577,"3":0.03628639461655931,"4":-0.04688307497552358,"5":0.11037088786427296,"6":0.13542805450256012,"7":0.050185181564975465,"8":-0.06768427330270754,"9":0.01652037973723889,"10":-0.041340718644748774,"11":0.16900661729616254,"12":0.17105592323592395,"13":0.18692808496194882,"14":0.13648768616146473,"15":-0.10881812954936336,"16":-0.09452969332912968,"17":-0.005434095045888041,"18":-0.027431525302950194,"19":-0.08178029834006442,"20":0.04507535681521872,"21":0.07122526692656574,"22":-0.14980085133233467,"23":0.07580854825016507,"24":-0.09253881411246025,"25":-0.06873058302024926,"26":0.06425565057567616,"27":0.10983855944895556,"28":-0.020604639724322107,"29":-0.03200872026365962,"30":-0.09691781968631816,"31":0.18283147646151474,"32":-0.14438978558608073,"33":-0.07675078354126982,"34":-0.16788580077386464,"35":0.06902972161289855,"36":0.15300650702836677,"37":0.1960638884568001,"38":-0.01149598937403646,"39":-0.18067323897578272}},"23":{"bias":-0.039751351587890636,"weights":{"0":0.12209348752753549,"1":-0.14498489830804862,"2":0.1993942841340879,"3":-0.03774637230982857,"4":0.07030619873816298,"5":0.06091826409248017,"6":0.1060000300310931,"7":0.03910185464199311,"8":0.08190248695188197,"9":0.18472069511826494,"10":0.19058606371370967,"11":0.04710838609384646,"12":0.04635414278771365,"13":0.1483679399054375,"14":0.10087075344842787,"15":-0.056469383127549164,"16":0.10494804035226803,"17":0.19706022491171524,"18":-0.09943854961091561,"19":0.06645013904695989,"20":-0.09785784875515226,"21":-0.00309396495167112,"22":0.04173305182383553,"23":-0.02305293521593612,"24":-0.12686742525763164,"25":0.02036551914574843,"26":-0.14616888324919214,"27":-0.11578026955603303,"28":0.007049906742649143,"29":0.16712952967501532,"30":-0.04437005649725357,"31":0.1690302374922695,"32":-0.18365427501294748,"33":0.16213390170420947,"34":0.11915602091893468,"35":0.02392683436048386,"36":-0.026966910803691773,"37":-0.09122548518636464,"38":0.10082423339683741,"39":0.09997105461526423}},"24":{"bias":0.03664000374065322,"weights":{"0":0.19082791221198972,"1":-0.13944022032770867,"2":-0.08682714849853239,"3":-0.06864409224906941,"4":0.1079108383085966,"5":-0.04772757042042891,"6":-0.11614478163438373,"7":-0.037764966940996764,"8":0.12166130833826605,"9":0.11841068406569703,"10":0.19937472592609426,"11":0.07128787288974994,"12":-0.18487932416688824,"13":-0.18961464614154205,"14":-0.009883715294762284,"15":0.0188044753800982,"16":-0.046242518832563514,"17":-0.04636487960935804,"18":-0.19319755064241248,"19":-0.06220528660093465,"20":-0.07041867505070755,"21":0.05081821367457097,"22":-0.027758208351387877,"23":-0.07389437949184313,"24":0.00410158593515396,"25":-0.0909790361596846,"26":0.07442598345496347,"27":0.01556690077644672,"28":0.17197160616374918,"29":0.03289446642077258,"30":-0.03394049278051624,"31":-0.006562980218703779,"32":0.0017286227040008973,"33":-0.004986289124682687,"34":-0.007311420481165707,"35":0.04561752891024291,"36":0.053126235001115026,"37":0.15069560936857748,"38":0.15739439390381013,"39":-0.04599565673634136}},"25":{"bias":-0.15400437301199588,"weights":{"0":-0.11278692269658978,"1":-0.05737169523160795,"2":-0.10142799557688752,"3":0.16236469089931566,"4":-0.023002267897934883,"5":-0.11624184265260035,"6":0.17509750469534038,"7":-0.007689512773433187,"8":0.12470679445147902,"9":0.15666784495050715,"10":0.05949181004420037,"11":-0.11040668400695787,"12":0.09578029053186388,"13":0.03337850659722706,"14":-0.021610231081540244,"15":0.09818745591959376,"16":0.08647577106011436,"17":0.10215151712115537,"18":-0.19898224119564592,"19":0.18615814899132116,"20":0.046370234012443265,"21":0.07606080177275787,"22":-0.19631989535132402,"23":-0.08664140006333701,"24":-0.03295194826040204,"25":-0.12300400242552897,"26":-0.025695339120878662,"27":0.1265121362031619,"28":-0.15643915667959696,"29":0.01600701478507615,"30":0.15637552083442047,"31":-0.14595006771197347,"32":0.046992714106166025,"33":-0.12978956433365868,"34":-0.002547971074198593,"35":0.08184839575265264,"36":0.04387362767418969,"37":-0.020389169689308873,"38":0.08559007228174058,"39":0.02689547256944806}},"26":{"bias":0.06614469274543158,"weights":{"0":-0.016565915467070345,"1":-0.19906632792103426,"2":-0.16894504382359987,"3":0.1944111829507289,"4":-0.09361211400678535,"5":0.07896673141878331,"6":-0.042947611699655414,"7":-0.03542334074351256,"8":-0.01721274997779003,"9":0.1287461701236925,"10":-0.1823727158771269,"11":0.1252749253703673,"12":-0.10766467679042642,"13":-0.004678109582407118,"14":0.09431178491048554,"15":0.17117259057650916,"16":0.052631510872276646,"17":0.14489414842604703,"18":-0.15475100475987325,"19":-0.13519013465172494,"20":0.1942233844805575,"21":0.1523192628788407,"22":-0.15630421883420642,"23":-0.12501163601163542,"24":-0.08493110807039843,"25":0.14606653884928023,"26":0.15023903460602542,"27":0.13617366678915013,"28":0.13033009540599486,"29":-0.15434230401193955,"30":-0.02967956055867232,"31":-0.17264445542896717,"32":0.13584002596564235,"33":-0.14535423958938945,"34":0.1785102896150171,"35":0.0020094586715509147,"36":-0.13443037480492012,"37":-0.015165154346536132,"38":0.19639271018893015,"39":0.15157390541437396}},"27":{"bias":-0.01976398041387216,"weights":{"0":-0.09938713316928457,"1":0.08837617727817758,"2":-0.1946829730878799,"3":0.14850778580772403,"4":-0.1992377752384329,"5":0.10887290416763055,"6":-0.1429789048494227,"7":-0.016361376128107827,"8":0.03871250242535532,"9":-0.10222555397887634,"10":-0.022310233156595506,"11":0.1271751976303747,"12":-0.15692684087594408,"13":0.000516102056664184,"14":-0.08678317090065839,"15":-0.02614550210954475,"16":0.1238907325754459,"17":-0.15480870750775844,"18":-0.15099888186657207,"19":0.16492961848196705,"20":-0.1800998503193032,"21":-0.19580216658861355,"22":-0.11598087457006108,"23":-0.07893732604993813,"24":0.0040846984885862265,"25":-0.045279347000452816,"26":-0.1147167776296622,"27":-0.1484111244753649,"28":-0.01726377037878501,"29":-0.10254302628985654,"30":-0.12243961946242457,"31":0.1416395091705132,"32":-0.16554453881628195,"33":0.12327946231674107,"34":0.16468804919995833,"35":0.172375171960589,"36":-0.04391388794764836,"37":-0.06442772594984007,"38":0.09135074452048489,"39":-0.14425421091265037}},"28":{"bias":0.1590818253398518,"weights":{"0":0.11207026751489939,"1":-0.11682041804255638,"2":0.10816476473379984,"3":-0.08510511827018476,"4":-0.07462396749384255,"5":-0.19755905257813736,"6":-0.11115241085378821,"7":-0.035763658605541586,"8":0.1727805994771154,"9":-0.19821297356011325,"10":0.006921722779573207,"11":-0.10672181566336505,"12":-0.034568509854330604,"13":-0.16766957897178625,"14":0.08543409390407879,"15":-0.04088674871265491,"16":-0.12979071580092547,"17":-0.16773080328937215,"18":-0.0856710884816288,"19":-0.044233788871835884,"20":0.1508952428134866,"21":0.10554752017449527,"22":-0.1453832355387721,"23":-0.17754204871622092,"24":0.10890201203250234,"25":-0.042545699254306776,"26":0.03350628411107242,"27":0.15466603657399708,"28":-0.007024199589932638,"29":-0.025186468740522664,"30":-0.049390871015620175,"31":0.04106334248583213,"32":-0.11948188223906399,"33":-0.17779892292618582,"34":0.16470188563915367,"35":-0.003652232594048513,"36":0.04291072015642404,"37":-0.17569493237150002,"38":0.05658360831737784,"39":-0.157496077479354}},"29":{"bias":0.04594329937167735,"weights":{"0":-0.12875141973808052,"1":0.06677087774109691,"2":-0.17036740398253702,"3":0.07443565632096895,"4":-0.09763481638657974,"5":-0.1170940751901111,"6":-0.019718438715325498,"7":0.06923343599551547,"8":0.013143108519248712,"9":-0.12990013203118542,"10":-0.03835289872828222,"11":-0.14421282059297647,"12":0.019276582752752784,"13":0.0756039846289836,"14":0.0043437725290779135,"15":0.09391032040519394,"16":-0.08490177679071366,"17":-0.1572249985233262,"18":0.04688176924748935,"19":-0.028663840615164853,"20":0.026567218962237196,"21":-0.15301371306129835,"22":-0.17811837611683157,"23":-0.025300474789868122,"24":-0.04709679912236663,"25":0.15790264907970933,"26":-0.00006965336195174251,"27":-0.010422959965275789,"28":0.012762631926107989,"29":-0.08905088839666116,"30":0.06411548911968551,"31":0.0017519031426677944,"32":0.18371312886147428,"33":0.1502677388341829,"34":-0.03677359123888398,"35":-0.12195839212921557,"36":-0.027095238285478863,"37":0.040567066652305125,"38":-0.048080897083695694,"39":0.08078267307937982}},"30":{"bias":-0.11985490321529634,"weights":{"0":0.12841110876592163,"1":0.031775102141889146,"2":-0.1395651782147847,"3":0.0377975928697162,"4":0.15938309148104207,"5":0.0065310664474412545,"6":-0.18270445804238705,"7":0.042911590331411516,"8":0.03603709394099208,"9":0.042192363102387186,"10":-0.17065132351275203,"11":0.0480143788170024,"12":-0.1923447337076107,"13":-0.1063126595609448,"14":-0.12771509158227198,"15":0.021740480034847555,"16":-0.0864521296177549,"17":0.15514771277759193,"18":-0.12129696491394379,"19":0.17189844202970606,"20":0.08859650342878886,"21":0.1230935518811509,"22":-0.13585059254529303,"23":-0.13498027333590765,"24":-0.038462140003011694,"25":-0.13854713514596392,"26":-0.0847555202893875,"27":0.09118988679107269,"28":-0.056440959798382616,"29":-0.1328923975129513,"30":0.15684304410318464,"31":0.09745390475458779,"32":-0.08111285034617516,"33":0.0747482739014456,"34":0.06430694487643351,"35":-0.10248224803678303,"36":0.09278794755129179,"37":-0.1224645695784997,"38":-0.16762069617664915,"39":-0.037194182659887005}},"31":{"bias":0.17277304074180938,"weights":{"0":0.08420500860836855,"1":0.05789821999830164,"2":-0.07624328567353915,"3":0.16346758707936582,"4":0.14300606166492302,"5":-0.18147125085147894,"6":-0.03686180977627968,"7":-0.1295282607379981,"8":-0.10457445259258895,"9":0.1078171260438232,"10":0.05831445934832488,"11":-0.04165179073137998,"12":-0.05098794105943399,"13":0.0632442160354278,"14":-0.005202638614992094,"15":-0.044050011531229755,"16":-0.14705592265461848,"17":0.11915930265230187,"18":0.1408057951886651,"19":0.06063666313203203,"20":0.014133695180455064,"21":-0.19273001256535446,"22":-0.09431929677939638,"23":-0.08068735966235277,"24":0.07621658270075903,"25":-0.12893285269003257,"26":-0.011707803870925406,"27":-0.027582863037252638,"28":-0.0668545726496453,"29":-0.10880996962255393,"30":0.19536516695371364,"31":-0.14738031405454316,"32":-0.07109102751545752,"33":-0.061220926485766505,"34":-0.13157443004324423,"35":0.1422868734735805,"36":-0.019141753747511717,"37":-0.1968410166164823,"38":-0.05155348869686813,"39":0.08844552742998578}},"32":{"bias":-0.15345069724498642,"weights":{"0":0.127429789148559,"1":-0.07599346184555424,"2":0.07468729225098888,"3":0.006398401174137487,"4":-0.08552230161061898,"5":-0.15383629606225505,"6":-0.17065197202336718,"7":0.1525899179504252,"8":0.13775757930695068,"9":-0.06687160338253983,"10":0.004107408437755328,"11":0.17756333939786426,"12":0.18930185944926514,"13":0.10428154067367897,"14":-0.19203065775650463,"15":-0.10860876645019844,"16":-0.12834622363902887,"17":-0.1481412125630481,"18":-0.08208423033858483,"19":0.173080339485278,"20":0.017822063791867737,"21":0.15655716404963888,"22":-0.06387227204755079,"23":0.16300799341510094,"24":-0.0490036725814548,"25":0.08242947862052667,"26":-0.06887673876752075,"27":0.18683314600824447,"28":0.06035935575327065,"29":-0.09503347924644595,"30":0.10067830314238521,"31":0.15734148036916162,"32":-0.011214110364032226,"33":-0.010247732845256145,"34":-0.09836153864182565,"35":-0.023791296195059326,"36":0.08271178863540049,"37":-0.08397338414109587,"38":-0.10962809359654793,"39":-0.010803440243126548}},"33":{"bias":0.15152195379473082,"weights":{"0":0.05550141388038759,"1":0.09492718634730703,"2":0.0988112956447117,"3":-0.10914649458022194,"4":-0.06376200336927203,"5":-0.18997286030101954,"6":-0.062187633042860964,"7":0.15134017880711562,"8":0.02486310565873603,"9":0.1009448287799083,"10":0.17278461428920017,"11":-0.15530265544246724,"12":-0.04512364345248996,"13":-0.06769656749549985,"14":-0.08085448990890033,"15":0.06763719412702716,"16":-0.19423613028978975,"17":-0.16156932841898053,"18":-0.1187782692279905,"19":-0.045290857050905006,"20":-0.025428498035600457,"21":-0.045604309434149816,"22":0.17090913091402754,"23":-0.00774487574654543,"24":0.09174165476427046,"25":-0.1737039118478628,"26":0.14688207890855925,"27":0.1408377666564132,"28":0.16986550920947666,"29":0.17465956852339604,"30":0.15937829127978217,"31":-0.1485585752423458,"32":0.13069086105830813,"33":-0.01032256073232851,"34":-0.01881074008817933,"35":0.18022814257875475,"36":0.09185113279109464,"37":0.12761877483041978,"38":-0.05017291433188397,"39":-0.07475262932842623}},"34":{"bias":0.1091781310044577,"weights":{"0":0.18114206629240104,"1":0.15371633548457492,"2":-0.08717855564477453,"3":0.06736930196330394,"4":-0.09984798171216755,"5":-0.16349119379894797,"6":-0.016045768304769035,"7":-0.1028723587817891,"8":0.07460715717247728,"9":-0.08315089417401858,"10":0.1776751599092738,"11":-0.07869293058342473,"12":-0.01481410410459408,"13":0.055775188036495664,"14":-0.08241865754480004,"15":-0.021259351988148174,"16":0.18913409213453833,"17":-0.009066648775233301,"18":-0.11320633824412163,"19":-0.12578137454761928,"20":-0.14845140650099253,"21":-0.046493590522473816,"22":0.11375092309677279,"23":0.07004029741256272,"24":-0.1490552084518498,"25":-0.09257334095543635,"26":-0.059769774388725695,"27":-0.14019525570892258,"28":-0.07624873966226586,"29":0.10352454248389417,"30":-0.09298077660120006,"31":0.13600762870845456,"32":-0.1744225202949977,"33":-0.10007029463586817,"34":0.12291684599581301,"35":0.10701987825304796,"36":-0.0902586834461752,"37":-0.10439521155857664,"38":0.16442372159547966,"39":0.04610736512488666}},"35":{"bias":0.1464152023189311,"weights":{"0":0.03496087809168008,"1":0.1543829832069309,"2":-0.14890122650854534,"3":-0.14308034688997026,"4":0.09745180804193702,"5":0.12425686319181478,"6":-0.017205418146785167,"7":-0.01231845304448771,"8":0.001810146277195264,"9":-0.00903803184981926,"10":0.05405796429121721,"11":0.11856215091754409,"12":0.16557710600287015,"13":-0.13684832936356353,"14":0.11348931917311601,"15":-0.030364221024615723,"16":0.019179880583285663,"17":-0.005640402977098547,"18":-0.18915776748519086,"19":-0.11446487974168314,"20":0.12601293203269956,"21":-0.13896449267793404,"22":-0.05780657176629861,"23":-0.05539027800004795,"24":-0.03221186114313842,"25":-0.14527614626003246,"26":-0.07629265729251611,"27":0.07711627481563149,"28":-0.15882730272154094,"29":-0.1550590179385275,"30":-0.10112610944718514,"31":-0.1443737222959154,"32":-0.13517160156959215,"33":0.034937840537312526,"34":0.015780992159494564,"35":0.1493460432312324,"36":0.13927905623420964,"37":-0.1803153485958203,"38":0.08384376060987048,"39":-0.17347236383933823}},"36":{"bias":-0.09081040531826592,"weights":{"0":-0.04714817501355343,"1":-0.009205225894096163,"2":-0.07985527799172104,"3":-0.09923523060928124,"4":0.15645877832093105,"5":-0.17955922788944073,"6":-0.16249570322409512,"7":-0.13952146282262945,"8":0.18567182672152352,"9":-0.0565058722832431,"10":0.1073631999129706,"11":-0.10049076156842214,"12":-0.119624595536418,"13":0.19580913154045643,"14":-0.05509007790635374,"15":-0.06236612778505833,"16":0.16219047011649254,"17":0.12931179540666876,"18":0.006395844477934622,"19":-0.07034190716467822,"20":0.16026950216327365,"21":-0.0652522309616624,"22":-0.04353251498336541,"23":-0.004749767938318742,"24":-0.14645126587998497,"25":0.1261944614130302,"26":0.035500910663310244,"27":0.12117024943041928,"28":-0.007411740894169155,"29":0.16384111831002665,"30":0.09230939390054606,"31":-0.08914227166346597,"32":0.12840272352529816,"33":0.042024075623921305,"34":-0.1740077851499878,"35":-0.12517861647722278,"36":-0.054738479201574,"37":-0.10212695764428345,"38":0.18375315935297057,"39":-0.1967156197757796}},"37":{"bias":0.025941372976485452,"weights":{"0":0.05744765964409437,"1":0.12562779222816778,"2":-0.0021948443956101515,"3":0.02762270871434161,"4":-0.060220992096920466,"5":-0.15279754896479178,"6":-0.05899132860750456,"7":-0.02554118933110105,"8":0.03204734434134764,"9":0.0010544763800364677,"10":0.028719123673549434,"11":0.031225575318933812,"12":0.11892146288083523,"13":-0.02643599622432327,"14":-0.14537908463177698,"15":-0.06586101857893371,"16":0.08128754278718796,"17":0.07234784255795436,"18":0.18108029605489281,"19":-0.09353704084245273,"20":-0.14798467698027404,"21":0.08025077914974645,"22":0.013353307867072674,"23":0.08705047242706065,"24":-0.13034874765197474,"25":-0.14383315893272058,"26":0.1129284339270332,"27":-0.10884015307889025,"28":0.09509313343195916,"29":-0.06528144324024056,"30":-0.013041552626640737,"31":0.11427896487354042,"32":0.11614802242818728,"33":0.08588145139900841,"34":0.15671247466395416,"35":-0.0997240396440416,"36":0.004144292802853778,"37":0.10408054788031149,"38":-0.10648918534478288,"39":-0.11799902258079956}},"38":{"bias":0.1098818376075312,"weights":{"0":0.025083983172509868,"1":0.069821533600696,"2":-0.02480867617584125,"3":-0.09906843632366634,"4":0.08498923847610317,"5":-0.14603867481395222,"6":-0.10609258182939414,"7":-0.042373871515380385,"8":-0.16281707770580145,"9":0.11945098870334901,"10":-0.1680288036346302,"11":0.03469013745067898,"12":0.0034285696543425222,"13":0.07104290504687252,"14":-0.13459565261711576,"15":-0.024795179426470526,"16":0.17853142576382844,"17":0.01580169305187743,"18":0.19976222244968467,"19":-0.07311497432374581,"20":0.03662791871602641,"21":0.1568768983281923,"22":-0.0642102279712515,"23":0.17896991622562183,"24":-0.10446378363435231,"25":0.17087168569333824,"26":-0.11538914276559986,"27":-0.18561041732297667,"28":0.04778471311204314,"29":0.02938047132844654,"30":0.12136647447813145,"31":0.02218357181668249,"32":0.13703304462844068,"33":0.12132412972622718,"34":0.1551380872391034,"35":-0.11499196066027385,"36":0.09212873005149347,"37":0.1438875897325356,"38":0.0952032643111729,"39":0.19427191270964944}},"39":{"bias":-0.07239893230129292,"weights":{"0":0.06621107998531373,"1":-0.16402141759465147,"2":0.0687515587087304,"3":0.17563812451319571,"4":-0.20030535170822017,"5":-0.14351149209131567,"6":0.09048956663753295,"7":0.035591240265061636,"8":0.12448494689149683,"9":0.1300939347529147,"10":-0.07069002795072804,"11":0.13208319615718828,"12":0.05722334754742904,"13":-0.171254244130414,"14":-0.1900825042555711,"15":-0.041868216505020366,"16":-0.15153459680763515,"17":0.06353688156950452,"18":-0.030291853442550733,"19":-0.002910598652652283,"20":-0.006402846559527741,"21":-0.11371615542428867,"22":0.19369533742191916,"23":0.009340186571287157,"24":0.07709570386013917,"25":-0.14767338695388044,"26":0.04844349476687621,"27":0.09449921112601897,"28":-0.14255838523398787,"29":-0.004959471713452238,"30":-0.11502189629703834,"31":-0.0401831137818647,"32":-0.000008556225806135921,"33":0.19318237127926183,"34":0.15781044247037937,"35":-0.03957128308254957,"36":0.1384722716083864,"37":-0.000116032648529332,"38":-0.12701474309048538,"39":0.1788257949421928}},"40":{"bias":-0.19620022195143463,"weights":{"0":-0.11989524705241889,"1":-0.025011805684389907,"2":0.06303887780401221,"3":0.08812000151052064,"4":-0.07697562951011903,"5":-0.10267794817867909,"6":-0.07944657656306317,"7":-0.1459990244807308,"8":-0.1552546871416803,"9":-0.09273723519063257,"10":-0.16366089670509776,"11":0.1288399855566796,"12":0.10046021630746528,"13":-0.14358824114149935,"14":-0.08809183250605165,"15":0.03371758165091996,"16":0.0809262248402114,"17":0.08932672285036221,"18":0.011807071792151347,"19":-0.18336424477253688,"20":-0.08502908587874042,"21":0.0962035125468021,"22":0.17088984272303162,"23":-0.12604575650192631,"24":0.03723789820888333,"25":0.06406864429154274,"26":-0.1393747584323517,"27":0.11981307254096638,"28":-0.16295845045082966,"29":-0.08295201929742996,"30":0.05795703601061545,"31":0.1564790041243163,"32":-0.1503752653303232,"33":0.008155672464952949,"34":-0.19455658202629422,"35":-0.15928487640279848,"36":0.03186542395552869,"37":0.03254621883046686,"38":-0.11607924921407033,"39":0.12228786904339432}},"41":{"bias":-0.002843881658753146,"weights":{"0":0.13824264088466168,"1":0.14298794004772786,"2":-0.08296975169080274,"3":0.09661915677206287,"4":-0.10672414658260346,"5":0.09201015616065199,"6":-0.15288936678400936,"7":0.05593550348552174,"8":0.007032160003486374,"9":0.018067401577329733,"10":-0.029025698335773974,"11":-0.020908923875618678,"12":0.056878580186487206,"13":-0.038768864197667396,"14":-0.057193210674876906,"15":-0.00019900433930302523,"16":-0.08829521468252746,"17":0.0951979640044752,"18":0.18403178342416718,"19":-0.11655931989726089,"20":0.09984308953767337,"21":0.055820588044534214,"22":0.011482816565493346,"23":-0.18722936424986097,"24":-0.05018337867102805,"25":0.1462216088787926,"26":-0.14153855536140933,"27":0.1497005826277961,"28":0.14333512204180793,"29":-0.12718565856002967,"30":0.10339948152735205,"31":0.028692490217613904,"32":-0.0829294117407731,"33":-0.14796962441645545,"34":-0.09737257100183759,"35":-0.07423696190292085,"36":-0.0019449896170572602,"37":-0.07226352175215679,"38":-0.10810321717777824,"39":-0.13110598550555508}},"42":{"bias":0.1404503177934112,"weights":{"0":0.13340787022690057,"1":0.15870419300726568,"2":0.10247811863454968,"3":0.006899277489280867,"4":-0.1431261569054967,"5":0.03642804676239026,"6":-0.01609908952284737,"7":-0.13067420396064813,"8":0.1514816108415102,"9":0.09992456087866541,"10":0.07316506791300059,"11":-0.14492389054380647,"12":0.08360097830533002,"13":0.0833640105763127,"14":0.15509550832611363,"15":0.08193428782105239,"16":0.011127303723921794,"17":-0.0135984656342922,"18":0.1778387732449637,"19":-0.09943781890901687,"20":0.05979433119381115,"21":-0.12339871774625458,"22":0.032243358169680804,"23":-0.19922891211158236,"24":-0.1747328254041287,"25":0.034404459937288655,"26":0.10898205709318987,"27":-0.014291855445663441,"28":0.11105956362347369,"29":-0.015436061324288519,"30":0.002106640053281831,"31":0.1281399498657543,"32":-0.037674093331347414,"33":-0.19447006602182315,"34":-0.06241325444624207,"35":0.003056637355566901,"36":0.10978354881766418,"37":-0.15911515170850304,"38":0.15607262986126033,"39":-0.046658502182124646}},"43":{"bias":0.14336342673568306,"weights":{"0":0.19799648064389838,"1":-0.0282876665262865,"2":0.0012100280933657758,"3":0.13365317000919041,"4":-0.17383061635518682,"5":0.03681648656689011,"6":0.06115019942268839,"7":-0.11853670750255753,"8":-0.09662987525605297,"9":0.18017289278930732,"10":0.08558129520942329,"11":-0.04365193933852794,"12":0.008976938546298897,"13":0.18699555483340974,"14":-0.08057612340564126,"15":0.15310342396791488,"16":-0.03642064687921288,"17":-0.0385641557796088,"18":0.10322700617042292,"19":-0.15778230024482717,"20":-0.12091717582463495,"21":-0.10522186028919107,"22":-0.04097921822899951,"23":0.10692695977454311,"24":0.07863524662216123,"25":-0.1918810384737311,"26":-0.0933018819511573,"27":0.19352879386894778,"28":0.13570120982665615,"29":0.10065343054098326,"30":-0.03368500756321339,"31":0.15911937102676227,"32":0.17061713643638032,"33":0.03361092020881168,"34":0.08988819488073055,"35":-0.0992165685277013,"36":0.06819042382842583,"37":0.10577082961132889,"38":-0.07675275958597094,"39":0.047489331491545654}},"44":{"bias":-0.1704981053719235,"weights":{"0":-0.14529733841452508,"1":-0.08102731480975982,"2":-0.13861925729304223,"3":0.13674869233124765,"4":-0.14234150560946207,"5":-0.14237023386623987,"6":0.13267927964673298,"7":-0.06919489619077064,"8":-0.14737244373364272,"9":0.08648352085165809,"10":-0.02613620367315783,"11":0.18835899016951085,"12":0.1913602631096144,"13":0.1286274176739065,"14":0.062498022837832144,"15":0.10205340324768106,"16":0.09030583441894237,"17":0.047468101766370834,"18":-0.055665365438516745,"19":0.1503679093177032,"20":-0.004594521741230761,"21":-0.18878059747751216,"22":0.0285716362811645,"23":0.1142009420926147,"24":0.11900321288846116,"25":-0.139151724804813,"26":0.08086745656721195,"27":0.15181535151683498,"28":-0.13675668308911626,"29":0.04125233612948353,"30":0.1958910714722319,"31":-0.13438176040937314,"32":0.10117531242561881,"33":-0.0056440307232629525,"34":0.13923234396077713,"35":-0.16458014752741015,"36":-0.05991011975865167,"37":0.1858521556038133,"38":-0.19377448429022154,"39":-0.004238965084818109}},"45":{"bias":-0.050459677119113144,"weights":{"0":-0.028634281177951807,"1":0.1846635927826212,"2":-0.1270605023277855,"3":0.014073512784221824,"4":-0.041812190957884604,"5":0.1178798706546461,"6":-0.1383817220162376,"7":-0.08215818705881055,"8":0.15479056859306217,"9":-0.08710425121780649,"10":0.16039816220327943,"11":0.12910117301665291,"12":-0.19241316751155074,"13":-0.19070437487597136,"14":-0.18758045919056798,"15":0.009490228441490254,"16":0.02546661717700621,"17":-0.018775532898327903,"18":0.17603291898774637,"19":0.1332261039927526,"20":0.05246558194689966,"21":-0.10237263775237483,"22":0.11988922219722428,"23":-0.07497866585844513,"24":0.060126312658539266,"25":0.03322512490103542,"26":-0.1824769612548056,"27":0.19960755233755856,"28":0.0484493850430537,"29":0.19644846912390818,"30":0.12937431370974295,"31":-0.13604652770624306,"32":0.02213003067103666,"33":0.13301633527640966,"34":0.011115737136100083,"35":-0.046697340939827886,"36":0.062232332240448184,"37":0.1112629087913903,"38":-0.019024049910622218,"39":0.15453260462913396}},"46":{"bias":0.09582519923966064,"weights":{"0":-0.0803123159041911,"1":0.15902730336654997,"2":0.11919105585709014,"3":-0.0279653000834891,"4":-0.1557356467748007,"5":-0.037965091383197126,"6":-0.1370466348749246,"7":-0.15543542247037104,"8":-0.17437905954632596,"9":-0.013384723399596624,"10":-0.10014875109166363,"11":-0.06300784972823896,"12":0.07861142558611091,"13":0.14349419169698904,"14":-0.10705152951879517,"15":-0.0209319051529464,"16":-0.1753567816420118,"17":-0.11012569338642372,"18":-0.09758266806521437,"19":0.1022716765419899,"20":0.052104144136985414,"21":0.08606296066584228,"22":0.07544479449135685,"23":-0.11701303426518092,"24":0.12090652607503652,"25":0.15604624171463735,"26":0.009499568983979682,"27":-0.06743540881481018,"28":-0.0891777470455425,"29":-0.09613755029860427,"30":-0.07175924866767419,"31":-0.14309396727896292,"32":-0.19631997505602025,"33":-0.1875958176412844,"34":-0.13820846890003485,"35":-0.0847871252143344,"36":0.020123633509084457,"37":0.0007662116125729434,"38":0.06324145372808926,"39":-0.11999214971951662}},"47":{"bias":-0.1061599286310193,"weights":{"0":-0.0023488179462217403,"1":0.04213219946649003,"2":0.044928857518857085,"3":-0.15769804454249167,"4":0.033474093470700586,"5":0.1574294438275416,"6":-0.13573396735659923,"7":0.00959446510067424,"8":-0.05879861627133999,"9":-0.006560847169465241,"10":0.06534137323407345,"11":-0.0013040301374876964,"12":0.07140361033394102,"13":0.036722648336190454,"14":-0.03748408968204312,"15":-0.1517024909397251,"16":0.03856628577339317,"17":-0.17460871056485672,"18":0.08996085251611229,"19":0.003576543849815044,"20":0.12299302622017627,"21":-0.06640447799551952,"22":-0.14287991270749,"23":-0.011376168011924363,"24":0.16425749386937671,"25":0.01735316961038801,"26":-0.05277148953665613,"27":-0.00009206461041030073,"28":0.06324891371033184,"29":0.1133957307721336,"30":0.19404703697378978,"31":0.011504257702916083,"32":-0.17751372152387576,"33":-0.03702601809582469,"34":0.06840042552792541,"35":0.0375192587008585,"36":-0.010165250468472968,"37":0.003452673066372653,"38":-0.048016296932924134,"39":0.10155597266122718}},"48":{"bias":-0.08797510382755933,"weights":{"0":0.11823065484602319,"1":0.14302763398816612,"2":-0.05339357467760978,"3":-0.07715788291015223,"4":-0.03287444914546695,"5":0.04153573462721908,"6":0.09925546072731507,"7":-0.01908912907412428,"8":0.03841221605503486,"9":-0.13197922977633958,"10":-0.1043557369315588,"11":-0.008616146330065414,"12":0.06442703309935016,"13":0.051100827780104094,"14":0.1074164357471497,"15":-0.06388211367993146,"16":0.06704888558692756,"17":-0.09051810493586965,"18":0.03143748694716204,"19":-0.15864756533748192,"20":0.11081317459748188,"21":-0.04752306666836018,"22":-0.021899219482096933,"23":-0.19109481639691855,"24":-0.141844663827323,"25":0.0818327080502612,"26":0.0543207038802476,"27":0.15036961094393864,"28":0.02595766871666933,"29":0.10075738301866904,"30":-0.06967721249266681,"31":0.07435205549041479,"32":-0.0646121419658168,"33":-0.10481982516732559,"34":0.1592518848537192,"35":-0.003085622591510124,"36":0.14700688999044575,"37":0.14761279933406576,"38":0.19495171265010108,"39":-0.08502442178991314}},"49":{"bias":-0.1261640761047658,"weights":{"0":0.1340273062880986,"1":0.1274378674455542,"2":-0.01204304120113474,"3":-0.046183935983203986,"4":0.12918315654308218,"5":0.11583775102961232,"6":0.10753938943798881,"7":-0.05835023200177415,"8":0.16738005740498724,"9":-0.14646720275049832,"10":0.11452824070675559,"11":0.023320064304965787,"12":0.02910494535844576,"13":-0.034873169936253744,"14":-0.17639781883584427,"15":-0.02405518163669999,"16":-0.17979506001710716,"17":-0.044847848035587695,"18":-0.08810281974806358,"19":0.027231448394750543,"20":-0.08468591311971799,"21":-0.026732388671716976,"22":-0.005481999690355889,"23":0.030560315266725604,"24":-0.1977212604644505,"25":-0.11904627107135672,"26":-0.05975505710936535,"27":-0.02634357528152924,"28":0.05429868384925749,"29":0.16081845821529886,"30":-0.18430787551311337,"31":-0.15031702545587064,"32":0.13349792673408958,"33":0.1103043439734368,"34":-0.04184896703109202,"35":-0.10258201250072524,"36":-0.14473395182842289,"37":0.10691808894558825,"38":-0.13337559830763707,"39":-0.1767273091426769}}},{"0":{"bias":0.0732558357824333,"weights":{"0":-0.09202417044933738,"1":-0.10960889228627627,"2":-0.05260599983881663,"3":-0.1510028045243847,"4":0.10932381582719274,"5":-0.10975745588096131,"6":0.032713782388288204,"7":0.18176666379417608,"8":0.07187286761725402,"9":0.17875116866803423,"10":-0.03421641388126637,"11":0.15567673682204625,"12":-0.026614344784394565,"13":-0.12875928003131792,"14":-0.14581057113890677,"15":-0.13059761148000618,"16":-0.00475517944539858,"17":-0.0343979559275722,"18":0.02156337081010349,"19":0.1479581921683422,"20":-0.060127665723980206,"21":0.030532046920043462,"22":-0.06410406987926581,"23":-0.08079580684573918,"24":0.21252674301539304,"25":0.18522865109026776,"26":-0.09452730144991667,"27":0.20254709506268856,"28":0.20771233909389406,"29":0.12078056884816094,"30":-0.016719855471897322,"31":-0.14615490288628458,"32":0.023748954619131964,"33":0.17213150333805965,"34":-0.056086579917817486,"35":-0.12498952326017666,"36":0.03643577254679556,"37":-0.13286320897171472,"38":-0.14561510039812167,"39":0.03689705322205481,"40":-0.13726246349001653,"41":0.042374015313150826,"42":0.08691443509281359,"43":-0.09390957421041987,"44":0.13543359291988763,"45":-0.019547907636869633,"46":0.033064702068180615,"47":0.16346619085974523,"48":0.19398870049235287,"49":-0.1840153826180711}},"1":{"bias":0.09006400561001753,"weights":{"0":0.020770831911344077,"1":-0.1700111502109493,"2":0.13504553897652222,"3":0.0335764243985953,"4":-0.06537615834396657,"5":-0.09418281656219395,"6":0.027595316688919215,"7":-0.03193494645441301,"8":0.08637130261720692,"9":-0.04018745568472493,"10":-0.06633667487482067,"11":0.13986940364441788,"12":0.004920029581741243,"13":-0.16983693440573133,"14":0.09579438453630314,"15":0.0319865959258462,"16":0.039810183433461994,"17":-0.06514894678991602,"18":0.05547282406561497,"19":0.07523722159169663,"20":0.08373478055944115,"21":0.11445272230349651,"22":0.12560597583700223,"23":0.050479358533031614,"24":-0.16028746136134175,"25":0.048125498506398655,"26":-0.04542025127284653,"27":0.16700444455643015,"28":-0.03742758372351618,"29":0.1245041483200432,"30":0.13937026523973678,"31":0.1930690911704808,"32":-0.02776187939220581,"33":-0.17922824944386606,"34":-0.10390659579115459,"35":-0.045467560474377854,"36":0.01538948833696983,"37":-0.155510846310203,"38":0.006427841948128701,"39":0.13285379944114978,"40":0.023097212901483578,"41":-0.042531108909034145,"42":0.11851336520588705,"43":-0.09580860462898766,"44":0.16302025480666302,"45":0.000704905484972539,"46":0.16412813611211383,"47":0.19381002045231438,"48":-0.10226567595300386,"49":0.0027441545576513122}},"2":{"bias":-0.04077483649081188,"weights":{"0":0.032639644456156136,"1":0.1124188070405165,"2":-0.15772525116729014,"3":0.0003075089074805286,"4":0.14834294364582326,"5":-0.06546642093334103,"6":-0.02551510831954492,"7":-0.15664996244889653,"8":0.05506658267872012,"9":0.0995145428529748,"10":0.19809769408905353,"11":-0.05427827857771273,"12":0.046442764331844175,"13":-0.0534949317490536,"14":-0.06284928294109408,"15":0.10565119464028343,"16":-0.16948708955205571,"17":-0.15846869198549166,"18":-0.15945198522921303,"19":-0.08159891856595664,"20":0.1552193428364836,"21":-0.09540182012563475,"22":0.12592182795805923,"23":0.15178756760812112,"24":-0.18893229312867996,"25":0.12684597912283668,"26":0.12902268547597956,"27":0.179310665463554,"28":0.1498999298167988,"29":-0.19550425870127758,"30":-0.028937805839829023,"31":0.18461358114293466,"32":-0.04179350118958853,"33":0.09043363201013989,"34":0.171236177271422,"35":0.06389345941139683,"36":0.0706340673345955,"37":-0.04591247744508916,"38":-0.027486266936632794,"39":-0.09284386686537227,"40":-0.17787441576006785,"41":0.11626790182159975,"42":-0.056237592025548774,"43":-0.13300408281132972,"44":-0.08187894383109652,"45":0.17671428671289025,"46":0.1559487945135195,"47":0.04004065736634143,"48":0.19238923207472017,"49":-0.008716383324189914}},"3":{"bias":0.0971464326946926,"weights":{"0":-0.05629817567287545,"1":0.040921147314877226,"2":0.17926090774906922,"3":-0.018279986116016965,"4":-0.07969920905903395,"5":-0.09722176140823033,"6":0.024560938420563755,"7":0.15353250411147962,"8":0.051836029473700904,"9":-0.09292582793084012,"10":0.05909400318065363,"11":0.04709995222814368,"12":-0.10740115878371007,"13":0.14628478138288345,"14":-0.09109321905421984,"15":-0.012948980241757195,"16":0.02392768346892721,"17":0.056134554204796266,"18":-0.03656131833232865,"19":-0.053694299863612405,"20":0.146791660887546,"21":-0.1572453082956137,"22":0.1812765258081224,"23":-0.11470174595079283,"24":0.13935465221568885,"25":0.018757475628340486,"26":0.09823612731225749,"27":0.10423597761638446,"28":-0.1502702688561078,"29":0.08666575180961626,"30":0.05258197754978824,"31":-0.15164939125766214,"32":0.1180881488558228,"33":-0.1928000093795802,"34":0.18524336407666753,"35":0.11929582951381619,"36":-0.13905158989020183,"37":-0.14747938558385668,"38":-0.02613546600933574,"39":-0.18591076811262525,"40":-0.06705376292288288,"41":-0.11592647966335909,"42":-0.05546683053468471,"43":-0.09170717976907056,"44":-0.0005669459344838332,"45":0.0859724493074082,"46":0.09859929610695603,"47":-0.19518370816177572,"48":-0.13318322697869675,"49":0.16134776830199943}},"4":{"bias":0.1927431543297188,"weights":{"0":0.14204746508548005,"1":-0.06531419552952689,"2":-0.15767053918078083,"3":-0.0005031488862293036,"4":-0.02437413812542389,"5":-0.026654010551041964,"6":0.0621269929620766,"7":-0.11142250620774416,"8":-0.1497848131975719,"9":0.1823355905256037,"10":0.05053764686850554,"11":0.04964715927591469,"12":0.10839922682987103,"13":-0.13903853518261955,"14":0.043189737125689666,"15":-0.18993534161169456,"16":-0.12387576438173468,"17":0.09914529281559599,"18":0.13034618404698003,"19":0.09082430703279509,"20":0.19404548017638393,"21":0.02692095392247176,"22":0.07734191509709944,"23":-0.1595672923300544,"24":0.18589995650556357,"25":0.16558840543164308,"26":-0.10957162640761105,"27":-0.13483372922028986,"28":-0.12614613368536876,"29":0.14955298682968757,"30":-0.15663560148682049,"31":-0.03673997958963903,"32":0.13292070856733773,"33":-0.050475962204444946,"34":0.14043533704850802,"35":0.07870851992025865,"36":-0.12192400767700978,"37":-0.07749486402833612,"38":0.1433150655938305,"39":0.0009868707866279604,"40":0.19054244224056735,"41":0.07356338481301719,"42":-0.14869644564735912,"43":-0.06727143709824818,"44":-0.17301428450251796,"45":-0.0007427713759515016,"46":-0.14646763493626394,"47":0.13261386597684538,"48":0.14637679616880384,"49":-0.01449932074398326}},"5":{"bias":0.06328783180723181,"weights":{"0":0.10205161057752021,"1":-0.12613827977511846,"2":-0.18778411242785734,"3":0.0697202765995936,"4":-0.0988190665119732,"5":-0.16303723006091195,"6":-0.0013614514010809992,"7":0.09983741125336898,"8":-0.0938070691418151,"9":0.19458111559873242,"10":0.04916425761874149,"11":0.08827389047185691,"12":-0.10283335256627632,"13":-0.14821046010031186,"14":-0.16163750321395473,"15":-0.016488608952297874,"16":0.1415491864859971,"17":0.12088625878839024,"18":-0.08331607441563932,"19":-0.09725029209917946,"20":-0.10714997091297394,"21":-0.08657459510663344,"22":0.183273441961646,"23":0.04584129026185001,"24":0.06779108208350948,"25":0.15655765418550932,"26":0.1452773118221811,"27":0.18316318170130355,"28":0.10065232902811576,"29":-0.18918706724816964,"30":-0.04559392396607993,"31":-0.15343888785926205,"32":0.16243404083880186,"33":-0.15037910093910764,"34":-0.04245215772658997,"35":-0.02678755654861487,"36":-0.033133305048934594,"37":-0.139275136183169,"38":0.058904286839678854,"39":0.004241094836262942,"40":-0.12690237880738905,"41":0.17635706182808739,"42":0.19953020592899295,"43":0.05667898671063411,"44":0.154720391619703,"45":-0.13045356632669783,"46":0.15912672608109463,"47":-0.14542251825782881,"48":0.05496217706121513,"49":-0.1679313256941962}},"6":{"bias":-0.029399394086255543,"weights":{"0":0.13962365436038024,"1":0.07416219319797582,"2":0.11877175712594132,"3":-0.047815003250461535,"4":-0.14450468048733547,"5":0.07627206116573722,"6":0.11390909539069596,"7":0.13565458994023605,"8":-0.10658470627114636,"9":-0.1963715157868789,"10":-0.07215299286128167,"11":0.014376347645410348,"12":-0.18303598241968597,"13":-0.11803121670758414,"14":-0.1366061975970854,"15":0.1257769260000634,"16":0.11269102856531235,"17":-0.1370234047843228,"18":0.14329431977596857,"19":0.07075477295160783,"20":0.11031859033280601,"21":0.15411122368301367,"22":-0.1602104351997042,"23":0.15520936652975842,"24":-0.028692313621521366,"25":-0.11493281528270319,"26":-0.027796888229004446,"27":-0.05697278630108347,"28":-0.10574252994310526,"29":-0.07775417727472948,"30":-0.09896670700696679,"31":-0.1701082891743027,"32":-0.09545540613171802,"33":-0.13156895209190067,"34":0.16627228579373315,"35":-0.014469661548365483,"36":-0.08922330970440151,"37":0.15331127818949714,"38":0.12995602849112547,"39":0.0649566780780466,"40":0.1375651528511066,"41":-0.1717529033991875,"42":0.1922939911500139,"43":-0.1865292790099387,"44":-0.09208630385229961,"45":0.06686392900550904,"46":0.116551342449164,"47":0.04999748624090032,"48":-0.15382624337513423,"49":-0.00005931816814501467}},"7":{"bias":0.04913520374688144,"weights":{"0":-0.0681159826668906,"1":0.04326440380438621,"2":0.11020280583436161,"3":0.10043570687453306,"4":0.19424099299006423,"5":0.10175190685670875,"6":-0.010460913822111059,"7":-0.010504824195492798,"8":0.12604563770896446,"9":-0.18420160042993552,"10":-0.18084575815064036,"11":0.15159054706994507,"12":0.04487653780778425,"13":-0.03888977640987586,"14":-0.00991020929220587,"15":0.1108161866305037,"16":0.19252043270169925,"17":0.14654504441432015,"18":0.16045763786107722,"19":0.06829117676067883,"20":0.028901945690803104,"21":-0.07516373320956474,"22":-0.09028765088304397,"23":-0.08565022779363957,"24":-0.07727448750986822,"25":0.04879239633676797,"26":-0.12566773587028962,"27":0.03030117785363765,"28":0.06916920818384337,"29":-0.10406093547991073,"30":0.16929064608889857,"31":-0.13049760269017785,"32":0.08085029928252256,"33":-0.023572011164259957,"34":-0.1224684295246951,"35":-0.10164984905026403,"36":0.15284739864108868,"37":0.05084390729642039,"38":0.017051715661592786,"39":-0.19262687913532242,"40":0.19644068534566766,"41":-0.0667707582463748,"42":0.12401379981608565,"43":0.13542880880336525,"44":0.14553499792824415,"45":-0.1586622722697803,"46":-0.067201857183806,"47":0.16476309209941492,"48":0.1410639352723259,"49":-0.002340941310503975}},"8":{"bias":-0.02423997557133016,"weights":{"0":0.14422623701400736,"1":-0.08508106954917316,"2":0.05689829319382678,"3":0.12289166840955008,"4":-0.0019390056250732982,"5":0.14294977341486442,"6":-0.05449357838947191,"7":0.07543970265681098,"8":-0.17450866919805497,"9":-0.060592709360280106,"10":0.16668375757611464,"11":0.13923448389883003,"12":0.1053044741437718,"13":0.11575010712036354,"14":-0.19056243405353246,"15":-0.16025014907221555,"16":0.055142540261905966,"17":0.16050203254425208,"18":0.07048356473796324,"19":-0.08989706875307538,"20":0.12218609811419824,"21":-0.1921477702747061,"22":0.02343558599171024,"23":-0.19570465817771202,"24":-0.09608077304621643,"25":0.07987580444129015,"26":-0.07234491416997438,"27":-0.1768253521951992,"28":-0.045601034463664494,"29":-0.1424018336872253,"30":-0.1254311528188995,"31":-0.16482561238304969,"32":-0.07585182778242305,"33":0.05221782113628096,"34":0.07050607123056855,"35":0.12671143233547666,"36":-0.05206226159909643,"37":-0.027188184471051393,"38":0.19358684800934384,"39":-0.040359451933492746,"40":0.010262040631953812,"41":-0.11453215604566813,"42":0.17511180893241218,"43":-0.06577692435949652,"44":0.07880720645870055,"45":-0.17352039527089352,"46":-0.0637246185904602,"47":0.0419360133161232,"48":0.0372700910630226,"49":-0.19479737924390217}},"9":{"bias":0.16214424037155253,"weights":{"0":-0.011521265986822082,"1":0.012028159086084601,"2":0.19369716322451916,"3":-0.012521214851771661,"4":0.13025647357354958,"5":0.021079298379780398,"6":0.093596247485304,"7":-0.01351254980634339,"8":-0.05032574115646374,"9":-0.15234537923819447,"10":-0.14529558860998726,"11":0.06994929288419921,"12":0.18572299204585718,"13":-0.14045931435755576,"14":0.0569351485978136,"15":0.15966522379746703,"16":-0.05439808892651572,"17":-0.07253995070467467,"18":-0.17380752990289222,"19":-0.1414936070983105,"20":0.06291577927327877,"21":-0.004895148236736477,"22":0.2104317385431852,"23":-0.008728002900323457,"24":-0.15259387213771503,"25":-0.19287732262848087,"26":0.09224918659105576,"27":-0.13062952534635505,"28":0.03938337748560515,"29":-0.11334066009697072,"30":-0.20272034165791114,"31":-0.09888790393446634,"32":0.05450102609918966,"33":0.11995542545831657,"34":0.108390531101541,"35":0.08831859968622204,"36":0.10889876020742656,"37":0.06093797161762006,"38":0.09593221860534884,"39":0.0452849729727221,"40":0.11664178600479044,"41":-0.05190385968595233,"42":-0.1732125692365598,"43":0.029350544795570074,"44":-0.013609564699820836,"45":0.12944738587628699,"46":-0.19287020616816855,"47":-0.06849796477105734,"48":0.0698032827593225,"49":-0.010702399388174308}},"10":{"bias":0.0878601780952058,"weights":{"0":-0.1481240072003777,"1":-0.05805915213224616,"2":-0.06991659276054556,"3":0.031428519699362334,"4":-0.009241447463008578,"5":-0.08641828886060297,"6":0.1380015982317341,"7":0.18276669588084377,"8":-0.08769763712246047,"9":-0.11359555732817968,"10":-0.08735689381534237,"11":-0.0708493879907264,"12":-0.019597753156066728,"13":-0.13308273890959144,"14":0.014112528600243679,"15":-0.033185737650219684,"16":0.009689740378945872,"17":-0.0071629398555559986,"18":-0.07484118147781277,"19":-0.024234807111579305,"20":-0.16015799406119505,"21":0.02995827787169225,"22":-0.04797828280416061,"23":0.09681556593032464,"24":-0.03123515487037805,"25":0.06358208475409252,"26":-0.19457693368304008,"27":0.027600781205991614,"28":0.01267451031351725,"29":0.0033916239412717045,"30":0.020966912549466872,"31":-0.1954216738602579,"32":0.19033908857878565,"33":0.0008527450933391181,"34":0.11934857647572165,"35":0.07049460133849522,"36":0.04466909420358535,"37":0.1022407398296615,"38":-0.03368487414396884,"39":-0.18785191097698556,"40":-0.09564656117198983,"41":-0.06790133744888921,"42":0.016903398225844034,"43":-0.04272571987563426,"44":-0.14357112980569015,"45":-0.02298956130071638,"46":0.07608719189965218,"47":-0.04579811529836911,"48":0.10752395908293956,"49":0.1065096788842109}},"11":{"bias":0.0380479786315303,"weights":{"0":-0.09278207277705271,"1":-0.0700368365531431,"2":-0.15722473201626347,"3":-0.20492707115522632,"4":0.04757361397851121,"5":-0.057937957744009255,"6":-0.1463950736120041,"7":0.06577977092359964,"8":0.05230379951475357,"9":0.11101571793138922,"10":0.16087407061641568,"11":0.10159385963738701,"12":-0.13552079775125073,"13":-0.0713819291324389,"14":0.020162641417423747,"15":0.007983138543832775,"16":-0.18693968212871925,"17":-0.12976227712196203,"18":0.046795893039054924,"19":-0.10497697851420967,"20":0.11714488844411815,"21":-0.13152807134050362,"22":0.1334337740551159,"23":-0.1417113335202522,"24":-0.17249642639136512,"25":0.10021316223648728,"26":-0.12342462757551227,"27":-0.1803284491982244,"28":0.11318982582639422,"29":-0.0035904085113471523,"30":-0.18663826836017397,"31":-0.13762488898556022,"32":-0.02572090558303102,"33":-0.12618953169523023,"34":0.15177471043139412,"35":0.19452493279961358,"36":-0.12834673387917522,"37":-0.19096865085404233,"38":0.06369500182878732,"39":-0.15285402815825577,"40":-0.031982311744836324,"41":-0.0955053597543079,"42":0.13148691378394523,"43":0.01892937513162602,"44":-0.1859517105880848,"45":-0.20359476314401548,"46":0.00941356320678846,"47":-0.023922833268122095,"48":-0.030068964147300956,"49":-0.051975995790264816}},"12":{"bias":-0.18340549094553632,"weights":{"0":0.024982666831975163,"1":-0.06867803779296726,"2":-0.18581445168920757,"3":-0.20815569972777043,"4":0.02519084194829633,"5":0.04630248426118312,"6":-0.03330078435589554,"7":0.10138122666657931,"8":-0.11361808488392246,"9":-0.13544436644731786,"10":-0.02009977579024174,"11":0.046326445249799654,"12":0.18159447903328013,"13":0.16289395522165587,"14":0.18934494836550214,"15":0.1440492111411155,"16":-0.042873342515179526,"17":-0.16614555358147948,"18":0.12213282801713977,"19":-0.17666172318177945,"20":-0.03764729258930647,"21":0.03510753527831933,"22":-0.12179478037269631,"23":0.10096312022628426,"24":-0.15629973900520858,"25":0.15768273043314948,"26":-0.10194853012084414,"27":0.12140563147969044,"28":-0.0805975792424273,"29":0.03563289444864805,"30":-0.09662415735584598,"31":0.11393797880172424,"32":0.036776818941994194,"33":0.09630515212190148,"34":-0.11100467783768285,"35":-0.17051020646434872,"36":0.02403651863528517,"37":0.0036202609541346182,"38":0.10541713284636621,"39":-0.07137440359244049,"40":0.015398916223265151,"41":0.032606669908976094,"42":0.07016838067139836,"43":0.08897412021416726,"44":-0.10677089765739342,"45":0.09614397658721521,"46":-0.14127694893426396,"47":0.0351809618781172,"48":0.07702971041971567,"49":-0.08863732783454818}},"13":{"bias":0.03377481381826091,"weights":{"0":-0.022555618199602164,"1":0.1818356721878862,"2":0.10129922741726201,"3":-0.15198220432020043,"4":-0.009604656994445944,"5":0.08806321905084148,"6":0.09696146620159998,"7":-0.1741039103214518,"8":0.1384386692872992,"9":0.019259512918775184,"10":0.190554092274548,"11":-0.022690822257800097,"12":-0.13156731259668494,"13":-0.06198719718775619,"14":-0.07961217843571293,"15":0.19269363979664345,"16":-0.12094485476856207,"17":-0.12778683866363275,"18":-0.03606976885975353,"19":0.10124855863437297,"20":-0.08590885201507643,"21":0.11391295492330726,"22":0.11528018622043255,"23":0.1865994003172895,"24":0.08852718775727231,"25":0.14481221205275333,"26":0.1072235169448966,"27":0.14501721695018613,"28":-0.17163731674991378,"29":-0.11480413394565837,"30":0.09012661828796831,"31":0.12953616117515512,"32":0.15265568857830758,"33":-0.15065501063369274,"34":-0.0382844237925575,"35":-0.1158077964927175,"36":0.14511362982597126,"37":-0.09334319020091211,"38":-0.1400268637149082,"39":0.06568772797367572,"40":-0.1938087330732614,"41":0.06806157388932065,"42":0.17914156726125657,"43":0.11193468451836157,"44":0.13061927815351496,"45":-0.16655426105785967,"46":0.1599669394181406,"47":0.15027957356483088,"48":0.06316135140660102,"49":-0.01892565278221142}},"14":{"bias":0.03571785500468786,"weights":{"0":-0.13996765041622164,"1":-0.10932535778883432,"2":-0.04019965806775077,"3":-0.14314097026028566,"4":0.060631563947257855,"5":-0.16310960631882804,"6":-0.08596298231055664,"7":-0.026822976152121408,"8":-0.027353332066764914,"9":-0.06937431299864728,"10":-0.01163604287454036,"11":0.06608961084666806,"12":0.051410256945182364,"13":0.003106737321168174,"14":-0.16550803944920078,"15":0.02714609682628276,"16":0.017625785383093447,"17":0.07768804871993552,"18":-0.12979919283057612,"19":0.14150923022226508,"20":0.05111817078776747,"21":0.04760412079827877,"22":-0.1207229137942309,"23":-0.030720990939931848,"24":0.16427808012524578,"25":-0.15435283697987498,"26":-0.04925570380665878,"27":-0.14742892951761244,"28":0.07395827204407865,"29":-0.19040588118753146,"30":0.0011469660469812285,"31":0.09977555251436608,"32":0.1158669105842792,"33":-0.15571309574378092,"34":0.1738134777379906,"35":0.08790826153121985,"36":-0.08090460851337046,"37":-0.11827266933208179,"38":-0.1451944734695478,"39":0.13272229733709226,"40":-0.19931769185166762,"41":0.18997822120655658,"42":-0.07006329270355978,"43":0.009680648106571732,"44":0.010294629842337671,"45":-0.17748680489867522,"46":0.11293804593736706,"47":-0.12429036635075592,"48":-0.023243695678609146,"49":0.14058929147498864}},"15":{"bias":0.04755128691481754,"weights":{"0":0.08171382565015285,"1":0.18778359657269575,"2":0.12439655274108051,"3":0.02401959812182291,"4":0.15093711919750627,"5":0.11246688804555903,"6":-0.10961902835895271,"7":0.08103809494058002,"8":0.05396049032813018,"9":0.14883477767481954,"10":0.18371491399311624,"11":0.18203567215849928,"12":0.012371925986087976,"13":0.16895041559513974,"14":-0.0288457871721472,"15":0.09374668263001706,"16":0.13503201387038088,"17":-0.12864189559116987,"18":0.12751926357822238,"19":0.09342598495578226,"20":-0.049755325907490204,"21":0.020520834544841774,"22":-0.17499494709343005,"23":0.08459236711003365,"24":-0.07342851418920117,"25":0.15877518321923614,"26":0.10324629116026442,"27":0.10773778429748422,"28":0.013202232216967662,"29":0.11569519159636125,"30":-0.02021902533918604,"31":0.1628861125577837,"32":0.14074684465363504,"33":0.020965154415308947,"34":-0.18294206347522374,"35":0.17029429115966774,"36":-0.1296831682304778,"37":-0.06347034608403178,"38":0.04507415412723805,"39":-0.1385157107018069,"40":0.032638996791951674,"41":0.1182399749590627,"42":-0.07817959307420476,"43":-0.1948726182901318,"44":0.13630213626756915,"45":-0.06312592747930408,"46":0.05562244497043018,"47":-0.06449069174747844,"48":0.011777108851403206,"49":-0.0018916841417386946}},"16":{"bias":0.07138838515113297,"weights":{"0":0.17498352941123288,"1":-0.01482212371524657,"2":-0.006796617167902786,"3":0.19544115920311994,"4":0.04051772001700525,"5":0.1934413241216302,"6":-0.11453055105170803,"7":0.13711039038879475,"8":0.10105212809283853,"9":0.1445198954415318,"10":-0.0026607066412088274,"11":0.05083111487113469,"12":0.1629686968851529,"13":-0.13671348412914375,"14":0.02236722610655132,"15":0.04137956531075572,"16":0.15607600356216886,"17":0.09643418208389073,"18":-0.023473616196673847,"19":0.0025938507035730657,"20":0.1268213173670958,"21":-0.061630077314281564,"22":-0.17112944562475252,"23":0.08423152326915916,"24":-0.11427600345485751,"25":0.04997901362790456,"26":-0.13405471056048052,"27":0.18624270464788273,"28":-0.1118139254853278,"29":0.17619441123867643,"30":-0.04196086670936986,"31":0.112463782005545,"32":-0.08441413999091416,"33":0.17156520493578675,"34":0.16143609363025685,"35":-0.02953566370160319,"36":0.06992450253855417,"37":-0.052953527204738504,"38":0.033229086794239665,"39":0.19208328880076128,"40":0.09035319529674453,"41":-0.134327251051611,"42":0.19587594625044485,"43":0.18910894235027886,"44":-0.11517253976608975,"45":0.05417423991956932,"46":-0.12044616242220688,"47":0.0234114260410019,"48":0.12700487914116879,"49":0.16431021251592262}},"17":{"bias":-0.0883720486568044,"weights":{"0":0.17272988776369028,"1":-0.09735027004267678,"2":-0.0378388162973303,"3":0.11121068631608234,"4":-0.09062245597224858,"5":0.09904986545709601,"6":0.18610240843832315,"7":-0.14230931916854175,"8":-0.0015358004500768865,"9":0.18731294509373586,"10":0.09957256143522988,"11":0.19347899367271845,"12":0.02908633583168832,"13":-0.0983505013173529,"14":-0.20555455797936856,"15":0.20172396672964704,"16":-0.05448872962226059,"17":-0.04041777799786843,"18":0.05057896117671956,"19":-0.18685193797245048,"20":0.19117307979052583,"21":-0.03393353505464721,"22":0.03543500427172496,"23":0.17689625553094987,"24":-0.1504606751591172,"25":0.1663638091119914,"26":0.1103402922968573,"27":-0.15547074431223462,"28":0.15624887053180947,"29":0.15316164083575196,"30":-0.03728157212588698,"31":-0.19678587552219193,"32":0.061767319820057794,"33":0.20235830575897484,"34":0.12364276898561574,"35":-0.19824602912926387,"36":0.13190814883332092,"37":0.039285138631325885,"38":-0.018796258322316652,"39":0.008834668484167004,"40":0.006144375808770402,"41":-0.05131155152163552,"42":0.10221434641613412,"43":0.15194554522396944,"44":0.08456936322192857,"45":-0.11497697317001788,"46":0.13266907181570967,"47":-0.15515635206274284,"48":-0.016428981205050413,"49":-0.18425256670126555}},"18":{"bias":0.14724047837586418,"weights":{"0":0.07226005762233009,"1":-0.020795950916943327,"2":0.053557193880573915,"3":0.07648465448245698,"4":0.04798996481685625,"5":-0.1164552517197788,"6":0.09274050789206484,"7":0.019814638959254536,"8":-0.15738501055285845,"9":-0.1901014432132341,"10":0.12986085839532535,"11":0.09491497257818639,"12":0.10899908230974305,"13":-0.028149289239445516,"14":0.07153660130384033,"15":-0.11099683857098386,"16":0.0012155127508694406,"17":-0.1627452152296131,"18":0.1268948473968799,"19":-0.1436571475153224,"20":0.18548154722933066,"21":-0.1557194305555003,"22":-0.03683119882761594,"23":0.05678662608891817,"24":-0.139622542715092,"25":0.10214890930134583,"26":0.12341031667334869,"27":-0.08834441315205326,"28":0.05123342370910052,"29":-0.035580738059405474,"30":-0.07611774013438857,"31":0.00577258940044454,"32":0.039561259752844274,"33":0.04581734378310806,"34":-0.05323163370618643,"35":-0.18787948147537997,"36":0.17331341459609304,"37":-0.19796278684120405,"38":-0.037836910496428164,"39":-0.16669218859253007,"40":-0.010117472338203001,"41":0.10557575460442971,"42":0.1479899120161022,"43":-0.06706273462224385,"44":0.049029359179367425,"45":-0.07006035556196397,"46":0.0823427180704084,"47":0.19475645620803436,"48":-0.07773525472574175,"49":-0.001744449874329536}},"19":{"bias":-0.17289762142766524,"weights":{"0":0.1909322104916354,"1":0.08718247677200881,"2":-0.09388721594555523,"3":0.1584659748920743,"4":0.011111323762318126,"5":0.14283632755270884,"6":-0.13380813318294707,"7":-0.00844347031484478,"8":-0.1541734092968619,"9":-0.013933270452665143,"10":0.005908861252587669,"11":-0.10492317432502926,"12":0.09193258098360566,"13":0.17653281975412438,"14":0.02898079567295373,"15":0.19376682722502417,"16":0.014182621321805535,"17":-0.1413853055125496,"18":0.021095099692807293,"19":0.18089557875601758,"20":-0.1842115069572014,"21":-0.03165686280546213,"22":-0.003403557915227132,"23":0.1842151817859554,"24":0.1873372494002033,"25":0.19539877511994738,"26":0.09721326203338046,"27":-0.1081177114535638,"28":-0.12674400218060403,"29":-0.09143197754126679,"30":0.08885023679203918,"31":0.062462882387484334,"32":-0.11918245386475182,"33":-0.055334696237861476,"34":0.16234811822050163,"35":-0.07337723902994413,"36":-0.025273369920884133,"37":-0.06717930817681055,"38":0.016031882377381665,"39":-0.019261433646112307,"40":-0.14683487828533728,"41":-0.06346404217610864,"42":-0.18292949504256478,"43":0.16815926428439984,"44":-0.12097864236663027,"45":-0.15070026819924004,"46":0.15346279456707995,"47":0.10617817557130653,"48":-0.09275462324162898,"49":-0.15221076369388511}}},{"0":{"bias":0.21879524330511324,"weights":{"0":0.3713290446733221,"1":-0.012074942320683674,"2":0.1667937142670588,"3":0.03667214408599385,"4":0.246211671658321,"5":0.23652780911756024,"6":0.05393840483339053,"7":-0.12476773850091206,"8":0.007900764234740613,"9":0.29456919877380017,"10":0.12360900222911377,"11":0.40961901287881003,"12":-0.17143604753025976,"13":0.176524120274208,"14":0.25076480140191937,"15":0.0973593103725946,"16":-0.15920436348655045,"17":0.30382858829421827,"18":0.10820676645392238,"19":-0.18540026656665212}}}],"outputLookup":false,"inputLookup":false}